~o
<STREAMINFO> 1 6
<VECSIZE> 6<NULLD><USER><DIAGC>
~h "proto"
<BEGINHMM>
<NUMSTATES> 12
<STATE> 2
<MEAN> 6
 4.180897e-01 2.344105e-01 1.562555e-02 1.923928e-02 -1.482780e-02 1.019850e-02
<VARIANCE> 6
 3.383981e-03 8.960270e-03 3.601473e-04 4.429655e-04 5.783702e-04 5.621885e-04
<GCONST> -2.996638e+01
<STATE> 3
<MEAN> 6
 3.770291e-01 3.062820e-01 -2.675088e-02 -1.221157e-02 -5.094354e-04 -2.257184e-02
<VARIANCE> 6
 5.113276e-03 9.984195e-03 1.887413e-04 7.628286e-04 1.047403e-03 2.763497e-04
<GCONST> -2.966430e+01
<STATE> 4
<MEAN> 6
 3.366634e-01 2.018435e-01 2.278425e-02 -6.548981e-02 5.043618e-02 -3.052208e-04
<VARIANCE> 6
 4.470608e-03 6.435148e-03 2.089441e-03 5.745665e-04 1.767591e-03 1.968493e-03
<GCONST> -2.563033e+01
<STATE> 5
<MEAN> 6
 3.786688e-01 1.078633e-01 3.946174e-02 -2.311420e-02 1.254599e-02 1.526735e-02
<VARIANCE> 6
 5.068760e-03 1.297165e-02 1.415612e-03 3.080811e-04 2.500267e-04 9.662784e-04
<GCONST> -2.848373e+01
<STATE> 6
<MEAN> 6
 5.411827e-01 9.504259e-02 7.973137e-02 2.071414e-02 -2.329698e-02 4.377075e-02
<VARIANCE> 6
 4.501686e-03 5.864130e-03 1.019640e-03 9.028267e-04 1.812506e-03 1.141958e-03
<GCONST> -2.650128e+01
<STATE> 7
<MEAN> 6
 6.161589e-01 1.698594e-01 1.836273e-02 4.955022e-02 -3.411195e-02 3.192138e-03
<VARIANCE> 6
 4.744956e-03 1.236596e-02 5.081665e-04 5.707079e-04 1.563224e-03 3.231822e-04
<GCONST> -2.826785e+01
<STATE> 8
<MEAN> 6
 6.334692e-01 2.588634e-01 -4.511079e-02 2.975543e-02 -2.637842e-02 -5.155256e-02
<VARIANCE> 6
 5.729587e-03 5.393797e-03 7.288444e-04 1.658061e-03 2.900690e-03 1.943358e-03
<GCONST> -2.506965e+01
<STATE> 9
<MEAN> 6
 5.447080e-01 2.714660e-01 -3.191658e-02 -9.577396e-03 1.343846e-02 -2.628113e-02
<VARIANCE> 6
 2.527605e-03 1.187993e-02 1.840963e-04 6.550387e-04 5.976281e-04 2.427870e-04
<GCONST> -3.106286e+01
<STATE> 10
<MEAN> 6
 5.192981e-01 2.057581e-01 1.008174e-03 -3.343424e-02 -4.967490e-04 1.284920e-02
<VARIANCE> 6
 2.994092e-03 9.298823e-03 3.538048e-04 1.969761e-04 1.585755e-03 2.978282e-04
<GCONST> -3.050660e+01
<STATE> 11
<MEAN> 6
 4.770828e-01 1.644132e-01 -4.553379e-02 -5.454308e-03 -2.198932e-02 6.033259e-03
<VARIANCE> 6
 6.537013e-03 1.107218e-02 8.566384e-04 7.554933e-05 1.410433e-03 1.653853e-04
<GCONST> -3.033064e+01
<TRANSP> 12
 0.000000e+00 1.000000e+00 0.000000e+00 0.000000e+00 0.000000e+00 0.000000e+00 0.000000e+00 0.000000e+00 0.000000e+00 0.000000e+00 0.000000e+00 0.000000e+00
 0.000000e+00 8.821657e-01 1.178343e-01 0.000000e+00 0.000000e+00 0.000000e+00 0.000000e+00 0.000000e+00 0.000000e+00 0.000000e+00 0.000000e+00 0.000000e+00
 0.000000e+00 0.000000e+00 9.120187e-01 8.798128e-02 0.000000e+00 0.000000e+00 0.000000e+00 0.000000e+00 0.000000e+00 0.000000e+00 0.000000e+00 0.000000e+00
 0.000000e+00 0.000000e+00 0.000000e+00 8.197018e-01 1.802982e-01 0.000000e+00 0.000000e+00 0.000000e+00 0.000000e+00 0.000000e+00 0.000000e+00 0.000000e+00
 0.000000e+00 0.000000e+00 0.000000e+00 0.000000e+00 8.829807e-01 1.170193e-01 0.000000e+00 0.000000e+00 0.000000e+00 0.000000e+00 0.000000e+00 0.000000e+00
 0.000000e+00 0.000000e+00 0.000000e+00 0.000000e+00 0.000000e+00 8.195075e-01 1.804925e-01 0.000000e+00 0.000000e+00 0.000000e+00 0.000000e+00 0.000000e+00
 0.000000e+00 0.000000e+00 0.000000e+00 0.000000e+00 0.000000e+00 0.000000e+00 8.578585e-01 1.421416e-01 0.000000e+00 0.000000e+00 0.000000e+00 0.000000e+00
 0.000000e+00 0.000000e+00 0.000000e+00 0.000000e+00 0.000000e+00 0.000000e+00 0.000000e+00 7.568868e-01 2.431132e-01 0.000000e+00 0.000000e+00 0.000000e+00
 0.000000e+00 0.000000e+00 0.000000e+00 0.000000e+00 0.000000e+00 0.000000e+00 0.000000e+00 0.000000e+00 8.360536e-01 1.639464e-01 0.000000e+00 0.000000e+00
 0.000000e+00 0.000000e+00 0.000000e+00 0.000000e+00 0.000000e+00 0.000000e+00 0.000000e+00 0.000000e+00 0.000000e+00 8.617587e-01 1.382413e-01 0.000000e+00
 0.000000e+00 0.000000e+00 0.000000e+00 0.000000e+00 0.000000e+00 0.000000e+00 0.000000e+00 0.000000e+00 0.000000e+00 0.000000e+00 8.418406e-01 1.581594e-01
 0.000000e+00 0.000000e+00 0.000000e+00 0.000000e+00 0.000000e+00 0.000000e+00 0.000000e+00 0.000000e+00 0.000000e+00 0.000000e+00 0.000000e+00 0.000000e+00
<ENDHMM>
