~o
<STREAMINFO> 1 7
<VECSIZE> 7<NULLD><USER><DIAGC>
~h "proto"
<BEGINHMM>
<NUMSTATES> 12
<STATE> 2
<MEAN> 7
 4.223250e-01 2.297699e-01 1.138981e-02 2.074080e-02 -1.768348e-02 6.634731e-03 1.080551e+01
<VARIANCE> 7
 3.080455e-03 6.377883e-03 4.050329e-04 3.883302e-04 6.120143e-04 6.475853e-04 8.919226e+02
<GCONST> -2.158529e+01
<STATE> 3
<MEAN> 7
 3.888643e-01 2.923468e-01 -3.084257e-02 -1.091597e-02 1.049815e-03 -3.057926e-02 1.481843e+01
<VARIANCE> 7
 3.918017e-03 7.670483e-03 2.169402e-04 7.767123e-04 1.416019e-03 5.844174e-04 2.494147e+02
<GCONST> -2.162942e+01
<STATE> 4
<MEAN> 7
 3.348001e-01 1.807661e-01 5.172086e-03 -4.447659e-02 2.480030e-02 -2.527064e-03 1.800788e+00
<VARIANCE> 7
 3.347900e-03 6.719108e-03 5.972275e-04 5.103742e-04 1.171966e-03 6.787940e-04 1.746689e+01
<GCONST> -2.402462e+01
<STATE> 5
<MEAN> 7
 3.970964e-01 1.318499e-01 7.446696e-02 -5.343810e-02 4.965898e-02 3.387418e-02 1.429178e+00
<VARIANCE> 7
 3.885240e-03 5.695911e-03 1.883050e-03 1.033696e-03 1.344964e-03 2.250066e-03 2.996377e+00
<GCONST> -2.261370e+01
<STATE> 6
<MEAN> 7
 4.991312e-01 6.882451e-02 6.004593e-02 8.187369e-03 -9.190799e-03 2.846210e-02 6.787480e+00
<VARIANCE> 7
 5.538083e-03 7.977523e-03 1.167481e-03 4.920196e-04 8.734674e-04 8.782237e-04 3.836910e+01
<GCONST> -2.196539e+01
<STATE> 7
<MEAN> 7
 6.308411e-01 1.587456e-01 4.002320e-02 6.908337e-02 -7.103067e-02 1.697096e-02 3.605497e+00
<VARIANCE> 7
 4.741936e-03 6.400516e-03 2.569780e-03 1.136433e-03 4.911910e-03 3.879993e-03 5.623231e+01
<GCONST> -1.711987e+01
<STATE> 8
<MEAN> 7
 6.159275e-01 2.030173e-01 -1.280139e-02 4.324783e-02 -2.967204e-02 -2.044604e-02 -6.983880e-01
<VARIANCE> 7
 4.567729e-03 8.025446e-03 7.105971e-04 3.356412e-04 3.120630e-04 8.072480e-04 3.414203e+01
<GCONST> -2.426127e+01
<STATE> 9
<MEAN> 7
 5.560536e-01 2.687849e-01 -3.934290e-02 -1.213565e-02 1.670298e-02 -3.904198e-02 2.325004e+01
<VARIANCE> 7
 3.863503e-03 6.631545e-03 3.666263e-04 6.466205e-04 7.746980e-04 7.821781e-04 4.489294e+02
<GCONST> -2.117148e+01
<STATE> 10
<MEAN> 7
 5.091459e-01 1.878407e-01 -8.738662e-03 -2.723530e-02 1.319289e-03 8.194639e-03 6.423995e+00
<VARIANCE> 7
 4.358187e-03 6.496300e-03 5.381778e-04 3.064967e-04 1.020761e-03 2.712770e-04 3.543697e+02
<GCONST> -2.245394e+01
<STATE> 11
<MEAN> 7
 5.006011e-01 1.368594e-01 -4.401879e-02 -7.434922e-03 -3.377019e-02 9.613796e-03 1.122014e+02
<VARIANCE> 7
 6.907234e-03 7.127733e-03 1.216083e-03 1.015449e-04 1.990806e-03 2.315461e-04 5.030949e+05
<GCONST> -1.442235e+01
<TRANSP> 12
 0.000000e+00 1.000000e+00 0.000000e+00 0.000000e+00 0.000000e+00 0.000000e+00 0.000000e+00 0.000000e+00 0.000000e+00 0.000000e+00 0.000000e+00 0.000000e+00
 0.000000e+00 8.793091e-01 1.206909e-01 0.000000e+00 0.000000e+00 0.000000e+00 0.000000e+00 0.000000e+00 0.000000e+00 0.000000e+00 0.000000e+00 0.000000e+00
 0.000000e+00 0.000000e+00 8.816655e-01 1.183345e-01 0.000000e+00 0.000000e+00 0.000000e+00 0.000000e+00 0.000000e+00 0.000000e+00 0.000000e+00 0.000000e+00
 0.000000e+00 0.000000e+00 0.000000e+00 8.773704e-01 1.226297e-01 0.000000e+00 0.000000e+00 0.000000e+00 0.000000e+00 0.000000e+00 0.000000e+00 0.000000e+00
 0.000000e+00 0.000000e+00 0.000000e+00 0.000000e+00 7.429528e-01 2.570472e-01 0.000000e+00 0.000000e+00 0.000000e+00 0.000000e+00 0.000000e+00 0.000000e+00
 0.000000e+00 0.000000e+00 0.000000e+00 0.000000e+00 0.000000e+00 8.735519e-01 1.264481e-01 0.000000e+00 0.000000e+00 0.000000e+00 0.000000e+00 0.000000e+00
 0.000000e+00 0.000000e+00 0.000000e+00 0.000000e+00 0.000000e+00 0.000000e+00 7.067822e-01 2.932178e-01 0.000000e+00 0.000000e+00 0.000000e+00 0.000000e+00
 0.000000e+00 0.000000e+00 0.000000e+00 0.000000e+00 0.000000e+00 0.000000e+00 0.000000e+00 8.421700e-01 1.578300e-01 0.000000e+00 0.000000e+00 0.000000e+00
 0.000000e+00 0.000000e+00 0.000000e+00 0.000000e+00 0.000000e+00 0.000000e+00 0.000000e+00 0.000000e+00 8.218496e-01 1.781504e-01 0.000000e+00 0.000000e+00
 0.000000e+00 0.000000e+00 0.000000e+00 0.000000e+00 0.000000e+00 0.000000e+00 0.000000e+00 0.000000e+00 0.000000e+00 8.949069e-01 1.050931e-01 0.000000e+00
 0.000000e+00 0.000000e+00 0.000000e+00 0.000000e+00 0.000000e+00 0.000000e+00 0.000000e+00 0.000000e+00 0.000000e+00 0.000000e+00 7.690622e-01 2.309379e-01
 0.000000e+00 0.000000e+00 0.000000e+00 0.000000e+00 0.000000e+00 0.000000e+00 0.000000e+00 0.000000e+00 0.000000e+00 0.000000e+00 0.000000e+00 0.000000e+00
<ENDHMM>
