~o
<STREAMINFO> 1 6
<VECSIZE> 6<NULLD><USER><DIAGC>
~h "proto"
<BEGINHMM>
<NUMSTATES> 12
<STATE> 2
<MEAN> 6
 3.909305e-01 3.173643e-01 1.461204e-02 1.380392e-02 8.426953e-03 -8.533837e-03
<VARIANCE> 6
 2.377598e-03 6.979874e-03 2.894993e-04 5.873125e-04 3.154717e-04 6.315695e-04
<GCONST> -3.099518e+01
<STATE> 3
<MEAN> 6
 4.472889e-01 3.053181e-01 3.103072e-02 7.158499e-04 2.140951e-03 -3.534197e-02
<VARIANCE> 6
 1.289663e-03 7.640026e-03 4.041510e-04 7.222547e-04 6.866620e-04 1.013729e-03
<GCONST> -2.972511e+01
<STATE> 4
<MEAN> 6
 4.865628e-01 2.861258e-01 1.542860e-02 -6.005318e-03 -1.925801e-03 5.408125e-03
<VARIANCE> 6
 1.023448e-03 5.833420e-03 1.791261e-04 8.629537e-04 2.418760e-04 1.079118e-03
<GCONST> -3.184273e+01
<STATE> 5
<MEAN> 6
 5.645086e-01 3.009459e-01 3.511954e-02 2.917869e-03 3.487521e-03 -2.239620e-02
<VARIANCE> 6
 2.797251e-03 4.362292e-03 4.162040e-04 1.124525e-03 6.843192e-04 2.136316e-03
<GCONST> -2.829710e+01
<STATE> 6
<MEAN> 6
 6.266508e-01 2.596890e-01 1.319367e-02 -5.842820e-02 -2.811789e-02 -1.481456e-02
<VARIANCE> 6
 3.959646e-03 3.740766e-03 4.298388e-04 6.569737e-04 5.809373e-04 7.517178e-04
<GCONST> -2.981679e+01
<STATE> 7
<MEAN> 6
 6.264852e-01 1.238322e-01 -2.491123e-02 -3.051586e-02 -1.472459e-02 1.873530e-02
<VARIANCE> 6
 4.013495e-03 4.622309e-03 6.806766e-04 1.176176e-03 9.234103e-04 1.218665e-03
<GCONST> -2.760304e+01
<STATE> 8
<MEAN> 6
 5.191743e-01 1.109243e-01 -2.159994e-02 -7.151650e-04 7.690643e-04 7.876131e-03
<VARIANCE> 6
 2.362076e-03 4.059609e-03 3.982430e-04 4.362033e-04 2.346024e-04 6.095474e-04
<GCONST> -3.185388e+01
<STATE> 9
<MEAN> 6
 4.646871e-01 1.330300e-01 -3.898510e-02 1.377834e-02 2.857510e-02 2.589480e-02
<VARIANCE> 6
 2.734991e-03 6.707976e-03 6.827036e-04 5.981595e-04 5.656568e-04 1.689639e-03
<GCONST> -2.845069e+01
<STATE> 10
<MEAN> 6
 4.045571e-01 2.127955e-01 -1.334083e-02 5.212836e-03 1.492112e-02 -4.086727e-03
<VARIANCE> 6
 4.999242e-03 1.165966e-02 7.048562e-04 1.224834e-03 1.274112e-03 1.229523e-03
<GCONST> -2.605193e+01
<STATE> 11
<MEAN> 6
 4.615849e-01 1.259245e-01 3.405222e-02 6.424591e-04 8.790058e-03 -6.087722e-03
<VARIANCE> 6
 3.995356e-03 5.013894e-03 5.192386e-04 8.222170e-04 1.314469e-03 1.625263e-03
<GCONST> -2.751397e+01
<TRANSP> 12
 0.000000e+00 1.000000e+00 0.000000e+00 0.000000e+00 0.000000e+00 0.000000e+00 0.000000e+00 0.000000e+00 0.000000e+00 0.000000e+00 0.000000e+00 0.000000e+00
 0.000000e+00 9.108968e-01 8.910325e-02 0.000000e+00 0.000000e+00 0.000000e+00 0.000000e+00 0.000000e+00 0.000000e+00 0.000000e+00 0.000000e+00 0.000000e+00
 0.000000e+00 0.000000e+00 0.000000e+00 1.000000e+00 0.000000e+00 0.000000e+00 0.000000e+00 0.000000e+00 0.000000e+00 0.000000e+00 0.000000e+00 0.000000e+00
 0.000000e+00 0.000000e+00 0.000000e+00 9.138280e-01 8.617207e-02 0.000000e+00 0.000000e+00 0.000000e+00 0.000000e+00 0.000000e+00 0.000000e+00 0.000000e+00
 0.000000e+00 0.000000e+00 0.000000e+00 0.000000e+00 8.821816e-01 1.178184e-01 0.000000e+00 0.000000e+00 0.000000e+00 0.000000e+00 0.000000e+00 0.000000e+00
 0.000000e+00 0.000000e+00 0.000000e+00 0.000000e+00 0.000000e+00 8.134519e-01 1.865482e-01 0.000000e+00 0.000000e+00 0.000000e+00 0.000000e+00 0.000000e+00
 0.000000e+00 0.000000e+00 0.000000e+00 0.000000e+00 0.000000e+00 0.000000e+00 8.775793e-01 1.224207e-01 0.000000e+00 0.000000e+00 0.000000e+00 0.000000e+00
 0.000000e+00 0.000000e+00 0.000000e+00 0.000000e+00 0.000000e+00 0.000000e+00 0.000000e+00 9.205226e-01 7.947740e-02 0.000000e+00 0.000000e+00 0.000000e+00
 0.000000e+00 0.000000e+00 0.000000e+00 0.000000e+00 0.000000e+00 0.000000e+00 0.000000e+00 0.000000e+00 0.000000e+00 1.000000e+00 0.000000e+00 0.000000e+00
 0.000000e+00 0.000000e+00 0.000000e+00 0.000000e+00 0.000000e+00 0.000000e+00 0.000000e+00 0.000000e+00 0.000000e+00 9.100199e-01 8.998009e-02 0.000000e+00
 0.000000e+00 0.000000e+00 0.000000e+00 0.000000e+00 0.000000e+00 0.000000e+00 0.000000e+00 0.000000e+00 0.000000e+00 0.000000e+00 8.652276e-01 1.347725e-01
 0.000000e+00 0.000000e+00 0.000000e+00 0.000000e+00 0.000000e+00 0.000000e+00 0.000000e+00 0.000000e+00 0.000000e+00 0.000000e+00 0.000000e+00 0.000000e+00
<ENDHMM>
