~o
<STREAMINFO> 1 7
<VECSIZE> 7<NULLD><USER><DIAGC>
~h "proto"
<BEGINHMM>
<NUMSTATES> 12
<STATE> 2
<MEAN> 7
 3.989554e-01 3.177011e-01 1.745711e-02 1.741248e-02 9.405226e-03 -1.212809e-02 -8.035280e+00
<VARIANCE> 7
 3.780610e-03 7.081294e-03 2.647719e-04 4.260564e-04 2.594063e-04 6.491828e-04 3.804734e+02
<GCONST> -2.331610e+01
<STATE> 3
<MEAN> 7
 4.851668e-01 2.982385e-01 1.704026e-02 -2.774376e-02 -1.051987e-02 -5.806241e-03 -7.272299e+00
<VARIANCE> 7
 3.012346e-03 7.213840e-03 2.804508e-04 2.456716e-04 1.750704e-04 8.739713e-04 7.346375e+02
<GCONST> -2.345569e+01
<STATE> 4
<MEAN> 7
 4.915145e-01 2.481816e-01 7.493528e-03 -1.340751e-02 -4.963845e-03 4.897927e-02 8.005692e+01
<VARIANCE> 7
 3.922112e-03 4.879513e-03 3.060065e-04 1.473356e-04 2.785707e-04 2.210442e-03 1.827032e+04
<GCONST> -1.940077e+01
<STATE> 5
<MEAN> 7
 4.956501e-01 2.434620e-01 5.787924e-03 7.110394e-03 6.243049e-04 4.980507e-02 3.694604e+01
<VARIANCE> 7
 3.855863e-03 4.911195e-03 1.318789e-04 3.519239e-04 9.142438e-04 2.997431e-03 3.554638e+08
<GCONST> -8.013460e+00
<STATE> 6
<MEAN> 7
 5.517123e-01 3.073271e-01 2.608960e-02 3.271797e-03 1.694271e-03 -1.845700e-02 -8.754424e+00
<VARIANCE> 7
 5.235709e-03 6.444417e-03 3.538274e-04 1.394147e-03 5.616440e-04 1.215534e-03 2.491012e+02
<GCONST> -2.063318e+01
<STATE> 7
<MEAN> 7
 6.031408e-01 2.546238e-01 9.702289e-03 -6.738561e-02 -3.360790e-02 -9.033162e-03 -9.081307e-01
<VARIANCE> 7
 7.310177e-03 3.871591e-03 4.512557e-04 1.303580e-03 8.914234e-04 1.136966e-03 3.339868e+00
<GCONST> -2.454971e+01
<STATE> 8
<MEAN> 7
 5.915713e-01 1.537313e-01 -2.287306e-02 -3.587135e-02 -1.330596e-02 1.678146e-02 -3.791231e+00
<VARIANCE> 7
 7.259821e-03 5.199634e-03 4.376915e-04 8.172828e-04 4.650192e-04 6.327342e-04 4.988224e+01
<GCONST> -2.329218e+01
<STATE> 9
<MEAN> 7
 5.149040e-01 1.147501e-01 -1.801638e-02 1.027775e-02 1.547747e-02 9.861441e-03 1.159068e+02
<VARIANCE> 7
 6.998784e-03 4.176138e-03 6.388428e-04 3.985289e-04 4.934543e-04 2.183363e-03 4.449764e+06
<GCONST> -1.119144e+01
<STATE> 10
<MEAN> 7
 4.536081e-01 1.614690e-01 -1.519203e-02 5.991381e-03 1.691093e-03 -2.105329e-03 -1.565060e+00
<VARIANCE> 7
 8.407781e-03 1.037827e-02 4.182340e-04 5.362387e-04 2.977284e-04 5.172101e-04 6.544974e+02
<GCONST> -2.099442e+01
<STATE> 11
<MEAN> 7
 4.493950e-01 1.434627e-01 1.330764e-02 -1.309660e-03 1.385313e-02 1.175798e-03 2.485493e-02
<VARIANCE> 7
 5.670639e-03 4.722110e-03 1.363373e-03 1.125307e-03 1.525613e-03 1.390460e-03 2.720103e+02
<GCONST> -1.850795e+01
<TRANSP> 12
 0.000000e+00 1.000000e+00 0.000000e+00 0.000000e+00 0.000000e+00 0.000000e+00 0.000000e+00 0.000000e+00 0.000000e+00 0.000000e+00 0.000000e+00 0.000000e+00
 0.000000e+00 9.092365e-01 9.076349e-02 0.000000e+00 0.000000e+00 0.000000e+00 0.000000e+00 0.000000e+00 0.000000e+00 0.000000e+00 0.000000e+00 0.000000e+00
 0.000000e+00 0.000000e+00 8.860749e-01 1.139251e-01 0.000000e+00 0.000000e+00 0.000000e+00 0.000000e+00 0.000000e+00 0.000000e+00 0.000000e+00 0.000000e+00
 0.000000e+00 0.000000e+00 0.000000e+00 0.000000e+00 1.000000e+00 0.000000e+00 0.000000e+00 0.000000e+00 0.000000e+00 0.000000e+00 0.000000e+00 0.000000e+00
 0.000000e+00 0.000000e+00 0.000000e+00 0.000000e+00 2.036868e-01 7.963132e-01 0.000000e+00 0.000000e+00 0.000000e+00 0.000000e+00 0.000000e+00 0.000000e+00
 0.000000e+00 0.000000e+00 0.000000e+00 0.000000e+00 0.000000e+00 9.312502e-01 6.874982e-02 0.000000e+00 0.000000e+00 0.000000e+00 0.000000e+00 0.000000e+00
 0.000000e+00 0.000000e+00 0.000000e+00 0.000000e+00 0.000000e+00 0.000000e+00 0.000000e+00 1.000000e+00 0.000000e+00 0.000000e+00 0.000000e+00 0.000000e+00
 0.000000e+00 0.000000e+00 0.000000e+00 0.000000e+00 0.000000e+00 0.000000e+00 0.000000e+00 9.175916e-01 8.240835e-02 0.000000e+00 0.000000e+00 0.000000e+00
 0.000000e+00 0.000000e+00 0.000000e+00 0.000000e+00 0.000000e+00 0.000000e+00 0.000000e+00 0.000000e+00 6.813047e-01 3.186954e-01 0.000000e+00 0.000000e+00
 0.000000e+00 0.000000e+00 0.000000e+00 0.000000e+00 0.000000e+00 0.000000e+00 0.000000e+00 0.000000e+00 0.000000e+00 9.340274e-01 6.597258e-02 0.000000e+00
 0.000000e+00 0.000000e+00 0.000000e+00 0.000000e+00 0.000000e+00 0.000000e+00 0.000000e+00 0.000000e+00 0.000000e+00 0.000000e+00 9.185652e-01 8.143477e-02
 0.000000e+00 0.000000e+00 0.000000e+00 0.000000e+00 0.000000e+00 0.000000e+00 0.000000e+00 0.000000e+00 0.000000e+00 0.000000e+00 0.000000e+00 0.000000e+00
<ENDHMM>
