~o
<STREAMINFO> 1 7
<VECSIZE> 7<NULLD><USER><DIAGC>
~h "proto"
<BEGINHMM>
<NUMSTATES> 12
<STATE> 2
<MEAN> 7
 3.948562e-01 2.239620e-01 -9.853561e-03 -4.911582e-02 3.100457e-02 5.818360e-03 -1.377092e-02
<VARIANCE> 7
 4.638812e-03 5.663133e-03 9.173411e-04 5.570735e-04 1.020148e-03 1.865566e-03 1.112144e+02
<GCONST> -2.062932e+01
<STATE> 3
<MEAN> 7
 4.063697e-01 1.515078e-01 2.823023e-02 1.089588e-02 -7.730607e-03 1.965742e-02 1.274586e+01
<VARIANCE> 7
 8.608188e-03 3.695879e-03 5.461751e-04 4.206263e-04 4.852942e-04 9.905429e-04 6.040493e+02
<GCONST> -2.092113e+01
<STATE> 4
<MEAN> 7
 5.036783e-01 1.793524e-01 2.852371e-02 -5.459938e-03 3.833691e-03 4.716246e-05 -8.281461e+00
<VARIANCE> 7
 3.602772e-03 2.172210e-03 3.485978e-04 4.271120e-04 6.433969e-04 1.806621e-03 5.972181e+03
<GCONST> -1.958316e+01
<STATE> 5
<MEAN> 7
 5.383186e-01 1.773167e-01 2.720826e-02 2.676330e-02 -4.416777e-02 5.080991e-02 -2.518200e+03
<VARIANCE> 7
 4.969320e-03 2.785690e-03 5.571663e-04 4.084800e-04 1.688968e-03 4.786681e-03 1.382072e+08
<GCONST> -6.599600e+00
<STATE> 6
<MEAN> 7
 5.345377e-01 2.298220e-01 -2.341637e-02 4.108730e-02 -2.709292e-02 -3.996049e-03 6.675931e+00
<VARIANCE> 7
 5.547636e-03 5.389040e-03 2.196612e-03 1.206825e-03 2.304233e-03 1.720888e-03 1.495302e+02
<GCONST> -1.782366e+01
<STATE> 7
<MEAN> 7
 4.402041e-01 3.220843e-01 -3.753418e-02 9.208401e-03 3.456046e-02 -1.412350e-02 1.241575e+01
<VARIANCE> 7
 3.867353e-03 3.250846e-03 3.787701e-04 1.885297e-04 1.848089e-03 2.251235e-04 1.508351e+03
<GCONST> -2.224741e+01
<STATE> 8
<MEAN> 7
 4.152757e-01 3.137981e-01 4.737055e-03 2.139874e-03 1.122233e-01 -1.412420e-03 2.403644e+03
<VARIANCE> 7
 6.139890e-03 4.949899e-03 1.416739e-04 1.290466e-04 4.879795e-03 2.807578e-04 1.723552e+08
<GCONST> -9.889120e+00
<STATE> 9
<MEAN> 7
 4.227633e-01 3.143521e-01 4.062289e-02 3.072774e-03 1.147802e-01 4.247271e-03 -6.673246e+00
<VARIANCE> 7
 6.025892e-03 4.962031e-03 6.355081e-04 1.073851e-04 4.774249e-03 3.232296e-04 7.458499e+02
<GCONST> -2.081981e+01
<STATE> 10
<MEAN> 7
 5.294062e-01 3.282008e-01 9.263722e-02 7.539005e-03 8.102592e-03 -6.944711e-03 -1.762167e+01
<VARIANCE> 7
 8.540088e-03 4.814042e-03 1.782279e-03 1.130996e-04 4.711783e-03 4.387358e-04 1.181099e+04
<GCONST> -1.636368e+01
<STATE> 11
<MEAN> 7
 6.731449e-01 2.857946e-01 5.749729e-03 -1.679718e-02 -2.659217e-02 1.592043e-02 -1.641216e+01
<VARIANCE> 7
 6.246709e-03 5.245656e-03 1.820406e-03 1.273901e-03 3.330421e-03 2.450661e-03 2.084205e+03
<GCONST> -1.450919e+01
<TRANSP> 12
 0.000000e+00 1.000000e+00 0.000000e+00 0.000000e+00 0.000000e+00 0.000000e+00 0.000000e+00 0.000000e+00 0.000000e+00 0.000000e+00 0.000000e+00 0.000000e+00
 0.000000e+00 8.873175e-01 1.126825e-01 0.000000e+00 0.000000e+00 0.000000e+00 0.000000e+00 0.000000e+00 0.000000e+00 0.000000e+00 0.000000e+00 0.000000e+00
 0.000000e+00 0.000000e+00 8.721073e-01 1.278926e-01 0.000000e+00 0.000000e+00 0.000000e+00 0.000000e+00 0.000000e+00 0.000000e+00 0.000000e+00 0.000000e+00
 0.000000e+00 0.000000e+00 0.000000e+00 8.791402e-01 1.208599e-01 0.000000e+00 0.000000e+00 0.000000e+00 0.000000e+00 0.000000e+00 0.000000e+00 0.000000e+00
 0.000000e+00 0.000000e+00 0.000000e+00 0.000000e+00 9.412914e-02 9.058709e-01 0.000000e+00 0.000000e+00 0.000000e+00 0.000000e+00 0.000000e+00 0.000000e+00
 0.000000e+00 0.000000e+00 0.000000e+00 0.000000e+00 0.000000e+00 9.029071e-01 9.709292e-02 0.000000e+00 0.000000e+00 0.000000e+00 0.000000e+00 0.000000e+00
 0.000000e+00 0.000000e+00 0.000000e+00 0.000000e+00 0.000000e+00 0.000000e+00 8.114298e-01 1.885702e-01 0.000000e+00 0.000000e+00 0.000000e+00 0.000000e+00
 0.000000e+00 0.000000e+00 0.000000e+00 0.000000e+00 0.000000e+00 0.000000e+00 0.000000e+00 0.000000e+00 1.000000e+00 0.000000e+00 0.000000e+00 0.000000e+00
 0.000000e+00 0.000000e+00 0.000000e+00 0.000000e+00 0.000000e+00 0.000000e+00 0.000000e+00 0.000000e+00 0.000000e+00 1.000000e+00 0.000000e+00 0.000000e+00
 0.000000e+00 0.000000e+00 0.000000e+00 0.000000e+00 0.000000e+00 0.000000e+00 0.000000e+00 0.000000e+00 0.000000e+00 8.744116e-01 1.255883e-01 0.000000e+00
 0.000000e+00 0.000000e+00 0.000000e+00 0.000000e+00 0.000000e+00 0.000000e+00 0.000000e+00 0.000000e+00 0.000000e+00 0.000000e+00 9.094490e-01 9.055102e-02
 0.000000e+00 0.000000e+00 0.000000e+00 0.000000e+00 0.000000e+00 0.000000e+00 0.000000e+00 0.000000e+00 0.000000e+00 0.000000e+00 0.000000e+00 0.000000e+00
<ENDHMM>
