~o
<STREAMINFO> 1 6
<VECSIZE> 6<NULLD><USER><DIAGC>
~h "proto"
<BEGINHMM>
<NUMSTATES> 12
<STATE> 2
<MEAN> 6
 4.113232e-01 2.601377e-01 -2.952456e-02 -5.595244e-02 2.751175e-02 -1.705941e-02
<VARIANCE> 6
 3.568602e-03 4.285397e-03 4.126585e-04 6.315010e-04 9.982539e-04 1.253609e-03
<GCONST> -2.881239e+01
<STATE> 3
<MEAN> 6
 3.530437e-01 1.740585e-01 2.141764e-02 -2.410858e-02 2.497553e-02 2.979421e-02
<VARIANCE> 6
 7.652412e-03 2.887745e-03 8.571995e-04 9.208825e-04 1.378063e-03 1.512121e-03
<GCONST> -2.682609e+01
<STATE> 4
<MEAN> 6
 4.647501e-01 1.821555e-01 2.425082e-02 5.066080e-04 8.794267e-04 1.856255e-03
<VARIANCE> 6
 1.292833e-03 1.970652e-03 2.677826e-04 5.673123e-04 5.275478e-04 1.376161e-03
<GCONST> -3.168871e+01
<STATE> 5
<MEAN> 6
 5.612579e-01 1.622106e-01 3.241481e-02 8.838831e-03 -1.042667e-02 2.526469e-02
<VARIANCE> 6
 2.208164e-03 3.436862e-03 4.539796e-04 6.323183e-04 9.156706e-04 1.855955e-03
<GCONST> -2.911031e+01
<STATE> 6
<MEAN> 6
 5.696528e-01 2.394472e-01 -3.125794e-02 6.773808e-02 -6.460341e-02 9.102970e-04
<VARIANCE> 6
 4.071679e-03 4.342833e-03 1.727976e-03 4.422883e-04 1.607128e-03 2.477000e-03
<GCONST> -2.643403e+01
<STATE> 7
<MEAN> 6
 4.852648e-01 3.053640e-01 -5.205372e-02 2.082245e-02 1.522018e-02 -2.545166e-02
<VARIANCE> 6
 3.586543e-03 3.820544e-03 7.516381e-04 2.961213e-04 9.043917e-04 4.247042e-04
<GCONST> -3.026103e+01
<STATE> 8
<MEAN> 6
 4.264600e-01 3.186307e-01 3.042937e-02 3.663572e-03 8.643360e-02 1.957702e-03
<VARIANCE> 6
 4.008210e-03 4.649098e-03 3.550690e-03 1.134849e-04 3.676100e-03 2.573864e-04
<GCONST> -2.845852e+01
<STATE> 9
<MEAN> 6
 5.727393e-01 3.323224e-01 1.053303e-01 8.983240e-03 -1.215289e-02 -9.523307e-03
<VARIANCE> 6
 4.550415e-03 4.154999e-03 1.447121e-03 1.075905e-04 2.530490e-03 2.121916e-04
<GCONST> -2.996144e+01
<STATE> 10
<MEAN> 6
 6.851715e-01 3.256951e-01 4.701119e-02 -2.890472e-02 -6.646977e-02 -3.282253e-02
<VARIANCE> 6
 6.356783e-03 4.305391e-03 1.717178e-03 4.346405e-04 1.556495e-03 5.257747e-04
<GCONST> -2.760288e+01
<STATE> 11
<MEAN> 6
 6.798092e-01 2.573289e-01 -1.410902e-02 -6.206814e-03 -4.700175e-03 4.287720e-02
<VARIANCE> 6
 5.802596e-03 5.474648e-03 9.435409e-04 1.468717e-03 2.910006e-03 1.485543e-03
<GCONST> -2.517063e+01
<TRANSP> 12
 0.000000e+00 1.000000e+00 0.000000e+00 0.000000e+00 0.000000e+00 0.000000e+00 0.000000e+00 0.000000e+00 0.000000e+00 0.000000e+00 0.000000e+00 0.000000e+00
 0.000000e+00 7.882832e-01 2.117169e-01 0.000000e+00 0.000000e+00 0.000000e+00 0.000000e+00 0.000000e+00 0.000000e+00 0.000000e+00 0.000000e+00 0.000000e+00
 0.000000e+00 0.000000e+00 8.351484e-01 1.648516e-01 0.000000e+00 0.000000e+00 0.000000e+00 0.000000e+00 0.000000e+00 0.000000e+00 0.000000e+00 0.000000e+00
 0.000000e+00 0.000000e+00 0.000000e+00 9.008756e-01 9.912443e-02 0.000000e+00 0.000000e+00 0.000000e+00 0.000000e+00 0.000000e+00 0.000000e+00 0.000000e+00
 0.000000e+00 0.000000e+00 0.000000e+00 0.000000e+00 8.648904e-01 1.351096e-01 0.000000e+00 0.000000e+00 0.000000e+00 0.000000e+00 0.000000e+00 0.000000e+00
 0.000000e+00 0.000000e+00 0.000000e+00 0.000000e+00 0.000000e+00 7.946006e-01 2.053994e-01 0.000000e+00 0.000000e+00 0.000000e+00 0.000000e+00 0.000000e+00
 0.000000e+00 0.000000e+00 0.000000e+00 0.000000e+00 0.000000e+00 0.000000e+00 8.242666e-01 1.757334e-01 0.000000e+00 0.000000e+00 0.000000e+00 0.000000e+00
 0.000000e+00 0.000000e+00 0.000000e+00 0.000000e+00 0.000000e+00 0.000000e+00 0.000000e+00 8.402625e-01 1.597375e-01 0.000000e+00 0.000000e+00 0.000000e+00
 0.000000e+00 0.000000e+00 0.000000e+00 0.000000e+00 0.000000e+00 0.000000e+00 0.000000e+00 0.000000e+00 7.783592e-01 2.216408e-01 0.000000e+00 0.000000e+00
 0.000000e+00 0.000000e+00 0.000000e+00 0.000000e+00 0.000000e+00 0.000000e+00 0.000000e+00 0.000000e+00 0.000000e+00 8.011884e-01 1.988116e-01 0.000000e+00
 0.000000e+00 0.000000e+00 0.000000e+00 0.000000e+00 0.000000e+00 0.000000e+00 0.000000e+00 0.000000e+00 0.000000e+00 0.000000e+00 8.587566e-01 1.412435e-01
 0.000000e+00 0.000000e+00 0.000000e+00 0.000000e+00 0.000000e+00 0.000000e+00 0.000000e+00 0.000000e+00 0.000000e+00 0.000000e+00 0.000000e+00 0.000000e+00
<ENDHMM>
