~o
<STREAMINFO> 1 6
<VECSIZE> 6<NULLD><USER><DIAGC>
~h "proto"
<BEGINHMM>
<NUMSTATES> 12
<STATE> 2
<MEAN> 6
 4.258341e-01 2.580180e-01 -3.445005e-03 2.042981e-02 -2.454231e-02 -8.478119e-03
<VARIANCE> 6
 4.504671e-03 5.953743e-03 5.538609e-04 2.641513e-04 3.479381e-04 1.192891e-03
<GCONST> -2.993156e+01
<STATE> 3
<MEAN> 6
 3.597782e-01 2.360780e-01 -5.184519e-03 -2.580177e-02 1.766905e-02 -1.626346e-02
<VARIANCE> 6
 4.739661e-03 6.703198e-03 5.497311e-04 8.702982e-04 8.430118e-04 9.138360e-04
<GCONST> -2.795884e+01
<STATE> 4
<MEAN> 6
 4.434813e-01 1.416813e-01 6.516987e-02 -2.295075e-02 1.733199e-02 4.077646e-02
<VARIANCE> 6
 4.962839e-03 5.924609e-03 9.139720e-04 1.221829e-03 2.944644e-03 8.909950e-04
<GCONST> -2.596321e+01
<STATE> 5
<MEAN> 6
 5.603425e-01 1.461603e-01 7.543177e-03 2.270573e-02 -2.191643e-02 2.359970e-03
<VARIANCE> 6
 5.873593e-03 3.279059e-03 1.017217e-03 6.291069e-04 1.265867e-03 7.074390e-04
<GCONST> -2.801797e+01
<STATE> 6
<MEAN> 6
 5.116477e-01 2.277533e-01 2.350956e-03 -5.982197e-04 1.938300e-02 1.662106e-03
<VARIANCE> 6
 3.930621e-03 1.483934e-03 1.349178e-03 5.658171e-04 1.410468e-03 1.850086e-03
<GCONST> -2.796661e+01
<STATE> 7
<MEAN> 6
 5.503780e-01 2.252035e-01 4.108489e-02 4.193999e-02 -2.640096e-02 5.440823e-02
<VARIANCE> 6
 4.875897e-03 1.054140e-03 8.760027e-04 3.238868e-04 8.519400e-04 1.720319e-03
<GCONST> -2.965972e+01
<STATE> 8
<MEAN> 6
 5.573372e-01 3.111733e-01 -1.212852e-02 4.048974e-02 -2.423171e-02 -1.048825e-02
<VARIANCE> 6
 4.686893e-03 2.473307e-03 1.353900e-03 1.116416e-03 1.842094e-03 1.654401e-03
<GCONST> -2.644149e+01
<STATE> 9
<MEAN> 6
 5.013379e-01 3.615182e-01 3.368232e-02 6.285690e-03 5.221163e-02 -6.296664e-03
<VARIANCE> 6
 5.588916e-03 2.740235e-03 3.722539e-03 1.692925e-04 2.333762e-03 5.045193e-04
<GCONST> -2.798883e+01
<STATE> 10
<MEAN> 6
 6.838523e-01 3.552395e-01 5.375992e-02 -1.587499e-02 -5.502087e-02 -2.794244e-02
<VARIANCE> 6
 4.906922e-03 4.143058e-03 1.874160e-03 5.536541e-04 1.309635e-03 4.651365e-04
<GCONST> -2.786592e+01
<STATE> 11
<MEAN> 6
 6.925290e-01 2.820597e-01 -1.119519e-02 -7.916960e-03 -3.662799e-03 4.129102e-02
<VARIANCE> 6
 6.044339e-03 5.157094e-03 9.775042e-04 1.625791e-03 3.341082e-03 1.671432e-03
<GCONST> -2.479655e+01
<TRANSP> 12
 0.000000e+00 1.000000e+00 0.000000e+00 0.000000e+00 0.000000e+00 0.000000e+00 0.000000e+00 0.000000e+00 0.000000e+00 0.000000e+00 0.000000e+00 0.000000e+00
 0.000000e+00 8.684627e-01 1.315373e-01 0.000000e+00 0.000000e+00 0.000000e+00 0.000000e+00 0.000000e+00 0.000000e+00 0.000000e+00 0.000000e+00 0.000000e+00
 0.000000e+00 0.000000e+00 9.091697e-01 9.083027e-02 0.000000e+00 0.000000e+00 0.000000e+00 0.000000e+00 0.000000e+00 0.000000e+00 0.000000e+00 0.000000e+00
 0.000000e+00 0.000000e+00 0.000000e+00 8.500209e-01 1.499791e-01 0.000000e+00 0.000000e+00 0.000000e+00 0.000000e+00 0.000000e+00 0.000000e+00 0.000000e+00
 0.000000e+00 0.000000e+00 0.000000e+00 0.000000e+00 9.116100e-01 8.838999e-02 0.000000e+00 0.000000e+00 0.000000e+00 0.000000e+00 0.000000e+00 0.000000e+00
 0.000000e+00 0.000000e+00 0.000000e+00 0.000000e+00 0.000000e+00 9.000984e-01 9.990156e-02 0.000000e+00 0.000000e+00 0.000000e+00 0.000000e+00 0.000000e+00
 0.000000e+00 0.000000e+00 0.000000e+00 0.000000e+00 0.000000e+00 0.000000e+00 0.000000e+00 1.000000e+00 0.000000e+00 0.000000e+00 0.000000e+00 0.000000e+00
 0.000000e+00 0.000000e+00 0.000000e+00 0.000000e+00 0.000000e+00 0.000000e+00 0.000000e+00 8.879719e-01 1.120280e-01 0.000000e+00 0.000000e+00 0.000000e+00
 0.000000e+00 0.000000e+00 0.000000e+00 0.000000e+00 0.000000e+00 0.000000e+00 0.000000e+00 0.000000e+00 8.833283e-01 1.166717e-01 0.000000e+00 0.000000e+00
 0.000000e+00 0.000000e+00 0.000000e+00 0.000000e+00 0.000000e+00 0.000000e+00 0.000000e+00 0.000000e+00 0.000000e+00 8.434033e-01 1.565966e-01 0.000000e+00
 0.000000e+00 0.000000e+00 0.000000e+00 0.000000e+00 0.000000e+00 0.000000e+00 0.000000e+00 0.000000e+00 0.000000e+00 0.000000e+00 8.581008e-01 1.418993e-01
 0.000000e+00 0.000000e+00 0.000000e+00 0.000000e+00 0.000000e+00 0.000000e+00 0.000000e+00 0.000000e+00 0.000000e+00 0.000000e+00 0.000000e+00 0.000000e+00
<ENDHMM>
