~o
<STREAMINFO> 1 7
<VECSIZE> 7<NULLD><USER><DIAGC>
~h "proto"
<BEGINHMM>
<NUMSTATES> 12
<STATE> 2
<MEAN> 7
 4.292396e-01 2.614191e-01 -2.055611e-03 2.215310e-02 -2.523509e-02 -6.759554e-03 1.338275e+01
<VARIANCE> 7
 4.185624e-03 4.667764e-03 4.859788e-04 2.646681e-04 4.281341e-04 1.234946e-03 1.989589e+03
<GCONST> -2.070153e+01
<STATE> 3
<MEAN> 7
 3.682840e-01 2.554179e-01 -1.726730e-02 -2.450658e-02 1.342756e-02 -2.875103e-02 1.576294e+01
<VARIANCE> 7
 6.514590e-03 4.941026e-03 4.512270e-04 7.166612e-04 8.554113e-04 1.094351e-03 2.678260e+02
<GCONST> -2.071438e+01
<STATE> 4
<MEAN> 7
 4.143755e-01 1.666578e-01 5.002267e-02 -3.898359e-02 3.990049e-02 2.855282e-02 2.286839e+00
<VARIANCE> 7
 4.619216e-03 3.966036e-03 1.361332e-03 8.642367e-04 1.676662e-03 9.594710e-04 1.810106e+01
<GCONST> -2.213944e+01
<STATE> 5
<MEAN> 7
 5.640844e-01 1.832181e-01 1.301161e-02 3.022959e-02 -3.410590e-02 4.302004e-03 6.800653e+00
<VARIANCE> 7
 6.298302e-03 5.418235e-03 1.716256e-03 5.678951e-04 1.148210e-03 1.560782e-03 1.832905e+02
<GCONST> -1.928255e+01
<STATE> 6
<MEAN> 7
 5.102191e-01 2.325240e-01 5.419092e-03 -1.160882e-02 2.775209e-02 5.763859e-03 2.669744e+01
<VARIANCE> 7
 4.331410e-03 4.298327e-03 1.077066e-03 4.127983e-04 1.152647e-03 2.184342e-03 4.569013e+03
<GCONST> -1.711740e+01
<STATE> 7
<MEAN> 7
 5.621640e-01 2.680762e-01 -6.450713e-03 5.229218e-02 -4.110478e-02 3.949109e-03 5.779506e+00
<VARIANCE> 7
 6.263190e-03 5.236659e-03 1.240854e-03 4.630560e-04 8.789044e-04 1.878674e-03 9.264320e+01
<GCONST> -2.061489e+01
<STATE> 8
<MEAN> 7
 4.908186e-01 3.434216e-01 -4.067925e-02 1.477264e-02 3.263609e-02 -2.692540e-02 2.463201e+01
<VARIANCE> 7
 5.109177e-03 3.464702e-03 3.752249e-04 2.510312e-04 1.289970e-03 3.678476e-04 1.209617e+03
<GCONST> -2.171754e+01
<STATE> 9
<MEAN> 7
 5.189826e-01 3.240493e-01 2.411146e-02 3.712213e-03 6.155134e-02 -6.696671e-03 1.381952e+03
<VARIANCE> 7
 1.158547e-02 7.105328e-03 1.335904e-03 1.255755e-04 5.010684e-03 5.890718e-04 1.234051e+08
<GCONST> -6.242687e+00
<STATE> 10
<MEAN> 7
 5.730250e-01 3.553339e-01 8.290012e-02 5.210949e-03 1.543659e-02 -5.509741e-03 -1.565294e+00
<VARIANCE> 7
 9.865855e-03 3.869935e-03 1.468425e-03 1.300801e-04 4.608974e-03 4.045882e-04 2.240645e+01
<GCONST> -2.286202e+01
<STATE> 11
<MEAN> 7
 6.838212e-01 3.103583e-01 3.464052e-03 -1.706286e-02 -2.421780e-02 1.665463e-02 -2.714669e+01
<VARIANCE> 7
 8.723900e-03 4.653424e-03 1.309765e-03 1.445155e-03 3.388341e-03 3.146189e-03 7.323458e+03
<GCONST> -1.297429e+01
<TRANSP> 12
 0.000000e+00 1.000000e+00 0.000000e+00 0.000000e+00 0.000000e+00 0.000000e+00 0.000000e+00 0.000000e+00 0.000000e+00 0.000000e+00 0.000000e+00 0.000000e+00
 0.000000e+00 8.562737e-01 1.437264e-01 0.000000e+00 0.000000e+00 0.000000e+00 0.000000e+00 0.000000e+00 0.000000e+00 0.000000e+00 0.000000e+00 0.000000e+00
 0.000000e+00 0.000000e+00 8.653280e-01 1.346720e-01 0.000000e+00 0.000000e+00 0.000000e+00 0.000000e+00 0.000000e+00 0.000000e+00 0.000000e+00 0.000000e+00
 0.000000e+00 0.000000e+00 0.000000e+00 8.643510e-01 1.356490e-01 0.000000e+00 0.000000e+00 0.000000e+00 0.000000e+00 0.000000e+00 0.000000e+00 0.000000e+00
 0.000000e+00 0.000000e+00 0.000000e+00 0.000000e+00 9.199511e-01 8.004890e-02 0.000000e+00 0.000000e+00 0.000000e+00 0.000000e+00 0.000000e+00 0.000000e+00
 0.000000e+00 0.000000e+00 0.000000e+00 0.000000e+00 0.000000e+00 8.932957e-01 1.067043e-01 0.000000e+00 0.000000e+00 0.000000e+00 0.000000e+00 0.000000e+00
 0.000000e+00 0.000000e+00 0.000000e+00 0.000000e+00 0.000000e+00 0.000000e+00 8.615692e-01 1.384308e-01 0.000000e+00 0.000000e+00 0.000000e+00 0.000000e+00
 0.000000e+00 0.000000e+00 0.000000e+00 0.000000e+00 0.000000e+00 0.000000e+00 0.000000e+00 7.497151e-01 2.502849e-01 0.000000e+00 0.000000e+00 0.000000e+00
 0.000000e+00 0.000000e+00 0.000000e+00 0.000000e+00 0.000000e+00 0.000000e+00 0.000000e+00 0.000000e+00 6.038697e-01 3.961303e-01 0.000000e+00 0.000000e+00
 0.000000e+00 0.000000e+00 0.000000e+00 0.000000e+00 0.000000e+00 0.000000e+00 0.000000e+00 0.000000e+00 0.000000e+00 8.613821e-01 1.386179e-01 0.000000e+00
 0.000000e+00 0.000000e+00 0.000000e+00 0.000000e+00 0.000000e+00 0.000000e+00 0.000000e+00 0.000000e+00 0.000000e+00 0.000000e+00 9.051514e-01 9.484865e-02
 0.000000e+00 0.000000e+00 0.000000e+00 0.000000e+00 0.000000e+00 0.000000e+00 0.000000e+00 0.000000e+00 0.000000e+00 0.000000e+00 0.000000e+00 0.000000e+00
<ENDHMM>
