~o
<STREAMINFO> 1 6
<VECSIZE> 6<NULLD><USER><DIAGC>
~h "proto"
<BEGINHMM>
<NUMSTATES> 12
<STATE> 2
<MEAN> 6
 3.576822e-01 2.699760e-01 3.030091e-02 -2.086602e-03 -2.266353e-02 -8.794884e-03
<VARIANCE> 6
 5.835826e-03 5.157405e-03 6.417906e-04 1.831869e-04 9.287351e-04 4.340818e-04
<GCONST> -3.006401e+01
<STATE> 3
<MEAN> 6
 4.055512e-01 2.376520e-01 -1.482790e-02 -4.150048e-02 1.348281e-03 -1.023292e-02
<VARIANCE> 6
 2.550009e-03 4.482221e-03 3.848907e-04 4.147701e-04 2.151310e-03 1.430072e-03
<GCONST> -2.869408e+01
<STATE> 4
<MEAN> 6
 3.812332e-01 1.398839e-01 2.302179e-02 -1.573138e-02 1.932849e-02 2.370646e-02
<VARIANCE> 6
 2.068657e-03 3.979313e-03 4.065610e-04 3.083804e-04 5.304040e-04 7.909340e-04
<GCONST> -3.125636e+01
<STATE> 5
<MEAN> 6
 4.546108e-01 1.905338e-01 2.042954e-02 2.098907e-02 -1.328828e-02 -5.111396e-03
<VARIANCE> 6
 1.475165e-03 5.431566e-03 3.564178e-04 2.620488e-04 3.335490e-04 1.348055e-03
<GCONST> -3.150845e+01
<STATE> 6
<MEAN> 6
 4.961204e-01 1.719034e-01 2.678743e-02 -2.023891e-02 2.069497e-02 1.708452e-03
<VARIANCE> 6
 1.633744e-03 5.266145e-03 4.711130e-04 1.773635e-04 6.231096e-04 9.297866e-04
<GCONST> -3.129514e+01
<STATE> 7
<MEAN> 6
 5.774662e-01 1.649319e-01 2.990699e-02 3.575477e-02 -3.688483e-02 4.098392e-02
<VARIANCE> 6
 2.728675e-03 5.175072e-03 7.743764e-04 9.121442e-04 1.119496e-03 1.691668e-03
<GCONST> -2.748066e+01
<STATE> 8
<MEAN> 6
 5.542062e-01 2.747420e-01 -2.795862e-02 3.989333e-02 5.180000e-03 -2.939346e-02
<VARIANCE> 6
 3.615546e-03 4.497241e-03 3.468203e-04 6.235045e-04 2.836100e-03 6.080099e-04
<GCONST> -2.861704e+01
<STATE> 9
<MEAN> 6
 5.701340e-01 3.042520e-01 5.808700e-02 7.017429e-03 3.616164e-02 -4.705654e-03
<VARIANCE> 6
 5.167861e-03 6.644296e-03 1.433210e-03 6.327053e-05 3.160184e-03 1.895066e-04
<GCONST> -2.979617e+01
<STATE> 10
<MEAN> 6
 7.093194e-01 3.113126e-01 4.149306e-02 -2.297978e-02 -5.213917e-02 -3.134240e-02
<VARIANCE> 6
 4.798389e-03 4.278250e-03 1.769914e-03 5.086398e-04 1.715043e-03 5.166993e-04
<GCONST> -2.762339e+01
<STATE> 11
<MEAN> 6
 6.990663e-01 2.366871e-01 -1.041992e-02 -5.390607e-03 -4.134180e-03 3.379143e-02
<VARIANCE> 6
 5.983453e-03 5.666413e-03 7.964803e-04 1.294547e-03 2.160340e-03 1.326218e-03
<GCONST> -2.581251e+01
<TRANSP> 12
 0.000000e+00 1.000000e+00 0.000000e+00 0.000000e+00 0.000000e+00 0.000000e+00 0.000000e+00 0.000000e+00 0.000000e+00 0.000000e+00 0.000000e+00 0.000000e+00
 0.000000e+00 8.538784e-01 1.461217e-01 0.000000e+00 0.000000e+00 0.000000e+00 0.000000e+00 0.000000e+00 0.000000e+00 0.000000e+00 0.000000e+00 0.000000e+00
 0.000000e+00 0.000000e+00 8.473482e-01 1.526518e-01 0.000000e+00 0.000000e+00 0.000000e+00 0.000000e+00 0.000000e+00 0.000000e+00 0.000000e+00 0.000000e+00
 0.000000e+00 0.000000e+00 0.000000e+00 8.493298e-01 1.506702e-01 0.000000e+00 0.000000e+00 0.000000e+00 0.000000e+00 0.000000e+00 0.000000e+00 0.000000e+00
 0.000000e+00 0.000000e+00 0.000000e+00 0.000000e+00 8.821582e-01 1.178419e-01 0.000000e+00 0.000000e+00 0.000000e+00 0.000000e+00 0.000000e+00 0.000000e+00
 0.000000e+00 0.000000e+00 0.000000e+00 0.000000e+00 0.000000e+00 8.513041e-01 1.486959e-01 0.000000e+00 0.000000e+00 0.000000e+00 0.000000e+00 0.000000e+00
 0.000000e+00 0.000000e+00 0.000000e+00 0.000000e+00 0.000000e+00 0.000000e+00 8.297864e-01 1.702136e-01 0.000000e+00 0.000000e+00 0.000000e+00 0.000000e+00
 0.000000e+00 0.000000e+00 0.000000e+00 0.000000e+00 0.000000e+00 0.000000e+00 0.000000e+00 8.395995e-01 1.604005e-01 0.000000e+00 0.000000e+00 0.000000e+00
 0.000000e+00 0.000000e+00 0.000000e+00 0.000000e+00 0.000000e+00 0.000000e+00 0.000000e+00 0.000000e+00 8.727012e-01 1.272988e-01 0.000000e+00 0.000000e+00
 0.000000e+00 0.000000e+00 0.000000e+00 0.000000e+00 0.000000e+00 0.000000e+00 0.000000e+00 0.000000e+00 0.000000e+00 8.183500e-01 1.816500e-01 0.000000e+00
 0.000000e+00 0.000000e+00 0.000000e+00 0.000000e+00 0.000000e+00 0.000000e+00 0.000000e+00 0.000000e+00 0.000000e+00 0.000000e+00 8.769609e-01 1.230391e-01
 0.000000e+00 0.000000e+00 0.000000e+00 0.000000e+00 0.000000e+00 0.000000e+00 0.000000e+00 0.000000e+00 0.000000e+00 0.000000e+00 0.000000e+00 0.000000e+00
<ENDHMM>
