~o
<STREAMINFO> 1 7
<VECSIZE> 7<NULLD><USER><DIAGC>
~h "proto"
<BEGINHMM>
<NUMSTATES> 12
<STATE> 2
<MEAN> 7
 3.739883e-01 2.383976e-01 3.576875e-02 -2.693134e-03 -2.011673e-02 -3.607294e-03 -1.646890e+01
<VARIANCE> 7
 3.906622e-03 7.165494e-03 6.222642e-04 2.343360e-04 9.142274e-04 3.612525e-04 2.523189e+03
<GCONST> -2.044941e+01
<STATE> 3
<MEAN> 7
 4.297355e-01 2.550588e-01 2.812444e-03 -1.848194e-02 -6.158266e-02 -4.357702e-02 -1.329109e+03
<VARIANCE> 7
 3.248235e-03 5.948246e-03 3.923266e-04 3.494042e-04 1.216430e-03 8.423245e-04 3.961578e+07
<GCONST> -1.008830e+01
<STATE> 4
<MEAN> 7
 4.177138e-01 1.760478e-01 1.045081e-02 -9.161898e-03 5.018031e-03 8.410268e-03 1.723732e+00
<VARIANCE> 7
 3.664699e-03 6.878192e-03 7.719770e-04 1.000791e-03 8.984185e-04 9.360207e-04 4.856792e+02
<GCONST> -1.959999e+01
<STATE> 5
<MEAN> 7
 4.822367e-01 1.907555e-01 9.633629e-03 4.303785e-03 -6.130667e-03 -4.015654e-02 -1.629779e+03
<VARIANCE> 7
 2.171153e-03 5.771487e-03 1.665908e-04 4.513142e-04 9.927879e-04 2.042462e-03 9.099183e+07
<GCONST> -9.607813e+00
<STATE> 6
<MEAN> 7
 5.506422e-01 1.894860e-01 1.617937e-02 1.748230e-02 -1.007267e-02 1.006231e-02 8.220777e+00
<VARIANCE> 7
 4.273009e-03 7.140470e-03 1.333824e-03 1.543942e-03 1.856627e-03 1.859915e-03 2.956721e+02
<GCONST> -1.751236e+01
<STATE> 7
<MEAN> 7
 5.502262e-01 2.791607e-01 -3.288101e-02 2.903631e-02 3.150049e-02 -3.845042e-02 2.249236e+01
<VARIANCE> 7
 3.046747e-03 5.814757e-03 5.836848e-04 4.270381e-04 8.421142e-04 7.780041e-04 2.858208e+02
<GCONST> -2.186369e+01
<STATE> 8
<MEAN> 7
 5.415155e-01 2.850692e-01 -1.836348e-02 1.825454e-02 6.923115e-02 -3.467706e-02 9.586059e+01
<VARIANCE> 7
 3.085611e-03 5.889942e-03 3.706827e-04 1.732782e-04 3.388968e-03 7.730689e-04 1.212524e+04
<GCONST> -1.806048e+01
<STATE> 9
<MEAN> 7
 5.381870e-01 2.891520e-01 7.554628e-03 9.332065e-03 9.159826e-02 -2.540167e-02 3.547917e+03
<VARIANCE> 7
 2.903879e-03 5.916709e-03 8.275825e-04 8.805894e-05 3.894405e-03 7.717320e-04 5.608707e+08
<GCONST> -7.111137e+00
<STATE> 10
<MEAN> 7
 6.171334e-01 2.952794e-01 6.955221e-02 4.168516e-03 1.369893e-02 -8.622898e-03 -2.675072e+01
<VARIANCE> 7
 5.647115e-03 5.831266e-03 1.329958e-03 8.568813e-05 4.447921e-03 3.533227e-04 2.657334e+04
<GCONST> -1.661918e+01
<STATE> 11
<MEAN> 7
 7.156435e-01 2.489638e-01 3.362128e-03 -1.428500e-02 -1.901010e-02 1.372471e-02 -1.228586e+01
<VARIANCE> 7
 5.436295e-03 7.082649e-03 1.330267e-03 1.099426e-03 2.639426e-03 2.164134e-03 2.749776e+03
<GCONST> -1.488862e+01
<TRANSP> 12
 0.000000e+00 1.000000e+00 0.000000e+00 0.000000e+00 0.000000e+00 0.000000e+00 0.000000e+00 0.000000e+00 0.000000e+00 0.000000e+00 0.000000e+00 0.000000e+00
 0.000000e+00 8.264974e-01 1.735026e-01 0.000000e+00 0.000000e+00 0.000000e+00 0.000000e+00 0.000000e+00 0.000000e+00 0.000000e+00 0.000000e+00 0.000000e+00
 0.000000e+00 0.000000e+00 4.440430e-01 5.559571e-01 0.000000e+00 0.000000e+00 0.000000e+00 0.000000e+00 0.000000e+00 0.000000e+00 0.000000e+00 0.000000e+00
 0.000000e+00 0.000000e+00 0.000000e+00 9.483445e-01 5.165546e-02 0.000000e+00 0.000000e+00 0.000000e+00 0.000000e+00 0.000000e+00 0.000000e+00 0.000000e+00
 0.000000e+00 0.000000e+00 0.000000e+00 0.000000e+00 5.227762e-01 4.772238e-01 0.000000e+00 0.000000e+00 0.000000e+00 0.000000e+00 0.000000e+00 0.000000e+00
 0.000000e+00 0.000000e+00 0.000000e+00 0.000000e+00 0.000000e+00 9.370918e-01 6.290817e-02 0.000000e+00 0.000000e+00 0.000000e+00 0.000000e+00 0.000000e+00
 0.000000e+00 0.000000e+00 0.000000e+00 0.000000e+00 0.000000e+00 0.000000e+00 0.000000e+00 1.000000e+00 0.000000e+00 0.000000e+00 0.000000e+00 0.000000e+00
 0.000000e+00 0.000000e+00 0.000000e+00 0.000000e+00 0.000000e+00 0.000000e+00 0.000000e+00 0.000000e+00 1.000000e+00 0.000000e+00 0.000000e+00 0.000000e+00
 0.000000e+00 0.000000e+00 0.000000e+00 0.000000e+00 0.000000e+00 0.000000e+00 0.000000e+00 0.000000e+00 0.000000e+00 1.000000e+00 0.000000e+00 0.000000e+00
 0.000000e+00 0.000000e+00 0.000000e+00 0.000000e+00 0.000000e+00 0.000000e+00 0.000000e+00 0.000000e+00 0.000000e+00 8.680242e-01 1.319759e-01 0.000000e+00
 0.000000e+00 0.000000e+00 0.000000e+00 0.000000e+00 0.000000e+00 0.000000e+00 0.000000e+00 0.000000e+00 0.000000e+00 0.000000e+00 9.110577e-01 8.894237e-02
 0.000000e+00 0.000000e+00 0.000000e+00 0.000000e+00 0.000000e+00 0.000000e+00 0.000000e+00 0.000000e+00 0.000000e+00 0.000000e+00 0.000000e+00 0.000000e+00
<ENDHMM>
