~o
<STREAMINFO> 1 7
<VECSIZE> 7<NULLD><USER><DIAGC>
~h "proto"
<BEGINHMM>
<NUMSTATES> 12
<STATE> 2
<MEAN> 7
 3.739885e-01 2.383979e-01 3.576884e-02 -2.693119e-03 -2.011677e-02 -3.607311e-03 -1.646892e+01
<VARIANCE> 7
 3.906630e-03 7.165507e-03 6.222645e-04 2.343360e-04 9.142325e-04 3.612529e-04 2.523194e+03
<GCONST> -2.044939e+01
<STATE> 3
<MEAN> 7
 4.297356e-01 2.550588e-01 2.812451e-03 -1.848194e-02 -6.158272e-02 -4.357707e-02 -1.329107e+03
<VARIANCE> 7
 3.248232e-03 5.948236e-03 3.923257e-04 3.494040e-04 1.216430e-03 8.423223e-04 3.961558e+07
<GCONST> -1.008832e+01
<STATE> 4
<MEAN> 7
 4.177138e-01 1.760476e-01 1.045080e-02 -9.161924e-03 5.018041e-03 8.410279e-03 1.723716e+00
<VARIANCE> 7
 3.664691e-03 6.878199e-03 7.719771e-04 1.000793e-03 8.984189e-04 9.360215e-04 4.856768e+02
<GCONST> -1.959999e+01
<STATE> 5
<MEAN> 7
 4.822367e-01 1.907556e-01 9.633623e-03 4.303713e-03 -6.130588e-03 -4.015666e-02 -1.629782e+03
<VARIANCE> 7
 2.171146e-03 5.771471e-03 1.665902e-04 4.513145e-04 9.927816e-04 2.042449e-03 9.099218e+07
<GCONST> -9.607830e+00
<STATE> 6
<MEAN> 7
 5.506421e-01 1.894854e-01 1.617966e-02 1.748223e-02 -1.007282e-02 1.006253e-02 8.220738e+00
<VARIANCE> 7
 4.273022e-03 7.140353e-03 1.333814e-03 1.543947e-03 1.856628e-03 1.859913e-03 2.956722e+02
<GCONST> -1.751238e+01
<STATE> 7
<MEAN> 7
 5.502270e-01 2.791604e-01 -3.288185e-02 2.903701e-02 3.149884e-02 -3.845098e-02 2.249092e+01
<VARIANCE> 7
 3.046771e-03 5.814758e-03 5.836916e-04 4.270334e-04 8.420834e-04 7.780008e-04 2.857921e+02
<GCONST> -2.186383e+01
<STATE> 8
<MEAN> 7
 5.415161e-01 2.850690e-01 -1.836460e-02 1.825497e-02 6.922963e-02 -3.467782e-02 9.585553e+01
<VARIANCE> 7
 3.085635e-03 5.889929e-03 3.706892e-04 1.732757e-04 3.388966e-03 7.730559e-04 1.212460e+04
<GCONST> -1.806054e+01
<STATE> 9
<MEAN> 7
 5.381873e-01 2.891518e-01 7.552919e-03 9.332291e-03 9.159723e-02 -2.540225e-02 3.547905e+03
<VARIANCE> 7
 2.903898e-03 5.916704e-03 8.275978e-04 8.806105e-05 3.894433e-03 7.717148e-04 5.608686e+08
<GCONST> -7.111109e+00
<STATE> 10
<MEAN> 7
 6.171185e-01 2.952785e-01 6.955064e-02 4.169930e-03 1.370796e-02 -8.619880e-03 -2.675080e+01
<VARIANCE> 7
 5.645794e-03 5.831349e-03 1.330030e-03 8.567428e-05 4.447729e-03 3.532516e-04 2.657682e+04
<GCONST> -1.661962e+01
<STATE> 11
<MEAN> 7
 7.156451e-01 2.489685e-01 3.368356e-03 -1.428436e-02 -1.901298e-02 1.372080e-02 -1.228635e+01
<VARIANCE> 7
 5.436098e-03 7.082754e-03 1.330692e-03 1.099341e-03 2.639434e-03 2.164157e-03 2.749606e+03
<GCONST> -1.488845e+01
<TRANSP> 12
 0.000000e+00 1.000000e+00 0.000000e+00 0.000000e+00 0.000000e+00 0.000000e+00 0.000000e+00 0.000000e+00 0.000000e+00 0.000000e+00 0.000000e+00 0.000000e+00
 0.000000e+00 8.264970e-01 1.735030e-01 0.000000e+00 0.000000e+00 0.000000e+00 0.000000e+00 0.000000e+00 0.000000e+00 0.000000e+00 0.000000e+00 0.000000e+00
 0.000000e+00 0.000000e+00 4.440431e-01 5.559569e-01 0.000000e+00 0.000000e+00 0.000000e+00 0.000000e+00 0.000000e+00 0.000000e+00 0.000000e+00 0.000000e+00
 0.000000e+00 0.000000e+00 0.000000e+00 9.483444e-01 5.165560e-02 0.000000e+00 0.000000e+00 0.000000e+00 0.000000e+00 0.000000e+00 0.000000e+00 0.000000e+00
 0.000000e+00 0.000000e+00 0.000000e+00 0.000000e+00 5.227761e-01 4.772239e-01 0.000000e+00 0.000000e+00 0.000000e+00 0.000000e+00 0.000000e+00 0.000000e+00
 0.000000e+00 0.000000e+00 0.000000e+00 0.000000e+00 0.000000e+00 9.370916e-01 6.290837e-02 0.000000e+00 0.000000e+00 0.000000e+00 0.000000e+00 0.000000e+00
 0.000000e+00 0.000000e+00 0.000000e+00 0.000000e+00 0.000000e+00 0.000000e+00 0.000000e+00 1.000000e+00 0.000000e+00 0.000000e+00 0.000000e+00 0.000000e+00
 0.000000e+00 0.000000e+00 0.000000e+00 0.000000e+00 0.000000e+00 0.000000e+00 0.000000e+00 0.000000e+00 1.000000e+00 0.000000e+00 0.000000e+00 0.000000e+00
 0.000000e+00 0.000000e+00 0.000000e+00 0.000000e+00 0.000000e+00 0.000000e+00 0.000000e+00 0.000000e+00 0.000000e+00 1.000000e+00 0.000000e+00 0.000000e+00
 0.000000e+00 0.000000e+00 0.000000e+00 0.000000e+00 0.000000e+00 0.000000e+00 0.000000e+00 0.000000e+00 0.000000e+00 8.680091e-01 1.319909e-01 0.000000e+00
 0.000000e+00 0.000000e+00 0.000000e+00 0.000000e+00 0.000000e+00 0.000000e+00 0.000000e+00 0.000000e+00 0.000000e+00 0.000000e+00 9.110652e-01 8.893484e-02
 0.000000e+00 0.000000e+00 0.000000e+00 0.000000e+00 0.000000e+00 0.000000e+00 0.000000e+00 0.000000e+00 0.000000e+00 0.000000e+00 0.000000e+00 0.000000e+00
<ENDHMM>
