~o
<STREAMINFO> 1 6
<VECSIZE> 6<NULLD><USER><DIAGC>
~h "proto"
<BEGINHMM>
<NUMSTATES> 12
<STATE> 2
<MEAN> 6
 3.599915e-01 2.701885e-01 2.964858e-02 -2.375122e-03 -2.416874e-02 -9.952772e-03
<VARIANCE> 6
 6.055890e-03 5.174209e-03 6.484592e-04 1.831386e-04 1.033471e-03 4.852834e-04
<GCONST> -2.979532e+01
<STATE> 3
<MEAN> 6
 3.971797e-01 2.268287e-01 -1.352268e-02 -4.073431e-02 5.997034e-03 -6.853650e-03
<VARIANCE> 6
 2.491712e-03 4.639219e-03 3.595154e-04 3.214660e-04 1.741474e-03 1.233525e-03
<GCONST> -2.936501e+01
<STATE> 4
<MEAN> 6
 3.964795e-01 1.377192e-01 2.993845e-02 -4.912328e-03 9.090221e-03 2.723785e-02
<VARIANCE> 6
 2.118748e-03 4.342542e-03 3.836226e-04 5.082180e-04 8.039422e-04 8.010315e-04
<GCONST> -3.027501e+01
<STATE> 5
<MEAN> 6
 4.634194e-01 1.982273e-01 1.468631e-02 6.464020e-03 -2.763482e-03 -1.532691e-02
<VARIANCE> 6
 1.285879e-03 4.914821e-03 1.771197e-04 6.427071e-04 4.297502e-04 9.531791e-04
<GCONST> -3.164107e+01
<STATE> 6
<MEAN> 6
 5.356424e-01 1.491214e-01 4.132507e-02 -5.513881e-03 7.833658e-03 2.815869e-02
<VARIANCE> 6
 2.094721e-03 5.107408e-03 5.060398e-04 5.405844e-04 1.294079e-03 1.164760e-03
<GCONST> -2.893509e+01
<STATE> 7
<MEAN> 6
 5.902717e-01 2.127613e-01 1.175698e-03 5.980232e-02 -4.880880e-02 1.373488e-02
<VARIANCE> 6
 3.002920e-03 4.925412e-03 1.076293e-03 5.489301e-04 1.132647e-03 2.793034e-03
<GCONST> -2.709985e+01
<STATE> 8
<MEAN> 6
 5.320670e-01 2.832873e-01 -2.361906e-02 2.545188e-02 2.998796e-02 -2.543170e-02
<VARIANCE> 6
 3.416884e-03 5.663302e-03 3.867453e-04 2.481035e-04 2.280339e-03 4.437749e-04
<GCONST> -2.978854e+01
<STATE> 9
<MEAN> 6
 5.812195e-01 3.036845e-01 6.536131e-02 6.631748e-03 3.036457e-02 -3.919681e-03
<VARIANCE> 6
 5.259871e-03 6.590297e-03 1.057392e-03 6.303319e-05 3.323724e-03 1.751517e-04
<GCONST> -3.012287e+01
<STATE> 10
<MEAN> 6
 7.099198e-01 3.115224e-01 3.979969e-02 -2.426654e-02 -5.240190e-02 -3.220373e-02
<VARIANCE> 6
 4.958725e-03 4.291776e-03 1.781022e-03 4.920171e-04 1.744657e-03 5.159344e-04
<GCONST> -2.759869e+01
<STATE> 11
<MEAN> 6
 6.989462e-01 2.370636e-01 -1.056377e-02 -5.310684e-03 -4.050119e-03 3.403727e-02
<VARIANCE> 6
 5.994021e-03 5.621371e-03 7.938126e-04 1.297825e-03 2.164098e-03 1.322399e-03
<GCONST> -2.582070e+01
<TRANSP> 12
 0.000000e+00 1.000000e+00 0.000000e+00 0.000000e+00 0.000000e+00 0.000000e+00 0.000000e+00 0.000000e+00 0.000000e+00 0.000000e+00 0.000000e+00 0.000000e+00
 0.000000e+00 8.577931e-01 1.422069e-01 0.000000e+00 0.000000e+00 0.000000e+00 0.000000e+00 0.000000e+00 0.000000e+00 0.000000e+00 0.000000e+00 0.000000e+00
 0.000000e+00 0.000000e+00 8.626193e-01 1.373807e-01 0.000000e+00 0.000000e+00 0.000000e+00 0.000000e+00 0.000000e+00 0.000000e+00 0.000000e+00 0.000000e+00
 0.000000e+00 0.000000e+00 0.000000e+00 8.639941e-01 1.360059e-01 0.000000e+00 0.000000e+00 0.000000e+00 0.000000e+00 0.000000e+00 0.000000e+00 0.000000e+00
 0.000000e+00 0.000000e+00 0.000000e+00 0.000000e+00 8.967451e-01 1.032550e-01 0.000000e+00 0.000000e+00 0.000000e+00 0.000000e+00 0.000000e+00 0.000000e+00
 0.000000e+00 0.000000e+00 0.000000e+00 0.000000e+00 0.000000e+00 8.432562e-01 1.567438e-01 0.000000e+00 0.000000e+00 0.000000e+00 0.000000e+00 0.000000e+00
 0.000000e+00 0.000000e+00 0.000000e+00 0.000000e+00 0.000000e+00 0.000000e+00 8.031340e-01 1.968660e-01 0.000000e+00 0.000000e+00 0.000000e+00 0.000000e+00
 0.000000e+00 0.000000e+00 0.000000e+00 0.000000e+00 0.000000e+00 0.000000e+00 0.000000e+00 8.132887e-01 1.867112e-01 0.000000e+00 0.000000e+00 0.000000e+00
 0.000000e+00 0.000000e+00 0.000000e+00 0.000000e+00 0.000000e+00 0.000000e+00 0.000000e+00 0.000000e+00 8.629274e-01 1.370726e-01 0.000000e+00 0.000000e+00
 0.000000e+00 0.000000e+00 0.000000e+00 0.000000e+00 0.000000e+00 0.000000e+00 0.000000e+00 0.000000e+00 0.000000e+00 8.113447e-01 1.886553e-01 0.000000e+00
 0.000000e+00 0.000000e+00 0.000000e+00 0.000000e+00 0.000000e+00 0.000000e+00 0.000000e+00 0.000000e+00 0.000000e+00 0.000000e+00 8.762401e-01 1.237599e-01
 0.000000e+00 0.000000e+00 0.000000e+00 0.000000e+00 0.000000e+00 0.000000e+00 0.000000e+00 0.000000e+00 0.000000e+00 0.000000e+00 0.000000e+00 0.000000e+00
<ENDHMM>
