~o
<STREAMINFO> 1 7
<VECSIZE> 7<NULLD><USER><DIAGC>
~h "proto"
<BEGINHMM>
<NUMSTATES> 12
<STATE> 2
<MEAN> 7
 4.276640e-01 2.559466e-01 -4.761874e-06 2.507404e-02 -2.637262e-02 -5.860849e-03 1.057715e+01
<VARIANCE> 7
 4.696908e-03 4.709946e-03 5.695123e-04 4.315961e-04 9.960744e-04 1.354162e-03 2.017230e+03
<GCONST> -1.897932e+01
<STATE> 3
<MEAN> 7
 3.640687e-01 2.701010e-01 -2.277887e-02 -2.448754e-02 1.308842e-02 -3.861332e-02 1.687276e+01
<VARIANCE> 7
 5.565933e-03 4.471841e-03 6.855241e-04 9.512852e-04 1.090570e-03 1.655518e-03 3.407005e+02
<GCONST> -1.937262e+01
<STATE> 4
<MEAN> 7
 3.790536e-01 1.761784e-01 4.171250e-02 -5.492586e-02 5.207834e-02 2.375601e-02 8.486749e-01
<VARIANCE> 7
 4.938288e-03 3.963172e-03 1.650076e-03 8.564463e-04 2.204502e-03 1.548326e-03 1.003713e+01
<GCONST> -2.172750e+01
<STATE> 5
<MEAN> 7
 4.998868e-01 1.313886e-01 6.182350e-02 2.114285e-02 -3.457152e-02 5.397747e-02 1.339463e+01
<VARIANCE> 7
 5.747448e-03 3.249768e-03 1.106467e-03 1.102010e-03 2.128362e-03 2.252180e-03 1.176008e+02
<GCONST> -1.912120e+01
<STATE> 6
<MEAN> 7
 5.551128e-01 2.223236e-01 -8.995268e-03 6.142014e-02 -3.963047e-02 -1.521846e-02 5.024592e-01
<VARIANCE> 7
 5.383944e-03 4.212484e-03 6.733240e-04 6.325063e-04 1.315131e-03 9.459495e-04 1.754700e+01
<GCONST> -2.323026e+01
<STATE> 7
<MEAN> 7
 5.146394e-01 2.794683e-01 -2.302987e-02 2.724514e-02 3.193819e-02 -2.945516e-02 4.512463e+01
<VARIANCE> 7
 4.497508e-03 4.086128e-03 2.798912e-04 2.274801e-04 8.258462e-04 7.590657e-04 5.347205e+03
<GCONST> -2.030700e+01
<STATE> 8
<MEAN> 7
 5.122767e-01 2.924260e-01 6.301714e-03 1.615694e-02 8.853900e-02 -2.659010e-02 5.172308e+03
<VARIANCE> 7
 4.978203e-03 4.247324e-03 1.634042e-04 1.285227e-04 3.428037e-03 7.118848e-04 1.993516e+08
<GCONST> -9.390484e+00
<STATE> 9
<MEAN> 7
 5.529775e-01 2.745248e-01 4.557835e-02 3.720645e-03 3.908978e-02 -1.484722e-02 -3.251400e+01
<VARIANCE> 7
 5.788947e-03 3.313885e-03 1.108277e-03 1.266265e-04 5.863102e-03 3.365265e-04 4.130255e+04
<GCONST> -1.628275e+01
<STATE> 10
<MEAN> 7
 6.070767e-01 3.035217e-01 7.782920e-02 1.921015e-03 8.562200e-03 -9.651956e-03 -1.503688e+00
<VARIANCE> 7
 7.385853e-03 4.068491e-03 1.104500e-03 1.512105e-04 2.802014e-03 2.904116e-04 9.806436e+00
<GCONST> -2.489132e+01
<STATE> 11
<MEAN> 7
 6.960860e-01 2.524718e-01 2.965377e-03 -1.588153e-02 -2.343203e-02 1.552246e-02 -1.792838e+01
<VARIANCE> 7
 5.801035e-03 4.252114e-03 1.419945e-03 1.236764e-03 3.247832e-03 2.606545e-03 3.070967e+03
<GCONST> -1.464706e+01
<TRANSP> 12
 0.000000e+00 1.000000e+00 0.000000e+00 0.000000e+00 0.000000e+00 0.000000e+00 0.000000e+00 0.000000e+00 0.000000e+00 0.000000e+00 0.000000e+00 0.000000e+00
 0.000000e+00 8.553149e-01 1.446851e-01 0.000000e+00 0.000000e+00 0.000000e+00 0.000000e+00 0.000000e+00 0.000000e+00 0.000000e+00 0.000000e+00 0.000000e+00
 0.000000e+00 0.000000e+00 8.526863e-01 1.473137e-01 0.000000e+00 0.000000e+00 0.000000e+00 0.000000e+00 0.000000e+00 0.000000e+00 0.000000e+00 0.000000e+00
 0.000000e+00 0.000000e+00 0.000000e+00 8.437707e-01 1.562294e-01 0.000000e+00 0.000000e+00 0.000000e+00 0.000000e+00 0.000000e+00 0.000000e+00 0.000000e+00
 0.000000e+00 0.000000e+00 0.000000e+00 0.000000e+00 8.404292e-01 1.595707e-01 0.000000e+00 0.000000e+00 0.000000e+00 0.000000e+00 0.000000e+00 0.000000e+00
 0.000000e+00 0.000000e+00 0.000000e+00 0.000000e+00 0.000000e+00 8.089469e-01 1.910531e-01 0.000000e+00 0.000000e+00 0.000000e+00 0.000000e+00 0.000000e+00
 0.000000e+00 0.000000e+00 0.000000e+00 0.000000e+00 0.000000e+00 0.000000e+00 6.726945e-01 3.273055e-01 0.000000e+00 0.000000e+00 0.000000e+00 0.000000e+00
 0.000000e+00 0.000000e+00 0.000000e+00 0.000000e+00 0.000000e+00 0.000000e+00 0.000000e+00 0.000000e+00 1.000000e+00 0.000000e+00 0.000000e+00 0.000000e+00
 0.000000e+00 0.000000e+00 0.000000e+00 0.000000e+00 0.000000e+00 0.000000e+00 0.000000e+00 0.000000e+00 5.361945e-01 4.638055e-01 0.000000e+00 0.000000e+00
 0.000000e+00 0.000000e+00 0.000000e+00 0.000000e+00 0.000000e+00 0.000000e+00 0.000000e+00 0.000000e+00 0.000000e+00 8.332736e-01 1.667264e-01 0.000000e+00
 0.000000e+00 0.000000e+00 0.000000e+00 0.000000e+00 0.000000e+00 0.000000e+00 0.000000e+00 0.000000e+00 0.000000e+00 0.000000e+00 9.105198e-01 8.948021e-02
 0.000000e+00 0.000000e+00 0.000000e+00 0.000000e+00 0.000000e+00 0.000000e+00 0.000000e+00 0.000000e+00 0.000000e+00 0.000000e+00 0.000000e+00 0.000000e+00
<ENDHMM>
