~o
<STREAMINFO> 1 6
<VECSIZE> 6<NULLD><USER><DIAGC>
~h "proto"
<BEGINHMM>
<NUMSTATES> 12
<STATE> 2
<MEAN> 6
 4.351889e-01 2.635160e-01 -2.427673e-03 2.381892e-02 -2.744693e-02 -7.431553e-03
<VARIANCE> 6
 4.929213e-03 4.998904e-03 5.660630e-04 3.000616e-04 5.854338e-04 1.020539e-03
<GCONST> -2.950276e+01
<STATE> 3
<MEAN> 6
 3.685937e-01 2.618074e-01 -1.942316e-02 -2.228579e-02 8.729702e-03 -3.059974e-02
<VARIANCE> 6
 4.611377e-03 4.339742e-03 4.740772e-04 5.504549e-04 2.736131e-04 1.008684e-03
<GCONST> -3.005372e+01
<STATE> 4
<MEAN> 6
 3.776071e-01 2.106471e-01 2.649757e-02 -6.656741e-02 7.094578e-02 7.281199e-03
<VARIANCE> 6
 4.674873e-03 3.698724e-03 1.869073e-03 5.701805e-04 1.728772e-03 2.256779e-03
<GCONST> -2.614409e+01
<STATE> 5
<MEAN> 6
 4.455504e-01 1.266930e-01 6.256665e-02 -1.115118e-02 4.321958e-03 3.898171e-02
<VARIANCE> 6
 4.159532e-03 2.181613e-03 1.190906e-03 5.246413e-04 9.525312e-04 9.946725e-04
<GCONST> -2.873810e+01
<STATE> 6
<MEAN> 6
 5.618625e-01 1.779392e-01 3.277929e-02 5.684245e-02 -6.074003e-02 3.138074e-02
<VARIANCE> 6
 5.451928e-03 3.313874e-03 1.413087e-03 7.628876e-04 1.248688e-03 2.217228e-03
<GCONST> -2.643170e+01
<STATE> 7
<MEAN> 6
 5.577397e-01 2.379366e-01 -2.250903e-02 6.317216e-02 -2.988026e-02 -3.257417e-02
<VARIANCE> 6
 5.661330e-03 3.948890e-03 5.482020e-04 2.448549e-04 4.191780e-04 8.221015e-04
<GCONST> -3.038573e+01
<STATE> 8
<MEAN> 6
 5.283085e-01 2.722060e-01 -1.650656e-02 3.055510e-02 2.398650e-02 -2.627183e-02
<VARIANCE> 6
 4.890354e-03 3.962131e-03 4.681509e-04 2.380446e-04 1.380250e-03 3.831616e-04
<GCONST> -3.028652e+01
<STATE> 9
<MEAN> 6
 5.800611e-01 2.945122e-01 6.437755e-02 5.426860e-03 2.633125e-02 -8.382716e-03
<VARIANCE> 6
 5.996172e-03 4.564812e-03 1.012308e-03 7.479885e-05 3.067151e-03 1.705474e-04
<GCONST> -3.033848e+01
<STATE> 10
<MEAN> 6
 7.146046e-01 3.032043e-01 3.660668e-02 -2.700998e-02 -4.996080e-02 -2.745396e-02
<VARIANCE> 6
 6.631127e-03 3.442708e-03 1.647925e-03 4.636935e-04 1.354794e-03 5.887842e-04
<GCONST> -2.778630e+01
<STATE> 11
<MEAN> 6
 6.901815e-01 2.309824e-01 -1.205033e-02 -5.198096e-03 -1.849983e-03 3.944403e-02
<VARIANCE> 6
 5.929357e-03 3.459007e-03 1.003505e-03 1.282188e-03 2.638522e-03 1.335790e-03
<GCONST> -2.588656e+01
<TRANSP> 12
 0.000000e+00 1.000000e+00 0.000000e+00 0.000000e+00 0.000000e+00 0.000000e+00 0.000000e+00 0.000000e+00 0.000000e+00 0.000000e+00 0.000000e+00 0.000000e+00
 0.000000e+00 8.617591e-01 1.382410e-01 0.000000e+00 0.000000e+00 0.000000e+00 0.000000e+00 0.000000e+00 0.000000e+00 0.000000e+00 0.000000e+00 0.000000e+00
 0.000000e+00 0.000000e+00 8.553415e-01 1.446585e-01 0.000000e+00 0.000000e+00 0.000000e+00 0.000000e+00 0.000000e+00 0.000000e+00 0.000000e+00 0.000000e+00
 0.000000e+00 0.000000e+00 0.000000e+00 7.793776e-01 2.206224e-01 0.000000e+00 0.000000e+00 0.000000e+00 0.000000e+00 0.000000e+00 0.000000e+00 0.000000e+00
 0.000000e+00 0.000000e+00 0.000000e+00 0.000000e+00 8.264839e-01 1.735161e-01 0.000000e+00 0.000000e+00 0.000000e+00 0.000000e+00 0.000000e+00 0.000000e+00
 0.000000e+00 0.000000e+00 0.000000e+00 0.000000e+00 0.000000e+00 8.149464e-01 1.850536e-01 0.000000e+00 0.000000e+00 0.000000e+00 0.000000e+00 0.000000e+00
 0.000000e+00 0.000000e+00 0.000000e+00 0.000000e+00 0.000000e+00 0.000000e+00 0.000000e+00 1.000000e+00 0.000000e+00 0.000000e+00 0.000000e+00 0.000000e+00
 0.000000e+00 0.000000e+00 0.000000e+00 0.000000e+00 0.000000e+00 0.000000e+00 0.000000e+00 8.252491e-01 1.747509e-01 0.000000e+00 0.000000e+00 0.000000e+00
 0.000000e+00 0.000000e+00 0.000000e+00 0.000000e+00 0.000000e+00 0.000000e+00 0.000000e+00 0.000000e+00 8.637319e-01 1.362681e-01 0.000000e+00 0.000000e+00
 0.000000e+00 0.000000e+00 0.000000e+00 0.000000e+00 0.000000e+00 0.000000e+00 0.000000e+00 0.000000e+00 0.000000e+00 8.145632e-01 1.854368e-01 0.000000e+00
 0.000000e+00 0.000000e+00 0.000000e+00 0.000000e+00 0.000000e+00 0.000000e+00 0.000000e+00 0.000000e+00 0.000000e+00 0.000000e+00 8.636731e-01 1.363269e-01
 0.000000e+00 0.000000e+00 0.000000e+00 0.000000e+00 0.000000e+00 0.000000e+00 0.000000e+00 0.000000e+00 0.000000e+00 0.000000e+00 0.000000e+00 0.000000e+00
<ENDHMM>
