~o
<STREAMINFO> 1 6
<VECSIZE> 6<NULLD><USER><DIAGC>
~h "proto"
<BEGINHMM>
<NUMSTATES> 12
<STATE> 2
<MEAN> 6
 4.236755e-01 2.129730e-01 1.032123e-02 1.575852e-02 -1.443862e-02 6.902803e-03
<VARIANCE> 6
 1.000000e-02 1.000000e-02 1.000000e-02 1.000000e-02 1.000000e-02 1.000000e-02
<GCONST> -1.660376e+01
<STATE> 3
<MEAN> 6
 4.234972e-01 3.365766e-01 -1.867985e-02 3.895964e-04 -7.280615e-03 -2.017237e-02
<VARIANCE> 6
 1.000000e-02 1.000000e-02 1.000000e-02 1.000000e-02 1.000000e-02 1.000000e-02
<GCONST> -1.660376e+01
<STATE> 4
<MEAN> 6
 3.075420e-01 3.541214e-01 -1.453367e-02 -2.757790e-02 1.327194e-02 -1.757811e-02
<VARIANCE> 6
 1.000000e-02 1.000000e-02 1.000000e-02 1.000000e-02 1.000000e-02 1.000000e-02
<GCONST> -1.660376e+01
<STATE> 5
<MEAN> 6
 3.394315e-01 1.832559e-01 1.747627e-02 -4.424697e-02 2.957350e-02 3.847029e-03
<VARIANCE> 6
 1.000000e-02 1.000000e-02 1.000000e-02 1.000000e-02 1.000000e-02 1.000000e-02
<GCONST> -1.660376e+01
<STATE> 6
<MEAN> 6
 4.081125e-01 4.760051e-02 4.934957e-02 -1.745784e-02 1.018679e-02 2.091871e-02
<VARIANCE> 6
 1.000000e-02 1.000000e-02 1.000000e-02 1.000000e-02 1.000000e-02 1.000000e-02
<GCONST> -1.660376e+01
<STATE> 7
<MEAN> 6
 5.738773e-01 7.522595e-02 5.534162e-02 2.703603e-02 -2.507653e-02 2.598311e-02
<VARIANCE> 6
 1.000000e-02 1.000000e-02 1.000000e-02 1.000000e-02 1.000000e-02 1.000000e-02
<GCONST> -1.660376e+01
<STATE> 8
<MEAN> 6
 6.511071e-01 2.058873e-01 -6.038108e-04 5.159086e-02 -4.340335e-02 -9.294428e-03
<VARIANCE> 6
 1.000000e-02 1.000000e-02 1.000000e-02 1.000000e-02 1.000000e-02 1.000000e-02
<GCONST> -1.660376e+01
<STATE> 9
<MEAN> 6
 5.680455e-01 3.455241e-01 -2.337110e-02 1.348373e-03 -2.429928e-03 -2.268492e-02
<VARIANCE> 6
 1.000000e-02 1.000000e-02 1.000000e-02 1.000000e-02 1.000000e-02 1.000000e-02
<GCONST> -1.660376e+01
<STATE> 10
<MEAN> 6
 5.254678e-01 2.069381e-01 -2.115082e-02 -1.990419e-02 -2.323290e-03 -1.371650e-03
<VARIANCE> 6
 1.000000e-02 1.000000e-02 1.000000e-02 1.000000e-02 1.000000e-02 1.000000e-02
<GCONST> -1.660376e+01
<STATE> 11
<MEAN> 6
 4.557699e-01 1.165883e-01 -3.175558e-02 -1.224957e-02 -9.279107e-03 5.767561e-03
<VARIANCE> 6
 1.000000e-02 1.000000e-02 1.000000e-02 1.000000e-02 1.000000e-02 1.000000e-02
<GCONST> -1.660376e+01
<TRANSP> 12
 0.000000e+00 1.000000e+00 0.000000e+00 0.000000e+00 0.000000e+00 0.000000e+00 0.000000e+00 0.000000e+00 0.000000e+00 0.000000e+00 0.000000e+00 0.000000e+00
 0.000000e+00 8.642857e-01 1.357143e-01 0.000000e+00 0.000000e+00 0.000000e+00 0.000000e+00 0.000000e+00 0.000000e+00 0.000000e+00 0.000000e+00 0.000000e+00
 0.000000e+00 0.000000e+00 8.538461e-01 1.461539e-01 0.000000e+00 0.000000e+00 0.000000e+00 0.000000e+00 0.000000e+00 0.000000e+00 0.000000e+00 0.000000e+00
 0.000000e+00 0.000000e+00 0.000000e+00 7.978724e-01 2.021277e-01 0.000000e+00 0.000000e+00 0.000000e+00 0.000000e+00 0.000000e+00 0.000000e+00 0.000000e+00
 0.000000e+00 0.000000e+00 0.000000e+00 0.000000e+00 8.853695e-01 1.146305e-01 0.000000e+00 0.000000e+00 0.000000e+00 0.000000e+00 0.000000e+00 0.000000e+00
 0.000000e+00 0.000000e+00 0.000000e+00 0.000000e+00 0.000000e+00 8.582090e-01 1.417910e-01 0.000000e+00 0.000000e+00 0.000000e+00 0.000000e+00 0.000000e+00
 0.000000e+00 0.000000e+00 0.000000e+00 0.000000e+00 0.000000e+00 0.000000e+00 8.541267e-01 1.458733e-01 0.000000e+00 0.000000e+00 0.000000e+00 0.000000e+00
 0.000000e+00 0.000000e+00 0.000000e+00 0.000000e+00 0.000000e+00 0.000000e+00 0.000000e+00 8.325991e-01 1.674009e-01 0.000000e+00 0.000000e+00 0.000000e+00
 0.000000e+00 0.000000e+00 0.000000e+00 0.000000e+00 0.000000e+00 0.000000e+00 0.000000e+00 0.000000e+00 8.625678e-01 1.374322e-01 0.000000e+00 0.000000e+00
 0.000000e+00 0.000000e+00 0.000000e+00 0.000000e+00 0.000000e+00 0.000000e+00 0.000000e+00 0.000000e+00 0.000000e+00 8.979866e-01 1.020134e-01 0.000000e+00
 0.000000e+00 0.000000e+00 0.000000e+00 0.000000e+00 0.000000e+00 0.000000e+00 0.000000e+00 0.000000e+00 0.000000e+00 0.000000e+00 8.164251e-01 1.835749e-01
 0.000000e+00 0.000000e+00 0.000000e+00 0.000000e+00 0.000000e+00 0.000000e+00 0.000000e+00 0.000000e+00 0.000000e+00 0.000000e+00 0.000000e+00 0.000000e+00
<ENDHMM>
