~o
<STREAMINFO> 1 7
<VECSIZE> 7<NULLD><USER><DIAGC>
~h "proto"
<BEGINHMM>
<NUMSTATES> 12
<STATE> 2
<MEAN> 7
 4.172468e-01 1.972293e-01 9.115492e-03 1.163133e-02 -1.199190e-02 4.692158e-03 1.803084e+01
<VARIANCE> 7
 1.000000e-02 1.000000e-02 1.000000e-02 1.000000e-02 1.000000e-02 1.000000e-02 1.097211e+03
<GCONST> -7.765355e+00
<STATE> 3
<MEAN> 7
 4.114093e-01 3.226792e-01 -1.850516e-02 8.722702e-03 -9.791718e-03 -2.070746e-02 1.034485e+01
<VARIANCE> 7
 1.000000e-02 1.000000e-02 1.000000e-02 1.000000e-02 1.000000e-02 1.000000e-02 3.185745e+02
<GCONST> -9.002026e+00
<STATE> 4
<MEAN> 7
 3.448547e-01 2.395415e-01 -1.740217e-02 -3.309354e-02 1.652840e-02 -1.809557e-02 6.091489e+00
<VARIANCE> 7
 1.000000e-02 1.000000e-02 1.000000e-02 1.000000e-02 1.000000e-02 1.000000e-02 3.974729e+01
<GCONST> -1.108334e+01
<STATE> 5
<MEAN> 7
 3.624212e-01 1.596472e-01 3.672889e-02 -5.067584e-02 3.582210e-02 1.394003e-02 8.694521e-01
<VARIANCE> 7
 1.000000e-02 1.000000e-02 1.000000e-02 1.000000e-02 1.000000e-02 1.000000e-02 3.197983e+00
<GCONST> -1.360336e+01
<STATE> 6
<MEAN> 7
 4.274470e-01 5.019925e-02 5.141927e-02 -8.439883e-03 3.043091e-03 2.293803e-02 5.362005e+00
<VARIANCE> 7
 1.000000e-02 1.000000e-02 1.000000e-02 1.000000e-02 1.000000e-02 1.000000e-02 4.716330e+01
<GCONST> -1.091227e+01
<STATE> 7
<MEAN> 7
 5.851763e-01 9.903473e-02 5.157941e-02 3.053135e-02 -2.808969e-02 2.963649e-02 6.280951e+00
<VARIANCE> 7
 1.000000e-02 1.000000e-02 1.000000e-02 1.000000e-02 1.000000e-02 1.000000e-02 3.137613e+01
<GCONST> -1.131983e+01
<STATE> 8
<MEAN> 7
 6.251344e-01 2.188516e-01 -9.061752e-03 5.341810e-02 -4.378701e-02 -2.252179e-02 -1.703323e+00
<VARIANCE> 7
 1.000000e-02 1.000000e-02 1.000000e-02 1.000000e-02 1.000000e-02 1.000000e-02 2.565195e+01
<GCONST> -1.152126e+01
<STATE> 9
<MEAN> 7
 5.316445e-01 2.320208e-01 -2.030178e-02 -1.986687e-02 7.230523e-03 -1.247932e-02 1.203357e+01
<VARIANCE> 7
 1.000000e-02 1.000000e-02 1.000000e-02 1.000000e-02 1.000000e-02 1.000000e-02 3.232889e+02
<GCONST> -8.987336e+00
<STATE> 10
<MEAN> 7
 5.129356e-01 1.478637e-01 -2.956769e-02 -1.116502e-02 -2.695994e-02 8.896168e-03 3.337155e+01
<VARIANCE> 7
 1.000000e-02 1.000000e-02 1.000000e-02 1.000000e-02 1.000000e-02 1.000000e-02 5.859211e+03
<GCONST> -6.090112e+00
<STATE> 11
<MEAN> 7
 4.670226e-01 1.266703e-01 -5.323191e-02 -4.342789e-03 -2.304054e-02 7.165238e-03 1.936552e+02
<VARIANCE> 7
 1.000000e-02 1.000000e-02 1.000000e-02 1.000000e-02 1.000000e-02 1.000000e-02 1.103312e+06
<GCONST> -8.520555e-01
<TRANSP> 12
 0.000000e+00 1.000000e+00 0.000000e+00 0.000000e+00 0.000000e+00 0.000000e+00 0.000000e+00 0.000000e+00 0.000000e+00 0.000000e+00 0.000000e+00 0.000000e+00
 0.000000e+00 8.376068e-01 1.623932e-01 0.000000e+00 0.000000e+00 0.000000e+00 0.000000e+00 0.000000e+00 0.000000e+00 0.000000e+00 0.000000e+00 0.000000e+00
 0.000000e+00 0.000000e+00 8.666667e-01 1.333333e-01 0.000000e+00 0.000000e+00 0.000000e+00 0.000000e+00 0.000000e+00 0.000000e+00 0.000000e+00 0.000000e+00
 0.000000e+00 0.000000e+00 0.000000e+00 8.264840e-01 1.735160e-01 0.000000e+00 0.000000e+00 0.000000e+00 0.000000e+00 0.000000e+00 0.000000e+00 0.000000e+00
 0.000000e+00 0.000000e+00 0.000000e+00 0.000000e+00 8.720539e-01 1.279461e-01 0.000000e+00 0.000000e+00 0.000000e+00 0.000000e+00 0.000000e+00 0.000000e+00
 0.000000e+00 0.000000e+00 0.000000e+00 0.000000e+00 0.000000e+00 8.220140e-01 1.779860e-01 0.000000e+00 0.000000e+00 0.000000e+00 0.000000e+00 0.000000e+00
 0.000000e+00 0.000000e+00 0.000000e+00 0.000000e+00 0.000000e+00 0.000000e+00 8.597786e-01 1.402214e-01 0.000000e+00 0.000000e+00 0.000000e+00 0.000000e+00
 0.000000e+00 0.000000e+00 0.000000e+00 0.000000e+00 0.000000e+00 0.000000e+00 0.000000e+00 8.376068e-01 1.623932e-01 0.000000e+00 0.000000e+00 0.000000e+00
 0.000000e+00 0.000000e+00 0.000000e+00 0.000000e+00 0.000000e+00 0.000000e+00 0.000000e+00 0.000000e+00 9.264279e-01 7.357211e-02 0.000000e+00 0.000000e+00
 0.000000e+00 0.000000e+00 0.000000e+00 0.000000e+00 0.000000e+00 0.000000e+00 0.000000e+00 0.000000e+00 0.000000e+00 7.632399e-01 2.367601e-01 0.000000e+00
 0.000000e+00 0.000000e+00 0.000000e+00 0.000000e+00 0.000000e+00 0.000000e+00 0.000000e+00 0.000000e+00 0.000000e+00 0.000000e+00 4.829932e-01 5.170068e-01
 0.000000e+00 0.000000e+00 0.000000e+00 0.000000e+00 0.000000e+00 0.000000e+00 0.000000e+00 0.000000e+00 0.000000e+00 0.000000e+00 0.000000e+00 0.000000e+00
<ENDHMM>
