~o
<STREAMINFO> 1 7
<VECSIZE> 7<NULLD><USER><DIAGC>
~h "proto"
<BEGINHMM>
<NUMSTATES> 12
<STATE> 2
<MEAN> 7
 3.948515e-01 2.239069e-01 -9.824640e-03 -4.909902e-02 3.100136e-02 5.846036e-03 -1.344616e-02
<VARIANCE> 7
 4.640123e-03 5.666402e-03 9.181962e-04 5.571516e-04 1.019622e-03 1.866120e-03 1.112354e+02
<GCONST> -2.062742e+01
<STATE> 3
<MEAN> 7
 4.065193e-01 1.515646e-01 2.821551e-02 1.094299e-02 -7.772034e-03 1.960225e-02 1.273670e+01
<VARIANCE> 7
 8.611226e-03 3.693057e-03 5.457643e-04 4.196503e-04 4.844171e-04 9.901746e-04 6.049373e+02
<GCONST> -2.092533e+01
<STATE> 4
<MEAN> 7
 5.036795e-01 1.793486e-01 2.853222e-02 -5.508283e-03 3.874703e-03 3.817780e-05 -8.309400e+00
<VARIANCE> 7
 3.603894e-03 2.173968e-03 3.488559e-04 4.263041e-04 6.428647e-04 1.807873e-03 5.980129e+03
<GCONST> -1.958200e+01
<STATE> 5
<MEAN> 7
 5.383196e-01 1.773043e-01 2.722829e-02 2.674170e-02 -4.416760e-02 5.082504e-02 -2.517374e+03
<VARIANCE> 7
 4.968025e-03 2.785412e-03 5.572297e-04 4.080319e-04 1.688499e-03 4.785247e-03 1.381678e+08
<GCONST> -6.601805e+00
<STATE> 6
<MEAN> 7
 5.345490e-01 2.298100e-01 -2.340782e-02 4.108827e-02 -2.709803e-02 -3.987281e-03 6.679120e+00
<VARIANCE> 7
 5.547385e-03 5.388669e-03 2.196713e-03 1.206758e-03 2.304032e-03 1.721210e-03 1.495977e+02
<GCONST> -1.782323e+01
<STATE> 7
<MEAN> 7
 4.402098e-01 3.220821e-01 -3.753662e-02 9.210888e-03 3.455719e-02 -1.412510e-02 1.241482e+01
<VARIANCE> 7
 3.867520e-03 3.250882e-03 3.788357e-04 1.885745e-04 1.848037e-03 2.251382e-04 1.508141e+03
<GCONST> -2.224705e+01
<STATE> 8
<MEAN> 7
 4.152758e-01 3.137982e-01 4.736952e-03 2.139897e-03 1.122232e-01 -1.412447e-03 2.403635e+03
<VARIANCE> 7
 6.139895e-03 4.949914e-03 1.416754e-04 1.290465e-04 4.879809e-03 2.807601e-04 1.723549e+08
<GCONST> -9.889093e+00
<STATE> 9
<MEAN> 7
 4.227633e-01 3.143522e-01 4.062280e-02 3.072794e-03 1.147802e-01 4.247244e-03 -6.673183e+00
<VARIANCE> 7
 6.025901e-03 4.962042e-03 6.355116e-04 1.073839e-04 4.774250e-03 3.232313e-04 7.458542e+02
<GCONST> -2.081980e+01
<STATE> 10
<MEAN> 7
 5.294060e-01 3.282011e-01 9.263724e-02 7.539026e-03 8.102709e-03 -6.944700e-03 -1.762167e+01
<VARIANCE> 7
 8.540084e-03 4.814034e-03 1.782277e-03 1.130992e-04 4.711780e-03 4.387356e-04 1.181102e+04
<GCONST> -1.636369e+01
<STATE> 11
<MEAN> 7
 6.731450e-01 2.857947e-01 5.749781e-03 -1.679721e-02 -2.659223e-02 1.592043e-02 -1.641217e+01
<VARIANCE> 7
 6.246694e-03 5.245655e-03 1.820407e-03 1.273899e-03 3.330421e-03 2.450662e-03 2.084205e+03
<GCONST> -1.450920e+01
<TRANSP> 12
 0.000000e+00 1.000000e+00 0.000000e+00 0.000000e+00 0.000000e+00 0.000000e+00 0.000000e+00 0.000000e+00 0.000000e+00 0.000000e+00 0.000000e+00 0.000000e+00
 0.000000e+00 8.873943e-01 1.126057e-01 0.000000e+00 0.000000e+00 0.000000e+00 0.000000e+00 0.000000e+00 0.000000e+00 0.000000e+00 0.000000e+00 0.000000e+00
 0.000000e+00 0.000000e+00 8.722091e-01 1.277909e-01 0.000000e+00 0.000000e+00 0.000000e+00 0.000000e+00 0.000000e+00 0.000000e+00 0.000000e+00 0.000000e+00
 0.000000e+00 0.000000e+00 0.000000e+00 8.789374e-01 1.210626e-01 0.000000e+00 0.000000e+00 0.000000e+00 0.000000e+00 0.000000e+00 0.000000e+00 0.000000e+00
 0.000000e+00 0.000000e+00 0.000000e+00 0.000000e+00 9.440252e-02 9.055975e-01 0.000000e+00 0.000000e+00 0.000000e+00 0.000000e+00 0.000000e+00 0.000000e+00
 0.000000e+00 0.000000e+00 0.000000e+00 0.000000e+00 0.000000e+00 9.029118e-01 9.708825e-02 0.000000e+00 0.000000e+00 0.000000e+00 0.000000e+00 0.000000e+00
 0.000000e+00 0.000000e+00 0.000000e+00 0.000000e+00 0.000000e+00 0.000000e+00 8.114557e-01 1.885443e-01 0.000000e+00 0.000000e+00 0.000000e+00 0.000000e+00
 0.000000e+00 0.000000e+00 0.000000e+00 0.000000e+00 0.000000e+00 0.000000e+00 0.000000e+00 0.000000e+00 1.000000e+00 0.000000e+00 0.000000e+00 0.000000e+00
 0.000000e+00 0.000000e+00 0.000000e+00 0.000000e+00 0.000000e+00 0.000000e+00 0.000000e+00 0.000000e+00 0.000000e+00 1.000000e+00 0.000000e+00 0.000000e+00
 0.000000e+00 0.000000e+00 0.000000e+00 0.000000e+00 0.000000e+00 0.000000e+00 0.000000e+00 0.000000e+00 0.000000e+00 8.744115e-01 1.255885e-01 0.000000e+00
 0.000000e+00 0.000000e+00 0.000000e+00 0.000000e+00 0.000000e+00 0.000000e+00 0.000000e+00 0.000000e+00 0.000000e+00 0.000000e+00 9.094490e-01 9.055102e-02
 0.000000e+00 0.000000e+00 0.000000e+00 0.000000e+00 0.000000e+00 0.000000e+00 0.000000e+00 0.000000e+00 0.000000e+00 0.000000e+00 0.000000e+00 0.000000e+00
<ENDHMM>
