~o
<STREAMINFO> 1 6
<VECSIZE> 6<NULLD><USER><DIAGC>
~h "proto"
<BEGINHMM>
<NUMSTATES> 12
<STATE> 2
<MEAN> 6
 4.113059e-01 2.601008e-01 -2.950328e-02 -5.595692e-02 2.753177e-02 -1.702685e-02
<VARIANCE> 6
 3.568737e-03 4.284816e-03 4.129932e-04 6.313246e-04 9.988511e-04 1.254338e-03
<GCONST> -2.881078e+01
<STATE> 3
<MEAN> 6
 3.530936e-01 1.739950e-01 2.145045e-02 -2.407552e-02 2.495247e-02 2.979927e-02
<VARIANCE> 6
 7.655950e-03 2.893747e-03 8.571836e-04 9.202515e-04 1.377561e-03 1.512994e-03
<GCONST> -2.682404e+01
<STATE> 4
<MEAN> 6
 4.649777e-01 1.820971e-01 2.429199e-02 4.836084e-04 9.003451e-04 1.925564e-03
<VARIANCE> 6
 1.300208e-03 1.972658e-03 2.681002e-04 5.667655e-04 5.277398e-04 1.375343e-03
<GCONST> -3.168202e+01
<STATE> 5
<MEAN> 6
 5.617846e-01 1.623449e-01 3.226506e-02 9.366876e-03 -1.098635e-02 2.561212e-02
<VARIANCE> 6
 2.213228e-03 3.438656e-03 4.563998e-04 6.453062e-04 9.292955e-04 1.866204e-03
<GCONST> -2.906157e+01
<STATE> 6
<MEAN> 6
 5.663503e-01 2.435774e-01 -3.459170e-02 6.684883e-02 -6.146319e-02 -2.767745e-03
<VARIANCE> 6
 4.235145e-03 4.460519e-03 1.796260e-03 4.481478e-04 1.750088e-03 2.472051e-03
<GCONST> -2.623280e+01
<STATE> 7
<MEAN> 6
 4.782756e-01 3.080330e-01 -4.951023e-02 1.776575e-02 1.872259e-02 -2.312486e-02
<VARIANCE> 6
 3.687449e-03 3.812619e-03 7.052299e-04 2.683208e-04 9.676805e-04 3.755444e-04
<GCONST> -3.045305e+01
<STATE> 8
<MEAN> 6
 4.293303e-01 3.176706e-01 3.857156e-02 4.042670e-03 8.953726e-02 3.309008e-03
<VARIANCE> 6
 4.312053e-03 4.736898e-03 3.461039e-03 1.138876e-04 3.631309e-03 2.414202e-04
<GCONST> -2.846507e+01
<STATE> 9
<MEAN> 6
 5.773799e-01 3.333520e-01 1.045703e-01 8.632894e-03 -1.613453e-02 -1.070947e-02
<VARIANCE> 6
 4.625536e-03 4.098515e-03 1.465867e-03 1.093965e-04 2.350552e-03 2.070472e-04
<GCONST> -3.002754e+01
<STATE> 10
<MEAN> 6
 6.861983e-01 3.248414e-01 4.572216e-02 -2.976050e-02 -6.682102e-02 -3.267605e-02
<VARIANCE> 6
 6.386193e-03 4.319902e-03 1.698630e-03 4.228185e-04 1.567283e-03 5.444924e-04
<GCONST> -2.759145e+01
<STATE> 11
<MEAN> 6
 6.796502e-01 2.571765e-01 -1.418111e-02 -5.971631e-03 -4.377373e-03 4.311029e-02
<VARIANCE> 6
 5.793678e-03 5.479989e-03 9.460669e-04 1.466264e-03 2.899894e-03 1.481245e-03
<GCONST> -2.517657e+01
<TRANSP> 12
 0.000000e+00 1.000000e+00 0.000000e+00 0.000000e+00 0.000000e+00 0.000000e+00 0.000000e+00 0.000000e+00 0.000000e+00 0.000000e+00 0.000000e+00 0.000000e+00
 0.000000e+00 7.884520e-01 2.115480e-01 0.000000e+00 0.000000e+00 0.000000e+00 0.000000e+00 0.000000e+00 0.000000e+00 0.000000e+00 0.000000e+00 0.000000e+00
 0.000000e+00 0.000000e+00 8.351853e-01 1.648147e-01 0.000000e+00 0.000000e+00 0.000000e+00 0.000000e+00 0.000000e+00 0.000000e+00 0.000000e+00 0.000000e+00
 0.000000e+00 0.000000e+00 0.000000e+00 9.013156e-01 9.868439e-02 0.000000e+00 0.000000e+00 0.000000e+00 0.000000e+00 0.000000e+00 0.000000e+00 0.000000e+00
 0.000000e+00 0.000000e+00 0.000000e+00 0.000000e+00 8.653583e-01 1.346416e-01 0.000000e+00 0.000000e+00 0.000000e+00 0.000000e+00 0.000000e+00 0.000000e+00
 0.000000e+00 0.000000e+00 0.000000e+00 0.000000e+00 0.000000e+00 8.037497e-01 1.962503e-01 0.000000e+00 0.000000e+00 0.000000e+00 0.000000e+00 0.000000e+00
 0.000000e+00 0.000000e+00 0.000000e+00 0.000000e+00 0.000000e+00 0.000000e+00 8.304834e-01 1.695166e-01 0.000000e+00 0.000000e+00 0.000000e+00 0.000000e+00
 0.000000e+00 0.000000e+00 0.000000e+00 0.000000e+00 0.000000e+00 0.000000e+00 0.000000e+00 8.313453e-01 1.686547e-01 0.000000e+00 0.000000e+00 0.000000e+00
 0.000000e+00 0.000000e+00 0.000000e+00 0.000000e+00 0.000000e+00 0.000000e+00 0.000000e+00 0.000000e+00 7.754350e-01 2.245650e-01 0.000000e+00 0.000000e+00
 0.000000e+00 0.000000e+00 0.000000e+00 0.000000e+00 0.000000e+00 0.000000e+00 0.000000e+00 0.000000e+00 0.000000e+00 7.979218e-01 2.020783e-01 0.000000e+00
 0.000000e+00 0.000000e+00 0.000000e+00 0.000000e+00 0.000000e+00 0.000000e+00 0.000000e+00 0.000000e+00 0.000000e+00 0.000000e+00 8.579459e-01 1.420542e-01
 0.000000e+00 0.000000e+00 0.000000e+00 0.000000e+00 0.000000e+00 0.000000e+00 0.000000e+00 0.000000e+00 0.000000e+00 0.000000e+00 0.000000e+00 0.000000e+00
<ENDHMM>
