~o
<STREAMINFO> 1 6
<VECSIZE> 6<NULLD><USER><DIAGC>
~h "a"
<BEGINHMM>
<NUMSTATES> 12
<STATE> 2
<MEAN> 6
 4.181020e-01 2.344357e-01 1.561167e-02 1.924359e-02 -1.483457e-02 1.018518e-02
<VARIANCE> 6
 3.384086e-03 8.960644e-03 3.604334e-04 4.428835e-04 5.783439e-04 5.623877e-04
<GCONST> -2.996539e+01
<STATE> 3
<MEAN> 6
 3.769195e-01 3.061744e-01 -2.674538e-02 -1.226968e-02 -4.772790e-04 -2.257418e-02
<VARIANCE> 6
 5.114146e-03 9.993361e-03 1.889042e-04 7.631989e-04 1.046506e-03 2.771363e-04
<GCONST> -2.965988e+01
<STATE> 4
<MEAN> 6
 3.371079e-01 2.008435e-01 2.323607e-02 -6.525067e-02 5.018647e-02 4.971498e-05
<VARIANCE> 6
 4.465103e-03 6.446100e-03 2.088818e-03 5.716252e-04 1.753089e-03 1.951326e-03
<GCONST> -2.565229e+01
<STATE> 5
<MEAN> 6
 3.794669e-01 1.072622e-01 3.969679e-02 -2.276377e-02 1.232289e-02 1.536878e-02
<VARIANCE> 6
 5.117766e-03 1.302240e-02 1.422050e-03 3.047657e-04 2.479219e-04 9.700662e-04
<GCONST> -2.848103e+01
<STATE> 6
<MEAN> 6
 5.420581e-01 9.525511e-02 7.965938e-02 2.108560e-02 -2.364316e-02 4.381896e-02
<VARIANCE> 6
 4.492518e-03 5.842292e-03 1.016376e-03 9.004409e-04 1.813044e-03 1.145694e-03
<GCONST> -2.650934e+01
<STATE> 7
<MEAN> 6
 6.161453e-01 1.699516e-01 1.827352e-02 4.955086e-02 -3.408998e-02 3.139727e-03
<VARIANCE> 6
 4.749536e-03 1.237110e-02 5.057771e-04 5.705436e-04 1.564576e-03 3.223919e-04
<GCONST> -2.827306e+01
<STATE> 8
<MEAN> 6
 6.334314e-01 2.588600e-01 -4.512482e-02 2.972727e-02 -2.634692e-02 -5.155011e-02
<VARIANCE> 6
 5.729394e-03 5.394751e-03 7.281812e-04 1.657851e-03 2.900215e-03 1.942451e-03
<GCONST> -2.507118e+01
<STATE> 9
<MEAN> 6
 5.446569e-01 2.714762e-01 -3.189733e-02 -9.615423e-03 1.346141e-02 -2.626412e-02
<VARIANCE> 6
 2.527395e-03 1.188028e-02 1.840695e-04 6.552495e-04 5.975385e-04 2.427617e-04
<GCONST> -3.106299e+01
<STATE> 10
<MEAN> 6
 5.193067e-01 2.057086e-01 1.015165e-03 -3.342542e-02 -5.292547e-04 1.286522e-02
<VARIANCE> 6
 2.994244e-03 9.297306e-03 3.538391e-04 1.968391e-04 1.586604e-03 2.976378e-04
<GCONST> -3.050742e+01
<STATE> 11
<MEAN> 6
 4.770677e-01 1.644204e-01 -4.554283e-02 -5.452022e-03 -2.197911e-02 6.028817e-03
<VARIANCE> 6
 6.536697e-03 1.107322e-02 8.564221e-04 7.553625e-05 1.409939e-03 1.653106e-04
<GCONST> -3.033183e+01
<TRANSP> 12
 0.000000e+00 1.000000e+00 0.000000e+00 0.000000e+00 0.000000e+00 0.000000e+00 0.000000e+00 0.000000e+00 0.000000e+00 0.000000e+00 0.000000e+00 0.000000e+00
 0.000000e+00 8.822197e-01 1.177803e-01 0.000000e+00 0.000000e+00 0.000000e+00 0.000000e+00 0.000000e+00 0.000000e+00 0.000000e+00 0.000000e+00 0.000000e+00
 0.000000e+00 0.000000e+00 9.121217e-01 8.787837e-02 0.000000e+00 0.000000e+00 0.000000e+00 0.000000e+00 0.000000e+00 0.000000e+00 0.000000e+00 0.000000e+00
 0.000000e+00 0.000000e+00 0.000000e+00 8.222063e-01 1.777937e-01 0.000000e+00 0.000000e+00 0.000000e+00 0.000000e+00 0.000000e+00 0.000000e+00 0.000000e+00
 0.000000e+00 0.000000e+00 0.000000e+00 0.000000e+00 8.824001e-01 1.175999e-01 0.000000e+00 0.000000e+00 0.000000e+00 0.000000e+00 0.000000e+00 0.000000e+00
 0.000000e+00 0.000000e+00 0.000000e+00 0.000000e+00 0.000000e+00 8.182439e-01 1.817562e-01 0.000000e+00 0.000000e+00 0.000000e+00 0.000000e+00 0.000000e+00
 0.000000e+00 0.000000e+00 0.000000e+00 0.000000e+00 0.000000e+00 0.000000e+00 8.576028e-01 1.423972e-01 0.000000e+00 0.000000e+00 0.000000e+00 0.000000e+00
 0.000000e+00 0.000000e+00 0.000000e+00 0.000000e+00 0.000000e+00 0.000000e+00 0.000000e+00 7.570293e-01 2.429707e-01 0.000000e+00 0.000000e+00 0.000000e+00
 0.000000e+00 0.000000e+00 0.000000e+00 0.000000e+00 0.000000e+00 0.000000e+00 0.000000e+00 0.000000e+00 8.360468e-01 1.639533e-01 0.000000e+00 0.000000e+00
 0.000000e+00 0.000000e+00 0.000000e+00 0.000000e+00 0.000000e+00 0.000000e+00 0.000000e+00 0.000000e+00 0.000000e+00 8.617063e-01 1.382937e-01 0.000000e+00
 0.000000e+00 0.000000e+00 0.000000e+00 0.000000e+00 0.000000e+00 0.000000e+00 0.000000e+00 0.000000e+00 0.000000e+00 0.000000e+00 8.418012e-01 1.581988e-01
 0.000000e+00 0.000000e+00 0.000000e+00 0.000000e+00 0.000000e+00 0.000000e+00 0.000000e+00 0.000000e+00 0.000000e+00 0.000000e+00 0.000000e+00 0.000000e+00
<ENDHMM>

~o
<STREAMINFO> 1 6
<VECSIZE> 6<NULLD><USER><DIAGC>
~h "ai"
<BEGINHMM>
<NUMSTATES> 12
<STATE> 2
<MEAN> 6
 3.909367e-01 3.173709e-01 1.461393e-02 1.380212e-02 8.425445e-03 -8.536424e-03
<VARIANCE> 6
 2.377735e-03 6.980010e-03 2.895042e-04 5.873116e-04 3.154763e-04 6.316673e-04
<GCONST> -3.099492e+01
<STATE> 3
<MEAN> 6
 4.473008e-01 3.053175e-01 3.102895e-02 7.033317e-04 2.138551e-03 -3.533902e-02
<VARIANCE> 6
 1.289742e-03 7.639748e-03 4.041082e-04 7.226843e-04 6.867888e-04 1.013491e-03
<GCONST> -2.972464e+01
<STATE> 4
<MEAN> 6
 4.865881e-01 2.861201e-01 1.543431e-02 -5.983052e-03 -1.913025e-03 5.401253e-03
<VARIANCE> 6
 1.023764e-03 5.831111e-03 1.790984e-04 8.632423e-04 2.420755e-04 1.078895e-03
<GCONST> -3.184202e+01
<STATE> 5
<MEAN> 6
 5.646178e-01 3.009716e-01 3.513792e-02 2.835453e-03 3.445789e-03 -2.244323e-02
<VARIANCE> 6
 2.799748e-03 4.362816e-03 4.160051e-04 1.126669e-03 6.850741e-04 2.136490e-03
<GCONST> -2.829348e+01
<STATE> 6
<MEAN> 6
 6.266921e-01 2.594397e-01 1.308696e-02 -5.847412e-02 -2.814239e-02 -1.468430e-02
<VARIANCE> 6
 3.960037e-03 3.737721e-03 4.297835e-04 6.568843e-04 5.815305e-04 7.507000e-04
<GCONST> -2.981810e+01
<STATE> 7
<MEAN> 6
 6.264635e-01 1.237164e-01 -2.493386e-02 -3.046235e-02 -1.469635e-02 1.874507e-02
<VARIANCE> 6
 4.014709e-03 4.618226e-03 6.810754e-04 1.175221e-03 9.231254e-04 1.219759e-03
<GCONST> -2.760326e+01
<STATE> 8
<MEAN> 6
 5.191791e-01 1.109236e-01 -2.159554e-02 -7.150135e-04 7.670251e-04 7.872901e-03
<VARIANCE> 6
 2.360964e-03 4.059726e-03 3.982224e-04 4.361702e-04 2.345491e-04 6.094541e-04
<GCONST> -3.185483e+01
<STATE> 9
<MEAN> 6
 4.647113e-01 1.330196e-01 -3.899273e-02 1.377271e-02 2.856664e-02 2.590570e-02
<VARIANCE> 6
 2.734948e-03 6.705789e-03 6.825688e-04 5.978085e-04 5.656463e-04 1.689608e-03
<GCONST> -2.845185e+01
<STATE> 10
<MEAN> 6
 4.046364e-01 2.128496e-01 -1.338626e-02 5.236465e-03 1.491858e-02 -4.090902e-03
<VARIANCE> 6
 5.000073e-03 1.166478e-02 7.036192e-04 1.224765e-03 1.274554e-03 1.229991e-03
<GCONST> -2.605241e+01
<STATE> 11
<MEAN> 6
 4.613993e-01 1.259718e-01 3.403921e-02 6.175827e-04 8.801195e-03 -6.074925e-03
<VARIANCE> 6
 4.012438e-03 5.012873e-03 5.188441e-04 8.224546e-04 1.313434e-03 1.623682e-03
<GCONST> -2.751213e+01
<TRANSP> 12
 0.000000e+00 1.000000e+00 0.000000e+00 0.000000e+00 0.000000e+00 0.000000e+00 0.000000e+00 0.000000e+00 0.000000e+00 0.000000e+00 0.000000e+00 0.000000e+00
 0.000000e+00 9.109099e-01 8.909010e-02 0.000000e+00 0.000000e+00 0.000000e+00 0.000000e+00 0.000000e+00 0.000000e+00 0.000000e+00 0.000000e+00 0.000000e+00
 0.000000e+00 0.000000e+00 0.000000e+00 1.000000e+00 0.000000e+00 0.000000e+00 0.000000e+00 0.000000e+00 0.000000e+00 0.000000e+00 0.000000e+00 0.000000e+00
 0.000000e+00 0.000000e+00 0.000000e+00 9.138762e-01 8.612384e-02 0.000000e+00 0.000000e+00 0.000000e+00 0.000000e+00 0.000000e+00 0.000000e+00 0.000000e+00
 0.000000e+00 0.000000e+00 0.000000e+00 0.000000e+00 8.822114e-01 1.177886e-01 0.000000e+00 0.000000e+00 0.000000e+00 0.000000e+00 0.000000e+00 0.000000e+00
 0.000000e+00 0.000000e+00 0.000000e+00 0.000000e+00 0.000000e+00 8.134758e-01 1.865242e-01 0.000000e+00 0.000000e+00 0.000000e+00 0.000000e+00 0.000000e+00
 0.000000e+00 0.000000e+00 0.000000e+00 0.000000e+00 0.000000e+00 0.000000e+00 8.774346e-01 1.225654e-01 0.000000e+00 0.000000e+00 0.000000e+00 0.000000e+00
 0.000000e+00 0.000000e+00 0.000000e+00 0.000000e+00 0.000000e+00 0.000000e+00 0.000000e+00 9.204931e-01 7.950693e-02 0.000000e+00 0.000000e+00 0.000000e+00
 0.000000e+00 0.000000e+00 0.000000e+00 0.000000e+00 0.000000e+00 0.000000e+00 0.000000e+00 0.000000e+00 0.000000e+00 1.000000e+00 0.000000e+00 0.000000e+00
 0.000000e+00 0.000000e+00 0.000000e+00 0.000000e+00 0.000000e+00 0.000000e+00 0.000000e+00 0.000000e+00 0.000000e+00 9.099512e-01 9.004883e-02 0.000000e+00
 0.000000e+00 0.000000e+00 0.000000e+00 0.000000e+00 0.000000e+00 0.000000e+00 0.000000e+00 0.000000e+00 0.000000e+00 0.000000e+00 8.654427e-01 1.345573e-01
 0.000000e+00 0.000000e+00 0.000000e+00 0.000000e+00 0.000000e+00 0.000000e+00 0.000000e+00 0.000000e+00 0.000000e+00 0.000000e+00 0.000000e+00 0.000000e+00
<ENDHMM>

~o
<STREAMINFO> 1 6
<VECSIZE> 6<NULLD><USER><DIAGC>
~h "bA"
<BEGINHMM>
<NUMSTATES> 12
<STATE> 2
<MEAN> 6
 3.633324e-01 3.027106e-01 1.486201e-02 1.977139e-02 2.515759e-02 -1.476880e-02
<VARIANCE> 6
 4.100180e-03 6.582549e-03 6.849306e-04 3.913920e-04 1.014966e-03 1.170883e-03
<GCONST> -2.826768e+01
<STATE> 3
<MEAN> 6
 4.260229e-01 3.100299e-01 1.273415e-02 -4.137784e-02 -3.760843e-02 -4.700289e-02
<VARIANCE> 6
 2.774904e-03 4.751552e-03 6.239056e-04 1.029989e-03 7.963318e-04 1.462145e-03
<GCONST> -2.813023e+01
<STATE> 4
<MEAN> 6
 3.794358e-01 1.989487e-01 -1.683711e-02 -4.858276e-02 1.346508e-02 1.002866e-02
<VARIANCE> 6
 4.541306e-03 4.576291e-03 2.864957e-04 5.356385e-04 1.122263e-03 6.739408e-04
<GCONST> -2.953876e+01
<STATE> 5
<MEAN> 6
 3.881123e-01 1.229202e-01 3.272048e-02 -6.155188e-03 1.436594e-02 3.323304e-02
<VARIANCE> 6
 3.010812e-03 4.827913e-03 3.456179e-04 9.538173e-04 1.416274e-03 2.064394e-03
<GCONST> -2.777948e+01
<STATE> 6
<MEAN> 6
 4.716894e-01 1.824058e-01 1.931685e-02 4.251528e-03 2.016602e-03 -7.246105e-03
<VARIANCE> 6
 1.600993e-03 3.112037e-03 4.199838e-04 9.021533e-04 8.362341e-04 1.696297e-03
<GCONST> -2.943428e+01
<STATE> 7
<MEAN> 6
 5.789191e-01 1.479476e-01 3.286836e-02 1.960624e-02 -2.138747e-02 3.858203e-02
<VARIANCE> 6
 3.678656e-03 4.409448e-03 8.739050e-04 1.646603e-03 2.372803e-03 2.921417e-03
<GCONST> -2.533290e+01
<STATE> 8
<MEAN> 6
 5.552836e-01 2.801093e-01 -3.034797e-02 6.125642e-02 -1.026094e-03 -3.690051e-02
<VARIANCE> 6
 4.450861e-03 4.796666e-03 5.558396e-04 8.829723e-04 4.093854e-03 1.239661e-03
<GCONST> -2.644566e+01
<STATE> 9
<MEAN> 6
 5.492277e-01 3.233217e-01 5.626394e-02 8.238139e-03 5.951197e-02 -1.489859e-02
<VARIANCE> 6
 4.729642e-03 5.859988e-03 2.368955e-03 1.120405e-04 3.853426e-03 4.930951e-04
<GCONST> -2.778181e+01
<STATE> 10
<MEAN> 6
 6.963610e-01 3.192549e-01 5.461195e-02 -2.916840e-02 -6.298897e-02 -3.534847e-02
<VARIANCE> 6
 4.853609e-03 4.872375e-03 2.072425e-03 7.309251e-04 1.674017e-03 1.064657e-03
<GCONST> -2.626281e+01
<STATE> 11
<MEAN> 6
 6.863461e-01 2.519254e-01 -1.599500e-02 -9.212130e-03 -9.751352e-03 5.529558e-02
<VARIANCE> 6
 5.380363e-03 3.683922e-03 1.067120e-03 2.095883e-03 4.890547e-03 2.055657e-03
<GCONST> -2.431970e+01
<TRANSP> 12
 0.000000e+00 1.000000e+00 0.000000e+00 0.000000e+00 0.000000e+00 0.000000e+00 0.000000e+00 0.000000e+00 0.000000e+00 0.000000e+00 0.000000e+00 0.000000e+00
 0.000000e+00 8.304607e-01 1.695393e-01 0.000000e+00 0.000000e+00 0.000000e+00 0.000000e+00 0.000000e+00 0.000000e+00 0.000000e+00 0.000000e+00 0.000000e+00
 0.000000e+00 0.000000e+00 7.870013e-01 2.129987e-01 0.000000e+00 0.000000e+00 0.000000e+00 0.000000e+00 0.000000e+00 0.000000e+00 0.000000e+00 0.000000e+00
 0.000000e+00 0.000000e+00 0.000000e+00 8.546494e-01 1.453506e-01 0.000000e+00 0.000000e+00 0.000000e+00 0.000000e+00 0.000000e+00 0.000000e+00 0.000000e+00
 0.000000e+00 0.000000e+00 0.000000e+00 0.000000e+00 8.494051e-01 1.505949e-01 0.000000e+00 0.000000e+00 0.000000e+00 0.000000e+00 0.000000e+00 0.000000e+00
 0.000000e+00 0.000000e+00 0.000000e+00 0.000000e+00 0.000000e+00 9.052203e-01 9.477966e-02 0.000000e+00 0.000000e+00 0.000000e+00 0.000000e+00 0.000000e+00
 0.000000e+00 0.000000e+00 0.000000e+00 0.000000e+00 0.000000e+00 0.000000e+00 8.782841e-01 1.217159e-01 0.000000e+00 0.000000e+00 0.000000e+00 0.000000e+00
 0.000000e+00 0.000000e+00 0.000000e+00 0.000000e+00 0.000000e+00 0.000000e+00 0.000000e+00 8.158078e-01 1.841922e-01 0.000000e+00 0.000000e+00 0.000000e+00
 0.000000e+00 0.000000e+00 0.000000e+00 0.000000e+00 0.000000e+00 0.000000e+00 0.000000e+00 0.000000e+00 8.357917e-01 1.642083e-01 0.000000e+00 0.000000e+00
 0.000000e+00 0.000000e+00 0.000000e+00 0.000000e+00 0.000000e+00 0.000000e+00 0.000000e+00 0.000000e+00 0.000000e+00 8.024036e-01 1.975964e-01 0.000000e+00
 0.000000e+00 0.000000e+00 0.000000e+00 0.000000e+00 0.000000e+00 0.000000e+00 0.000000e+00 0.000000e+00 0.000000e+00 0.000000e+00 8.217020e-01 1.782980e-01
 0.000000e+00 0.000000e+00 0.000000e+00 0.000000e+00 0.000000e+00 0.000000e+00 0.000000e+00 0.000000e+00 0.000000e+00 0.000000e+00 0.000000e+00 0.000000e+00
<ENDHMM>

~o
<STREAMINFO> 1 6
<VECSIZE> 6<NULLD><USER><DIAGC>
~h "chA"
<BEGINHMM>
<NUMSTATES> 12
<STATE> 2
<MEAN> 6
 3.574864e-01 2.699444e-01 3.035032e-02 -2.063337e-03 -2.254751e-02 -8.695122e-03
<VARIANCE> 6
 5.822440e-03 5.156976e-03 6.416649e-04 1.832337e-04 9.218485e-04 4.297089e-04
<GCONST> -3.008390e+01
<STATE> 3
<MEAN> 6
 4.057845e-01 2.380181e-01 -1.481441e-02 -4.144347e-02 1.048089e-03 -1.041936e-02
<VARIANCE> 6
 2.555528e-03 4.482851e-03 3.865984e-04 4.173774e-04 2.167156e-03 1.435106e-03
<GCONST> -2.867023e+01
<STATE> 4
<MEAN> 6
 3.811165e-01 1.400627e-01 2.287942e-02 -1.586234e-02 1.941526e-02 2.363047e-02
<VARIANCE> 6
 2.067577e-03 3.976737e-03 4.082542e-04 3.090369e-04 5.293143e-04 7.899882e-04
<GCONST> -3.125450e+01
<STATE> 5
<MEAN> 6
 4.545657e-01 1.904409e-01 2.045746e-02 2.096930e-02 -1.327748e-02 -5.054702e-03
<VARIANCE> 6
 1.475393e-03 5.435756e-03 3.567358e-04 2.620884e-04 3.334438e-04 1.348838e-03
<GCONST> -3.150622e+01
<STATE> 6
<MEAN> 6
 4.961248e-01 1.719076e-01 2.678788e-02 -2.023645e-02 2.069202e-02 1.707854e-03
<VARIANCE> 6
 1.633684e-03 5.266029e-03 4.711415e-04 1.774126e-04 6.231625e-04 9.300510e-04
<GCONST> -3.129449e+01
<STATE> 7
<MEAN> 6
 5.774693e-01 1.649338e-01 2.990491e-02 3.575842e-02 -3.688825e-02 4.098261e-02
<VARIANCE> 6
 2.728613e-03 5.174966e-03 7.743661e-04 9.121145e-04 1.119430e-03 1.691694e-03
<GCONST> -2.748079e+01
<STATE> 8
<MEAN> 6
 5.541990e-01 2.747450e-01 -2.795872e-02 3.989212e-02 5.180637e-03 -2.939403e-02
<VARIANCE> 6
 3.616206e-03 4.497724e-03 3.468038e-04 6.234465e-04 2.835875e-03 6.079472e-04
<GCONST> -2.861708e+01
<STATE> 9
<MEAN> 6
 5.701323e-01 3.042517e-01 5.808681e-02 7.017501e-03 3.616326e-02 -4.705472e-03
<VARIANCE> 6
 5.167677e-03 6.644268e-03 1.433208e-03 6.327134e-05 3.160137e-03 1.895080e-04
<GCONST> -2.979621e+01
<STATE> 10
<MEAN> 6
 7.093191e-01 3.113130e-01 4.149431e-02 -2.297893e-02 -5.213881e-02 -3.134207e-02
<VARIANCE> 6
 4.798346e-03 4.278243e-03 1.769913e-03 5.086497e-04 1.715028e-03 5.166933e-04
<GCONST> -2.762340e+01
<STATE> 11
<MEAN> 6
 6.990671e-01 2.366870e-01 -1.041991e-02 -5.390710e-03 -4.134336e-03 3.379122e-02
<VARIANCE> 6
 5.983465e-03 5.666460e-03 7.964793e-04 1.294553e-03 2.160341e-03 1.326221e-03
<GCONST> -2.581249e+01
<TRANSP> 12
 0.000000e+00 1.000000e+00 0.000000e+00 0.000000e+00 0.000000e+00 0.000000e+00 0.000000e+00 0.000000e+00 0.000000e+00 0.000000e+00 0.000000e+00 0.000000e+00
 0.000000e+00 8.535367e-01 1.464633e-01 0.000000e+00 0.000000e+00 0.000000e+00 0.000000e+00 0.000000e+00 0.000000e+00 0.000000e+00 0.000000e+00 0.000000e+00
 0.000000e+00 0.000000e+00 8.470750e-01 1.529250e-01 0.000000e+00 0.000000e+00 0.000000e+00 0.000000e+00 0.000000e+00 0.000000e+00 0.000000e+00 0.000000e+00
 0.000000e+00 0.000000e+00 0.000000e+00 8.496933e-01 1.503067e-01 0.000000e+00 0.000000e+00 0.000000e+00 0.000000e+00 0.000000e+00 0.000000e+00 0.000000e+00
 0.000000e+00 0.000000e+00 0.000000e+00 0.000000e+00 8.823085e-01 1.176916e-01 0.000000e+00 0.000000e+00 0.000000e+00 0.000000e+00 0.000000e+00 0.000000e+00
 0.000000e+00 0.000000e+00 0.000000e+00 0.000000e+00 0.000000e+00 8.513215e-01 1.486786e-01 0.000000e+00 0.000000e+00 0.000000e+00 0.000000e+00 0.000000e+00
 0.000000e+00 0.000000e+00 0.000000e+00 0.000000e+00 0.000000e+00 0.000000e+00 8.297819e-01 1.702180e-01 0.000000e+00 0.000000e+00 0.000000e+00 0.000000e+00
 0.000000e+00 0.000000e+00 0.000000e+00 0.000000e+00 0.000000e+00 0.000000e+00 0.000000e+00 8.396026e-01 1.603975e-01 0.000000e+00 0.000000e+00 0.000000e+00
 0.000000e+00 0.000000e+00 0.000000e+00 0.000000e+00 0.000000e+00 0.000000e+00 0.000000e+00 0.000000e+00 8.726991e-01 1.273009e-01 0.000000e+00 0.000000e+00
 0.000000e+00 0.000000e+00 0.000000e+00 0.000000e+00 0.000000e+00 0.000000e+00 0.000000e+00 0.000000e+00 0.000000e+00 8.183535e-01 1.816465e-01 0.000000e+00
 0.000000e+00 0.000000e+00 0.000000e+00 0.000000e+00 0.000000e+00 0.000000e+00 0.000000e+00 0.000000e+00 0.000000e+00 0.000000e+00 8.769617e-01 1.230383e-01
 0.000000e+00 0.000000e+00 0.000000e+00 0.000000e+00 0.000000e+00 0.000000e+00 0.000000e+00 0.000000e+00 0.000000e+00 0.000000e+00 0.000000e+00 0.000000e+00
<ENDHMM>

~o
<STREAMINFO> 1 6
<VECSIZE> 6<NULLD><USER><DIAGC>
~h "dA"
<BEGINHMM>
<NUMSTATES> 12
<STATE> 2
<MEAN> 6
 4.113055e-01 2.601002e-01 -2.950289e-02 -5.595693e-02 2.753191e-02 -1.702647e-02
<VARIANCE> 6
 3.568732e-03 4.284745e-03 4.129991e-04 6.313125e-04 9.988394e-04 1.254341e-03
<GCONST> -2.881081e+01
<STATE> 3
<MEAN> 6
 3.530972e-01 1.739926e-01 2.145152e-02 -2.407532e-02 2.495279e-02 2.979940e-02
<VARIANCE> 6
 7.656258e-03 2.894241e-03 8.571935e-04 9.202510e-04 1.377577e-03 1.513050e-03
<GCONST> -2.682377e+01
<STATE> 4
<MEAN> 6
 4.649960e-01 1.820912e-01 2.429573e-02 4.813192e-04 9.023501e-04 1.931841e-03
<VARIANCE> 6
 1.300912e-03 1.972832e-03 2.681274e-04 5.667042e-04 5.277452e-04 1.375289e-03
<GCONST> -3.168142e+01
<STATE> 5
<MEAN> 6
 5.618255e-01 1.623524e-01 3.225505e-02 9.405963e-03 -1.102797e-02 2.563878e-02
<VARIANCE> 6
 2.213727e-03 3.438995e-03 4.565825e-04 6.462727e-04 9.303266e-04 1.867149e-03
<GCONST> -2.905774e+01
<STATE> 6
<MEAN> 6
 5.661690e-01 2.438107e-01 -3.477036e-02 6.678860e-02 -6.128199e-02 -2.975512e-03
<VARIANCE> 6
 4.242071e-03 4.462625e-03 1.796224e-03 4.487878e-04 1.757149e-03 2.468211e-03
<GCONST> -2.622681e+01
<STATE> 7
<MEAN> 6
 4.778866e-01 3.081765e-01 -4.937593e-02 1.759899e-02 1.891956e-02 -2.300336e-02
<VARIANCE> 6
 3.690516e-03 3.812571e-03 7.027722e-04 2.668046e-04 9.695143e-04 3.735319e-04
<GCONST> -3.046487e+01
<STATE> 8
<MEAN> 6
 4.297233e-01 3.176443e-01 3.916922e-02 4.094006e-03 8.959390e-02 3.370956e-03
<VARIANCE> 6
 4.340987e-03 4.740112e-03 3.464273e-03 1.140589e-04 3.628145e-03 2.407414e-04
<GCONST> -2.845895e+01
<STATE> 9
<MEAN> 6
 5.781141e-01 3.334779e-01 1.044447e-01 8.567643e-03 -1.671585e-02 -1.089246e-02
<VARIANCE> 6
 4.639732e-03 4.094391e-03 1.468565e-03 1.097929e-04 2.326328e-03 2.074019e-04
<GCONST> -3.002867e+01
<STATE> 10
<MEAN> 6
 6.864067e-01 3.246752e-01 4.545254e-02 -2.992778e-02 -6.688029e-02 -3.262392e-02
<VARIANCE> 6
 6.390380e-03 4.321388e-03 1.694054e-03 4.205544e-04 1.569249e-03 5.486106e-04
<GCONST> -2.758973e+01
<STATE> 11
<MEAN> 6
 6.796144e-01 2.571391e-01 -1.419762e-02 -5.917408e-03 -4.303747e-03 4.316247e-02
<VARIANCE> 6
 5.791840e-03 5.481247e-03 9.466604e-04 1.465689e-03 2.897641e-03 1.480440e-03
<GCONST> -2.517774e+01
<TRANSP> 12
 0.000000e+00 1.000000e+00 0.000000e+00 0.000000e+00 0.000000e+00 0.000000e+00 0.000000e+00 0.000000e+00 0.000000e+00 0.000000e+00 0.000000e+00 0.000000e+00
 0.000000e+00 7.884546e-01 2.115454e-01 0.000000e+00 0.000000e+00 0.000000e+00 0.000000e+00 0.000000e+00 0.000000e+00 0.000000e+00 0.000000e+00 0.000000e+00
 0.000000e+00 0.000000e+00 8.351876e-01 1.648124e-01 0.000000e+00 0.000000e+00 0.000000e+00 0.000000e+00 0.000000e+00 0.000000e+00 0.000000e+00 0.000000e+00
 0.000000e+00 0.000000e+00 0.000000e+00 9.013541e-01 9.864586e-02 0.000000e+00 0.000000e+00 0.000000e+00 0.000000e+00 0.000000e+00 0.000000e+00 0.000000e+00
 0.000000e+00 0.000000e+00 0.000000e+00 0.000000e+00 8.653816e-01 1.346184e-01 0.000000e+00 0.000000e+00 0.000000e+00 0.000000e+00 0.000000e+00 0.000000e+00
 0.000000e+00 0.000000e+00 0.000000e+00 0.000000e+00 0.000000e+00 8.042534e-01 1.957466e-01 0.000000e+00 0.000000e+00 0.000000e+00 0.000000e+00 0.000000e+00
 0.000000e+00 0.000000e+00 0.000000e+00 0.000000e+00 0.000000e+00 0.000000e+00 8.306886e-01 1.693114e-01 0.000000e+00 0.000000e+00 0.000000e+00 0.000000e+00
 0.000000e+00 0.000000e+00 0.000000e+00 0.000000e+00 0.000000e+00 0.000000e+00 0.000000e+00 8.313200e-01 1.686800e-01 0.000000e+00 0.000000e+00 0.000000e+00
 0.000000e+00 0.000000e+00 0.000000e+00 0.000000e+00 0.000000e+00 0.000000e+00 0.000000e+00 0.000000e+00 7.753412e-01 2.246589e-01 0.000000e+00 0.000000e+00
 0.000000e+00 0.000000e+00 0.000000e+00 0.000000e+00 0.000000e+00 0.000000e+00 0.000000e+00 0.000000e+00 0.000000e+00 7.973636e-01 2.026365e-01 0.000000e+00
 0.000000e+00 0.000000e+00 0.000000e+00 0.000000e+00 0.000000e+00 0.000000e+00 0.000000e+00 0.000000e+00 0.000000e+00 0.000000e+00 8.577582e-01 1.422418e-01
 0.000000e+00 0.000000e+00 0.000000e+00 0.000000e+00 0.000000e+00 0.000000e+00 0.000000e+00 0.000000e+00 0.000000e+00 0.000000e+00 0.000000e+00 0.000000e+00
<ENDHMM>

~o
<STREAMINFO> 1 6
<VECSIZE> 6<NULLD><USER><DIAGC>
~h "lA"
<BEGINHMM>
<NUMSTATES> 12
<STATE> 2
<MEAN> 6
 4.352140e-01 2.634952e-01 -2.403595e-03 2.383236e-02 -2.745641e-02 -7.403097e-03
<VARIANCE> 6
 4.929419e-03 4.999469e-03 5.656242e-04 3.000002e-04 5.856544e-04 1.019306e-03
<GCONST> -2.950442e+01
<STATE> 3
<MEAN> 6
 3.685382e-01 2.619070e-01 -1.944456e-02 -2.218912e-02 8.669795e-03 -3.061817e-02
<VARIANCE> 6
 4.612170e-03 4.331057e-03 4.734974e-04 5.489638e-04 2.732082e-04 1.006018e-03
<GCONST> -3.006361e+01
<STATE> 4
<MEAN> 6
 3.775439e-01 2.119524e-01 2.595918e-02 -6.698073e-02 7.131163e-02 6.789585e-03
<VARIANCE> 6
 4.705517e-03 3.664532e-03 1.879412e-03 5.666805e-04 1.739022e-03 2.282534e-03
<GCONST> -2.613023e+01
<STATE> 5
<MEAN> 6
 4.432734e-01 1.267274e-01 6.229348e-02 -1.225843e-02 5.713688e-03 3.854110e-02
<VARIANCE> 6
 4.118507e-03 2.183786e-03 1.191358e-03 5.142480e-04 9.333709e-04 9.875576e-04
<GCONST> -2.879415e+01
<STATE> 6
<MEAN> 6
 5.606824e-01 1.762058e-01 3.401842e-02 5.584414e-02 -6.032364e-02 3.242105e-02
<VARIANCE> 6
 5.450537e-03 3.267938e-03 1.416837e-03 7.842254e-04 1.258127e-03 2.184172e-03
<GCONST> -2.642317e+01
<STATE> 7
<MEAN> 6
 5.581396e-01 2.367907e-01 -2.186652e-02 6.373894e-02 -3.119792e-02 -3.176589e-02
<VARIANCE> 6
 5.670834e-03 3.888499e-03 5.513557e-04 2.542547e-04 4.201933e-04 8.335513e-04
<GCONST> -3.033980e+01
<STATE> 8
<MEAN> 6
 5.286691e-01 2.721020e-01 -1.672502e-02 3.097056e-02 2.326024e-02 -2.642517e-02
<VARIANCE> 6
 4.906430e-03 3.948301e-03 4.653771e-04 2.463042e-04 1.386469e-03 3.860203e-04
<GCONST> -3.024664e+01
<STATE> 9
<MEAN> 6
 5.797018e-01 2.944658e-01 6.416842e-02 5.462546e-03 2.655933e-02 -8.401561e-03
<VARIANCE> 6
 5.996036e-03 4.565042e-03 1.019895e-03 7.493326e-05 3.063864e-03 1.707076e-04
<GCONST> -3.032933e+01
<STATE> 10
<MEAN> 6
 7.145645e-01 3.032254e-01 3.667748e-02 -2.696818e-02 -4.993392e-02 -2.744603e-02
<VARIANCE> 6
 6.626927e-03 3.443521e-03 1.648934e-03 4.640807e-04 1.356059e-03 5.882533e-04
<GCONST> -2.778522e+01
<STATE> 11
<MEAN> 6
 6.901886e-01 2.309873e-01 -1.205037e-02 -5.205016e-03 -1.861321e-03 3.943790e-02
<VARIANCE> 6
 5.929921e-03 3.458937e-03 1.003424e-03 1.282282e-03 2.638850e-03 1.335849e-03
<GCONST> -2.588633e+01
<TRANSP> 12
 0.000000e+00 1.000000e+00 0.000000e+00 0.000000e+00 0.000000e+00 0.000000e+00 0.000000e+00 0.000000e+00 0.000000e+00 0.000000e+00 0.000000e+00 0.000000e+00
 0.000000e+00 8.616499e-01 1.383501e-01 0.000000e+00 0.000000e+00 0.000000e+00 0.000000e+00 0.000000e+00 0.000000e+00 0.000000e+00 0.000000e+00 0.000000e+00
 0.000000e+00 0.000000e+00 8.550892e-01 1.449108e-01 0.000000e+00 0.000000e+00 0.000000e+00 0.000000e+00 0.000000e+00 0.000000e+00 0.000000e+00 0.000000e+00
 0.000000e+00 0.000000e+00 0.000000e+00 7.762207e-01 2.237793e-01 0.000000e+00 0.000000e+00 0.000000e+00 0.000000e+00 0.000000e+00 0.000000e+00 0.000000e+00
 0.000000e+00 0.000000e+00 0.000000e+00 0.000000e+00 8.251785e-01 1.748215e-01 0.000000e+00 0.000000e+00 0.000000e+00 0.000000e+00 0.000000e+00 0.000000e+00
 0.000000e+00 0.000000e+00 0.000000e+00 0.000000e+00 0.000000e+00 8.171430e-01 1.828570e-01 0.000000e+00 0.000000e+00 0.000000e+00 0.000000e+00 0.000000e+00
 0.000000e+00 0.000000e+00 0.000000e+00 0.000000e+00 0.000000e+00 0.000000e+00 0.000000e+00 1.000000e+00 0.000000e+00 0.000000e+00 0.000000e+00 0.000000e+00
 0.000000e+00 0.000000e+00 0.000000e+00 0.000000e+00 0.000000e+00 0.000000e+00 0.000000e+00 8.262364e-01 1.737636e-01 0.000000e+00 0.000000e+00 0.000000e+00
 0.000000e+00 0.000000e+00 0.000000e+00 0.000000e+00 0.000000e+00 0.000000e+00 0.000000e+00 0.000000e+00 8.640971e-01 1.359029e-01 0.000000e+00 0.000000e+00
 0.000000e+00 0.000000e+00 0.000000e+00 0.000000e+00 0.000000e+00 0.000000e+00 0.000000e+00 0.000000e+00 0.000000e+00 8.147809e-01 1.852191e-01 0.000000e+00
 0.000000e+00 0.000000e+00 0.000000e+00 0.000000e+00 0.000000e+00 0.000000e+00 0.000000e+00 0.000000e+00 0.000000e+00 0.000000e+00 8.636984e-01 1.363017e-01
 0.000000e+00 0.000000e+00 0.000000e+00 0.000000e+00 0.000000e+00 0.000000e+00 0.000000e+00 0.000000e+00 0.000000e+00 0.000000e+00 0.000000e+00 0.000000e+00
<ENDHMM>

~o
<STREAMINFO> 1 6
<VECSIZE> 6<NULLD><USER><DIAGC>
~h "tA"
<BEGINHMM>
<NUMSTATES> 12
<STATE> 2
<MEAN> 6
 4.258411e-01 2.580025e-01 -3.427166e-03 2.044393e-02 -2.455315e-02 -8.456253e-03
<VARIANCE> 6
 4.505509e-03 5.954229e-03 5.536144e-04 2.639287e-04 3.479028e-04 1.192538e-03
<GCONST> -2.993298e+01
<STATE> 3
<MEAN> 6
 3.597892e-01 2.361293e-01 -5.223507e-03 -2.576265e-02 1.762209e-02 -1.629705e-02
<VARIANCE> 6
 4.740595e-03 6.703498e-03 5.492377e-04 8.690694e-04 8.405761e-04 9.137488e-04
<GCONST> -2.796390e+01
<STATE> 4
<MEAN> 6
 4.432790e-01 1.417412e-01 6.509782e-02 -2.305012e-02 1.744968e-02 4.069725e-02
<VARIANCE> 6
 4.960370e-03 5.926179e-03 9.155946e-04 1.221415e-03 2.942195e-03 8.907848e-04
<GCONST> -2.596308e+01
<STATE> 5
<MEAN> 6
 5.603115e-01 1.463720e-01 7.508048e-03 2.275904e-02 -2.194842e-02 2.314841e-03
<VARIANCE> 6
 5.869594e-03 3.295504e-03 1.019470e-03 6.302585e-04 1.265286e-03 7.104509e-04
<GCONST> -2.800583e+01
<STATE> 6
<MEAN> 6
 5.115905e-01 2.278015e-01 2.374259e-03 -7.488279e-04 1.957642e-02 1.660999e-03
<VARIANCE> 6
 3.926604e-03 1.487644e-03 1.350612e-03 5.610540e-04 1.404581e-03 1.849936e-03
<GCONST> -2.797679e+01
<STATE> 7
<MEAN> 6
 5.502462e-01 2.250656e-01 4.129769e-02 4.166026e-02 -2.623059e-02 5.461594e-02
<VARIANCE> 6
 4.869159e-03 1.053826e-03 8.769091e-04 3.197441e-04 8.395688e-04 1.725654e-03
<GCONST> -2.968477e+01
<STATE> 8
<MEAN> 6
 5.573124e-01 3.110684e-01 -1.206143e-02 4.055399e-02 -2.433472e-02 -1.038448e-02
<VARIANCE> 6
 4.690340e-03 2.481919e-03 1.354734e-03 1.113965e-03 1.838938e-03 1.657457e-03
<GCONST> -2.643873e+01
<STATE> 9
<MEAN> 6
 5.013512e-01 3.615193e-01 3.364480e-02 6.292111e-03 5.220168e-02 -6.312379e-03
<VARIANCE> 6
 5.588374e-03 2.739295e-03 3.724693e-03 1.693645e-04 2.333668e-03 5.049144e-04
<GCONST> -2.798752e+01
<STATE> 10
<MEAN> 6
 6.838544e-01 3.552586e-01 5.375605e-02 -1.587759e-02 -5.502456e-02 -2.794385e-02
<VARIANCE> 6
 4.907244e-03 4.140775e-03 1.873987e-03 5.536727e-04 1.309636e-03 4.651789e-04
<GCONST> -2.786637e+01
<STATE> 11
<MEAN> 6
 6.925300e-01 2.820551e-01 -1.119364e-02 -7.917049e-03 -3.663801e-03 4.128880e-02
<VARIANCE> 6
 6.044101e-03 5.157068e-03 9.775250e-04 1.625711e-03 3.341002e-03 1.671494e-03
<GCONST> -2.479662e+01
<TRANSP> 12
 0.000000e+00 1.000000e+00 0.000000e+00 0.000000e+00 0.000000e+00 0.000000e+00 0.000000e+00 0.000000e+00 0.000000e+00 0.000000e+00 0.000000e+00 0.000000e+00
 0.000000e+00 8.683848e-01 1.316152e-01 0.000000e+00 0.000000e+00 0.000000e+00 0.000000e+00 0.000000e+00 0.000000e+00 0.000000e+00 0.000000e+00 0.000000e+00
 0.000000e+00 0.000000e+00 9.091288e-01 9.087123e-02 0.000000e+00 0.000000e+00 0.000000e+00 0.000000e+00 0.000000e+00 0.000000e+00 0.000000e+00 0.000000e+00
 0.000000e+00 0.000000e+00 0.000000e+00 8.500772e-01 1.499229e-01 0.000000e+00 0.000000e+00 0.000000e+00 0.000000e+00 0.000000e+00 0.000000e+00 0.000000e+00
 0.000000e+00 0.000000e+00 0.000000e+00 0.000000e+00 9.118581e-01 8.814187e-02 0.000000e+00 0.000000e+00 0.000000e+00 0.000000e+00 0.000000e+00 0.000000e+00
 0.000000e+00 0.000000e+00 0.000000e+00 0.000000e+00 0.000000e+00 8.998342e-01 1.001659e-01 0.000000e+00 0.000000e+00 0.000000e+00 0.000000e+00 0.000000e+00
 0.000000e+00 0.000000e+00 0.000000e+00 0.000000e+00 0.000000e+00 0.000000e+00 0.000000e+00 1.000000e+00 0.000000e+00 0.000000e+00 0.000000e+00 0.000000e+00
 0.000000e+00 0.000000e+00 0.000000e+00 0.000000e+00 0.000000e+00 0.000000e+00 0.000000e+00 8.879540e-01 1.120460e-01 0.000000e+00 0.000000e+00 0.000000e+00
 0.000000e+00 0.000000e+00 0.000000e+00 0.000000e+00 0.000000e+00 0.000000e+00 0.000000e+00 0.000000e+00 8.833738e-01 1.166262e-01 0.000000e+00 0.000000e+00
 0.000000e+00 0.000000e+00 0.000000e+00 0.000000e+00 0.000000e+00 0.000000e+00 0.000000e+00 0.000000e+00 0.000000e+00 8.433827e-01 1.566173e-01 0.000000e+00
 0.000000e+00 0.000000e+00 0.000000e+00 0.000000e+00 0.000000e+00 0.000000e+00 0.000000e+00 0.000000e+00 0.000000e+00 0.000000e+00 8.581063e-01 1.418937e-01
 0.000000e+00 0.000000e+00 0.000000e+00 0.000000e+00 0.000000e+00 0.000000e+00 0.000000e+00 0.000000e+00 0.000000e+00 0.000000e+00 0.000000e+00 0.000000e+00
<ENDHMM>

