~o
<STREAMINFO> 1 7
<VECSIZE> 7<NULLD><USER><DIAGC>
~h "a"
<BEGINHMM>
<NUMSTATES> 12
<STATE> 2
<MEAN> 7
 4.223305e-01 2.297831e-01 1.137995e-02 2.074035e-02 -1.768507e-02 6.625505e-03 1.080442e+01
<VARIANCE> 7
 3.080314e-03 6.378605e-03 4.052483e-04 3.882812e-04 6.119809e-04 6.477461e-04 8.918864e+02
<GCONST> -2.158467e+01
<STATE> 3
<MEAN> 7
 3.888083e-01 2.923234e-01 -3.083812e-02 -1.095800e-02 1.077121e-03 -3.057724e-02 1.481172e+01
<VARIANCE> 7
 3.918615e-03 7.668768e-03 2.169615e-04 7.776670e-04 1.415828e-03 5.848703e-04 2.491417e+02
<GCONST> -2.162862e+01
<STATE> 4
<MEAN> 7
 3.348480e-01 1.806710e-01 5.242316e-03 -4.450493e-02 2.484751e-02 -2.482346e-03 1.795351e+00
<VARIANCE> 7
 3.351777e-03 6.716552e-03 5.976232e-04 5.113729e-04 1.174745e-03 6.785043e-04 1.742619e+01
<GCONST> -2.402162e+01
<STATE> 5
<MEAN> 7
 3.972160e-01 1.317157e-01 7.461155e-02 -5.337495e-02 4.961851e-02 3.395231e-02 1.433960e+00
<VARIANCE> 7
 3.883359e-03 5.684135e-03 1.883580e-03 1.034193e-03 1.343588e-03 2.252791e-03 2.975435e+00
<GCONST> -2.262232e+01
<STATE> 6
<MEAN> 7
 4.991957e-01 6.882871e-02 6.004211e-02 8.212019e-03 -9.217151e-03 2.846717e-02 6.789388e+00
<VARIANCE> 7
 5.541173e-03 7.978135e-03 1.167011e-03 4.922263e-04 8.738259e-04 8.784301e-04 3.837003e+01
<GCONST> -2.196407e+01
<STATE> 7
<MEAN> 7
 6.309279e-01 1.588385e-01 3.993931e-02 6.911959e-02 -7.103314e-02 1.689424e-02 3.593423e+00
<VARIANCE> 7
 4.742132e-03 6.400388e-03 2.567641e-03 1.135209e-03 4.909828e-03 3.877978e-03 5.626122e+01
<GCONST> -1.712218e+01
<STATE> 8
<MEAN> 7
 6.158873e-01 2.030468e-01 -1.282771e-02 4.322195e-02 -2.965290e-02 -2.045820e-02 -6.958339e-01
<VARIANCE> 7
 4.566776e-03 8.026148e-03 7.102879e-04 3.351939e-04 3.117452e-04 8.070967e-04 3.415010e+01
<GCONST> -2.426413e+01
<STATE> 9
<MEAN> 7
 5.560414e-01 2.687882e-01 -3.933981e-02 -1.214723e-02 1.671280e-02 -3.904067e-02 2.325319e+01
<VARIANCE> 7
 3.863367e-03 6.630933e-03 3.666528e-04 6.465577e-04 7.746885e-04 7.822250e-04 4.489691e+02
<GCONST> -2.117149e+01
<STATE> 10
<MEAN> 7
 5.091451e-01 1.878380e-01 -8.738263e-03 -2.723429e-02 1.317201e-03 8.195650e-03 6.424034e+00
<VARIANCE> 7
 4.358223e-03 6.496126e-03 5.381922e-04 3.064707e-04 1.020711e-03 2.712582e-04 3.543904e+02
<GCONST> -2.245408e+01
<STATE> 11
<MEAN> 7
 5.006009e-01 1.368590e-01 -4.401907e-02 -7.434852e-03 -3.377022e-02 9.613709e-03 1.122017e+02
<VARIANCE> 7
 6.907306e-03 7.127678e-03 1.216073e-03 1.015449e-04 1.990830e-03 2.315467e-04 5.030900e+05
<GCONST> -1.442235e+01
<TRANSP> 12
 0.000000e+00 1.000000e+00 0.000000e+00 0.000000e+00 0.000000e+00 0.000000e+00 0.000000e+00 0.000000e+00 0.000000e+00 0.000000e+00 0.000000e+00 0.000000e+00
 0.000000e+00 8.793451e-01 1.206549e-01 0.000000e+00 0.000000e+00 0.000000e+00 0.000000e+00 0.000000e+00 0.000000e+00 0.000000e+00 0.000000e+00 0.000000e+00
 0.000000e+00 0.000000e+00 8.817405e-01 1.182595e-01 0.000000e+00 0.000000e+00 0.000000e+00 0.000000e+00 0.000000e+00 0.000000e+00 0.000000e+00 0.000000e+00
 0.000000e+00 0.000000e+00 0.000000e+00 8.774386e-01 1.225614e-01 0.000000e+00 0.000000e+00 0.000000e+00 0.000000e+00 0.000000e+00 0.000000e+00 0.000000e+00
 0.000000e+00 0.000000e+00 0.000000e+00 0.000000e+00 7.423306e-01 2.576694e-01 0.000000e+00 0.000000e+00 0.000000e+00 0.000000e+00 0.000000e+00 0.000000e+00
 0.000000e+00 0.000000e+00 0.000000e+00 0.000000e+00 0.000000e+00 8.735667e-01 1.264334e-01 0.000000e+00 0.000000e+00 0.000000e+00 0.000000e+00 0.000000e+00
 0.000000e+00 0.000000e+00 0.000000e+00 0.000000e+00 0.000000e+00 0.000000e+00 7.068663e-01 2.931337e-01 0.000000e+00 0.000000e+00 0.000000e+00 0.000000e+00
 0.000000e+00 0.000000e+00 0.000000e+00 0.000000e+00 0.000000e+00 0.000000e+00 0.000000e+00 8.420855e-01 1.579145e-01 0.000000e+00 0.000000e+00 0.000000e+00
 0.000000e+00 0.000000e+00 0.000000e+00 0.000000e+00 0.000000e+00 0.000000e+00 0.000000e+00 0.000000e+00 8.218151e-01 1.781849e-01 0.000000e+00 0.000000e+00
 0.000000e+00 0.000000e+00 0.000000e+00 0.000000e+00 0.000000e+00 0.000000e+00 0.000000e+00 0.000000e+00 0.000000e+00 8.949025e-01 1.050975e-01 0.000000e+00
 0.000000e+00 0.000000e+00 0.000000e+00 0.000000e+00 0.000000e+00 0.000000e+00 0.000000e+00 0.000000e+00 0.000000e+00 0.000000e+00 7.690583e-01 2.309418e-01
 0.000000e+00 0.000000e+00 0.000000e+00 0.000000e+00 0.000000e+00 0.000000e+00 0.000000e+00 0.000000e+00 0.000000e+00 0.000000e+00 0.000000e+00 0.000000e+00
<ENDHMM>

~o
<STREAMINFO> 1 7
<VECSIZE> 7<NULLD><USER><DIAGC>
~h "ai"
<BEGINHMM>
<NUMSTATES> 12
<STATE> 2
<MEAN> 7
 3.989302e-01 3.176915e-01 1.746619e-02 1.742930e-02 9.410523e-03 -1.215072e-02 -8.050405e+00
<VARIANCE> 7
 3.784554e-03 7.093677e-03 2.646925e-04 4.254576e-04 2.594648e-04 6.491472e-04 3.809372e+02
<GCONST> -2.331363e+01
<STATE> 3
<MEAN> 7
 4.850563e-01 2.979552e-01 1.692186e-02 -2.775849e-02 -1.048568e-02 -5.797384e-03 -7.247394e+00
<VARIANCE> 7
 3.006341e-03 7.203806e-03 2.838205e-04 2.447801e-04 1.760453e-04 8.706990e-04 7.321447e+02
<GCONST> -2.345236e+01
<STATE> 4
<MEAN> 7
 4.913133e-01 2.479457e-01 7.498356e-03 -1.346086e-02 -4.960665e-03 4.911942e-02 7.954437e+01
<VARIANCE> 7
 3.935000e-03 4.888658e-03 3.044428e-04 1.465137e-04 2.793923e-04 2.193355e-03 1.811067e+04
<GCONST> -1.941992e+01
<STATE> 5
<MEAN> 7
 4.953984e-01 2.433873e-01 5.799888e-03 6.904497e-03 5.728356e-04 4.996177e-02 3.770267e+01
<VARIANCE> 7
 3.879984e-03 4.913494e-03 1.332096e-04 3.493160e-04 9.231851e-04 3.018152e-03 3.600487e+08
<GCONST> -7.974716e+00
<STATE> 6
<MEAN> 7
 5.498651e-01 3.081734e-01 2.620864e-02 5.070067e-03 2.485105e-03 -1.839251e-02 -8.921843e+00
<VARIANCE> 7
 5.177638e-03 6.527554e-03 3.560994e-04 1.292445e-03 5.308836e-04 1.243398e-03 2.570205e+02
<GCONST> -2.070323e+01
<STATE> 7
<MEAN> 7
 6.012778e-01 2.615750e-01 1.305657e-02 -6.660244e-02 -3.204871e-02 -1.420404e-02 -1.457960e+00
<VARIANCE> 7
 7.304269e-03 3.946489e-03 5.238937e-04 1.301743e-03 7.918546e-04 1.171784e-03 3.490044e+00
<GCONST> -2.442780e+01
<STATE> 8
<MEAN> 7
 5.936236e-01 1.578864e-01 -2.157749e-02 -3.749187e-02 -1.422307e-02 1.608512e-02 -3.531039e+00
<VARIANCE> 7
 7.135246e-03 5.379826e-03 4.664258e-04 8.213134e-04 4.937205e-04 6.386731e-04 4.681547e+01
<GCONST> -2.320113e+01
<STATE> 9
<MEAN> 7
 5.159053e-01 1.145306e-01 -1.817979e-02 9.893793e-03 1.526948e-02 1.013707e-02 1.149694e+02
<VARIANCE> 7
 7.030568e-03 4.161257e-03 6.404366e-04 4.038652e-04 4.916559e-04 2.179917e-03 4.413212e+06
<GCONST> -1.118816e+01
<STATE> 10
<MEAN> 7
 4.550830e-01 1.604414e-01 -1.551996e-02 5.957072e-03 1.650042e-03 -1.758317e-03 -1.757050e+00
<VARIANCE> 7
 8.453565e-03 1.034909e-02 4.201215e-04 5.325514e-04 2.961345e-04 5.205040e-04 6.493334e+02
<GCONST> -2.100115e+01
<STATE> 11
<MEAN> 7
 4.489882e-01 1.436625e-01 1.339394e-02 -1.280934e-03 1.395592e-02 1.090267e-03 6.282540e-02
<VARIANCE> 7
 5.665281e-03 4.730782e-03 1.358379e-03 1.126524e-03 1.524771e-03 1.389433e-03 2.723394e+02
<GCONST> -1.850973e+01
<TRANSP> 12
 0.000000e+00 1.000000e+00 0.000000e+00 0.000000e+00 0.000000e+00 0.000000e+00 0.000000e+00 0.000000e+00 0.000000e+00 0.000000e+00 0.000000e+00 0.000000e+00
 0.000000e+00 9.091535e-01 9.084645e-02 0.000000e+00 0.000000e+00 0.000000e+00 0.000000e+00 0.000000e+00 0.000000e+00 0.000000e+00 0.000000e+00 0.000000e+00
 0.000000e+00 0.000000e+00 8.864010e-01 1.135990e-01 0.000000e+00 0.000000e+00 0.000000e+00 0.000000e+00 0.000000e+00 0.000000e+00 0.000000e+00 0.000000e+00
 0.000000e+00 0.000000e+00 0.000000e+00 0.000000e+00 1.000000e+00 0.000000e+00 0.000000e+00 0.000000e+00 0.000000e+00 0.000000e+00 0.000000e+00 0.000000e+00
 0.000000e+00 0.000000e+00 0.000000e+00 0.000000e+00 1.934198e-01 8.065802e-01 0.000000e+00 0.000000e+00 0.000000e+00 0.000000e+00 0.000000e+00 0.000000e+00
 0.000000e+00 0.000000e+00 0.000000e+00 0.000000e+00 0.000000e+00 9.295409e-01 7.045905e-02 0.000000e+00 0.000000e+00 0.000000e+00 0.000000e+00 0.000000e+00
 0.000000e+00 0.000000e+00 0.000000e+00 0.000000e+00 0.000000e+00 0.000000e+00 0.000000e+00 1.000000e+00 0.000000e+00 0.000000e+00 0.000000e+00 0.000000e+00
 0.000000e+00 0.000000e+00 0.000000e+00 0.000000e+00 0.000000e+00 0.000000e+00 0.000000e+00 9.183823e-01 8.161768e-02 0.000000e+00 0.000000e+00 0.000000e+00
 0.000000e+00 0.000000e+00 0.000000e+00 0.000000e+00 0.000000e+00 0.000000e+00 0.000000e+00 0.000000e+00 6.839282e-01 3.160718e-01 0.000000e+00 0.000000e+00
 0.000000e+00 0.000000e+00 0.000000e+00 0.000000e+00 0.000000e+00 0.000000e+00 0.000000e+00 0.000000e+00 0.000000e+00 9.349446e-01 6.505540e-02 0.000000e+00
 0.000000e+00 0.000000e+00 0.000000e+00 0.000000e+00 0.000000e+00 0.000000e+00 0.000000e+00 0.000000e+00 0.000000e+00 0.000000e+00 9.185410e-01 8.145899e-02
 0.000000e+00 0.000000e+00 0.000000e+00 0.000000e+00 0.000000e+00 0.000000e+00 0.000000e+00 0.000000e+00 0.000000e+00 0.000000e+00 0.000000e+00 0.000000e+00
<ENDHMM>

~o
<STREAMINFO> 1 7
<VECSIZE> 7<NULLD><USER><DIAGC>
~h "bA"
<BEGINHMM>
<NUMSTATES> 12
<STATE> 2
<MEAN> 7
 3.788757e-01 3.044672e-01 1.734748e-02 3.420941e-03 2.748529e-03 -2.853225e-02 -2.455063e+01
<VARIANCE> 7
 4.447688e-03 6.574227e-03 6.635837e-04 1.035021e-03 1.808234e-03 1.775350e-03 1.931286e+03
<GCONST> -1.684924e+01
<STATE> 3
<MEAN> 7
 3.867285e-01 2.207071e-01 -1.522287e-02 -5.075185e-02 1.286623e-03 2.093615e-03 -1.889495e+00
<VARIANCE> 7
 4.819966e-03 6.343757e-03 2.806219e-04 6.608122e-04 1.101012e-03 5.321247e-04 2.746095e+01
<GCONST> -2.406807e+01
<STATE> 4
<MEAN> 7
 4.187248e-01 1.330679e-01 3.156711e-02 -7.334371e-04 7.699822e-03 3.442667e-02 7.594740e+00
<VARIANCE> 7
 5.319703e-03 5.520065e-03 4.162931e-04 1.102197e-03 1.593269e-03 1.684654e-03 5.837952e+02
<GCONST> -1.862375e+01
<STATE> 5
<MEAN> 7
 4.737436e-01 1.809741e-01 4.897818e-03 3.057842e-02 -1.258138e-02 -2.283534e-02 -1.492435e+01
<VARIANCE> 7
 3.138944e-03 5.707498e-03 3.448458e-04 3.152577e-04 4.362311e-04 1.061986e-03 9.171344e+03
<GCONST> -1.956035e+01
<STATE> 6
<MEAN> 7
 4.733428e-01 2.133210e-01 7.252039e-03 -3.937896e-03 1.068852e-02 -6.534021e-02 -8.376358e+02
<VARIANCE> 7
 3.546438e-03 4.179350e-03 1.825568e-04 1.522440e-04 6.850396e-04 1.289777e-03 6.201640e+08
<GCONST> -9.346571e+00
<STATE> 7
<MEAN> 7
 5.212877e-01 1.746550e-01 3.122383e-02 3.637934e-03 -4.881311e-03 2.762131e-02 1.363273e+01
<VARIANCE> 7
 5.648430e-03 2.714337e-03 7.254385e-04 1.610931e-03 2.398275e-03 2.313066e-03 6.630185e+02
<GCONST> -1.748551e+01
<STATE> 8
<MEAN> 7
 5.430755e-01 2.900205e-01 -2.805945e-02 5.522374e-02 2.645953e-03 -3.105101e-02 2.511353e+01
<VARIANCE> 7
 4.514960e-03 4.203779e-03 8.051373e-04 9.667375e-04 3.444986e-03 1.051553e-03 9.976225e+03
<GCONST> -1.539343e+01
<STATE> 9
<MEAN> 7
 5.206800e-01 3.106417e-01 1.116912e-02 1.577170e-02 9.799900e-02 -3.384712e-02 8.449809e+02
<VARIANCE> 7
 4.771109e-03 6.135167e-03 4.402382e-04 1.667305e-04 6.227661e-03 1.034613e-03 1.205926e+07
<GCONST> -9.648222e+00
<STATE> 10
<MEAN> 7
 5.865203e-01 3.336020e-01 7.564385e-02 3.144276e-03 2.059974e-02 -1.625986e-02 -1.862362e+01
<VARIANCE> 7
 7.017768e-03 4.427167e-03 1.739737e-03 1.384244e-04 5.595583e-03 5.301624e-04 1.631771e+04
<GCONST> -1.578147e+01
<STATE> 11
<MEAN> 7
 6.845368e-01 2.703617e-01 6.240245e-03 -1.800259e-02 -2.542241e-02 1.943265e-02 -1.302794e+01
<VARIANCE> 7
 5.961697e-03 6.843274e-03 1.891139e-03 1.882362e-03 4.267305e-03 3.551105e-03 2.367498e+03
<GCONST> -1.311523e+01
<TRANSP> 12
 0.000000e+00 1.000000e+00 0.000000e+00 0.000000e+00 0.000000e+00 0.000000e+00 0.000000e+00 0.000000e+00 0.000000e+00 0.000000e+00 0.000000e+00 0.000000e+00
 0.000000e+00 8.942714e-01 1.057286e-01 0.000000e+00 0.000000e+00 0.000000e+00 0.000000e+00 0.000000e+00 0.000000e+00 0.000000e+00 0.000000e+00 0.000000e+00
 0.000000e+00 0.000000e+00 8.831834e-01 1.168167e-01 0.000000e+00 0.000000e+00 0.000000e+00 0.000000e+00 0.000000e+00 0.000000e+00 0.000000e+00 0.000000e+00
 0.000000e+00 0.000000e+00 0.000000e+00 8.947570e-01 1.052430e-01 0.000000e+00 0.000000e+00 0.000000e+00 0.000000e+00 0.000000e+00 0.000000e+00 0.000000e+00
 0.000000e+00 0.000000e+00 0.000000e+00 0.000000e+00 8.000566e-01 1.999433e-01 0.000000e+00 0.000000e+00 0.000000e+00 0.000000e+00 0.000000e+00 0.000000e+00
 0.000000e+00 0.000000e+00 0.000000e+00 0.000000e+00 0.000000e+00 0.000000e+00 1.000000e+00 0.000000e+00 0.000000e+00 0.000000e+00 0.000000e+00 0.000000e+00
 0.000000e+00 0.000000e+00 0.000000e+00 0.000000e+00 0.000000e+00 0.000000e+00 9.073074e-01 9.269264e-02 0.000000e+00 0.000000e+00 0.000000e+00 0.000000e+00
 0.000000e+00 0.000000e+00 0.000000e+00 0.000000e+00 0.000000e+00 0.000000e+00 0.000000e+00 8.250129e-01 1.749871e-01 0.000000e+00 0.000000e+00 0.000000e+00
 0.000000e+00 0.000000e+00 0.000000e+00 0.000000e+00 0.000000e+00 0.000000e+00 0.000000e+00 0.000000e+00 0.000000e+00 1.000000e+00 0.000000e+00 0.000000e+00
 0.000000e+00 0.000000e+00 0.000000e+00 0.000000e+00 0.000000e+00 0.000000e+00 0.000000e+00 0.000000e+00 0.000000e+00 8.403501e-01 1.596499e-01 0.000000e+00
 0.000000e+00 0.000000e+00 0.000000e+00 0.000000e+00 0.000000e+00 0.000000e+00 0.000000e+00 0.000000e+00 0.000000e+00 0.000000e+00 8.986012e-01 1.013989e-01
 0.000000e+00 0.000000e+00 0.000000e+00 0.000000e+00 0.000000e+00 0.000000e+00 0.000000e+00 0.000000e+00 0.000000e+00 0.000000e+00 0.000000e+00 0.000000e+00
<ENDHMM>

~o
<STREAMINFO> 1 7
<VECSIZE> 7<NULLD><USER><DIAGC>
~h "chA"
<BEGINHMM>
<NUMSTATES> 12
<STATE> 2
<MEAN> 7
 3.739882e-01 2.383976e-01 3.576878e-02 -2.693111e-03 -2.011673e-02 -3.607302e-03 -1.646885e+01
<VARIANCE> 7
 3.906631e-03 7.165499e-03 6.222641e-04 2.343350e-04 9.142273e-04 3.612512e-04 2.523176e+03
<GCONST> -2.044942e+01
<STATE> 3
<MEAN> 7
 4.297355e-01 2.550589e-01 2.812448e-03 -1.848194e-02 -6.158272e-02 -4.357705e-02 -1.329101e+03
<VARIANCE> 7
 3.248239e-03 5.948238e-03 3.923256e-04 3.494038e-04 1.216429e-03 8.423232e-04 3.961580e+07
<GCONST> -1.008831e+01
<STATE> 4
<MEAN> 7
 4.177137e-01 1.760478e-01 1.045080e-02 -9.161903e-03 5.018028e-03 8.410254e-03 1.723730e+00
<VARIANCE> 7
 3.664705e-03 6.878193e-03 7.719768e-04 1.000791e-03 8.984176e-04 9.360195e-04 4.856787e+02
<GCONST> -1.959999e+01
<STATE> 5
<MEAN> 7
 4.822367e-01 1.907555e-01 9.633632e-03 4.303762e-03 -6.130662e-03 -4.015653e-02 -1.629792e+03
<VARIANCE> 7
 2.171156e-03 5.771463e-03 1.665904e-04 4.513140e-04 9.927843e-04 2.042459e-03 9.099253e+07
<GCONST> -9.607813e+00
<STATE> 6
<MEAN> 7
 5.506423e-01 1.894860e-01 1.617937e-02 1.748230e-02 -1.007267e-02 1.006230e-02 8.220771e+00
<VARIANCE> 7
 4.273015e-03 7.140453e-03 1.333824e-03 1.543940e-03 1.856625e-03 1.859913e-03 2.956718e+02
<GCONST> -1.751237e+01
<STATE> 7
<MEAN> 7
 5.502263e-01 2.791607e-01 -3.288103e-02 2.903630e-02 3.150052e-02 -3.845041e-02 2.249241e+01
<VARIANCE> 7
 3.046748e-03 5.814749e-03 5.836819e-04 4.270370e-04 8.421089e-04 7.780029e-04 2.858199e+02
<GCONST> -2.186371e+01
<STATE> 8
<MEAN> 7
 5.415156e-01 2.850692e-01 -1.836351e-02 1.825454e-02 6.923117e-02 -3.467702e-02 9.586065e+01
<VARIANCE> 7
 3.085612e-03 5.889934e-03 3.706813e-04 1.732778e-04 3.388948e-03 7.730667e-04 1.212517e+04
<GCONST> -1.806050e+01
<STATE> 9
<MEAN> 7
 5.381870e-01 2.891520e-01 7.554607e-03 9.332070e-03 9.159830e-02 -2.540162e-02 3.547934e+03
<VARIANCE> 7
 2.903880e-03 5.916700e-03 8.275770e-04 8.805902e-05 3.894393e-03 7.717274e-04 5.608657e+08
<GCONST> -7.111160e+00
<STATE> 10
<MEAN> 7
 6.171335e-01 2.952795e-01 6.955221e-02 4.168518e-03 1.369890e-02 -8.622901e-03 -2.675071e+01
<VARIANCE> 7
 5.647126e-03 5.831255e-03 1.329956e-03 8.568801e-05 4.447921e-03 3.533221e-04 2.657330e+04
<GCONST> -1.661919e+01
<STATE> 11
<MEAN> 7
 7.156436e-01 2.489638e-01 3.362107e-03 -1.428501e-02 -1.901010e-02 1.372471e-02 -1.228592e+01
<VARIANCE> 7
 5.436286e-03 7.082640e-03 1.330265e-03 1.099424e-03 2.639423e-03 2.164131e-03 2.749773e+03
<GCONST> -1.488863e+01
<TRANSP> 12
 0.000000e+00 1.000000e+00 0.000000e+00 0.000000e+00 0.000000e+00 0.000000e+00 0.000000e+00 0.000000e+00 0.000000e+00 0.000000e+00 0.000000e+00 0.000000e+00
 0.000000e+00 8.264973e-01 1.735027e-01 0.000000e+00 0.000000e+00 0.000000e+00 0.000000e+00 0.000000e+00 0.000000e+00 0.000000e+00 0.000000e+00 0.000000e+00
 0.000000e+00 0.000000e+00 4.440427e-01 5.559573e-01 0.000000e+00 0.000000e+00 0.000000e+00 0.000000e+00 0.000000e+00 0.000000e+00 0.000000e+00 0.000000e+00
 0.000000e+00 0.000000e+00 0.000000e+00 9.483446e-01 5.165544e-02 0.000000e+00 0.000000e+00 0.000000e+00 0.000000e+00 0.000000e+00 0.000000e+00 0.000000e+00
 0.000000e+00 0.000000e+00 0.000000e+00 0.000000e+00 5.227758e-01 4.772242e-01 0.000000e+00 0.000000e+00 0.000000e+00 0.000000e+00 0.000000e+00 0.000000e+00
 0.000000e+00 0.000000e+00 0.000000e+00 0.000000e+00 0.000000e+00 9.370918e-01 6.290816e-02 0.000000e+00 0.000000e+00 0.000000e+00 0.000000e+00 0.000000e+00
 0.000000e+00 0.000000e+00 0.000000e+00 0.000000e+00 0.000000e+00 0.000000e+00 0.000000e+00 1.000000e+00 0.000000e+00 0.000000e+00 0.000000e+00 0.000000e+00
 0.000000e+00 0.000000e+00 0.000000e+00 0.000000e+00 0.000000e+00 0.000000e+00 0.000000e+00 0.000000e+00 1.000000e+00 0.000000e+00 0.000000e+00 0.000000e+00
 0.000000e+00 0.000000e+00 0.000000e+00 0.000000e+00 0.000000e+00 0.000000e+00 0.000000e+00 0.000000e+00 0.000000e+00 1.000000e+00 0.000000e+00 0.000000e+00
 0.000000e+00 0.000000e+00 0.000000e+00 0.000000e+00 0.000000e+00 0.000000e+00 0.000000e+00 0.000000e+00 0.000000e+00 8.680242e-01 1.319758e-01 0.000000e+00
 0.000000e+00 0.000000e+00 0.000000e+00 0.000000e+00 0.000000e+00 0.000000e+00 0.000000e+00 0.000000e+00 0.000000e+00 0.000000e+00 9.110575e-01 8.894248e-02
 0.000000e+00 0.000000e+00 0.000000e+00 0.000000e+00 0.000000e+00 0.000000e+00 0.000000e+00 0.000000e+00 0.000000e+00 0.000000e+00 0.000000e+00 0.000000e+00
<ENDHMM>

~o
<STREAMINFO> 1 7
<VECSIZE> 7<NULLD><USER><DIAGC>
~h "dA"
<BEGINHMM>
<NUMSTATES> 12
<STATE> 2
<MEAN> 7
 3.948502e-01 2.238944e-01 -9.818186e-03 -4.909521e-02 3.100058e-02 5.852196e-03 -1.336589e-02
<VARIANCE> 7
 4.640432e-03 5.667129e-03 9.183866e-04 5.571694e-04 1.019505e-03 1.866237e-03 1.112400e+02
<GCONST> -2.062699e+01
<STATE> 3
<MEAN> 7
 4.065542e-01 1.515779e-01 2.821204e-02 1.095365e-02 -7.781304e-03 1.958924e-02 1.273423e+01
<VARIANCE> 7
 8.611819e-03 3.692413e-03 5.456639e-04 4.194312e-04 4.842213e-04 9.901073e-04 6.051531e+02
<GCONST> -2.092626e+01
<STATE> 4
<MEAN> 7
 5.036805e-01 1.793476e-01 2.853440e-02 -5.519612e-03 3.884116e-03 3.670645e-05 -8.315579e+00
<VARIANCE> 7
 3.604156e-03 2.174379e-03 3.489229e-04 4.261133e-04 6.427487e-04 1.808221e-03 5.982007e+03
<GCONST> -1.958167e+01
<STATE> 5
<MEAN> 7
 5.383202e-01 1.773009e-01 2.723203e-02 2.673742e-02 -4.416769e-02 5.082701e-02 -2.517236e+03
<VARIANCE> 7
 4.967747e-03 2.785332e-03 5.571996e-04 4.079178e-04 1.688411e-03 4.784839e-03 1.381610e+08
<GCONST> -6.602407e+00
<STATE> 6
<MEAN> 7
 5.345514e-01 2.298072e-01 -2.340581e-02 4.108840e-02 -2.709912e-02 -3.985314e-03 6.679838e+00
<VARIANCE> 7
 5.547351e-03 5.388581e-03 2.196738e-03 1.206745e-03 2.303989e-03 1.721279e-03 1.496133e+02
<GCONST> -1.782312e+01
<STATE> 7
<MEAN> 7
 4.402111e-01 3.220815e-01 -3.753712e-02 9.211461e-03 3.455632e-02 -1.412544e-02 1.241455e+01
<VARIANCE> 7
 3.867572e-03 3.250890e-03 3.788506e-04 1.885846e-04 1.848029e-03 2.251413e-04 1.508084e+03
<GCONST> -2.224697e+01
<STATE> 8
<MEAN> 7
 4.152758e-01 3.137981e-01 4.736914e-03 2.139893e-03 1.122231e-01 -1.412469e-03 2.403623e+03
<VARIANCE> 7
 6.139932e-03 4.949914e-03 1.416755e-04 1.290459e-04 4.879820e-03 2.807598e-04 1.723547e+08
<GCONST> -9.889093e+00
<STATE> 9
<MEAN> 7
 4.227633e-01 3.143521e-01 4.062274e-02 3.072781e-03 1.147801e-01 4.247210e-03 -6.673183e+00
<VARIANCE> 7
 6.025937e-03 4.962043e-03 6.355141e-04 1.073835e-04 4.774260e-03 3.232312e-04 7.458566e+02
<GCONST> -2.081979e+01
<STATE> 10
<MEAN> 7
 5.294059e-01 3.282010e-01 9.263716e-02 7.539006e-03 8.102748e-03 -6.944678e-03 -1.762157e+01
<VARIANCE> 7
 8.540101e-03 4.814031e-03 1.782281e-03 1.130989e-04 4.711777e-03 4.387347e-04 1.181095e+04
<GCONST> -1.636370e+01
<STATE> 11
<MEAN> 7
 6.731450e-01 2.857947e-01 5.749793e-03 -1.679717e-02 -2.659219e-02 1.592039e-02 -1.641217e+01
<VARIANCE> 7
 6.246713e-03 5.245657e-03 1.820410e-03 1.273899e-03 3.330420e-03 2.450659e-03 2.084202e+03
<GCONST> -1.450920e+01
<TRANSP> 12
 0.000000e+00 1.000000e+00 0.000000e+00 0.000000e+00 0.000000e+00 0.000000e+00 0.000000e+00 0.000000e+00 0.000000e+00 0.000000e+00 0.000000e+00 0.000000e+00
 0.000000e+00 8.874116e-01 1.125884e-01 0.000000e+00 0.000000e+00 0.000000e+00 0.000000e+00 0.000000e+00 0.000000e+00 0.000000e+00 0.000000e+00 0.000000e+00
 0.000000e+00 0.000000e+00 8.722350e-01 1.277650e-01 0.000000e+00 0.000000e+00 0.000000e+00 0.000000e+00 0.000000e+00 0.000000e+00 0.000000e+00 0.000000e+00
 0.000000e+00 0.000000e+00 0.000000e+00 8.788896e-01 1.211105e-01 0.000000e+00 0.000000e+00 0.000000e+00 0.000000e+00 0.000000e+00 0.000000e+00 0.000000e+00
 0.000000e+00 0.000000e+00 0.000000e+00 0.000000e+00 9.444642e-02 9.055536e-01 0.000000e+00 0.000000e+00 0.000000e+00 0.000000e+00 0.000000e+00 0.000000e+00
 0.000000e+00 0.000000e+00 0.000000e+00 0.000000e+00 0.000000e+00 9.029130e-01 9.708702e-02 0.000000e+00 0.000000e+00 0.000000e+00 0.000000e+00 0.000000e+00
 0.000000e+00 0.000000e+00 0.000000e+00 0.000000e+00 0.000000e+00 0.000000e+00 8.114620e-01 1.885380e-01 0.000000e+00 0.000000e+00 0.000000e+00 0.000000e+00
 0.000000e+00 0.000000e+00 0.000000e+00 0.000000e+00 0.000000e+00 0.000000e+00 0.000000e+00 0.000000e+00 1.000000e+00 0.000000e+00 0.000000e+00 0.000000e+00
 0.000000e+00 0.000000e+00 0.000000e+00 0.000000e+00 0.000000e+00 0.000000e+00 0.000000e+00 0.000000e+00 0.000000e+00 1.000000e+00 0.000000e+00 0.000000e+00
 0.000000e+00 0.000000e+00 0.000000e+00 0.000000e+00 0.000000e+00 0.000000e+00 0.000000e+00 0.000000e+00 0.000000e+00 8.744116e-01 1.255884e-01 0.000000e+00
 0.000000e+00 0.000000e+00 0.000000e+00 0.000000e+00 0.000000e+00 0.000000e+00 0.000000e+00 0.000000e+00 0.000000e+00 0.000000e+00 9.094490e-01 9.055093e-02
 0.000000e+00 0.000000e+00 0.000000e+00 0.000000e+00 0.000000e+00 0.000000e+00 0.000000e+00 0.000000e+00 0.000000e+00 0.000000e+00 0.000000e+00 0.000000e+00
<ENDHMM>

~o
<STREAMINFO> 1 7
<VECSIZE> 7<NULLD><USER><DIAGC>
~h "lA"
<BEGINHMM>
<NUMSTATES> 12
<STATE> 2
<MEAN> 7
 4.276716e-01 2.559322e-01 7.315302e-06 2.508126e-02 -2.637806e-02 -5.844531e-03 1.056959e+01
<VARIANCE> 7
 4.697333e-03 4.709731e-03 5.693375e-04 4.315543e-04 9.962308e-04 1.353736e-03 2.017471e+03
<GCONST> -1.897972e+01
<STATE> 3
<MEAN> 7
 3.640877e-01 2.701155e-01 -2.278416e-02 -2.446555e-02 1.306993e-02 -3.862003e-02 1.688081e+01
<VARIANCE> 7
 5.565828e-03 4.471774e-03 6.853708e-04 9.510623e-04 1.090180e-03 1.655261e-03 3.410863e+02
<GCONST> -1.937250e+01
<STATE> 4
<MEAN> 7
 3.790451e-01 1.761976e-01 4.169905e-02 -5.493066e-02 5.207958e-02 2.374469e-02 8.490850e-01
<VARIANCE> 7
 4.938250e-03 3.963949e-03 1.650338e-03 8.564104e-04 2.204412e-03 1.548648e-03 1.003893e+01
<GCONST> -2.172685e+01
<STATE> 5
<MEAN> 7
 4.998834e-01 1.313869e-01 6.182413e-02 2.113975e-02 -3.456732e-02 5.397707e-02 1.339388e+01
<VARIANCE> 7
 5.747344e-03 3.249720e-03 1.106495e-03 1.102042e-03 2.128475e-03 2.252085e-03 1.176060e+02
<GCONST> -1.912112e+01
<STATE> 6
<MEAN> 7
 5.551164e-01 2.223233e-01 -8.994615e-03 6.142219e-02 -3.963273e-02 -1.521842e-02 5.025978e-01
<VARIANCE> 7
 5.384018e-03 4.212635e-03 6.733661e-04 6.324703e-04 1.315137e-03 9.459975e-04 1.754500e+01
<GCONST> -2.323026e+01
<STATE> 7
<MEAN> 7
 5.146376e-01 2.794637e-01 -2.302906e-02 2.724497e-02 3.193505e-02 -2.945315e-02 4.512025e+01
<VARIANCE> 7
 4.497191e-03 4.086087e-03 2.798837e-04 2.274684e-04 8.258821e-04 7.590620e-04 5.346917e+03
<GCONST> -2.030718e+01
<STATE> 8
<MEAN> 7
 5.122768e-01 2.924261e-01 6.301723e-03 1.615696e-02 8.853882e-02 -2.659013e-02 5.172335e+03
<VARIANCE> 7
 4.978190e-03 4.247314e-03 1.634049e-04 1.285234e-04 3.428026e-03 7.118849e-04 1.993528e+08
<GCONST> -9.390476e+00
<STATE> 9
<MEAN> 7
 5.529775e-01 2.745249e-01 4.557836e-02 3.720661e-03 3.908998e-02 -1.484725e-02 -3.251359e+01
<VARIANCE> 7
 5.788947e-03 3.313886e-03 1.108276e-03 1.266266e-04 5.863104e-03 3.365272e-04 4.130259e+04
<GCONST> -1.628275e+01
<STATE> 10
<MEAN> 7
 6.070769e-01 3.035218e-01 7.782913e-02 1.921000e-03 8.562154e-03 -9.651939e-03 -1.503687e+00
<VARIANCE> 7
 7.385852e-03 4.068485e-03 1.104500e-03 1.512102e-04 2.802013e-03 2.904109e-04 9.806459e+00
<GCONST> -2.489132e+01
<STATE> 11
<MEAN> 7
 6.960862e-01 2.524718e-01 2.965364e-03 -1.588151e-02 -2.343198e-02 1.552244e-02 -1.792839e+01
<VARIANCE> 7
 5.801033e-03 4.252128e-03 1.419945e-03 1.236764e-03 3.247831e-03 2.606541e-03 3.070976e+03
<GCONST> -1.464706e+01
<TRANSP> 12
 0.000000e+00 1.000000e+00 0.000000e+00 0.000000e+00 0.000000e+00 0.000000e+00 0.000000e+00 0.000000e+00 0.000000e+00 0.000000e+00 0.000000e+00 0.000000e+00
 0.000000e+00 8.552566e-01 1.447434e-01 0.000000e+00 0.000000e+00 0.000000e+00 0.000000e+00 0.000000e+00 0.000000e+00 0.000000e+00 0.000000e+00 0.000000e+00
 0.000000e+00 0.000000e+00 8.527166e-01 1.472834e-01 0.000000e+00 0.000000e+00 0.000000e+00 0.000000e+00 0.000000e+00 0.000000e+00 0.000000e+00 0.000000e+00
 0.000000e+00 0.000000e+00 0.000000e+00 8.437955e-01 1.562044e-01 0.000000e+00 0.000000e+00 0.000000e+00 0.000000e+00 0.000000e+00 0.000000e+00 0.000000e+00
 0.000000e+00 0.000000e+00 0.000000e+00 0.000000e+00 8.404385e-01 1.595615e-01 0.000000e+00 0.000000e+00 0.000000e+00 0.000000e+00 0.000000e+00 0.000000e+00
 0.000000e+00 0.000000e+00 0.000000e+00 0.000000e+00 0.000000e+00 8.089383e-01 1.910617e-01 0.000000e+00 0.000000e+00 0.000000e+00 0.000000e+00 0.000000e+00
 0.000000e+00 0.000000e+00 0.000000e+00 0.000000e+00 0.000000e+00 0.000000e+00 6.727244e-01 3.272756e-01 0.000000e+00 0.000000e+00 0.000000e+00 0.000000e+00
 0.000000e+00 0.000000e+00 0.000000e+00 0.000000e+00 0.000000e+00 0.000000e+00 0.000000e+00 0.000000e+00 1.000000e+00 0.000000e+00 0.000000e+00 0.000000e+00
 0.000000e+00 0.000000e+00 0.000000e+00 0.000000e+00 0.000000e+00 0.000000e+00 0.000000e+00 0.000000e+00 5.361925e-01 4.638075e-01 0.000000e+00 0.000000e+00
 0.000000e+00 0.000000e+00 0.000000e+00 0.000000e+00 0.000000e+00 0.000000e+00 0.000000e+00 0.000000e+00 0.000000e+00 8.332740e-01 1.667260e-01 0.000000e+00
 0.000000e+00 0.000000e+00 0.000000e+00 0.000000e+00 0.000000e+00 0.000000e+00 0.000000e+00 0.000000e+00 0.000000e+00 0.000000e+00 9.105199e-01 8.948012e-02
 0.000000e+00 0.000000e+00 0.000000e+00 0.000000e+00 0.000000e+00 0.000000e+00 0.000000e+00 0.000000e+00 0.000000e+00 0.000000e+00 0.000000e+00 0.000000e+00
<ENDHMM>

~o
<STREAMINFO> 1 7
<VECSIZE> 7<NULLD><USER><DIAGC>
~h "tA"
<BEGINHMM>
<NUMSTATES> 12
<STATE> 2
<MEAN> 7
 4.292398e-01 2.614189e-01 -2.055721e-03 2.215306e-02 -2.523508e-02 -6.759686e-03 1.338281e+01
<VARIANCE> 7
 4.185631e-03 4.667760e-03 4.859818e-04 2.646686e-04 4.281348e-04 1.234952e-03 1.989581e+03
<GCONST> -2.070152e+01
<STATE> 3
<MEAN> 7
 3.682840e-01 2.554174e-01 -1.726732e-02 -2.450681e-02 1.342775e-02 -2.875107e-02 1.576288e+01
<VARIANCE> 7
 6.514626e-03 4.941035e-03 4.512259e-04 7.166603e-04 8.554143e-04 1.094346e-03 2.678247e+02
<GCONST> -2.071439e+01
<STATE> 4
<MEAN> 7
 4.143758e-01 1.666576e-01 5.002286e-02 -3.898349e-02 3.990042e-02 2.855295e-02 2.286843e+00
<VARIANCE> 7
 4.619231e-03 3.966021e-03 1.361330e-03 8.642380e-04 1.676665e-03 9.594709e-04 1.810113e+01
<GCONST> -2.213944e+01
<STATE> 5
<MEAN> 7
 5.640844e-01 1.832182e-01 1.301136e-02 3.022952e-02 -3.410578e-02 4.301747e-03 6.800691e+00
<VARIANCE> 7
 6.298357e-03 5.418285e-03 1.716263e-03 5.678964e-04 1.148215e-03 1.560791e-03 1.832922e+02
<GCONST> -1.928251e+01
<STATE> 6
<MEAN> 7
 5.102174e-01 2.325243e-01 5.418218e-03 -1.161014e-02 2.775389e-02 5.762423e-03 2.669736e+01
<VARIANCE> 7
 4.331320e-03 4.298305e-03 1.077048e-03 4.127600e-04 1.152596e-03 2.184274e-03 4.569188e+03
<GCONST> -1.711757e+01
<STATE> 7
<MEAN> 7
 5.621685e-01 2.680657e-01 -6.443292e-03 5.229307e-02 -4.110776e-02 3.956664e-03 5.780533e+00
<VARIANCE> 7
 6.263162e-03 5.236463e-03 1.240730e-03 4.630810e-04 8.788456e-04 1.878732e-03 9.267133e+01
<GCONST> -2.061471e+01
<STATE> 8
<MEAN> 7
 4.908278e-01 3.434198e-01 -4.068353e-02 1.477808e-02 3.262431e-02 -2.692922e-02 2.462428e+01
<VARIANCE> 7
 5.109315e-03 3.464375e-03 3.752817e-04 2.510899e-04 1.290102e-03 3.678710e-04 1.208661e+03
<GCONST> -2.171785e+01
<STATE> 9
<MEAN> 7
 5.189745e-01 3.240536e-01 2.410812e-02 3.711676e-03 6.155606e-02 -6.695975e-03 1.381681e+03
<VARIANCE> 7
 1.158476e-02 7.104878e-03 1.335875e-03 1.255732e-04 5.010150e-03 5.890445e-04 1.233813e+08
<GCONST> -6.243198e+00
<STATE> 10
<MEAN> 7
 5.730227e-01 3.553334e-01 8.290267e-02 5.211843e-03 1.543789e-02 -5.508039e-03 -1.564247e+00
<VARIANCE> 7
 9.865454e-03 3.869931e-03 1.468461e-03 1.300740e-04 4.608820e-03 4.045232e-04 2.238684e+01
<GCONST> -2.286316e+01
<STATE> 11
<MEAN> 7
 6.838199e-01 3.103606e-01 3.466757e-03 -1.706238e-02 -2.421869e-02 1.665221e-02 -2.714620e+01
<VARIANCE> 7
 8.723939e-03 4.653530e-03 1.309889e-03 1.445103e-03 3.388268e-03 3.146199e-03 7.323190e+03
<GCONST> -1.297426e+01
<TRANSP> 12
 0.000000e+00 1.000000e+00 0.000000e+00 0.000000e+00 0.000000e+00 0.000000e+00 0.000000e+00 0.000000e+00 0.000000e+00 0.000000e+00 0.000000e+00 0.000000e+00
 0.000000e+00 8.562739e-01 1.437261e-01 0.000000e+00 0.000000e+00 0.000000e+00 0.000000e+00 0.000000e+00 0.000000e+00 0.000000e+00 0.000000e+00 0.000000e+00
 0.000000e+00 0.000000e+00 8.653275e-01 1.346725e-01 0.000000e+00 0.000000e+00 0.000000e+00 0.000000e+00 0.000000e+00 0.000000e+00 0.000000e+00 0.000000e+00
 0.000000e+00 0.000000e+00 0.000000e+00 8.643509e-01 1.356491e-01 0.000000e+00 0.000000e+00 0.000000e+00 0.000000e+00 0.000000e+00 0.000000e+00 0.000000e+00
 0.000000e+00 0.000000e+00 0.000000e+00 0.000000e+00 9.199515e-01 8.004849e-02 0.000000e+00 0.000000e+00 0.000000e+00 0.000000e+00 0.000000e+00 0.000000e+00
 0.000000e+00 0.000000e+00 0.000000e+00 0.000000e+00 0.000000e+00 8.932916e-01 1.067084e-01 0.000000e+00 0.000000e+00 0.000000e+00 0.000000e+00 0.000000e+00
 0.000000e+00 0.000000e+00 0.000000e+00 0.000000e+00 0.000000e+00 0.000000e+00 8.615584e-01 1.384416e-01 0.000000e+00 0.000000e+00 0.000000e+00 0.000000e+00
 0.000000e+00 0.000000e+00 0.000000e+00 0.000000e+00 0.000000e+00 0.000000e+00 0.000000e+00 7.497519e-01 2.502482e-01 0.000000e+00 0.000000e+00 0.000000e+00
 0.000000e+00 0.000000e+00 0.000000e+00 0.000000e+00 0.000000e+00 0.000000e+00 0.000000e+00 0.000000e+00 6.039440e-01 3.960560e-01 0.000000e+00 0.000000e+00
 0.000000e+00 0.000000e+00 0.000000e+00 0.000000e+00 0.000000e+00 0.000000e+00 0.000000e+00 0.000000e+00 0.000000e+00 8.613693e-01 1.386308e-01 0.000000e+00
 0.000000e+00 0.000000e+00 0.000000e+00 0.000000e+00 0.000000e+00 0.000000e+00 0.000000e+00 0.000000e+00 0.000000e+00 0.000000e+00 9.051556e-01 9.484440e-02
 0.000000e+00 0.000000e+00 0.000000e+00 0.000000e+00 0.000000e+00 0.000000e+00 0.000000e+00 0.000000e+00 0.000000e+00 0.000000e+00 0.000000e+00 0.000000e+00
<ENDHMM>

