~o
<STREAMINFO> 1 6
<VECSIZE> 6<NULLD><USER><DIAGC>
~h "proto"
<BEGINHMM>
<NUMSTATES> 12
<STATE> 2
<MEAN> 6
 4.258411e-01 2.580025e-01 -3.427166e-03 2.044393e-02 -2.455315e-02 -8.456253e-03
<VARIANCE> 6
 4.505509e-03 5.954229e-03 5.536144e-04 2.639287e-04 3.479028e-04 1.192538e-03
<GCONST> -2.993298e+01
<STATE> 3
<MEAN> 6
 3.597892e-01 2.361293e-01 -5.223507e-03 -2.576265e-02 1.762209e-02 -1.629705e-02
<VARIANCE> 6
 4.740595e-03 6.703498e-03 5.492377e-04 8.690694e-04 8.405761e-04 9.137488e-04
<GCONST> -2.796390e+01
<STATE> 4
<MEAN> 6
 4.432790e-01 1.417412e-01 6.509782e-02 -2.305012e-02 1.744968e-02 4.069725e-02
<VARIANCE> 6
 4.960370e-03 5.926179e-03 9.155946e-04 1.221415e-03 2.942195e-03 8.907848e-04
<GCONST> -2.596308e+01
<STATE> 5
<MEAN> 6
 5.603115e-01 1.463720e-01 7.508048e-03 2.275904e-02 -2.194842e-02 2.314841e-03
<VARIANCE> 6
 5.869594e-03 3.295504e-03 1.019470e-03 6.302585e-04 1.265286e-03 7.104509e-04
<GCONST> -2.800583e+01
<STATE> 6
<MEAN> 6
 5.115905e-01 2.278015e-01 2.374259e-03 -7.488279e-04 1.957642e-02 1.660999e-03
<VARIANCE> 6
 3.926604e-03 1.487644e-03 1.350612e-03 5.610540e-04 1.404581e-03 1.849936e-03
<GCONST> -2.797679e+01
<STATE> 7
<MEAN> 6
 5.502462e-01 2.250656e-01 4.129769e-02 4.166026e-02 -2.623059e-02 5.461594e-02
<VARIANCE> 6
 4.869159e-03 1.053826e-03 8.769091e-04 3.197441e-04 8.395688e-04 1.725654e-03
<GCONST> -2.968477e+01
<STATE> 8
<MEAN> 6
 5.573124e-01 3.110684e-01 -1.206143e-02 4.055399e-02 -2.433472e-02 -1.038448e-02
<VARIANCE> 6
 4.690340e-03 2.481919e-03 1.354734e-03 1.113965e-03 1.838938e-03 1.657457e-03
<GCONST> -2.643873e+01
<STATE> 9
<MEAN> 6
 5.013512e-01 3.615193e-01 3.364480e-02 6.292111e-03 5.220168e-02 -6.312379e-03
<VARIANCE> 6
 5.588374e-03 2.739295e-03 3.724693e-03 1.693645e-04 2.333668e-03 5.049144e-04
<GCONST> -2.798752e+01
<STATE> 10
<MEAN> 6
 6.838544e-01 3.552586e-01 5.375605e-02 -1.587759e-02 -5.502456e-02 -2.794385e-02
<VARIANCE> 6
 4.907244e-03 4.140775e-03 1.873987e-03 5.536727e-04 1.309636e-03 4.651789e-04
<GCONST> -2.786637e+01
<STATE> 11
<MEAN> 6
 6.925300e-01 2.820551e-01 -1.119364e-02 -7.917049e-03 -3.663801e-03 4.128880e-02
<VARIANCE> 6
 6.044101e-03 5.157068e-03 9.775250e-04 1.625711e-03 3.341002e-03 1.671494e-03
<GCONST> -2.479662e+01
<TRANSP> 12
 0.000000e+00 1.000000e+00 0.000000e+00 0.000000e+00 0.000000e+00 0.000000e+00 0.000000e+00 0.000000e+00 0.000000e+00 0.000000e+00 0.000000e+00 0.000000e+00
 0.000000e+00 8.683848e-01 1.316152e-01 0.000000e+00 0.000000e+00 0.000000e+00 0.000000e+00 0.000000e+00 0.000000e+00 0.000000e+00 0.000000e+00 0.000000e+00
 0.000000e+00 0.000000e+00 9.091288e-01 9.087123e-02 0.000000e+00 0.000000e+00 0.000000e+00 0.000000e+00 0.000000e+00 0.000000e+00 0.000000e+00 0.000000e+00
 0.000000e+00 0.000000e+00 0.000000e+00 8.500772e-01 1.499229e-01 0.000000e+00 0.000000e+00 0.000000e+00 0.000000e+00 0.000000e+00 0.000000e+00 0.000000e+00
 0.000000e+00 0.000000e+00 0.000000e+00 0.000000e+00 9.118581e-01 8.814187e-02 0.000000e+00 0.000000e+00 0.000000e+00 0.000000e+00 0.000000e+00 0.000000e+00
 0.000000e+00 0.000000e+00 0.000000e+00 0.000000e+00 0.000000e+00 8.998342e-01 1.001659e-01 0.000000e+00 0.000000e+00 0.000000e+00 0.000000e+00 0.000000e+00
 0.000000e+00 0.000000e+00 0.000000e+00 0.000000e+00 0.000000e+00 0.000000e+00 0.000000e+00 1.000000e+00 0.000000e+00 0.000000e+00 0.000000e+00 0.000000e+00
 0.000000e+00 0.000000e+00 0.000000e+00 0.000000e+00 0.000000e+00 0.000000e+00 0.000000e+00 8.879540e-01 1.120460e-01 0.000000e+00 0.000000e+00 0.000000e+00
 0.000000e+00 0.000000e+00 0.000000e+00 0.000000e+00 0.000000e+00 0.000000e+00 0.000000e+00 0.000000e+00 8.833738e-01 1.166262e-01 0.000000e+00 0.000000e+00
 0.000000e+00 0.000000e+00 0.000000e+00 0.000000e+00 0.000000e+00 0.000000e+00 0.000000e+00 0.000000e+00 0.000000e+00 8.433827e-01 1.566173e-01 0.000000e+00
 0.000000e+00 0.000000e+00 0.000000e+00 0.000000e+00 0.000000e+00 0.000000e+00 0.000000e+00 0.000000e+00 0.000000e+00 0.000000e+00 8.581063e-01 1.418937e-01
 0.000000e+00 0.000000e+00 0.000000e+00 0.000000e+00 0.000000e+00 0.000000e+00 0.000000e+00 0.000000e+00 0.000000e+00 0.000000e+00 0.000000e+00 0.000000e+00
<ENDHMM>
