~o
<STREAMINFO> 1 7
<VECSIZE> 7<NULLD><USER><DIAGC>
~h "proto"
<BEGINHMM>
<NUMSTATES> 12
<STATE> 2
<MEAN> 7
 4.292398e-01 2.614189e-01 -2.055721e-03 2.215306e-02 -2.523508e-02 -6.759686e-03 1.338281e+01
<VARIANCE> 7
 4.185631e-03 4.667760e-03 4.859818e-04 2.646686e-04 4.281348e-04 1.234952e-03 1.989581e+03
<GCONST> -2.070152e+01
<STATE> 3
<MEAN> 7
 3.682840e-01 2.554174e-01 -1.726732e-02 -2.450681e-02 1.342775e-02 -2.875107e-02 1.576288e+01
<VARIANCE> 7
 6.514626e-03 4.941035e-03 4.512259e-04 7.166603e-04 8.554143e-04 1.094346e-03 2.678247e+02
<GCONST> -2.071439e+01
<STATE> 4
<MEAN> 7
 4.143758e-01 1.666576e-01 5.002286e-02 -3.898349e-02 3.990042e-02 2.855295e-02 2.286843e+00
<VARIANCE> 7
 4.619231e-03 3.966021e-03 1.361330e-03 8.642380e-04 1.676665e-03 9.594709e-04 1.810113e+01
<GCONST> -2.213944e+01
<STATE> 5
<MEAN> 7
 5.640844e-01 1.832182e-01 1.301136e-02 3.022952e-02 -3.410578e-02 4.301747e-03 6.800691e+00
<VARIANCE> 7
 6.298357e-03 5.418285e-03 1.716263e-03 5.678964e-04 1.148215e-03 1.560791e-03 1.832922e+02
<GCONST> -1.928251e+01
<STATE> 6
<MEAN> 7
 5.102174e-01 2.325243e-01 5.418218e-03 -1.161014e-02 2.775389e-02 5.762423e-03 2.669736e+01
<VARIANCE> 7
 4.331320e-03 4.298305e-03 1.077048e-03 4.127600e-04 1.152596e-03 2.184274e-03 4.569188e+03
<GCONST> -1.711757e+01
<STATE> 7
<MEAN> 7
 5.621685e-01 2.680657e-01 -6.443292e-03 5.229307e-02 -4.110776e-02 3.956664e-03 5.780533e+00
<VARIANCE> 7
 6.263162e-03 5.236463e-03 1.240730e-03 4.630810e-04 8.788456e-04 1.878732e-03 9.267133e+01
<GCONST> -2.061471e+01
<STATE> 8
<MEAN> 7
 4.908278e-01 3.434198e-01 -4.068353e-02 1.477808e-02 3.262431e-02 -2.692922e-02 2.462428e+01
<VARIANCE> 7
 5.109315e-03 3.464375e-03 3.752817e-04 2.510899e-04 1.290102e-03 3.678710e-04 1.208661e+03
<GCONST> -2.171785e+01
<STATE> 9
<MEAN> 7
 5.189745e-01 3.240536e-01 2.410812e-02 3.711676e-03 6.155606e-02 -6.695975e-03 1.381681e+03
<VARIANCE> 7
 1.158476e-02 7.104878e-03 1.335875e-03 1.255732e-04 5.010150e-03 5.890445e-04 1.233813e+08
<GCONST> -6.243198e+00
<STATE> 10
<MEAN> 7
 5.730227e-01 3.553334e-01 8.290267e-02 5.211843e-03 1.543789e-02 -5.508039e-03 -1.564247e+00
<VARIANCE> 7
 9.865454e-03 3.869931e-03 1.468461e-03 1.300740e-04 4.608820e-03 4.045232e-04 2.238684e+01
<GCONST> -2.286316e+01
<STATE> 11
<MEAN> 7
 6.838199e-01 3.103606e-01 3.466757e-03 -1.706238e-02 -2.421869e-02 1.665221e-02 -2.714620e+01
<VARIANCE> 7
 8.723939e-03 4.653530e-03 1.309889e-03 1.445103e-03 3.388268e-03 3.146199e-03 7.323190e+03
<GCONST> -1.297426e+01
<TRANSP> 12
 0.000000e+00 1.000000e+00 0.000000e+00 0.000000e+00 0.000000e+00 0.000000e+00 0.000000e+00 0.000000e+00 0.000000e+00 0.000000e+00 0.000000e+00 0.000000e+00
 0.000000e+00 8.562739e-01 1.437261e-01 0.000000e+00 0.000000e+00 0.000000e+00 0.000000e+00 0.000000e+00 0.000000e+00 0.000000e+00 0.000000e+00 0.000000e+00
 0.000000e+00 0.000000e+00 8.653275e-01 1.346725e-01 0.000000e+00 0.000000e+00 0.000000e+00 0.000000e+00 0.000000e+00 0.000000e+00 0.000000e+00 0.000000e+00
 0.000000e+00 0.000000e+00 0.000000e+00 8.643509e-01 1.356491e-01 0.000000e+00 0.000000e+00 0.000000e+00 0.000000e+00 0.000000e+00 0.000000e+00 0.000000e+00
 0.000000e+00 0.000000e+00 0.000000e+00 0.000000e+00 9.199515e-01 8.004849e-02 0.000000e+00 0.000000e+00 0.000000e+00 0.000000e+00 0.000000e+00 0.000000e+00
 0.000000e+00 0.000000e+00 0.000000e+00 0.000000e+00 0.000000e+00 8.932916e-01 1.067084e-01 0.000000e+00 0.000000e+00 0.000000e+00 0.000000e+00 0.000000e+00
 0.000000e+00 0.000000e+00 0.000000e+00 0.000000e+00 0.000000e+00 0.000000e+00 8.615584e-01 1.384416e-01 0.000000e+00 0.000000e+00 0.000000e+00 0.000000e+00
 0.000000e+00 0.000000e+00 0.000000e+00 0.000000e+00 0.000000e+00 0.000000e+00 0.000000e+00 7.497519e-01 2.502482e-01 0.000000e+00 0.000000e+00 0.000000e+00
 0.000000e+00 0.000000e+00 0.000000e+00 0.000000e+00 0.000000e+00 0.000000e+00 0.000000e+00 0.000000e+00 6.039440e-01 3.960560e-01 0.000000e+00 0.000000e+00
 0.000000e+00 0.000000e+00 0.000000e+00 0.000000e+00 0.000000e+00 0.000000e+00 0.000000e+00 0.000000e+00 0.000000e+00 8.613693e-01 1.386308e-01 0.000000e+00
 0.000000e+00 0.000000e+00 0.000000e+00 0.000000e+00 0.000000e+00 0.000000e+00 0.000000e+00 0.000000e+00 0.000000e+00 0.000000e+00 9.051556e-01 9.484440e-02
 0.000000e+00 0.000000e+00 0.000000e+00 0.000000e+00 0.000000e+00 0.000000e+00 0.000000e+00 0.000000e+00 0.000000e+00 0.000000e+00 0.000000e+00 0.000000e+00
<ENDHMM>
