~o
<STREAMINFO> 1 7
<VECSIZE> 7<NULLD><USER><DIAGC>
~h "proto"
<BEGINHMM>
<NUMSTATES> 12
<STATE> 2
<MEAN> 7
 3.788753e-01 3.044675e-01 1.734761e-02 3.421713e-03 2.749039e-03 -2.853190e-02 -2.455073e+01
<VARIANCE> 7
 4.447675e-03 6.574166e-03 6.635844e-04 1.034958e-03 1.808217e-03 1.775349e-03 1.931288e+03
<GCONST> -1.684932e+01
<STATE> 3
<MEAN> 7
 3.867287e-01 2.207069e-01 -1.522226e-02 -5.075229e-02 1.287330e-03 2.093835e-03 -1.889660e+00
<VARIANCE> 7
 4.819903e-03 6.343822e-03 2.806307e-04 6.608326e-04 1.101086e-03 5.322024e-04 2.746281e+01
<GCONST> -2.406773e+01
<STATE> 4
<MEAN> 7
 4.187269e-01 1.330684e-01 3.156732e-02 -7.311150e-04 7.697673e-03 3.442592e-02 7.595238e+00
<VARIANCE> 7
 5.319702e-03 5.519997e-03 4.162727e-04 1.102144e-03 1.593235e-03 1.684638e-03 5.837974e+02
<GCONST> -1.862388e+01
<STATE> 5
<MEAN> 7
 4.737436e-01 1.809757e-01 4.896694e-03 3.057791e-02 -1.258027e-02 -2.283760e-02 -1.492585e+01
<VARIANCE> 7
 3.138917e-03 5.707557e-03 3.448380e-04 3.152624e-04 4.362208e-04 1.061920e-03 9.171775e+03
<GCONST> -1.956040e+01
<STATE> 6
<MEAN> 7
 4.733429e-01 2.133211e-01 7.252044e-03 -3.938025e-03 1.068867e-02 -6.534000e-02 -8.375906e+02
<VARIANCE> 7
 3.546424e-03 4.179358e-03 1.825564e-04 1.522450e-04 6.850421e-04 1.289783e-03 6.201690e+08
<GCONST> -9.346556e+00
<STATE> 7
<MEAN> 7
 5.212880e-01 1.746554e-01 3.122324e-02 3.638567e-03 -4.881735e-03 2.762157e-02 1.363276e+01
<VARIANCE> 7
 5.648445e-03 2.714352e-03 7.254471e-04 1.610980e-03 2.398308e-03 2.313054e-03 6.630165e+02
<GCONST> -1.748545e+01
<STATE> 8
<MEAN> 7
 5.430751e-01 2.900220e-01 -2.805919e-02 5.522360e-02 2.648983e-03 -3.105220e-02 2.511551e+01
<VARIANCE> 7
 4.514825e-03 4.203641e-03 8.051722e-04 9.667141e-04 3.445167e-03 1.051535e-03 9.976395e+03
<GCONST> -1.539343e+01
<STATE> 9
<MEAN> 7
 5.206797e-01 3.106426e-01 1.117386e-02 1.577128e-02 9.800009e-02 -3.384619e-02 8.449778e+02
<VARIANCE> 7
 4.770895e-03 6.135189e-03 4.405160e-04 1.666310e-04 6.227634e-03 1.034555e-03 1.205915e+07
<GCONST> -9.648296e+00
<STATE> 10
<MEAN> 7
 5.865180e-01 3.336019e-01 7.564379e-02 3.144673e-03 2.060007e-02 -1.625858e-02 -1.862523e+01
<VARIANCE> 7
 7.017644e-03 4.427216e-03 1.739749e-03 1.384036e-04 5.595381e-03 5.301054e-04 1.631887e+04
<GCONST> -1.578169e+01
<STATE> 11
<MEAN> 7
 6.845366e-01 2.703626e-01 6.241591e-03 -1.800265e-02 -2.542301e-02 1.943117e-02 -1.302816e+01
<VARIANCE> 7
 5.961666e-03 6.843311e-03 1.891235e-03 1.882319e-03 4.267253e-03 3.551136e-03 2.367499e+03
<GCONST> -1.311521e+01
<TRANSP> 12
 0.000000e+00 1.000000e+00 0.000000e+00 0.000000e+00 0.000000e+00 0.000000e+00 0.000000e+00 0.000000e+00 0.000000e+00 0.000000e+00 0.000000e+00 0.000000e+00
 0.000000e+00 8.942707e-01 1.057293e-01 0.000000e+00 0.000000e+00 0.000000e+00 0.000000e+00 0.000000e+00 0.000000e+00 0.000000e+00 0.000000e+00 0.000000e+00
 0.000000e+00 0.000000e+00 8.831873e-01 1.168127e-01 0.000000e+00 0.000000e+00 0.000000e+00 0.000000e+00 0.000000e+00 0.000000e+00 0.000000e+00 0.000000e+00
 0.000000e+00 0.000000e+00 0.000000e+00 8.947585e-01 1.052415e-01 0.000000e+00 0.000000e+00 0.000000e+00 0.000000e+00 0.000000e+00 0.000000e+00 0.000000e+00
 0.000000e+00 0.000000e+00 0.000000e+00 0.000000e+00 8.000467e-01 1.999533e-01 0.000000e+00 0.000000e+00 0.000000e+00 0.000000e+00 0.000000e+00 0.000000e+00
 0.000000e+00 0.000000e+00 0.000000e+00 0.000000e+00 0.000000e+00 0.000000e+00 1.000000e+00 0.000000e+00 0.000000e+00 0.000000e+00 0.000000e+00 0.000000e+00
 0.000000e+00 0.000000e+00 0.000000e+00 0.000000e+00 0.000000e+00 0.000000e+00 9.073075e-01 9.269249e-02 0.000000e+00 0.000000e+00 0.000000e+00 0.000000e+00
 0.000000e+00 0.000000e+00 0.000000e+00 0.000000e+00 0.000000e+00 0.000000e+00 0.000000e+00 8.250110e-01 1.749890e-01 0.000000e+00 0.000000e+00 0.000000e+00
 0.000000e+00 0.000000e+00 0.000000e+00 0.000000e+00 0.000000e+00 0.000000e+00 0.000000e+00 0.000000e+00 0.000000e+00 1.000000e+00 0.000000e+00 0.000000e+00
 0.000000e+00 0.000000e+00 0.000000e+00 0.000000e+00 0.000000e+00 0.000000e+00 0.000000e+00 0.000000e+00 0.000000e+00 8.403447e-01 1.596553e-01 0.000000e+00
 0.000000e+00 0.000000e+00 0.000000e+00 0.000000e+00 0.000000e+00 0.000000e+00 0.000000e+00 0.000000e+00 0.000000e+00 0.000000e+00 8.986035e-01 1.013965e-01
 0.000000e+00 0.000000e+00 0.000000e+00 0.000000e+00 0.000000e+00 0.000000e+00 0.000000e+00 0.000000e+00 0.000000e+00 0.000000e+00 0.000000e+00 0.000000e+00
<ENDHMM>
