~o
<STREAMINFO> 1 6
<VECSIZE> 6<NULLD><USER><DIAGC>
~h "proto"
<BEGINHMM>
<NUMSTATES> 12
<STATE> 2
<MEAN> 6
 3.633338e-01 3.027129e-01 1.486283e-02 1.977070e-02 2.515629e-02 -1.477010e-02
<VARIANCE> 6
 4.100165e-03 6.582469e-03 6.849337e-04 3.913948e-04 1.014981e-03 1.170928e-03
<GCONST> -2.826764e+01
<STATE> 3
<MEAN> 6
 4.260235e-01 3.100246e-01 1.272787e-02 -4.138292e-02 -3.760739e-02 -4.699613e-02
<VARIANCE> 6
 2.774929e-03 4.751305e-03 6.239811e-04 1.029935e-03 7.962956e-04 1.462227e-03
<GCONST> -2.813019e+01
<STATE> 4
<MEAN> 6
 3.794278e-01 1.989333e-01 -1.683242e-02 -4.858107e-02 1.347633e-02 1.003483e-02
<VARIANCE> 6
 4.541176e-03 4.575901e-03 2.865933e-04 5.356072e-04 1.122475e-03 6.740923e-04
<GCONST> -2.953818e+01
<STATE> 5
<MEAN> 6
 3.881475e-01 1.229147e-01 3.272831e-02 -6.137254e-03 1.434371e-02 3.324093e-02
<VARIANCE> 6
 3.011850e-03 4.826737e-03 3.455406e-04 9.536225e-04 1.416160e-03 2.063132e-03
<GCONST> -2.778050e+01
<STATE> 6
<MEAN> 6
 4.716835e-01 1.824310e-01 1.930368e-02 4.251856e-03 2.017801e-03 -7.271479e-03
<VARIANCE> 6
 1.601142e-03 3.111038e-03 4.196898e-04 9.022345e-04 8.358775e-04 1.695995e-03
<GCONST> -2.943572e+01
<STATE> 7
<MEAN> 6
 5.788918e-01 1.479420e-01 3.287788e-02 1.958941e-02 -2.136898e-02 3.858346e-02
<VARIANCE> 6
 3.679957e-03 4.408882e-03 8.737184e-04 1.646373e-03 2.373137e-03 2.921018e-03
<GCONST> -2.533302e+01
<STATE> 8
<MEAN> 6
 5.552936e-01 2.800905e-01 -3.034604e-02 6.126393e-02 -1.043342e-03 -3.689337e-02
<VARIANCE> 6
 4.450809e-03 4.797205e-03 5.558879e-04 8.829052e-04 4.093749e-03 1.240127e-03
<GCONST> -2.644520e+01
<STATE> 9
<MEAN> 6
 5.492189e-01 3.233222e-01 5.625429e-02 8.240076e-03 5.951688e-02 -1.490033e-02
<VARIANCE> 6
 4.729207e-03 5.859938e-03 2.369316e-03 1.120579e-04 3.852999e-03 4.931130e-04
<GCONST> -2.778168e+01
<STATE> 10
<MEAN> 6
 6.963567e-01 3.192558e-01 5.461495e-02 -2.916605e-02 -6.298634e-02 -3.534799e-02
<VARIANCE> 6
 4.853504e-03 4.872420e-03 2.072393e-03 7.309304e-04 1.673997e-03 1.064610e-03
<GCONST> -2.626289e+01
<STATE> 11
<MEAN> 6
 6.863464e-01 2.519256e-01 -1.599470e-02 -9.212758e-03 -9.752427e-03 5.529473e-02
<VARIANCE> 6
 5.380407e-03 3.683974e-03 1.067114e-03 2.095905e-03 4.890588e-03 2.055669e-03
<GCONST> -2.431966e+01
<TRANSP> 12
 0.000000e+00 1.000000e+00 0.000000e+00 0.000000e+00 0.000000e+00 0.000000e+00 0.000000e+00 0.000000e+00 0.000000e+00 0.000000e+00 0.000000e+00 0.000000e+00
 0.000000e+00 8.304671e-01 1.695329e-01 0.000000e+00 0.000000e+00 0.000000e+00 0.000000e+00 0.000000e+00 0.000000e+00 0.000000e+00 0.000000e+00 0.000000e+00
 0.000000e+00 0.000000e+00 7.870272e-01 2.129728e-01 0.000000e+00 0.000000e+00 0.000000e+00 0.000000e+00 0.000000e+00 0.000000e+00 0.000000e+00 0.000000e+00
 0.000000e+00 0.000000e+00 0.000000e+00 8.546579e-01 1.453421e-01 0.000000e+00 0.000000e+00 0.000000e+00 0.000000e+00 0.000000e+00 0.000000e+00 0.000000e+00
 0.000000e+00 0.000000e+00 0.000000e+00 0.000000e+00 8.494365e-01 1.505635e-01 0.000000e+00 0.000000e+00 0.000000e+00 0.000000e+00 0.000000e+00 0.000000e+00
 0.000000e+00 0.000000e+00 0.000000e+00 0.000000e+00 0.000000e+00 9.051733e-01 9.482673e-02 0.000000e+00 0.000000e+00 0.000000e+00 0.000000e+00 0.000000e+00
 0.000000e+00 0.000000e+00 0.000000e+00 0.000000e+00 0.000000e+00 0.000000e+00 8.783101e-01 1.216899e-01 0.000000e+00 0.000000e+00 0.000000e+00 0.000000e+00
 0.000000e+00 0.000000e+00 0.000000e+00 0.000000e+00 0.000000e+00 0.000000e+00 0.000000e+00 8.158140e-01 1.841861e-01 0.000000e+00 0.000000e+00 0.000000e+00
 0.000000e+00 0.000000e+00 0.000000e+00 0.000000e+00 0.000000e+00 0.000000e+00 0.000000e+00 0.000000e+00 8.358013e-01 1.641987e-01 0.000000e+00 0.000000e+00
 0.000000e+00 0.000000e+00 0.000000e+00 0.000000e+00 0.000000e+00 0.000000e+00 0.000000e+00 0.000000e+00 0.000000e+00 8.024136e-01 1.975864e-01 0.000000e+00
 0.000000e+00 0.000000e+00 0.000000e+00 0.000000e+00 0.000000e+00 0.000000e+00 0.000000e+00 0.000000e+00 0.000000e+00 0.000000e+00 8.217058e-01 1.782942e-01
 0.000000e+00 0.000000e+00 0.000000e+00 0.000000e+00 0.000000e+00 0.000000e+00 0.000000e+00 0.000000e+00 0.000000e+00 0.000000e+00 0.000000e+00 0.000000e+00
<ENDHMM>
