~o
<STREAMINFO> 1 38
<VECSIZE> 38<NULLD><USER><DIAGC>
~h "eight"
<BEGINHMM>
<NUMSTATES> 5
<STATE> 2
<MEAN> 38
 3.716932e+00 1.766843e+00 -1.266183e+00 -2.559675e+00 1.199746e+00 5.667276e-01 1.767774e+00 1.506081e+00 9.334345e-01 2.105196e+00 9.889688e-01 1.474226e+00 9.510961e-01 3.097158e-01 8.919488e-01 1.472795e-01 6.757187e-01 4.295205e-01 1.937605e-01 -4.684161e-02 -3.832351e-02 9.791014e-02 1.567168e-01 -8.578082e-02 -7.439726e-02 -1.492484e-01 -1.436006e-01 -1.041580e-01 -1.476307e-01 -7.460331e-02 -9.852072e-02 -6.622034e-02 -3.023772e-02 -6.615330e-02 -3.096271e-02 -6.741419e-02 -5.662424e-02 -4.273777e-02
<VARIANCE> 38
 1.735812e+01 8.206895e+00 7.028354e+00 6.538694e+00 5.051132e+00 3.746001e+00 3.516836e+00 3.168414e+00 2.662075e+00 3.120939e+00 1.902128e+00 2.019106e+00 1.741210e+00 1.373989e+00 1.369598e+00 1.012456e+00 1.032144e+00 7.463830e-01 6.667879e-01 6.922859e-01 2.887199e-01 1.618551e-01 1.888601e-01 1.474132e-01 1.024672e-01 1.083242e-01 9.005708e-02 6.475742e-02 9.393157e-02 5.815490e-02 6.855045e-02 5.061293e-02 3.537960e-02 4.801925e-02 3.441269e-02 3.741713e-02 2.726210e-02 2.428080e-02
<GCONST> 4.008879e+01
<STATE> 3
<MEAN> 38
 2.078353e+00 6.848395e-02 -1.918847e+00 -1.512150e+00 2.909837e-01 1.175848e+00 1.689170e+00 1.904546e+00 2.013980e+00 2.197753e+00 1.999894e+00 1.680656e+00 1.200830e+00 8.484362e-01 8.273429e-01 8.072740e-01 8.892648e-01 8.461648e-01 7.008731e-01 4.960942e-01 3.172011e-01 -3.166693e-01 -7.248346e-01 3.243248e-01 1.188175e-01 4.199297e-01 3.403475e-01 1.388107e-01 4.283780e-01 1.122415e-01 2.779110e-01 1.627140e-01 3.302237e-03 1.897759e-01 6.318250e-03 1.761459e-01 1.111709e-01 4.724567e-02
<VARIANCE> 38
 1.930951e+01 6.792785e+00 7.533884e+00 9.945073e+00 4.667608e+00 2.992157e+00 3.323391e+00 2.455960e+00 2.200290e+00 2.962395e+00 1.892926e+00 2.065973e+00 1.809286e+00 1.480892e+00 1.229912e+00 8.954264e-01 9.606479e-01 6.662806e-01 5.737515e-01 1.121885e+00 3.521441e-01 3.470165e-01 4.112249e-01 2.408050e-01 1.850911e-01 1.607883e-01 1.445996e-01 1.483208e-01 1.810253e-01 1.453668e-01 1.198985e-01 9.226391e-02 7.173339e-02 5.965394e-02 5.234714e-02 5.053141e-02 4.056909e-02 3.378046e-02
<GCONST> 4.930738e+01
<STATE> 4
<MEAN> 38
 -2.003381e+00 -2.036757e+00 -5.988425e-01 7.429407e-01 -8.137572e-01 -3.521187e-01 -8.901596e-01 -6.952604e-01 -2.182918e-01 -7.330267e-01 -2.137434e-01 -5.589263e-01 -4.287088e-01 -1.815140e-01 -5.277353e-01 -1.748846e-01 -4.212554e-01 -3.036157e-01 -2.198402e-01 2.557036e-01 7.649668e-02 -2.622075e-02 7.164208e-02 5.339850e-04 1.135352e-01 7.966483e-02 8.288878e-02 1.193671e-01 7.092975e-02 1.118568e-01 6.207980e-02 6.334946e-02 7.283947e-02 3.602878e-02 6.640141e-02 3.201713e-02 4.811949e-02 5.434905e-02
<VARIANCE> 38
 3.454825e+01 1.280430e+01 5.119812e+00 4.846105e+00 5.057232e+00 3.330100e+00 2.661872e+00 1.934968e+00 1.549388e+00 2.006438e+00 1.255579e+00 1.403479e+00 9.292697e-01 7.733687e-01 1.034090e+00 6.927664e-01 8.353921e-01 5.975644e-01 5.433651e-01 1.671811e+00 4.003350e-01 1.897885e-01 2.761030e-01 2.011833e-01 1.452207e-01 1.081569e-01 9.222647e-02 9.975934e-02 1.301883e-01 9.704048e-02 9.421052e-02 5.888811e-02 4.948489e-02 5.118037e-02 4.372457e-02 4.380419e-02 3.230976e-02 2.907591e-02
<GCONST> 4.076945e+01
<TRANSP> 5
 0.000000e+00 1.000000e+00 0.000000e+00 0.000000e+00 0.000000e+00
 0.000000e+00 9.425214e-01 5.747866e-02 0.000000e+00 0.000000e+00
 0.000000e+00 0.000000e+00 8.386144e-01 1.613856e-01 0.000000e+00
 0.000000e+00 0.000000e+00 0.000000e+00 9.160955e-01 8.390448e-02
 0.000000e+00 0.000000e+00 0.000000e+00 0.000000e+00 0.000000e+00
<ENDHMM>
~h "seven"
<BEGINHMM>
<NUMSTATES> 5
<STATE> 2
<MEAN> 38
 -1.933745e+01 -5.360251e+00 1.126999e+00 -3.629346e+00 2.102115e+00 -3.104853e+00 -5.651549e-01 -3.707221e-01 -2.275082e+00 5.465962e-01 -2.047135e+00 1.138203e-01 -5.593482e-01 -1.413060e+00 5.099144e-01 -1.478044e+00 2.938711e-01 -6.309297e-01 -1.057151e+00 3.409116e-01 4.553166e-03 -7.596343e-02 1.245952e-01 -1.189001e-01 7.311179e-02 -2.568399e-02 -2.381469e-02 5.599352e-02 -5.308781e-02 5.108235e-02 -2.473454e-02 7.565851e-03 4.436427e-02 -3.987992e-02 2.427852e-02 -4.392879e-02 -4.587981e-03 1.762467e-02
<VARIANCE> 38
 4.114569e+01 1.518602e+01 7.666336e+00 5.216225e+00 4.035745e+00 4.488380e+00 1.655886e+00 1.568184e+00 1.662141e+00 1.073347e+00 1.573426e+00 8.901587e-01 7.939779e-01 8.811542e-01 7.058020e-01 8.400849e-01 5.542136e-01 5.435807e-01 5.811941e-01 8.569522e+00 9.893171e-01 2.118388e-01 4.478949e-01 1.872224e-01 3.154864e-01 8.540846e-02 7.646930e-02 2.145858e-01 6.829356e-02 2.111811e-01 5.759620e-02 5.837938e-02 9.267326e-02 4.051652e-02 1.164278e-01 3.712928e-02 5.174400e-02 6.184340e-02
<GCONST> 4.578559e+01
<STATE> 3
<MEAN> 38
 4.833162e-02 1.067811e+00 8.579106e-01 -7.915532e-01 1.621795e+00 -2.949082e-02 7.382602e-01 7.092700e-01 -1.354442e-02 1.038215e+00 2.675781e-01 8.731412e-01 5.476027e-01 1.804023e-01 8.481871e-01 2.966474e-01 8.973860e-01 5.711799e-01 3.381256e-01 -1.469356e+00 -5.247862e-01 5.118829e-02 -1.094632e-01 3.579973e-02 -1.814609e-01 -9.743977e-02 -6.021740e-02 -1.083388e-01 -2.454850e-02 -1.166994e-01 -2.955374e-02 -7.414801e-02 -1.005699e-01 -2.017327e-02 -9.493818e-02 -2.772963e-02 -7.244051e-02 -8.313867e-02
<VARIANCE> 38
 1.003427e+02 2.008711e+01 6.550434e+00 5.642984e+00 4.361535e+00 4.770660e+00 2.766781e+00 2.750370e+00 2.902681e+00 2.291903e+00 2.474509e+00 1.619532e+00 1.255799e+00 1.388204e+00 1.254287e+00 1.386754e+00 1.100781e+00 9.187415e-01 1.029783e+00 7.979813e+00 1.293010e+00 3.731924e-01 3.665518e-01 2.617870e-01 3.466637e-01 1.829738e-01 1.663056e-01 2.001765e-01 1.147428e-01 1.713567e-01 8.043505e-02 7.431100e-02 8.541775e-02 5.705446e-02 9.070597e-02 5.015498e-02 5.467432e-02 6.266250e-02
<GCONST> 5.795795e+01
<STATE> 4
<MEAN> 38
 6.596409e+00 2.954603e+00 8.013973e-01 6.565080e-01 4.401995e-01 8.862138e-01 6.942388e-01 5.353628e-01 6.461846e-01 6.010773e-01 7.260868e-01 5.317325e-01 5.259753e-01 4.333022e-01 3.437196e-01 5.538660e-01 4.550802e-01 5.969877e-01 5.966264e-01 9.252040e-02 7.899304e-02 8.430731e-03 -7.856301e-02 7.422040e-02 -1.008188e-02 4.130945e-02 2.540061e-02 -2.761646e-02 3.104683e-02 -2.032497e-02 2.088269e-02 1.929281e-02 1.010527e-03 3.693359e-02 2.944956e-03 3.398689e-02 1.785743e-02 5.118335e-03
<VARIANCE> 38
 1.242102e+01 6.206117e+00 3.671062e+00 4.897301e+00 3.961056e+00 2.833947e+00 2.564280e+00 2.160162e+00 2.590350e+00 2.038800e+00 2.334355e+00 1.486271e+00 1.124361e+00 9.671636e-01 1.104191e+00 1.034600e+00 9.580159e-01 8.379346e-01 8.557057e-01 7.057279e-01 2.310109e-01 1.468047e-01 1.916472e-01 1.423247e-01 1.093812e-01 8.808294e-02 8.049940e-02 1.056549e-01 8.787666e-02 9.703495e-02 6.210003e-02 4.552282e-02 3.909212e-02 4.525864e-02 4.301908e-02 3.917562e-02 3.867182e-02 4.236729e-02
<GCONST> 3.743927e+01
<TRANSP> 5
 0.000000e+00 1.000000e+00 0.000000e+00 0.000000e+00 0.000000e+00
 0.000000e+00 9.143369e-01 8.566310e-02 0.000000e+00 0.000000e+00
 0.000000e+00 0.000000e+00 9.057346e-01 9.426545e-02 0.000000e+00
 0.000000e+00 0.000000e+00 0.000000e+00 9.658508e-01 3.414925e-02
 0.000000e+00 0.000000e+00 0.000000e+00 0.000000e+00 0.000000e+00
<ENDHMM>
~h "three"
<BEGINHMM>
<NUMSTATES> 5
<STATE> 2
<MEAN> 38
 -1.090883e+00 8.905963e-01 1.205130e+00 -1.034507e-01 8.154410e-01 -5.552478e-01 5.803733e-02 1.180362e-01 -3.889341e-01 1.635094e-01 -3.940356e-01 1.227870e-01 6.598588e-02 -6.963518e-02 3.941889e-01 3.788184e-02 4.716033e-01 3.133713e-01 1.879043e-01 -7.593341e-01 -5.008528e-01 -1.288982e-01 -1.041816e-01 -1.000632e-01 -9.780659e-02 -4.143331e-02 4.214947e-03 3.078098e-02 3.657485e-02 -1.662159e-04 -7.739893e-03 -6.141726e-02 -9.078474e-02 -8.571252e-02 -1.012522e-01 -7.200523e-02 -7.505365e-02 -7.547507e-02
<VARIANCE> 38
 8.303706e+01 2.476301e+01 7.468513e+00 7.928130e+00 5.279148e+00 5.320827e+00 2.894039e+00 2.503981e+00 2.022741e+00 2.382113e+00 2.011837e+00 1.747124e+00 1.358083e+00 1.484539e+00 1.240116e+00 1.407190e+00 1.040556e+00 9.767467e-01 1.042707e+00 3.889774e+00 1.044062e+00 3.471345e-01 4.634417e-01 2.560599e-01 2.631324e-01 1.335932e-01 1.269399e-01 1.232838e-01 1.293258e-01 1.212091e-01 9.466162e-02 7.600959e-02 8.481675e-02 6.599707e-02 8.039810e-02 5.163146e-02 5.123462e-02 5.389424e-02
<GCONST> 5.606528e+01
<STATE> 3
<MEAN> 38
 7.260737e+00 5.494652e+00 5.250902e-01 -1.349558e+00 1.118083e+00 1.898390e-01 5.625763e-01 2.706189e-01 -5.529529e-01 4.775927e-01 6.903068e-01 1.566685e+00 1.901072e+00 1.803093e+00 1.940741e+00 1.242004e+00 1.209689e+00 8.941868e-01 7.852473e-01 3.150302e-01 4.741090e-01 4.872237e-01 4.764899e-01 1.118544e-01 1.582080e-02 -1.048683e-01 -1.265140e-01 -1.678080e-01 -3.042559e-01 -2.627294e-01 -2.626557e-01 -1.397511e-01 -2.623456e-02 -1.186586e-02 7.665738e-02 6.265669e-02 7.709751e-02 5.702697e-02
<VARIANCE> 38
 2.764906e+01 1.408841e+01 8.209555e+00 9.432697e+00 5.535105e+00 3.435096e+00 3.321235e+00 4.435240e+00 3.083656e+00 3.706959e+00 3.279108e+00 2.726286e+00 1.682476e+00 1.352775e+00 1.168933e+00 1.096875e+00 1.138389e+00 9.932802e-01 7.432981e-01 9.461992e-01 5.290466e-01 2.876897e-01 3.197631e-01 1.933416e-01 1.427886e-01 1.272902e-01 1.347319e-01 1.439901e-01 1.533051e-01 1.168762e-01 1.043024e-01 9.287161e-02 9.182891e-02 7.386442e-02 5.129910e-02 4.185022e-02 3.268278e-02 2.891384e-02
<GCONST> 5.188098e+01
<STATE> 4
<MEAN> 38
 2.411579e+00 2.095319e-01 -1.795793e+00 -1.468496e+00 7.466742e-01 1.166684e+00 1.752571e+00 1.520038e+00 1.544181e+00 2.174973e+00 1.616013e+00 1.430422e+00 8.362128e-01 3.299952e-01 5.440155e-01 3.333318e-01 4.888722e-01 4.856159e-01 4.914067e-01 4.984223e-01 2.826462e-01 -9.516222e-02 -2.111900e-01 7.355023e-02 4.770956e-02 9.217244e-02 5.229524e-02 1.050026e-02 1.259331e-01 1.148481e-01 1.658461e-01 1.511585e-01 1.068484e-01 1.206181e-01 5.180047e-02 4.833551e-02 3.348777e-02 4.145458e-02
<VARIANCE> 38
 1.822669e+01 7.834788e+00 6.820558e+00 6.871252e+00 4.948605e+00 3.129425e+00 3.619300e+00 3.017728e+00 2.360671e+00 3.885042e+00 2.386012e+00 2.471178e+00 1.928643e+00 1.452080e+00 1.588805e+00 9.777584e-01 1.150518e+00 8.525591e-01 6.963880e-01 9.759148e-01 3.275566e-01 2.374500e-01 2.285745e-01 1.839347e-01 1.728715e-01 1.901929e-01 1.632213e-01 1.327314e-01 1.448284e-01 9.702875e-02 7.337639e-02 6.377945e-02 5.808961e-02 5.220232e-02 4.610774e-02 5.049110e-02 4.132091e-02 3.339335e-02
<GCONST> 4.778767e+01
<TRANSP> 5
 0.000000e+00 1.000000e+00 0.000000e+00 0.000000e+00 0.000000e+00
 0.000000e+00 9.443378e-01 5.566211e-02 0.000000e+00 0.000000e+00
 0.000000e+00 0.000000e+00 8.966287e-01 1.033713e-01 0.000000e+00
 0.000000e+00 0.000000e+00 0.000000e+00 9.268518e-01 7.314823e-02
 0.000000e+00 0.000000e+00 0.000000e+00 0.000000e+00 0.000000e+00
<ENDHMM>
~h "one"
<BEGINHMM>
<NUMSTATES> 5
<STATE> 2
<MEAN> 38
 2.842889e+00 2.260085e+00 1.801066e+00 1.616313e+00 1.388236e+00 1.708086e+00 1.606873e+00 1.424473e+00 1.153270e+00 8.788786e-01 9.606087e-01 7.358090e-01 5.419973e-01 3.464651e-01 1.400598e-01 1.737815e-01 8.374989e-02 1.766993e-01 2.806777e-01 -4.500713e-01 -3.206111e-01 -9.719857e-02 6.268140e-03 -1.676965e-01 -1.673632e-01 -2.156422e-01 -1.514144e-01 -4.849564e-02 -5.462135e-02 -1.751986e-03 -3.114538e-02 -2.474223e-02 -1.013520e-02 -4.222815e-02 2.012033e-03 1.172695e-03 1.207710e-02 1.454658e-02
<VARIANCE> 38
 4.581832e+01 1.264873e+01 5.481804e+00 7.374068e+00 4.579223e+00 4.984705e+00 4.015003e+00 3.613804e+00 2.907499e+00 2.165609e+00 2.247686e+00 1.717938e+00 1.387230e+00 1.250377e+00 1.308658e+00 1.038472e+00 1.145626e+00 7.745014e-01 6.785418e-01 1.896692e+00 5.072368e-01 2.707545e-01 2.939871e-01 2.270452e-01 1.964764e-01 1.618817e-01 1.416511e-01 1.434758e-01 1.073661e-01 1.307596e-01 8.806561e-02 6.830615e-02 6.208513e-02 4.908608e-02 5.247806e-02 4.509100e-02 3.969394e-02 3.683171e-02
<GCONST> 5.010153e+01
<STATE> 3
<MEAN> 38
 5.543977e+00 4.159252e+00 1.525370e+00 -7.893096e-02 1.904274e+00 1.653813e+00 1.942737e+00 1.218017e+00 4.924721e-02 5.193159e-02 -6.350988e-01 -1.588975e-01 4.269127e-02 6.138416e-02 5.016977e-01 4.735206e-02 1.167100e-01 2.011531e-02 8.033319e-02 3.402292e-02 6.432322e-02 6.153753e-02 1.089610e-01 9.365284e-02 1.167008e-01 1.235351e-01 9.354945e-02 5.954036e-02 2.134644e-02 5.454590e-03 -8.228173e-03 -1.051237e-02 -1.088074e-02 -2.243510e-02 -3.769898e-02 -5.604867e-02 -4.863871e-02 -3.688493e-02
<VARIANCE> 38
 8.831556e+00 4.419395e+00 3.789181e+00 6.095709e+00 4.410556e+00 4.222952e+00 3.481544e+00 3.420107e+00 3.247913e+00 2.507228e+00 2.882755e+00 2.038873e+00 1.494053e+00 1.272922e+00 1.286581e+00 1.193453e+00 1.260653e+00 9.632450e-01 8.432699e-01 2.304387e-01 1.402657e-01 1.119643e-01 1.960243e-01 1.337192e-01 1.258859e-01 1.096311e-01 9.059577e-02 1.164588e-01 9.989903e-02 1.745631e-01 1.049354e-01 6.977929e-02 5.144734e-02 4.932021e-02 4.787191e-02 4.770295e-02 4.309355e-02 3.954480e-02
<GCONST> 4.151189e+01
<STATE> 4
<MEAN> 38
 3.964597e+00 1.087034e+00 6.162477e-01 1.077213e+00 -4.489908e-01 5.123058e-01 -2.116136e-01 1.863818e-01 1.137942e+00 8.044772e-01 1.507932e+00 8.662598e-01 5.286206e-01 4.550294e-01 1.256259e-01 8.081563e-01 6.148483e-01 7.085464e-01 6.598907e-01 4.468465e-01 3.014986e-01 6.348987e-02 -8.961579e-02 9.846091e-02 6.991225e-02 9.507815e-02 4.911171e-02 -2.482548e-02 2.094131e-02 -1.078897e-02 3.417272e-02 3.925364e-02 2.418582e-02 6.074920e-02 3.642800e-02 5.815285e-02 4.493905e-02 3.546868e-02
<VARIANCE> 38
 1.839372e+01 6.470529e+00 3.636621e+00 3.825086e+00 3.856023e+00 2.278206e+00 2.143785e+00 2.225126e+00 2.654417e+00 2.639697e+00 2.446467e+00 1.917571e+00 1.357803e+00 9.619825e-01 1.230153e+00 1.091447e+00 1.263506e+00 9.919143e-01 9.306891e-01 9.998181e-01 2.599536e-01 1.809693e-01 2.513153e-01 1.650738e-01 1.217005e-01 9.300876e-02 9.585088e-02 1.823156e-01 1.252068e-01 1.724470e-01 8.455414e-02 5.535336e-02 4.078945e-02 4.842852e-02 4.867478e-02 4.385524e-02 4.063394e-02 3.978070e-02
<GCONST> 4.242361e+01
<TRANSP> 5
 0.000000e+00 1.000000e+00 0.000000e+00 0.000000e+00 0.000000e+00
 0.000000e+00 9.129439e-01 8.705606e-02 0.000000e+00 0.000000e+00
 0.000000e+00 0.000000e+00 9.440218e-01 5.597818e-02 0.000000e+00
 0.000000e+00 0.000000e+00 0.000000e+00 9.220697e-01 7.793029e-02
 0.000000e+00 0.000000e+00 0.000000e+00 0.000000e+00 0.000000e+00
<ENDHMM>
~h "sil"
<BEGINHMM>
<NUMSTATES> 5
<STATE> 2
<MEAN> 38
 -9.005846e-01 -2.645114e+00 -1.538705e+00 1.356907e+00 -2.448373e+00 -4.444600e-01 -1.812637e+00 -1.435736e+00 -1.621850e-01 -1.690627e+00 -3.758975e-01 -1.405467e+00 -9.906545e-01 -2.792362e-01 -1.195493e+00 -2.297511e-01 -1.044132e+00 -6.893154e-01 -4.818249e-01 2.693160e-01 2.199651e-01 1.007311e-01 -4.838812e-02 1.183024e-01 3.168529e-02 9.037671e-02 7.230592e-02 2.260695e-02 9.758384e-02 4.716233e-02 9.643520e-02 6.892484e-02 3.092794e-02 7.381061e-02 3.518509e-02 7.520139e-02 5.681920e-02 4.140335e-02
<VARIANCE> 38
 1.407047e+01 4.981110e+00 2.639565e+00 2.150351e+00 2.046066e+00 1.639171e+00 1.209798e+00 1.143484e+00 1.081699e+00 1.143304e+00 8.583229e-01 8.202154e-01 6.530814e-01 5.646908e-01 5.866766e-01 4.741596e-01 4.725157e-01 3.855925e-01 3.463800e-01 2.819135e-01 1.504485e-01 7.648186e-02 6.597479e-02 7.337254e-02 3.778509e-02 4.381356e-02 3.647203e-02 2.873895e-02 3.941753e-02 2.542433e-02 3.000738e-02 2.169460e-02 1.732043e-02 2.185192e-02 1.571338e-02 1.857396e-02 1.460595e-02 1.300336e-02
<GCONST> 9.025447e+00
<STATE> 3
<MEAN> 38
 -2.230651e+00 -2.710673e+00 -1.187532e+00 1.411834e+00 -1.915691e+00 -2.290696e-01 -1.262041e+00 -9.387301e-01 3.474980e-02 -1.284671e+00 -1.792388e-01 -1.089991e+00 -7.226881e-01 -1.114466e-01 -9.217429e-01 -1.305693e-01 -8.349563e-01 -5.194935e-01 -3.254551e-01 6.205883e-02 2.339020e-02 7.498635e-03 6.994929e-03 -1.387748e-02 -6.622661e-03 -1.358904e-02 -1.342027e-02 -6.650616e-03 -1.031452e-02 -3.109855e-03 -6.226802e-03 -4.806610e-03 -2.163940e-03 -5.810026e-03 -1.792218e-03 -4.879258e-03 -3.913548e-03 -3.373634e-03
<VARIANCE> 38
 9.846905e+00 3.581447e+00 2.042175e+00 1.849938e+00 1.476298e+00 1.227589e+00 9.158953e-01 8.155527e-01 7.744480e-01 7.526261e-01 6.244790e-01 5.844072e-01 4.560534e-01 4.149823e-01 4.127129e-01 3.644492e-01 3.596849e-01 2.953480e-01 2.809792e-01 1.313926e-01 6.050770e-02 3.328916e-02 3.672847e-02 2.556924e-02 2.058755e-02 1.667697e-02 1.491595e-02 1.515836e-02 1.509485e-02 1.450973e-02 1.406461e-02 1.123647e-02 1.057154e-02 1.068447e-02 1.040470e-02 1.005751e-02 8.367303e-03 7.808664e-03
<GCONST> -1.023160e+01
<STATE> 4
<MEAN> 38
 -4.094771e+00 -3.286948e+00 -1.535724e+00 1.497501e-01 -1.688932e+00 -8.530709e-01 -1.386501e+00 -1.039055e+00 -4.276942e-01 -1.187086e+00 -5.538458e-01 -1.011186e+00 -8.497127e-01 -5.022295e-01 -9.091207e-01 -4.393948e-01 -7.700831e-01 -6.157675e-01 -5.199320e-01 1.334771e-01 -2.242980e-01 -1.867849e-01 2.431470e-01 -2.914946e-01 3.959326e-02 -1.582855e-01 -1.302736e-01 3.277344e-02 -1.950404e-01 -7.636314e-04 -1.619560e-01 -8.759412e-02 1.470628e-02 -1.297717e-01 1.381714e-02 -1.202960e-01 -6.104565e-02 -2.379170e-02
<VARIANCE> 38
 2.408777e+01 5.741588e+00 3.503150e+00 5.280166e+00 3.021060e+00 2.570840e+00 1.341909e+00 1.193246e+00 1.369255e+00 1.214574e+00 1.091585e+00 8.584458e-01 6.060924e-01 6.623338e-01 6.498836e-01 5.524014e-01 5.168634e-01 3.501392e-01 3.562274e-01 1.695984e+00 3.858179e-01 1.830840e-01 2.517987e-01 1.600404e-01 1.204576e-01 7.246398e-02 6.002825e-02 7.295559e-02 6.718387e-02 6.207998e-02 4.917784e-02 3.351186e-02 3.228155e-02 3.406454e-02 2.831705e-02 2.806795e-02 1.966820e-02 1.956575e-02
<GCONST> 2.676582e+01
<TRANSP> 5
 0.000000e+00 1.000000e+00 0.000000e+00 0.000000e+00 0.000000e+00
 0.000000e+00 8.490962e-01 1.509038e-01 0.000000e+00 0.000000e+00
 0.000000e+00 0.000000e+00 9.372703e-01 6.272977e-02 0.000000e+00
 0.000000e+00 0.000000e+00 0.000000e+00 7.837924e-01 2.162076e-01
 0.000000e+00 0.000000e+00 0.000000e+00 0.000000e+00 0.000000e+00
<ENDHMM>
~h "six"
<BEGINHMM>
<NUMSTATES> 5
<STATE> 2
<MEAN> 38
 -1.136676e+01 -2.630562e+00 1.243761e+00 -2.412557e+00 1.894774e+00 -1.824480e+00 5.524759e-02 2.025985e-01 -1.199856e+00 9.007928e-01 -9.715525e-01 5.634171e-01 1.284283e-02 -6.793118e-01 7.214398e-01 -6.848919e-01 6.315483e-01 -4.545450e-02 -4.051149e-01 -4.501913e-01 -1.659446e-01 1.336664e-02 2.076449e-02 -8.999258e-03 -3.448223e-02 -5.933255e-02 -5.486148e-02 -4.366568e-02 -5.499977e-02 -6.516098e-02 -6.545928e-02 -6.295076e-02 -5.331009e-02 -5.035631e-02 -5.292035e-02 -5.118494e-02 -4.756606e-02 -3.636880e-02
<VARIANCE> 38
 1.381457e+02 2.360188e+01 6.656585e+00 6.999145e+00 4.191262e+00 6.617033e+00 2.436677e+00 2.275463e+00 3.339290e+00 1.656423e+00 3.353244e+00 1.390123e+00 1.346938e+00 1.779678e+00 8.953994e-01 1.833485e+00 8.510689e-01 1.006497e+00 1.225834e+00 9.695229e+00 1.217756e+00 3.073382e-01 4.250392e-01 2.384286e-01 3.722943e-01 1.360556e-01 1.195132e-01 2.430552e-01 1.058961e-01 2.510656e-01 8.386099e-02 8.952695e-02 1.234470e-01 4.817523e-02 1.250313e-01 4.439903e-02 6.009637e-02 7.342094e-02
<GCONST> 5.969131e+01
<STATE> 3
<MEAN> 38
 5.628056e+00 1.970783e+00 -3.517511e-01 -7.686830e-02 2.154142e-01 6.092554e-01 5.868028e-01 4.451531e-01 6.816791e-01 1.051522e+00 1.306481e+00 1.171593e+00 1.098572e+00 9.142608e-01 6.958953e-01 6.818788e-01 5.342011e-01 5.347319e-01 4.568129e-01 3.920180e-01 2.189300e-01 5.278935e-02 -1.190767e-01 1.599044e-01 5.294913e-02 1.660355e-01 1.520928e-01 7.083386e-02 1.801989e-01 1.013422e-01 1.603681e-01 1.163402e-01 5.854790e-02 1.170126e-01 6.034561e-02 1.194072e-01 8.719595e-02 5.893214e-02
<VARIANCE> 38
 3.428428e+01 1.199225e+01 5.872504e+00 6.458812e+00 5.186565e+00 4.095732e+00 3.859633e+00 3.365897e+00 3.141874e+00 4.113780e+00 2.726883e+00 2.660658e+00 1.956795e+00 1.581115e+00 1.571296e+00 1.033211e+00 1.208416e+00 7.775283e-01 6.860668e-01 2.113359e+00 4.712225e-01 2.633547e-01 3.339632e-01 2.110404e-01 1.968894e-01 1.455902e-01 1.268692e-01 1.576996e-01 1.865323e-01 1.703810e-01 1.396335e-01 1.110869e-01 9.193691e-02 6.965058e-02 5.469390e-02 4.721678e-02 3.354514e-02 3.395364e-02
<GCONST> 5.397294e+01
<STATE> 4
<MEAN> 38
 -9.390874e+00 -3.475086e+00 1.197743e-01 -1.602110e+00 1.538560e-01 -1.959253e+00 -1.037254e+00 -8.904440e-01 -1.561566e+00 -5.000220e-01 -1.342981e+00 -3.944443e-01 -5.668265e-01 -8.112636e-01 -6.170486e-02 -7.581319e-01 -3.723957e-02 -3.974630e-01 -5.799742e-01 9.800138e-02 2.342915e-02 -6.933704e-03 5.012220e-02 -4.768568e-02 1.413133e-02 -2.330523e-02 -1.872573e-02 1.479240e-02 -1.988457e-02 1.777971e-02 -1.053186e-02 6.988820e-03 2.678586e-02 -6.978763e-04 2.178932e-02 -7.057315e-03 3.197453e-03 8.960311e-03
<VARIANCE> 38
 8.010983e+01 1.302480e+01 7.089936e+00 8.125691e+00 5.347362e+00 4.753090e+00 1.587171e+00 1.388265e+00 2.012889e+00 1.689963e+00 1.476339e+00 1.076941e+00 6.319774e-01 7.723198e-01 1.051671e+00 7.971358e-01 7.799449e-01 4.355134e-01 4.925951e-01 4.534818e+00 6.169267e-01 2.621144e-01 4.193417e-01 2.131615e-01 2.098040e-01 5.598094e-02 4.859030e-02 1.145991e-01 7.649285e-02 8.895858e-02 4.980965e-02 2.956909e-02 4.233101e-02 4.935892e-02 4.461757e-02 3.664878e-02 2.066041e-02 2.562364e-02
<GCONST> 3.987392e+01
<TRANSP> 5
 0.000000e+00 1.000000e+00 0.000000e+00 0.000000e+00 0.000000e+00
 0.000000e+00 9.499457e-01 5.005426e-02 0.000000e+00 0.000000e+00
 0.000000e+00 0.000000e+00 9.332728e-01 6.672726e-02 0.000000e+00
 0.000000e+00 0.000000e+00 0.000000e+00 9.462699e-01 5.373015e-02
 0.000000e+00 0.000000e+00 0.000000e+00 0.000000e+00 0.000000e+00
<ENDHMM>
~h "two"
<BEGINHMM>
<NUMSTATES> 5
<STATE> 2
<MEAN> 38
 -8.448159e+00 -4.547997e+00 -9.209714e-01 -2.293298e+00 6.839795e-01 -1.345773e+00 -3.173402e-01 -7.333493e-02 -7.976719e-01 4.156522e-01 -5.781137e-01 3.475265e-01 -9.409568e-02 -5.267395e-01 2.186193e-01 -6.803723e-01 1.680737e-01 -2.257985e-01 -4.878604e-01 -2.525611e-01 -2.526645e-01 -6.123386e-02 2.505466e-01 -1.336815e-01 1.320439e-02 -1.338801e-01 -1.226453e-01 -4.982223e-02 -2.231619e-01 -1.154598e-01 -2.265032e-01 -1.708234e-01 -8.805209e-02 -1.724674e-01 -7.242615e-02 -1.411921e-01 -9.585679e-02 -6.494057e-02
<VARIANCE> 38
 5.851889e+01 1.240863e+01 5.042283e+00 7.342759e+00 6.397481e+00 3.212939e+00 2.060898e+00 1.844553e+00 1.879300e+00 2.239243e+00 1.539370e+00 1.753439e+00 9.866658e-01 8.951769e-01 1.309070e+00 9.146216e-01 9.408788e-01 6.103749e-01 6.231493e-01 6.157624e+00 1.144100e+00 2.555420e-01 5.492331e-01 4.181394e-01 2.415426e-01 1.093758e-01 8.839403e-02 1.825826e-01 1.279957e-01 1.542222e-01 8.422942e-02 6.228323e-02 8.990850e-02 6.591225e-02 9.841242e-02 4.618862e-02 4.028061e-02 5.480243e-02
<GCONST> 5.139870e+01
<STATE> 3
<MEAN> 38
 3.081599e+00 2.523438e+00 -2.376332e-01 -2.276704e+00 1.055734e+00 3.601941e-01 1.395931e+00 1.011155e+00 5.145403e-01 2.072091e+00 1.315261e+00 2.010447e+00 1.743988e+00 1.116258e+00 1.665584e+00 9.582357e-01 1.270444e+00 9.288290e-01 8.103001e-01 -5.158703e-01 -3.949911e-01 -1.053871e-01 -8.848432e-02 -1.983757e-02 -1.041712e-01 -6.610226e-02 -6.883883e-03 -4.192940e-04 2.196214e-02 -1.308557e-02 2.274136e-03 -4.169308e-02 -6.051888e-02 -3.440868e-02 -6.257731e-02 -3.268797e-02 -4.948521e-02 -6.199604e-02
<VARIANCE> 38
 3.649097e+01 1.022248e+01 5.917641e+00 4.445483e+00 5.067228e+00 3.390822e+00 2.310831e+00 2.461987e+00 2.097248e+00 3.344745e+00 2.520477e+00 1.484711e+00 1.326672e+00 1.437963e+00 1.100341e+00 9.437546e-01 8.714729e-01 7.426410e-01 6.385679e-01 2.112786e+00 6.464515e-01 2.194346e-01 2.018510e-01 1.683050e-01 1.481546e-01 1.137253e-01 1.048499e-01 8.824786e-02 9.727024e-02 9.246317e-02 6.338266e-02 6.225081e-02 5.837227e-02 4.749692e-02 4.778005e-02 3.431721e-02 3.224632e-02 3.270565e-02
<GCONST> 4.392530e+01
<STATE> 4
<MEAN> 38
 4.703594e+00 3.396520e+00 1.598793e+00 1.074030e+00 8.543854e-01 1.351501e+00 1.137054e+00 5.824270e-01 4.146275e-01 3.707463e-01 4.862489e-01 3.953578e-01 3.955023e-01 3.575692e-01 2.976162e-01 3.848868e-01 3.208832e-01 4.823456e-01 5.931582e-01 2.601705e-01 2.335185e-01 5.294513e-03 -1.680565e-01 6.241719e-02 2.810434e-02 9.494764e-02 5.254500e-02 -7.214052e-03 8.476102e-02 4.002687e-02 1.057646e-01 1.132872e-01 8.171511e-02 1.174880e-01 6.871462e-02 8.955618e-02 7.055952e-02 6.079966e-02
<VARIANCE> 38
 1.488151e+01 9.607558e+00 4.882236e+00 5.370653e+00 5.368167e+00 3.332105e+00 3.649320e+00 3.045645e+00 2.081371e+00 2.374964e+00 1.956880e+00 1.864094e+00 1.777237e+00 1.459849e+00 1.642780e+00 1.163376e+00 1.310775e+00 1.012864e+00 8.974165e-01 5.863573e-01 2.997350e-01 1.795049e-01 2.001742e-01 1.791754e-01 1.424950e-01 1.231734e-01 9.642310e-02 7.713532e-02 8.466144e-02 7.358517e-02 6.406136e-02 5.412635e-02 4.681698e-02 4.866651e-02 4.001294e-02 4.153538e-02 3.447791e-02 3.200410e-02
<GCONST> 4.226516e+01
<TRANSP> 5
 0.000000e+00 1.000000e+00 0.000000e+00 0.000000e+00 0.000000e+00
 0.000000e+00 9.002208e-01 9.977916e-02 0.000000e+00 0.000000e+00
 0.000000e+00 0.000000e+00 9.204973e-01 7.950270e-02 0.000000e+00
 0.000000e+00 0.000000e+00 0.000000e+00 9.296893e-01 7.031064e-02
 0.000000e+00 0.000000e+00 0.000000e+00 0.000000e+00 0.000000e+00
<ENDHMM>
~h "nine"
<BEGINHMM>
<NUMSTATES> 5
<STATE> 2
<MEAN> 38
 2.442443e+00 1.747008e+00 9.510959e-01 3.803971e-02 7.683066e-01 5.105401e-01 5.995805e-01 7.499288e-01 7.491158e-01 1.117152e+00 9.999723e-01 9.503089e-01 6.067323e-01 3.571552e-01 5.562758e-01 5.771719e-01 7.231855e-01 6.003028e-01 5.300319e-01 -3.091396e-01 -2.966329e-01 -2.375980e-02 1.911364e-01 -1.414456e-01 -1.457329e-02 -7.148319e-02 -1.922293e-02 1.114621e-01 3.456119e-02 1.075578e-01 1.265920e-02 -7.935429e-03 -7.035057e-03 -8.307770e-02 -1.507518e-02 -5.570033e-02 -2.019621e-02 -1.466267e-03
<VARIANCE> 38
 5.737741e+01 1.380674e+01 6.034688e+00 7.546556e+00 5.395044e+00 3.523054e+00 2.795439e+00 2.633037e+00 3.912451e+00 2.766104e+00 3.266269e+00 1.825123e+00 1.368669e+00 1.154433e+00 1.428568e+00 1.283924e+00 1.131342e+00 8.219621e-01 7.921195e-01 2.624375e+00 5.950928e-01 3.366365e-01 4.276547e-01 2.702661e-01 1.855844e-01 1.532790e-01 1.468236e-01 2.697122e-01 1.794395e-01 2.443814e-01 1.148597e-01 7.937058e-02 6.395871e-02 6.593881e-02 7.036695e-02 5.735242e-02 4.894439e-02 4.784428e-02
<GCONST> 5.574693e+01
<STATE> 3
<MEAN> 38
 5.568583e+00 3.707132e+00 6.395052e-01 -1.483841e+00 9.757477e-01 3.524446e-01 8.412175e-01 4.914996e-01 -4.399557e-01 -8.120349e-02 -8.609882e-01 -1.172424e-01 2.369449e-01 2.534216e-01 8.186255e-01 3.264026e-01 5.435597e-01 3.395593e-01 2.635318e-01 -7.523722e-03 4.450502e-02 4.689819e-02 -2.073695e-02 3.431809e-02 -9.890242e-03 -1.151900e-02 -2.044867e-02 -5.684981e-02 -4.892543e-02 -6.573151e-02 -4.206016e-02 -2.472045e-02 -9.459981e-03 1.655843e-02 6.215547e-03 1.702082e-02 9.995704e-03 4.792308e-03
<VARIANCE> 38
 9.495859e+00 4.698043e+00 4.848836e+00 5.285851e+00 4.115418e+00 3.712424e+00 3.018722e+00 2.408261e+00 2.321568e+00 3.061354e+00 2.693652e+00 2.037408e+00 1.342431e+00 1.025405e+00 9.941394e-01 9.278532e-01 7.636709e-01 6.237955e-01 5.683215e-01 2.133304e-01 1.147795e-01 1.283601e-01 1.790359e-01 9.558742e-02 8.693071e-02 7.909282e-02 6.271613e-02 7.072112e-02 1.048482e-01 1.150208e-01 7.789864e-02 4.490015e-02 3.568453e-02 3.908731e-02 3.396677e-02 2.868336e-02 2.422304e-02 2.311260e-02
<GCONST> 3.288857e+01
<STATE> 4
<MEAN> 38
 3.409617e+00 9.009552e-01 5.514078e-01 1.544951e+00 -2.571401e-01 7.951664e-01 1.203218e-01 2.785046e-01 1.122933e+00 7.451653e-01 1.517393e+00 8.380388e-01 4.618908e-01 2.719087e-01 -2.638102e-01 3.337245e-01 9.656482e-02 3.392255e-01 4.617346e-01 4.394971e-01 2.915845e-01 -3.639059e-02 -1.650546e-01 1.024523e-01 6.495243e-02 1.269284e-01 8.857588e-02 2.312421e-02 9.463315e-02 3.983656e-02 8.835142e-02 7.362299e-02 3.657607e-02 7.211984e-02 2.523918e-02 4.683468e-02 2.352633e-02 1.560968e-02
<VARIANCE> 38
 1.659090e+01 7.183436e+00 5.010632e+00 5.030688e+00 3.920616e+00 2.566411e+00 2.881894e+00 2.645382e+00 2.383115e+00 2.917123e+00 2.528008e+00 2.235532e+00 1.537868e+00 1.042026e+00 1.054529e+00 9.205545e-01 1.058436e+00 9.186869e-01 8.378833e-01 9.299772e-01 2.969262e-01 3.184642e-01 4.395076e-01 1.609482e-01 1.385552e-01 1.094033e-01 1.050435e-01 1.434773e-01 1.109844e-01 1.528859e-01 7.783044e-02 5.917808e-02 4.740114e-02 5.550466e-02 4.687570e-02 4.525405e-02 4.581472e-02 4.674547e-02
<GCONST> 4.493178e+01
<TRANSP> 5
 0.000000e+00 1.000000e+00 0.000000e+00 0.000000e+00 0.000000e+00
 0.000000e+00 9.260858e-01 7.391416e-02 0.000000e+00 0.000000e+00
 0.000000e+00 0.000000e+00 9.569260e-01 4.307402e-02 0.000000e+00
 0.000000e+00 0.000000e+00 0.000000e+00 9.172223e-01 8.277768e-02
 0.000000e+00 0.000000e+00 0.000000e+00 0.000000e+00 0.000000e+00
<ENDHMM>
~h "five"
<BEGINHMM>
<NUMSTATES> 5
<STATE> 2
<MEAN> 38
 -3.976578e+00 -3.157063e-01 9.842119e-02 -1.402797e+00 4.852533e-01 -1.221563e+00 -1.781734e-01 -1.497117e-01 -7.957505e-01 6.353190e-02 -8.479775e-01 -8.634192e-02 -3.274477e-01 -6.643714e-01 -1.933338e-02 -6.322991e-01 8.127615e-04 -2.296589e-01 -3.449173e-01 -9.471993e-01 -3.424469e-01 -1.283093e-01 -1.566299e-01 -1.306328e-01 -1.516630e-01 -1.220893e-01 -9.007476e-02 -5.940931e-02 -2.357884e-03 1.995600e-02 2.064274e-02 -1.013308e-02 9.599039e-03 3.638313e-02 2.197824e-02 2.650560e-02 -1.135651e-02 -3.010379e-02
<VARIANCE> 38
 7.496545e+01 1.349102e+01 5.641582e+00 7.680897e+00 4.208297e+00 6.334549e+00 3.127084e+00 2.300992e+00 2.301003e+00 1.723538e+00 1.676015e+00 1.221850e+00 9.784312e-01 9.829066e-01 9.107779e-01 8.418332e-01 7.434316e-01 6.728714e-01 7.338494e-01 5.289247e+00 8.141370e-01 3.675337e-01 5.685155e-01 2.182510e-01 4.428663e-01 2.000419e-01 1.456444e-01 1.760365e-01 8.403997e-02 1.217937e-01 6.580030e-02 6.116326e-02 6.731602e-02 4.245710e-02 5.700783e-02 3.768561e-02 4.543754e-02 5.190611e-02
<GCONST> 5.070878e+01
<STATE> 3
<MEAN> 38
 7.624350e+00 3.320104e+00 1.114784e+00 3.015311e-01 1.166923e+00 2.658923e-01 7.948281e-01 5.088819e-01 -1.792043e-01 -9.101977e-02 -8.723164e-01 -3.180689e-01 -1.408675e-01 -5.033081e-01 -2.392780e-01 -4.159431e-01 1.401695e-02 2.264922e-01 2.787822e-01 1.268115e-02 2.181138e-03 4.052418e-02 5.346921e-02 3.900201e-02 3.863933e-02 3.294388e-02 3.568759e-02 1.755507e-02 -1.932890e-02 -2.618128e-02 -3.266927e-02 -4.237349e-02 -4.045745e-02 -3.964872e-02 -3.690997e-02 -3.206247e-02 -2.238217e-02 -1.026639e-02
<VARIANCE> 38
 1.088799e+01 5.174257e+00 5.011218e+00 4.815150e+00 4.709120e+00 4.378013e+00 3.470942e+00 2.593204e+00 2.184266e+00 2.594678e+00 1.728660e+00 1.548158e+00 1.307678e+00 1.180796e+00 1.179604e+00 1.020927e+00 9.123499e-01 8.681081e-01 6.833125e-01 2.136456e-01 8.559719e-02 7.281417e-02 7.833072e-02 7.165982e-02 6.822480e-02 5.560768e-02 4.416528e-02 4.310282e-02 5.149489e-02 4.722981e-02 3.748162e-02 3.276395e-02 2.890540e-02 2.575079e-02 2.523730e-02 2.016713e-02 1.655009e-02 1.480910e-02
<GCONST> 2.553931e+01
<STATE> 4
<MEAN> 38
 1.269525e+00 6.984329e-01 1.534995e-01 -5.314627e-02 2.166759e-01 -8.746602e-02 2.209138e-02 3.262911e-03 4.146431e-02 3.660663e-01 2.864133e-01 4.153991e-01 4.348682e-01 3.143477e-01 3.296013e-01 2.260910e-01 2.969413e-01 2.749209e-01 2.071110e-01 5.555068e-01 2.794619e-01 6.986996e-02 3.816074e-03 7.832639e-02 4.193199e-02 6.132295e-02 3.300082e-02 5.488613e-03 3.582542e-02 -3.549274e-03 2.649052e-02 4.560725e-02 1.732270e-02 2.326171e-02 1.000026e-02 2.297854e-02 3.069684e-02 2.687306e-02
<VARIANCE> 38
 5.419582e+01 1.327335e+01 4.687301e+00 5.359661e+00 4.324434e+00 3.700166e+00 2.481773e+00 2.134593e+00 2.076663e+00 2.382926e+00 1.869474e+00 1.679427e+00 1.401122e+00 1.149403e+00 1.207557e+00 9.568525e-01 9.531358e-01 7.614101e-01 7.791099e-01 2.478000e+00 4.823852e-01 2.073560e-01 2.903975e-01 1.604216e-01 1.855777e-01 1.041848e-01 8.783201e-02 1.136903e-01 1.042883e-01 1.079122e-01 6.900834e-02 5.983420e-02 6.243503e-02 4.537579e-02 5.345275e-02 3.741428e-02 3.652380e-02 4.114479e-02
<GCONST> 4.530333e+01
<TRANSP> 5
 0.000000e+00 1.000000e+00 0.000000e+00 0.000000e+00 0.000000e+00
 0.000000e+00 9.192265e-01 8.077346e-02 0.000000e+00 0.000000e+00
 0.000000e+00 0.000000e+00 9.459035e-01 5.409654e-02 0.000000e+00
 0.000000e+00 0.000000e+00 0.000000e+00 9.412650e-01 5.873503e-02
 0.000000e+00 0.000000e+00 0.000000e+00 0.000000e+00 0.000000e+00
<ENDHMM>
~h "four"
<BEGINHMM>
<NUMSTATES> 5
<STATE> 2
<MEAN> 38
 -6.788743e+00 -9.628494e-01 -1.474146e-01 -2.272412e+00 4.692290e-01 -1.934594e+00 -4.903935e-01 -3.400583e-01 -1.115637e+00 1.521652e-01 -1.131924e+00 -9.784826e-02 -4.475044e-01 -8.583493e-01 8.664981e-02 -7.701966e-01 1.233164e-01 -2.473384e-01 -4.479948e-01 -6.680234e-01 -3.341836e-01 -1.862092e-01 -2.162581e-01 -1.652573e-01 -3.011605e-01 -2.375445e-01 -1.535222e-01 -1.442661e-01 -8.055983e-02 -9.008080e-02 -5.753496e-02 -4.750789e-02 -2.934491e-02 2.196611e-03 -1.809002e-02 1.228754e-02 -7.890850e-03 -1.626405e-02
<VARIANCE> 38
 5.445688e+01 1.066584e+01 4.867279e+00 7.994366e+00 4.141467e+00 7.255762e+00 3.099382e+00 2.073175e+00 2.437329e+00 1.555051e+00 1.843555e+00 1.091377e+00 8.719856e-01 9.373164e-01 7.877981e-01 8.524437e-01 6.390107e-01 5.394560e-01 5.762320e-01 4.677346e+00 7.466676e-01 3.207198e-01 6.630992e-01 2.399288e-01 6.952525e-01 2.937032e-01 1.864453e-01 2.460869e-01 8.658933e-02 1.878817e-01 7.193076e-02 6.918070e-02 8.070825e-02 3.864302e-02 6.579885e-02 3.115263e-02 3.418322e-02 4.007491e-02
<GCONST> 5.057343e+01
<STATE> 3
<MEAN> 38
 6.197812e+00 4.456558e+00 2.616184e+00 1.753611e+00 2.343917e+00 3.423596e+00 3.586091e+00 2.572297e+00 1.727972e+00 1.380860e+00 1.163654e+00 1.133447e+00 7.115105e-01 1.741868e-01 5.614794e-02 -1.045127e-01 -1.797022e-01 -9.333767e-02 -2.382373e-02 -3.176924e-01 -2.148054e-01 -1.382547e-01 -8.015980e-02 -3.289341e-02 -6.036585e-02 -5.676675e-03 2.754361e-02 4.987473e-02 3.807816e-02 -2.463285e-02 -1.369354e-02 -3.684852e-02 -4.211137e-02 -1.524859e-02 -2.118439e-02 2.007744e-02 2.364378e-02 9.730185e-03
<VARIANCE> 38
 1.651971e+01 5.720807e+00 4.739917e+00 5.008888e+00 4.331119e+00 4.757339e+00 3.589560e+00 4.300638e+00 2.850451e+00 2.103134e+00 2.199825e+00 1.793170e+00 1.617199e+00 1.631809e+00 1.414678e+00 1.246064e+00 1.050870e+00 8.596622e-01 6.782834e-01 8.568381e-01 2.212565e-01 1.378778e-01 1.604304e-01 1.186461e-01 2.349884e-01 2.318361e-01 1.982571e-01 1.580287e-01 8.234797e-02 9.166130e-02 6.101071e-02 5.119980e-02 5.052876e-02 4.041516e-02 4.290974e-02 3.380213e-02 2.880449e-02 2.410116e-02
<GCONST> 4.289182e+01
<STATE> 4
<MEAN> 38
 5.245800e+00 4.596633e+00 2.798977e+00 1.678893e+00 1.537259e+00 1.327551e+00 4.297234e-01 -3.916662e-01 -7.565078e-01 -5.176254e-01 -1.702400e-01 -7.587324e-02 2.604050e-01 4.435274e-01 4.771034e-01 4.852470e-01 2.437297e-01 2.417597e-01 2.906487e-01 2.995547e-01 2.915559e-01 1.969796e-01 7.784989e-02 1.703574e-01 1.799371e-01 1.851126e-01 1.187050e-01 5.138440e-02 7.311596e-02 5.282060e-02 6.807714e-02 4.627644e-02 2.424854e-03 4.074556e-03 -2.385711e-02 -2.864052e-02 -3.333540e-02 -2.479390e-02
<VARIANCE> 38
 1.603303e+01 1.317998e+01 7.804215e+00 5.816477e+00 7.276228e+00 4.303156e+00 4.725494e+00 4.483626e+00 3.116642e+00 2.558591e+00 1.988045e+00 2.005127e+00 1.484029e+00 1.281105e+00 1.462417e+00 1.268980e+00 1.273779e+00 1.006049e+00 8.472990e-01 6.758084e-01 5.431077e-01 2.696800e-01 2.088639e-01 2.427516e-01 1.557904e-01 1.480223e-01 1.542190e-01 1.518671e-01 1.030344e-01 9.787691e-02 8.262540e-02 6.666282e-02 6.213530e-02 7.098320e-02 5.775530e-02 5.609983e-02 4.751975e-02 4.078105e-02
<GCONST> 5.028885e+01
<TRANSP> 5
 0.000000e+00 1.000000e+00 0.000000e+00 0.000000e+00 0.000000e+00
 0.000000e+00 9.167097e-01 8.329032e-02 0.000000e+00 0.000000e+00
 0.000000e+00 0.000000e+00 9.229962e-01 7.700379e-02 0.000000e+00
 0.000000e+00 0.000000e+00 0.000000e+00 9.340293e-01 6.597074e-02
 0.000000e+00 0.000000e+00 0.000000e+00 0.000000e+00 0.000000e+00
<ENDHMM>
~h "zero"
<BEGINHMM>
<NUMSTATES> 5
<STATE> 2
<MEAN> 38
 -2.677863e-09 -8.750526e-08 -1.837286e-08 -1.377954e-07 -6.019516e-08 5.452531e-08 -2.743094e-08 -1.345658e-07 -5.862704e-08 5.558200e-09 -7.760809e-08 -7.311739e-08 -5.190492e-08 -2.412825e-08 -4.690163e-09 2.764782e-08 -2.262112e-08 -3.763905e-09 6.537150e-09 -2.583067e-04 -5.050806e-04 -9.917312e-04 -1.893283e-03 -1.064957e-03 -1.446192e-03 -9.808274e-04 -9.695808e-04 -1.123964e-03 -7.458905e-04 -1.056959e-03 -6.245463e-04 -5.614760e-04 -5.566383e-04 -2.873854e-04 -5.964976e-04 -4.391809e-04 -6.486351e-04 -7.416122e-04
<VARIANCE> 38
 6.382163e+01 1.753741e+01 6.283180e+00 7.247866e+00 6.023103e+00 4.670284e+00 3.942792e+00 3.064118e+00 2.725667e+00 3.248625e+00 2.569027e+00 2.312149e+00 1.622730e+00 1.290844e+00 1.573346e+00 1.140445e+00 1.241779e+00 9.049628e-01 8.315350e-01 2.083264e+00 4.547198e-01 1.931234e-01 2.614486e-01 1.629155e-01 1.602948e-01 1.098788e-01 9.185041e-02 1.084542e-01 9.477346e-02 1.021972e-01 6.968507e-02 5.287778e-02 4.928543e-02 4.486140e-02 4.569504e-02 3.694603e-02 3.210644e-02 3.195568e-02
<GCONST> 4.860181e+01
<STATE> 3
<MEAN> 38
 -2.677863e-09 -8.750526e-08 -1.837286e-08 -1.377954e-07 -6.019516e-08 5.452531e-08 -2.743094e-08 -1.345658e-07 -5.862704e-08 5.558200e-09 -7.760809e-08 -7.311739e-08 -5.190492e-08 -2.412825e-08 -4.690163e-09 2.764782e-08 -2.262112e-08 -3.763905e-09 6.537150e-09 -2.583067e-04 -5.050806e-04 -9.917312e-04 -1.893283e-03 -1.064957e-03 -1.446192e-03 -9.808274e-04 -9.695808e-04 -1.123964e-03 -7.458905e-04 -1.056959e-03 -6.245463e-04 -5.614760e-04 -5.566383e-04 -2.873854e-04 -5.964976e-04 -4.391809e-04 -6.486351e-04 -7.416122e-04
<VARIANCE> 38
 6.382163e+01 1.753741e+01 6.283180e+00 7.247866e+00 6.023103e+00 4.670284e+00 3.942792e+00 3.064118e+00 2.725667e+00 3.248625e+00 2.569027e+00 2.312149e+00 1.622730e+00 1.290844e+00 1.573346e+00 1.140445e+00 1.241779e+00 9.049628e-01 8.315350e-01 2.083264e+00 4.547198e-01 1.931234e-01 2.614486e-01 1.629155e-01 1.602948e-01 1.098788e-01 9.185041e-02 1.084542e-01 9.477346e-02 1.021972e-01 6.968507e-02 5.287778e-02 4.928543e-02 4.486140e-02 4.569504e-02 3.694603e-02 3.210644e-02 3.195568e-02
<GCONST> 4.860181e+01
<STATE> 4
<MEAN> 38
 -2.677863e-09 -8.750526e-08 -1.837286e-08 -1.377954e-07 -6.019516e-08 5.452531e-08 -2.743094e-08 -1.345658e-07 -5.862704e-08 5.558200e-09 -7.760809e-08 -7.311739e-08 -5.190492e-08 -2.412825e-08 -4.690163e-09 2.764782e-08 -2.262112e-08 -3.763905e-09 6.537150e-09 -2.583067e-04 -5.050806e-04 -9.917312e-04 -1.893283e-03 -1.064957e-03 -1.446192e-03 -9.808274e-04 -9.695808e-04 -1.123964e-03 -7.458905e-04 -1.056959e-03 -6.245463e-04 -5.614760e-04 -5.566383e-04 -2.873854e-04 -5.964976e-04 -4.391809e-04 -6.486351e-04 -7.416122e-04
<VARIANCE> 38
 6.382163e+01 1.753741e+01 6.283180e+00 7.247866e+00 6.023103e+00 4.670284e+00 3.942792e+00 3.064118e+00 2.725667e+00 3.248625e+00 2.569027e+00 2.312149e+00 1.622730e+00 1.290844e+00 1.573346e+00 1.140445e+00 1.241779e+00 9.049628e-01 8.315350e-01 2.083264e+00 4.547198e-01 1.931234e-01 2.614486e-01 1.629155e-01 1.602948e-01 1.098788e-01 9.185041e-02 1.084542e-01 9.477346e-02 1.021972e-01 6.968507e-02 5.287778e-02 4.928543e-02 4.486140e-02 4.569504e-02 3.694603e-02 3.210644e-02 3.195568e-02
<GCONST> 4.860181e+01
<TRANSP> 5
 0.000000e+00 1.000000e+00 0.000000e+00 0.000000e+00 0.000000e+00
 0.000000e+00 5.000000e-01 5.000000e-01 0.000000e+00 0.000000e+00
 0.000000e+00 0.000000e+00 5.000000e-01 5.000000e-01 0.000000e+00
 0.000000e+00 0.000000e+00 0.000000e+00 5.000000e-01 5.000000e-01
 0.000000e+00 0.000000e+00 0.000000e+00 0.000000e+00 0.000000e+00
<ENDHMM>
