~o
<STREAMINFO> 1 6
<VECSIZE> 6<NULLD><USER><DIAGC>
~h "proto"
<BEGINHMM>
<NUMSTATES> 12
<STATE> 2
<MEAN> 6
 3.909372e-01 3.173713e-01 1.461401e-02 1.380234e-02 8.425534e-03 -8.536573e-03
<VARIANCE> 6
 2.377716e-03 6.980081e-03 2.895042e-04 5.873082e-04 3.154743e-04 6.316672e-04
<GCONST> -3.099493e+01
<STATE> 3
<MEAN> 6
 4.473007e-01 3.053174e-01 3.102883e-02 7.031849e-04 2.138136e-03 -3.533905e-02
<VARIANCE> 6
 1.289758e-03 7.639777e-03 4.041101e-04 7.226916e-04 6.867916e-04 1.013494e-03
<GCONST> -2.972461e+01
<STATE> 4
<MEAN> 6
 4.865874e-01 2.861195e-01 1.543395e-02 -5.983786e-03 -1.913413e-03 5.401850e-03
<VARIANCE> 6
 1.023760e-03 5.831139e-03 1.790955e-04 8.632389e-04 2.420711e-04 1.078899e-03
<GCONST> -3.184206e+01
<STATE> 5
<MEAN> 6
 5.646135e-01 3.009707e-01 3.513759e-02 2.838322e-03 3.447402e-03 -2.244184e-02
<VARIANCE> 6
 2.799694e-03 4.362764e-03 4.160053e-04 1.126590e-03 6.850497e-04 2.136491e-03
<GCONST> -2.829361e+01
<STATE> 6
<MEAN> 6
 6.266904e-01 2.594485e-01 1.309103e-02 -5.847249e-02 -2.814151e-02 -1.468920e-02
<VARIANCE> 6
 3.960024e-03 3.737802e-03 4.297807e-04 6.568812e-04 5.815029e-04 7.507336e-04
<GCONST> -2.981810e+01
<STATE> 7
<MEAN> 6
 6.264648e-01 1.237205e-01 -2.493291e-02 -3.046452e-02 -1.469759e-02 1.874458e-02
<VARIANCE> 6
 4.014657e-03 4.618380e-03 6.810564e-04 1.175265e-03 9.231418e-04 1.219720e-03
<GCONST> -2.760324e+01
<STATE> 8
<MEAN> 6
 5.191799e-01 1.109228e-01 -2.159573e-02 -7.152137e-04 7.669249e-04 7.873039e-03
<VARIANCE> 6
 2.360945e-03 4.059677e-03 3.982245e-04 4.361726e-04 2.345470e-04 6.094560e-04
<GCONST> -3.185485e+01
<STATE> 9
<MEAN> 6
 4.647118e-01 1.330187e-01 -3.899325e-02 1.377208e-02 2.856649e-02 2.590633e-02
<VARIANCE> 6
 2.734922e-03 6.705775e-03 6.825738e-04 5.978006e-04 5.656429e-04 1.689630e-03
<GCONST> -2.845186e+01
<STATE> 10
<MEAN> 6
 4.046367e-01 2.128481e-01 -1.338635e-02 5.236477e-03 1.491871e-02 -4.090724e-03
<VARIANCE> 6
 5.000023e-03 1.166471e-02 7.036268e-04 1.224775e-03 1.274566e-03 1.230009e-03
<GCONST> -2.605238e+01
<STATE> 11
<MEAN> 6
 4.613996e-01 1.259712e-01 3.403916e-02 6.176213e-04 8.801274e-03 -6.074897e-03
<VARIANCE> 6
 4.012389e-03 5.012865e-03 5.188438e-04 8.224545e-04 1.313429e-03 1.623676e-03
<GCONST> -2.751215e+01
<TRANSP> 12
 0.000000e+00 1.000000e+00 0.000000e+00 0.000000e+00 0.000000e+00 0.000000e+00 0.000000e+00 0.000000e+00 0.000000e+00 0.000000e+00 0.000000e+00 0.000000e+00
 0.000000e+00 9.109088e-01 8.909123e-02 0.000000e+00 0.000000e+00 0.000000e+00 0.000000e+00 0.000000e+00 0.000000e+00 0.000000e+00 0.000000e+00 0.000000e+00
 0.000000e+00 0.000000e+00 0.000000e+00 1.000000e+00 0.000000e+00 0.000000e+00 0.000000e+00 0.000000e+00 0.000000e+00 0.000000e+00 0.000000e+00 0.000000e+00
 0.000000e+00 0.000000e+00 0.000000e+00 9.138741e-01 8.612590e-02 0.000000e+00 0.000000e+00 0.000000e+00 0.000000e+00 0.000000e+00 0.000000e+00 0.000000e+00
 0.000000e+00 0.000000e+00 0.000000e+00 0.000000e+00 8.822101e-01 1.177899e-01 0.000000e+00 0.000000e+00 0.000000e+00 0.000000e+00 0.000000e+00 0.000000e+00
 0.000000e+00 0.000000e+00 0.000000e+00 0.000000e+00 0.000000e+00 8.134744e-01 1.865256e-01 0.000000e+00 0.000000e+00 0.000000e+00 0.000000e+00 0.000000e+00
 0.000000e+00 0.000000e+00 0.000000e+00 0.000000e+00 0.000000e+00 0.000000e+00 8.774396e-01 1.225604e-01 0.000000e+00 0.000000e+00 0.000000e+00 0.000000e+00
 0.000000e+00 0.000000e+00 0.000000e+00 0.000000e+00 0.000000e+00 0.000000e+00 0.000000e+00 9.204935e-01 7.950651e-02 0.000000e+00 0.000000e+00 0.000000e+00
 0.000000e+00 0.000000e+00 0.000000e+00 0.000000e+00 0.000000e+00 0.000000e+00 0.000000e+00 0.000000e+00 0.000000e+00 1.000000e+00 0.000000e+00 0.000000e+00
 0.000000e+00 0.000000e+00 0.000000e+00 0.000000e+00 0.000000e+00 0.000000e+00 0.000000e+00 0.000000e+00 0.000000e+00 9.099511e-01 9.004893e-02 0.000000e+00
 0.000000e+00 0.000000e+00 0.000000e+00 0.000000e+00 0.000000e+00 0.000000e+00 0.000000e+00 0.000000e+00 0.000000e+00 0.000000e+00 8.654436e-01 1.345564e-01
 0.000000e+00 0.000000e+00 0.000000e+00 0.000000e+00 0.000000e+00 0.000000e+00 0.000000e+00 0.000000e+00 0.000000e+00 0.000000e+00 0.000000e+00 0.000000e+00
<ENDHMM>
