~o
<STREAMINFO> 1 7
<VECSIZE> 7<NULLD><USER><DIAGC>
~h "proto"
<BEGINHMM>
<NUMSTATES> 12
<STATE> 2
<MEAN> 7
 3.989293e-01 3.176922e-01 1.746602e-02 1.742920e-02 9.410498e-03 -1.215036e-02 -8.050150e+00
<VARIANCE> 7
 3.784544e-03 7.093648e-03 2.646921e-04 4.254625e-04 2.594638e-04 6.491409e-04 3.809292e+02
<GCONST> -2.331366e+01
<STATE> 3
<MEAN> 7
 4.850566e-01 2.979581e-01 1.692279e-02 -2.775830e-02 -1.048586e-02 -5.797776e-03 -7.247762e+00
<VARIANCE> 7
 3.006363e-03 7.203901e-03 2.837960e-04 2.447875e-04 1.760388e-04 8.707213e-04 7.321617e+02
<GCONST> -2.345238e+01
<STATE> 4
<MEAN> 7
 4.913145e-01 2.479475e-01 7.498375e-03 -1.346084e-02 -4.960757e-03 4.911840e-02 7.954665e+01
<VARIANCE> 7
 3.934899e-03 4.888598e-03 3.044484e-04 1.465152e-04 2.793867e-04 2.193449e-03 1.811123e+04
<GCONST> -1.941988e+01
<STATE> 5
<MEAN> 7
 4.953997e-01 2.433884e-01 5.799891e-03 6.905039e-03 5.730456e-04 4.996091e-02 3.771918e+01
<VARIANCE> 7
 3.879839e-03 4.913444e-03 1.332025e-04 3.493343e-04 9.231413e-04 3.018074e-03 3.600279e+08
<GCONST> -7.974895e+00
<STATE> 6
<MEAN> 7
 5.498719e-01 3.081709e-01 2.620811e-02 5.064302e-03 2.482996e-03 -1.839270e-02 -8.921248e+00
<VARIANCE> 7
 5.177896e-03 6.527344e-03 3.560919e-04 1.292721e-03 5.309252e-04 1.243299e-03 2.569894e+02
<GCONST> -2.070314e+01
<STATE> 7
<MEAN> 7
 6.012845e-01 2.615543e-01 1.304809e-02 -6.660654e-02 -3.205277e-02 -1.419233e-02 -1.456319e+00
<VARIANCE> 7
 7.304222e-03 3.946032e-03 5.237371e-04 1.301758e-03 7.918263e-04 1.171716e-03 3.488336e+00
<GCONST> -2.442880e+01
<STATE> 8
<MEAN> 7
 5.936137e-01 1.578718e-01 -2.158208e-02 -3.748624e-02 -1.422036e-02 1.608770e-02 -3.531912e+00
<VARIANCE> 7
 7.135867e-03 5.379046e-03 4.663301e-04 8.213695e-04 4.937222e-04 6.386295e-04 4.682741e+01
<GCONST> -2.320114e+01
<STATE> 9
<MEAN> 7
 5.159001e-01 1.145319e-01 -1.817909e-02 9.894854e-03 1.527010e-02 1.013631e-02 1.149748e+02
<VARIANCE> 7
 7.030557e-03 4.161414e-03 6.404324e-04 4.038415e-04 4.916717e-04 2.179966e-03 4.413442e+06
<GCONST> -1.118809e+01
<STATE> 10
<MEAN> 7
 4.550768e-01 1.604456e-01 -1.551862e-02 5.957342e-03 1.650273e-03 -1.759660e-03 -1.756327e+00
<VARIANCE> 7
 8.453587e-03 1.034925e-02 4.201117e-04 5.325688e-04 2.961415e-04 5.204893e-04 6.493554e+02
<GCONST> -2.100109e+01
<STATE> 11
<MEAN> 7
 4.489900e-01 1.436615e-01 1.339359e-02 -1.281162e-03 1.395538e-02 1.090680e-03 6.270713e-02
<VARIANCE> 7
 5.665323e-03 4.730769e-03 1.358403e-03 1.126521e-03 1.524772e-03 1.389437e-03 2.723373e+02
<GCONST> -1.850971e+01
<TRANSP> 12
 0.000000e+00 1.000000e+00 0.000000e+00 0.000000e+00 0.000000e+00 0.000000e+00 0.000000e+00 0.000000e+00 0.000000e+00 0.000000e+00 0.000000e+00 0.000000e+00
 0.000000e+00 9.091543e-01 9.084573e-02 0.000000e+00 0.000000e+00 0.000000e+00 0.000000e+00 0.000000e+00 0.000000e+00 0.000000e+00 0.000000e+00 0.000000e+00
 0.000000e+00 0.000000e+00 8.863994e-01 1.136006e-01 0.000000e+00 0.000000e+00 0.000000e+00 0.000000e+00 0.000000e+00 0.000000e+00 0.000000e+00 0.000000e+00
 0.000000e+00 0.000000e+00 0.000000e+00 0.000000e+00 1.000000e+00 0.000000e+00 0.000000e+00 0.000000e+00 0.000000e+00 0.000000e+00 0.000000e+00 0.000000e+00
 0.000000e+00 0.000000e+00 0.000000e+00 0.000000e+00 1.934611e-01 8.065389e-01 0.000000e+00 0.000000e+00 0.000000e+00 0.000000e+00 0.000000e+00 0.000000e+00
 0.000000e+00 0.000000e+00 0.000000e+00 0.000000e+00 0.000000e+00 9.295467e-01 7.045334e-02 0.000000e+00 0.000000e+00 0.000000e+00 0.000000e+00 0.000000e+00
 0.000000e+00 0.000000e+00 0.000000e+00 0.000000e+00 0.000000e+00 0.000000e+00 0.000000e+00 1.000000e+00 0.000000e+00 0.000000e+00 0.000000e+00 0.000000e+00
 0.000000e+00 0.000000e+00 0.000000e+00 0.000000e+00 0.000000e+00 0.000000e+00 0.000000e+00 9.183814e-01 8.161861e-02 0.000000e+00 0.000000e+00 0.000000e+00
 0.000000e+00 0.000000e+00 0.000000e+00 0.000000e+00 0.000000e+00 0.000000e+00 0.000000e+00 0.000000e+00 6.839108e-01 3.160892e-01 0.000000e+00 0.000000e+00
 0.000000e+00 0.000000e+00 0.000000e+00 0.000000e+00 0.000000e+00 0.000000e+00 0.000000e+00 0.000000e+00 0.000000e+00 9.349414e-01 6.505866e-02 0.000000e+00
 0.000000e+00 0.000000e+00 0.000000e+00 0.000000e+00 0.000000e+00 0.000000e+00 0.000000e+00 0.000000e+00 0.000000e+00 0.000000e+00 9.185412e-01 8.145883e-02
 0.000000e+00 0.000000e+00 0.000000e+00 0.000000e+00 0.000000e+00 0.000000e+00 0.000000e+00 0.000000e+00 0.000000e+00 0.000000e+00 0.000000e+00 0.000000e+00
<ENDHMM>
