~o
<STREAMINFO> 1 6
<VECSIZE> 6<NULLD><USER><DIAGC>
~h "proto"
<BEGINHMM>
<NUMSTATES> 12
<STATE> 2
<MEAN> 6
 4.170931e-01 2.336586e-01 1.660521e-02 1.895753e-02 -1.436528e-02 1.107562e-02
<VARIANCE> 6
 3.389345e-03 9.017708e-03 3.388174e-04 4.493192e-04 5.820507e-04 5.515445e-04
<GCONST> -3.001799e+01
<STATE> 3
<MEAN> 6
 3.909554e-01 3.093637e-01 -2.641166e-02 -5.745244e-03 -4.431050e-03 -2.177357e-02
<VARIANCE> 6
 4.533254e-03 1.022513e-02 1.286285e-04 7.005288e-04 1.157785e-03 1.942902e-04
<GCONST> -3.048162e+01
<STATE> 4
<MEAN> 6
 3.197949e-01 2.814425e-01 -7.405212e-03 -5.115646e-02 3.102084e-02 -1.698888e-02
<VARIANCE> 6
 4.958042e-03 6.067813e-03 1.381458e-03 1.095700e-03 2.070747e-03 1.768890e-03
<GCONST> -2.530246e+01
<STATE> 5
<MEAN> 6
 3.511012e-01 1.219306e-01 3.426256e-02 -4.098537e-02 2.708529e-02 1.255852e-02
<VARIANCE> 6
 3.153491e-03 5.812840e-03 1.606289e-03 4.139368e-04 6.528358e-04 1.085058e-03
<GCONST> -2.826360e+01
<STATE> 6
<MEAN> 6
 4.870555e-01 7.822819e-02 6.919781e-02 7.785640e-04 -3.366942e-03 3.166811e-02
<VARIANCE> 6
 3.342015e-03 1.059585e-02 1.348888e-03 4.903696e-04 1.119226e-03 1.086168e-03
<GCONST> -2.707026e+01
<STATE> 7
<MEAN> 6
 6.139305e-01 1.331193e-01 3.607716e-02 5.127676e-02 -3.974985e-02 1.706842e-02
<VARIANCE> 6
 4.475086e-03 6.368805e-03 1.017608e-03 5.252119e-04 1.783159e-03 7.556388e-04
<GCONST> -2.739764e+01
<STATE> 8
<MEAN> 6
 6.373961e-01 2.719682e-01 -3.075351e-02 3.760952e-02 -3.007564e-02 -3.985933e-02
<VARIANCE> 6
 4.718249e-03 6.461885e-03 1.066859e-03 1.351578e-03 2.243593e-03 1.947493e-03
<GCONST> -2.516130e+01
<STATE> 9
<MEAN> 6
 5.470176e-01 2.683397e-01 -3.311272e-02 -8.617288e-03 1.309103e-02 -2.724640e-02
<VARIANCE> 6
 2.492283e-03 1.157231e-02 2.159614e-04 6.851455e-04 6.229766e-04 2.621172e-04
<GCONST> -3.078045e+01
<STATE> 10
<MEAN> 6
 5.187508e-01 2.064191e-01 7.328768e-04 -3.354485e-02 1.258524e-04 1.249167e-02
<VARIANCE> 6
 3.037863e-03 9.282549e-03 3.562809e-04 1.987437e-04 1.590829e-03 3.027294e-04
<GCONST> -3.045842e+01
<STATE> 11
<MEAN> 6
 4.772797e-01 1.643270e-01 -4.543193e-02 -5.470293e-03 -2.205688e-02 6.070928e-03
<VARIANCE> 6
 6.541504e-03 1.106532e-02 8.597334e-04 7.550385e-05 1.413189e-03 1.658617e-04
<GCONST> -3.032274e+01
<TRANSP> 12
 0.000000e+00 1.000000e+00 0.000000e+00 0.000000e+00 0.000000e+00 0.000000e+00 0.000000e+00 0.000000e+00 0.000000e+00 0.000000e+00 0.000000e+00 0.000000e+00
 0.000000e+00 8.784445e-01 1.215555e-01 0.000000e+00 0.000000e+00 0.000000e+00 0.000000e+00 0.000000e+00 0.000000e+00 0.000000e+00 0.000000e+00 0.000000e+00
 0.000000e+00 0.000000e+00 8.936523e-01 1.063477e-01 0.000000e+00 0.000000e+00 0.000000e+00 0.000000e+00 0.000000e+00 0.000000e+00 0.000000e+00 0.000000e+00
 0.000000e+00 0.000000e+00 0.000000e+00 8.097588e-01 1.902411e-01 0.000000e+00 0.000000e+00 0.000000e+00 0.000000e+00 0.000000e+00 0.000000e+00 0.000000e+00
 0.000000e+00 0.000000e+00 0.000000e+00 0.000000e+00 8.791814e-01 1.208186e-01 0.000000e+00 0.000000e+00 0.000000e+00 0.000000e+00 0.000000e+00 0.000000e+00
 0.000000e+00 0.000000e+00 0.000000e+00 0.000000e+00 0.000000e+00 8.552172e-01 1.447828e-01 0.000000e+00 0.000000e+00 0.000000e+00 0.000000e+00 0.000000e+00
 0.000000e+00 0.000000e+00 0.000000e+00 0.000000e+00 0.000000e+00 0.000000e+00 8.546643e-01 1.453357e-01 0.000000e+00 0.000000e+00 0.000000e+00 0.000000e+00
 0.000000e+00 0.000000e+00 0.000000e+00 0.000000e+00 0.000000e+00 0.000000e+00 0.000000e+00 8.102787e-01 1.897213e-01 0.000000e+00 0.000000e+00 0.000000e+00
 0.000000e+00 0.000000e+00 0.000000e+00 0.000000e+00 0.000000e+00 0.000000e+00 0.000000e+00 0.000000e+00 8.439203e-01 1.560798e-01 0.000000e+00 0.000000e+00
 0.000000e+00 0.000000e+00 0.000000e+00 0.000000e+00 0.000000e+00 0.000000e+00 0.000000e+00 0.000000e+00 0.000000e+00 8.634316e-01 1.365684e-01 0.000000e+00
 0.000000e+00 0.000000e+00 0.000000e+00 0.000000e+00 0.000000e+00 0.000000e+00 0.000000e+00 0.000000e+00 0.000000e+00 0.000000e+00 8.422316e-01 1.577684e-01
 0.000000e+00 0.000000e+00 0.000000e+00 0.000000e+00 0.000000e+00 0.000000e+00 0.000000e+00 0.000000e+00 0.000000e+00 0.000000e+00 0.000000e+00 0.000000e+00
<ENDHMM>
