~o
<STREAMINFO> 1 7
<VECSIZE> 7<NULLD><USER><DIAGC>
~h "proto"
<BEGINHMM>
<NUMSTATES> 12
<STATE> 2
<MEAN> 7
 4.222965e-01 2.297083e-01 1.144004e-02 2.074332e-02 -1.767571e-02 6.681564e-03 1.081149e+01
<VARIANCE> 7
 3.081135e-03 6.374333e-03 4.039298e-04 3.885925e-04 6.122101e-04 6.467879e-04 8.921292e+02
<GCONST> -2.158836e+01
<STATE> 3
<MEAN> 7
 3.891649e-01 2.924902e-01 -3.086746e-02 -1.067775e-02 8.929938e-04 -3.058614e-02 1.485764e+01
<VARIANCE> 7
 3.914205e-03 7.679185e-03 2.168557e-04 7.705640e-04 1.416520e-03 5.814272e-04 2.508505e+02
<GCONST> -2.163663e+01
<STATE> 4
<MEAN> 7
 3.345527e-01 1.813001e-01 4.777422e-03 -4.430595e-02 2.451727e-02 -2.776755e-03 1.832738e+00
<VARIANCE> 7
 3.327675e-03 6.726536e-03 5.953211e-04 5.040799e-04 1.154643e-03 6.811799e-04 1.770253e+01
<GCONST> -2.404316e+01
<STATE> 5
<MEAN> 7
 3.963290e-01 1.326732e-01 7.361585e-02 -5.387615e-02 4.999739e-02 3.339759e-02 1.396423e+00
<VARIANCE> 7
 3.897680e-03 5.774487e-03 1.881986e-03 1.031586e-03 1.352634e-03 2.238698e-03 3.104995e+00
<GCONST> -2.256318e+01
<STATE> 6
<MEAN> 7
 4.986110e-01 6.879814e-02 6.008401e-02 7.991200e-03 -8.998943e-03 2.843328e-02 6.772996e+00
<VARIANCE> 7
 5.517457e-03 7.972546e-03 1.170911e-03 4.908134e-04 8.709864e-04 8.769238e-04 3.835055e+01
<GCONST> -2.197408e+01
<STATE> 7
<MEAN> 7
 6.302565e-01 1.580982e-01 4.058329e-02 6.881936e-02 -7.097388e-02 1.748435e-02 3.687576e+00
<VARIANCE> 7
 4.738863e-03 6.402757e-03 2.581149e-03 1.143947e-03 4.921209e-03 3.888800e-03 5.603681e+01
<GCONST> -1.710848e+01
<STATE> 8
<MEAN> 7
 6.161683e-01 2.028280e-01 -1.263864e-02 4.340307e-02 -2.978720e-02 -2.036988e-02 -7.119721e-01
<VARIANCE> 7
 4.573212e-03 8.022623e-03 7.129110e-04 3.385234e-04 3.141155e-04 8.082053e-04 3.410055e+01
<GCONST> -2.424209e+01
<STATE> 9
<MEAN> 7
 5.561097e-01 2.687719e-01 -3.934894e-02 -1.209209e-02 1.666376e-02 -3.903709e-02 2.322524e+01
<VARIANCE> 7
 3.863228e-03 6.633848e-03 3.666371e-04 6.477503e-04 7.749504e-04 7.821511e-04 4.486703e+02
<GCONST> -2.116971e+01
<STATE> 10
<MEAN> 7
 5.091419e-01 1.878382e-01 -8.739294e-03 -2.723218e-02 1.315001e-03 8.194936e-03 6.426914e+00
<VARIANCE> 7
 4.358007e-03 6.495694e-03 5.381563e-04 3.064014e-04 1.020787e-03 2.712852e-04 3.545329e+02
<GCONST> -2.245391e+01
<STATE> 11
<MEAN> 7
 5.005992e-01 1.368512e-01 -4.402323e-02 -7.434159e-03 -3.376964e-02 9.613005e-03 1.122116e+02
<VARIANCE> 7
 6.907880e-03 7.127478e-03 1.216148e-03 1.015418e-04 1.990991e-03 2.315483e-04 5.031618e+05
<GCONST> -1.442203e+01
<TRANSP> 12
 0.000000e+00 1.000000e+00 0.000000e+00 0.000000e+00 0.000000e+00 0.000000e+00 0.000000e+00 0.000000e+00 0.000000e+00 0.000000e+00 0.000000e+00 0.000000e+00
 0.000000e+00 8.791260e-01 1.208740e-01 0.000000e+00 0.000000e+00 0.000000e+00 0.000000e+00 0.000000e+00 0.000000e+00 0.000000e+00 0.000000e+00 0.000000e+00
 0.000000e+00 0.000000e+00 8.812166e-01 1.187834e-01 0.000000e+00 0.000000e+00 0.000000e+00 0.000000e+00 0.000000e+00 0.000000e+00 0.000000e+00 0.000000e+00
 0.000000e+00 0.000000e+00 0.000000e+00 8.769706e-01 1.230294e-01 0.000000e+00 0.000000e+00 0.000000e+00 0.000000e+00 0.000000e+00 0.000000e+00 0.000000e+00
 0.000000e+00 0.000000e+00 0.000000e+00 0.000000e+00 7.460065e-01 2.539935e-01 0.000000e+00 0.000000e+00 0.000000e+00 0.000000e+00 0.000000e+00 0.000000e+00
 0.000000e+00 0.000000e+00 0.000000e+00 0.000000e+00 0.000000e+00 8.734630e-01 1.265370e-01 0.000000e+00 0.000000e+00 0.000000e+00 0.000000e+00 0.000000e+00
 0.000000e+00 0.000000e+00 0.000000e+00 0.000000e+00 0.000000e+00 0.000000e+00 7.066081e-01 2.933919e-01 0.000000e+00 0.000000e+00 0.000000e+00 0.000000e+00
 0.000000e+00 0.000000e+00 0.000000e+00 0.000000e+00 0.000000e+00 0.000000e+00 0.000000e+00 8.427564e-01 1.572436e-01 0.000000e+00 0.000000e+00 0.000000e+00
 0.000000e+00 0.000000e+00 0.000000e+00 0.000000e+00 0.000000e+00 0.000000e+00 0.000000e+00 0.000000e+00 8.221118e-01 1.778881e-01 0.000000e+00 0.000000e+00
 0.000000e+00 0.000000e+00 0.000000e+00 0.000000e+00 0.000000e+00 0.000000e+00 0.000000e+00 0.000000e+00 0.000000e+00 8.949115e-01 1.050885e-01 0.000000e+00
 0.000000e+00 0.000000e+00 0.000000e+00 0.000000e+00 0.000000e+00 0.000000e+00 0.000000e+00 0.000000e+00 0.000000e+00 0.000000e+00 7.690315e-01 2.309685e-01
 0.000000e+00 0.000000e+00 0.000000e+00 0.000000e+00 0.000000e+00 0.000000e+00 0.000000e+00 0.000000e+00 0.000000e+00 0.000000e+00 0.000000e+00 0.000000e+00
<ENDHMM>
