~o
<STREAMINFO> 1 7
<VECSIZE> 7<NULLD><USER><DIAGC>
~h "proto"
<BEGINHMM>
<NUMSTATES> 12
<STATE> 2
<MEAN> 7
 3.948593e-01 2.240026e-01 -9.874932e-03 -4.912818e-02 3.100678e-02 5.797849e-03 -1.395941e-02
<VARIANCE> 7
 4.637897e-03 5.660713e-03 9.167029e-04 5.570145e-04 1.020533e-03 1.865143e-03 1.111972e+02
<GCONST> -2.063075e+01
<STATE> 3
<MEAN> 7
 4.062678e-01 1.514697e-01 2.824017e-02 1.086215e-02 -7.700479e-03 1.969424e-02 1.275023e+01
<VARIANCE> 7
 8.605650e-03 3.697881e-03 5.464406e-04 4.213382e-04 4.859447e-04 9.909156e-04 6.034884e+02
<GCONST> -2.091792e+01
<STATE> 4
<MEAN> 7
 5.036808e-01 1.793552e-01 2.851866e-02 -5.427526e-03 3.805520e-03 5.571996e-05 -8.261545e+00
<VARIANCE> 7
 3.601888e-03 2.170948e-03 3.484432e-04 4.276405e-04 6.437793e-04 1.805944e-03 5.967036e+03
<GCONST> -1.958383e+01
<STATE> 5
<MEAN> 7
 5.383195e-01 1.773236e-01 2.719184e-02 2.678027e-02 -4.416852e-02 5.079518e-02 -2.518933e+03
<VARIANCE> 7
 4.970223e-03 2.785815e-03 5.569738e-04 4.087474e-04 1.689343e-03 4.787385e-03 1.382429e+08
<GCONST> -6.598434e+00
<STATE> 6
<MEAN> 7
 5.345296e-01 2.298302e-01 -2.342224e-02 4.108662e-02 -2.708938e-02 -4.002171e-03 6.673685e+00
<VARIANCE> 7
 5.547808e-03 5.389283e-03 2.196535e-03 1.206875e-03 2.304366e-03 1.720650e-03 1.494829e+02
<GCONST> -1.782397e+01
<STATE> 7
<MEAN> 7
 4.402002e-01 3.220859e-01 -3.753244e-02 9.206748e-03 3.456262e-02 -1.412243e-02 1.241642e+01
<VARIANCE> 7
 3.867243e-03 3.250826e-03 3.787274e-04 1.885000e-04 1.848116e-03 2.251147e-04 1.508501e+03
<GCONST> -2.224765e+01
<STATE> 8
<MEAN> 7
 4.152758e-01 3.137982e-01 4.737160e-03 2.139889e-03 1.122232e-01 -1.412400e-03 2.403629e+03
<VARIANCE> 7
 6.139906e-03 4.949904e-03 1.416731e-04 1.290469e-04 4.879795e-03 2.807570e-04 1.723547e+08
<GCONST> -9.889126e+00
<STATE> 9
<MEAN> 7
 4.227634e-01 3.143521e-01 4.062293e-02 3.072796e-03 1.147800e-01 4.247283e-03 -6.673300e+00
<VARIANCE> 7
 6.025904e-03 4.962036e-03 6.355041e-04 1.073859e-04 4.774259e-03 3.232289e-04 7.458396e+02
<GCONST> -2.081982e+01
<STATE> 10
<MEAN> 7
 5.294061e-01 3.282008e-01 9.263716e-02 7.539000e-03 8.102591e-03 -6.944725e-03 -1.762160e+01
<VARIANCE> 7
 8.540079e-03 4.814061e-03 1.782278e-03 1.130997e-04 4.711773e-03 4.387356e-04 1.181094e+04
<GCONST> -1.636369e+01
<STATE> 11
<MEAN> 7
 6.731449e-01 2.857947e-01 5.749715e-03 -1.679716e-02 -2.659217e-02 1.592042e-02 -1.641218e+01
<VARIANCE> 7
 6.246710e-03 5.245659e-03 1.820403e-03 1.273899e-03 3.330416e-03 2.450657e-03 2.084199e+03
<GCONST> -1.450920e+01
<TRANSP> 12
 0.000000e+00 1.000000e+00 0.000000e+00 0.000000e+00 0.000000e+00 0.000000e+00 0.000000e+00 0.000000e+00 0.000000e+00 0.000000e+00 0.000000e+00 0.000000e+00
 0.000000e+00 8.872610e-01 1.127390e-01 0.000000e+00 0.000000e+00 0.000000e+00 0.000000e+00 0.000000e+00 0.000000e+00 0.000000e+00 0.000000e+00 0.000000e+00
 0.000000e+00 0.000000e+00 8.720485e-01 1.279515e-01 0.000000e+00 0.000000e+00 0.000000e+00 0.000000e+00 0.000000e+00 0.000000e+00 0.000000e+00 0.000000e+00
 0.000000e+00 0.000000e+00 0.000000e+00 8.792746e-01 1.207254e-01 0.000000e+00 0.000000e+00 0.000000e+00 0.000000e+00 0.000000e+00 0.000000e+00 0.000000e+00
 0.000000e+00 0.000000e+00 0.000000e+00 0.000000e+00 9.388334e-02 9.061167e-01 0.000000e+00 0.000000e+00 0.000000e+00 0.000000e+00 0.000000e+00 0.000000e+00
 0.000000e+00 0.000000e+00 0.000000e+00 0.000000e+00 0.000000e+00 9.029037e-01 9.709628e-02 0.000000e+00 0.000000e+00 0.000000e+00 0.000000e+00 0.000000e+00
 0.000000e+00 0.000000e+00 0.000000e+00 0.000000e+00 0.000000e+00 0.000000e+00 8.114127e-01 1.885873e-01 0.000000e+00 0.000000e+00 0.000000e+00 0.000000e+00
 0.000000e+00 0.000000e+00 0.000000e+00 0.000000e+00 0.000000e+00 0.000000e+00 0.000000e+00 0.000000e+00 1.000000e+00 0.000000e+00 0.000000e+00 0.000000e+00
 0.000000e+00 0.000000e+00 0.000000e+00 0.000000e+00 0.000000e+00 0.000000e+00 0.000000e+00 0.000000e+00 0.000000e+00 1.000000e+00 0.000000e+00 0.000000e+00
 0.000000e+00 0.000000e+00 0.000000e+00 0.000000e+00 0.000000e+00 0.000000e+00 0.000000e+00 0.000000e+00 0.000000e+00 8.744116e-01 1.255884e-01 0.000000e+00
 0.000000e+00 0.000000e+00 0.000000e+00 0.000000e+00 0.000000e+00 0.000000e+00 0.000000e+00 0.000000e+00 0.000000e+00 0.000000e+00 9.094490e-01 9.055102e-02
 0.000000e+00 0.000000e+00 0.000000e+00 0.000000e+00 0.000000e+00 0.000000e+00 0.000000e+00 0.000000e+00 0.000000e+00 0.000000e+00 0.000000e+00 0.000000e+00
<ENDHMM>
