~o
<STREAMINFO> 1 6
<VECSIZE> 6<NULLD><USER><DIAGC>
~h "proto"
<BEGINHMM>
<NUMSTATES> 12
<STATE> 2
<MEAN> 6
 4.115684e-01 2.610830e-01 -3.004065e-02 -5.565538e-02 2.672732e-02 -1.799520e-02
<VARIANCE> 6
 3.561976e-03 4.265021e-03 4.040590e-04 6.317109e-04 9.638942e-04 1.224431e-03
<GCONST> -2.889832e+01
<STATE> 3
<MEAN> 6
 3.516289e-01 1.759798e-01 2.050835e-02 -2.638685e-02 2.710980e-02 3.041707e-02
<VARIANCE> 6
 7.995520e-03 2.971862e-03 8.867019e-04 9.335129e-04 1.422836e-03 1.509653e-03
<GCONST> -2.667572e+01
<STATE> 4
<MEAN> 6
 4.619999e-01 1.812865e-01 2.437560e-02 4.902215e-04 9.294927e-04 2.378178e-03
<VARIANCE> 6
 1.459238e-03 1.969357e-03 2.698450e-04 5.648097e-04 5.232903e-04 1.379277e-03
<GCONST> -3.157088e+01
<STATE> 5
<MEAN> 6
 5.608329e-01 1.621062e-01 3.247140e-02 8.671975e-03 -1.026420e-02 2.513270e-02
<VARIANCE> 6
 2.219110e-03 3.445763e-03 4.525079e-04 6.269398e-04 9.084794e-04 1.847786e-03
<GCONST> -2.912687e+01
<STATE> 6
<MEAN> 6
 5.703254e-01 2.384412e-01 -3.038942e-02 6.786735e-02 -6.522982e-02 1.888898e-03
<VARIANCE> 6
 4.039390e-03 4.317755e-03 1.713934e-03 4.419515e-04 1.575213e-03 2.481866e-03
<GCONST> -2.647480e+01
<STATE> 7
<MEAN> 6
 4.869031e-01 3.047085e-01 -5.266614e-02 2.156125e-02 1.445667e-02 -2.603807e-02
<VARIANCE> 6
 3.576054e-03 3.825170e-03 7.594133e-04 3.018643e-04 8.987561e-04 4.346296e-04
<GCONST> -3.021640e+01
<STATE> 8
<MEAN> 6
 4.261086e-01 3.188270e-01 2.861593e-02 3.609669e-03 8.552770e-02 1.652593e-03
<VARIANCE> 6
 3.941338e-03 4.625506e-03 3.558100e-03 1.130355e-04 3.691816e-03 2.598042e-04
<GCONST> -2.846870e+01
<STATE> 9
<MEAN> 6
 5.717694e-01 3.320855e-01 1.054854e-01 9.045255e-03 -1.132325e-02 -9.279945e-03
<VARIANCE> 6
 4.537327e-03 4.170051e-03 1.443227e-03 1.073108e-04 2.567548e-03 2.138396e-04
<GCONST> -2.994372e+01
<STATE> 10
<MEAN> 6
 6.849730e-01 3.258605e-01 4.725406e-02 -2.873806e-02 -6.639898e-02 -3.283826e-02
<VARIANCE> 6
 6.350385e-03 4.301692e-03 1.720191e-03 4.369343e-04 1.554326e-03 5.224135e-04
<GCONST> -2.760554e+01
<STATE> 11
<MEAN> 6
 6.798380e-01 2.573574e-01 -1.409551e-02 -6.250226e-03 -4.759832e-03 4.283323e-02
<VARIANCE> 6
 5.804368e-03 5.473590e-03 9.430930e-04 1.469175e-03 2.911923e-03 1.486500e-03
<GCONST> -2.516938e+01
<TRANSP> 12
 0.000000e+00 1.000000e+00 0.000000e+00 0.000000e+00 0.000000e+00 0.000000e+00 0.000000e+00 0.000000e+00 0.000000e+00 0.000000e+00 0.000000e+00 0.000000e+00
 0.000000e+00 7.839003e-01 2.160998e-01 0.000000e+00 0.000000e+00 0.000000e+00 0.000000e+00 0.000000e+00 0.000000e+00 0.000000e+00 0.000000e+00 0.000000e+00
 0.000000e+00 0.000000e+00 8.276411e-01 1.723589e-01 0.000000e+00 0.000000e+00 0.000000e+00 0.000000e+00 0.000000e+00 0.000000e+00 0.000000e+00 0.000000e+00
 0.000000e+00 0.000000e+00 0.000000e+00 9.039392e-01 9.606078e-02 0.000000e+00 0.000000e+00 0.000000e+00 0.000000e+00 0.000000e+00 0.000000e+00 0.000000e+00
 0.000000e+00 0.000000e+00 0.000000e+00 0.000000e+00 8.651217e-01 1.348784e-01 0.000000e+00 0.000000e+00 0.000000e+00 0.000000e+00 0.000000e+00 0.000000e+00
 0.000000e+00 0.000000e+00 0.000000e+00 0.000000e+00 0.000000e+00 7.929499e-01 2.070501e-01 0.000000e+00 0.000000e+00 0.000000e+00 0.000000e+00 0.000000e+00
 0.000000e+00 0.000000e+00 0.000000e+00 0.000000e+00 0.000000e+00 0.000000e+00 8.223081e-01 1.776920e-01 0.000000e+00 0.000000e+00 0.000000e+00 0.000000e+00
 0.000000e+00 0.000000e+00 0.000000e+00 0.000000e+00 0.000000e+00 0.000000e+00 0.000000e+00 8.425134e-01 1.574866e-01 0.000000e+00 0.000000e+00 0.000000e+00
 0.000000e+00 0.000000e+00 0.000000e+00 0.000000e+00 0.000000e+00 0.000000e+00 0.000000e+00 0.000000e+00 7.790263e-01 2.209737e-01 0.000000e+00 0.000000e+00
 0.000000e+00 0.000000e+00 0.000000e+00 0.000000e+00 0.000000e+00 0.000000e+00 0.000000e+00 0.000000e+00 0.000000e+00 8.018381e-01 1.981619e-01 0.000000e+00
 0.000000e+00 0.000000e+00 0.000000e+00 0.000000e+00 0.000000e+00 0.000000e+00 0.000000e+00 0.000000e+00 0.000000e+00 0.000000e+00 8.589044e-01 1.410956e-01
 0.000000e+00 0.000000e+00 0.000000e+00 0.000000e+00 0.000000e+00 0.000000e+00 0.000000e+00 0.000000e+00 0.000000e+00 0.000000e+00 0.000000e+00 0.000000e+00
<ENDHMM>
