~o
<STREAMINFO> 1 6
<VECSIZE> 6<NULLD><USER><DIAGC>
~h "proto"
<BEGINHMM>
<NUMSTATES> 12
<STATE> 2
<MEAN> 6
 4.181008e-01 2.344327e-01 1.561319e-02 1.924312e-02 -1.483389e-02 1.018663e-02
<VARIANCE> 6
 3.384056e-03 8.960575e-03 3.603999e-04 4.428854e-04 5.783315e-04 5.623524e-04
<GCONST> -2.996558e+01
<STATE> 3
<MEAN> 6
 3.769299e-01 3.061837e-01 -2.674590e-02 -1.226300e-02 -4.811147e-04 -2.257388e-02
<VARIANCE> 6
 5.114176e-03 9.992975e-03 1.888875e-04 7.631159e-04 1.046535e-03 2.770635e-04
<GCONST> -2.966034e+01
<STATE> 4
<MEAN> 6
 3.370680e-01 2.009313e-01 2.319225e-02 -6.526695e-02 5.020227e-02 1.763109e-05
<VARIANCE> 6
 4.464922e-03 6.444599e-03 2.088314e-03 5.718248e-04 1.753915e-03 1.952286e-03
<GCONST> -2.565149e+01
<STATE> 5
<MEAN> 6
 3.794116e-01 1.072992e-01 3.968040e-02 -2.278935e-02 1.233974e-02 1.536178e-02
<VARIANCE> 6
 5.114005e-03 1.301887e-02 1.421464e-03 3.050724e-04 2.480954e-04 9.697137e-04
<GCONST> -2.848110e+01
<STATE> 6
<MEAN> 6
 5.419843e-01 9.525213e-02 7.967807e-02 2.105226e-02 -2.361628e-02 4.382552e-02
<VARIANCE> 6
 4.493797e-03 5.841201e-03 1.016618e-03 9.009370e-04 1.813496e-03 1.145421e-03
<GCONST> -2.650844e+01
<STATE> 7
<MEAN> 6
 6.161299e-01 1.699159e-01 1.828917e-02 4.954546e-02 -3.408774e-02 3.148539e-03
<VARIANCE> 6
 4.749377e-03 1.237364e-02 5.059796e-04 5.705560e-04 1.564264e-03 3.223920e-04
<GCONST> -2.827266e+01
<STATE> 8
<MEAN> 6
 6.334412e-01 2.588549e-01 -4.511856e-02 2.973590e-02 -2.635442e-02 -5.154581e-02
<VARIANCE> 6
 5.729103e-03 5.394953e-03 7.283179e-04 1.657782e-03 2.899817e-03 1.942448e-03
<GCONST> -2.507119e+01
<STATE> 9
<MEAN> 6
 5.446621e-01 2.714756e-01 -3.189902e-02 -9.611858e-03 1.345933e-02 -2.626571e-02
<VARIANCE> 6
 2.527382e-03 1.188021e-02 1.840840e-04 6.552623e-04 5.975664e-04 2.427715e-04
<GCONST> -3.106282e+01
<STATE> 10
<MEAN> 6
 5.193056e-01 2.057121e-01 1.014654e-03 -3.342598e-02 -5.268144e-04 1.286394e-02
<VARIANCE> 6
 2.994276e-03 9.297402e-03 3.538381e-04 1.968513e-04 1.586559e-03 2.976522e-04
<GCONST> -3.050732e+01
<STATE> 11
<MEAN> 6
 4.770691e-01 1.644196e-01 -4.554208e-02 -5.452177e-03 -2.197963e-02 6.029028e-03
<VARIANCE> 6
 6.536709e-03 1.107328e-02 8.564355e-04 7.553685e-05 1.409963e-03 1.653135e-04
<GCONST> -3.033176e+01
<TRANSP> 12
 0.000000e+00 1.000000e+00 0.000000e+00 0.000000e+00 0.000000e+00 0.000000e+00 0.000000e+00 0.000000e+00 0.000000e+00 0.000000e+00 0.000000e+00 0.000000e+00
 0.000000e+00 8.822139e-01 1.177861e-01 0.000000e+00 0.000000e+00 0.000000e+00 0.000000e+00 0.000000e+00 0.000000e+00 0.000000e+00 0.000000e+00 0.000000e+00
 0.000000e+00 0.000000e+00 9.121115e-01 8.788858e-02 0.000000e+00 0.000000e+00 0.000000e+00 0.000000e+00 0.000000e+00 0.000000e+00 0.000000e+00 0.000000e+00
 0.000000e+00 0.000000e+00 0.000000e+00 8.220363e-01 1.779638e-01 0.000000e+00 0.000000e+00 0.000000e+00 0.000000e+00 0.000000e+00 0.000000e+00 0.000000e+00
 0.000000e+00 0.000000e+00 0.000000e+00 0.000000e+00 8.824425e-01 1.175575e-01 0.000000e+00 0.000000e+00 0.000000e+00 0.000000e+00 0.000000e+00 0.000000e+00
 0.000000e+00 0.000000e+00 0.000000e+00 0.000000e+00 0.000000e+00 8.182920e-01 1.817081e-01 0.000000e+00 0.000000e+00 0.000000e+00 0.000000e+00 0.000000e+00
 0.000000e+00 0.000000e+00 0.000000e+00 0.000000e+00 0.000000e+00 0.000000e+00 8.576403e-01 1.423597e-01 0.000000e+00 0.000000e+00 0.000000e+00 0.000000e+00
 0.000000e+00 0.000000e+00 0.000000e+00 0.000000e+00 0.000000e+00 0.000000e+00 0.000000e+00 7.570441e-01 2.429559e-01 0.000000e+00 0.000000e+00 0.000000e+00
 0.000000e+00 0.000000e+00 0.000000e+00 0.000000e+00 0.000000e+00 0.000000e+00 0.000000e+00 0.000000e+00 8.360546e-01 1.639454e-01 0.000000e+00 0.000000e+00
 0.000000e+00 0.000000e+00 0.000000e+00 0.000000e+00 0.000000e+00 0.000000e+00 0.000000e+00 0.000000e+00 0.000000e+00 8.617116e-01 1.382885e-01 0.000000e+00
 0.000000e+00 0.000000e+00 0.000000e+00 0.000000e+00 0.000000e+00 0.000000e+00 0.000000e+00 0.000000e+00 0.000000e+00 0.000000e+00 8.418042e-01 1.581958e-01
 0.000000e+00 0.000000e+00 0.000000e+00 0.000000e+00 0.000000e+00 0.000000e+00 0.000000e+00 0.000000e+00 0.000000e+00 0.000000e+00 0.000000e+00 0.000000e+00
<ENDHMM>
