~o
<STREAMINFO> 1 7
<VECSIZE> 7<NULLD><USER><DIAGC>
~h "proto"
<BEGINHMM>
<NUMSTATES> 12
<STATE> 2
<MEAN> 7
 4.223303e-01 2.297822e-01 1.138058e-02 2.074038e-02 -1.768495e-02 6.626098e-03 1.080450e+01
<VARIANCE> 7
 3.080330e-03 6.378540e-03 4.052341e-04 3.882858e-04 6.119871e-04 6.477387e-04 8.918864e+02
<GCONST> -2.158469e+01
<STATE> 3
<MEAN> 7
 3.888120e-01 2.923247e-01 -3.083840e-02 -1.095530e-02 1.075394e-03 -3.057738e-02 1.481214e+01
<VARIANCE> 7
 3.918584e-03 7.668876e-03 2.169597e-04 7.776103e-04 1.415858e-03 5.848421e-04 2.491587e+02
<GCONST> -2.162865e+01
<STATE> 4
<MEAN> 7
 3.348453e-01 1.806773e-01 5.237790e-03 -4.450316e-02 2.484466e-02 -2.485125e-03 1.795679e+00
<VARIANCE> 7
 3.351588e-03 6.716667e-03 5.976000e-04 5.113104e-04 1.174602e-03 6.785297e-04 1.742890e+01
<GCONST> -2.402175e+01
<STATE> 5
<MEAN> 7
 3.972077e-01 1.317240e-01 7.460218e-02 -5.337907e-02 4.962105e-02 3.394708e-02 1.433652e+00
<VARIANCE> 7
 3.883445e-03 5.684928e-03 1.883556e-03 1.034162e-03 1.343642e-03 2.252649e-03 2.976511e+00
<GCONST> -2.262185e+01
<STATE> 6
<MEAN> 7
 4.991909e-01 6.882818e-02 6.004224e-02 8.210151e-03 -9.215258e-03 2.846676e-02 6.789253e+00
<VARIANCE> 7
 5.540992e-03 7.978071e-03 1.167048e-03 4.922131e-04 8.738016e-04 8.784191e-04 3.837006e+01
<GCONST> -2.196415e+01
<STATE> 7
<MEAN> 7
 6.309218e-01 1.588319e-01 3.994517e-02 6.911700e-02 -7.103303e-02 1.689957e-02 3.594276e+00
<VARIANCE> 7
 4.742128e-03 6.400404e-03 2.567804e-03 1.135303e-03 4.910036e-03 3.878141e-03 5.625946e+01
<GCONST> -1.712198e+01
<STATE> 8
<MEAN> 7
 6.158903e-01 2.030445e-01 -1.282583e-02 4.322371e-02 -2.965418e-02 -2.045730e-02 -6.960090e-01
<VARIANCE> 7
 4.566858e-03 8.026104e-03 7.103076e-04 3.352250e-04 3.117678e-04 8.071068e-04 3.414954e+01
<GCONST> -2.426392e+01
<STATE> 9
<MEAN> 7
 5.560423e-01 2.687878e-01 -3.934003e-02 -1.214637e-02 1.671205e-02 -3.904074e-02 2.325300e+01
<VARIANCE> 7
 3.863388e-03 6.630981e-03 3.666506e-04 6.465605e-04 7.746897e-04 7.822232e-04 4.489661e+02
<GCONST> -2.117149e+01
<STATE> 10
<MEAN> 7
 5.091452e-01 1.878380e-01 -8.738326e-03 -2.723435e-02 1.317377e-03 8.195543e-03 6.424044e+00
<VARIANCE> 7
 4.358226e-03 6.496136e-03 5.381908e-04 3.064713e-04 1.020712e-03 2.712592e-04 3.543923e+02
<GCONST> -2.245407e+01
<STATE> 11
<MEAN> 7
 5.006007e-01 1.368587e-01 -4.401898e-02 -7.434834e-03 -3.377011e-02 9.613696e-03 1.122007e+02
<VARIANCE> 7
 6.907303e-03 7.127677e-03 1.216073e-03 1.015449e-04 1.990826e-03 2.315467e-04 5.030832e+05
<GCONST> -1.442237e+01
<TRANSP> 12
 0.000000e+00 1.000000e+00 0.000000e+00 0.000000e+00 0.000000e+00 0.000000e+00 0.000000e+00 0.000000e+00 0.000000e+00 0.000000e+00 0.000000e+00 0.000000e+00
 0.000000e+00 8.793424e-01 1.206576e-01 0.000000e+00 0.000000e+00 0.000000e+00 0.000000e+00 0.000000e+00 0.000000e+00 0.000000e+00 0.000000e+00 0.000000e+00
 0.000000e+00 0.000000e+00 8.817358e-01 1.182642e-01 0.000000e+00 0.000000e+00 0.000000e+00 0.000000e+00 0.000000e+00 0.000000e+00 0.000000e+00 0.000000e+00
 0.000000e+00 0.000000e+00 0.000000e+00 8.774343e-01 1.225658e-01 0.000000e+00 0.000000e+00 0.000000e+00 0.000000e+00 0.000000e+00 0.000000e+00 0.000000e+00
 0.000000e+00 0.000000e+00 0.000000e+00 0.000000e+00 7.423683e-01 2.576317e-01 0.000000e+00 0.000000e+00 0.000000e+00 0.000000e+00 0.000000e+00 0.000000e+00
 0.000000e+00 0.000000e+00 0.000000e+00 0.000000e+00 0.000000e+00 8.735662e-01 1.264338e-01 0.000000e+00 0.000000e+00 0.000000e+00 0.000000e+00 0.000000e+00
 0.000000e+00 0.000000e+00 0.000000e+00 0.000000e+00 0.000000e+00 0.000000e+00 7.068607e-01 2.931394e-01 0.000000e+00 0.000000e+00 0.000000e+00 0.000000e+00
 0.000000e+00 0.000000e+00 0.000000e+00 0.000000e+00 0.000000e+00 0.000000e+00 0.000000e+00 8.420916e-01 1.579084e-01 0.000000e+00 0.000000e+00 0.000000e+00
 0.000000e+00 0.000000e+00 0.000000e+00 0.000000e+00 0.000000e+00 0.000000e+00 0.000000e+00 0.000000e+00 8.218175e-01 1.781826e-01 0.000000e+00 0.000000e+00
 0.000000e+00 0.000000e+00 0.000000e+00 0.000000e+00 0.000000e+00 0.000000e+00 0.000000e+00 0.000000e+00 0.000000e+00 8.949031e-01 1.050969e-01 0.000000e+00
 0.000000e+00 0.000000e+00 0.000000e+00 0.000000e+00 0.000000e+00 0.000000e+00 0.000000e+00 0.000000e+00 0.000000e+00 0.000000e+00 7.690591e-01 2.309409e-01
 0.000000e+00 0.000000e+00 0.000000e+00 0.000000e+00 0.000000e+00 0.000000e+00 0.000000e+00 0.000000e+00 0.000000e+00 0.000000e+00 0.000000e+00 0.000000e+00
<ENDHMM>
