~o
<STREAMINFO> 1 7
<VECSIZE> 7<NULLD><USER><DIAGC>
~h "proto"
<BEGINHMM>
<NUMSTATES> 12
<STATE> 2
<MEAN> 7
 4.223223e-01 2.297642e-01 1.139440e-02 2.074100e-02 -1.768271e-02 6.639024e-03 1.080605e+01
<VARIANCE> 7
 3.080535e-03 6.377523e-03 4.049340e-04 3.883590e-04 6.120474e-04 6.475251e-04 8.919418e+02
<GCONST> -2.158551e+01
<STATE> 3
<MEAN> 7
 3.888914e-01 2.923587e-01 -3.084471e-02 -1.089541e-02 1.036436e-03 -3.058009e-02 1.482176e+01
<VARIANCE> 7
 3.917722e-03 7.671275e-03 2.169320e-04 7.762302e-04 1.416152e-03 5.841889e-04 2.495461e+02
<GCONST> -2.162982e+01
<STATE> 4
<MEAN> 7
 3.347753e-01 1.808106e-01 5.137678e-03 -4.446203e-02 2.477561e-02 -2.549437e-03 1.803591e+00
<VARIANCE> 7
 3.345703e-03 6.720592e-03 5.970513e-04 5.098709e-04 1.170474e-03 6.789487e-04 1.748608e+01
<GCONST> -2.402628e+01
<STATE> 5
<MEAN> 7
 3.970408e-01 1.319193e-01 7.439591e-02 -5.347017e-02 4.968144e-02 3.383687e-02 1.426716e+00
<VARIANCE> 7
 3.886460e-03 5.701648e-03 1.882879e-03 1.033462e-03 1.345884e-03 2.248825e-03 3.008279e+00
<GCONST> -2.260860e+01
<STATE> 6
<MEAN> 7
 4.991009e-01 6.882295e-02 6.004799e-02 8.175679e-03 -9.178090e-03 2.845967e-02 6.786552e+00
<VARIANCE> 7
 5.536515e-03 7.977287e-03 1.167721e-03 4.919162e-04 8.733355e-04 8.781442e-04 3.836879e+01
<GCONST> -2.196596e+01
<STATE> 7
<MEAN> 7
 6.307997e-01 1.587010e-01 4.006314e-02 6.906576e-02 -7.102947e-02 1.700734e-02 3.611262e+00
<VARIANCE> 7
 4.741820e-03 6.400579e-03 2.570814e-03 1.137043e-03 4.913108e-03 3.880997e-03 5.621926e+01
<GCONST> -1.711867e+01
<STATE> 8
<MEAN> 7
 6.159466e-01 2.030033e-01 -1.278881e-02 4.326010e-02 -2.968112e-02 -2.044017e-02 -6.995808e-01
<VARIANCE> 7
 4.568188e-03 8.025106e-03 7.107473e-04 3.358542e-04 3.122140e-04 8.073210e-04 3.413810e+01
<GCONST> -2.425990e+01
<STATE> 9
<MEAN> 7
 5.560594e-01 2.687834e-01 -3.934432e-02 -1.213023e-02 1.669833e-02 -3.904249e-02 2.324854e+01
<VARIANCE> 7
 3.863571e-03 6.631813e-03 3.666155e-04 6.466503e-04 7.747044e-04 7.821568e-04 4.489103e+02
<GCONST> -2.117146e+01
<STATE> 10
<MEAN> 7
 5.091463e-01 1.878421e-01 -8.738847e-03 -2.723583e-02 1.320251e-03 8.194204e-03 6.423933e+00
<VARIANCE> 7
 4.358168e-03 6.496371e-03 5.381732e-04 3.065070e-04 1.020788e-03 2.712851e-04 3.543580e+02
<GCONST> -2.245389e+01
<STATE> 11
<MEAN> 7
 5.006011e-01 1.368595e-01 -4.401862e-02 -7.434926e-03 -3.377013e-02 9.613848e-03 1.121998e+02
<VARIANCE> 7
 6.907204e-03 7.127753e-03 1.216089e-03 1.015447e-04 1.990793e-03 2.315460e-04 5.030788e+05
<GCONST> -1.442239e+01
<TRANSP> 12
 0.000000e+00 1.000000e+00 0.000000e+00 0.000000e+00 0.000000e+00 0.000000e+00 0.000000e+00 0.000000e+00 0.000000e+00 0.000000e+00 0.000000e+00 0.000000e+00
 0.000000e+00 8.792921e-01 1.207079e-01 0.000000e+00 0.000000e+00 0.000000e+00 0.000000e+00 0.000000e+00 0.000000e+00 0.000000e+00 0.000000e+00 0.000000e+00
 0.000000e+00 0.000000e+00 8.816277e-01 1.183724e-01 0.000000e+00 0.000000e+00 0.000000e+00 0.000000e+00 0.000000e+00 0.000000e+00 0.000000e+00 0.000000e+00
 0.000000e+00 0.000000e+00 0.000000e+00 8.773366e-01 1.226634e-01 0.000000e+00 0.000000e+00 0.000000e+00 0.000000e+00 0.000000e+00 0.000000e+00 0.000000e+00
 0.000000e+00 0.000000e+00 0.000000e+00 0.000000e+00 7.432623e-01 2.567378e-01 0.000000e+00 0.000000e+00 0.000000e+00 0.000000e+00 0.000000e+00 0.000000e+00
 0.000000e+00 0.000000e+00 0.000000e+00 0.000000e+00 0.000000e+00 8.735435e-01 1.264565e-01 0.000000e+00 0.000000e+00 0.000000e+00 0.000000e+00 0.000000e+00
 0.000000e+00 0.000000e+00 0.000000e+00 0.000000e+00 0.000000e+00 0.000000e+00 7.067444e-01 2.932556e-01 0.000000e+00 0.000000e+00 0.000000e+00 0.000000e+00
 0.000000e+00 0.000000e+00 0.000000e+00 0.000000e+00 0.000000e+00 0.000000e+00 0.000000e+00 8.422107e-01 1.577894e-01 0.000000e+00 0.000000e+00 0.000000e+00
 0.000000e+00 0.000000e+00 0.000000e+00 0.000000e+00 0.000000e+00 0.000000e+00 0.000000e+00 0.000000e+00 8.218663e-01 1.781338e-01 0.000000e+00 0.000000e+00
 0.000000e+00 0.000000e+00 0.000000e+00 0.000000e+00 0.000000e+00 0.000000e+00 0.000000e+00 0.000000e+00 0.000000e+00 8.949085e-01 1.050916e-01 0.000000e+00
 0.000000e+00 0.000000e+00 0.000000e+00 0.000000e+00 0.000000e+00 0.000000e+00 0.000000e+00 0.000000e+00 0.000000e+00 0.000000e+00 7.690638e-01 2.309362e-01
 0.000000e+00 0.000000e+00 0.000000e+00 0.000000e+00 0.000000e+00 0.000000e+00 0.000000e+00 0.000000e+00 0.000000e+00 0.000000e+00 0.000000e+00 0.000000e+00
<ENDHMM>
