~o
<STREAMINFO> 1 6
<VECSIZE> 6<NULLD><USER><DIAGC>
~h "proto"
<BEGINHMM>
<NUMSTATES> 12
<STATE> 2
<MEAN> 6
 4.179748e-01 2.341387e-01 1.572060e-02 1.919622e-02 -1.476733e-02 1.029715e-02
<VARIANCE> 6
 3.381809e-03 8.956142e-03 3.582855e-04 4.432706e-04 5.781297e-04 5.604894e-04
<GCONST> -2.997542e+01
<STATE> 3
<MEAN> 6
 3.782135e-01 3.086361e-01 -2.689796e-02 -1.170432e-02 -8.032611e-04 -2.273690e-02
<VARIANCE> 6
 5.119441e-03 9.761264e-03 1.879801e-04 7.696832e-04 1.064424e-03 2.715802e-04
<GCONST> -2.968206e+01
<STATE> 4
<MEAN> 6
 3.343929e-01 2.084433e-01 2.097782e-02 -6.785305e-02 5.326859e-02 -2.272319e-03
<VARIANCE> 6
 4.728547e-03 6.611962e-03 2.256352e-03 6.139613e-04 1.956460e-03 2.206224e-03
<GCONST> -2.518843e+01
<STATE> 5
<MEAN> 6
 3.666871e-01 1.200479e-01 3.515523e-02 -2.716642e-02 1.454401e-02 1.357400e-02
<VARIANCE> 6
 4.348734e-03 1.178846e-02 1.400074e-03 3.153973e-04 2.571814e-04 9.632024e-04
<GCONST> -2.869513e+01
<STATE> 6
<MEAN> 6
 5.225711e-01 8.013670e-02 7.721630e-02 1.286320e-02 -1.520035e-02 3.997075e-02
<VARIANCE> 6
 3.694180e-03 7.936504e-03 1.137900e-03 6.954428e-04 1.565093e-03 1.160072e-03
<GCONST> -2.667863e+01
<STATE> 7
<MEAN> 6
 6.178218e-01 1.505509e-01 2.540545e-02 5.225120e-02 -3.815961e-02 8.477408e-03
<VARIANCE> 6
 4.865233e-03 7.270721e-03 7.062524e-04 5.473088e-04 1.701894e-03 4.434988e-04
<GCONST> -2.808514e+01
<STATE> 8
<MEAN> 6
 6.365839e-01 2.741173e-01 -3.574626e-02 3.436990e-02 -2.850853e-02 -4.392372e-02
<VARIANCE> 6
 4.772585e-03 6.602476e-03 9.830984e-04 1.440250e-03 2.482040e-03 1.997794e-03
<GCONST> -2.502004e+01
<STATE> 9
<MEAN> 6
 5.461015e-01 2.691016e-01 -3.273566e-02 -8.944530e-03 1.323814e-02 -2.693723e-02
<VARIANCE> 6
 2.492184e-03 1.165361e-02 2.044107e-04 6.689465e-04 6.108832e-04 2.563368e-04
<GCONST> -3.089428e+01
<STATE> 10
<MEAN> 6
 5.188729e-01 2.061568e-01 8.082899e-04 -3.353751e-02 -5.261043e-05 1.260724e-02
<VARIANCE> 6
 3.040048e-03 9.276301e-03 3.557730e-04 1.997581e-04 1.597257e-03 3.011877e-04
<GCONST> -3.045578e+01
<STATE> 11
<MEAN> 6
 4.771765e-01 1.643655e-01 -4.548591e-02 -5.460109e-03 -2.200298e-02 6.045802e-03
<VARIANCE> 6
 6.537896e-03 1.107196e-02 8.582707e-04 7.548938e-05 1.410299e-03 1.654508e-04
<GCONST> -3.032912e+01
<TRANSP> 12
 0.000000e+00 1.000000e+00 0.000000e+00 0.000000e+00 0.000000e+00 0.000000e+00 0.000000e+00 0.000000e+00 0.000000e+00 0.000000e+00 0.000000e+00 0.000000e+00
 0.000000e+00 8.817844e-01 1.182157e-01 0.000000e+00 0.000000e+00 0.000000e+00 0.000000e+00 0.000000e+00 0.000000e+00 0.000000e+00 0.000000e+00 0.000000e+00
 0.000000e+00 0.000000e+00 9.104931e-01 8.950692e-02 0.000000e+00 0.000000e+00 0.000000e+00 0.000000e+00 0.000000e+00 0.000000e+00 0.000000e+00 0.000000e+00
 0.000000e+00 0.000000e+00 0.000000e+00 7.915773e-01 2.084228e-01 0.000000e+00 0.000000e+00 0.000000e+00 0.000000e+00 0.000000e+00 0.000000e+00 0.000000e+00
 0.000000e+00 0.000000e+00 0.000000e+00 0.000000e+00 8.854685e-01 1.145314e-01 0.000000e+00 0.000000e+00 0.000000e+00 0.000000e+00 0.000000e+00 0.000000e+00
 0.000000e+00 0.000000e+00 0.000000e+00 0.000000e+00 0.000000e+00 8.302922e-01 1.697079e-01 0.000000e+00 0.000000e+00 0.000000e+00 0.000000e+00 0.000000e+00
 0.000000e+00 0.000000e+00 0.000000e+00 0.000000e+00 0.000000e+00 0.000000e+00 8.469627e-01 1.530373e-01 0.000000e+00 0.000000e+00 0.000000e+00 0.000000e+00
 0.000000e+00 0.000000e+00 0.000000e+00 0.000000e+00 0.000000e+00 0.000000e+00 0.000000e+00 7.908218e-01 2.091782e-01 0.000000e+00 0.000000e+00 0.000000e+00
 0.000000e+00 0.000000e+00 0.000000e+00 0.000000e+00 0.000000e+00 0.000000e+00 0.000000e+00 0.000000e+00 8.410479e-01 1.589521e-01 0.000000e+00 0.000000e+00
 0.000000e+00 0.000000e+00 0.000000e+00 0.000000e+00 0.000000e+00 0.000000e+00 0.000000e+00 0.000000e+00 0.000000e+00 8.630287e-01 1.369713e-01 0.000000e+00
 0.000000e+00 0.000000e+00 0.000000e+00 0.000000e+00 0.000000e+00 0.000000e+00 0.000000e+00 0.000000e+00 0.000000e+00 0.000000e+00 8.420063e-01 1.579938e-01
 0.000000e+00 0.000000e+00 0.000000e+00 0.000000e+00 0.000000e+00 0.000000e+00 0.000000e+00 0.000000e+00 0.000000e+00 0.000000e+00 0.000000e+00 0.000000e+00
<ENDHMM>
