~o
<STREAMINFO> 1 6
<VECSIZE> 6<NULLD><USER><DIAGC>
~h "proto"
<BEGINHMM>
<NUMSTATES> 12
<STATE> 2
<MEAN> 6
 3.633397e-01 3.027174e-01 1.486651e-02 1.976821e-02 2.515135e-02 -1.477570e-02
<VARIANCE> 6
 4.100208e-03 6.582398e-03 6.849577e-04 3.914027e-04 1.015046e-03 1.171130e-03
<GCONST> -2.826735e+01
<STATE> 3
<MEAN> 6
 4.260256e-01 3.100012e-01 1.270016e-02 -4.140475e-02 -3.760191e-02 -4.696594e-02
<VARIANCE> 6
 2.775096e-03 4.750169e-03 6.243092e-04 1.029698e-03 7.961398e-04 1.462561e-03
<GCONST> -2.813004e+01
<STATE> 4
<MEAN> 6
 3.793922e-01 1.988574e-01 -1.680989e-02 -4.857541e-02 1.353180e-02 1.006621e-02
<VARIANCE> 6
 4.540547e-03 4.574150e-03 2.870762e-04 5.355066e-04 1.123811e-03 6.750149e-04
<GCONST> -2.953464e+01
<STATE> 5
<MEAN> 6
 3.883386e-01 1.228785e-01 3.277552e-02 -6.048227e-03 1.422700e-02 3.331410e-02
<VARIANCE> 6
 3.019456e-03 4.819077e-03 3.452480e-04 9.521146e-04 1.415586e-03 2.052851e-03
<GCONST> -2.778740e+01
<STATE> 6
<MEAN> 6
 4.716259e-01 1.825663e-01 1.921376e-02 4.269027e-03 2.007466e-03 -7.441247e-03
<VARIANCE> 6
 1.602624e-03 3.107048e-03 4.175678e-04 9.026646e-04 8.329086e-04 1.694341e-03
<GCONST> -2.944521e+01
<STATE> 7
<MEAN> 6
 5.786937e-01 1.479161e-01 3.294593e-02 1.946518e-02 -2.122764e-02 3.858688e-02
<VARIANCE> 6
 3.690285e-03 4.405511e-03 8.723889e-04 1.645185e-03 2.376530e-03 2.918371e-03
<GCONST> -2.533271e+01
<STATE> 8
<MEAN> 6
 5.553569e-01 2.799670e-01 -3.033091e-02 6.130735e-02 -1.148134e-03 -3.684494e-02
<VARIANCE> 6
 4.450506e-03 4.801886e-03 5.561921e-04 8.825574e-04 4.093347e-03 1.243078e-03
<GCONST> -2.644186e+01
<STATE> 9
<MEAN> 6
 5.491805e-01 3.233268e-01 5.620594e-02 8.250036e-03 5.954129e-02 -1.491025e-02
<VARIANCE> 6
 4.727087e-03 5.859477e-03 2.371232e-03 1.121548e-04 3.851044e-03 4.932279e-04
<GCONST> -2.778080e+01
<STATE> 10
<MEAN> 6
 6.963394e-01 3.192594e-01 5.462835e-02 -2.915557e-02 -6.297574e-02 -3.534517e-02
<VARIANCE> 6
 4.853223e-03 4.872574e-03 2.072317e-03 7.309571e-04 1.673960e-03 1.064400e-03
<GCONST> -2.626313e+01
<STATE> 11
<MEAN> 6
 6.863492e-01 2.519257e-01 -1.599389e-02 -9.215267e-03 -9.756780e-03 5.529127e-02
<VARIANCE> 6
 5.380608e-03 3.684274e-03 1.067094e-03 2.095944e-03 4.890758e-03 2.055721e-03
<GCONST> -2.431948e+01
<TRANSP> 12
 0.000000e+00 1.000000e+00 0.000000e+00 0.000000e+00 0.000000e+00 0.000000e+00 0.000000e+00 0.000000e+00 0.000000e+00 0.000000e+00 0.000000e+00 0.000000e+00
 0.000000e+00 8.304915e-01 1.695085e-01 0.000000e+00 0.000000e+00 0.000000e+00 0.000000e+00 0.000000e+00 0.000000e+00 0.000000e+00 0.000000e+00 0.000000e+00
 0.000000e+00 0.000000e+00 7.871469e-01 2.128531e-01 0.000000e+00 0.000000e+00 0.000000e+00 0.000000e+00 0.000000e+00 0.000000e+00 0.000000e+00 0.000000e+00
 0.000000e+00 0.000000e+00 0.000000e+00 8.547065e-01 1.452935e-01 0.000000e+00 0.000000e+00 0.000000e+00 0.000000e+00 0.000000e+00 0.000000e+00 0.000000e+00
 0.000000e+00 0.000000e+00 0.000000e+00 0.000000e+00 8.495939e-01 1.504061e-01 0.000000e+00 0.000000e+00 0.000000e+00 0.000000e+00 0.000000e+00 0.000000e+00
 0.000000e+00 0.000000e+00 0.000000e+00 0.000000e+00 0.000000e+00 9.048868e-01 9.511315e-02 0.000000e+00 0.000000e+00 0.000000e+00 0.000000e+00 0.000000e+00
 0.000000e+00 0.000000e+00 0.000000e+00 0.000000e+00 0.000000e+00 0.000000e+00 8.785107e-01 1.214893e-01 0.000000e+00 0.000000e+00 0.000000e+00 0.000000e+00
 0.000000e+00 0.000000e+00 0.000000e+00 0.000000e+00 0.000000e+00 0.000000e+00 0.000000e+00 8.158860e-01 1.841140e-01 0.000000e+00 0.000000e+00 0.000000e+00
 0.000000e+00 0.000000e+00 0.000000e+00 0.000000e+00 0.000000e+00 0.000000e+00 0.000000e+00 0.000000e+00 8.358524e-01 1.641476e-01 0.000000e+00 0.000000e+00
 0.000000e+00 0.000000e+00 0.000000e+00 0.000000e+00 0.000000e+00 0.000000e+00 0.000000e+00 0.000000e+00 0.000000e+00 8.024576e-01 1.975424e-01 0.000000e+00
 0.000000e+00 0.000000e+00 0.000000e+00 0.000000e+00 0.000000e+00 0.000000e+00 0.000000e+00 0.000000e+00 0.000000e+00 0.000000e+00 8.217190e-01 1.782810e-01
 0.000000e+00 0.000000e+00 0.000000e+00 0.000000e+00 0.000000e+00 0.000000e+00 0.000000e+00 0.000000e+00 0.000000e+00 0.000000e+00 0.000000e+00 0.000000e+00
<ENDHMM>
