~o
<STREAMINFO> 1 7
<VECSIZE> 7<NULLD><USER><DIAGC>
~h "proto"
<BEGINHMM>
<NUMSTATES> 12
<STATE> 2
<MEAN> 7
 3.788738e-01 3.044681e-01 1.734854e-02 3.425567e-03 2.751423e-03 -2.853043e-02 -2.455152e+01
<VARIANCE> 7
 4.447746e-03 6.574183e-03 6.635921e-04 1.034635e-03 1.808153e-03 1.775351e-03 1.931366e+03
<GCONST> -1.684960e+01
<STATE> 3
<MEAN> 7
 3.867306e-01 2.207031e-01 -1.521931e-02 -5.075523e-02 1.291770e-03 2.095320e-03 -1.890655e+00
<VARIANCE> 7
 4.819733e-03 6.344474e-03 2.806828e-04 6.609249e-04 1.101540e-03 5.326333e-04 2.747262e+01
<GCONST> -2.406576e+01
<STATE> 4
<MEAN> 7
 4.187415e-01 1.330707e-01 3.156876e-02 -7.160533e-04 7.683933e-03 3.442196e-02 7.598116e+00
<VARIANCE> 7
 5.319989e-03 5.519771e-03 4.161510e-04 1.101906e-03 1.593108e-03 1.684546e-03 5.838123e+02
<GCONST> -1.862449e+01
<STATE> 5
<MEAN> 7
 4.737442e-01 1.809829e-01 4.889397e-03 3.057431e-02 -1.257270e-02 -2.285457e-02 -1.493796e+01
<VARIANCE> 7
 3.138891e-03 5.708068e-03 3.447900e-04 3.152937e-04 4.361487e-04 1.061459e-03 9.175144e+03
<GCONST> -1.956059e+01
<STATE> 6
<MEAN> 7
 4.733430e-01 2.133207e-01 7.252239e-03 -3.938958e-03 1.068942e-02 -6.533886e-02 -8.376813e+02
<VARIANCE> 7
 3.546444e-03 4.179372e-03 1.825567e-04 1.522544e-04 6.850516e-04 1.289839e-03 6.201664e+08
<GCONST> -9.346430e+00
<STATE> 7
<MEAN> 7
 5.212919e-01 1.746589e-01 3.121817e-02 3.645368e-03 -4.886959e-03 2.762208e-02 1.363200e+01
<VARIANCE> 7
 5.648741e-03 2.714435e-03 7.255718e-04 1.611426e-03 2.398583e-03 2.312898e-03 6.629911e+02
<GCONST> -1.748491e+01
<STATE> 8
<MEAN> 7
 5.430670e-01 2.900395e-01 -2.805930e-02 5.521909e-02 2.669526e-03 -3.106199e-02 2.512798e+01
<VARIANCE> 7
 4.514433e-03 4.202941e-03 8.053201e-04 9.666304e-04 3.445567e-03 1.051183e-03 9.978211e+03
<GCONST> -1.539362e+01
<STATE> 9
<MEAN> 7
 5.206779e-01 3.106459e-01 1.119508e-02 1.576889e-02 9.800691e-02 -3.384200e-02 8.449753e+02
<VARIANCE> 7
 4.770180e-03 6.135457e-03 4.415931e-04 1.662352e-04 6.227404e-03 1.034346e-03 1.205914e+07
<GCONST> -9.648581e+00
<STATE> 10
<MEAN> 7
 5.865160e-01 3.335996e-01 7.564566e-02 3.145464e-03 2.059786e-02 -1.625454e-02 -1.863380e+01
<VARIANCE> 7
 7.017147e-03 4.427553e-03 1.739698e-03 1.383312e-04 5.594734e-03 5.299321e-04 1.632264e+04
<GCONST> -1.578245e+01
<STATE> 11
<MEAN> 7
 6.845347e-01 2.703641e-01 6.245479e-03 -1.800274e-02 -2.542455e-02 1.942661e-02 -1.302902e+01
<VARIANCE> 7
 5.961658e-03 6.843556e-03 1.891473e-03 1.882217e-03 4.267102e-03 3.551243e-03 2.367520e+03
<GCONST> -1.311510e+01
<TRANSP> 12
 0.000000e+00 1.000000e+00 0.000000e+00 0.000000e+00 0.000000e+00 0.000000e+00 0.000000e+00 0.000000e+00 0.000000e+00 0.000000e+00 0.000000e+00 0.000000e+00
 0.000000e+00 8.942657e-01 1.057343e-01 0.000000e+00 0.000000e+00 0.000000e+00 0.000000e+00 0.000000e+00 0.000000e+00 0.000000e+00 0.000000e+00 0.000000e+00
 0.000000e+00 0.000000e+00 8.832074e-01 1.167926e-01 0.000000e+00 0.000000e+00 0.000000e+00 0.000000e+00 0.000000e+00 0.000000e+00 0.000000e+00 0.000000e+00
 0.000000e+00 0.000000e+00 0.000000e+00 8.947687e-01 1.052313e-01 0.000000e+00 0.000000e+00 0.000000e+00 0.000000e+00 0.000000e+00 0.000000e+00 0.000000e+00
 0.000000e+00 0.000000e+00 0.000000e+00 0.000000e+00 7.999684e-01 2.000317e-01 0.000000e+00 0.000000e+00 0.000000e+00 0.000000e+00 0.000000e+00 0.000000e+00
 0.000000e+00 0.000000e+00 0.000000e+00 0.000000e+00 0.000000e+00 0.000000e+00 1.000000e+00 0.000000e+00 0.000000e+00 0.000000e+00 0.000000e+00 0.000000e+00
 0.000000e+00 0.000000e+00 0.000000e+00 0.000000e+00 0.000000e+00 0.000000e+00 9.073142e-01 9.268582e-02 0.000000e+00 0.000000e+00 0.000000e+00 0.000000e+00
 0.000000e+00 0.000000e+00 0.000000e+00 0.000000e+00 0.000000e+00 0.000000e+00 0.000000e+00 8.249912e-01 1.750088e-01 0.000000e+00 0.000000e+00 0.000000e+00
 0.000000e+00 0.000000e+00 0.000000e+00 0.000000e+00 0.000000e+00 0.000000e+00 0.000000e+00 0.000000e+00 0.000000e+00 1.000000e+00 0.000000e+00 0.000000e+00
 0.000000e+00 0.000000e+00 0.000000e+00 0.000000e+00 0.000000e+00 0.000000e+00 0.000000e+00 0.000000e+00 0.000000e+00 8.403235e-01 1.596765e-01 0.000000e+00
 0.000000e+00 0.000000e+00 0.000000e+00 0.000000e+00 0.000000e+00 0.000000e+00 0.000000e+00 0.000000e+00 0.000000e+00 0.000000e+00 8.986104e-01 1.013896e-01
 0.000000e+00 0.000000e+00 0.000000e+00 0.000000e+00 0.000000e+00 0.000000e+00 0.000000e+00 0.000000e+00 0.000000e+00 0.000000e+00 0.000000e+00 0.000000e+00
<ENDHMM>
