~o
<STREAMINFO> 1 7
<VECSIZE> 7<NULLD><USER><DIAGC>
~h "proto"
<BEGINHMM>
<NUMSTATES> 12
<STATE> 2
<MEAN> 7
 3.948502e-01 2.238944e-01 -9.818186e-03 -4.909521e-02 3.100058e-02 5.852196e-03 -1.336589e-02
<VARIANCE> 7
 4.640432e-03 5.667129e-03 9.183866e-04 5.571694e-04 1.019505e-03 1.866237e-03 1.112400e+02
<GCONST> -2.062699e+01
<STATE> 3
<MEAN> 7
 4.065542e-01 1.515779e-01 2.821204e-02 1.095365e-02 -7.781304e-03 1.958924e-02 1.273423e+01
<VARIANCE> 7
 8.611819e-03 3.692413e-03 5.456639e-04 4.194312e-04 4.842213e-04 9.901073e-04 6.051531e+02
<GCONST> -2.092626e+01
<STATE> 4
<MEAN> 7
 5.036805e-01 1.793476e-01 2.853440e-02 -5.519612e-03 3.884116e-03 3.670645e-05 -8.315579e+00
<VARIANCE> 7
 3.604156e-03 2.174379e-03 3.489229e-04 4.261133e-04 6.427487e-04 1.808221e-03 5.982007e+03
<GCONST> -1.958167e+01
<STATE> 5
<MEAN> 7
 5.383202e-01 1.773009e-01 2.723203e-02 2.673742e-02 -4.416769e-02 5.082701e-02 -2.517236e+03
<VARIANCE> 7
 4.967747e-03 2.785332e-03 5.571996e-04 4.079178e-04 1.688411e-03 4.784839e-03 1.381610e+08
<GCONST> -6.602407e+00
<STATE> 6
<MEAN> 7
 5.345514e-01 2.298072e-01 -2.340581e-02 4.108840e-02 -2.709912e-02 -3.985314e-03 6.679838e+00
<VARIANCE> 7
 5.547351e-03 5.388581e-03 2.196738e-03 1.206745e-03 2.303989e-03 1.721279e-03 1.496133e+02
<GCONST> -1.782312e+01
<STATE> 7
<MEAN> 7
 4.402111e-01 3.220815e-01 -3.753712e-02 9.211461e-03 3.455632e-02 -1.412544e-02 1.241455e+01
<VARIANCE> 7
 3.867572e-03 3.250890e-03 3.788506e-04 1.885846e-04 1.848029e-03 2.251413e-04 1.508084e+03
<GCONST> -2.224697e+01
<STATE> 8
<MEAN> 7
 4.152758e-01 3.137981e-01 4.736914e-03 2.139893e-03 1.122231e-01 -1.412469e-03 2.403623e+03
<VARIANCE> 7
 6.139932e-03 4.949914e-03 1.416755e-04 1.290459e-04 4.879820e-03 2.807598e-04 1.723547e+08
<GCONST> -9.889093e+00
<STATE> 9
<MEAN> 7
 4.227633e-01 3.143521e-01 4.062274e-02 3.072781e-03 1.147801e-01 4.247210e-03 -6.673183e+00
<VARIANCE> 7
 6.025937e-03 4.962043e-03 6.355141e-04 1.073835e-04 4.774260e-03 3.232312e-04 7.458566e+02
<GCONST> -2.081979e+01
<STATE> 10
<MEAN> 7
 5.294059e-01 3.282010e-01 9.263716e-02 7.539006e-03 8.102748e-03 -6.944678e-03 -1.762157e+01
<VARIANCE> 7
 8.540101e-03 4.814031e-03 1.782281e-03 1.130989e-04 4.711777e-03 4.387347e-04 1.181095e+04
<GCONST> -1.636370e+01
<STATE> 11
<MEAN> 7
 6.731450e-01 2.857947e-01 5.749793e-03 -1.679717e-02 -2.659219e-02 1.592039e-02 -1.641217e+01
<VARIANCE> 7
 6.246713e-03 5.245657e-03 1.820410e-03 1.273899e-03 3.330420e-03 2.450659e-03 2.084202e+03
<GCONST> -1.450920e+01
<TRANSP> 12
 0.000000e+00 1.000000e+00 0.000000e+00 0.000000e+00 0.000000e+00 0.000000e+00 0.000000e+00 0.000000e+00 0.000000e+00 0.000000e+00 0.000000e+00 0.000000e+00
 0.000000e+00 8.874116e-01 1.125884e-01 0.000000e+00 0.000000e+00 0.000000e+00 0.000000e+00 0.000000e+00 0.000000e+00 0.000000e+00 0.000000e+00 0.000000e+00
 0.000000e+00 0.000000e+00 8.722350e-01 1.277650e-01 0.000000e+00 0.000000e+00 0.000000e+00 0.000000e+00 0.000000e+00 0.000000e+00 0.000000e+00 0.000000e+00
 0.000000e+00 0.000000e+00 0.000000e+00 8.788896e-01 1.211105e-01 0.000000e+00 0.000000e+00 0.000000e+00 0.000000e+00 0.000000e+00 0.000000e+00 0.000000e+00
 0.000000e+00 0.000000e+00 0.000000e+00 0.000000e+00 9.444642e-02 9.055536e-01 0.000000e+00 0.000000e+00 0.000000e+00 0.000000e+00 0.000000e+00 0.000000e+00
 0.000000e+00 0.000000e+00 0.000000e+00 0.000000e+00 0.000000e+00 9.029130e-01 9.708702e-02 0.000000e+00 0.000000e+00 0.000000e+00 0.000000e+00 0.000000e+00
 0.000000e+00 0.000000e+00 0.000000e+00 0.000000e+00 0.000000e+00 0.000000e+00 8.114620e-01 1.885380e-01 0.000000e+00 0.000000e+00 0.000000e+00 0.000000e+00
 0.000000e+00 0.000000e+00 0.000000e+00 0.000000e+00 0.000000e+00 0.000000e+00 0.000000e+00 0.000000e+00 1.000000e+00 0.000000e+00 0.000000e+00 0.000000e+00
 0.000000e+00 0.000000e+00 0.000000e+00 0.000000e+00 0.000000e+00 0.000000e+00 0.000000e+00 0.000000e+00 0.000000e+00 1.000000e+00 0.000000e+00 0.000000e+00
 0.000000e+00 0.000000e+00 0.000000e+00 0.000000e+00 0.000000e+00 0.000000e+00 0.000000e+00 0.000000e+00 0.000000e+00 8.744116e-01 1.255884e-01 0.000000e+00
 0.000000e+00 0.000000e+00 0.000000e+00 0.000000e+00 0.000000e+00 0.000000e+00 0.000000e+00 0.000000e+00 0.000000e+00 0.000000e+00 9.094490e-01 9.055093e-02
 0.000000e+00 0.000000e+00 0.000000e+00 0.000000e+00 0.000000e+00 0.000000e+00 0.000000e+00 0.000000e+00 0.000000e+00 0.000000e+00 0.000000e+00 0.000000e+00
<ENDHMM>
