~o
<STREAMINFO> 1 6
<VECSIZE> 6<NULLD><USER><DIAGC>
~h "proto"
<BEGINHMM>
<NUMSTATES> 12
<STATE> 2
<MEAN> 6
 4.113055e-01 2.601002e-01 -2.950289e-02 -5.595693e-02 2.753191e-02 -1.702647e-02
<VARIANCE> 6
 3.568732e-03 4.284745e-03 4.129991e-04 6.313125e-04 9.988394e-04 1.254341e-03
<GCONST> -2.881081e+01
<STATE> 3
<MEAN> 6
 3.530972e-01 1.739926e-01 2.145152e-02 -2.407532e-02 2.495279e-02 2.979940e-02
<VARIANCE> 6
 7.656258e-03 2.894241e-03 8.571935e-04 9.202510e-04 1.377577e-03 1.513050e-03
<GCONST> -2.682377e+01
<STATE> 4
<MEAN> 6
 4.649960e-01 1.820912e-01 2.429573e-02 4.813192e-04 9.023501e-04 1.931841e-03
<VARIANCE> 6
 1.300912e-03 1.972832e-03 2.681274e-04 5.667042e-04 5.277452e-04 1.375289e-03
<GCONST> -3.168142e+01
<STATE> 5
<MEAN> 6
 5.618255e-01 1.623524e-01 3.225505e-02 9.405963e-03 -1.102797e-02 2.563878e-02
<VARIANCE> 6
 2.213727e-03 3.438995e-03 4.565825e-04 6.462727e-04 9.303266e-04 1.867149e-03
<GCONST> -2.905774e+01
<STATE> 6
<MEAN> 6
 5.661690e-01 2.438107e-01 -3.477036e-02 6.678860e-02 -6.128199e-02 -2.975512e-03
<VARIANCE> 6
 4.242071e-03 4.462625e-03 1.796224e-03 4.487878e-04 1.757149e-03 2.468211e-03
<GCONST> -2.622681e+01
<STATE> 7
<MEAN> 6
 4.778866e-01 3.081765e-01 -4.937593e-02 1.759899e-02 1.891956e-02 -2.300336e-02
<VARIANCE> 6
 3.690516e-03 3.812571e-03 7.027722e-04 2.668046e-04 9.695143e-04 3.735319e-04
<GCONST> -3.046487e+01
<STATE> 8
<MEAN> 6
 4.297233e-01 3.176443e-01 3.916922e-02 4.094006e-03 8.959390e-02 3.370956e-03
<VARIANCE> 6
 4.340987e-03 4.740112e-03 3.464273e-03 1.140589e-04 3.628145e-03 2.407414e-04
<GCONST> -2.845895e+01
<STATE> 9
<MEAN> 6
 5.781141e-01 3.334779e-01 1.044447e-01 8.567643e-03 -1.671585e-02 -1.089246e-02
<VARIANCE> 6
 4.639732e-03 4.094391e-03 1.468565e-03 1.097929e-04 2.326328e-03 2.074019e-04
<GCONST> -3.002867e+01
<STATE> 10
<MEAN> 6
 6.864067e-01 3.246752e-01 4.545254e-02 -2.992778e-02 -6.688029e-02 -3.262392e-02
<VARIANCE> 6
 6.390380e-03 4.321388e-03 1.694054e-03 4.205544e-04 1.569249e-03 5.486106e-04
<GCONST> -2.758973e+01
<STATE> 11
<MEAN> 6
 6.796144e-01 2.571391e-01 -1.419762e-02 -5.917408e-03 -4.303747e-03 4.316247e-02
<VARIANCE> 6
 5.791840e-03 5.481247e-03 9.466604e-04 1.465689e-03 2.897641e-03 1.480440e-03
<GCONST> -2.517774e+01
<TRANSP> 12
 0.000000e+00 1.000000e+00 0.000000e+00 0.000000e+00 0.000000e+00 0.000000e+00 0.000000e+00 0.000000e+00 0.000000e+00 0.000000e+00 0.000000e+00 0.000000e+00
 0.000000e+00 7.884546e-01 2.115454e-01 0.000000e+00 0.000000e+00 0.000000e+00 0.000000e+00 0.000000e+00 0.000000e+00 0.000000e+00 0.000000e+00 0.000000e+00
 0.000000e+00 0.000000e+00 8.351876e-01 1.648124e-01 0.000000e+00 0.000000e+00 0.000000e+00 0.000000e+00 0.000000e+00 0.000000e+00 0.000000e+00 0.000000e+00
 0.000000e+00 0.000000e+00 0.000000e+00 9.013541e-01 9.864586e-02 0.000000e+00 0.000000e+00 0.000000e+00 0.000000e+00 0.000000e+00 0.000000e+00 0.000000e+00
 0.000000e+00 0.000000e+00 0.000000e+00 0.000000e+00 8.653816e-01 1.346184e-01 0.000000e+00 0.000000e+00 0.000000e+00 0.000000e+00 0.000000e+00 0.000000e+00
 0.000000e+00 0.000000e+00 0.000000e+00 0.000000e+00 0.000000e+00 8.042534e-01 1.957466e-01 0.000000e+00 0.000000e+00 0.000000e+00 0.000000e+00 0.000000e+00
 0.000000e+00 0.000000e+00 0.000000e+00 0.000000e+00 0.000000e+00 0.000000e+00 8.306886e-01 1.693114e-01 0.000000e+00 0.000000e+00 0.000000e+00 0.000000e+00
 0.000000e+00 0.000000e+00 0.000000e+00 0.000000e+00 0.000000e+00 0.000000e+00 0.000000e+00 8.313200e-01 1.686800e-01 0.000000e+00 0.000000e+00 0.000000e+00
 0.000000e+00 0.000000e+00 0.000000e+00 0.000000e+00 0.000000e+00 0.000000e+00 0.000000e+00 0.000000e+00 7.753412e-01 2.246589e-01 0.000000e+00 0.000000e+00
 0.000000e+00 0.000000e+00 0.000000e+00 0.000000e+00 0.000000e+00 0.000000e+00 0.000000e+00 0.000000e+00 0.000000e+00 7.973636e-01 2.026365e-01 0.000000e+00
 0.000000e+00 0.000000e+00 0.000000e+00 0.000000e+00 0.000000e+00 0.000000e+00 0.000000e+00 0.000000e+00 0.000000e+00 0.000000e+00 8.577582e-01 1.422418e-01
 0.000000e+00 0.000000e+00 0.000000e+00 0.000000e+00 0.000000e+00 0.000000e+00 0.000000e+00 0.000000e+00 0.000000e+00 0.000000e+00 0.000000e+00 0.000000e+00
<ENDHMM>
