~o
<STREAMINFO> 1 6
<VECSIZE> 6<NULLD><USER><DIAGC>
~h "proto"
<BEGINHMM>
<NUMSTATES> 12
<STATE> 2
<MEAN> 6
 4.350714e-01 2.636614e-01 -2.548859e-03 2.373328e-02 -2.734299e-02 -7.516162e-03
<VARIANCE> 6
 4.922368e-03 4.991231e-03 5.669817e-04 3.004823e-04 5.846446e-04 1.019617e-03
<GCONST> -2.950492e+01
<STATE> 3
<MEAN> 6
 3.700254e-01 2.605477e-01 -1.933081e-02 -2.337674e-02 9.462244e-03 -3.000189e-02
<VARIANCE> 6
 4.596118e-03 4.390048e-03 4.740857e-04 5.866361e-04 2.971807e-04 1.085625e-03
<GCONST> -2.982569e+01
<STATE> 4
<MEAN> 6
 3.776435e-01 1.952994e-01 3.284058e-02 -6.147788e-02 6.599621e-02 1.260203e-02
<VARIANCE> 6
 4.407902e-03 4.019696e-03 1.725206e-03 6.464375e-04 1.720930e-03 1.929058e-03
<GCONST> -2.623570e+01
<STATE> 5
<MEAN> 6
 4.677311e-01 1.266217e-01 6.551719e-02 -8.768314e-04 -8.895115e-03 4.361654e-02
<VARIANCE> 6
 4.004372e-03 2.158981e-03 1.107543e-03 5.875276e-04 1.186082e-03 1.085156e-03
<GCONST> -2.843956e+01
<STATE> 6
<MEAN> 6
 5.712748e-01 1.965088e-01 1.903959e-02 6.388390e-02 -5.900282e-02 1.782785e-02
<VARIANCE> 6
 5.550005e-03 3.815297e-03 1.464154e-03 5.767692e-04 1.297100e-03 2.502971e-03
<GCONST> -2.635788e+01
<STATE> 7
<MEAN> 6
 5.508435e-01 2.514218e-01 -2.618151e-02 5.407320e-02 -8.516884e-03 -4.073044e-02
<VARIANCE> 6
 5.434454e-03 4.558258e-03 6.022332e-04 1.313706e-04 7.369785e-04 6.323878e-04
<GCONST> -3.050986e+01
<STATE> 8
<MEAN> 6
 5.228800e-01 2.730775e-01 -1.347293e-02 2.591443e-02 3.064879e-02 -2.342951e-02
<VARIANCE> 6
 4.444873e-03 4.047380e-03 4.410924e-04 1.579172e-04 1.363881e-03 3.089412e-04
<GCONST> -3.105790e+01
<STATE> 9
<MEAN> 6
 5.838693e-01 2.951111e-01 6.642386e-02 5.118183e-03 2.392349e-02 -8.281283e-03
<VARIANCE> 6
 5.983441e-03 4.553554e-03 9.384074e-04 7.493907e-05 3.096886e-03 1.725144e-04
<GCONST> -3.039590e+01
<STATE> 10
<MEAN> 6
 7.150041e-01 3.027842e-01 3.570668e-02 -2.748942e-02 -5.012664e-02 -2.743399e-02
<VARIANCE> 6
 6.671197e-03 3.435954e-03 1.645695e-03 4.604258e-04 1.365939e-03 5.995166e-04
<GCONST> -2.776440e+01
<STATE> 11
<MEAN> 6
 6.900386e-01 2.308329e-01 -1.204834e-02 -5.022420e-03 -1.615225e-03 3.962009e-02
<VARIANCE> 6
 5.921055e-03 3.458716e-03 1.005890e-03 1.280256e-03 2.629282e-03 1.332858e-03
<GCONST> -2.589289e+01
<TRANSP> 12
 0.000000e+00 1.000000e+00 0.000000e+00 0.000000e+00 0.000000e+00 0.000000e+00 0.000000e+00 0.000000e+00 0.000000e+00 0.000000e+00 0.000000e+00 0.000000e+00
 0.000000e+00 8.624063e-01 1.375937e-01 0.000000e+00 0.000000e+00 0.000000e+00 0.000000e+00 0.000000e+00 0.000000e+00 0.000000e+00 0.000000e+00 0.000000e+00
 0.000000e+00 0.000000e+00 8.610249e-01 1.389752e-01 0.000000e+00 0.000000e+00 0.000000e+00 0.000000e+00 0.000000e+00 0.000000e+00 0.000000e+00 0.000000e+00
 0.000000e+00 0.000000e+00 0.000000e+00 8.080909e-01 1.919091e-01 0.000000e+00 0.000000e+00 0.000000e+00 0.000000e+00 0.000000e+00 0.000000e+00 0.000000e+00
 0.000000e+00 0.000000e+00 0.000000e+00 0.000000e+00 8.258515e-01 1.741485e-01 0.000000e+00 0.000000e+00 0.000000e+00 0.000000e+00 0.000000e+00 0.000000e+00
 0.000000e+00 0.000000e+00 0.000000e+00 0.000000e+00 0.000000e+00 8.078417e-01 1.921584e-01 0.000000e+00 0.000000e+00 0.000000e+00 0.000000e+00 0.000000e+00
 0.000000e+00 0.000000e+00 0.000000e+00 0.000000e+00 0.000000e+00 0.000000e+00 0.000000e+00 1.000000e+00 0.000000e+00 0.000000e+00 0.000000e+00 0.000000e+00
 0.000000e+00 0.000000e+00 0.000000e+00 0.000000e+00 0.000000e+00 0.000000e+00 0.000000e+00 8.082083e-01 1.917917e-01 0.000000e+00 0.000000e+00 0.000000e+00
 0.000000e+00 0.000000e+00 0.000000e+00 0.000000e+00 0.000000e+00 0.000000e+00 0.000000e+00 0.000000e+00 8.601914e-01 1.398086e-01 0.000000e+00 0.000000e+00
 0.000000e+00 0.000000e+00 0.000000e+00 0.000000e+00 0.000000e+00 0.000000e+00 0.000000e+00 0.000000e+00 0.000000e+00 8.130041e-01 1.869959e-01 0.000000e+00
 0.000000e+00 0.000000e+00 0.000000e+00 0.000000e+00 0.000000e+00 0.000000e+00 0.000000e+00 0.000000e+00 0.000000e+00 0.000000e+00 8.630212e-01 1.369788e-01
 0.000000e+00 0.000000e+00 0.000000e+00 0.000000e+00 0.000000e+00 0.000000e+00 0.000000e+00 0.000000e+00 0.000000e+00 0.000000e+00 0.000000e+00 0.000000e+00
<ENDHMM>
