~o
<STREAMINFO> 1 7
<VECSIZE> 7<NULLD><USER><DIAGC>
~h "proto"
<BEGINHMM>
<NUMSTATES> 12
<STATE> 2
<MEAN> 7
 4.276104e-01 2.559955e-01 -6.367207e-05 2.502663e-02 -2.632773e-02 -5.936146e-03 1.063095e+01
<VARIANCE> 7
 4.692615e-03 4.710156e-03 5.699696e-04 4.319962e-04 9.950020e-04 1.354925e-03 2.016301e+03
<GCONST> -1.897944e+01
<STATE> 3
<MEAN> 7
 3.639856e-01 2.700673e-01 -2.275542e-02 -2.464307e-02 1.322362e-02 -3.859761e-02 1.680960e+01
<VARIANCE> 7
 5.573069e-03 4.470941e-03 6.863819e-04 9.563184e-04 1.098759e-03 1.657540e-03 3.382625e+02
<GCONST> -1.936349e+01
<STATE> 4
<MEAN> 7
 3.791024e-01 1.760050e-01 4.182182e-02 -5.486991e-02 5.204246e-02 2.386079e-02 8.432894e-01
<VARIANCE> 7
 4.935072e-03 3.951055e-03 1.646574e-03 8.555246e-04 2.203838e-03 1.542639e-03 1.001314e+01
<GCONST> -2.174079e+01
<STATE> 5
<MEAN> 7
 4.999017e-01 1.313965e-01 6.182215e-02 2.115769e-02 -3.459430e-02 5.398278e-02 1.339883e+01
<VARIANCE> 7
 5.748568e-03 3.250347e-03 1.106646e-03 1.101928e-03 2.127709e-03 2.252918e-03 1.175713e+02
<GCONST> -1.912097e+01
<STATE> 6
<MEAN> 7
 5.550908e-01 2.223245e-01 -8.998238e-03 6.140659e-02 -3.961561e-02 -1.521751e-02 5.017854e-01
<VARIANCE> 7
 5.383359e-03 4.211583e-03 6.730910e-04 6.327367e-04 1.315104e-03 9.456616e-04 1.756097e+01
<GCONST> -2.323009e+01
<STATE> 7
<MEAN> 7
 5.146504e-01 2.794975e-01 -2.303447e-02 2.724592e-02 3.195794e-02 -2.946705e-02 4.515211e+01
<VARIANCE> 7
 4.499526e-03 4.086423e-03 2.799467e-04 2.275556e-04 8.256207e-04 7.591101e-04 5.349146e+03
<GCONST> -2.030580e+01
<STATE> 8
<MEAN> 7
 5.122767e-01 2.924261e-01 6.302037e-03 1.615676e-02 8.853950e-02 -2.658988e-02 5.172303e+03
<VARIANCE> 7
 4.978220e-03 4.247344e-03 1.634014e-04 1.285188e-04 3.428008e-03 7.118899e-04 1.993522e+08
<GCONST> -9.390520e+00
<STATE> 9
<MEAN> 7
 5.529770e-01 2.745250e-01 4.557832e-02 3.720676e-03 3.908937e-02 -1.484708e-02 -3.251539e+01
<VARIANCE> 7
 5.788948e-03 3.313866e-03 1.108274e-03 1.266249e-04 5.863043e-03 3.365227e-04 4.130182e+04
<GCONST> -1.628281e+01
<STATE> 10
<MEAN> 7
 6.070771e-01 3.035215e-01 7.782929e-02 1.920958e-03 8.562059e-03 -9.651916e-03 -1.503695e+00
<VARIANCE> 7
 7.385862e-03 4.068506e-03 1.104500e-03 1.512099e-04 2.802019e-03 2.904113e-04 9.806405e+00
<GCONST> -2.489132e+01
<STATE> 11
<MEAN> 7
 6.960863e-01 2.524717e-01 2.965361e-03 -1.588154e-02 -2.343202e-02 1.552246e-02 -1.792835e+01
<VARIANCE> 7
 5.801017e-03 4.252111e-03 1.419942e-03 1.236759e-03 3.247825e-03 2.606537e-03 3.070961e+03
<GCONST> -1.464708e+01
<TRANSP> 12
 0.000000e+00 1.000000e+00 0.000000e+00 0.000000e+00 0.000000e+00 0.000000e+00 0.000000e+00 0.000000e+00 0.000000e+00 0.000000e+00 0.000000e+00 0.000000e+00
 0.000000e+00 8.556309e-01 1.443691e-01 0.000000e+00 0.000000e+00 0.000000e+00 0.000000e+00 0.000000e+00 0.000000e+00 0.000000e+00 0.000000e+00 0.000000e+00
 0.000000e+00 0.000000e+00 8.526087e-01 1.473913e-01 0.000000e+00 0.000000e+00 0.000000e+00 0.000000e+00 0.000000e+00 0.000000e+00 0.000000e+00 0.000000e+00
 0.000000e+00 0.000000e+00 0.000000e+00 8.435392e-01 1.564608e-01 0.000000e+00 0.000000e+00 0.000000e+00 0.000000e+00 0.000000e+00 0.000000e+00 0.000000e+00
 0.000000e+00 0.000000e+00 0.000000e+00 0.000000e+00 8.403788e-01 1.596213e-01 0.000000e+00 0.000000e+00 0.000000e+00 0.000000e+00 0.000000e+00 0.000000e+00
 0.000000e+00 0.000000e+00 0.000000e+00 0.000000e+00 0.000000e+00 8.090091e-01 1.909909e-01 0.000000e+00 0.000000e+00 0.000000e+00 0.000000e+00 0.000000e+00
 0.000000e+00 0.000000e+00 0.000000e+00 0.000000e+00 0.000000e+00 0.000000e+00 6.725072e-01 3.274928e-01 0.000000e+00 0.000000e+00 0.000000e+00 0.000000e+00
 0.000000e+00 0.000000e+00 0.000000e+00 0.000000e+00 0.000000e+00 0.000000e+00 0.000000e+00 0.000000e+00 1.000000e+00 0.000000e+00 0.000000e+00 0.000000e+00
 0.000000e+00 0.000000e+00 0.000000e+00 0.000000e+00 0.000000e+00 0.000000e+00 0.000000e+00 0.000000e+00 5.361969e-01 4.638031e-01 0.000000e+00 0.000000e+00
 0.000000e+00 0.000000e+00 0.000000e+00 0.000000e+00 0.000000e+00 0.000000e+00 0.000000e+00 0.000000e+00 0.000000e+00 8.332733e-01 1.667267e-01 0.000000e+00
 0.000000e+00 0.000000e+00 0.000000e+00 0.000000e+00 0.000000e+00 0.000000e+00 0.000000e+00 0.000000e+00 0.000000e+00 0.000000e+00 9.105198e-01 8.948021e-02
 0.000000e+00 0.000000e+00 0.000000e+00 0.000000e+00 0.000000e+00 0.000000e+00 0.000000e+00 0.000000e+00 0.000000e+00 0.000000e+00 0.000000e+00 0.000000e+00
<ENDHMM>
