~o
<STREAMINFO> 1 6
<VECSIZE> 6<NULLD><USER><DIAGC>
~h "proto"
<BEGINHMM>
<NUMSTATES> 12
<STATE> 2
<MEAN> 6
 3.583786e-01 2.700590e-01 3.012904e-02 -2.171483e-03 -2.312472e-02 -9.172499e-03
<VARIANCE> 6
 5.907443e-03 5.170338e-03 6.421224e-04 1.830418e-04 9.620074e-04 4.525621e-04
<GCONST> -2.997270e+01
<STATE> 3
<MEAN> 6
 4.042602e-01 2.361619e-01 -1.487962e-02 -4.162809e-02 2.415004e-03 -9.595430e-03
<VARIANCE> 6
 2.536620e-03 4.466434e-03 3.744938e-04 4.039799e-04 2.057673e-03 1.391179e-03
<GCONST> -2.882869e+01
<STATE> 4
<MEAN> 6
 3.824722e-01 1.389388e-01 2.394550e-02 -1.493915e-02 1.886862e-02 2.437135e-02
<VARIANCE> 6
 2.061310e-03 3.989066e-03 4.024316e-04 3.131720e-04 5.536505e-04 7.989518e-04
<GCONST> -3.119928e+01
<STATE> 5
<MEAN> 6
 4.550817e-01 1.913955e-01 2.011603e-02 2.111936e-02 -1.335911e-02 -5.733881e-03
<VARIANCE> 6
 1.474120e-03 5.401399e-03 3.491478e-04 2.622096e-04 3.329405e-04 1.335153e-03
<GCONST> -3.154617e+01
<STATE> 6
<MEAN> 6
 4.960918e-01 1.718047e-01 2.681220e-02 -2.027890e-02 2.075217e-02 1.763755e-03
<VARIANCE> 6
 1.635339e-03 5.262601e-03 4.713875e-04 1.767235e-04 6.225747e-04 9.275271e-04
<GCONST> -3.130116e+01
<STATE> 7
<MEAN> 6
 5.774493e-01 1.649225e-01 2.990872e-02 3.574211e-02 -3.688232e-02 4.098046e-02
<VARIANCE> 6
 2.729185e-03 5.176930e-03 7.739794e-04 9.119853e-04 1.118232e-03 1.691664e-03
<GCONST> -2.748193e+01
<STATE> 8
<MEAN> 6
 5.542063e-01 2.747036e-01 -2.795572e-02 3.987744e-02 5.194597e-03 -2.937178e-02
<VARIANCE> 6
 3.613198e-03 4.495217e-03 3.468042e-04 6.241257e-04 2.836660e-03 6.087210e-04
<GCONST> -2.861583e+01
<STATE> 9
<MEAN> 6
 5.702039e-01 3.042621e-01 5.812074e-02 7.016941e-03 3.613573e-02 -4.707880e-03
<VARIANCE> 6
 5.172207e-03 6.644825e-03 1.431943e-03 6.328715e-05 3.162360e-03 1.895197e-04
<GCONST> -2.979512e+01
<STATE> 10
<MEAN> 6
 7.093363e-01 3.113087e-01 4.146868e-02 -2.299752e-02 -5.214731e-02 -3.135009e-02
<VARIANCE> 6
 4.799795e-03 4.278386e-03 1.769815e-03 5.084312e-04 1.715220e-03 5.167503e-04
<GCONST> -2.762333e+01
<STATE> 11
<MEAN> 6
 6.990640e-01 2.366879e-01 -1.042106e-02 -5.387984e-03 -4.131051e-03 3.379536e-02
<VARIANCE> 6
 5.983402e-03 5.666128e-03 7.964934e-04 1.294544e-03 2.160271e-03 1.326161e-03
<GCONST> -2.581263e+01
<TRANSP> 12
 0.000000e+00 1.000000e+00 0.000000e+00 0.000000e+00 0.000000e+00 0.000000e+00 0.000000e+00 0.000000e+00 0.000000e+00 0.000000e+00 0.000000e+00 0.000000e+00
 0.000000e+00 8.551338e-01 1.448663e-01 0.000000e+00 0.000000e+00 0.000000e+00 0.000000e+00 0.000000e+00 0.000000e+00 0.000000e+00 0.000000e+00 0.000000e+00
 0.000000e+00 0.000000e+00 8.490010e-01 1.509990e-01 0.000000e+00 0.000000e+00 0.000000e+00 0.000000e+00 0.000000e+00 0.000000e+00 0.000000e+00 0.000000e+00
 0.000000e+00 0.000000e+00 0.000000e+00 8.488685e-01 1.511315e-01 0.000000e+00 0.000000e+00 0.000000e+00 0.000000e+00 0.000000e+00 0.000000e+00 0.000000e+00
 0.000000e+00 0.000000e+00 0.000000e+00 0.000000e+00 8.807716e-01 1.192284e-01 0.000000e+00 0.000000e+00 0.000000e+00 0.000000e+00 0.000000e+00 0.000000e+00
 0.000000e+00 0.000000e+00 0.000000e+00 0.000000e+00 0.000000e+00 8.510239e-01 1.489761e-01 0.000000e+00 0.000000e+00 0.000000e+00 0.000000e+00 0.000000e+00
 0.000000e+00 0.000000e+00 0.000000e+00 0.000000e+00 0.000000e+00 0.000000e+00 8.298170e-01 1.701830e-01 0.000000e+00 0.000000e+00 0.000000e+00 0.000000e+00
 0.000000e+00 0.000000e+00 0.000000e+00 0.000000e+00 0.000000e+00 0.000000e+00 0.000000e+00 8.396794e-01 1.603206e-01 0.000000e+00 0.000000e+00 0.000000e+00
 0.000000e+00 0.000000e+00 0.000000e+00 0.000000e+00 0.000000e+00 0.000000e+00 0.000000e+00 0.000000e+00 8.726909e-01 1.273092e-01 0.000000e+00 0.000000e+00
 0.000000e+00 0.000000e+00 0.000000e+00 0.000000e+00 0.000000e+00 0.000000e+00 0.000000e+00 0.000000e+00 0.000000e+00 8.182737e-01 1.817263e-01 0.000000e+00
 0.000000e+00 0.000000e+00 0.000000e+00 0.000000e+00 0.000000e+00 0.000000e+00 0.000000e+00 0.000000e+00 0.000000e+00 0.000000e+00 8.769493e-01 1.230507e-01
 0.000000e+00 0.000000e+00 0.000000e+00 0.000000e+00 0.000000e+00 0.000000e+00 0.000000e+00 0.000000e+00 0.000000e+00 0.000000e+00 0.000000e+00 0.000000e+00
<ENDHMM>
