~o
<STREAMINFO> 1 7
<VECSIZE> 7<NULLD><USER><DIAGC>
~h "proto"
<BEGINHMM>
<NUMSTATES> 12
<STATE> 2
<MEAN> 7
 3.739884e-01 2.383978e-01 3.576877e-02 -2.693120e-03 -2.011672e-02 -3.607310e-03 -1.646892e+01
<VARIANCE> 7
 3.906605e-03 7.165494e-03 6.222637e-04 2.343353e-04 9.142277e-04 3.612511e-04 2.523190e+03
<GCONST> -2.044942e+01
<STATE> 3
<MEAN> 7
 4.297356e-01 2.550589e-01 2.812464e-03 -1.848194e-02 -6.158268e-02 -4.357706e-02 -1.329098e+03
<VARIANCE> 7
 3.248219e-03 5.948244e-03 3.923242e-04 3.494033e-04 1.216426e-03 8.423202e-04 3.961562e+07
<GCONST> -1.008833e+01
<STATE> 4
<MEAN> 7
 4.177139e-01 1.760477e-01 1.045082e-02 -9.161955e-03 5.018046e-03 8.410284e-03 1.723719e+00
<VARIANCE> 7
 3.664677e-03 6.878185e-03 7.719781e-04 1.000792e-03 8.984192e-04 9.360217e-04 4.856769e+02
<GCONST> -1.960000e+01
<STATE> 5
<MEAN> 7
 4.822367e-01 1.907553e-01 9.633644e-03 4.303796e-03 -6.130673e-03 -4.015657e-02 -1.629786e+03
<VARIANCE> 7
 2.171150e-03 5.771489e-03 1.665895e-04 4.513148e-04 9.927802e-04 2.042456e-03 9.099200e+07
<GCONST> -9.607830e+00
<STATE> 6
<MEAN> 7
 5.506422e-01 1.894860e-01 1.617937e-02 1.748230e-02 -1.007267e-02 1.006230e-02 8.220774e+00
<VARIANCE> 7
 4.273000e-03 7.140455e-03 1.333821e-03 1.543939e-03 1.856622e-03 1.859911e-03 2.956713e+02
<GCONST> -1.751238e+01
<STATE> 7
<MEAN> 7
 5.502263e-01 2.791607e-01 -3.288105e-02 2.903629e-02 3.150048e-02 -3.845041e-02 2.249239e+01
<VARIANCE> 7
 3.046746e-03 5.814754e-03 5.836812e-04 4.270364e-04 8.421089e-04 7.780028e-04 2.858201e+02
<GCONST> -2.186371e+01
<STATE> 8
<MEAN> 7
 5.415156e-01 2.850692e-01 -1.836354e-02 1.825453e-02 6.923113e-02 -3.467702e-02 9.586079e+01
<VARIANCE> 7
 3.085610e-03 5.889937e-03 3.706797e-04 1.732774e-04 3.388938e-03 7.730649e-04 1.212520e+04
<GCONST> -1.806051e+01
<STATE> 9
<MEAN> 7
 5.381870e-01 2.891520e-01 7.554563e-03 9.332066e-03 9.159832e-02 -2.540162e-02 3.547953e+03
<VARIANCE> 7
 2.903880e-03 5.916705e-03 8.275717e-04 8.805894e-05 3.894388e-03 7.717229e-04 5.608713e+08
<GCONST> -7.111166e+00
<STATE> 10
<MEAN> 7
 6.171333e-01 2.952794e-01 6.955219e-02 4.168538e-03 1.369903e-02 -8.622860e-03 -2.675071e+01
<VARIANCE> 7
 5.647099e-03 5.831259e-03 1.329955e-03 8.568769e-05 4.447908e-03 3.533202e-04 2.657336e+04
<GCONST> -1.661920e+01
<STATE> 11
<MEAN> 7
 7.156435e-01 2.489639e-01 3.362177e-03 -1.428499e-02 -1.901013e-02 1.372466e-02 -1.228594e+01
<VARIANCE> 7
 5.436285e-03 7.082629e-03 1.330268e-03 1.099422e-03 2.639421e-03 2.164129e-03 2.749763e+03
<GCONST> -1.488864e+01
<TRANSP> 12
 0.000000e+00 1.000000e+00 0.000000e+00 0.000000e+00 0.000000e+00 0.000000e+00 0.000000e+00 0.000000e+00 0.000000e+00 0.000000e+00 0.000000e+00 0.000000e+00
 0.000000e+00 8.264973e-01 1.735027e-01 0.000000e+00 0.000000e+00 0.000000e+00 0.000000e+00 0.000000e+00 0.000000e+00 0.000000e+00 0.000000e+00 0.000000e+00
 0.000000e+00 0.000000e+00 4.440430e-01 5.559570e-01 0.000000e+00 0.000000e+00 0.000000e+00 0.000000e+00 0.000000e+00 0.000000e+00 0.000000e+00 0.000000e+00
 0.000000e+00 0.000000e+00 0.000000e+00 9.483444e-01 5.165557e-02 0.000000e+00 0.000000e+00 0.000000e+00 0.000000e+00 0.000000e+00 0.000000e+00 0.000000e+00
 0.000000e+00 0.000000e+00 0.000000e+00 0.000000e+00 5.227765e-01 4.772235e-01 0.000000e+00 0.000000e+00 0.000000e+00 0.000000e+00 0.000000e+00 0.000000e+00
 0.000000e+00 0.000000e+00 0.000000e+00 0.000000e+00 0.000000e+00 9.370919e-01 6.290813e-02 0.000000e+00 0.000000e+00 0.000000e+00 0.000000e+00 0.000000e+00
 0.000000e+00 0.000000e+00 0.000000e+00 0.000000e+00 0.000000e+00 0.000000e+00 0.000000e+00 1.000000e+00 0.000000e+00 0.000000e+00 0.000000e+00 0.000000e+00
 0.000000e+00 0.000000e+00 0.000000e+00 0.000000e+00 0.000000e+00 0.000000e+00 0.000000e+00 0.000000e+00 1.000000e+00 0.000000e+00 0.000000e+00 0.000000e+00
 0.000000e+00 0.000000e+00 0.000000e+00 0.000000e+00 0.000000e+00 0.000000e+00 0.000000e+00 0.000000e+00 0.000000e+00 1.000000e+00 0.000000e+00 0.000000e+00
 0.000000e+00 0.000000e+00 0.000000e+00 0.000000e+00 0.000000e+00 0.000000e+00 0.000000e+00 0.000000e+00 0.000000e+00 8.680241e-01 1.319759e-01 0.000000e+00
 0.000000e+00 0.000000e+00 0.000000e+00 0.000000e+00 0.000000e+00 0.000000e+00 0.000000e+00 0.000000e+00 0.000000e+00 0.000000e+00 9.110578e-01 8.894227e-02
 0.000000e+00 0.000000e+00 0.000000e+00 0.000000e+00 0.000000e+00 0.000000e+00 0.000000e+00 0.000000e+00 0.000000e+00 0.000000e+00 0.000000e+00 0.000000e+00
<ENDHMM>
