~o
<STREAMINFO> 1 6
<VECSIZE> 6<NULLD><USER><DIAGC>
~h "proto"
<BEGINHMM>
<NUMSTATES> 12
<STATE> 2
<MEAN> 6
 4.336319e-01 2.802978e-01 -8.538521e-03 4.162743e-03 -1.094539e-02 -1.754599e-02
<VARIANCE> 6
 1.000000e-02 1.000000e-02 1.000000e-02 1.000000e-02 1.000000e-02 1.000000e-02
<GCONST> -1.660376e+01
<STATE> 3
<MEAN> 6
 3.381202e-01 2.192840e-01 6.025852e-03 -2.080490e-02 1.716330e-02 -2.507160e-03
<VARIANCE> 6
 1.000000e-02 1.000000e-02 1.000000e-02 1.000000e-02 1.000000e-02 1.000000e-02
<GCONST> -1.660376e+01
<STATE> 4
<MEAN> 6
 4.495547e-01 1.154945e-01 4.099281e-02 -9.305586e-03 9.295759e-03 2.285376e-02
<VARIANCE> 6
 1.000000e-02 1.000000e-02 1.000000e-02 1.000000e-02 1.000000e-02 1.000000e-02
<GCONST> -1.660376e+01
<STATE> 5
<MEAN> 6
 5.906125e-01 1.566459e-01 1.183826e-02 1.770958e-02 -1.892393e-02 6.429271e-03
<VARIANCE> 6
 1.000000e-02 1.000000e-02 1.000000e-02 1.000000e-02 1.000000e-02 1.000000e-02
<GCONST> -1.660376e+01
<STATE> 6
<MEAN> 6
 4.908493e-01 2.353019e-01 4.712404e-03 7.725720e-03 1.167323e-02 2.842558e-03
<VARIANCE> 6
 1.000000e-02 1.000000e-02 1.000000e-02 1.000000e-02 1.000000e-02 1.000000e-02
<GCONST> -1.660376e+01
<STATE> 7
<MEAN> 6
 5.564239e-01 2.427814e-01 3.885107e-02 4.833547e-02 -3.005013e-02 3.882347e-02
<VARIANCE> 6
 1.000000e-02 1.000000e-02 1.000000e-02 1.000000e-02 1.000000e-02 1.000000e-02
<GCONST> -1.660376e+01
<STATE> 8
<MEAN> 6
 5.844942e-01 3.064094e-01 -1.264198e-02 4.267299e-02 -3.191140e-02 -1.414023e-02
<VARIANCE> 6
 1.000000e-02 1.000000e-02 1.000000e-02 1.000000e-02 1.000000e-02 1.000000e-02
<GCONST> -1.660376e+01
<STATE> 9
<MEAN> 6
 4.940116e-01 3.594142e-01 1.553519e-02 7.582301e-03 3.955130e-02 -8.134189e-03
<VARIANCE> 6
 1.000000e-02 1.000000e-02 1.000000e-02 1.000000e-02 1.000000e-02 1.000000e-02
<GCONST> -1.660376e+01
<STATE> 10
<MEAN> 6
 6.733505e-01 3.731666e-01 5.276409e-02 -1.264637e-02 -4.248872e-02 -1.890404e-02
<VARIANCE> 6
 1.000000e-02 1.000000e-02 1.000000e-02 1.000000e-02 1.000000e-02 1.000000e-02
<GCONST> -1.660376e+01
<STATE> 11
<MEAN> 6
 7.069075e-01 2.683596e-01 -5.635498e-03 -5.965299e-03 -6.332291e-03 3.770739e-02
<VARIANCE> 6
 1.000000e-02 1.000000e-02 1.000000e-02 1.000000e-02 1.000000e-02 1.000000e-02
<GCONST> -1.660376e+01
<TRANSP> 12
 0.000000e+00 1.000000e+00 0.000000e+00 0.000000e+00 0.000000e+00 0.000000e+00 0.000000e+00 0.000000e+00 0.000000e+00 0.000000e+00 0.000000e+00 0.000000e+00
 0.000000e+00 8.844376e-01 1.155624e-01 0.000000e+00 0.000000e+00 0.000000e+00 0.000000e+00 0.000000e+00 0.000000e+00 0.000000e+00 0.000000e+00 0.000000e+00
 0.000000e+00 0.000000e+00 9.009247e-01 9.907530e-02 0.000000e+00 0.000000e+00 0.000000e+00 0.000000e+00 0.000000e+00 0.000000e+00 0.000000e+00 0.000000e+00
 0.000000e+00 0.000000e+00 0.000000e+00 8.706897e-01 1.293103e-01 0.000000e+00 0.000000e+00 0.000000e+00 0.000000e+00 0.000000e+00 0.000000e+00 0.000000e+00
 0.000000e+00 0.000000e+00 0.000000e+00 0.000000e+00 9.087591e-01 9.124088e-02 0.000000e+00 0.000000e+00 0.000000e+00 0.000000e+00 0.000000e+00 0.000000e+00
 0.000000e+00 0.000000e+00 0.000000e+00 0.000000e+00 0.000000e+00 9.035990e-01 9.640103e-02 0.000000e+00 0.000000e+00 0.000000e+00 0.000000e+00 0.000000e+00
 0.000000e+00 0.000000e+00 0.000000e+00 0.000000e+00 0.000000e+00 0.000000e+00 0.000000e+00 1.000000e+00 0.000000e+00 0.000000e+00 0.000000e+00 0.000000e+00
 0.000000e+00 0.000000e+00 0.000000e+00 0.000000e+00 0.000000e+00 0.000000e+00 0.000000e+00 8.275862e-01 1.724138e-01 0.000000e+00 0.000000e+00 0.000000e+00
 0.000000e+00 0.000000e+00 0.000000e+00 0.000000e+00 0.000000e+00 0.000000e+00 0.000000e+00 0.000000e+00 9.002659e-01 9.973404e-02 0.000000e+00 0.000000e+00
 0.000000e+00 0.000000e+00 0.000000e+00 0.000000e+00 0.000000e+00 0.000000e+00 0.000000e+00 0.000000e+00 0.000000e+00 8.611111e-01 1.388889e-01 0.000000e+00
 0.000000e+00 0.000000e+00 0.000000e+00 0.000000e+00 0.000000e+00 0.000000e+00 0.000000e+00 0.000000e+00 0.000000e+00 0.000000e+00 8.505976e-01 1.494024e-01
 0.000000e+00 0.000000e+00 0.000000e+00 0.000000e+00 0.000000e+00 0.000000e+00 0.000000e+00 0.000000e+00 0.000000e+00 0.000000e+00 0.000000e+00 0.000000e+00
<ENDHMM>
