~o
<STREAMINFO> 1 7
<VECSIZE> 7<NULLD><USER><DIAGC>
~h "proto"
<BEGINHMM>
<NUMSTATES> 12
<STATE> 2
<MEAN> 7
 4.305611e-01 2.539312e-01 -4.111237e-03 1.649163e-02 -1.998365e-02 -1.008566e-02 1.927002e+01
<VARIANCE> 7
 1.000000e-02 1.000000e-02 1.000000e-02 1.000000e-02 1.000000e-02 1.000000e-02 2.094931e+03
<GCONST> -7.118607e+00
<STATE> 3
<MEAN> 7
 3.588680e-01 2.622961e-01 -1.350893e-02 -1.378631e-02 6.551940e-03 -2.473159e-02 1.110407e+01
<VARIANCE> 7
 1.000000e-02 1.000000e-02 1.000000e-02 1.000000e-02 1.000000e-02 1.000000e-02 1.933974e+02
<GCONST> -9.501135e+00
<STATE> 4
<MEAN> 7
 4.053287e-01 1.857981e-01 4.306708e-02 -4.020089e-02 3.931439e-02 2.281447e-02 1.681202e+00
<VARIANCE> 7
 1.000000e-02 1.000000e-02 1.000000e-02 1.000000e-02 1.000000e-02 1.000000e-02 1.142655e+01
<GCONST> -1.232994e+01
<STATE> 5
<MEAN> 7
 5.594100e-01 1.775625e-01 1.165715e-02 2.472698e-02 -2.810856e-02 4.454345e-03 7.849473e+00
<VARIANCE> 7
 1.000000e-02 1.000000e-02 1.000000e-02 1.000000e-02 1.000000e-02 1.000000e-02 1.709570e+02
<GCONST> -9.624470e+00
<STATE> 6
<MEAN> 7
 4.979540e-01 2.406773e-01 3.107724e-03 -5.437496e-03 2.213176e-02 3.537593e-03 2.854600e+01
<VARIANCE> 7
 1.000000e-02 1.000000e-02 1.000000e-02 1.000000e-02 1.000000e-02 1.000000e-02 5.848452e+03
<GCONST> -6.091950e+00
<STATE> 7
<MEAN> 7
 5.523299e-01 2.815212e-01 -6.869661e-03 3.352160e-02 -1.707067e-02 -6.078301e-04 6.198809e+00
<VARIANCE> 7
 1.000000e-02 1.000000e-02 1.000000e-02 1.000000e-02 1.000000e-02 1.000000e-02 7.773923e+01
<GCONST> -1.041252e+01
<STATE> 8
<MEAN> 7
 4.944721e-01 3.454710e-01 -2.506595e-02 8.220826e-03 5.896008e-02 -2.308529e-02 5.695847e+01
<VARIANCE> 7
 1.000000e-02 1.000000e-02 1.000000e-02 1.000000e-02 1.000000e-02 1.000000e-02 5.614458e+03
<GCONST> -6.132782e+00
<STATE> 9
<MEAN> 7
 5.252637e-01 3.188374e-01 2.135874e-02 4.002815e-03 5.645000e-02 -1.016859e-02 1.908657e+03
<VARIANCE> 7
 1.164809e-02 1.000000e-02 1.000000e-02 1.000000e-02 1.000000e-02 1.000000e-02 1.721067e+08
<GCONST> 4.350299e+00
<STATE> 10
<MEAN> 7
 5.901983e-01 3.520384e-01 7.004932e-02 -4.972702e-03 6.743338e-03 -7.891836e-03 -3.338679e+00
<VARIANCE> 7
 1.000000e-02 1.000000e-02 1.000000e-02 1.000000e-02 1.000000e-02 1.000000e-02 6.992489e+01
<GCONST> -1.051846e+01
<STATE> 11
<MEAN> 7
 6.970278e-01 3.064992e-01 -3.560931e-03 -1.156952e-02 -2.089592e-02 2.548788e-02 -2.815994e+01
<VARIANCE> 7
 1.000000e-02 1.000000e-02 1.000000e-02 1.000000e-02 1.000000e-02 1.000000e-02 7.427574e+03
<GCONST> -5.852928e+00
<TRANSP> 12
 0.000000e+00 1.000000e+00 0.000000e+00 0.000000e+00 0.000000e+00 0.000000e+00 0.000000e+00 0.000000e+00 0.000000e+00 0.000000e+00 0.000000e+00 0.000000e+00
 0.000000e+00 8.526523e-01 1.473477e-01 0.000000e+00 0.000000e+00 0.000000e+00 0.000000e+00 0.000000e+00 0.000000e+00 0.000000e+00 0.000000e+00 0.000000e+00
 0.000000e+00 0.000000e+00 8.560461e-01 1.439539e-01 0.000000e+00 0.000000e+00 0.000000e+00 0.000000e+00 0.000000e+00 0.000000e+00 0.000000e+00 0.000000e+00
 0.000000e+00 0.000000e+00 0.000000e+00 8.665481e-01 1.334520e-01 0.000000e+00 0.000000e+00 0.000000e+00 0.000000e+00 0.000000e+00 0.000000e+00 0.000000e+00
 0.000000e+00 0.000000e+00 0.000000e+00 0.000000e+00 9.272551e-01 7.274491e-02 0.000000e+00 0.000000e+00 0.000000e+00 0.000000e+00 0.000000e+00 0.000000e+00
 0.000000e+00 0.000000e+00 0.000000e+00 0.000000e+00 0.000000e+00 8.780488e-01 1.219512e-01 0.000000e+00 0.000000e+00 0.000000e+00 0.000000e+00 0.000000e+00
 0.000000e+00 0.000000e+00 0.000000e+00 0.000000e+00 0.000000e+00 0.000000e+00 9.090909e-01 9.090909e-02 0.000000e+00 0.000000e+00 0.000000e+00 0.000000e+00
 0.000000e+00 0.000000e+00 0.000000e+00 0.000000e+00 0.000000e+00 0.000000e+00 0.000000e+00 3.801653e-01 6.198347e-01 0.000000e+00 0.000000e+00 0.000000e+00
 0.000000e+00 0.000000e+00 0.000000e+00 0.000000e+00 0.000000e+00 0.000000e+00 0.000000e+00 0.000000e+00 4.444444e-01 5.555556e-01 0.000000e+00 0.000000e+00
 0.000000e+00 0.000000e+00 0.000000e+00 0.000000e+00 0.000000e+00 0.000000e+00 0.000000e+00 0.000000e+00 0.000000e+00 8.916185e-01 1.083815e-01 0.000000e+00
 0.000000e+00 0.000000e+00 0.000000e+00 0.000000e+00 0.000000e+00 0.000000e+00 0.000000e+00 0.000000e+00 0.000000e+00 0.000000e+00 8.796148e-01 1.203852e-01
 0.000000e+00 0.000000e+00 0.000000e+00 0.000000e+00 0.000000e+00 0.000000e+00 0.000000e+00 0.000000e+00 0.000000e+00 0.000000e+00 0.000000e+00 0.000000e+00
<ENDHMM>
