~o
<STREAMINFO> 1 7
<VECSIZE> 7<NULLD><USER><DIAGC>
~h "proto"
<BEGINHMM>
<NUMSTATES> 12
<STATE> 2
<MEAN> 7
 3.948522e-01 2.239149e-01 -9.828931e-03 -4.910158e-02 3.100194e-02 5.841974e-03 -1.351606e-02
<VARIANCE> 7
 4.639921e-03 5.665911e-03 9.180727e-04 5.571397e-04 1.019703e-03 1.866043e-03 1.112326e+02
<GCONST> -2.062769e+01
<STATE> 3
<MEAN> 7
 4.064964e-01 1.515557e-01 2.821783e-02 1.093591e-02 -7.765853e-03 1.961083e-02 1.273824e+01
<VARIANCE> 7
 8.610774e-03 3.693489e-03 5.458278e-04 4.197968e-04 4.845478e-04 9.902226e-04 6.047960e+02
<GCONST> -2.092472e+01
<STATE> 4
<MEAN> 7
 5.036790e-01 1.793491e-01 2.853087e-02 -5.500837e-03 3.868455e-03 3.929477e-05 -8.305323e+00
<VARIANCE> 7
 3.603739e-03 2.173701e-03 3.488137e-04 4.264303e-04 6.429452e-04 1.807660e-03 5.978895e+03
<GCONST> -1.958218e+01
<STATE> 5
<MEAN> 7
 5.383192e-01 1.773063e-01 2.722562e-02 2.674471e-02 -4.416755e-02 5.082335e-02 -2.517454e+03
<VARIANCE> 7
 4.968225e-03 2.785461e-03 5.572400e-04 4.081059e-04 1.688565e-03 4.785500e-03 1.381716e+08
<GCONST> -6.601429e+00
<STATE> 6
<MEAN> 7
 5.345473e-01 2.298118e-01 -2.340918e-02 4.108816e-02 -2.709730e-02 -3.988625e-03 6.678656e+00
<VARIANCE> 7
 5.547437e-03 5.388726e-03 2.196701e-03 1.206769e-03 2.304069e-03 1.721168e-03 1.495881e+02
<GCONST> -1.782328e+01
<STATE> 7
<MEAN> 7
 4.402090e-01 3.220823e-01 -3.753627e-02 9.210534e-03 3.455782e-02 -1.412486e-02 1.241494e+01
<VARIANCE> 7
 3.867498e-03 3.250883e-03 3.788258e-04 1.885674e-04 1.848047e-03 2.251360e-04 1.508172e+03
<GCONST> -2.224711e+01
<STATE> 8
<MEAN> 7
 4.152758e-01 3.137981e-01 4.736959e-03 2.139923e-03 1.122234e-01 -1.412453e-03 2.403597e+03
<VARIANCE> 7
 6.139899e-03 4.949912e-03 1.416752e-04 1.290464e-04 4.879804e-03 2.807581e-04 1.723538e+08
<GCONST> -9.889114e+00
<STATE> 9
<MEAN> 7
 4.227634e-01 3.143521e-01 4.062283e-02 3.072815e-03 1.147803e-01 4.247209e-03 -6.673170e+00
<VARIANCE> 7
 6.025902e-03 4.962042e-03 6.355112e-04 1.073841e-04 4.774247e-03 3.232297e-04 7.458542e+02
<GCONST> -2.081980e+01
<STATE> 10
<MEAN> 7
 5.294061e-01 3.282008e-01 9.263732e-02 7.539000e-03 8.102745e-03 -6.944708e-03 -1.762160e+01
<VARIANCE> 7
 8.540087e-03 4.814033e-03 1.782276e-03 1.130989e-04 4.711780e-03 4.387346e-04 1.181096e+04
<GCONST> -1.636370e+01
<STATE> 11
<MEAN> 7
 6.731451e-01 2.857946e-01 5.749796e-03 -1.679723e-02 -2.659231e-02 1.592043e-02 -1.641217e+01
<VARIANCE> 7
 6.246720e-03 5.245645e-03 1.820409e-03 1.273895e-03 3.330420e-03 2.450658e-03 2.084199e+03
<GCONST> -1.450920e+01
<TRANSP> 12
 0.000000e+00 1.000000e+00 0.000000e+00 0.000000e+00 0.000000e+00 0.000000e+00 0.000000e+00 0.000000e+00 0.000000e+00 0.000000e+00 0.000000e+00 0.000000e+00
 0.000000e+00 8.873826e-01 1.126174e-01 0.000000e+00 0.000000e+00 0.000000e+00 0.000000e+00 0.000000e+00 0.000000e+00 0.000000e+00 0.000000e+00 0.000000e+00
 0.000000e+00 0.000000e+00 8.721923e-01 1.278077e-01 0.000000e+00 0.000000e+00 0.000000e+00 0.000000e+00 0.000000e+00 0.000000e+00 0.000000e+00 0.000000e+00
 0.000000e+00 0.000000e+00 0.000000e+00 8.789687e-01 1.210313e-01 0.000000e+00 0.000000e+00 0.000000e+00 0.000000e+00 0.000000e+00 0.000000e+00 0.000000e+00
 0.000000e+00 0.000000e+00 0.000000e+00 0.000000e+00 9.436863e-02 9.056314e-01 0.000000e+00 0.000000e+00 0.000000e+00 0.000000e+00 0.000000e+00 0.000000e+00
 0.000000e+00 0.000000e+00 0.000000e+00 0.000000e+00 0.000000e+00 9.029111e-01 9.708899e-02 0.000000e+00 0.000000e+00 0.000000e+00 0.000000e+00 0.000000e+00
 0.000000e+00 0.000000e+00 0.000000e+00 0.000000e+00 0.000000e+00 0.000000e+00 8.114511e-01 1.885489e-01 0.000000e+00 0.000000e+00 0.000000e+00 0.000000e+00
 0.000000e+00 0.000000e+00 0.000000e+00 0.000000e+00 0.000000e+00 0.000000e+00 0.000000e+00 0.000000e+00 1.000000e+00 0.000000e+00 0.000000e+00 0.000000e+00
 0.000000e+00 0.000000e+00 0.000000e+00 0.000000e+00 0.000000e+00 0.000000e+00 0.000000e+00 0.000000e+00 0.000000e+00 1.000000e+00 0.000000e+00 0.000000e+00
 0.000000e+00 0.000000e+00 0.000000e+00 0.000000e+00 0.000000e+00 0.000000e+00 0.000000e+00 0.000000e+00 0.000000e+00 8.744114e-01 1.255886e-01 0.000000e+00
 0.000000e+00 0.000000e+00 0.000000e+00 0.000000e+00 0.000000e+00 0.000000e+00 0.000000e+00 0.000000e+00 0.000000e+00 0.000000e+00 9.094489e-01 9.055109e-02
 0.000000e+00 0.000000e+00 0.000000e+00 0.000000e+00 0.000000e+00 0.000000e+00 0.000000e+00 0.000000e+00 0.000000e+00 0.000000e+00 0.000000e+00 0.000000e+00
<ENDHMM>
