~o
<STREAMINFO> 1 6
<VECSIZE> 6<NULLD><USER><DIAGC>
~h "proto"
<BEGINHMM>
<NUMSTATES> 12
<STATE> 2
<MEAN> 6
 4.113067e-01 2.601019e-01 -2.950394e-02 -5.595721e-02 2.753165e-02 -1.702763e-02
<VARIANCE> 6
 3.568721e-03 4.284967e-03 4.129860e-04 6.313355e-04 9.988722e-04 1.254345e-03
<GCONST> -2.881072e+01
<STATE> 3
<MEAN> 6
 3.530871e-01 1.739996e-01 2.144848e-02 -2.407585e-02 2.495183e-02 2.979922e-02
<VARIANCE> 6
 7.655251e-03 2.892781e-03 8.571577e-04 9.202655e-04 1.377542e-03 1.512904e-03
<GCONST> -2.682455e+01
<STATE> 4
<MEAN> 6
 4.649419e-01 1.821086e-01 2.428453e-02 4.878832e-04 8.965212e-04 1.912997e-03
<VARIANCE> 6
 1.298826e-03 1.972314e-03 2.680469e-04 5.668787e-04 5.277228e-04 1.375445e-03
<GCONST> -3.168321e+01
<STATE> 5
<MEAN> 6
 5.617034e-01 1.623280e-01 3.228474e-02 9.287775e-03 -1.090202e-02 2.555727e-02
<VARIANCE> 6
 2.212253e-03 3.437985e-03 4.560480e-04 6.433358e-04 9.271937e-04 1.864252e-03
<GCONST> -2.906935e+01
<STATE> 6
<MEAN> 6
 5.667368e-01 2.430825e-01 -3.420927e-02 6.697492e-02 -6.184678e-02 -2.326230e-03
<VARIANCE> 6
 4.220136e-03 4.454142e-03 1.795508e-03 4.468863e-04 1.735162e-03 2.479470e-03
<GCONST> -2.624658e+01
<STATE> 7
<MEAN> 6
 4.790972e-01 3.077270e-01 -4.980319e-02 1.812242e-02 1.831319e-02 -2.338691e-02
<VARIANCE> 6
 3.680649e-03 3.814720e-03 7.106384e-04 2.716273e-04 9.644750e-04 3.799493e-04
<GCONST> -3.042612e+01
<STATE> 8
<MEAN> 6
 4.287018e-01 3.177482e-01 3.746003e-02 3.953767e-03 8.930976e-02 3.173984e-03
<VARIANCE> 6
 4.261240e-03 4.727357e-03 3.458464e-03 1.135474e-04 3.637104e-03 2.425726e-04
<GCONST> -2.847632e+01
<STATE> 9
<MEAN> 6
 5.762950e-01 3.331449e-01 1.047600e-01 8.725989e-03 -1.525013e-02 -1.043768e-02
<VARIANCE> 6
 4.605530e-03 4.107276e-03 1.461944e-03 1.088859e-04 2.388828e-03 2.072158e-04
<GCONST> -3.002013e+01
<STATE> 10
<MEAN> 6
 6.859163e-01 3.250712e-01 4.608260e-02 -2.953074e-02 -6.673396e-02 -3.273474e-02
<VARIANCE> 6
 6.379599e-03 4.317125e-03 1.704313e-03 4.259428e-04 1.564514e-03 5.390749e-04
<GCONST> -2.759419e+01
<STATE> 11
<MEAN> 6
 6.796970e-01 2.572223e-01 -1.415973e-02 -6.041749e-03 -4.473008e-03 4.304174e-02
<VARIANCE> 6
 5.796115e-03 5.478490e-03 9.452990e-04 1.466988e-03 2.902817e-03 1.482383e-03
<GCONST> -2.517496e+01
<TRANSP> 12
 0.000000e+00 1.000000e+00 0.000000e+00 0.000000e+00 0.000000e+00 0.000000e+00 0.000000e+00 0.000000e+00 0.000000e+00 0.000000e+00 0.000000e+00 0.000000e+00
 0.000000e+00 7.884464e-01 2.115536e-01 0.000000e+00 0.000000e+00 0.000000e+00 0.000000e+00 0.000000e+00 0.000000e+00 0.000000e+00 0.000000e+00 0.000000e+00
 0.000000e+00 0.000000e+00 8.351789e-01 1.648212e-01 0.000000e+00 0.000000e+00 0.000000e+00 0.000000e+00 0.000000e+00 0.000000e+00 0.000000e+00 0.000000e+00
 0.000000e+00 0.000000e+00 0.000000e+00 9.012393e-01 9.876074e-02 0.000000e+00 0.000000e+00 0.000000e+00 0.000000e+00 0.000000e+00 0.000000e+00 0.000000e+00
 0.000000e+00 0.000000e+00 0.000000e+00 0.000000e+00 8.653095e-01 1.346905e-01 0.000000e+00 0.000000e+00 0.000000e+00 0.000000e+00 0.000000e+00 0.000000e+00
 0.000000e+00 0.000000e+00 0.000000e+00 0.000000e+00 0.000000e+00 8.026587e-01 1.973413e-01 0.000000e+00 0.000000e+00 0.000000e+00 0.000000e+00 0.000000e+00
 0.000000e+00 0.000000e+00 0.000000e+00 0.000000e+00 0.000000e+00 0.000000e+00 8.300246e-01 1.699754e-01 0.000000e+00 0.000000e+00 0.000000e+00 0.000000e+00
 0.000000e+00 0.000000e+00 0.000000e+00 0.000000e+00 0.000000e+00 0.000000e+00 0.000000e+00 8.318093e-01 1.681907e-01 0.000000e+00 0.000000e+00 0.000000e+00
 0.000000e+00 0.000000e+00 0.000000e+00 0.000000e+00 0.000000e+00 0.000000e+00 0.000000e+00 0.000000e+00 7.757699e-01 2.242301e-01 0.000000e+00 0.000000e+00
 0.000000e+00 0.000000e+00 0.000000e+00 0.000000e+00 0.000000e+00 0.000000e+00 0.000000e+00 0.000000e+00 0.000000e+00 7.987323e-01 2.012677e-01 0.000000e+00
 0.000000e+00 0.000000e+00 0.000000e+00 0.000000e+00 0.000000e+00 0.000000e+00 0.000000e+00 0.000000e+00 0.000000e+00 0.000000e+00 8.581886e-01 1.418114e-01
 0.000000e+00 0.000000e+00 0.000000e+00 0.000000e+00 0.000000e+00 0.000000e+00 0.000000e+00 0.000000e+00 0.000000e+00 0.000000e+00 0.000000e+00 0.000000e+00
<ENDHMM>
