~o
<STREAMINFO> 1 7
<VECSIZE> 7<NULLD><USER><DIAGC>
~h "proto"
<BEGINHMM>
<NUMSTATES> 12
<STATE> 2
<MEAN> 7
 4.292398e-01 2.614188e-01 -2.055528e-03 2.215314e-02 -2.523511e-02 -6.759423e-03 1.338272e+01
<VARIANCE> 7
 4.185633e-03 4.667776e-03 4.859786e-04 2.646682e-04 4.281347e-04 1.234945e-03 1.989599e+03
<GCONST> -2.070152e+01
<STATE> 3
<MEAN> 7
 3.682847e-01 2.554178e-01 -1.726739e-02 -2.450639e-02 1.342740e-02 -2.875114e-02 1.576312e+01
<VARIANCE> 7
 6.514624e-03 4.941027e-03 4.512303e-04 7.166585e-04 8.554148e-04 1.094364e-03 2.678294e+02
<GCONST> -2.071435e+01
<STATE> 4
<MEAN> 7
 4.143752e-01 1.666579e-01 5.002230e-02 -3.898371e-02 3.990060e-02 2.855253e-02 2.286814e+00
<VARIANCE> 7
 4.619206e-03 3.966051e-03 1.361334e-03 8.642392e-04 1.676654e-03 9.594731e-04 1.810084e+01
<GCONST> -2.213945e+01
<STATE> 5
<MEAN> 7
 5.640854e-01 1.832171e-01 1.301201e-02 3.022947e-02 -3.410592e-02 4.302427e-03 6.800612e+00
<VARIANCE> 7
 6.298305e-03 5.418220e-03 1.716257e-03 5.678997e-04 1.148211e-03 1.560768e-03 1.832899e+02
<GCONST> -1.928256e+01
<STATE> 6
<MEAN> 7
 5.102224e-01 2.325230e-01 5.420604e-03 -1.160643e-02 2.774901e-02 5.766416e-03 2.669729e+01
<VARIANCE> 7
 4.331575e-03 4.298338e-03 1.077095e-03 4.128658e-04 1.152745e-03 2.184467e-03 4.568738e+03
<GCONST> -1.711709e+01
<STATE> 7
<MEAN> 7
 5.621560e-01 2.680957e-01 -6.464741e-03 5.229033e-02 -4.109902e-02 3.934931e-03 5.777706e+00
<VARIANCE> 7
 6.263247e-03 5.236999e-03 1.241110e-03 4.630116e-04 8.790236e-04 1.878586e-03 9.259200e+01
<GCONST> -2.061517e+01
<STATE> 8
<MEAN> 7
 4.908009e-01 3.434250e-01 -4.067109e-02 1.476211e-02 3.265900e-02 -2.691807e-02 2.464677e+01
<VARIANCE> 7
 5.108861e-03 3.465267e-03 3.751148e-04 2.509207e-04 1.289721e-03 3.678032e-04 1.211471e+03
<GCONST> -2.171696e+01
<STATE> 9
<MEAN> 7
 5.190039e-01 3.240389e-01 2.411686e-02 3.713628e-03 6.153787e-02 -6.699375e-03 1.382541e+03
<VARIANCE> 7
 1.158759e-02 7.106508e-03 1.336054e-03 1.255865e-04 5.011842e-03 5.891244e-04 1.234592e+08
<GCONST> -6.241383e+00
<STATE> 10
<MEAN> 7
 5.730316e-01 3.553349e-01 8.289247e-02 5.208271e-03 1.543291e-02 -5.514926e-03 -1.568466e+00
<VARIANCE> 7
 9.867141e-03 3.869937e-03 1.468334e-03 1.301005e-04 4.609464e-03 4.047867e-04 2.246588e+01
<GCONST> -2.285855e+01
<STATE> 11
<MEAN> 7
 6.838265e-01 3.103506e-01 3.456017e-03 -1.706429e-02 -2.421532e-02 1.666198e-02 -2.714827e+01
<VARIANCE> 7
 8.723656e-03 4.653101e-03 1.309404e-03 1.445314e-03 3.388576e-03 3.146170e-03 7.324448e+03
<GCONST> -1.297435e+01
<TRANSP> 12
 0.000000e+00 1.000000e+00 0.000000e+00 0.000000e+00 0.000000e+00 0.000000e+00 0.000000e+00 0.000000e+00 0.000000e+00 0.000000e+00 0.000000e+00 0.000000e+00
 0.000000e+00 8.562732e-01 1.437269e-01 0.000000e+00 0.000000e+00 0.000000e+00 0.000000e+00 0.000000e+00 0.000000e+00 0.000000e+00 0.000000e+00 0.000000e+00
 0.000000e+00 0.000000e+00 8.653275e-01 1.346726e-01 0.000000e+00 0.000000e+00 0.000000e+00 0.000000e+00 0.000000e+00 0.000000e+00 0.000000e+00 0.000000e+00
 0.000000e+00 0.000000e+00 0.000000e+00 8.643512e-01 1.356488e-01 0.000000e+00 0.000000e+00 0.000000e+00 0.000000e+00 0.000000e+00 0.000000e+00 0.000000e+00
 0.000000e+00 0.000000e+00 0.000000e+00 0.000000e+00 9.199510e-01 8.004903e-02 0.000000e+00 0.000000e+00 0.000000e+00 0.000000e+00 0.000000e+00 0.000000e+00
 0.000000e+00 0.000000e+00 0.000000e+00 0.000000e+00 0.000000e+00 8.933026e-01 1.066975e-01 0.000000e+00 0.000000e+00 0.000000e+00 0.000000e+00 0.000000e+00
 0.000000e+00 0.000000e+00 0.000000e+00 0.000000e+00 0.000000e+00 0.000000e+00 8.615908e-01 1.384092e-01 0.000000e+00 0.000000e+00 0.000000e+00 0.000000e+00
 0.000000e+00 0.000000e+00 0.000000e+00 0.000000e+00 0.000000e+00 0.000000e+00 0.000000e+00 7.496442e-01 2.503558e-01 0.000000e+00 0.000000e+00 0.000000e+00
 0.000000e+00 0.000000e+00 0.000000e+00 0.000000e+00 0.000000e+00 0.000000e+00 0.000000e+00 0.000000e+00 6.036900e-01 3.963100e-01 0.000000e+00 0.000000e+00
 0.000000e+00 0.000000e+00 0.000000e+00 0.000000e+00 0.000000e+00 0.000000e+00 0.000000e+00 0.000000e+00 0.000000e+00 8.614213e-01 1.385787e-01 0.000000e+00
 0.000000e+00 0.000000e+00 0.000000e+00 0.000000e+00 0.000000e+00 0.000000e+00 0.000000e+00 0.000000e+00 0.000000e+00 0.000000e+00 9.051386e-01 9.486145e-02
 0.000000e+00 0.000000e+00 0.000000e+00 0.000000e+00 0.000000e+00 0.000000e+00 0.000000e+00 0.000000e+00 0.000000e+00 0.000000e+00 0.000000e+00 0.000000e+00
<ENDHMM>
