~o
<STREAMINFO> 1 6
<VECSIZE> 6<NULLD><USER><DIAGC>
~h "proto"
<BEGINHMM>
<NUMSTATES> 12
<STATE> 2
<MEAN> 6
 4.258275e-01 2.580351e-01 -3.464189e-03 2.041462e-02 -2.453046e-02 -8.501560e-03
<VARIANCE> 6
 4.503670e-03 5.953124e-03 5.541172e-04 2.643928e-04 3.479757e-04 1.193264e-03
<GCONST> -2.993009e+01
<STATE> 3
<MEAN> 6
 3.597685e-01 2.360211e-01 -5.140697e-03 -2.584668e-02 1.772375e-02 -1.622668e-02
<VARIANCE> 6
 4.738596e-03 6.703100e-03 5.502832e-04 8.718481e-04 8.460733e-04 9.139265e-04
<GCONST> -2.795258e+01
<STATE> 4
<MEAN> 6
 4.437525e-01 1.415784e-01 6.524267e-02 -2.280988e-02 1.716156e-02 4.084893e-02
<VARIANCE> 6
 4.968651e-03 5.919433e-03 9.118142e-04 1.222412e-03 2.946865e-03 8.895943e-04
<GCONST> -2.596562e+01
<STATE> 5
<MEAN> 6
 5.603763e-01 1.460906e-01 7.519274e-03 2.267848e-02 -2.188392e-02 2.354135e-03
<VARIANCE> 6
 5.876082e-03 3.270830e-03 1.014180e-03 6.286462e-04 1.265837e-03 7.051737e-04
<GCONST> -2.802702e+01
<STATE> 6
<MEAN> 6
 5.116709e-01 2.277360e-01 2.343240e-03 -5.257216e-04 1.929074e-02 1.668097e-03
<VARIANCE> 6
 3.932047e-03 1.482383e-03 1.348611e-03 5.683380e-04 1.413556e-03 1.850742e-03
<GCONST> -2.796073e+01
<STATE> 7
<MEAN> 6
 5.504506e-01 2.252931e-01 4.096946e-02 4.209096e-02 -2.648803e-02 5.429334e-02
<VARIANCE> 6
 4.879667e-03 1.054228e-03 8.759975e-04 3.260930e-04 8.578439e-04 1.718150e-03
<GCONST> -2.964643e+01
<STATE> 8
<MEAN> 6
 5.573429e-01 3.112422e-01 -1.216965e-02 4.045729e-02 -2.417986e-02 -1.054712e-02
<VARIANCE> 6
 4.685689e-03 2.468640e-03 1.353506e-03 1.117542e-03 1.843763e-03 1.652576e-03
<GCONST> -2.644312e+01
<STATE> 9
<MEAN> 6
 5.013298e-01 3.615172e-01 3.370549e-02 6.281561e-03 5.221915e-02 -6.286802e-03
<VARIANCE> 6
 5.589257e-03 2.740807e-03 3.721211e-03 1.692470e-04 2.333793e-03 5.042781e-04
<GCONST> -2.798965e+01
<STATE> 10
<MEAN> 6
 6.838500e-01 3.552291e-01 5.376262e-02 -1.587314e-02 -5.501854e-02 -2.794160e-02
<VARIANCE> 6
 4.906797e-03 4.144302e-03 1.874245e-03 5.536444e-04 1.309641e-03 4.651105e-04
<GCONST> -2.786567e+01
<STATE> 11
<MEAN> 6
 6.925285e-01 2.820624e-01 -1.119621e-02 -7.917131e-03 -3.662431e-03 4.129222e-02
<VARIANCE> 6
 6.044431e-03 5.157102e-03 9.774861e-04 1.625837e-03 3.341134e-03 1.671397e-03
<GCONST> -2.479654e+01
<TRANSP> 12
 0.000000e+00 1.000000e+00 0.000000e+00 0.000000e+00 0.000000e+00 0.000000e+00 0.000000e+00 0.000000e+00 0.000000e+00 0.000000e+00 0.000000e+00 0.000000e+00
 0.000000e+00 8.685458e-01 1.314542e-01 0.000000e+00 0.000000e+00 0.000000e+00 0.000000e+00 0.000000e+00 0.000000e+00 0.000000e+00 0.000000e+00 0.000000e+00
 0.000000e+00 0.000000e+00 9.092202e-01 9.077983e-02 0.000000e+00 0.000000e+00 0.000000e+00 0.000000e+00 0.000000e+00 0.000000e+00 0.000000e+00 0.000000e+00
 0.000000e+00 0.000000e+00 0.000000e+00 8.500221e-01 1.499779e-01 0.000000e+00 0.000000e+00 0.000000e+00 0.000000e+00 0.000000e+00 0.000000e+00 0.000000e+00
 0.000000e+00 0.000000e+00 0.000000e+00 0.000000e+00 9.114528e-01 8.854726e-02 0.000000e+00 0.000000e+00 0.000000e+00 0.000000e+00 0.000000e+00 0.000000e+00
 0.000000e+00 0.000000e+00 0.000000e+00 0.000000e+00 0.000000e+00 9.002172e-01 9.978284e-02 0.000000e+00 0.000000e+00 0.000000e+00 0.000000e+00 0.000000e+00
 0.000000e+00 0.000000e+00 0.000000e+00 0.000000e+00 0.000000e+00 0.000000e+00 0.000000e+00 1.000000e+00 0.000000e+00 0.000000e+00 0.000000e+00 0.000000e+00
 0.000000e+00 0.000000e+00 0.000000e+00 0.000000e+00 0.000000e+00 0.000000e+00 0.000000e+00 8.879598e-01 1.120402e-01 0.000000e+00 0.000000e+00 0.000000e+00
 0.000000e+00 0.000000e+00 0.000000e+00 0.000000e+00 0.000000e+00 0.000000e+00 0.000000e+00 0.000000e+00 8.832984e-01 1.167016e-01 0.000000e+00 0.000000e+00
 0.000000e+00 0.000000e+00 0.000000e+00 0.000000e+00 0.000000e+00 0.000000e+00 0.000000e+00 0.000000e+00 0.000000e+00 8.434160e-01 1.565839e-01 0.000000e+00
 0.000000e+00 0.000000e+00 0.000000e+00 0.000000e+00 0.000000e+00 0.000000e+00 0.000000e+00 0.000000e+00 0.000000e+00 0.000000e+00 8.580978e-01 1.419022e-01
 0.000000e+00 0.000000e+00 0.000000e+00 0.000000e+00 0.000000e+00 0.000000e+00 0.000000e+00 0.000000e+00 0.000000e+00 0.000000e+00 0.000000e+00 0.000000e+00
<ENDHMM>
