~o
<STREAMINFO> 1 6
<VECSIZE> 6<NULLD><USER><DIAGC>
~h "proto"
<BEGINHMM>
<NUMSTATES> 12
<STATE> 2
<MEAN> 6
 3.909370e-01 3.173715e-01 1.461402e-02 1.380226e-02 8.425493e-03 -8.536625e-03
<VARIANCE> 6
 2.377709e-03 6.980047e-03 2.895045e-04 5.873024e-04 3.154705e-04 6.316615e-04
<GCONST> -3.099497e+01
<STATE> 3
<MEAN> 6
 4.473008e-01 3.053177e-01 3.102869e-02 7.029144e-04 2.137669e-03 -3.533883e-02
<VARIANCE> 6
 1.289759e-03 7.639757e-03 4.041103e-04 7.226916e-04 6.867875e-04 1.013503e-03
<GCONST> -2.972461e+01
<STATE> 4
<MEAN> 6
 4.865867e-01 2.861198e-01 1.543364e-02 -5.984399e-03 -1.913752e-03 5.402324e-03
<VARIANCE> 6
 1.023754e-03 5.831171e-03 1.790920e-04 8.632339e-04 2.420660e-04 1.078893e-03
<GCONST> -3.184211e+01
<STATE> 5
<MEAN> 6
 5.646101e-01 3.009704e-01 3.513702e-02 2.840819e-03 3.448718e-03 -2.244040e-02
<VARIANCE> 6
 2.799646e-03 4.362774e-03 4.160067e-04 1.126515e-03 6.850217e-04 2.136467e-03
<GCONST> -2.829374e+01
<STATE> 6
<MEAN> 6
 6.266894e-01 2.594570e-01 1.309439e-02 -5.847084e-02 -2.814054e-02 -1.469329e-02
<VARIANCE> 6
 3.960022e-03 3.737897e-03 4.297779e-04 6.568824e-04 5.814784e-04 7.507573e-04
<GCONST> -2.981809e+01
<STATE> 7
<MEAN> 6
 6.264659e-01 1.237246e-01 -2.493213e-02 -3.046645e-02 -1.469869e-02 1.874422e-02
<VARIANCE> 6
 4.014615e-03 4.618539e-03 6.810374e-04 1.175305e-03 9.231531e-04 1.219679e-03
<GCONST> -2.760323e+01
<STATE> 8
<MEAN> 6
 5.191806e-01 1.109238e-01 -2.159588e-02 -7.153086e-04 7.668770e-04 7.873197e-03
<VARIANCE> 6
 2.360936e-03 4.059682e-03 3.982282e-04 4.361733e-04 2.345469e-04 6.094551e-04
<GCONST> -3.185484e+01
<STATE> 9
<MEAN> 6
 4.647123e-01 1.330193e-01 -3.899339e-02 1.377173e-02 2.856631e-02 2.590653e-02
<VARIANCE> 6
 2.734924e-03 6.705772e-03 6.825760e-04 5.977928e-04 5.656367e-04 1.689641e-03
<GCONST> -2.845188e+01
<STATE> 10
<MEAN> 6
 4.046368e-01 2.128483e-01 -1.338642e-02 5.236493e-03 1.491867e-02 -4.090633e-03
<VARIANCE> 6
 4.999983e-03 1.166465e-02 7.036179e-04 1.224761e-03 1.274548e-03 1.229998e-03
<GCONST> -2.605244e+01
<STATE> 11
<MEAN> 6
 4.613996e-01 1.259716e-01 3.403914e-02 6.176656e-04 8.801255e-03 -6.074823e-03
<VARIANCE> 6
 4.012396e-03 5.012867e-03 5.188440e-04 8.224558e-04 1.313427e-03 1.623676e-03
<GCONST> -2.751215e+01
<TRANSP> 12
 0.000000e+00 1.000000e+00 0.000000e+00 0.000000e+00 0.000000e+00 0.000000e+00 0.000000e+00 0.000000e+00 0.000000e+00 0.000000e+00 0.000000e+00 0.000000e+00
 0.000000e+00 9.109089e-01 8.909110e-02 0.000000e+00 0.000000e+00 0.000000e+00 0.000000e+00 0.000000e+00 0.000000e+00 0.000000e+00 0.000000e+00 0.000000e+00
 0.000000e+00 0.000000e+00 0.000000e+00 1.000000e+00 0.000000e+00 0.000000e+00 0.000000e+00 0.000000e+00 0.000000e+00 0.000000e+00 0.000000e+00 0.000000e+00
 0.000000e+00 0.000000e+00 0.000000e+00 9.138725e-01 8.612756e-02 0.000000e+00 0.000000e+00 0.000000e+00 0.000000e+00 0.000000e+00 0.000000e+00 0.000000e+00
 0.000000e+00 0.000000e+00 0.000000e+00 0.000000e+00 8.822095e-01 1.177905e-01 0.000000e+00 0.000000e+00 0.000000e+00 0.000000e+00 0.000000e+00 0.000000e+00
 0.000000e+00 0.000000e+00 0.000000e+00 0.000000e+00 0.000000e+00 8.134738e-01 1.865262e-01 0.000000e+00 0.000000e+00 0.000000e+00 0.000000e+00 0.000000e+00
 0.000000e+00 0.000000e+00 0.000000e+00 0.000000e+00 0.000000e+00 0.000000e+00 8.774430e-01 1.225570e-01 0.000000e+00 0.000000e+00 0.000000e+00 0.000000e+00
 0.000000e+00 0.000000e+00 0.000000e+00 0.000000e+00 0.000000e+00 0.000000e+00 0.000000e+00 9.204939e-01 7.950611e-02 0.000000e+00 0.000000e+00 0.000000e+00
 0.000000e+00 0.000000e+00 0.000000e+00 0.000000e+00 0.000000e+00 0.000000e+00 0.000000e+00 0.000000e+00 0.000000e+00 1.000000e+00 0.000000e+00 0.000000e+00
 0.000000e+00 0.000000e+00 0.000000e+00 0.000000e+00 0.000000e+00 0.000000e+00 0.000000e+00 0.000000e+00 0.000000e+00 9.099516e-01 9.004842e-02 0.000000e+00
 0.000000e+00 0.000000e+00 0.000000e+00 0.000000e+00 0.000000e+00 0.000000e+00 0.000000e+00 0.000000e+00 0.000000e+00 0.000000e+00 8.654433e-01 1.345567e-01
 0.000000e+00 0.000000e+00 0.000000e+00 0.000000e+00 0.000000e+00 0.000000e+00 0.000000e+00 0.000000e+00 0.000000e+00 0.000000e+00 0.000000e+00 0.000000e+00
<ENDHMM>
