~o
<STREAMINFO> 1 7
<VECSIZE> 7<NULLD><USER><DIAGC>
~h "proto"
<BEGINHMM>
<NUMSTATES> 12
<STATE> 2
<MEAN> 7
 3.989296e-01 3.176919e-01 1.746592e-02 1.742918e-02 9.410515e-03 -1.215015e-02 -8.050002e+00
<VARIANCE> 7
 3.784530e-03 7.093490e-03 2.646921e-04 4.254643e-04 2.594632e-04 6.491361e-04 3.809224e+02
<GCONST> -2.331371e+01
<STATE> 3
<MEAN> 7
 4.850574e-01 2.979596e-01 1.692348e-02 -2.775814e-02 -1.048600e-02 -5.798045e-03 -7.247976e+00
<VARIANCE> 7
 3.006432e-03 7.203905e-03 2.837802e-04 2.447934e-04 1.760355e-04 8.707378e-04 7.321727e+02
<GCONST> -2.345238e+01
<STATE> 4
<MEAN> 7
 4.913159e-01 2.479486e-01 7.498391e-03 -1.346082e-02 -4.960792e-03 4.911771e-02 7.954767e+01
<VARIANCE> 7
 3.934842e-03 4.888509e-03 3.044515e-04 1.465158e-04 2.793848e-04 2.193507e-03 1.811167e+04
<GCONST> -1.941985e+01
<STATE> 5
<MEAN> 7
 4.954011e-01 2.433891e-01 5.799903e-03 6.905433e-03 5.732933e-04 4.996036e-02 3.771752e+01
<VARIANCE> 7
 3.879748e-03 4.913372e-03 1.331966e-04 3.493466e-04 9.231135e-04 3.018018e-03 3.600163e+08
<GCONST> -7.975025e+00
<STATE> 6
<MEAN> 7
 5.498770e-01 3.081685e-01 2.620777e-02 5.060363e-03 2.481534e-03 -1.839284e-02 -8.920875e+00
<VARIANCE> 7
 5.178117e-03 6.527085e-03 3.560864e-04 1.292907e-03 5.309560e-04 1.243231e-03 2.569697e+02
<GCONST> -2.070308e+01
<STATE> 7
<MEAN> 7
 6.012898e-01 2.615400e-01 1.304225e-02 -6.660940e-02 -3.205562e-02 -1.418413e-02 -1.455181e+00
<VARIANCE> 7
 7.304141e-03 3.945712e-03 5.236263e-04 1.301764e-03 7.918075e-04 1.171669e-03 3.487161e+00
<GCONST> -2.442950e+01
<STATE> 8
<MEAN> 7
 5.936080e-01 1.578616e-01 -2.158525e-02 -3.748230e-02 -1.421846e-02 1.608947e-02 -3.532530e+00
<VARIANCE> 7
 7.136225e-03 5.378509e-03 4.662640e-04 8.214096e-04 4.937220e-04 6.386020e-04 4.683597e+01
<GCONST> -2.320114e+01
<STATE> 9
<MEAN> 7
 5.158969e-01 1.145326e-01 -1.817859e-02 9.895628e-03 1.527051e-02 1.013577e-02 1.149790e+02
<VARIANCE> 7
 7.030497e-03 4.161519e-03 6.404300e-04 4.038257e-04 4.916835e-04 2.180005e-03 4.413651e+06
<GCONST> -1.118802e+01
<STATE> 10
<MEAN> 7
 4.550740e-01 1.604478e-01 -1.551767e-02 5.957451e-03 1.650424e-03 -1.760541e-03 -1.755874e+00
<VARIANCE> 7
 8.453479e-03 1.034928e-02 4.201029e-04 5.325766e-04 2.961455e-04 5.204759e-04 6.493734e+02
<GCONST> -2.100109e+01
<STATE> 11
<MEAN> 7
 4.489914e-01 1.436608e-01 1.339329e-02 -1.281216e-03 1.395505e-02 1.090862e-03 6.256217e-02
<VARIANCE> 7
 5.665326e-03 4.730729e-03 1.358418e-03 1.126514e-03 1.524776e-03 1.389440e-03 2.723375e+02
<GCONST> -1.850971e+01
<TRANSP> 12
 0.000000e+00 1.000000e+00 0.000000e+00 0.000000e+00 0.000000e+00 0.000000e+00 0.000000e+00 0.000000e+00 0.000000e+00 0.000000e+00 0.000000e+00 0.000000e+00
 0.000000e+00 9.091544e-01 9.084564e-02 0.000000e+00 0.000000e+00 0.000000e+00 0.000000e+00 0.000000e+00 0.000000e+00 0.000000e+00 0.000000e+00 0.000000e+00
 0.000000e+00 0.000000e+00 8.863981e-01 1.136020e-01 0.000000e+00 0.000000e+00 0.000000e+00 0.000000e+00 0.000000e+00 0.000000e+00 0.000000e+00 0.000000e+00
 0.000000e+00 0.000000e+00 0.000000e+00 0.000000e+00 1.000000e+00 0.000000e+00 0.000000e+00 0.000000e+00 0.000000e+00 0.000000e+00 0.000000e+00 0.000000e+00
 0.000000e+00 0.000000e+00 0.000000e+00 0.000000e+00 1.934894e-01 8.065106e-01 0.000000e+00 0.000000e+00 0.000000e+00 0.000000e+00 0.000000e+00 0.000000e+00
 0.000000e+00 0.000000e+00 0.000000e+00 0.000000e+00 0.000000e+00 9.295506e-01 7.044940e-02 0.000000e+00 0.000000e+00 0.000000e+00 0.000000e+00 0.000000e+00
 0.000000e+00 0.000000e+00 0.000000e+00 0.000000e+00 0.000000e+00 0.000000e+00 0.000000e+00 1.000000e+00 0.000000e+00 0.000000e+00 0.000000e+00 0.000000e+00
 0.000000e+00 0.000000e+00 0.000000e+00 0.000000e+00 0.000000e+00 0.000000e+00 0.000000e+00 9.183809e-01 8.161911e-02 0.000000e+00 0.000000e+00 0.000000e+00
 0.000000e+00 0.000000e+00 0.000000e+00 0.000000e+00 0.000000e+00 0.000000e+00 0.000000e+00 0.000000e+00 6.838990e-01 3.161009e-01 0.000000e+00 0.000000e+00
 0.000000e+00 0.000000e+00 0.000000e+00 0.000000e+00 0.000000e+00 0.000000e+00 0.000000e+00 0.000000e+00 0.000000e+00 9.349389e-01 6.506106e-02 0.000000e+00
 0.000000e+00 0.000000e+00 0.000000e+00 0.000000e+00 0.000000e+00 0.000000e+00 0.000000e+00 0.000000e+00 0.000000e+00 0.000000e+00 9.185411e-01 8.145896e-02
 0.000000e+00 0.000000e+00 0.000000e+00 0.000000e+00 0.000000e+00 0.000000e+00 0.000000e+00 0.000000e+00 0.000000e+00 0.000000e+00 0.000000e+00 0.000000e+00
<ENDHMM>
