~o
<STREAMINFO> 1 7
<VECSIZE> 7<NULLD><USER><DIAGC>
~h "proto"
<BEGINHMM>
<NUMSTATES> 12
<STATE> 2
<MEAN> 7
 4.292399e-01 2.614189e-01 -2.055653e-03 2.215308e-02 -2.523508e-02 -6.759609e-03 1.338274e+01
<VARIANCE> 7
 4.185622e-03 4.667767e-03 4.859815e-04 2.646688e-04 4.281352e-04 1.234953e-03 1.989588e+03
<GCONST> -2.070152e+01
<STATE> 3
<MEAN> 7
 3.682845e-01 2.554177e-01 -1.726739e-02 -2.450675e-02 1.342766e-02 -2.875114e-02 1.576294e+01
<VARIANCE> 7
 6.514607e-03 4.941034e-03 4.512263e-04 7.166599e-04 8.554192e-04 1.094352e-03 2.678257e+02
<GCONST> -2.071438e+01
<STATE> 4
<MEAN> 7
 4.143758e-01 1.666577e-01 5.002270e-02 -3.898353e-02 3.990045e-02 2.855285e-02 2.286842e+00
<VARIANCE> 7
 4.619218e-03 3.966025e-03 1.361331e-03 8.642384e-04 1.676666e-03 9.594720e-04 1.810110e+01
<GCONST> -2.213944e+01
<STATE> 5
<MEAN> 7
 5.640846e-01 1.832181e-01 1.301150e-02 3.022952e-02 -3.410579e-02 4.301881e-03 6.800663e+00
<VARIANCE> 7
 6.298328e-03 5.418258e-03 1.716259e-03 5.678954e-04 1.148212e-03 1.560784e-03 1.832914e+02
<GCONST> -1.928253e+01
<STATE> 6
<MEAN> 7
 5.102185e-01 2.325241e-01 5.418718e-03 -1.160938e-02 2.775287e-02 5.763248e-03 2.669737e+01
<VARIANCE> 7
 4.331368e-03 4.298320e-03 1.077058e-03 4.127811e-04 1.152626e-03 2.184311e-03 4.569091e+03
<GCONST> -1.711748e+01
<STATE> 7
<MEAN> 7
 5.621662e-01 2.680716e-01 -6.447533e-03 5.229258e-02 -4.110607e-02 3.952362e-03 5.779952e+00
<VARIANCE> 7
 6.263169e-03 5.236583e-03 1.240800e-03 4.630674e-04 8.788788e-04 1.878703e-03 9.265523e+01
<GCONST> -2.061481e+01
<STATE> 8
<MEAN> 7
 4.908229e-01 3.434207e-01 -4.068111e-02 1.477498e-02 3.263104e-02 -2.692708e-02 2.462870e+01
<VARIANCE> 7
 5.109235e-03 3.464573e-03 3.752490e-04 2.510574e-04 1.290028e-03 3.678575e-04 1.209203e+03
<GCONST> -2.171767e+01
<STATE> 9
<MEAN> 7
 5.189789e-01 3.240512e-01 2.411015e-02 3.711965e-03 6.155363e-02 -6.696271e-03 1.381833e+03
<VARIANCE> 7
 1.158510e-02 7.105104e-03 1.335885e-03 1.255743e-04 5.010452e-03 5.890626e-04 1.233952e+08
<GCONST> -6.242918e+00
<STATE> 10
<MEAN> 7
 5.730241e-01 3.553335e-01 8.290143e-02 5.211401e-03 1.543724e-02 -5.508873e-03 -1.564754e+00
<VARIANCE> 7
 9.865630e-03 3.869949e-03 1.468443e-03 1.300768e-04 4.608895e-03 4.045551e-04 2.239641e+01
<GCONST> -2.286260e+01
<STATE> 11
<MEAN> 7
 6.838208e-01 3.103594e-01 3.465466e-03 -1.706261e-02 -2.421826e-02 1.665336e-02 -2.714640e+01
<VARIANCE> 7
 8.723853e-03 4.653478e-03 1.309822e-03 1.445120e-03 3.388296e-03 3.146186e-03 7.323321e+03
<GCONST> -1.297430e+01
<TRANSP> 12
 0.000000e+00 1.000000e+00 0.000000e+00 0.000000e+00 0.000000e+00 0.000000e+00 0.000000e+00 0.000000e+00 0.000000e+00 0.000000e+00 0.000000e+00 0.000000e+00
 0.000000e+00 8.562738e-01 1.437262e-01 0.000000e+00 0.000000e+00 0.000000e+00 0.000000e+00 0.000000e+00 0.000000e+00 0.000000e+00 0.000000e+00 0.000000e+00
 0.000000e+00 0.000000e+00 8.653272e-01 1.346728e-01 0.000000e+00 0.000000e+00 0.000000e+00 0.000000e+00 0.000000e+00 0.000000e+00 0.000000e+00 0.000000e+00
 0.000000e+00 0.000000e+00 0.000000e+00 8.643510e-01 1.356490e-01 0.000000e+00 0.000000e+00 0.000000e+00 0.000000e+00 0.000000e+00 0.000000e+00 0.000000e+00
 0.000000e+00 0.000000e+00 0.000000e+00 0.000000e+00 9.199514e-01 8.004863e-02 0.000000e+00 0.000000e+00 0.000000e+00 0.000000e+00 0.000000e+00 0.000000e+00
 0.000000e+00 0.000000e+00 0.000000e+00 0.000000e+00 0.000000e+00 8.932939e-01 1.067061e-01 0.000000e+00 0.000000e+00 0.000000e+00 0.000000e+00 0.000000e+00
 0.000000e+00 0.000000e+00 0.000000e+00 0.000000e+00 0.000000e+00 0.000000e+00 8.615645e-01 1.384355e-01 0.000000e+00 0.000000e+00 0.000000e+00 0.000000e+00
 0.000000e+00 0.000000e+00 0.000000e+00 0.000000e+00 0.000000e+00 0.000000e+00 0.000000e+00 7.497306e-01 2.502694e-01 0.000000e+00 0.000000e+00 0.000000e+00
 0.000000e+00 0.000000e+00 0.000000e+00 0.000000e+00 0.000000e+00 0.000000e+00 0.000000e+00 0.000000e+00 6.039050e-01 3.960950e-01 0.000000e+00 0.000000e+00
 0.000000e+00 0.000000e+00 0.000000e+00 0.000000e+00 0.000000e+00 0.000000e+00 0.000000e+00 0.000000e+00 0.000000e+00 8.613754e-01 1.386246e-01 0.000000e+00
 0.000000e+00 0.000000e+00 0.000000e+00 0.000000e+00 0.000000e+00 0.000000e+00 0.000000e+00 0.000000e+00 0.000000e+00 0.000000e+00 9.051536e-01 9.484648e-02
 0.000000e+00 0.000000e+00 0.000000e+00 0.000000e+00 0.000000e+00 0.000000e+00 0.000000e+00 0.000000e+00 0.000000e+00 0.000000e+00 0.000000e+00 0.000000e+00
<ENDHMM>
