~o
<STREAMINFO> 1 6
<VECSIZE> 6<NULLD><USER><DIAGC>
~h "proto"
<BEGINHMM>
<NUMSTATES> 12
<STATE> 2
<MEAN> 6
 4.258383e-01 2.580089e-01 -3.434649e-03 2.043806e-02 -2.454872e-02 -8.465403e-03
<VARIANCE> 6
 4.505174e-03 5.954072e-03 5.537184e-04 2.640215e-04 3.479181e-04 1.192686e-03
<GCONST> -2.993237e+01
<STATE> 3
<MEAN> 6
 3.597838e-01 2.361084e-01 -5.208068e-03 -2.577805e-02 1.764024e-02 -1.628347e-02
<VARIANCE> 6
 4.740211e-03 6.703330e-03 5.494328e-04 8.695042e-04 8.414540e-04 9.137840e-04
<GCONST> -2.796207e+01
<STATE> 4
<MEAN> 6
 4.433406e-01 1.417313e-01 6.512934e-02 -2.302275e-02 1.741874e-02 4.073510e-02
<VARIANCE> 6
 4.959867e-03 5.926862e-03 9.150914e-04 1.221445e-03 2.943239e-03 8.915119e-04
<GCONST> -2.596242e+01
<STATE> 5
<MEAN> 6
 5.603238e-01 1.462249e-01 7.546457e-03 2.272578e-02 -2.193484e-02 2.354449e-03
<VARIANCE> 6
 5.871865e-03 3.285166e-03 1.018829e-03 6.294818e-04 1.265755e-03 7.088708e-04
<GCONST> -2.801230e+01
<STATE> 6
<MEAN> 6
 5.116287e-01 2.277690e-01 2.358073e-03 -6.526472e-04 1.945264e-02 1.659891e-03
<VARIANCE> 6
 3.929345e-03 1.485200e-03 1.349611e-03 5.640131e-04 1.408265e-03 1.849815e-03
<GCONST> -2.797066e+01
<STATE> 7
<MEAN> 6
 5.503267e-01 2.251464e-01 4.116578e-02 4.183364e-02 -2.633730e-02 5.448772e-02
<VARIANCE> 6
 4.873177e-03 1.054089e-03 8.760731e-04 3.223133e-04 8.478279e-04 1.721958e-03
<GCONST> -2.966900e+01
<STATE> 8
<MEAN> 6
 5.573298e-01 3.111295e-01 -1.210151e-02 4.051359e-02 -2.426970e-02 -1.044793e-02
<VARIANCE> 6
 4.688039e-03 2.476623e-03 1.354200e-03 1.115536e-03 1.840867e-03 1.655597e-03
<GCONST> -2.644041e+01
<STATE> 9
<MEAN> 6
 5.013426e-01 3.615188e-01 3.366686e-02 6.288305e-03 5.220739e-02 -6.303041e-03
<VARIANCE> 6
 5.588681e-03 2.739869e-03 3.723411e-03 1.693213e-04 2.333723e-03 5.046804e-04
<GCONST> -2.798830e+01
<STATE> 10
<MEAN> 6
 6.838530e-01 3.552455e-01 5.375867e-02 -1.587584e-02 -5.502205e-02 -2.794279e-02
<VARIANCE> 6
 4.906995e-03 4.142346e-03 1.874106e-03 5.536574e-04 1.309643e-03 4.651510e-04
<GCONST> -2.786606e+01
<STATE> 11
<MEAN> 6
 6.925292e-01 2.820579e-01 -1.119461e-02 -7.916936e-03 -3.663125e-03 4.129004e-02
<VARIANCE> 6
 6.044243e-03 5.157112e-03 9.775119e-04 1.625758e-03 3.341041e-03 1.671451e-03
<GCONST> -2.479658e+01
<TRANSP> 12
 0.000000e+00 1.000000e+00 0.000000e+00 0.000000e+00 0.000000e+00 0.000000e+00 0.000000e+00 0.000000e+00 0.000000e+00 0.000000e+00 0.000000e+00 0.000000e+00
 0.000000e+00 8.684171e-01 1.315829e-01 0.000000e+00 0.000000e+00 0.000000e+00 0.000000e+00 0.000000e+00 0.000000e+00 0.000000e+00 0.000000e+00 0.000000e+00
 0.000000e+00 0.000000e+00 9.091429e-01 9.085715e-02 0.000000e+00 0.000000e+00 0.000000e+00 0.000000e+00 0.000000e+00 0.000000e+00 0.000000e+00 0.000000e+00
 0.000000e+00 0.000000e+00 0.000000e+00 8.500276e-01 1.499724e-01 0.000000e+00 0.000000e+00 0.000000e+00 0.000000e+00 0.000000e+00 0.000000e+00 0.000000e+00
 0.000000e+00 0.000000e+00 0.000000e+00 0.000000e+00 9.117166e-01 8.828346e-02 0.000000e+00 0.000000e+00 0.000000e+00 0.000000e+00 0.000000e+00 0.000000e+00
 0.000000e+00 0.000000e+00 0.000000e+00 0.000000e+00 0.000000e+00 9.000062e-01 9.999375e-02 0.000000e+00 0.000000e+00 0.000000e+00 0.000000e+00 0.000000e+00
 0.000000e+00 0.000000e+00 0.000000e+00 0.000000e+00 0.000000e+00 0.000000e+00 0.000000e+00 1.000000e+00 0.000000e+00 0.000000e+00 0.000000e+00 0.000000e+00
 0.000000e+00 0.000000e+00 0.000000e+00 0.000000e+00 0.000000e+00 0.000000e+00 0.000000e+00 8.879718e-01 1.120283e-01 0.000000e+00 0.000000e+00 0.000000e+00
 0.000000e+00 0.000000e+00 0.000000e+00 0.000000e+00 0.000000e+00 0.000000e+00 0.000000e+00 0.000000e+00 8.833470e-01 1.166530e-01 0.000000e+00 0.000000e+00
 0.000000e+00 0.000000e+00 0.000000e+00 0.000000e+00 0.000000e+00 0.000000e+00 0.000000e+00 0.000000e+00 0.000000e+00 8.433968e-01 1.566032e-01 0.000000e+00
 0.000000e+00 0.000000e+00 0.000000e+00 0.000000e+00 0.000000e+00 0.000000e+00 0.000000e+00 0.000000e+00 0.000000e+00 0.000000e+00 8.581033e-01 1.418967e-01
 0.000000e+00 0.000000e+00 0.000000e+00 0.000000e+00 0.000000e+00 0.000000e+00 0.000000e+00 0.000000e+00 0.000000e+00 0.000000e+00 0.000000e+00 0.000000e+00
<ENDHMM>
