~o
<STREAMINFO> 1 6
<VECSIZE> 6<NULLD><USER><DIAGC>
~h "proto"
<BEGINHMM>
<NUMSTATES> 12
<STATE> 2
<MEAN> 6
 4.352109e-01 2.634984e-01 -2.407004e-03 2.383045e-02 -2.745507e-02 -7.407089e-03
<VARIANCE> 6
 4.929398e-03 4.999392e-03 5.656888e-04 3.000115e-04 5.856272e-04 1.019472e-03
<GCONST> -2.950417e+01
<STATE> 3
<MEAN> 6
 3.685462e-01 2.618918e-01 -1.944155e-02 -2.220303e-02 8.678488e-03 -3.061569e-02
<VARIANCE> 6
 4.611971e-03 4.332388e-03 4.735706e-04 5.491639e-04 2.732660e-04 1.006363e-03
<GCONST> -3.006227e+01
<STATE> 4
<MEAN> 6
 3.775541e-01 2.117733e-01 2.603480e-02 -6.692404e-02 7.126268e-02 6.858963e-03
<VARIANCE> 6
 4.701249e-03 3.669166e-03 1.878134e-03 5.671507e-04 1.737513e-03 2.279158e-03
<GCONST> -2.613207e+01
<STATE> 5
<MEAN> 6
 4.435951e-01 1.267196e-01 6.233096e-02 -1.210163e-02 5.517530e-03 3.860079e-02
<VARIANCE> 6
 4.124886e-03 2.183387e-03 1.191308e-03 5.158140e-04 9.359999e-04 9.884976e-04
<GCONST> -2.878602e+01
<STATE> 6
<MEAN> 6
 5.608551e-01 1.764669e-01 3.383406e-02 5.599249e-02 -6.038542e-02 3.226666e-02
<VARIANCE> 6
 5.450782e-03 3.275282e-03 1.416995e-03 7.812387e-04 1.256544e-03 2.189462e-03
<GCONST> -2.642342e+01
<STATE> 7
<MEAN> 6
 5.580729e-01 2.369757e-01 -2.196703e-02 6.364472e-02 -3.097472e-02 -3.190270e-02
<VARIANCE> 6
 5.669115e-03 3.898523e-03 5.509715e-04 2.523853e-04 4.205118e-04 8.322048e-04
<GCONST> -3.034647e+01
<STATE> 8
<MEAN> 6
 5.286123e-01 2.721168e-01 -1.669107e-02 3.090436e-02 2.337062e-02 -2.639914e-02
<VARIANCE> 6
 4.903863e-03 3.950725e-03 4.656158e-04 2.449239e-04 1.385429e-03 3.854384e-04
<GCONST> -3.025391e+01
<STATE> 9
<MEAN> 6
 5.797545e-01 2.944725e-01 6.419979e-02 5.457336e-03 2.652622e-02 -8.398861e-03
<VARIANCE> 6
 5.996034e-03 4.564992e-03 1.018727e-03 7.491581e-05 3.064412e-03 1.706908e-04
<GCONST> -3.033064e+01
<STATE> 10
<MEAN> 6
 7.145706e-01 3.032226e-01 3.666758e-02 -2.697412e-02 -4.993738e-02 -2.744723e-02
<VARIANCE> 6
 6.627569e-03 3.443403e-03 1.648810e-03 4.640255e-04 1.355932e-03 5.883302e-04
<GCONST> -2.778531e+01
<STATE> 11
<MEAN> 6
 6.901879e-01 2.309867e-01 -1.205043e-02 -5.204021e-03 -1.859777e-03 3.943885e-02
<VARIANCE> 6
 5.929879e-03 3.458958e-03 1.003437e-03 1.282270e-03 2.638812e-03 1.335842e-03
<GCONST> -2.588634e+01
<TRANSP> 12
 0.000000e+00 1.000000e+00 0.000000e+00 0.000000e+00 0.000000e+00 0.000000e+00 0.000000e+00 0.000000e+00 0.000000e+00 0.000000e+00 0.000000e+00 0.000000e+00
 0.000000e+00 8.616654e-01 1.383346e-01 0.000000e+00 0.000000e+00 0.000000e+00 0.000000e+00 0.000000e+00 0.000000e+00 0.000000e+00 0.000000e+00 0.000000e+00
 0.000000e+00 0.000000e+00 8.551233e-01 1.448767e-01 0.000000e+00 0.000000e+00 0.000000e+00 0.000000e+00 0.000000e+00 0.000000e+00 0.000000e+00 0.000000e+00
 0.000000e+00 0.000000e+00 0.000000e+00 7.766598e-01 2.233402e-01 0.000000e+00 0.000000e+00 0.000000e+00 0.000000e+00 0.000000e+00 0.000000e+00 0.000000e+00
 0.000000e+00 0.000000e+00 0.000000e+00 0.000000e+00 8.253788e-01 1.746212e-01 0.000000e+00 0.000000e+00 0.000000e+00 0.000000e+00 0.000000e+00 0.000000e+00
 0.000000e+00 0.000000e+00 0.000000e+00 0.000000e+00 0.000000e+00 8.168613e-01 1.831387e-01 0.000000e+00 0.000000e+00 0.000000e+00 0.000000e+00 0.000000e+00
 0.000000e+00 0.000000e+00 0.000000e+00 0.000000e+00 0.000000e+00 0.000000e+00 0.000000e+00 1.000000e+00 0.000000e+00 0.000000e+00 0.000000e+00 0.000000e+00
 0.000000e+00 0.000000e+00 0.000000e+00 0.000000e+00 0.000000e+00 0.000000e+00 0.000000e+00 8.260728e-01 1.739273e-01 0.000000e+00 0.000000e+00 0.000000e+00
 0.000000e+00 0.000000e+00 0.000000e+00 0.000000e+00 0.000000e+00 0.000000e+00 0.000000e+00 0.000000e+00 8.640421e-01 1.359579e-01 0.000000e+00 0.000000e+00
 0.000000e+00 0.000000e+00 0.000000e+00 0.000000e+00 0.000000e+00 0.000000e+00 0.000000e+00 0.000000e+00 0.000000e+00 8.147503e-01 1.852498e-01 0.000000e+00
 0.000000e+00 0.000000e+00 0.000000e+00 0.000000e+00 0.000000e+00 0.000000e+00 0.000000e+00 0.000000e+00 0.000000e+00 0.000000e+00 8.636947e-01 1.363053e-01
 0.000000e+00 0.000000e+00 0.000000e+00 0.000000e+00 0.000000e+00 0.000000e+00 0.000000e+00 0.000000e+00 0.000000e+00 0.000000e+00 0.000000e+00 0.000000e+00
<ENDHMM>
