~o
<STREAMINFO> 1 7
<VECSIZE> 7<NULLD><USER><DIAGC>
~h "proto"
<BEGINHMM>
<NUMSTATES> 12
<STATE> 2
<MEAN> 7
 4.276703e-01 2.559348e-01 5.095186e-06 2.507992e-02 -2.637708e-02 -5.847535e-03 1.057101e+01
<VARIANCE> 7
 4.697268e-03 4.709784e-03 5.693720e-04 4.315618e-04 9.962027e-04 1.353821e-03 2.017443e+03
<GCONST> -1.897962e+01
<STATE> 3
<MEAN> 7
 3.640843e-01 2.701126e-01 -2.278329e-02 -2.446957e-02 1.307331e-02 -3.861888e-02 1.687941e+01
<VARIANCE> 7
 5.565841e-03 4.471810e-03 6.853986e-04 9.510968e-04 1.090246e-03 1.655313e-03 3.410152e+02
<GCONST> -1.937253e+01
<STATE> 4
<MEAN> 7
 3.790466e-01 1.761941e-01 4.170143e-02 -5.492983e-02 5.207938e-02 2.374666e-02 8.490190e-01
<VARIANCE> 7
 4.938268e-03 3.963839e-03 1.650295e-03 8.564200e-04 2.204433e-03 1.548595e-03 1.003865e+01
<GCONST> -2.172694e+01
<STATE> 5
<MEAN> 7
 4.998840e-01 1.313871e-01 6.182406e-02 2.114034e-02 -3.456807e-02 5.397716e-02 1.339400e+01
<VARIANCE> 7
 5.747367e-03 3.249739e-03 1.106488e-03 1.102038e-03 2.128458e-03 2.252102e-03 1.176050e+02
<GCONST> -1.912113e+01
<STATE> 6
<MEAN> 7
 5.551158e-01 2.223233e-01 -8.994735e-03 6.142181e-02 -3.963234e-02 -1.521844e-02 5.025700e-01
<VARIANCE> 7
 5.384011e-03 4.212612e-03 6.733583e-04 6.324757e-04 1.315134e-03 9.459887e-04 1.754535e+01
<GCONST> -2.323027e+01
<STATE> 7
<MEAN> 7
 5.146381e-01 2.794646e-01 -2.302923e-02 2.724499e-02 3.193568e-02 -2.945358e-02 4.512121e+01
<VARIANCE> 7
 4.497249e-03 4.086093e-03 2.798846e-04 2.274699e-04 8.258749e-04 7.590601e-04 5.346974e+03
<GCONST> -2.030715e+01
<STATE> 8
<MEAN> 7
 5.122769e-01 2.924260e-01 6.301706e-03 1.615694e-02 8.853887e-02 -2.659013e-02 5.172338e+03
<VARIANCE> 7
 4.978198e-03 4.247318e-03 1.634047e-04 1.285230e-04 3.428033e-03 7.118831e-04 1.993530e+08
<GCONST> -9.390476e+00
<STATE> 9
<MEAN> 7
 5.529776e-01 2.745248e-01 4.557836e-02 3.720633e-03 3.908990e-02 -1.484723e-02 -3.251369e+01
<VARIANCE> 7
 5.788938e-03 3.313886e-03 1.108276e-03 1.266263e-04 5.863103e-03 3.365265e-04 4.130263e+04
<GCONST> -1.628275e+01
<STATE> 10
<MEAN> 7
 6.070769e-01 3.035218e-01 7.782919e-02 1.921001e-03 8.562190e-03 -9.651946e-03 -1.503683e+00
<VARIANCE> 7
 7.385852e-03 4.068484e-03 1.104500e-03 1.512101e-04 2.802014e-03 2.904112e-04 9.806435e+00
<GCONST> -2.489133e+01
<STATE> 11
<MEAN> 7
 6.960862e-01 2.524718e-01 2.965371e-03 -1.588153e-02 -2.343201e-02 1.552247e-02 -1.792841e+01
<VARIANCE> 7
 5.801036e-03 4.252108e-03 1.419944e-03 1.236762e-03 3.247832e-03 2.606544e-03 3.070966e+03
<GCONST> -1.464707e+01
<TRANSP> 12
 0.000000e+00 1.000000e+00 0.000000e+00 0.000000e+00 0.000000e+00 0.000000e+00 0.000000e+00 0.000000e+00 0.000000e+00 0.000000e+00 0.000000e+00 0.000000e+00
 0.000000e+00 8.552675e-01 1.447325e-01 0.000000e+00 0.000000e+00 0.000000e+00 0.000000e+00 0.000000e+00 0.000000e+00 0.000000e+00 0.000000e+00 0.000000e+00
 0.000000e+00 0.000000e+00 8.527104e-01 1.472896e-01 0.000000e+00 0.000000e+00 0.000000e+00 0.000000e+00 0.000000e+00 0.000000e+00 0.000000e+00 0.000000e+00
 0.000000e+00 0.000000e+00 0.000000e+00 8.437913e-01 1.562087e-01 0.000000e+00 0.000000e+00 0.000000e+00 0.000000e+00 0.000000e+00 0.000000e+00 0.000000e+00
 0.000000e+00 0.000000e+00 0.000000e+00 0.000000e+00 8.404368e-01 1.595632e-01 0.000000e+00 0.000000e+00 0.000000e+00 0.000000e+00 0.000000e+00 0.000000e+00
 0.000000e+00 0.000000e+00 0.000000e+00 0.000000e+00 0.000000e+00 8.089400e-01 1.910600e-01 0.000000e+00 0.000000e+00 0.000000e+00 0.000000e+00 0.000000e+00
 0.000000e+00 0.000000e+00 0.000000e+00 0.000000e+00 0.000000e+00 0.000000e+00 6.727185e-01 3.272816e-01 0.000000e+00 0.000000e+00 0.000000e+00 0.000000e+00
 0.000000e+00 0.000000e+00 0.000000e+00 0.000000e+00 0.000000e+00 0.000000e+00 0.000000e+00 0.000000e+00 1.000000e+00 0.000000e+00 0.000000e+00 0.000000e+00
 0.000000e+00 0.000000e+00 0.000000e+00 0.000000e+00 0.000000e+00 0.000000e+00 0.000000e+00 0.000000e+00 5.361934e-01 4.638066e-01 0.000000e+00 0.000000e+00
 0.000000e+00 0.000000e+00 0.000000e+00 0.000000e+00 0.000000e+00 0.000000e+00 0.000000e+00 0.000000e+00 0.000000e+00 8.332738e-01 1.667262e-01 0.000000e+00
 0.000000e+00 0.000000e+00 0.000000e+00 0.000000e+00 0.000000e+00 0.000000e+00 0.000000e+00 0.000000e+00 0.000000e+00 0.000000e+00 9.105198e-01 8.948015e-02
 0.000000e+00 0.000000e+00 0.000000e+00 0.000000e+00 0.000000e+00 0.000000e+00 0.000000e+00 0.000000e+00 0.000000e+00 0.000000e+00 0.000000e+00 0.000000e+00
<ENDHMM>
