~o
<STREAMINFO> 1 7
<VECSIZE> 7<NULLD><USER><DIAGC>
~h "proto"
<BEGINHMM>
<NUMSTATES> 12
<STATE> 2
<MEAN> 7
 3.989325e-01 3.176908e-01 1.746104e-02 1.742547e-02 9.409803e-03 -1.214004e-02 -8.042892e+00
<VARIANCE> 7
 3.783090e-03 7.089878e-03 2.646991e-04 4.256465e-04 2.594415e-04 6.490302e-04 3.807071e+02
<GCONST> -2.331496e+01
<STATE> 3
<MEAN> 7
 4.850883e-01 2.980453e-01 1.696095e-02 -2.775254e-02 -1.049441e-02 -5.808983e-03 -7.259251e+00
<VARIANCE> 7
 3.008200e-03 7.207595e-03 2.828442e-04 2.451283e-04 1.758209e-04 8.717765e-04 7.329684e+02
<GCONST> -2.345216e+01
<STATE> 4
<MEAN> 7
 4.913743e-01 2.480178e-01 7.500567e-03 -1.345483e-02 -4.962733e-03 4.907577e-02 7.965681e+01
<VARIANCE> 7
 3.931164e-03 4.886638e-03 3.047136e-04 1.466545e-04 2.792280e-04 2.198095e-03 1.814388e+04
<GCONST> -1.941606e+01
<STATE> 5
<MEAN> 7
 4.954679e-01 2.434229e-01 5.800430e-03 6.939969e-03 5.864589e-04 4.991945e-02 3.755461e+01
<VARIANCE> 7
 3.873569e-03 4.912437e-03 1.328228e-04 3.501580e-04 9.214058e-04 3.014669e-03 3.590642e+08
<GCONST> -7.982912e+00
<STATE> 6
<MEAN> 7
 5.502334e-01 3.080274e-01 2.618075e-02 4.762737e-03 2.369368e-03 -1.840173e-02 -8.890915e+00
<VARIANCE> 7
 5.191033e-03 6.513098e-03 3.555998e-04 1.307139e-03 5.332850e-04 1.237990e-03 2.554286e+02
<GCONST> -2.069902e+01
<STATE> 7
<MEAN> 7
 6.016416e-01 2.604492e-01 1.259044e-02 -6.681091e-02 -3.226803e-02 -1.354805e-02 -1.369846e+00
<VARIANCE> 7
 7.303918e-03 3.925475e-03 5.153705e-04 1.302844e-03 7.918346e-04 1.168582e-03 3.411142e+00
<GCONST> -2.447438e+01
<STATE> 8
<MEAN> 7
 5.931692e-01 1.570900e-01 -2.182557e-02 -3.719617e-02 -1.407946e-02 1.622627e-02 -3.579288e+00
<VARIANCE> 7
 7.160658e-03 5.340984e-03 4.613051e-04 8.241787e-04 4.935329e-04 6.368001e-04 4.745234e+01
<GCONST> -2.320218e+01
<STATE> 9
<MEAN> 7
 5.156499e-01 1.145894e-01 -1.814002e-02 9.959959e-03 1.530421e-02 1.009032e-02 1.152578e+02
<VARIANCE> 7
 7.025432e-03 4.167780e-03 6.401302e-04 4.026999e-04 4.924679e-04 2.182297e-03 4.424544e+06
<GCONST> -1.118539e+01
<STATE> 10
<MEAN> 7
 4.547813e-01 1.606461e-01 -1.544843e-02 5.966770e-03 1.660572e-03 -1.830737e-03 -1.718076e+00
<VARIANCE> 7
 8.445074e-03 1.035600e-02 4.195666e-04 5.333451e-04 2.964357e-04 5.196647e-04 6.504044e+02
<GCONST> -2.100026e+01
<STATE> 11
<MEAN> 7
 4.490844e-01 1.436146e-01 1.337292e-02 -1.288623e-03 1.393038e-02 1.109585e-03 5.419151e-02
<VARIANCE> 7
 5.666522e-03 4.728952e-03 1.359629e-03 1.126227e-03 1.524935e-03 1.389757e-03 2.722651e+02
<GCONST> -1.850917e+01
<TRANSP> 12
 0.000000e+00 1.000000e+00 0.000000e+00 0.000000e+00 0.000000e+00 0.000000e+00 0.000000e+00 0.000000e+00 0.000000e+00 0.000000e+00 0.000000e+00 0.000000e+00
 0.000000e+00 9.091736e-01 9.082639e-02 0.000000e+00 0.000000e+00 0.000000e+00 0.000000e+00 0.000000e+00 0.000000e+00 0.000000e+00 0.000000e+00 0.000000e+00
 0.000000e+00 0.000000e+00 8.863087e-01 1.136913e-01 0.000000e+00 0.000000e+00 0.000000e+00 0.000000e+00 0.000000e+00 0.000000e+00 0.000000e+00 0.000000e+00
 0.000000e+00 0.000000e+00 0.000000e+00 0.000000e+00 1.000000e+00 0.000000e+00 0.000000e+00 0.000000e+00 0.000000e+00 0.000000e+00 0.000000e+00 0.000000e+00
 0.000000e+00 0.000000e+00 0.000000e+00 0.000000e+00 1.956187e-01 8.043814e-01 0.000000e+00 0.000000e+00 0.000000e+00 0.000000e+00 0.000000e+00 0.000000e+00
 0.000000e+00 0.000000e+00 0.000000e+00 0.000000e+00 0.000000e+00 9.298508e-01 7.014925e-02 0.000000e+00 0.000000e+00 0.000000e+00 0.000000e+00 0.000000e+00
 0.000000e+00 0.000000e+00 0.000000e+00 0.000000e+00 0.000000e+00 0.000000e+00 0.000000e+00 1.000000e+00 0.000000e+00 0.000000e+00 0.000000e+00 0.000000e+00
 0.000000e+00 0.000000e+00 0.000000e+00 0.000000e+00 0.000000e+00 0.000000e+00 0.000000e+00 9.183106e-01 8.168942e-02 0.000000e+00 0.000000e+00 0.000000e+00
 0.000000e+00 0.000000e+00 0.000000e+00 0.000000e+00 0.000000e+00 0.000000e+00 0.000000e+00 0.000000e+00 6.831077e-01 3.168923e-01 0.000000e+00 0.000000e+00
 0.000000e+00 0.000000e+00 0.000000e+00 0.000000e+00 0.000000e+00 0.000000e+00 0.000000e+00 0.000000e+00 0.000000e+00 9.347611e-01 6.523893e-02 0.000000e+00
 0.000000e+00 0.000000e+00 0.000000e+00 0.000000e+00 0.000000e+00 0.000000e+00 0.000000e+00 0.000000e+00 0.000000e+00 0.000000e+00 9.185463e-01 8.145376e-02
 0.000000e+00 0.000000e+00 0.000000e+00 0.000000e+00 0.000000e+00 0.000000e+00 0.000000e+00 0.000000e+00 0.000000e+00 0.000000e+00 0.000000e+00 0.000000e+00
<ENDHMM>
