~o
<STREAMINFO> 1 6
<VECSIZE> 6<NULLD><USER><DIAGC>
~h "proto"
<BEGINHMM>
<NUMSTATES> 12
<STATE> 2
<MEAN> 6
 3.909327e-01 3.173676e-01 1.461298e-02 1.380310e-02 8.426222e-03 -8.535217e-03
<VARIANCE> 6
 2.377664e-03 6.979993e-03 2.895028e-04 5.872945e-04 3.154591e-04 6.315978e-04
<GCONST> -3.099515e+01
<STATE> 3
<MEAN> 6
 4.472939e-01 3.053174e-01 3.102947e-02 7.095824e-04 2.137565e-03 -3.534030e-02
<VARIANCE> 6
 1.289748e-03 7.640008e-03 4.041342e-04 7.224501e-04 6.867153e-04 1.013657e-03
<GCONST> -2.972481e+01
<STATE> 4
<MEAN> 6
 4.865693e-01 2.861217e-01 1.542918e-02 -5.999940e-03 -1.922563e-03 5.408173e-03
<VARIANCE> 6
 1.023556e-03 5.832687e-03 1.790978e-04 8.630441e-04 2.419338e-04 1.079024e-03
<GCONST> -3.184266e+01
<STATE> 5
<MEAN> 6
 5.645320e-01 3.009523e-01 3.512516e-02 2.898243e-03 3.478192e-03 -2.240825e-02
<VARIANCE> 6
 2.797988e-03 4.362499e-03 4.161148e-04 1.125006e-03 6.844968e-04 2.136361e-03
<GCONST> -2.829630e+01
<STATE> 6
<MEAN> 6
 6.266598e-01 2.596324e-01 1.316965e-02 -5.843869e-02 -2.812358e-02 -1.478509e-02
<VARIANCE> 6
 3.959736e-03 3.739992e-03 4.298070e-04 6.569502e-04 5.810626e-04 7.514670e-04
<GCONST> -2.981720e+01
<STATE> 7
<MEAN> 6
 6.264830e-01 1.238063e-01 -2.491522e-02 -3.050452e-02 -1.471921e-02 1.873662e-02
<VARIANCE> 6
 4.013687e-03 4.621408e-03 6.807384e-04 1.176001e-03 9.233539e-04 1.218895e-03
<GCONST> -2.760311e+01
<STATE> 8
<MEAN> 6
 5.191802e-01 1.109228e-01 -2.159874e-02 -7.163807e-04 7.676039e-04 7.875314e-03
<VARIANCE> 6
 2.361645e-03 4.059613e-03 3.982536e-04 4.361974e-04 2.345690e-04 6.095055e-04
<GCONST> -3.185426e+01
<STATE> 9
<MEAN> 6
 4.647008e-01 1.330233e-01 -3.899097e-02 1.377208e-02 2.857022e-02 2.590304e-02
<VARIANCE> 6
 2.735079e-03 6.707017e-03 6.826900e-04 5.979504e-04 5.655970e-04 1.689768e-03
<GCONST> -2.845120e+01
<STATE> 10
<MEAN> 6
 4.045988e-01 2.128201e-01 -1.336449e-02 5.225530e-03 1.492180e-02 -4.088070e-03
<VARIANCE> 6
 4.999568e-03 1.166217e-02 7.042307e-04 1.224833e-03 1.274428e-03 1.229816e-03
<GCONST> -2.605205e+01
<STATE> 11
<MEAN> 6
 4.614881e-01 1.259488e-01 3.404584e-02 6.292957e-04 8.793504e-03 -6.080976e-03
<VARIANCE> 6
 4.004326e-03 5.013385e-03 5.190209e-04 8.222732e-04 1.313772e-03 1.624435e-03
<GCONST> -2.751321e+01
<TRANSP> 12
 0.000000e+00 1.000000e+00 0.000000e+00 0.000000e+00 0.000000e+00 0.000000e+00 0.000000e+00 0.000000e+00 0.000000e+00 0.000000e+00 0.000000e+00 0.000000e+00
 0.000000e+00 9.109020e-01 8.909801e-02 0.000000e+00 0.000000e+00 0.000000e+00 0.000000e+00 0.000000e+00 0.000000e+00 0.000000e+00 0.000000e+00 0.000000e+00
 0.000000e+00 0.000000e+00 0.000000e+00 1.000000e+00 0.000000e+00 0.000000e+00 0.000000e+00 0.000000e+00 0.000000e+00 0.000000e+00 0.000000e+00 0.000000e+00
 0.000000e+00 0.000000e+00 0.000000e+00 9.138367e-01 8.616326e-02 0.000000e+00 0.000000e+00 0.000000e+00 0.000000e+00 0.000000e+00 0.000000e+00 0.000000e+00
 0.000000e+00 0.000000e+00 0.000000e+00 0.000000e+00 8.821872e-01 1.178128e-01 0.000000e+00 0.000000e+00 0.000000e+00 0.000000e+00 0.000000e+00 0.000000e+00
 0.000000e+00 0.000000e+00 0.000000e+00 0.000000e+00 0.000000e+00 8.134521e-01 1.865479e-01 0.000000e+00 0.000000e+00 0.000000e+00 0.000000e+00 0.000000e+00
 0.000000e+00 0.000000e+00 0.000000e+00 0.000000e+00 0.000000e+00 0.000000e+00 8.775426e-01 1.224574e-01 0.000000e+00 0.000000e+00 0.000000e+00 0.000000e+00
 0.000000e+00 0.000000e+00 0.000000e+00 0.000000e+00 0.000000e+00 0.000000e+00 0.000000e+00 9.205129e-01 7.948712e-02 0.000000e+00 0.000000e+00 0.000000e+00
 0.000000e+00 0.000000e+00 0.000000e+00 0.000000e+00 0.000000e+00 0.000000e+00 0.000000e+00 0.000000e+00 0.000000e+00 1.000000e+00 0.000000e+00 0.000000e+00
 0.000000e+00 0.000000e+00 0.000000e+00 0.000000e+00 0.000000e+00 0.000000e+00 0.000000e+00 0.000000e+00 0.000000e+00 9.099857e-01 9.001438e-02 0.000000e+00
 0.000000e+00 0.000000e+00 0.000000e+00 0.000000e+00 0.000000e+00 0.000000e+00 0.000000e+00 0.000000e+00 0.000000e+00 0.000000e+00 8.653376e-01 1.346625e-01
 0.000000e+00 0.000000e+00 0.000000e+00 0.000000e+00 0.000000e+00 0.000000e+00 0.000000e+00 0.000000e+00 0.000000e+00 0.000000e+00 0.000000e+00 0.000000e+00
<ENDHMM>
