~o
<STREAMINFO> 1 7
<VECSIZE> 7<NULLD><USER><DIAGC>
~h "proto"
<BEGINHMM>
<NUMSTATES> 12
<STATE> 2
<MEAN> 7
 3.788757e-01 3.044674e-01 1.734753e-02 3.421306e-03 2.748774e-03 -2.853211e-02 -2.455067e+01
<VARIANCE> 7
 4.447680e-03 6.574206e-03 6.635850e-04 1.034990e-03 1.808228e-03 1.775351e-03 1.931288e+03
<GCONST> -1.684927e+01
<STATE> 3
<MEAN> 7
 3.867288e-01 2.207071e-01 -1.522260e-02 -5.075218e-02 1.286992e-03 2.093735e-03 -1.889586e+00
<VARIANCE> 7
 4.819929e-03 6.343800e-03 2.806268e-04 6.608228e-04 1.101053e-03 5.321659e-04 2.746175e+01
<GCONST> -2.406789e+01
<STATE> 4
<MEAN> 7
 4.187260e-01 1.330683e-01 3.156729e-02 -7.323113e-04 7.698809e-03 3.442645e-02 7.594971e+00
<VARIANCE> 7
 5.319708e-03 5.520050e-03 4.162831e-04 1.102171e-03 1.593258e-03 1.684648e-03 5.837963e+02
<GCONST> -1.862381e+01
<STATE> 5
<MEAN> 7
 4.737436e-01 1.809748e-01 4.897343e-03 3.057819e-02 -1.258090e-02 -2.283649e-02 -1.492525e+01
<VARIANCE> 7
 3.138938e-03 5.707564e-03 3.448436e-04 3.152619e-04 4.362288e-04 1.061958e-03 9.171659e+03
<GCONST> -1.956033e+01
<STATE> 6
<MEAN> 7
 4.733429e-01 2.133211e-01 7.252051e-03 -3.937960e-03 1.068857e-02 -6.534018e-02 -8.375850e+02
<VARIANCE> 7
 3.546434e-03 4.179363e-03 1.825572e-04 1.522446e-04 6.850413e-04 1.289780e-03 6.201704e+08
<GCONST> -9.346550e+00
<STATE> 7
<MEAN> 7
 5.212879e-01 1.746552e-01 3.122357e-02 3.638195e-03 -4.881485e-03 2.762146e-02 1.363277e+01
<VARIANCE> 7
 5.648448e-03 2.714355e-03 7.254443e-04 1.610953e-03 2.398293e-03 2.313064e-03 6.630194e+02
<GCONST> -1.748547e+01
<STATE> 8
<MEAN> 7
 5.430754e-01 2.900212e-01 -2.805928e-02 5.522376e-02 2.647441e-03 -3.105159e-02 2.511453e+01
<VARIANCE> 7
 4.514896e-03 4.203715e-03 8.051581e-04 9.667253e-04 3.445099e-03 1.051550e-03 9.976332e+03
<GCONST> -1.539341e+01
<STATE> 9
<MEAN> 7
 5.206800e-01 3.106422e-01 1.117163e-02 1.577151e-02 9.799960e-02 -3.384667e-02 8.449774e+02
<VARIANCE> 7
 4.771009e-03 6.135198e-03 4.403911e-04 1.666756e-04 6.227671e-03 1.034584e-03 1.205923e+07
<GCONST> -9.648247e+00
<STATE> 10
<MEAN> 7
 5.865189e-01 3.336020e-01 7.564379e-02 3.144513e-03 2.060008e-02 -1.625915e-02 -1.862445e+01
<VARIANCE> 7
 7.017710e-03 4.427211e-03 1.739749e-03 1.384127e-04 5.595480e-03 5.301304e-04 1.631842e+04
<GCONST> -1.578158e+01
<STATE> 11
<MEAN> 7
 6.845368e-01 2.703623e-01 6.241059e-03 -1.800263e-02 -2.542278e-02 1.943180e-02 -1.302809e+01
<VARIANCE> 7
 5.961684e-03 6.843317e-03 1.891199e-03 1.882337e-03 4.267283e-03 3.551123e-03 2.367497e+03
<GCONST> -1.311521e+01
<TRANSP> 12
 0.000000e+00 1.000000e+00 0.000000e+00 0.000000e+00 0.000000e+00 0.000000e+00 0.000000e+00 0.000000e+00 0.000000e+00 0.000000e+00 0.000000e+00 0.000000e+00
 0.000000e+00 8.942711e-01 1.057290e-01 0.000000e+00 0.000000e+00 0.000000e+00 0.000000e+00 0.000000e+00 0.000000e+00 0.000000e+00 0.000000e+00 0.000000e+00
 0.000000e+00 0.000000e+00 8.831850e-01 1.168150e-01 0.000000e+00 0.000000e+00 0.000000e+00 0.000000e+00 0.000000e+00 0.000000e+00 0.000000e+00 0.000000e+00
 0.000000e+00 0.000000e+00 0.000000e+00 8.947574e-01 1.052426e-01 0.000000e+00 0.000000e+00 0.000000e+00 0.000000e+00 0.000000e+00 0.000000e+00 0.000000e+00
 0.000000e+00 0.000000e+00 0.000000e+00 0.000000e+00 8.000514e-01 1.999487e-01 0.000000e+00 0.000000e+00 0.000000e+00 0.000000e+00 0.000000e+00 0.000000e+00
 0.000000e+00 0.000000e+00 0.000000e+00 0.000000e+00 0.000000e+00 0.000000e+00 1.000000e+00 0.000000e+00 0.000000e+00 0.000000e+00 0.000000e+00 0.000000e+00
 0.000000e+00 0.000000e+00 0.000000e+00 0.000000e+00 0.000000e+00 0.000000e+00 9.073074e-01 9.269256e-02 0.000000e+00 0.000000e+00 0.000000e+00 0.000000e+00
 0.000000e+00 0.000000e+00 0.000000e+00 0.000000e+00 0.000000e+00 0.000000e+00 0.000000e+00 8.250121e-01 1.749879e-01 0.000000e+00 0.000000e+00 0.000000e+00
 0.000000e+00 0.000000e+00 0.000000e+00 0.000000e+00 0.000000e+00 0.000000e+00 0.000000e+00 0.000000e+00 0.000000e+00 1.000000e+00 0.000000e+00 0.000000e+00
 0.000000e+00 0.000000e+00 0.000000e+00 0.000000e+00 0.000000e+00 0.000000e+00 0.000000e+00 0.000000e+00 0.000000e+00 8.403470e-01 1.596531e-01 0.000000e+00
 0.000000e+00 0.000000e+00 0.000000e+00 0.000000e+00 0.000000e+00 0.000000e+00 0.000000e+00 0.000000e+00 0.000000e+00 0.000000e+00 8.986025e-01 1.013975e-01
 0.000000e+00 0.000000e+00 0.000000e+00 0.000000e+00 0.000000e+00 0.000000e+00 0.000000e+00 0.000000e+00 0.000000e+00 0.000000e+00 0.000000e+00 0.000000e+00
<ENDHMM>
