~o
<STREAMINFO> 1 6
<VECSIZE> 6<NULLD><USER><DIAGC>
~h "proto"
<BEGINHMM>
<NUMSTATES> 12
<STATE> 2
<MEAN> 6
 3.633328e-01 3.027127e-01 1.486246e-02 1.977081e-02 2.515661e-02 -1.476952e-02
<VARIANCE> 6
 4.100216e-03 6.582538e-03 6.849300e-04 3.913948e-04 1.014973e-03 1.170903e-03
<GCONST> -2.826765e+01
<STATE> 3
<MEAN> 6
 4.260234e-01 3.100270e-01 1.273022e-02 -4.138095e-02 -3.760773e-02 -4.699861e-02
<VARIANCE> 6
 2.774930e-03 4.751408e-03 6.239517e-04 1.029955e-03 7.963106e-04 1.462191e-03
<GCONST> -2.813020e+01
<STATE> 4
<MEAN> 6
 3.794303e-01 1.989396e-01 -1.683419e-02 -4.858158e-02 1.347190e-02 1.003236e-02
<VARIANCE> 6
 4.541307e-03 4.576095e-03 2.865540e-04 5.356200e-04 1.122384e-03 6.740313e-04
<GCONST> -2.953839e+01
<STATE> 5
<MEAN> 6
 3.881328e-01 1.229172e-01 3.272495e-02 -6.144283e-03 1.435240e-02 3.323714e-02
<VARIANCE> 6
 3.011433e-03 4.827231e-03 3.455709e-04 9.536996e-04 1.416188e-03 2.063671e-03
<GCONST> -2.778009e+01
<STATE> 6
<MEAN> 6
 4.716863e-01 1.824211e-01 1.930910e-02 4.251618e-03 2.017497e-03 -7.260904e-03
<VARIANCE> 6
 1.601081e-03 3.111442e-03 4.198161e-04 9.022038e-04 8.360322e-04 1.696118e-03
<GCONST> -2.943510e+01
<STATE> 7
<MEAN> 6
 5.789034e-01 1.479445e-01 3.287388e-02 1.959659e-02 -2.137691e-02 3.858301e-02
<VARIANCE> 6
 3.679400e-03 4.409124e-03 8.737994e-04 1.646466e-03 2.372985e-03 2.921190e-03
<GCONST> -2.533298e+01
<STATE> 8
<MEAN> 6
 5.552894e-01 2.800988e-01 -3.034685e-02 6.126085e-02 -1.036251e-03 -3.689637e-02
<VARIANCE> 6
 4.450848e-03 4.796972e-03 5.558690e-04 8.829315e-04 4.093787e-03 1.239934e-03
<GCONST> -2.644539e+01
<STATE> 9
<MEAN> 6
 5.492221e-01 3.233226e-01 5.625802e-02 8.239283e-03 5.951470e-02 -1.489956e-02
<VARIANCE> 6
 4.729413e-03 5.859950e-03 2.369171e-03 1.120503e-04 3.853161e-03 4.931045e-04
<GCONST> -2.778174e+01
<STATE> 10
<MEAN> 6
 6.963584e-01 3.192559e-01 5.461370e-02 -2.916700e-02 -6.298722e-02 -3.534815e-02
<VARIANCE> 6
 4.853563e-03 4.872396e-03 2.072402e-03 7.309292e-04 1.674006e-03 1.064626e-03
<GCONST> -2.626286e+01
<STATE> 11
<MEAN> 6
 6.863461e-01 2.519259e-01 -1.599489e-02 -9.212384e-03 -9.751913e-03 5.529496e-02
<VARIANCE> 6
 5.380440e-03 3.683960e-03 1.067114e-03 2.095911e-03 4.890567e-03 2.055668e-03
<GCONST> -2.431965e+01
<TRANSP> 12
 0.000000e+00 1.000000e+00 0.000000e+00 0.000000e+00 0.000000e+00 0.000000e+00 0.000000e+00 0.000000e+00 0.000000e+00 0.000000e+00 0.000000e+00 0.000000e+00
 0.000000e+00 8.304657e-01 1.695343e-01 0.000000e+00 0.000000e+00 0.000000e+00 0.000000e+00 0.000000e+00 0.000000e+00 0.000000e+00 0.000000e+00 0.000000e+00
 0.000000e+00 0.000000e+00 7.870173e-01 2.129827e-01 0.000000e+00 0.000000e+00 0.000000e+00 0.000000e+00 0.000000e+00 0.000000e+00 0.000000e+00 0.000000e+00
 0.000000e+00 0.000000e+00 0.000000e+00 8.546551e-01 1.453449e-01 0.000000e+00 0.000000e+00 0.000000e+00 0.000000e+00 0.000000e+00 0.000000e+00 0.000000e+00
 0.000000e+00 0.000000e+00 0.000000e+00 0.000000e+00 8.494252e-01 1.505748e-01 0.000000e+00 0.000000e+00 0.000000e+00 0.000000e+00 0.000000e+00 0.000000e+00
 0.000000e+00 0.000000e+00 0.000000e+00 0.000000e+00 0.000000e+00 9.051929e-01 9.480716e-02 0.000000e+00 0.000000e+00 0.000000e+00 0.000000e+00 0.000000e+00
 0.000000e+00 0.000000e+00 0.000000e+00 0.000000e+00 0.000000e+00 0.000000e+00 8.782987e-01 1.217013e-01 0.000000e+00 0.000000e+00 0.000000e+00 0.000000e+00
 0.000000e+00 0.000000e+00 0.000000e+00 0.000000e+00 0.000000e+00 0.000000e+00 0.000000e+00 8.158111e-01 1.841889e-01 0.000000e+00 0.000000e+00 0.000000e+00
 0.000000e+00 0.000000e+00 0.000000e+00 0.000000e+00 0.000000e+00 0.000000e+00 0.000000e+00 0.000000e+00 8.357979e-01 1.642021e-01 0.000000e+00 0.000000e+00
 0.000000e+00 0.000000e+00 0.000000e+00 0.000000e+00 0.000000e+00 0.000000e+00 0.000000e+00 0.000000e+00 0.000000e+00 8.024098e-01 1.975902e-01 0.000000e+00
 0.000000e+00 0.000000e+00 0.000000e+00 0.000000e+00 0.000000e+00 0.000000e+00 0.000000e+00 0.000000e+00 0.000000e+00 0.000000e+00 8.217046e-01 1.782954e-01
 0.000000e+00 0.000000e+00 0.000000e+00 0.000000e+00 0.000000e+00 0.000000e+00 0.000000e+00 0.000000e+00 0.000000e+00 0.000000e+00 0.000000e+00 0.000000e+00
<ENDHMM>
