~o
<STREAMINFO> 1 7
<VECSIZE> 7<NULLD><USER><DIAGC>
~h "proto"
<BEGINHMM>
<NUMSTATES> 12
<STATE> 2
<MEAN> 7
 4.292398e-01 2.614188e-01 -2.055593e-03 2.215313e-02 -2.523512e-02 -6.759511e-03 1.338275e+01
<VARIANCE> 7
 4.185623e-03 4.667765e-03 4.859781e-04 2.646681e-04 4.281334e-04 1.234944e-03 1.989594e+03
<GCONST> -2.070154e+01
<STATE> 3
<MEAN> 7
 3.682846e-01 2.554179e-01 -1.726746e-02 -2.450665e-02 1.342759e-02 -2.875126e-02 1.576306e+01
<VARIANCE> 7
 6.514597e-03 4.941026e-03 4.512266e-04 7.166606e-04 8.554167e-04 1.094356e-03 2.678270e+02
<GCONST> -2.071437e+01
<STATE> 4
<MEAN> 7
 4.143753e-01 1.666577e-01 5.002256e-02 -3.898361e-02 3.990050e-02 2.855274e-02 2.286832e+00
<VARIANCE> 7
 4.619220e-03 3.966033e-03 1.361333e-03 8.642387e-04 1.676659e-03 9.594728e-04 1.810098e+01
<GCONST> -2.213945e+01
<STATE> 5
<MEAN> 7
 5.640845e-01 1.832176e-01 1.301176e-02 3.022959e-02 -3.410597e-02 4.302160e-03 6.800638e+00
<VARIANCE> 7
 6.298294e-03 5.418222e-03 1.716263e-03 5.678976e-04 1.148213e-03 1.560781e-03 1.832901e+02
<GCONST> -1.928255e+01
<STATE> 6
<MEAN> 7
 5.102203e-01 2.325235e-01 5.419673e-03 -1.160788e-02 2.775091e-02 5.764832e-03 2.669732e+01
<VARIANCE> 7
 4.331477e-03 4.298330e-03 1.077078e-03 4.128237e-04 1.152685e-03 2.184388e-03 4.568900e+03
<GCONST> -1.711728e+01
<STATE> 7
<MEAN> 7
 5.621611e-01 2.680835e-01 -6.456025e-03 5.229154e-02 -4.110268e-02 3.943755e-03 5.778820e+00
<VARIANCE> 7
 6.263196e-03 5.236777e-03 1.240951e-03 4.630383e-04 8.789487e-04 1.878639e-03 9.262353e+01
<GCONST> -2.061500e+01
<STATE> 8
<MEAN> 7
 4.908121e-01 3.434227e-01 -4.067622e-02 1.476869e-02 3.264472e-02 -2.692270e-02 2.463758e+01
<VARIANCE> 7
 5.109047e-03 3.464917e-03 3.751833e-04 2.509897e-04 1.289876e-03 3.678309e-04 1.210309e+03
<GCONST> -2.171733e+01
<STATE> 9
<MEAN> 7
 5.189903e-01 3.240457e-01 2.411360e-02 3.712702e-03 6.154671e-02 -6.697499e-03 1.382142e+03
<VARIANCE> 7
 1.158626e-02 7.105718e-03 1.335948e-03 1.255790e-04 5.011105e-03 5.890904e-04 1.234232e+08
<GCONST> -6.242241e+00
<STATE> 10
<MEAN> 7
 5.730272e-01 3.553341e-01 8.289764e-02 5.210062e-03 1.543537e-02 -5.511490e-03 -1.566359e+00
<VARIANCE> 7
 9.866267e-03 3.869938e-03 1.468395e-03 1.300871e-04 4.609145e-03 4.046550e-04 2.242632e+01
<GCONST> -2.286086e+01
<STATE> 11
<MEAN> 7
 6.838232e-01 3.103557e-01 3.461368e-03 -1.706334e-02 -2.421702e-02 1.665712e-02 -2.714720e+01
<VARIANCE> 7
 8.723748e-03 4.653319e-03 1.309644e-03 1.445206e-03 3.388424e-03 3.146181e-03 7.323793e+03
<GCONST> -1.297432e+01
<TRANSP> 12
 0.000000e+00 1.000000e+00 0.000000e+00 0.000000e+00 0.000000e+00 0.000000e+00 0.000000e+00 0.000000e+00 0.000000e+00 0.000000e+00 0.000000e+00 0.000000e+00
 0.000000e+00 8.562734e-01 1.437266e-01 0.000000e+00 0.000000e+00 0.000000e+00 0.000000e+00 0.000000e+00 0.000000e+00 0.000000e+00 0.000000e+00 0.000000e+00
 0.000000e+00 0.000000e+00 8.653271e-01 1.346730e-01 0.000000e+00 0.000000e+00 0.000000e+00 0.000000e+00 0.000000e+00 0.000000e+00 0.000000e+00 0.000000e+00
 0.000000e+00 0.000000e+00 0.000000e+00 8.643512e-01 1.356488e-01 0.000000e+00 0.000000e+00 0.000000e+00 0.000000e+00 0.000000e+00 0.000000e+00 0.000000e+00
 0.000000e+00 0.000000e+00 0.000000e+00 0.000000e+00 9.199510e-01 8.004905e-02 0.000000e+00 0.000000e+00 0.000000e+00 0.000000e+00 0.000000e+00 0.000000e+00
 0.000000e+00 0.000000e+00 0.000000e+00 0.000000e+00 0.000000e+00 8.932984e-01 1.067016e-01 0.000000e+00 0.000000e+00 0.000000e+00 0.000000e+00 0.000000e+00
 0.000000e+00 0.000000e+00 0.000000e+00 0.000000e+00 0.000000e+00 0.000000e+00 8.615772e-01 1.384228e-01 0.000000e+00 0.000000e+00 0.000000e+00 0.000000e+00
 0.000000e+00 0.000000e+00 0.000000e+00 0.000000e+00 0.000000e+00 0.000000e+00 0.000000e+00 7.496884e-01 2.503116e-01 0.000000e+00 0.000000e+00 0.000000e+00
 0.000000e+00 0.000000e+00 0.000000e+00 0.000000e+00 0.000000e+00 0.000000e+00 0.000000e+00 0.000000e+00 6.038070e-01 3.961930e-01 0.000000e+00 0.000000e+00
 0.000000e+00 0.000000e+00 0.000000e+00 0.000000e+00 0.000000e+00 0.000000e+00 0.000000e+00 0.000000e+00 0.000000e+00 8.613952e-01 1.386048e-01 0.000000e+00
 0.000000e+00 0.000000e+00 0.000000e+00 0.000000e+00 0.000000e+00 0.000000e+00 0.000000e+00 0.000000e+00 0.000000e+00 0.000000e+00 9.051470e-01 9.485299e-02
 0.000000e+00 0.000000e+00 0.000000e+00 0.000000e+00 0.000000e+00 0.000000e+00 0.000000e+00 0.000000e+00 0.000000e+00 0.000000e+00 0.000000e+00 0.000000e+00
<ENDHMM>
