~o
<STREAMINFO> 1 6
<VECSIZE> 6<NULLD><USER><DIAGC>
~h "proto"
<BEGINHMM>
<NUMSTATES> 12
<STATE> 2
<MEAN> 6
 4.258302e-01 2.580284e-01 -3.456497e-03 2.042068e-02 -2.453520e-02 -8.492102e-03
<VARIANCE> 6
 4.504086e-03 5.953395e-03 5.540161e-04 2.642967e-04 3.479611e-04 1.193112e-03
<GCONST> -2.993067e+01
<STATE> 3
<MEAN> 6
 3.597724e-01 2.360442e-01 -5.158289e-03 -2.582862e-02 1.770167e-02 -1.624136e-02
<VARIANCE> 6
 4.739033e-03 6.703171e-03 5.500625e-04 8.712182e-04 8.448258e-04 9.138917e-04
<GCONST> -2.795511e+01
<STATE> 4
<MEAN> 6
 4.436432e-01 1.416201e-01 6.521361e-02 -2.286671e-02 1.723033e-02 4.082008e-02
<VARIANCE> 6
 4.966384e-03 5.921626e-03 9.126854e-04 1.222201e-03 2.946023e-03 8.901801e-04
<GCONST> -2.596455e+01
<STATE> 5
<MEAN> 6
 5.603628e-01 1.461143e-01 7.530111e-03 2.268834e-02 -2.189646e-02 2.357644e-03
<VARIANCE> 6
 5.875147e-03 3.273860e-03 1.015379e-03 6.288126e-04 1.265867e-03 7.060344e-04
<GCONST> -2.802356e+01
<STATE> 6
<MEAN> 6
 5.116624e-01 2.277420e-01 2.345979e-03 -5.525651e-04 1.932495e-02 1.665436e-03
<VARIANCE> 6
 3.931594e-03 1.482940e-03 1.348830e-03 5.673869e-04 1.412381e-03 1.850454e-03
<GCONST> -2.796297e+01
<STATE> 7
<MEAN> 6
 5.504236e-01 2.252582e-01 4.101365e-02 4.203355e-02 -2.645545e-02 5.433714e-02
<VARIANCE> 6
 4.878307e-03 1.054183e-03 8.760181e-04 3.252638e-04 8.554969e-04 1.719006e-03
<GCONST> -2.965152e+01
<STATE> 8
<MEAN> 6
 5.573418e-01 3.112154e-01 -1.215364e-02 4.046940e-02 -2.419935e-02 -1.052458e-02
<VARIANCE> 6
 4.686122e-03 2.470409e-03 1.353657e-03 1.117134e-03 1.843149e-03 1.653292e-03
<GCONST> -2.644246e+01
<STATE> 9
<MEAN> 6
 5.013334e-01 3.615179e-01 3.369654e-02 6.283185e-03 5.221590e-02 -6.290656e-03
<VARIANCE> 6
 5.589117e-03 2.740589e-03 3.721726e-03 1.692648e-04 2.333792e-03 5.043701e-04
<GCONST> -2.798933e+01
<STATE> 10
<MEAN> 6
 6.838514e-01 3.552334e-01 5.376144e-02 -1.587404e-02 -5.501963e-02 -2.794199e-02
<VARIANCE> 6
 4.906865e-03 4.143811e-03 1.874210e-03 5.536490e-04 1.309638e-03 4.651211e-04
<GCONST> -2.786576e+01
<STATE> 11
<MEAN> 6
 6.925289e-01 2.820609e-01 -1.119589e-02 -7.916998e-03 -3.662517e-03 4.129169e-02
<VARIANCE> 6
 6.044387e-03 5.157140e-03 9.774890e-04 1.625808e-03 3.341109e-03 1.671403e-03
<GCONST> -2.479655e+01
<TRANSP> 12
 0.000000e+00 1.000000e+00 0.000000e+00 0.000000e+00 0.000000e+00 0.000000e+00 0.000000e+00 0.000000e+00 0.000000e+00 0.000000e+00 0.000000e+00 0.000000e+00
 0.000000e+00 8.685127e-01 1.314873e-01 0.000000e+00 0.000000e+00 0.000000e+00 0.000000e+00 0.000000e+00 0.000000e+00 0.000000e+00 0.000000e+00 0.000000e+00
 0.000000e+00 0.000000e+00 9.092000e-01 9.079999e-02 0.000000e+00 0.000000e+00 0.000000e+00 0.000000e+00 0.000000e+00 0.000000e+00 0.000000e+00 0.000000e+00
 0.000000e+00 0.000000e+00 0.000000e+00 8.500209e-01 1.499791e-01 0.000000e+00 0.000000e+00 0.000000e+00 0.000000e+00 0.000000e+00 0.000000e+00 0.000000e+00
 0.000000e+00 0.000000e+00 0.000000e+00 0.000000e+00 9.115133e-01 8.848671e-02 0.000000e+00 0.000000e+00 0.000000e+00 0.000000e+00 0.000000e+00 0.000000e+00
 0.000000e+00 0.000000e+00 0.000000e+00 0.000000e+00 0.000000e+00 9.001740e-01 9.982603e-02 0.000000e+00 0.000000e+00 0.000000e+00 0.000000e+00 0.000000e+00
 0.000000e+00 0.000000e+00 0.000000e+00 0.000000e+00 0.000000e+00 0.000000e+00 0.000000e+00 1.000000e+00 0.000000e+00 0.000000e+00 0.000000e+00 0.000000e+00
 0.000000e+00 0.000000e+00 0.000000e+00 0.000000e+00 0.000000e+00 0.000000e+00 0.000000e+00 8.879657e-01 1.120343e-01 0.000000e+00 0.000000e+00 0.000000e+00
 0.000000e+00 0.000000e+00 0.000000e+00 0.000000e+00 0.000000e+00 0.000000e+00 0.000000e+00 0.000000e+00 8.833102e-01 1.166898e-01 0.000000e+00 0.000000e+00
 0.000000e+00 0.000000e+00 0.000000e+00 0.000000e+00 0.000000e+00 0.000000e+00 0.000000e+00 0.000000e+00 0.000000e+00 8.434101e-01 1.565899e-01 0.000000e+00
 0.000000e+00 0.000000e+00 0.000000e+00 0.000000e+00 0.000000e+00 0.000000e+00 0.000000e+00 0.000000e+00 0.000000e+00 0.000000e+00 8.580990e-01 1.419010e-01
 0.000000e+00 0.000000e+00 0.000000e+00 0.000000e+00 0.000000e+00 0.000000e+00 0.000000e+00 0.000000e+00 0.000000e+00 0.000000e+00 0.000000e+00 0.000000e+00
<ENDHMM>
