~o
<STREAMINFO> 1 6
<VECSIZE> 6<NULLD><USER><DIAGC>
~h "proto"
<BEGINHMM>
<NUMSTATES> 12
<STATE> 2
<MEAN> 6
 3.574864e-01 2.699444e-01 3.035032e-02 -2.063337e-03 -2.254751e-02 -8.695122e-03
<VARIANCE> 6
 5.822440e-03 5.156976e-03 6.416649e-04 1.832337e-04 9.218485e-04 4.297089e-04
<GCONST> -3.008390e+01
<STATE> 3
<MEAN> 6
 4.057845e-01 2.380181e-01 -1.481441e-02 -4.144347e-02 1.048089e-03 -1.041936e-02
<VARIANCE> 6
 2.555528e-03 4.482851e-03 3.865984e-04 4.173774e-04 2.167156e-03 1.435106e-03
<GCONST> -2.867023e+01
<STATE> 4
<MEAN> 6
 3.811165e-01 1.400627e-01 2.287942e-02 -1.586234e-02 1.941526e-02 2.363047e-02
<VARIANCE> 6
 2.067577e-03 3.976737e-03 4.082542e-04 3.090369e-04 5.293143e-04 7.899882e-04
<GCONST> -3.125450e+01
<STATE> 5
<MEAN> 6
 4.545657e-01 1.904409e-01 2.045746e-02 2.096930e-02 -1.327748e-02 -5.054702e-03
<VARIANCE> 6
 1.475393e-03 5.435756e-03 3.567358e-04 2.620884e-04 3.334438e-04 1.348838e-03
<GCONST> -3.150622e+01
<STATE> 6
<MEAN> 6
 4.961248e-01 1.719076e-01 2.678788e-02 -2.023645e-02 2.069202e-02 1.707854e-03
<VARIANCE> 6
 1.633684e-03 5.266029e-03 4.711415e-04 1.774126e-04 6.231625e-04 9.300510e-04
<GCONST> -3.129449e+01
<STATE> 7
<MEAN> 6
 5.774693e-01 1.649338e-01 2.990491e-02 3.575842e-02 -3.688825e-02 4.098261e-02
<VARIANCE> 6
 2.728613e-03 5.174966e-03 7.743661e-04 9.121145e-04 1.119430e-03 1.691694e-03
<GCONST> -2.748079e+01
<STATE> 8
<MEAN> 6
 5.541990e-01 2.747450e-01 -2.795872e-02 3.989212e-02 5.180637e-03 -2.939403e-02
<VARIANCE> 6
 3.616206e-03 4.497724e-03 3.468038e-04 6.234465e-04 2.835875e-03 6.079472e-04
<GCONST> -2.861708e+01
<STATE> 9
<MEAN> 6
 5.701323e-01 3.042517e-01 5.808681e-02 7.017501e-03 3.616326e-02 -4.705472e-03
<VARIANCE> 6
 5.167677e-03 6.644268e-03 1.433208e-03 6.327134e-05 3.160137e-03 1.895080e-04
<GCONST> -2.979621e+01
<STATE> 10
<MEAN> 6
 7.093191e-01 3.113130e-01 4.149431e-02 -2.297893e-02 -5.213881e-02 -3.134207e-02
<VARIANCE> 6
 4.798346e-03 4.278243e-03 1.769913e-03 5.086497e-04 1.715028e-03 5.166933e-04
<GCONST> -2.762340e+01
<STATE> 11
<MEAN> 6
 6.990671e-01 2.366870e-01 -1.041991e-02 -5.390710e-03 -4.134336e-03 3.379122e-02
<VARIANCE> 6
 5.983465e-03 5.666460e-03 7.964793e-04 1.294553e-03 2.160341e-03 1.326221e-03
<GCONST> -2.581249e+01
<TRANSP> 12
 0.000000e+00 1.000000e+00 0.000000e+00 0.000000e+00 0.000000e+00 0.000000e+00 0.000000e+00 0.000000e+00 0.000000e+00 0.000000e+00 0.000000e+00 0.000000e+00
 0.000000e+00 8.535367e-01 1.464633e-01 0.000000e+00 0.000000e+00 0.000000e+00 0.000000e+00 0.000000e+00 0.000000e+00 0.000000e+00 0.000000e+00 0.000000e+00
 0.000000e+00 0.000000e+00 8.470750e-01 1.529250e-01 0.000000e+00 0.000000e+00 0.000000e+00 0.000000e+00 0.000000e+00 0.000000e+00 0.000000e+00 0.000000e+00
 0.000000e+00 0.000000e+00 0.000000e+00 8.496933e-01 1.503067e-01 0.000000e+00 0.000000e+00 0.000000e+00 0.000000e+00 0.000000e+00 0.000000e+00 0.000000e+00
 0.000000e+00 0.000000e+00 0.000000e+00 0.000000e+00 8.823085e-01 1.176916e-01 0.000000e+00 0.000000e+00 0.000000e+00 0.000000e+00 0.000000e+00 0.000000e+00
 0.000000e+00 0.000000e+00 0.000000e+00 0.000000e+00 0.000000e+00 8.513215e-01 1.486786e-01 0.000000e+00 0.000000e+00 0.000000e+00 0.000000e+00 0.000000e+00
 0.000000e+00 0.000000e+00 0.000000e+00 0.000000e+00 0.000000e+00 0.000000e+00 8.297819e-01 1.702180e-01 0.000000e+00 0.000000e+00 0.000000e+00 0.000000e+00
 0.000000e+00 0.000000e+00 0.000000e+00 0.000000e+00 0.000000e+00 0.000000e+00 0.000000e+00 8.396026e-01 1.603975e-01 0.000000e+00 0.000000e+00 0.000000e+00
 0.000000e+00 0.000000e+00 0.000000e+00 0.000000e+00 0.000000e+00 0.000000e+00 0.000000e+00 0.000000e+00 8.726991e-01 1.273009e-01 0.000000e+00 0.000000e+00
 0.000000e+00 0.000000e+00 0.000000e+00 0.000000e+00 0.000000e+00 0.000000e+00 0.000000e+00 0.000000e+00 0.000000e+00 8.183535e-01 1.816465e-01 0.000000e+00
 0.000000e+00 0.000000e+00 0.000000e+00 0.000000e+00 0.000000e+00 0.000000e+00 0.000000e+00 0.000000e+00 0.000000e+00 0.000000e+00 8.769617e-01 1.230383e-01
 0.000000e+00 0.000000e+00 0.000000e+00 0.000000e+00 0.000000e+00 0.000000e+00 0.000000e+00 0.000000e+00 0.000000e+00 0.000000e+00 0.000000e+00 0.000000e+00
<ENDHMM>
