~o
<STREAMINFO> 1 7
<VECSIZE> 7<NULLD><USER><DIAGC>
~h "proto"
<BEGINHMM>
<NUMSTATES> 12
<STATE> 2
<MEAN> 7
 3.739882e-01 2.383976e-01 3.576878e-02 -2.693111e-03 -2.011673e-02 -3.607302e-03 -1.646885e+01
<VARIANCE> 7
 3.906631e-03 7.165499e-03 6.222641e-04 2.343350e-04 9.142273e-04 3.612512e-04 2.523176e+03
<GCONST> -2.044942e+01
<STATE> 3
<MEAN> 7
 4.297355e-01 2.550589e-01 2.812448e-03 -1.848194e-02 -6.158272e-02 -4.357705e-02 -1.329101e+03
<VARIANCE> 7
 3.248239e-03 5.948238e-03 3.923256e-04 3.494038e-04 1.216429e-03 8.423232e-04 3.961580e+07
<GCONST> -1.008831e+01
<STATE> 4
<MEAN> 7
 4.177137e-01 1.760478e-01 1.045080e-02 -9.161903e-03 5.018028e-03 8.410254e-03 1.723730e+00
<VARIANCE> 7
 3.664705e-03 6.878193e-03 7.719768e-04 1.000791e-03 8.984176e-04 9.360195e-04 4.856787e+02
<GCONST> -1.959999e+01
<STATE> 5
<MEAN> 7
 4.822367e-01 1.907555e-01 9.633632e-03 4.303762e-03 -6.130662e-03 -4.015653e-02 -1.629792e+03
<VARIANCE> 7
 2.171156e-03 5.771463e-03 1.665904e-04 4.513140e-04 9.927843e-04 2.042459e-03 9.099253e+07
<GCONST> -9.607813e+00
<STATE> 6
<MEAN> 7
 5.506423e-01 1.894860e-01 1.617937e-02 1.748230e-02 -1.007267e-02 1.006230e-02 8.220771e+00
<VARIANCE> 7
 4.273015e-03 7.140453e-03 1.333824e-03 1.543940e-03 1.856625e-03 1.859913e-03 2.956718e+02
<GCONST> -1.751237e+01
<STATE> 7
<MEAN> 7
 5.502263e-01 2.791607e-01 -3.288103e-02 2.903630e-02 3.150052e-02 -3.845041e-02 2.249241e+01
<VARIANCE> 7
 3.046748e-03 5.814749e-03 5.836819e-04 4.270370e-04 8.421089e-04 7.780029e-04 2.858199e+02
<GCONST> -2.186371e+01
<STATE> 8
<MEAN> 7
 5.415156e-01 2.850692e-01 -1.836351e-02 1.825454e-02 6.923117e-02 -3.467702e-02 9.586065e+01
<VARIANCE> 7
 3.085612e-03 5.889934e-03 3.706813e-04 1.732778e-04 3.388948e-03 7.730667e-04 1.212517e+04
<GCONST> -1.806050e+01
<STATE> 9
<MEAN> 7
 5.381870e-01 2.891520e-01 7.554607e-03 9.332070e-03 9.159830e-02 -2.540162e-02 3.547934e+03
<VARIANCE> 7
 2.903880e-03 5.916700e-03 8.275770e-04 8.805902e-05 3.894393e-03 7.717274e-04 5.608657e+08
<GCONST> -7.111160e+00
<STATE> 10
<MEAN> 7
 6.171335e-01 2.952795e-01 6.955221e-02 4.168518e-03 1.369890e-02 -8.622901e-03 -2.675071e+01
<VARIANCE> 7
 5.647126e-03 5.831255e-03 1.329956e-03 8.568801e-05 4.447921e-03 3.533221e-04 2.657330e+04
<GCONST> -1.661919e+01
<STATE> 11
<MEAN> 7
 7.156436e-01 2.489638e-01 3.362107e-03 -1.428501e-02 -1.901010e-02 1.372471e-02 -1.228592e+01
<VARIANCE> 7
 5.436286e-03 7.082640e-03 1.330265e-03 1.099424e-03 2.639423e-03 2.164131e-03 2.749773e+03
<GCONST> -1.488863e+01
<TRANSP> 12
 0.000000e+00 1.000000e+00 0.000000e+00 0.000000e+00 0.000000e+00 0.000000e+00 0.000000e+00 0.000000e+00 0.000000e+00 0.000000e+00 0.000000e+00 0.000000e+00
 0.000000e+00 8.264973e-01 1.735027e-01 0.000000e+00 0.000000e+00 0.000000e+00 0.000000e+00 0.000000e+00 0.000000e+00 0.000000e+00 0.000000e+00 0.000000e+00
 0.000000e+00 0.000000e+00 4.440427e-01 5.559573e-01 0.000000e+00 0.000000e+00 0.000000e+00 0.000000e+00 0.000000e+00 0.000000e+00 0.000000e+00 0.000000e+00
 0.000000e+00 0.000000e+00 0.000000e+00 9.483446e-01 5.165544e-02 0.000000e+00 0.000000e+00 0.000000e+00 0.000000e+00 0.000000e+00 0.000000e+00 0.000000e+00
 0.000000e+00 0.000000e+00 0.000000e+00 0.000000e+00 5.227758e-01 4.772242e-01 0.000000e+00 0.000000e+00 0.000000e+00 0.000000e+00 0.000000e+00 0.000000e+00
 0.000000e+00 0.000000e+00 0.000000e+00 0.000000e+00 0.000000e+00 9.370918e-01 6.290816e-02 0.000000e+00 0.000000e+00 0.000000e+00 0.000000e+00 0.000000e+00
 0.000000e+00 0.000000e+00 0.000000e+00 0.000000e+00 0.000000e+00 0.000000e+00 0.000000e+00 1.000000e+00 0.000000e+00 0.000000e+00 0.000000e+00 0.000000e+00
 0.000000e+00 0.000000e+00 0.000000e+00 0.000000e+00 0.000000e+00 0.000000e+00 0.000000e+00 0.000000e+00 1.000000e+00 0.000000e+00 0.000000e+00 0.000000e+00
 0.000000e+00 0.000000e+00 0.000000e+00 0.000000e+00 0.000000e+00 0.000000e+00 0.000000e+00 0.000000e+00 0.000000e+00 1.000000e+00 0.000000e+00 0.000000e+00
 0.000000e+00 0.000000e+00 0.000000e+00 0.000000e+00 0.000000e+00 0.000000e+00 0.000000e+00 0.000000e+00 0.000000e+00 8.680242e-01 1.319758e-01 0.000000e+00
 0.000000e+00 0.000000e+00 0.000000e+00 0.000000e+00 0.000000e+00 0.000000e+00 0.000000e+00 0.000000e+00 0.000000e+00 0.000000e+00 9.110575e-01 8.894248e-02
 0.000000e+00 0.000000e+00 0.000000e+00 0.000000e+00 0.000000e+00 0.000000e+00 0.000000e+00 0.000000e+00 0.000000e+00 0.000000e+00 0.000000e+00 0.000000e+00
<ENDHMM>
