~o
<STREAMINFO> 1 7
<VECSIZE> 7<NULLD><USER><DIAGC>
~h "proto"
<BEGINHMM>
<NUMSTATES> 12
<STATE> 2
<MEAN> 7
 3.989302e-01 3.176915e-01 1.746619e-02 1.742930e-02 9.410523e-03 -1.215072e-02 -8.050405e+00
<VARIANCE> 7
 3.784554e-03 7.093677e-03 2.646925e-04 4.254576e-04 2.594648e-04 6.491472e-04 3.809372e+02
<GCONST> -2.331363e+01
<STATE> 3
<MEAN> 7
 4.850563e-01 2.979552e-01 1.692186e-02 -2.775849e-02 -1.048568e-02 -5.797384e-03 -7.247394e+00
<VARIANCE> 7
 3.006341e-03 7.203806e-03 2.838205e-04 2.447801e-04 1.760453e-04 8.706990e-04 7.321447e+02
<GCONST> -2.345236e+01
<STATE> 4
<MEAN> 7
 4.913133e-01 2.479457e-01 7.498356e-03 -1.346086e-02 -4.960665e-03 4.911942e-02 7.954437e+01
<VARIANCE> 7
 3.935000e-03 4.888658e-03 3.044428e-04 1.465137e-04 2.793923e-04 2.193355e-03 1.811067e+04
<GCONST> -1.941992e+01
<STATE> 5
<MEAN> 7
 4.953984e-01 2.433873e-01 5.799888e-03 6.904497e-03 5.728356e-04 4.996177e-02 3.770267e+01
<VARIANCE> 7
 3.879984e-03 4.913494e-03 1.332096e-04 3.493160e-04 9.231851e-04 3.018152e-03 3.600487e+08
<GCONST> -7.974716e+00
<STATE> 6
<MEAN> 7
 5.498651e-01 3.081734e-01 2.620864e-02 5.070067e-03 2.485105e-03 -1.839251e-02 -8.921843e+00
<VARIANCE> 7
 5.177638e-03 6.527554e-03 3.560994e-04 1.292445e-03 5.308836e-04 1.243398e-03 2.570205e+02
<GCONST> -2.070323e+01
<STATE> 7
<MEAN> 7
 6.012778e-01 2.615750e-01 1.305657e-02 -6.660244e-02 -3.204871e-02 -1.420404e-02 -1.457960e+00
<VARIANCE> 7
 7.304269e-03 3.946489e-03 5.238937e-04 1.301743e-03 7.918546e-04 1.171784e-03 3.490044e+00
<GCONST> -2.442780e+01
<STATE> 8
<MEAN> 7
 5.936236e-01 1.578864e-01 -2.157749e-02 -3.749187e-02 -1.422307e-02 1.608512e-02 -3.531039e+00
<VARIANCE> 7
 7.135246e-03 5.379826e-03 4.664258e-04 8.213134e-04 4.937205e-04 6.386731e-04 4.681547e+01
<GCONST> -2.320113e+01
<STATE> 9
<MEAN> 7
 5.159053e-01 1.145306e-01 -1.817979e-02 9.893793e-03 1.526948e-02 1.013707e-02 1.149694e+02
<VARIANCE> 7
 7.030568e-03 4.161257e-03 6.404366e-04 4.038652e-04 4.916559e-04 2.179917e-03 4.413212e+06
<GCONST> -1.118816e+01
<STATE> 10
<MEAN> 7
 4.550830e-01 1.604414e-01 -1.551996e-02 5.957072e-03 1.650042e-03 -1.758317e-03 -1.757050e+00
<VARIANCE> 7
 8.453565e-03 1.034909e-02 4.201215e-04 5.325514e-04 2.961345e-04 5.205040e-04 6.493334e+02
<GCONST> -2.100115e+01
<STATE> 11
<MEAN> 7
 4.489882e-01 1.436625e-01 1.339394e-02 -1.280934e-03 1.395592e-02 1.090267e-03 6.282540e-02
<VARIANCE> 7
 5.665281e-03 4.730782e-03 1.358379e-03 1.126524e-03 1.524771e-03 1.389433e-03 2.723394e+02
<GCONST> -1.850973e+01
<TRANSP> 12
 0.000000e+00 1.000000e+00 0.000000e+00 0.000000e+00 0.000000e+00 0.000000e+00 0.000000e+00 0.000000e+00 0.000000e+00 0.000000e+00 0.000000e+00 0.000000e+00
 0.000000e+00 9.091535e-01 9.084645e-02 0.000000e+00 0.000000e+00 0.000000e+00 0.000000e+00 0.000000e+00 0.000000e+00 0.000000e+00 0.000000e+00 0.000000e+00
 0.000000e+00 0.000000e+00 8.864010e-01 1.135990e-01 0.000000e+00 0.000000e+00 0.000000e+00 0.000000e+00 0.000000e+00 0.000000e+00 0.000000e+00 0.000000e+00
 0.000000e+00 0.000000e+00 0.000000e+00 0.000000e+00 1.000000e+00 0.000000e+00 0.000000e+00 0.000000e+00 0.000000e+00 0.000000e+00 0.000000e+00 0.000000e+00
 0.000000e+00 0.000000e+00 0.000000e+00 0.000000e+00 1.934198e-01 8.065802e-01 0.000000e+00 0.000000e+00 0.000000e+00 0.000000e+00 0.000000e+00 0.000000e+00
 0.000000e+00 0.000000e+00 0.000000e+00 0.000000e+00 0.000000e+00 9.295409e-01 7.045905e-02 0.000000e+00 0.000000e+00 0.000000e+00 0.000000e+00 0.000000e+00
 0.000000e+00 0.000000e+00 0.000000e+00 0.000000e+00 0.000000e+00 0.000000e+00 0.000000e+00 1.000000e+00 0.000000e+00 0.000000e+00 0.000000e+00 0.000000e+00
 0.000000e+00 0.000000e+00 0.000000e+00 0.000000e+00 0.000000e+00 0.000000e+00 0.000000e+00 9.183823e-01 8.161768e-02 0.000000e+00 0.000000e+00 0.000000e+00
 0.000000e+00 0.000000e+00 0.000000e+00 0.000000e+00 0.000000e+00 0.000000e+00 0.000000e+00 0.000000e+00 6.839282e-01 3.160718e-01 0.000000e+00 0.000000e+00
 0.000000e+00 0.000000e+00 0.000000e+00 0.000000e+00 0.000000e+00 0.000000e+00 0.000000e+00 0.000000e+00 0.000000e+00 9.349446e-01 6.505540e-02 0.000000e+00
 0.000000e+00 0.000000e+00 0.000000e+00 0.000000e+00 0.000000e+00 0.000000e+00 0.000000e+00 0.000000e+00 0.000000e+00 0.000000e+00 9.185410e-01 8.145899e-02
 0.000000e+00 0.000000e+00 0.000000e+00 0.000000e+00 0.000000e+00 0.000000e+00 0.000000e+00 0.000000e+00 0.000000e+00 0.000000e+00 0.000000e+00 0.000000e+00
<ENDHMM>
