~o
<STREAMINFO> 1 6
<VECSIZE> 6<NULLD><USER><DIAGC>
~h "proto"
<BEGINHMM>
<NUMSTATES> 12
<STATE> 2
<MEAN> 6
 3.909367e-01 3.173709e-01 1.461393e-02 1.380212e-02 8.425445e-03 -8.536424e-03
<VARIANCE> 6
 2.377735e-03 6.980010e-03 2.895042e-04 5.873116e-04 3.154763e-04 6.316673e-04
<GCONST> -3.099492e+01
<STATE> 3
<MEAN> 6
 4.473008e-01 3.053175e-01 3.102895e-02 7.033317e-04 2.138551e-03 -3.533902e-02
<VARIANCE> 6
 1.289742e-03 7.639748e-03 4.041082e-04 7.226843e-04 6.867888e-04 1.013491e-03
<GCONST> -2.972464e+01
<STATE> 4
<MEAN> 6
 4.865881e-01 2.861201e-01 1.543431e-02 -5.983052e-03 -1.913025e-03 5.401253e-03
<VARIANCE> 6
 1.023764e-03 5.831111e-03 1.790984e-04 8.632423e-04 2.420755e-04 1.078895e-03
<GCONST> -3.184202e+01
<STATE> 5
<MEAN> 6
 5.646178e-01 3.009716e-01 3.513792e-02 2.835453e-03 3.445789e-03 -2.244323e-02
<VARIANCE> 6
 2.799748e-03 4.362816e-03 4.160051e-04 1.126669e-03 6.850741e-04 2.136490e-03
<GCONST> -2.829348e+01
<STATE> 6
<MEAN> 6
 6.266921e-01 2.594397e-01 1.308696e-02 -5.847412e-02 -2.814239e-02 -1.468430e-02
<VARIANCE> 6
 3.960037e-03 3.737721e-03 4.297835e-04 6.568843e-04 5.815305e-04 7.507000e-04
<GCONST> -2.981810e+01
<STATE> 7
<MEAN> 6
 6.264635e-01 1.237164e-01 -2.493386e-02 -3.046235e-02 -1.469635e-02 1.874507e-02
<VARIANCE> 6
 4.014709e-03 4.618226e-03 6.810754e-04 1.175221e-03 9.231254e-04 1.219759e-03
<GCONST> -2.760326e+01
<STATE> 8
<MEAN> 6
 5.191791e-01 1.109236e-01 -2.159554e-02 -7.150135e-04 7.670251e-04 7.872901e-03
<VARIANCE> 6
 2.360964e-03 4.059726e-03 3.982224e-04 4.361702e-04 2.345491e-04 6.094541e-04
<GCONST> -3.185483e+01
<STATE> 9
<MEAN> 6
 4.647113e-01 1.330196e-01 -3.899273e-02 1.377271e-02 2.856664e-02 2.590570e-02
<VARIANCE> 6
 2.734948e-03 6.705789e-03 6.825688e-04 5.978085e-04 5.656463e-04 1.689608e-03
<GCONST> -2.845185e+01
<STATE> 10
<MEAN> 6
 4.046364e-01 2.128496e-01 -1.338626e-02 5.236465e-03 1.491858e-02 -4.090902e-03
<VARIANCE> 6
 5.000073e-03 1.166478e-02 7.036192e-04 1.224765e-03 1.274554e-03 1.229991e-03
<GCONST> -2.605241e+01
<STATE> 11
<MEAN> 6
 4.613993e-01 1.259718e-01 3.403921e-02 6.175827e-04 8.801195e-03 -6.074925e-03
<VARIANCE> 6
 4.012438e-03 5.012873e-03 5.188441e-04 8.224546e-04 1.313434e-03 1.623682e-03
<GCONST> -2.751213e+01
<TRANSP> 12
 0.000000e+00 1.000000e+00 0.000000e+00 0.000000e+00 0.000000e+00 0.000000e+00 0.000000e+00 0.000000e+00 0.000000e+00 0.000000e+00 0.000000e+00 0.000000e+00
 0.000000e+00 9.109099e-01 8.909010e-02 0.000000e+00 0.000000e+00 0.000000e+00 0.000000e+00 0.000000e+00 0.000000e+00 0.000000e+00 0.000000e+00 0.000000e+00
 0.000000e+00 0.000000e+00 0.000000e+00 1.000000e+00 0.000000e+00 0.000000e+00 0.000000e+00 0.000000e+00 0.000000e+00 0.000000e+00 0.000000e+00 0.000000e+00
 0.000000e+00 0.000000e+00 0.000000e+00 9.138762e-01 8.612384e-02 0.000000e+00 0.000000e+00 0.000000e+00 0.000000e+00 0.000000e+00 0.000000e+00 0.000000e+00
 0.000000e+00 0.000000e+00 0.000000e+00 0.000000e+00 8.822114e-01 1.177886e-01 0.000000e+00 0.000000e+00 0.000000e+00 0.000000e+00 0.000000e+00 0.000000e+00
 0.000000e+00 0.000000e+00 0.000000e+00 0.000000e+00 0.000000e+00 8.134758e-01 1.865242e-01 0.000000e+00 0.000000e+00 0.000000e+00 0.000000e+00 0.000000e+00
 0.000000e+00 0.000000e+00 0.000000e+00 0.000000e+00 0.000000e+00 0.000000e+00 8.774346e-01 1.225654e-01 0.000000e+00 0.000000e+00 0.000000e+00 0.000000e+00
 0.000000e+00 0.000000e+00 0.000000e+00 0.000000e+00 0.000000e+00 0.000000e+00 0.000000e+00 9.204931e-01 7.950693e-02 0.000000e+00 0.000000e+00 0.000000e+00
 0.000000e+00 0.000000e+00 0.000000e+00 0.000000e+00 0.000000e+00 0.000000e+00 0.000000e+00 0.000000e+00 0.000000e+00 1.000000e+00 0.000000e+00 0.000000e+00
 0.000000e+00 0.000000e+00 0.000000e+00 0.000000e+00 0.000000e+00 0.000000e+00 0.000000e+00 0.000000e+00 0.000000e+00 9.099512e-01 9.004883e-02 0.000000e+00
 0.000000e+00 0.000000e+00 0.000000e+00 0.000000e+00 0.000000e+00 0.000000e+00 0.000000e+00 0.000000e+00 0.000000e+00 0.000000e+00 8.654427e-01 1.345573e-01
 0.000000e+00 0.000000e+00 0.000000e+00 0.000000e+00 0.000000e+00 0.000000e+00 0.000000e+00 0.000000e+00 0.000000e+00 0.000000e+00 0.000000e+00 0.000000e+00
<ENDHMM>
