~o
<STREAMINFO> 1 6
<VECSIZE> 6<NULLD><USER><DIAGC>
~h "proto"
<BEGINHMM>
<NUMSTATES> 12
<STATE> 2
<MEAN> 6
 4.352140e-01 2.634952e-01 -2.403595e-03 2.383236e-02 -2.745641e-02 -7.403097e-03
<VARIANCE> 6
 4.929419e-03 4.999469e-03 5.656242e-04 3.000002e-04 5.856544e-04 1.019306e-03
<GCONST> -2.950442e+01
<STATE> 3
<MEAN> 6
 3.685382e-01 2.619070e-01 -1.944456e-02 -2.218912e-02 8.669795e-03 -3.061817e-02
<VARIANCE> 6
 4.612170e-03 4.331057e-03 4.734974e-04 5.489638e-04 2.732082e-04 1.006018e-03
<GCONST> -3.006361e+01
<STATE> 4
<MEAN> 6
 3.775439e-01 2.119524e-01 2.595918e-02 -6.698073e-02 7.131163e-02 6.789585e-03
<VARIANCE> 6
 4.705517e-03 3.664532e-03 1.879412e-03 5.666805e-04 1.739022e-03 2.282534e-03
<GCONST> -2.613023e+01
<STATE> 5
<MEAN> 6
 4.432734e-01 1.267274e-01 6.229348e-02 -1.225843e-02 5.713688e-03 3.854110e-02
<VARIANCE> 6
 4.118507e-03 2.183786e-03 1.191358e-03 5.142480e-04 9.333709e-04 9.875576e-04
<GCONST> -2.879415e+01
<STATE> 6
<MEAN> 6
 5.606824e-01 1.762058e-01 3.401842e-02 5.584414e-02 -6.032364e-02 3.242105e-02
<VARIANCE> 6
 5.450537e-03 3.267938e-03 1.416837e-03 7.842254e-04 1.258127e-03 2.184172e-03
<GCONST> -2.642317e+01
<STATE> 7
<MEAN> 6
 5.581396e-01 2.367907e-01 -2.186652e-02 6.373894e-02 -3.119792e-02 -3.176589e-02
<VARIANCE> 6
 5.670834e-03 3.888499e-03 5.513557e-04 2.542547e-04 4.201933e-04 8.335513e-04
<GCONST> -3.033980e+01
<STATE> 8
<MEAN> 6
 5.286691e-01 2.721020e-01 -1.672502e-02 3.097056e-02 2.326024e-02 -2.642517e-02
<VARIANCE> 6
 4.906430e-03 3.948301e-03 4.653771e-04 2.463042e-04 1.386469e-03 3.860203e-04
<GCONST> -3.024664e+01
<STATE> 9
<MEAN> 6
 5.797018e-01 2.944658e-01 6.416842e-02 5.462546e-03 2.655933e-02 -8.401561e-03
<VARIANCE> 6
 5.996036e-03 4.565042e-03 1.019895e-03 7.493326e-05 3.063864e-03 1.707076e-04
<GCONST> -3.032933e+01
<STATE> 10
<MEAN> 6
 7.145645e-01 3.032254e-01 3.667748e-02 -2.696818e-02 -4.993392e-02 -2.744603e-02
<VARIANCE> 6
 6.626927e-03 3.443521e-03 1.648934e-03 4.640807e-04 1.356059e-03 5.882533e-04
<GCONST> -2.778522e+01
<STATE> 11
<MEAN> 6
 6.901886e-01 2.309873e-01 -1.205037e-02 -5.205016e-03 -1.861321e-03 3.943790e-02
<VARIANCE> 6
 5.929921e-03 3.458937e-03 1.003424e-03 1.282282e-03 2.638850e-03 1.335849e-03
<GCONST> -2.588633e+01
<TRANSP> 12
 0.000000e+00 1.000000e+00 0.000000e+00 0.000000e+00 0.000000e+00 0.000000e+00 0.000000e+00 0.000000e+00 0.000000e+00 0.000000e+00 0.000000e+00 0.000000e+00
 0.000000e+00 8.616499e-01 1.383501e-01 0.000000e+00 0.000000e+00 0.000000e+00 0.000000e+00 0.000000e+00 0.000000e+00 0.000000e+00 0.000000e+00 0.000000e+00
 0.000000e+00 0.000000e+00 8.550892e-01 1.449108e-01 0.000000e+00 0.000000e+00 0.000000e+00 0.000000e+00 0.000000e+00 0.000000e+00 0.000000e+00 0.000000e+00
 0.000000e+00 0.000000e+00 0.000000e+00 7.762207e-01 2.237793e-01 0.000000e+00 0.000000e+00 0.000000e+00 0.000000e+00 0.000000e+00 0.000000e+00 0.000000e+00
 0.000000e+00 0.000000e+00 0.000000e+00 0.000000e+00 8.251785e-01 1.748215e-01 0.000000e+00 0.000000e+00 0.000000e+00 0.000000e+00 0.000000e+00 0.000000e+00
 0.000000e+00 0.000000e+00 0.000000e+00 0.000000e+00 0.000000e+00 8.171430e-01 1.828570e-01 0.000000e+00 0.000000e+00 0.000000e+00 0.000000e+00 0.000000e+00
 0.000000e+00 0.000000e+00 0.000000e+00 0.000000e+00 0.000000e+00 0.000000e+00 0.000000e+00 1.000000e+00 0.000000e+00 0.000000e+00 0.000000e+00 0.000000e+00
 0.000000e+00 0.000000e+00 0.000000e+00 0.000000e+00 0.000000e+00 0.000000e+00 0.000000e+00 8.262364e-01 1.737636e-01 0.000000e+00 0.000000e+00 0.000000e+00
 0.000000e+00 0.000000e+00 0.000000e+00 0.000000e+00 0.000000e+00 0.000000e+00 0.000000e+00 0.000000e+00 8.640971e-01 1.359029e-01 0.000000e+00 0.000000e+00
 0.000000e+00 0.000000e+00 0.000000e+00 0.000000e+00 0.000000e+00 0.000000e+00 0.000000e+00 0.000000e+00 0.000000e+00 8.147809e-01 1.852191e-01 0.000000e+00
 0.000000e+00 0.000000e+00 0.000000e+00 0.000000e+00 0.000000e+00 0.000000e+00 0.000000e+00 0.000000e+00 0.000000e+00 0.000000e+00 8.636984e-01 1.363017e-01
 0.000000e+00 0.000000e+00 0.000000e+00 0.000000e+00 0.000000e+00 0.000000e+00 0.000000e+00 0.000000e+00 0.000000e+00 0.000000e+00 0.000000e+00 0.000000e+00
<ENDHMM>
