~o
<STREAMINFO> 1 7
<VECSIZE> 7<NULLD><USER><DIAGC>
~h "proto"
<BEGINHMM>
<NUMSTATES> 12
<STATE> 2
<MEAN> 7
 4.276716e-01 2.559322e-01 7.315302e-06 2.508126e-02 -2.637806e-02 -5.844531e-03 1.056959e+01
<VARIANCE> 7
 4.697333e-03 4.709731e-03 5.693375e-04 4.315543e-04 9.962308e-04 1.353736e-03 2.017471e+03
<GCONST> -1.897972e+01
<STATE> 3
<MEAN> 7
 3.640877e-01 2.701155e-01 -2.278416e-02 -2.446555e-02 1.306993e-02 -3.862003e-02 1.688081e+01
<VARIANCE> 7
 5.565828e-03 4.471774e-03 6.853708e-04 9.510623e-04 1.090180e-03 1.655261e-03 3.410863e+02
<GCONST> -1.937250e+01
<STATE> 4
<MEAN> 7
 3.790451e-01 1.761976e-01 4.169905e-02 -5.493066e-02 5.207958e-02 2.374469e-02 8.490850e-01
<VARIANCE> 7
 4.938250e-03 3.963949e-03 1.650338e-03 8.564104e-04 2.204412e-03 1.548648e-03 1.003893e+01
<GCONST> -2.172685e+01
<STATE> 5
<MEAN> 7
 4.998834e-01 1.313869e-01 6.182413e-02 2.113975e-02 -3.456732e-02 5.397707e-02 1.339388e+01
<VARIANCE> 7
 5.747344e-03 3.249720e-03 1.106495e-03 1.102042e-03 2.128475e-03 2.252085e-03 1.176060e+02
<GCONST> -1.912112e+01
<STATE> 6
<MEAN> 7
 5.551164e-01 2.223233e-01 -8.994615e-03 6.142219e-02 -3.963273e-02 -1.521842e-02 5.025978e-01
<VARIANCE> 7
 5.384018e-03 4.212635e-03 6.733661e-04 6.324703e-04 1.315137e-03 9.459975e-04 1.754500e+01
<GCONST> -2.323026e+01
<STATE> 7
<MEAN> 7
 5.146376e-01 2.794637e-01 -2.302906e-02 2.724497e-02 3.193505e-02 -2.945315e-02 4.512025e+01
<VARIANCE> 7
 4.497191e-03 4.086087e-03 2.798837e-04 2.274684e-04 8.258821e-04 7.590620e-04 5.346917e+03
<GCONST> -2.030718e+01
<STATE> 8
<MEAN> 7
 5.122768e-01 2.924261e-01 6.301723e-03 1.615696e-02 8.853882e-02 -2.659013e-02 5.172335e+03
<VARIANCE> 7
 4.978190e-03 4.247314e-03 1.634049e-04 1.285234e-04 3.428026e-03 7.118849e-04 1.993528e+08
<GCONST> -9.390476e+00
<STATE> 9
<MEAN> 7
 5.529775e-01 2.745249e-01 4.557836e-02 3.720661e-03 3.908998e-02 -1.484725e-02 -3.251359e+01
<VARIANCE> 7
 5.788947e-03 3.313886e-03 1.108276e-03 1.266266e-04 5.863104e-03 3.365272e-04 4.130259e+04
<GCONST> -1.628275e+01
<STATE> 10
<MEAN> 7
 6.070769e-01 3.035218e-01 7.782913e-02 1.921000e-03 8.562154e-03 -9.651939e-03 -1.503687e+00
<VARIANCE> 7
 7.385852e-03 4.068485e-03 1.104500e-03 1.512102e-04 2.802013e-03 2.904109e-04 9.806459e+00
<GCONST> -2.489132e+01
<STATE> 11
<MEAN> 7
 6.960862e-01 2.524718e-01 2.965364e-03 -1.588151e-02 -2.343198e-02 1.552244e-02 -1.792839e+01
<VARIANCE> 7
 5.801033e-03 4.252128e-03 1.419945e-03 1.236764e-03 3.247831e-03 2.606541e-03 3.070976e+03
<GCONST> -1.464706e+01
<TRANSP> 12
 0.000000e+00 1.000000e+00 0.000000e+00 0.000000e+00 0.000000e+00 0.000000e+00 0.000000e+00 0.000000e+00 0.000000e+00 0.000000e+00 0.000000e+00 0.000000e+00
 0.000000e+00 8.552566e-01 1.447434e-01 0.000000e+00 0.000000e+00 0.000000e+00 0.000000e+00 0.000000e+00 0.000000e+00 0.000000e+00 0.000000e+00 0.000000e+00
 0.000000e+00 0.000000e+00 8.527166e-01 1.472834e-01 0.000000e+00 0.000000e+00 0.000000e+00 0.000000e+00 0.000000e+00 0.000000e+00 0.000000e+00 0.000000e+00
 0.000000e+00 0.000000e+00 0.000000e+00 8.437955e-01 1.562044e-01 0.000000e+00 0.000000e+00 0.000000e+00 0.000000e+00 0.000000e+00 0.000000e+00 0.000000e+00
 0.000000e+00 0.000000e+00 0.000000e+00 0.000000e+00 8.404385e-01 1.595615e-01 0.000000e+00 0.000000e+00 0.000000e+00 0.000000e+00 0.000000e+00 0.000000e+00
 0.000000e+00 0.000000e+00 0.000000e+00 0.000000e+00 0.000000e+00 8.089383e-01 1.910617e-01 0.000000e+00 0.000000e+00 0.000000e+00 0.000000e+00 0.000000e+00
 0.000000e+00 0.000000e+00 0.000000e+00 0.000000e+00 0.000000e+00 0.000000e+00 6.727244e-01 3.272756e-01 0.000000e+00 0.000000e+00 0.000000e+00 0.000000e+00
 0.000000e+00 0.000000e+00 0.000000e+00 0.000000e+00 0.000000e+00 0.000000e+00 0.000000e+00 0.000000e+00 1.000000e+00 0.000000e+00 0.000000e+00 0.000000e+00
 0.000000e+00 0.000000e+00 0.000000e+00 0.000000e+00 0.000000e+00 0.000000e+00 0.000000e+00 0.000000e+00 5.361925e-01 4.638075e-01 0.000000e+00 0.000000e+00
 0.000000e+00 0.000000e+00 0.000000e+00 0.000000e+00 0.000000e+00 0.000000e+00 0.000000e+00 0.000000e+00 0.000000e+00 8.332740e-01 1.667260e-01 0.000000e+00
 0.000000e+00 0.000000e+00 0.000000e+00 0.000000e+00 0.000000e+00 0.000000e+00 0.000000e+00 0.000000e+00 0.000000e+00 0.000000e+00 9.105199e-01 8.948012e-02
 0.000000e+00 0.000000e+00 0.000000e+00 0.000000e+00 0.000000e+00 0.000000e+00 0.000000e+00 0.000000e+00 0.000000e+00 0.000000e+00 0.000000e+00 0.000000e+00
<ENDHMM>
