~o
<STREAMINFO> 1 7
<VECSIZE> 7<NULLD><USER><DIAGC>
~h "proto"
<BEGINHMM>
<NUMSTATES> 12
<STATE> 2
<MEAN> 7
 4.223289e-01 2.297787e-01 1.138307e-02 2.074044e-02 -1.768451e-02 6.628390e-03 1.080475e+01
<VARIANCE> 7
 3.080378e-03 6.378402e-03 4.051832e-04 3.883048e-04 6.120121e-04 6.477128e-04 8.918953e+02
<GCONST> -2.158476e+01
<STATE> 3
<MEAN> 7
 3.888259e-01 2.923305e-01 -3.083953e-02 -1.094501e-02 1.068772e-03 -3.057794e-02 1.481376e+01
<VARIANCE> 7
 3.918440e-03 7.669318e-03 2.169556e-04 7.773893e-04 1.415972e-03 5.847318e-04 2.492265e+02
<GCONST> -2.162877e+01
<STATE> 4
<MEAN> 7
 3.348338e-01 1.807014e-01 5.220607e-03 -4.449646e-02 2.483366e-02 -2.495897e-03 1.796981e+00
<VARIANCE> 7
 3.350745e-03 6.717205e-03 5.975180e-04 5.110741e-04 1.174018e-03 6.786328e-04 1.743917e+01
<GCONST> -2.402228e+01
<STATE> 5
<MEAN> 7
 3.971771e-01 1.317561e-01 7.456669e-02 -5.339455e-02 4.963068e-02 3.392757e-02 1.432485e+00
<VARIANCE> 7
 3.883817e-03 5.687868e-03 1.883458e-03 1.034037e-03 1.343897e-03 2.252066e-03 2.981095e+00
<GCONST> -2.261995e+01
<STATE> 6
<MEAN> 7
 4.991741e-01 6.882699e-02 6.004350e-02 8.203791e-03 -9.208689e-03 2.846571e-02 6.788768e+00
<VARIANCE> 7
 5.540247e-03 7.977958e-03 1.167184e-03 4.921703e-04 8.737371e-04 8.783879e-04 3.836958e+01
<GCONST> -2.196439e+01
<STATE> 7
<MEAN> 7
 6.308998e-01 1.588084e-01 3.996646e-02 6.910776e-02 -7.103270e-02 1.691893e-02 3.597344e+00
<VARIANCE> 7
 4.742086e-03 6.400419e-03 2.568382e-03 1.135640e-03 4.910770e-03 3.878734e-03 5.625254e+01
<GCONST> -1.712129e+01
<STATE> 8
<MEAN> 7
 6.159006e-01 2.030371e-01 -1.281917e-02 4.323035e-02 -2.965916e-02 -2.045426e-02 -6.966759e-01
<VARIANCE> 7
 4.567095e-03 8.025931e-03 7.103890e-04 3.353415e-04 3.118491e-04 8.071483e-04 3.414746e+01
<GCONST> -2.426318e+01
<STATE> 9
<MEAN> 7
 5.560455e-01 2.687869e-01 -3.934085e-02 -1.214347e-02 1.670962e-02 -3.904112e-02 2.325218e+01
<VARIANCE> 7
 3.863416e-03 6.631132e-03 3.666459e-04 6.465794e-04 7.746965e-04 7.822125e-04 4.489563e+02
<GCONST> -2.117147e+01
<STATE> 10
<MEAN> 7
 5.091454e-01 1.878389e-01 -8.738421e-03 -2.723463e-02 1.317868e-03 8.195339e-03 6.424017e+00
<VARIANCE> 7
 4.358241e-03 6.496190e-03 5.381915e-04 3.064801e-04 1.020730e-03 2.712651e-04 3.543835e+02
<GCONST> -2.245401e+01
<STATE> 11
<MEAN> 7
 5.006011e-01 1.368588e-01 -4.401908e-02 -7.434870e-03 -3.377024e-02 9.613748e-03 1.122017e+02
<VARIANCE> 7
 6.907292e-03 7.127727e-03 1.216079e-03 1.015447e-04 1.990826e-03 2.315464e-04 5.030935e+05
<GCONST> -1.442234e+01
<TRANSP> 12
 0.000000e+00 1.000000e+00 0.000000e+00 0.000000e+00 0.000000e+00 0.000000e+00 0.000000e+00 0.000000e+00 0.000000e+00 0.000000e+00 0.000000e+00 0.000000e+00
 0.000000e+00 8.793336e-01 1.206665e-01 0.000000e+00 0.000000e+00 0.000000e+00 0.000000e+00 0.000000e+00 0.000000e+00 0.000000e+00 0.000000e+00 0.000000e+00
 0.000000e+00 0.000000e+00 8.817174e-01 1.182825e-01 0.000000e+00 0.000000e+00 0.000000e+00 0.000000e+00 0.000000e+00 0.000000e+00 0.000000e+00 0.000000e+00
 0.000000e+00 0.000000e+00 0.000000e+00 8.774170e-01 1.225830e-01 0.000000e+00 0.000000e+00 0.000000e+00 0.000000e+00 0.000000e+00 0.000000e+00 0.000000e+00
 0.000000e+00 0.000000e+00 0.000000e+00 0.000000e+00 7.425183e-01 2.574817e-01 0.000000e+00 0.000000e+00 0.000000e+00 0.000000e+00 0.000000e+00 0.000000e+00
 0.000000e+00 0.000000e+00 0.000000e+00 0.000000e+00 0.000000e+00 8.735621e-01 1.264379e-01 0.000000e+00 0.000000e+00 0.000000e+00 0.000000e+00 0.000000e+00
 0.000000e+00 0.000000e+00 0.000000e+00 0.000000e+00 0.000000e+00 0.000000e+00 7.068395e-01 2.931605e-01 0.000000e+00 0.000000e+00 0.000000e+00 0.000000e+00
 0.000000e+00 0.000000e+00 0.000000e+00 0.000000e+00 0.000000e+00 0.000000e+00 0.000000e+00 8.421128e-01 1.578873e-01 0.000000e+00 0.000000e+00 0.000000e+00
 0.000000e+00 0.000000e+00 0.000000e+00 0.000000e+00 0.000000e+00 0.000000e+00 0.000000e+00 0.000000e+00 8.218260e-01 1.781740e-01 0.000000e+00 0.000000e+00
 0.000000e+00 0.000000e+00 0.000000e+00 0.000000e+00 0.000000e+00 0.000000e+00 0.000000e+00 0.000000e+00 0.000000e+00 8.949038e-01 1.050962e-01 0.000000e+00
 0.000000e+00 0.000000e+00 0.000000e+00 0.000000e+00 0.000000e+00 0.000000e+00 0.000000e+00 0.000000e+00 0.000000e+00 0.000000e+00 7.690593e-01 2.309407e-01
 0.000000e+00 0.000000e+00 0.000000e+00 0.000000e+00 0.000000e+00 0.000000e+00 0.000000e+00 0.000000e+00 0.000000e+00 0.000000e+00 0.000000e+00 0.000000e+00
<ENDHMM>
