~o
<STREAMINFO> 1 6
<VECSIZE> 6<NULLD><USER><DIAGC>
~h "proto"
<BEGINHMM>
<NUMSTATES> 12
<STATE> 2
<MEAN> 6
 4.180980e-01 2.344280e-01 1.561615e-02 1.924227e-02 -1.483243e-02 1.018946e-02
<VARIANCE> 6
 3.384048e-03 8.960446e-03 3.603386e-04 4.429104e-04 5.783538e-04 5.623235e-04
<GCONST> -2.996572e+01
<STATE> 3
<MEAN> 6
 3.769510e-01 3.062032e-01 -2.674701e-02 -1.224999e-02 -4.884070e-04 -2.257334e-02
<VARIANCE> 6
 5.114176e-03 9.991700e-03 1.888538e-04 7.629910e-04 1.046731e-03 2.769122e-04
<GCONST> -2.966117e+01
<STATE> 4
<MEAN> 6
 3.369854e-01 2.011155e-01 2.310345e-02 -6.530417e-02 5.023934e-02 -4.867290e-05
<VARIANCE> 6
 4.464944e-03 6.441734e-03 2.087665e-03 5.722832e-04 1.756089e-03 1.954719e-03
<GCONST> -2.564895e+01
<STATE> 5
<MEAN> 6
 3.792850e-01 1.073864e-01 3.964397e-02 -2.284642e-02 1.237700e-02 1.534630e-02
<VARIANCE> 6
 5.105875e-03 1.301042e-02 1.420321e-03 3.056956e-04 2.484708e-04 9.690931e-04
<GCONST> -2.848123e+01
<STATE> 6
<MEAN> 6
 5.418291e-01 9.523509e-02 7.970742e-02 2.098379e-02 -2.355803e-02 4.383074e-02
<VARIANCE> 6
 4.496141e-03 5.841081e-03 1.017212e-03 9.017535e-04 1.814127e-03 1.144856e-03
<GCONST> -2.650660e+01
<STATE> 7
<MEAN> 6
 6.161125e-01 1.698646e-01 1.831488e-02 4.953900e-02 -3.408722e-02 3.163078e-03
<VARIANCE> 6
 4.748943e-03 1.237615e-02 5.064248e-04 5.705958e-04 1.563924e-03 3.224567e-04
<GCONST> -2.827162e+01
<STATE> 8
<MEAN> 6
 6.334542e-01 2.588499e-01 -4.511069e-02 2.974681e-02 -2.636430e-02 -5.154118e-02
<VARIANCE> 6
 5.728844e-03 5.395020e-03 7.285225e-04 1.657741e-03 2.899588e-03 1.942548e-03
<GCONST> -2.507099e+01
<STATE> 9
<MEAN> 6
 5.446703e-01 2.714731e-01 -3.190181e-02 -9.605753e-03 1.345559e-02 -2.626829e-02
<VARIANCE> 6
 2.527415e-03 1.187995e-02 1.840969e-04 6.552673e-04 5.976009e-04 2.427851e-04
<GCONST> -3.106264e+01
<STATE> 10
<MEAN> 6
 5.193038e-01 2.057187e-01 1.013512e-03 -3.342730e-02 -5.221755e-04 1.286170e-02
<VARIANCE> 6
 2.994322e-03 9.297506e-03 3.538314e-04 1.968711e-04 1.586441e-03 2.976799e-04
<GCONST> -3.050719e+01
<STATE> 11
<MEAN> 6
 4.770705e-01 1.644189e-01 -4.554086e-02 -5.452452e-03 -2.198102e-02 6.029709e-03
<VARIANCE> 6
 6.536765e-03 1.107299e-02 8.564651e-04 7.553876e-05 1.410030e-03 1.653249e-04
<GCONST> -3.033160e+01
<TRANSP> 12
 0.000000e+00 1.000000e+00 0.000000e+00 0.000000e+00 0.000000e+00 0.000000e+00 0.000000e+00 0.000000e+00 0.000000e+00 0.000000e+00 0.000000e+00 0.000000e+00
 0.000000e+00 8.822020e-01 1.177980e-01 0.000000e+00 0.000000e+00 0.000000e+00 0.000000e+00 0.000000e+00 0.000000e+00 0.000000e+00 0.000000e+00 0.000000e+00
 0.000000e+00 0.000000e+00 9.120910e-01 8.790903e-02 0.000000e+00 0.000000e+00 0.000000e+00 0.000000e+00 0.000000e+00 0.000000e+00 0.000000e+00 0.000000e+00
 0.000000e+00 0.000000e+00 0.000000e+00 8.216491e-01 1.783509e-01 0.000000e+00 0.000000e+00 0.000000e+00 0.000000e+00 0.000000e+00 0.000000e+00 0.000000e+00
 0.000000e+00 0.000000e+00 0.000000e+00 0.000000e+00 8.825359e-01 1.174641e-01 0.000000e+00 0.000000e+00 0.000000e+00 0.000000e+00 0.000000e+00 0.000000e+00
 0.000000e+00 0.000000e+00 0.000000e+00 0.000000e+00 0.000000e+00 8.184430e-01 1.815570e-01 0.000000e+00 0.000000e+00 0.000000e+00 0.000000e+00 0.000000e+00
 0.000000e+00 0.000000e+00 0.000000e+00 0.000000e+00 0.000000e+00 0.000000e+00 8.577057e-01 1.422943e-01 0.000000e+00 0.000000e+00 0.000000e+00 0.000000e+00
 0.000000e+00 0.000000e+00 0.000000e+00 0.000000e+00 0.000000e+00 0.000000e+00 0.000000e+00 7.570583e-01 2.429417e-01 0.000000e+00 0.000000e+00 0.000000e+00
 0.000000e+00 0.000000e+00 0.000000e+00 0.000000e+00 0.000000e+00 0.000000e+00 0.000000e+00 0.000000e+00 8.360627e-01 1.639373e-01 0.000000e+00 0.000000e+00
 0.000000e+00 0.000000e+00 0.000000e+00 0.000000e+00 0.000000e+00 0.000000e+00 0.000000e+00 0.000000e+00 0.000000e+00 8.617184e-01 1.382817e-01 0.000000e+00
 0.000000e+00 0.000000e+00 0.000000e+00 0.000000e+00 0.000000e+00 0.000000e+00 0.000000e+00 0.000000e+00 0.000000e+00 0.000000e+00 8.418094e-01 1.581906e-01
 0.000000e+00 0.000000e+00 0.000000e+00 0.000000e+00 0.000000e+00 0.000000e+00 0.000000e+00 0.000000e+00 0.000000e+00 0.000000e+00 0.000000e+00 0.000000e+00
<ENDHMM>
