~o
<STREAMINFO> 1 7
<VECSIZE> 7<NULLD><USER><DIAGC>
~h "proto"
<BEGINHMM>
<NUMSTATES> 12
<STATE> 2
<MEAN> 7
 4.276593e-01 2.559545e-01 -1.170247e-05 2.506963e-02 -2.636913e-02 -5.870166e-03 1.058195e+01
<VARIANCE> 7
 4.696638e-03 4.710050e-03 5.696053e-04 4.316230e-04 9.959763e-04 1.354380e-03 2.017109e+03
<GCONST> -1.897913e+01
<STATE> 3
<MEAN> 7
 3.640575e-01 2.700931e-01 -2.277560e-02 -2.450079e-02 1.309967e-02 -3.860935e-02 1.686757e+01
<VARIANCE> 7
 5.566137e-03 4.471833e-03 6.856165e-04 9.514737e-04 1.090882e-03 1.655658e-03 3.404674e+02
<GCONST> -1.937257e+01
<STATE> 4
<MEAN> 7
 3.790586e-01 1.761660e-01 4.172095e-02 -5.492253e-02 5.207705e-02 2.376330e-02 8.483856e-01
<VARIANCE> 7
 4.938288e-03 3.962591e-03 1.649890e-03 8.564512e-04 2.204533e-03 1.548080e-03 1.003580e+01
<GCONST> -2.172803e+01
<STATE> 5
<MEAN> 7
 4.998887e-01 1.313895e-01 6.182304e-02 2.114455e-02 -3.457381e-02 5.397756e-02 1.339505e+01
<VARIANCE> 7
 5.747521e-03 3.249806e-03 1.106453e-03 1.101990e-03 2.128285e-03 2.252242e-03 1.175978e+02
<GCONST> -1.912124e+01
<STATE> 6
<MEAN> 7
 5.551108e-01 2.223237e-01 -8.995588e-03 6.141882e-02 -3.962901e-02 -1.521839e-02 5.023820e-01
<VARIANCE> 7
 5.383890e-03 4.212391e-03 6.732979e-04 6.325292e-04 1.315125e-03 9.459190e-04 1.754825e+01
<GCONST> -2.323026e+01
<STATE> 7
<MEAN> 7
 5.146404e-01 2.794709e-01 -2.303025e-02 2.724523e-02 3.193993e-02 -2.945614e-02 4.512704e+01
<VARIANCE> 7
 4.497714e-03 4.086164e-03 2.798962e-04 2.274881e-04 8.258199e-04 7.590736e-04 5.347394e+03
<GCONST> -2.030688e+01
<STATE> 8
<MEAN> 7
 5.122768e-01 2.924260e-01 6.301722e-03 1.615694e-02 8.853880e-02 -2.659006e-02 5.172302e+03
<VARIANCE> 7
 4.978202e-03 4.247325e-03 1.634033e-04 1.285228e-04 3.428003e-03 7.118859e-04 1.993519e+08
<GCONST> -9.390493e+00
<STATE> 9
<MEAN> 7
 5.529773e-01 2.745247e-01 4.557826e-02 3.720674e-03 3.908979e-02 -1.484720e-02 -3.251390e+01
<VARIANCE> 7
 5.788937e-03 3.313886e-03 1.108272e-03 1.266263e-04 5.863074e-03 3.365256e-04 4.130243e+04
<GCONST> -1.628276e+01
<STATE> 10
<MEAN> 7
 6.070769e-01 3.035217e-01 7.782917e-02 1.921010e-03 8.562190e-03 -9.651941e-03 -1.503687e+00
<VARIANCE> 7
 7.385847e-03 4.068493e-03 1.104498e-03 1.512099e-04 2.802012e-03 2.904104e-04 9.806445e+00
<GCONST> -2.489133e+01
<STATE> 11
<MEAN> 7
 6.960863e-01 2.524717e-01 2.965386e-03 -1.588152e-02 -2.343201e-02 1.552244e-02 -1.792836e+01
<VARIANCE> 7
 5.801011e-03 4.252117e-03 1.419944e-03 1.236761e-03 3.247822e-03 2.606535e-03 3.070960e+03
<GCONST> -1.464708e+01
<TRANSP> 12
 0.000000e+00 1.000000e+00 0.000000e+00 0.000000e+00 0.000000e+00 0.000000e+00 0.000000e+00 0.000000e+00 0.000000e+00 0.000000e+00 0.000000e+00 0.000000e+00
 0.000000e+00 8.553492e-01 1.446508e-01 0.000000e+00 0.000000e+00 0.000000e+00 0.000000e+00 0.000000e+00 0.000000e+00 0.000000e+00 0.000000e+00 0.000000e+00
 0.000000e+00 0.000000e+00 8.526713e-01 1.473287e-01 0.000000e+00 0.000000e+00 0.000000e+00 0.000000e+00 0.000000e+00 0.000000e+00 0.000000e+00 0.000000e+00
 0.000000e+00 0.000000e+00 0.000000e+00 8.437545e-01 1.562455e-01 0.000000e+00 0.000000e+00 0.000000e+00 0.000000e+00 0.000000e+00 0.000000e+00 0.000000e+00
 0.000000e+00 0.000000e+00 0.000000e+00 0.000000e+00 8.404242e-01 1.595758e-01 0.000000e+00 0.000000e+00 0.000000e+00 0.000000e+00 0.000000e+00 0.000000e+00
 0.000000e+00 0.000000e+00 0.000000e+00 0.000000e+00 0.000000e+00 8.089524e-01 1.910476e-01 0.000000e+00 0.000000e+00 0.000000e+00 0.000000e+00 0.000000e+00
 0.000000e+00 0.000000e+00 0.000000e+00 0.000000e+00 0.000000e+00 0.000000e+00 6.726778e-01 3.273223e-01 0.000000e+00 0.000000e+00 0.000000e+00 0.000000e+00
 0.000000e+00 0.000000e+00 0.000000e+00 0.000000e+00 0.000000e+00 0.000000e+00 0.000000e+00 0.000000e+00 1.000000e+00 0.000000e+00 0.000000e+00 0.000000e+00
 0.000000e+00 0.000000e+00 0.000000e+00 0.000000e+00 0.000000e+00 0.000000e+00 0.000000e+00 0.000000e+00 5.361941e-01 4.638059e-01 0.000000e+00 0.000000e+00
 0.000000e+00 0.000000e+00 0.000000e+00 0.000000e+00 0.000000e+00 0.000000e+00 0.000000e+00 0.000000e+00 0.000000e+00 8.332737e-01 1.667263e-01 0.000000e+00
 0.000000e+00 0.000000e+00 0.000000e+00 0.000000e+00 0.000000e+00 0.000000e+00 0.000000e+00 0.000000e+00 0.000000e+00 0.000000e+00 9.105198e-01 8.948015e-02
 0.000000e+00 0.000000e+00 0.000000e+00 0.000000e+00 0.000000e+00 0.000000e+00 0.000000e+00 0.000000e+00 0.000000e+00 0.000000e+00 0.000000e+00 0.000000e+00
<ENDHMM>
