~o
<STREAMINFO> 1 6
<VECSIZE> 6<NULLD><USER><DIAGC>
~h "proto"
<BEGINHMM>
<NUMSTATES> 12
<STATE> 2
<MEAN> 6
 4.351444e-01 2.635576e-01 -2.466852e-03 2.379760e-02 -2.743385e-02 -7.482594e-03
<VARIANCE> 6
 4.928830e-03 4.997819e-03 5.668575e-04 3.001731e-04 5.850777e-04 1.023576e-03
<GCONST> -2.949892e+01
<STATE> 3
<MEAN> 6
 3.688062e-01 2.615445e-01 -1.937854e-02 -2.244675e-02 8.810381e-03 -3.051419e-02
<VARIANCE> 6
 4.611545e-03 4.359615e-03 4.752088e-04 5.527015e-04 2.739881e-04 1.016872e-03
<GCONST> -3.003320e+01
<STATE> 4
<MEAN> 6
 3.775357e-01 2.076419e-01 2.758680e-02 -6.557386e-02 6.991793e-02 8.262006e-03
<VARIANCE> 6
 4.604756e-03 3.792856e-03 1.839016e-03 5.796696e-04 1.712929e-03 2.191519e-03
<GCONST> -2.617233e+01
<STATE> 5
<MEAN> 6
 4.516276e-01 1.270049e-01 6.335115e-02 -8.231814e-03 4.535633e-04 4.043184e-02
<VARIANCE> 6
 4.245769e-03 2.172775e-03 1.180667e-03 5.535719e-04 1.046100e-03 1.024202e-03
<GCONST> -2.855364e+01
<STATE> 6
<MEAN> 6
 5.660933e-01 1.848365e-01 2.762720e-02 5.995801e-02 -6.069306e-02 2.636927e-02
<VARIANCE> 6
 5.485097e-03 3.595908e-03 1.451020e-03 6.867981e-04 1.248001e-03 2.351245e-03
<GCONST> -2.636440e+01
<STATE> 7
<MEAN> 6
 5.550396e-01 2.435314e-01 -2.439928e-02 5.963924e-02 -2.109569e-02 -3.654176e-02
<VARIANCE> 6
 5.546879e-03 4.258314e-03 5.739760e-04 1.927127e-04 5.381107e-04 7.840408e-04
<GCONST> -3.032187e+01
<STATE> 8
<MEAN> 6
 5.258369e-01 2.721618e-01 -1.598759e-02 2.876368e-02 2.589165e-02 -2.513423e-02
<VARIANCE> 6
 4.708517e-03 4.013767e-03 4.261982e-04 2.014173e-04 1.311538e-03 3.475437e-04
<GCONST> -3.072106e+01
<STATE> 9
<MEAN> 6
 5.807166e-01 2.946182e-01 6.482189e-02 5.416179e-03 2.603737e-02 -8.460809e-03
<VARIANCE> 6
 5.985852e-03 4.555346e-03 9.858229e-04 7.643005e-05 3.104563e-03 1.758165e-04
<GCONST> -3.030467e+01
<STATE> 10
<MEAN> 6
 7.146403e-01 3.031874e-01 3.652279e-02 -2.708310e-02 -4.975171e-02 -2.747571e-02
<VARIANCE> 6
 6.638514e-03 3.436261e-03 1.659174e-03 4.640027e-04 1.391234e-03 5.931241e-04
<GCONST> -2.774570e+01
<STATE> 11
<MEAN> 6
 6.901722e-01 2.309069e-01 -1.204982e-02 -5.147439e-03 -1.833848e-03 3.950670e-02
<VARIANCE> 6
 5.929444e-03 3.456966e-03 1.004294e-03 1.281636e-03 2.635545e-03 1.333793e-03
<GCONST> -2.588941e+01
<TRANSP> 12
 0.000000e+00 1.000000e+00 0.000000e+00 0.000000e+00 0.000000e+00 0.000000e+00 0.000000e+00 0.000000e+00 0.000000e+00 0.000000e+00 0.000000e+00 0.000000e+00
 0.000000e+00 8.619304e-01 1.380696e-01 0.000000e+00 0.000000e+00 0.000000e+00 0.000000e+00 0.000000e+00 0.000000e+00 0.000000e+00 0.000000e+00 0.000000e+00
 0.000000e+00 0.000000e+00 8.559474e-01 1.440526e-01 0.000000e+00 0.000000e+00 0.000000e+00 0.000000e+00 0.000000e+00 0.000000e+00 0.000000e+00 0.000000e+00
 0.000000e+00 0.000000e+00 0.000000e+00 7.867698e-01 2.132302e-01 0.000000e+00 0.000000e+00 0.000000e+00 0.000000e+00 0.000000e+00 0.000000e+00 0.000000e+00
 0.000000e+00 0.000000e+00 0.000000e+00 0.000000e+00 8.312445e-01 1.687555e-01 0.000000e+00 0.000000e+00 0.000000e+00 0.000000e+00 0.000000e+00 0.000000e+00
 0.000000e+00 0.000000e+00 0.000000e+00 0.000000e+00 0.000000e+00 8.129222e-01 1.870778e-01 0.000000e+00 0.000000e+00 0.000000e+00 0.000000e+00 0.000000e+00
 0.000000e+00 0.000000e+00 0.000000e+00 0.000000e+00 0.000000e+00 0.000000e+00 0.000000e+00 1.000000e+00 0.000000e+00 0.000000e+00 0.000000e+00 0.000000e+00
 0.000000e+00 0.000000e+00 0.000000e+00 0.000000e+00 0.000000e+00 0.000000e+00 0.000000e+00 8.170822e-01 1.829178e-01 0.000000e+00 0.000000e+00 0.000000e+00
 0.000000e+00 0.000000e+00 0.000000e+00 0.000000e+00 0.000000e+00 0.000000e+00 0.000000e+00 0.000000e+00 8.631279e-01 1.368721e-01 0.000000e+00 0.000000e+00
 0.000000e+00 0.000000e+00 0.000000e+00 0.000000e+00 0.000000e+00 0.000000e+00 0.000000e+00 0.000000e+00 0.000000e+00 8.144991e-01 1.855009e-01 0.000000e+00
 0.000000e+00 0.000000e+00 0.000000e+00 0.000000e+00 0.000000e+00 0.000000e+00 0.000000e+00 0.000000e+00 0.000000e+00 0.000000e+00 8.634951e-01 1.365049e-01
 0.000000e+00 0.000000e+00 0.000000e+00 0.000000e+00 0.000000e+00 0.000000e+00 0.000000e+00 0.000000e+00 0.000000e+00 0.000000e+00 0.000000e+00 0.000000e+00
<ENDHMM>
