~o
<STREAMINFO> 1 6
<VECSIZE> 6<NULLD><USER><DIAGC>
~h "proto"
<BEGINHMM>
<NUMSTATES> 12
<STATE> 2
<MEAN> 6
 4.172919e-01 2.335343e-01 1.646819e-02 1.900234e-02 -1.443720e-02 1.096075e-02
<VARIANCE> 6
 3.383896e-03 8.982063e-03 3.423269e-04 4.488682e-04 5.820165e-04 5.531791e-04
<GCONST> -3.001136e+01
<STATE> 3
<MEAN> 6
 3.854289e-01 3.102188e-01 -2.638772e-02 -7.313162e-03 -3.484439e-03 -2.175394e-02
<VARIANCE> 6
 4.954611e-03 1.026778e-02 1.464756e-04 7.071973e-04 1.113166e-03 2.115690e-04
<GCONST> -3.020328e+01
<STATE> 4
<MEAN> 6
 3.231544e-01 2.572358e-01 1.080809e-03 -5.536156e-02 3.702654e-02 -1.240323e-02
<VARIANCE> 6
 4.556166e-03 6.228891e-03 1.613223e-03 9.797955e-04 2.045600e-03 1.769378e-03
<GCONST> -2.532945e+01
<STATE> 5
<MEAN> 6
 3.612509e-01 1.085548e-01 3.810025e-02 -3.629225e-02 2.288009e-02 1.498957e-02
<VARIANCE> 6
 3.393518e-03 6.454697e-03 1.618752e-03 3.797657e-04 5.065895e-04 1.083912e-03
<GCONST> -2.841862e+01
<STATE> 6
<MEAN> 6
 5.006253e-01 8.193580e-02 6.951369e-02 5.623997e-03 -7.216150e-03 3.247744e-02
<VARIANCE> 6
 3.143053e-03 1.046205e-02 1.344211e-03 4.730859e-04 1.125571e-03 1.125065e-03
<GCONST> -2.714286e+01
<STATE> 7
<MEAN> 6
 6.192778e-01 1.384106e-01 3.322960e-02 5.326556e-02 -4.115164e-02 1.510337e-02
<VARIANCE> 6
 4.441829e-03 6.410153e-03 9.973159e-04 5.188388e-04 1.814839e-03 7.451607e-04
<GCONST> -2.742733e+01
<STATE> 8
<MEAN> 6
 6.363662e-01 2.738770e-01 -3.265213e-02 3.594120e-02 -2.892947e-02 -4.137239e-02
<VARIANCE> 6
 4.708502e-03 6.447656e-03 1.042129e-03 1.376414e-03 2.313694e-03 1.952395e-03
<GCONST> -2.513754e+01
<STATE> 9
<MEAN> 6
 5.463398e-01 2.683105e-01 -3.276526e-02 -8.750450e-03 1.312600e-02 -2.696665e-02
<VARIANCE> 6
 2.481739e-03 1.163665e-02 2.097436e-04 6.814179e-04 6.177485e-04 2.590815e-04
<GCONST> -3.083389e+01
<STATE> 10
<MEAN> 6
 5.188193e-01 2.061424e-01 7.942861e-04 -3.352401e-02 -4.299920e-05 1.259714e-02
<VARIANCE> 6
 3.041609e-03 9.270351e-03 3.561504e-04 1.990383e-04 1.597116e-03 3.013931e-04
<GCONST> -3.045786e+01
<STATE> 11
<MEAN> 6
 4.771933e-01 1.643632e-01 -4.547982e-02 -5.460063e-03 -2.200526e-02 6.047687e-03
<VARIANCE> 6
 6.538678e-03 1.107188e-02 8.584800e-04 7.546969e-05 1.410472e-03 1.654720e-04
<GCONST> -3.032877e+01
<TRANSP> 12
 0.000000e+00 1.000000e+00 0.000000e+00 0.000000e+00 0.000000e+00 0.000000e+00 0.000000e+00 0.000000e+00 0.000000e+00 0.000000e+00 0.000000e+00 0.000000e+00
 0.000000e+00 8.789090e-01 1.210910e-01 0.000000e+00 0.000000e+00 0.000000e+00 0.000000e+00 0.000000e+00 0.000000e+00 0.000000e+00 0.000000e+00 0.000000e+00
 0.000000e+00 0.000000e+00 9.001647e-01 9.983536e-02 0.000000e+00 0.000000e+00 0.000000e+00 0.000000e+00 0.000000e+00 0.000000e+00 0.000000e+00 0.000000e+00
 0.000000e+00 0.000000e+00 0.000000e+00 8.250322e-01 1.749678e-01 0.000000e+00 0.000000e+00 0.000000e+00 0.000000e+00 0.000000e+00 0.000000e+00 0.000000e+00
 0.000000e+00 0.000000e+00 0.000000e+00 0.000000e+00 8.750103e-01 1.249898e-01 0.000000e+00 0.000000e+00 0.000000e+00 0.000000e+00 0.000000e+00 0.000000e+00
 0.000000e+00 0.000000e+00 0.000000e+00 0.000000e+00 0.000000e+00 8.479494e-01 1.520506e-01 0.000000e+00 0.000000e+00 0.000000e+00 0.000000e+00 0.000000e+00
 0.000000e+00 0.000000e+00 0.000000e+00 0.000000e+00 0.000000e+00 0.000000e+00 8.488486e-01 1.511514e-01 0.000000e+00 0.000000e+00 0.000000e+00 0.000000e+00
 0.000000e+00 0.000000e+00 0.000000e+00 0.000000e+00 0.000000e+00 0.000000e+00 0.000000e+00 8.041409e-01 1.958591e-01 0.000000e+00 0.000000e+00 0.000000e+00
 0.000000e+00 0.000000e+00 0.000000e+00 0.000000e+00 0.000000e+00 0.000000e+00 0.000000e+00 0.000000e+00 8.429693e-01 1.570307e-01 0.000000e+00 0.000000e+00
 0.000000e+00 0.000000e+00 0.000000e+00 0.000000e+00 0.000000e+00 0.000000e+00 0.000000e+00 0.000000e+00 0.000000e+00 8.630481e-01 1.369519e-01 0.000000e+00
 0.000000e+00 0.000000e+00 0.000000e+00 0.000000e+00 0.000000e+00 0.000000e+00 0.000000e+00 0.000000e+00 0.000000e+00 0.000000e+00 8.420293e-01 1.579708e-01
 0.000000e+00 0.000000e+00 0.000000e+00 0.000000e+00 0.000000e+00 0.000000e+00 0.000000e+00 0.000000e+00 0.000000e+00 0.000000e+00 0.000000e+00 0.000000e+00
<ENDHMM>
