~o
<STREAMINFO> 1 7
<VECSIZE> 7<NULLD><USER><DIAGC>
~h "proto"
<BEGINHMM>
<NUMSTATES> 12
<STATE> 2
<MEAN> 7
 4.223129e-01 2.297432e-01 1.141129e-02 2.074189e-02 -1.768018e-02 6.654806e-03 1.080796e+01
<VARIANCE> 7
 3.080765e-03 6.376271e-03 4.045615e-04 3.884367e-04 6.120862e-04 6.472340e-04 8.920027e+02
<GCONST> -2.158667e+01
<STATE> 3
<MEAN> 7
 3.889907e-01 2.924037e-01 -3.085287e-02 -1.081763e-02 9.851721e-04 -3.058253e-02 1.483434e+01
<VARIANCE> 7
 3.916502e-03 7.674280e-03 2.169017e-04 7.742658e-04 1.416233e-03 5.832721e-04 2.500278e+02
<GCONST> -2.163200e+01
<STATE> 4
<MEAN> 7
 3.346858e-01 1.809778e-01 5.008468e-03 -4.440604e-02 2.468017e-02 -2.633411e-03 1.814294e+00
<VARIANCE> 7
 3.337669e-03 6.725278e-03 5.963487e-04 5.078835e-04 1.164370e-03 6.795143e-04 1.755843e+01
<GCONST> -2.403334e+01
<STATE> 5
<MEAN> 7
 3.968188e-01 1.321886e-01 7.412424e-02 -5.360205e-02 4.978189e-02 3.369103e-02 1.416616e+00
<VARIANCE> 7
 3.891316e-03 5.724812e-03 1.882242e-03 1.032692e-03 1.349367e-03 2.244297e-03 3.051767e+00
<GCONST> -2.258945e+01
<STATE> 6
<MEAN> 7
 4.989648e-01 6.881671e-02 6.005756e-02 8.123964e-03 -9.124160e-03 2.845033e-02 6.782595e+00
<VARIANCE> 7
 5.530172e-03 7.975961e-03 1.168650e-03 4.915057e-04 8.726179e-04 8.777244e-04 3.836595e+01
<GCONST> -2.196868e+01
<STATE> 7
<MEAN> 7
 6.306300e-01 1.585170e-01 4.022621e-02 6.899230e-02 -7.101867e-02 1.715681e-02 3.634929e+00
<VARIANCE> 7
 4.741149e-03 6.401053e-03 2.574515e-03 1.139296e-03 4.916168e-03 3.884143e-03 5.616319e+01
<GCONST> -1.711489e+01
<STATE> 8
<MEAN> 7
 6.160203e-01 2.029465e-01 -1.273877e-02 4.330830e-02 -2.971670e-02 -2.041690e-02 -7.041270e-01
<VARIANCE> 7
 4.569958e-03 8.023994e-03 7.113790e-04 3.366968e-04 3.128163e-04 8.076126e-04 3.412321e+01
<GCONST> -2.425441e+01
<STATE> 9
<MEAN> 7
 5.560806e-01 2.687784e-01 -3.934907e-02 -1.211077e-02 1.668167e-02 -3.904396e-02 2.324218e+01
<VARIANCE> 7
 3.863743e-03 6.632817e-03 3.665813e-04 6.468279e-04 7.747361e-04 7.820890e-04 4.488333e+02
<GCONST> -2.117130e+01
<STATE> 10
<MEAN> 7
 5.091469e-01 1.878463e-01 -8.739332e-03 -2.723714e-02 1.322802e-03 8.192874e-03 6.424102e+00
<VARIANCE> 7
 4.358078e-03 6.496483e-03 5.381479e-04 3.065343e-04 1.020868e-03 2.713123e-04 3.543378e+02
<GCONST> -2.245373e+01
<STATE> 11
<MEAN> 7
 5.006012e-01 1.368605e-01 -4.401854e-02 -7.434988e-03 -3.377020e-02 9.613939e-03 1.121999e+02
<VARIANCE> 7
 6.907151e-03 7.127597e-03 1.216102e-03 1.015442e-04 1.990768e-03 2.315456e-04 5.030843e+05
<GCONST> -1.442242e+01
<TRANSP> 12
 0.000000e+00 1.000000e+00 0.000000e+00 0.000000e+00 0.000000e+00 0.000000e+00 0.000000e+00 0.000000e+00 0.000000e+00 0.000000e+00 0.000000e+00 0.000000e+00
 0.000000e+00 8.792311e-01 1.207689e-01 0.000000e+00 0.000000e+00 0.000000e+00 0.000000e+00 0.000000e+00 0.000000e+00 0.000000e+00 0.000000e+00 0.000000e+00
 0.000000e+00 0.000000e+00 8.814838e-01 1.185162e-01 0.000000e+00 0.000000e+00 0.000000e+00 0.000000e+00 0.000000e+00 0.000000e+00 0.000000e+00 0.000000e+00
 0.000000e+00 0.000000e+00 0.000000e+00 8.772089e-01 1.227911e-01 0.000000e+00 0.000000e+00 0.000000e+00 0.000000e+00 0.000000e+00 0.000000e+00 0.000000e+00
 0.000000e+00 0.000000e+00 0.000000e+00 0.000000e+00 7.443590e-01 2.556411e-01 0.000000e+00 0.000000e+00 0.000000e+00 0.000000e+00 0.000000e+00 0.000000e+00
 0.000000e+00 0.000000e+00 0.000000e+00 0.000000e+00 0.000000e+00 8.735132e-01 1.264869e-01 0.000000e+00 0.000000e+00 0.000000e+00 0.000000e+00 0.000000e+00
 0.000000e+00 0.000000e+00 0.000000e+00 0.000000e+00 0.000000e+00 0.000000e+00 7.066367e-01 2.933633e-01 0.000000e+00 0.000000e+00 0.000000e+00 0.000000e+00
 0.000000e+00 0.000000e+00 0.000000e+00 0.000000e+00 0.000000e+00 0.000000e+00 0.000000e+00 8.423762e-01 1.576238e-01 0.000000e+00 0.000000e+00 0.000000e+00
 0.000000e+00 0.000000e+00 0.000000e+00 0.000000e+00 0.000000e+00 0.000000e+00 0.000000e+00 0.000000e+00 8.219354e-01 1.780646e-01 0.000000e+00 0.000000e+00
 0.000000e+00 0.000000e+00 0.000000e+00 0.000000e+00 0.000000e+00 0.000000e+00 0.000000e+00 0.000000e+00 0.000000e+00 8.949141e-01 1.050859e-01 0.000000e+00
 0.000000e+00 0.000000e+00 0.000000e+00 0.000000e+00 0.000000e+00 0.000000e+00 0.000000e+00 0.000000e+00 0.000000e+00 0.000000e+00 7.690666e-01 2.309334e-01
 0.000000e+00 0.000000e+00 0.000000e+00 0.000000e+00 0.000000e+00 0.000000e+00 0.000000e+00 0.000000e+00 0.000000e+00 0.000000e+00 0.000000e+00 0.000000e+00
<ENDHMM>
