~o
<STREAMINFO> 1 7
<VECSIZE> 7<NULLD><USER><DIAGC>
~h "proto"
<BEGINHMM>
<NUMSTATES> 12
<STATE> 2
<MEAN> 7
 4.292397e-01 2.614188e-01 -2.055442e-03 2.215320e-02 -2.523514e-02 -6.759321e-03 1.338270e+01
<VARIANCE> 7
 4.185610e-03 4.667777e-03 4.859754e-04 2.646673e-04 4.281336e-04 1.234938e-03 1.989601e+03
<GCONST> -2.070155e+01
<STATE> 3
<MEAN> 7
 3.682850e-01 2.554184e-01 -1.726750e-02 -2.450621e-02 1.342724e-02 -2.875128e-02 1.576325e+01
<VARIANCE> 7
 6.514600e-03 4.941028e-03 4.512305e-04 7.166557e-04 8.554092e-04 1.094371e-03 2.678314e+02
<GCONST> -2.071435e+01
<STATE> 4
<MEAN> 7
 4.143745e-01 1.666584e-01 5.002195e-02 -3.898398e-02 3.990087e-02 2.855228e-02 2.286779e+00
<VARIANCE> 7
 4.619171e-03 3.966059e-03 1.361339e-03 8.642356e-04 1.676639e-03 9.594736e-04 1.810060e+01
<GCONST> -2.213948e+01
<STATE> 5
<MEAN> 7
 5.640854e-01 1.832165e-01 1.301242e-02 3.022947e-02 -3.410608e-02 4.302860e-03 6.800573e+00
<VARIANCE> 7
 6.298225e-03 5.418192e-03 1.716267e-03 5.679050e-04 1.148212e-03 1.560760e-03 1.832882e+02
<GCONST> -1.928257e+01
<STATE> 6
<MEAN> 7
 5.102252e-01 2.325223e-01 5.422085e-03 -1.160420e-02 2.774605e-02 5.768880e-03 2.669724e+01
<VARIANCE> 7
 4.331726e-03 4.298325e-03 1.077123e-03 4.129294e-04 1.152836e-03 2.184581e-03 4.568450e+03
<GCONST> -1.711681e+01
<STATE> 7
<MEAN> 7
 5.621470e-01 2.681157e-01 -6.479064e-03 5.228812e-02 -4.109272e-02 3.920495e-03 5.775971e+00
<VARIANCE> 7
 6.263308e-03 5.237354e-03 1.241384e-03 4.629692e-04 8.791501e-04 1.878503e-03 9.254202e+01
<GCONST> -2.061540e+01
<STATE> 8
<MEAN> 7
 4.907819e-01 3.434291e-01 -4.066253e-02 1.475110e-02 3.268304e-02 -2.691035e-02 2.466208e+01
<VARIANCE> 7
 5.108471e-03 3.465813e-03 3.750009e-04 2.508065e-04 1.289470e-03 3.677573e-04 1.213430e+03
<GCONST> -2.171634e+01
<STATE> 9
<MEAN> 7
 5.190285e-01 3.240270e-01 2.412166e-02 3.715348e-03 6.152105e-02 -6.703326e-03 1.383291e+03
<VARIANCE> 7
 1.158998e-02 7.107978e-03 1.336279e-03 1.256016e-04 5.013140e-03 5.891761e-04 1.235261e+08
<GCONST> -6.239790e+00
<STATE> 10
<MEAN> 7
 5.730401e-01 3.553367e-01 8.288244e-02 5.204721e-03 1.542808e-02 -5.521762e-03 -1.572675e+00
<VARIANCE> 7
 9.868791e-03 3.869912e-03 1.468214e-03 1.301264e-04 4.610124e-03 4.050480e-04 2.254434e+01
<GCONST> -2.285399e+01
<STATE> 11
<MEAN> 7
 6.838331e-01 3.103410e-01 3.445273e-03 -1.706623e-02 -2.421203e-02 1.667179e-02 -2.715049e+01
<VARIANCE> 7
 8.723369e-03 4.652680e-03 1.308929e-03 1.445533e-03 3.388903e-03 3.146151e-03 7.325708e+03
<GCONST> -1.297443e+01
<TRANSP> 12
 0.000000e+00 1.000000e+00 0.000000e+00 0.000000e+00 0.000000e+00 0.000000e+00 0.000000e+00 0.000000e+00 0.000000e+00 0.000000e+00 0.000000e+00 0.000000e+00
 0.000000e+00 8.562730e-01 1.437270e-01 0.000000e+00 0.000000e+00 0.000000e+00 0.000000e+00 0.000000e+00 0.000000e+00 0.000000e+00 0.000000e+00 0.000000e+00
 0.000000e+00 0.000000e+00 8.653271e-01 1.346729e-01 0.000000e+00 0.000000e+00 0.000000e+00 0.000000e+00 0.000000e+00 0.000000e+00 0.000000e+00 0.000000e+00
 0.000000e+00 0.000000e+00 0.000000e+00 8.643513e-01 1.356487e-01 0.000000e+00 0.000000e+00 0.000000e+00 0.000000e+00 0.000000e+00 0.000000e+00 0.000000e+00
 0.000000e+00 0.000000e+00 0.000000e+00 0.000000e+00 9.199507e-01 8.004935e-02 0.000000e+00 0.000000e+00 0.000000e+00 0.000000e+00 0.000000e+00 0.000000e+00
 0.000000e+00 0.000000e+00 0.000000e+00 0.000000e+00 0.000000e+00 8.933094e-01 1.066906e-01 0.000000e+00 0.000000e+00 0.000000e+00 0.000000e+00 0.000000e+00
 0.000000e+00 0.000000e+00 0.000000e+00 0.000000e+00 0.000000e+00 0.000000e+00 8.616149e-01 1.383851e-01 0.000000e+00 0.000000e+00 0.000000e+00 0.000000e+00
 0.000000e+00 0.000000e+00 0.000000e+00 0.000000e+00 0.000000e+00 0.000000e+00 0.000000e+00 7.495704e-01 2.504296e-01 0.000000e+00 0.000000e+00 0.000000e+00
 0.000000e+00 0.000000e+00 0.000000e+00 0.000000e+00 0.000000e+00 0.000000e+00 0.000000e+00 0.000000e+00 6.034713e-01 3.965287e-01 0.000000e+00 0.000000e+00
 0.000000e+00 0.000000e+00 0.000000e+00 0.000000e+00 0.000000e+00 0.000000e+00 0.000000e+00 0.000000e+00 0.000000e+00 8.614732e-01 1.385268e-01 0.000000e+00
 0.000000e+00 0.000000e+00 0.000000e+00 0.000000e+00 0.000000e+00 0.000000e+00 0.000000e+00 0.000000e+00 0.000000e+00 0.000000e+00 9.051215e-01 9.487851e-02
 0.000000e+00 0.000000e+00 0.000000e+00 0.000000e+00 0.000000e+00 0.000000e+00 0.000000e+00 0.000000e+00 0.000000e+00 0.000000e+00 0.000000e+00 0.000000e+00
<ENDHMM>
