~o
<STREAMINFO> 1 6
<VECSIZE> 6<NULLD><USER><DIAGC>
~h "proto"
<BEGINHMM>
<NUMSTATES> 12
<STATE> 2
<MEAN> 6
 4.258225e-01 2.580483e-01 -3.478789e-03 2.040295e-02 -2.452133e-02 -8.519426e-03
<VARIANCE> 6
 4.502888e-03 5.952683e-03 5.543137e-04 2.645775e-04 3.480043e-04 1.193545e-03
<GCONST> -2.992897e+01
<STATE> 3
<MEAN> 6
 3.597602e-01 2.359770e-01 -5.107135e-03 -2.588129e-02 1.776605e-02 -1.619865e-02
<VARIANCE> 6
 4.737844e-03 6.703040e-03 5.507102e-04 8.730765e-04 8.485028e-04 9.139969e-04
<GCONST> -2.794761e+01
<STATE> 4
<MEAN> 6
 4.439611e-01 1.414978e-01 6.529745e-02 -2.270126e-02 1.703004e-02 4.090346e-02
<VARIANCE> 6
 4.972818e-03 5.915295e-03 9.101533e-04 1.222732e-03 2.948328e-03 8.884709e-04
<GCONST> -2.596781e+01
<STATE> 5
<MEAN> 6
 5.604025e-01 1.460541e-01 7.495708e-03 2.266138e-02 -2.186029e-02 2.344809e-03
<VARIANCE> 6
 5.877653e-03 3.265620e-03 1.011940e-03 6.283349e-04 1.265669e-03 7.036204e-04
<GCONST> -2.803339e+01
<STATE> 6
<MEAN> 6
 5.116835e-01 2.277275e-01 2.339167e-03 -4.792621e-04 1.923132e-02 1.674298e-03
<VARIANCE> 6
 3.932728e-03 1.481482e-03 1.348147e-03 5.700256e-04 1.415669e-03 1.851320e-03
<GCONST> -2.795673e+01
<STATE> 7
<MEAN> 6
 5.504979e-01 2.253594e-01 4.088884e-02 4.219524e-02 -2.654454e-02 5.421307e-02
<VARIANCE> 6
 4.881975e-03 1.054406e-03 8.757678e-04 3.275794e-04 8.627719e-04 1.716369e-03
<GCONST> -2.963681e+01
<STATE> 8
<MEAN> 6
 5.573435e-01 3.112931e-01 -1.219954e-02 4.043613e-02 -2.414499e-02 -1.058862e-02
<VARIANCE> 6
 4.685141e-03 2.465503e-03 1.353252e-03 1.118235e-03 1.844816e-03 1.651221e-03
<GCONST> -2.644432e+01
<STATE> 9
<MEAN> 6
 5.013229e-01 3.615169e-01 3.372166e-02 6.278459e-03 5.222609e-02 -6.279606e-03
<VARIANCE> 6
 5.589309e-03 2.741217e-03 3.720232e-03 1.692133e-04 2.333738e-03 5.041157e-04
<GCONST> -2.799030e+01
<STATE> 10
<MEAN> 6
 6.838468e-01 3.552186e-01 5.376627e-02 -1.587069e-02 -5.501560e-02 -2.794048e-02
<VARIANCE> 6
 4.906683e-03 4.145630e-03 1.874321e-03 5.536254e-04 1.309660e-03 4.650857e-04
<GCONST> -2.786540e+01
<STATE> 11
<MEAN> 6
 6.925285e-01 2.820657e-01 -1.119711e-02 -7.917589e-03 -3.662276e-03 4.129332e-02
<VARIANCE> 6
 6.044555e-03 5.157163e-03 9.774691e-04 1.625893e-03 3.341200e-03 1.671377e-03
<GCONST> -2.479648e+01
<TRANSP> 12
 0.000000e+00 1.000000e+00 0.000000e+00 0.000000e+00 0.000000e+00 0.000000e+00 0.000000e+00 0.000000e+00 0.000000e+00 0.000000e+00 0.000000e+00 0.000000e+00
 0.000000e+00 8.686095e-01 1.313905e-01 0.000000e+00 0.000000e+00 0.000000e+00 0.000000e+00 0.000000e+00 0.000000e+00 0.000000e+00 0.000000e+00 0.000000e+00
 0.000000e+00 0.000000e+00 9.092591e-01 9.074087e-02 0.000000e+00 0.000000e+00 0.000000e+00 0.000000e+00 0.000000e+00 0.000000e+00 0.000000e+00 0.000000e+00
 0.000000e+00 0.000000e+00 0.000000e+00 8.500252e-01 1.499748e-01 0.000000e+00 0.000000e+00 0.000000e+00 0.000000e+00 0.000000e+00 0.000000e+00 0.000000e+00
 0.000000e+00 0.000000e+00 0.000000e+00 0.000000e+00 9.113473e-01 8.865266e-02 0.000000e+00 0.000000e+00 0.000000e+00 0.000000e+00 0.000000e+00 0.000000e+00
 0.000000e+00 0.000000e+00 0.000000e+00 0.000000e+00 0.000000e+00 9.002903e-01 9.970969e-02 0.000000e+00 0.000000e+00 0.000000e+00 0.000000e+00 0.000000e+00
 0.000000e+00 0.000000e+00 0.000000e+00 0.000000e+00 0.000000e+00 0.000000e+00 0.000000e+00 1.000000e+00 0.000000e+00 0.000000e+00 0.000000e+00 0.000000e+00
 0.000000e+00 0.000000e+00 0.000000e+00 0.000000e+00 0.000000e+00 0.000000e+00 0.000000e+00 8.879439e-01 1.120561e-01 0.000000e+00 0.000000e+00 0.000000e+00
 0.000000e+00 0.000000e+00 0.000000e+00 0.000000e+00 0.000000e+00 0.000000e+00 0.000000e+00 0.000000e+00 8.832739e-01 1.167261e-01 0.000000e+00 0.000000e+00
 0.000000e+00 0.000000e+00 0.000000e+00 0.000000e+00 0.000000e+00 0.000000e+00 0.000000e+00 0.000000e+00 0.000000e+00 8.434301e-01 1.565699e-01 0.000000e+00
 0.000000e+00 0.000000e+00 0.000000e+00 0.000000e+00 0.000000e+00 0.000000e+00 0.000000e+00 0.000000e+00 0.000000e+00 0.000000e+00 8.580950e-01 1.419051e-01
 0.000000e+00 0.000000e+00 0.000000e+00 0.000000e+00 0.000000e+00 0.000000e+00 0.000000e+00 0.000000e+00 0.000000e+00 0.000000e+00 0.000000e+00 0.000000e+00
<ENDHMM>
