~o
<STREAMINFO> 1 7
<VECSIZE> 7<NULLD><USER><DIAGC>
~h "proto"
<BEGINHMM>
<NUMSTATES> 12
<STATE> 2
<MEAN> 7
 3.788749e-01 3.044676e-01 1.734777e-02 3.422359e-03 2.749421e-03 -2.853164e-02 -2.455087e+01
<VARIANCE> 7
 4.447741e-03 6.574227e-03 6.635861e-04 1.034903e-03 1.808211e-03 1.775351e-03 1.931309e+03
<GCONST> -1.684934e+01
<STATE> 3
<MEAN> 7
 3.867287e-01 2.207063e-01 -1.522180e-02 -5.075276e-02 1.288039e-03 2.094045e-03 -1.889818e+00
<VARIANCE> 7
 4.819933e-03 6.343974e-03 2.806392e-04 6.608485e-04 1.101163e-03 5.322756e-04 2.746445e+01
<GCONST> -2.406738e+01
<STATE> 4
<MEAN> 7
 4.187288e-01 1.330684e-01 3.156758e-02 -7.288217e-04 7.695586e-03 3.442530e-02 7.595687e+00
<VARIANCE> 7
 5.319779e-03 5.519971e-03 4.162542e-04 1.102099e-03 1.593213e-03 1.684625e-03 5.837993e+02
<GCONST> -1.862398e+01
<STATE> 5
<MEAN> 7
 4.737437e-01 1.809768e-01 4.895620e-03 3.057742e-02 -1.257920e-02 -2.284006e-02 -1.492761e+01
<VARIANCE> 7
 3.138938e-03 5.707642e-03 3.448306e-04 3.152684e-04 4.362124e-04 1.061851e-03 9.172252e+03
<GCONST> -1.956041e+01
<STATE> 6
<MEAN> 7
 4.733428e-01 2.133210e-01 7.252075e-03 -3.938136e-03 1.068877e-02 -6.533983e-02 -8.376686e+02
<VARIANCE> 7
 3.546450e-03 4.179370e-03 1.825561e-04 1.522462e-04 6.850432e-04 1.289791e-03 6.201655e+08
<GCONST> -9.346535e+00
<STATE> 7
<MEAN> 7
 5.212883e-01 1.746558e-01 3.122254e-02 3.639336e-03 -4.882314e-03 2.762162e-02 1.363267e+01
<VARIANCE> 7
 5.648530e-03 2.714388e-03 7.254648e-04 1.611036e-03 2.398345e-03 2.313038e-03 6.630160e+02
<GCONST> -1.748536e+01
<STATE> 8
<MEAN> 7
 5.430740e-01 2.900241e-01 -2.805901e-02 5.522307e-02 2.651847e-03 -3.105337e-02 2.511737e+01
<VARIANCE> 7
 4.514770e-03 4.203557e-03 8.052004e-04 9.666974e-04 3.445271e-03 1.051499e-03 9.976675e+03
<GCONST> -1.539342e+01
<STATE> 9
<MEAN> 7
 5.206794e-01 3.106430e-01 1.117748e-02 1.577090e-02 9.800094e-02 -3.384538e-02 8.449791e+02
<VARIANCE> 7
 4.770779e-03 6.135264e-03 4.407195e-04 1.665575e-04 6.227638e-03 1.034513e-03 1.205926e+07
<GCONST> -9.648321e+00
<STATE> 10
<MEAN> 7
 5.865168e-01 3.336017e-01 7.564382e-02 3.144882e-03 2.059999e-02 -1.625771e-02 -1.862642e+01
<VARIANCE> 7
 7.017593e-03 4.427296e-03 1.739753e-03 1.383891e-04 5.595244e-03 5.300681e-04 1.631953e+04
<GCONST> -1.578184e+01
<STATE> 11
<MEAN> 7
 6.845360e-01 2.703628e-01 6.242446e-03 -1.800260e-02 -2.542328e-02 1.943016e-02 -1.302836e+01
<VARIANCE> 7
 5.961704e-03 6.843424e-03 1.891291e-03 1.882306e-03 4.267232e-03 3.551164e-03 2.367501e+03
<GCONST> -1.311516e+01
<TRANSP> 12
 0.000000e+00 1.000000e+00 0.000000e+00 0.000000e+00 0.000000e+00 0.000000e+00 0.000000e+00 0.000000e+00 0.000000e+00 0.000000e+00 0.000000e+00 0.000000e+00
 0.000000e+00 8.942699e-01 1.057301e-01 0.000000e+00 0.000000e+00 0.000000e+00 0.000000e+00 0.000000e+00 0.000000e+00 0.000000e+00 0.000000e+00 0.000000e+00
 0.000000e+00 0.000000e+00 8.831907e-01 1.168093e-01 0.000000e+00 0.000000e+00 0.000000e+00 0.000000e+00 0.000000e+00 0.000000e+00 0.000000e+00 0.000000e+00
 0.000000e+00 0.000000e+00 0.000000e+00 8.947600e-01 1.052401e-01 0.000000e+00 0.000000e+00 0.000000e+00 0.000000e+00 0.000000e+00 0.000000e+00 0.000000e+00
 0.000000e+00 0.000000e+00 0.000000e+00 0.000000e+00 8.000354e-01 1.999646e-01 0.000000e+00 0.000000e+00 0.000000e+00 0.000000e+00 0.000000e+00 0.000000e+00
 0.000000e+00 0.000000e+00 0.000000e+00 0.000000e+00 0.000000e+00 0.000000e+00 1.000000e+00 0.000000e+00 0.000000e+00 0.000000e+00 0.000000e+00 0.000000e+00
 0.000000e+00 0.000000e+00 0.000000e+00 0.000000e+00 0.000000e+00 0.000000e+00 9.073083e-01 9.269167e-02 0.000000e+00 0.000000e+00 0.000000e+00 0.000000e+00
 0.000000e+00 0.000000e+00 0.000000e+00 0.000000e+00 0.000000e+00 0.000000e+00 0.000000e+00 8.250092e-01 1.749909e-01 0.000000e+00 0.000000e+00 0.000000e+00
 0.000000e+00 0.000000e+00 0.000000e+00 0.000000e+00 0.000000e+00 0.000000e+00 0.000000e+00 0.000000e+00 0.000000e+00 1.000000e+00 0.000000e+00 0.000000e+00
 0.000000e+00 0.000000e+00 0.000000e+00 0.000000e+00 0.000000e+00 0.000000e+00 0.000000e+00 0.000000e+00 0.000000e+00 8.403407e-01 1.596593e-01 0.000000e+00
 0.000000e+00 0.000000e+00 0.000000e+00 0.000000e+00 0.000000e+00 0.000000e+00 0.000000e+00 0.000000e+00 0.000000e+00 0.000000e+00 8.986051e-01 1.013949e-01
 0.000000e+00 0.000000e+00 0.000000e+00 0.000000e+00 0.000000e+00 0.000000e+00 0.000000e+00 0.000000e+00 0.000000e+00 0.000000e+00 0.000000e+00 0.000000e+00
<ENDHMM>
