~o
<STREAMINFO> 1 6
<VECSIZE> 6<NULLD><USER><DIAGC>
~h "proto"
<BEGINHMM>
<NUMSTATES> 12
<STATE> 2
<MEAN> 6
 3.633345e-01 3.027130e-01 1.486328e-02 1.977040e-02 2.515574e-02 -1.477080e-02
<VARIANCE> 6
 4.100185e-03 6.582493e-03 6.849392e-04 3.913966e-04 1.014993e-03 1.170953e-03
<GCONST> -2.826758e+01
<STATE> 3
<MEAN> 6
 4.260241e-01 3.100215e-01 1.272460e-02 -4.138571e-02 -3.760700e-02 -4.699282e-02
<VARIANCE> 6
 2.774965e-03 4.751192e-03 6.240242e-04 1.029913e-03 7.962789e-04 1.462273e-03
<GCONST> -2.813014e+01
<STATE> 4
<MEAN> 6
 3.794232e-01 1.989242e-01 -1.682986e-02 -4.858022e-02 1.348251e-02 1.003825e-02
<VARIANCE> 6
 4.541148e-03 4.575725e-03 2.866480e-04 5.355953e-04 1.122604e-03 6.741841e-04
<GCONST> -2.953780e+01
<STATE> 5
<MEAN> 6
 3.881679e-01 1.229102e-01 3.273290e-02 -6.127158e-03 1.433095e-02 3.324634e-02
<VARIANCE> 6
 3.012554e-03 4.826080e-03 3.455032e-04 9.535013e-04 1.416103e-03 2.062289e-03
<GCONST> -2.778109e+01
<STATE> 6
<MEAN> 6
 4.716791e-01 1.824454e-01 1.929532e-02 4.252728e-03 2.017862e-03 -7.287339e-03
<VARIANCE> 6
 1.601253e-03 3.110475e-03 4.195056e-04 9.022781e-04 8.356284e-04 1.695815e-03
<GCONST> -2.943663e+01
<STATE> 7
<MEAN> 6
 5.788743e-01 1.479388e-01 3.288399e-02 1.957811e-02 -2.135650e-02 3.858381e-02
<VARIANCE> 6
 3.680842e-03 4.408554e-03 8.736029e-04 1.646242e-03 2.373397e-03 2.920778e-03
<GCONST> -2.533304e+01
<STATE> 8
<MEAN> 6
 5.553002e-01 2.800785e-01 -3.034483e-02 6.126856e-02 -1.053896e-03 -3.688892e-02
<VARIANCE> 6
 4.450815e-03 4.797597e-03 5.559204e-04 8.828699e-04 4.093718e-03 1.240420e-03
<GCONST> -2.644487e+01
<STATE> 9
<MEAN> 6
 5.492144e-01 3.233224e-01 5.624879e-02 8.241235e-03 5.951991e-02 -1.490142e-02
<VARIANCE> 6
 4.728983e-03 5.859916e-03 2.369538e-03 1.120687e-04 3.852767e-03 4.931258e-04
<GCONST> -2.778157e+01
<STATE> 10
<MEAN> 6
 6.963547e-01 3.192562e-01 5.461679e-02 -2.916474e-02 -6.298510e-02 -3.534772e-02
<VARIANCE> 6
 4.853504e-03 4.872447e-03 2.072388e-03 7.309346e-04 1.673998e-03 1.064583e-03
<GCONST> -2.626291e+01
<STATE> 11
<MEAN> 6
 6.863471e-01 2.519257e-01 -1.599475e-02 -9.213157e-03 -9.753049e-03 5.529435e-02
<VARIANCE> 6
 5.380455e-03 3.684007e-03 1.067113e-03 2.095905e-03 4.890637e-03 2.055677e-03
<GCONST> -2.431963e+01
<TRANSP> 12
 0.000000e+00 1.000000e+00 0.000000e+00 0.000000e+00 0.000000e+00 0.000000e+00 0.000000e+00 0.000000e+00 0.000000e+00 0.000000e+00 0.000000e+00 0.000000e+00
 0.000000e+00 8.304701e-01 1.695299e-01 0.000000e+00 0.000000e+00 0.000000e+00 0.000000e+00 0.000000e+00 0.000000e+00 0.000000e+00 0.000000e+00 0.000000e+00
 0.000000e+00 0.000000e+00 7.870402e-01 2.129599e-01 0.000000e+00 0.000000e+00 0.000000e+00 0.000000e+00 0.000000e+00 0.000000e+00 0.000000e+00 0.000000e+00
 0.000000e+00 0.000000e+00 0.000000e+00 8.546631e-01 1.453369e-01 0.000000e+00 0.000000e+00 0.000000e+00 0.000000e+00 0.000000e+00 0.000000e+00 0.000000e+00
 0.000000e+00 0.000000e+00 0.000000e+00 0.000000e+00 8.494555e-01 1.505445e-01 0.000000e+00 0.000000e+00 0.000000e+00 0.000000e+00 0.000000e+00 0.000000e+00
 0.000000e+00 0.000000e+00 0.000000e+00 0.000000e+00 0.000000e+00 9.051445e-01 9.485555e-02 0.000000e+00 0.000000e+00 0.000000e+00 0.000000e+00 0.000000e+00
 0.000000e+00 0.000000e+00 0.000000e+00 0.000000e+00 0.000000e+00 0.000000e+00 8.783284e-01 1.216715e-01 0.000000e+00 0.000000e+00 0.000000e+00 0.000000e+00
 0.000000e+00 0.000000e+00 0.000000e+00 0.000000e+00 0.000000e+00 0.000000e+00 0.000000e+00 8.158184e-01 1.841816e-01 0.000000e+00 0.000000e+00 0.000000e+00
 0.000000e+00 0.000000e+00 0.000000e+00 0.000000e+00 0.000000e+00 0.000000e+00 0.000000e+00 0.000000e+00 8.358065e-01 1.641935e-01 0.000000e+00 0.000000e+00
 0.000000e+00 0.000000e+00 0.000000e+00 0.000000e+00 0.000000e+00 0.000000e+00 0.000000e+00 0.000000e+00 0.000000e+00 8.024187e-01 1.975813e-01 0.000000e+00
 0.000000e+00 0.000000e+00 0.000000e+00 0.000000e+00 0.000000e+00 0.000000e+00 0.000000e+00 0.000000e+00 0.000000e+00 0.000000e+00 8.217072e-01 1.782929e-01
 0.000000e+00 0.000000e+00 0.000000e+00 0.000000e+00 0.000000e+00 0.000000e+00 0.000000e+00 0.000000e+00 0.000000e+00 0.000000e+00 0.000000e+00 0.000000e+00
<ENDHMM>
