~o
<STREAMINFO> 1 7
<VECSIZE> 7<NULLD><USER><DIAGC>
~h "proto"
<BEGINHMM>
<NUMSTATES> 12
<STATE> 2
<MEAN> 7
 3.836131e-01 2.559834e-01 3.631174e-02 -3.699512e-03 -1.946923e-02 -3.986396e-03 -1.951113e+01
<VARIANCE> 7
 1.000000e-02 1.000000e-02 1.000000e-02 1.000000e-02 1.000000e-02 1.000000e-02 3.190106e+03
<GCONST> -6.698073e+00
<STATE> 3
<MEAN> 7
 4.265556e-01 2.497524e-01 7.958739e-03 -1.637108e-02 -5.825324e-02 -3.869396e-02 -1.475259e+03
<VARIANCE> 7
 1.000000e-02 1.000000e-02 1.000000e-02 1.000000e-02 1.000000e-02 1.000000e-02 1.643537e+07
<GCONST> 1.849064e+00
<STATE> 4
<MEAN> 7
 4.145398e-01 1.709785e-01 1.020684e-02 -9.537419e-03 3.660178e-03 7.423308e-03 6.089327e-01
<VARIANCE> 7
 1.000000e-02 1.000000e-02 1.000000e-02 1.000000e-02 1.000000e-02 1.000000e-02 4.224236e+02
<GCONST> -8.719873e+00
<STATE> 5
<MEAN> 7
 4.799808e-01 1.903392e-01 9.989313e-03 5.833435e-03 -8.709083e-03 -4.009512e-02 -2.024313e+03
<VARIANCE> 7
 1.000000e-02 1.000000e-02 1.000000e-02 1.000000e-02 1.000000e-02 1.000000e-02 1.351325e+08
<GCONST> 3.955885e+00
<STATE> 6
<MEAN> 7
 5.402683e-01 1.906722e-01 1.604333e-02 1.557622e-02 -6.467066e-03 7.683116e-03 8.219451e+00
<VARIANCE> 7
 1.000000e-02 1.000000e-02 1.000000e-02 1.000000e-02 1.000000e-02 1.000000e-02 4.069122e+02
<GCONST> -8.757285e+00
<STATE> 7
<MEAN> 7
 5.584548e-01 2.788080e-01 -1.976093e-02 2.620680e-02 2.606667e-02 -3.302067e-02 2.009323e+01
<VARIANCE> 7
 1.000000e-02 1.000000e-02 1.000000e-02 1.000000e-02 1.000000e-02 1.000000e-02 4.893708e+02
<GCONST> -8.572762e+00
<STATE> 8
<MEAN> 7
 5.532451e-01 2.845475e-01 -9.005601e-03 1.663507e-02 5.377387e-02 -3.358827e-02 7.728532e+01
<VARIANCE> 7
 1.000000e-02 1.000000e-02 1.000000e-02 1.000000e-02 1.000000e-02 1.000000e-02 1.690626e+04
<GCONST> -5.030443e+00
<STATE> 9
<MEAN> 7
 5.517439e-01 2.881678e-01 1.112640e-02 7.169867e-03 7.242600e-02 -2.932533e-02 3.427758e+03
<VARIANCE> 7
 1.000000e-02 1.000000e-02 1.000000e-02 1.000000e-02 1.000000e-02 1.000000e-02 5.617447e+08
<GCONST> 5.380676e+00
<STATE> 10
<MEAN> 7
 5.989622e-01 2.850891e-01 5.017361e-02 -4.573197e-04 1.977717e-02 -1.143325e-02 -4.902776e+01
<VARIANCE> 7
 1.000000e-02 1.000000e-02 1.000000e-02 1.000000e-02 1.000000e-02 1.000000e-02 3.568409e+04
<GCONST> -4.283422e+00
<STATE> 11
<MEAN> 7
 6.929438e-01 2.669300e-01 2.457163e-02 -7.791083e-03 -1.043058e-02 8.283316e-03 -8.600297e+00
<VARIANCE> 7
 1.000000e-02 1.000000e-02 1.000000e-02 1.000000e-02 1.000000e-02 1.000000e-02 1.959493e+03
<GCONST> -7.185441e+00
<TRANSP> 12
 0.000000e+00 1.000000e+00 0.000000e+00 0.000000e+00 0.000000e+00 0.000000e+00 0.000000e+00 0.000000e+00 0.000000e+00 0.000000e+00 0.000000e+00 0.000000e+00
 0.000000e+00 8.255814e-01 1.744186e-01 0.000000e+00 0.000000e+00 0.000000e+00 0.000000e+00 0.000000e+00 0.000000e+00 0.000000e+00 0.000000e+00 0.000000e+00
 0.000000e+00 0.000000e+00 3.243243e-01 6.756757e-01 0.000000e+00 0.000000e+00 0.000000e+00 0.000000e+00 0.000000e+00 0.000000e+00 0.000000e+00 0.000000e+00
 0.000000e+00 0.000000e+00 0.000000e+00 9.465431e-01 5.345688e-02 0.000000e+00 0.000000e+00 0.000000e+00 0.000000e+00 0.000000e+00 0.000000e+00 0.000000e+00
 0.000000e+00 0.000000e+00 0.000000e+00 0.000000e+00 4.274809e-01 5.725191e-01 0.000000e+00 0.000000e+00 0.000000e+00 0.000000e+00 0.000000e+00 0.000000e+00
 0.000000e+00 0.000000e+00 0.000000e+00 0.000000e+00 0.000000e+00 9.435666e-01 5.643341e-02 0.000000e+00 0.000000e+00 0.000000e+00 0.000000e+00 0.000000e+00
 0.000000e+00 0.000000e+00 0.000000e+00 0.000000e+00 0.000000e+00 0.000000e+00 0.000000e+00 1.000000e+00 0.000000e+00 0.000000e+00 0.000000e+00 0.000000e+00
 0.000000e+00 0.000000e+00 0.000000e+00 0.000000e+00 0.000000e+00 0.000000e+00 0.000000e+00 0.000000e+00 1.000000e+00 0.000000e+00 0.000000e+00 0.000000e+00
 0.000000e+00 0.000000e+00 0.000000e+00 0.000000e+00 0.000000e+00 0.000000e+00 0.000000e+00 0.000000e+00 0.000000e+00 1.000000e+00 0.000000e+00 0.000000e+00
 0.000000e+00 0.000000e+00 0.000000e+00 0.000000e+00 0.000000e+00 0.000000e+00 0.000000e+00 0.000000e+00 0.000000e+00 6.134021e-01 3.865979e-01 0.000000e+00
 0.000000e+00 0.000000e+00 0.000000e+00 0.000000e+00 0.000000e+00 0.000000e+00 0.000000e+00 0.000000e+00 0.000000e+00 0.000000e+00 9.365482e-01 6.345177e-02
 0.000000e+00 0.000000e+00 0.000000e+00 0.000000e+00 0.000000e+00 0.000000e+00 0.000000e+00 0.000000e+00 0.000000e+00 0.000000e+00 0.000000e+00 0.000000e+00
<ENDHMM>
