~o
<STREAMINFO> 1 7
<VECSIZE> 7<NULLD><USER><DIAGC>
~h "proto"
<BEGINHMM>
<NUMSTATES> 12
<STATE> 2
<MEAN> 7
 4.292396e-01 2.614189e-01 -2.055681e-03 2.215306e-02 -2.523508e-02 -6.759632e-03 1.338278e+01
<VARIANCE> 7
 4.185630e-03 4.667776e-03 4.859815e-04 2.646690e-04 4.281348e-04 1.234951e-03 1.989589e+03
<GCONST> -2.070152e+01
<STATE> 3
<MEAN> 7
 3.682838e-01 2.554176e-01 -1.726730e-02 -2.450673e-02 1.342769e-02 -2.875104e-02 1.576289e+01
<VARIANCE> 7
 6.514619e-03 4.941047e-03 4.512264e-04 7.166624e-04 8.554176e-04 1.094348e-03 2.678253e+02
<GCONST> -2.071437e+01
<STATE> 4
<MEAN> 7
 4.143755e-01 1.666576e-01 5.002283e-02 -3.898347e-02 3.990039e-02 2.855293e-02 2.286850e+00
<VARIANCE> 7
 4.619238e-03 3.966034e-03 1.361327e-03 8.642385e-04 1.676666e-03 9.594701e-04 1.810117e+01
<GCONST> -2.213943e+01
<STATE> 5
<MEAN> 7
 5.640842e-01 1.832184e-01 1.301142e-02 3.022958e-02 -3.410583e-02 4.301796e-03 6.800683e+00
<VARIANCE> 7
 6.298331e-03 5.418276e-03 1.716258e-03 5.678929e-04 1.148209e-03 1.560786e-03 1.832916e+02
<GCONST> -1.928254e+01
<STATE> 6
<MEAN> 7
 5.102175e-01 2.325242e-01 5.418355e-03 -1.160993e-02 2.775356e-02 5.762637e-03 2.669737e+01
<VARIANCE> 7
 4.331338e-03 4.298320e-03 1.077048e-03 4.127654e-04 1.152602e-03 2.184282e-03 4.569153e+03
<GCONST> -1.711755e+01
<STATE> 7
<MEAN> 7
 5.621676e-01 2.680672e-01 -6.444408e-03 5.229293e-02 -4.110725e-02 3.955516e-03 5.780377e+00
<VARIANCE> 7
 6.263181e-03 5.236513e-03 1.240747e-03 4.630782e-04 8.788549e-04 1.878724e-03 9.266707e+01
<GCONST> -2.061472e+01
<STATE> 8
<MEAN> 7
 4.908263e-01 3.434201e-01 -4.068285e-02 1.477727e-02 3.262603e-02 -2.692864e-02 2.462546e+01
<VARIANCE> 7
 5.109311e-03 3.464439e-03 3.752727e-04 2.510813e-04 1.290081e-03 3.678676e-04 1.208805e+03
<GCONST> -2.171780e+01
<STATE> 9
<MEAN> 7
 5.189754e-01 3.240528e-01 2.410877e-02 3.711743e-03 6.155534e-02 -6.696043e-03 1.381703e+03
<VARIANCE> 7
 1.158485e-02 7.104962e-03 1.335879e-03 1.255733e-04 5.010235e-03 5.890504e-04 1.233838e+08
<GCONST> -6.243128e+00
<STATE> 10
<MEAN> 7
 5.730228e-01 3.553336e-01 8.290234e-02 5.211765e-03 1.543773e-02 -5.508217e-03 -1.564349e+00
<VARIANCE> 7
 9.865505e-03 3.869937e-03 1.468456e-03 1.300744e-04 4.608823e-03 4.045304e-04 2.238879e+01
<GCONST> -2.286304e+01
<STATE> 11
<MEAN> 7
 6.838197e-01 3.103605e-01 3.466484e-03 -1.706243e-02 -2.421857e-02 1.665244e-02 -2.714617e+01
<VARIANCE> 7
 8.723953e-03 4.653522e-03 1.309872e-03 1.445104e-03 3.388262e-03 3.146187e-03 7.323151e+03
<GCONST> -1.297428e+01
<TRANSP> 12
 0.000000e+00 1.000000e+00 0.000000e+00 0.000000e+00 0.000000e+00 0.000000e+00 0.000000e+00 0.000000e+00 0.000000e+00 0.000000e+00 0.000000e+00 0.000000e+00
 0.000000e+00 8.562738e-01 1.437262e-01 0.000000e+00 0.000000e+00 0.000000e+00 0.000000e+00 0.000000e+00 0.000000e+00 0.000000e+00 0.000000e+00 0.000000e+00
 0.000000e+00 0.000000e+00 8.653278e-01 1.346722e-01 0.000000e+00 0.000000e+00 0.000000e+00 0.000000e+00 0.000000e+00 0.000000e+00 0.000000e+00 0.000000e+00
 0.000000e+00 0.000000e+00 0.000000e+00 8.643510e-01 1.356491e-01 0.000000e+00 0.000000e+00 0.000000e+00 0.000000e+00 0.000000e+00 0.000000e+00 0.000000e+00
 0.000000e+00 0.000000e+00 0.000000e+00 0.000000e+00 9.199513e-01 8.004874e-02 0.000000e+00 0.000000e+00 0.000000e+00 0.000000e+00 0.000000e+00 0.000000e+00
 0.000000e+00 0.000000e+00 0.000000e+00 0.000000e+00 0.000000e+00 8.932923e-01 1.067077e-01 0.000000e+00 0.000000e+00 0.000000e+00 0.000000e+00 0.000000e+00
 0.000000e+00 0.000000e+00 0.000000e+00 0.000000e+00 0.000000e+00 0.000000e+00 8.615600e-01 1.384400e-01 0.000000e+00 0.000000e+00 0.000000e+00 0.000000e+00
 0.000000e+00 0.000000e+00 0.000000e+00 0.000000e+00 0.000000e+00 0.000000e+00 0.000000e+00 7.497463e-01 2.502537e-01 0.000000e+00 0.000000e+00 0.000000e+00
 0.000000e+00 0.000000e+00 0.000000e+00 0.000000e+00 0.000000e+00 0.000000e+00 0.000000e+00 0.000000e+00 6.039357e-01 3.960643e-01 0.000000e+00 0.000000e+00
 0.000000e+00 0.000000e+00 0.000000e+00 0.000000e+00 0.000000e+00 0.000000e+00 0.000000e+00 0.000000e+00 0.000000e+00 8.613705e-01 1.386295e-01 0.000000e+00
 0.000000e+00 0.000000e+00 0.000000e+00 0.000000e+00 0.000000e+00 0.000000e+00 0.000000e+00 0.000000e+00 0.000000e+00 0.000000e+00 9.051552e-01 9.484486e-02
 0.000000e+00 0.000000e+00 0.000000e+00 0.000000e+00 0.000000e+00 0.000000e+00 0.000000e+00 0.000000e+00 0.000000e+00 0.000000e+00 0.000000e+00 0.000000e+00
<ENDHMM>
