~o
<STREAMINFO> 1 6
<VECSIZE> 6<NULLD><USER><DIAGC>
~h "proto"
<BEGINHMM>
<NUMSTATES> 12
<STATE> 2
<MEAN> 6
 4.258405e-01 2.580045e-01 -3.429377e-03 2.044214e-02 -2.455182e-02 -8.458968e-03
<VARIANCE> 6
 4.505415e-03 5.954192e-03 5.536470e-04 2.639565e-04 3.479074e-04 1.192580e-03
<GCONST> -2.993279e+01
<STATE> 3
<MEAN> 6
 3.597869e-01 2.361241e-01 -5.219452e-03 -2.576660e-02 1.762652e-02 -1.629325e-02
<VARIANCE> 6
 4.740519e-03 6.703395e-03 5.492884e-04 8.691544e-04 8.407506e-04 9.137584e-04
<GCONST> -2.796352e+01
<STATE> 4
<MEAN> 6
 4.432820e-01 1.417486e-01 6.510810e-02 -2.305148e-02 1.745278e-02 4.071160e-02
<VARIANCE> 6
 4.959137e-03 5.927197e-03 9.155600e-04 1.221311e-03 2.942486e-03 8.914226e-04
<GCONST> -2.596246e+01
<STATE> 5
<MEAN> 6
 5.603157e-01 1.462897e-01 7.535260e-03 2.274190e-02 -2.194432e-02 2.340364e-03
<VARIANCE> 6
 5.870672e-03 3.290151e-03 1.019492e-03 6.298348e-04 1.265574e-03 7.097781e-04
<GCONST> -2.800864e+01
<STATE> 6
<MEAN> 6
 5.116119e-01 2.277837e-01 2.365158e-03 -6.983845e-04 1.951125e-02 1.659707e-03
<VARIANCE> 6
 3.928108e-03 1.486329e-03 1.350046e-03 5.625734e-04 1.406489e-03 1.849784e-03
<GCONST> -2.797373e+01
<STATE> 7
<MEAN> 6
 5.502871e-01 2.251049e-01 4.122987e-02 4.174913e-02 -2.628561e-02 5.455047e-02
<VARIANCE> 6
 4.871148e-03 1.053996e-03 8.763549e-04 3.210594e-04 8.441029e-04 1.723577e-03
<GCONST> -2.967654e+01
<STATE> 8
<MEAN> 6
 5.573223e-01 3.110981e-01 -1.208132e-02 4.053300e-02 -2.430079e-02 -1.041661e-02
<VARIANCE> 6
 4.689112e-03 2.479235e-03 1.354449e-03 1.114794e-03 1.839911e-03 1.656516e-03
<GCONST> -2.643958e+01
<STATE> 9
<MEAN> 6
 5.013470e-01 3.615190e-01 3.365562e-02 6.290238e-03 5.220460e-02 -6.307743e-03
<VARIANCE> 6
 5.588516e-03 2.739594e-03 3.724062e-03 1.693427e-04 2.333687e-03 5.047998e-04
<GCONST> -2.798791e+01
<STATE> 10
<MEAN> 6
 6.838538e-01 3.552515e-01 5.375754e-02 -1.587653e-02 -5.502301e-02 -2.794323e-02
<VARIANCE> 6
 4.907099e-03 4.141638e-03 1.874051e-03 5.536649e-04 1.309645e-03 4.651640e-04
<GCONST> -2.786620e+01
<STATE> 11
<MEAN> 6
 6.925303e-01 2.820565e-01 -1.119393e-02 -7.916975e-03 -3.663505e-03 4.128932e-02
<VARIANCE> 6
 6.044151e-03 5.157093e-03 9.775219e-04 1.625740e-03 3.341021e-03 1.671483e-03
<GCONST> -2.479659e+01
<TRANSP> 12
 0.000000e+00 1.000000e+00 0.000000e+00 0.000000e+00 0.000000e+00 0.000000e+00 0.000000e+00 0.000000e+00 0.000000e+00 0.000000e+00 0.000000e+00 0.000000e+00
 0.000000e+00 8.683946e-01 1.316054e-01 0.000000e+00 0.000000e+00 0.000000e+00 0.000000e+00 0.000000e+00 0.000000e+00 0.000000e+00 0.000000e+00 0.000000e+00
 0.000000e+00 0.000000e+00 9.091311e-01 9.086887e-02 0.000000e+00 0.000000e+00 0.000000e+00 0.000000e+00 0.000000e+00 0.000000e+00 0.000000e+00 0.000000e+00
 0.000000e+00 0.000000e+00 0.000000e+00 8.500445e-01 1.499555e-01 0.000000e+00 0.000000e+00 0.000000e+00 0.000000e+00 0.000000e+00 0.000000e+00 0.000000e+00
 0.000000e+00 0.000000e+00 0.000000e+00 0.000000e+00 9.117915e-01 8.820854e-02 0.000000e+00 0.000000e+00 0.000000e+00 0.000000e+00 0.000000e+00 0.000000e+00
 0.000000e+00 0.000000e+00 0.000000e+00 0.000000e+00 0.000000e+00 8.999259e-01 1.000741e-01 0.000000e+00 0.000000e+00 0.000000e+00 0.000000e+00 0.000000e+00
 0.000000e+00 0.000000e+00 0.000000e+00 0.000000e+00 0.000000e+00 0.000000e+00 0.000000e+00 1.000000e+00 0.000000e+00 0.000000e+00 0.000000e+00 0.000000e+00
 0.000000e+00 0.000000e+00 0.000000e+00 0.000000e+00 0.000000e+00 0.000000e+00 0.000000e+00 8.879661e-01 1.120339e-01 0.000000e+00 0.000000e+00 0.000000e+00
 0.000000e+00 0.000000e+00 0.000000e+00 0.000000e+00 0.000000e+00 0.000000e+00 0.000000e+00 0.000000e+00 8.833603e-01 1.166398e-01 0.000000e+00 0.000000e+00
 0.000000e+00 0.000000e+00 0.000000e+00 0.000000e+00 0.000000e+00 0.000000e+00 0.000000e+00 0.000000e+00 0.000000e+00 8.433908e-01 1.566093e-01 0.000000e+00
 0.000000e+00 0.000000e+00 0.000000e+00 0.000000e+00 0.000000e+00 0.000000e+00 0.000000e+00 0.000000e+00 0.000000e+00 0.000000e+00 8.581052e-01 1.418948e-01
 0.000000e+00 0.000000e+00 0.000000e+00 0.000000e+00 0.000000e+00 0.000000e+00 0.000000e+00 0.000000e+00 0.000000e+00 0.000000e+00 0.000000e+00 0.000000e+00
<ENDHMM>
