~o
<STREAMINFO> 1 6
<VECSIZE> 6<NULLD><USER><DIAGC>
~h "proto"
<BEGINHMM>
<NUMSTATES> 12
<STATE> 2
<MEAN> 6
 3.633377e-01 3.027158e-01 1.486523e-02 1.976909e-02 2.515311e-02 -1.477375e-02
<VARIANCE> 6
 4.100181e-03 6.582411e-03 6.849488e-04 3.914006e-04 1.015025e-03 1.171057e-03
<GCONST> -2.826745e+01
<STATE> 3
<MEAN> 6
 4.260255e-01 3.100089e-01 1.270996e-02 -4.139724e-02 -3.760416e-02 -4.697686e-02
<VARIANCE> 6
 2.775031e-03 4.750580e-03 6.242001e-04 1.029787e-03 7.961949e-04 1.462443e-03
<GCONST> -2.813008e+01
<STATE> 4
<MEAN> 6
 3.794044e-01 1.988847e-01 -1.681801e-02 -4.857696e-02 1.351128e-02 1.005440e-02
<VARIANCE> 6
 4.540802e-03 4.574795e-03 2.869015e-04 5.355338e-04 1.123258e-03 6.746423e-04
<GCONST> -2.953605e+01
<STATE> 5
<MEAN> 6
 3.882676e-01 1.228910e-01 3.275684e-02 -6.080400e-03 1.427042e-02 3.328129e-02
<VARIANCE> 6
 3.016382e-03 4.822318e-03 3.453471e-04 9.527924e-04 1.415847e-03 2.057338e-03
<GCONST> -2.778438e+01
<STATE> 6
<MEAN> 6
 4.716510e-01 1.825162e-01 1.925030e-02 4.260431e-03 2.013769e-03 -7.372299e-03
<VARIANCE> 6
 1.601959e-03 3.108119e-03 4.184502e-04 9.024839e-04 8.341481e-04 1.694939e-03
<GCONST> -2.944152e+01
<STATE> 7
<MEAN> 6
 5.787754e-01 1.479250e-01 3.291792e-02 1.951590e-02 -2.128613e-02 3.858566e-02
<VARIANCE> 6
 3.685915e-03 4.406853e-03 8.729313e-04 1.645626e-03 2.375044e-03 2.919438e-03
<GCONST> -2.533296e+01
<STATE> 8
<MEAN> 6
 5.553326e-01 2.800156e-01 -3.033733e-02 6.129109e-02 -1.107869e-03 -3.686440e-02
<VARIANCE> 6
 4.450653e-03 4.799871e-03 5.560748e-04 8.826827e-04 4.093477e-03 1.241926e-03
<GCONST> -2.644321e+01
<STATE> 9
<MEAN> 6
 5.491935e-01 3.233247e-01 5.622302e-02 8.246499e-03 5.953286e-02 -1.490659e-02
<VARIANCE> 6
 4.727863e-03 5.859660e-03 2.370552e-03 1.121193e-04 3.851716e-03 4.931835e-04
<GCONST> -2.778113e+01
<STATE> 10
<MEAN> 6
 6.963452e-01 3.192582e-01 5.462390e-02 -2.915904e-02 -6.297933e-02 -3.534618e-02
<VARIANCE> 6
 4.853338e-03 4.872517e-03 2.072347e-03 7.309456e-04 1.673979e-03 1.064468e-03
<GCONST> -2.626305e+01
<STATE> 11
<MEAN> 6
 6.863482e-01 2.519258e-01 -1.599407e-02 -9.214469e-03 -9.755362e-03 5.529230e-02
<VARIANCE> 6
 5.380560e-03 3.684149e-03 1.067101e-03 2.095931e-03 4.890704e-03 2.055702e-03
<GCONST> -2.431954e+01
<TRANSP> 12
 0.000000e+00 1.000000e+00 0.000000e+00 0.000000e+00 0.000000e+00 0.000000e+00 0.000000e+00 0.000000e+00 0.000000e+00 0.000000e+00 0.000000e+00 0.000000e+00
 0.000000e+00 8.304828e-01 1.695171e-01 0.000000e+00 0.000000e+00 0.000000e+00 0.000000e+00 0.000000e+00 0.000000e+00 0.000000e+00 0.000000e+00 0.000000e+00
 0.000000e+00 0.000000e+00 7.871032e-01 2.128969e-01 0.000000e+00 0.000000e+00 0.000000e+00 0.000000e+00 0.000000e+00 0.000000e+00 0.000000e+00 0.000000e+00
 0.000000e+00 0.000000e+00 0.000000e+00 8.546881e-01 1.453119e-01 0.000000e+00 0.000000e+00 0.000000e+00 0.000000e+00 0.000000e+00 0.000000e+00 0.000000e+00
 0.000000e+00 0.000000e+00 0.000000e+00 0.000000e+00 8.495388e-01 1.504612e-01 0.000000e+00 0.000000e+00 0.000000e+00 0.000000e+00 0.000000e+00 0.000000e+00
 0.000000e+00 0.000000e+00 0.000000e+00 0.000000e+00 0.000000e+00 9.049980e-01 9.500203e-02 0.000000e+00 0.000000e+00 0.000000e+00 0.000000e+00 0.000000e+00
 0.000000e+00 0.000000e+00 0.000000e+00 0.000000e+00 0.000000e+00 0.000000e+00 8.784280e-01 1.215720e-01 0.000000e+00 0.000000e+00 0.000000e+00 0.000000e+00
 0.000000e+00 0.000000e+00 0.000000e+00 0.000000e+00 0.000000e+00 0.000000e+00 0.000000e+00 8.158525e-01 1.841474e-01 0.000000e+00 0.000000e+00 0.000000e+00
 0.000000e+00 0.000000e+00 0.000000e+00 0.000000e+00 0.000000e+00 0.000000e+00 0.000000e+00 0.000000e+00 8.358335e-01 1.641665e-01 0.000000e+00 0.000000e+00
 0.000000e+00 0.000000e+00 0.000000e+00 0.000000e+00 0.000000e+00 0.000000e+00 0.000000e+00 0.000000e+00 0.000000e+00 8.024426e-01 1.975575e-01 0.000000e+00
 0.000000e+00 0.000000e+00 0.000000e+00 0.000000e+00 0.000000e+00 0.000000e+00 0.000000e+00 0.000000e+00 0.000000e+00 0.000000e+00 8.217148e-01 1.782852e-01
 0.000000e+00 0.000000e+00 0.000000e+00 0.000000e+00 0.000000e+00 0.000000e+00 0.000000e+00 0.000000e+00 0.000000e+00 0.000000e+00 0.000000e+00 0.000000e+00
<ENDHMM>
