~o
<STREAMINFO> 1 7
<VECSIZE> 7<NULLD><USER><DIAGC>
~h "proto"
<BEGINHMM>
<NUMSTATES> 12
<STATE> 2
<MEAN> 7
 3.788750e-01 3.044675e-01 1.734805e-02 3.423526e-03 2.750123e-03 -2.853123e-02 -2.455115e+01
<VARIANCE> 7
 4.447686e-03 6.574182e-03 6.635885e-04 1.034803e-03 1.808187e-03 1.775348e-03 1.931333e+03
<GCONST> -1.684945e+01
<STATE> 3
<MEAN> 7
 3.867299e-01 2.207050e-01 -1.522093e-02 -5.075376e-02 1.289351e-03 2.094479e-03 -1.890126e+00
<VARIANCE> 7
 4.819809e-03 6.344147e-03 2.806543e-04 6.608760e-04 1.101298e-03 5.324058e-04 2.746713e+01
<GCONST> -2.406682e+01
<STATE> 4
<MEAN> 7
 4.187333e-01 1.330691e-01 3.156804e-02 -7.244670e-04 7.691629e-03 3.442421e-02 7.596536e+00
<VARIANCE> 7
 5.319812e-03 5.519905e-03 4.162179e-04 1.102024e-03 1.593173e-03 1.684598e-03 5.838053e+02
<GCONST> -1.862417e+01
<STATE> 5
<MEAN> 7
 4.737440e-01 1.809789e-01 4.893547e-03 3.057646e-02 -1.257709e-02 -2.284494e-02 -1.493103e+01
<VARIANCE> 7
 3.138917e-03 5.707795e-03 3.448184e-04 3.152783e-04 4.361943e-04 1.061723e-03 9.173223e+03
<GCONST> -1.956045e+01
<STATE> 6
<MEAN> 7
 4.733430e-01 2.133209e-01 7.252120e-03 -3.938400e-03 1.068900e-02 -6.533952e-02 -8.375720e+02
<VARIANCE> 7
 3.546424e-03 4.179379e-03 1.825564e-04 1.522491e-04 6.850468e-04 1.289807e-03 6.201709e+08
<GCONST> -9.346493e+00
<STATE> 7
<MEAN> 7
 5.212896e-01 1.746567e-01 3.122118e-02 3.641160e-03 -4.883711e-03 2.762183e-02 1.363249e+01
<VARIANCE> 7
 5.648539e-03 2.714403e-03 7.254953e-04 1.611154e-03 2.398415e-03 2.312994e-03 6.630092e+02
<GCONST> -1.748523e+01
<STATE> 8
<MEAN> 7
 5.430722e-01 2.900285e-01 -2.805901e-02 5.522197e-02 2.657673e-03 -3.105608e-02 2.512095e+01
<VARIANCE> 7
 4.514613e-03 4.203342e-03 8.052468e-04 9.666709e-04 3.445422e-03 1.051410e-03 9.977216e+03
<GCONST> -1.539346e+01
<STATE> 9
<MEAN> 7
 5.206791e-01 3.106439e-01 1.118389e-02 1.577025e-02 9.800293e-02 -3.384417e-02 8.449760e+02
<VARIANCE> 7
 4.770527e-03 6.135332e-03 4.410518e-04 1.664359e-04 6.227572e-03 1.034448e-03 1.205923e+07
<GCONST> -9.648413e+00
<STATE> 10
<MEAN> 7
 5.865163e-01 3.336010e-01 7.564438e-02 3.145182e-03 2.059954e-02 -1.625648e-02 -1.862897e+01
<VARIANCE> 7
 7.017410e-03 4.427387e-03 1.739742e-03 1.383670e-04 5.595048e-03 5.300139e-04 1.632076e+04
<GCONST> -1.578208e+01
<STATE> 11
<MEAN> 7
 6.845359e-01 2.703633e-01 6.243733e-03 -1.800269e-02 -2.542386e-02 1.942874e-02 -1.302865e+01
<VARIANCE> 7
 5.961643e-03 6.843477e-03 1.891368e-03 1.882257e-03 4.267177e-03 3.551188e-03 2.367512e+03
<GCONST> -1.311515e+01
<TRANSP> 12
 0.000000e+00 1.000000e+00 0.000000e+00 0.000000e+00 0.000000e+00 0.000000e+00 0.000000e+00 0.000000e+00 0.000000e+00 0.000000e+00 0.000000e+00 0.000000e+00
 0.000000e+00 8.942682e-01 1.057318e-01 0.000000e+00 0.000000e+00 0.000000e+00 0.000000e+00 0.000000e+00 0.000000e+00 0.000000e+00 0.000000e+00 0.000000e+00
 0.000000e+00 0.000000e+00 8.831964e-01 1.168036e-01 0.000000e+00 0.000000e+00 0.000000e+00 0.000000e+00 0.000000e+00 0.000000e+00 0.000000e+00 0.000000e+00
 0.000000e+00 0.000000e+00 0.000000e+00 8.947626e-01 1.052374e-01 0.000000e+00 0.000000e+00 0.000000e+00 0.000000e+00 0.000000e+00 0.000000e+00 0.000000e+00
 0.000000e+00 0.000000e+00 0.000000e+00 0.000000e+00 8.000128e-01 1.999873e-01 0.000000e+00 0.000000e+00 0.000000e+00 0.000000e+00 0.000000e+00 0.000000e+00
 0.000000e+00 0.000000e+00 0.000000e+00 0.000000e+00 0.000000e+00 0.000000e+00 1.000000e+00 0.000000e+00 0.000000e+00 0.000000e+00 0.000000e+00 0.000000e+00
 0.000000e+00 0.000000e+00 0.000000e+00 0.000000e+00 0.000000e+00 0.000000e+00 9.073099e-01 9.269007e-02 0.000000e+00 0.000000e+00 0.000000e+00 0.000000e+00
 0.000000e+00 0.000000e+00 0.000000e+00 0.000000e+00 0.000000e+00 0.000000e+00 0.000000e+00 8.250036e-01 1.749964e-01 0.000000e+00 0.000000e+00 0.000000e+00
 0.000000e+00 0.000000e+00 0.000000e+00 0.000000e+00 0.000000e+00 0.000000e+00 0.000000e+00 0.000000e+00 0.000000e+00 1.000000e+00 0.000000e+00 0.000000e+00
 0.000000e+00 0.000000e+00 0.000000e+00 0.000000e+00 0.000000e+00 0.000000e+00 0.000000e+00 0.000000e+00 0.000000e+00 8.403339e-01 1.596661e-01 0.000000e+00
 0.000000e+00 0.000000e+00 0.000000e+00 0.000000e+00 0.000000e+00 0.000000e+00 0.000000e+00 0.000000e+00 0.000000e+00 0.000000e+00 8.986071e-01 1.013929e-01
 0.000000e+00 0.000000e+00 0.000000e+00 0.000000e+00 0.000000e+00 0.000000e+00 0.000000e+00 0.000000e+00 0.000000e+00 0.000000e+00 0.000000e+00 0.000000e+00
<ENDHMM>
