~o
<STREAMINFO> 1 6
<VECSIZE> 6<NULLD><USER><DIAGC>
~h "proto"
<BEGINHMM>
<NUMSTATES> 12
<STATE> 2
<MEAN> 6
 4.113057e-01 2.601005e-01 -2.950303e-02 -5.595696e-02 2.753193e-02 -1.702658e-02
<VARIANCE> 6
 3.568739e-03 4.284771e-03 4.129993e-04 6.313192e-04 9.988497e-04 1.254345e-03
<GCONST> -2.881078e+01
<STATE> 3
<MEAN> 6
 3.530963e-01 1.739935e-01 2.145125e-02 -2.407547e-02 2.495281e-02 2.979951e-02
<VARIANCE> 6
 7.656103e-03 2.894078e-03 8.571870e-04 9.202521e-04 1.377576e-03 1.513036e-03
<GCONST> -2.682386e+01
<STATE> 4
<MEAN> 6
 4.649900e-01 1.820933e-01 2.429454e-02 4.820741e-04 9.016945e-04 1.929813e-03
<VARIANCE> 6
 1.300680e-03 1.972765e-03 2.681187e-04 5.667245e-04 5.277452e-04 1.375310e-03
<GCONST> -3.168162e+01
<STATE> 5
<MEAN> 6
 5.618120e-01 1.623504e-01 3.225850e-02 9.393143e-03 -1.101436e-02 2.563026e-02
<VARIANCE> 6
 2.213564e-03 3.438887e-03 4.565203e-04 6.459600e-04 9.299928e-04 1.866850e-03
<GCONST> -2.905898e+01
<STATE> 6
<MEAN> 6
 5.662282e-01 2.437348e-01 -3.471218e-02 6.680845e-02 -6.134135e-02 -2.907722e-03
<VARIANCE> 6
 4.239827e-03 4.461988e-03 1.796263e-03 4.485736e-04 1.754844e-03 2.469486e-03
<GCONST> -2.622874e+01
<STATE> 7
<MEAN> 6
 4.780149e-01 3.081295e-01 -4.941979e-02 1.765366e-02 1.885476e-02 -2.304315e-02
<VARIANCE> 6
 3.689481e-03 3.812507e-03 7.035697e-04 2.672938e-04 9.688881e-04 3.741855e-04
<GCONST> -3.046110e+01
<STATE> 8
<MEAN> 6
 4.295831e-01 3.176520e-01 3.896426e-02 4.076060e-03 8.958045e-02 3.350726e-03
<VARIANCE> 6
 4.330894e-03 4.739183e-03 3.462980e-03 1.140001e-04 3.629279e-03 2.409787e-04
<GCONST> -2.846107e+01
<STATE> 9
<MEAN> 6
 5.778475e-01 3.334335e-01 1.044903e-01 8.591499e-03 -1.650598e-02 -1.082600e-02
<VARIANCE> 6
 4.634518e-03 4.095742e-03 1.467579e-03 1.096451e-04 2.335006e-03 2.072325e-04
<GCONST> -3.002858e+01
<STATE> 10
<MEAN> 6
 6.863296e-01 3.247367e-01 4.555281e-02 -2.986598e-02 -6.685887e-02 -3.264401e-02
<VARIANCE> 6
 6.388895e-03 4.320875e-03 1.695782e-03 4.213902e-04 1.568523e-03 5.470740e-04
<GCONST> -2.759034e+01
<STATE> 11
<MEAN> 6
 6.796278e-01 2.571537e-01 -1.419149e-02 -5.937760e-03 -4.331283e-03 4.314312e-02
<VARIANCE> 6
 5.792542e-03 5.480723e-03 9.464404e-04 1.465909e-03 2.898493e-03 1.480737e-03
<GCONST> -2.517730e+01
<TRANSP> 12
 0.000000e+00 1.000000e+00 0.000000e+00 0.000000e+00 0.000000e+00 0.000000e+00 0.000000e+00 0.000000e+00 0.000000e+00 0.000000e+00 0.000000e+00 0.000000e+00
 0.000000e+00 7.884539e-01 2.115461e-01 0.000000e+00 0.000000e+00 0.000000e+00 0.000000e+00 0.000000e+00 0.000000e+00 0.000000e+00 0.000000e+00 0.000000e+00
 0.000000e+00 0.000000e+00 8.351857e-01 1.648143e-01 0.000000e+00 0.000000e+00 0.000000e+00 0.000000e+00 0.000000e+00 0.000000e+00 0.000000e+00 0.000000e+00
 0.000000e+00 0.000000e+00 0.000000e+00 9.013415e-01 9.865851e-02 0.000000e+00 0.000000e+00 0.000000e+00 0.000000e+00 0.000000e+00 0.000000e+00 0.000000e+00
 0.000000e+00 0.000000e+00 0.000000e+00 0.000000e+00 8.653733e-01 1.346268e-01 0.000000e+00 0.000000e+00 0.000000e+00 0.000000e+00 0.000000e+00 0.000000e+00
 0.000000e+00 0.000000e+00 0.000000e+00 0.000000e+00 0.000000e+00 8.040892e-01 1.959108e-01 0.000000e+00 0.000000e+00 0.000000e+00 0.000000e+00 0.000000e+00
 0.000000e+00 0.000000e+00 0.000000e+00 0.000000e+00 0.000000e+00 0.000000e+00 8.306203e-01 1.693797e-01 0.000000e+00 0.000000e+00 0.000000e+00 0.000000e+00
 0.000000e+00 0.000000e+00 0.000000e+00 0.000000e+00 0.000000e+00 0.000000e+00 0.000000e+00 8.313073e-01 1.686927e-01 0.000000e+00 0.000000e+00 0.000000e+00
 0.000000e+00 0.000000e+00 0.000000e+00 0.000000e+00 0.000000e+00 0.000000e+00 0.000000e+00 0.000000e+00 7.753640e-01 2.246360e-01 0.000000e+00 0.000000e+00
 0.000000e+00 0.000000e+00 0.000000e+00 0.000000e+00 0.000000e+00 0.000000e+00 0.000000e+00 0.000000e+00 0.000000e+00 7.975672e-01 2.024328e-01 0.000000e+00
 0.000000e+00 0.000000e+00 0.000000e+00 0.000000e+00 0.000000e+00 0.000000e+00 0.000000e+00 0.000000e+00 0.000000e+00 0.000000e+00 8.578281e-01 1.421718e-01
 0.000000e+00 0.000000e+00 0.000000e+00 0.000000e+00 0.000000e+00 0.000000e+00 0.000000e+00 0.000000e+00 0.000000e+00 0.000000e+00 0.000000e+00 0.000000e+00
<ENDHMM>
