~o
<STREAMINFO> 1 7
<VECSIZE> 7<NULLD><USER><DIAGC>
~h "proto"
<BEGINHMM>
<NUMSTATES> 12
<STATE> 2
<MEAN> 7
 3.948507e-01 2.238981e-01 -9.820073e-03 -4.909637e-02 3.100087e-02 5.850431e-03 -1.340090e-02
<VARIANCE> 7
 4.640339e-03 5.666917e-03 9.183319e-04 5.571644e-04 1.019540e-03 1.866205e-03 1.112388e+02
<GCONST> -2.062711e+01
<STATE> 3
<MEAN> 7
 4.065440e-01 1.515740e-01 2.821310e-02 1.095053e-02 -7.778600e-03 1.959311e-02 1.273496e+01
<VARIANCE> 7
 8.611651e-03 3.692605e-03 5.456936e-04 4.194953e-04 4.842789e-04 9.901285e-04 6.050879e+02
<GCONST> -2.092599e+01
<STATE> 4
<MEAN> 7
 5.036802e-01 1.793479e-01 2.853376e-02 -5.516275e-03 3.881353e-03 3.710109e-05 -8.313813e+00
<VARIANCE> 7
 3.604083e-03 2.174255e-03 3.489032e-04 4.261696e-04 6.427828e-04 1.808115e-03 5.981455e+03
<GCONST> -1.958176e+01
<STATE> 5
<MEAN> 7
 5.383202e-01 1.773019e-01 2.723099e-02 2.673865e-02 -4.416769e-02 5.082654e-02 -2.517252e+03
<VARIANCE> 7
 4.967836e-03 2.785356e-03 5.572099e-04 4.079521e-04 1.688436e-03 4.784961e-03 1.381619e+08
<GCONST> -6.602236e+00
<STATE> 6
<MEAN> 7
 5.345507e-01 2.298081e-01 -2.340644e-02 4.108838e-02 -2.709880e-02 -3.985910e-03 6.679626e+00
<VARIANCE> 7
 5.547362e-03 5.388601e-03 2.196730e-03 1.206747e-03 2.303999e-03 1.721258e-03 1.496084e+02
<GCONST> -1.782316e+01
<STATE> 7
<MEAN> 7
 4.402108e-01 3.220817e-01 -3.753699e-02 9.211300e-03 3.455667e-02 -1.412535e-02 1.241468e+01
<VARIANCE> 7
 3.867551e-03 3.250892e-03 3.788454e-04 1.885811e-04 1.848030e-03 2.251403e-04 1.508106e+03
<GCONST> -2.224700e+01
<STATE> 8
<MEAN> 7
 4.152760e-01 3.137981e-01 4.736904e-03 2.139899e-03 1.122232e-01 -1.412496e-03 2.403628e+03
<VARIANCE> 7
 6.139923e-03 4.949914e-03 1.416755e-04 1.290463e-04 4.879815e-03 2.807595e-04 1.723545e+08
<GCONST> -9.889097e+00
<STATE> 9
<MEAN> 7
 4.227635e-01 3.143521e-01 4.062273e-02 3.072780e-03 1.147801e-01 4.247194e-03 -6.673190e+00
<VARIANCE> 7
 6.025929e-03 4.962042e-03 6.355128e-04 1.073839e-04 4.774256e-03 3.232305e-04 7.458591e+02
<GCONST> -2.081979e+01
<STATE> 10
<MEAN> 7
 5.294061e-01 3.282010e-01 9.263725e-02 7.539011e-03 8.102762e-03 -6.944682e-03 -1.762165e+01
<VARIANCE> 7
 8.540100e-03 4.814033e-03 1.782280e-03 1.130990e-04 4.711786e-03 4.387356e-04 1.181102e+04
<GCONST> -1.636369e+01
<STATE> 11
<MEAN> 7
 6.731452e-01 2.857947e-01 5.749797e-03 -1.679719e-02 -2.659223e-02 1.592041e-02 -1.641217e+01
<VARIANCE> 7
 6.246700e-03 5.245647e-03 1.820409e-03 1.273898e-03 3.330417e-03 2.450659e-03 2.084198e+03
<GCONST> -1.450920e+01
<TRANSP> 12
 0.000000e+00 1.000000e+00 0.000000e+00 0.000000e+00 0.000000e+00 0.000000e+00 0.000000e+00 0.000000e+00 0.000000e+00 0.000000e+00 0.000000e+00 0.000000e+00
 0.000000e+00 8.874064e-01 1.125937e-01 0.000000e+00 0.000000e+00 0.000000e+00 0.000000e+00 0.000000e+00 0.000000e+00 0.000000e+00 0.000000e+00 0.000000e+00
 0.000000e+00 0.000000e+00 8.722271e-01 1.277729e-01 0.000000e+00 0.000000e+00 0.000000e+00 0.000000e+00 0.000000e+00 0.000000e+00 0.000000e+00 0.000000e+00
 0.000000e+00 0.000000e+00 0.000000e+00 8.789037e-01 1.210963e-01 0.000000e+00 0.000000e+00 0.000000e+00 0.000000e+00 0.000000e+00 0.000000e+00 0.000000e+00
 0.000000e+00 0.000000e+00 0.000000e+00 0.000000e+00 9.443516e-02 9.055648e-01 0.000000e+00 0.000000e+00 0.000000e+00 0.000000e+00 0.000000e+00 0.000000e+00
 0.000000e+00 0.000000e+00 0.000000e+00 0.000000e+00 0.000000e+00 9.029126e-01 9.708737e-02 0.000000e+00 0.000000e+00 0.000000e+00 0.000000e+00 0.000000e+00
 0.000000e+00 0.000000e+00 0.000000e+00 0.000000e+00 0.000000e+00 0.000000e+00 8.114595e-01 1.885404e-01 0.000000e+00 0.000000e+00 0.000000e+00 0.000000e+00
 0.000000e+00 0.000000e+00 0.000000e+00 0.000000e+00 0.000000e+00 0.000000e+00 0.000000e+00 0.000000e+00 1.000000e+00 0.000000e+00 0.000000e+00 0.000000e+00
 0.000000e+00 0.000000e+00 0.000000e+00 0.000000e+00 0.000000e+00 0.000000e+00 0.000000e+00 0.000000e+00 0.000000e+00 1.000000e+00 0.000000e+00 0.000000e+00
 0.000000e+00 0.000000e+00 0.000000e+00 0.000000e+00 0.000000e+00 0.000000e+00 0.000000e+00 0.000000e+00 0.000000e+00 8.744115e-01 1.255885e-01 0.000000e+00
 0.000000e+00 0.000000e+00 0.000000e+00 0.000000e+00 0.000000e+00 0.000000e+00 0.000000e+00 0.000000e+00 0.000000e+00 0.000000e+00 9.094490e-01 9.055102e-02
 0.000000e+00 0.000000e+00 0.000000e+00 0.000000e+00 0.000000e+00 0.000000e+00 0.000000e+00 0.000000e+00 0.000000e+00 0.000000e+00 0.000000e+00 0.000000e+00
<ENDHMM>
