~o
<STREAMINFO> 1 7
<VECSIZE> 7<NULLD><USER><DIAGC>
~h "proto"
<BEGINHMM>
<NUMSTATES> 12
<STATE> 2
<MEAN> 7
 4.292400e-01 2.614188e-01 -2.055680e-03 2.215308e-02 -2.523507e-02 -6.759648e-03 1.338277e+01
<VARIANCE> 7
 4.185608e-03 4.667778e-03 4.859804e-04 2.646690e-04 4.281351e-04 1.234950e-03 1.989594e+03
<GCONST> -2.070152e+01
<STATE> 3
<MEAN> 7
 3.682847e-01 2.554179e-01 -1.726744e-02 -2.450687e-02 1.342777e-02 -2.875130e-02 1.576297e+01
<VARIANCE> 7
 6.514581e-03 4.941033e-03 4.512244e-04 7.166615e-04 8.554187e-04 1.094352e-03 2.678256e+02
<GCONST> -2.071438e+01
<STATE> 4
<MEAN> 7
 4.143759e-01 1.666577e-01 5.002283e-02 -3.898354e-02 3.990047e-02 2.855294e-02 2.286840e+00
<VARIANCE> 7
 4.619215e-03 3.966025e-03 1.361330e-03 8.642370e-04 1.676664e-03 9.594717e-04 1.810108e+01
<GCONST> -2.213944e+01
<STATE> 5
<MEAN> 7
 5.640845e-01 1.832183e-01 1.301143e-02 3.022955e-02 -3.410584e-02 4.301821e-03 6.800664e+00
<VARIANCE> 7
 6.298301e-03 5.418291e-03 1.716264e-03 5.678968e-04 1.148214e-03 1.560791e-03 1.832916e+02
<GCONST> -1.928252e+01
<STATE> 6
<MEAN> 7
 5.102181e-01 2.325242e-01 5.418499e-03 -1.160971e-02 2.775333e-02 5.762881e-03 2.669739e+01
<VARIANCE> 7
 4.331332e-03 4.298327e-03 1.077054e-03 4.127715e-04 1.152613e-03 2.184293e-03 4.569149e+03
<GCONST> -1.711752e+01
<STATE> 7
<MEAN> 7
 5.621673e-01 2.680689e-01 -6.445614e-03 5.229280e-02 -4.110682e-02 3.954315e-03 5.780220e+00
<VARIANCE> 7
 6.263154e-03 5.236550e-03 1.240766e-03 4.630737e-04 8.788619e-04 1.878713e-03 9.266274e+01
<GCONST> -2.061476e+01
<STATE> 8
<MEAN> 7
 4.908253e-01 3.434204e-01 -4.068224e-02 1.477639e-02 3.262795e-02 -2.692806e-02 2.462665e+01
<VARIANCE> 7
 5.109263e-03 3.464494e-03 3.752629e-04 2.510724e-04 1.290061e-03 3.678639e-04 1.208952e+03
<GCONST> -2.171775e+01
<STATE> 9
<MEAN> 7
 5.189769e-01 3.240521e-01 2.410930e-02 3.711818e-03 6.155481e-02 -6.696052e-03 1.381751e+03
<VARIANCE> 7
 1.158490e-02 7.105033e-03 1.335878e-03 1.255735e-04 5.010316e-03 5.890534e-04 1.233877e+08
<GCONST> -6.243059e+00
<STATE> 10
<MEAN> 7
 5.730236e-01 3.553335e-01 8.290212e-02 5.211648e-03 1.543755e-02 -5.508433e-03 -1.564486e+00
<VARIANCE> 7
 9.865496e-03 3.869948e-03 1.468450e-03 1.300749e-04 4.608851e-03 4.045379e-04 2.239130e+01
<GCONST> -2.286290e+01
<STATE> 11
<MEAN> 7
 6.838205e-01 3.103601e-01 3.466157e-03 -1.706249e-02 -2.421848e-02 1.665276e-02 -2.714627e+01
<VARIANCE> 7
 8.723884e-03 4.653534e-03 1.309858e-03 1.445114e-03 3.388282e-03 3.146194e-03 7.323283e+03
<GCONST> -1.297426e+01
<TRANSP> 12
 0.000000e+00 1.000000e+00 0.000000e+00 0.000000e+00 0.000000e+00 0.000000e+00 0.000000e+00 0.000000e+00 0.000000e+00 0.000000e+00 0.000000e+00 0.000000e+00
 0.000000e+00 8.562739e-01 1.437261e-01 0.000000e+00 0.000000e+00 0.000000e+00 0.000000e+00 0.000000e+00 0.000000e+00 0.000000e+00 0.000000e+00 0.000000e+00
 0.000000e+00 0.000000e+00 8.653266e-01 1.346734e-01 0.000000e+00 0.000000e+00 0.000000e+00 0.000000e+00 0.000000e+00 0.000000e+00 0.000000e+00 0.000000e+00
 0.000000e+00 0.000000e+00 0.000000e+00 8.643509e-01 1.356491e-01 0.000000e+00 0.000000e+00 0.000000e+00 0.000000e+00 0.000000e+00 0.000000e+00 0.000000e+00
 0.000000e+00 0.000000e+00 0.000000e+00 0.000000e+00 9.199514e-01 8.004865e-02 0.000000e+00 0.000000e+00 0.000000e+00 0.000000e+00 0.000000e+00 0.000000e+00
 0.000000e+00 0.000000e+00 0.000000e+00 0.000000e+00 0.000000e+00 8.932930e-01 1.067070e-01 0.000000e+00 0.000000e+00 0.000000e+00 0.000000e+00 0.000000e+00
 0.000000e+00 0.000000e+00 0.000000e+00 0.000000e+00 0.000000e+00 0.000000e+00 8.615618e-01 1.384382e-01 0.000000e+00 0.000000e+00 0.000000e+00 0.000000e+00
 0.000000e+00 0.000000e+00 0.000000e+00 0.000000e+00 0.000000e+00 0.000000e+00 0.000000e+00 7.497404e-01 2.502596e-01 0.000000e+00 0.000000e+00 0.000000e+00
 0.000000e+00 0.000000e+00 0.000000e+00 0.000000e+00 0.000000e+00 0.000000e+00 0.000000e+00 0.000000e+00 6.039249e-01 3.960752e-01 0.000000e+00 0.000000e+00
 0.000000e+00 0.000000e+00 0.000000e+00 0.000000e+00 0.000000e+00 0.000000e+00 0.000000e+00 0.000000e+00 0.000000e+00 8.613722e-01 1.386278e-01 0.000000e+00
 0.000000e+00 0.000000e+00 0.000000e+00 0.000000e+00 0.000000e+00 0.000000e+00 0.000000e+00 0.000000e+00 0.000000e+00 0.000000e+00 9.051547e-01 9.484532e-02
 0.000000e+00 0.000000e+00 0.000000e+00 0.000000e+00 0.000000e+00 0.000000e+00 0.000000e+00 0.000000e+00 0.000000e+00 0.000000e+00 0.000000e+00 0.000000e+00
<ENDHMM>
