~o
<STREAMINFO> 1 6
<VECSIZE> 6<NULLD><USER><DIAGC>
~h "proto"
<BEGINHMM>
<NUMSTATES> 12
<STATE> 2
<MEAN> 6
 4.258400e-01 2.580058e-01 -3.430721e-03 2.044114e-02 -2.455106e-02 -8.460579e-03
<VARIANCE> 6
 4.505310e-03 5.954133e-03 5.536630e-04 2.639721e-04 3.479094e-04 1.192608e-03
<GCONST> -2.993271e+01
<STATE> 3
<MEAN> 6
 3.597865e-01 2.361204e-01 -5.216660e-03 -2.576944e-02 1.762990e-02 -1.629089e-02
<VARIANCE> 6
 4.740424e-03 6.703348e-03 5.493253e-04 8.692368e-04 8.409203e-04 9.137683e-04
<GCONST> -2.796318e+01
<STATE> 4
<MEAN> 6
 4.432947e-01 1.417463e-01 6.511360e-02 -2.304557e-02 1.744584e-02 4.071808e-02
<VARIANCE> 6
 4.959152e-03 5.927179e-03 9.154566e-04 1.221333e-03 2.942679e-03 8.915066e-04
<GCONST> -2.596240e+01
<STATE> 5
<MEAN> 6
 5.603178e-01 1.462681e-01 7.540399e-03 2.273680e-02 -2.194194e-02 2.345918e-03
<VARIANCE> 6
 5.870982e-03 3.288557e-03 1.019349e-03 6.297182e-04 1.265639e-03 7.095195e-04
<GCONST> -2.800971e+01
<STATE> 6
<MEAN> 6
 5.116174e-01 2.277789e-01 2.362736e-03 -6.836446e-04 1.949231e-02 1.659574e-03
<VARIANCE> 6
 3.928514e-03 1.485957e-03 1.349896e-03 5.630284e-04 1.407052e-03 1.849772e-03
<GCONST> -2.797279e+01
<STATE> 7
<MEAN> 6
 5.502993e-01 2.251178e-01 4.120963e-02 4.177581e-02 -2.630204e-02 5.453076e-02
<VARIANCE> 6
 4.871756e-03 1.054028e-03 8.762355e-04 3.214551e-04 8.453301e-04 1.723028e-03
<GCONST> -2.967416e+01
<STATE> 8
<MEAN> 6
 5.573246e-01 3.111077e-01 -1.208755e-02 4.052680e-02 -2.429084e-02 -1.042643e-02
<VARIANCE> 6
 4.688753e-03 2.478410e-03 1.354367e-03 1.115032e-03 1.840213e-03 1.656230e-03
<GCONST> -2.643984e+01
<STATE> 9
<MEAN> 6
 5.013458e-01 3.615191e-01 3.365902e-02 6.289650e-03 5.220529e-02 -6.306315e-03
<VARIANCE> 6
 5.588504e-03 2.739663e-03 3.723833e-03 1.693360e-04 2.333692e-03 5.047625e-04
<GCONST> -2.798806e+01
<STATE> 10
<MEAN> 6
 6.838533e-01 3.552495e-01 5.375788e-02 -1.587638e-02 -5.502264e-02 -2.794309e-02
<VARIANCE> 6
 4.907064e-03 4.141873e-03 1.874065e-03 5.536618e-04 1.309641e-03 4.651598e-04
<GCONST> -2.786616e+01
<STATE> 11
<MEAN> 6
 6.925294e-01 2.820569e-01 -1.119422e-02 -7.916956e-03 -3.663322e-03 4.128958e-02
<VARIANCE> 6
 6.044198e-03 5.157078e-03 9.775095e-04 1.625740e-03 3.341012e-03 1.671466e-03
<GCONST> -2.479661e+01
<TRANSP> 12
 0.000000e+00 1.000000e+00 0.000000e+00 0.000000e+00 0.000000e+00 0.000000e+00 0.000000e+00 0.000000e+00 0.000000e+00 0.000000e+00 0.000000e+00 0.000000e+00
 0.000000e+00 8.684000e-01 1.316000e-01 0.000000e+00 0.000000e+00 0.000000e+00 0.000000e+00 0.000000e+00 0.000000e+00 0.000000e+00 0.000000e+00 0.000000e+00
 0.000000e+00 0.000000e+00 9.091336e-01 9.086639e-02 0.000000e+00 0.000000e+00 0.000000e+00 0.000000e+00 0.000000e+00 0.000000e+00 0.000000e+00 0.000000e+00
 0.000000e+00 0.000000e+00 0.000000e+00 8.500373e-01 1.499627e-01 0.000000e+00 0.000000e+00 0.000000e+00 0.000000e+00 0.000000e+00 0.000000e+00 0.000000e+00
 0.000000e+00 0.000000e+00 0.000000e+00 0.000000e+00 9.117684e-01 8.823156e-02 0.000000e+00 0.000000e+00 0.000000e+00 0.000000e+00 0.000000e+00 0.000000e+00
 0.000000e+00 0.000000e+00 0.000000e+00 0.000000e+00 0.000000e+00 8.999522e-01 1.000478e-01 0.000000e+00 0.000000e+00 0.000000e+00 0.000000e+00 0.000000e+00
 0.000000e+00 0.000000e+00 0.000000e+00 0.000000e+00 0.000000e+00 0.000000e+00 0.000000e+00 1.000000e+00 0.000000e+00 0.000000e+00 0.000000e+00 0.000000e+00
 0.000000e+00 0.000000e+00 0.000000e+00 0.000000e+00 0.000000e+00 0.000000e+00 0.000000e+00 8.879684e-01 1.120316e-01 0.000000e+00 0.000000e+00 0.000000e+00
 0.000000e+00 0.000000e+00 0.000000e+00 0.000000e+00 0.000000e+00 0.000000e+00 0.000000e+00 0.000000e+00 8.833563e-01 1.166437e-01 0.000000e+00 0.000000e+00
 0.000000e+00 0.000000e+00 0.000000e+00 0.000000e+00 0.000000e+00 0.000000e+00 0.000000e+00 0.000000e+00 0.000000e+00 8.433926e-01 1.566074e-01 0.000000e+00
 0.000000e+00 0.000000e+00 0.000000e+00 0.000000e+00 0.000000e+00 0.000000e+00 0.000000e+00 0.000000e+00 0.000000e+00 0.000000e+00 8.581046e-01 1.418954e-01
 0.000000e+00 0.000000e+00 0.000000e+00 0.000000e+00 0.000000e+00 0.000000e+00 0.000000e+00 0.000000e+00 0.000000e+00 0.000000e+00 0.000000e+00 0.000000e+00
<ENDHMM>
