~o
<STREAMINFO> 1 7
<VECSIZE> 7<NULLD><USER><DIAGC>
~h "proto"
<BEGINHMM>
<NUMSTATES> 12
<STATE> 2
<MEAN> 7
 3.739883e-01 2.383977e-01 3.576879e-02 -2.693131e-03 -2.011677e-02 -3.607299e-03 -1.646888e+01
<VARIANCE> 7
 3.906642e-03 7.165531e-03 6.222665e-04 2.343367e-04 9.142312e-04 3.612535e-04 2.523192e+03
<GCONST> -2.044938e+01
<STATE> 3
<MEAN> 7
 4.297355e-01 2.550589e-01 2.812448e-03 -1.848193e-02 -6.158268e-02 -4.357704e-02 -1.329110e+03
<VARIANCE> 7
 3.248238e-03 5.948249e-03 3.923261e-04 3.494045e-04 1.216430e-03 8.423242e-04 3.961576e+07
<GCONST> -1.008830e+01
<STATE> 4
<MEAN> 7
 4.177138e-01 1.760477e-01 1.045082e-02 -9.161897e-03 5.018027e-03 8.410268e-03 1.723749e+00
<VARIANCE> 7
 3.664704e-03 6.878214e-03 7.719765e-04 1.000792e-03 8.984184e-04 9.360212e-04 4.856787e+02
<GCONST> -1.959999e+01
<STATE> 5
<MEAN> 7
 4.822367e-01 1.907557e-01 9.633604e-03 4.303762e-03 -6.130616e-03 -4.015654e-02 -1.629788e+03
<VARIANCE> 7
 2.171156e-03 5.771485e-03 1.665907e-04 4.513141e-04 9.927880e-04 2.042463e-03 9.099252e+07
<GCONST> -9.607805e+00
<STATE> 6
<MEAN> 7
 5.506422e-01 1.894860e-01 1.617939e-02 1.748229e-02 -1.007267e-02 1.006231e-02 8.220776e+00
<VARIANCE> 7
 4.273011e-03 7.140470e-03 1.333825e-03 1.543943e-03 1.856627e-03 1.859917e-03 2.956721e+02
<GCONST> -1.751236e+01
<STATE> 7
<MEAN> 7
 5.502263e-01 2.791608e-01 -3.288102e-02 2.903633e-02 3.150047e-02 -3.845045e-02 2.249232e+01
<VARIANCE> 7
 3.046750e-03 5.814767e-03 5.836856e-04 4.270386e-04 8.421149e-04 7.780055e-04 2.858197e+02
<GCONST> -2.186369e+01
<STATE> 8
<MEAN> 7
 5.415155e-01 2.850693e-01 -1.836350e-02 1.825456e-02 6.923115e-02 -3.467709e-02 9.586021e+01
<VARIANCE> 7
 3.085615e-03 5.889950e-03 3.706827e-04 1.732782e-04 3.388969e-03 7.730694e-04 1.212516e+04
<GCONST> -1.806048e+01
<STATE> 9
<MEAN> 7
 5.381870e-01 2.891521e-01 7.554609e-03 9.332070e-03 9.159829e-02 -2.540169e-02 3.547917e+03
<VARIANCE> 7
 2.903883e-03 5.916720e-03 8.275805e-04 8.805910e-05 3.894411e-03 7.717304e-04 5.608720e+08
<GCONST> -7.111134e+00
<STATE> 10
<MEAN> 7
 6.171335e-01 2.952795e-01 6.955221e-02 4.168516e-03 1.369886e-02 -8.622916e-03 -2.675087e+01
<VARIANCE> 7
 5.647127e-03 5.831277e-03 1.329959e-03 8.568821e-05 4.447929e-03 3.533229e-04 2.657350e+04
<GCONST> -1.661917e+01
<STATE> 11
<MEAN> 7
 7.156435e-01 2.489638e-01 3.362122e-03 -1.428498e-02 -1.901004e-02 1.372472e-02 -1.228582e+01
<VARIANCE> 7
 5.436301e-03 7.082668e-03 1.330266e-03 1.099427e-03 2.639427e-03 2.164136e-03 2.749775e+03
<GCONST> -1.488862e+01
<TRANSP> 12
 0.000000e+00 1.000000e+00 0.000000e+00 0.000000e+00 0.000000e+00 0.000000e+00 0.000000e+00 0.000000e+00 0.000000e+00 0.000000e+00 0.000000e+00 0.000000e+00
 0.000000e+00 8.264972e-01 1.735028e-01 0.000000e+00 0.000000e+00 0.000000e+00 0.000000e+00 0.000000e+00 0.000000e+00 0.000000e+00 0.000000e+00 0.000000e+00
 0.000000e+00 0.000000e+00 4.440430e-01 5.559570e-01 0.000000e+00 0.000000e+00 0.000000e+00 0.000000e+00 0.000000e+00 0.000000e+00 0.000000e+00 0.000000e+00
 0.000000e+00 0.000000e+00 0.000000e+00 9.483445e-01 5.165549e-02 0.000000e+00 0.000000e+00 0.000000e+00 0.000000e+00 0.000000e+00 0.000000e+00 0.000000e+00
 0.000000e+00 0.000000e+00 0.000000e+00 0.000000e+00 5.227763e-01 4.772237e-01 0.000000e+00 0.000000e+00 0.000000e+00 0.000000e+00 0.000000e+00 0.000000e+00
 0.000000e+00 0.000000e+00 0.000000e+00 0.000000e+00 0.000000e+00 9.370919e-01 6.290816e-02 0.000000e+00 0.000000e+00 0.000000e+00 0.000000e+00 0.000000e+00
 0.000000e+00 0.000000e+00 0.000000e+00 0.000000e+00 0.000000e+00 0.000000e+00 0.000000e+00 1.000000e+00 0.000000e+00 0.000000e+00 0.000000e+00 0.000000e+00
 0.000000e+00 0.000000e+00 0.000000e+00 0.000000e+00 0.000000e+00 0.000000e+00 0.000000e+00 0.000000e+00 1.000000e+00 0.000000e+00 0.000000e+00 0.000000e+00
 0.000000e+00 0.000000e+00 0.000000e+00 0.000000e+00 0.000000e+00 0.000000e+00 0.000000e+00 0.000000e+00 0.000000e+00 1.000000e+00 0.000000e+00 0.000000e+00
 0.000000e+00 0.000000e+00 0.000000e+00 0.000000e+00 0.000000e+00 0.000000e+00 0.000000e+00 0.000000e+00 0.000000e+00 8.680242e-01 1.319758e-01 0.000000e+00
 0.000000e+00 0.000000e+00 0.000000e+00 0.000000e+00 0.000000e+00 0.000000e+00 0.000000e+00 0.000000e+00 0.000000e+00 0.000000e+00 9.110577e-01 8.894235e-02
 0.000000e+00 0.000000e+00 0.000000e+00 0.000000e+00 0.000000e+00 0.000000e+00 0.000000e+00 0.000000e+00 0.000000e+00 0.000000e+00 0.000000e+00 0.000000e+00
<ENDHMM>
