~o
<STREAMINFO> 1 6
<VECSIZE> 6<NULLD><USER><DIAGC>
~h "proto"
<BEGINHMM>
<NUMSTATES> 12
<STATE> 2
<MEAN> 6
 3.575039e-01 2.699463e-01 3.034590e-02 -2.065521e-03 -2.255770e-02 -8.703953e-03
<VARIANCE> 6
 5.823543e-03 5.156988e-03 6.416783e-04 1.832279e-04 9.224330e-04 4.300867e-04
<GCONST> -3.008221e+01
<STATE> 3
<MEAN> 6
 4.057627e-01 2.379828e-01 -1.481514e-02 -4.144854e-02 1.076002e-03 -1.040196e-02
<VARIANCE> 6
 2.555083e-03 4.482901e-03 3.864453e-04 4.171318e-04 2.165766e-03 1.434652e-03
<GCONST> -2.867234e+01
<STATE> 4
<MEAN> 6
 3.811283e-01 1.400445e-01 2.289367e-02 -1.584921e-02 1.940649e-02 2.363811e-02
<VARIANCE> 6
 2.067665e-03 3.976965e-03 4.080854e-04 3.089742e-04 5.294183e-04 7.900792e-04
<GCONST> -3.125471e+01
<STATE> 5
<MEAN> 6
 4.545702e-01 1.904502e-01 2.045458e-02 2.097134e-02 -1.327857e-02 -5.060482e-03
<VARIANCE> 6
 1.475369e-03 5.435321e-03 3.567039e-04 2.620835e-04 3.334549e-04 1.348763e-03
<GCONST> -3.150644e+01
<STATE> 6
<MEAN> 6
 4.961241e-01 1.719075e-01 2.678780e-02 -2.023671e-02 2.069226e-02 1.707877e-03
<VARIANCE> 6
 1.633686e-03 5.266029e-03 4.711376e-04 1.774072e-04 6.231563e-04 9.300261e-04
<GCONST> -3.129457e+01
<STATE> 7
<MEAN> 6
 5.774687e-01 1.649338e-01 2.990515e-02 3.575812e-02 -3.688800e-02 4.098293e-02
<VARIANCE> 6
 2.728612e-03 5.174943e-03 7.743664e-04 9.121170e-04 1.119439e-03 1.691689e-03
<GCONST> -2.748079e+01
<STATE> 8
<MEAN> 6
 5.541996e-01 2.747445e-01 -2.795872e-02 3.989239e-02 5.180556e-03 -2.939404e-02
<VARIANCE> 6
 3.616114e-03 4.497656e-03 3.468065e-04 6.234500e-04 2.835908e-03 6.079533e-04
<GCONST> -2.861708e+01
<STATE> 9
<MEAN> 6
 5.701321e-01 3.042515e-01 5.808679e-02 7.017506e-03 3.616332e-02 -4.705512e-03
<VARIANCE> 6
 5.167647e-03 6.644223e-03 1.433219e-03 6.327129e-05 3.160149e-03 1.895088e-04
<GCONST> -2.979621e+01
<STATE> 10
<MEAN> 6
 7.093188e-01 3.113127e-01 4.149428e-02 -2.297891e-02 -5.213890e-02 -3.134212e-02
<VARIANCE> 6
 4.798313e-03 4.278233e-03 1.769917e-03 5.086489e-04 1.715035e-03 5.166936e-04
<GCONST> -2.762340e+01
<STATE> 11
<MEAN> 6
 6.990669e-01 2.366872e-01 -1.041984e-02 -5.390760e-03 -4.134366e-03 3.379130e-02
<VARIANCE> 6
 5.983421e-03 5.666387e-03 7.964816e-04 1.294550e-03 2.160349e-03 1.326219e-03
<GCONST> -2.581251e+01
<TRANSP> 12
 0.000000e+00 1.000000e+00 0.000000e+00 0.000000e+00 0.000000e+00 0.000000e+00 0.000000e+00 0.000000e+00 0.000000e+00 0.000000e+00 0.000000e+00 0.000000e+00
 0.000000e+00 8.535669e-01 1.464330e-01 0.000000e+00 0.000000e+00 0.000000e+00 0.000000e+00 0.000000e+00 0.000000e+00 0.000000e+00 0.000000e+00 0.000000e+00
 0.000000e+00 0.000000e+00 8.471055e-01 1.528945e-01 0.000000e+00 0.000000e+00 0.000000e+00 0.000000e+00 0.000000e+00 0.000000e+00 0.000000e+00 0.000000e+00
 0.000000e+00 0.000000e+00 0.000000e+00 8.496578e-01 1.503422e-01 0.000000e+00 0.000000e+00 0.000000e+00 0.000000e+00 0.000000e+00 0.000000e+00 0.000000e+00
 0.000000e+00 0.000000e+00 0.000000e+00 0.000000e+00 8.822932e-01 1.177068e-01 0.000000e+00 0.000000e+00 0.000000e+00 0.000000e+00 0.000000e+00 0.000000e+00
 0.000000e+00 0.000000e+00 0.000000e+00 0.000000e+00 0.000000e+00 8.513198e-01 1.486802e-01 0.000000e+00 0.000000e+00 0.000000e+00 0.000000e+00 0.000000e+00
 0.000000e+00 0.000000e+00 0.000000e+00 0.000000e+00 0.000000e+00 0.000000e+00 8.297819e-01 1.702180e-01 0.000000e+00 0.000000e+00 0.000000e+00 0.000000e+00
 0.000000e+00 0.000000e+00 0.000000e+00 0.000000e+00 0.000000e+00 0.000000e+00 0.000000e+00 8.396018e-01 1.603982e-01 0.000000e+00 0.000000e+00 0.000000e+00
 0.000000e+00 0.000000e+00 0.000000e+00 0.000000e+00 0.000000e+00 0.000000e+00 0.000000e+00 0.000000e+00 8.726989e-01 1.273011e-01 0.000000e+00 0.000000e+00
 0.000000e+00 0.000000e+00 0.000000e+00 0.000000e+00 0.000000e+00 0.000000e+00 0.000000e+00 0.000000e+00 0.000000e+00 8.183534e-01 1.816467e-01 0.000000e+00
 0.000000e+00 0.000000e+00 0.000000e+00 0.000000e+00 0.000000e+00 0.000000e+00 0.000000e+00 0.000000e+00 0.000000e+00 0.000000e+00 8.769614e-01 1.230386e-01
 0.000000e+00 0.000000e+00 0.000000e+00 0.000000e+00 0.000000e+00 0.000000e+00 0.000000e+00 0.000000e+00 0.000000e+00 0.000000e+00 0.000000e+00 0.000000e+00
<ENDHMM>
