~o
<STREAMINFO> 1 6
<VECSIZE> 6<NULLD><USER><DIAGC>
~h "proto"
<BEGINHMM>
<NUMSTATES> 12
<STATE> 2
<MEAN> 6
 3.633689e-01 3.027360e-01 1.488348e-02 1.975727e-02 2.512912e-02 -1.480169e-02
<VARIANCE> 6
 4.100102e-03 6.581690e-03 6.850854e-04 3.914261e-04 1.015349e-03 1.172102e-03
<GCONST> -2.826610e+01
<STATE> 3
<MEAN> 6
 4.260249e-01 3.098937e-01 1.257615e-02 -4.149845e-02 -3.757238e-02 -4.682438e-02
<VARIANCE> 6
 2.775860e-03 4.744798e-03 6.255732e-04 1.028363e-03 7.953851e-04 1.464109e-03
<GCONST> -2.813006e+01
<STATE> 4
<MEAN> 6
 3.792833e-01 1.985114e-01 -1.671660e-02 -4.857593e-02 1.381309e-02 1.022996e-02
<VARIANCE> 6
 4.534978e-03 4.568473e-03 2.889947e-04 5.356160e-04 1.133482e-03 6.814749e-04
<GCONST> -2.951216e+01
<STATE> 5
<MEAN> 6
 3.887561e-01 1.234041e-01 3.312159e-02 -5.658831e-03 1.370745e-02 3.438510e-02
<VARIANCE> 6
 3.058974e-03 4.760875e-03 3.422121e-04 9.291290e-04 1.407030e-03 1.922056e-03
<GCONST> -2.789171e+01
<STATE> 6
<MEAN> 6
 4.711569e-01 1.825679e-01 1.870781e-02 4.343644e-03 1.944257e-03 -8.614789e-03
<VARIANCE> 6
 1.616964e-03 3.159201e-03 4.037241e-04 9.144057e-04 8.230085e-04 1.700088e-03
<GCONST> -2.944901e+01
<STATE> 7
<MEAN> 6
 5.775040e-01 1.476732e-01 3.333039e-02 1.884797e-02 -2.047261e-02 3.868644e-02
<VARIANCE> 6
 3.766006e-03 4.408368e-03 8.663763e-04 1.639273e-03 2.394343e-03 2.902469e-03
<GCONST> -2.532026e+01
<STATE> 8
<MEAN> 6
 5.555928e-01 2.794802e-01 -3.025726e-02 6.145554e-02 -1.535497e-03 -3.663941e-02
<VARIANCE> 6
 4.448777e-03 4.824105e-03 5.573468e-04 8.815286e-04 4.092909e-03 1.254546e-03
<GCONST> -2.642765e+01
<STATE> 9
<MEAN> 6
 5.490755e-01 3.233407e-01 5.606567e-02 8.279252e-03 5.961342e-02 -1.494105e-02
<VARIANCE> 6
 4.720264e-03 5.858312e-03 2.376808e-03 1.124478e-04 3.845486e-03 4.935921e-04
<GCONST> -2.777820e+01
<STATE> 10
<MEAN> 6
 6.962893e-01 3.192698e-01 5.466726e-02 -2.912539e-02 -6.294597e-02 -3.533783e-02
<VARIANCE> 6
 4.852240e-03 4.873097e-03 2.072074e-03 7.309928e-04 1.673674e-03 1.063762e-03
<GCONST> -2.626407e+01
<STATE> 11
<MEAN> 6
 6.863552e-01 2.519227e-01 -1.599158e-02 -9.223085e-03 -9.769913e-03 5.527982e-02
<VARIANCE> 6
 5.380992e-03 3.685408e-03 1.067003e-03 2.095945e-03 4.891220e-03 2.055834e-03
<GCONST> -2.431903e+01
<TRANSP> 12
 0.000000e+00 1.000000e+00 0.000000e+00 0.000000e+00 0.000000e+00 0.000000e+00 0.000000e+00 0.000000e+00 0.000000e+00 0.000000e+00 0.000000e+00 0.000000e+00
 0.000000e+00 8.306007e-01 1.693993e-01 0.000000e+00 0.000000e+00 0.000000e+00 0.000000e+00 0.000000e+00 0.000000e+00 0.000000e+00 0.000000e+00 0.000000e+00
 0.000000e+00 0.000000e+00 7.877032e-01 2.122968e-01 0.000000e+00 0.000000e+00 0.000000e+00 0.000000e+00 0.000000e+00 0.000000e+00 0.000000e+00 0.000000e+00
 0.000000e+00 0.000000e+00 0.000000e+00 8.549198e-01 1.450802e-01 0.000000e+00 0.000000e+00 0.000000e+00 0.000000e+00 0.000000e+00 0.000000e+00 0.000000e+00
 0.000000e+00 0.000000e+00 0.000000e+00 0.000000e+00 8.488724e-01 1.511276e-01 0.000000e+00 0.000000e+00 0.000000e+00 0.000000e+00 0.000000e+00 0.000000e+00
 0.000000e+00 0.000000e+00 0.000000e+00 0.000000e+00 0.000000e+00 9.039659e-01 9.603415e-02 0.000000e+00 0.000000e+00 0.000000e+00 0.000000e+00 0.000000e+00
 0.000000e+00 0.000000e+00 0.000000e+00 0.000000e+00 0.000000e+00 0.000000e+00 8.797222e-01 1.202778e-01 0.000000e+00 0.000000e+00 0.000000e+00 0.000000e+00
 0.000000e+00 0.000000e+00 0.000000e+00 0.000000e+00 0.000000e+00 0.000000e+00 0.000000e+00 8.163291e-01 1.836709e-01 0.000000e+00 0.000000e+00 0.000000e+00
 0.000000e+00 0.000000e+00 0.000000e+00 0.000000e+00 0.000000e+00 0.000000e+00 0.000000e+00 0.000000e+00 8.360046e-01 1.639955e-01 0.000000e+00 0.000000e+00
 0.000000e+00 0.000000e+00 0.000000e+00 0.000000e+00 0.000000e+00 0.000000e+00 0.000000e+00 0.000000e+00 0.000000e+00 8.025810e-01 1.974190e-01 0.000000e+00
 0.000000e+00 0.000000e+00 0.000000e+00 0.000000e+00 0.000000e+00 0.000000e+00 0.000000e+00 0.000000e+00 0.000000e+00 0.000000e+00 8.217639e-01 1.782362e-01
 0.000000e+00 0.000000e+00 0.000000e+00 0.000000e+00 0.000000e+00 0.000000e+00 0.000000e+00 0.000000e+00 0.000000e+00 0.000000e+00 0.000000e+00 0.000000e+00
<ENDHMM>
