~o
<STREAMINFO> 1 7
<VECSIZE> 7<NULLD><USER><DIAGC>
~h "proto"
<BEGINHMM>
<NUMSTATES> 12
<STATE> 2
<MEAN> 7
 3.788725e-01 3.044687e-01 1.734933e-02 3.429087e-03 2.753598e-03 -2.852913e-02 -2.455231e+01
<VARIANCE> 7
 4.447759e-03 6.574092e-03 6.635948e-04 1.034345e-03 1.808086e-03 1.775353e-03 1.931448e+03
<GCONST> -1.684988e+01
<STATE> 3
<MEAN> 7
 3.867318e-01 2.206990e-01 -1.521624e-02 -5.075776e-02 1.296423e-03 2.097010e-03 -1.891607e+00
<VARIANCE> 7
 4.819522e-03 6.345044e-03 2.807347e-04 6.610069e-04 1.101965e-03 5.330301e-04 2.748266e+01
<GCONST> -2.406391e+01
<STATE> 4
<MEAN> 7
 4.187579e-01 1.330748e-01 3.156973e-02 -6.997117e-04 7.668843e-03 3.441732e-02 7.601195e+00
<VARIANCE> 7
 5.320286e-03 5.519534e-03 4.160253e-04 1.101712e-03 1.592989e-03 1.684432e-03 5.838208e+02
<GCONST> -1.862508e+01
<STATE> 5
<MEAN> 7
 4.737441e-01 1.809916e-01 4.880965e-03 3.056985e-02 -1.256369e-02 -2.287377e-02 -1.495138e+01
<VARIANCE> 7
 3.138783e-03 5.708601e-03 3.447326e-04 3.153152e-04 4.360515e-04 1.060933e-03 9.178864e+03
<GCONST> -1.956094e+01
<STATE> 6
<MEAN> 7
 4.733430e-01 2.133204e-01 7.252449e-03 -3.940075e-03 1.069041e-02 -6.533743e-02 -8.376360e+02
<VARIANCE> 7
 3.546439e-03 4.179408e-03 1.825567e-04 1.522654e-04 6.850639e-04 1.289907e-03 6.201632e+08
<GCONST> -9.346283e+00
<STATE> 7
<MEAN> 7
 5.212981e-01 1.746639e-01 3.121148e-02 3.655221e-03 -4.894700e-03 2.762238e-02 1.363071e+01
<VARIANCE> 7
 5.649019e-03 2.714512e-03 7.257570e-04 1.612047e-03 2.398971e-03 2.312678e-03 6.629545e+02
<GCONST> -1.748418e+01
<STATE> 8
<MEAN> 7
 5.430552e-01 2.900648e-01 -2.806073e-02 5.521201e-02 2.694866e-03 -3.107532e-02 2.514269e+01
<VARIANCE> 7
 4.514115e-03 4.202091e-03 8.054601e-04 9.665688e-04 3.445645e-03 1.050631e-03 9.980865e+03
<GCONST> -1.539402e+01
<STATE> 9
<MEAN> 7
 5.206754e-01 3.106494e-01 1.121530e-02 1.576623e-02 9.801507e-02 -3.383787e-02 8.449691e+02
<VARIANCE> 7
 4.769601e-03 6.135698e-03 4.424711e-04 1.659007e-04 6.226995e-03 1.034178e-03 1.205918e+07
<GCONST> -9.648916e+00
<STATE> 10
<MEAN> 7
 5.865188e-01 3.335960e-01 7.564915e-02 3.145731e-03 2.059364e-02 -1.625168e-02 -1.864315e+01
<VARIANCE> 7
 7.016506e-03 4.427836e-03 1.739548e-03 1.382765e-04 5.594246e-03 5.298156e-04 1.632540e+04
<GCONST> -1.578310e+01
<STATE> 11
<MEAN> 7
 6.845332e-01 2.703651e-01 6.247773e-03 -1.800296e-02 -2.542559e-02 1.942358e-02 -1.302969e+01
<VARIANCE> 7
 5.961620e-03 6.843674e-03 1.891607e-03 1.882130e-03 4.266988e-03 3.551310e-03 2.367526e+03
<GCONST> -1.311507e+01
<TRANSP> 12
 0.000000e+00 1.000000e+00 0.000000e+00 0.000000e+00 0.000000e+00 0.000000e+00 0.000000e+00 0.000000e+00 0.000000e+00 0.000000e+00 0.000000e+00 0.000000e+00
 0.000000e+00 8.942611e-01 1.057389e-01 0.000000e+00 0.000000e+00 0.000000e+00 0.000000e+00 0.000000e+00 0.000000e+00 0.000000e+00 0.000000e+00 0.000000e+00
 0.000000e+00 0.000000e+00 8.832275e-01 1.167725e-01 0.000000e+00 0.000000e+00 0.000000e+00 0.000000e+00 0.000000e+00 0.000000e+00 0.000000e+00 0.000000e+00
 0.000000e+00 0.000000e+00 0.000000e+00 8.947828e-01 1.052172e-01 0.000000e+00 0.000000e+00 0.000000e+00 0.000000e+00 0.000000e+00 0.000000e+00 0.000000e+00
 0.000000e+00 0.000000e+00 0.000000e+00 0.000000e+00 7.998800e-01 2.001200e-01 0.000000e+00 0.000000e+00 0.000000e+00 0.000000e+00 0.000000e+00 0.000000e+00
 0.000000e+00 0.000000e+00 0.000000e+00 0.000000e+00 0.000000e+00 0.000000e+00 1.000000e+00 0.000000e+00 0.000000e+00 0.000000e+00 0.000000e+00 0.000000e+00
 0.000000e+00 0.000000e+00 0.000000e+00 0.000000e+00 0.000000e+00 0.000000e+00 9.073242e-01 9.267580e-02 0.000000e+00 0.000000e+00 0.000000e+00 0.000000e+00
 0.000000e+00 0.000000e+00 0.000000e+00 0.000000e+00 0.000000e+00 0.000000e+00 0.000000e+00 8.249601e-01 1.750399e-01 0.000000e+00 0.000000e+00 0.000000e+00
 0.000000e+00 0.000000e+00 0.000000e+00 0.000000e+00 0.000000e+00 0.000000e+00 0.000000e+00 0.000000e+00 0.000000e+00 1.000000e+00 0.000000e+00 0.000000e+00
 0.000000e+00 0.000000e+00 0.000000e+00 0.000000e+00 0.000000e+00 0.000000e+00 0.000000e+00 0.000000e+00 0.000000e+00 8.403054e-01 1.596946e-01 0.000000e+00
 0.000000e+00 0.000000e+00 0.000000e+00 0.000000e+00 0.000000e+00 0.000000e+00 0.000000e+00 0.000000e+00 0.000000e+00 0.000000e+00 8.986149e-01 1.013851e-01
 0.000000e+00 0.000000e+00 0.000000e+00 0.000000e+00 0.000000e+00 0.000000e+00 0.000000e+00 0.000000e+00 0.000000e+00 0.000000e+00 0.000000e+00 0.000000e+00
<ENDHMM>
