~o
<STREAMINFO> 1 7
<VECSIZE> 7<NULLD><USER><DIAGC>
~h "proto"
<BEGINHMM>
<NUMSTATES> 12
<STATE> 2
<MEAN> 7
 4.154960e-01 3.267834e-01 1.786155e-02 2.809472e-03 2.795439e-03 -1.347962e-02 -1.013210e+01
<VARIANCE> 7
 1.000000e-02 1.000000e-02 1.000000e-02 1.000000e-02 1.000000e-02 1.000000e-02 3.741992e+02
<GCONST> -8.841094e+00
<STATE> 3
<MEAN> 7
 5.079009e-01 2.285798e-01 1.178174e-02 -1.269043e-02 -5.406516e-03 7.390832e-03 2.076003e+00
<VARIANCE> 7
 1.000000e-02 1.000000e-02 1.000000e-02 1.000000e-02 1.000000e-02 1.000000e-02 1.073178e+03
<GCONST> -7.787503e+00
<STATE> 4
<MEAN> 7
 4.881677e-01 2.576159e-01 8.847333e-03 -8.581733e-03 -4.302267e-03 4.458134e-02 7.057748e+01
<VARIANCE> 7
 1.000000e-02 1.000000e-02 1.000000e-02 1.000000e-02 1.000000e-02 1.000000e-02 4.233857e+04
<GCONST> -4.112429e+00
<STATE> 5
<MEAN> 7
 4.903973e-01 2.591060e-01 7.483250e-03 6.836875e-03 -1.029624e-03 4.434463e-02 1.751792e+02
<VARIANCE> 7
 1.000000e-02 1.000000e-02 1.000000e-02 1.000000e-02 1.000000e-02 1.000000e-02 4.194903e+08
<GCONST> 5.088669e+00
<STATE> 6
<MEAN> 7
 5.554029e-01 3.069666e-01 1.818804e-02 -9.195401e-03 -3.357168e-03 -1.369714e-02 -6.117229e+00
<VARIANCE> 7
 1.000000e-02 1.000000e-02 1.000000e-02 1.000000e-02 1.000000e-02 1.000000e-02 1.911727e+02
<GCONST> -9.512705e+00
<STATE> 7
<MEAN> 7
 5.860927e-01 2.035761e-01 -1.435720e-02 -6.140413e-02 -2.840040e-02 9.781200e-03 -2.940490e-01
<VARIANCE> 7
 1.000000e-02 1.000000e-02 1.000000e-02 1.000000e-02 1.000000e-02 1.000000e-02 1.056776e+00
<GCONST> -1.471066e+01
<STATE> 8
<MEAN> 7
 5.647320e-01 1.129555e-01 -2.375542e-02 -1.408917e-02 -8.618271e-04 1.704052e-02 -8.234571e+00
<VARIANCE> 7
 1.000000e-02 1.000000e-02 1.000000e-02 1.000000e-02 1.000000e-02 1.000000e-02 2.749503e+02
<GCONST> -9.149292e+00
<STATE> 9
<MEAN> 7
 5.068451e-01 1.273805e-01 -1.254345e-02 5.242101e-03 1.244832e-02 -5.158740e-03 1.528485e+02
<VARIANCE> 7
 1.000000e-02 1.000000e-02 1.000000e-02 1.000000e-02 1.000000e-02 1.000000e-02 8.095312e+06
<GCONST> 1.140913e+00
<STATE> 10
<MEAN> 7
 3.896437e-01 1.802450e-01 -5.681084e-03 9.736577e-04 7.662500e-03 -2.706010e-03 3.793158e+00
<VARIANCE> 7
 1.000000e-02 1.000000e-02 1.000000e-02 1.000000e-02 1.000000e-02 1.000000e-02 5.903451e+02
<GCONST> -8.385176e+00
<STATE> 11
<MEAN> 7
 4.892104e-01 1.263673e-01 6.496696e-03 2.095681e-03 5.828647e-03 -5.779829e-04 -2.428396e+00
<VARIANCE> 7
 1.000000e-02 1.000000e-02 1.000000e-02 1.000000e-02 1.000000e-02 1.000000e-02 2.124687e+02
<GCONST> -9.407087e+00
<TRANSP> 12
 0.000000e+00 1.000000e+00 0.000000e+00 0.000000e+00 0.000000e+00 0.000000e+00 0.000000e+00 0.000000e+00 0.000000e+00 0.000000e+00 0.000000e+00 0.000000e+00
 0.000000e+00 9.340949e-01 6.590509e-02 0.000000e+00 0.000000e+00 0.000000e+00 0.000000e+00 0.000000e+00 0.000000e+00 0.000000e+00 0.000000e+00 0.000000e+00
 0.000000e+00 0.000000e+00 7.989276e-01 2.010724e-01 0.000000e+00 0.000000e+00 0.000000e+00 0.000000e+00 0.000000e+00 0.000000e+00 0.000000e+00 0.000000e+00
 0.000000e+00 0.000000e+00 0.000000e+00 0.000000e+00 1.000000e+00 0.000000e+00 0.000000e+00 0.000000e+00 0.000000e+00 0.000000e+00 0.000000e+00 0.000000e+00
 0.000000e+00 0.000000e+00 0.000000e+00 0.000000e+00 6.250000e-02 9.375000e-01 0.000000e+00 0.000000e+00 0.000000e+00 0.000000e+00 0.000000e+00 0.000000e+00
 0.000000e+00 0.000000e+00 0.000000e+00 0.000000e+00 0.000000e+00 9.466192e-01 5.338078e-02 0.000000e+00 0.000000e+00 0.000000e+00 0.000000e+00 0.000000e+00
 0.000000e+00 0.000000e+00 0.000000e+00 0.000000e+00 0.000000e+00 0.000000e+00 0.000000e+00 1.000000e+00 0.000000e+00 0.000000e+00 0.000000e+00 0.000000e+00
 0.000000e+00 0.000000e+00 0.000000e+00 0.000000e+00 0.000000e+00 0.000000e+00 0.000000e+00 9.271137e-01 7.288629e-02 0.000000e+00 0.000000e+00 0.000000e+00
 0.000000e+00 0.000000e+00 0.000000e+00 0.000000e+00 0.000000e+00 0.000000e+00 0.000000e+00 0.000000e+00 3.697479e-01 6.302521e-01 0.000000e+00 0.000000e+00
 0.000000e+00 0.000000e+00 0.000000e+00 0.000000e+00 0.000000e+00 0.000000e+00 0.000000e+00 0.000000e+00 0.000000e+00 9.076355e-01 9.236454e-02 0.000000e+00
 0.000000e+00 0.000000e+00 0.000000e+00 0.000000e+00 0.000000e+00 0.000000e+00 0.000000e+00 0.000000e+00 0.000000e+00 0.000000e+00 9.182116e-01 8.178844e-02
 0.000000e+00 0.000000e+00 0.000000e+00 0.000000e+00 0.000000e+00 0.000000e+00 0.000000e+00 0.000000e+00 0.000000e+00 0.000000e+00 0.000000e+00 0.000000e+00
<ENDHMM>
