~o
<STREAMINFO> 1 6
<VECSIZE> 6<NULLD><USER><DIAGC>
~h "proto"
<BEGINHMM>
<NUMSTATES> 12
<STATE> 2
<MEAN> 6
 3.997997e-01 3.480154e-01 1.143626e-02 3.930930e-03 3.469240e-03 -8.642264e-03
<VARIANCE> 6
 1.000000e-02 1.000000e-02 1.000000e-02 1.000000e-02 1.000000e-02 1.000000e-02
<GCONST> -1.660376e+01
<STATE> 3
<MEAN> 6
 4.375717e-01 2.738631e-01 1.509893e-02 2.277334e-03 4.842000e-03 -3.376266e-03
<VARIANCE> 6
 1.000000e-02 1.000000e-02 1.000000e-02 1.000000e-02 1.000000e-02 1.000000e-02
<GCONST> -1.660376e+01
<STATE> 4
<MEAN> 6
 4.634363e-01 2.375949e-01 1.751192e-02 5.070954e-03 4.110615e-03 5.604559e-03
<VARIANCE> 6
 1.000000e-02 1.000000e-02 1.000000e-02 1.000000e-02 1.000000e-02 1.000000e-02
<GCONST> -1.660376e+01
<STATE> 5
<MEAN> 6
 5.322006e-01 3.506815e-01 2.085779e-02 1.668435e-03 1.388654e-03 -2.086374e-02
<VARIANCE> 6
 1.000000e-02 1.000000e-02 1.000000e-02 1.000000e-02 1.000000e-02 1.000000e-02
<GCONST> -1.660376e+01
<STATE> 6
<MEAN> 6
 6.036184e-01 2.565025e-01 1.645027e-02 -3.317378e-02 -1.558774e-02 -1.069484e-02
<VARIANCE> 6
 1.000000e-02 1.000000e-02 1.000000e-02 1.000000e-02 1.000000e-02 1.000000e-02
<GCONST> -1.660376e+01
<STATE> 7
<MEAN> 6
 6.363030e-01 1.255783e-01 -1.938603e-02 -3.108766e-02 -1.471745e-02 1.461289e-02
<VARIANCE> 6
 1.000000e-02 1.000000e-02 1.000000e-02 1.000000e-02 1.000000e-02 1.000000e-02
<GCONST> -1.660376e+01
<STATE> 8
<MEAN> 6
 5.149828e-01 9.165867e-02 -1.893436e-02 -4.145514e-04 5.147339e-03 9.888913e-03
<VARIANCE> 6
 1.000000e-02 1.000000e-02 1.000000e-02 1.000000e-02 1.000000e-02 1.000000e-02
<GCONST> -1.660376e+01
<STATE> 9
<MEAN> 6
 4.664458e-01 1.424725e-01 -1.705893e-02 1.621187e-02 2.687533e-02 8.783867e-03
<VARIANCE> 6
 1.000000e-02 1.000000e-02 1.000000e-02 1.000000e-02 1.000000e-02 1.000000e-02
<GCONST> -1.660376e+01
<STATE> 10
<MEAN> 6
 4.057407e-01 1.571807e-01 1.724172e-03 3.623565e-03 1.469786e-02 -3.503576e-03
<VARIANCE> 6
 1.000000e-02 1.000000e-02 1.000000e-02 1.000000e-02 1.000000e-02 1.000000e-02
<GCONST> -1.660376e+01
<STATE> 11
<MEAN> 6
 5.025669e-01 1.696648e-01 4.003217e-02 -6.385969e-03 -8.495660e-03 -2.775008e-02
<VARIANCE> 6
 1.000000e-02 1.000000e-02 1.000000e-02 1.000000e-02 1.000000e-02 1.000000e-02
<GCONST> -1.660376e+01
<TRANSP> 12
 0.000000e+00 1.000000e+00 0.000000e+00 0.000000e+00 0.000000e+00 0.000000e+00 0.000000e+00 0.000000e+00 0.000000e+00 0.000000e+00 0.000000e+00 0.000000e+00
 0.000000e+00 9.172186e-01 8.278146e-02 0.000000e+00 0.000000e+00 0.000000e+00 0.000000e+00 0.000000e+00 0.000000e+00 0.000000e+00 0.000000e+00 0.000000e+00
 0.000000e+00 0.000000e+00 0.000000e+00 1.000000e+00 0.000000e+00 0.000000e+00 0.000000e+00 0.000000e+00 0.000000e+00 0.000000e+00 0.000000e+00 0.000000e+00
 0.000000e+00 0.000000e+00 0.000000e+00 9.095296e-01 9.047044e-02 0.000000e+00 0.000000e+00 0.000000e+00 0.000000e+00 0.000000e+00 0.000000e+00 0.000000e+00
 0.000000e+00 0.000000e+00 0.000000e+00 0.000000e+00 8.826291e-01 1.173709e-01 0.000000e+00 0.000000e+00 0.000000e+00 0.000000e+00 0.000000e+00 0.000000e+00
 0.000000e+00 0.000000e+00 0.000000e+00 0.000000e+00 0.000000e+00 8.913044e-01 1.086957e-01 0.000000e+00 0.000000e+00 0.000000e+00 0.000000e+00 0.000000e+00
 0.000000e+00 0.000000e+00 0.000000e+00 0.000000e+00 0.000000e+00 0.000000e+00 8.709122e-01 1.290878e-01 0.000000e+00 0.000000e+00 0.000000e+00 0.000000e+00
 0.000000e+00 0.000000e+00 0.000000e+00 0.000000e+00 0.000000e+00 0.000000e+00 0.000000e+00 9.284351e-01 7.156488e-02 0.000000e+00 0.000000e+00 0.000000e+00
 0.000000e+00 0.000000e+00 0.000000e+00 0.000000e+00 0.000000e+00 0.000000e+00 0.000000e+00 0.000000e+00 0.000000e+00 1.000000e+00 0.000000e+00 0.000000e+00
 0.000000e+00 0.000000e+00 0.000000e+00 0.000000e+00 0.000000e+00 0.000000e+00 0.000000e+00 0.000000e+00 0.000000e+00 9.142857e-01 8.571428e-02 0.000000e+00
 0.000000e+00 0.000000e+00 0.000000e+00 0.000000e+00 0.000000e+00 0.000000e+00 0.000000e+00 0.000000e+00 0.000000e+00 0.000000e+00 4.186046e-01 5.813953e-01
 0.000000e+00 0.000000e+00 0.000000e+00 0.000000e+00 0.000000e+00 0.000000e+00 0.000000e+00 0.000000e+00 0.000000e+00 0.000000e+00 0.000000e+00 0.000000e+00
<ENDHMM>
