~o
<STREAMINFO> 1 38
<VECSIZE> 38<NULLD><USER><DIAGC>
~h "eight"
<BEGINHMM>
<NUMSTATES> 5
<STATE> 2
<MEAN> 38
 3.126616e+00 1.398673e+00 -1.252182e+00 -2.307719e+00 9.530252e-01 4.744898e-01 1.574155e+00 1.363105e+00 8.488684e-01 1.872376e+00 9.532084e-01 1.355412e+00 8.823481e-01 3.008192e-01 7.793934e-01 1.454626e-01 5.855730e-01 3.739980e-01 1.728787e-01 -6.221841e-02 -5.303805e-02 7.564495e-02 1.465745e-01 -8.539073e-02 -5.106010e-02 -1.326530e-01 -1.292665e-01 -8.912344e-02 -1.429958e-01 -6.853968e-02 -9.767848e-02 -6.484203e-02 -2.744679e-02 -6.425045e-02 -2.251515e-02 -6.075256e-02 -4.682705e-02 -3.206158e-02
<VARIANCE> 38
 2.455994e+01 9.832947e+00 7.703595e+00 7.471705e+00 5.765451e+00 3.760858e+00 4.150297e+00 3.555654e+00 2.680299e+00 3.774484e+00 2.030477e+00 2.433638e+00 1.933694e+00 1.365171e+00 1.610070e+00 1.040904e+00 1.236658e+00 8.506508e-01 7.205515e-01 9.291186e-01 3.540901e-01 2.115436e-01 2.719309e-01 1.946214e-01 1.206857e-01 1.440149e-01 1.190295e-01 8.261805e-02 1.284649e-01 7.214215e-02 9.083244e-02 6.280567e-02 4.108907e-02 6.000838e-02 3.939860e-02 4.706205e-02 3.382617e-02 2.838836e-02
<GCONST> 4.689927e+01
<STATE> 3
<MEAN> 38
 2.285758e+00 6.952692e-01 -1.519583e+00 -1.896282e+00 7.614093e-01 9.109402e-01 1.664876e+00 1.640826e+00 1.470481e+00 2.112563e+00 1.475092e+00 1.515493e+00 1.034994e+00 5.857325e-01 8.518589e-01 5.047920e-01 8.061627e-01 6.686220e-01 4.898306e-01 2.306544e-01 1.666679e-01 -1.118202e-01 -3.448423e-01 1.592722e-01 2.566826e-02 1.884662e-01 1.473942e-01 3.865263e-02 1.957883e-01 3.066660e-02 1.260172e-01 7.768903e-02 -3.062798e-03 9.154923e-02 -9.233301e-03 7.732961e-02 4.168942e-02 1.079250e-02
<VARIANCE> 38
 2.915662e+01 9.575533e+00 8.024182e+00 8.097913e+00 4.985409e+00 3.775295e+00 3.642959e+00 3.154948e+00 3.056189e+00 3.437951e+00 2.415126e+00 2.195475e+00 1.819165e+00 1.510945e+00 1.317671e+00 1.070164e+00 1.037722e+00 7.806116e-01 6.745550e-01 1.125527e+00 3.272214e-01 3.161870e-01 4.474936e-01 2.168794e-01 1.614189e-01 1.815691e-01 1.502810e-01 1.246528e-01 1.847837e-01 1.114351e-01 1.090219e-01 7.473793e-02 5.496117e-02 5.956516e-02 4.784266e-02 5.312875e-02 3.989961e-02 3.192487e-02
<GCONST> 5.074723e+01
<STATE> 4
<MEAN> 38
 -5.548356e-01 -1.138927e+00 -5.766035e-01 6.749523e-01 -5.652157e-01 1.071701e-01 -3.673153e-01 -2.534863e-01 2.171669e-01 -2.795830e-01 1.483296e-01 -2.654379e-01 -2.150247e-01 -1.161221e-02 -3.289049e-01 -1.670911e-02 -2.817207e-01 -1.314236e-01 -5.173476e-02 3.280300e-01 1.328552e-01 -7.069603e-02 -6.189784e-02 4.733322e-02 1.013663e-01 1.224587e-01 1.179887e-01 1.182751e-01 1.325100e-01 1.264807e-01 1.119032e-01 8.717368e-02 6.776096e-02 6.574367e-02 5.995142e-02 5.984088e-02 5.914137e-02 5.197992e-02
<VARIANCE> 38
 3.294447e+01 1.308690e+01 5.819258e+00 6.002851e+00 5.366567e+00 3.728062e+00 3.829354e+00 2.889897e+00 2.337000e+00 3.193291e+00 2.046595e+00 2.030949e+00 1.330771e+00 1.045633e+00 1.252144e+00 8.545334e-01 9.908412e-01 7.339654e-01 6.616679e-01 1.176626e+00 3.598121e-01 2.190030e-01 3.281738e-01 1.963250e-01 1.436584e-01 1.498462e-01 1.248523e-01 1.080891e-01 1.695841e-01 1.062327e-01 1.108778e-01 6.936073e-02 5.118848e-02 5.597932e-02 4.104505e-02 4.940545e-02 3.581971e-02 3.042678e-02
<GCONST> 4.693427e+01
<TRANSP> 5
 0.000000e+00 1.000000e+00 0.000000e+00 0.000000e+00 0.000000e+00
 0.000000e+00 9.391720e-01 6.082805e-02 0.000000e+00 0.000000e+00
 0.000000e+00 0.000000e+00 8.863317e-01 1.136683e-01 0.000000e+00
 0.000000e+00 0.000000e+00 0.000000e+00 8.946463e-01 1.053537e-01
 0.000000e+00 0.000000e+00 0.000000e+00 0.000000e+00 0.000000e+00
<ENDHMM>
~h "seven"
<BEGINHMM>
<NUMSTATES> 5
<STATE> 2
<MEAN> 38
 -1.350601e+01 -3.481423e+00 1.064710e+00 -2.638065e+00 1.937399e+00 -2.102537e+00 -1.906000e-01 -7.438314e-02 -1.588058e+00 6.225439e-01 -1.349596e+00 3.047341e-01 -2.526157e-01 -9.393474e-01 5.563447e-01 -9.660517e-01 4.158081e-01 -2.947612e-01 -6.378239e-01 -7.329299e-02 -1.114628e-01 -4.706781e-02 6.796428e-02 -8.951915e-02 1.666438e-02 -4.500427e-02 -3.921104e-02 1.622569e-02 -4.829893e-02 9.040822e-03 -3.085473e-02 -1.433757e-02 5.361126e-03 -4.241619e-02 -7.851006e-03 -4.835062e-02 -2.572238e-02 -8.408364e-03
<VARIANCE> 38
 1.340928e+02 2.591895e+01 7.320378e+00 7.527090e+00 4.446746e+00 6.876363e+00 2.351963e+00 2.125607e+00 3.011706e+00 1.491336e+00 2.879954e+00 1.234937e+00 1.147133e+00 1.527050e+00 9.184804e-01 1.593204e+00 7.918329e-01 9.342207e-01 1.098305e+00 9.889631e+00 1.319131e+00 2.761251e-01 4.554332e-01 2.276765e-01 3.667611e-01 1.236012e-01 1.072396e-01 2.283598e-01 8.397082e-02 2.190909e-01 6.633309e-02 6.668744e-02 1.001130e-01 4.670193e-02 1.196428e-01 4.219874e-02 5.805701e-02 6.833534e-02
<GCONST> 5.714810e+01
<STATE> 3
<MEAN> 38
 2.215814e+00 1.998498e+00 8.203794e-01 -8.625416e-01 1.663996e+00 8.621860e-03 8.465260e-01 7.869750e-01 5.507244e-02 1.147487e+00 2.891235e-01 8.619670e-01 5.684491e-01 1.782989e-01 8.631819e-01 3.360537e-01 9.521888e-01 6.507925e-01 3.670295e-01 -1.472806e+00 -4.875005e-01 6.980294e-02 -1.059262e-01 6.927963e-02 -1.663687e-01 -8.875524e-02 -3.816602e-02 -9.237084e-02 -2.793975e-03 -8.239852e-02 -2.500949e-03 -6.188941e-02 -7.976320e-02 7.144228e-03 -6.891300e-02 3.711254e-03 -5.352267e-02 -6.813632e-02
<VARIANCE> 38
 7.409891e+01 1.457020e+01 5.497228e+00 5.219342e+00 3.755591e+00 4.327368e+00 2.737179e+00 2.333242e+00 2.777692e+00 2.107906e+00 2.265081e+00 1.435402e+00 1.136654e+00 1.242851e+00 1.115610e+00 1.321037e+00 9.859142e-01 8.648962e-01 1.101469e+00 6.172635e+00 9.649976e-01 2.949434e-01 3.177401e-01 2.118489e-01 3.005354e-01 1.580270e-01 1.375139e-01 1.753075e-01 1.032887e-01 1.568490e-01 7.057198e-02 6.343602e-02 7.310256e-02 5.095215e-02 8.499599e-02 4.593106e-02 5.132728e-02 6.177534e-02
<GCONST> 5.310858e+01
<STATE> 4
<MEAN> 38
 5.989753e+00 2.766681e+00 7.755123e-01 4.704731e-01 5.566444e-01 7.745327e-01 7.091609e-01 5.711485e-01 5.885000e-01 6.647145e-01 6.783606e-01 5.840892e-01 5.668288e-01 4.399631e-01 4.263734e-01 5.568899e-01 5.461011e-01 6.496556e-01 6.171317e-01 8.475807e-02 6.034077e-02 9.981375e-03 -6.272350e-02 6.627757e-02 -6.085224e-03 3.741452e-02 2.382957e-02 -2.046208e-02 2.943570e-02 -1.641694e-02 1.764694e-02 1.322338e-02 -5.046459e-03 2.658706e-02 -1.654319e-03 2.626816e-02 1.363504e-02 1.483791e-03
<VARIANCE> 38
 2.683019e+01 8.253119e+00 3.889697e+00 5.020202e+00 3.869201e+00 3.103619e+00 2.395073e+00 2.071311e+00 2.638714e+00 1.996045e+00 2.386149e+00 1.443509e+00 1.091296e+00 1.010888e+00 1.073908e+00 1.073331e+00 9.382621e-01 8.545220e-01 8.867769e-01 1.398711e+00 3.350391e-01 1.711212e-01 2.306198e-01 1.623418e-01 1.352802e-01 9.212969e-02 8.708554e-02 1.231526e-01 9.164961e-02 1.115295e-01 6.326127e-02 4.751264e-02 4.410257e-02 4.673965e-02 4.784814e-02 4.079169e-02 4.134056e-02 4.668538e-02
<GCONST> 4.130316e+01
<TRANSP> 5
 0.000000e+00 1.000000e+00 0.000000e+00 0.000000e+00 0.000000e+00
 0.000000e+00 9.383054e-01 6.169462e-02 0.000000e+00 0.000000e+00
 0.000000e+00 0.000000e+00 8.135831e-01 1.864170e-01 0.000000e+00
 0.000000e+00 0.000000e+00 0.000000e+00 9.594749e-01 4.052514e-02
 0.000000e+00 0.000000e+00 0.000000e+00 0.000000e+00 0.000000e+00
<ENDHMM>
~h "three"
<BEGINHMM>
<NUMSTATES> 5
<STATE> 2
<MEAN> 38
 -1.178519e-01 1.601824e+00 1.356984e+00 -6.966823e-02 8.967569e-01 -5.842939e-01 -3.444493e-03 4.247069e-02 -5.180978e-01 9.003907e-02 -3.886173e-01 1.902510e-01 2.236537e-01 1.326120e-01 5.934950e-01 2.239945e-01 6.243240e-01 4.349536e-01 2.961934e-01 -8.046206e-01 -5.179786e-01 -8.315504e-02 -4.001715e-02 -1.038131e-01 -9.303931e-02 -5.609549e-02 -1.560277e-02 1.666301e-02 -4.817624e-03 -4.404058e-02 -6.309646e-02 -1.065332e-01 -1.251114e-01 -1.190470e-01 -1.133590e-01 -8.621196e-02 -8.237693e-02 -7.949772e-02
<VARIANCE> 38
 8.047740e+01 2.779507e+01 7.343634e+00 8.258351e+00 5.492445e+00 4.862058e+00 2.615019e+00 2.455160e+00 2.011405e+00 2.471095e+00 2.114543e+00 1.929724e+00 1.534558e+00 1.757484e+00 1.505358e+00 1.617907e+00 1.127178e+00 1.067779e+00 1.092218e+00 3.706347e+00 1.157603e+00 4.285387e-01 5.721667e-01 2.903059e-01 2.669170e-01 1.359946e-01 1.358044e-01 1.227932e-01 1.607831e-01 1.338081e-01 1.250910e-01 8.894584e-02 9.005454e-02 7.556804e-02 8.374557e-02 5.686205e-02 5.562505e-02 5.714230e-02
<GCONST> 5.894519e+01
<STATE> 3
<MEAN> 38
 4.446754e+00 3.612173e+00 2.637516e-01 -1.370449e+00 1.220728e+00 2.644066e-01 8.344662e-01 5.842928e-01 -7.786401e-02 1.043460e+00 8.237391e-01 1.492202e+00 1.504488e+00 1.226541e+00 1.524112e+00 8.772461e-01 1.049121e+00 7.813786e-01 6.856880e-01 1.587473e-01 2.503180e-01 2.359006e-01 2.006076e-01 4.015943e-02 -2.874494e-02 -8.026656e-02 -8.101131e-02 -1.050520e-01 -1.562126e-01 -1.240138e-01 -1.073697e-01 -4.911565e-02 2.857944e-03 5.756593e-03 3.084015e-02 2.493205e-02 2.833320e-02 1.845158e-02
<VARIANCE> 38
 5.930527e+01 2.065502e+01 1.016642e+01 9.254189e+00 5.228614e+00 3.971406e+00 3.428971e+00 3.910562e+00 3.301790e+00 4.365714e+00 3.330185e+00 2.686509e+00 2.034933e+00 1.936166e+00 1.468691e+00 1.340198e+00 1.108713e+00 9.329159e-01 7.905428e-01 2.291423e+00 8.043810e-01 4.295347e-01 4.338549e-01 2.182230e-01 1.900669e-01 1.534680e-01 1.579778e-01 1.659606e-01 1.876933e-01 1.530145e-01 1.255893e-01 1.015202e-01 9.303850e-02 7.079170e-02 6.517912e-02 4.960456e-02 4.251320e-02 3.815291e-02
<GCONST> 5.896964e+01
<STATE> 4
<MEAN> 38
 2.636469e+00 7.208505e-01 -1.387901e+00 -1.369660e+00 6.831114e-01 9.714217e-01 1.573911e+00 1.363598e+00 1.256758e+00 1.833822e+00 1.371382e+00 1.353053e+00 9.054670e-01 4.586823e-01 6.517862e-01 4.011468e-01 5.335481e-01 4.863227e-01 4.692587e-01 4.522476e-01 2.699466e-01 -5.396729e-02 -1.542609e-01 7.608290e-02 4.314788e-02 8.283689e-02 5.001920e-02 1.230760e-02 1.065204e-01 8.879821e-02 1.343412e-01 1.336861e-01 1.010980e-01 1.163651e-01 6.405155e-02 6.290647e-02 4.721366e-02 4.730881e-02
<VARIANCE> 38
 2.741917e+01 1.124142e+01 7.468511e+00 7.006360e+00 4.821742e+00 3.732077e+00 3.994903e+00 3.739539e+00 3.058163e+00 3.985970e+00 2.739543e+00 2.475479e+00 1.981870e+00 1.669751e+00 1.600413e+00 1.052631e+00 1.118771e+00 8.400634e-01 7.155647e-01 1.073825e+00 3.646878e-01 2.531879e-01 2.677307e-01 1.851954e-01 1.696307e-01 1.822207e-01 1.587585e-01 1.385549e-01 1.582641e-01 1.148669e-01 8.635584e-02 6.841069e-02 6.229232e-02 5.439549e-02 4.831177e-02 4.913174e-02 4.081022e-02 3.394702e-02
<GCONST> 5.079789e+01
<TRANSP> 5
 0.000000e+00 1.000000e+00 0.000000e+00 0.000000e+00 0.000000e+00
 0.000000e+00 9.238647e-01 7.613533e-02 0.000000e+00 0.000000e+00
 0.000000e+00 0.000000e+00 9.209884e-01 7.901163e-02 0.000000e+00
 0.000000e+00 0.000000e+00 0.000000e+00 9.193495e-01 8.065052e-02
 0.000000e+00 0.000000e+00 0.000000e+00 0.000000e+00 0.000000e+00
<ENDHMM>
~h "one"
<BEGINHMM>
<NUMSTATES> 5
<STATE> 2
<MEAN> 38
 3.871814e+00 2.927664e+00 1.761905e+00 1.276428e+00 1.514265e+00 1.838682e+00 1.824037e+00 1.435907e+00 8.297518e-01 4.901581e-01 4.021085e-01 3.006006e-01 2.379866e-01 1.429833e-01 1.085261e-01 5.145106e-02 -8.142450e-02 6.869838e-03 1.570503e-01 -2.881994e-01 -2.199070e-01 -8.679706e-02 2.422903e-02 -1.145757e-01 -9.377235e-02 -1.268699e-01 -9.272676e-02 -2.434993e-02 -3.549129e-02 1.350220e-02 -1.615208e-02 -1.452434e-02 -6.806667e-03 -4.114345e-02 -9.074919e-03 -1.807983e-02 -8.481650e-03 -5.914829e-03
<VARIANCE> 38
 2.725610e+01 1.024445e+01 4.971220e+00 6.668281e+00 5.311852e+00 4.704975e+00 4.508635e+00 3.983787e+00 3.169293e+00 2.503389e+00 2.834533e+00 2.142554e+00 1.563974e+00 1.317927e+00 1.314902e+00 1.097545e+00 1.163237e+00 8.627575e-01 7.602700e-01 1.048998e+00 3.807205e-01 2.215793e-01 2.602803e-01 2.067520e-01 1.849813e-01 1.785812e-01 1.474317e-01 1.349042e-01 1.103797e-01 1.351992e-01 9.922495e-02 7.180919e-02 5.803860e-02 5.205829e-02 4.832539e-02 4.923517e-02 4.213865e-02 3.755284e-02
<GCONST> 4.965827e+01
<STATE> 3
<MEAN> 38
 5.161880e+00 3.709101e+00 1.647742e+00 3.658675e-01 1.616621e+00 1.573204e+00 1.680434e+00 1.272171e+00 5.567870e-01 5.158146e-01 1.317007e-01 3.422704e-01 3.433027e-01 2.568431e-01 5.097712e-01 2.978241e-01 3.313785e-01 2.654642e-01 2.823769e-01 -3.236744e-03 4.849570e-02 3.645096e-02 4.299394e-02 6.744631e-02 6.417494e-02 7.904734e-02 5.199929e-02 1.059655e-02 -1.879790e-03 -1.933038e-02 -1.361882e-02 -5.628625e-03 -4.676167e-03 -4.625212e-03 -2.234917e-02 -2.890717e-02 -2.647875e-02 -1.984763e-02
<VARIANCE> 38
 2.124893e+01 6.762427e+00 4.131173e+00 6.938098e+00 4.551980e+00 4.227009e+00 3.474617e+00 3.052322e+00 3.645370e+00 2.638758e+00 3.792887e+00 2.204962e+00 1.504472e+00 1.244161e+00 1.269729e+00 1.262664e+00 1.303168e+00 1.037614e+00 9.262458e-01 7.469467e-01 2.334986e-01 1.521456e-01 2.474558e-01 1.636716e-01 1.427862e-01 1.228906e-01 1.050357e-01 1.520883e-01 1.071854e-01 1.811418e-01 9.923097e-02 6.777519e-02 5.307846e-02 5.181709e-02 5.270385e-02 4.967858e-02 4.573969e-02 4.201665e-02
<GCONST> 4.713813e+01
<STATE> 4
<MEAN> 38
 4.013759e+00 1.727059e+00 7.479824e-01 6.466758e-01 1.154736e-01 6.167112e-01 2.160111e-01 3.069180e-01 6.812043e-01 5.174315e-01 8.165611e-01 5.424809e-01 3.836884e-01 3.482622e-01 2.377635e-01 5.668999e-01 5.027397e-01 5.309089e-01 4.831615e-01 3.356171e-01 2.226814e-01 7.667642e-02 -1.618664e-02 9.081663e-02 8.496390e-02 9.140106e-02 5.884075e-02 1.262184e-02 2.428241e-02 -5.932155e-03 1.122984e-02 1.428167e-02 8.286295e-03 3.116173e-02 1.783765e-02 2.575810e-02 2.145004e-02 2.008798e-02
<VARIANCE> 38
 2.311176e+01 8.133963e+00 3.692501e+00 4.954368e+00 4.488645e+00 2.924417e+00 2.686765e+00 2.362788e+00 3.072132e+00 2.522994e+00 3.448917e+00 2.059536e+00 1.398893e+00 1.081496e+00 1.217846e+00 1.203191e+00 1.214013e+00 1.010843e+00 9.535756e-01 9.452930e-01 2.606858e-01 1.571806e-01 2.246980e-01 1.492503e-01 1.256591e-01 9.360088e-02 8.733325e-02 1.458334e-01 1.064370e-01 1.595589e-01 8.488172e-02 5.605835e-02 4.233385e-02 4.587872e-02 4.801503e-02 4.506863e-02 4.176389e-02 4.073821e-02
<GCONST> 4.373489e+01
<TRANSP> 5
 0.000000e+00 1.000000e+00 0.000000e+00 0.000000e+00 0.000000e+00
 0.000000e+00 9.238120e-01 7.618804e-02 0.000000e+00 0.000000e+00
 0.000000e+00 0.000000e+00 9.357392e-01 6.426074e-02 0.000000e+00
 0.000000e+00 0.000000e+00 0.000000e+00 9.218373e-01 7.816273e-02
 0.000000e+00 0.000000e+00 0.000000e+00 0.000000e+00 0.000000e+00
<ENDHMM>
~h "sil"
<BEGINHMM>
<NUMSTATES> 5
<STATE> 2
<MEAN> 38
 -8.513437e-01 -2.272270e+00 -1.215980e+00 1.322031e+00 -1.966987e+00 -2.375755e-01 -1.384445e+00 -1.103064e+00 -3.976816e-02 -1.334237e+00 -2.170333e-01 -1.120605e+00 -7.693895e-01 -1.722300e-01 -9.709914e-01 -1.491360e-01 -8.525898e-01 -5.389421e-01 -3.460727e-01 1.735554e-01 1.473505e-01 6.749376e-02 -2.079928e-02 7.332983e-02 2.190678e-02 5.498336e-02 4.207593e-02 1.385781e-02 5.799834e-02 2.826488e-02 5.701248e-02 4.122373e-02 1.911379e-02 4.385261e-02 2.076146e-02 4.310050e-02 3.232811e-02 2.362417e-02
<VARIANCE> 38
 1.698015e+01 6.358964e+00 2.866712e+00 2.226684e+00 2.465075e+00 1.675039e+00 1.464213e+00 1.220753e+00 1.058110e+00 1.274231e+00 9.243480e-01 9.359176e-01 6.800719e-01 5.360378e-01 6.208702e-01 4.727542e-01 5.362505e-01 4.329071e-01 3.917335e-01 2.649839e-01 1.225693e-01 6.415006e-02 6.195348e-02 6.020689e-02 3.723497e-02 3.766949e-02 3.198501e-02 2.775690e-02 3.415482e-02 2.587817e-02 2.743402e-02 2.031453e-02 1.656670e-02 1.937856e-02 1.553340e-02 1.728644e-02 1.400160e-02 1.264736e-02
<GCONST> 9.104996e+00
<STATE> 3
<MEAN> 38
 -2.533351e+00 -2.627146e+00 -1.078761e+00 1.098073e+00 -1.669423e+00 -3.833877e-01 -1.199377e+00 -8.842096e-01 -8.824245e-02 -1.166893e+00 -2.539255e-01 -9.676712e-01 -6.845692e-01 -1.888211e-01 -8.338563e-01 -1.833817e-01 -7.280928e-01 -4.779410e-01 -3.280444e-01 4.972068e-02 -1.333283e-02 -1.455781e-02 2.157972e-02 -3.415103e-02 -1.748972e-03 -2.392241e-02 -2.182920e-02 -3.808969e-03 -2.455290e-02 -5.355624e-03 -2.152300e-02 -1.308041e-02 -2.274886e-03 -1.663536e-02 -2.398479e-03 -1.568636e-02 -9.894053e-03 -5.489664e-03
<VARIANCE> 38
 1.644839e+01 4.949587e+00 2.659391e+00 3.214149e+00 2.167615e+00 1.755270e+00 1.153310e+00 9.956275e-01 1.064751e+00 9.410076e-01 8.264778e-01 7.183034e-01 5.401003e-01 5.399230e-01 5.307374e-01 4.598168e-01 4.412247e-01 3.310885e-01 3.312424e-01 4.352625e-01 1.248194e-01 6.553725e-02 9.070392e-02 5.390273e-02 4.330784e-02 2.656593e-02 2.302939e-02 2.776953e-02 2.572518e-02 2.411430e-02 2.132419e-02 1.563706e-02 1.603911e-02 1.594574e-02 1.477023e-02 1.390611e-02 1.062007e-02 1.042428e-02
<GCONST> 5.325661e+00
<STATE> 4
<MEAN> 38
 -3.505048e+00 -2.624469e+00 -1.049235e+00 3.221894e-01 -1.204679e+00 -5.603973e-01 -1.055051e+00 -7.825612e-01 -2.825043e-01 -9.189891e-01 -4.247255e-01 -8.301654e-01 -7.082245e-01 -4.247949e-01 -7.680067e-01 -3.857843e-01 -6.418126e-01 -4.841128e-01 -3.799747e-01 -1.382362e-02 -2.868403e-01 -2.029042e-01 2.295044e-01 -2.991154e-01 1.436814e-02 -1.752809e-01 -1.414444e-01 1.941528e-02 -2.028584e-01 -1.355650e-02 -1.713964e-01 -9.965464e-02 2.556684e-03 -1.375641e-01 2.022671e-03 -1.266009e-01 -6.958761e-02 -3.449369e-02
<VARIANCE> 38
 3.154677e+01 8.199673e+00 3.702796e+00 6.078611e+00 4.080445e+00 3.120707e+00 2.053866e+00 1.552808e+00 1.526279e+00 1.521821e+00 1.222560e+00 1.044508e+00 6.998798e-01 7.417326e-01 7.823479e-01 6.164005e-01 6.568490e-01 4.374506e-01 4.483023e-01 1.398720e+00 3.285396e-01 1.465728e-01 2.051628e-01 1.286744e-01 1.049799e-01 6.543732e-02 5.319243e-02 6.188454e-02 5.396317e-02 5.280117e-02 4.078517e-02 2.868336e-02 2.770997e-02 2.810840e-02 2.494099e-02 2.424603e-02 1.782838e-02 1.819603e-02
<GCONST> 2.762312e+01
<TRANSP> 5
 0.000000e+00 1.000000e+00 0.000000e+00 0.000000e+00 0.000000e+00
 0.000000e+00 9.393201e-01 6.067980e-02 0.000000e+00 0.000000e+00
 0.000000e+00 0.000000e+00 9.102444e-01 8.975562e-02 0.000000e+00
 0.000000e+00 0.000000e+00 0.000000e+00 7.124104e-01 2.875896e-01
 0.000000e+00 0.000000e+00 0.000000e+00 0.000000e+00 0.000000e+00
<ENDHMM>
~h "six"
<BEGINHMM>
<NUMSTATES> 5
<STATE> 2
<MEAN> 38
 -7.834415e+00 -1.746771e+00 8.187493e-01 -2.061923e+00 1.478641e+00 -1.425256e+00 1.569181e-01 2.798407e-01 -8.162951e-01 9.756703e-01 -4.590316e-01 7.557006e-01 3.032123e-01 -3.080022e-01 7.579158e-01 -3.755718e-01 6.534508e-01 9.425651e-02 -2.214839e-01 1.395176e-02 -2.570888e-02 6.966445e-03 6.610333e-02 -1.981386e-02 3.304489e-02 -6.375574e-03 -2.040369e-03 1.974161e-02 -2.795919e-02 -2.683101e-03 -3.185178e-02 -2.573948e-02 -1.053648e-02 -2.994209e-02 -2.367948e-03 -1.986383e-02 -7.626866e-03 3.118649e-03
<VARIANCE> 38
 1.653083e+02 2.391400e+01 7.327826e+00 7.351765e+00 5.117567e+00 6.921944e+00 2.914997e+00 2.612095e+00 4.041069e+00 2.478564e+00 4.378713e+00 1.929756e+00 1.911503e+00 2.326025e+00 1.102004e+00 2.070050e+00 9.572061e-01 1.060598e+00 1.271495e+00 8.545455e+00 1.060756e+00 3.274834e-01 4.431231e-01 2.650715e-01 3.465765e-01 1.436748e-01 1.271829e-01 2.332492e-01 1.337340e-01 2.423785e-01 1.011888e-01 9.725384e-02 1.199696e-01 5.800825e-02 1.144845e-01 5.129316e-02 5.610973e-02 6.694085e-02
<GCONST> 6.340482e+01
<STATE> 3
<MEAN> 38
 -4.503000e+00 -1.179003e+00 2.345128e-01 -1.418711e+00 5.492353e-01 -1.215641e+00 -2.799874e-01 -1.869154e-01 -6.844966e-01 5.791105e-01 -1.197972e-01 6.487531e-01 4.037466e-01 3.142199e-02 6.072587e-01 -1.015222e-01 4.685788e-01 9.942711e-02 -1.352786e-01 2.137233e-01 1.154262e-01 8.199028e-03 -4.643271e-02 3.951248e-02 2.228081e-02 5.990977e-02 5.404487e-02 3.131124e-02 6.936017e-02 5.795164e-02 7.496785e-02 5.943973e-02 3.850488e-02 4.802305e-02 2.680510e-02 3.849646e-02 2.896798e-02 2.054207e-02
<VARIANCE> 38
 1.438765e+02 2.069045e+01 6.752695e+00 8.558586e+00 4.959874e+00 6.704222e+00 3.002416e+00 2.613576e+00 4.332314e+00 3.071071e+00 4.631165e+00 2.184085e+00 1.924199e+00 2.248623e+00 1.207115e+00 1.696472e+00 9.007687e-01 8.123022e-01 9.484006e-01 6.044606e+00 8.889005e-01 2.972218e-01 5.270251e-01 2.624585e-01 3.042589e-01 1.431052e-01 1.227045e-01 2.066352e-01 1.815686e-01 2.084941e-01 1.349554e-01 1.039410e-01 1.049648e-01 7.906329e-02 8.049052e-02 5.557222e-02 4.161914e-02 4.532072e-02
<GCONST> 6.184336e+01
<STATE> 4
<MEAN> 38
 -6.456422e+00 -2.386502e+00 5.613309e-02 -1.221366e+00 1.521845e-01 -1.353785e+00 -6.764078e-01 -5.939060e-01 -1.043757e+00 -1.927776e-01 -8.271385e-01 -1.628556e-01 -3.228499e-01 -5.496414e-01 -1.158664e-02 -5.302364e-01 -1.350850e-03 -2.457032e-01 -3.816410e-01 -1.911584e-01 -3.815725e-02 -2.311980e-04 -6.054180e-02 2.507188e-02 -4.417440e-02 -1.023220e-02 -1.080126e-02 -2.330059e-02 2.975250e-02 -5.968657e-03 2.364429e-02 1.795572e-02 6.988341e-03 3.276654e-02 1.074078e-03 2.046955e-02 6.537089e-03 -4.281201e-03
<VARIANCE> 38
 1.061296e+02 1.767904e+01 6.823693e+00 8.243070e+00 5.239522e+00 5.709170e+00 2.338247e+00 1.909118e+00 3.079853e+00 2.217303e+00 2.594017e+00 1.386729e+00 1.012472e+00 1.191409e+00 1.044424e+00 1.109107e+00 8.101800e-01 5.956841e-01 6.656102e-01 3.987439e+00 6.201759e-01 2.575794e-01 3.737234e-01 2.105576e-01 1.983943e-01 8.305053e-02 6.938105e-02 1.201125e-01 1.044616e-01 1.029813e-01 7.218540e-02 4.819322e-02 5.101940e-02 5.361220e-02 4.843659e-02 4.083398e-02 2.657682e-02 2.834531e-02
<GCONST> 4.730277e+01
<TRANSP> 5
 0.000000e+00 1.000000e+00 0.000000e+00 0.000000e+00 0.000000e+00
 0.000000e+00 9.587004e-01 4.129964e-02 0.000000e+00 0.000000e+00
 0.000000e+00 0.000000e+00 9.093720e-01 9.062801e-02 0.000000e+00
 0.000000e+00 0.000000e+00 0.000000e+00 9.300985e-01 6.990144e-02
 0.000000e+00 0.000000e+00 0.000000e+00 0.000000e+00 0.000000e+00
<ENDHMM>
~h "two"
<BEGINHMM>
<NUMSTATES> 5
<STATE> 2
<MEAN> 38
 -5.526378e+00 -2.816915e+00 -6.532081e-01 -1.992098e+00 7.363955e-01 -8.968940e-01 2.879897e-02 1.837813e-01 -4.190612e-01 7.092435e-01 -1.512613e-01 6.450843e-01 2.756799e-01 -1.416615e-01 5.126739e-01 -2.756521e-01 3.725056e-01 2.910183e-02 -1.907532e-01 -3.003194e-01 -2.689404e-01 -3.826755e-02 1.929548e-01 -9.438790e-02 -1.787540e-02 -1.297873e-01 -1.032167e-01 -4.726748e-02 -1.774357e-01 -9.932853e-02 -1.757494e-01 -1.441031e-01 -8.411081e-02 -1.422568e-01 -7.146169e-02 -1.107468e-01 -8.009469e-02 -6.282301e-02
<VARIANCE> 38
 7.651561e+01 2.036152e+01 5.614727e+00 7.660176e+00 6.540845e+00 3.806968e+00 2.577400e+00 2.241249e+00 2.443464e+00 2.961201e+00 2.254941e+00 2.230930e+00 1.559010e+00 1.445121e+00 1.612027e+00 1.385108e+00 1.125118e+00 8.570139e-01 8.815153e-01 5.607915e+00 1.254672e+00 2.936627e-01 5.013578e-01 4.302239e-01 2.430438e-01 1.355652e-01 1.157003e-01 1.750163e-01 1.505588e-01 1.497862e-01 1.047921e-01 7.979516e-02 9.386154e-02 8.078102e-02 9.538992e-02 5.755855e-02 4.722458e-02 5.549785e-02
<GCONST> 5.824059e+01
<STATE> 3
<MEAN> 38
 2.168254e+00 2.313194e+00 2.140564e-01 -1.953878e+00 1.076573e+00 3.002144e-01 1.294263e+00 9.633603e-01 3.254747e-01 1.663083e+00 9.172795e-01 1.640810e+00 1.470547e+00 9.487373e-01 1.484803e+00 8.085409e-01 1.176115e+00 8.629982e-01 7.238656e-01 -3.398238e-01 -2.638541e-01 -8.633911e-02 -8.572704e-02 -1.182341e-02 -7.241281e-02 -4.027959e-02 1.770992e-03 4.725246e-03 2.816114e-02 3.882344e-04 1.949574e-02 -1.025429e-02 -2.862039e-02 -6.303465e-03 -3.080007e-02 -1.112125e-02 -2.399975e-02 -3.574692e-02
<VARIANCE> 38
 5.342147e+01 1.584424e+01 6.723903e+00 5.850021e+00 5.656863e+00 4.084984e+00 2.761741e+00 2.671193e+00 2.314942e+00 3.573157e+00 2.744375e+00 2.017356e+00 1.753152e+00 1.655332e+00 1.393526e+00 1.189712e+00 1.051949e+00 8.684329e-01 8.201543e-01 2.624067e+00 7.257109e-01 2.406775e-01 2.601360e-01 2.023185e-01 1.753722e-01 1.242127e-01 1.084764e-01 1.058677e-01 1.014383e-01 1.064236e-01 7.423810e-02 7.057286e-02 6.853957e-02 5.651705e-02 5.823807e-02 4.185778e-02 3.823201e-02 3.982957e-02
<GCONST> 5.064178e+01
<STATE> 4
<MEAN> 38
 4.306726e+00 3.162716e+00 9.700866e-01 1.515935e-01 8.888828e-01 1.056738e+00 1.172667e+00 5.887637e-01 3.639448e-01 8.097504e-01 6.997887e-01 8.437279e-01 7.782059e-01 5.848954e-01 6.988554e-01 5.629003e-01 5.958124e-01 6.244827e-01 6.698905e-01 2.040358e-01 1.453728e-01 -2.449959e-02 -1.576157e-01 3.702128e-02 1.666974e-02 7.465929e-02 4.844785e-02 9.549661e-03 8.674897e-02 4.567979e-02 9.282487e-02 9.419446e-02 6.603774e-02 9.319019e-02 5.173030e-02 6.641408e-02 4.910884e-02 4.289959e-02
<VARIANCE> 38
 2.398867e+01 1.117027e+01 5.815394e+00 6.669732e+00 5.165890e+00 3.699233e+00 3.273592e+00 2.802715e+00 2.032676e+00 3.064732e+00 2.303387e+00 2.158746e+00 1.932311e+00 1.522118e+00 1.706482e+00 1.161289e+00 1.276600e+00 9.477275e-01 8.565667e-01 8.629373e-01 3.578565e-01 1.730537e-01 2.060272e-01 1.648033e-01 1.379244e-01 1.084406e-01 8.579174e-02 7.418155e-02 7.927717e-02 7.288935e-02 6.082908e-02 5.419249e-02 4.785105e-02 4.733561e-02 4.155241e-02 3.967126e-02 3.415126e-02 3.246441e-02
<GCONST> 4.374383e+01
<TRANSP> 5
 0.000000e+00 1.000000e+00 0.000000e+00 0.000000e+00 0.000000e+00
 0.000000e+00 9.193510e-01 8.064897e-02 0.000000e+00 0.000000e+00
 0.000000e+00 0.000000e+00 8.953187e-01 1.046814e-01 0.000000e+00
 0.000000e+00 0.000000e+00 0.000000e+00 9.302602e-01 6.973976e-02
 0.000000e+00 0.000000e+00 0.000000e+00 0.000000e+00 0.000000e+00
<ENDHMM>
~h "nine"
<BEGINHMM>
<NUMSTATES> 5
<STATE> 2
<MEAN> 38
 4.214612e+00 2.555348e+00 8.987379e-01 -2.533367e-01 7.434019e-01 5.391344e-01 6.060891e-01 6.646209e-01 4.031214e-01 5.336837e-01 2.941025e-01 3.844658e-01 3.233053e-01 2.757657e-01 5.538064e-01 5.143707e-01 6.096036e-01 5.093346e-01 4.640976e-01 -2.504957e-01 -2.150330e-01 -3.498143e-02 1.097797e-01 -8.420233e-02 -1.022855e-02 -5.918924e-02 -3.528884e-02 3.900309e-02 -5.688399e-03 5.042175e-02 -5.586473e-03 -1.633386e-02 -1.182278e-02 -6.089295e-02 -2.077219e-02 -4.615127e-02 -2.436233e-02 -1.040167e-02
<VARIANCE> 38
 2.580806e+01 9.244473e+00 4.972396e+00 6.868578e+00 5.375324e+00 3.215063e+00 3.057473e+00 2.587989e+00 4.041393e+00 3.645733e+00 4.217368e+00 2.274607e+00 1.373208e+00 1.027002e+00 1.369351e+00 1.158529e+00 1.104168e+00 7.849786e-01 7.258977e-01 1.059597e+00 3.591581e-01 2.298925e-01 3.161555e-01 2.090706e-01 1.282349e-01 1.253179e-01 1.146095e-01 2.053102e-01 1.716772e-01 1.998355e-01 1.067209e-01 6.467460e-02 4.777743e-02 5.975144e-02 5.442327e-02 5.189734e-02 4.070801e-02 3.828195e-02
<GCONST> 4.948237e+01
<STATE> 3
<MEAN> 38
 5.303860e+00 3.433337e+00 6.970438e-01 -1.055576e+00 8.794920e-01 5.341212e-01 8.684155e-01 6.070691e-01 4.341728e-02 4.266855e-01 -1.302974e-01 3.634368e-01 4.764782e-01 3.425302e-01 7.587147e-01 4.631834e-01 6.496880e-01 4.899664e-01 4.066947e-01 1.116002e-02 3.396542e-02 1.134659e-02 -3.225483e-02 2.215857e-02 -3.889795e-03 7.612551e-03 1.348692e-03 -2.594313e-02 -1.926685e-02 -4.002262e-02 -2.270547e-02 -1.054131e-02 -3.416104e-03 1.453685e-02 2.892898e-03 9.029737e-03 3.757039e-03 1.368868e-03
<VARIANCE> 38
 1.474361e+01 5.724669e+00 5.039155e+00 6.732203e+00 4.033362e+00 3.420556e+00 2.631406e+00 2.246748e+00 3.071744e+00 3.349609e+00 4.169828e+00 2.267925e+00 1.327860e+00 9.997873e-01 1.089030e+00 9.932691e-01 8.120283e-01 6.865464e-01 6.645637e-01 5.039071e-01 1.925631e-01 1.993502e-01 3.120826e-01 1.361609e-01 1.057431e-01 9.640724e-02 8.110360e-02 1.234413e-01 1.203644e-01 1.587284e-01 8.335177e-02 5.254978e-02 4.140460e-02 4.949119e-02 4.133415e-02 3.503425e-02 3.116081e-02 3.094508e-02
<GCONST> 4.079311e+01
<STATE> 4
<MEAN> 38
 3.714384e+00 1.561977e+00 5.133876e-01 5.665806e-01 1.934046e-02 4.974530e-01 2.562247e-01 3.120580e-01 5.970892e-01 4.664791e-01 7.728034e-01 5.439475e-01 4.018407e-01 2.715288e-01 6.022462e-02 2.965488e-01 1.960831e-01 2.885447e-01 3.447022e-01 2.874677e-01 1.878736e-01 1.811751e-02 -6.861091e-02 5.604972e-02 3.391274e-02 6.311974e-02 4.637552e-02 8.431785e-03 3.788666e-02 6.513913e-03 3.108156e-02 3.058707e-02 1.752856e-02 4.086777e-02 2.267078e-02 3.561619e-02 2.463506e-02 1.776174e-02
<VARIANCE> 38
 2.194567e+01 8.018692e+00 4.712278e+00 6.571297e+00 3.884510e+00 3.150646e+00 2.848314e+00 2.358329e+00 2.656216e+00 2.648318e+00 3.274250e+00 2.218088e+00 1.478408e+00 1.063981e+00 1.183730e+00 9.058305e-01 9.079853e-01 7.911771e-01 7.801237e-01 8.131732e-01 2.520352e-01 2.256470e-01 3.144192e-01 1.277873e-01 1.220698e-01 9.849467e-02 8.543666e-02 1.117551e-01 1.017767e-01 1.352367e-01 7.992622e-02 5.531261e-02 4.274394e-02 4.734084e-02 3.994101e-02 3.639867e-02 3.533369e-02 3.678344e-02
<GCONST> 4.227934e+01
<TRANSP> 5
 0.000000e+00 1.000000e+00 0.000000e+00 0.000000e+00 0.000000e+00
 0.000000e+00 9.261279e-01 7.387211e-02 0.000000e+00 0.000000e+00
 0.000000e+00 0.000000e+00 9.510088e-01 4.899119e-02 0.000000e+00
 0.000000e+00 0.000000e+00 0.000000e+00 9.225017e-01 7.749827e-02
 0.000000e+00 0.000000e+00 0.000000e+00 0.000000e+00 0.000000e+00
<ENDHMM>
~h "five"
<BEGINHMM>
<NUMSTATES> 5
<STATE> 2
<MEAN> 38
 -1.236019e+00 4.287130e-01 2.524230e-01 -9.355366e-01 6.184410e-01 -8.562290e-01 4.403189e-02 3.078677e-02 -6.585894e-01 -8.712918e-02 -9.122775e-01 -2.446049e-01 -4.062164e-01 -7.315343e-01 -1.987049e-01 -6.720646e-01 -9.435754e-02 -1.828018e-01 -2.393312e-01 -6.682127e-01 -2.551674e-01 -9.492996e-02 -9.527139e-02 -9.765644e-02 -9.471916e-02 -8.696789e-02 -6.060159e-02 -3.373472e-02 -5.908993e-03 1.994050e-02 8.147577e-03 -8.081789e-03 1.017392e-02 1.652583e-02 1.137902e-02 3.467960e-03 -2.181846e-02 -2.978781e-02
<VARIANCE> 38
 8.311646e+01 1.444857e+01 5.937453e+00 7.625937e+00 5.075737e+00 6.490901e+00 3.730764e+00 2.812384e+00 2.356866e+00 2.000258e+00 1.669454e+00 1.327045e+00 1.035404e+00 1.048767e+00 9.810448e-01 8.667501e-01 7.836907e-01 7.702466e-01 7.956358e-01 3.825140e+00 6.136153e-01 2.810057e-01 4.227442e-01 1.905700e-01 3.321636e-01 1.603074e-01 1.194329e-01 1.324302e-01 7.172383e-02 8.987846e-02 5.578646e-02 4.989849e-02 5.342397e-02 3.780902e-02 4.424870e-02 3.262262e-02 3.611818e-02 3.955567e-02
<GCONST> 4.788245e+01
<STATE> 3
<MEAN> 38
 5.728858e+00 3.031531e+00 1.072181e+00 -7.988054e-02 1.282261e+00 1.228059e-01 8.336821e-01 5.150374e-01 -2.634889e-01 1.004060e-01 -7.702408e-01 -7.068495e-02 -8.893952e-03 -4.230990e-01 -2.452207e-02 -3.732627e-01 1.768025e-01 3.068428e-01 2.713668e-01 -5.426775e-02 -8.982464e-03 1.590420e-02 1.767884e-02 2.613282e-02 9.561275e-03 1.900631e-02 2.085854e-02 2.756248e-03 -1.302549e-02 -2.463753e-02 -2.033312e-02 -3.128660e-02 -3.449361e-02 -2.572808e-02 -2.980362e-02 -2.205710e-02 -1.777860e-02 -1.198613e-02
<VARIANCE> 38
 4.130273e+01 9.056588e+00 5.258847e+00 5.649471e+00 4.480029e+00 4.991148e+00 3.401538e+00 2.491537e+00 2.272578e+00 2.444450e+00 1.976242e+00 1.593801e+00 1.368773e+00 1.279944e+00 1.203243e+00 1.072513e+00 9.118872e-01 8.598362e-01 7.643379e-01 1.641354e+00 2.851829e-01 1.414083e-01 1.806891e-01 1.185766e-01 1.486237e-01 8.965014e-02 6.808324e-02 7.668325e-02 6.754959e-02 6.731088e-02 4.675271e-02 4.215186e-02 4.124192e-02 3.382196e-02 3.538438e-02 2.672528e-02 2.444563e-02 2.529805e-02
<GCONST> 3.888421e+01
<STATE> 4
<MEAN> 38
 3.317489e+00 1.485137e+00 4.409605e-01 1.126348e-01 3.841897e-01 -4.774839e-03 1.667387e-01 7.161110e-02 -1.818811e-02 1.996610e-01 -6.386863e-02 1.508331e-01 2.577239e-01 8.366771e-02 1.335066e-01 5.750805e-02 1.837095e-01 2.359538e-01 2.214357e-01 3.660504e-01 1.742019e-01 6.204073e-02 2.052585e-02 5.799163e-02 3.234165e-02 4.265874e-02 2.614353e-02 -2.148394e-04 7.728147e-04 -2.793531e-02 -8.058421e-03 1.527494e-03 -1.180295e-02 -3.971541e-03 -1.079732e-02 3.309821e-03 1.437550e-02 1.595967e-02
<VARIANCE> 38
 4.701646e+01 1.145839e+01 4.385527e+00 5.094965e+00 4.168825e+00 3.719178e+00 2.699759e+00 2.071686e+00 2.073500e+00 2.467319e+00 2.004489e+00 1.722131e+00 1.389505e+00 1.172841e+00 1.174045e+00 9.543596e-01 8.968825e-01 7.537029e-01 7.325833e-01 1.388569e+00 3.118319e-01 1.330220e-01 2.032064e-01 1.117821e-01 1.294412e-01 8.010392e-02 6.351183e-02 8.086018e-02 8.171831e-02 8.083054e-02 5.661151e-02 5.057527e-02 4.914985e-02 3.626528e-02 4.110110e-02 2.966262e-02 2.847222e-02 3.124609e-02
<GCONST> 3.904914e+01
<TRANSP> 5
 0.000000e+00 1.000000e+00 0.000000e+00 0.000000e+00 0.000000e+00
 0.000000e+00 9.309425e-01 6.905740e-02 0.000000e+00 0.000000e+00
 0.000000e+00 0.000000e+00 9.006366e-01 9.936346e-02 0.000000e+00
 0.000000e+00 0.000000e+00 0.000000e+00 9.405144e-01 5.948562e-02
 0.000000e+00 0.000000e+00 0.000000e+00 0.000000e+00 0.000000e+00
<ENDHMM>
~h "four"
<BEGINHMM>
<NUMSTATES> 5
<STATE> 2
<MEAN> 38
 -4.093154e+00 1.532103e-01 3.327229e-01 -1.538520e+00 8.580897e-01 -8.554626e-01 2.511610e-01 1.257513e-01 -6.125553e-01 3.636208e-01 -7.258927e-01 9.796391e-02 -2.781943e-01 -7.056906e-01 4.756577e-02 -6.713553e-01 5.845657e-02 -2.009833e-01 -3.448949e-01 -7.660491e-01 -3.735884e-01 -2.039443e-01 -2.533079e-01 -1.826492e-01 -3.564506e-01 -2.844324e-01 -1.823999e-01 -1.688195e-01 -9.512410e-02 -1.210512e-01 -8.024095e-02 -6.640442e-02 -4.378247e-02 -1.893853e-03 -2.872945e-02 1.099013e-02 -1.282831e-02 -2.228965e-02
<VARIANCE> 38
 7.221248e+01 1.406677e+01 5.901742e+00 9.322787e+00 4.996437e+00 1.152414e+01 5.764374e+00 3.480699e+00 3.575373e+00 1.989186e+00 2.666007e+00 1.454219e+00 1.177735e+00 1.201079e+00 9.320267e-01 9.712657e-01 7.232431e-01 6.149218e-01 6.617540e-01 4.154418e+00 6.843283e-01 3.147710e-01 5.974978e-01 2.452447e-01 6.775734e-01 3.187641e-01 2.057662e-01 2.408031e-01 9.271024e-02 1.777199e-01 7.466808e-02 7.045882e-02 7.884640e-02 4.154238e-02 6.147717e-02 3.341772e-02 3.294926e-02 3.677761e-02
<GCONST> 5.561668e+01
<STATE> 3
<MEAN> 38
 4.538514e+00 4.217889e+00 2.669652e+00 1.190571e+00 2.388890e+00 2.715209e+00 2.967895e+00 2.001896e+00 1.021304e+00 1.141672e+00 7.946743e-01 1.016628e+00 6.834537e-01 1.959836e-01 3.210486e-01 -5.591642e-03 7.370572e-02 3.622723e-02 3.376407e-02 -2.310842e-01 -1.638281e-01 -9.851931e-02 -6.360216e-02 -2.510757e-02 -1.753002e-02 3.021785e-02 4.032558e-02 5.227201e-02 4.092768e-02 -5.292689e-03 5.875127e-03 -2.593703e-02 -4.430211e-02 -2.529500e-02 -3.271141e-02 -3.564835e-03 -2.672197e-05 -8.944584e-03
<VARIANCE> 38
 4.169862e+01 1.209075e+01 6.571120e+00 6.729172e+00 5.015531e+00 7.405624e+00 5.665031e+00 6.180476e+00 4.466218e+00 2.598414e+00 2.780081e+00 2.025047e+00 1.649107e+00 1.672966e+00 1.515984e+00 1.421815e+00 1.226844e+00 9.569619e-01 7.588229e-01 1.847098e+00 4.308450e-01 2.360802e-01 2.557229e-01 1.649417e-01 2.861525e-01 2.381565e-01 2.215245e-01 1.969709e-01 9.955275e-02 1.211773e-01 7.514088e-02 6.532446e-02 6.578834e-02 5.164092e-02 5.916053e-02 4.367299e-02 3.903512e-02 3.348437e-02
<GCONST> 5.419529e+01
<STATE> 4
<MEAN> 38
 5.343875e+00 4.471507e+00 2.774087e+00 1.768026e+00 1.691681e+00 1.730890e+00 1.067851e+00 2.642563e-01 -1.915092e-01 -1.164983e-01 1.145323e-01 1.571009e-01 3.439545e-01 3.723285e-01 3.305269e-01 3.134277e-01 1.016604e-01 1.243402e-01 2.005199e-01 2.225005e-01 1.882890e-01 1.246848e-01 6.641842e-02 1.300421e-01 1.713525e-01 1.807218e-01 1.291528e-01 7.997146e-02 7.484630e-02 5.417693e-02 5.517154e-02 3.430630e-02 1.010402e-03 -3.908040e-03 -1.798086e-02 -1.914062e-02 -1.762809e-02 -1.138911e-02
<VARIANCE> 38
 2.281036e+01 1.264063e+01 7.157707e+00 6.031260e+00 6.217629e+00 5.185266e+00 5.520055e+00 5.592510e+00 4.120575e+00 2.889419e+00 2.311681e+00 2.070145e+00 1.516528e+00 1.365860e+00 1.471601e+00 1.322892e+00 1.261471e+00 9.894418e-01 8.193764e-01 7.927204e-01 4.943741e-01 2.581311e-01 2.028042e-01 2.093549e-01 1.592167e-01 1.427200e-01 1.469280e-01 1.386904e-01 9.101577e-02 8.663434e-02 6.996254e-02 5.725034e-02 5.589946e-02 5.799573e-02 5.177087e-02 4.732474e-02 4.139042e-02 3.567158e-02
<GCONST> 4.987892e+01
<TRANSP> 5
 0.000000e+00 1.000000e+00 0.000000e+00 0.000000e+00 0.000000e+00
 0.000000e+00 9.188204e-01 8.117959e-02 0.000000e+00 0.000000e+00
 0.000000e+00 0.000000e+00 9.052731e-01 9.472685e-02 0.000000e+00
 0.000000e+00 0.000000e+00 0.000000e+00 9.357689e-01 6.423108e-02
 0.000000e+00 0.000000e+00 0.000000e+00 0.000000e+00 0.000000e+00
<ENDHMM>
~h "zero"
<BEGINHMM>
<NUMSTATES> 5
<STATE> 2
<MEAN> 38
 -2.677863e-09 -8.750526e-08 -1.837286e-08 -1.377954e-07 -6.019516e-08 5.452531e-08 -2.743094e-08 -1.345658e-07 -5.862704e-08 5.558200e-09 -7.760809e-08 -7.311739e-08 -5.190492e-08 -2.412825e-08 -4.690163e-09 2.764782e-08 -2.262112e-08 -3.763905e-09 6.537150e-09 -2.583067e-04 -5.050806e-04 -9.917312e-04 -1.893283e-03 -1.064957e-03 -1.446192e-03 -9.808274e-04 -9.695808e-04 -1.123964e-03 -7.458905e-04 -1.056959e-03 -6.245463e-04 -5.614760e-04 -5.566383e-04 -2.873854e-04 -5.964976e-04 -4.391809e-04 -6.486351e-04 -7.416122e-04
<VARIANCE> 38
 6.382163e+01 1.753741e+01 6.283180e+00 7.247866e+00 6.023103e+00 4.670284e+00 3.942792e+00 3.064118e+00 2.725667e+00 3.248625e+00 2.569027e+00 2.312149e+00 1.622730e+00 1.290844e+00 1.573346e+00 1.140445e+00 1.241779e+00 9.049628e-01 8.315350e-01 2.083264e+00 4.547198e-01 1.931234e-01 2.614486e-01 1.629155e-01 1.602948e-01 1.098788e-01 9.185041e-02 1.084542e-01 9.477346e-02 1.021972e-01 6.968507e-02 5.287778e-02 4.928543e-02 4.486140e-02 4.569504e-02 3.694603e-02 3.210644e-02 3.195568e-02
<GCONST> 4.860181e+01
<STATE> 3
<MEAN> 38
 -2.677863e-09 -8.750526e-08 -1.837286e-08 -1.377954e-07 -6.019516e-08 5.452531e-08 -2.743094e-08 -1.345658e-07 -5.862704e-08 5.558200e-09 -7.760809e-08 -7.311739e-08 -5.190492e-08 -2.412825e-08 -4.690163e-09 2.764782e-08 -2.262112e-08 -3.763905e-09 6.537150e-09 -2.583067e-04 -5.050806e-04 -9.917312e-04 -1.893283e-03 -1.064957e-03 -1.446192e-03 -9.808274e-04 -9.695808e-04 -1.123964e-03 -7.458905e-04 -1.056959e-03 -6.245463e-04 -5.614760e-04 -5.566383e-04 -2.873854e-04 -5.964976e-04 -4.391809e-04 -6.486351e-04 -7.416122e-04
<VARIANCE> 38
 6.382163e+01 1.753741e+01 6.283180e+00 7.247866e+00 6.023103e+00 4.670284e+00 3.942792e+00 3.064118e+00 2.725667e+00 3.248625e+00 2.569027e+00 2.312149e+00 1.622730e+00 1.290844e+00 1.573346e+00 1.140445e+00 1.241779e+00 9.049628e-01 8.315350e-01 2.083264e+00 4.547198e-01 1.931234e-01 2.614486e-01 1.629155e-01 1.602948e-01 1.098788e-01 9.185041e-02 1.084542e-01 9.477346e-02 1.021972e-01 6.968507e-02 5.287778e-02 4.928543e-02 4.486140e-02 4.569504e-02 3.694603e-02 3.210644e-02 3.195568e-02
<GCONST> 4.860181e+01
<STATE> 4
<MEAN> 38
 -2.677863e-09 -8.750526e-08 -1.837286e-08 -1.377954e-07 -6.019516e-08 5.452531e-08 -2.743094e-08 -1.345658e-07 -5.862704e-08 5.558200e-09 -7.760809e-08 -7.311739e-08 -5.190492e-08 -2.412825e-08 -4.690163e-09 2.764782e-08 -2.262112e-08 -3.763905e-09 6.537150e-09 -2.583067e-04 -5.050806e-04 -9.917312e-04 -1.893283e-03 -1.064957e-03 -1.446192e-03 -9.808274e-04 -9.695808e-04 -1.123964e-03 -7.458905e-04 -1.056959e-03 -6.245463e-04 -5.614760e-04 -5.566383e-04 -2.873854e-04 -5.964976e-04 -4.391809e-04 -6.486351e-04 -7.416122e-04
<VARIANCE> 38
 6.382163e+01 1.753741e+01 6.283180e+00 7.247866e+00 6.023103e+00 4.670284e+00 3.942792e+00 3.064118e+00 2.725667e+00 3.248625e+00 2.569027e+00 2.312149e+00 1.622730e+00 1.290844e+00 1.573346e+00 1.140445e+00 1.241779e+00 9.049628e-01 8.315350e-01 2.083264e+00 4.547198e-01 1.931234e-01 2.614486e-01 1.629155e-01 1.602948e-01 1.098788e-01 9.185041e-02 1.084542e-01 9.477346e-02 1.021972e-01 6.968507e-02 5.287778e-02 4.928543e-02 4.486140e-02 4.569504e-02 3.694603e-02 3.210644e-02 3.195568e-02
<GCONST> 4.860181e+01
<TRANSP> 5
 0.000000e+00 1.000000e+00 0.000000e+00 0.000000e+00 0.000000e+00
 0.000000e+00 5.000000e-01 5.000000e-01 0.000000e+00 0.000000e+00
 0.000000e+00 0.000000e+00 5.000000e-01 5.000000e-01 0.000000e+00
 0.000000e+00 0.000000e+00 0.000000e+00 5.000000e-01 5.000000e-01
 0.000000e+00 0.000000e+00 0.000000e+00 0.000000e+00 0.000000e+00
<ENDHMM>
