~o
<STREAMINFO> 1 38
<VECSIZE> 38<NULLD><USER><DIAGC>
~h "eight"
<BEGINHMM>
<NUMSTATES> 5
<STATE> 2
<MEAN> 38
 -1.566181e+00 -2.232902e+00 -1.265297e+00 6.305925e-01 -1.597831e+00 -4.264928e-01 -1.170216e+00 -9.344787e-01 -1.953759e-01 -1.091237e+00 -3.546129e-01 -9.835392e-01 -7.125326e-01 -2.729556e-01 -8.212286e-01 -2.876747e-01 -7.917848e-01 -5.675691e-01 -4.295714e-01 -2.404958e-02 2.576790e-02 6.671539e-02 6.978148e-02 -7.028765e-03 2.407042e-03 -2.435445e-02 -2.036878e-02 -1.660373e-02 -4.230538e-02 -1.626157e-02 -2.215001e-02 -7.273478e-03 7.590937e-03 -4.251854e-03 1.016411e-02 -9.793516e-04 3.020764e-03 6.301686e-03
<VARIANCE> 38
 1.973498e+01 7.820303e+00 3.352830e+00 3.724080e+00 3.844104e+00 1.861723e+00 2.491514e+00 1.795830e+00 1.164197e+00 2.560800e+00 1.096642e+00 1.575171e+00 9.754085e-01 5.700859e-01 9.571683e-01 4.669828e-01 7.242746e-01 4.618775e-01 3.886230e-01 5.865115e-01 2.189177e-01 1.075374e-01 1.339822e-01 1.163281e-01 6.213891e-02 7.256957e-02 5.700161e-02 4.089653e-02 7.757222e-02 3.839995e-02 5.302716e-02 3.144415e-02 2.017267e-02 3.190328e-02 1.899753e-02 2.617584e-02 1.772637e-02 1.514007e-02
<GCONST> 2.377855e+01
<STATE> 3
<MEAN> 38
 2.513039e+00 9.912467e-01 -1.277068e+00 -1.940048e+00 8.455512e-01 6.479576e-01 1.562182e+00 1.449256e+00 1.100740e+00 1.880009e+00 1.128029e+00 1.359706e+00 8.870616e-01 3.817413e-01 7.575884e-01 2.868590e-01 6.434791e-01 4.829892e-01 3.084331e-01 1.030364e-01 5.041674e-02 -2.447523e-02 -7.881771e-02 2.821263e-02 -7.276460e-03 2.466061e-02 8.535306e-03 -1.378463e-02 2.944849e-02 -5.572096e-03 1.697206e-02 7.405107e-03 -1.103131e-02 1.099351e-02 -1.225181e-02 5.217147e-03 -2.711422e-03 -9.023102e-03
<VARIANCE> 38
 2.638544e+01 1.013027e+01 7.823908e+00 8.514374e+00 5.481415e+00 3.849374e+00 4.140017e+00 3.525330e+00 2.951891e+00 3.814728e+00 2.309731e+00 2.425580e+00 1.904032e+00 1.428920e+00 1.493980e+00 1.072832e+00 1.147799e+00 8.151482e-01 7.037867e-01 1.050494e+00 3.696438e-01 2.593388e-01 4.083316e-01 2.241058e-01 1.464093e-01 2.009155e-01 1.650760e-01 1.135000e-01 1.986720e-01 1.032414e-01 1.245384e-01 8.055440e-02 5.067195e-02 6.971575e-02 4.457305e-02 5.821253e-02 4.084538e-02 3.212005e-02
<GCONST> 5.164050e+01
<STATE> 4
<MEAN> 38
 -1.354736e+00 -1.886460e+00 -4.771094e-01 1.356532e+00 -1.325720e+00 -2.368159e-01 -1.191479e+00 -9.573876e-01 -1.536258e-01 -1.120765e+00 -2.320216e-01 -8.498017e-01 -6.019177e-01 -1.609464e-01 -7.579960e-01 -1.389409e-01 -6.269462e-01 -3.971739e-01 -2.444334e-01 4.555827e-02 -3.807647e-04 -1.892487e-02 1.080346e-02 -4.521380e-03 2.059883e-02 1.169352e-02 1.441724e-02 2.624702e-02 1.779170e-02 2.997069e-02 1.718190e-02 1.483689e-02 1.663572e-02 6.998602e-03 1.330151e-02 5.838028e-03 9.115886e-03 9.993959e-03
<VARIANCE> 38
 1.984314e+01 8.069425e+00 3.491036e+00 3.200338e+00 3.412083e+00 2.135061e+00 1.922462e+00 1.487759e+00 1.147668e+00 1.547639e+00 9.620825e-01 1.125932e+00 7.749205e-01 6.224874e-01 7.530719e-01 5.145931e-01 6.006320e-01 4.450074e-01 4.199688e-01 6.542112e-01 2.044488e-01 9.668714e-02 1.249243e-01 9.952973e-02 6.518721e-02 5.565786e-02 4.715962e-02 4.466904e-02 6.157572e-02 4.298811e-02 4.697748e-02 3.001229e-02 2.480531e-02 2.769792e-02 2.214271e-02 2.383569e-02 1.770842e-02 1.629820e-02
<GCONST> 2.115985e+01
<TRANSP> 5
 0.000000e+00 1.000000e+00 0.000000e+00 0.000000e+00 0.000000e+00
 0.000000e+00 9.213881e-01 7.861187e-02 0.000000e+00 0.000000e+00
 0.000000e+00 0.000000e+00 9.596164e-01 4.038358e-02 0.000000e+00
 0.000000e+00 0.000000e+00 0.000000e+00 9.434814e-01 5.651862e-02
 0.000000e+00 0.000000e+00 0.000000e+00 0.000000e+00 0.000000e+00
<ENDHMM>
~h "seven"
<BEGINHMM>
<NUMSTATES> 5
<STATE> 2
<MEAN> 38
 -8.295499e+00 -4.119458e+00 -7.968822e-01 -7.219071e-01 -5.216494e-01 -1.301865e+00 -1.112137e+00 -8.701307e-01 -9.332668e-01 -7.497501e-01 -9.926482e-01 -7.303206e-01 -7.420570e-01 -6.862741e-01 -4.927784e-01 -7.291094e-01 -5.403405e-01 -6.808457e-01 -7.005705e-01 5.780543e-01 1.319575e-01 -5.240212e-02 1.335726e-01 -9.951045e-02 9.609826e-02 4.492729e-03 3.147689e-03 7.922884e-02 -2.809399e-02 7.284214e-02 -7.628018e-03 1.907944e-02 5.480739e-02 -2.039500e-02 5.171870e-02 -1.680201e-02 1.548027e-02 3.147335e-02
<VARIANCE> 38
 9.340628e+01 1.191075e+01 5.683641e+00 7.899184e+00 7.346998e+00 3.941024e+00 1.535251e+00 1.320101e+00 2.192725e+00 1.958564e+00 1.687695e+00 1.173563e+00 6.744098e-01 9.492196e-01 1.101462e+00 8.931317e-01 8.299482e-01 4.403133e-01 5.068595e-01 2.889400e+00 4.911503e-01 1.549025e-01 2.150161e-01 1.553257e-01 1.158328e-01 5.396222e-02 4.676822e-02 8.016115e-02 5.308061e-02 7.681142e-02 4.020404e-02 3.101083e-02 3.743131e-02 3.065228e-02 3.863728e-02 2.553111e-02 2.287984e-02 2.560850e-02
<GCONST> 3.582327e+01
<STATE> 3
<MEAN> 38
 -1.499625e+00 9.568517e-01 1.033658e+00 -1.127638e+00 1.543980e+00 -4.328536e-01 6.089144e-01 5.571421e-01 -3.286842e-01 9.118361e-01 -9.743284e-02 6.846817e-01 3.877921e-01 -6.439815e-02 7.144611e-01 1.062566e-02 7.226593e-01 4.032413e-01 1.611703e-01 -7.226603e-01 -2.437710e-01 1.257863e-02 -8.247419e-02 3.178077e-02 -9.452163e-02 -4.576778e-02 -3.170357e-02 -6.619036e-02 -9.025780e-03 -6.564764e-02 -1.599236e-02 -3.496074e-02 -5.093750e-02 -7.866686e-03 -5.470157e-02 -1.430443e-02 -3.636660e-02 -4.190410e-02
<VARIANCE> 38
 1.458733e+02 2.197358e+01 6.089569e+00 7.395771e+00 4.265471e+00 6.739205e+00 2.805494e+00 2.332187e+00 3.664088e+00 2.094166e+00 3.314985e+00 1.502519e+00 1.320437e+00 1.623159e+00 1.136421e+00 1.787561e+00 9.897755e-01 1.098653e+00 1.311873e+00 6.942294e+00 1.007233e+00 2.821677e-01 3.811136e-01 2.152900e-01 3.215636e-01 1.407315e-01 1.211440e-01 2.048569e-01 1.029232e-01 1.857437e-01 7.223303e-02 6.637540e-02 8.190531e-02 5.363674e-02 9.821512e-02 4.847042e-02 5.836475e-02 6.636651e-02
<GCONST> 5.818728e+01
<STATE> 4
<MEAN> 38
 4.351783e+00 1.208625e+00 1.439515e-01 1.126123e+00 -4.372873e-01 6.488229e-01 3.782370e-02 4.371145e-02 5.805907e-01 -1.272619e-02 5.608625e-01 3.505731e-02 1.569686e-01 3.382640e-01 -8.206356e-02 4.053221e-01 3.933625e-02 2.723551e-01 3.593732e-01 1.340972e-01 7.398456e-02 2.301082e-02 -3.050232e-02 4.025494e-02 4.272914e-03 2.769265e-02 1.984632e-02 -3.805409e-03 2.620837e-02 3.179903e-03 2.082228e-02 1.590534e-02 3.660051e-03 2.166560e-02 7.862576e-03 2.336005e-02 1.715619e-02 9.896636e-03
<VARIANCE> 38
 2.434818e+01 9.666095e+00 3.571856e+00 3.779957e+00 3.901639e+00 2.342699e+00 2.523439e+00 1.977377e+00 1.863821e+00 2.051482e+00 1.786293e+00 1.510328e+00 1.081073e+00 8.180053e-01 1.071189e+00 8.404077e-01 9.804543e-01 8.289840e-01 7.762899e-01 6.504533e-01 2.020193e-01 1.081060e-01 1.432273e-01 1.046912e-01 8.352736e-02 6.685179e-02 6.077573e-02 7.548311e-02 6.331030e-02 6.925789e-02 4.644904e-02 3.373954e-02 3.002521e-02 3.254160e-02 3.197239e-02 3.006433e-02 2.835414e-02 3.046481e-02
<GCONST> 3.152143e+01
<TRANSP> 5
 0.000000e+00 1.000000e+00 0.000000e+00 0.000000e+00 0.000000e+00
 0.000000e+00 9.459268e-01 5.407318e-02 0.000000e+00 0.000000e+00
 0.000000e+00 0.000000e+00 9.565299e-01 4.347014e-02 0.000000e+00
 0.000000e+00 0.000000e+00 0.000000e+00 9.627108e-01 3.728919e-02
 0.000000e+00 0.000000e+00 0.000000e+00 0.000000e+00 0.000000e+00
<ENDHMM>
~h "three"
<BEGINHMM>
<NUMSTATES> 5
<STATE> 2
<MEAN> 38
 -4.395831e+00 -3.112086e+00 -8.873683e-01 3.170010e-01 -1.429190e+00 -9.547225e-01 -1.290616e+00 -9.527947e-01 -4.399647e-01 -1.072083e+00 -6.785521e-01 -9.556685e-01 -8.286129e-01 -5.408863e-01 -8.110445e-01 -4.811654e-01 -6.778887e-01 -5.779507e-01 -5.236148e-01 2.589380e-02 -4.689712e-02 -3.310847e-02 6.680737e-02 -4.893045e-02 4.193743e-02 -1.695790e-02 -2.097983e-02 1.717964e-02 -3.476894e-02 1.260297e-02 -3.071292e-02 -1.694839e-02 3.048571e-03 -3.356645e-02 1.519942e-05 -3.526607e-02 -1.947426e-02 -8.717767e-03
<VARIANCE> 38
 2.763026e+01 7.316542e+00 3.927312e+00 4.636099e+00 4.057822e+00 2.426551e+00 1.607358e+00 1.437204e+00 1.146800e+00 1.772141e+00 9.764106e-01 1.222500e+00 7.512342e-01 6.865778e-01 9.317566e-01 5.938082e-01 7.859021e-01 4.883144e-01 4.376529e-01 1.474357e+00 4.256806e-01 1.659040e-01 2.041955e-01 1.515443e-01 9.703164e-02 6.836548e-02 5.887884e-02 4.939622e-02 7.457287e-02 5.265674e-02 5.603440e-02 3.848358e-02 3.634894e-02 4.101832e-02 3.317069e-02 3.438823e-02 2.630726e-02 2.510556e-02
<GCONST> 3.014301e+01
<STATE> 3
<MEAN> 38
 2.829053e+00 2.358336e+00 2.013185e-01 -9.734592e-01 1.060143e+00 3.090984e-01 9.166688e-01 7.559816e-01 2.450213e-01 1.064324e+00 6.589621e-01 1.102685e+00 9.964918e-01 7.105107e-01 1.033198e+00 5.770431e-01 8.166381e-01 6.366780e-01 5.446874e-01 -6.526820e-02 1.414661e-03 3.497389e-02 -3.262219e-03 6.477276e-03 -3.479983e-02 -2.246916e-02 -1.840907e-02 -3.039649e-02 -1.948646e-02 -3.257843e-02 -1.437275e-02 -9.873603e-03 -9.893715e-03 1.652059e-03 -7.859334e-03 3.079990e-03 -1.055786e-03 -4.539147e-03
<VARIANCE> 38
 5.683213e+01 2.037972e+01 9.918693e+00 8.865179e+00 5.133987e+00 4.412783e+00 3.687229e+00 3.721504e+00 3.432666e+00 4.125385e+00 3.304574e+00 2.691341e+00 2.102809e+00 1.987491e+00 1.617570e+00 1.383022e+00 1.117944e+00 9.429072e-01 8.577974e-01 2.662168e+00 9.016184e-01 3.948116e-01 4.574181e-01 2.341149e-01 2.138235e-01 1.637307e-01 1.576932e-01 1.524776e-01 1.789938e-01 1.464726e-01 1.243061e-01 9.966188e-02 9.268918e-02 7.605410e-02 7.193860e-02 5.462554e-02 4.912959e-02 4.574031e-02
<GCONST> 6.008818e+01
<STATE> 4
<MEAN> 38
 -3.388433e-01 -1.513296e+00 -6.168808e-01 1.301049e+00 -1.189108e+00 2.097006e-01 -6.316943e-01 -4.596492e-01 3.370472e-01 -6.979249e-01 6.202786e-02 -6.976634e-01 -5.604637e-01 -1.829595e-01 -7.859083e-01 -1.649706e-01 -6.616806e-01 -3.840205e-01 -2.199927e-01 1.727316e-01 5.859106e-02 -3.028739e-02 -3.030995e-02 1.224971e-02 3.884801e-02 5.543428e-02 5.306784e-02 4.996541e-02 5.610253e-02 5.430682e-02 4.831557e-02 3.242093e-02 1.899612e-02 1.837023e-02 1.775810e-02 1.979101e-02 2.027971e-02 1.870594e-02
<VARIANCE> 38
 1.946002e+01 8.299957e+00 3.729072e+00 3.639035e+00 3.362753e+00 2.248693e+00 2.752292e+00 2.163117e+00 1.543845e+00 2.102269e+00 1.354949e+00 1.460292e+00 9.384046e-01 6.806567e-01 9.052408e-01 5.876456e-01 7.301921e-01 5.486528e-01 4.749170e-01 4.513499e-01 1.655542e-01 9.191602e-02 1.040093e-01 7.941105e-02 6.589711e-02 7.382525e-02 6.286328e-02 5.246605e-02 5.818049e-02 4.647563e-02 4.434358e-02 3.402001e-02 2.885314e-02 2.960463e-02 2.474029e-02 2.529350e-02 2.090465e-02 1.845968e-02
<GCONST> 2.493100e+01
<TRANSP> 5
 0.000000e+00 1.000000e+00 0.000000e+00 0.000000e+00 0.000000e+00
 0.000000e+00 9.298429e-01 7.015703e-02 0.000000e+00 0.000000e+00
 0.000000e+00 0.000000e+00 9.725914e-01 2.740860e-02 0.000000e+00
 0.000000e+00 0.000000e+00 0.000000e+00 9.225357e-01 7.746436e-02
 0.000000e+00 0.000000e+00 0.000000e+00 0.000000e+00 0.000000e+00
<ENDHMM>
~h "one"
<BEGINHMM>
<NUMSTATES> 5
<STATE> 2
<MEAN> 38
 -2.250778e+00 -2.374837e+00 -1.120109e+00 7.580773e-01 -1.460246e+00 -4.143101e-01 -1.106120e+00 -9.115903e-01 -2.746291e-01 -1.176777e+00 -5.141729e-01 -1.109219e+00 -8.153769e-01 -3.684600e-01 -8.921065e-01 -3.848609e-01 -8.361233e-01 -6.006820e-01 -4.307408e-01 -3.663073e-02 -3.674779e-02 -4.106355e-02 -5.254622e-02 -3.709671e-02 -4.550206e-02 -4.155106e-02 -4.172906e-02 -3.868473e-02 -2.500402e-02 -2.654158e-02 -1.675878e-02 -1.101307e-02 -6.825834e-03 1.200628e-03 -1.387937e-03 8.699916e-04 -3.486271e-03 -5.957812e-03
<VARIANCE> 38
 2.420247e+01 1.089604e+01 4.318338e+00 3.255954e+00 4.846678e+00 3.040841e+00 3.028110e+00 2.120022e+00 1.380808e+00 1.734945e+00 1.193083e+00 1.262370e+00 8.653796e-01 6.284757e-01 8.158689e-01 5.384723e-01 6.536205e-01 4.904035e-01 4.666316e-01 5.758413e-01 2.624901e-01 1.289620e-01 1.184929e-01 1.241854e-01 8.605547e-02 8.255687e-02 6.640767e-02 5.392623e-02 6.050959e-02 5.199494e-02 5.128322e-02 3.593285e-02 2.704686e-02 2.958713e-02 2.304544e-02 2.620627e-02 2.148526e-02 1.887050e-02
<GCONST> 2.741203e+01
<STATE> 3
<MEAN> 38
 4.613816e+00 3.158485e+00 1.524094e+00 5.744947e-01 1.326487e+00 1.421844e+00 1.477268e+00 1.199386e+00 6.805511e-01 5.961444e-01 3.988320e-01 4.674335e-01 4.030735e-01 2.743211e-01 4.011415e-01 3.206435e-01 3.203267e-01 3.066275e-01 3.310067e-01 -3.843927e-02 -1.559013e-03 8.753670e-03 1.948230e-02 2.104956e-02 1.666848e-02 1.913918e-02 8.916591e-03 -3.853939e-03 -8.858051e-03 -1.543889e-02 -1.321033e-02 -6.395277e-03 -5.276055e-03 -7.923419e-03 -1.324002e-02 -1.520753e-02 -1.338349e-02 -1.037028e-02
<VARIANCE> 38
 2.481572e+01 8.252728e+00 4.459815e+00 6.815691e+00 4.908565e+00 4.410469e+00 3.932667e+00 3.349013e+00 3.527861e+00 2.583185e+00 3.603808e+00 2.154310e+00 1.508822e+00 1.250599e+00 1.290395e+00 1.258721e+00 1.305392e+00 1.029533e+00 9.045693e-01 9.917513e-01 3.180879e-01 1.809004e-01 2.542917e-01 1.823139e-01 1.596989e-01 1.466054e-01 1.226102e-01 1.513576e-01 1.111304e-01 1.681321e-01 9.751438e-02 6.851540e-02 5.346305e-02 5.264014e-02 5.175082e-02 4.951131e-02 4.473612e-02 4.145502e-02
<GCONST> 4.900842e+01
<STATE> 4
<MEAN> 38
 -1.499838e-01 -1.276575e+00 -5.068696e-01 1.107667e+00 -1.271212e+00 -1.708559e-01 -9.469448e-01 -6.518228e-01 2.266377e-01 -5.238751e-01 3.132813e-01 -3.252597e-01 -2.145550e-01 1.042725e-01 -4.468001e-01 1.548654e-01 -2.572751e-01 -5.131146e-02 3.234321e-02 2.626218e-01 1.184973e-01 4.836064e-02 3.259980e-02 1.150300e-02 3.999674e-02 2.269865e-02 2.377926e-02 3.911856e-02 3.550722e-02 5.280342e-02 3.977575e-02 2.885977e-02 2.237650e-02 1.522618e-02 3.068273e-02 2.885636e-02 3.184145e-02 3.016419e-02
<VARIANCE> 38
 2.111076e+01 7.717531e+00 2.994130e+00 2.842562e+00 3.209999e+00 2.098658e+00 2.071295e+00 1.758557e+00 1.574155e+00 1.774840e+00 1.650775e+00 1.434266e+00 9.166164e-01 6.820363e-01 8.136102e-01 7.001584e-01 8.257843e-01 6.612630e-01 5.988154e-01 4.608233e-01 1.646766e-01 8.051669e-02 9.456640e-02 7.732531e-02 6.512623e-02 5.246969e-02 4.652401e-02 5.402164e-02 4.953265e-02 5.611695e-02 4.026402e-02 2.812003e-02 2.256864e-02 2.492603e-02 2.411663e-02 2.501031e-02 2.136607e-02 2.023572e-02
<GCONST> 2.302051e+01
<TRANSP> 5
 0.000000e+00 1.000000e+00 0.000000e+00 0.000000e+00 0.000000e+00
 0.000000e+00 9.214915e-01 7.850850e-02 0.000000e+00 0.000000e+00
 0.000000e+00 0.000000e+00 9.714107e-01 2.858931e-02 0.000000e+00
 0.000000e+00 0.000000e+00 0.000000e+00 9.275796e-01 7.242038e-02
 0.000000e+00 0.000000e+00 0.000000e+00 0.000000e+00 0.000000e+00
<ENDHMM>
~h "six"
<BEGINHMM>
<NUMSTATES> 5
<STATE> 2
<MEAN> 38
 -1.972999e+00 -2.524883e+00 -1.253294e+00 6.426011e-01 -1.433247e+00 -2.788464e-01 -1.018832e+00 -7.679083e-01 -8.115694e-02 -1.010334e+00 -2.940755e-01 -8.745804e-01 -6.543450e-01 -2.504280e-01 -7.618460e-01 -2.213508e-01 -6.823617e-01 -4.981107e-01 -3.706678e-01 6.904534e-01 2.265667e-01 -3.426598e-02 1.360787e-01 -9.042937e-02 1.061402e-01 1.573010e-02 1.180002e-02 8.803344e-02 -1.588960e-02 8.207344e-02 -3.197641e-03 2.281469e-02 5.724689e-02 -1.599591e-02 5.830420e-02 -1.161773e-02 2.246737e-02 3.905980e-02
<VARIANCE> 38
 4.671243e+01 9.537744e+00 3.882876e+00 4.547937e+00 4.660635e+00 2.464674e+00 1.495073e+00 1.249425e+00 1.550619e+00 1.718248e+00 1.254413e+00 1.163986e+00 7.190316e-01 7.383069e-01 8.793218e-01 6.632937e-01 7.228485e-01 4.505880e-01 4.500708e-01 2.014357e+00 3.842369e-01 1.577058e-01 1.955471e-01 1.570432e-01 1.030631e-01 5.310223e-02 4.251272e-02 6.551457e-02 5.559877e-02 5.914735e-02 4.044759e-02 2.710167e-02 2.936530e-02 3.023822e-02 2.924558e-02 2.522420e-02 1.757850e-02 1.878301e-02
<GCONST> 2.867643e+01
<STATE> 3
<MEAN> 38
 -6.937162e+00 -1.674640e+00 5.827840e-01 -1.826374e+00 1.046973e+00 -1.430592e+00 -1.182661e-01 -1.488880e-02 -8.879538e-01 6.657122e-01 -4.936807e-01 5.588233e-01 2.082474e-01 -2.893721e-01 5.988877e-01 -3.565189e-01 5.027192e-01 3.070816e-02 -2.436268e-01 -1.098411e-01 -2.827153e-02 1.212439e-02 -1.395121e-02 1.731428e-02 -8.996919e-03 4.083179e-03 5.724140e-03 -4.350762e-03 9.457570e-03 -5.512090e-03 3.915498e-03 -1.111194e-03 -5.350945e-03 4.695948e-03 -6.537355e-03 2.913544e-03 -1.500945e-03 -2.716456e-03
<VARIANCE> 38
 1.547731e+02 2.251864e+01 7.310527e+00 7.983855e+00 5.294456e+00 6.794923e+00 2.927292e+00 2.579168e+00 4.004142e+00 2.744402e+00 4.209774e+00 1.979288e+00 1.786991e+00 2.154301e+00 1.176059e+00 1.845652e+00 9.563496e-01 9.289898e-01 1.092884e+00 7.005948e+00 9.179963e-01 3.097577e-01 4.564086e-01 2.477311e-01 3.109284e-01 1.304639e-01 1.135647e-01 2.049536e-01 1.432090e-01 2.053231e-01 1.065238e-01 9.033844e-02 1.028866e-01 6.444113e-02 9.334745e-02 5.117416e-02 4.681152e-02 5.367453e-02
<GCONST> 6.130486e+01
<STATE> 4
<MEAN> 38
 1.782079e-01 -1.220281e+00 -6.498475e-01 1.129973e+00 -1.072148e+00 1.454096e-01 -7.361006e-01 -6.469795e-01 2.596785e-02 -9.104983e-01 -1.482038e-01 -7.441294e-01 -4.880427e-01 -1.053303e-01 -6.557645e-01 -6.361558e-02 -5.402153e-01 -2.882313e-01 -1.397645e-01 -1.552074e-01 -5.929004e-02 4.507566e-03 -4.221750e-02 1.933134e-02 -3.248025e-02 -8.979158e-03 -1.005839e-02 -2.710860e-02 6.585372e-03 -1.588225e-02 1.119008e-02 3.633672e-03 -8.353595e-03 1.138091e-02 -7.789772e-03 1.127774e-02 -3.781957e-04 -7.669115e-03
<VARIANCE> 38
 4.479079e+01 1.011134e+01 3.775523e+00 5.129905e+00 3.804140e+00 3.022919e+00 1.726798e+00 1.380704e+00 1.833815e+00 1.733064e+00 1.344891e+00 1.122252e+00 7.296040e-01 7.190515e-01 8.229395e-01 6.590212e-01 6.781936e-01 4.330345e-01 4.478907e-01 1.346941e+00 2.756796e-01 1.187255e-01 1.528125e-01 1.019185e-01 8.155911e-02 4.543993e-02 3.930433e-02 5.058113e-02 4.909254e-02 4.175979e-02 3.603063e-02 2.431747e-02 2.373491e-02 2.697046e-02 2.301266e-02 2.258737e-02 1.514251e-02 1.513729e-02
<GCONST> 2.488364e+01
<TRANSP> 5
 0.000000e+00 1.000000e+00 0.000000e+00 0.000000e+00 0.000000e+00
 0.000000e+00 9.167250e-01 8.327501e-02 0.000000e+00 0.000000e+00
 0.000000e+00 0.000000e+00 9.768754e-01 2.312466e-02 0.000000e+00
 0.000000e+00 0.000000e+00 0.000000e+00 9.477955e-01 5.220455e-02
 0.000000e+00 0.000000e+00 0.000000e+00 0.000000e+00 0.000000e+00
<ENDHMM>
~h "two"
<BEGINHMM>
<NUMSTATES> 5
<STATE> 2
<MEAN> 38
 -4.564859e+00 -3.795372e+00 -1.549873e+00 -3.520258e-02 -1.269422e+00 -8.138044e-01 -1.199767e+00 -8.343140e-01 -4.207286e-01 -9.896150e-01 -5.691775e-01 -9.049085e-01 -7.600644e-01 -4.576956e-01 -7.727266e-01 -4.955830e-01 -7.000535e-01 -6.131898e-01 -5.634714e-01 3.355524e-01 1.308155e-01 1.710919e-02 1.857073e-01 -9.183071e-02 6.455687e-02 -3.284293e-02 -3.135037e-02 3.801210e-02 -7.923936e-02 1.131851e-02 -6.900243e-02 -3.002888e-02 1.825841e-02 -4.978121e-02 2.559672e-02 -4.160573e-02 -8.871837e-03 1.193176e-02
<VARIANCE> 38
 3.588451e+01 7.840783e+00 3.352365e+00 6.196402e+00 5.390011e+00 2.141788e+00 1.690231e+00 1.416433e+00 1.267465e+00 2.139220e+00 9.798803e-01 1.484147e+00 8.217959e-01 6.482353e-01 1.110647e+00 6.033295e-01 8.344995e-01 4.322737e-01 3.863353e-01 1.944460e+00 4.171654e-01 1.500977e-01 2.972022e-01 2.607373e-01 9.470993e-02 7.410192e-02 5.737660e-02 7.271133e-02 9.855503e-02 6.208030e-02 7.499576e-02 4.249609e-02 3.500206e-02 5.473479e-02 3.609649e-02 4.108230e-02 2.318393e-02 2.218997e-02
<GCONST> 3.391214e+01
<STATE> 3
<MEAN> 38
 1.662107e+00 1.892065e+00 3.591262e-01 -1.353528e+00 1.082989e+00 3.307819e-01 1.097202e+00 7.616087e-01 2.176655e-01 1.311718e+00 6.843297e-01 1.304428e+00 1.103850e+00 6.549515e-01 1.137789e+00 5.721343e-01 9.139788e-01 6.936052e-01 5.834719e-01 -3.124930e-01 -2.015085e-01 -6.378909e-02 -1.015751e-01 7.434290e-03 -6.344374e-02 -2.651552e-02 -8.272752e-03 -2.749852e-02 1.269480e-02 -2.491777e-02 5.922621e-03 -9.636806e-03 -2.537910e-02 -2.200250e-08 -3.109977e-02 -2.381399e-03 -1.760829e-02 -2.870748e-02
<VARIANCE> 38
 5.877967e+01 1.893058e+01 6.524269e+00 7.203138e+00 5.588654e+00 4.338942e+00 3.022323e+00 2.682165e+00 2.349322e+00 3.178627e+00 2.609528e+00 2.122128e+00 1.841347e+00 1.681686e+00 1.562002e+00 1.340288e+00 1.145046e+00 9.370822e-01 9.386245e-01 2.792189e+00 8.051471e-01 2.358117e-01 2.945158e-01 2.327793e-01 1.839447e-01 1.351712e-01 1.124535e-01 1.145622e-01 1.136465e-01 1.139607e-01 8.756625e-02 8.199679e-02 7.675429e-02 6.816868e-02 6.760989e-02 5.030615e-02 4.499225e-02 4.609212e-02
<GCONST> 5.382457e+01
<STATE> 4
<MEAN> 38
 9.849843e-01 -2.349152e-01 8.166264e-02 1.750238e+00 -7.715603e-01 4.135796e-01 -4.573616e-01 -4.197056e-01 2.207504e-01 -7.255820e-01 6.614791e-02 -6.645721e-01 -4.951523e-01 -1.052662e-01 -6.603894e-01 -4.000613e-02 -5.257335e-01 -2.436544e-01 -5.907528e-02 1.964344e-01 1.407617e-01 5.132091e-02 1.640752e-02 3.992838e-02 3.695614e-02 4.087700e-02 2.381063e-02 1.385705e-02 2.895715e-02 2.730469e-02 3.414921e-02 2.947407e-02 2.081699e-02 2.543596e-02 2.144209e-02 2.414763e-02 2.495808e-02 2.672556e-02
<VARIANCE> 38
 2.078140e+01 1.030622e+01 3.827059e+00 3.406670e+00 4.113020e+00 2.415374e+00 2.612993e+00 1.902330e+00 1.290060e+00 2.061273e+00 1.301634e+00 1.490721e+00 1.079063e+00 8.230032e-01 1.084310e+00 6.629161e-01 8.385035e-01 6.179705e-01 5.701696e-01 3.840410e-01 1.819446e-01 8.941600e-02 9.913024e-02 8.791573e-02 6.635742e-02 6.236952e-02 4.965837e-02 4.088494e-02 4.653226e-02 3.912713e-02 3.906685e-02 3.188795e-02 2.725065e-02 2.969522e-02 2.368762e-02 2.478813e-02 2.030000e-02 1.883307e-02
<GCONST> 2.471565e+01
<TRANSP> 5
 0.000000e+00 1.000000e+00 0.000000e+00 0.000000e+00 0.000000e+00
 0.000000e+00 9.346830e-01 6.531703e-02 0.000000e+00 0.000000e+00
 0.000000e+00 0.000000e+00 9.615920e-01 3.840798e-02 0.000000e+00
 0.000000e+00 0.000000e+00 0.000000e+00 9.371001e-01 6.289995e-02
 0.000000e+00 0.000000e+00 0.000000e+00 0.000000e+00 0.000000e+00
<ENDHMM>
~h "nine"
<BEGINHMM>
<NUMSTATES> 5
<STATE> 2
<MEAN> 38
 -2.693185e+00 -2.789742e+00 -1.306363e+00 7.957968e-01 -1.648875e+00 -4.719688e-01 -1.215709e+00 -9.505445e-01 -2.157562e-01 -1.177359e+00 -3.973839e-01 -1.080576e+00 -7.976933e-01 -3.026765e-01 -8.661942e-01 -3.113531e-01 -8.437054e-01 -6.034897e-01 -4.433061e-01 -4.577822e-02 -2.486668e-02 -1.924692e-02 -2.618162e-02 -3.153711e-03 -1.507448e-02 -1.020117e-02 -2.213832e-02 -4.009164e-02 -3.626242e-02 -4.145106e-02 -2.623049e-02 -1.518207e-02 -1.009697e-02 -4.471962e-03 -1.374886e-02 -1.279765e-02 -1.740297e-02 -1.934170e-02
<VARIANCE> 38
 2.589366e+01 9.905158e+00 3.591900e+00 3.038545e+00 4.022173e+00 1.958997e+00 1.959251e+00 1.626964e+00 1.348642e+00 1.773022e+00 1.210132e+00 1.200527e+00 7.975670e-01 5.818032e-01 9.431890e-01 5.647418e-01 7.780892e-01 5.501782e-01 4.942079e-01 6.264858e-01 2.559237e-01 1.159640e-01 1.014697e-01 1.027718e-01 5.742857e-02 5.976247e-02 5.346214e-02 5.442759e-02 6.513694e-02 5.171061e-02 4.932021e-02 3.120486e-02 2.266078e-02 2.993438e-02 2.266863e-02 2.851781e-02 2.179264e-02 1.947653e-02
<GCONST> 2.465730e+01
<STATE> 3
<MEAN> 38
 4.829098e+00 2.925043e+00 7.554075e-01 -5.240200e-01 7.281401e-01 5.780710e-01 7.460742e-01 6.260183e-01 3.083105e-01 5.597285e-01 2.530149e-01 5.004575e-01 4.825572e-01 3.324589e-01 5.915636e-01 4.707579e-01 5.940608e-01 4.949550e-01 4.399769e-01 -2.203606e-02 -7.762395e-03 -4.217553e-03 -7.580113e-03 1.769985e-03 -3.289227e-03 1.063104e-03 1.299719e-03 -2.006218e-03 -6.754443e-04 -8.626461e-03 -8.236591e-03 -5.312869e-03 -3.170767e-03 8.183008e-04 -1.196026e-03 -7.529599e-04 -1.660897e-03 -1.214856e-03
<VARIANCE> 38
 1.833026e+01 7.057765e+00 5.008794e+00 7.247858e+00 4.352877e+00 3.293919e+00 2.798079e+00 2.337059e+00 3.415191e+00 3.290999e+00 4.265920e+00 2.215212e+00 1.335173e+00 1.030496e+00 1.225116e+00 1.039191e+00 9.124184e-01 7.366120e-01 7.052943e-01 7.422638e-01 2.718911e-01 2.192008e-01 3.355065e-01 1.604492e-01 1.169621e-01 1.098552e-01 9.406142e-02 1.505856e-01 1.355756e-01 1.727279e-01 9.060929e-02 5.738055e-02 4.426590e-02 5.477258e-02 4.627192e-02 4.181598e-02 3.616619e-02 3.530870e-02
<GCONST> 4.471601e+01
<STATE> 4
<MEAN> 38
 -1.576803e-01 -1.142655e+00 -3.744978e-01 1.351500e+00 -1.037468e+00 5.975464e-02 -7.393023e-01 -5.558853e-01 2.088794e-01 -6.020812e-01 2.089326e-01 -4.540167e-01 -3.130748e-01 2.494010e-02 -5.752395e-01 -2.231609e-02 -4.541150e-01 -2.172501e-01 -8.448292e-02 2.192862e-01 1.032626e-01 3.700586e-02 2.112547e-02 8.667231e-03 2.609408e-02 1.446918e-02 1.523474e-02 2.548331e-02 2.761969e-02 4.344774e-02 3.593594e-02 2.682598e-02 1.799379e-02 1.109647e-02 2.156724e-02 2.032250e-02 2.329167e-02 2.341127e-02
<VARIANCE> 38
 2.102815e+01 8.233426e+00 3.355994e+00 3.500428e+00 3.140141e+00 2.062372e+00 2.089005e+00 1.675118e+00 1.536864e+00 1.828007e+00 1.630074e+00 1.433730e+00 9.513226e-01 6.486971e-01 8.389542e-01 5.799673e-01 6.933680e-01 5.561929e-01 5.211155e-01 4.103912e-01 1.573586e-01 8.981621e-02 1.069394e-01 6.555662e-02 5.777336e-02 4.955539e-02 4.275396e-02 4.790199e-02 4.921137e-02 5.327564e-02 3.966033e-02 2.815352e-02 2.188992e-02 2.458777e-02 2.119331e-02 2.145266e-02 1.908170e-02 1.863290e-02
<GCONST> 2.158845e+01
<TRANSP> 5
 0.000000e+00 1.000000e+00 0.000000e+00 0.000000e+00 0.000000e+00
 0.000000e+00 9.142393e-01 8.576068e-02 0.000000e+00 0.000000e+00
 0.000000e+00 0.000000e+00 9.748808e-01 2.511922e-02 0.000000e+00
 0.000000e+00 0.000000e+00 0.000000e+00 9.364923e-01 6.350770e-02
 0.000000e+00 0.000000e+00 0.000000e+00 0.000000e+00 0.000000e+00
<ENDHMM>
~h "five"
<BEGINHMM>
<NUMSTATES> 5
<STATE> 2
<MEAN> 38
 -3.390743e+00 -2.274611e+00 -1.201105e+00 -1.522416e-01 -1.297430e+00 -9.048061e-01 -1.140194e+00 -8.698542e-01 -4.801148e-01 -9.493302e-01 -6.252900e-01 -8.831125e-01 -7.601123e-01 -4.839929e-01 -6.976122e-01 -4.446571e-01 -6.294528e-01 -5.651202e-01 -4.926210e-01 -1.608384e-03 -3.201709e-02 -1.090198e-02 4.386973e-02 -3.012813e-02 2.479943e-02 -7.888203e-03 -3.388357e-03 2.493009e-02 6.456501e-04 3.553602e-02 7.166144e-03 1.430850e-02 2.942161e-02 7.326284e-03 2.687884e-02 2.436793e-03 5.721513e-03 8.666618e-03
<VARIANCE> 38
 3.853910e+01 8.212156e+00 3.611891e+00 5.541145e+00 3.862817e+00 3.243992e+00 1.897715e+00 1.453178e+00 1.449636e+00 1.402127e+00 1.118163e+00 9.233596e-01 6.533612e-01 7.184685e-01 6.950066e-01 5.922142e-01 5.787333e-01 4.294426e-01 4.198358e-01 1.462145e+00 3.040273e-01 1.356423e-01 2.031314e-01 1.084827e-01 1.254850e-01 6.827427e-02 5.029881e-02 5.582584e-02 4.264999e-02 4.470334e-02 3.454528e-02 2.672129e-02 2.704853e-02 2.428949e-02 2.291329e-02 2.196010e-02 1.885150e-02 1.938635e-02
<GCONST> 2.562727e+01
<STATE> 3
<MEAN> 38
 3.822347e+00 2.463133e+00 8.864391e-01 -3.201146e-01 1.178340e+00 -3.754541e-02 7.155623e-01 4.506716e-01 -2.600966e-01 2.571135e-01 -5.486641e-01 1.456753e-01 7.766655e-02 -3.509403e-01 8.769460e-02 -3.170770e-01 2.320942e-01 2.760173e-01 2.053494e-01 -2.392601e-01 -6.281748e-02 -2.613007e-02 -5.082509e-02 -6.852863e-03 -4.314120e-02 -1.982192e-02 -1.123178e-02 -2.112624e-02 -4.514643e-03 -2.123064e-02 -8.340796e-03 -1.873228e-02 -2.218468e-02 -5.975458e-03 -1.996230e-02 -8.652077e-03 -1.717629e-02 -2.004352e-02
<VARIANCE> 38
 5.609501e+01 1.104739e+01 5.168843e+00 5.907610e+00 4.561823e+00 5.266376e+00 3.290792e+00 2.434754e+00 2.291524e+00 2.322451e+00 2.087177e+00 1.564299e+00 1.369290e+00 1.365313e+00 1.159137e+00 1.081592e+00 8.736407e-01 8.244031e-01 8.091757e-01 2.702682e+00 4.717226e-01 1.998506e-01 2.778248e-01 1.575915e-01 2.257717e-01 1.241676e-01 9.047014e-02 1.002884e-01 7.630540e-02 8.064441e-02 5.371829e-02 4.943519e-02 5.015657e-02 3.648322e-02 4.071110e-02 3.010452e-02 3.198392e-02 3.522236e-02
<GCONST> 4.452360e+01
<STATE> 4
<MEAN> 38
 9.490554e-01 -6.645250e-01 -3.125376e-01 9.522815e-01 -9.239203e-01 2.839408e-02 -6.256429e-01 -5.542659e-01 -3.163755e-03 -6.752982e-01 -8.122464e-02 -5.669715e-01 -3.010990e-01 9.847689e-03 -4.646102e-01 4.412577e-03 -3.711314e-01 -1.750197e-01 -4.366218e-02 1.177307e-01 5.640893e-02 2.342076e-02 -6.272868e-03 1.927888e-02 -1.977465e-03 1.132750e-02 5.341521e-03 -1.036771e-02 -2.518177e-03 -1.672089e-02 -2.893242e-03 -4.039329e-03 -1.107956e-02 -1.936769e-03 -8.261634e-03 2.763788e-03 2.761340e-03 3.022275e-03
<VARIANCE> 38
 3.340899e+01 9.190620e+00 3.537559e+00 3.785624e+00 3.507875e+00 2.396858e+00 1.949902e+00 1.516991e+00 1.378509e+00 1.825089e+00 1.211931e+00 1.214755e+00 9.332079e-01 7.387261e-01 8.582665e-01 6.262211e-01 7.182107e-01 5.656268e-01 5.091529e-01 6.392196e-01 1.700825e-01 7.761702e-02 1.138443e-01 6.505981e-02 6.405738e-02 4.305734e-02 3.496284e-02 4.018747e-02 4.564872e-02 3.998294e-02 3.347578e-02 2.740107e-02 2.568433e-02 2.293265e-02 2.251065e-02 1.930835e-02 1.690208e-02 1.692542e-02
<GCONST> 2.133670e+01
<TRANSP> 5
 0.000000e+00 1.000000e+00 0.000000e+00 0.000000e+00 0.000000e+00
 0.000000e+00 9.442489e-01 5.575109e-02 0.000000e+00 0.000000e+00
 0.000000e+00 0.000000e+00 9.487087e-01 5.129132e-02 0.000000e+00
 0.000000e+00 0.000000e+00 0.000000e+00 9.554183e-01 4.458164e-02
 0.000000e+00 0.000000e+00 0.000000e+00 0.000000e+00 0.000000e+00
<ENDHMM>
~h "four"
<BEGINHMM>
<NUMSTATES> 5
<STATE> 2
<MEAN> 38
 -5.353563e+00 -2.866368e+00 -1.589390e+00 -1.088477e+00 -1.426091e+00 -1.671981e+00 -1.430227e+00 -1.013485e+00 -7.941730e-01 -8.721226e-01 -8.858576e-01 -8.646702e-01 -8.118545e-01 -6.467450e-01 -6.086651e-01 -5.807595e-01 -5.057435e-01 -5.242527e-01 -5.244595e-01 1.428080e-01 -2.991734e-02 -3.593579e-02 6.978784e-02 -5.364222e-02 3.428731e-02 -1.704805e-02 -1.031480e-02 3.111577e-02 -1.781027e-02 3.692885e-02 -5.523775e-03 1.019099e-02 3.295185e-02 -4.871263e-03 3.047996e-02 -4.043355e-03 9.838950e-03 1.691651e-02
<VARIANCE> 38
 3.129876e+01 6.270169e+00 3.480318e+00 7.162637e+00 3.795039e+00 3.933087e+00 1.760535e+00 1.379521e+00 1.714105e+00 1.497519e+00 1.293133e+00 9.333893e-01 5.897471e-01 7.553682e-01 7.487190e-01 6.489232e-01 6.070176e-01 3.625313e-01 3.700355e-01 1.420836e+00 3.002229e-01 1.483843e-01 2.623795e-01 1.171043e-01 1.856566e-01 8.323302e-02 5.427508e-02 7.695955e-02 4.589939e-02 6.248613e-02 3.641812e-02 2.765453e-02 2.957043e-02 2.478640e-02 2.669523e-02 2.112327e-02 1.711354e-02 1.784392e-02
<GCONST> 2.757901e+01
<STATE> 3
<MEAN> 38
 3.602594e+00 3.824541e+00 2.437432e+00 9.301333e-01 2.045127e+00 1.882893e+00 1.953089e+00 1.124503e+00 3.319548e-01 6.297897e-01 3.019270e-01 6.077212e-01 4.356212e-01 1.102545e-01 3.205176e-01 7.425673e-03 1.301119e-01 6.965597e-02 6.152730e-02 -3.334504e-01 -1.527058e-01 -7.337751e-02 -1.066129e-01 -2.765356e-02 -8.222208e-02 -2.092287e-02 4.211397e-03 -1.099703e-02 1.258318e-02 -3.120071e-02 -6.671287e-03 -2.561382e-02 -4.189077e-02 -1.783054e-02 -4.053847e-02 -9.647426e-03 -1.848335e-02 -2.439967e-02
<VARIANCE> 38
 4.858945e+01 1.375816e+01 7.145105e+00 8.143134e+00 5.292674e+00 8.460038e+00 6.243685e+00 5.987035e+00 4.647197e+00 2.855975e+00 2.868633e+00 2.063105e+00 1.581887e+00 1.590791e+00 1.404189e+00 1.401802e+00 1.172271e+00 9.189849e-01 7.891404e-01 2.379767e+00 5.904247e-01 2.962855e-01 3.583764e-01 2.339122e-01 4.382708e-01 3.011043e-01 2.367983e-01 2.206386e-01 1.105011e-01 1.395980e-01 8.366684e-02 7.178891e-02 7.060671e-02 5.466006e-02 5.946612e-02 4.541854e-02 4.035142e-02 3.664266e-02
<GCONST> 5.802518e+01
<STATE> 4
<MEAN> 38
 9.445730e-01 -4.372276e-01 -1.429646e-01 1.383924e+00 -1.077997e+00 -5.201794e-02 -1.032913e+00 -8.926063e-01 -1.426912e-01 -9.673375e-01 -1.063165e-01 -7.209074e-01 -3.685333e-01 1.341604e-01 -4.044369e-01 1.719553e-01 -3.691770e-01 -1.430255e-01 -8.216574e-03 2.393211e-01 2.067911e-01 1.199448e-01 6.277207e-02 7.238625e-02 5.255501e-02 2.771365e-02 -9.225095e-03 -2.565416e-02 -7.802322e-03 -5.617144e-03 5.666018e-03 1.189556e-02 1.185335e-02 2.027904e-02 1.513978e-02 1.219793e-02 1.022854e-02 1.033342e-02
<VARIANCE> 38
 2.395455e+01 1.474303e+01 5.654276e+00 3.356684e+00 4.869675e+00 2.745401e+00 2.699236e+00 2.301427e+00 1.758983e+00 1.676869e+00 1.054903e+00 1.235489e+00 9.873452e-01 8.142698e-01 1.042804e+00 7.081640e-01 7.810439e-01 6.011632e-01 5.175533e-01 4.438030e-01 2.973675e-01 1.353372e-01 1.014276e-01 1.188092e-01 7.719126e-02 6.934516e-02 5.853669e-02 5.090922e-02 4.407819e-02 3.609830e-02 3.576307e-02 2.839560e-02 2.604763e-02 3.024005e-02 2.468630e-02 2.478781e-02 2.091032e-02 1.860523e-02
<GCONST> 2.725709e+01
<TRANSP> 5
 0.000000e+00 1.000000e+00 0.000000e+00 0.000000e+00 0.000000e+00
 0.000000e+00 9.420109e-01 5.798909e-02 0.000000e+00 0.000000e+00
 0.000000e+00 0.000000e+00 9.658454e-01 3.415459e-02 0.000000e+00
 0.000000e+00 0.000000e+00 0.000000e+00 9.357464e-01 6.425361e-02
 0.000000e+00 0.000000e+00 0.000000e+00 0.000000e+00 0.000000e+00
<ENDHMM>
~h "zero"
<BEGINHMM>
<NUMSTATES> 5
<STATE> 2
<MEAN> 38
 -6.841963e-09 -8.544343e-08 -8.903297e-09 -1.389685e-07 -5.238905e-08 5.669132e-08 -3.369721e-08 -1.341750e-07 -5.757052e-08 3.852167e-09 -7.400170e-08 -7.038775e-08 -4.913395e-08 -2.603449e-08 -3.974521e-09 2.786761e-08 -2.039894e-08 -3.089388e-09 6.285333e-09 -3.808419e-04 -5.963924e-04 -1.038489e-03 -1.918809e-03 -1.079902e-03 -1.469816e-03 -9.992669e-04 -9.932166e-04 -1.146261e-03 -7.566527e-04 -1.077722e-03 -6.425015e-04 -5.764425e-04 -5.768837e-04 -3.056234e-04 -6.176391e-04 -4.565527e-04 -6.649639e-04 -7.613047e-04
<VARIANCE> 38
 6.315313e+01 1.757056e+01 6.290810e+00 7.155922e+00 6.050740e+00 4.631410e+00 3.949157e+00 3.066458e+00 2.696067e+00 3.230795e+00 2.531634e+00 2.300139e+00 1.611309e+00 1.276684e+00 1.569586e+00 1.128306e+00 1.239739e+00 9.018868e-01 8.261204e-01 2.050822e+00 4.500204e-01 1.929007e-01 2.572328e-01 1.624664e-01 1.582450e-01 1.092633e-01 9.128601e-02 1.069283e-01 9.381980e-02 1.006165e-01 6.893553e-02 5.230568e-02 4.867543e-02 4.448727e-02 4.515548e-02 3.670647e-02 3.184564e-02 3.161120e-02
<GCONST> 4.831047e+01
<STATE> 3
<MEAN> 38
 -6.841963e-09 -8.544343e-08 -8.903297e-09 -1.389685e-07 -5.238905e-08 5.669132e-08 -3.369721e-08 -1.341750e-07 -5.757052e-08 3.852167e-09 -7.400170e-08 -7.038775e-08 -4.913395e-08 -2.603449e-08 -3.974521e-09 2.786761e-08 -2.039894e-08 -3.089388e-09 6.285333e-09 -3.808419e-04 -5.963924e-04 -1.038489e-03 -1.918809e-03 -1.079902e-03 -1.469816e-03 -9.992669e-04 -9.932166e-04 -1.146261e-03 -7.566527e-04 -1.077722e-03 -6.425015e-04 -5.764425e-04 -5.768837e-04 -3.056234e-04 -6.176391e-04 -4.565527e-04 -6.649639e-04 -7.613047e-04
<VARIANCE> 38
 6.315313e+01 1.757056e+01 6.290810e+00 7.155922e+00 6.050740e+00 4.631410e+00 3.949157e+00 3.066458e+00 2.696067e+00 3.230795e+00 2.531634e+00 2.300139e+00 1.611309e+00 1.276684e+00 1.569586e+00 1.128306e+00 1.239739e+00 9.018868e-01 8.261204e-01 2.050822e+00 4.500204e-01 1.929007e-01 2.572328e-01 1.624664e-01 1.582450e-01 1.092633e-01 9.128601e-02 1.069283e-01 9.381980e-02 1.006165e-01 6.893553e-02 5.230568e-02 4.867543e-02 4.448727e-02 4.515548e-02 3.670647e-02 3.184564e-02 3.161120e-02
<GCONST> 4.831047e+01
<STATE> 4
<MEAN> 38
 -6.841963e-09 -8.544343e-08 -8.903297e-09 -1.389685e-07 -5.238905e-08 5.669132e-08 -3.369721e-08 -1.341750e-07 -5.757052e-08 3.852167e-09 -7.400170e-08 -7.038775e-08 -4.913395e-08 -2.603449e-08 -3.974521e-09 2.786761e-08 -2.039894e-08 -3.089388e-09 6.285333e-09 -3.808419e-04 -5.963924e-04 -1.038489e-03 -1.918809e-03 -1.079902e-03 -1.469816e-03 -9.992669e-04 -9.932166e-04 -1.146261e-03 -7.566527e-04 -1.077722e-03 -6.425015e-04 -5.764425e-04 -5.768837e-04 -3.056234e-04 -6.176391e-04 -4.565527e-04 -6.649639e-04 -7.613047e-04
<VARIANCE> 38
 6.315313e+01 1.757056e+01 6.290810e+00 7.155922e+00 6.050740e+00 4.631410e+00 3.949157e+00 3.066458e+00 2.696067e+00 3.230795e+00 2.531634e+00 2.300139e+00 1.611309e+00 1.276684e+00 1.569586e+00 1.128306e+00 1.239739e+00 9.018868e-01 8.261204e-01 2.050822e+00 4.500204e-01 1.929007e-01 2.572328e-01 1.624664e-01 1.582450e-01 1.092633e-01 9.128601e-02 1.069283e-01 9.381980e-02 1.006165e-01 6.893553e-02 5.230568e-02 4.867543e-02 4.448727e-02 4.515548e-02 3.670647e-02 3.184564e-02 3.161120e-02
<GCONST> 4.831047e+01
<TRANSP> 5
 0.000000e+00 1.000000e+00 0.000000e+00 0.000000e+00 0.000000e+00
 0.000000e+00 5.000000e-01 5.000000e-01 0.000000e+00 0.000000e+00
 0.000000e+00 0.000000e+00 5.000000e-01 5.000000e-01 0.000000e+00
 0.000000e+00 0.000000e+00 0.000000e+00 5.000000e-01 5.000000e-01
 0.000000e+00 0.000000e+00 0.000000e+00 0.000000e+00 0.000000e+00
<ENDHMM>
