~o
<STREAMINFO> 1 38
<VECSIZE> 38<NULLD><USER><DIAGC>
~h "eight"
<BEGINHMM>
<NUMSTATES> 12
<STATE> 2
<MEAN> 38
 3.459479e+00 1.356661e+00 -8.663073e-01 -1.558328e+00 5.936492e-01 3.041915e-01 1.016398e+00 7.682210e-01 4.231301e-01 1.206911e+00 6.520442e-01 8.955806e-01 5.572630e-01 1.458215e-01 4.612727e-01 2.406351e-02 2.673313e-01 1.403553e-01 7.694006e-03 -2.905305e-01 -2.329447e-01 6.241879e-02 2.973503e-01 -1.884315e-01 -3.516804e-02 -2.304500e-01 -2.074648e-01 -9.054153e-02 -2.462120e-01 -8.017303e-02 -1.758721e-01 -1.191094e-01 -3.647805e-02 -1.295567e-01 -1.379870e-02 -9.615682e-02 -5.878374e-02 -2.619771e-02
<VARIANCE> 38
 2.548453e+01 1.131124e+01 7.714222e+00 6.922883e+00 5.846189e+00 3.707655e+00 4.090453e+00 3.357587e+00 2.259735e+00 3.410304e+00 1.878960e+00 2.278299e+00 1.672997e+00 1.168357e+00 1.570751e+00 9.639633e-01 1.195033e+00 8.119105e-01 7.124483e-01 1.187532e+00 4.395481e-01 2.365366e-01 2.752457e-01 2.306563e-01 1.351566e-01 1.600714e-01 1.338283e-01 8.820878e-02 1.439717e-01 7.986092e-02 1.063870e-01 7.121243e-02 4.525570e-02 6.835027e-02 4.047175e-02 5.166379e-02 3.670529e-02 3.013839e-02
<GCONST> 4.816393e+01
<STATE> 3
<MEAN> 38
 3.874481e+00 2.039301e+00 -1.049177e+00 -2.584692e+00 1.212304e+00 4.977153e-01 1.824045e+00 1.558386e+00 8.506067e-01 2.097467e+00 1.004517e+00 1.540249e+00 1.033773e+00 3.720109e-01 9.574383e-01 1.582290e-01 6.831098e-01 4.155791e-01 1.747576e-01 5.971363e-02 4.580209e-03 8.207645e-02 1.507210e-01 -6.358369e-02 -4.820948e-02 -1.184143e-01 -1.241936e-01 -9.206560e-02 -1.276844e-01 -5.357956e-02 -7.827064e-02 -5.726806e-02 -2.629112e-02 -5.515108e-02 -2.106109e-02 -5.420439e-02 -4.127644e-02 -3.203126e-02
<VARIANCE> 38
 1.862155e+01 8.319513e+00 7.470710e+00 6.959739e+00 5.055757e+00 3.724060e+00 3.502455e+00 3.151793e+00 2.593984e+00 3.075006e+00 1.862679e+00 2.019267e+00 1.751670e+00 1.384771e+00 1.389028e+00 1.047088e+00 1.048237e+00 7.325789e-01 6.466519e-01 5.879972e-01 2.429174e-01 1.701623e-01 1.928286e-01 1.361821e-01 1.040104e-01 1.136287e-01 9.565635e-02 7.009467e-02 8.924178e-02 6.078793e-02 6.601411e-02 5.059688e-02 3.652745e-02 4.668087e-02 3.518177e-02 3.805513e-02 2.972501e-02 2.531230e-02
<GCONST> 4.023153e+01
<STATE> 4
<MEAN> 38
 3.356369e+00 1.666703e+00 -1.517097e+00 -3.033919e+00 1.296350e+00 6.795129e-01 2.091863e+00 1.890731e+00 1.226463e+00 2.484272e+00 1.210434e+00 1.755792e+00 1.191761e+00 4.633014e-01 1.085237e+00 2.605507e-01 8.631457e-01 5.654495e-01 3.051894e-01 1.310976e-01 1.122730e-01 1.170650e-01 5.649900e-02 -4.502011e-03 -7.590025e-02 -6.644770e-02 -7.706293e-02 -9.749813e-02 -6.935127e-02 -5.895774e-02 -3.616529e-02 -2.378722e-02 -2.020065e-02 -1.549425e-02 -3.188311e-02 -3.473528e-02 -4.039252e-02 -4.065723e-02
<VARIANCE> 38
 1.748330e+01 7.660448e+00 6.945118e+00 6.761061e+00 5.227895e+00 3.722565e+00 3.388739e+00 3.041080e+00 2.664136e+00 3.067809e+00 1.886859e+00 2.073987e+00 1.872569e+00 1.497422e+00 1.362445e+00 1.065428e+00 1.024672e+00 7.364376e-01 6.447737e-01 4.401409e-01 1.893917e-01 1.552919e-01 1.740166e-01 1.147881e-01 9.696006e-02 9.604460e-02 7.949474e-02 6.731027e-02 7.682305e-02 5.663436e-02 5.597687e-02 4.285510e-02 3.357729e-02 3.956632e-02 3.546285e-02 3.583479e-02 2.785637e-02 2.444509e-02
<GCONST> 3.781431e+01
<STATE> 5
<MEAN> 38
 2.771404e+00 1.111985e+00 -1.938873e+00 -3.115503e+00 1.254031e+00 9.207047e-01 2.237875e+00 2.079159e+00 1.555479e+00 2.676476e+00 1.395591e+00 1.829022e+00 1.233578e+00 5.150918e-01 1.106593e+00 3.779566e-01 9.678069e-01 7.052556e-01 4.422351e-01 1.134413e-01 1.400511e-01 9.047651e-02 -8.219212e-02 5.642779e-02 -7.504437e-02 -3.564004e-04 -2.230879e-02 -8.443556e-02 -8.380637e-04 -7.087930e-02 1.874190e-03 6.372277e-03 -2.283051e-02 2.005894e-02 -3.976906e-02 -9.502382e-03 -3.302034e-02 -3.964603e-02
<VARIANCE> 38
 1.920967e+01 7.552903e+00 6.922035e+00 6.495346e+00 5.310713e+00 3.667157e+00 3.341418e+00 2.899666e+00 2.645170e+00 3.045916e+00 2.034791e+00 2.152504e+00 1.962293e+00 1.567698e+00 1.338980e+00 1.070163e+00 1.029285e+00 7.616421e-01 6.505232e-01 5.199304e-01 2.002825e-01 1.868800e-01 2.330715e-01 1.355890e-01 1.030900e-01 1.035964e-01 8.551056e-02 7.350322e-02 8.670477e-02 6.207705e-02 5.861323e-02 4.410586e-02 3.518800e-02 4.095579e-02 3.718442e-02 3.767270e-02 2.811928e-02 2.484385e-02
<GCONST> 3.967132e+01
<STATE> 6
<MEAN> 38
 2.291035e+00 6.819417e-01 -2.091177e+00 -2.772730e+00 1.062853e+00 1.058512e+00 2.153896e+00 2.061392e+00 1.714421e+00 2.609315e+00 1.567545e+00 1.780478e+00 1.179000e+00 5.686068e-01 1.042143e+00 4.945941e-01 9.845186e-01 7.867624e-01 5.412335e-01 1.155049e-01 1.474732e-01 -3.304938e-02 -3.091831e-01 1.494712e-01 -2.438190e-02 1.287962e-01 8.077936e-02 -3.585771e-02 1.184690e-01 -5.775141e-02 6.495643e-02 4.570659e-02 -2.797043e-02 6.974898e-02 -4.069244e-02 3.897692e-02 6.073900e-05 -2.280665e-02
<VARIANCE> 38
 2.463200e+01 8.118204e+00 7.766422e+00 6.664984e+00 5.152614e+00 3.609336e+00 3.376834e+00 2.834486e+00 2.757447e+00 3.116551e+00 2.265189e+00 2.246524e+00 2.004009e+00 1.596057e+00 1.306593e+00 1.056208e+00 1.041836e+00 7.719630e-01 6.553800e-01 8.337741e-01 2.610415e-01 2.747119e-01 3.792617e-01 1.923896e-01 1.304068e-01 1.397221e-01 1.150935e-01 9.420037e-02 1.243942e-01 8.133603e-02 7.609887e-02 5.508841e-02 4.341504e-02 4.888838e-02 4.128134e-02 4.340531e-02 3.151779e-02 2.702895e-02
<GCONST> 4.530857e+01
<STATE> 7
<MEAN> 38
 1.942072e+00 3.761178e-01 -1.835935e+00 -1.905341e+00 6.776856e-01 9.995515e-01 1.713979e+00 1.760067e+00 1.679772e+00 2.224700e+00 1.666390e+00 1.588580e+00 1.052659e+00 6.428206e-01 8.662115e-01 5.818535e-01 8.688543e-01 7.540953e-01 5.691324e-01 2.555008e-01 1.884806e-01 -2.016571e-01 -5.355616e-01 2.247295e-01 5.254601e-02 2.768623e-01 2.142580e-01 5.779765e-02 2.741655e-01 2.642357e-02 1.650489e-01 1.005512e-01 -1.375017e-02 1.252907e-01 -1.964515e-02 1.042290e-01 5.406394e-02 1.135655e-02
<VARIANCE> 38
 3.111244e+01 9.118584e+00 8.540094e+00 7.492457e+00 4.930905e+00 3.598969e+00 3.546516e+00 2.935631e+00 3.021070e+00 3.259036e+00 2.485733e+00 2.245353e+00 1.915739e+00 1.554789e+00 1.270800e+00 1.038730e+00 1.036288e+00 7.761876e-01 6.601279e-01 1.276951e+00 3.545736e-01 3.514097e-01 5.008549e-01 2.517731e-01 1.702317e-01 1.771862e-01 1.466715e-01 1.266767e-01 1.784322e-01 1.141856e-01 1.095469e-01 7.824731e-02 5.971997e-02 6.029284e-02 4.862943e-02 5.172064e-02 3.830859e-02 3.130840e-02
<GCONST> 5.122108e+01
<STATE> 8
<MEAN> 38
 1.286888e+00 7.439762e-03 -1.189381e+00 -6.312789e-01 2.168848e-01 7.861174e-01 1.004721e+00 1.179944e+00 1.408095e+00 1.507875e+00 1.482458e+00 1.160267e+00 8.157820e-01 6.588304e-01 5.848209e-01 5.947098e-01 6.076433e-01 5.913801e-01 5.108690e-01 4.723909e-01 2.474690e-01 -2.733288e-01 -5.616651e-01 2.289677e-01 1.266304e-01 3.559249e-01 3.117552e-01 1.752663e-01 3.859673e-01 1.634159e-01 2.602563e-01 1.604693e-01 3.661230e-02 1.613824e-01 3.328710e-02 1.548420e-01 1.080094e-01 5.942015e-02
<VARIANCE> 38
 3.722688e+01 1.068550e+01 8.214940e+00 8.024540e+00 4.845874e+00 3.645491e+00 3.521754e+00 3.054510e+00 3.238387e+00 3.311640e+00 2.663879e+00 2.185342e+00 1.690820e+00 1.418645e+00 1.240878e+00 1.030230e+00 1.026351e+00 7.716508e-01 6.575306e-01 1.651378e+00 4.373067e-01 3.694549e-01 5.487388e-01 2.764399e-01 2.016724e-01 1.970812e-01 1.616809e-01 1.507170e-01 2.140292e-01 1.389844e-01 1.365720e-01 1.009427e-01 7.752610e-02 6.965624e-02 5.706072e-02 5.826943e-02 4.403332e-02 3.578416e-02
<GCONST> 5.453629e+01
<STATE> 9
<MEAN> 38
 2.010638e-01 -4.380679e-01 -5.807794e-01 3.374267e-01 -1.267467e-01 4.713877e-01 3.000710e-01 4.779380e-01 8.683857e-01 6.510552e-01 9.395213e-01 5.519632e-01 4.355989e-01 4.924606e-01 2.551924e-01 4.400731e-01 2.675917e-01 3.282188e-01 3.358371e-01 5.827609e-01 2.616890e-01 -2.044068e-01 -3.456356e-01 1.629582e-01 1.704223e-01 3.194178e-01 3.062648e-01 2.419404e-01 3.652778e-01 2.484547e-01 2.729313e-01 1.842292e-01 9.510553e-02 1.545503e-01 8.888825e-02 1.548263e-01 1.287690e-01 9.522878e-02
<VARIANCE> 38
 4.100906e+01 1.286041e+01 6.846364e+00 7.244595e+00 4.957253e+00 3.887606e+00 3.274437e+00 2.891024e+00 3.151267e+00 3.096493e+00 2.653838e+00 2.109202e+00 1.471921e+00 1.238338e+00 1.249103e+00 1.034383e+00 1.009251e+00 7.797378e-01 6.710057e-01 1.808439e+00 4.704546e-01 3.489247e-01 5.348621e-01 2.602772e-01 2.076394e-01 1.986142e-01 1.628469e-01 1.527986e-01 2.275730e-01 1.422394e-01 1.464588e-01 1.039403e-01 8.019838e-02 7.321058e-02 5.908781e-02 6.176703e-02 4.650728e-02 3.703243e-02
<GCONST> 5.463749e+01
<STATE> 10
<MEAN> 38
 -9.740199e-01 -9.521077e-01 -3.368026e-01 6.514885e-01 -3.379278e-01 8.189546e-02 -2.669847e-01 -1.240979e-01 2.660477e-01 -6.916302e-02 2.964344e-01 -1.789218e-02 1.009196e-02 1.856202e-01 -6.963709e-02 1.419270e-01 -6.052643e-02 2.710135e-02 7.715402e-02 5.441380e-01 2.126959e-01 -1.066368e-01 -7.942069e-02 7.201112e-02 1.738137e-01 2.134873e-01 2.142347e-01 2.204352e-01 2.358703e-01 2.283711e-01 1.910986e-01 1.500948e-01 1.203404e-01 1.107524e-01 1.104919e-01 1.086940e-01 1.077928e-01 9.746515e-02
<VARIANCE> 38
 4.047927e+01 1.470215e+01 6.014332e+00 6.463234e+00 5.276393e+00 3.934841e+00 3.070216e+00 2.453571e+00 2.585342e+00 2.653470e+00 2.150207e+00 1.851741e+00 1.256388e+00 1.069162e+00 1.216014e+00 9.534457e-01 9.521115e-01 7.097250e-01 6.545646e-01 1.711074e+00 4.503524e-01 2.872045e-01 4.180591e-01 2.267538e-01 1.817264e-01 1.666353e-01 1.425676e-01 1.362373e-01 2.032162e-01 1.317978e-01 1.358908e-01 8.777174e-02 6.625535e-02 6.578050e-02 5.222193e-02 5.749006e-02 4.269658e-02 3.482012e-02
<GCONST> 5.076867e+01
<STATE> 11
<MEAN> 38
 -1.647991e+00 -1.560668e+00 -4.930694e-01 6.828153e-01 -6.430169e-01 -2.357501e-01 -6.903305e-01 -5.525870e-01 -1.444841e-01 -6.251592e-01 -2.388667e-01 -5.575922e-01 -4.706773e-01 -2.513684e-01 -5.109121e-01 -2.220901e-01 -4.322162e-01 -2.811722e-01 -2.015337e-01 1.891399e-01 3.451607e-02 -4.459821e-02 4.960872e-02 -1.702630e-02 7.020760e-02 3.447333e-02 3.633235e-02 6.924643e-02 2.849150e-02 6.802393e-02 2.841970e-02 3.340010e-02 4.864453e-02 1.775586e-02 4.184385e-02 1.312536e-02 2.674207e-02 3.115014e-02
<VARIANCE> 38
 3.775615e+01 1.400037e+01 5.808998e+00 5.665899e+00 5.706144e+00 4.040431e+00 3.696939e+00 2.536592e+00 1.901135e+00 2.726008e+00 1.637291e+00 1.766104e+00 1.110739e+00 8.709090e-01 1.215123e+00 7.604645e-01 9.572581e-01 6.901479e-01 6.357700e-01 1.457874e+00 3.718235e-01 1.881621e-01 2.523561e-01 1.859920e-01 1.405022e-01 1.156763e-01 9.392589e-02 9.250268e-02 1.192584e-01 8.933609e-02 8.190034e-02 5.129360e-02 4.389717e-02 4.681877e-02 3.951994e-02 4.112020e-02 3.042178e-02 2.825107e-02
<GCONST> 4.281706e+01
<TRANSP> 12
 0.000000e+00 1.000000e+00 0.000000e+00 0.000000e+00 0.000000e+00 0.000000e+00 0.000000e+00 0.000000e+00 0.000000e+00 0.000000e+00 0.000000e+00 0.000000e+00
 0.000000e+00 8.310744e-01 1.689256e-01 0.000000e+00 0.000000e+00 0.000000e+00 0.000000e+00 0.000000e+00 0.000000e+00 0.000000e+00 0.000000e+00 0.000000e+00
 0.000000e+00 0.000000e+00 7.890790e-01 2.109210e-01 0.000000e+00 0.000000e+00 0.000000e+00 0.000000e+00 0.000000e+00 0.000000e+00 0.000000e+00 0.000000e+00
 0.000000e+00 0.000000e+00 0.000000e+00 7.474346e-01 2.525654e-01 0.000000e+00 0.000000e+00 0.000000e+00 0.000000e+00 0.000000e+00 0.000000e+00 0.000000e+00
 0.000000e+00 0.000000e+00 0.000000e+00 0.000000e+00 6.773203e-01 3.226797e-01 0.000000e+00 0.000000e+00 0.000000e+00 0.000000e+00 0.000000e+00 0.000000e+00
 0.000000e+00 0.000000e+00 0.000000e+00 0.000000e+00 0.000000e+00 5.985140e-01 4.014860e-01 0.000000e+00 0.000000e+00 0.000000e+00 0.000000e+00 0.000000e+00
 0.000000e+00 0.000000e+00 0.000000e+00 0.000000e+00 0.000000e+00 0.000000e+00 5.337888e-01 4.662112e-01 0.000000e+00 0.000000e+00 0.000000e+00 0.000000e+00
 0.000000e+00 0.000000e+00 0.000000e+00 0.000000e+00 0.000000e+00 0.000000e+00 0.000000e+00 5.006450e-01 4.993550e-01 0.000000e+00 0.000000e+00 0.000000e+00
 0.000000e+00 0.000000e+00 0.000000e+00 0.000000e+00 0.000000e+00 0.000000e+00 0.000000e+00 0.000000e+00 5.158615e-01 4.841385e-01 0.000000e+00 0.000000e+00
 0.000000e+00 0.000000e+00 0.000000e+00 0.000000e+00 0.000000e+00 0.000000e+00 0.000000e+00 0.000000e+00 0.000000e+00 5.712443e-01 4.287557e-01 0.000000e+00
 0.000000e+00 0.000000e+00 0.000000e+00 0.000000e+00 0.000000e+00 0.000000e+00 0.000000e+00 0.000000e+00 0.000000e+00 0.000000e+00 8.364131e-01 1.635869e-01
 0.000000e+00 0.000000e+00 0.000000e+00 0.000000e+00 0.000000e+00 0.000000e+00 0.000000e+00 0.000000e+00 0.000000e+00 0.000000e+00 0.000000e+00 0.000000e+00
<ENDHMM>
~h "oh"
<BEGINHMM>
<NUMSTATES> 12
<STATE> 2
<MEAN> 38
 -2.677863e-09 -8.750526e-08 -1.837286e-08 -1.377954e-07 -6.019516e-08 5.452531e-08 -2.743094e-08 -1.345658e-07 -5.862704e-08 5.558200e-09 -7.760809e-08 -7.311739e-08 -5.190492e-08 -2.412825e-08 -4.690163e-09 2.764782e-08 -2.262112e-08 -3.763905e-09 6.537150e-09 -2.583067e-04 -5.050806e-04 -9.917312e-04 -1.893283e-03 -1.064957e-03 -1.446192e-03 -9.808274e-04 -9.695808e-04 -1.123964e-03 -7.458905e-04 -1.056959e-03 -6.245463e-04 -5.614760e-04 -5.566383e-04 -2.873854e-04 -5.964976e-04 -4.391809e-04 -6.486351e-04 -7.416122e-04
<VARIANCE> 38
 6.382163e+01 1.753741e+01 6.283180e+00 7.247866e+00 6.023103e+00 4.670284e+00 3.942792e+00 3.064118e+00 2.725667e+00 3.248625e+00 2.569027e+00 2.312149e+00 1.622730e+00 1.290844e+00 1.573346e+00 1.140445e+00 1.241779e+00 9.049628e-01 8.315350e-01 2.083264e+00 4.547198e-01 1.931234e-01 2.614486e-01 1.629155e-01 1.602948e-01 1.098788e-01 9.185041e-02 1.084542e-01 9.477346e-02 1.021972e-01 6.968507e-02 5.287778e-02 4.928543e-02 4.486140e-02 4.569504e-02 3.694603e-02 3.210644e-02 3.195568e-02
<GCONST> 4.860181e+01
<STATE> 3
<MEAN> 38
 -2.677863e-09 -8.750526e-08 -1.837286e-08 -1.377954e-07 -6.019516e-08 5.452531e-08 -2.743094e-08 -1.345658e-07 -5.862704e-08 5.558200e-09 -7.760809e-08 -7.311739e-08 -5.190492e-08 -2.412825e-08 -4.690163e-09 2.764782e-08 -2.262112e-08 -3.763905e-09 6.537150e-09 -2.583067e-04 -5.050806e-04 -9.917312e-04 -1.893283e-03 -1.064957e-03 -1.446192e-03 -9.808274e-04 -9.695808e-04 -1.123964e-03 -7.458905e-04 -1.056959e-03 -6.245463e-04 -5.614760e-04 -5.566383e-04 -2.873854e-04 -5.964976e-04 -4.391809e-04 -6.486351e-04 -7.416122e-04
<VARIANCE> 38
 6.382163e+01 1.753741e+01 6.283180e+00 7.247866e+00 6.023103e+00 4.670284e+00 3.942792e+00 3.064118e+00 2.725667e+00 3.248625e+00 2.569027e+00 2.312149e+00 1.622730e+00 1.290844e+00 1.573346e+00 1.140445e+00 1.241779e+00 9.049628e-01 8.315350e-01 2.083264e+00 4.547198e-01 1.931234e-01 2.614486e-01 1.629155e-01 1.602948e-01 1.098788e-01 9.185041e-02 1.084542e-01 9.477346e-02 1.021972e-01 6.968507e-02 5.287778e-02 4.928543e-02 4.486140e-02 4.569504e-02 3.694603e-02 3.210644e-02 3.195568e-02
<GCONST> 4.860181e+01
<STATE> 4
<MEAN> 38
 -2.677863e-09 -8.750526e-08 -1.837286e-08 -1.377954e-07 -6.019516e-08 5.452531e-08 -2.743094e-08 -1.345658e-07 -5.862704e-08 5.558200e-09 -7.760809e-08 -7.311739e-08 -5.190492e-08 -2.412825e-08 -4.690163e-09 2.764782e-08 -2.262112e-08 -3.763905e-09 6.537150e-09 -2.583067e-04 -5.050806e-04 -9.917312e-04 -1.893283e-03 -1.064957e-03 -1.446192e-03 -9.808274e-04 -9.695808e-04 -1.123964e-03 -7.458905e-04 -1.056959e-03 -6.245463e-04 -5.614760e-04 -5.566383e-04 -2.873854e-04 -5.964976e-04 -4.391809e-04 -6.486351e-04 -7.416122e-04
<VARIANCE> 38
 6.382163e+01 1.753741e+01 6.283180e+00 7.247866e+00 6.023103e+00 4.670284e+00 3.942792e+00 3.064118e+00 2.725667e+00 3.248625e+00 2.569027e+00 2.312149e+00 1.622730e+00 1.290844e+00 1.573346e+00 1.140445e+00 1.241779e+00 9.049628e-01 8.315350e-01 2.083264e+00 4.547198e-01 1.931234e-01 2.614486e-01 1.629155e-01 1.602948e-01 1.098788e-01 9.185041e-02 1.084542e-01 9.477346e-02 1.021972e-01 6.968507e-02 5.287778e-02 4.928543e-02 4.486140e-02 4.569504e-02 3.694603e-02 3.210644e-02 3.195568e-02
<GCONST> 4.860181e+01
<STATE> 5
<MEAN> 38
 -2.677863e-09 -8.750526e-08 -1.837286e-08 -1.377954e-07 -6.019516e-08 5.452531e-08 -2.743094e-08 -1.345658e-07 -5.862704e-08 5.558200e-09 -7.760809e-08 -7.311739e-08 -5.190492e-08 -2.412825e-08 -4.690163e-09 2.764782e-08 -2.262112e-08 -3.763905e-09 6.537150e-09 -2.583067e-04 -5.050806e-04 -9.917312e-04 -1.893283e-03 -1.064957e-03 -1.446192e-03 -9.808274e-04 -9.695808e-04 -1.123964e-03 -7.458905e-04 -1.056959e-03 -6.245463e-04 -5.614760e-04 -5.566383e-04 -2.873854e-04 -5.964976e-04 -4.391809e-04 -6.486351e-04 -7.416122e-04
<VARIANCE> 38
 6.382163e+01 1.753741e+01 6.283180e+00 7.247866e+00 6.023103e+00 4.670284e+00 3.942792e+00 3.064118e+00 2.725667e+00 3.248625e+00 2.569027e+00 2.312149e+00 1.622730e+00 1.290844e+00 1.573346e+00 1.140445e+00 1.241779e+00 9.049628e-01 8.315350e-01 2.083264e+00 4.547198e-01 1.931234e-01 2.614486e-01 1.629155e-01 1.602948e-01 1.098788e-01 9.185041e-02 1.084542e-01 9.477346e-02 1.021972e-01 6.968507e-02 5.287778e-02 4.928543e-02 4.486140e-02 4.569504e-02 3.694603e-02 3.210644e-02 3.195568e-02
<GCONST> 4.860181e+01
<STATE> 6
<MEAN> 38
 -2.677863e-09 -8.750526e-08 -1.837286e-08 -1.377954e-07 -6.019516e-08 5.452531e-08 -2.743094e-08 -1.345658e-07 -5.862704e-08 5.558200e-09 -7.760809e-08 -7.311739e-08 -5.190492e-08 -2.412825e-08 -4.690163e-09 2.764782e-08 -2.262112e-08 -3.763905e-09 6.537150e-09 -2.583067e-04 -5.050806e-04 -9.917312e-04 -1.893283e-03 -1.064957e-03 -1.446192e-03 -9.808274e-04 -9.695808e-04 -1.123964e-03 -7.458905e-04 -1.056959e-03 -6.245463e-04 -5.614760e-04 -5.566383e-04 -2.873854e-04 -5.964976e-04 -4.391809e-04 -6.486351e-04 -7.416122e-04
<VARIANCE> 38
 6.382163e+01 1.753741e+01 6.283180e+00 7.247866e+00 6.023103e+00 4.670284e+00 3.942792e+00 3.064118e+00 2.725667e+00 3.248625e+00 2.569027e+00 2.312149e+00 1.622730e+00 1.290844e+00 1.573346e+00 1.140445e+00 1.241779e+00 9.049628e-01 8.315350e-01 2.083264e+00 4.547198e-01 1.931234e-01 2.614486e-01 1.629155e-01 1.602948e-01 1.098788e-01 9.185041e-02 1.084542e-01 9.477346e-02 1.021972e-01 6.968507e-02 5.287778e-02 4.928543e-02 4.486140e-02 4.569504e-02 3.694603e-02 3.210644e-02 3.195568e-02
<GCONST> 4.860181e+01
<STATE> 7
<MEAN> 38
 -2.677863e-09 -8.750526e-08 -1.837286e-08 -1.377954e-07 -6.019516e-08 5.452531e-08 -2.743094e-08 -1.345658e-07 -5.862704e-08 5.558200e-09 -7.760809e-08 -7.311739e-08 -5.190492e-08 -2.412825e-08 -4.690163e-09 2.764782e-08 -2.262112e-08 -3.763905e-09 6.537150e-09 -2.583067e-04 -5.050806e-04 -9.917312e-04 -1.893283e-03 -1.064957e-03 -1.446192e-03 -9.808274e-04 -9.695808e-04 -1.123964e-03 -7.458905e-04 -1.056959e-03 -6.245463e-04 -5.614760e-04 -5.566383e-04 -2.873854e-04 -5.964976e-04 -4.391809e-04 -6.486351e-04 -7.416122e-04
<VARIANCE> 38
 6.382163e+01 1.753741e+01 6.283180e+00 7.247866e+00 6.023103e+00 4.670284e+00 3.942792e+00 3.064118e+00 2.725667e+00 3.248625e+00 2.569027e+00 2.312149e+00 1.622730e+00 1.290844e+00 1.573346e+00 1.140445e+00 1.241779e+00 9.049628e-01 8.315350e-01 2.083264e+00 4.547198e-01 1.931234e-01 2.614486e-01 1.629155e-01 1.602948e-01 1.098788e-01 9.185041e-02 1.084542e-01 9.477346e-02 1.021972e-01 6.968507e-02 5.287778e-02 4.928543e-02 4.486140e-02 4.569504e-02 3.694603e-02 3.210644e-02 3.195568e-02
<GCONST> 4.860181e+01
<STATE> 8
<MEAN> 38
 -2.677863e-09 -8.750526e-08 -1.837286e-08 -1.377954e-07 -6.019516e-08 5.452531e-08 -2.743094e-08 -1.345658e-07 -5.862704e-08 5.558200e-09 -7.760809e-08 -7.311739e-08 -5.190492e-08 -2.412825e-08 -4.690163e-09 2.764782e-08 -2.262112e-08 -3.763905e-09 6.537150e-09 -2.583067e-04 -5.050806e-04 -9.917312e-04 -1.893283e-03 -1.064957e-03 -1.446192e-03 -9.808274e-04 -9.695808e-04 -1.123964e-03 -7.458905e-04 -1.056959e-03 -6.245463e-04 -5.614760e-04 -5.566383e-04 -2.873854e-04 -5.964976e-04 -4.391809e-04 -6.486351e-04 -7.416122e-04
<VARIANCE> 38
 6.382163e+01 1.753741e+01 6.283180e+00 7.247866e+00 6.023103e+00 4.670284e+00 3.942792e+00 3.064118e+00 2.725667e+00 3.248625e+00 2.569027e+00 2.312149e+00 1.622730e+00 1.290844e+00 1.573346e+00 1.140445e+00 1.241779e+00 9.049628e-01 8.315350e-01 2.083264e+00 4.547198e-01 1.931234e-01 2.614486e-01 1.629155e-01 1.602948e-01 1.098788e-01 9.185041e-02 1.084542e-01 9.477346e-02 1.021972e-01 6.968507e-02 5.287778e-02 4.928543e-02 4.486140e-02 4.569504e-02 3.694603e-02 3.210644e-02 3.195568e-02
<GCONST> 4.860181e+01
<STATE> 9
<MEAN> 38
 -2.677863e-09 -8.750526e-08 -1.837286e-08 -1.377954e-07 -6.019516e-08 5.452531e-08 -2.743094e-08 -1.345658e-07 -5.862704e-08 5.558200e-09 -7.760809e-08 -7.311739e-08 -5.190492e-08 -2.412825e-08 -4.690163e-09 2.764782e-08 -2.262112e-08 -3.763905e-09 6.537150e-09 -2.583067e-04 -5.050806e-04 -9.917312e-04 -1.893283e-03 -1.064957e-03 -1.446192e-03 -9.808274e-04 -9.695808e-04 -1.123964e-03 -7.458905e-04 -1.056959e-03 -6.245463e-04 -5.614760e-04 -5.566383e-04 -2.873854e-04 -5.964976e-04 -4.391809e-04 -6.486351e-04 -7.416122e-04
<VARIANCE> 38
 6.382163e+01 1.753741e+01 6.283180e+00 7.247866e+00 6.023103e+00 4.670284e+00 3.942792e+00 3.064118e+00 2.725667e+00 3.248625e+00 2.569027e+00 2.312149e+00 1.622730e+00 1.290844e+00 1.573346e+00 1.140445e+00 1.241779e+00 9.049628e-01 8.315350e-01 2.083264e+00 4.547198e-01 1.931234e-01 2.614486e-01 1.629155e-01 1.602948e-01 1.098788e-01 9.185041e-02 1.084542e-01 9.477346e-02 1.021972e-01 6.968507e-02 5.287778e-02 4.928543e-02 4.486140e-02 4.569504e-02 3.694603e-02 3.210644e-02 3.195568e-02
<GCONST> 4.860181e+01
<STATE> 10
<MEAN> 38
 -2.677863e-09 -8.750526e-08 -1.837286e-08 -1.377954e-07 -6.019516e-08 5.452531e-08 -2.743094e-08 -1.345658e-07 -5.862704e-08 5.558200e-09 -7.760809e-08 -7.311739e-08 -5.190492e-08 -2.412825e-08 -4.690163e-09 2.764782e-08 -2.262112e-08 -3.763905e-09 6.537150e-09 -2.583067e-04 -5.050806e-04 -9.917312e-04 -1.893283e-03 -1.064957e-03 -1.446192e-03 -9.808274e-04 -9.695808e-04 -1.123964e-03 -7.458905e-04 -1.056959e-03 -6.245463e-04 -5.614760e-04 -5.566383e-04 -2.873854e-04 -5.964976e-04 -4.391809e-04 -6.486351e-04 -7.416122e-04
<VARIANCE> 38
 6.382163e+01 1.753741e+01 6.283180e+00 7.247866e+00 6.023103e+00 4.670284e+00 3.942792e+00 3.064118e+00 2.725667e+00 3.248625e+00 2.569027e+00 2.312149e+00 1.622730e+00 1.290844e+00 1.573346e+00 1.140445e+00 1.241779e+00 9.049628e-01 8.315350e-01 2.083264e+00 4.547198e-01 1.931234e-01 2.614486e-01 1.629155e-01 1.602948e-01 1.098788e-01 9.185041e-02 1.084542e-01 9.477346e-02 1.021972e-01 6.968507e-02 5.287778e-02 4.928543e-02 4.486140e-02 4.569504e-02 3.694603e-02 3.210644e-02 3.195568e-02
<GCONST> 4.860181e+01
<STATE> 11
<MEAN> 38
 -2.677863e-09 -8.750526e-08 -1.837286e-08 -1.377954e-07 -6.019516e-08 5.452531e-08 -2.743094e-08 -1.345658e-07 -5.862704e-08 5.558200e-09 -7.760809e-08 -7.311739e-08 -5.190492e-08 -2.412825e-08 -4.690163e-09 2.764782e-08 -2.262112e-08 -3.763905e-09 6.537150e-09 -2.583067e-04 -5.050806e-04 -9.917312e-04 -1.893283e-03 -1.064957e-03 -1.446192e-03 -9.808274e-04 -9.695808e-04 -1.123964e-03 -7.458905e-04 -1.056959e-03 -6.245463e-04 -5.614760e-04 -5.566383e-04 -2.873854e-04 -5.964976e-04 -4.391809e-04 -6.486351e-04 -7.416122e-04
<VARIANCE> 38
 6.382163e+01 1.753741e+01 6.283180e+00 7.247866e+00 6.023103e+00 4.670284e+00 3.942792e+00 3.064118e+00 2.725667e+00 3.248625e+00 2.569027e+00 2.312149e+00 1.622730e+00 1.290844e+00 1.573346e+00 1.140445e+00 1.241779e+00 9.049628e-01 8.315350e-01 2.083264e+00 4.547198e-01 1.931234e-01 2.614486e-01 1.629155e-01 1.602948e-01 1.098788e-01 9.185041e-02 1.084542e-01 9.477346e-02 1.021972e-01 6.968507e-02 5.287778e-02 4.928543e-02 4.486140e-02 4.569504e-02 3.694603e-02 3.210644e-02 3.195568e-02
<GCONST> 4.860181e+01
<TRANSP> 12
 0.000000e+00 1.000000e+00 0.000000e+00 0.000000e+00 0.000000e+00 0.000000e+00 0.000000e+00 0.000000e+00 0.000000e+00 0.000000e+00 0.000000e+00 0.000000e+00
 0.000000e+00 5.000000e-01 5.000000e-01 0.000000e+00 0.000000e+00 0.000000e+00 0.000000e+00 0.000000e+00 0.000000e+00 0.000000e+00 0.000000e+00 0.000000e+00
 0.000000e+00 0.000000e+00 5.000000e-01 5.000000e-01 0.000000e+00 0.000000e+00 0.000000e+00 0.000000e+00 0.000000e+00 0.000000e+00 0.000000e+00 0.000000e+00
 0.000000e+00 0.000000e+00 0.000000e+00 5.000000e-01 5.000000e-01 0.000000e+00 0.000000e+00 0.000000e+00 0.000000e+00 0.000000e+00 0.000000e+00 0.000000e+00
 0.000000e+00 0.000000e+00 0.000000e+00 0.000000e+00 5.000000e-01 5.000000e-01 0.000000e+00 0.000000e+00 0.000000e+00 0.000000e+00 0.000000e+00 0.000000e+00
 0.000000e+00 0.000000e+00 0.000000e+00 0.000000e+00 0.000000e+00 5.000000e-01 5.000000e-01 0.000000e+00 0.000000e+00 0.000000e+00 0.000000e+00 0.000000e+00
 0.000000e+00 0.000000e+00 0.000000e+00 0.000000e+00 0.000000e+00 0.000000e+00 5.000000e-01 5.000000e-01 0.000000e+00 0.000000e+00 0.000000e+00 0.000000e+00
 0.000000e+00 0.000000e+00 0.000000e+00 0.000000e+00 0.000000e+00 0.000000e+00 0.000000e+00 5.000000e-01 5.000000e-01 0.000000e+00 0.000000e+00 0.000000e+00
 0.000000e+00 0.000000e+00 0.000000e+00 0.000000e+00 0.000000e+00 0.000000e+00 0.000000e+00 0.000000e+00 5.000000e-01 5.000000e-01 0.000000e+00 0.000000e+00
 0.000000e+00 0.000000e+00 0.000000e+00 0.000000e+00 0.000000e+00 0.000000e+00 0.000000e+00 0.000000e+00 0.000000e+00 5.000000e-01 5.000000e-01 0.000000e+00
 0.000000e+00 0.000000e+00 0.000000e+00 0.000000e+00 0.000000e+00 0.000000e+00 0.000000e+00 0.000000e+00 0.000000e+00 0.000000e+00 5.000000e-01 5.000000e-01
 0.000000e+00 0.000000e+00 0.000000e+00 0.000000e+00 0.000000e+00 0.000000e+00 0.000000e+00 0.000000e+00 0.000000e+00 0.000000e+00 0.000000e+00 0.000000e+00
<ENDHMM>
~h "seven"
<BEGINHMM>
<NUMSTATES> 12
<STATE> 2
<MEAN> 38
 -1.715982e+01 -4.678491e+00 1.105585e+00 -3.171353e+00 2.005874e+00 -2.667346e+00 -3.976380e-01 -2.395216e-01 -1.981705e+00 5.539864e-01 -1.761958e+00 1.711720e-01 -4.310260e-01 -1.202892e+00 5.043502e-01 -1.286386e+00 3.106681e-01 -5.079416e-01 -8.785319e-01 1.016626e+00 1.970680e-01 -8.697253e-02 2.453706e-01 -1.525692e-01 1.870122e-01 1.612530e-02 1.352987e-02 1.489723e-01 -3.490459e-02 1.448758e-01 5.369454e-03 4.465095e-02 9.768019e-02 -3.590979e-02 9.087786e-02 -2.410512e-02 3.793944e-02 6.692412e-02
<VARIANCE> 38
 9.205325e+01 2.105737e+01 8.031893e+00 7.017309e+00 4.504217e+00 6.147996e+00 2.085663e+00 1.955168e+00 2.572039e+00 1.274857e+00 2.417788e+00 1.078424e+00 9.917357e-01 1.262797e+00 8.067549e-01 1.263849e+00 6.589890e-01 7.467564e-01 8.650119e-01 6.788979e+00 9.635584e-01 2.497743e-01 3.780645e-01 2.022137e-01 2.692098e-01 8.882796e-02 8.243278e-02 1.848962e-01 7.207341e-02 1.785735e-01 5.859982e-02 5.456380e-02 7.872435e-02 4.324603e-02 9.445713e-02 3.760659e-02 4.517001e-02 5.177924e-02
<GCONST> 5.022737e+01
<STATE> 3
<MEAN> 38
 -1.263777e+01 -2.951096e+00 1.226686e+00 -2.656960e+00 2.180460e+00 -1.973748e+00 -6.022745e-02 2.223468e-02 -1.511909e+00 7.943691e-01 -1.240952e+00 4.581261e-01 -1.693483e-01 -8.964775e-01 7.012453e-01 -8.342614e-01 5.810733e-01 -1.926328e-01 -5.714244e-01 -2.513482e+00 -7.670614e-01 4.244234e-02 -3.676506e-01 6.930202e-02 -3.666919e-01 -1.550027e-01 -1.512351e-01 -3.023547e-01 -7.228306e-02 -3.131754e-01 -1.143223e-01 -1.383862e-01 -1.997394e-01 -5.276677e-02 -2.446933e-01 -1.030452e-01 -1.652556e-01 -1.751643e-01
<VARIANCE> 38
 1.301733e+02 2.655241e+01 6.497268e+00 6.716018e+00 3.762367e+00 6.715926e+00 2.305315e+00 2.180021e+00 2.742170e+00 1.380538e+00 2.680110e+00 1.214771e+00 1.169842e+00 1.529706e+00 8.650932e-01 1.640213e+00 7.764241e-01 9.298046e-01 1.101539e+00 7.863111e+00 1.277366e+00 2.826100e-01 3.839256e-01 1.937295e-01 3.551692e-01 1.442165e-01 1.248741e-01 1.963292e-01 8.814999e-02 1.758617e-01 6.587360e-02 6.628880e-02 8.918735e-02 4.814059e-02 1.110622e-01 4.635837e-02 5.778829e-02 6.368682e-02
<GCONST> 5.566137e+01
<STATE> 4
<MEAN> 38
 -3.834383e+00 -9.620580e-02 1.105360e+00 -1.317679e+00 2.005881e+00 -6.643891e-01 4.565646e-01 5.456856e-01 -4.477310e-01 1.042575e+00 -1.597692e-01 8.104108e-01 3.133620e-01 -1.634142e-01 8.996888e-01 1.479746e-02 9.129272e-01 3.988391e-01 6.458126e-02 -3.110821e+00 -1.028921e+00 9.096387e-02 -3.350585e-01 7.682195e-02 -4.107244e-01 -1.995383e-01 -1.534491e-01 -2.934450e-01 -6.944972e-02 -3.029502e-01 -9.049306e-02 -1.566175e-01 -2.178922e-01 -4.198289e-02 -2.373171e-01 -8.621041e-02 -1.739624e-01 -1.877091e-01
<VARIANCE> 38
 1.104196e+02 2.160938e+01 5.349875e+00 5.648187e+00 3.592736e+00 5.405598e+00 2.514669e+00 2.261880e+00 2.707943e+00 1.776844e+00 2.416265e+00 1.400759e+00 1.130911e+00 1.486938e+00 1.071846e+00 1.556886e+00 9.571810e-01 9.711574e-01 1.177307e+00 7.709970e+00 1.357024e+00 3.504806e-01 4.247644e-01 2.593520e-01 4.198388e-01 2.065451e-01 1.768392e-01 2.176787e-01 1.157353e-01 1.914272e-01 8.264089e-02 7.673606e-02 9.624815e-02 5.452799e-02 1.124362e-01 5.062569e-02 6.214762e-02 7.111152e-02
<GCONST> 5.832269e+01
<STATE> 5
<MEAN> 38
 1.961248e+00 1.864057e+00 7.935159e-01 -9.735394e-01 1.798321e+00 -5.183017e-02 8.228449e-01 8.047955e-01 -7.838309e-04 1.168215e+00 2.768161e-01 8.895258e-01 5.509796e-01 1.813888e-01 9.459884e-01 3.533991e-01 1.023098e+00 6.615222e-01 3.302708e-01 -2.299608e+00 -7.768970e-01 1.133307e-01 -1.411564e-01 7.204646e-02 -2.537032e-01 -1.434811e-01 -7.001667e-02 -1.415802e-01 -2.332271e-02 -1.343990e-01 -1.437008e-02 -9.615844e-02 -1.217288e-01 2.907953e-03 -1.066381e-01 -1.190105e-02 -8.722461e-02 -1.001563e-01
<VARIANCE> 38
 6.409264e+01 1.390153e+01 5.121651e+00 4.713267e+00 3.668870e+00 4.165888e+00 2.755804e+00 2.354040e+00 2.421300e+00 2.122166e+00 1.988402e+00 1.433505e+00 1.103175e+00 1.300955e+00 1.146047e+00 1.310552e+00 9.855238e-01 9.004995e-01 1.123671e+00 5.976339e+00 1.050830e+00 3.024779e-01 3.326958e-01 2.294539e-01 3.380924e-01 1.866751e-01 1.646010e-01 1.731818e-01 1.045702e-01 1.592626e-01 7.548562e-02 6.721553e-02 8.061658e-02 5.130214e-02 8.902118e-02 4.551147e-02 5.164056e-02 6.105779e-02
<GCONST> 5.347536e+01
<STATE> 6
<MEAN> 38
 4.280755e+00 2.528004e+00 4.972660e-01 -1.064997e+00 1.666153e+00 5.471904e-02 9.449321e-01 8.067210e-01 5.800530e-03 1.129071e+00 2.251735e-01 8.031430e-01 5.842921e-01 1.744647e-01 8.390561e-01 3.195125e-01 9.343625e-01 6.362672e-01 3.207858e-01 -1.188041e+00 -3.783870e-01 9.002257e-02 -3.530046e-02 8.502296e-02 -9.654953e-02 -5.884796e-02 1.108115e-02 -2.016638e-02 3.376991e-02 2.858266e-03 4.150681e-02 -3.100883e-02 -3.164089e-02 4.401999e-02 1.333287e-03 4.966988e-02 -1.025710e-02 -2.461370e-02
<VARIANCE> 38
 4.697453e+01 1.142383e+01 4.834808e+00 4.794899e+00 3.858471e+00 3.880122e+00 3.039596e+00 2.493055e+00 2.415576e+00 2.164773e+00 1.941461e+00 1.434480e+00 1.135440e+00 1.189820e+00 1.101677e+00 1.145305e+00 9.107341e-01 7.924957e-01 1.019432e+00 3.637111e+00 6.357833e-01 2.176166e-01 2.174695e-01 1.660448e-01 2.039775e-01 1.256589e-01 1.121003e-01 1.101033e-01 8.069432e-02 1.064989e-01 5.939094e-02 4.922757e-02 5.423626e-02 4.656326e-02 5.841148e-02 3.836077e-02 3.971489e-02 4.632430e-02
<GCONST> 4.586580e+01
<STATE> 7
<MEAN> 38
 5.198120e+00 2.721796e+00 4.503518e-01 -9.446266e-01 1.458389e+00 7.887293e-02 9.385320e-01 7.012856e-01 -3.347434e-04 1.033942e+00 1.362934e-01 7.175272e-01 5.765611e-01 1.206877e-01 7.008711e-01 2.395252e-01 7.967753e-01 6.056956e-01 3.254496e-01 -4.891301e-01 -1.302620e-01 2.935102e-02 -7.753032e-02 1.081567e-01 -4.206212e-02 -2.236859e-03 4.129434e-02 3.500998e-03 7.336614e-02 3.425762e-02 5.655517e-02 -6.100780e-03 -1.300938e-02 5.560863e-02 2.030444e-02 6.458750e-02 7.767796e-03 -1.601400e-02
<VARIANCE> 38
 3.922045e+01 9.561584e+00 4.651946e+00 4.695261e+00 3.779494e+00 3.648543e+00 3.010777e+00 2.388134e+00 2.336378e+00 2.023788e+00 1.862440e+00 1.362298e+00 1.085104e+00 1.011670e+00 9.834464e-01 9.666346e-01 8.531428e-01 7.245874e-01 8.982587e-01 2.015282e+00 3.556794e-01 1.726007e-01 1.792871e-01 1.320539e-01 1.359345e-01 8.671788e-02 7.503679e-02 8.257519e-02 7.080670e-02 8.148261e-02 5.051815e-02 3.994569e-02 4.207176e-02 4.162869e-02 4.575964e-02 3.583213e-02 3.990145e-02 4.783070e-02
<GCONST> 3.964532e+01
<STATE> 8
<MEAN> 38
 5.700099e+00 2.825724e+00 5.386595e-01 -5.495402e-01 1.152173e+00 2.297264e-01 9.109033e-01 6.104336e-01 5.129109e-02 8.157644e-01 1.172177e-01 6.159982e-01 6.153535e-01 2.106219e-01 5.947257e-01 2.616466e-01 6.673155e-01 6.312782e-01 4.416034e-01 -1.688745e-01 -4.533296e-02 -2.794395e-02 -1.434703e-01 1.077584e-01 -5.708181e-02 1.670328e-02 2.991057e-02 -2.088068e-02 8.259115e-02 1.526061e-03 4.450874e-02 -4.647207e-03 -3.458830e-02 3.778935e-02 -1.147413e-02 4.889414e-02 -2.118221e-03 -3.834424e-02
<VARIANCE> 38
 3.734707e+01 9.604901e+00 4.251075e+00 4.456309e+00 3.617624e+00 3.303007e+00 2.702550e+00 2.250754e+00 2.254764e+00 1.884231e+00 1.750022e+00 1.340485e+00 1.036762e+00 9.427211e-01 9.213460e-01 8.803362e-01 8.496673e-01 7.496074e-01 8.579691e-01 1.646672e+00 3.170950e-01 1.658417e-01 1.953238e-01 1.549761e-01 1.319420e-01 8.200847e-02 7.489868e-02 8.942454e-02 7.452571e-02 7.656462e-02 5.150066e-02 4.170528e-02 4.343703e-02 4.077927e-02 4.267593e-02 3.575888e-02 4.135629e-02 5.323462e-02
<GCONST> 3.868653e+01
<STATE> 9
<MEAN> 38
 6.192374e+00 3.059275e+00 6.927015e-01 -4.300028e-02 8.510336e-01 5.043145e-01 8.937999e-01 5.761319e-01 1.589766e-01 5.596921e-01 2.099787e-01 5.195581e-01 6.598048e-01 4.068381e-01 5.466778e-01 3.940362e-01 5.833915e-01 6.801683e-01 6.175896e-01 -3.209891e-02 -3.129075e-02 -4.724773e-02 -1.310302e-01 7.171748e-02 -7.454752e-02 1.545627e-02 7.828576e-03 -4.630471e-02 4.766112e-02 -4.407865e-02 1.198856e-02 -3.192485e-03 -4.013666e-02 1.010621e-02 -3.989023e-02 2.156235e-02 -5.757711e-03 -3.752637e-02
<VARIANCE> 38
 3.063155e+01 9.006809e+00 3.975434e+00 4.188570e+00 3.425846e+00 2.847717e+00 2.323072e+00 1.986578e+00 2.039212e+00 1.755465e+00 1.676139e+00 1.297252e+00 9.734909e-01 9.044607e-01 9.344062e-01 8.430287e-01 8.667012e-01 8.178903e-01 8.790731e-01 1.394007e+00 3.135395e-01 1.732301e-01 2.295444e-01 1.835153e-01 1.292021e-01 9.005439e-02 8.272399e-02 9.639238e-02 8.376368e-02 8.354829e-02 5.647703e-02 4.562096e-02 4.470504e-02 4.449026e-02 4.103233e-02 3.804457e-02 4.018033e-02 5.266433e-02
<GCONST> 3.849486e+01
<STATE> 10
<MEAN> 38
 6.662584e+00 3.277817e+00 8.430100e-01 4.171108e-01 6.117041e-01 8.872491e-01 8.350019e-01 5.683294e-01 4.440097e-01 5.105203e-01 5.509087e-01 5.559723e-01 6.492730e-01 5.444452e-01 5.280985e-01 6.145068e-01 5.620892e-01 7.091019e-01 7.231301e-01 2.762114e-02 5.411664e-03 -4.556270e-02 -9.638641e-02 4.483482e-02 -6.293288e-02 2.107622e-02 -5.691158e-03 -7.946689e-02 -2.380626e-02 -9.599129e-02 -2.862771e-02 3.430810e-03 -1.490034e-02 8.729206e-03 -4.289543e-02 -2.585161e-03 -3.958350e-03 -1.363313e-02
<VARIANCE> 38
 2.063565e+01 7.182747e+00 3.779332e+00 4.133212e+00 3.398808e+00 2.609730e+00 2.120038e+00 1.833278e+00 2.196739e+00 1.887932e+00 2.026545e+00 1.389032e+00 1.009748e+00 9.196118e-01 1.050815e+00 9.438617e-01 9.293345e-01 8.717661e-01 8.812393e-01 9.652709e-01 2.818155e-01 1.664714e-01 2.417380e-01 1.781127e-01 1.198629e-01 9.787589e-02 8.805335e-02 1.186458e-01 9.270106e-02 1.031827e-01 6.417842e-02 5.018824e-02 4.464199e-02 5.210330e-02 4.492601e-02 4.193638e-02 4.108484e-02 4.760435e-02
<GCONST> 3.895547e+01
<STATE> 11
<MEAN> 38
 6.004602e+00 2.516123e+00 9.583858e-01 1.330756e+00 9.510237e-02 1.157632e+00 5.379851e-01 5.614377e-01 1.084359e+00 6.505308e-01 1.190863e+00 6.050398e-01 4.953205e-01 5.253083e-01 2.175705e-01 7.366536e-01 4.261996e-01 6.216789e-01 6.917170e-01 3.766869e-01 1.938475e-01 3.697222e-02 -2.450272e-02 5.941560e-02 4.913441e-02 6.181898e-02 2.904425e-02 -8.137174e-03 1.706595e-02 -3.450827e-03 1.765918e-02 2.975056e-02 1.696447e-02 3.104733e-02 1.956101e-02 2.401910e-02 2.946132e-02 2.982572e-02
<VARIANCE> 38
 2.019151e+01 7.075109e+00 3.653375e+00 4.252491e+00 3.865289e+00 2.643417e+00 2.293205e+00 2.118138e+00 2.778068e+00 2.165956e+00 2.592932e+00 1.607862e+00 1.212943e+00 1.026476e+00 1.161676e+00 1.148342e+00 1.029466e+00 8.923375e-01 8.279139e-01 1.076187e+00 2.987505e-01 1.742893e-01 2.313817e-01 1.598055e-01 1.322582e-01 9.436124e-02 9.111455e-02 1.482614e-01 1.035591e-01 1.354203e-01 7.103025e-02 5.109138e-02 4.214256e-02 4.879265e-02 5.011449e-02 4.311138e-02 4.085438e-02 4.063310e-02
<GCONST> 4.142661e+01
<TRANSP> 12
 0.000000e+00 1.000000e+00 0.000000e+00 0.000000e+00 0.000000e+00 0.000000e+00 0.000000e+00 0.000000e+00 0.000000e+00 0.000000e+00 0.000000e+00 0.000000e+00
 0.000000e+00 9.024995e-01 9.750048e-02 0.000000e+00 0.000000e+00 0.000000e+00 0.000000e+00 0.000000e+00 0.000000e+00 0.000000e+00 0.000000e+00 0.000000e+00
 0.000000e+00 0.000000e+00 6.712257e-01 3.287744e-01 0.000000e+00 0.000000e+00 0.000000e+00 0.000000e+00 0.000000e+00 0.000000e+00 0.000000e+00 0.000000e+00
 0.000000e+00 0.000000e+00 0.000000e+00 5.532149e-01 4.467851e-01 0.000000e+00 0.000000e+00 0.000000e+00 0.000000e+00 0.000000e+00 0.000000e+00 0.000000e+00
 0.000000e+00 0.000000e+00 0.000000e+00 0.000000e+00 5.205542e-01 4.794459e-01 0.000000e+00 0.000000e+00 0.000000e+00 0.000000e+00 0.000000e+00 0.000000e+00
 0.000000e+00 0.000000e+00 0.000000e+00 0.000000e+00 0.000000e+00 5.443349e-01 4.556651e-01 0.000000e+00 0.000000e+00 0.000000e+00 0.000000e+00 0.000000e+00
 0.000000e+00 0.000000e+00 0.000000e+00 0.000000e+00 0.000000e+00 0.000000e+00 5.999923e-01 4.000077e-01 0.000000e+00 0.000000e+00 0.000000e+00 0.000000e+00
 0.000000e+00 0.000000e+00 0.000000e+00 0.000000e+00 0.000000e+00 0.000000e+00 0.000000e+00 6.787357e-01 3.212643e-01 0.000000e+00 0.000000e+00 0.000000e+00
 0.000000e+00 0.000000e+00 0.000000e+00 0.000000e+00 0.000000e+00 0.000000e+00 0.000000e+00 0.000000e+00 7.507223e-01 2.492777e-01 0.000000e+00 0.000000e+00
 0.000000e+00 0.000000e+00 0.000000e+00 0.000000e+00 0.000000e+00 0.000000e+00 0.000000e+00 0.000000e+00 0.000000e+00 8.254048e-01 1.745953e-01 0.000000e+00
 0.000000e+00 0.000000e+00 0.000000e+00 0.000000e+00 0.000000e+00 0.000000e+00 0.000000e+00 0.000000e+00 0.000000e+00 0.000000e+00 9.181942e-01 8.180584e-02
 0.000000e+00 0.000000e+00 0.000000e+00 0.000000e+00 0.000000e+00 0.000000e+00 0.000000e+00 0.000000e+00 0.000000e+00 0.000000e+00 0.000000e+00 0.000000e+00
<ENDHMM>
~h "three"
<BEGINHMM>
<NUMSTATES> 12
<STATE> 2
<MEAN> 38
 -4.432579e+00 -1.140486e+00 6.285341e-01 -7.632022e-01 4.003187e-01 -1.174687e+00 -2.818322e-01 -5.908868e-02 -5.324968e-01 1.763626e-01 -5.578582e-01 6.770143e-02 -1.727716e-01 -4.342288e-01 1.166725e-01 -3.748264e-01 2.153859e-01 -8.496463e-03 -1.493874e-01 -7.055016e-01 -4.316976e-01 -1.179679e-01 -5.673688e-02 -1.093020e-01 -6.225854e-02 -6.065504e-02 -3.885999e-02 -1.132627e-02 -3.428202e-02 -2.772299e-02 -4.884426e-02 -7.626452e-02 -8.309443e-02 -9.491614e-02 -9.011979e-02 -9.094293e-02 -8.714999e-02 -8.139217e-02
<VARIANCE> 38
 6.426934e+01 1.745440e+01 6.256471e+00 6.965935e+00 5.310905e+00 4.779974e+00 2.660782e+00 2.402166e+00 1.875802e+00 2.191139e+00 1.758926e+00 1.529554e+00 1.207197e+00 1.251498e+00 1.151234e+00 1.115056e+00 9.763771e-01 8.488984e-01 9.152397e-01 4.181730e+00 1.099187e+00 3.599268e-01 4.926938e-01 2.682346e-01 2.563773e-01 1.258232e-01 1.165307e-01 1.074626e-01 1.360224e-01 1.186916e-01 9.978397e-02 7.599927e-02 8.548514e-02 6.598014e-02 8.057992e-02 5.428059e-02 5.326915e-02 5.866808e-02
<GCONST> 5.379445e+01
<STATE> 3
<MEAN> 38
 1.649397e+00 2.375525e+00 1.676499e+00 4.274198e-01 9.718088e-01 -3.090189e-01 1.519964e-01 1.815376e-01 -2.882276e-01 1.570308e-01 -2.365984e-01 2.141931e-01 3.033777e-01 2.682340e-01 6.395299e-01 3.981835e-01 7.262937e-01 5.964463e-01 4.935481e-01 -1.564219e+00 -9.802736e-01 -2.715571e-01 -3.421755e-01 -1.632359e-01 -2.685685e-01 -8.037490e-02 1.772514e-02 2.487874e-02 1.036476e-01 -3.032606e-02 1.846045e-02 -9.730558e-02 -1.788267e-01 -1.263124e-01 -2.050820e-01 -1.027549e-01 -1.342212e-01 -1.518655e-01
<VARIANCE> 38
 6.485609e+01 2.246343e+01 7.311773e+00 8.161185e+00 4.818070e+00 4.487371e+00 2.394187e+00 2.250388e+00 1.748559e+00 2.252803e+00 1.832508e+00 1.784323e+00 1.290124e+00 1.376486e+00 1.118092e+00 1.287052e+00 8.623848e-01 8.133788e-01 9.027783e-01 3.347630e+00 1.010797e+00 3.870172e-01 5.176923e-01 2.792704e-01 2.619144e-01 1.381575e-01 1.413504e-01 1.209318e-01 1.451515e-01 1.255077e-01 1.153152e-01 8.196674e-02 8.361228e-02 7.132193e-02 7.967007e-02 5.238769e-02 5.195652e-02 5.395423e-02
<GCONST> 5.480980e+01
<STATE> 4
<MEAN> 38
 5.714498e+00 5.188472e+00 2.440474e+00 1.247431e+00 1.515961e+00 4.118764e-01 3.509409e-01 5.046260e-02 -5.336856e-01 -2.469837e-01 -3.045499e-01 9.161854e-02 5.380253e-01 7.458626e-01 1.024907e+00 9.432216e-01 1.008562e+00 9.421924e-01 8.705012e-01 -9.481636e-01 -6.838272e-01 -7.181610e-02 -1.628607e-02 -1.235349e-01 -1.277569e-01 -2.835561e-02 5.445351e-02 1.100943e-01 7.870034e-02 -1.724732e-02 -5.523059e-02 -1.337945e-01 -1.733596e-01 -1.576362e-01 -1.439753e-01 -8.312511e-02 -7.716026e-02 -7.585894e-02
<VARIANCE> 38
 4.729783e+01 2.019906e+01 7.390097e+00 7.573438e+00 5.173862e+00 3.975593e+00 2.597455e+00 2.613622e+00 2.137208e+00 2.720738e+00 2.326014e+00 2.284828e+00 1.500361e+00 1.487996e+00 1.326744e+00 1.246396e+00 9.653781e-01 8.606958e-01 8.289253e-01 2.552697e+00 9.023451e-01 4.076331e-01 5.717124e-01 2.736846e-01 2.539583e-01 1.366481e-01 1.470365e-01 1.243600e-01 1.478270e-01 1.237897e-01 1.241072e-01 8.795366e-02 7.874243e-02 7.195339e-02 7.095301e-02 5.040612e-02 4.808444e-02 4.587919e-02
<GCONST> 5.530722e+01
<STATE> 5
<MEAN> 38
 6.945888e+00 6.206032e+00 2.180837e+00 5.815234e-01 1.671369e+00 4.165874e-01 3.505535e-01 -7.049319e-02 -8.638542e-01 -2.838329e-01 -1.891465e-01 4.651558e-01 1.012812e+00 1.220104e+00 1.512286e+00 1.213653e+00 1.231945e+00 1.062462e+00 9.377931e-01 -2.443416e-01 -1.070070e-01 2.781140e-01 3.909601e-01 2.483180e-02 4.673722e-02 -1.945123e-04 7.579252e-03 3.970242e-02 -1.029983e-01 -1.448308e-01 -2.289325e-01 -2.110196e-01 -1.642378e-01 -1.525485e-01 -4.517267e-02 -3.152217e-02 5.350992e-03 1.342558e-02
<VARIANCE> 38
 4.201932e+01 1.844484e+01 7.541436e+00 8.410204e+00 5.438588e+00 3.875284e+00 2.980945e+00 3.324282e+00 2.631155e+00 3.111769e+00 2.810722e+00 2.557401e+00 1.714640e+00 1.629834e+00 1.461697e+00 1.284343e+00 1.107147e+00 9.796946e-01 8.411151e-01 1.761990e+00 7.812902e-01 4.044372e-01 4.922257e-01 2.534541e-01 2.000018e-01 1.260826e-01 1.414879e-01 1.365097e-01 1.748339e-01 1.371251e-01 1.307997e-01 9.468731e-02 8.281462e-02 7.096565e-02 6.444032e-02 4.816747e-02 4.309132e-02 3.722457e-02
<GCONST> 5.586134e+01
<STATE> 6
<MEAN> 38
 6.152773e+00 5.307944e+00 9.981353e-01 -9.049364e-01 1.393464e+00 9.763400e-02 3.859700e-01 7.995021e-02 -7.215733e-01 3.454307e-01 4.244067e-01 1.304903e+00 1.622300e+00 1.570253e+00 1.840180e+00 1.165259e+00 1.234706e+00 9.327933e-01 7.861589e-01 2.061194e-01 3.739734e-01 4.679690e-01 5.012340e-01 1.228389e-01 6.224672e-02 -6.599432e-02 -1.040823e-01 -1.307946e-01 -2.766575e-01 -2.527528e-01 -2.776704e-01 -1.769624e-01 -7.288895e-02 -5.080899e-02 5.251873e-02 4.104579e-02 6.612462e-02 5.255038e-02
<VARIANCE> 38
 5.490137e+01 2.057616e+01 7.998966e+00 8.803656e+00 5.332132e+00 3.770833e+00 3.255518e+00 3.946681e+00 3.012341e+00 3.618406e+00 3.100019e+00 2.483737e+00 1.829743e+00 1.777403e+00 1.410691e+00 1.370241e+00 1.173868e+00 1.018877e+00 8.136751e-01 1.692706e+00 6.685843e-01 3.835201e-01 3.857318e-01 2.206823e-01 1.658247e-01 1.336227e-01 1.413952e-01 1.517564e-01 1.816926e-01 1.478477e-01 1.244116e-01 9.803763e-02 9.166567e-02 6.917398e-02 6.115977e-02 4.612989e-02 3.828643e-02 3.409489e-02
<GCONST> 5.637321e+01
<STATE> 7
<MEAN> 38
 4.825164e+00 3.677015e+00 -2.818338e-01 -2.122962e+00 1.064269e+00 1.531005e-02 7.040023e-01 5.344180e-01 -1.182378e-01 1.276191e+00 1.149294e+00 1.979974e+00 1.930369e+00 1.549001e+00 1.793952e+00 9.167871e-01 1.060350e+00 7.259288e-01 6.425434e-01 3.989179e-01 5.600783e-01 4.236002e-01 3.544258e-01 1.029874e-01 -3.903676e-02 -1.609731e-01 -1.869547e-01 -2.358172e-01 -3.052036e-01 -2.211535e-01 -1.685242e-01 -5.052079e-02 5.081223e-02 5.673308e-02 8.648352e-02 6.205278e-02 6.001846e-02 3.627417e-02
<VARIANCE> 38
 6.101141e+01 1.852017e+01 8.273704e+00 7.602985e+00 5.110649e+00 3.682053e+00 3.342682e+00 4.109618e+00 3.048270e+00 3.724222e+00 2.954466e+00 2.132467e+00 1.806115e+00 1.853132e+00 1.318453e+00 1.275768e+00 1.149984e+00 9.334983e-01 7.418110e-01 1.816534e+00 6.086017e-01 3.750115e-01 3.252924e-01 1.945886e-01 1.575862e-01 1.427882e-01 1.389206e-01 1.522399e-01 1.693688e-01 1.430939e-01 1.081738e-01 8.700816e-02 8.252501e-02 5.924354e-02 5.622047e-02 4.536831e-02 3.757906e-02 3.340549e-02
<GCONST> 5.468723e+01
<STATE> 8
<MEAN> 38
 4.046761e+00 2.305057e+00 -1.295379e+00 -2.771726e+00 8.623717e-01 3.189489e-01 1.268857e+00 1.092162e+00 5.831131e-01 2.020566e+00 1.609860e+00 2.215863e+00 1.896688e+00 1.290935e+00 1.561760e+00 7.401607e-01 9.313304e-01 6.425203e-01 6.149282e-01 4.469016e-01 4.990061e-01 2.551659e-01 1.204802e-01 2.064164e-02 -1.157423e-01 -1.787434e-01 -1.729316e-01 -2.154683e-01 -2.082041e-01 -1.062100e-01 -2.638990e-02 5.955653e-02 1.151073e-01 9.243096e-02 6.123436e-02 3.295004e-02 1.760663e-02 1.146981e-02
<VARIANCE> 38
 4.808297e+01 1.361798e+01 8.210854e+00 6.360968e+00 5.189777e+00 3.595875e+00 3.310859e+00 3.668389e+00 2.767900e+00 3.648995e+00 2.725944e+00 1.926681e+00 1.786538e+00 1.829291e+00 1.255644e+00 1.122437e+00 1.050582e+00 8.417206e-01 6.837708e-01 1.565889e+00 5.394955e-01 3.150298e-01 2.668852e-01 1.662651e-01 1.442973e-01 1.470050e-01 1.388482e-01 1.389652e-01 1.376893e-01 1.192352e-01 8.340261e-02 7.005166e-02 6.672596e-02 5.200778e-02 4.967573e-02 4.475879e-02 3.709245e-02 3.165764e-02
<GCONST> 5.068681e+01
<STATE> 9
<MEAN> 38
 3.539820e+00 1.392766e+00 -1.929222e+00 -2.818930e+00 9.163588e-01 7.913739e-01 1.783121e+00 1.499592e+00 1.131658e+00 2.473995e+00 1.825975e+00 2.156292e+00 1.664585e+00 9.806148e-01 1.321129e+00 6.682754e-01 8.882838e-01 6.648222e-01 6.279767e-01 4.999552e-01 3.520767e-01 3.934377e-02 -1.119176e-01 -3.066157e-02 -8.377846e-02 -8.818140e-02 -8.466247e-02 -1.221888e-01 -6.436472e-02 2.223713e-03 6.921163e-02 1.158965e-01 1.202138e-01 9.402469e-02 4.173676e-02 1.351249e-02 -1.034938e-03 1.402870e-02
<VARIANCE> 38
 3.025235e+01 1.014816e+01 7.866219e+00 5.623970e+00 5.197685e+00 3.433543e+00 3.226825e+00 3.123019e+00 2.625786e+00 3.683284e+00 2.489267e+00 1.874387e+00 1.770686e+00 1.789110e+00 1.212908e+00 1.030589e+00 9.419209e-01 7.700315e-01 6.397000e-01 1.199322e+00 4.248077e-01 2.738486e-01 2.473989e-01 1.479085e-01 1.515598e-01 1.499911e-01 1.403918e-01 1.210804e-01 1.199140e-01 1.022159e-01 7.201301e-02 6.397978e-02 5.989509e-02 5.004462e-02 4.605255e-02 4.460574e-02 3.677159e-02 3.102460e-02
<GCONST> 4.727404e+01
<STATE> 10
<MEAN> 38
 2.474647e+00 6.384292e-01 -1.887706e+00 -2.082819e+00 1.030988e+00 1.059891e+00 1.935482e+00 1.676141e+00 1.480756e+00 2.489878e+00 1.746127e+00 1.822272e+00 1.228702e+00 6.060193e-01 9.778688e-01 5.513338e-01 8.071587e-01 6.690005e-01 5.856167e-01 5.610831e-01 2.566094e-01 -1.395032e-01 -2.639919e-01 1.793841e-02 2.511530e-02 6.279600e-02 2.508114e-02 -1.104145e-02 1.033135e-01 9.972778e-02 1.445719e-01 1.526336e-01 1.164147e-01 1.182311e-01 5.913706e-02 4.523485e-02 2.839097e-02 4.056700e-02
<VARIANCE> 38
 2.514067e+01 9.490137e+00 7.448448e+00 5.604249e+00 4.832208e+00 3.547625e+00 3.538911e+00 3.190146e+00 2.880629e+00 3.560040e+00 2.464659e+00 1.938671e+00 1.655769e+00 1.592862e+00 1.198587e+00 9.764435e-01 9.359264e-01 7.401422e-01 6.363340e-01 1.281344e+00 3.767107e-01 2.722892e-01 2.717356e-01 1.822165e-01 1.825456e-01 1.666363e-01 1.477974e-01 1.290399e-01 1.402405e-01 1.141103e-01 7.986334e-02 7.101854e-02 6.714647e-02 5.495446e-02 5.044969e-02 4.802404e-02 4.034390e-02 3.307687e-02
<GCONST> 4.847242e+01
<STATE> 11
<MEAN> 38
 1.409937e+00 1.031106e-01 -9.166440e-01 -4.612800e-01 5.597939e-01 1.029750e+00 1.457004e+00 1.335908e+00 1.308565e+00 1.379666e+00 9.923254e-01 7.787808e-01 3.516290e-01 5.604254e-02 1.729335e-01 1.693211e-01 3.248720e-01 3.765111e-01 3.404153e-01 4.502709e-01 2.184242e-01 -1.284547e-01 -1.849446e-01 1.416730e-01 1.304634e-01 2.003268e-01 1.554455e-01 1.211811e-01 2.329887e-01 1.672120e-01 1.929554e-01 1.583081e-01 9.966756e-02 1.343778e-01 8.190681e-02 9.485787e-02 8.147361e-02 7.361752e-02
<VARIANCE> 38
 2.973118e+01 1.142964e+01 7.250464e+00 6.044555e+00 4.662674e+00 4.350019e+00 4.425015e+00 3.987514e+00 3.360465e+00 3.667445e+00 2.715318e+00 2.191041e+00 1.551224e+00 1.274544e+00 1.377391e+00 1.011328e+00 1.117194e+00 8.781941e-01 7.604073e-01 1.322489e+00 3.605968e-01 2.471026e-01 2.752346e-01 2.139773e-01 1.836583e-01 1.837639e-01 1.580046e-01 1.399871e-01 1.491505e-01 1.159533e-01 8.914334e-02 7.290912e-02 6.629619e-02 5.744412e-02 5.384701e-02 5.209133e-02 4.392893e-02 3.763736e-02
<GCONST> 5.122728e+01
<TRANSP> 12
 0.000000e+00 1.000000e+00 0.000000e+00 0.000000e+00 0.000000e+00 0.000000e+00 0.000000e+00 0.000000e+00 0.000000e+00 0.000000e+00 0.000000e+00 0.000000e+00
 0.000000e+00 8.427237e-01 1.572762e-01 0.000000e+00 0.000000e+00 0.000000e+00 0.000000e+00 0.000000e+00 0.000000e+00 0.000000e+00 0.000000e+00 0.000000e+00
 0.000000e+00 0.000000e+00 7.093663e-01 2.906338e-01 0.000000e+00 0.000000e+00 0.000000e+00 0.000000e+00 0.000000e+00 0.000000e+00 0.000000e+00 0.000000e+00
 0.000000e+00 0.000000e+00 0.000000e+00 6.623444e-01 3.376556e-01 0.000000e+00 0.000000e+00 0.000000e+00 0.000000e+00 0.000000e+00 0.000000e+00 0.000000e+00
 0.000000e+00 0.000000e+00 0.000000e+00 0.000000e+00 6.441967e-01 3.558033e-01 0.000000e+00 0.000000e+00 0.000000e+00 0.000000e+00 0.000000e+00 0.000000e+00
 0.000000e+00 0.000000e+00 0.000000e+00 0.000000e+00 0.000000e+00 6.547740e-01 3.452261e-01 0.000000e+00 0.000000e+00 0.000000e+00 0.000000e+00 0.000000e+00
 0.000000e+00 0.000000e+00 0.000000e+00 0.000000e+00 0.000000e+00 0.000000e+00 6.665692e-01 3.334308e-01 0.000000e+00 0.000000e+00 0.000000e+00 0.000000e+00
 0.000000e+00 0.000000e+00 0.000000e+00 0.000000e+00 0.000000e+00 0.000000e+00 0.000000e+00 6.774623e-01 3.225377e-01 0.000000e+00 0.000000e+00 0.000000e+00
 0.000000e+00 0.000000e+00 0.000000e+00 0.000000e+00 0.000000e+00 0.000000e+00 0.000000e+00 0.000000e+00 6.932763e-01 3.067237e-01 0.000000e+00 0.000000e+00
 0.000000e+00 0.000000e+00 0.000000e+00 0.000000e+00 0.000000e+00 0.000000e+00 0.000000e+00 0.000000e+00 0.000000e+00 7.280903e-01 2.719098e-01 0.000000e+00
 0.000000e+00 0.000000e+00 0.000000e+00 0.000000e+00 0.000000e+00 0.000000e+00 0.000000e+00 0.000000e+00 0.000000e+00 0.000000e+00 8.265680e-01 1.734320e-01
 0.000000e+00 0.000000e+00 0.000000e+00 0.000000e+00 0.000000e+00 0.000000e+00 0.000000e+00 0.000000e+00 0.000000e+00 0.000000e+00 0.000000e+00 0.000000e+00
<ENDHMM>
~h "one"
<BEGINHMM>
<NUMSTATES> 12
<STATE> 2
<MEAN> 38
 2.995169e+00 2.158947e+00 1.604433e+00 1.632571e+00 9.595692e-01 1.458980e+00 1.175558e+00 1.001941e+00 9.271021e-01 5.122594e-01 7.111163e-01 4.174122e-01 2.886297e-01 2.124131e-01 -3.149623e-02 1.136775e-01 -3.681532e-02 1.186450e-01 2.549828e-01 -4.828829e-01 -3.458636e-01 -1.891826e-01 -1.074486e-01 -1.757542e-01 -2.085828e-01 -2.360477e-01 -1.955142e-01 -1.240788e-01 -1.022534e-01 -7.579358e-02 -7.511053e-02 -5.721037e-02 -3.384801e-02 -3.643124e-02 -1.398074e-02 -5.736812e-03 -8.696189e-03 -1.226776e-02
<VARIANCE> 38
 3.022649e+01 1.082927e+01 5.523600e+00 6.479992e+00 5.195776e+00 4.243336e+00 3.980672e+00 3.508018e+00 2.787816e+00 2.396017e+00 2.334192e+00 1.973009e+00 1.556913e+00 1.228606e+00 1.312869e+00 1.036880e+00 1.107168e+00 7.827860e-01 6.973774e-01 1.362053e+00 4.714114e-01 2.562519e-01 2.488106e-01 2.188081e-01 1.808122e-01 1.711524e-01 1.420194e-01 1.194029e-01 1.089262e-01 1.104580e-01 8.958879e-02 6.713179e-02 5.398469e-02 5.140597e-02 4.607133e-02 4.662843e-02 3.916179e-02 3.401921e-02
<GCONST> 4.836488e+01
<STATE> 3
<MEAN> 38
 5.036164e+00 3.664963e+00 2.201925e+00 1.776699e+00 1.680414e+00 2.267909e+00 2.178901e+00 1.780844e+00 1.249204e+00 7.992678e-01 8.559335e-01 6.217084e-01 4.662276e-01 3.025606e-01 1.313429e-01 1.475349e-01 -4.283586e-02 9.601076e-02 2.457103e-01 -2.286544e-01 -1.646626e-01 -3.077368e-02 5.926952e-02 -1.159782e-01 -1.034919e-01 -1.448322e-01 -9.461211e-02 3.480471e-03 1.930522e-04 5.464939e-02 2.141596e-02 1.506561e-02 1.745473e-02 -2.010788e-02 2.107983e-02 1.996675e-02 3.202594e-02 3.231273e-02
<VARIANCE> 38
 1.456224e+01 6.448037e+00 3.954062e+00 6.012285e+00 4.341542e+00 3.832403e+00 3.626803e+00 3.491989e+00 3.014692e+00 2.158538e+00 2.476861e+00 1.808912e+00 1.416733e+00 1.310729e+00 1.190848e+00 1.109798e+00 1.078843e+00 8.497258e-01 7.289336e-01 6.376979e-01 2.812955e-01 1.653541e-01 2.170223e-01 1.638275e-01 1.395537e-01 1.379647e-01 1.157015e-01 1.106885e-01 8.755046e-02 1.114483e-01 7.895126e-02 5.912425e-02 5.238718e-02 4.400143e-02 4.374157e-02 4.019407e-02 3.549315e-02 3.165082e-02
<GCONST> 4.240120e+01
<STATE> 4
<MEAN> 38
 5.507588e+00 3.987728e+00 2.141134e+00 1.498537e+00 2.029673e+00 2.524697e+00 2.539706e+00 1.986539e+00 1.116175e+00 6.427912e-01 5.083879e-01 4.116359e-01 3.329504e-01 2.280180e-01 2.025209e-01 6.530005e-02 -1.318237e-01 -4.703572e-02 9.358668e-02 -7.848173e-02 -5.339527e-02 5.269396e-02 1.631979e-01 -6.371233e-02 8.396277e-03 -2.509731e-02 1.393163e-02 1.005676e-01 7.687324e-02 1.570572e-01 9.262630e-02 5.982334e-02 4.211448e-02 -1.725230e-02 3.426295e-02 1.680541e-02 3.742914e-02 3.598090e-02
<VARIANCE> 38
 1.199547e+01 5.481120e+00 3.565827e+00 5.805175e+00 4.367147e+00 3.764920e+00 3.520162e+00 3.495688e+00 3.176672e+00 2.343906e+00 2.911455e+00 1.977128e+00 1.418610e+00 1.334182e+00 1.140050e+00 1.138399e+00 1.132117e+00 9.081167e-01 7.860311e-01 3.690727e-01 1.881496e-01 1.274161e-01 2.031533e-01 1.450367e-01 1.303833e-01 1.266082e-01 1.037655e-01 1.089620e-01 8.369460e-02 1.204401e-01 8.037418e-02 5.938997e-02 5.333084e-02 4.338925e-02 4.539567e-02 4.287520e-02 3.773237e-02 3.399161e-02
<GCONST> 4.105898e+01
<STATE> 5
<MEAN> 38
 5.671966e+00 4.037644e+00 1.866450e+00 8.500738e-01 2.154939e+00 2.330665e+00 2.424890e+00 1.776067e+00 6.811877e-01 2.991064e-01 -1.338645e-01 3.617451e-02 1.069970e-01 8.433752e-02 2.767405e-01 -2.487715e-02 -1.373554e-01 -1.429707e-01 -6.568819e-03 -4.115189e-03 -6.430501e-03 7.296425e-02 2.166233e-01 1.415367e-02 1.157829e-01 8.397613e-02 9.740037e-02 1.446798e-01 9.873276e-02 1.821157e-01 1.012590e-01 5.494924e-02 3.380144e-02 -3.035147e-02 1.169690e-02 -2.357450e-02 -2.383728e-03 -5.144738e-04
<VARIANCE> 38
 1.204266e+01 5.171983e+00 3.605048e+00 5.996082e+00 4.458774e+00 3.893051e+00 3.453615e+00 3.400546e+00 3.311180e+00 2.541365e+00 3.386278e+00 2.147835e+00 1.474819e+00 1.322743e+00 1.140584e+00 1.148140e+00 1.165840e+00 9.168820e-01 8.336369e-01 3.274232e-01 1.612443e-01 1.170192e-01 1.845065e-01 1.387615e-01 1.295048e-01 1.193901e-01 9.527689e-02 1.061575e-01 8.724342e-02 1.286622e-01 8.629288e-02 6.325252e-02 5.371391e-02 4.599885e-02 4.766127e-02 4.828935e-02 4.234292e-02 3.786378e-02
<GCONST> 4.157034e+01
<STATE> 6
<MEAN> 38
 5.615683e+00 4.005662e+00 1.578658e+00 1.571988e-02 1.972912e+00 1.768236e+00 1.982924e+00 1.323778e+00 1.521285e-01 -1.542112e-02 -7.350750e-01 -2.559623e-01 -2.870342e-02 1.551107e-03 4.213016e-01 -5.161628e-03 3.730051e-02 -5.100909e-02 5.886787e-02 6.959141e-02 3.568508e-02 6.610301e-02 1.974546e-01 1.013658e-01 1.794659e-01 1.494103e-01 1.273929e-01 1.146349e-01 4.515456e-02 7.918403e-02 2.283262e-02 -1.842495e-03 -8.132438e-03 -5.030333e-02 -3.760833e-02 -7.646682e-02 -6.094185e-02 -4.758784e-02
<VARIANCE> 38
 1.244514e+01 5.105901e+00 3.727778e+00 5.911586e+00 4.464453e+00 3.953067e+00 3.363280e+00 3.118031e+00 3.161446e+00 2.583834e+00 3.377800e+00 2.146183e+00 1.497820e+00 1.263229e+00 1.189923e+00 1.147766e+00 1.195837e+00 9.415020e-01 8.898954e-01 3.584850e-01 1.581205e-01 1.181257e-01 1.814087e-01 1.356841e-01 1.279266e-01 1.103867e-01 9.238596e-02 1.116071e-01 9.839694e-02 1.538013e-01 9.798644e-02 6.791998e-02 5.295980e-02 4.887685e-02 4.844259e-02 5.009492e-02 4.381637e-02 4.039620e-02
<GCONST> 4.227388e+01
<STATE> 7
<MEAN> 38
 5.278297e+00 3.829701e+00 1.346591e+00 -6.153480e-01 1.554203e+00 1.134597e+00 1.449008e+00 8.943396e-01 -1.489184e-01 -2.777585e-02 -7.960685e-01 -1.828212e-01 7.203814e-02 9.008375e-02 6.195626e-01 1.837095e-01 3.551362e-01 2.098839e-01 2.450792e-01 9.760822e-02 1.006586e-01 5.839276e-02 8.144894e-02 1.585747e-01 1.556826e-01 1.584735e-01 9.963974e-02 1.232364e-02 -5.383731e-02 -1.159216e-01 -9.520572e-02 -6.437270e-02 -4.722463e-02 -3.951090e-02 -7.875283e-02 -9.607247e-02 -9.113114e-02 -6.713456e-02
<VARIANCE> 38
 1.442571e+01 5.322155e+00 3.832622e+00 5.731432e+00 4.375477e+00 3.634246e+00 3.032140e+00 2.644377e+00 3.028018e+00 2.608533e+00 3.436709e+00 2.197301e+00 1.529129e+00 1.196867e+00 1.253613e+00 1.149451e+00 1.175619e+00 9.462314e-01 8.933013e-01 4.759984e-01 1.753510e-01 1.300243e-01 2.151981e-01 1.430789e-01 1.307334e-01 1.076454e-01 9.790523e-02 1.355291e-01 1.081374e-01 1.747609e-01 1.007902e-01 6.838547e-02 5.001033e-02 5.317612e-02 4.793674e-02 4.896348e-02 4.371551e-02 4.329560e-02
<GCONST> 4.338001e+01
<STATE> 8
<MEAN> 38
 4.888401e+00 3.379010e+00 1.155279e+00 -6.766226e-01 1.060580e+00 7.339099e-01 9.802402e-01 6.429482e-01 -2.991399e-02 2.978411e-01 -1.747599e-01 2.532384e-01 3.281098e-01 2.660317e-01 7.145700e-01 4.652096e-01 6.622087e-01 5.014217e-01 4.335660e-01 5.144747e-02 1.752681e-01 4.514162e-02 -1.002053e-01 1.729566e-01 7.043022e-02 1.406893e-01 5.044977e-02 -1.194150e-01 -1.275068e-01 -2.659665e-01 -1.583308e-01 -7.932463e-02 -4.972097e-02 1.187456e-02 -8.614517e-02 -7.033832e-02 -8.338752e-02 -6.223621e-02
<VARIANCE> 38
 2.030630e+01 5.947028e+00 3.963511e+00 5.808886e+00 4.307857e+00 3.259073e+00 2.645587e+00 2.315680e+00 3.371372e+00 2.722998e+00 3.897245e+00 2.279153e+00 1.513929e+00 1.129798e+00 1.322672e+00 1.159286e+00 1.139157e+00 9.270030e-01 9.122068e-01 7.363979e-01 2.152885e-01 1.540874e-01 2.557729e-01 1.641029e-01 1.323501e-01 1.118806e-01 1.042125e-01 1.638045e-01 1.093901e-01 1.708125e-01 9.564433e-02 6.922698e-02 4.900698e-02 5.837296e-02 4.979683e-02 4.830717e-02 4.416601e-02 4.451345e-02
<GCONST> 4.527038e+01
<STATE> 9
<MEAN> 38
 4.591016e+00 2.663356e+00 1.036709e+00 -1.276421e-01 5.915055e-01 6.135373e-01 5.733427e-01 5.312393e-01 4.749948e-01 7.752053e-01 7.365014e-01 7.587577e-01 5.589767e-01 3.952858e-01 6.201313e-01 7.201676e-01 8.426849e-01 7.274907e-01 5.954818e-01 6.700396e-02 2.140859e-01 2.265146e-02 -2.119906e-01 1.457134e-01 1.029581e-02 1.144089e-01 2.097823e-02 -1.771865e-01 -1.236722e-01 -2.544293e-01 -1.249262e-01 -5.080650e-02 -3.022961e-02 5.265331e-02 -5.664422e-02 -2.453460e-02 -5.067041e-02 -4.426553e-02
<VARIANCE> 38
 2.977597e+01 6.782012e+00 4.084562e+00 5.851355e+00 4.253792e+00 3.132008e+00 2.356728e+00 2.211910e+00 3.762678e+00 2.709538e+00 3.825083e+00 2.112740e+00 1.443715e+00 1.086543e+00 1.376695e+00 1.198322e+00 1.145694e+00 9.421914e-01 9.725804e-01 1.145551e+00 2.636471e-01 1.808376e-01 2.633662e-01 1.786610e-01 1.345014e-01 1.125671e-01 1.055215e-01 1.818477e-01 1.113226e-01 1.752081e-01 9.250185e-02 6.768675e-02 4.802066e-02 5.678176e-02 5.206647e-02 4.568552e-02 4.301504e-02 4.270525e-02
<GCONST> 4.660906e+01
<STATE> 10
<MEAN> 38
 4.139324e+00 1.903410e+00 9.419778e-01 5.636247e-01 2.056414e-01 5.909266e-01 2.306512e-01 4.383708e-01 9.681896e-01 1.077271e+00 1.365618e+00 1.021579e+00 6.577263e-01 4.676518e-01 4.424565e-01 8.350883e-01 8.497405e-01 8.150507e-01 6.836821e-01 2.921619e-01 2.369762e-01 4.072273e-02 -1.400393e-01 9.282339e-02 3.579010e-02 8.526526e-02 3.161553e-02 -7.743122e-02 -2.750036e-02 -8.646213e-02 -2.454307e-02 -3.562905e-03 -7.445123e-03 4.668579e-02 1.455476e-03 2.459950e-02 7.893803e-03 2.594462e-03
<VARIANCE> 38
 3.513370e+01 7.753897e+00 4.023458e+00 5.389720e+00 4.137257e+00 2.996062e+00 2.184528e+00 2.205595e+00 3.513713e+00 2.456609e+00 3.111882e+00 1.828718e+00 1.363903e+00 1.081217e+00 1.323640e+00 1.236804e+00 1.164646e+00 9.621817e-01 9.730628e-01 1.540583e+00 3.171960e-01 2.034853e-01 2.664805e-01 1.733869e-01 1.465456e-01 1.037310e-01 1.003748e-01 1.887821e-01 1.180166e-01 1.776800e-01 8.675868e-02 6.085324e-02 4.646296e-02 5.085861e-02 5.304759e-02 4.491973e-02 4.274417e-02 4.230073e-02
<GCONST> 4.642863e+01
<STATE> 11
<MEAN> 38
 2.114802e+00 4.586979e-01 3.731314e-01 8.980831e-01 -3.627815e-01 2.312782e-01 -3.155732e-01 -8.543760e-03 7.694495e-01 5.601496e-01 1.081629e+00 6.012564e-01 3.709268e-01 3.782818e-01 1.190014e-01 5.782535e-01 4.554876e-01 5.161420e-01 4.551600e-01 5.686121e-01 2.789431e-01 1.133219e-01 6.515257e-02 6.579660e-02 1.258858e-01 8.104345e-02 7.530633e-02 1.024245e-01 1.011745e-01 1.212804e-01 8.589926e-02 5.660494e-02 3.901254e-02 3.650296e-02 7.076454e-02 6.912498e-02 7.468212e-02 6.742051e-02
<VARIANCE> 38
 3.682980e+01 1.006425e+01 4.044870e+00 4.679271e+00 4.416286e+00 2.937884e+00 2.318822e+00 2.279281e+00 2.870970e+00 2.623881e+00 2.754019e+00 2.042720e+00 1.443630e+00 1.105775e+00 1.275276e+00 1.230711e+00 1.284954e+00 1.063172e+00 9.690610e-01 1.642829e+00 3.669803e-01 2.002240e-01 2.473994e-01 1.663313e-01 1.491292e-01 9.264170e-02 8.940700e-02 1.428808e-01 1.051746e-01 1.386634e-01 7.478754e-02 5.336816e-02 4.527771e-02 4.656553e-02 5.127782e-02 4.501962e-02 4.029999e-02 4.078954e-02
<GCONST> 4.552644e+01
<TRANSP> 12
 0.000000e+00 1.000000e+00 0.000000e+00 0.000000e+00 0.000000e+00 0.000000e+00 0.000000e+00 0.000000e+00 0.000000e+00 0.000000e+00 0.000000e+00 0.000000e+00
 0.000000e+00 8.087949e-01 1.912052e-01 0.000000e+00 0.000000e+00 0.000000e+00 0.000000e+00 0.000000e+00 0.000000e+00 0.000000e+00 0.000000e+00 0.000000e+00
 0.000000e+00 0.000000e+00 7.801766e-01 2.198233e-01 0.000000e+00 0.000000e+00 0.000000e+00 0.000000e+00 0.000000e+00 0.000000e+00 0.000000e+00 0.000000e+00
 0.000000e+00 0.000000e+00 0.000000e+00 7.769098e-01 2.230902e-01 0.000000e+00 0.000000e+00 0.000000e+00 0.000000e+00 0.000000e+00 0.000000e+00 0.000000e+00
 0.000000e+00 0.000000e+00 0.000000e+00 0.000000e+00 7.513165e-01 2.486835e-01 0.000000e+00 0.000000e+00 0.000000e+00 0.000000e+00 0.000000e+00 0.000000e+00
 0.000000e+00 0.000000e+00 0.000000e+00 0.000000e+00 0.000000e+00 7.125844e-01 2.874156e-01 0.000000e+00 0.000000e+00 0.000000e+00 0.000000e+00 0.000000e+00
 0.000000e+00 0.000000e+00 0.000000e+00 0.000000e+00 0.000000e+00 0.000000e+00 6.842931e-01 3.157068e-01 0.000000e+00 0.000000e+00 0.000000e+00 0.000000e+00
 0.000000e+00 0.000000e+00 0.000000e+00 0.000000e+00 0.000000e+00 0.000000e+00 0.000000e+00 6.811675e-01 3.188325e-01 0.000000e+00 0.000000e+00 0.000000e+00
 0.000000e+00 0.000000e+00 0.000000e+00 0.000000e+00 0.000000e+00 0.000000e+00 0.000000e+00 0.000000e+00 7.004934e-01 2.995066e-01 0.000000e+00 0.000000e+00
 0.000000e+00 0.000000e+00 0.000000e+00 0.000000e+00 0.000000e+00 0.000000e+00 0.000000e+00 0.000000e+00 0.000000e+00 7.356915e-01 2.643085e-01 0.000000e+00
 0.000000e+00 0.000000e+00 0.000000e+00 0.000000e+00 0.000000e+00 0.000000e+00 0.000000e+00 0.000000e+00 0.000000e+00 0.000000e+00 8.244797e-01 1.755203e-01
 0.000000e+00 0.000000e+00 0.000000e+00 0.000000e+00 0.000000e+00 0.000000e+00 0.000000e+00 0.000000e+00 0.000000e+00 0.000000e+00 0.000000e+00 0.000000e+00
<ENDHMM>
~h "sil"
<BEGINHMM>
<NUMSTATES> 12
<STATE> 2
<MEAN> 38
 1.006771e+00 -9.632728e-01 -6.118060e-01 1.380036e+00 -1.456496e+00 -3.194446e-02 -1.006245e+00 -8.141907e-01 1.155143e-01 -8.931780e-01 8.417594e-02 -6.988763e-01 -4.884339e-01 -3.711801e-02 -7.048163e-01 6.971944e-03 -5.596783e-01 -3.045923e-01 -1.469973e-01 3.634881e-01 4.619856e-01 2.392721e-01 -4.502620e-02 3.348178e-01 1.318477e-01 2.626432e-01 2.108225e-01 9.316795e-02 2.532903e-01 1.242854e-01 2.264857e-01 1.675046e-01 8.260502e-02 1.755957e-01 8.332323e-02 1.679693e-01 1.321557e-01 1.039926e-01
<VARIANCE> 38
 2.236961e+01 9.488782e+00 4.045652e+00 3.087762e+00 3.471978e+00 2.312828e+00 2.172475e+00 1.906746e+00 1.614126e+00 1.925479e+00 1.452107e+00 1.380345e+00 9.605084e-01 7.420291e-01 8.932428e-01 6.913347e-01 7.748421e-01 6.408828e-01 5.884269e-01 5.355397e-01 2.137053e-01 1.218335e-01 1.314451e-01 1.030220e-01 7.392766e-02 6.461793e-02 5.910525e-02 5.880243e-02 5.547442e-02 4.799072e-02 3.963103e-02 3.019687e-02 2.776902e-02 2.734323e-02 2.536128e-02 2.446205e-02 2.090758e-02 2.004776e-02
<GCONST> 2.642204e+01
<STATE> 3
<MEAN> 38
 6.829020e-01 -1.248621e+00 -7.117596e-01 1.235881e+00 -1.521680e+00 -1.128177e-01 -1.114459e+00 -9.245627e-01 -2.483631e-02 -1.027755e+00 -7.505459e-02 -8.381896e-01 -5.874677e-01 -1.396491e-01 -7.956924e-01 -7.230491e-02 -6.337577e-01 -3.738341e-01 -2.041395e-01 2.309434e-01 1.821863e-01 8.053712e-02 -5.381675e-02 1.150137e-01 3.047874e-02 8.733325e-02 6.687652e-02 1.762407e-02 9.241825e-02 4.019637e-02 8.652294e-02 5.956875e-02 2.214701e-02 6.481805e-02 2.763100e-02 6.640311e-02 4.786561e-02 3.614214e-02
<VARIANCE> 38
 2.188093e+01 7.396952e+00 3.355589e+00 2.756399e+00 3.255717e+00 2.127161e+00 1.932800e+00 1.548801e+00 1.315799e+00 1.637001e+00 1.227402e+00 1.194787e+00 8.570402e-01 6.561263e-01 7.592802e-01 5.928950e-01 6.859170e-01 5.582592e-01 5.263539e-01 3.138648e-01 1.267212e-01 7.406621e-02 7.463857e-02 5.833116e-02 4.590011e-02 3.965963e-02 3.493181e-02 3.448854e-02 3.493284e-02 3.192559e-02 2.753612e-02 2.182637e-02 1.950040e-02 1.949565e-02 1.807886e-02 1.731375e-02 1.528722e-02 1.485794e-02
<GCONST> 1.551293e+01
<STATE> 4
<MEAN> 38
 -7.766783e-01 -2.179974e+00 -1.127984e+00 1.435364e+00 -2.028493e+00 -1.887897e-01 -1.404884e+00 -1.093848e+00 3.062062e-02 -1.330545e+00 -1.302251e-01 -1.081594e+00 -7.288855e-01 -1.037833e-01 -9.508926e-01 -8.977123e-02 -8.272383e-01 -5.009901e-01 -3.113357e-01 1.522960e-01 7.467300e-02 1.829712e-02 -3.139637e-02 7.892536e-03 -1.123905e-02 3.952038e-03 2.263710e-04 -9.655577e-03 1.363438e-02 7.472818e-03 2.178770e-02 1.090805e-02 -7.109698e-04 1.104377e-02 3.662175e-03 1.536967e-02 8.715590e-03 3.104030e-03
<VARIANCE> 38
 1.339119e+01 4.544672e+00 2.402167e+00 2.014429e+00 1.939227e+00 1.522119e+00 1.195930e+00 1.084513e+00 1.008001e+00 1.079259e+00 8.285521e-01 8.408172e-01 6.356905e-01 5.318645e-01 5.541351e-01 4.452492e-01 4.823704e-01 3.928851e-01 3.544345e-01 1.685378e-01 6.782331e-02 4.005410e-02 4.030425e-02 2.860250e-02 2.495342e-02 2.065379e-02 1.914150e-02 1.922500e-02 1.899930e-02 1.825802e-02 1.666082e-02 1.410426e-02 1.366651e-02 1.319525e-02 1.290635e-02 1.178444e-02 1.044692e-02 9.801148e-03
<GCONST> -1.448018e+00
<STATE> 5
<MEAN> 38
 -1.931868e+00 -2.784904e+00 -1.308928e+00 1.388477e+00 -2.053467e+00 -3.035201e-01 -1.415555e+00 -1.081009e+00 -3.299440e-02 -1.403456e+00 -2.571663e-01 -1.183779e+00 -8.048601e-01 -1.741702e-01 -1.000794e+00 -1.694456e-01 -9.007899e-01 -5.766200e-01 -3.786573e-01 8.966020e-02 4.656820e-02 1.779549e-02 -5.405075e-03 -1.825072e-03 -6.449835e-03 -5.496961e-03 -6.654523e-03 -6.522757e-03 2.745059e-04 4.995605e-04 4.610535e-03 2.397798e-03 -3.615580e-04 2.119276e-03 6.273710e-04 2.693142e-03 9.190775e-04 -5.279798e-04
<VARIANCE> 38
 1.047169e+01 3.763816e+00 2.207636e+00 1.938155e+00 1.664212e+00 1.308679e+00 1.013698e+00 8.915901e-01 8.258387e-01 8.464789e-01 6.562657e-01 6.435943e-01 4.980180e-01 4.382396e-01 4.548140e-01 3.742119e-01 3.831171e-01 3.079405e-01 2.891811e-01 1.896015e-01 7.781379e-02 4.203811e-02 4.393763e-02 3.193074e-02 2.495580e-02 1.953710e-02 1.782610e-02 1.832171e-02 1.836721e-02 1.726430e-02 1.654788e-02 1.311676e-02 1.242656e-02 1.240928e-02 1.187542e-02 1.131066e-02 9.506638e-03 8.800955e-03
<GCONST> -5.426765e+00
<STATE> 6
<MEAN> 38
 -2.814538e+00 -3.072601e+00 -1.399927e+00 1.089363e+00 -1.945687e+00 -4.661092e-01 -1.410156e+00 -1.054621e+00 -1.456290e-01 -1.363077e+00 -3.401213e-01 -1.146022e+00 -8.135172e-01 -2.467276e-01 -9.724171e-01 -2.416876e-01 -8.672551e-01 -5.882126e-01 -4.191562e-01 6.765907e-02 1.355475e-02 5.979607e-03 2.061344e-02 -1.539549e-02 6.677977e-03 -1.102458e-02 -1.030712e-02 1.886527e-03 -1.129290e-02 6.115781e-04 -1.063148e-02 -4.045685e-03 3.355399e-03 -5.975797e-03 3.067230e-03 -6.642174e-03 -3.249121e-03 -9.746661e-04
<VARIANCE> 38
 1.218725e+01 4.156116e+00 2.490029e+00 2.612094e+00 1.970877e+00 1.486756e+00 1.057743e+00 9.403787e-01 9.052539e-01 8.986329e-01 7.103904e-01 6.797899e-01 5.114042e-01 4.757137e-01 4.950927e-01 4.049361e-01 4.029457e-01 3.026304e-01 2.915042e-01 3.547228e-01 1.189418e-01 6.364247e-02 8.049665e-02 5.090019e-02 3.843520e-02 2.440770e-02 2.150149e-02 2.491621e-02 2.390560e-02 2.231706e-02 2.067628e-02 1.505979e-02 1.485930e-02 1.521630e-02 1.388554e-02 1.327292e-02 1.018396e-02 9.663073e-03
<GCONST> 1.663367e+00
<STATE> 7
<MEAN> 38
 -3.229835e+00 -3.071186e+00 -1.413701e+00 8.792470e-01 -1.855114e+00 -5.402852e-01 -1.362322e+00 -1.015543e+00 -1.914878e-01 -1.304327e+00 -3.920721e-01 -1.097937e+00 -7.918899e-01 -2.802145e-01 -9.373397e-01 -2.762647e-01 -8.215801e-01 -5.755867e-01 -4.243208e-01 1.365803e-01 -3.099590e-03 -1.557384e-02 7.122071e-02 -4.435346e-02 3.163794e-02 -1.774327e-02 -1.634575e-02 1.970588e-02 -2.979434e-02 1.011422e-02 -2.688048e-02 -7.586281e-03 1.479276e-02 -1.853423e-02 1.230088e-02 -1.824841e-02 -4.717606e-03 3.376271e-03
<VARIANCE> 38
 1.512143e+01 4.554329e+00 2.758021e+00 3.476983e+00 2.210729e+00 1.821163e+00 1.142362e+00 1.013313e+00 1.067247e+00 9.638529e-01 8.215336e-01 7.127291e-01 5.390738e-01 5.392502e-01 5.403866e-01 4.452463e-01 4.354382e-01 3.144313e-01 3.094250e-01 5.601138e-01 1.456717e-01 8.143995e-02 1.254817e-01 6.601549e-02 5.459097e-02 2.802830e-02 2.434491e-02 3.318594e-02 2.876254e-02 2.831741e-02 2.324931e-02 1.661262e-02 1.785966e-02 1.781036e-02 1.605928e-02 1.528743e-02 1.076984e-02 1.075552e-02
<GCONST> 7.731205e+00
<STATE> 8
<MEAN> 38
 -3.731362e+00 -3.076847e+00 -1.389678e+00 6.431252e-01 -1.737669e+00 -6.359156e-01 -1.317103e+00 -9.913248e-01 -2.659859e-01 -1.214908e+00 -4.323779e-01 -1.048652e+00 -8.009509e-01 -3.461664e-01 -8.943626e-01 -3.222122e-01 -7.773739e-01 -5.655038e-01 -4.366833e-01 2.022663e-01 5.965330e-03 -3.126838e-02 1.054062e-01 -6.724308e-02 4.376967e-02 -2.213485e-02 -2.175406e-02 3.127090e-02 -4.174087e-02 1.827314e-02 -3.328419e-02 -7.947204e-03 2.318527e-02 -2.562446e-02 1.930300e-02 -2.499395e-02 -4.602047e-03 7.037458e-03
<VARIANCE> 38
 1.698270e+01 4.942337e+00 2.832543e+00 4.466994e+00 2.387893e+00 2.187451e+00 1.221951e+00 1.086738e+00 1.203101e+00 1.037751e+00 9.160497e-01 7.635117e-01 5.585684e-01 5.938997e-01 5.682641e-01 4.933756e-01 4.731528e-01 3.248839e-01 3.282717e-01 7.169439e-01 1.575995e-01 8.704155e-02 1.471945e-01 7.806530e-02 6.459514e-02 3.096899e-02 2.631627e-02 3.752080e-02 3.185281e-02 3.296777e-02 2.511291e-02 1.758071e-02 1.928684e-02 1.979605e-02 1.760080e-02 1.691165e-02 1.143896e-02 1.169478e-02
<GCONST> 1.153033e+01
<STATE> 9
<MEAN> 38
 -4.324399e+00 -3.090257e+00 -1.269424e+00 4.523022e-01 -1.545619e+00 -7.249715e-01 -1.281302e+00 -9.423254e-01 -3.222876e-01 -1.118266e+00 -4.892554e-01 -9.933853e-01 -7.924187e-01 -3.970390e-01 -8.380862e-01 -3.731203e-01 -7.283533e-01 -5.604923e-01 -4.515029e-01 9.121267e-02 -1.199683e-01 -1.072001e-01 1.828374e-01 -1.741238e-01 3.238358e-02 -8.972911e-02 -7.466057e-02 3.351147e-02 -1.139509e-01 8.507704e-03 -9.335747e-02 -4.771810e-02 1.856550e-02 -7.475463e-02 1.412987e-02 -7.028939e-02 -3.080668e-02 -9.400421e-03
<VARIANCE> 38
 2.209160e+01 5.401757e+00 3.063796e+00 5.503289e+00 2.770498e+00 2.504960e+00 1.266266e+00 1.122489e+00 1.365502e+00 1.132079e+00 1.022986e+00 7.976241e-01 5.672141e-01 6.664797e-01 6.181719e-01 5.550883e-01 5.137301e-01 3.424309e-01 3.545471e-01 8.866039e-01 1.850002e-01 9.529038e-02 1.369524e-01 7.832272e-02 6.778806e-02 3.521097e-02 2.994922e-02 4.055843e-02 3.216681e-02 3.627893e-02 2.525762e-02 1.815864e-02 1.957650e-02 1.843109e-02 1.806861e-02 1.631563e-02 1.207546e-02 1.258178e-02
<GCONST> 1.441665e+01
<STATE> 10
<MEAN> 38
 -3.901876e+00 -2.712222e+00 -1.000933e+00 3.720406e-01 -1.222721e+00 -5.820549e-01 -1.054696e+00 -7.931513e-01 -2.954381e-01 -9.424766e-01 -4.622979e-01 -8.606231e-01 -7.111990e-01 -4.004142e-01 -7.543553e-01 -3.824384e-01 -6.354662e-01 -4.927267e-01 -3.894676e-01 -6.622471e-02 -2.647934e-01 -1.883837e-01 2.161354e-01 -2.769926e-01 5.775629e-03 -1.652476e-01 -1.341240e-01 1.593526e-02 -1.903466e-01 -1.726590e-02 -1.593290e-01 -9.435466e-02 1.555306e-03 -1.257696e-01 -9.014364e-05 -1.171965e-01 -6.385526e-02 -3.310446e-02
<VARIANCE> 38
 3.075055e+01 7.768151e+00 3.578014e+00 5.980828e+00 3.935882e+00 3.030030e+00 1.965357e+00 1.391470e+00 1.528529e+00 1.415354e+00 1.175712e+00 9.561368e-01 6.524075e-01 7.530316e-01 7.285394e-01 6.348600e-01 6.201183e-01 4.085965e-01 4.319987e-01 1.168141e+00 2.741967e-01 1.296142e-01 1.714182e-01 1.121275e-01 8.845999e-02 5.860099e-02 4.679608e-02 5.506594e-02 4.730288e-02 4.679024e-02 3.596247e-02 2.526216e-02 2.412763e-02 2.478640e-02 2.242850e-02 2.123399e-02 1.587616e-02 1.632840e-02
<GCONST> 2.425504e+01
<STATE> 11
<MEAN> 38
 -3.181931e+00 -2.510996e+00 -8.777179e-01 3.104302e-01 -8.145338e-01 -3.482316e-01 -8.088592e-01 -5.731338e-01 -1.795597e-01 -6.866132e-01 -3.046402e-01 -6.505520e-01 -5.964019e-01 -3.988633e-01 -6.720449e-01 -3.683743e-01 -5.467315e-01 -4.082078e-01 -3.126642e-01 -3.079514e-01 -5.029893e-01 -3.151599e-01 2.175414e-01 -4.394263e-01 -6.413774e-02 -2.944024e-01 -2.392529e-01 -4.053995e-02 -3.114038e-01 -7.131670e-02 -2.618511e-01 -1.683607e-01 -3.465251e-02 -2.025429e-01 -2.725081e-02 -1.856096e-01 -1.200841e-01 -7.494834e-02
<VARIANCE> 38
 4.099342e+01 1.037989e+01 4.341756e+00 6.421916e+00 5.422112e+00 3.489386e+00 2.411704e+00 1.844491e+00 1.718805e+00 1.849286e+00 1.384132e+00 1.253863e+00 7.825658e-01 7.896174e-01 9.006802e-01 6.935841e-01 7.702944e-01 5.161285e-01 5.141898e-01 2.099732e+00 4.342104e-01 1.846769e-01 2.707888e-01 1.691886e-01 1.403315e-01 8.392051e-02 7.319516e-02 8.737987e-02 6.873283e-02 6.967836e-02 4.877109e-02 3.551606e-02 3.653629e-02 3.331532e-02 3.327883e-02 2.840011e-02 2.192391e-02 2.272129e-02
<GCONST> 3.548338e+01
<TRANSP> 12
 0.000000e+00 1.000000e+00 0.000000e+00 0.000000e+00 0.000000e+00 0.000000e+00 0.000000e+00 0.000000e+00 0.000000e+00 0.000000e+00 0.000000e+00 0.000000e+00
 0.000000e+00 6.466425e-01 3.533575e-01 0.000000e+00 0.000000e+00 0.000000e+00 0.000000e+00 0.000000e+00 0.000000e+00 0.000000e+00 0.000000e+00 0.000000e+00
 0.000000e+00 0.000000e+00 5.738196e-01 4.261803e-01 0.000000e+00 0.000000e+00 0.000000e+00 0.000000e+00 0.000000e+00 0.000000e+00 0.000000e+00 0.000000e+00
 0.000000e+00 0.000000e+00 0.000000e+00 7.890010e-01 2.109990e-01 0.000000e+00 0.000000e+00 0.000000e+00 0.000000e+00 0.000000e+00 0.000000e+00 0.000000e+00
 0.000000e+00 0.000000e+00 0.000000e+00 0.000000e+00 8.877009e-01 1.122991e-01 0.000000e+00 0.000000e+00 0.000000e+00 0.000000e+00 0.000000e+00 0.000000e+00
 0.000000e+00 0.000000e+00 0.000000e+00 0.000000e+00 0.000000e+00 7.607743e-01 2.392257e-01 0.000000e+00 0.000000e+00 0.000000e+00 0.000000e+00 0.000000e+00
 0.000000e+00 0.000000e+00 0.000000e+00 0.000000e+00 0.000000e+00 0.000000e+00 5.373741e-01 4.626259e-01 0.000000e+00 0.000000e+00 0.000000e+00 0.000000e+00
 0.000000e+00 0.000000e+00 0.000000e+00 0.000000e+00 0.000000e+00 0.000000e+00 0.000000e+00 3.550059e-01 6.449941e-01 0.000000e+00 0.000000e+00 0.000000e+00
 0.000000e+00 0.000000e+00 0.000000e+00 0.000000e+00 0.000000e+00 0.000000e+00 0.000000e+00 0.000000e+00 2.509643e-01 7.490357e-01 0.000000e+00 0.000000e+00
 0.000000e+00 0.000000e+00 0.000000e+00 0.000000e+00 0.000000e+00 0.000000e+00 0.000000e+00 0.000000e+00 0.000000e+00 2.677822e-01 7.322178e-01 0.000000e+00
 0.000000e+00 0.000000e+00 0.000000e+00 0.000000e+00 0.000000e+00 0.000000e+00 0.000000e+00 0.000000e+00 0.000000e+00 0.000000e+00 4.171473e-01 5.828528e-01
 0.000000e+00 0.000000e+00 0.000000e+00 0.000000e+00 0.000000e+00 0.000000e+00 0.000000e+00 0.000000e+00 0.000000e+00 0.000000e+00 0.000000e+00 0.000000e+00
<ENDHMM>
~h "six"
<BEGINHMM>
<NUMSTATES> 12
<STATE> 2
<MEAN> 38
 -1.483966e+01 -3.690169e+00 1.340889e+00 -2.852958e+00 2.030960e+00 -2.341979e+00 -1.361976e-01 4.385478e-02 -1.579944e+00 8.285773e-01 -1.410358e+00 3.653920e-01 -2.337092e-01 -1.000043e+00 6.236266e-01 -1.034218e+00 4.943336e-01 -2.831929e-01 -6.782573e-01 5.224971e-01 9.762257e-02 -5.361348e-02 1.648593e-01 -1.018050e-01 1.109372e-01 -1.348928e-02 -1.874105e-02 7.226269e-02 -4.989816e-02 6.442851e-02 -3.020494e-02 -1.121713e-03 3.937578e-02 -4.823055e-02 3.566151e-02 -3.940574e-02 1.877867e-03 2.824758e-02
<VARIANCE> 38
 9.909401e+01 1.933743e+01 6.891546e+00 6.712105e+00 4.202929e+00 5.742061e+00 2.062827e+00 1.886472e+00 2.918808e+00 1.376059e+00 2.744524e+00 1.123643e+00 1.056940e+00 1.407494e+00 8.059092e-01 1.494727e+00 7.096632e-01 8.056012e-01 9.774736e-01 8.348552e+00 1.040518e+00 2.680167e-01 4.014459e-01 2.219052e-01 3.163169e-01 1.043187e-01 9.307572e-02 2.241255e-01 8.326252e-02 2.241365e-01 6.795012e-02 7.077990e-02 1.030158e-01 4.264381e-02 1.158869e-01 3.963451e-02 5.323898e-02 6.566103e-02
<GCONST> 5.365219e+01
<STATE> 3
<MEAN> 38
 -4.420543e+00 -5.973891e-01 8.687327e-01 -1.824646e+00 1.724225e+00 -8.566919e-01 6.440473e-01 7.359655e-01 -3.379089e-01 1.330268e+00 1.437929e-02 1.106078e+00 6.022187e-01 -9.489216e-03 1.031537e+00 3.760814e-02 1.002055e+00 4.474465e-01 1.064383e-01 -2.074390e+00 -5.842711e-01 1.814053e-01 -1.611408e-01 1.373630e-01 -2.635015e-01 -1.299879e-01 -1.007572e-01 -2.244839e-01 -8.338545e-02 -2.846425e-01 -1.381531e-01 -1.757267e-01 -2.063881e-01 -5.637863e-02 -1.842929e-01 -6.060927e-02 -1.180294e-01 -1.319994e-01
<VARIANCE> 38
 1.621654e+02 2.513135e+01 6.457520e+00 6.090544e+00 4.184824e+00 6.706160e+00 3.120094e+00 2.899989e+00 3.804066e+00 2.371977e+00 3.978071e+00 1.762222e+00 1.763259e+00 2.177074e+00 1.032310e+00 2.100806e+00 1.007403e+00 1.150826e+00 1.414641e+00 7.663345e+00 1.090194e+00 3.440441e-01 3.726172e-01 2.315918e-01 3.594273e-01 1.707246e-01 1.541070e-01 2.204784e-01 1.290838e-01 2.200327e-01 9.117769e-02 9.627765e-02 1.188739e-01 5.387225e-02 1.191457e-01 5.368030e-02 6.248487e-02 7.264280e-02
<GCONST> 6.276037e+01
<STATE> 4
<MEAN> 38
 3.930708e+00 1.722162e+00 -1.370519e-01 -1.343413e+00 1.039847e+00 9.987313e-02 1.065855e+00 9.814431e-01 4.632826e-01 1.655129e+00 1.156663e+00 1.664663e+00 1.344755e+00 8.162696e-01 1.185033e+00 6.563789e-01 1.089329e+00 8.051298e-01 5.416197e-01 -9.163318e-01 -2.389967e-01 1.765526e-01 -7.820840e-02 1.508079e-01 -1.029757e-01 3.361515e-02 5.570240e-02 -7.854924e-02 -1.414436e-02 -1.641107e-01 -6.322110e-02 -9.906432e-02 -1.157770e-01 1.142968e-02 -5.380473e-02 4.994823e-02 -5.532608e-04 -2.080906e-02
<VARIANCE> 38
 8.683178e+01 1.548584e+01 6.440698e+00 5.275672e+00 4.694140e+00 5.352120e+00 3.517993e+00 3.236782e+00 3.511416e+00 3.612661e+00 3.346072e+00 2.120277e+00 1.968963e+00 1.983246e+00 1.192669e+00 1.393390e+00 9.681971e-01 8.510435e-01 9.526321e-01 4.876124e+00 7.561547e-01 3.030865e-01 3.098086e-01 2.068473e-01 2.567315e-01 1.710505e-01 1.526762e-01 1.612963e-01 1.359508e-01 1.565161e-01 9.618022e-02 9.100880e-02 9.310704e-02 6.336480e-02 7.986418e-02 5.512279e-02 5.010079e-02 5.572037e-02
<GCONST> 5.785917e+01
<STATE> 5
<MEAN> 38
 5.693831e+00 1.902381e+00 -6.724365e-01 -8.747498e-01 3.666395e-01 3.444130e-01 6.669524e-01 5.648271e-01 7.063210e-01 1.629089e+00 1.719318e+00 1.814187e+00 1.589507e+00 1.131763e+00 1.019494e+00 7.689441e-01 7.917730e-01 6.847113e-01 5.027664e-01 3.276035e-01 1.989430e-01 2.926974e-02 -2.792751e-01 2.178810e-01 -5.080196e-03 2.221216e-01 1.884138e-01 1.211708e-03 1.771566e-01 6.456754e-03 1.279449e-01 7.415439e-02 -5.675396e-03 1.176986e-01 1.665719e-02 1.439940e-01 9.092303e-02 4.738804e-02
<VARIANCE> 38
 4.911678e+01 1.103481e+01 5.877785e+00 5.785849e+00 4.494609e+00 4.301744e+00 3.335104e+00 3.006004e+00 3.612607e+00 4.062702e+00 3.190419e+00 2.226575e+00 1.953338e+00 1.986381e+00 1.339109e+00 1.156934e+00 8.985043e-01 6.631293e-01 6.680589e-01 2.439511e+00 5.012006e-01 2.598618e-01 3.599454e-01 2.201668e-01 2.116628e-01 1.638722e-01 1.447125e-01 1.578818e-01 1.914898e-01 1.610441e-01 1.402778e-01 1.125033e-01 9.130748e-02 7.219232e-02 5.587869e-02 4.938511e-02 3.770876e-02 3.928090e-02
<GCONST> 5.456806e+01
<STATE> 6
<MEAN> 38
 3.854381e+00 8.954801e-01 -5.736056e-01 3.658891e-01 -4.226246e-01 3.485315e-01 -1.194417e-01 -4.288805e-02 7.160949e-01 8.266599e-01 1.496355e+00 1.138595e+00 1.132792e+00 1.049872e+00 5.400604e-01 7.116592e-01 2.963557e-01 3.687894e-01 3.466430e-01 1.121270e+00 4.721780e-01 -6.798657e-02 -2.696952e-01 2.249955e-01 1.252162e-01 2.673887e-01 2.223205e-01 1.494811e-01 3.711634e-01 2.836446e-01 3.506852e-01 2.708609e-01 1.489074e-01 1.961513e-01 9.904682e-02 1.653034e-01 1.316747e-01 8.996454e-02
<VARIANCE> 38
 4.511137e+01 1.071733e+01 5.017016e+00 6.374040e+00 3.946929e+00 3.735980e+00 2.804669e+00 2.579541e+00 3.263884e+00 3.649958e+00 3.029377e+00 2.363215e+00 1.801748e+00 1.635840e+00 1.334935e+00 9.978528e-01 8.706927e-01 5.968220e-01 5.494688e-01 1.998742e+00 5.066955e-01 2.831249e-01 4.464780e-01 2.686866e-01 2.421539e-01 1.557631e-01 1.390842e-01 2.069024e-01 2.489034e-01 2.038158e-01 1.649848e-01 1.283890e-01 1.175610e-01 8.257407e-02 6.004980e-02 5.064282e-02 3.357722e-02 3.298522e-02
<GCONST> 5.444812e+01
<STATE> 7
<MEAN> 38
 3.099563e-01 -4.996088e-01 -3.910975e-01 6.514356e-01 -9.493429e-01 -2.314070e-01 -8.116071e-01 -6.513364e-01 1.396126e-02 -3.197012e-01 3.681609e-01 3.985524e-03 1.996751e-01 4.218519e-01 -2.618867e-02 2.929937e-01 -1.188932e-01 -5.734213e-03 4.560702e-02 1.535380e+00 4.780581e-01 -1.316962e-01 1.478319e-01 9.998962e-03 3.086833e-01 1.864920e-01 1.779254e-01 3.302207e-01 2.772593e-01 4.236999e-01 2.978678e-01 2.793795e-01 2.513422e-01 1.152424e-01 1.809520e-01 7.203817e-02 1.077786e-01 1.134629e-01
<VARIANCE> 38
 5.355125e+01 1.213548e+01 5.544797e+00 6.375815e+00 4.166648e+00 4.427311e+00 2.403873e+00 2.132233e+00 3.126053e+00 2.681103e+00 2.743147e+00 1.969713e+00 1.442762e+00 1.277211e+00 1.197405e+00 8.828977e-01 8.415441e-01 5.458109e-01 5.170141e-01 2.476255e+00 6.035419e-01 3.166951e-01 5.377294e-01 2.960598e-01 2.484925e-01 1.162962e-01 1.059263e-01 1.844988e-01 2.296478e-01 1.528485e-01 1.552809e-01 1.008800e-01 9.065518e-02 9.447698e-02 5.521756e-02 5.975078e-02 3.065563e-02 2.800143e-02
<GCONST> 5.236767e+01
<STATE> 8
<MEAN> 38
 -4.033184e+00 -1.503599e+00 1.610514e-01 -3.521004e-01 -5.978332e-01 -1.303549e+00 -1.161097e+00 -9.895731e-01 -1.004384e+00 -6.855611e-01 -6.824310e-01 -4.132900e-01 -3.051109e-01 -2.092712e-01 -5.850393e-02 -2.039064e-01 -9.015977e-02 -1.948881e-01 -2.462651e-01 1.803035e+00 4.124104e-01 -1.967400e-01 4.747499e-01 -2.612727e-01 3.862465e-01 5.430382e-02 6.080447e-02 3.436136e-01 1.709834e-04 3.374544e-01 4.863955e-02 1.164508e-01 2.116240e-01 -5.608105e-02 1.801852e-01 -6.009777e-02 4.476215e-02 9.965522e-02
<VARIANCE> 38
 8.061753e+01 1.506872e+01 7.345516e+00 8.087740e+00 5.211998e+00 5.515927e+00 2.044784e+00 1.713198e+00 3.007035e+00 2.055989e+00 2.234838e+00 1.467350e+00 9.545559e-01 1.040209e+00 1.270595e+00 8.551599e-01 9.386903e-01 4.856256e-01 5.138944e-01 3.336630e+00 7.390312e-01 3.520668e-01 4.609330e-01 2.543272e-01 2.301510e-01 8.732537e-02 8.150244e-02 1.339978e-01 1.658043e-01 9.882238e-02 1.215813e-01 6.969619e-02 5.382843e-02 8.341936e-02 4.468779e-02 5.443227e-02 2.662629e-02 2.520265e-02
<GCONST> 4.894958e+01
<STATE> 9
<MEAN> 38
 -9.274099e+00 -2.698674e+00 6.637858e-01 -1.747651e+00 2.818086e-01 -2.275208e+00 -1.124452e+00 -9.486042e-01 -1.737390e+00 -3.661772e-01 -1.354922e+00 -2.440460e-01 -3.910351e-01 -6.457603e-01 2.505683e-01 -6.235220e-01 1.767874e-01 -2.543103e-01 -4.844837e-01 1.531771e+00 3.774932e-01 -1.077011e-01 4.138505e-01 -2.841171e-01 2.439995e-01 -3.679900e-02 -3.327178e-02 1.869558e-01 -1.188082e-01 1.762011e-01 -6.022754e-02 1.871868e-02 1.261365e-01 -8.647077e-02 1.257391e-01 -7.245769e-02 2.088699e-02 7.157858e-02
<VARIANCE> 38
 1.018716e+02 1.745415e+01 7.799891e+00 9.153357e+00 5.402804e+00 5.706256e+00 1.847712e+00 1.605299e+00 2.502251e+00 1.857548e+00 1.929284e+00 1.283433e+00 7.774731e-01 9.818230e-01 1.177549e+00 9.307783e-01 8.785186e-01 4.856784e-01 5.804037e-01 4.252387e+00 7.772226e-01 3.403726e-01 4.273633e-01 2.026105e-01 2.316536e-01 6.961027e-02 6.266830e-02 1.216327e-01 9.827747e-02 8.670231e-02 7.236923e-02 4.217878e-02 4.210974e-02 6.302374e-02 4.420290e-02 4.489996e-02 2.546697e-02 2.750522e-02
<GCONST> 4.566795e+01
<STATE> 10
<MEAN> 38
 -1.297894e+01 -3.782508e+00 7.072655e-01 -2.658410e+00 9.464662e-01 -2.625515e+00 -9.048271e-01 -7.523129e-01 -1.993859e+00 -1.743641e-02 -1.651267e+00 -8.401707e-02 -4.381075e-01 -9.561061e-01 3.622199e-01 -9.465919e-01 2.682370e-01 -3.499701e-01 -6.784550e-01 2.025730e-01 8.677443e-02 2.622210e-02 4.769022e-02 -7.325530e-02 -3.482568e-02 -6.196923e-02 -5.528250e-02 -2.632854e-02 -5.007885e-02 -5.814827e-03 -2.074988e-02 3.054346e-03 2.962904e-02 1.058290e-02 2.862134e-02 1.493562e-03 9.620120e-03 1.334875e-02
<VARIANCE> 38
 8.622205e+01 1.655187e+01 7.440786e+00 7.480594e+00 4.704549e+00 5.004772e+00 1.761577e+00 1.592165e+00 2.041829e+00 1.526841e+00 1.728857e+00 1.041032e+00 7.261298e-01 9.380682e-01 9.091304e-01 9.464770e-01 6.974946e-01 5.175489e-01 6.071818e-01 4.975200e+00 7.174343e-01 2.635153e-01 4.122139e-01 1.956126e-01 2.113376e-01 6.256038e-02 5.296443e-02 1.144903e-01 7.558484e-02 9.575116e-02 5.345062e-02 3.590973e-02 4.600649e-02 5.045275e-02 5.134376e-02 3.813010e-02 2.697543e-02 3.229536e-02
<GCONST> 4.244295e+01
<STATE> 11
<MEAN> 38
 -8.584784e+00 -3.125400e+00 1.011164e-01 -1.509664e+00 4.023836e-01 -1.522297e+00 -6.240774e-01 -5.795921e-01 -1.258448e+00 -2.431842e-01 -1.132850e+00 -2.489228e-01 -4.971206e-01 -8.063674e-01 -7.972068e-02 -7.610914e-01 -3.808816e-02 -3.586276e-01 -5.259831e-01 -9.592490e-01 -2.361852e-01 5.063329e-02 -2.289211e-01 1.013436e-01 -1.794333e-01 -4.431661e-02 -4.232544e-02 -1.421337e-01 2.383574e-02 -1.203253e-01 4.079688e-03 -1.893727e-02 -5.729941e-02 5.120014e-02 -6.417513e-02 2.961697e-02 -1.771890e-02 -4.395035e-02
<VARIANCE> 38
 9.276884e+01 1.671918e+01 6.784363e+00 7.974132e+00 5.353652e+00 5.580137e+00 2.198093e+00 1.740073e+00 2.440717e+00 1.810516e+00 1.882789e+00 1.151818e+00 8.027080e-01 9.551841e-01 9.559935e-01 9.610921e-01 7.601593e-01 5.660598e-01 6.416777e-01 3.235921e+00 5.004629e-01 2.144607e-01 2.954301e-01 1.853268e-01 1.572478e-01 7.253627e-02 5.963276e-02 8.755937e-02 7.414821e-02 7.640391e-02 4.875259e-02 3.518073e-02 4.186803e-02 3.962302e-02 4.406660e-02 3.189615e-02 2.429911e-02 2.680987e-02
<GCONST> 4.100011e+01
<TRANSP> 12
 0.000000e+00 1.000000e+00 0.000000e+00 0.000000e+00 0.000000e+00 0.000000e+00 0.000000e+00 0.000000e+00 0.000000e+00 0.000000e+00 0.000000e+00 0.000000e+00
 0.000000e+00 9.153055e-01 8.469453e-02 0.000000e+00 0.000000e+00 0.000000e+00 0.000000e+00 0.000000e+00 0.000000e+00 0.000000e+00 0.000000e+00 0.000000e+00
 0.000000e+00 0.000000e+00 8.277140e-01 1.722860e-01 0.000000e+00 0.000000e+00 0.000000e+00 0.000000e+00 0.000000e+00 0.000000e+00 0.000000e+00 0.000000e+00
 0.000000e+00 0.000000e+00 0.000000e+00 7.682161e-01 2.317839e-01 0.000000e+00 0.000000e+00 0.000000e+00 0.000000e+00 0.000000e+00 0.000000e+00 0.000000e+00
 0.000000e+00 0.000000e+00 0.000000e+00 0.000000e+00 6.992968e-01 3.007032e-01 0.000000e+00 0.000000e+00 0.000000e+00 0.000000e+00 0.000000e+00 0.000000e+00
 0.000000e+00 0.000000e+00 0.000000e+00 0.000000e+00 0.000000e+00 6.306623e-01 3.693376e-01 0.000000e+00 0.000000e+00 0.000000e+00 0.000000e+00 0.000000e+00
 0.000000e+00 0.000000e+00 0.000000e+00 0.000000e+00 0.000000e+00 0.000000e+00 5.873911e-01 4.126089e-01 0.000000e+00 0.000000e+00 0.000000e+00 0.000000e+00
 0.000000e+00 0.000000e+00 0.000000e+00 0.000000e+00 0.000000e+00 0.000000e+00 0.000000e+00 6.199771e-01 3.800230e-01 0.000000e+00 0.000000e+00 0.000000e+00
 0.000000e+00 0.000000e+00 0.000000e+00 0.000000e+00 0.000000e+00 0.000000e+00 0.000000e+00 0.000000e+00 6.911247e-01 3.088752e-01 0.000000e+00 0.000000e+00
 0.000000e+00 0.000000e+00 0.000000e+00 0.000000e+00 0.000000e+00 0.000000e+00 0.000000e+00 0.000000e+00 0.000000e+00 7.712998e-01 2.287001e-01 0.000000e+00
 0.000000e+00 0.000000e+00 0.000000e+00 0.000000e+00 0.000000e+00 0.000000e+00 0.000000e+00 0.000000e+00 0.000000e+00 0.000000e+00 8.955165e-01 1.044835e-01
 0.000000e+00 0.000000e+00 0.000000e+00 0.000000e+00 0.000000e+00 0.000000e+00 0.000000e+00 0.000000e+00 0.000000e+00 0.000000e+00 0.000000e+00 0.000000e+00
<ENDHMM>
~h "two"
<BEGINHMM>
<NUMSTATES> 12
<STATE> 2
<MEAN> 38
 -7.429759e+00 -4.144419e+00 -8.782200e-01 -1.629642e+00 4.429417e-01 -1.061278e+00 -3.763611e-01 -1.775185e-01 -7.461268e-01 7.289129e-02 -6.305019e-01 -2.453369e-02 -2.826990e-01 -5.236400e-01 -1.330256e-02 -6.501519e-01 -5.277124e-02 -3.199961e-01 -4.846792e-01 7.799253e-01 2.136136e-01 -1.547291e-02 4.624949e-01 -2.562907e-01 1.625554e-01 -1.042180e-01 -9.642519e-02 8.330961e-02 -2.266915e-01 2.189257e-02 -1.998945e-01 -1.032839e-01 2.410675e-02 -1.577227e-01 4.780867e-02 -1.265788e-01 -3.838756e-02 1.896069e-02
<VARIANCE> 38
 6.822624e+01 1.517734e+01 5.898736e+00 8.677443e+00 7.673428e+00 3.652961e+00 2.334091e+00 2.016160e+00 2.065543e+00 2.611684e+00 1.646476e+00 1.919854e+00 1.078753e+00 1.042501e+00 1.441906e+00 1.058458e+00 1.044138e+00 6.549083e-01 6.674796e-01 4.602168e+00 8.716774e-01 2.790122e-01 5.107343e-01 4.776552e-01 1.845418e-01 1.113953e-01 9.415860e-02 1.656888e-01 1.522497e-01 1.370376e-01 1.139681e-01 7.057964e-02 7.428686e-02 8.594825e-02 8.070191e-02 6.073285e-02 4.095522e-02 4.450062e-02
<GCONST> 5.347645e+01
<STATE> 3
<MEAN> 38
 -7.350698e+00 -3.539396e+00 -6.118796e-01 -2.658654e+00 1.105276e+00 -1.209544e+00 1.215141e-01 3.340091e-01 -5.034012e-01 1.069999e+00 -1.744743e-01 9.612804e-01 3.870277e-01 -2.363070e-01 7.044252e-01 -3.995302e-01 5.517763e-01 7.244684e-02 -2.549667e-01 -1.154574e+00 -6.151621e-01 -3.673408e-02 1.756831e-02 4.735190e-02 -1.265444e-01 -1.325892e-01 -1.203410e-01 -1.805998e-01 -1.775514e-01 -2.283543e-01 -2.057752e-01 -2.045071e-01 -1.866065e-01 -1.576406e-01 -1.808912e-01 -1.208180e-01 -1.281542e-01 -1.336483e-01
<VARIANCE> 38
 7.136205e+01 1.903386e+01 5.106158e+00 6.640226e+00 5.266094e+00 3.590970e+00 2.243428e+00 1.964507e+00 2.352598e+00 1.960594e+00 2.017047e+00 1.486986e+00 1.134338e+00 1.238225e+00 1.141294e+00 1.287573e+00 8.068762e-01 7.429828e-01 8.608335e-01 5.133698e+00 1.182092e+00 2.838613e-01 4.208012e-01 3.502099e-01 2.361766e-01 1.297506e-01 1.097111e-01 1.593913e-01 1.298370e-01 1.353200e-01 8.450182e-02 7.022067e-02 8.557953e-02 6.953716e-02 8.684172e-02 4.733725e-02 4.368635e-02 5.274284e-02
<GCONST> 5.292749e+01
<STATE> 4
<MEAN> 38
 -2.610612e+00 -1.060143e+00 -4.487007e-01 -2.301709e+00 8.758765e-01 -5.858086e-01 5.382645e-01 6.697717e-01 1.165306e-01 1.446215e+00 5.279288e-01 1.406431e+00 9.578583e-01 3.968557e-01 1.112848e+00 2.499251e-01 8.423720e-01 4.578633e-01 2.237875e-01 -1.600822e+00 -8.930818e-01 -7.999730e-02 -7.472012e-02 6.289522e-02 -2.305961e-01 -1.786865e-01 -1.149129e-01 -1.762609e-01 -1.290493e-01 -2.263493e-01 -1.477150e-01 -1.979980e-01 -2.116874e-01 -1.400636e-01 -2.100880e-01 -9.811042e-02 -1.265014e-01 -1.605663e-01
<VARIANCE> 38
 6.577110e+01 1.976606e+01 5.236592e+00 5.741384e+00 5.099965e+00 3.601614e+00 2.571398e+00 2.229300e+00 2.459656e+00 2.788130e+00 2.305257e+00 1.703623e+00 1.397993e+00 1.448951e+00 1.288156e+00 1.328203e+00 8.707029e-01 7.706249e-01 8.578767e-01 3.965416e+00 1.086188e+00 3.054165e-01 3.407277e-01 3.015503e-01 2.372364e-01 1.552015e-01 1.401323e-01 1.524504e-01 1.367819e-01 1.385477e-01 8.388151e-02 8.185722e-02 9.057307e-02 6.701283e-02 8.194195e-02 4.782112e-02 4.885327e-02 5.330265e-02
<GCONST> 5.436022e+01
<STATE> 5
<MEAN> 38
 3.660925e-01 8.382266e-01 -2.060855e-01 -2.241353e+00 9.059145e-01 -1.028097e-01 9.955651e-01 9.173644e-01 3.473434e-01 1.704489e+00 9.045587e-01 1.675700e+00 1.353670e+00 7.983047e-01 1.414580e+00 6.425450e-01 1.059293e+00 7.040657e-01 5.372673e-01 -1.069260e+00 -6.679214e-01 -8.858888e-02 -2.033535e-02 1.242322e-02 -1.756747e-01 -1.552438e-01 -7.080228e-02 -7.234384e-02 -7.386041e-02 -1.207644e-01 -8.230138e-02 -1.337389e-01 -1.383339e-01 -9.547416e-02 -1.310325e-01 -6.738034e-02 -8.373927e-02 -1.082899e-01
<VARIANCE> 38
 5.997459e+01 1.697528e+01 5.843407e+00 5.339706e+00 5.496605e+00 3.787796e+00 2.703708e+00 2.375036e+00 2.432359e+00 3.476411e+00 2.590632e+00 1.887672e+00 1.580830e+00 1.600412e+00 1.336313e+00 1.246454e+00 9.279907e-01 7.900797e-01 7.855695e-01 3.663218e+00 1.010051e+00 2.770946e-01 2.877554e-01 2.526011e-01 2.204873e-01 1.509578e-01 1.366433e-01 1.372745e-01 1.163558e-01 1.291791e-01 7.621266e-02 7.954998e-02 8.502363e-02 5.989825e-02 7.485178e-02 4.373924e-02 4.572731e-02 4.882276e-02
<GCONST> 5.332486e+01
<STATE> 6
<MEAN> 38
 1.531930e+00 1.770064e+00 1.035714e-02 -2.291157e+00 9.848050e-01 1.359615e-01 1.264859e+00 1.007488e+00 3.744791e-01 1.849231e+00 1.036990e+00 1.808130e+00 1.559976e+00 9.745569e-01 1.574711e+00 8.177512e-01 1.202860e+00 8.385686e-01 6.882526e-01 -5.614934e-01 -3.902279e-01 -7.067820e-02 -2.232521e-02 -4.839150e-03 -1.026998e-01 -8.954340e-02 -1.947108e-02 -4.591510e-03 -1.004469e-02 -3.236698e-02 -2.051909e-02 -6.163472e-02 -6.791784e-02 -4.240837e-02 -5.947048e-02 -3.433706e-02 -4.600655e-02 -5.735491e-02
<VARIANCE> 38
 5.913207e+01 1.498488e+01 6.558901e+00 5.278871e+00 5.655382e+00 4.013608e+00 2.616468e+00 2.509239e+00 2.321386e+00 3.671800e+00 2.824020e+00 1.896293e+00 1.637493e+00 1.685928e+00 1.294796e+00 1.202338e+00 9.656851e-01 8.157976e-01 7.667876e-01 2.849427e+00 7.541693e-01 2.371191e-01 2.264735e-01 1.935600e-01 1.780080e-01 1.222275e-01 1.090433e-01 1.059234e-01 8.878817e-02 1.055001e-01 6.306519e-02 6.195907e-02 6.468964e-02 4.779735e-02 5.703191e-02 3.696065e-02 3.659537e-02 3.804085e-02
<GCONST> 4.912604e+01
<STATE> 7
<MEAN> 38
 2.602564e+00 2.456503e+00 1.184544e-01 -2.190538e+00 1.001397e+00 3.306192e-01 1.374772e+00 9.653507e-01 3.619425e-01 1.841609e+00 1.065827e+00 1.805801e+00 1.631321e+00 1.067652e+00 1.619006e+00 9.029238e-01 1.248729e+00 9.216939e-01 7.880490e-01 -2.933488e-01 -2.358679e-01 -6.801246e-02 -8.578836e-02 -1.748529e-02 -6.787633e-02 -3.069005e-02 1.919364e-02 2.167238e-02 4.238757e-02 1.755998e-02 3.109119e-02 -4.568824e-05 -1.709890e-02 5.857869e-03 -1.771126e-02 -6.838365e-03 -2.235281e-02 -3.051554e-02
<VARIANCE> 38
 4.915511e+01 1.355416e+01 6.744064e+00 5.153100e+00 5.580544e+00 3.979045e+00 2.598663e+00 2.713412e+00 2.203895e+00 3.665760e+00 2.816322e+00 1.884696e+00 1.655893e+00 1.643111e+00 1.270638e+00 1.132427e+00 1.000217e+00 8.342944e-01 7.587597e-01 1.949355e+00 5.140359e-01 2.058633e-01 1.935134e-01 1.532301e-01 1.402461e-01 9.499998e-02 8.497886e-02 8.360419e-02 7.574864e-02 8.470567e-02 5.694115e-02 4.965827e-02 5.033744e-02 4.133354e-02 4.481133e-02 3.397511e-02 3.046697e-02 3.055886e-02
<GCONST> 4.468808e+01
<STATE> 8
<MEAN> 38
 3.849261e+00 3.196229e+00 2.186862e-01 -1.905307e+00 1.012616e+00 5.593331e-01 1.442349e+00 8.665797e-01 3.178474e-01 1.712752e+00 1.041297e+00 1.705897e+00 1.613412e+00 1.111403e+00 1.570573e+00 9.445112e-01 1.234507e+00 9.734387e-01 8.827510e-01 -1.011837e-01 -1.428480e-01 -1.037406e-01 -1.805325e-01 -3.999604e-02 -6.013503e-02 6.022688e-03 3.831117e-02 2.827772e-02 8.272117e-02 4.879610e-02 7.332570e-02 5.272666e-02 2.632000e-02 4.880402e-02 9.203272e-03 1.630408e-02 -3.320443e-03 -1.246798e-02
<VARIANCE> 38
 3.241286e+01 1.161029e+01 6.613212e+00 4.846096e+00 5.482685e+00 3.711791e+00 2.694660e+00 2.838583e+00 2.137257e+00 3.505002e+00 2.705706e+00 1.837444e+00 1.653070e+00 1.523315e+00 1.267493e+00 1.044084e+00 1.028973e+00 8.611407e-01 7.541423e-01 1.260135e+00 3.911035e-01 1.761563e-01 1.839370e-01 1.408975e-01 1.223216e-01 8.642040e-02 7.501192e-02 7.336241e-02 7.697459e-02 7.331679e-02 5.601114e-02 4.870297e-02 4.620963e-02 4.200849e-02 4.029492e-02 3.446390e-02 2.903637e-02 2.803059e-02
<GCONST> 4.183485e+01
<STATE> 9
<MEAN> 38
 4.496129e+00 3.748030e+00 5.656636e-01 -1.280836e+00 1.110473e+00 8.040433e-01 1.468097e+00 7.657894e-01 2.481241e-01 1.448894e+00 9.335988e-01 1.493371e+00 1.451999e+00 1.029828e+00 1.399370e+00 9.210292e-01 1.158685e+00 9.726782e-01 9.299040e-01 8.797569e-02 -2.593642e-02 -1.382451e-01 -2.692031e-01 -5.197575e-02 -5.784981e-02 2.851262e-02 3.649502e-02 1.538874e-02 1.075254e-01 6.177318e-02 1.035234e-01 1.024026e-01 7.018398e-02 9.183130e-02 3.774382e-02 4.574995e-02 2.187889e-02 1.375892e-02
<VARIANCE> 38
 2.517520e+01 1.049472e+01 6.600212e+00 4.665727e+00 5.364261e+00 3.610339e+00 2.857895e+00 2.856898e+00 2.104618e+00 3.108959e+00 2.597839e+00 1.758345e+00 1.624522e+00 1.445427e+00 1.250782e+00 1.002232e+00 1.027888e+00 8.822523e-01 7.680440e-01 1.003453e+00 3.624578e-01 1.681277e-01 1.951314e-01 1.463358e-01 1.290038e-01 9.240166e-02 7.710076e-02 7.418022e-02 8.284493e-02 7.498131e-02 5.829315e-02 5.225790e-02 4.769067e-02 4.597639e-02 4.163190e-02 3.718604e-02 3.187833e-02 2.991632e-02
<GCONST> 4.165475e+01
<STATE> 10
<MEAN> 38
 4.591075e+00 3.936557e+00 1.132750e+00 -1.946678e-01 1.222637e+00 1.121942e+00 1.406885e+00 6.795972e-01 2.656234e-01 1.023706e+00 7.620174e-01 1.114771e+00 1.065181e+00 7.697013e-01 1.011443e+00 7.643349e-01 9.161278e-01 8.629045e-01 8.631079e-01 2.836119e-01 1.488201e-01 -1.152276e-01 -2.859083e-01 -1.305526e-02 -2.024362e-02 6.214699e-02 3.130617e-02 -7.923014e-03 1.077607e-01 5.572409e-02 1.170494e-01 1.333937e-01 9.680446e-02 1.253140e-01 7.294527e-02 8.635134e-02 6.095996e-02 5.426391e-02
<VARIANCE> 38
 2.467332e+01 1.035377e+01 6.186266e+00 5.164140e+00 5.179209e+00 3.788530e+00 3.126047e+00 2.786836e+00 2.139194e+00 2.652197e+00 2.417036e+00 1.733753e+00 1.600728e+00 1.417431e+00 1.281298e+00 1.073721e+00 1.040714e+00 8.693223e-01 8.169421e-01 9.968064e-01 3.675719e-01 1.819970e-01 2.238528e-01 1.728394e-01 1.542924e-01 1.083319e-01 8.814810e-02 8.334450e-02 8.775848e-02 8.374009e-02 6.337346e-02 5.717628e-02 5.170100e-02 5.046313e-02 4.537921e-02 4.197010e-02 3.686418e-02 3.446427e-02
<GCONST> 4.361332e+01
<STATE> 11
<MEAN> 38
 3.855211e+00 2.773474e+00 1.344843e+00 1.236030e+00 8.420721e-01 1.251357e+00 1.002538e+00 4.800078e-01 3.799513e-01 2.999623e-01 4.494474e-01 2.970639e-01 2.154620e-01 1.782084e-01 1.231649e-01 2.314381e-01 1.523295e-01 3.302012e-01 4.377704e-01 3.523637e-01 2.885539e-01 4.134741e-02 -9.355140e-02 9.613818e-02 8.237970e-02 1.131332e-01 5.327813e-02 3.966318e-03 7.558651e-02 4.269454e-02 9.229175e-02 9.732086e-02 6.928112e-02 9.746610e-02 6.461486e-02 7.858902e-02 6.962239e-02 6.668428e-02
<VARIANCE> 38
 2.706436e+01 1.224309e+01 5.254007e+00 5.550209e+00 5.176093e+00 4.027940e+00 3.660886e+00 2.934911e+00 2.111032e+00 2.429548e+00 2.032232e+00 1.862592e+00 1.556547e+00 1.329061e+00 1.447306e+00 1.120551e+00 1.177160e+00 9.231061e-01 8.861313e-01 9.662977e-01 3.665417e-01 1.939792e-01 2.245448e-01 1.865875e-01 1.583015e-01 1.261956e-01 1.032018e-01 8.679272e-02 8.761135e-02 8.231232e-02 6.649828e-02 5.775172e-02 5.230116e-02 5.091719e-02 4.453501e-02 4.423630e-02 3.766476e-02 3.579107e-02
<GCONST> 4.482539e+01
<TRANSP> 12
 0.000000e+00 1.000000e+00 0.000000e+00 0.000000e+00 0.000000e+00 0.000000e+00 0.000000e+00 0.000000e+00 0.000000e+00 0.000000e+00 0.000000e+00 0.000000e+00
 0.000000e+00 8.219054e-01 1.780946e-01 0.000000e+00 0.000000e+00 0.000000e+00 0.000000e+00 0.000000e+00 0.000000e+00 0.000000e+00 0.000000e+00 0.000000e+00
 0.000000e+00 0.000000e+00 6.573232e-01 3.426768e-01 0.000000e+00 0.000000e+00 0.000000e+00 0.000000e+00 0.000000e+00 0.000000e+00 0.000000e+00 0.000000e+00
 0.000000e+00 0.000000e+00 0.000000e+00 6.038821e-01 3.961179e-01 0.000000e+00 0.000000e+00 0.000000e+00 0.000000e+00 0.000000e+00 0.000000e+00 0.000000e+00
 0.000000e+00 0.000000e+00 0.000000e+00 0.000000e+00 6.087475e-01 3.912525e-01 0.000000e+00 0.000000e+00 0.000000e+00 0.000000e+00 0.000000e+00 0.000000e+00
 0.000000e+00 0.000000e+00 0.000000e+00 0.000000e+00 0.000000e+00 6.265224e-01 3.734776e-01 0.000000e+00 0.000000e+00 0.000000e+00 0.000000e+00 0.000000e+00
 0.000000e+00 0.000000e+00 0.000000e+00 0.000000e+00 0.000000e+00 0.000000e+00 6.468506e-01 3.531494e-01 0.000000e+00 0.000000e+00 0.000000e+00 0.000000e+00
