~o
<STREAMINFO> 1 7
<VECSIZE> 7<NULLD><USER><DIAGC>
~h "proto"
<BEGINHMM>
<NUMSTATES> 12
<STATE> 2
<MEAN> 7
 3.948532e-01 2.239277e-01 -9.835635e-03 -4.910537e-02 3.100257e-02 5.835515e-03 -1.357725e-02
<VARIANCE> 7
 4.639598e-03 5.665155e-03 9.178726e-04 5.571230e-04 1.019824e-03 1.865912e-03 1.112280e+02
<GCONST> -2.062813e+01
<STATE> 3
<MEAN> 7
 4.064610e-01 1.515421e-01 2.822125e-02 1.092490e-02 -7.756210e-03 1.962387e-02 1.274058e+01
<VARIANCE> 7
 8.610058e-03 3.694150e-03 5.459244e-04 4.200233e-04 4.847493e-04 9.902980e-04 6.045833e+02
<GCONST> -2.092377e+01
<STATE> 4
<MEAN> 7
 5.036784e-01 1.793499e-01 2.852877e-02 -5.489367e-03 3.858806e-03 4.118059e-05 -8.298770e+00
<VARIANCE> 7
 3.603461e-03 2.173299e-03 3.487512e-04 4.266227e-04 6.430685e-04 1.807347e-03 5.977013e+03
<GCONST> -1.958247e+01
<STATE> 5
<MEAN> 7
 5.383188e-01 1.773094e-01 2.722117e-02 2.674955e-02 -4.416748e-02 5.082014e-02 -2.517676e+03
<VARIANCE> 7
 4.968525e-03 2.785538e-03 5.572403e-04 4.082152e-04 1.688664e-03 4.785871e-03 1.381818e+08
<GCONST> -6.600863e+00
<STATE> 6
<MEAN> 7
 5.345445e-01 2.298145e-01 -2.341098e-02 4.108778e-02 -2.709595e-02 -3.990633e-03 6.677895e+00
<VARIANCE> 7
 5.547503e-03 5.388816e-03 2.196678e-03 1.206788e-03 2.304108e-03 1.721086e-03 1.495723e+02
<GCONST> -1.782338e+01
<STATE> 7
<MEAN> 7
 4.402075e-01 3.220828e-01 -3.753562e-02 9.209944e-03 3.455846e-02 -1.412446e-02 1.241518e+01
<VARIANCE> 7
 3.867459e-03 3.250866e-03 3.788105e-04 1.885563e-04 1.848057e-03 2.251323e-04 1.508227e+03
<GCONST> -2.224719e+01
<STATE> 8
<MEAN> 7
 4.152760e-01 3.137982e-01 4.736994e-03 2.139906e-03 1.122231e-01 -1.412497e-03 2.403644e+03
<VARIANCE> 7
 6.139938e-03 4.949905e-03 1.416744e-04 1.290458e-04 4.879812e-03 2.807581e-04 1.723555e+08
<GCONST> -9.889105e+00
<STATE> 9
<MEAN> 7
 4.227636e-01 3.143521e-01 4.062279e-02 3.072780e-03 1.147800e-01 4.247182e-03 -6.673204e+00
<VARIANCE> 7
 6.025938e-03 4.962034e-03 6.355108e-04 1.073841e-04 4.774257e-03 3.232300e-04 7.458535e+02
<GCONST> -2.081980e+01
<STATE> 10
<MEAN> 7
 5.294061e-01 3.282009e-01 9.263720e-02 7.538986e-03 8.102671e-03 -6.944712e-03 -1.762165e+01
<VARIANCE> 7
 8.540091e-03 4.814030e-03 1.782281e-03 1.130990e-04 4.711785e-03 4.387350e-04 1.181097e+04
<GCONST> -1.636369e+01
<STATE> 11
<MEAN> 7
 6.731451e-01 2.857946e-01 5.749768e-03 -1.679719e-02 -2.659221e-02 1.592042e-02 -1.641211e+01
<VARIANCE> 7
 6.246721e-03 5.245653e-03 1.820410e-03 1.273903e-03 3.330424e-03 2.450665e-03 2.084202e+03
<GCONST> -1.450919e+01
<TRANSP> 12
 0.000000e+00 1.000000e+00 0.000000e+00 0.000000e+00 0.000000e+00 0.000000e+00 0.000000e+00 0.000000e+00 0.000000e+00 0.000000e+00 0.000000e+00 0.000000e+00
 0.000000e+00 8.873652e-01 1.126348e-01 0.000000e+00 0.000000e+00 0.000000e+00 0.000000e+00 0.000000e+00 0.000000e+00 0.000000e+00 0.000000e+00 0.000000e+00
 0.000000e+00 0.000000e+00 8.721677e-01 1.278323e-01 0.000000e+00 0.000000e+00 0.000000e+00 0.000000e+00 0.000000e+00 0.000000e+00 0.000000e+00 0.000000e+00
 0.000000e+00 0.000000e+00 0.000000e+00 8.790168e-01 1.209832e-01 0.000000e+00 0.000000e+00 0.000000e+00 0.000000e+00 0.000000e+00 0.000000e+00 0.000000e+00
 0.000000e+00 0.000000e+00 0.000000e+00 0.000000e+00 9.431010e-02 9.056899e-01 0.000000e+00 0.000000e+00 0.000000e+00 0.000000e+00 0.000000e+00 0.000000e+00
 0.000000e+00 0.000000e+00 0.000000e+00 0.000000e+00 0.000000e+00 9.029103e-01 9.708971e-02 0.000000e+00 0.000000e+00 0.000000e+00 0.000000e+00 0.000000e+00
 0.000000e+00 0.000000e+00 0.000000e+00 0.000000e+00 0.000000e+00 0.000000e+00 8.114454e-01 1.885546e-01 0.000000e+00 0.000000e+00 0.000000e+00 0.000000e+00
 0.000000e+00 0.000000e+00 0.000000e+00 0.000000e+00 0.000000e+00 0.000000e+00 0.000000e+00 0.000000e+00 1.000000e+00 0.000000e+00 0.000000e+00 0.000000e+00
 0.000000e+00 0.000000e+00 0.000000e+00 0.000000e+00 0.000000e+00 0.000000e+00 0.000000e+00 0.000000e+00 0.000000e+00 1.000000e+00 0.000000e+00 0.000000e+00
 0.000000e+00 0.000000e+00 0.000000e+00 0.000000e+00 0.000000e+00 0.000000e+00 0.000000e+00 0.000000e+00 0.000000e+00 8.744116e-01 1.255884e-01 0.000000e+00
 0.000000e+00 0.000000e+00 0.000000e+00 0.000000e+00 0.000000e+00 0.000000e+00 0.000000e+00 0.000000e+00 0.000000e+00 0.000000e+00 9.094490e-01 9.055100e-02
 0.000000e+00 0.000000e+00 0.000000e+00 0.000000e+00 0.000000e+00 0.000000e+00 0.000000e+00 0.000000e+00 0.000000e+00 0.000000e+00 0.000000e+00 0.000000e+00
<ENDHMM>
