~o
<STREAMINFO> 1 6
<VECSIZE> 6<NULLD><USER><DIAGC>
~h "proto"
<BEGINHMM>
<NUMSTATES> 12
<STATE> 2
<MEAN> 6
 4.113093e-01 2.601046e-01 -2.950598e-02 -5.595756e-02 2.753109e-02 -1.703004e-02
<VARIANCE> 6
 3.568711e-03 4.285366e-03 4.129583e-04 6.313709e-04 9.989046e-04 1.254341e-03
<GCONST> -2.881062e+01
<STATE> 3
<MEAN> 6
 3.530676e-01 1.740131e-01 2.144265e-02 -2.407685e-02 2.495016e-02 2.979905e-02
<VARIANCE> 6
 7.653586e-03 2.889853e-03 8.570955e-04 9.203129e-04 1.377509e-03 1.512637e-03
<GCONST> -2.682600e+01
<STATE> 4
<MEAN> 6
 4.648394e-01 1.821423e-01 2.426234e-02 5.006755e-04 8.852944e-04 1.875019e-03
<VARIANCE> 6
 1.294841e-03 1.971227e-03 2.678990e-04 5.671808e-04 5.276303e-04 1.375671e-03
<GCONST> -3.168686e+01
<STATE> 5
<MEAN> 6
 5.614597e-01 1.622709e-01 3.234668e-02 9.042632e-03 -1.064096e-02 2.538566e-02
<VARIANCE> 6
 2.209535e-03 3.436767e-03 4.549841e-04 6.372491e-04 9.206857e-04 1.858312e-03
<GCONST> -2.909301e+01
<STATE> 6
<MEAN> 6
 5.681425e-01 2.412939e-01 -3.278105e-02 6.742191e-02 -6.324247e-02 -7.033270e-04
<VARIANCE> 6
 4.165284e-03 4.410699e-03 1.782586e-03 4.430737e-04 1.679137e-03 2.495315e-03
<GCONST> -2.631171e+01
<STATE> 7
<MEAN> 6
 4.824222e-01 3.065035e-01 -5.104186e-02 1.953857e-02 1.688154e-02 -2.447251e-02
<VARIANCE> 6
 3.643187e-03 3.841108e-03 7.318732e-04 2.833086e-04 9.596229e-04 3.985118e-04
<GCONST> -3.031525e+01
<STATE> 8
<MEAN> 6
 4.271796e-01 3.181557e-01 3.372462e-02 3.710270e-03 8.768877e-02 2.617622e-03
<VARIANCE> 6
 4.101112e-03 4.669729e-03 3.465690e-03 1.120910e-04 3.668702e-03 2.454273e-04
<GCONST> -2.851736e+01
<STATE> 9
<MEAN> 6
 5.740609e-01 3.326086e-01 1.051672e-01 8.903858e-03 -1.327873e-02 -9.855814e-03
<VARIANCE> 6
 4.565109e-03 4.138589e-03 1.453590e-03 1.081687e-04 2.481341e-03 2.105248e-04
<GCONST> -2.997985e+01
<STATE> 10
<MEAN> 6
 6.854345e-01 3.254825e-01 4.668563e-02 -2.912294e-02 -6.655995e-02 -3.279509e-02
<VARIANCE> 6
 6.364573e-03 4.309262e-03 1.712401e-03 4.316147e-04 1.559260e-03 5.302903e-04
<GCONST> -2.760020e+01
<STATE> 11
<MEAN> 6
 6.797711e-01 2.572903e-01 -1.412652e-02 -6.150197e-03 -4.622300e-03 4.293389e-02
<VARIANCE> 6
 5.800324e-03 5.476084e-03 9.441345e-04 1.468109e-03 2.907525e-03 1.484415e-03
<GCONST> -2.517215e+01
<TRANSP> 12
 0.000000e+00 1.000000e+00 0.000000e+00 0.000000e+00 0.000000e+00 0.000000e+00 0.000000e+00 0.000000e+00 0.000000e+00 0.000000e+00 0.000000e+00 0.000000e+00
 0.000000e+00 7.884308e-01 2.115692e-01 0.000000e+00 0.000000e+00 0.000000e+00 0.000000e+00 0.000000e+00 0.000000e+00 0.000000e+00 0.000000e+00 0.000000e+00
 0.000000e+00 0.000000e+00 8.351620e-01 1.648380e-01 0.000000e+00 0.000000e+00 0.000000e+00 0.000000e+00 0.000000e+00 0.000000e+00 0.000000e+00 0.000000e+00
 0.000000e+00 0.000000e+00 0.000000e+00 9.010155e-01 9.898450e-02 0.000000e+00 0.000000e+00 0.000000e+00 0.000000e+00 0.000000e+00 0.000000e+00 0.000000e+00
 0.000000e+00 0.000000e+00 0.000000e+00 0.000000e+00 8.651203e-01 1.348797e-01 0.000000e+00 0.000000e+00 0.000000e+00 0.000000e+00 0.000000e+00 0.000000e+00
 0.000000e+00 0.000000e+00 0.000000e+00 0.000000e+00 0.000000e+00 7.984412e-01 2.015588e-01 0.000000e+00 0.000000e+00 0.000000e+00 0.000000e+00 0.000000e+00
 0.000000e+00 0.000000e+00 0.000000e+00 0.000000e+00 0.000000e+00 0.000000e+00 8.272883e-01 1.727117e-01 0.000000e+00 0.000000e+00 0.000000e+00 0.000000e+00
 0.000000e+00 0.000000e+00 0.000000e+00 0.000000e+00 0.000000e+00 0.000000e+00 0.000000e+00 8.357967e-01 1.642033e-01 0.000000e+00 0.000000e+00 0.000000e+00
 0.000000e+00 0.000000e+00 0.000000e+00 0.000000e+00 0.000000e+00 0.000000e+00 0.000000e+00 0.000000e+00 7.772997e-01 2.227003e-01 0.000000e+00 0.000000e+00
 0.000000e+00 0.000000e+00 0.000000e+00 0.000000e+00 0.000000e+00 0.000000e+00 0.000000e+00 0.000000e+00 0.000000e+00 8.003307e-01 1.996693e-01 0.000000e+00
 0.000000e+00 0.000000e+00 0.000000e+00 0.000000e+00 0.000000e+00 0.000000e+00 0.000000e+00 0.000000e+00 0.000000e+00 0.000000e+00 8.585624e-01 1.414376e-01
 0.000000e+00 0.000000e+00 0.000000e+00 0.000000e+00 0.000000e+00 0.000000e+00 0.000000e+00 0.000000e+00 0.000000e+00 0.000000e+00 0.000000e+00 0.000000e+00
<ENDHMM>
