~o
<STREAMINFO> 1 6
<VECSIZE> 6<NULLD><USER><DIAGC>
~h "proto"
<BEGINHMM>
<NUMSTATES> 12
<STATE> 2
<MEAN> 6
 4.509959e-01 2.924365e-01 -1.007147e-02 1.283766e-02 -1.843739e-02 -1.724424e-02
<VARIANCE> 6
 1.000000e-02 1.000000e-02 1.000000e-02 1.000000e-02 1.000000e-02 1.000000e-02
<GCONST> -1.660376e+01
<STATE> 3
<MEAN> 6
 3.478580e-01 2.531383e-01 -1.125657e-02 -2.426505e-02 1.415696e-02 -2.328283e-02
<VARIANCE> 6
 1.000000e-02 1.000000e-02 1.000000e-02 1.000000e-02 1.000000e-02 1.000000e-02
<GCONST> -1.660376e+01
<STATE> 4
<MEAN> 6
 3.688467e-01 1.610373e-01 4.203768e-02 -4.554309e-02 4.944923e-02 2.237068e-02
<VARIANCE> 6
 1.000000e-02 1.000000e-02 1.000000e-02 1.000000e-02 1.000000e-02 1.000000e-02
<GCONST> -1.660376e+01
<STATE> 5
<MEAN> 6
 4.703208e-01 1.292178e-01 5.132414e-02 3.954446e-03 -8.702684e-03 3.397926e-02
<VARIANCE> 6
 1.000000e-02 1.000000e-02 1.000000e-02 1.000000e-02 1.000000e-02 1.000000e-02
<GCONST> -1.660376e+01
<STATE> 6
<MEAN> 6
 5.809869e-01 1.777767e-01 3.765687e-02 5.220080e-02 -6.002771e-02 3.912981e-02
<VARIANCE> 6
 1.000000e-02 1.000000e-02 1.000000e-02 1.000000e-02 1.000000e-02 1.000000e-02
<GCONST> -1.660376e+01
<STATE> 7
<MEAN> 6
 5.610346e-01 2.240379e-01 -8.501081e-03 6.828298e-02 -4.687541e-02 -1.610878e-02
<VARIANCE> 6
 1.000000e-02 1.000000e-02 1.000000e-02 1.000000e-02 1.000000e-02 1.000000e-02
<GCONST> -1.660376e+01
<STATE> 8
<MEAN> 6
 5.187247e-01 2.758385e-01 9.660545e-03 2.208835e-02 3.037569e-02 -1.808329e-02
<VARIANCE> 6
 1.000000e-02 1.000000e-02 1.000000e-02 1.000000e-02 1.000000e-02 1.000000e-02
<GCONST> -1.660376e+01
<STATE> 9
<MEAN> 6
 6.409234e-01 3.266950e-01 5.687700e-02 1.153210e-03 -3.642632e-03 -2.031543e-02
<VARIANCE> 6
 1.000000e-02 1.000000e-02 1.000000e-02 1.000000e-02 1.000000e-02 1.000000e-02
<GCONST> -1.660376e+01
<STATE> 10
<MEAN> 6
 7.658738e-01 3.076717e-01 2.291989e-02 -2.997423e-02 -5.726778e-02 -3.234875e-03
<VARIANCE> 6
 1.000000e-02 1.000000e-02 1.000000e-02 1.000000e-02 1.000000e-02 1.000000e-02
<GCONST> -1.660376e+01
<STATE> 11
<MEAN> 6
 6.859179e-01 2.167085e-01 -4.722442e-03 -2.525027e-03 -4.096140e-03 2.732056e-02
<VARIANCE> 6
 1.000000e-02 1.000000e-02 1.000000e-02 1.000000e-02 1.000000e-02 1.000000e-02
<GCONST> -1.660376e+01
<TRANSP> 12
 0.000000e+00 1.000000e+00 0.000000e+00 0.000000e+00 0.000000e+00 0.000000e+00 0.000000e+00 0.000000e+00 0.000000e+00 0.000000e+00 0.000000e+00 0.000000e+00
 0.000000e+00 8.571429e-01 1.428571e-01 0.000000e+00 0.000000e+00 0.000000e+00 0.000000e+00 0.000000e+00 0.000000e+00 0.000000e+00 0.000000e+00 0.000000e+00
 0.000000e+00 0.000000e+00 8.690265e-01 1.309735e-01 0.000000e+00 0.000000e+00 0.000000e+00 0.000000e+00 0.000000e+00 0.000000e+00 0.000000e+00 0.000000e+00
 0.000000e+00 0.000000e+00 0.000000e+00 7.804154e-01 2.195846e-01 0.000000e+00 0.000000e+00 0.000000e+00 0.000000e+00 0.000000e+00 0.000000e+00 0.000000e+00
 0.000000e+00 0.000000e+00 0.000000e+00 0.000000e+00 8.483607e-01 1.516393e-01 0.000000e+00 0.000000e+00 0.000000e+00 0.000000e+00 0.000000e+00 0.000000e+00
 0.000000e+00 0.000000e+00 0.000000e+00 0.000000e+00 0.000000e+00 7.175573e-01 2.824427e-01 0.000000e+00 0.000000e+00 0.000000e+00 0.000000e+00 0.000000e+00
 0.000000e+00 0.000000e+00 0.000000e+00 0.000000e+00 0.000000e+00 0.000000e+00 0.000000e+00 1.000000e+00 0.000000e+00 0.000000e+00 0.000000e+00 0.000000e+00
 0.000000e+00 0.000000e+00 0.000000e+00 0.000000e+00 0.000000e+00 0.000000e+00 0.000000e+00 8.908554e-01 1.091445e-01 0.000000e+00 0.000000e+00 0.000000e+00
 0.000000e+00 0.000000e+00 0.000000e+00 0.000000e+00 0.000000e+00 0.000000e+00 0.000000e+00 0.000000e+00 8.290993e-01 1.709007e-01 0.000000e+00 0.000000e+00
 0.000000e+00 0.000000e+00 0.000000e+00 0.000000e+00 0.000000e+00 0.000000e+00 0.000000e+00 0.000000e+00 0.000000e+00 7.347670e-01 2.652330e-01 0.000000e+00
 0.000000e+00 0.000000e+00 0.000000e+00 0.000000e+00 0.000000e+00 0.000000e+00 0.000000e+00 0.000000e+00 0.000000e+00 0.000000e+00 8.671454e-01 1.328546e-01
 0.000000e+00 0.000000e+00 0.000000e+00 0.000000e+00 0.000000e+00 0.000000e+00 0.000000e+00 0.000000e+00 0.000000e+00 0.000000e+00 0.000000e+00 0.000000e+00
<ENDHMM>
