~o
<STREAMINFO> 1 7
<VECSIZE> 7<NULLD><USER><DIAGC>
~h "proto"
<BEGINHMM>
<NUMSTATES> 12
<STATE> 2
<MEAN> 7
 4.149468e-01 2.368765e-01 1.257443e-03 1.736868e-02 -1.681458e-02 -7.525949e-03 2.063129e+01
<VARIANCE> 7
 1.000000e-02 1.000000e-02 1.000000e-02 1.000000e-02 1.000000e-02 1.000000e-02 2.819057e+03
<GCONST> -6.821725e+00
<STATE> 3
<MEAN> 7
 3.873738e-01 2.759961e-01 -1.798203e-02 -8.127376e-03 4.944266e-04 -3.125116e-02 1.019355e+01
<VARIANCE> 7
 1.000000e-02 1.000000e-02 1.000000e-02 1.000000e-02 1.000000e-02 1.000000e-02 2.232216e+02
<GCONST> -9.357718e+00
<STATE> 4
<MEAN> 7
 3.749530e-01 1.840990e-01 3.746491e-02 -5.502865e-02 5.046510e-02 2.093640e-02 5.273011e-01
<VARIANCE> 7
 1.000000e-02 1.000000e-02 1.000000e-02 1.000000e-02 1.000000e-02 1.000000e-02 7.812421e+00
<GCONST> -1.271017e+01
<STATE> 5
<MEAN> 7
 4.863378e-01 1.240045e-01 6.676695e-02 1.296685e-02 -2.552570e-02 5.087719e-02 9.438235e+00
<VARIANCE> 7
 1.000000e-02 1.000000e-02 1.000000e-02 1.000000e-02 1.000000e-02 1.000000e-02 3.089745e+01
<GCONST> -1.133521e+01
<STATE> 6
<MEAN> 7
 5.468967e-01 2.231876e-01 -2.195582e-03 5.051970e-02 -3.206339e-02 -4.888671e-03 8.209553e+00
<VARIANCE> 7
 1.000000e-02 1.000000e-02 1.000000e-02 1.000000e-02 1.000000e-02 1.000000e-02 1.850665e+02
<GCONST> -9.545167e+00
<STATE> 7
<MEAN> 7
 5.293282e-01 2.866131e-01 -1.940917e-02 2.396679e-02 4.941917e-02 -3.694678e-02 8.439800e+01
<VARIANCE> 7
 1.000000e-02 1.000000e-02 1.000000e-02 1.000000e-02 1.000000e-02 1.000000e-02 1.060964e+04
<GCONST> -5.496365e+00
<STATE> 8
<MEAN> 7
 5.180777e-01 2.882943e-01 2.130946e-03 1.557149e-02 8.084594e-02 -2.704581e-02 5.137805e+03
<VARIANCE> 7
 1.000000e-02 1.000000e-02 1.000000e-02 1.000000e-02 1.000000e-02 1.000000e-02 1.997461e+08
<GCONST> 4.346676e+00
<STATE> 9
<MEAN> 7
 5.438741e-01 2.748431e-01 3.708585e-02 4.748882e-03 4.185921e-02 -1.530730e-02 -1.526796e+01
<VARIANCE> 7
 1.000000e-02 1.000000e-02 1.000000e-02 1.000000e-02 1.000000e-02 1.000000e-02 2.627664e+04
<GCONST> -4.589447e+00
<STATE> 10
<MEAN> 7
 5.952191e-01 3.018608e-01 7.517651e-02 3.300626e-03 1.266423e-02 -8.915884e-03 -9.646297e-01
<VARIANCE> 7
 1.000000e-02 1.000000e-02 1.000000e-02 1.000000e-02 1.000000e-02 1.000000e-02 5.837864e+00
<GCONST> -1.300152e+01
<STATE> 11
<MEAN> 7
 6.963744e-01 2.545566e-01 4.497538e-03 -1.497164e-02 -2.350715e-02 1.486393e-02 -1.734525e+01
<VARIANCE> 7
 1.000000e-02 1.000000e-02 1.000000e-02 1.000000e-02 1.000000e-02 1.000000e-02 2.920488e+03
<GCONST> -6.786376e+00
<TRANSP> 12
 0.000000e+00 1.000000e+00 0.000000e+00 0.000000e+00 0.000000e+00 0.000000e+00 0.000000e+00 0.000000e+00 0.000000e+00 0.000000e+00 0.000000e+00 0.000000e+00
 0.000000e+00 8.126583e-01 1.873418e-01 0.000000e+00 0.000000e+00 0.000000e+00 0.000000e+00 0.000000e+00 0.000000e+00 0.000000e+00 0.000000e+00 0.000000e+00
 0.000000e+00 0.000000e+00 8.786885e-01 1.213115e-01 0.000000e+00 0.000000e+00 0.000000e+00 0.000000e+00 0.000000e+00 0.000000e+00 0.000000e+00 0.000000e+00
 0.000000e+00 0.000000e+00 0.000000e+00 8.442105e-01 1.557895e-01 0.000000e+00 0.000000e+00 0.000000e+00 0.000000e+00 0.000000e+00 0.000000e+00 0.000000e+00
 0.000000e+00 0.000000e+00 0.000000e+00 0.000000e+00 8.057743e-01 1.942257e-01 0.000000e+00 0.000000e+00 0.000000e+00 0.000000e+00 0.000000e+00 0.000000e+00
 0.000000e+00 0.000000e+00 0.000000e+00 0.000000e+00 0.000000e+00 8.770764e-01 1.229236e-01 0.000000e+00 0.000000e+00 0.000000e+00 0.000000e+00 0.000000e+00
 0.000000e+00 0.000000e+00 0.000000e+00 0.000000e+00 0.000000e+00 0.000000e+00 1.190476e-01 8.809524e-01 0.000000e+00 0.000000e+00 0.000000e+00 0.000000e+00
 0.000000e+00 0.000000e+00 0.000000e+00 0.000000e+00 0.000000e+00 0.000000e+00 0.000000e+00 0.000000e+00 1.000000e+00 0.000000e+00 0.000000e+00 0.000000e+00
 0.000000e+00 0.000000e+00 0.000000e+00 0.000000e+00 0.000000e+00 0.000000e+00 0.000000e+00 0.000000e+00 5.131579e-01 4.868421e-01 0.000000e+00 0.000000e+00
 0.000000e+00 0.000000e+00 0.000000e+00 0.000000e+00 0.000000e+00 0.000000e+00 0.000000e+00 0.000000e+00 0.000000e+00 8.344519e-01 1.655481e-01 0.000000e+00
 0.000000e+00 0.000000e+00 0.000000e+00 0.000000e+00 0.000000e+00 0.000000e+00 0.000000e+00 0.000000e+00 0.000000e+00 0.000000e+00 9.128386e-01 8.716137e-02
 0.000000e+00 0.000000e+00 0.000000e+00 0.000000e+00 0.000000e+00 0.000000e+00 0.000000e+00 0.000000e+00 0.000000e+00 0.000000e+00 0.000000e+00 0.000000e+00
<ENDHMM>
