~o
<STREAMINFO> 1 6
<VECSIZE> 6<NULLD><USER><DIAGC>
~h "proto"
<BEGINHMM>
<NUMSTATES> 12
<STATE> 2
<MEAN> 6
 3.575339e-01 2.699516e-01 3.033774e-02 -2.069248e-03 -2.257554e-02 -8.719564e-03
<VARIANCE> 6
 5.825626e-03 5.157011e-03 6.416963e-04 1.832248e-04 9.234733e-04 4.307614e-04
<GCONST> -3.007914e+01
<STATE> 3
<MEAN> 6
 4.057250e-01 2.379227e-01 -1.481677e-02 -4.145736e-02 1.124547e-03 -1.037163e-02
<VARIANCE> 6
 2.554273e-03 4.482932e-03 3.861741e-04 4.167056e-04 2.163277e-03 1.433845e-03
<GCONST> -2.867608e+01
<STATE> 4
<MEAN> 6
 3.811483e-01 1.400144e-01 2.291770e-02 -1.582715e-02 1.939185e-02 2.365091e-02
<VARIANCE> 6
 2.067821e-03 3.977454e-03 4.078019e-04 3.088641e-04 5.295966e-04 7.902313e-04
<GCONST> -3.125503e+01
<STATE> 5
<MEAN> 6
 4.545781e-01 1.904659e-01 2.044991e-02 2.097478e-02 -1.328048e-02 -5.069994e-03
<VARIANCE> 6
 1.475326e-03 5.434621e-03 3.566491e-04 2.620751e-04 3.334706e-04 1.348626e-03
<GCONST> -3.150684e+01
<STATE> 6
<MEAN> 6
 4.961237e-01 1.719066e-01 2.678764e-02 -2.023707e-02 2.069274e-02 1.707861e-03
<VARIANCE> 6
 1.633691e-03 5.266081e-03 4.711332e-04 1.773991e-04 6.231464e-04 9.299826e-04
<GCONST> -3.129467e+01
<STATE> 7
<MEAN> 6
 5.774686e-01 1.649332e-01 2.990549e-02 3.575740e-02 -3.688726e-02 4.098295e-02
<VARIANCE> 6
 2.728620e-03 5.175007e-03 7.743682e-04 9.121216e-04 1.119450e-03 1.691682e-03
<GCONST> -2.748076e+01
<STATE> 8
<MEAN> 6
 5.542014e-01 2.747442e-01 -2.795877e-02 3.989263e-02 5.180304e-03 -2.939402e-02
<VARIANCE> 6
 3.616024e-03 4.497605e-03 3.468094e-04 6.234589e-04 2.835942e-03 6.079602e-04
<GCONST> -2.861707e+01
<STATE> 9
<MEAN> 6
 5.701323e-01 3.042519e-01 5.808658e-02 7.017498e-03 3.616321e-02 -4.705525e-03
<VARIANCE> 6
 5.167691e-03 6.644306e-03 1.433226e-03 6.327082e-05 3.160137e-03 1.895077e-04
<GCONST> -2.979620e+01
<STATE> 10
<MEAN> 6
 7.093192e-01 3.113130e-01 4.149425e-02 -2.297900e-02 -5.213893e-02 -3.134210e-02
<VARIANCE> 6
 4.798340e-03 4.278256e-03 1.769915e-03 5.086485e-04 1.715032e-03 5.166940e-04
<GCONST> -2.762339e+01
<STATE> 11
<MEAN> 6
 6.990669e-01 2.366872e-01 -1.041993e-02 -5.390711e-03 -4.134321e-03 3.379131e-02
<VARIANCE> 6
 5.983465e-03 5.666475e-03 7.964799e-04 1.294552e-03 2.160347e-03 1.326221e-03
<GCONST> -2.581249e+01
<TRANSP> 12
 0.000000e+00 1.000000e+00 0.000000e+00 0.000000e+00 0.000000e+00 0.000000e+00 0.000000e+00 0.000000e+00 0.000000e+00 0.000000e+00 0.000000e+00 0.000000e+00
 0.000000e+00 8.536225e-01 1.463775e-01 0.000000e+00 0.000000e+00 0.000000e+00 0.000000e+00 0.000000e+00 0.000000e+00 0.000000e+00 0.000000e+00 0.000000e+00
 0.000000e+00 0.000000e+00 8.471556e-01 1.528444e-01 0.000000e+00 0.000000e+00 0.000000e+00 0.000000e+00 0.000000e+00 0.000000e+00 0.000000e+00 0.000000e+00
 0.000000e+00 0.000000e+00 0.000000e+00 8.495966e-01 1.504034e-01 0.000000e+00 0.000000e+00 0.000000e+00 0.000000e+00 0.000000e+00 0.000000e+00 0.000000e+00
 0.000000e+00 0.000000e+00 0.000000e+00 0.000000e+00 8.822672e-01 1.177328e-01 0.000000e+00 0.000000e+00 0.000000e+00 0.000000e+00 0.000000e+00 0.000000e+00
 0.000000e+00 0.000000e+00 0.000000e+00 0.000000e+00 0.000000e+00 8.513170e-01 1.486830e-01 0.000000e+00 0.000000e+00 0.000000e+00 0.000000e+00 0.000000e+00
 0.000000e+00 0.000000e+00 0.000000e+00 0.000000e+00 0.000000e+00 0.000000e+00 8.297834e-01 1.702166e-01 0.000000e+00 0.000000e+00 0.000000e+00 0.000000e+00
 0.000000e+00 0.000000e+00 0.000000e+00 0.000000e+00 0.000000e+00 0.000000e+00 0.000000e+00 8.396009e-01 1.603992e-01 0.000000e+00 0.000000e+00 0.000000e+00
 0.000000e+00 0.000000e+00 0.000000e+00 0.000000e+00 0.000000e+00 0.000000e+00 0.000000e+00 0.000000e+00 8.726996e-01 1.273005e-01 0.000000e+00 0.000000e+00
 0.000000e+00 0.000000e+00 0.000000e+00 0.000000e+00 0.000000e+00 0.000000e+00 0.000000e+00 0.000000e+00 0.000000e+00 8.183534e-01 1.816467e-01 0.000000e+00
 0.000000e+00 0.000000e+00 0.000000e+00 0.000000e+00 0.000000e+00 0.000000e+00 0.000000e+00 0.000000e+00 0.000000e+00 0.000000e+00 8.769615e-01 1.230385e-01
 0.000000e+00 0.000000e+00 0.000000e+00 0.000000e+00 0.000000e+00 0.000000e+00 0.000000e+00 0.000000e+00 0.000000e+00 0.000000e+00 0.000000e+00 0.000000e+00
<ENDHMM>
