~o
<STREAMINFO> 1 7
<VECSIZE> 7<NULLD><USER><DIAGC>
~h "proto"
<BEGINHMM>
<NUMSTATES> 12
<STATE> 2
<MEAN> 7
 3.739886e-01 2.383981e-01 3.576890e-02 -2.693101e-03 -2.011682e-02 -3.607322e-03 -1.646895e+01
<VARIANCE> 7
 3.906632e-03 7.165485e-03 6.222642e-04 2.343354e-04 9.142337e-04 3.612532e-04 2.523190e+03
<GCONST> -2.044940e+01
<STATE> 3
<MEAN> 7
 4.297356e-01 2.550589e-01 2.812471e-03 -1.848193e-02 -6.158275e-02 -4.357705e-02 -1.329115e+03
<VARIANCE> 7
 3.248235e-03 5.948234e-03 3.923260e-04 3.494034e-04 1.216427e-03 8.423232e-04 3.961553e+07
<GCONST> -1.008832e+01
<STATE> 4
<MEAN> 7
 4.177139e-01 1.760477e-01 1.045082e-02 -9.161953e-03 5.018044e-03 8.410288e-03 1.723695e+00
<VARIANCE> 7
 3.664691e-03 6.878178e-03 7.719782e-04 1.000792e-03 8.984195e-04 9.360208e-04 4.856765e+02
<GCONST> -1.959999e+01
<STATE> 5
<MEAN> 7
 4.822368e-01 1.907554e-01 9.633635e-03 4.303787e-03 -6.130700e-03 -4.015656e-02 -1.629781e+03
<VARIANCE> 7
 2.171153e-03 5.771476e-03 1.665902e-04 4.513139e-04 9.927853e-04 2.042462e-03 9.099194e+07
<GCONST> -9.607822e+00
<STATE> 6
<MEAN> 7
 5.506423e-01 1.894859e-01 1.617938e-02 1.748233e-02 -1.007268e-02 1.006231e-02 8.220771e+00
<VARIANCE> 7
 4.273006e-03 7.140438e-03 1.333822e-03 1.543941e-03 1.856624e-03 1.859913e-03 2.956707e+02
<GCONST> -1.751238e+01
<STATE> 7
<MEAN> 7
 5.502263e-01 2.791608e-01 -3.288107e-02 2.903633e-02 3.150054e-02 -3.845046e-02 2.249242e+01
<VARIANCE> 7
 3.046748e-03 5.814747e-03 5.836825e-04 4.270377e-04 8.421104e-04 7.780023e-04 2.858190e+02
<GCONST> -2.186371e+01
<STATE> 8
<MEAN> 7
 5.415156e-01 2.850693e-01 -1.836353e-02 1.825454e-02 6.923123e-02 -3.467709e-02 9.586084e+01
<VARIANCE> 7
 3.085612e-03 5.889933e-03 3.706815e-04 1.732781e-04 3.388954e-03 7.730669e-04 1.212517e+04
<GCONST> -1.806050e+01
<STATE> 9
<MEAN> 7
 5.381871e-01 2.891521e-01 7.554609e-03 9.332063e-03 9.159840e-02 -2.540169e-02 3.547940e+03
<VARIANCE> 7
 2.903880e-03 5.916699e-03 8.275791e-04 8.805915e-05 3.894391e-03 7.717281e-04 5.608664e+08
<GCONST> -7.111156e+00
<STATE> 10
<MEAN> 7
 6.171336e-01 2.952795e-01 6.955227e-02 4.168508e-03 1.369893e-02 -8.622902e-03 -2.675068e+01
<VARIANCE> 7
 5.647125e-03 5.831257e-03 1.329956e-03 8.568804e-05 4.447923e-03 3.533223e-04 2.657328e+04
<GCONST> -1.661919e+01
<STATE> 11
<MEAN> 7
 7.156436e-01 2.489639e-01 3.362089e-03 -1.428502e-02 -1.901013e-02 1.372474e-02 -1.228594e+01
<VARIANCE> 7
 5.436280e-03 7.082619e-03 1.330264e-03 1.099422e-03 2.639423e-03 2.164128e-03 2.749774e+03
<GCONST> -1.488864e+01
<TRANSP> 12
 0.000000e+00 1.000000e+00 0.000000e+00 0.000000e+00 0.000000e+00 0.000000e+00 0.000000e+00 0.000000e+00 0.000000e+00 0.000000e+00 0.000000e+00 0.000000e+00
 0.000000e+00 8.264965e-01 1.735035e-01 0.000000e+00 0.000000e+00 0.000000e+00 0.000000e+00 0.000000e+00 0.000000e+00 0.000000e+00 0.000000e+00 0.000000e+00
 0.000000e+00 0.000000e+00 4.440431e-01 5.559570e-01 0.000000e+00 0.000000e+00 0.000000e+00 0.000000e+00 0.000000e+00 0.000000e+00 0.000000e+00 0.000000e+00
 0.000000e+00 0.000000e+00 0.000000e+00 9.483444e-01 5.165557e-02 0.000000e+00 0.000000e+00 0.000000e+00 0.000000e+00 0.000000e+00 0.000000e+00 0.000000e+00
 0.000000e+00 0.000000e+00 0.000000e+00 0.000000e+00 5.227764e-01 4.772237e-01 0.000000e+00 0.000000e+00 0.000000e+00 0.000000e+00 0.000000e+00 0.000000e+00
 0.000000e+00 0.000000e+00 0.000000e+00 0.000000e+00 0.000000e+00 9.370918e-01 6.290820e-02 0.000000e+00 0.000000e+00 0.000000e+00 0.000000e+00 0.000000e+00
 0.000000e+00 0.000000e+00 0.000000e+00 0.000000e+00 0.000000e+00 0.000000e+00 0.000000e+00 1.000000e+00 0.000000e+00 0.000000e+00 0.000000e+00 0.000000e+00
 0.000000e+00 0.000000e+00 0.000000e+00 0.000000e+00 0.000000e+00 0.000000e+00 0.000000e+00 0.000000e+00 1.000000e+00 0.000000e+00 0.000000e+00 0.000000e+00
 0.000000e+00 0.000000e+00 0.000000e+00 0.000000e+00 0.000000e+00 0.000000e+00 0.000000e+00 0.000000e+00 0.000000e+00 1.000000e+00 0.000000e+00 0.000000e+00
 0.000000e+00 0.000000e+00 0.000000e+00 0.000000e+00 0.000000e+00 0.000000e+00 0.000000e+00 0.000000e+00 0.000000e+00 8.680243e-01 1.319757e-01 0.000000e+00
 0.000000e+00 0.000000e+00 0.000000e+00 0.000000e+00 0.000000e+00 0.000000e+00 0.000000e+00 0.000000e+00 0.000000e+00 0.000000e+00 9.110575e-01 8.894245e-02
 0.000000e+00 0.000000e+00 0.000000e+00 0.000000e+00 0.000000e+00 0.000000e+00 0.000000e+00 0.000000e+00 0.000000e+00 0.000000e+00 0.000000e+00 0.000000e+00
<ENDHMM>
