~o
<STREAMINFO> 1 6
<VECSIZE> 6<NULLD><USER><DIAGC>
~h "proto"
<BEGINHMM>
<NUMSTATES> 12
<STATE> 2
<MEAN> 6
 3.909347e-01 3.173693e-01 1.461346e-02 1.380280e-02 8.425922e-03 -8.536066e-03
<VARIANCE> 6
 2.377686e-03 6.980119e-03 2.895102e-04 5.872883e-04 3.154582e-04 6.316204e-04
<GCONST> -3.099508e+01
<STATE> 3
<MEAN> 6
 4.472968e-01 3.053170e-01 3.102877e-02 7.060874e-04 2.136159e-03 -3.533940e-02
<VARIANCE> 6
 1.289797e-03 7.639972e-03 4.041267e-04 7.225663e-04 6.867524e-04 1.013613e-03
<GCONST> -2.972462e+01
<STATE> 4
<MEAN> 6
 4.865743e-01 2.861198e-01 1.542987e-02 -5.995810e-03 -1.920130e-03 5.407595e-03
<VARIANCE> 6
 1.023632e-03 5.832226e-03 1.790862e-04 8.631081e-04 2.419757e-04 1.078969e-03
<GCONST> -3.184253e+01
<STATE> 5
<MEAN> 6
 5.645511e-01 3.009573e-01 3.512884e-02 2.883350e-03 3.470790e-03 -2.241695e-02
<VARIANCE> 6
 2.798508e-03 4.362617e-03 4.160672e-04 1.125381e-03 6.846310e-04 2.136379e-03
<GCONST> -2.829566e+01
<STATE> 6
<MEAN> 6
 6.266674e-01 2.595883e-01 1.315077e-02 -5.844673e-02 -2.812784e-02 -1.476199e-02
<VARIANCE> 6
 3.959787e-03 3.739413e-03 4.297876e-04 6.569357e-04 5.811620e-04 7.512763e-04
<GCONST> -2.981749e+01
<STATE> 7
<MEAN> 6
 6.264803e-01 1.237860e-01 -2.491886e-02 -3.049542e-02 -1.471461e-02 1.873804e-02
<VARIANCE> 6
 4.013853e-03 4.620696e-03 6.807942e-04 1.175849e-03 9.233023e-04 1.219079e-03
<GCONST> -2.760318e+01
<STATE> 8
<MEAN> 6
 5.191833e-01 1.109225e-01 -2.159804e-02 -7.166495e-04 7.669200e-04 7.874811e-03
<VARIANCE> 6
 2.361360e-03 4.059622e-03 3.982598e-04 4.361935e-04 2.345549e-04 6.094896e-04
<GCONST> -3.185446e+01
<STATE> 9
<MEAN> 6
 4.647083e-01 1.330203e-01 -3.899379e-02 1.376945e-02 2.856771e-02 2.590695e-02
<VARIANCE> 6
 2.735084e-03 6.706509e-03 6.826672e-04 5.978413e-04 5.655747e-04 1.689806e-03
<GCONST> -2.845151e+01
<STATE> 10
<MEAN> 6
 4.046199e-01 2.128335e-01 -1.337612e-02 5.231735e-03 1.492130e-02 -4.088813e-03
<VARIANCE> 6
 4.999745e-03 1.166353e-02 7.039232e-04 1.224818e-03 1.274546e-03 1.229945e-03
<GCONST> -2.605215e+01
<STATE> 11
<MEAN> 6
 4.614419e-01 1.259608e-01 3.404239e-02 6.228818e-04 8.796238e-03 -6.077736e-03
<VARIANCE> 6
 4.008595e-03 5.013149e-03 5.189226e-04 8.223336e-04 1.313488e-03 1.624031e-03
<GCONST> -2.751278e+01
<TRANSP> 12
 0.000000e+00 1.000000e+00 0.000000e+00 0.000000e+00 0.000000e+00 0.000000e+00 0.000000e+00 0.000000e+00 0.000000e+00 0.000000e+00 0.000000e+00 0.000000e+00
 0.000000e+00 9.109040e-01 8.909594e-02 0.000000e+00 0.000000e+00 0.000000e+00 0.000000e+00 0.000000e+00 0.000000e+00 0.000000e+00 0.000000e+00 0.000000e+00
 0.000000e+00 0.000000e+00 0.000000e+00 1.000000e+00 0.000000e+00 0.000000e+00 0.000000e+00 0.000000e+00 0.000000e+00 0.000000e+00 0.000000e+00 0.000000e+00
 0.000000e+00 0.000000e+00 0.000000e+00 9.138448e-01 8.615521e-02 0.000000e+00 0.000000e+00 0.000000e+00 0.000000e+00 0.000000e+00 0.000000e+00 0.000000e+00
 0.000000e+00 0.000000e+00 0.000000e+00 0.000000e+00 8.821931e-01 1.178068e-01 0.000000e+00 0.000000e+00 0.000000e+00 0.000000e+00 0.000000e+00 0.000000e+00
 0.000000e+00 0.000000e+00 0.000000e+00 0.000000e+00 0.000000e+00 8.134553e-01 1.865447e-01 0.000000e+00 0.000000e+00 0.000000e+00 0.000000e+00 0.000000e+00
 0.000000e+00 0.000000e+00 0.000000e+00 0.000000e+00 0.000000e+00 0.000000e+00 8.775156e-01 1.224845e-01 0.000000e+00 0.000000e+00 0.000000e+00 0.000000e+00
 0.000000e+00 0.000000e+00 0.000000e+00 0.000000e+00 0.000000e+00 0.000000e+00 0.000000e+00 9.205061e-01 7.949394e-02 0.000000e+00 0.000000e+00 0.000000e+00
 0.000000e+00 0.000000e+00 0.000000e+00 0.000000e+00 0.000000e+00 0.000000e+00 0.000000e+00 0.000000e+00 0.000000e+00 1.000000e+00 0.000000e+00 0.000000e+00
 0.000000e+00 0.000000e+00 0.000000e+00 0.000000e+00 0.000000e+00 0.000000e+00 0.000000e+00 0.000000e+00 0.000000e+00 9.099693e-01 9.003071e-02 0.000000e+00
 0.000000e+00 0.000000e+00 0.000000e+00 0.000000e+00 0.000000e+00 0.000000e+00 0.000000e+00 0.000000e+00 0.000000e+00 0.000000e+00 8.653921e-01 1.346079e-01
 0.000000e+00 0.000000e+00 0.000000e+00 0.000000e+00 0.000000e+00 0.000000e+00 0.000000e+00 0.000000e+00 0.000000e+00 0.000000e+00 0.000000e+00 0.000000e+00
<ENDHMM>
