~o
<STREAMINFO> 1 7
<VECSIZE> 7<NULLD><USER><DIAGC>
~h "proto"
<BEGINHMM>
<NUMSTATES> 12
<STATE> 2
<MEAN> 7
 3.989293e-01 3.176915e-01 1.746485e-02 1.742868e-02 9.410509e-03 -1.214796e-02 -8.048374e+00
<VARIANCE> 7
 3.784245e-03 7.092868e-03 2.646925e-04 4.254968e-04 2.594585e-04 6.491109e-04 3.808708e+02
<GCONST> -2.331399e+01
<STATE> 3
<MEAN> 7
 4.850629e-01 2.979770e-01 1.693089e-02 -2.775680e-02 -1.048754e-02 -5.800703e-03 -7.250588e+00
<VARIANCE> 7
 3.006787e-03 7.204718e-03 2.836016e-04 2.448647e-04 1.759954e-04 8.709444e-04 7.323376e+02
<GCONST> -2.345225e+01
<STATE> 4
<MEAN> 7
 4.913268e-01 2.479623e-01 7.498900e-03 -1.346006e-02 -4.961401e-03 4.910961e-02 7.956615e+01
<VARIANCE> 7
 3.934148e-03 4.888162e-03 3.045077e-04 1.465360e-04 2.793581e-04 2.194409e-03 1.811685e+04
<GCONST> -1.941918e+01
<STATE> 5
<MEAN> 7
 4.954131e-01 2.433962e-01 5.800048e-03 6.910559e-03 5.753076e-04 4.995249e-02 3.767422e+01
<VARIANCE> 7
 3.878634e-03 4.913168e-03 1.331350e-04 3.495064e-04 9.228438e-04 3.017622e-03 3.598566e+08
<GCONST> -7.976225e+00
<STATE> 6
<MEAN> 7
 5.499347e-01 3.081466e-01 2.620335e-02 5.012381e-03 2.463737e-03 -1.839452e-02 -8.916036e+00
<VARIANCE> 7
 5.180296e-03 6.524930e-03 3.560086e-04 1.295189e-03 5.313162e-04 1.242389e-03 2.567164e+02
<GCONST> -2.070243e+01
<STATE> 7
<MEAN> 7
 6.013475e-01 2.613666e-01 1.297092e-02 -6.664385e-02 -3.208979e-02 -1.408505e-02 -1.441459e+00
<VARIANCE> 7
 7.303811e-03 3.942151e-03 5.223320e-04 1.301924e-03 7.916282e-04 1.171214e-03 3.473289e+00
<GCONST> -2.443740e+01
<STATE> 8
<MEAN> 7
 5.935318e-01 1.577382e-01 -2.162386e-02 -3.743577e-02 -1.419595e-02 1.611143e-02 -3.539924e+00
<VARIANCE> 7
 7.140466e-03 5.372101e-03 4.654723e-04 8.218732e-04 4.937273e-04 6.382808e-04 4.693577e+01
<GCONST> -2.320123e+01
<STATE> 9
<MEAN> 7
 5.158552e-01 1.145424e-01 -1.817246e-02 9.905251e-03 1.527572e-02 1.012935e-02 1.150290e+02
<VARIANCE> 7
 7.029876e-03 4.162711e-03 6.403967e-04 4.036350e-04 4.918305e-04 2.180455e-03 4.415543e+06
<GCONST> -1.118742e+01
<STATE> 10
<MEAN> 7
 4.550277e-01 1.604793e-01 -1.550640e-02 5.959379e-03 1.652290e-03 -1.771775e-03 -1.749880e+00
<VARIANCE> 7
 8.452403e-03 1.035050e-02 4.200090e-04 5.327063e-04 2.961952e-04 5.203451e-04 6.495427e+02
<GCONST> -2.100090e+01
<STATE> 11
<MEAN> 7
 4.490066e-01 1.436534e-01 1.338987e-02 -1.282548e-03 1.395087e-02 1.093883e-03 6.127339e-02
<VARIANCE> 7
 5.665524e-03 4.730455e-03 1.358622e-03 1.126467e-03 1.524804e-03 1.389500e-03 2.723244e+02
<GCONST> -1.850961e+01
<TRANSP> 12
 0.000000e+00 1.000000e+00 0.000000e+00 0.000000e+00 0.000000e+00 0.000000e+00 0.000000e+00 0.000000e+00 0.000000e+00 0.000000e+00 0.000000e+00 0.000000e+00
 0.000000e+00 9.091571e-01 9.084292e-02 0.000000e+00 0.000000e+00 0.000000e+00 0.000000e+00 0.000000e+00 0.000000e+00 0.000000e+00 0.000000e+00 0.000000e+00
 0.000000e+00 0.000000e+00 8.863819e-01 1.136182e-01 0.000000e+00 0.000000e+00 0.000000e+00 0.000000e+00 0.000000e+00 0.000000e+00 0.000000e+00 0.000000e+00
 0.000000e+00 0.000000e+00 0.000000e+00 0.000000e+00 1.000000e+00 0.000000e+00 0.000000e+00 0.000000e+00 0.000000e+00 0.000000e+00 0.000000e+00 0.000000e+00
 0.000000e+00 0.000000e+00 0.000000e+00 0.000000e+00 1.938429e-01 8.061571e-01 0.000000e+00 0.000000e+00 0.000000e+00 0.000000e+00 0.000000e+00 0.000000e+00
 0.000000e+00 0.000000e+00 0.000000e+00 0.000000e+00 0.000000e+00 9.295986e-01 7.040142e-02 0.000000e+00 0.000000e+00 0.000000e+00 0.000000e+00 0.000000e+00
 0.000000e+00 0.000000e+00 0.000000e+00 0.000000e+00 0.000000e+00 0.000000e+00 0.000000e+00 1.000000e+00 0.000000e+00 0.000000e+00 0.000000e+00 0.000000e+00
 0.000000e+00 0.000000e+00 0.000000e+00 0.000000e+00 0.000000e+00 0.000000e+00 0.000000e+00 9.183721e-01 8.162791e-02 0.000000e+00 0.000000e+00 0.000000e+00
 0.000000e+00 0.000000e+00 0.000000e+00 0.000000e+00 0.000000e+00 0.000000e+00 0.000000e+00 0.000000e+00 6.837593e-01 3.162407e-01 0.000000e+00 0.000000e+00
 0.000000e+00 0.000000e+00 0.000000e+00 0.000000e+00 0.000000e+00 0.000000e+00 0.000000e+00 0.000000e+00 0.000000e+00 9.349104e-01 6.508969e-02 0.000000e+00
 0.000000e+00 0.000000e+00 0.000000e+00 0.000000e+00 0.000000e+00 0.000000e+00 0.000000e+00 0.000000e+00 0.000000e+00 0.000000e+00 9.185421e-01 8.145794e-02
 0.000000e+00 0.000000e+00 0.000000e+00 0.000000e+00 0.000000e+00 0.000000e+00 0.000000e+00 0.000000e+00 0.000000e+00 0.000000e+00 0.000000e+00 0.000000e+00
<ENDHMM>
