~o
<STREAMINFO> 1 7
<VECSIZE> 7<NULLD><USER><DIAGC>
~h "proto"
<BEGINHMM>
<NUMSTATES> 12
<STATE> 2
<MEAN> 7
 4.292398e-01 2.614188e-01 -2.055710e-03 2.215306e-02 -2.523508e-02 -6.759675e-03 1.338280e+01
<VARIANCE> 7
 4.185633e-03 4.667766e-03 4.859813e-04 2.646686e-04 4.281338e-04 1.234951e-03 1.989586e+03
<GCONST> -2.070152e+01
<STATE> 3
<MEAN> 7
 3.682841e-01 2.554173e-01 -1.726733e-02 -2.450678e-02 1.342773e-02 -2.875106e-02 1.576289e+01
<VARIANCE> 7
 6.514627e-03 4.941032e-03 4.512259e-04 7.166610e-04 8.554150e-04 1.094345e-03 2.678242e+02
<GCONST> -2.071439e+01
<STATE> 4
<MEAN> 7
 4.143758e-01 1.666575e-01 5.002281e-02 -3.898350e-02 3.990041e-02 2.855291e-02 2.286841e+00
<VARIANCE> 7
 4.619234e-03 3.966025e-03 1.361330e-03 8.642356e-04 1.676664e-03 9.594705e-04 1.810111e+01
<GCONST> -2.213944e+01
<STATE> 5
<MEAN> 7
 5.640845e-01 1.832180e-01 1.301136e-02 3.022944e-02 -3.410568e-02 4.301760e-03 6.800693e+00
<VARIANCE> 7
 6.298347e-03 5.418276e-03 1.716255e-03 5.678954e-04 1.148212e-03 1.560784e-03 1.832922e+02
<GCONST> -1.928252e+01
<STATE> 6
<MEAN> 7
 5.102175e-01 2.325242e-01 5.418279e-03 -1.161005e-02 2.775378e-02 5.762506e-03 2.669742e+01
<VARIANCE> 7
 4.331312e-03 4.298309e-03 1.077046e-03 4.127616e-04 1.152598e-03 2.184273e-03 4.569182e+03
<GCONST> -1.711757e+01
<STATE> 7
<MEAN> 7
 5.621682e-01 2.680661e-01 -6.443717e-03 5.229299e-02 -4.110754e-02 3.956231e-03 5.780477e+00
<VARIANCE> 7
 6.263156e-03 5.236477e-03 1.240735e-03 4.630802e-04 8.788487e-04 1.878726e-03 9.266963e+01
<GCONST> -2.061472e+01
<STATE> 8
<MEAN> 7
 4.908274e-01 3.434198e-01 -4.068325e-02 1.477777e-02 3.262497e-02 -2.692900e-02 2.462474e+01
<VARIANCE> 7
 5.109306e-03 3.464404e-03 3.752784e-04 2.510867e-04 1.290093e-03 3.678702e-04 1.208718e+03
<GCONST> -2.171783e+01
<STATE> 9
<MEAN> 7
 5.189749e-01 3.240531e-01 2.410843e-02 3.711700e-03 6.155574e-02 -6.695979e-03 1.381700e+03
<VARIANCE> 7
 1.158473e-02 7.104899e-03 1.335878e-03 1.255729e-04 5.010183e-03 5.890455e-04 1.233820e+08
<GCONST> -6.243185e+00
<STATE> 10
<MEAN> 7
 5.730230e-01 3.553332e-01 8.290255e-02 5.211806e-03 1.543783e-02 -5.508101e-03 -1.564284e+00
<VARIANCE> 7
 9.865440e-03 3.869947e-03 1.468457e-03 1.300737e-04 4.608813e-03 4.045248e-04 2.238745e+01
<GCONST> -2.286312e+01
<STATE> 11
<MEAN> 7
 6.838200e-01 3.103604e-01 3.466669e-03 -1.706240e-02 -2.421866e-02 1.665228e-02 -2.714616e+01
<VARIANCE> 7
 8.723905e-03 4.653529e-03 1.309881e-03 1.445099e-03 3.388260e-03 3.146188e-03 7.323169e+03
<GCONST> -1.297428e+01
<TRANSP> 12
 0.000000e+00 1.000000e+00 0.000000e+00 0.000000e+00 0.000000e+00 0.000000e+00 0.000000e+00 0.000000e+00 0.000000e+00 0.000000e+00 0.000000e+00 0.000000e+00
 0.000000e+00 8.562739e-01 1.437261e-01 0.000000e+00 0.000000e+00 0.000000e+00 0.000000e+00 0.000000e+00 0.000000e+00 0.000000e+00 0.000000e+00 0.000000e+00
 0.000000e+00 0.000000e+00 8.653275e-01 1.346725e-01 0.000000e+00 0.000000e+00 0.000000e+00 0.000000e+00 0.000000e+00 0.000000e+00 0.000000e+00 0.000000e+00
 0.000000e+00 0.000000e+00 0.000000e+00 8.643509e-01 1.356491e-01 0.000000e+00 0.000000e+00 0.000000e+00 0.000000e+00 0.000000e+00 0.000000e+00 0.000000e+00
 0.000000e+00 0.000000e+00 0.000000e+00 0.000000e+00 9.199517e-01 8.004832e-02 0.000000e+00 0.000000e+00 0.000000e+00 0.000000e+00 0.000000e+00 0.000000e+00
 0.000000e+00 0.000000e+00 0.000000e+00 0.000000e+00 0.000000e+00 8.932919e-01 1.067081e-01 0.000000e+00 0.000000e+00 0.000000e+00 0.000000e+00 0.000000e+00
 0.000000e+00 0.000000e+00 0.000000e+00 0.000000e+00 0.000000e+00 0.000000e+00 8.615590e-01 1.384410e-01 0.000000e+00 0.000000e+00 0.000000e+00 0.000000e+00
 0.000000e+00 0.000000e+00 0.000000e+00 0.000000e+00 0.000000e+00 0.000000e+00 0.000000e+00 7.497497e-01 2.502504e-01 0.000000e+00 0.000000e+00 0.000000e+00
 0.000000e+00 0.000000e+00 0.000000e+00 0.000000e+00 0.000000e+00 0.000000e+00 0.000000e+00 0.000000e+00 6.039411e-01 3.960590e-01 0.000000e+00 0.000000e+00
 0.000000e+00 0.000000e+00 0.000000e+00 0.000000e+00 0.000000e+00 0.000000e+00 0.000000e+00 0.000000e+00 0.000000e+00 8.613697e-01 1.386304e-01 0.000000e+00
 0.000000e+00 0.000000e+00 0.000000e+00 0.000000e+00 0.000000e+00 0.000000e+00 0.000000e+00 0.000000e+00 0.000000e+00 0.000000e+00 9.051554e-01 9.484456e-02
 0.000000e+00 0.000000e+00 0.000000e+00 0.000000e+00 0.000000e+00 0.000000e+00 0.000000e+00 0.000000e+00 0.000000e+00 0.000000e+00 0.000000e+00 0.000000e+00
<ENDHMM>
