~o
<STREAMINFO> 1 6
<VECSIZE> 6<NULLD><USER><DIAGC>
~h "proto"
<BEGINHMM>
<NUMSTATES> 12
<STATE> 2
<MEAN> 6
 4.258408e-01 2.580031e-01 -3.427461e-03 2.044365e-02 -2.455293e-02 -8.456605e-03
<VARIANCE> 6
 4.505528e-03 5.954240e-03 5.536199e-04 2.639325e-04 3.479029e-04 1.192539e-03
<GCONST> -2.993295e+01
<STATE> 3
<MEAN> 6
 3.597881e-01 2.361288e-01 -5.223059e-03 -2.576295e-02 1.762236e-02 -1.629650e-02
<VARIANCE> 6
 4.740613e-03 6.703481e-03 5.492434e-04 8.690635e-04 8.405729e-04 9.137483e-04
<GCONST> -2.796390e+01
<STATE> 4
<MEAN> 6
 4.432739e-01 1.417458e-01 6.509958e-02 -2.305347e-02 1.745418e-02 4.070029e-02
<VARIANCE> 6
 4.959839e-03 5.926593e-03 9.156251e-04 1.221358e-03 2.942220e-03 8.910161e-04
<GCONST> -2.596286e+01
<STATE> 5
<MEAN> 6
 5.603117e-01 1.463475e-01 7.517277e-03 2.275431e-02 -2.194794e-02 2.323134e-03
<VARIANCE> 6
 5.869920e-03 3.293967e-03 1.019547e-03 6.301305e-04 1.265379e-03 7.102902e-04
<GCONST> -2.800652e+01
<STATE> 6
<MEAN> 6
 5.115963e-01 2.277963e-01 2.371531e-03 -7.343079e-04 1.955749e-02 1.660515e-03
<VARIANCE> 6
 3.927051e-03 1.487262e-03 1.350437e-03 5.614854e-04 1.405118e-03 1.849871e-03
<GCONST> -2.797595e+01
<STATE> 7
<MEAN> 6
 5.502573e-01 2.250763e-01 4.127837e-02 4.168551e-02 -2.624627e-02 5.459752e-02
<VARIANCE> 6
 4.869707e-03 1.053881e-03 8.767276e-04 3.201151e-04 8.409042e-04 1.725023e-03
<GCONST> -2.968243e+01
<STATE> 8
<MEAN> 6
 5.573153e-01 3.110765e-01 -1.206693e-02 4.054802e-02 -2.432500e-02 -1.039351e-02
<VARIANCE> 6
 4.689980e-03 2.481169e-03 1.354651e-03 1.114206e-03 1.839209e-03 1.657199e-03
<GCONST> -2.643896e+01
<STATE> 9
<MEAN> 6
 5.013497e-01 3.615193e-01 3.364773e-02 6.291576e-03 5.220239e-02 -6.311055e-03
<VARIANCE> 6
 5.588429e-03 2.739389e-03 3.724519e-03 1.693590e-04 2.333670e-03 5.048824e-04
<GCONST> -2.798762e+01
<STATE> 10
<MEAN> 6
 6.838542e-01 3.552568e-01 5.375652e-02 -1.587723e-02 -5.502412e-02 -2.794364e-02
<VARIANCE> 6
 4.907192e-03 4.141022e-03 1.874007e-03 5.536702e-04 1.309638e-03 4.651739e-04
<GCONST> -2.786633e+01
<STATE> 11
<MEAN> 6
 6.925300e-01 2.820560e-01 -1.119376e-02 -7.917026e-03 -3.663710e-03 4.128894e-02
<VARIANCE> 6
 6.044117e-03 5.157060e-03 9.775286e-04 1.625724e-03 3.341014e-03 1.671494e-03
<GCONST> -2.479660e+01
<TRANSP> 12
 0.000000e+00 1.000000e+00 0.000000e+00 0.000000e+00 0.000000e+00 0.000000e+00 0.000000e+00 0.000000e+00 0.000000e+00 0.000000e+00 0.000000e+00 0.000000e+00
 0.000000e+00 8.683864e-01 1.316136e-01 0.000000e+00 0.000000e+00 0.000000e+00 0.000000e+00 0.000000e+00 0.000000e+00 0.000000e+00 0.000000e+00 0.000000e+00
 0.000000e+00 0.000000e+00 9.091291e-01 9.087092e-02 0.000000e+00 0.000000e+00 0.000000e+00 0.000000e+00 0.000000e+00 0.000000e+00 0.000000e+00 0.000000e+00
 0.000000e+00 0.000000e+00 0.000000e+00 8.500664e-01 1.499336e-01 0.000000e+00 0.000000e+00 0.000000e+00 0.000000e+00 0.000000e+00 0.000000e+00 0.000000e+00
 0.000000e+00 0.000000e+00 0.000000e+00 0.000000e+00 9.118397e-01 8.816027e-02 0.000000e+00 0.000000e+00 0.000000e+00 0.000000e+00 0.000000e+00 0.000000e+00
 0.000000e+00 0.000000e+00 0.000000e+00 0.000000e+00 0.000000e+00 8.998611e-01 1.001389e-01 0.000000e+00 0.000000e+00 0.000000e+00 0.000000e+00 0.000000e+00
 0.000000e+00 0.000000e+00 0.000000e+00 0.000000e+00 0.000000e+00 0.000000e+00 0.000000e+00 1.000000e+00 0.000000e+00 0.000000e+00 0.000000e+00 0.000000e+00
 0.000000e+00 0.000000e+00 0.000000e+00 0.000000e+00 0.000000e+00 0.000000e+00 0.000000e+00 8.879583e-01 1.120417e-01 0.000000e+00 0.000000e+00 0.000000e+00
 0.000000e+00 0.000000e+00 0.000000e+00 0.000000e+00 0.000000e+00 0.000000e+00 0.000000e+00 0.000000e+00 8.833706e-01 1.166294e-01 0.000000e+00 0.000000e+00
 0.000000e+00 0.000000e+00 0.000000e+00 0.000000e+00 0.000000e+00 0.000000e+00 0.000000e+00 0.000000e+00 0.000000e+00 8.433853e-01 1.566148e-01 0.000000e+00
 0.000000e+00 0.000000e+00 0.000000e+00 0.000000e+00 0.000000e+00 0.000000e+00 0.000000e+00 0.000000e+00 0.000000e+00 0.000000e+00 8.581060e-01 1.418940e-01
 0.000000e+00 0.000000e+00 0.000000e+00 0.000000e+00 0.000000e+00 0.000000e+00 0.000000e+00 0.000000e+00 0.000000e+00 0.000000e+00 0.000000e+00 0.000000e+00
<ENDHMM>
