~o
<STREAMINFO> 1 38
<VECSIZE> 38<NULLD><USER><DIAGC>
~h "eight"
<BEGINHMM>
<NUMSTATES> 5
<STATE> 2
<MEAN> 38
 8.279773e-01 5.857744e-01 -2.765304e-01 -9.012010e-01 5.343240e-01 1.578895e-01 6.173458e-01 5.350243e-01 2.707352e-01 7.601052e-01 3.366823e-01 5.593892e-01 3.611855e-01 1.185440e-01 3.712986e-01 7.349990e-02 3.059655e-01 1.982842e-01 1.033869e-01 -6.056965e-03 -5.689056e-03 -4.833170e-04 4.644104e-03 -8.123240e-03 -3.247380e-03 -7.578191e-03 -7.277873e-03 -5.157352e-03 -9.957436e-03 -5.769957e-03 -7.577794e-03 -5.074674e-03 -2.362244e-03 -4.336227e-03 -1.791669e-03 -4.834007e-03 -3.400187e-03 -2.417131e-03
<VARIANCE> 38
 5.755893e+01 1.582610e+01 7.702498e+00 8.579677e+00 5.874870e+00 4.815585e+00 4.507468e+00 3.713130e+00 3.225473e+00 4.152662e+00 2.894820e+00 2.698179e+00 1.913426e+00 1.439388e+00 1.625333e+00 1.190689e+00 1.266428e+00 9.380803e-01 8.421927e-01 1.936436e+00 4.499649e-01 2.354624e-01 3.486237e-01 2.005473e-01 1.709394e-01 1.474963e-01 1.224367e-01 1.180445e-01 1.401160e-01 1.104477e-01 9.538689e-02 6.628221e-02 5.424330e-02 5.703024e-02 4.980160e-02 4.666180e-02 3.735376e-02 3.451149e-02
<GCONST> 5.343850e+01
<STATE> 3
<MEAN> 38
 7.749681e-01 5.505323e-01 -2.391223e-01 -8.222867e-01 5.352120e-01 1.648076e-01 6.019169e-01 5.235696e-01 2.770662e-01 7.471288e-01 3.409971e-01 5.508813e-01 3.564621e-01 1.214707e-01 3.568375e-01 7.554468e-02 3.077492e-01 2.001124e-01 1.077496e-01 1.641233e-02 1.002562e-02 -7.804751e-03 -1.659855e-02 5.400626e-03 2.002690e-03 9.382419e-03 7.757539e-03 3.494717e-03 1.019154e-02 4.025351e-03 7.279664e-03 4.928605e-03 1.471531e-03 5.399135e-03 1.030089e-03 3.369623e-03 2.292601e-03 1.077068e-03
<VARIANCE> 38
 5.819263e+01 1.576184e+01 7.593990e+00 8.542611e+00 5.731740e+00 4.890326e+00 4.459816e+00 3.653767e+00 3.281260e+00 4.062887e+00 2.924908e+00 2.632450e+00 1.876133e+00 1.445837e+00 1.591932e+00 1.199324e+00 1.237229e+00 9.265545e-01 8.404732e-01 1.953659e+00 4.476495e-01 2.346947e-01 3.474910e-01 1.989431e-01 1.733900e-01 1.461584e-01 1.211922e-01 1.195802e-01 1.397257e-01 1.115469e-01 9.498823e-02 6.589460e-02 5.458292e-02 5.618234e-02 5.004660e-02 4.630189e-02 3.721543e-02 3.461762e-02
<GCONST> 5.328721e+01
<STATE> 4
<MEAN> 38
 5.898750e-01 3.968508e-01 -1.493641e-01 -5.730616e-01 4.139108e-01 1.270385e-01 4.457527e-01 3.878039e-01 2.140307e-01 5.674633e-01 2.686873e-01 4.245834e-01 2.738770e-01 9.488850e-02 2.630706e-01 5.778350e-02 2.401093e-01 1.544290e-01 8.370191e-02 2.078908e-02 1.462182e-02 -1.308368e-02 -3.108741e-02 1.569656e-02 4.587945e-03 2.042301e-02 1.804875e-02 8.884549e-03 2.391579e-02 1.016311e-02 1.719413e-02 1.130713e-02 3.589069e-03 1.171839e-02 2.258399e-03 9.164302e-03 5.981110e-03 3.136041e-03
<VARIANCE> 38
 5.837175e+01 1.590102e+01 7.344355e+00 8.346998e+00 5.640741e+00 4.872927e+00 4.394845e+00 3.549398e+00 3.222273e+00 3.941079e+00 2.886575e+00 2.551806e+00 1.810315e+00 1.415817e+00 1.566850e+00 1.178920e+00 1.215269e+00 9.091139e-01 8.330725e-01 1.964257e+00 4.445467e-01 2.256919e-01 3.308800e-01 1.906374e-01 1.720825e-01 1.390684e-01 1.150917e-01 1.176725e-01 1.326582e-01 1.097199e-01 9.097207e-02 6.336935e-02 5.354995e-02 5.360369e-02 4.899244e-02 4.448201e-02 3.603139e-02 3.402053e-02
<GCONST> 5.236567e+01
<TRANSP> 5
 0.000000e+00 1.000000e+00 0.000000e+00 0.000000e+00 0.000000e+00
 0.000000e+00 9.177356e-01 8.226439e-02 0.000000e+00 0.000000e+00
 0.000000e+00 0.000000e+00 9.177356e-01 8.226442e-02 0.000000e+00
 0.000000e+00 0.000000e+00 0.000000e+00 9.177356e-01 8.226440e-02
 0.000000e+00 0.000000e+00 0.000000e+00 0.000000e+00 0.000000e+00
<ENDHMM>
~h "seven"
<BEGINHMM>
<NUMSTATES> 5
<STATE> 2
<MEAN> 38
 -1.003168e+00 3.303271e-01 5.569021e-01 -7.190036e-01 8.759630e-01 -2.414206e-01 3.188125e-01 2.652247e-01 -2.373527e-01 4.673753e-01 -1.391923e-01 3.530983e-01 1.860073e-01 -8.494929e-02 3.725783e-01 -6.450857e-02 3.425232e-01 1.708000e-01 5.452419e-02 -1.042345e-01 -5.046113e-02 -1.362413e-02 -1.100930e-02 -9.493917e-03 -1.423465e-02 -1.271009e-02 -1.020380e-02 -1.136960e-02 -1.146231e-02 -1.232696e-02 -9.809649e-03 -9.182755e-03 -7.590820e-03 -6.866544e-03 -9.411477e-03 -8.409214e-03 -1.004099e-02 -1.002995e-02
<VARIANCE> 38
 1.262852e+02 2.226426e+01 6.086960e+00 7.691155e+00 5.338910e+00 5.924197e+00 3.213343e+00 2.662388e+00 3.427960e+00 2.512375e+00 3.165066e+00 1.810762e+00 1.465016e+00 1.554408e+00 1.306022e+00 1.559946e+00 1.099956e+00 1.038327e+00 1.161645e+00 4.352580e+00 7.020523e-01 2.212756e-01 3.175567e-01 1.923967e-01 2.215761e-01 1.161750e-01 1.012188e-01 1.512642e-01 9.525842e-02 1.407367e-01 6.974330e-02 5.766473e-02 6.375354e-02 4.892409e-02 6.784201e-02 4.168065e-02 4.315277e-02 4.852291e-02
<GCONST> 5.428333e+01
<STATE> 3
<MEAN> 38
 2.960339e-01 8.390107e-01 6.274782e-01 -4.945310e-01 8.597603e-01 -4.514806e-02 4.199610e-01 3.433485e-01 -7.805079e-02 5.317889e-01 2.278675e-02 4.148635e-01 2.633557e-01 1.166647e-02 3.960978e-01 5.074219e-02 3.886450e-01 2.591221e-01 1.600296e-01 -1.117058e-01 -3.744003e-02 -1.225442e-03 -2.539301e-02 1.018289e-02 -1.824407e-02 -4.819022e-03 -4.035681e-03 -1.597611e-02 -1.425270e-03 -1.576501e-02 -2.513167e-03 -4.913888e-03 -9.109323e-03 1.372741e-03 -1.050539e-02 -9.405747e-04 -5.808321e-03 -8.164399e-03
<VARIANCE> 38
 1.162953e+02 2.057736e+01 5.684531e+00 7.558265e+00 5.075598e+00 5.694391e+00 3.125580e+00 2.605579e+00 3.434385e+00 2.408358e+00 3.177657e+00 1.747118e+00 1.420830e+00 1.509484e+00 1.254524e+00 1.533953e+00 1.060634e+00 1.021721e+00 1.146464e+00 3.978966e+00 6.650376e-01 2.137179e-01 3.088184e-01 1.869134e-01 2.140736e-01 1.165821e-01 1.014377e-01 1.503848e-01 9.569227e-02 1.401936e-01 6.995330e-02 5.744190e-02 6.170294e-02 4.883819e-02 6.579374e-02 4.185838e-02 4.377020e-02 4.885261e-02
<GCONST> 5.333186e+01
<STATE> 4
<MEAN> 38
 1.375521e+00 1.120432e+00 5.786056e-01 -1.806254e-01 6.694995e-01 1.460717e-01 4.282256e-01 3.495736e-01 9.211468e-02 4.962190e-01 1.869621e-01 4.003000e-01 2.857798e-01 1.014104e-01 3.398154e-01 1.523340e-01 3.588321e-01 2.908391e-01 2.255583e-01 -6.230395e-02 -6.982459e-03 9.951432e-03 -2.762468e-02 2.328870e-02 -1.305275e-02 5.198115e-03 3.564830e-03 -1.313902e-02 8.083779e-03 -1.191293e-02 5.244940e-03 1.380865e-03 -6.443053e-03 8.038442e-03 -6.772357e-03 6.164137e-03 7.824334e-04 -2.441027e-03
<VARIANCE> 38
 9.845540e+01 1.838017e+01 5.445969e+00 7.365054e+00 5.047108e+00 5.285546e+00 3.121859e+00 2.592036e+00 3.328781e+00 2.429734e+00 3.104699e+00 1.763552e+00 1.401826e+00 1.432851e+00 1.261854e+00 1.456594e+00 1.062890e+00 9.941658e-01 1.079778e+00 3.387012e+00 5.984657e-01 2.041623e-01 2.939690e-01 1.783058e-01 1.992564e-01 1.143783e-01 9.912786e-02 1.445072e-01 9.526236e-02 1.351391e-01 6.962217e-02 5.631538e-02 5.796666e-02 4.783675e-02 6.134826e-02 4.110761e-02 4.244791e-02 4.646230e-02
<GCONST> 5.178393e+01
<TRANSP> 5
 0.000000e+00 1.000000e+00 0.000000e+00 0.000000e+00 0.000000e+00
 0.000000e+00 9.209070e-01 7.909303e-02 0.000000e+00 0.000000e+00
 0.000000e+00 0.000000e+00 9.209062e-01 7.909375e-02 0.000000e+00
 0.000000e+00 0.000000e+00 0.000000e+00 9.209080e-01 7.909205e-02
 0.000000e+00 0.000000e+00 0.000000e+00 0.000000e+00 0.000000e+00
<ENDHMM>
~h "three"
<BEGINHMM>
<NUMSTATES> 5
<STATE> 2
<MEAN> 38
 5.524150e-01 9.790295e-01 2.886789e-01 -6.121094e-01 6.166929e-01 -4.692593e-02 3.808151e-01 3.114920e-01 -3.149428e-02 5.056789e-01 1.609249e-01 5.091236e-01 4.044087e-01 2.076916e-01 4.832491e-01 1.629469e-01 3.924886e-01 2.681465e-01 2.021407e-01 -4.995191e-02 -3.107564e-02 2.478120e-03 1.389051e-02 -1.381248e-02 -9.297839e-03 -1.689753e-02 -1.369803e-02 -8.314604e-03 -1.800231e-02 -1.188738e-02 -1.513898e-02 -1.252723e-02 -7.890504e-03 -1.145445e-02 -6.773677e-03 -9.337923e-03 -7.441971e-03 -6.441933e-03
<VARIANCE> 38
 7.198131e+01 2.174164e+01 7.957714e+00 8.244208e+00 5.609480e+00 5.082638e+00 3.886837e+00 3.330650e+00 3.051556e+00 3.775022e+00 3.154438e+00 2.665400e+00 2.081809e+00 1.858704e+00 1.797450e+00 1.447061e+00 1.285801e+00 1.041989e+00 9.913467e-01 2.630730e+00 7.392563e-01 3.069799e-01 3.799278e-01 2.054106e-01 2.025098e-01 1.376011e-01 1.245984e-01 1.329066e-01 1.420410e-01 1.309100e-01 9.949317e-02 7.671967e-02 7.386544e-02 6.133775e-02 6.267265e-02 4.769948e-02 4.268928e-02 4.186929e-02
<GCONST> 5.731159e+01
<STATE> 3
<MEAN> 38
 9.650797e-01 1.144345e+00 2.093470e-01 -6.864643e-01 6.740029e-01 5.537588e-02 5.152763e-01 4.199482e-01 6.431101e-02 6.322260e-01 2.639020e-01 5.997544e-01 4.778270e-01 2.567121e-01 5.330852e-01 2.033613e-01 4.335580e-01 3.064730e-01 2.381378e-01 -2.383129e-02 -3.731323e-04 1.056620e-02 1.507132e-03 1.589235e-03 -9.392553e-03 -8.645659e-03 -7.720027e-03 -9.813449e-03 -6.694244e-03 -7.655228e-03 -2.915002e-03 -1.615146e-03 -9.829846e-04 1.640654e-03 -7.235910e-04 9.253516e-04 -1.172323e-04 -4.674487e-04
<VARIANCE> 38
 7.079300e+01 2.108929e+01 8.082412e+00 8.362823e+00 5.451586e+00 5.139418e+00 3.937360e+00 3.413188e+00 3.191471e+00 3.825643e+00 3.241475e+00 2.663998e+00 2.093418e+00 1.885351e+00 1.784139e+00 1.447620e+00 1.267580e+00 1.033198e+00 9.790434e-01 2.531643e+00 7.124298e-01 3.040377e-01 3.737054e-01 2.013554e-01 2.015684e-01 1.416130e-01 1.273593e-01 1.351092e-01 1.430408e-01 1.322590e-01 1.002190e-01 7.780562e-02 7.407431e-02 6.151007e-02 6.222698e-02 4.766553e-02 4.275087e-02 4.154322e-02
<GCONST> 5.734758e+01
<STATE> 4
<MEAN> 38
 1.125101e+00 1.031185e+00 8.955085e-02 -6.109011e-01 5.825691e-01 1.479378e-01 5.505075e-01 4.540907e-01 1.594334e-01 6.275019e-01 3.107095e-01 5.595662e-01 4.360218e-01 2.346492e-01 4.527837e-01 1.842270e-01 3.728026e-01 2.718643e-01 2.155889e-01 7.400118e-03 2.577684e-02 9.268631e-03 -1.659249e-02 1.573409e-02 -5.704830e-03 5.214837e-03 3.368015e-03 -6.197586e-03 9.372221e-03 3.769411e-04 1.143401e-02 1.017151e-02 5.633049e-03 1.383081e-02 4.847752e-03 1.082449e-02 7.051183e-03 5.165398e-03
<VARIANCE> 38
 6.734007e+01 1.977049e+01 7.831530e+00 8.269030e+00 5.378519e+00 5.078043e+00 3.988809e+00 3.445361e+00 3.235605e+00 3.803349e+00 3.205984e+00 2.645815e+00 2.066177e+00 1.824752e+00 1.792035e+00 1.401875e+00 1.276167e+00 1.018149e+00 9.540380e-01 2.345728e+00 6.410149e-01 2.815479e-01 3.485338e-01 1.908210e-01 1.935118e-01 1.409072e-01 1.248936e-01 1.322489e-01 1.368942e-01 1.277758e-01 9.588353e-02 7.484597e-02 7.046109e-02 5.919109e-02 5.908856e-02 4.605234e-02 4.116508e-02 3.983094e-02
<GCONST> 5.618494e+01
<TRANSP> 5
 0.000000e+00 1.000000e+00 0.000000e+00 0.000000e+00 0.000000e+00
 0.000000e+00 9.187809e-01 8.121914e-02 0.000000e+00 0.000000e+00
 0.000000e+00 0.000000e+00 9.187804e-01 8.121958e-02 0.000000e+00
 0.000000e+00 0.000000e+00 0.000000e+00 9.187816e-01 8.121833e-02
 0.000000e+00 0.000000e+00 0.000000e+00 0.000000e+00 0.000000e+00
<ENDHMM>
~h "one"
<BEGINHMM>
<NUMSTATES> 5
<STATE> 2
<MEAN> 38
 1.937161e+00 1.619924e+00 8.290341e-01 3.516024e-02 8.639205e-01 6.390367e-01 7.944039e-01 6.241936e-01 2.527238e-01 3.964326e-01 1.345498e-01 3.019177e-01 2.176896e-01 8.803978e-02 2.726726e-01 1.051474e-01 2.096912e-01 1.559695e-01 1.485728e-01 -4.341482e-02 -2.849461e-02 -1.244699e-02 2.723658e-03 -1.091731e-02 -5.833640e-03 -8.521955e-03 -6.670341e-03 -2.691439e-03 -7.953765e-03 -4.652022e-03 -7.918468e-03 -5.948874e-03 -3.833965e-03 -7.649707e-03 -5.191218e-03 -7.722856e-03 -6.008477e-03 -4.771175e-03
<VARIANCE> 38
 5.722659e+01 1.556960e+01 6.072442e+00 7.656312e+00 5.766690e+00 5.600292e+00 4.412558e+00 3.490561e+00 3.443866e+00 2.919550e+00 3.360873e+00 2.279594e+00 1.617931e+00 1.368922e+00 1.426033e+00 1.289917e+00 1.263720e+00 9.809859e-01 9.187805e-01 1.892724e+00 4.310944e-01 2.085979e-01 2.980850e-01 1.866721e-01 1.844372e-01 1.371887e-01 1.124509e-01 1.449237e-01 1.084216e-01 1.525444e-01 8.935628e-02 6.484127e-02 5.667474e-02 5.091101e-02 5.433669e-02 4.554290e-02 4.103746e-02 3.985956e-02
<GCONST> 5.258786e+01
<STATE> 3
<MEAN> 38
 2.145544e+00 1.708598e+00 8.564630e-01 1.210316e-02 8.657836e-01 6.183487e-01 7.842413e-01 6.156188e-01 2.524683e-01 4.326306e-01 1.696330e-01 3.483196e-01 2.546332e-01 1.183509e-01 3.174560e-01 1.465544e-01 2.633072e-01 1.996421e-01 1.801786e-01 3.759241e-03 9.956145e-03 6.017066e-03 2.485396e-03 9.153923e-03 9.627638e-03 1.005409e-02 7.359695e-03 1.995139e-03 -5.645877e-04 -3.324998e-03 -2.358810e-03 -1.707698e-03 -2.048813e-03 -1.572444e-03 -3.227816e-03 -3.583721e-03 -3.228938e-03 -2.028072e-03
<VARIANCE> 38
 5.755282e+01 1.488100e+01 5.786671e+00 7.628002e+00 5.559002e+00 5.512554e+00 4.282837e+00 3.387710e+00 3.469152e+00 2.839644e+00 3.451273e+00 2.228069e+00 1.584448e+00 1.367076e+00 1.380211e+00 1.316724e+00 1.242789e+00 9.910453e-01 9.332485e-01 1.908229e+00 4.248237e-01 2.012547e-01 2.942383e-01 1.820240e-01 1.821072e-01 1.326418e-01 1.094472e-01 1.467568e-01 1.070389e-01 1.549697e-01 8.855370e-02 6.422886e-02 5.608260e-02 5.056705e-02 5.460219e-02 4.528567e-02 4.144213e-02 4.055297e-02
<GCONST> 5.219417e+01
<STATE> 4
<MEAN> 38
 1.945242e+00 1.456879e+00 7.194496e-01 9.593560e-03 6.870181e-01 4.703024e-01 6.137530e-01 4.866817e-01 2.191567e-01 4.008846e-01 1.956854e-01 3.422318e-01 2.521358e-01 1.317448e-01 2.998953e-01 1.675531e-01 2.736524e-01 2.151864e-01 1.850121e-01 4.432519e-02 4.070874e-02 1.997619e-02 -1.104460e-03 2.402791e-02 1.867435e-02 2.266656e-02 1.686218e-02 4.582005e-03 6.752870e-03 -1.363287e-03 3.717362e-03 2.630883e-03 -1.238733e-04 5.003667e-03 -1.809590e-04 2.172392e-03 7.705792e-04 1.274547e-03
<VARIANCE> 38
 5.846837e+01 1.489795e+01 5.656073e+00 7.476470e+00 5.492662e+00 5.353290e+00 4.181643e+00 3.284384e+00 3.395755e+00 2.816935e+00 3.403793e+00 2.187951e+00 1.556386e+00 1.349891e+00 1.360767e+00 1.317246e+00 1.216908e+00 9.870945e-01 9.306142e-01 1.910682e+00 4.206751e-01 1.937832e-01 2.837060e-01 1.736672e-01 1.763418e-01 1.253929e-01 1.045675e-01 1.427018e-01 1.042088e-01 1.492158e-01 8.521864e-02 6.211247e-02 5.435385e-02 4.909914e-02 5.326585e-02 4.377900e-02 4.058609e-02 3.992112e-02
<GCONST> 5.135409e+01
<TRANSP> 5
 0.000000e+00 1.000000e+00 0.000000e+00 0.000000e+00 0.000000e+00
 0.000000e+00 9.185776e-01 8.142236e-02 0.000000e+00 0.000000e+00
 0.000000e+00 0.000000e+00 9.185769e-01 8.142310e-02 0.000000e+00
 0.000000e+00 0.000000e+00 0.000000e+00 9.185771e-01 8.142282e-02
 0.000000e+00 0.000000e+00 0.000000e+00 0.000000e+00 0.000000e+00
<ENDHMM>
~h "sil"
<BEGINHMM>
<NUMSTATES> 5
<STATE> 2
<MEAN> 38
 -6.049240e-01 -1.302969e+00 -7.108905e-01 7.473083e-01 -1.110142e+00 -1.313156e-01 -7.380997e-01 -5.796943e-01 1.340989e-03 -7.255473e-01 -9.560446e-02 -6.055814e-01 -4.073146e-01 -7.992566e-02 -5.365949e-01 -7.198844e-02 -4.668188e-01 -2.926168e-01 -1.927595e-01 1.066769e-01 9.613588e-02 3.888606e-02 -3.112883e-02 5.496687e-02 1.417252e-02 4.109484e-02 2.939286e-02 2.924634e-03 3.809173e-02 1.008591e-02 3.357498e-02 2.519235e-02 9.040318e-03 2.931852e-02 8.767132e-03 2.556436e-02 1.739071e-02 1.255538e-02
<VARIANCE> 38
 3.647795e+01 1.311438e+01 4.825577e+00 4.651553e+00 4.962289e+00 2.968108e+00 3.117436e+00 2.396213e+00 1.824785e+00 2.621955e+00 1.681147e+00 1.897656e+00 1.271910e+00 8.796885e-01 1.275739e+00 7.849048e-01 1.054956e+00 7.458663e-01 6.335322e-01 9.299644e-01 2.684071e-01 1.277865e-01 1.457742e-01 1.190581e-01 8.539189e-02 7.435649e-02 6.209138e-02 5.983764e-02 6.614200e-02 5.504590e-02 4.947031e-02 3.536665e-02 2.928270e-02 3.321370e-02 2.708936e-02 2.819156e-02 2.239747e-02 2.048436e-02
<GCONST> 3.404708e+01
<STATE> 3
<MEAN> 38
 -1.032033e+00 -1.380491e+00 -6.340004e-01 6.914753e-01 -9.988664e-01 -1.576582e-01 -7.028894e-01 -5.217820e-01 4.085415e-03 -6.634604e-01 -9.555312e-02 -5.553045e-01 -3.952430e-01 -1.011108e-01 -5.063508e-01 -8.751665e-02 -4.282258e-01 -2.709053e-01 -1.819513e-01 4.538088e-02 6.812055e-03 -4.697997e-03 1.261867e-02 -1.518058e-02 1.385548e-03 -8.181332e-03 -8.676428e-03 4.507133e-04 -7.957069e-03 2.420180e-03 -5.299191e-03 -2.397849e-03 1.658874e-03 -5.438086e-03 1.928851e-03 -4.366003e-03 -1.898200e-03 -7.178030e-04
<VARIANCE> 38
 3.877096e+01 1.234168e+01 4.770015e+00 5.251200e+00 4.916627e+00 3.070620e+00 2.981188e+00 2.352208e+00 1.872158e+00 2.534440e+00 1.670144e+00 1.811437e+00 1.210267e+00 8.945124e-01 1.243382e+00 8.003570e-01 1.012643e+00 7.007288e-01 6.079758e-01 1.112424e+00 2.709060e-01 1.293253e-01 1.583205e-01 1.146218e-01 9.359023e-02 7.182174e-02 6.102926e-02 6.451908e-02 6.309433e-02 5.849365e-02 4.722110e-02 3.458199e-02 3.103292e-02 3.163573e-02 2.906953e-02 2.686426e-02 2.184039e-02 2.067009e-02
<GCONST> 3.419361e+01
<STATE> 4
<MEAN> 38
 -1.304340e+00 -1.340299e+00 -5.600374e-01 5.868599e-01 -8.229130e-01 -1.247972e-01 -5.916753e-01 -4.166711e-01 2.072070e-02 -5.698509e-01 -1.032802e-01 -4.910810e-01 -3.457162e-01 -8.404682e-02 -4.245516e-01 -7.805690e-02 -3.690463e-01 -2.353446e-01 -1.559705e-01 -4.871728e-02 -7.665329e-02 -3.412572e-02 4.970862e-02 -6.226543e-02 -7.939868e-03 -4.392187e-02 -3.372600e-02 1.025366e-03 -4.076112e-02 -3.565108e-03 -3.390332e-02 -2.323853e-02 -3.807998e-03 -3.056202e-02 -3.588377e-03 -2.579394e-02 -1.558141e-02 -9.729202e-03
<VARIANCE> 38
 4.182126e+01 1.302959e+01 4.917882e+00 5.943421e+00 5.355618e+00 3.235688e+00 3.163305e+00 2.471394e+00 1.926653e+00 2.699451e+00 1.695417e+00 1.909940e+00 1.255326e+00 9.294827e-01 1.346186e+00 8.202602e-01 1.067440e+00 7.008642e-01 6.076108e-01 1.346098e+00 3.184442e-01 1.380875e-01 1.776518e-01 1.249130e-01 1.045835e-01 7.884998e-02 6.567176e-02 7.040463e-02 6.854953e-02 6.392853e-02 5.094586e-02 3.702326e-02 3.317291e-02 3.360648e-02 3.110721e-02 2.816628e-02 2.256473e-02 2.151121e-02
<GCONST> 3.673023e+01
<TRANSP> 5
 0.000000e+00 1.000000e+00 0.000000e+00 0.000000e+00 0.000000e+00
 0.000000e+00 9.189395e-01 8.106053e-02 0.000000e+00 0.000000e+00
 0.000000e+00 0.000000e+00 9.189365e-01 8.106347e-02 0.000000e+00
 0.000000e+00 0.000000e+00 0.000000e+00 9.188684e-01 8.113161e-02
 0.000000e+00 0.000000e+00 0.000000e+00 0.000000e+00 0.000000e+00
<ENDHMM>
~h "six"
<BEGINHMM>
<NUMSTATES> 5
<STATE> 2
<MEAN> 38
 -2.835174e+00 -5.337316e-01 3.512083e-01 -9.790708e-01 6.879640e-01 -6.036471e-01 9.215188e-02 9.652846e-02 -4.026927e-01 4.562605e-01 -1.682920e-01 3.926946e-01 1.828571e-01 -1.055127e-01 3.811720e-01 -1.357440e-01 3.243277e-01 7.629519e-02 -6.325537e-02 9.233287e-03 -2.650194e-04 -4.342636e-03 6.088140e-03 -5.107770e-03 5.156356e-03 1.165317e-03 2.295578e-03 5.667840e-03 -1.891082e-03 1.745065e-03 -3.342952e-03 -2.619917e-03 -2.770508e-04 -3.567292e-03 1.150926e-04 -3.088465e-03 -1.429917e-03 -5.672083e-04
<VARIANCE> 38
 1.355780e+02 2.274716e+01 6.991644e+00 8.288673e+00 5.866153e+00 6.675832e+00 3.482146e+00 2.894018e+00 3.759670e+00 3.097567e+00 3.683067e+00 2.219777e+00 1.761453e+00 1.864739e+00 1.423065e+00 1.611519e+00 1.136540e+00 9.345737e-01 1.040439e+00 4.971384e+00 7.492033e-01 2.649199e-01 3.727860e-01 2.201351e-01 2.471688e-01 1.265966e-01 1.084791e-01 1.657346e-01 1.258499e-01 1.629636e-01 9.296560e-02 7.594338e-02 8.122334e-02 5.717621e-02 7.313535e-02 4.641189e-02 4.098508e-02 4.494496e-02
<GCONST> 5.839474e+01
<STATE> 3
<MEAN> 38
 -2.687766e+00 -5.162219e-01 3.499015e-01 -9.355639e-01 6.499332e-01 -6.034549e-01 5.356316e-02 4.406660e-02 -4.391340e-01 3.996770e-01 -1.872912e-01 3.641370e-01 1.740042e-01 -1.031429e-01 3.617133e-01 -1.336290e-01 3.084460e-01 7.223876e-02 -5.942347e-02 -2.994439e-02 -5.679710e-03 1.128951e-03 -1.096138e-02 7.129619e-03 -4.896736e-03 3.216772e-03 4.564953e-03 4.443011e-04 8.797819e-03 1.701777e-03 6.064761e-03 2.941532e-03 -1.833163e-05 4.925384e-03 -4.522476e-04 4.097529e-03 1.423301e-03 -3.367882e-04
<VARIANCE> 38
 1.328492e+02 2.260132e+01 6.891630e+00 8.355165e+00 5.669099e+00 6.693303e+00 3.479114e+00 2.899469e+00 3.755527e+00 3.045383e+00 3.655412e+00 2.186115e+00 1.738052e+00 1.838057e+00 1.391780e+00 1.565746e+00 1.100630e+00 9.047939e-01 1.008035e+00 4.805170e+00 7.398431e-01 2.639136e-01 3.753549e-01 2.175527e-01 2.438847e-01 1.252486e-01 1.070724e-01 1.616716e-01 1.262078e-01 1.579186e-01 9.359805e-02 7.525361e-02 7.897277e-02 5.789997e-02 7.001629e-02 4.631386e-02 3.985214e-02 4.343631e-02
<GCONST> 5.784354e+01
<STATE> 4
<MEAN> 38
 -2.188870e+00 -4.412515e-01 3.101671e-01 -7.313913e-01 5.113283e-01 -4.994133e-01 8.748843e-03 -1.686135e-02 -4.192128e-01 2.497093e-01 -2.051390e-01 2.513143e-01 1.126600e-01 -1.064990e-01 2.627749e-01 -1.293196e-01 2.262193e-01 4.094891e-02 -5.936072e-02 -7.236856e-02 -1.546170e-02 5.044773e-03 -2.691662e-02 1.595313e-02 -1.593187e-02 2.157434e-03 3.302318e-03 -7.878484e-03 1.416196e-02 -1.874623e-03 1.145264e-02 5.673274e-03 -1.559228e-03 1.066446e-02 -2.520022e-03 8.825025e-03 2.523844e-03 -1.256666e-03
<VARIANCE> 38
 1.245753e+02 2.200649e+01 6.748918e+00 8.462207e+00 5.569735e+00 6.568972e+00 3.469757e+00 2.875322e+00 3.618771e+00 2.980106e+00 3.433805e+00 2.134637e+00 1.663709e+00 1.727005e+00 1.392910e+00 1.468002e+00 1.084747e+00 8.656813e-01 9.524138e-01 4.310291e+00 6.858325e-01 2.522678e-01 3.599822e-01 2.064831e-01 2.274357e-01 1.187251e-01 1.011897e-01 1.487841e-01 1.187881e-01 1.437254e-01 8.815710e-02 6.953774e-02 7.193083e-02 5.547072e-02 6.353174e-02 4.395043e-02 3.696311e-02 3.992964e-02
<GCONST> 5.594108e+01
<TRANSP> 5
 0.000000e+00 1.000000e+00 0.000000e+00 0.000000e+00 0.000000e+00
 0.000000e+00 9.228183e-01 7.718167e-02 0.000000e+00 0.000000e+00
 0.000000e+00 0.000000e+00 9.228192e-01 7.718082e-02 0.000000e+00
 0.000000e+00 0.000000e+00 0.000000e+00 9.228194e-01 7.718062e-02
 0.000000e+00 0.000000e+00 0.000000e+00 0.000000e+00 0.000000e+00
<ENDHMM>
~h "two"
<BEGINHMM>
<NUMSTATES> 5
<STATE> 2
<MEAN> 38
 -2.101390e-01 3.658820e-01 1.656301e-01 -8.011298e-01 5.904502e-01 3.489880e-02 4.731578e-01 3.399183e-01 1.808977e-03 5.882968e-01 1.716390e-01 5.421010e-01 4.005658e-01 1.640997e-01 4.715596e-01 1.202822e-01 3.706199e-01 2.281606e-01 1.653976e-01 -4.954856e-02 -4.386924e-02 -1.745323e-02 1.879550e-03 -1.645853e-02 -1.006925e-02 -1.631738e-02 -9.380005e-03 -3.409147e-03 -1.379628e-02 -8.474640e-03 -1.380271e-02 -1.139006e-02 -6.760262e-03 -1.106594e-02 -6.730225e-03 -1.011825e-02 -8.404275e-03 -7.971767e-03
<VARIANCE> 38
 7.202687e+01 2.096783e+01 6.606524e+00 8.102539e+00 5.986856e+00 5.028716e+00 3.736783e+00 2.940174e+00 2.807754e+00 3.528272e+00 2.875544e+00 2.543118e+00 2.011703e+00 1.649864e+00 1.828027e+00 1.416220e+00 1.347282e+00 1.025977e+00 1.007834e+00 2.893042e+00 6.890869e-01 2.314255e-01 3.509504e-01 2.348304e-01 1.936776e-01 1.289222e-01 1.069020e-01 1.294216e-01 1.211507e-01 1.216184e-01 8.888572e-02 7.095295e-02 6.738605e-02 6.245264e-02 6.240756e-02 4.768650e-02 4.029939e-02 4.188395e-02
<GCONST> 5.551024e+01
<STATE> 3
<MEAN> 38
 3.327625e-01 7.555934e-01 3.150003e-01 -6.948869e-01 6.773997e-01 1.416010e-01 5.776461e-01 3.866594e-01 3.376830e-02 6.411170e-01 2.350910e-01 6.018030e-01 4.551683e-01 2.066903e-01 5.113444e-01 1.683655e-01 4.153193e-01 2.776345e-01 2.219182e-01 -4.963399e-02 -3.173622e-02 -1.347847e-02 -1.974350e-02 -2.560666e-03 -9.922451e-03 -4.193451e-03 -6.715372e-04 -3.042658e-03 1.925918e-03 -3.483971e-03 1.098807e-03 1.477842e-04 -1.365249e-03 2.230834e-03 -2.418159e-03 5.222610e-04 -1.710385e-03 -3.085773e-03
<VARIANCE> 38
 7.101902e+01 2.037900e+01 6.505547e+00 8.196015e+00 5.731252e+00 5.115182e+00 3.695959e+00 2.910435e+00 2.812483e+00 3.420498e+00 2.894842e+00 2.458300e+00 1.994627e+00 1.659306e+00 1.776135e+00 1.412682e+00 1.315459e+00 1.018153e+00 1.009117e+00 2.760128e+00 6.691715e-01 2.261296e-01 3.346303e-01 2.219293e-01 1.926441e-01 1.286448e-01 1.055586e-01 1.261955e-01 1.160013e-01 1.197480e-01 8.559900e-02 7.011873e-02 6.676142e-02 6.065142e-02 6.154136e-02 4.672073e-02 4.040193e-02 4.191079e-02
<GCONST> 5.486772e+01
<STATE> 4
<MEAN> 38
 8.121808e-01 9.858016e-01 4.178092e-01 -4.090145e-01 6.281922e-01 2.316651e-01 5.590156e-01 3.528768e-01 6.370512e-02 5.509678e-01 2.493525e-01 5.249720e-01 4.005023e-01 1.947031e-01 4.280455e-01 1.720372e-01 3.604700e-01 2.622696e-01 2.276434e-01 -2.685023e-02 -4.383693e-03 -4.599169e-03 -3.340323e-02 1.298733e-02 -5.142140e-03 1.029687e-02 8.306223e-03 -2.063974e-03 1.634429e-02 2.522812e-03 1.516031e-02 1.131767e-02 4.134956e-03 1.404379e-02 2.328715e-03 1.041609e-02 5.337563e-03 2.890937e-03
<VARIANCE> 38
 6.732682e+01 1.909683e+01 6.315533e+00 8.233377e+00 5.534230e+00 5.065615e+00 3.695478e+00 2.883015e+00 2.769635e+00 3.340220e+00 2.848458e+00 2.414287e+00 1.955784e+00 1.612233e+00 1.752569e+00 1.365980e+00 1.304614e+00 1.000665e+00 9.816464e-01 2.494474e+00 6.122791e-01 2.157344e-01 3.088673e-01 2.030383e-01 1.852886e-01 1.250101e-01 1.017930e-01 1.196003e-01 1.082929e-01 1.142411e-01 8.055494e-02 6.664000e-02 6.322260e-02 5.689350e-02 5.808308e-02 4.453017e-02 3.910660e-02 4.021351e-02
<GCONST> 5.335855e+01
<TRANSP> 5
 0.000000e+00 1.000000e+00 0.000000e+00 0.000000e+00 0.000000e+00
 0.000000e+00 9.173592e-01 8.264080e-02 0.000000e+00 0.000000e+00
 0.000000e+00 0.000000e+00 9.173612e-01 8.263882e-02 0.000000e+00
 0.000000e+00 0.000000e+00 0.000000e+00 9.173604e-01 8.263958e-02
 0.000000e+00 0.000000e+00 0.000000e+00 0.000000e+00 0.000000e+00
<ENDHMM>
~h "nine"
<BEGINHMM>
<NUMSTATES> 5
<STATE> 2
<MEAN> 38
 2.337411e+00 1.660468e+00 5.234416e-01 -5.378986e-01 6.050272e-01 2.420774e-01 4.940263e-01 4.116493e-01 7.891484e-02 3.805275e-01 3.918859e-02 3.207247e-01 2.787149e-01 1.337254e-01 4.095546e-01 2.119520e-01 3.680718e-01 2.723204e-01 2.319353e-01 -4.294737e-02 -3.080039e-02 -9.060510e-03 7.722891e-03 -1.099180e-02 -3.780955e-03 -8.733925e-03 -5.367739e-03 3.474603e-04 -6.733079e-03 -1.238206e-03 -6.685247e-03 -5.929698e-03 -3.002211e-03 -7.013374e-03 -2.634496e-03 -5.797489e-03 -4.320901e-03 -3.314509e-03
<VARIANCE> 38
 5.287981e+01 1.441092e+01 6.008443e+00 7.427930e+00 5.170538e+00 4.300825e+00 3.406255e+00 2.768201e+00 3.323774e+00 3.285907e+00 3.671449e+00 2.296557e+00 1.539624e+00 1.253161e+00 1.419195e+00 1.212828e+00 1.119586e+00 8.779701e-01 8.428563e-01 1.726647e+00 4.097750e-01 2.269715e-01 3.357330e-01 1.735481e-01 1.551328e-01 1.168818e-01 9.946206e-02 1.496704e-01 1.230522e-01 1.585155e-01 8.720871e-02 5.986314e-02 5.170803e-02 5.263397e-02 5.104956e-02 4.189257e-02 3.668189e-02 3.687957e-02
<GCONST> 5.041330e+01
<STATE> 3
<MEAN> 38
 2.476341e+00 1.754643e+00 5.473194e-01 -5.304970e-01 6.329966e-01 2.576198e-01 5.217515e-01 4.150889e-01 8.041571e-02 4.170713e-01 7.172780e-02 3.601016e-01 3.097542e-01 1.502856e-01 4.237596e-01 2.138112e-01 3.796258e-01 2.843452e-01 2.399349e-01 1.190618e-02 9.163135e-03 2.651503e-03 -7.782781e-03 3.301805e-03 7.498033e-04 2.350299e-03 2.742749e-03 -1.554755e-03 -1.848498e-03 -5.590381e-03 -2.464224e-03 -9.888293e-04 -5.445452e-04 2.849891e-03 1.504248e-03 2.152067e-03 1.066660e-03 1.021637e-03
<VARIANCE> 38
 5.306731e+01 1.382118e+01 5.899243e+00 7.554148e+00 4.969897e+00 4.330254e+00 3.328927e+00 2.716816e+00 3.266107e+00 3.202912e+00 3.690229e+00 2.273597e+00 1.535105e+00 1.263515e+00 1.374803e+00 1.200017e+00 1.062187e+00 8.585001e-01 8.362275e-01 1.749460e+00 4.039552e-01 2.280251e-01 3.389606e-01 1.684817e-01 1.566559e-01 1.151086e-01 9.748566e-02 1.433563e-01 1.185642e-01 1.554316e-01 8.544446e-02 5.989327e-02 5.184913e-02 5.184630e-02 5.068551e-02 4.069347e-02 3.673667e-02 3.718864e-02
<GCONST> 4.993026e+01
<STATE> 4
<MEAN> 38
 2.149311e+00 1.495037e+00 4.783330e-01 -3.629619e-01 5.305117e-01 2.350988e-01 4.480840e-01 3.511679e-01 1.067851e-01 4.045191e-01 1.447205e-01 3.593032e-01 2.947111e-01 1.459809e-01 3.476440e-01 1.833069e-01 3.225998e-01 2.519686e-01 2.130941e-01 5.453000e-02 4.040666e-02 1.021161e-02 -2.129976e-02 1.490314e-02 3.861826e-03 1.191121e-02 9.377200e-03 -2.271281e-03 5.099032e-03 -6.480863e-03 3.323546e-03 4.297728e-03 1.644586e-03 1.080151e-02 4.285008e-03 8.539765e-03 5.363639e-03 4.333449e-03
<VARIANCE> 38
 5.493258e+01 1.408704e+01 5.826252e+00 7.654559e+00 4.924744e+00 4.348174e+00 3.342332e+00 2.719374e+00 3.157610e+00 3.119293e+00 3.555745e+00 2.246694e+00 1.541177e+00 1.273631e+00 1.380631e+00 1.184513e+00 1.051817e+00 8.598809e-01 8.397335e-01 1.793940e+00 4.052513e-01 2.261489e-01 3.303014e-01 1.623649e-01 1.577104e-01 1.127495e-01 9.582421e-02 1.348000e-01 1.124992e-01 1.467020e-01 8.238640e-02 5.925047e-02 5.173282e-02 5.020552e-02 4.973834e-02 3.949229e-02 3.662467e-02 3.718239e-02
<GCONST> 4.949490e+01
<TRANSP> 5
 0.000000e+00 1.000000e+00 0.000000e+00 0.000000e+00 0.000000e+00
 0.000000e+00 9.197376e-01 8.026238e-02 0.000000e+00 0.000000e+00
 0.000000e+00 0.000000e+00 9.197364e-01 8.026355e-02 0.000000e+00
 0.000000e+00 0.000000e+00 0.000000e+00 9.197372e-01 8.026276e-02
 0.000000e+00 0.000000e+00 0.000000e+00 0.000000e+00 0.000000e+00
<ENDHMM>
~h "five"
<BEGINHMM>
<NUMSTATES> 5
<STATE> 2
<MEAN> 38
 1.254012e+00 1.033323e+00 4.239676e-01 -4.129421e-01 6.058225e-01 -1.610461e-01 3.041299e-01 2.141330e-01 -2.030279e-01 1.855577e-01 -2.906038e-01 1.004562e-01 4.561730e-02 -1.859576e-01 9.920788e-02 -1.639884e-01 1.516467e-01 1.078668e-01 6.255206e-02 -5.267979e-02 -2.774875e-02 -1.119175e-02 -2.014045e-03 -1.165943e-02 -2.827004e-03 -7.348753e-03 -4.579772e-03 -1.374740e-03 -6.848036e-03 -1.769227e-04 -4.789773e-03 -5.470963e-03 -2.221058e-03 -4.803332e-03 -1.596841e-03 -4.425622e-03 -4.314902e-03 -3.789363e-03
<VARIANCE> 38
 7.392196e+01 1.547174e+01 6.047081e+00 6.887872e+00 5.146190e+00 5.350432e+00 3.525942e+00 2.727660e+00 2.682323e+00 2.698833e+00 2.549695e+00 1.885690e+00 1.501264e+00 1.425817e+00 1.309011e+00 1.211249e+00 1.009697e+00 8.818778e-01 8.664656e-01 2.743211e+00 4.992009e-01 2.146450e-01 3.084748e-01 1.636575e-01 2.141738e-01 1.209726e-01 9.590869e-02 1.173861e-01 8.950154e-02 1.039375e-01 6.506018e-02 5.467116e-02 5.485187e-02 4.213250e-02 4.796677e-02 3.459908e-02 3.320995e-02 3.522746e-02
<GCONST> 4.881339e+01
<STATE> 3
<MEAN> 38
 1.593006e+00 1.166762e+00 4.663096e-01 -3.533410e-01 6.379664e-01 -1.238084e-01 3.305596e-01 2.242050e-01 -1.668037e-01 2.350661e-01 -2.514122e-01 1.367546e-01 9.739438e-02 -1.384062e-01 1.355702e-01 -1.288523e-01 1.751270e-01 1.349372e-01 9.067354e-02 -6.600175e-03 1.090389e-03 1.536948e-03 -5.933680e-03 3.514720e-03 -3.291434e-03 8.846432e-04 1.321671e-03 -4.063071e-03 -2.978710e-03 -6.714937e-03 -3.237098e-03 -4.513695e-03 -6.170657e-03 -3.029897e-03 -4.773505e-03 -1.151655e-03 -1.169505e-03 -1.426712e-03
<VARIANCE> 38
 7.278932e+01 1.508008e+01 5.802356e+00 6.782044e+00 4.980369e+00 5.249721e+00 3.428071e+00 2.655348e+00 2.678018e+00 2.686574e+00 2.560862e+00 1.863325e+00 1.497466e+00 1.433913e+00 1.297283e+00 1.217378e+00 9.932304e-01 8.713851e-01 8.576299e-01 2.648391e+00 4.857068e-01 2.044435e-01 2.954053e-01 1.571405e-01 2.054631e-01 1.170281e-01 9.245189e-02 1.149605e-01 8.959755e-02 1.033959e-01 6.438816e-02 5.480463e-02 5.523487e-02 4.176943e-02 4.834807e-02 3.434270e-02 3.311182e-02 3.525869e-02
<GCONST> 4.821268e+01
<STATE> 4
<MEAN> 38
 1.486016e+00 1.025461e+00 3.910473e-01 -2.578652e-01 5.228594e-01 -8.398452e-02 2.777651e-01 1.781371e-01 -1.115403e-01 2.360858e-01 -1.569568e-01 1.516735e-01 1.292147e-01 -6.246220e-02 1.483383e-01 -6.898968e-02 1.641832e-01 1.287879e-01 9.315899e-02 3.273573e-02 2.552183e-02 1.085698e-02 -1.079941e-02 1.657274e-02 -4.259159e-03 7.772513e-03 6.290053e-03 -5.294002e-03 3.248813e-03 -9.914120e-03 7.493559e-04 -8.913742e-04 -7.180477e-03 7.881839e-04 -5.928460e-03 2.836327e-03 2.257171e-03 1.086798e-03
<VARIANCE> 38
 7.011995e+01 1.506060e+01 5.621174e+00 6.700923e+00 4.966691e+00 5.056518e+00 3.380207e+00 2.617885e+00 2.660762e+00 2.724942e+00 2.554278e+00 1.881459e+00 1.499042e+00 1.417285e+00 1.307234e+00 1.206015e+00 9.987416e-01 8.591005e-01 8.420890e-01 2.499360e+00 4.705030e-01 1.937658e-01 2.826971e-01 1.510108e-01 1.926785e-01 1.115504e-01 8.860512e-02 1.119747e-01 8.959179e-02 1.027028e-01 6.421114e-02 5.457455e-02 5.508970e-02 4.151065e-02 4.842149e-02 3.424491e-02 3.289117e-02 3.499673e-02
<GCONST> 4.759109e+01
<TRANSP> 5
 0.000000e+00 1.000000e+00 0.000000e+00 0.000000e+00 0.000000e+00
 0.000000e+00 9.203859e-01 7.961410e-02 0.000000e+00 0.000000e+00
 0.000000e+00 0.000000e+00 9.203872e-01 7.961279e-02 0.000000e+00
 0.000000e+00 0.000000e+00 0.000000e+00 9.203868e-01 7.961318e-02
 0.000000e+00 0.000000e+00 0.000000e+00 0.000000e+00 0.000000e+00
<ENDHMM>
~h "four"
<BEGINHMM>
<NUMSTATES> 5
<STATE> 2
<MEAN> 38
 4.115016e-01 1.360981e+00 8.449353e-01 -2.651519e-01 9.077775e-01 3.701065e-01 7.094182e-01 4.329621e-01 -5.705930e-02 3.673419e-01 -2.359882e-02 3.090554e-01 1.627337e-01 -5.538606e-02 2.306533e-01 -9.072046e-02 1.439171e-01 4.142315e-02 -1.495642e-03 -6.663685e-02 -5.256214e-02 -3.410790e-02 -2.062751e-02 -2.400533e-02 -2.259477e-02 -1.921638e-02 -9.736940e-03 -2.976902e-03 -5.200507e-03 -4.522334e-03 -6.446609e-03 -7.015057e-03 -5.352072e-03 -6.143603e-03 -4.375892e-03 -3.426928e-03 -3.015881e-03 -3.109145e-03
<VARIANCE> 38
 7.258481e+01 2.010706e+01 8.273294e+00 9.072449e+00 6.351509e+00 8.713414e+00 5.891244e+00 4.485009e+00 3.809361e+00 2.945034e+00 2.980453e+00 2.121214e+00 1.631295e+00 1.549392e+00 1.387630e+00 1.352598e+00 1.118203e+00 9.005794e-01 8.497515e-01 2.638200e+00 6.116903e-01 2.589540e-01 3.571273e-01 2.019366e-01 3.188687e-01 1.938577e-01 1.515521e-01 1.662651e-01 1.027879e-01 1.304879e-01 7.582949e-02 6.244178e-02 6.327715e-02 4.982118e-02 5.622117e-02 4.050346e-02 3.670572e-02 3.625217e-02
<GCONST> 5.629649e+01
<STATE> 3
<MEAN> 38
 1.054734e+00 1.746757e+00 1.094820e+00 -2.308408e-02 1.036912e+00 5.421619e-01 8.053509e-01 4.647630e-01 -3.715353e-02 3.619136e-01 1.393039e-02 3.269861e-01 2.090258e-01 5.977495e-03 2.673076e-01 -3.483782e-02 1.609851e-01 6.739901e-02 3.030447e-02 -4.715314e-02 -1.748010e-02 -1.107805e-02 -2.076107e-02 -1.799306e-04 -6.834991e-03 3.083815e-03 4.888753e-03 6.045630e-04 5.779447e-03 -1.891376e-03 2.555281e-03 -1.846311e-03 -5.917960e-03 -1.619196e-03 -6.276234e-03 -9.088207e-04 -2.474302e-03 -3.167906e-03
<VARIANCE> 38
 7.163482e+01 1.991404e+01 8.206462e+00 9.165470e+00 6.196679e+00 8.512360e+00 5.879882e+00 4.626924e+00 3.879193e+00 2.957164e+00 2.969256e+00 2.112492e+00 1.617511e+00 1.561169e+00 1.377870e+00 1.381717e+00 1.123084e+00 9.119306e-01 8.547221e-01 2.542924e+00 6.207430e-01 2.609753e-01 3.424489e-01 2.023578e-01 3.040251e-01 1.916153e-01 1.533998e-01 1.647211e-01 1.024174e-01 1.279472e-01 7.595615e-02 6.267913e-02 6.356981e-02 5.073101e-02 5.692880e-02 4.155632e-02 3.786399e-02 3.679829e-02
<GCONST> 5.628575e+01
<STATE> 4
<MEAN> 38
 1.445006e+00 1.758553e+00 1.095512e+00 1.894280e-01 9.210002e-01 5.381492e-01 6.742023e-01 3.516668e-01 -5.211455e-02 2.550356e-01 2.193683e-02 2.591735e-01 1.995094e-01 6.106919e-02 2.545998e-01 3.197562e-02 1.534851e-01 8.608149e-02 5.893533e-02 -6.669967e-03 2.690516e-02 1.730545e-02 -1.262205e-02 2.456362e-02 1.104547e-02 2.322633e-02 1.626466e-02 2.146839e-03 1.338783e-02 4.053760e-04 9.922864e-03 3.929067e-03 -3.935470e-03 4.182422e-03 -5.416205e-03 2.059584e-03 -1.038968e-03 -2.068145e-03
<VARIANCE> 38
 6.824250e+01 1.962294e+01 8.066783e+00 8.912466e+00 6.222705e+00 7.767609e+00 5.669083e+00 4.543766e+00 3.733050e+00 3.013281e+00 2.871209e+00 2.135657e+00 1.603607e+00 1.525473e+00 1.385870e+00 1.366787e+00 1.132110e+00 9.136060e-01 8.495023e-01 2.353038e+00 6.019045e-01 2.535777e-01 3.177011e-01 1.977127e-01 2.694204e-01 1.756651e-01 1.445061e-01 1.541092e-01 9.954175e-02 1.211210e-01 7.440035e-02 6.103975e-02 6.159438e-02 5.044056e-02 5.566865e-02 4.159074e-02 3.786121e-02 3.639217e-02
<GCONST> 5.518993e+01
<TRANSP> 5
 0.000000e+00 1.000000e+00 0.000000e+00 0.000000e+00 0.000000e+00
 0.000000e+00 9.194129e-01 8.058714e-02 0.000000e+00 0.000000e+00
 0.000000e+00 0.000000e+00 9.194130e-01 8.058697e-02 0.000000e+00
 0.000000e+00 0.000000e+00 0.000000e+00 9.194126e-01 8.058739e-02
 0.000000e+00 0.000000e+00 0.000000e+00 0.000000e+00 0.000000e+00
<ENDHMM>
~h "zero"
<BEGINHMM>
<NUMSTATES> 5
<STATE> 2
<MEAN> 38
 -2.677863e-09 -8.750526e-08 -1.837286e-08 -1.377954e-07 -6.019516e-08 5.452531e-08 -2.743094e-08 -1.345658e-07 -5.862704e-08 5.558200e-09 -7.760809e-08 -7.311739e-08 -5.190492e-08 -2.412825e-08 -4.690163e-09 2.764782e-08 -2.262112e-08 -3.763905e-09 6.537150e-09 -2.583067e-04 -5.050806e-04 -9.917312e-04 -1.893283e-03 -1.064957e-03 -1.446192e-03 -9.808274e-04 -9.695808e-04 -1.123964e-03 -7.458905e-04 -1.056959e-03 -6.245463e-04 -5.614760e-04 -5.566383e-04 -2.873854e-04 -5.964976e-04 -4.391809e-04 -6.486351e-04 -7.416122e-04
<VARIANCE> 38
 6.382163e+01 1.753741e+01 6.283180e+00 7.247866e+00 6.023103e+00 4.670284e+00 3.942792e+00 3.064118e+00 2.725667e+00 3.248625e+00 2.569027e+00 2.312149e+00 1.622730e+00 1.290844e+00 1.573346e+00 1.140445e+00 1.241779e+00 9.049628e-01 8.315350e-01 2.083264e+00 4.547198e-01 1.931234e-01 2.614486e-01 1.629155e-01 1.602948e-01 1.098788e-01 9.185041e-02 1.084542e-01 9.477346e-02 1.021972e-01 6.968507e-02 5.287778e-02 4.928543e-02 4.486140e-02 4.569504e-02 3.694603e-02 3.210644e-02 3.195568e-02
<GCONST> 4.860181e+01
<STATE> 3
<MEAN> 38
 -2.677863e-09 -8.750526e-08 -1.837286e-08 -1.377954e-07 -6.019516e-08 5.452531e-08 -2.743094e-08 -1.345658e-07 -5.862704e-08 5.558200e-09 -7.760809e-08 -7.311739e-08 -5.190492e-08 -2.412825e-08 -4.690163e-09 2.764782e-08 -2.262112e-08 -3.763905e-09 6.537150e-09 -2.583067e-04 -5.050806e-04 -9.917312e-04 -1.893283e-03 -1.064957e-03 -1.446192e-03 -9.808274e-04 -9.695808e-04 -1.123964e-03 -7.458905e-04 -1.056959e-03 -6.245463e-04 -5.614760e-04 -5.566383e-04 -2.873854e-04 -5.964976e-04 -4.391809e-04 -6.486351e-04 -7.416122e-04
<VARIANCE> 38
 6.382163e+01 1.753741e+01 6.283180e+00 7.247866e+00 6.023103e+00 4.670284e+00 3.942792e+00 3.064118e+00 2.725667e+00 3.248625e+00 2.569027e+00 2.312149e+00 1.622730e+00 1.290844e+00 1.573346e+00 1.140445e+00 1.241779e+00 9.049628e-01 8.315350e-01 2.083264e+00 4.547198e-01 1.931234e-01 2.614486e-01 1.629155e-01 1.602948e-01 1.098788e-01 9.185041e-02 1.084542e-01 9.477346e-02 1.021972e-01 6.968507e-02 5.287778e-02 4.928543e-02 4.486140e-02 4.569504e-02 3.694603e-02 3.210644e-02 3.195568e-02
<GCONST> 4.860181e+01
<STATE> 4
<MEAN> 38
 -2.677863e-09 -8.750526e-08 -1.837286e-08 -1.377954e-07 -6.019516e-08 5.452531e-08 -2.743094e-08 -1.345658e-07 -5.862704e-08 5.558200e-09 -7.760809e-08 -7.311739e-08 -5.190492e-08 -2.412825e-08 -4.690163e-09 2.764782e-08 -2.262112e-08 -3.763905e-09 6.537150e-09 -2.583067e-04 -5.050806e-04 -9.917312e-04 -1.893283e-03 -1.064957e-03 -1.446192e-03 -9.808274e-04 -9.695808e-04 -1.123964e-03 -7.458905e-04 -1.056959e-03 -6.245463e-04 -5.614760e-04 -5.566383e-04 -2.873854e-04 -5.964976e-04 -4.391809e-04 -6.486351e-04 -7.416122e-04
<VARIANCE> 38
 6.382163e+01 1.753741e+01 6.283180e+00 7.247866e+00 6.023103e+00 4.670284e+00 3.942792e+00 3.064118e+00 2.725667e+00 3.248625e+00 2.569027e+00 2.312149e+00 1.622730e+00 1.290844e+00 1.573346e+00 1.140445e+00 1.241779e+00 9.049628e-01 8.315350e-01 2.083264e+00 4.547198e-01 1.931234e-01 2.614486e-01 1.629155e-01 1.602948e-01 1.098788e-01 9.185041e-02 1.084542e-01 9.477346e-02 1.021972e-01 6.968507e-02 5.287778e-02 4.928543e-02 4.486140e-02 4.569504e-02 3.694603e-02 3.210644e-02 3.195568e-02
<GCONST> 4.860181e+01
<TRANSP> 5
 0.000000e+00 1.000000e+00 0.000000e+00 0.000000e+00 0.000000e+00
 0.000000e+00 5.000000e-01 5.000000e-01 0.000000e+00 0.000000e+00
 0.000000e+00 0.000000e+00 5.000000e-01 5.000000e-01 0.000000e+00
 0.000000e+00 0.000000e+00 0.000000e+00 5.000000e-01 5.000000e-01
 0.000000e+00 0.000000e+00 0.000000e+00 0.000000e+00 0.000000e+00
<ENDHMM>
