~o
<STREAMINFO> 1 38
<VECSIZE> 38<NULLD><USER><DIAGC>
~h "eight"
<BEGINHMM>
<NUMSTATES> 5
<STATE> 2
<MEAN> 38
 -5.677216e-02 -3.976043e-01 -5.386166e-01 -2.664897e-01 -2.204463e-01 -3.418380e-02 -1.407103e-02 2.817038e-02 1.126298e-01 7.414303e-02 9.738486e-02 2.107729e-02 -3.732840e-03 -1.778882e-03 -4.572210e-02 -2.717893e-02 -6.387596e-02 -4.778599e-02 -5.667259e-02 6.505229e-03 1.467831e-02 1.246709e-02 2.673383e-03 5.881373e-03 2.178806e-05 1.690717e-03 -3.227856e-04 -3.864901e-03 -9.536826e-04 -3.169072e-03 -3.185705e-04 7.030951e-04 4.034731e-04 2.144823e-03 2.437423e-04 1.670426e-03 8.646843e-04 6.859870e-04
<VARIANCE> 38
 4.529994e+01 1.495554e+01 6.352458e+00 7.520532e+00 6.130883e+00 3.823885e+00 4.572746e+00 3.594704e+00 2.568436e+00 4.362266e+00 2.380675e+00 2.850394e+00 1.852059e+00 1.171707e+00 1.723676e+00 9.652749e-01 1.342724e+00 9.019548e-01 7.439878e-01 1.451050e+00 3.709328e-01 1.866845e-01 2.641508e-01 1.672340e-01 1.297365e-01 1.207027e-01 9.968643e-02 8.922049e-02 1.152727e-01 8.411425e-02 8.002435e-02 5.430492e-02 4.190172e-02 4.805014e-02 3.863746e-02 3.944775e-02 3.054796e-02 2.751813e-02
<GCONST> 4.754252e+01
<STATE> 3
<MEAN> 38
 2.314446e-01 -1.614146e-01 -4.535155e-01 -3.877612e-01 1.053128e-02 5.338209e-02 1.640776e-01 1.831411e-01 1.998190e-01 2.922714e-01 2.072057e-01 2.017598e-01 1.119604e-01 4.090143e-02 7.163627e-02 2.047896e-02 5.943976e-02 3.960591e-02 6.601177e-03 1.684411e-03 -4.489229e-03 -8.005952e-03 -6.070877e-03 -2.860894e-03 -1.725730e-03 6.794336e-04 6.020336e-04 -1.354003e-04 7.449404e-04 1.258686e-04 1.246238e-05 2.192333e-05 -3.889136e-04 -4.670116e-04 -1.126525e-03 -1.287772e-03 -1.300093e-03 -1.462349e-03
<VARIANCE> 38
 4.704417e+01 1.483808e+01 6.606571e+00 8.166677e+00 6.071445e+00 4.123085e+00 4.677804e+00 3.730291e+00 2.755728e+00 4.380919e+00 2.469205e+00 2.796998e+00 1.852485e+00 1.237434e+00 1.706279e+00 1.017050e+00 1.317096e+00 9.033240e-01 7.615114e-01 1.543107e+00 3.804239e-01 1.977952e-01 2.891521e-01 1.750876e-01 1.410701e-01 1.283246e-01 1.061066e-01 9.689026e-02 1.241348e-01 9.027357e-02 8.459596e-02 5.736193e-02 4.524469e-02 5.033768e-02 4.138348e-02 4.123586e-02 3.197069e-02 2.895456e-02
<GCONST> 4.917259e+01
<STATE> 4
<MEAN> 38
 -8.621752e-02 -2.695644e-01 -2.285554e-01 6.013313e-02 -1.690805e-01 2.891361e-02 -9.016757e-02 -4.430891e-02 1.038831e-01 -1.155775e-02 8.480385e-02 -1.897688e-02 -2.392109e-02 1.624442e-02 -6.356258e-02 1.400628e-02 -4.201492e-02 -1.895322e-02 -1.271655e-02 -2.005641e-03 -1.443669e-02 -1.469923e-02 -5.094538e-03 -7.414693e-03 -1.855376e-03 -2.385797e-03 -6.961991e-04 3.048566e-03 1.557905e-03 3.366766e-03 5.338914e-04 -6.001157e-04 -3.383519e-04 -1.975752e-03 -6.871165e-04 -2.010567e-03 -1.647705e-03 -1.752631e-03
<VARIANCE> 38
 4.612776e+01 1.394237e+01 6.128329e+00 7.865581e+00 5.651875e+00 3.959853e+00 4.229135e+00 3.361271e+00 2.575314e+00 3.934105e+00 2.333357e+00 2.546427e+00 1.677418e+00 1.170160e+00 1.567220e+00 9.724197e-01 1.209800e+00 8.311033e-01 7.146524e-01 1.495429e+00 3.574850e-01 1.785155e-01 2.628546e-01 1.577274e-01 1.342141e-01 1.141975e-01 9.367884e-02 9.087092e-02 1.084566e-01 8.486827e-02 7.479931e-02 5.171799e-02 4.269616e-02 4.508028e-02 3.906005e-02 3.723553e-02 2.939381e-02 2.730156e-02
<GCONST> 4.617292e+01
<TRANSP> 5
 0.000000e+00 1.000000e+00 0.000000e+00 0.000000e+00 0.000000e+00
 0.000000e+00 9.511944e-01 4.880558e-02 0.000000e+00 0.000000e+00
 0.000000e+00 0.000000e+00 9.511949e-01 4.880513e-02 0.000000e+00
 0.000000e+00 0.000000e+00 0.000000e+00 9.511901e-01 4.880984e-02
 0.000000e+00 0.000000e+00 0.000000e+00 0.000000e+00 0.000000e+00
<ENDHMM>
~h "seven"
<BEGINHMM>
<NUMSTATES> 5
<STATE> 2
<MEAN> 38
 -1.212025e+00 -5.871359e-01 -7.832772e-02 -1.397397e-01 -5.699396e-02 -2.468745e-01 -1.820431e-01 -1.391022e-01 -1.770609e-01 -1.047728e-01 -1.707034e-01 -1.096461e-01 -1.047961e-01 -1.098451e-01 -5.877039e-02 -1.092116e-01 -5.838842e-02 -8.352204e-02 -1.024308e-01 8.685940e-03 6.816127e-03 -6.915416e-04 -3.903483e-03 1.571115e-03 1.440991e-03 2.966436e-03 1.679237e-03 -3.151291e-04 6.103931e-04 -7.017283e-04 8.970486e-04 1.492366e-03 8.686440e-04 1.365270e-03 2.507231e-05 -2.632005e-06 -1.892179e-04 1.255993e-04
<VARIANCE> 38
 9.402408e+01 1.892965e+01 5.937308e+00 6.947362e+00 6.362207e+00 4.642252e+00 3.211076e+00 2.540591e+00 2.733578e+00 2.831703e+00 2.500122e+00 1.999319e+00 1.406765e+00 1.257324e+00 1.490511e+00 1.249241e+00 1.280273e+00 9.926442e-01 9.701018e-01 3.127739e+00 5.317291e-01 1.822553e-01 2.461647e-01 1.650507e-01 1.655251e-01 9.404220e-02 8.116805e-02 1.137563e-01 8.026827e-02 1.049586e-01 5.868785e-02 4.662365e-02 4.905856e-02 4.155831e-02 5.141207e-02 3.565657e-02 3.421889e-02 3.667383e-02
<GCONST> 4.848468e+01
<STATE> 3
<MEAN> 38
 -1.777899e-01 1.092528e-01 2.381792e-01 -1.209740e-01 2.631970e-01 -8.300646e-02 6.162087e-02 6.348923e-02 -4.988143e-02 1.695157e-01 7.928751e-03 1.271061e-01 6.564545e-02 -1.621117e-02 1.171416e-01 1.662466e-02 1.436075e-01 9.534796e-02 4.778883e-02 -2.589168e-02 -1.199108e-02 -3.424886e-03 -6.885669e-03 -1.982796e-03 -6.436899e-03 -4.003365e-03 -3.933269e-03 -5.759778e-03 -3.203597e-03 -5.496574e-03 -3.066804e-03 -2.596385e-03 -2.996594e-03 -1.658843e-03 -3.731939e-03 -2.230829e-03 -3.024534e-03 -3.400979e-03
<VARIANCE> 38
 9.977245e+01 1.928626e+01 5.724801e+00 7.277743e+00 5.873711e+00 4.935856e+00 3.203995e+00 2.556783e+00 3.013391e+00 2.644845e+00 2.766114e+00 1.879658e+00 1.404140e+00 1.347804e+00 1.400781e+00 1.376566e+00 1.192895e+00 1.012769e+00 1.045479e+00 3.205851e+00 5.322933e-01 1.854826e-01 2.547415e-01 1.644098e-01 1.739564e-01 9.772320e-02 8.499043e-02 1.222238e-01 8.201025e-02 1.122921e-01 5.982942e-02 4.817222e-02 5.116474e-02 4.264982e-02 5.486555e-02 3.676532e-02 3.685791e-02 4.006560e-02
<GCONST> 4.950050e+01
<STATE> 4
<MEAN> 38
 5.280027e-01 1.457006e-01 8.870801e-02 2.784308e-01 -2.839904e-02 1.126576e-01 1.933590e-03 2.800636e-02 1.356313e-01 4.236962e-02 1.437029e-01 3.669195e-02 3.855206e-02 7.009257e-02 9.403992e-03 1.043623e-01 4.669239e-02 8.021253e-02 8.453391e-02 -9.669635e-03 -5.414893e-03 2.038074e-03 7.148539e-04 -1.642879e-03 -4.028044e-03 -4.224580e-03 -2.853042e-03 -1.519711e-03 -1.958691e-04 2.760220e-04 4.250376e-04 -2.955012e-04 -5.582655e-04 -1.607311e-04 3.001064e-04 1.171032e-03 6.392244e-04 -1.550833e-04
<VARIANCE> 38
 7.835941e+01 1.680293e+01 5.329531e+00 6.708026e+00 5.504222e+00 4.337729e+00 3.108775e+00 2.461076e+00 2.734562e+00 2.630692e+00 2.531375e+00 1.865574e+00 1.345748e+00 1.211125e+00 1.365943e+00 1.219163e+00 1.165608e+00 9.376729e-01 9.303873e-01 2.552133e+00 4.583702e-01 1.672782e-01 2.303596e-01 1.484660e-01 1.530832e-01 9.258128e-02 7.946556e-02 1.105768e-01 7.906507e-02 1.023081e-01 5.764653e-02 4.552986e-02 4.561837e-02 4.049291e-02 4.857311e-02 3.499937e-02 3.414076e-02 3.633533e-02
<GCONST> 4.622611e+01
<TRANSP> 5
 0.000000e+00 1.000000e+00 0.000000e+00 0.000000e+00 0.000000e+00
 0.000000e+00 9.535819e-01 4.641814e-02 0.000000e+00 0.000000e+00
 0.000000e+00 0.000000e+00 9.535813e-01 4.641873e-02 0.000000e+00
 0.000000e+00 0.000000e+00 0.000000e+00 9.535773e-01 4.642270e-02
 0.000000e+00 0.000000e+00 0.000000e+00 0.000000e+00 0.000000e+00
<ENDHMM>
~h "three"
<BEGINHMM>
<NUMSTATES> 5
<STATE> 2
<MEAN> 38
 -2.952892e-01 -1.853558e-01 -1.740859e-01 -7.040957e-02 -1.620695e-01 -1.377774e-01 -1.359327e-01 -9.598966e-02 -4.695907e-02 -6.754706e-02 -2.073103e-02 -2.250179e-02 -1.036915e-03 2.741169e-02 2.238880e-03 8.471896e-03 -1.492911e-02 -1.339070e-02 -1.128828e-02 1.167370e-04 3.394947e-03 5.537351e-03 -1.326046e-04 1.925028e-03 -1.310731e-04 1.376972e-05 -9.084614e-04 -2.363865e-03 -1.054862e-03 -2.385868e-03 -1.305067e-03 -7.934684e-04 -7.131378e-04 7.787527e-05 -9.362729e-04 -1.126866e-04 -7.186135e-04 -1.105525e-03
<VARIANCE> 38
 5.638659e+01 2.020286e+01 6.934077e+00 6.979568e+00 6.116262e+00 4.102470e+00 3.911967e+00 3.217674e+00 2.532387e+00 3.789564e+00 2.576163e+00 2.770960e+00 2.004096e+00 1.524247e+00 1.952288e+00 1.207674e+00 1.434128e+00 1.033587e+00 9.029563e-01 1.931772e+00 5.682746e-01 2.363428e-01 2.881356e-01 1.736887e-01 1.538788e-01 1.127691e-01 1.007483e-01 1.010857e-01 1.143845e-01 9.854966e-02 8.139733e-02 6.118154e-02 5.678888e-02 5.202832e-02 4.864732e-02 4.086211e-02 3.485760e-02 3.339586e-02
<GCONST> 5.143135e+01
<STATE> 3
<MEAN> 38
 4.118628e-01 3.376375e-01 -9.068149e-02 -2.521784e-01 1.489875e-01 2.492173e-02 1.760494e-01 1.655533e-01 9.090419e-02 2.473126e-01 1.624803e-01 2.356168e-01 1.891561e-01 1.241919e-01 1.871588e-01 1.006292e-01 1.502287e-01 1.191469e-01 1.018662e-01 -4.482361e-03 -1.777406e-03 -1.448081e-03 -2.438666e-03 -3.260676e-03 -3.688217e-03 -3.081802e-03 -2.967482e-03 -3.093340e-03 -2.926873e-03 -2.785602e-03 -2.049552e-03 -1.452105e-03 -1.093521e-03 -8.969634e-04 -1.008876e-03 -8.853993e-04 -1.076379e-03 -1.250489e-03
<VARIANCE> 38
 5.751353e+01 2.007530e+01 7.370316e+00 7.703778e+00 5.948791e+00 4.358497e+00 4.053945e+00 3.386474e+00 2.795334e+00 3.936216e+00 2.771595e+00 2.809054e+00 2.084924e+00 1.631761e+00 1.985180e+00 1.262796e+00 1.424348e+00 1.040620e+00 9.071160e-01 1.958364e+00 5.789002e-01 2.533504e-01 3.045233e-01 1.750997e-01 1.631008e-01 1.218252e-01 1.090984e-01 1.097071e-01 1.214418e-01 1.054702e-01 8.537555e-02 6.574477e-02 6.147816e-02 5.401008e-02 5.170101e-02 4.216600e-02 3.653687e-02 3.466836e-02
<GCONST> 5.312405e+01
<STATE> 4
<MEAN> 38
 1.265245e-01 -6.608395e-02 -1.748641e-01 4.849709e-02 -7.101374e-02 6.817612e-02 2.737974e-02 5.833397e-02 1.405059e-01 7.465161e-02 1.378341e-01 5.994561e-02 5.916786e-02 8.001889e-02 1.684862e-02 5.788855e-02 7.159905e-03 2.701057e-02 4.098978e-02 2.800399e-03 -1.943729e-03 -5.939457e-03 -1.305840e-03 -4.072281e-03 -4.627201e-04 1.463422e-04 1.277080e-03 3.060351e-03 1.592847e-03 2.827100e-03 1.145611e-03 6.781533e-04 8.386952e-04 -4.464613e-04 5.526847e-04 -1.069442e-04 3.388936e-04 3.592239e-04
<VARIANCE> 38
 5.266072e+01 1.771906e+01 6.428065e+00 7.580040e+00 5.563003e+00 4.081119e+00 3.945696e+00 3.214124e+00 2.568609e+00 3.759749e+00 2.535779e+00 2.677722e+00 1.937071e+00 1.460404e+00 1.864807e+00 1.138718e+00 1.355751e+00 9.634689e-01 8.308286e-01 1.754719e+00 4.967074e-01 2.170166e-01 2.668511e-01 1.552350e-01 1.481364e-01 1.138093e-01 9.950493e-02 1.008836e-01 1.089543e-01 9.644671e-02 7.674378e-02 5.950360e-02 5.456690e-02 4.841682e-02 4.595295e-02 3.820871e-02 3.307102e-02 3.130291e-02
<GCONST> 4.965260e+01
<TRANSP> 5
 0.000000e+00 1.000000e+00 0.000000e+00 0.000000e+00 0.000000e+00
 0.000000e+00 9.519613e-01 4.803867e-02 0.000000e+00 0.000000e+00
 0.000000e+00 0.000000e+00 9.519617e-01 4.803830e-02 0.000000e+00
 0.000000e+00 0.000000e+00 0.000000e+00 9.519574e-01 4.804263e-02
 0.000000e+00 0.000000e+00 0.000000e+00 0.000000e+00 0.000000e+00
<ENDHMM>
~h "one"
<BEGINHMM>
<NUMSTATES> 5
<STATE> 2
<MEAN> 38
 4.893901e-01 1.997597e-01 1.256224e-01 2.876835e-01 3.391285e-04 2.358024e-01 1.079238e-01 8.853856e-02 1.028595e-01 -1.101338e-01 -2.418142e-02 -1.215748e-01 -7.620763e-02 -1.382033e-02 -8.799943e-02 -3.862799e-03 -9.701576e-02 -5.847852e-02 -2.168690e-02 -1.356464e-02 -4.019327e-03 -3.098825e-03 -9.750770e-03 -2.375442e-04 -6.138468e-03 -2.627317e-03 -3.229254e-03 -5.410387e-03 -4.949841e-04 -3.592605e-03 1.455092e-04 2.515467e-04 -7.405682e-04 1.780494e-03 -1.271885e-03 5.336583e-04 -8.000782e-04 -1.328342e-03
<VARIANCE> 38
 4.977605e+01 1.744139e+01 6.254854e+00 6.179160e+00 6.565830e+00 4.854648e+00 4.728904e+00 3.555116e+00 2.809759e+00 3.094667e+00 2.764480e+00 2.358363e+00 1.588567e+00 1.165301e+00 1.501567e+00 1.087561e+00 1.282761e+00 9.389006e-01 8.419819e-01 1.425335e+00 3.678456e-01 1.775069e-01 2.264895e-01 1.606789e-01 1.441423e-01 1.156480e-01 9.457515e-02 1.097061e-01 9.244527e-02 1.150183e-01 7.532381e-02 5.396967e-02 4.535981e-02 4.325350e-02 4.239446e-02 3.856837e-02 3.374022e-02 3.194839e-02
<GCONST> 4.782000e+01
<STATE> 3
<MEAN> 38
 1.343483e+00 8.079992e-01 4.142188e-01 2.712243e-01 2.951689e-01 4.035082e-01 3.434291e-01 2.865066e-01 2.180944e-01 1.288151e-01 1.327428e-01 1.031974e-01 8.731145e-02 7.900893e-02 7.909404e-02 1.058516e-01 7.795496e-02 8.663594e-02 9.804405e-02 4.181915e-03 1.610839e-03 -7.943035e-05 1.306477e-03 -4.505320e-04 1.621088e-03 7.360785e-04 -4.658250e-04 -1.355652e-03 -3.559415e-03 -3.542704e-03 -3.881162e-03 -2.632989e-03 -1.800166e-03 -2.328881e-03 -1.947710e-03 -3.013595e-03 -2.719196e-03 -2.062841e-03
<VARIANCE> 38
 4.919508e+01 1.595328e+01 5.790650e+00 6.557280e+00 6.232244e+00 4.833968e+00 4.583279e+00 3.495679e+00 3.021037e+00 2.960456e+00 2.991387e+00 2.268657e+00 1.555275e+00 1.207622e+00 1.452325e+00 1.166448e+00 1.279663e+00 9.598940e-01 8.639944e-01 1.479297e+00 3.642596e-01 1.767695e-01 2.386560e-01 1.601306e-01 1.514280e-01 1.184834e-01 9.838352e-02 1.226301e-01 9.451336e-02 1.288150e-01 7.797853e-02 5.668465e-02 4.812551e-02 4.418638e-02 4.601447e-02 4.018709e-02 3.613030e-02 3.472194e-02
<GCONST> 4.863263e+01
<STATE> 4
<MEAN> 38
 5.563216e-01 1.935781e-01 1.418507e-01 2.972888e-01 -3.563872e-02 1.673592e-01 3.725055e-02 6.813416e-02 1.567425e-01 6.081027e-03 1.306212e-01 2.176820e-02 3.109832e-02 7.548883e-02 5.286559e-04 9.930665e-02 2.424414e-02 5.750448e-02 6.870012e-02 2.758366e-02 1.144449e-02 6.565761e-03 1.065686e-02 -3.284222e-04 6.778841e-03 1.937673e-03 1.908881e-03 4.692897e-03 -6.847183e-04 3.156618e-03 -5.135668e-05 2.770411e-04 1.775531e-03 -7.836715e-04 2.435816e-03 4.043928e-05 8.537672e-04 1.352788e-03
<VARIANCE> 38
 4.951447e+01 1.575780e+01 5.474132e+00 6.253376e+00 5.906824e+00 4.434574e+00 4.209397e+00 3.189643e+00 2.783849e+00 2.837188e+00 2.692097e+00 2.131974e+00 1.438563e+00 1.122677e+00 1.389821e+00 1.102088e+00 1.209521e+00 8.989407e-01 8.061498e-01 1.475093e+00 3.570001e-01 1.597775e-01 2.215216e-01 1.464889e-01 1.389132e-01 1.057970e-01 8.799612e-02 1.122153e-01 8.623917e-02 1.150405e-01 6.989101e-02 5.100273e-02 4.388734e-02 4.111494e-02 4.313584e-02 3.699712e-02 3.319409e-02 3.216137e-02
<GCONST> 4.589156e+01
<TRANSP> 5
 0.000000e+00 1.000000e+00 0.000000e+00 0.000000e+00 0.000000e+00
 0.000000e+00 9.521199e-01 4.788006e-02 0.000000e+00 0.000000e+00
 0.000000e+00 0.000000e+00 9.521195e-01 4.788044e-02 0.000000e+00
 0.000000e+00 0.000000e+00 0.000000e+00 9.521146e-01 4.788538e-02
 0.000000e+00 0.000000e+00 0.000000e+00 0.000000e+00 0.000000e+00
<ENDHMM>
~h "six"
<BEGINHMM>
<NUMSTATES> 5
<STATE> 2
<MEAN> 38
 -1.984367e+00 -9.408786e-01 -1.669017e-01 -2.980940e-01 -1.006062e-01 -3.954051e-01 -2.566623e-01 -1.858127e-01 -2.454653e-01 -9.451471e-02 -1.872674e-01 -7.723197e-02 -1.034910e-01 -1.240911e-01 -4.058300e-02 -1.385029e-01 -4.568229e-02 -1.101351e-01 -1.440566e-01 4.408063e-02 2.074649e-02 1.315927e-03 2.846557e-03 2.568745e-03 7.660991e-03 5.919253e-03 4.663222e-03 5.595801e-03 4.023050e-03 4.969032e-03 2.965094e-03 3.408641e-03 3.515417e-03 2.397354e-03 3.684038e-03 1.935385e-03 2.926935e-03 3.335634e-03
<VARIANCE> 38
 1.035333e+02 1.840802e+01 6.495225e+00 7.746464e+00 6.391835e+00 5.263666e+00 3.147709e+00 2.551658e+00 2.974351e+00 3.141017e+00 2.767035e+00 2.252624e+00 1.541157e+00 1.436089e+00 1.559312e+00 1.260791e+00 1.244683e+00 8.308831e-01 8.361502e-01 3.562411e+00 5.604110e-01 2.120424e-01 2.870876e-01 1.808490e-01 1.809193e-01 9.823623e-02 8.310585e-02 1.199895e-01 9.664220e-02 1.159122e-01 7.226019e-02 5.631682e-02 5.911151e-02 4.631481e-02 5.440165e-02 3.804626e-02 3.167383e-02 3.379653e-02
<GCONST> 5.092688e+01
<STATE> 3
<MEAN> 38
 -2.296245e+00 -8.223169e-01 6.040500e-02 -4.686388e-01 1.517432e-01 -4.671014e-01 -1.769860e-01 -1.378089e-01 -3.417063e-01 2.601881e-02 -2.180513e-01 4.708559e-02 -3.105398e-02 -1.374723e-01 6.930543e-02 -1.522062e-01 6.016129e-02 -5.910843e-02 -1.219874e-01 -1.622817e-02 -7.847679e-03 -3.068081e-03 -7.119557e-03 -5.143592e-04 -4.746156e-03 -1.832791e-03 -1.196431e-03 -2.823336e-03 2.453083e-04 -1.797350e-03 2.310676e-04 -6.547399e-04 -1.557789e-03 2.510026e-04 -1.683356e-03 4.091821e-05 -1.022301e-03 -1.812176e-03
<VARIANCE> 38
 1.121673e+02 1.946169e+01 6.541596e+00 8.294398e+00 6.106878e+00 5.675472e+00 3.158594e+00 2.607678e+00 3.196825e+00 3.099158e+00 2.976229e+00 2.219147e+00 1.582479e+00 1.545794e+00 1.520681e+00 1.333528e+00 1.186216e+00 8.288260e-01 8.654372e-01 3.869708e+00 5.900040e-01 2.243820e-01 3.103064e-01 1.866186e-01 1.939698e-01 1.012393e-01 8.716694e-02 1.281650e-01 1.021636e-01 1.233513e-01 7.647281e-02 5.992337e-02 6.349013e-02 4.870199e-02 5.729704e-02 3.917478e-02 3.252896e-02 3.509769e-02
<GCONST> 5.244154e+01
<STATE> 4
<MEAN> 38
 -1.139263e+00 -6.207688e-01 -6.076458e-02 6.502169e-02 -1.451580e-01 -1.814553e-01 -2.256926e-01 -1.852014e-01 -1.454186e-01 -1.762892e-01 -1.224708e-01 -1.291643e-01 -9.964292e-02 -5.942747e-02 -8.851625e-02 -6.909683e-02 -7.793353e-02 -7.951260e-02 -7.216812e-02 -5.159970e-02 -2.339503e-02 -1.646793e-03 -6.804528e-03 -2.011723e-03 -1.055274e-02 -7.437940e-03 -6.285539e-03 -8.101278e-03 -3.978220e-03 -6.331195e-03 -2.615374e-03 -3.574997e-03 -4.222371e-03 -1.746060e-03 -4.358125e-03 -1.257639e-03 -3.172522e-03 -4.138934e-03
<VARIANCE> 38
 9.575914e+01 1.728554e+01 5.860806e+00 8.215029e+00 5.685639e+00 5.287297e+00 2.968294e+00 2.418569e+00 2.973450e+00 2.853338e+00 2.624170e+00 2.076677e+00 1.442123e+00 1.379488e+00 1.439345e+00 1.180009e+00 1.117133e+00 7.483245e-01 7.773725e-01 3.160408e+00 5.047581e-01 1.962473e-01 2.766057e-01 1.663032e-01 1.701697e-01 9.238373e-02 7.916804e-02 1.123711e-01 9.300048e-02 1.075057e-01 6.948803e-02 5.365316e-02 5.531161e-02 4.431386e-02 4.894664e-02 3.548710e-02 2.901511e-02 3.092015e-02
<GCONST> 4.842432e+01
<TRANSP> 5
 0.000000e+00 1.000000e+00 0.000000e+00 0.000000e+00 0.000000e+00
 0.000000e+00 9.548925e-01 4.510755e-02 0.000000e+00 0.000000e+00
 0.000000e+00 0.000000e+00 9.548920e-01 4.510799e-02 0.000000e+00
 0.000000e+00 0.000000e+00 0.000000e+00 9.548882e-01 4.511181e-02
 0.000000e+00 0.000000e+00 0.000000e+00 0.000000e+00 0.000000e+00
<ENDHMM>
~h "two"
<BEGINHMM>
<NUMSTATES> 5
<STATE> 2
<MEAN> 38
 -6.499839e-01 -5.320221e-01 -3.008434e-01 -1.728681e-01 -1.690101e-01 -8.686779e-02 -8.272275e-02 -6.599661e-02 -1.965937e-02 -1.421866e-02 1.397267e-02 4.312739e-03 3.739515e-03 1.207398e-02 -5.292824e-03 -1.019509e-02 -3.429502e-02 -3.643036e-02 -2.699583e-02 1.049505e-02 6.298364e-03 1.277414e-03 -1.281489e-03 7.764751e-04 -1.061888e-03 -3.224956e-04 1.429477e-04 -7.086390e-04 -6.747389e-04 -1.872063e-03 -1.121028e-03 -5.824127e-04 -2.744042e-04 3.215611e-04 -4.209643e-04 -8.237787e-05 -4.543336e-04 -9.780105e-04
<VARIANCE> 38
 5.557315e+01 1.860085e+01 6.002587e+00 7.261443e+00 6.313531e+00 4.014883e+00 3.768380e+00 2.823763e+00 2.225701e+00 3.698127e+00 2.303856e+00 2.728183e+00 1.948775e+00 1.353301e+00 1.987509e+00 1.154540e+00 1.467293e+00 1.000644e+00 9.042162e-01 2.115434e+00 5.286571e-01 1.876057e-01 2.741841e-01 1.978140e-01 1.455275e-01 1.057991e-01 8.712260e-02 9.740864e-02 1.004087e-01 9.068318e-02 7.420336e-02 5.678490e-02 5.134033e-02 5.312201e-02 4.768187e-02 4.090146e-02 3.261771e-02 3.259442e-02
<GCONST> 4.960434e+01
<STATE> 3
<MEAN> 38
 1.088159e-02 1.521624e-01 4.941785e-02 -2.029769e-01 1.864592e-01 8.378182e-02 1.998467e-01 1.204334e-01 4.221787e-02 2.378773e-01 1.445241e-01 2.406417e-01 1.801458e-01 9.663144e-02 1.765498e-01 8.150510e-02 1.409385e-01 1.056865e-01 1.028910e-01 -8.742704e-03 -1.069492e-02 -8.574129e-03 -6.276823e-03 -4.138459e-03 -3.801926e-03 -2.888509e-03 -2.018178e-03 -1.560959e-03 -1.115328e-03 -1.130253e-03 -9.018534e-04 -1.204142e-03 -1.233014e-03 -1.129009e-03 -1.696944e-03 -1.696031e-03 -1.713847e-03 -1.716112e-03
<VARIANCE> 38
 5.803621e+01 1.897002e+01 6.076209e+00 8.015812e+00 6.069104e+00 4.277352e+00 3.784802e+00 2.833450e+00 2.335282e+00 3.640671e+00 2.422632e+00 2.690009e+00 2.011240e+00 1.453134e+00 1.997496e+00 1.227445e+00 1.459163e+00 1.012552e+00 9.312421e-01 2.157933e+00 5.396723e-01 1.907590e-01 2.765693e-01 1.953867e-01 1.537833e-01 1.089381e-01 8.925509e-02 1.003556e-01 9.884059e-02 9.403402e-02 7.424082e-02 5.922386e-02 5.508874e-02 5.386966e-02 5.103958e-02 4.141908e-02 3.439195e-02 3.479015e-02
<GCONST> 5.062152e+01
<STATE> 4
<MEAN> 38
 6.162943e-02 4.432125e-02 6.508400e-02 2.117234e-01 -2.966054e-02 1.216084e-01 3.256167e-02 3.318204e-03 7.094620e-02 6.551662e-03 9.772979e-02 2.438179e-02 3.868059e-02 6.844019e-02 7.786524e-03 6.882680e-02 1.068179e-02 3.219265e-02 5.698854e-02 -1.637745e-03 -1.869805e-03 -6.515088e-04 2.087102e-03 -9.768925e-04 9.788425e-04 -3.187528e-04 -1.020492e-03 9.883683e-04 1.124790e-03 2.543116e-03 1.593753e-03 5.318712e-04 3.828817e-04 -2.195146e-04 3.403521e-04 -1.780551e-04 4.544192e-04 1.303090e-03
<VARIANCE> 38
 5.249601e+01 1.701467e+01 5.614561e+00 7.580312e+00 5.724099e+00 4.035922e+00 3.667796e+00 2.700305e+00 2.236126e+00 3.426254e+00 2.286841e+00 2.530061e+00 1.861493e+00 1.337273e+00 1.845340e+00 1.121914e+00 1.367060e+00 9.384759e-01 8.508871e-01 1.846652e+00 4.707606e-01 1.712106e-01 2.402453e-01 1.663381e-01 1.410575e-01 1.009864e-01 8.194827e-02 9.125430e-02 8.849138e-02 8.670399e-02 6.700823e-02 5.398326e-02 4.967244e-02 4.755409e-02 4.574852e-02 3.740780e-02 3.187248e-02 3.197064e-02
<GCONST> 4.726537e+01
<TRANSP> 5
 0.000000e+00 1.000000e+00 0.000000e+00 0.000000e+00 0.000000e+00
 0.000000e+00 9.509007e-01 4.909925e-02 0.000000e+00 0.000000e+00
 0.000000e+00 0.000000e+00 9.509010e-01 4.909898e-02 0.000000e+00
 0.000000e+00 0.000000e+00 0.000000e+00 9.508960e-01 4.910400e-02
 0.000000e+00 0.000000e+00 0.000000e+00 0.000000e+00 0.000000e+00
<ENDHMM>
~h "nine"
<BEGINHMM>
<NUMSTATES> 5
<STATE> 2
<MEAN> 38
 6.409391e-01 1.713312e-01 -5.349093e-02 1.078411e-02 -1.590347e-01 3.315163e-02 -6.578795e-02 -2.692193e-02 4.068833e-02 -9.531761e-02 -3.246828e-02 -1.011187e-01 -3.824127e-02 2.189251e-02 -2.148096e-02 6.373788e-02 -1.450614e-02 1.962646e-03 2.446725e-02 -1.830848e-02 -5.864038e-03 -1.366278e-03 -5.185980e-03 1.888565e-03 -2.755743e-03 4.030784e-04 -1.234473e-03 -4.141027e-03 -6.599729e-04 -3.435006e-03 -6.698528e-04 -8.865551e-04 -1.571421e-03 5.972706e-04 -2.094843e-03 -7.249989e-04 -1.815466e-03 -2.341494e-03
<VARIANCE> 38
 4.847214e+01 1.684774e+01 5.850750e+00 6.358288e+00 5.760182e+00 3.600834e+00 3.567862e+00 2.843276e+00 2.723337e+00 3.303139e+00 2.927258e+00 2.356891e+00 1.547974e+00 1.078184e+00 1.600380e+00 1.064109e+00 1.326454e+00 9.411833e-01 8.262389e-01 1.327546e+00 3.555530e-01 1.884668e-01 2.524031e-01 1.496015e-01 1.194038e-01 9.831013e-02 8.513193e-02 1.160736e-01 1.031156e-01 1.197016e-01 7.361479e-02 5.025087e-02 4.136595e-02 4.515057e-02 4.072056e-02 3.750655e-02 3.137264e-02 3.052345e-02
<GCONST> 4.624297e+01
<STATE> 3
<MEAN> 38
 1.576332e+00 8.501547e-01 2.159719e-01 -7.195545e-02 1.391487e-01 1.615173e-01 1.589018e-01 1.615739e-01 1.215033e-01 1.285936e-01 9.118466e-02 1.233791e-01 1.295873e-01 1.031088e-01 1.393686e-01 1.454966e-01 1.522905e-01 1.425024e-01 1.389050e-01 3.163445e-03 -9.878611e-04 -2.671062e-03 -2.588119e-03 -3.479102e-03 -1.757721e-03 -2.446439e-03 -2.240467e-03 -1.777192e-03 -2.966518e-03 -3.154663e-03 -3.554143e-03 -2.119454e-03 -1.065826e-03 -1.009964e-03 -1.172120e-04 -1.043165e-03 -1.255632e-03 -1.027951e-03
<VARIANCE> 38
 4.591607e+01 1.503478e+01 5.631988e+00 7.090774e+00 5.397303e+00 3.710477e+00 3.454302e+00 2.759448e+00 2.885909e+00 3.217807e+00 3.200733e+00 2.275850e+00 1.506850e+00 1.105033e+00 1.514898e+00 1.062808e+00 1.197972e+00 8.759080e-01 7.946789e-01 1.350277e+00 3.450015e-01 1.988340e-01 2.757129e-01 1.467924e-01 1.277095e-01 1.005046e-01 8.763134e-02 1.229238e-01 1.062109e-01 1.304545e-01 7.564827e-02 5.244840e-02 4.402078e-02 4.569428e-02 4.325725e-02 3.733744e-02 3.287175e-02 3.259946e-02
<GCONST> 4.657708e+01
<STATE> 4
<MEAN> 38
 6.695838e-01 2.376337e-01 4.890875e-02 1.867689e-01 -7.636979e-02 1.151361e-01 -3.627378e-03 2.184772e-02 1.168423e-01 2.074592e-03 1.219614e-01 2.841401e-02 4.260669e-02 7.700709e-02 -6.208672e-03 7.676334e-02 1.322897e-02 4.758818e-02 6.350507e-02 3.063420e-02 1.114625e-02 2.412416e-03 4.099976e-03 -3.825501e-03 1.750083e-03 -2.111291e-03 -1.531164e-04 3.215590e-03 -6.280834e-04 2.714052e-03 -6.267166e-05 7.609683e-04 1.947418e-03 -2.175207e-04 2.991302e-03 1.123089e-03 1.933340e-03 2.233321e-03
<VARIANCE> 38
 4.724713e+01 1.510851e+01 5.355252e+00 6.987242e+00 5.106495e+00 3.589050e+00 3.327491e+00 2.638688e+00 2.613627e+00 3.028670e+00 2.811262e+00 2.165950e+00 1.449658e+00 1.064407e+00 1.458640e+00 1.003148e+00 1.148337e+00 8.423800e-01 7.605698e-01 1.382851e+00 3.425637e-01 1.821448e-01 2.573134e-01 1.354059e-01 1.234339e-01 9.360032e-02 8.048157e-02 1.079675e-01 9.396383e-02 1.146962e-01 6.860905e-02 4.877536e-02 4.173726e-02 4.232623e-02 4.040808e-02 3.446209e-02 3.089287e-02 3.049384e-02
<GCONST> 4.436944e+01
<TRANSP> 5
 0.000000e+00 1.000000e+00 0.000000e+00 0.000000e+00 0.000000e+00
 0.000000e+00 9.528633e-01 4.713672e-02 0.000000e+00 0.000000e+00
 0.000000e+00 0.000000e+00 9.528648e-01 4.713513e-02 0.000000e+00
 0.000000e+00 0.000000e+00 0.000000e+00 9.528601e-01 4.713996e-02
 0.000000e+00 0.000000e+00 0.000000e+00 0.000000e+00 0.000000e+00
<ENDHMM>
~h "five"
<BEGINHMM>
<NUMSTATES> 5
<STATE> 2
<MEAN> 38
 4.381777e-02 -1.178213e-01 -1.432663e-01 -2.332125e-02 -1.567149e-01 -1.865145e-01 -1.724608e-01 -1.477586e-01 -1.435211e-01 -2.163851e-01 -2.284049e-01 -2.162503e-01 -1.727643e-01 -1.562733e-01 -1.721657e-01 -1.449604e-01 -1.307196e-01 -9.304561e-02 -7.555005e-02 -2.209003e-03 2.438663e-03 1.990049e-03 -1.849962e-03 3.387655e-03 3.951564e-03 3.268079e-03 3.129351e-03 3.104589e-03 4.439706e-03 4.011967e-03 4.114380e-03 3.344554e-03 3.098099e-03 3.893099e-03 3.016929e-03 2.374755e-03 1.171429e-03 1.061272e-03
<VARIANCE> 38
 5.965931e+01 1.550196e+01 5.696167e+00 5.988671e+00 5.653149e+00 4.258723e+00 3.449152e+00 2.596989e+00 2.178425e+00 2.641149e+00 2.010702e+00 1.856444e+00 1.366115e+00 1.155627e+00 1.278872e+00 9.766898e-01 1.046656e+00 8.279113e-01 7.540221e-01 2.070566e+00 4.090860e-01 1.771888e-01 2.450608e-01 1.417766e-01 1.646301e-01 9.900978e-02 7.852500e-02 9.133048e-02 7.470714e-02 8.118116e-02 5.524368e-02 4.466503e-02 4.363756e-02 3.601162e-02 3.809869e-02 3.023284e-02 2.770362e-02 2.848638e-02
<GCONST> 4.310567e+01
<STATE> 3
<MEAN> 38
 7.748417e-01 3.871964e-01 8.629251e-02 -7.662974e-02 1.058561e-01 -1.607857e-01 -9.334283e-03 -3.574783e-02 -1.546100e-01 -6.964280e-02 -2.155382e-01 -8.349477e-02 -6.048338e-02 -1.275982e-01 -6.434710e-02 -1.234588e-01 -1.478215e-02 3.253229e-03 -1.927436e-03 -7.629750e-04 -1.414960e-03 -2.973551e-03 -4.091947e-03 -2.063534e-03 -3.107183e-03 -2.205111e-03 -1.564703e-03 -1.902374e-03 -2.051106e-03 -2.943291e-03 -1.992865e-03 -2.412054e-03 -2.809139e-03 -1.864930e-03 -2.179507e-03 -1.661807e-03 -1.463574e-03 -1.343903e-03
<VARIANCE> 38
 6.098241e+01 1.502636e+01 5.541801e+00 6.186568e+00 5.474341e+00 4.414366e+00 3.407714e+00 2.580141e+00 2.285277e+00 2.667081e+00 2.116344e+00 1.842122e+00 1.403213e+00 1.229047e+00 1.281505e+00 1.033241e+00 1.026897e+00 8.318039e-01 7.683238e-01 2.141288e+00 4.092509e-01 1.752776e-01 2.489317e-01 1.387689e-01 1.685539e-01 9.890629e-02 7.857276e-02 9.445092e-02 7.595270e-02 8.400400e-02 5.516992e-02 4.609286e-02 4.630403e-02 3.624519e-02 4.039221e-02 3.023259e-02 2.868640e-02 2.999733e-02
<GCONST> 4.370461e+01
<STATE> 4
<MEAN> 38
 2.423852e-01 -4.677973e-02 -4.535708e-02 2.075673e-01 -1.448576e-01 -5.039561e-02 -1.294207e-01 -1.308459e-01 -5.102520e-02 -1.586398e-01 -8.992255e-02 -1.512001e-01 -7.290947e-02 -1.588481e-02 -1.043255e-01 -3.652547e-02 -8.058408e-02 -3.891739e-02 -1.813064e-02 1.114366e-02 1.986774e-03 -1.413203e-03 2.295752e-04 -4.328145e-03 -6.611958e-03 -5.850750e-03 -5.219477e-03 -5.445895e-03 -6.517721e-03 -6.010219e-03 -4.873351e-03 -3.815512e-03 -3.732440e-03 -4.244048e-03 -3.665225e-03 -2.678396e-03 -1.550448e-03 -1.455105e-03
<VARIANCE> 38
 5.541544e+01 1.450844e+01 5.097368e+00 6.131760e+00 5.207069e+00 4.046158e+00 3.209177e+00 2.434511e+00 2.214634e+00 2.642650e+00 2.042948e+00 1.838160e+00 1.354420e+00 1.166998e+00 1.279552e+00 9.906070e-01 1.023586e+00 7.948047e-01 7.176898e-01 1.905620e+00 3.851992e-01 1.569639e-01 2.247552e-01 1.283596e-01 1.474932e-01 9.053490e-02 7.248367e-02 8.690354e-02 7.347467e-02 7.840198e-02 5.349520e-02 4.391975e-02 4.325182e-02 3.515023e-02 3.837400e-02 2.955182e-02 2.742539e-02 2.814051e-02
<GCONST> 4.158365e+01
<TRANSP> 5
 0.000000e+00 1.000000e+00 0.000000e+00 0.000000e+00 0.000000e+00
 0.000000e+00 9.529948e-01 4.700527e-02 0.000000e+00 0.000000e+00
 0.000000e+00 0.000000e+00 9.529948e-01 4.700524e-02 0.000000e+00
 0.000000e+00 0.000000e+00 0.000000e+00 9.529896e-01 4.701045e-02
 0.000000e+00 0.000000e+00 0.000000e+00 0.000000e+00 0.000000e+00
<ENDHMM>
~h "four"
<BEGINHMM>
<NUMSTATES> 5
<STATE> 2
<MEAN> 38
 -3.688314e-01 1.347695e-02 3.928659e-02 2.493720e-02 -3.227904e-02 2.484706e-02 9.226205e-04 -5.871297e-02 -8.897191e-02 -1.322626e-01 -1.212719e-01 -1.304897e-01 -1.241734e-01 -9.853470e-02 -1.041142e-01 -1.085837e-01 -1.263852e-01 -1.198407e-01 -1.069383e-01 -2.513741e-03 -7.203526e-03 -6.633048e-03 -7.785603e-03 -1.796444e-03 -3.114731e-03 1.930613e-04 2.158991e-03 2.252228e-03 4.214347e-03 2.230065e-03 3.154946e-03 2.553470e-03 1.755619e-03 2.380976e-03 1.190752e-03 2.741827e-03 1.981985e-03 1.316777e-03
<VARIANCE> 38
 5.746783e+01 2.012152e+01 8.129498e+00 7.662857e+00 7.165775e+00 6.907809e+00 5.613849e+00 4.058530e+00 3.010024e+00 3.042535e+00 2.340759e+00 2.175337e+00 1.514560e+00 1.255289e+00 1.420851e+00 1.099388e+00 1.113662e+00 8.090950e-01 7.240023e-01 1.927828e+00 4.754136e-01 2.097343e-01 2.751654e-01 1.736024e-01 2.368669e-01 1.499841e-01 1.174307e-01 1.247500e-01 8.394720e-02 9.842278e-02 6.245198e-02 4.995884e-02 4.888443e-02 4.178416e-02 4.370525e-02 3.418211e-02 2.961919e-02 2.862026e-02
<GCONST> 4.996581e+01
<STATE> 3
<MEAN> 38
 5.476126e-01 8.730059e-01 5.821801e-01 2.138526e-01 3.911969e-01 2.794001e-01 2.714028e-01 8.566927e-02 -8.461918e-02 -3.770523e-03 -6.423997e-02 1.445073e-02 1.662807e-03 -3.220277e-02 3.453656e-02 -3.832784e-02 -1.927958e-02 -3.601794e-02 -3.460065e-02 -7.851551e-03 -3.540673e-03 -4.132454e-03 -5.480073e-03 -2.410147e-03 -2.660658e-03 -7.180675e-04 -8.114452e-04 -1.475020e-03 -1.060274e-03 -2.354614e-03 -1.479657e-03 -2.263088e-03 -2.622077e-03 -1.747155e-03 -2.575063e-03 -1.814116e-03 -2.223441e-03 -2.312376e-03
<VARIANCE> 38
 5.933466e+01 2.009163e+01 8.202141e+00 8.021115e+00 7.137901e+00 7.276425e+00 5.967980e+00 4.480834e+00 3.315776e+00 3.076366e+00 2.474755e+00 2.190687e+00 1.571769e+00 1.360029e+00 1.412041e+00 1.192183e+00 1.109999e+00 8.344309e-01 7.571952e-01 1.964452e+00 5.039084e-01 2.216955e-01 2.817182e-01 1.805760e-01 2.488735e-01 1.612874e-01 1.293589e-01 1.351821e-01 8.587455e-02 1.024547e-01 6.427720e-02 5.294944e-02 5.275346e-02 4.393683e-02 4.713741e-02 3.614220e-02 3.200667e-02 3.069575e-02
<GCONST> 5.174368e+01
<STATE> 4
<MEAN> 38
 3.641835e-01 3.462771e-01 3.087932e-01 4.046607e-01 5.119282e-02 1.892838e-01 1.050227e-02 -6.787084e-02 -3.871871e-02 -1.492271e-01 -2.376451e-02 -1.034878e-01 -4.090397e-02 3.132098e-02 -4.045665e-02 2.692256e-02 -6.156835e-02 -2.613717e-02 -3.815183e-03 9.735409e-03 1.320059e-02 9.754082e-03 8.752858e-03 6.448418e-04 1.742005e-03 -1.883808e-03 -4.534922e-03 -4.185930e-03 -6.020087e-03 -3.813175e-03 -4.246138e-03 -3.320040e-03 -1.771384e-03 -2.216943e-03 -1.291811e-03 -2.888685e-03 -2.565120e-03 -2.088271e-03
<VARIANCE> 38
 5.405289e+01 1.980006e+01 7.816310e+00 7.099997e+00 6.882591e+00 6.012995e+00 5.240840e+00 3.934994e+00 2.927189e+00 2.859027e+00 2.252694e+00 2.082193e+00 1.476213e+00 1.252354e+00 1.385132e+00 1.106202e+00 1.084044e+00 7.989090e-01 7.189773e-01 1.758384e+00 4.858816e-01 2.046347e-01 2.453025e-01 1.650245e-01 2.032553e-01 1.380056e-01 1.120536e-01 1.168267e-01 8.008111e-02 9.140013e-02 6.065844e-02 4.895864e-02 4.818190e-02 4.171205e-02 4.351255e-02 3.442210e-02 3.031828e-02 2.892574e-02
<GCONST> 4.846866e+01
<TRANSP> 5
 0.000000e+00 1.000000e+00 0.000000e+00 0.000000e+00 0.000000e+00
 0.000000e+00 9.525136e-01 4.748644e-02 0.000000e+00 0.000000e+00
 0.000000e+00 0.000000e+00 9.525149e-01 4.748504e-02 0.000000e+00
 0.000000e+00 0.000000e+00 0.000000e+00 9.525092e-01 4.749076e-02
 0.000000e+00 0.000000e+00 0.000000e+00 0.000000e+00 0.000000e+00
<ENDHMM>
~h "zero"
<BEGINHMM>
<NUMSTATES> 5
<STATE> 2
<MEAN> 38
 -6.841963e-09 -8.544343e-08 -8.903297e-09 -1.389685e-07 -5.238905e-08 5.669132e-08 -3.369721e-08 -1.341750e-07 -5.757052e-08 3.852167e-09 -7.400170e-08 -7.038775e-08 -4.913395e-08 -2.603449e-08 -3.974521e-09 2.786761e-08 -2.039894e-08 -3.089388e-09 6.285333e-09 -3.808419e-04 -5.963924e-04 -1.038489e-03 -1.918809e-03 -1.079902e-03 -1.469816e-03 -9.992669e-04 -9.932166e-04 -1.146261e-03 -7.566527e-04 -1.077722e-03 -6.425015e-04 -5.764425e-04 -5.768837e-04 -3.056234e-04 -6.176391e-04 -4.565527e-04 -6.649639e-04 -7.613047e-04
<VARIANCE> 38
 6.315313e+01 1.757056e+01 6.290810e+00 7.155922e+00 6.050740e+00 4.631410e+00 3.949157e+00 3.066458e+00 2.696067e+00 3.230795e+00 2.531634e+00 2.300139e+00 1.611309e+00 1.276684e+00 1.569586e+00 1.128306e+00 1.239739e+00 9.018868e-01 8.261204e-01 2.050822e+00 4.500204e-01 1.929007e-01 2.572328e-01 1.624664e-01 1.582450e-01 1.092633e-01 9.128601e-02 1.069283e-01 9.381980e-02 1.006165e-01 6.893553e-02 5.230568e-02 4.867543e-02 4.448727e-02 4.515548e-02 3.670647e-02 3.184564e-02 3.161120e-02
<GCONST> 4.831047e+01
<STATE> 3
<MEAN> 38
 -6.841963e-09 -8.544343e-08 -8.903297e-09 -1.389685e-07 -5.238905e-08 5.669132e-08 -3.369721e-08 -1.341750e-07 -5.757052e-08 3.852167e-09 -7.400170e-08 -7.038775e-08 -4.913395e-08 -2.603449e-08 -3.974521e-09 2.786761e-08 -2.039894e-08 -3.089388e-09 6.285333e-09 -3.808419e-04 -5.963924e-04 -1.038489e-03 -1.918809e-03 -1.079902e-03 -1.469816e-03 -9.992669e-04 -9.932166e-04 -1.146261e-03 -7.566527e-04 -1.077722e-03 -6.425015e-04 -5.764425e-04 -5.768837e-04 -3.056234e-04 -6.176391e-04 -4.565527e-04 -6.649639e-04 -7.613047e-04
<VARIANCE> 38
 6.315313e+01 1.757056e+01 6.290810e+00 7.155922e+00 6.050740e+00 4.631410e+00 3.949157e+00 3.066458e+00 2.696067e+00 3.230795e+00 2.531634e+00 2.300139e+00 1.611309e+00 1.276684e+00 1.569586e+00 1.128306e+00 1.239739e+00 9.018868e-01 8.261204e-01 2.050822e+00 4.500204e-01 1.929007e-01 2.572328e-01 1.624664e-01 1.582450e-01 1.092633e-01 9.128601e-02 1.069283e-01 9.381980e-02 1.006165e-01 6.893553e-02 5.230568e-02 4.867543e-02 4.448727e-02 4.515548e-02 3.670647e-02 3.184564e-02 3.161120e-02
<GCONST> 4.831047e+01
<STATE> 4
<MEAN> 38
 -6.841963e-09 -8.544343e-08 -8.903297e-09 -1.389685e-07 -5.238905e-08 5.669132e-08 -3.369721e-08 -1.341750e-07 -5.757052e-08 3.852167e-09 -7.400170e-08 -7.038775e-08 -4.913395e-08 -2.603449e-08 -3.974521e-09 2.786761e-08 -2.039894e-08 -3.089388e-09 6.285333e-09 -3.808419e-04 -5.963924e-04 -1.038489e-03 -1.918809e-03 -1.079902e-03 -1.469816e-03 -9.992669e-04 -9.932166e-04 -1.146261e-03 -7.566527e-04 -1.077722e-03 -6.425015e-04 -5.764425e-04 -5.768837e-04 -3.056234e-04 -6.176391e-04 -4.565527e-04 -6.649639e-04 -7.613047e-04
<VARIANCE> 38
 6.315313e+01 1.757056e+01 6.290810e+00 7.155922e+00 6.050740e+00 4.631410e+00 3.949157e+00 3.066458e+00 2.696067e+00 3.230795e+00 2.531634e+00 2.300139e+00 1.611309e+00 1.276684e+00 1.569586e+00 1.128306e+00 1.239739e+00 9.018868e-01 8.261204e-01 2.050822e+00 4.500204e-01 1.929007e-01 2.572328e-01 1.624664e-01 1.582450e-01 1.092633e-01 9.128601e-02 1.069283e-01 9.381980e-02 1.006165e-01 6.893553e-02 5.230568e-02 4.867543e-02 4.448727e-02 4.515548e-02 3.670647e-02 3.184564e-02 3.161120e-02
<GCONST> 4.831047e+01
<TRANSP> 5
 0.000000e+00 1.000000e+00 0.000000e+00 0.000000e+00 0.000000e+00
 0.000000e+00 5.000000e-01 5.000000e-01 0.000000e+00 0.000000e+00
 0.000000e+00 0.000000e+00 5.000000e-01 5.000000e-01 0.000000e+00
 0.000000e+00 0.000000e+00 0.000000e+00 5.000000e-01 5.000000e-01
 0.000000e+00 0.000000e+00 0.000000e+00 0.000000e+00 0.000000e+00
<ENDHMM>
