~o
<STREAMINFO> 1 6
<VECSIZE> 6<NULLD><USER><DIAGC>
~h "proto"
<BEGINHMM>
<NUMSTATES> 12
<STATE> 2
<MEAN> 6
 3.575876e-01 2.699603e-01 3.032380e-02 -2.075782e-03 -2.260764e-02 -8.747234e-03
<VARIANCE> 6
 5.829339e-03 5.157112e-03 6.417381e-04 1.832132e-04 9.253664e-04 4.319681e-04
<GCONST> -3.007364e+01
<STATE> 3
<MEAN> 6
 4.056602e-01 2.378207e-01 -1.482052e-02 -4.147333e-02 1.208224e-03 -1.031970e-02
<VARIANCE> 6
 2.552770e-03 4.482827e-03 3.857017e-04 4.159787e-04 2.158912e-03 1.432458e-03
<GCONST> -2.868265e+01
<STATE> 4
<MEAN> 6
 3.811804e-01 1.399646e-01 2.295745e-02 -1.579057e-02 1.936761e-02 2.367208e-02
<VARIANCE> 6
 2.068140e-03 3.978141e-03 4.073252e-04 3.086797e-04 5.298966e-04 7.904926e-04
<GCONST> -3.125557e+01
<STATE> 5
<MEAN> 6
 4.545905e-01 1.904920e-01 2.044214e-02 2.098034e-02 -1.328348e-02 -5.085711e-03
<VARIANCE> 6
 1.475265e-03 5.433494e-03 3.565618e-04 2.620633e-04 3.335001e-04 1.348406e-03
<GCONST> -3.150745e+01
<STATE> 6
<MEAN> 6
 4.961224e-01 1.719057e-01 2.678747e-02 -2.023773e-02 2.069348e-02 1.707967e-03
<VARIANCE> 6
 1.633707e-03 5.266136e-03 4.711266e-04 1.773858e-04 6.231361e-04 9.299110e-04
<GCONST> -3.129484e+01
<STATE> 7
<MEAN> 6
 5.774676e-01 1.649327e-01 2.990608e-02 3.575640e-02 -3.688634e-02 4.098338e-02
<VARIANCE> 6
 2.728645e-03 5.175035e-03 7.743755e-04 9.121330e-04 1.119474e-03 1.691677e-03
<GCONST> -2.748071e+01
<STATE> 8
<MEAN> 6
 5.542032e-01 2.747433e-01 -2.795873e-02 3.989295e-02 5.180105e-03 -2.939382e-02
<VARIANCE> 6
 3.615837e-03 4.497472e-03 3.468139e-04 6.234766e-04 2.835998e-03 6.079808e-04
<GCONST> -2.861706e+01
<STATE> 9
<MEAN> 6
 5.701324e-01 3.042520e-01 5.808657e-02 7.017481e-03 3.616273e-02 -4.705571e-03
<VARIANCE> 6
 5.167759e-03 6.644324e-03 1.433228e-03 6.327096e-05 3.160147e-03 1.895070e-04
<GCONST> -2.979618e+01
<STATE> 10
<MEAN> 6
 7.093191e-01 3.113129e-01 4.149386e-02 -2.297919e-02 -5.213888e-02 -3.134216e-02
<VARIANCE> 6
 4.798367e-03 4.278263e-03 1.769914e-03 5.086468e-04 1.715033e-03 5.166944e-04
<GCONST> -2.762339e+01
<STATE> 11
<MEAN> 6
 6.990668e-01 2.366872e-01 -1.041990e-02 -5.390652e-03 -4.134266e-03 3.379133e-02
<VARIANCE> 6
 5.983472e-03 5.666454e-03 7.964807e-04 1.294557e-03 2.160338e-03 1.326221e-03
<GCONST> -2.581249e+01
<TRANSP> 12
 0.000000e+00 1.000000e+00 0.000000e+00 0.000000e+00 0.000000e+00 0.000000e+00 0.000000e+00 0.000000e+00 0.000000e+00 0.000000e+00 0.000000e+00 0.000000e+00
 0.000000e+00 8.537188e-01 1.462812e-01 0.000000e+00 0.000000e+00 0.000000e+00 0.000000e+00 0.000000e+00 0.000000e+00 0.000000e+00 0.000000e+00 0.000000e+00
 0.000000e+00 0.000000e+00 8.472317e-01 1.527683e-01 0.000000e+00 0.000000e+00 0.000000e+00 0.000000e+00 0.000000e+00 0.000000e+00 0.000000e+00 0.000000e+00
 0.000000e+00 0.000000e+00 0.000000e+00 8.494949e-01 1.505051e-01 0.000000e+00 0.000000e+00 0.000000e+00 0.000000e+00 0.000000e+00 0.000000e+00 0.000000e+00
 0.000000e+00 0.000000e+00 0.000000e+00 0.000000e+00 8.822255e-01 1.177745e-01 0.000000e+00 0.000000e+00 0.000000e+00 0.000000e+00 0.000000e+00 0.000000e+00
 0.000000e+00 0.000000e+00 0.000000e+00 0.000000e+00 0.000000e+00 8.513123e-01 1.486877e-01 0.000000e+00 0.000000e+00 0.000000e+00 0.000000e+00 0.000000e+00
 0.000000e+00 0.000000e+00 0.000000e+00 0.000000e+00 0.000000e+00 0.000000e+00 8.297842e-01 1.702158e-01 0.000000e+00 0.000000e+00 0.000000e+00 0.000000e+00
 0.000000e+00 0.000000e+00 0.000000e+00 0.000000e+00 0.000000e+00 0.000000e+00 0.000000e+00 8.395999e-01 1.604001e-01 0.000000e+00 0.000000e+00 0.000000e+00
 0.000000e+00 0.000000e+00 0.000000e+00 0.000000e+00 0.000000e+00 0.000000e+00 0.000000e+00 0.000000e+00 8.727002e-01 1.272998e-01 0.000000e+00 0.000000e+00
 0.000000e+00 0.000000e+00 0.000000e+00 0.000000e+00 0.000000e+00 0.000000e+00 0.000000e+00 0.000000e+00 0.000000e+00 8.183526e-01 1.816474e-01 0.000000e+00
 0.000000e+00 0.000000e+00 0.000000e+00 0.000000e+00 0.000000e+00 0.000000e+00 0.000000e+00 0.000000e+00 0.000000e+00 0.000000e+00 8.769615e-01 1.230386e-01
 0.000000e+00 0.000000e+00 0.000000e+00 0.000000e+00 0.000000e+00 0.000000e+00 0.000000e+00 0.000000e+00 0.000000e+00 0.000000e+00 0.000000e+00 0.000000e+00
<ENDHMM>
