~o
<STREAMINFO> 1 7
<VECSIZE> 7<NULLD><USER><DIAGC>
~h "proto"
<BEGINHMM>
<NUMSTATES> 12
<STATE> 2
<MEAN> 7
 3.739886e-01 2.383979e-01 3.576887e-02 -2.693103e-03 -2.011682e-02 -3.607329e-03 -1.646894e+01
<VARIANCE> 7
 3.906623e-03 7.165518e-03 6.222622e-04 2.343347e-04 9.142298e-04 3.612521e-04 2.523185e+03
<GCONST> -2.044941e+01
<STATE> 3
<MEAN> 7
 4.297356e-01 2.550588e-01 2.812443e-03 -1.848194e-02 -6.158272e-02 -4.357707e-02 -1.329111e+03
<VARIANCE> 7
 3.248231e-03 5.948254e-03 3.923248e-04 3.494046e-04 1.216430e-03 8.423211e-04 3.961552e+07
<GCONST> -1.008832e+01
<STATE> 4
<MEAN> 7
 4.177139e-01 1.760475e-01 1.045082e-02 -9.161945e-03 5.018043e-03 8.410284e-03 1.723702e+00
<VARIANCE> 7
 3.664697e-03 6.878221e-03 7.719788e-04 1.000792e-03 8.984206e-04 9.360214e-04 4.856765e+02
<GCONST> -1.959998e+01
<STATE> 5
<MEAN> 7
 4.822368e-01 1.907555e-01 9.633620e-03 4.303753e-03 -6.130650e-03 -4.015659e-02 -1.629784e+03
<VARIANCE> 7
 2.171157e-03 5.771487e-03 1.665895e-04 4.513135e-04 9.927826e-04 2.042456e-03 9.099254e+07
<GCONST> -9.607821e+00
<STATE> 6
<MEAN> 7
 5.506423e-01 1.894860e-01 1.617938e-02 1.748230e-02 -1.007266e-02 1.006230e-02 8.220777e+00
<VARIANCE> 7
 4.273013e-03 7.140476e-03 1.333824e-03 1.543941e-03 1.856626e-03 1.859913e-03 2.956718e+02
<GCONST> -1.751236e+01
<STATE> 7
<MEAN> 7
 5.502263e-01 2.791607e-01 -3.288104e-02 2.903629e-02 3.150051e-02 -3.845041e-02 2.249240e+01
<VARIANCE> 7
 3.046748e-03 5.814769e-03 5.836835e-04 4.270363e-04 8.421108e-04 7.780034e-04 2.858191e+02
<GCONST> -2.186371e+01
<STATE> 8
<MEAN> 7
 5.415156e-01 2.850692e-01 -1.836353e-02 1.825453e-02 6.923116e-02 -3.467701e-02 9.586062e+01
<VARIANCE> 7
 3.085613e-03 5.889955e-03 3.706810e-04 1.732776e-04 3.388943e-03 7.730639e-04 1.212516e+04
<GCONST> -1.806050e+01
<STATE> 9
<MEAN> 7
 5.381871e-01 2.891520e-01 7.554580e-03 9.332069e-03 9.159835e-02 -2.540160e-02 3.547939e+03
<VARIANCE> 7
 2.903884e-03 5.916722e-03 8.275716e-04 8.805902e-05 3.894400e-03 7.717219e-04 5.608652e+08
<GCONST> -7.111170e+00
<STATE> 10
<MEAN> 7
 6.171336e-01 2.952795e-01 6.955222e-02 4.168528e-03 1.369893e-02 -8.622900e-03 -2.675068e+01
<VARIANCE> 7
 5.647117e-03 5.831278e-03 1.329955e-03 8.568785e-05 4.447918e-03 3.533219e-04 2.657329e+04
<GCONST> -1.661919e+01
<STATE> 11
<MEAN> 7
 7.156436e-01 2.489638e-01 3.362101e-03 -1.428500e-02 -1.901010e-02 1.372471e-02 -1.228593e+01
<VARIANCE> 7
 5.436279e-03 7.082652e-03 1.330264e-03 1.099423e-03 2.639423e-03 2.164129e-03 2.749765e+03
<GCONST> -1.488864e+01
<TRANSP> 12
 0.000000e+00 1.000000e+00 0.000000e+00 0.000000e+00 0.000000e+00 0.000000e+00 0.000000e+00 0.000000e+00 0.000000e+00 0.000000e+00 0.000000e+00 0.000000e+00
 0.000000e+00 8.264965e-01 1.735034e-01 0.000000e+00 0.000000e+00 0.000000e+00 0.000000e+00 0.000000e+00 0.000000e+00 0.000000e+00 0.000000e+00 0.000000e+00
 0.000000e+00 0.000000e+00 4.440427e-01 5.559573e-01 0.000000e+00 0.000000e+00 0.000000e+00 0.000000e+00 0.000000e+00 0.000000e+00 0.000000e+00 0.000000e+00
 0.000000e+00 0.000000e+00 0.000000e+00 9.483445e-01 5.165557e-02 0.000000e+00 0.000000e+00 0.000000e+00 0.000000e+00 0.000000e+00 0.000000e+00 0.000000e+00
 0.000000e+00 0.000000e+00 0.000000e+00 0.000000e+00 5.227765e-01 4.772235e-01 0.000000e+00 0.000000e+00 0.000000e+00 0.000000e+00 0.000000e+00 0.000000e+00
 0.000000e+00 0.000000e+00 0.000000e+00 0.000000e+00 0.000000e+00 9.370919e-01 6.290811e-02 0.000000e+00 0.000000e+00 0.000000e+00 0.000000e+00 0.000000e+00
 0.000000e+00 0.000000e+00 0.000000e+00 0.000000e+00 0.000000e+00 0.000000e+00 0.000000e+00 1.000000e+00 0.000000e+00 0.000000e+00 0.000000e+00 0.000000e+00
 0.000000e+00 0.000000e+00 0.000000e+00 0.000000e+00 0.000000e+00 0.000000e+00 0.000000e+00 0.000000e+00 1.000000e+00 0.000000e+00 0.000000e+00 0.000000e+00
 0.000000e+00 0.000000e+00 0.000000e+00 0.000000e+00 0.000000e+00 0.000000e+00 0.000000e+00 0.000000e+00 0.000000e+00 1.000000e+00 0.000000e+00 0.000000e+00
 0.000000e+00 0.000000e+00 0.000000e+00 0.000000e+00 0.000000e+00 0.000000e+00 0.000000e+00 0.000000e+00 0.000000e+00 8.680243e-01 1.319757e-01 0.000000e+00
 0.000000e+00 0.000000e+00 0.000000e+00 0.000000e+00 0.000000e+00 0.000000e+00 0.000000e+00 0.000000e+00 0.000000e+00 0.000000e+00 9.110577e-01 8.894236e-02
 0.000000e+00 0.000000e+00 0.000000e+00 0.000000e+00 0.000000e+00 0.000000e+00 0.000000e+00 0.000000e+00 0.000000e+00 0.000000e+00 0.000000e+00 0.000000e+00
<ENDHMM>
