~o
<STREAMINFO> 1 38
<VECSIZE> 38<NULLD><USER><DIAGC>
~h "proto"
<BEGINHMM>
<NUMSTATES> 5
<STATE> 2
<MEAN> 38
 -6.841963e-09 -8.544343e-08 -8.903297e-09 -1.389685e-07 -5.238905e-08 5.669132e-08 -3.369721e-08 -1.341750e-07 -5.757052e-08 3.852167e-09 -7.400170e-08 -7.038775e-08 -4.913395e-08 -2.603449e-08 -3.974521e-09 2.786761e-08 -2.039894e-08 -3.089388e-09 6.285333e-09 -3.808419e-04 -5.963924e-04 -1.038489e-03 -1.918809e-03 -1.079902e-03 -1.469816e-03 -9.992669e-04 -9.932166e-04 -1.146261e-03 -7.566527e-04 -1.077722e-03 -6.425015e-04 -5.764425e-04 -5.768837e-04 -3.056234e-04 -6.176391e-04 -4.565527e-04 -6.649639e-04 -7.613047e-04
<VARIANCE> 38
 6.315313e+01 1.757056e+01 6.290810e+00 7.155922e+00 6.050740e+00 4.631410e+00 3.949157e+00 3.066458e+00 2.696067e+00 3.230795e+00 2.531634e+00 2.300139e+00 1.611309e+00 1.276684e+00 1.569586e+00 1.128306e+00 1.239739e+00 9.018868e-01 8.261204e-01 2.050822e+00 4.500204e-01 1.929007e-01 2.572328e-01 1.624664e-01 1.582450e-01 1.092633e-01 9.128601e-02 1.069283e-01 9.381980e-02 1.006165e-01 6.893553e-02 5.230568e-02 4.867543e-02 4.448727e-02 4.515548e-02 3.670647e-02 3.184564e-02 3.161120e-02
<GCONST> 4.831047e+01
<STATE> 3
<MEAN> 38
 -6.841963e-09 -8.544343e-08 -8.903297e-09 -1.389685e-07 -5.238905e-08 5.669132e-08 -3.369721e-08 -1.341750e-07 -5.757052e-08 3.852167e-09 -7.400170e-08 -7.038775e-08 -4.913395e-08 -2.603449e-08 -3.974521e-09 2.786761e-08 -2.039894e-08 -3.089388e-09 6.285333e-09 -3.808419e-04 -5.963924e-04 -1.038489e-03 -1.918809e-03 -1.079902e-03 -1.469816e-03 -9.992669e-04 -9.932166e-04 -1.146261e-03 -7.566527e-04 -1.077722e-03 -6.425015e-04 -5.764425e-04 -5.768837e-04 -3.056234e-04 -6.176391e-04 -4.565527e-04 -6.649639e-04 -7.613047e-04
<VARIANCE> 38
 6.315313e+01 1.757056e+01 6.290810e+00 7.155922e+00 6.050740e+00 4.631410e+00 3.949157e+00 3.066458e+00 2.696067e+00 3.230795e+00 2.531634e+00 2.300139e+00 1.611309e+00 1.276684e+00 1.569586e+00 1.128306e+00 1.239739e+00 9.018868e-01 8.261204e-01 2.050822e+00 4.500204e-01 1.929007e-01 2.572328e-01 1.624664e-01 1.582450e-01 1.092633e-01 9.128601e-02 1.069283e-01 9.381980e-02 1.006165e-01 6.893553e-02 5.230568e-02 4.867543e-02 4.448727e-02 4.515548e-02 3.670647e-02 3.184564e-02 3.161120e-02
<GCONST> 4.831047e+01
<STATE> 4
<MEAN> 38
 -6.841963e-09 -8.544343e-08 -8.903297e-09 -1.389685e-07 -5.238905e-08 5.669132e-08 -3.369721e-08 -1.341750e-07 -5.757052e-08 3.852167e-09 -7.400170e-08 -7.038775e-08 -4.913395e-08 -2.603449e-08 -3.974521e-09 2.786761e-08 -2.039894e-08 -3.089388e-09 6.285333e-09 -3.808419e-04 -5.963924e-04 -1.038489e-03 -1.918809e-03 -1.079902e-03 -1.469816e-03 -9.992669e-04 -9.932166e-04 -1.146261e-03 -7.566527e-04 -1.077722e-03 -6.425015e-04 -5.764425e-04 -5.768837e-04 -3.056234e-04 -6.176391e-04 -4.565527e-04 -6.649639e-04 -7.613047e-04
<VARIANCE> 38
 6.315313e+01 1.757056e+01 6.290810e+00 7.155922e+00 6.050740e+00 4.631410e+00 3.949157e+00 3.066458e+00 2.696067e+00 3.230795e+00 2.531634e+00 2.300139e+00 1.611309e+00 1.276684e+00 1.569586e+00 1.128306e+00 1.239739e+00 9.018868e-01 8.261204e-01 2.050822e+00 4.500204e-01 1.929007e-01 2.572328e-01 1.624664e-01 1.582450e-01 1.092633e-01 9.128601e-02 1.069283e-01 9.381980e-02 1.006165e-01 6.893553e-02 5.230568e-02 4.867543e-02 4.448727e-02 4.515548e-02 3.670647e-02 3.184564e-02 3.161120e-02
<GCONST> 4.831047e+01
<TRANSP> 5
 0.000000e+00 1.000000e+00 0.000000e+00 0.000000e+00 0.000000e+00
 0.000000e+00 5.000000e-01 5.000000e-01 0.000000e+00 0.000000e+00
 0.000000e+00 0.000000e+00 5.000000e-01 5.000000e-01 0.000000e+00
 0.000000e+00 0.000000e+00 0.000000e+00 5.000000e-01 5.000000e-01
 0.000000e+00 0.000000e+00 0.000000e+00 0.000000e+00 0.000000e+00
<ENDHMM>
