~o
<STREAMINFO> 1 7
<VECSIZE> 7<NULLD><USER><DIAGC>
~h "proto"
<BEGINHMM>
<NUMSTATES> 12
<STATE> 2
<MEAN> 7
 4.223305e-01 2.297831e-01 1.137995e-02 2.074035e-02 -1.768507e-02 6.625505e-03 1.080442e+01
<VARIANCE> 7
 3.080314e-03 6.378605e-03 4.052483e-04 3.882812e-04 6.119809e-04 6.477461e-04 8.918864e+02
<GCONST> -2.158467e+01
<STATE> 3
<MEAN> 7
 3.888083e-01 2.923234e-01 -3.083812e-02 -1.095800e-02 1.077121e-03 -3.057724e-02 1.481172e+01
<VARIANCE> 7
 3.918615e-03 7.668768e-03 2.169615e-04 7.776670e-04 1.415828e-03 5.848703e-04 2.491417e+02
<GCONST> -2.162862e+01
<STATE> 4
<MEAN> 7
 3.348480e-01 1.806710e-01 5.242316e-03 -4.450493e-02 2.484751e-02 -2.482346e-03 1.795351e+00
<VARIANCE> 7
 3.351777e-03 6.716552e-03 5.976232e-04 5.113729e-04 1.174745e-03 6.785043e-04 1.742619e+01
<GCONST> -2.402162e+01
<STATE> 5
<MEAN> 7
 3.972160e-01 1.317157e-01 7.461155e-02 -5.337495e-02 4.961851e-02 3.395231e-02 1.433960e+00
<VARIANCE> 7
 3.883359e-03 5.684135e-03 1.883580e-03 1.034193e-03 1.343588e-03 2.252791e-03 2.975435e+00
<GCONST> -2.262232e+01
<STATE> 6
<MEAN> 7
 4.991957e-01 6.882871e-02 6.004211e-02 8.212019e-03 -9.217151e-03 2.846717e-02 6.789388e+00
<VARIANCE> 7
 5.541173e-03 7.978135e-03 1.167011e-03 4.922263e-04 8.738259e-04 8.784301e-04 3.837003e+01
<GCONST> -2.196407e+01
<STATE> 7
<MEAN> 7
 6.309279e-01 1.588385e-01 3.993931e-02 6.911959e-02 -7.103314e-02 1.689424e-02 3.593423e+00
<VARIANCE> 7
 4.742132e-03 6.400388e-03 2.567641e-03 1.135209e-03 4.909828e-03 3.877978e-03 5.626122e+01
<GCONST> -1.712218e+01
<STATE> 8
<MEAN> 7
 6.158873e-01 2.030468e-01 -1.282771e-02 4.322195e-02 -2.965290e-02 -2.045820e-02 -6.958339e-01
<VARIANCE> 7
 4.566776e-03 8.026148e-03 7.102879e-04 3.351939e-04 3.117452e-04 8.070967e-04 3.415010e+01
<GCONST> -2.426413e+01
<STATE> 9
<MEAN> 7
 5.560414e-01 2.687882e-01 -3.933981e-02 -1.214723e-02 1.671280e-02 -3.904067e-02 2.325319e+01
<VARIANCE> 7
 3.863367e-03 6.630933e-03 3.666528e-04 6.465577e-04 7.746885e-04 7.822250e-04 4.489691e+02
<GCONST> -2.117149e+01
<STATE> 10
<MEAN> 7
 5.091451e-01 1.878380e-01 -8.738263e-03 -2.723429e-02 1.317201e-03 8.195650e-03 6.424034e+00
<VARIANCE> 7
 4.358223e-03 6.496126e-03 5.381922e-04 3.064707e-04 1.020711e-03 2.712582e-04 3.543904e+02
<GCONST> -2.245408e+01
<STATE> 11
<MEAN> 7
 5.006009e-01 1.368590e-01 -4.401907e-02 -7.434852e-03 -3.377022e-02 9.613709e-03 1.122017e+02
<VARIANCE> 7
 6.907306e-03 7.127678e-03 1.216073e-03 1.015449e-04 1.990830e-03 2.315467e-04 5.030900e+05
<GCONST> -1.442235e+01
<TRANSP> 12
 0.000000e+00 1.000000e+00 0.000000e+00 0.000000e+00 0.000000e+00 0.000000e+00 0.000000e+00 0.000000e+00 0.000000e+00 0.000000e+00 0.000000e+00 0.000000e+00
 0.000000e+00 8.793451e-01 1.206549e-01 0.000000e+00 0.000000e+00 0.000000e+00 0.000000e+00 0.000000e+00 0.000000e+00 0.000000e+00 0.000000e+00 0.000000e+00
 0.000000e+00 0.000000e+00 8.817405e-01 1.182595e-01 0.000000e+00 0.000000e+00 0.000000e+00 0.000000e+00 0.000000e+00 0.000000e+00 0.000000e+00 0.000000e+00
 0.000000e+00 0.000000e+00 0.000000e+00 8.774386e-01 1.225614e-01 0.000000e+00 0.000000e+00 0.000000e+00 0.000000e+00 0.000000e+00 0.000000e+00 0.000000e+00
 0.000000e+00 0.000000e+00 0.000000e+00 0.000000e+00 7.423306e-01 2.576694e-01 0.000000e+00 0.000000e+00 0.000000e+00 0.000000e+00 0.000000e+00 0.000000e+00
 0.000000e+00 0.000000e+00 0.000000e+00 0.000000e+00 0.000000e+00 8.735667e-01 1.264334e-01 0.000000e+00 0.000000e+00 0.000000e+00 0.000000e+00 0.000000e+00
 0.000000e+00 0.000000e+00 0.000000e+00 0.000000e+00 0.000000e+00 0.000000e+00 7.068663e-01 2.931337e-01 0.000000e+00 0.000000e+00 0.000000e+00 0.000000e+00
 0.000000e+00 0.000000e+00 0.000000e+00 0.000000e+00 0.000000e+00 0.000000e+00 0.000000e+00 8.420855e-01 1.579145e-01 0.000000e+00 0.000000e+00 0.000000e+00
 0.000000e+00 0.000000e+00 0.000000e+00 0.000000e+00 0.000000e+00 0.000000e+00 0.000000e+00 0.000000e+00 8.218151e-01 1.781849e-01 0.000000e+00 0.000000e+00
 0.000000e+00 0.000000e+00 0.000000e+00 0.000000e+00 0.000000e+00 0.000000e+00 0.000000e+00 0.000000e+00 0.000000e+00 8.949025e-01 1.050975e-01 0.000000e+00
 0.000000e+00 0.000000e+00 0.000000e+00 0.000000e+00 0.000000e+00 0.000000e+00 0.000000e+00 0.000000e+00 0.000000e+00 0.000000e+00 7.690583e-01 2.309418e-01
 0.000000e+00 0.000000e+00 0.000000e+00 0.000000e+00 0.000000e+00 0.000000e+00 0.000000e+00 0.000000e+00 0.000000e+00 0.000000e+00 0.000000e+00 0.000000e+00
<ENDHMM>
