~o
<STREAMINFO> 1 6
<VECSIZE> 6<NULLD><USER><DIAGC>
~h "proto"
<BEGINHMM>
<NUMSTATES> 12
<STATE> 2
<MEAN> 6
 4.181020e-01 2.344357e-01 1.561167e-02 1.924359e-02 -1.483457e-02 1.018518e-02
<VARIANCE> 6
 3.384086e-03 8.960644e-03 3.604334e-04 4.428835e-04 5.783439e-04 5.623877e-04
<GCONST> -2.996539e+01
<STATE> 3
<MEAN> 6
 3.769195e-01 3.061744e-01 -2.674538e-02 -1.226968e-02 -4.772790e-04 -2.257418e-02
<VARIANCE> 6
 5.114146e-03 9.993361e-03 1.889042e-04 7.631989e-04 1.046506e-03 2.771363e-04
<GCONST> -2.965988e+01
<STATE> 4
<MEAN> 6
 3.371079e-01 2.008435e-01 2.323607e-02 -6.525067e-02 5.018647e-02 4.971498e-05
<VARIANCE> 6
 4.465103e-03 6.446100e-03 2.088818e-03 5.716252e-04 1.753089e-03 1.951326e-03
<GCONST> -2.565229e+01
<STATE> 5
<MEAN> 6
 3.794669e-01 1.072622e-01 3.969679e-02 -2.276377e-02 1.232289e-02 1.536878e-02
<VARIANCE> 6
 5.117766e-03 1.302240e-02 1.422050e-03 3.047657e-04 2.479219e-04 9.700662e-04
<GCONST> -2.848103e+01
<STATE> 6
<MEAN> 6
 5.420581e-01 9.525511e-02 7.965938e-02 2.108560e-02 -2.364316e-02 4.381896e-02
<VARIANCE> 6
 4.492518e-03 5.842292e-03 1.016376e-03 9.004409e-04 1.813044e-03 1.145694e-03
<GCONST> -2.650934e+01
<STATE> 7
<MEAN> 6
 6.161453e-01 1.699516e-01 1.827352e-02 4.955086e-02 -3.408998e-02 3.139727e-03
<VARIANCE> 6
 4.749536e-03 1.237110e-02 5.057771e-04 5.705436e-04 1.564576e-03 3.223919e-04
<GCONST> -2.827306e+01
<STATE> 8
<MEAN> 6
 6.334314e-01 2.588600e-01 -4.512482e-02 2.972727e-02 -2.634692e-02 -5.155011e-02
<VARIANCE> 6
 5.729394e-03 5.394751e-03 7.281812e-04 1.657851e-03 2.900215e-03 1.942451e-03
<GCONST> -2.507118e+01
<STATE> 9
<MEAN> 6
 5.446569e-01 2.714762e-01 -3.189733e-02 -9.615423e-03 1.346141e-02 -2.626412e-02
<VARIANCE> 6
 2.527395e-03 1.188028e-02 1.840695e-04 6.552495e-04 5.975385e-04 2.427617e-04
<GCONST> -3.106299e+01
<STATE> 10
<MEAN> 6
 5.193067e-01 2.057086e-01 1.015165e-03 -3.342542e-02 -5.292547e-04 1.286522e-02
<VARIANCE> 6
 2.994244e-03 9.297306e-03 3.538391e-04 1.968391e-04 1.586604e-03 2.976378e-04
<GCONST> -3.050742e+01
<STATE> 11
<MEAN> 6
 4.770677e-01 1.644204e-01 -4.554283e-02 -5.452022e-03 -2.197911e-02 6.028817e-03
<VARIANCE> 6
 6.536697e-03 1.107322e-02 8.564221e-04 7.553625e-05 1.409939e-03 1.653106e-04
<GCONST> -3.033183e+01
<TRANSP> 12
 0.000000e+00 1.000000e+00 0.000000e+00 0.000000e+00 0.000000e+00 0.000000e+00 0.000000e+00 0.000000e+00 0.000000e+00 0.000000e+00 0.000000e+00 0.000000e+00
 0.000000e+00 8.822197e-01 1.177803e-01 0.000000e+00 0.000000e+00 0.000000e+00 0.000000e+00 0.000000e+00 0.000000e+00 0.000000e+00 0.000000e+00 0.000000e+00
 0.000000e+00 0.000000e+00 9.121217e-01 8.787837e-02 0.000000e+00 0.000000e+00 0.000000e+00 0.000000e+00 0.000000e+00 0.000000e+00 0.000000e+00 0.000000e+00
 0.000000e+00 0.000000e+00 0.000000e+00 8.222063e-01 1.777937e-01 0.000000e+00 0.000000e+00 0.000000e+00 0.000000e+00 0.000000e+00 0.000000e+00 0.000000e+00
 0.000000e+00 0.000000e+00 0.000000e+00 0.000000e+00 8.824001e-01 1.175999e-01 0.000000e+00 0.000000e+00 0.000000e+00 0.000000e+00 0.000000e+00 0.000000e+00
 0.000000e+00 0.000000e+00 0.000000e+00 0.000000e+00 0.000000e+00 8.182439e-01 1.817562e-01 0.000000e+00 0.000000e+00 0.000000e+00 0.000000e+00 0.000000e+00
 0.000000e+00 0.000000e+00 0.000000e+00 0.000000e+00 0.000000e+00 0.000000e+00 8.576028e-01 1.423972e-01 0.000000e+00 0.000000e+00 0.000000e+00 0.000000e+00
 0.000000e+00 0.000000e+00 0.000000e+00 0.000000e+00 0.000000e+00 0.000000e+00 0.000000e+00 7.570293e-01 2.429707e-01 0.000000e+00 0.000000e+00 0.000000e+00
 0.000000e+00 0.000000e+00 0.000000e+00 0.000000e+00 0.000000e+00 0.000000e+00 0.000000e+00 0.000000e+00 8.360468e-01 1.639533e-01 0.000000e+00 0.000000e+00
 0.000000e+00 0.000000e+00 0.000000e+00 0.000000e+00 0.000000e+00 0.000000e+00 0.000000e+00 0.000000e+00 0.000000e+00 8.617063e-01 1.382937e-01 0.000000e+00
 0.000000e+00 0.000000e+00 0.000000e+00 0.000000e+00 0.000000e+00 0.000000e+00 0.000000e+00 0.000000e+00 0.000000e+00 0.000000e+00 8.418012e-01 1.581988e-01
 0.000000e+00 0.000000e+00 0.000000e+00 0.000000e+00 0.000000e+00 0.000000e+00 0.000000e+00 0.000000e+00 0.000000e+00 0.000000e+00 0.000000e+00 0.000000e+00
<ENDHMM>
