~o
<STREAMINFO> 1 6
<VECSIZE> 6<NULLD><USER><DIAGC>
~h "proto"
<BEGINHMM>
<NUMSTATES> 12
<STATE> 2
<MEAN> 6
 4.113057e-01 2.601005e-01 -2.950300e-02 -5.595699e-02 2.753192e-02 -1.702651e-02
<VARIANCE> 6
 3.568738e-03 4.284766e-03 4.129993e-04 6.313146e-04 9.988446e-04 1.254344e-03
<GCONST> -2.881079e+01
<STATE> 3
<MEAN> 6
 3.530963e-01 1.739930e-01 2.145128e-02 -2.407530e-02 2.495270e-02 2.979932e-02
<VARIANCE> 6
 7.656278e-03 2.894161e-03 8.571961e-04 9.202497e-04 1.377573e-03 1.513038e-03
<GCONST> -2.682380e+01
<STATE> 4
<MEAN> 6
 4.649931e-01 1.820923e-01 2.429515e-02 4.817162e-04 9.020363e-04 1.930872e-03
<VARIANCE> 6
 1.300804e-03 1.972800e-03 2.681235e-04 5.667156e-04 5.277446e-04 1.375300e-03
<GCONST> -3.168151e+01
<STATE> 5
<MEAN> 6
 5.618192e-01 1.623516e-01 3.225670e-02 9.399973e-03 -1.102160e-02 2.563481e-02
<VARIANCE> 6
 2.213648e-03 3.438953e-03 4.565522e-04 6.461271e-04 9.301705e-04 1.867007e-03
<GCONST> -2.905832e+01
<STATE> 6
<MEAN> 6
 5.661969e-01 2.437753e-01 -3.474303e-02 6.679790e-02 -6.130978e-02 -2.943752e-03
<VARIANCE> 6
 4.241015e-03 4.462332e-03 1.796243e-03 4.486864e-04 1.756064e-03 2.468806e-03
<GCONST> -2.622772e+01
<STATE> 7
<MEAN> 6
 4.779471e-01 3.081545e-01 -4.939641e-02 1.762462e-02 1.888904e-02 -2.302198e-02
<VARIANCE> 6
 3.690018e-03 3.812537e-03 7.031443e-04 2.670326e-04 9.692144e-04 3.738375e-04
<GCONST> -3.046312e+01
<STATE> 8
<MEAN> 6
 4.296558e-01 3.176479e-01 3.907152e-02 4.085410e-03 8.958816e-02 3.361488e-03
<VARIANCE> 6
 4.336146e-03 4.739695e-03 3.463619e-03 1.140310e-04 3.628685e-03 2.408545e-04
<GCONST> -2.845997e+01
<STATE> 9
<MEAN> 6
 5.779851e-01 3.334567e-01 1.044667e-01 8.579236e-03 -1.661447e-02 -1.086025e-02
<VARIANCE> 6
 4.637199e-03 4.095028e-03 1.468088e-03 1.097208e-04 2.330512e-03 2.073141e-04
<GCONST> -3.002867e+01
<STATE> 10
<MEAN> 6
 6.863692e-01 3.247052e-01 4.550125e-02 -2.989768e-02 -6.686980e-02 -3.263376e-02
<VARIANCE> 6
 6.389658e-03 4.321150e-03 1.694901e-03 4.209610e-04 1.568895e-03 5.478602e-04
<GCONST> -2.759002e+01
<STATE> 11
<MEAN> 6
 6.796209e-01 2.571466e-01 -1.419460e-02 -5.927289e-03 -4.317035e-03 4.315300e-02
<VARIANCE> 6
 5.792179e-03 5.481002e-03 9.465555e-04 1.465802e-03 2.898063e-03 1.480588e-03
<GCONST> -2.517751e+01
<TRANSP> 12
 0.000000e+00 1.000000e+00 0.000000e+00 0.000000e+00 0.000000e+00 0.000000e+00 0.000000e+00 0.000000e+00 0.000000e+00 0.000000e+00 0.000000e+00 0.000000e+00
 0.000000e+00 7.884541e-01 2.115459e-01 0.000000e+00 0.000000e+00 0.000000e+00 0.000000e+00 0.000000e+00 0.000000e+00 0.000000e+00 0.000000e+00 0.000000e+00
 0.000000e+00 0.000000e+00 8.351876e-01 1.648124e-01 0.000000e+00 0.000000e+00 0.000000e+00 0.000000e+00 0.000000e+00 0.000000e+00 0.000000e+00 0.000000e+00
 0.000000e+00 0.000000e+00 0.000000e+00 9.013484e-01 9.865164e-02 0.000000e+00 0.000000e+00 0.000000e+00 0.000000e+00 0.000000e+00 0.000000e+00 0.000000e+00
 0.000000e+00 0.000000e+00 0.000000e+00 0.000000e+00 8.653775e-01 1.346225e-01 0.000000e+00 0.000000e+00 0.000000e+00 0.000000e+00 0.000000e+00 0.000000e+00
 0.000000e+00 0.000000e+00 0.000000e+00 0.000000e+00 0.000000e+00 8.041764e-01 1.958236e-01 0.000000e+00 0.000000e+00 0.000000e+00 0.000000e+00 0.000000e+00
 0.000000e+00 0.000000e+00 0.000000e+00 0.000000e+00 0.000000e+00 0.000000e+00 8.306568e-01 1.693433e-01 0.000000e+00 0.000000e+00 0.000000e+00 0.000000e+00
 0.000000e+00 0.000000e+00 0.000000e+00 0.000000e+00 0.000000e+00 0.000000e+00 0.000000e+00 8.313111e-01 1.686889e-01 0.000000e+00 0.000000e+00 0.000000e+00
 0.000000e+00 0.000000e+00 0.000000e+00 0.000000e+00 0.000000e+00 0.000000e+00 0.000000e+00 0.000000e+00 7.753512e-01 2.246489e-01 0.000000e+00 0.000000e+00
 0.000000e+00 0.000000e+00 0.000000e+00 0.000000e+00 0.000000e+00 0.000000e+00 0.000000e+00 0.000000e+00 0.000000e+00 7.974625e-01 2.025375e-01 0.000000e+00
 0.000000e+00 0.000000e+00 0.000000e+00 0.000000e+00 0.000000e+00 0.000000e+00 0.000000e+00 0.000000e+00 0.000000e+00 0.000000e+00 8.577925e-01 1.422075e-01
 0.000000e+00 0.000000e+00 0.000000e+00 0.000000e+00 0.000000e+00 0.000000e+00 0.000000e+00 0.000000e+00 0.000000e+00 0.000000e+00 0.000000e+00 0.000000e+00
<ENDHMM>
