~o
<STREAMINFO> 1 7
<VECSIZE> 7<NULLD><USER><DIAGC>
~h "proto"
<BEGINHMM>
<NUMSTATES> 12
<STATE> 2
<MEAN> 7
 3.948504e-01 2.238960e-01 -9.818925e-03 -4.909569e-02 3.100070e-02 5.851484e-03 -1.337038e-02
<VARIANCE> 7
 4.640388e-03 5.667053e-03 9.183661e-04 5.571681e-04 1.019520e-03 1.866230e-03 1.112397e+02
<GCONST> -2.062703e+01
<STATE> 3
<MEAN> 7
 4.065503e-01 1.515764e-01 2.821250e-02 1.095245e-02 -7.780265e-03 1.959082e-02 1.273453e+01
<VARIANCE> 7
 8.611712e-03 3.692483e-03 5.456733e-04 4.194565e-04 4.842432e-04 9.901186e-04 6.051265e+02
<GCONST> -2.092616e+01
<STATE> 4
<MEAN> 7
 5.036802e-01 1.793478e-01 2.853416e-02 -5.518294e-03 3.883031e-03 3.685749e-05 -8.314921e+00
<VARIANCE> 7
 3.604127e-03 2.174328e-03 3.489155e-04 4.261360e-04 6.427637e-04 1.808182e-03 5.981828e+03
<GCONST> -1.958169e+01
<STATE> 5
<MEAN> 7
 5.383202e-01 1.773013e-01 2.723163e-02 2.673790e-02 -4.416776e-02 5.082691e-02 -2.517275e+03
<VARIANCE> 7
 4.967771e-03 2.785336e-03 5.572038e-04 4.079312e-04 1.688418e-03 4.784888e-03 1.381625e+08
<GCONST> -6.602339e+00
<STATE> 6
<MEAN> 7
 5.345510e-01 2.298075e-01 -2.340608e-02 4.108842e-02 -2.709903e-02 -3.985540e-03 6.679765e+00
<VARIANCE> 7
 5.547347e-03 5.388599e-03 2.196736e-03 1.206748e-03 2.303995e-03 1.721274e-03 1.496120e+02
<GCONST> -1.782313e+01
<STATE> 7
<MEAN> 7
 4.402109e-01 3.220816e-01 -3.753708e-02 9.211428e-03 3.455649e-02 -1.412543e-02 1.241460e+01
<VARIANCE> 7
 3.867543e-03 3.250886e-03 3.788487e-04 1.885831e-04 1.848027e-03 2.251411e-04 1.508098e+03
<GCONST> -2.224699e+01
<STATE> 8
<MEAN> 7
 4.152758e-01 3.137982e-01 4.736909e-03 2.139925e-03 1.122232e-01 -1.412471e-03 2.403625e+03
<VARIANCE> 7
 6.139893e-03 4.949911e-03 1.416753e-04 1.290458e-04 4.879811e-03 2.807600e-04 1.723546e+08
<GCONST> -9.889105e+00
<STATE> 9
<MEAN> 7
 4.227633e-01 3.143522e-01 4.062274e-02 3.072809e-03 1.147801e-01 4.247188e-03 -6.673160e+00
<VARIANCE> 7
 6.025899e-03 4.962039e-03 6.355128e-04 1.073832e-04 4.774255e-03 3.232305e-04 7.458556e+02
<GCONST> -2.081980e+01
<STATE> 10
<MEAN> 7
 5.294060e-01 3.282011e-01 9.263714e-02 7.539012e-03 8.102708e-03 -6.944698e-03 -1.762164e+01
<VARIANCE> 7
 8.540086e-03 4.814030e-03 1.782281e-03 1.130990e-04 4.711780e-03 4.387351e-04 1.181099e+04
<GCONST> -1.636369e+01
<STATE> 11
<MEAN> 7
 6.731449e-01 2.857948e-01 5.749785e-03 -1.679716e-02 -2.659220e-02 1.592040e-02 -1.641216e+01
<VARIANCE> 7
 6.246703e-03 5.245661e-03 1.820409e-03 1.273902e-03 3.330422e-03 2.450663e-03 2.084202e+03
<GCONST> -1.450919e+01
<TRANSP> 12
 0.000000e+00 1.000000e+00 0.000000e+00 0.000000e+00 0.000000e+00 0.000000e+00 0.000000e+00 0.000000e+00 0.000000e+00 0.000000e+00 0.000000e+00 0.000000e+00
 0.000000e+00 8.874096e-01 1.125905e-01 0.000000e+00 0.000000e+00 0.000000e+00 0.000000e+00 0.000000e+00 0.000000e+00 0.000000e+00 0.000000e+00 0.000000e+00
 0.000000e+00 0.000000e+00 8.722315e-01 1.277684e-01 0.000000e+00 0.000000e+00 0.000000e+00 0.000000e+00 0.000000e+00 0.000000e+00 0.000000e+00 0.000000e+00
 0.000000e+00 0.000000e+00 0.000000e+00 8.788951e-01 1.211049e-01 0.000000e+00 0.000000e+00 0.000000e+00 0.000000e+00 0.000000e+00 0.000000e+00 0.000000e+00
 0.000000e+00 0.000000e+00 0.000000e+00 0.000000e+00 9.444260e-02 9.055573e-01 0.000000e+00 0.000000e+00 0.000000e+00 0.000000e+00 0.000000e+00 0.000000e+00
 0.000000e+00 0.000000e+00 0.000000e+00 0.000000e+00 0.000000e+00 9.029128e-01 9.708723e-02 0.000000e+00 0.000000e+00 0.000000e+00 0.000000e+00 0.000000e+00
 0.000000e+00 0.000000e+00 0.000000e+00 0.000000e+00 0.000000e+00 0.000000e+00 8.114610e-01 1.885390e-01 0.000000e+00 0.000000e+00 0.000000e+00 0.000000e+00
 0.000000e+00 0.000000e+00 0.000000e+00 0.000000e+00 0.000000e+00 0.000000e+00 0.000000e+00 0.000000e+00 1.000000e+00 0.000000e+00 0.000000e+00 0.000000e+00
 0.000000e+00 0.000000e+00 0.000000e+00 0.000000e+00 0.000000e+00 0.000000e+00 0.000000e+00 0.000000e+00 0.000000e+00 1.000000e+00 0.000000e+00 0.000000e+00
 0.000000e+00 0.000000e+00 0.000000e+00 0.000000e+00 0.000000e+00 0.000000e+00 0.000000e+00 0.000000e+00 0.000000e+00 8.744116e-01 1.255884e-01 0.000000e+00
 0.000000e+00 0.000000e+00 0.000000e+00 0.000000e+00 0.000000e+00 0.000000e+00 0.000000e+00 0.000000e+00 0.000000e+00 0.000000e+00 9.094490e-01 9.055095e-02
 0.000000e+00 0.000000e+00 0.000000e+00 0.000000e+00 0.000000e+00 0.000000e+00 0.000000e+00 0.000000e+00 0.000000e+00 0.000000e+00 0.000000e+00 0.000000e+00
<ENDHMM>
