~o
<STREAMINFO> 1 7
<VECSIZE> 7<NULLD><USER><DIAGC>
~h "proto"
<BEGINHMM>
<NUMSTATES> 12
<STATE> 2
<MEAN> 7
 3.739884e-01 2.383976e-01 3.576884e-02 -2.693111e-03 -2.011677e-02 -3.607295e-03 -1.646884e+01
<VARIANCE> 7
 3.906634e-03 7.165540e-03 6.222662e-04 2.343361e-04 9.142312e-04 3.612530e-04 2.523182e+03
<GCONST> -2.044939e+01
<STATE> 3
<MEAN> 7
 4.297357e-01 2.550587e-01 2.812408e-03 -1.848195e-02 -6.158271e-02 -4.357703e-02 -1.329101e+03
<VARIANCE> 7
 3.248235e-03 5.948249e-03 3.923282e-04 3.494041e-04 1.216429e-03 8.423238e-04 3.961566e+07
<GCONST> -1.008830e+01
<STATE> 4
<MEAN> 7
 4.177138e-01 1.760477e-01 1.045077e-02 -9.161932e-03 5.018066e-03 8.410261e-03 1.723702e+00
<VARIANCE> 7
 3.664674e-03 6.878208e-03 7.719744e-04 1.000792e-03 8.984173e-04 9.360223e-04 4.856767e+02
<GCONST> -1.960000e+01
<STATE> 5
<MEAN> 7
 4.822365e-01 1.907556e-01 9.633669e-03 4.303689e-03 -6.130426e-03 -4.015664e-02 -1.629785e+03
<VARIANCE> 7
 2.171148e-03 5.771484e-03 1.665907e-04 4.513115e-04 9.927927e-04 2.042460e-03 9.099214e+07
<GCONST> -9.607813e+00
<STATE> 6
<MEAN> 7
 5.506419e-01 1.894840e-01 1.618034e-02 1.748212e-02 -1.007323e-02 1.006305e-02 8.220639e+00
<VARIANCE> 7
 4.273046e-03 7.140135e-03 1.333790e-03 1.543958e-03 1.856631e-03 1.859906e-03 2.956749e+02
<GCONST> -1.751241e+01
<STATE> 7
<MEAN> 7
 5.502287e-01 2.791593e-01 -3.288385e-02 2.903875e-02 3.149476e-02 -3.845230e-02 2.248736e+01
<VARIANCE> 7
 3.046832e-03 5.814778e-03 5.837115e-04 4.270226e-04 8.420165e-04 7.779911e-04 2.857257e+02
<GCONST> -2.186412e+01
<STATE> 8
<MEAN> 7
 5.415173e-01 2.850683e-01 -1.836726e-02 1.825603e-02 6.922583e-02 -3.467976e-02 9.584328e+01
<VARIANCE> 7
 3.085696e-03 5.889913e-03 3.707097e-04 1.732698e-04 3.389009e-03 7.730302e-04 1.212337e+04
<GCONST> -1.806063e+01
<STATE> 9
<MEAN> 7
 5.381879e-01 2.891513e-01 7.548803e-03 9.332826e-03 9.159448e-02 -2.540378e-02 3.547956e+03
<VARIANCE> 7
 2.903940e-03 5.916718e-03 8.276589e-04 8.806583e-05 3.894509e-03 7.716911e-04 5.608680e+08
<GCONST> -7.110973e+00
<STATE> 10
<MEAN> 7
 6.170806e-01 2.952763e-01 6.954674e-02 4.173452e-03 1.373061e-02 -8.612362e-03 -2.675097e+01
<VARIANCE> 7
 5.642474e-03 5.831532e-03 1.330218e-03 8.564078e-05 4.447272e-03 3.530787e-04 2.658530e+04
<GCONST> -1.662070e+01
<STATE> 11
<MEAN> 7
 7.156486e-01 2.489801e-01 3.384038e-03 -1.428280e-02 -1.902023e-02 1.371104e-02 -1.228750e+01
<VARIANCE> 7
 5.435616e-03 7.083083e-03 1.331758e-03 1.099136e-03 2.639452e-03 2.164220e-03 2.749215e+03
<GCONST> -1.488799e+01
<TRANSP> 12
 0.000000e+00 1.000000e+00 0.000000e+00 0.000000e+00 0.000000e+00 0.000000e+00 0.000000e+00 0.000000e+00 0.000000e+00 0.000000e+00 0.000000e+00 0.000000e+00
 0.000000e+00 8.264971e-01 1.735030e-01 0.000000e+00 0.000000e+00 0.000000e+00 0.000000e+00 0.000000e+00 0.000000e+00 0.000000e+00 0.000000e+00 0.000000e+00
 0.000000e+00 0.000000e+00 4.440443e-01 5.559557e-01 0.000000e+00 0.000000e+00 0.000000e+00 0.000000e+00 0.000000e+00 0.000000e+00 0.000000e+00 0.000000e+00
 0.000000e+00 0.000000e+00 0.000000e+00 9.483443e-01 5.165570e-02 0.000000e+00 0.000000e+00 0.000000e+00 0.000000e+00 0.000000e+00 0.000000e+00 0.000000e+00
 0.000000e+00 0.000000e+00 0.000000e+00 0.000000e+00 5.227745e-01 4.772255e-01 0.000000e+00 0.000000e+00 0.000000e+00 0.000000e+00 0.000000e+00 0.000000e+00
 0.000000e+00 0.000000e+00 0.000000e+00 0.000000e+00 0.000000e+00 9.370910e-01 6.290904e-02 0.000000e+00 0.000000e+00 0.000000e+00 0.000000e+00 0.000000e+00
 0.000000e+00 0.000000e+00 0.000000e+00 0.000000e+00 0.000000e+00 0.000000e+00 0.000000e+00 1.000000e+00 0.000000e+00 0.000000e+00 0.000000e+00 0.000000e+00
 0.000000e+00 0.000000e+00 0.000000e+00 0.000000e+00 0.000000e+00 0.000000e+00 0.000000e+00 0.000000e+00 1.000000e+00 0.000000e+00 0.000000e+00 0.000000e+00
 0.000000e+00 0.000000e+00 0.000000e+00 0.000000e+00 0.000000e+00 0.000000e+00 0.000000e+00 0.000000e+00 0.000000e+00 1.000000e+00 0.000000e+00 0.000000e+00
 0.000000e+00 0.000000e+00 0.000000e+00 0.000000e+00 0.000000e+00 0.000000e+00 0.000000e+00 0.000000e+00 0.000000e+00 8.679706e-01 1.320293e-01 0.000000e+00
 0.000000e+00 0.000000e+00 0.000000e+00 0.000000e+00 0.000000e+00 0.000000e+00 0.000000e+00 0.000000e+00 0.000000e+00 0.000000e+00 9.110838e-01 8.891618e-02
 0.000000e+00 0.000000e+00 0.000000e+00 0.000000e+00 0.000000e+00 0.000000e+00 0.000000e+00 0.000000e+00 0.000000e+00 0.000000e+00 0.000000e+00 0.000000e+00
<ENDHMM>
