~o
<STREAMINFO> 1 6
<VECSIZE> 6<NULLD><USER><DIAGC>
~h "proto"
<BEGINHMM>
<NUMSTATES> 12
<STATE> 2
<MEAN> 6
 3.605476e-01 2.703016e-01 2.936988e-02 -2.509155e-03 -2.446944e-02 -1.022718e-02
<VARIANCE> 6
 6.074665e-03 5.171552e-03 6.547020e-04 1.842748e-04 1.046686e-03 4.939973e-04
<GCONST> -2.974647e+01
<STATE> 3
<MEAN> 6
 3.961679e-01 2.242207e-01 -1.271803e-02 -4.067311e-02 7.755754e-03 -5.197512e-03
<VARIANCE> 6
 2.452436e-03 4.611668e-03 3.742822e-04 3.096605e-04 1.715300e-03 1.221195e-03
<GCONST> -2.940920e+01
<STATE> 4
<MEAN> 6
 3.995862e-01 1.318191e-01 2.977507e-02 -3.767361e-03 7.886911e-03 2.541741e-02
<VARIANCE> 6
 2.139594e-03 4.768746e-03 3.741757e-04 4.627088e-04 7.452783e-04 8.808062e-04
<GCONST> -3.027117e+01
<STATE> 5
<MEAN> 6
 4.677270e-01 1.994618e-01 1.608726e-02 4.650507e-03 -1.061540e-03 -1.298293e-02
<VARIANCE> 6
 1.332406e-03 4.428256e-03 1.999781e-04 6.653854e-04 4.719560e-04 9.650543e-04
<GCONST> -3.144765e+01
<STATE> 6
<MEAN> 6
 5.536738e-01 1.555053e-01 4.197127e-02 8.252866e-03 -8.286666e-03 3.932461e-02
<VARIANCE> 6
 2.487618e-03 4.712760e-03 5.484672e-04 1.082121e-03 2.067190e-03 1.678459e-03
<GCONST> -2.723531e+01
<STATE> 7
<MEAN> 6
 5.852584e-01 2.348069e-01 -1.866067e-02 5.807872e-02 -3.560623e-02 -1.476034e-02
<VARIANCE> 6
 3.084918e-03 5.184897e-03 5.607970e-04 5.222490e-04 1.173854e-03 1.201397e-03
<GCONST> -2.853122e+01
<STATE> 8
<MEAN> 6
 5.203440e-01 2.933375e-01 -1.729496e-02 1.930600e-02 4.648705e-02 -2.281242e-02
<VARIANCE> 6
 3.160067e-03 5.443244e-03 4.984448e-04 1.805006e-04 2.370408e-03 4.149656e-04
<GCONST> -2.999908e+01
<STATE> 9
<MEAN> 6
 5.881455e-01 3.030782e-01 6.881452e-02 6.574090e-03 2.523417e-02 -3.457572e-03
<VARIANCE> 6
 5.233564e-03 6.729866e-03 9.273192e-04 6.179520e-05 3.258283e-03 1.688446e-04
<GCONST> -3.031458e+01
<STATE> 10
<MEAN> 6
 7.099921e-01 3.114601e-01 3.889668e-02 -2.489747e-02 -5.242188e-02 -3.249883e-02
<VARIANCE> 6
 5.045392e-03 4.299782e-03 1.782278e-03 4.829999e-04 1.757569e-03 5.179550e-04
<GCONST> -2.758601e+01
<STATE> 11
<MEAN> 6
 6.988292e-01 2.373478e-01 -1.068259e-02 -5.235393e-03 -3.962171e-03 3.423668e-02
<VARIANCE> 6
 6.003178e-03 5.586791e-03 7.919739e-04 1.300363e-03 2.167143e-03 1.319818e-03
<GCONST> -2.582626e+01
<TRANSP> 12
 0.000000e+00 1.000000e+00 0.000000e+00 0.000000e+00 0.000000e+00 0.000000e+00 0.000000e+00 0.000000e+00 0.000000e+00 0.000000e+00 0.000000e+00 0.000000e+00
 0.000000e+00 8.589659e-01 1.410342e-01 0.000000e+00 0.000000e+00 0.000000e+00 0.000000e+00 0.000000e+00 0.000000e+00 0.000000e+00 0.000000e+00 0.000000e+00
 0.000000e+00 0.000000e+00 8.658593e-01 1.341407e-01 0.000000e+00 0.000000e+00 0.000000e+00 0.000000e+00 0.000000e+00 0.000000e+00 0.000000e+00 0.000000e+00
 0.000000e+00 0.000000e+00 0.000000e+00 8.671014e-01 1.328986e-01 0.000000e+00 0.000000e+00 0.000000e+00 0.000000e+00 0.000000e+00 0.000000e+00 0.000000e+00
 0.000000e+00 0.000000e+00 0.000000e+00 0.000000e+00 9.036019e-01 9.639809e-02 0.000000e+00 0.000000e+00 0.000000e+00 0.000000e+00 0.000000e+00 0.000000e+00
 0.000000e+00 0.000000e+00 0.000000e+00 0.000000e+00 0.000000e+00 8.537425e-01 1.462574e-01 0.000000e+00 0.000000e+00 0.000000e+00 0.000000e+00 0.000000e+00
 0.000000e+00 0.000000e+00 0.000000e+00 0.000000e+00 0.000000e+00 0.000000e+00 7.910846e-01 2.089153e-01 0.000000e+00 0.000000e+00 0.000000e+00 0.000000e+00
 0.000000e+00 0.000000e+00 0.000000e+00 0.000000e+00 0.000000e+00 0.000000e+00 0.000000e+00 7.810665e-01 2.189335e-01 0.000000e+00 0.000000e+00 0.000000e+00
 0.000000e+00 0.000000e+00 0.000000e+00 0.000000e+00 0.000000e+00 0.000000e+00 0.000000e+00 0.000000e+00 8.559561e-01 1.440440e-01 0.000000e+00 0.000000e+00
 0.000000e+00 0.000000e+00 0.000000e+00 0.000000e+00 0.000000e+00 0.000000e+00 0.000000e+00 0.000000e+00 0.000000e+00 8.085098e-01 1.914903e-01 0.000000e+00
 0.000000e+00 0.000000e+00 0.000000e+00 0.000000e+00 0.000000e+00 0.000000e+00 0.000000e+00 0.000000e+00 0.000000e+00 0.000000e+00 8.756285e-01 1.243715e-01
 0.000000e+00 0.000000e+00 0.000000e+00 0.000000e+00 0.000000e+00 0.000000e+00 0.000000e+00 0.000000e+00 0.000000e+00 0.000000e+00 0.000000e+00 0.000000e+00
<ENDHMM>
