~o
<STREAMINFO> 1 7
<VECSIZE> 7<NULLD><USER><DIAGC>
~h "proto"
<BEGINHMM>
<NUMSTATES> 12
<STATE> 2
<MEAN> 7
 3.788757e-01 3.044672e-01 1.734748e-02 3.420941e-03 2.748529e-03 -2.853225e-02 -2.455063e+01
<VARIANCE> 7
 4.447688e-03 6.574227e-03 6.635837e-04 1.035021e-03 1.808234e-03 1.775350e-03 1.931286e+03
<GCONST> -1.684924e+01
<STATE> 3
<MEAN> 7
 3.867285e-01 2.207071e-01 -1.522287e-02 -5.075185e-02 1.286623e-03 2.093615e-03 -1.889495e+00
<VARIANCE> 7
 4.819966e-03 6.343757e-03 2.806219e-04 6.608122e-04 1.101012e-03 5.321247e-04 2.746095e+01
<GCONST> -2.406807e+01
<STATE> 4
<MEAN> 7
 4.187248e-01 1.330679e-01 3.156711e-02 -7.334371e-04 7.699822e-03 3.442667e-02 7.594740e+00
<VARIANCE> 7
 5.319703e-03 5.520065e-03 4.162931e-04 1.102197e-03 1.593269e-03 1.684654e-03 5.837952e+02
<GCONST> -1.862375e+01
<STATE> 5
<MEAN> 7
 4.737436e-01 1.809741e-01 4.897818e-03 3.057842e-02 -1.258138e-02 -2.283534e-02 -1.492435e+01
<VARIANCE> 7
 3.138944e-03 5.707498e-03 3.448458e-04 3.152577e-04 4.362311e-04 1.061986e-03 9.171344e+03
<GCONST> -1.956035e+01
<STATE> 6
<MEAN> 7
 4.733428e-01 2.133210e-01 7.252039e-03 -3.937896e-03 1.068852e-02 -6.534021e-02 -8.376358e+02
<VARIANCE> 7
 3.546438e-03 4.179350e-03 1.825568e-04 1.522440e-04 6.850396e-04 1.289777e-03 6.201640e+08
<GCONST> -9.346571e+00
<STATE> 7
<MEAN> 7
 5.212877e-01 1.746550e-01 3.122383e-02 3.637934e-03 -4.881311e-03 2.762131e-02 1.363273e+01
<VARIANCE> 7
 5.648430e-03 2.714337e-03 7.254385e-04 1.610931e-03 2.398275e-03 2.313066e-03 6.630185e+02
<GCONST> -1.748551e+01
<STATE> 8
<MEAN> 7
 5.430755e-01 2.900205e-01 -2.805945e-02 5.522374e-02 2.645953e-03 -3.105101e-02 2.511353e+01
<VARIANCE> 7
 4.514960e-03 4.203779e-03 8.051373e-04 9.667375e-04 3.444986e-03 1.051553e-03 9.976225e+03
<GCONST> -1.539343e+01
<STATE> 9
<MEAN> 7
 5.206800e-01 3.106417e-01 1.116912e-02 1.577170e-02 9.799900e-02 -3.384712e-02 8.449809e+02
<VARIANCE> 7
 4.771109e-03 6.135167e-03 4.402382e-04 1.667305e-04 6.227661e-03 1.034613e-03 1.205926e+07
<GCONST> -9.648222e+00
<STATE> 10
<MEAN> 7
 5.865203e-01 3.336020e-01 7.564385e-02 3.144276e-03 2.059974e-02 -1.625986e-02 -1.862362e+01
<VARIANCE> 7
 7.017768e-03 4.427167e-03 1.739737e-03 1.384244e-04 5.595583e-03 5.301624e-04 1.631771e+04
<GCONST> -1.578147e+01
<STATE> 11
<MEAN> 7
 6.845368e-01 2.703617e-01 6.240245e-03 -1.800259e-02 -2.542241e-02 1.943265e-02 -1.302794e+01
<VARIANCE> 7
 5.961697e-03 6.843274e-03 1.891139e-03 1.882362e-03 4.267305e-03 3.551105e-03 2.367498e+03
<GCONST> -1.311523e+01
<TRANSP> 12
 0.000000e+00 1.000000e+00 0.000000e+00 0.000000e+00 0.000000e+00 0.000000e+00 0.000000e+00 0.000000e+00 0.000000e+00 0.000000e+00 0.000000e+00 0.000000e+00
 0.000000e+00 8.942714e-01 1.057286e-01 0.000000e+00 0.000000e+00 0.000000e+00 0.000000e+00 0.000000e+00 0.000000e+00 0.000000e+00 0.000000e+00 0.000000e+00
 0.000000e+00 0.000000e+00 8.831834e-01 1.168167e-01 0.000000e+00 0.000000e+00 0.000000e+00 0.000000e+00 0.000000e+00 0.000000e+00 0.000000e+00 0.000000e+00
 0.000000e+00 0.000000e+00 0.000000e+00 8.947570e-01 1.052430e-01 0.000000e+00 0.000000e+00 0.000000e+00 0.000000e+00 0.000000e+00 0.000000e+00 0.000000e+00
 0.000000e+00 0.000000e+00 0.000000e+00 0.000000e+00 8.000566e-01 1.999433e-01 0.000000e+00 0.000000e+00 0.000000e+00 0.000000e+00 0.000000e+00 0.000000e+00
 0.000000e+00 0.000000e+00 0.000000e+00 0.000000e+00 0.000000e+00 0.000000e+00 1.000000e+00 0.000000e+00 0.000000e+00 0.000000e+00 0.000000e+00 0.000000e+00
 0.000000e+00 0.000000e+00 0.000000e+00 0.000000e+00 0.000000e+00 0.000000e+00 9.073074e-01 9.269264e-02 0.000000e+00 0.000000e+00 0.000000e+00 0.000000e+00
 0.000000e+00 0.000000e+00 0.000000e+00 0.000000e+00 0.000000e+00 0.000000e+00 0.000000e+00 8.250129e-01 1.749871e-01 0.000000e+00 0.000000e+00 0.000000e+00
 0.000000e+00 0.000000e+00 0.000000e+00 0.000000e+00 0.000000e+00 0.000000e+00 0.000000e+00 0.000000e+00 0.000000e+00 1.000000e+00 0.000000e+00 0.000000e+00
 0.000000e+00 0.000000e+00 0.000000e+00 0.000000e+00 0.000000e+00 0.000000e+00 0.000000e+00 0.000000e+00 0.000000e+00 8.403501e-01 1.596499e-01 0.000000e+00
 0.000000e+00 0.000000e+00 0.000000e+00 0.000000e+00 0.000000e+00 0.000000e+00 0.000000e+00 0.000000e+00 0.000000e+00 0.000000e+00 8.986012e-01 1.013989e-01
 0.000000e+00 0.000000e+00 0.000000e+00 0.000000e+00 0.000000e+00 0.000000e+00 0.000000e+00 0.000000e+00 0.000000e+00 0.000000e+00 0.000000e+00 0.000000e+00
<ENDHMM>
