~o
<STREAMINFO> 1 6
<VECSIZE> 6<NULLD><USER><DIAGC>
~h "proto"
<BEGINHMM>
<NUMSTATES> 12
<STATE> 2
<MEAN> 6
 3.633324e-01 3.027106e-01 1.486201e-02 1.977139e-02 2.515759e-02 -1.476880e-02
<VARIANCE> 6
 4.100180e-03 6.582549e-03 6.849306e-04 3.913920e-04 1.014966e-03 1.170883e-03
<GCONST> -2.826768e+01
<STATE> 3
<MEAN> 6
 4.260229e-01 3.100299e-01 1.273415e-02 -4.137784e-02 -3.760843e-02 -4.700289e-02
<VARIANCE> 6
 2.774904e-03 4.751552e-03 6.239056e-04 1.029989e-03 7.963318e-04 1.462145e-03
<GCONST> -2.813023e+01
<STATE> 4
<MEAN> 6
 3.794358e-01 1.989487e-01 -1.683711e-02 -4.858276e-02 1.346508e-02 1.002866e-02
<VARIANCE> 6
 4.541306e-03 4.576291e-03 2.864957e-04 5.356385e-04 1.122263e-03 6.739408e-04
<GCONST> -2.953876e+01
<STATE> 5
<MEAN> 6
 3.881123e-01 1.229202e-01 3.272048e-02 -6.155188e-03 1.436594e-02 3.323304e-02
<VARIANCE> 6
 3.010812e-03 4.827913e-03 3.456179e-04 9.538173e-04 1.416274e-03 2.064394e-03
<GCONST> -2.777948e+01
<STATE> 6
<MEAN> 6
 4.716894e-01 1.824058e-01 1.931685e-02 4.251528e-03 2.016602e-03 -7.246105e-03
<VARIANCE> 6
 1.600993e-03 3.112037e-03 4.199838e-04 9.021533e-04 8.362341e-04 1.696297e-03
<GCONST> -2.943428e+01
<STATE> 7
<MEAN> 6
 5.789191e-01 1.479476e-01 3.286836e-02 1.960624e-02 -2.138747e-02 3.858203e-02
<VARIANCE> 6
 3.678656e-03 4.409448e-03 8.739050e-04 1.646603e-03 2.372803e-03 2.921417e-03
<GCONST> -2.533290e+01
<STATE> 8
<MEAN> 6
 5.552836e-01 2.801093e-01 -3.034797e-02 6.125642e-02 -1.026094e-03 -3.690051e-02
<VARIANCE> 6
 4.450861e-03 4.796666e-03 5.558396e-04 8.829723e-04 4.093854e-03 1.239661e-03
<GCONST> -2.644566e+01
<STATE> 9
<MEAN> 6
 5.492277e-01 3.233217e-01 5.626394e-02 8.238139e-03 5.951197e-02 -1.489859e-02
<VARIANCE> 6
 4.729642e-03 5.859988e-03 2.368955e-03 1.120405e-04 3.853426e-03 4.930951e-04
<GCONST> -2.778181e+01
<STATE> 10
<MEAN> 6
 6.963610e-01 3.192549e-01 5.461195e-02 -2.916840e-02 -6.298897e-02 -3.534847e-02
<VARIANCE> 6
 4.853609e-03 4.872375e-03 2.072425e-03 7.309251e-04 1.674017e-03 1.064657e-03
<GCONST> -2.626281e+01
<STATE> 11
<MEAN> 6
 6.863461e-01 2.519254e-01 -1.599500e-02 -9.212130e-03 -9.751352e-03 5.529558e-02
<VARIANCE> 6
 5.380363e-03 3.683922e-03 1.067120e-03 2.095883e-03 4.890547e-03 2.055657e-03
<GCONST> -2.431970e+01
<TRANSP> 12
 0.000000e+00 1.000000e+00 0.000000e+00 0.000000e+00 0.000000e+00 0.000000e+00 0.000000e+00 0.000000e+00 0.000000e+00 0.000000e+00 0.000000e+00 0.000000e+00
 0.000000e+00 8.304607e-01 1.695393e-01 0.000000e+00 0.000000e+00 0.000000e+00 0.000000e+00 0.000000e+00 0.000000e+00 0.000000e+00 0.000000e+00 0.000000e+00
 0.000000e+00 0.000000e+00 7.870013e-01 2.129987e-01 0.000000e+00 0.000000e+00 0.000000e+00 0.000000e+00 0.000000e+00 0.000000e+00 0.000000e+00 0.000000e+00
 0.000000e+00 0.000000e+00 0.000000e+00 8.546494e-01 1.453506e-01 0.000000e+00 0.000000e+00 0.000000e+00 0.000000e+00 0.000000e+00 0.000000e+00 0.000000e+00
 0.000000e+00 0.000000e+00 0.000000e+00 0.000000e+00 8.494051e-01 1.505949e-01 0.000000e+00 0.000000e+00 0.000000e+00 0.000000e+00 0.000000e+00 0.000000e+00
 0.000000e+00 0.000000e+00 0.000000e+00 0.000000e+00 0.000000e+00 9.052203e-01 9.477966e-02 0.000000e+00 0.000000e+00 0.000000e+00 0.000000e+00 0.000000e+00
 0.000000e+00 0.000000e+00 0.000000e+00 0.000000e+00 0.000000e+00 0.000000e+00 8.782841e-01 1.217159e-01 0.000000e+00 0.000000e+00 0.000000e+00 0.000000e+00
 0.000000e+00 0.000000e+00 0.000000e+00 0.000000e+00 0.000000e+00 0.000000e+00 0.000000e+00 8.158078e-01 1.841922e-01 0.000000e+00 0.000000e+00 0.000000e+00
 0.000000e+00 0.000000e+00 0.000000e+00 0.000000e+00 0.000000e+00 0.000000e+00 0.000000e+00 0.000000e+00 8.357917e-01 1.642083e-01 0.000000e+00 0.000000e+00
 0.000000e+00 0.000000e+00 0.000000e+00 0.000000e+00 0.000000e+00 0.000000e+00 0.000000e+00 0.000000e+00 0.000000e+00 8.024036e-01 1.975964e-01 0.000000e+00
 0.000000e+00 0.000000e+00 0.000000e+00 0.000000e+00 0.000000e+00 0.000000e+00 0.000000e+00 0.000000e+00 0.000000e+00 0.000000e+00 8.217020e-01 1.782980e-01
 0.000000e+00 0.000000e+00 0.000000e+00 0.000000e+00 0.000000e+00 0.000000e+00 0.000000e+00 0.000000e+00 0.000000e+00 0.000000e+00 0.000000e+00 0.000000e+00
<ENDHMM>
