~o
<STREAMINFO> 1 6
<VECSIZE> 6<NULLD><USER><DIAGC>
~h "proto"
<BEGINHMM>
<NUMSTATES> 12
<STATE> 2
<MEAN> 6
 3.908818e-01 3.172518e-01 1.456722e-02 1.383786e-02 8.462491e-03 -8.429513e-03
<VARIANCE> 6
 2.376847e-03 6.978599e-03 2.885982e-04 5.892662e-04 3.171868e-04 6.316725e-04
<GCONST> -3.098989e+01
<STATE> 3
<MEAN> 6
 4.471010e-01 3.054348e-01 3.117084e-02 1.089799e-03 2.519985e-03 -3.551450e-02
<VARIANCE> 6
 1.286236e-03 7.626357e-03 4.029545e-04 7.139129e-04 6.838273e-04 1.008017e-03
<GCONST> -2.975393e+01
<STATE> 4
<MEAN> 6
 4.863278e-01 2.861290e-01 1.558904e-02 -6.054742e-03 -1.976471e-03 5.146910e-03
<VARIANCE> 6
 1.011305e-03 5.823723e-03 1.827741e-04 8.592731e-04 2.404592e-04 1.086178e-03
<GCONST> -3.183980e+01
<STATE> 5
<MEAN> 6
 5.643091e-01 3.035045e-01 3.322874e-02 3.710759e-03 3.668742e-03 -2.181614e-02
<VARIANCE> 6
 2.698699e-03 4.546521e-03 5.205477e-04 1.111708e-03 6.730511e-04 2.114126e-03
<GCONST> -2.810641e+01
<STATE> 6
<MEAN> 6
 6.258741e-01 2.610992e-01 1.402339e-02 -5.823795e-02 -2.773694e-02 -1.554865e-02
<VARIANCE> 6
 4.000342e-03 3.728308e-03 4.293344e-04 6.266959e-04 5.810175e-04 7.699657e-04
<GCONST> -2.983413e+01
<STATE> 7
<MEAN> 6
 6.262825e-01 1.245408e-01 -2.478697e-02 -3.090416e-02 -1.480315e-02 1.883470e-02
<VARIANCE> 6
 4.040643e-03 4.665081e-03 6.799506e-04 1.172031e-03 9.270497e-04 1.211340e-03
<GCONST> -2.759378e+01
<STATE> 8
<MEAN> 6
 5.191433e-01 1.109658e-01 -2.155753e-02 -7.292707e-04 8.013774e-04 7.988032e-03
<VARIANCE> 6
 2.342793e-03 4.067535e-03 3.966646e-04 4.344617e-04 2.360427e-04 6.098099e-04
<GCONST> -3.186155e+01
<STATE> 9
<MEAN> 6
 4.631565e-01 1.332754e-01 -3.844878e-02 1.384163e-02 2.836664e-02 2.656987e-02
<VARIANCE> 6
 2.478420e-03 6.719505e-03 6.854571e-04 5.964643e-04 5.821516e-04 1.614715e-03
<GCONST> -2.856290e+01
<STATE> 10
<MEAN> 6
 4.005267e-01 2.073883e-01 -1.207395e-02 4.759670e-03 1.520043e-02 -4.075656e-03
<VARIANCE> 6
 4.697971e-03 1.105412e-02 7.400958e-04 1.233322e-03 1.298620e-03 1.215867e-03
<GCONST> -2.610384e+01
<STATE> 11
<MEAN> 6
 4.662030e-01 1.248935e-01 3.445335e-02 1.164484e-03 8.299427e-03 -6.364256e-03
<VARIANCE> 6
 3.607020e-03 5.077153e-03 5.274690e-04 8.103146e-04 1.302667e-03 1.663627e-03
<GCONST> -2.758822e+01
<TRANSP> 12
 0.000000e+00 1.000000e+00 0.000000e+00 0.000000e+00 0.000000e+00 0.000000e+00 0.000000e+00 0.000000e+00 0.000000e+00 0.000000e+00 0.000000e+00 0.000000e+00
 0.000000e+00 9.108307e-01 8.916937e-02 0.000000e+00 0.000000e+00 0.000000e+00 0.000000e+00 0.000000e+00 0.000000e+00 0.000000e+00 0.000000e+00 0.000000e+00
 0.000000e+00 0.000000e+00 0.000000e+00 1.000000e+00 0.000000e+00 0.000000e+00 0.000000e+00 0.000000e+00 0.000000e+00 0.000000e+00 0.000000e+00 0.000000e+00
 0.000000e+00 0.000000e+00 0.000000e+00 9.139403e-01 8.605976e-02 0.000000e+00 0.000000e+00 0.000000e+00 0.000000e+00 0.000000e+00 0.000000e+00 0.000000e+00
 0.000000e+00 0.000000e+00 0.000000e+00 0.000000e+00 8.838559e-01 1.161441e-01 0.000000e+00 0.000000e+00 0.000000e+00 0.000000e+00 0.000000e+00 0.000000e+00
 0.000000e+00 0.000000e+00 0.000000e+00 0.000000e+00 0.000000e+00 8.143834e-01 1.856167e-01 0.000000e+00 0.000000e+00 0.000000e+00 0.000000e+00 0.000000e+00
 0.000000e+00 0.000000e+00 0.000000e+00 0.000000e+00 0.000000e+00 0.000000e+00 8.786309e-01 1.213691e-01 0.000000e+00 0.000000e+00 0.000000e+00 0.000000e+00
 0.000000e+00 0.000000e+00 0.000000e+00 0.000000e+00 0.000000e+00 0.000000e+00 0.000000e+00 9.205462e-01 7.945386e-02 0.000000e+00 0.000000e+00 0.000000e+00
 0.000000e+00 0.000000e+00 0.000000e+00 0.000000e+00 0.000000e+00 0.000000e+00 0.000000e+00 0.000000e+00 0.000000e+00 1.000000e+00 0.000000e+00 0.000000e+00
 0.000000e+00 0.000000e+00 0.000000e+00 0.000000e+00 0.000000e+00 0.000000e+00 0.000000e+00 0.000000e+00 0.000000e+00 9.106791e-01 8.932089e-02 0.000000e+00
 0.000000e+00 0.000000e+00 0.000000e+00 0.000000e+00 0.000000e+00 0.000000e+00 0.000000e+00 0.000000e+00 0.000000e+00 0.000000e+00 8.592991e-01 1.407009e-01
 0.000000e+00 0.000000e+00 0.000000e+00 0.000000e+00 0.000000e+00 0.000000e+00 0.000000e+00 0.000000e+00 0.000000e+00 0.000000e+00 0.000000e+00 0.000000e+00
<ENDHMM>
