~o
<STREAMINFO> 1 7
<VECSIZE> 7<NULLD><USER><DIAGC>
~h "proto"
<BEGINHMM>
<NUMSTATES> 12
<STATE> 2
<MEAN> 7
 3.989843e-01 3.176954e-01 1.746479e-02 1.740091e-02 9.400256e-03 -1.214428e-02 -8.038866e+00
<VARIANCE> 7
 3.780733e-03 7.078700e-03 2.652030e-04 4.262021e-04 2.594123e-04 6.501994e-04 3.807415e+02
<GCONST> -2.331218e+01
<STATE> 3
<MEAN> 7
 4.852181e-01 2.983321e-01 1.706467e-02 -2.775148e-02 -1.055399e-02 -5.751492e-03 -7.257610e+00
<VARIANCE> 7
 3.012506e-03 7.209655e-03 2.781447e-04 2.454208e-04 1.738721e-04 8.736957e-04 7.346738e+02
<GCONST> -2.347263e+01
<STATE> 4
<MEAN> 7
 4.916013e-01 2.482118e-01 7.429147e-03 -1.333452e-02 -4.932066e-03 4.890876e-02 8.047581e+01
<VARIANCE> 7
 3.916341e-03 4.868638e-03 3.093201e-04 1.475373e-04 2.772465e-04 2.222003e-03 1.840279e+04
<GCONST> -1.938465e+01
<STATE> 5
<MEAN> 7
 4.957904e-01 2.433403e-01 5.737347e-03 7.376963e-03 6.913126e-04 4.971647e-02 3.611542e+01
<VARIANCE> 7
 3.837660e-03 4.917532e-03 1.319363e-04 3.522895e-04 9.041934e-04 2.968035e-03 3.505106e+08
<GCONST> -8.050371e+00
<STATE> 6
<MEAN> 7
 5.548092e-01 3.060912e-01 2.575261e-02 7.502506e-04 5.527494e-04 -1.837723e-02 -8.494746e+00
<VARIANCE> 7
 5.459229e-03 6.323752e-03 3.523072e-04 1.525935e-03 5.940192e-04 1.179351e-03 2.396050e+02
<GCONST> -2.053730e+01
<STATE> 7
<MEAN> 7
 6.049355e-01 2.440455e-01 4.676250e-03 -6.850873e-02 -3.448512e-02 -2.233228e-03 -3.749163e-01
<VARIANCE> 7
 7.458387e-03 3.635074e-03 3.691579e-04 1.355159e-03 9.150790e-04 1.017222e-03 2.720181e+00
<GCONST> -2.504501e+01
<STATE> 8
<MEAN> 7
 5.861089e-01 1.468444e-01 -2.447518e-02 -3.268907e-02 -1.126065e-02 1.774454e-02 -4.334047e+00
<VARIANCE> 7
 7.559766e-03 4.860144e-03 4.106871e-04 8.240054e-04 4.717081e-04 6.245633e-04 5.915208e+01
<GCONST> -2.320297e+01
<STATE> 9
<MEAN> 7
 5.151003e-01 1.164620e-01 -1.796717e-02 1.085130e-02 1.489630e-02 8.825335e-03 1.266288e+02
<VARIANCE> 7
 6.375216e-03 4.257150e-03 6.191150e-04 3.857847e-04 5.076836e-04 2.312945e-03 4.829379e+06
<GCONST> -1.116146e+01
<STATE> 10
<MEAN> 7
 4.519807e-01 1.626327e-01 -1.475819e-02 6.062079e-03 1.702614e-03 -2.532676e-03 -1.285525e+00
<VARIANCE> 7
 8.400804e-03 1.044743e-02 4.155485e-04 5.426393e-04 3.007886e-04 5.135406e-04 6.601755e+02
<GCONST> -2.097145e+01
<STATE> 11
<MEAN> 7
 4.497534e-01 1.432380e-01 1.328525e-02 -1.383245e-03 1.371716e-02 1.244889e-03 4.617621e-03
<VARIANCE> 7
 5.679084e-03 4.715452e-03 1.367758e-03 1.124016e-03 1.526202e-03 1.393194e-03 2.717476e+02
<GCONST> -1.850442e+01
<TRANSP> 12
 0.000000e+00 1.000000e+00 0.000000e+00 0.000000e+00 0.000000e+00 0.000000e+00 0.000000e+00 0.000000e+00 0.000000e+00 0.000000e+00 0.000000e+00 0.000000e+00
 0.000000e+00 9.092906e-01 9.070947e-02 0.000000e+00 0.000000e+00 0.000000e+00 0.000000e+00 0.000000e+00 0.000000e+00 0.000000e+00 0.000000e+00 0.000000e+00
 0.000000e+00 0.000000e+00 8.859926e-01 1.140074e-01 0.000000e+00 0.000000e+00 0.000000e+00 0.000000e+00 0.000000e+00 0.000000e+00 0.000000e+00 0.000000e+00
 0.000000e+00 0.000000e+00 0.000000e+00 0.000000e+00 1.000000e+00 0.000000e+00 0.000000e+00 0.000000e+00 0.000000e+00 0.000000e+00 0.000000e+00 0.000000e+00
 0.000000e+00 0.000000e+00 0.000000e+00 0.000000e+00 2.147817e-01 7.852183e-01 0.000000e+00 0.000000e+00 0.000000e+00 0.000000e+00 0.000000e+00 0.000000e+00
 0.000000e+00 0.000000e+00 0.000000e+00 0.000000e+00 0.000000e+00 9.337149e-01 6.628510e-02 0.000000e+00 0.000000e+00 0.000000e+00 0.000000e+00 0.000000e+00
 0.000000e+00 0.000000e+00 0.000000e+00 0.000000e+00 0.000000e+00 0.000000e+00 0.000000e+00 1.000000e+00 0.000000e+00 0.000000e+00 0.000000e+00 0.000000e+00
 0.000000e+00 0.000000e+00 0.000000e+00 0.000000e+00 0.000000e+00 0.000000e+00 0.000000e+00 9.174828e-01 8.251724e-02 0.000000e+00 0.000000e+00 0.000000e+00
 0.000000e+00 0.000000e+00 0.000000e+00 0.000000e+00 0.000000e+00 0.000000e+00 0.000000e+00 0.000000e+00 6.540111e-01 3.459889e-01 0.000000e+00 0.000000e+00
 0.000000e+00 0.000000e+00 0.000000e+00 0.000000e+00 0.000000e+00 0.000000e+00 0.000000e+00 0.000000e+00 0.000000e+00 9.327957e-01 6.720430e-02 0.000000e+00
 0.000000e+00 0.000000e+00 0.000000e+00 0.000000e+00 0.000000e+00 0.000000e+00 0.000000e+00 0.000000e+00 0.000000e+00 0.000000e+00 9.184486e-01 8.155142e-02
 0.000000e+00 0.000000e+00 0.000000e+00 0.000000e+00 0.000000e+00 0.000000e+00 0.000000e+00 0.000000e+00 0.000000e+00 0.000000e+00 0.000000e+00 0.000000e+00
<ENDHMM>
