~o
<STREAMINFO> 1 7
<VECSIZE> 7<NULLD><USER><DIAGC>
~h "proto"
<BEGINHMM>
<NUMSTATES> 12
<STATE> 2
<MEAN> 7
 3.739882e-01 2.383975e-01 3.576874e-02 -2.693132e-03 -2.011673e-02 -3.607295e-03 -1.646886e+01
<VARIANCE> 7
 3.906622e-03 7.165488e-03 6.222641e-04 2.343350e-04 9.142265e-04 3.612510e-04 2.523179e+03
<GCONST> -2.044942e+01
<STATE> 3
<MEAN> 7
 4.297355e-01 2.550588e-01 2.812457e-03 -1.848192e-02 -6.158268e-02 -4.357705e-02 -1.329106e+03
<VARIANCE> 7
 3.248242e-03 5.948251e-03 3.923254e-04 3.494034e-04 1.216429e-03 8.423234e-04 3.961590e+07
<GCONST> -1.008830e+01
<STATE> 4
<MEAN> 7
 4.177136e-01 1.760476e-01 1.045080e-02 -9.161890e-03 5.018020e-03 8.410245e-03 1.723737e+00
<VARIANCE> 7
 3.664713e-03 6.878209e-03 7.719771e-04 1.000791e-03 8.984175e-04 9.360204e-04 4.856801e+02
<GCONST> -1.959998e+01
<STATE> 5
<MEAN> 7
 4.822367e-01 1.907554e-01 9.633622e-03 4.303768e-03 -6.130612e-03 -4.015652e-02 -1.629776e+03
<VARIANCE> 7
 2.171155e-03 5.771477e-03 1.665904e-04 4.513152e-04 9.927856e-04 2.042461e-03 9.099226e+07
<GCONST> -9.607813e+00
<STATE> 6
<MEAN> 7
 5.506422e-01 1.894859e-01 1.617940e-02 1.748229e-02 -1.007268e-02 1.006232e-02 8.220770e+00
<VARIANCE> 7
 4.273012e-03 7.140458e-03 1.333824e-03 1.543941e-03 1.856626e-03 1.859913e-03 2.956722e+02
<GCONST> -1.751237e+01
<STATE> 7
<MEAN> 7
 5.502262e-01 2.791606e-01 -3.288104e-02 2.903634e-02 3.150043e-02 -3.845042e-02 2.249232e+01
<VARIANCE> 7
 3.046755e-03 5.814762e-03 5.836845e-04 4.270373e-04 8.421094e-04 7.780044e-04 2.858189e+02
<GCONST> -2.186370e+01
<STATE> 8
<MEAN> 7
 5.415155e-01 2.850690e-01 -1.836353e-02 1.825456e-02 6.923106e-02 -3.467707e-02 9.586038e+01
<VARIANCE> 7
 3.085620e-03 5.889947e-03 3.706825e-04 1.732779e-04 3.388954e-03 7.730668e-04 1.212516e+04
<GCONST> -1.806049e+01
<STATE> 9
<MEAN> 7
 5.381870e-01 2.891519e-01 7.554534e-03 9.332079e-03 9.159818e-02 -2.540166e-02 3.547933e+03
<VARIANCE> 7
 2.903889e-03 5.916713e-03 8.275769e-04 8.805911e-05 3.894405e-03 7.717265e-04 5.608709e+08
<GCONST> -7.111145e+00
<STATE> 10
<MEAN> 7
 6.171327e-01 2.952793e-01 6.955215e-02 4.168591e-03 1.369934e-02 -8.622759e-03 -2.675070e+01
<VARIANCE> 7
 5.647059e-03 5.831265e-03 1.329960e-03 8.568736e-05 4.447909e-03 3.533188e-04 2.657345e+04
<GCONST> -1.661921e+01
<STATE> 11
<MEAN> 7
 7.156434e-01 2.489639e-01 3.362400e-03 -1.428497e-02 -1.901022e-02 1.372451e-02 -1.228593e+01
<VARIANCE> 7
 5.436290e-03 7.082655e-03 1.330285e-03 1.099420e-03 2.639424e-03 2.164132e-03 2.749762e+03
<GCONST> -1.488862e+01
<TRANSP> 12
 0.000000e+00 1.000000e+00 0.000000e+00 0.000000e+00 0.000000e+00 0.000000e+00 0.000000e+00 0.000000e+00 0.000000e+00 0.000000e+00 0.000000e+00 0.000000e+00
 0.000000e+00 8.264974e-01 1.735027e-01 0.000000e+00 0.000000e+00 0.000000e+00 0.000000e+00 0.000000e+00 0.000000e+00 0.000000e+00 0.000000e+00 0.000000e+00
 0.000000e+00 0.000000e+00 4.440428e-01 5.559572e-01 0.000000e+00 0.000000e+00 0.000000e+00 0.000000e+00 0.000000e+00 0.000000e+00 0.000000e+00 0.000000e+00
 0.000000e+00 0.000000e+00 0.000000e+00 9.483446e-01 5.165540e-02 0.000000e+00 0.000000e+00 0.000000e+00 0.000000e+00 0.000000e+00 0.000000e+00 0.000000e+00
 0.000000e+00 0.000000e+00 0.000000e+00 0.000000e+00 5.227759e-01 4.772241e-01 0.000000e+00 0.000000e+00 0.000000e+00 0.000000e+00 0.000000e+00 0.000000e+00
 0.000000e+00 0.000000e+00 0.000000e+00 0.000000e+00 0.000000e+00 9.370918e-01 6.290819e-02 0.000000e+00 0.000000e+00 0.000000e+00 0.000000e+00 0.000000e+00
 0.000000e+00 0.000000e+00 0.000000e+00 0.000000e+00 0.000000e+00 0.000000e+00 0.000000e+00 1.000000e+00 0.000000e+00 0.000000e+00 0.000000e+00 0.000000e+00
 0.000000e+00 0.000000e+00 0.000000e+00 0.000000e+00 0.000000e+00 0.000000e+00 0.000000e+00 0.000000e+00 1.000000e+00 0.000000e+00 0.000000e+00 0.000000e+00
 0.000000e+00 0.000000e+00 0.000000e+00 0.000000e+00 0.000000e+00 0.000000e+00 0.000000e+00 0.000000e+00 0.000000e+00 1.000000e+00 0.000000e+00 0.000000e+00
 0.000000e+00 0.000000e+00 0.000000e+00 0.000000e+00 0.000000e+00 0.000000e+00 0.000000e+00 0.000000e+00 0.000000e+00 8.680234e-01 1.319766e-01 0.000000e+00
 0.000000e+00 0.000000e+00 0.000000e+00 0.000000e+00 0.000000e+00 0.000000e+00 0.000000e+00 0.000000e+00 0.000000e+00 0.000000e+00 9.110579e-01 8.894210e-02
 0.000000e+00 0.000000e+00 0.000000e+00 0.000000e+00 0.000000e+00 0.000000e+00 0.000000e+00 0.000000e+00 0.000000e+00 0.000000e+00 0.000000e+00 0.000000e+00
<ENDHMM>
