~o
<STREAMINFO> 1 6
<VECSIZE> 6<NULLD><USER><DIAGC>
~h "proto"
<BEGINHMM>
<NUMSTATES> 12
<STATE> 2
<MEAN> 6
 3.597441e-01 2.701746e-01 2.973529e-02 -2.343160e-03 -2.402916e-02 -9.846209e-03
<VARIANCE> 6
 6.035277e-03 5.173313e-03 6.466075e-04 1.831099e-04 1.024852e-03 4.814597e-04
<GCONST> -2.981820e+01
<STATE> 3
<MEAN> 6
 3.987235e-01 2.286708e-01 -1.381501e-02 -4.117360e-02 5.586416e-03 -7.351369e-03
<VARIANCE> 6
 2.558279e-03 4.632705e-03 3.564313e-04 3.623551e-04 1.774357e-03 1.245147e-03
<GCONST> -2.920085e+01
<STATE> 4
<MEAN> 6
 3.935693e-01 1.368011e-01 2.952922e-02 -7.648395e-03 1.229319e-02 2.776896e-02
<VARIANCE> 6
 2.179228e-03 4.177305e-03 3.989135e-04 4.433279e-04 8.015715e-04 8.135387e-04
<GCONST> -3.037063e+01
<STATE> 5
<MEAN> 6
 4.594946e-01 1.996806e-01 1.604004e-02 1.719466e-02 -1.052140e-02 -1.430966e-02
<VARIANCE> 6
 1.490720e-03 5.072841e-03 2.195057e-04 3.715667e-04 3.157201e-04 1.137342e-03
<GCONST> -3.192672e+01
<STATE> 6
<MEAN> 6
 5.034119e-01 1.612436e-01 3.007155e-02 -1.974129e-02 2.236418e-02 7.962778e-03
<VARIANCE> 6
 1.716791e-03 5.379101e-03 4.758926e-04 2.184474e-04 6.140107e-04 7.895447e-04
<GCONST> -3.118411e+01
<STATE> 7
<MEAN> 6
 5.797396e-01 1.713703e-01 2.894030e-02 3.911714e-02 -4.063037e-02 4.184089e-02
<VARIANCE> 6
 2.779762e-03 4.804877e-03 8.085167e-04 8.859610e-04 1.064074e-03 1.763852e-03
<GCONST> -2.753130e+01
<STATE> 8
<MEAN> 6
 5.511625e-01 2.750861e-01 -2.797137e-02 3.849480e-02 6.679070e-03 -2.914942e-02
<VARIANCE> 6
 3.741626e-03 4.625699e-03 3.406845e-04 6.125151e-04 2.736668e-03 6.023159e-04
<GCONST> -2.863533e+01
<STATE> 9
<MEAN> 6
 5.716879e-01 3.042550e-01 5.903720e-02 6.993524e-03 3.571502e-02 -4.679460e-03
<VARIANCE> 6
 5.210487e-03 6.646902e-03 1.387030e-03 6.359315e-05 3.209051e-03 1.895072e-04
<GCONST> -2.979988e+01
<STATE> 10
<MEAN> 6
 7.095373e-01 3.113083e-01 4.114496e-02 -2.323800e-02 -5.223714e-02 -3.148049e-02
<VARIANCE> 6
 4.821859e-03 4.280255e-03 1.769767e-03 5.054691e-04 1.718786e-03 5.170626e-04
<GCONST> -2.762149e+01
<STATE> 11
<MEAN> 6
 6.990322e-01 2.367167e-01 -1.043751e-02 -5.363153e-03 -4.101965e-03 3.383821e-02
<VARIANCE> 6
 5.983894e-03 5.661543e-03 7.964101e-04 1.294667e-03 2.159871e-03 1.325461e-03
<GCONST> -2.581408e+01
<TRANSP> 12
 0.000000e+00 1.000000e+00 0.000000e+00 0.000000e+00 0.000000e+00 0.000000e+00 0.000000e+00 0.000000e+00 0.000000e+00 0.000000e+00 0.000000e+00 0.000000e+00
 0.000000e+00 8.573958e-01 1.426042e-01 0.000000e+00 0.000000e+00 0.000000e+00 0.000000e+00 0.000000e+00 0.000000e+00 0.000000e+00 0.000000e+00 0.000000e+00
 0.000000e+00 0.000000e+00 8.612465e-01 1.387536e-01 0.000000e+00 0.000000e+00 0.000000e+00 0.000000e+00 0.000000e+00 0.000000e+00 0.000000e+00 0.000000e+00
 0.000000e+00 0.000000e+00 0.000000e+00 8.572813e-01 1.427187e-01 0.000000e+00 0.000000e+00 0.000000e+00 0.000000e+00 0.000000e+00 0.000000e+00 0.000000e+00
 0.000000e+00 0.000000e+00 0.000000e+00 0.000000e+00 8.766264e-01 1.233735e-01 0.000000e+00 0.000000e+00 0.000000e+00 0.000000e+00 0.000000e+00 0.000000e+00
 0.000000e+00 0.000000e+00 0.000000e+00 0.000000e+00 0.000000e+00 8.394396e-01 1.605604e-01 0.000000e+00 0.000000e+00 0.000000e+00 0.000000e+00 0.000000e+00
 0.000000e+00 0.000000e+00 0.000000e+00 0.000000e+00 0.000000e+00 0.000000e+00 8.204644e-01 1.795356e-01 0.000000e+00 0.000000e+00 0.000000e+00 0.000000e+00
 0.000000e+00 0.000000e+00 0.000000e+00 0.000000e+00 0.000000e+00 0.000000e+00 0.000000e+00 8.419380e-01 1.580621e-01 0.000000e+00 0.000000e+00 0.000000e+00
 0.000000e+00 0.000000e+00 0.000000e+00 0.000000e+00 0.000000e+00 0.000000e+00 0.000000e+00 0.000000e+00 8.717626e-01 1.282374e-01 0.000000e+00 0.000000e+00
 0.000000e+00 0.000000e+00 0.000000e+00 0.000000e+00 0.000000e+00 0.000000e+00 0.000000e+00 0.000000e+00 0.000000e+00 8.170926e-01 1.829074e-01 0.000000e+00
 0.000000e+00 0.000000e+00 0.000000e+00 0.000000e+00 0.000000e+00 0.000000e+00 0.000000e+00 0.000000e+00 0.000000e+00 0.000000e+00 8.768222e-01 1.231779e-01
 0.000000e+00 0.000000e+00 0.000000e+00 0.000000e+00 0.000000e+00 0.000000e+00 0.000000e+00 0.000000e+00 0.000000e+00 0.000000e+00 0.000000e+00 0.000000e+00
<ENDHMM>
