~o
<STREAMINFO> 1 7
<VECSIZE> 7<NULLD><USER><DIAGC>
~h "proto"
<BEGINHMM>
<NUMSTATES> 12
<STATE> 2
<MEAN> 7
 3.788758e-01 3.044671e-01 1.734753e-02 3.421100e-03 2.748627e-03 -2.853222e-02 -2.455065e+01
<VARIANCE> 7
 4.447667e-03 6.574202e-03 6.635835e-04 1.035006e-03 1.808231e-03 1.775348e-03 1.931285e+03
<GCONST> -1.684927e+01
<STATE> 3
<MEAN> 7
 3.867287e-01 2.207069e-01 -1.522274e-02 -5.075200e-02 1.286786e-03 2.093669e-03 -1.889536e+00
<VARIANCE> 7
 4.819939e-03 6.343768e-03 2.806237e-04 6.608171e-04 1.101029e-03 5.321429e-04 2.746129e+01
<GCONST> -2.406800e+01
<STATE> 4
<MEAN> 7
 4.187253e-01 1.330680e-01 3.156716e-02 -7.329228e-04 7.699353e-03 3.442654e-02 7.594842e+00
<VARIANCE> 7
 5.319690e-03 5.520050e-03 4.162883e-04 1.102185e-03 1.593261e-03 1.684648e-03 5.837949e+02
<GCONST> -1.862379e+01
<STATE> 5
<MEAN> 7
 4.737436e-01 1.809744e-01 4.897570e-03 3.057833e-02 -1.258115e-02 -2.283586e-02 -1.492474e+01
<VARIANCE> 7
 3.138934e-03 5.707521e-03 3.448449e-04 3.152601e-04 4.362310e-04 1.061973e-03 9.171500e+03
<GCONST> -1.956034e+01
<STATE> 6
<MEAN> 7
 4.733429e-01 2.133211e-01 7.252034e-03 -3.937911e-03 1.068856e-02 -6.534021e-02 -8.376080e+02
<VARIANCE> 7
 3.546428e-03 4.179352e-03 1.825566e-04 1.522443e-04 6.850414e-04 1.289780e-03 6.201669e+08
<GCONST> -9.346565e+00
<STATE> 7
<MEAN> 7
 5.212879e-01 1.746551e-01 3.122372e-02 3.638031e-03 -4.881381e-03 2.762139e-02 1.363273e+01
<VARIANCE> 7
 5.648422e-03 2.714340e-03 7.254417e-04 1.610941e-03 2.398287e-03 2.313066e-03 6.630195e+02
<GCONST> -1.748549e+01
<STATE> 8
<MEAN> 7
 5.430756e-01 2.900207e-01 -2.805937e-02 5.522378e-02 2.646653e-03 -3.105129e-02 2.511405e+01
<VARIANCE> 7
 4.514911e-03 4.203745e-03 8.051489e-04 9.667310e-04 3.445045e-03 1.051554e-03 9.976298e+03
<GCONST> -1.539342e+01
<STATE> 9
<MEAN> 7
 5.206800e-01 3.106419e-01 1.117036e-02 1.577161e-02 9.799930e-02 -3.384687e-02 8.449778e+02
<VARIANCE> 7
 4.771052e-03 6.135184e-03 4.403139e-04 1.667032e-04 6.227669e-03 1.034597e-03 1.205922e+07
<GCONST> -9.648237e+00
<STATE> 10
<MEAN> 7
 5.865197e-01 3.336020e-01 7.564383e-02 3.144402e-03 2.059996e-02 -1.625950e-02 -1.862411e+01
<VARIANCE> 7
 7.017726e-03 4.427182e-03 1.739743e-03 1.384184e-04 5.595532e-03 5.301452e-04 1.631811e+04
<GCONST> -1.578153e+01
<STATE> 11
<MEAN> 7
 6.845369e-01 2.703620e-01 6.240677e-03 -1.800263e-02 -2.542262e-02 1.943222e-02 -1.302800e+01
<VARIANCE> 7
 5.961675e-03 6.843279e-03 1.891168e-03 1.882344e-03 4.267292e-03 3.551114e-03 2.367496e+03
<GCONST> -1.311523e+01
<TRANSP> 12
 0.000000e+00 1.000000e+00 0.000000e+00 0.000000e+00 0.000000e+00 0.000000e+00 0.000000e+00 0.000000e+00 0.000000e+00 0.000000e+00 0.000000e+00 0.000000e+00
 0.000000e+00 8.942712e-01 1.057288e-01 0.000000e+00 0.000000e+00 0.000000e+00 0.000000e+00 0.000000e+00 0.000000e+00 0.000000e+00 0.000000e+00 0.000000e+00
 0.000000e+00 0.000000e+00 8.831840e-01 1.168160e-01 0.000000e+00 0.000000e+00 0.000000e+00 0.000000e+00 0.000000e+00 0.000000e+00 0.000000e+00 0.000000e+00
 0.000000e+00 0.000000e+00 0.000000e+00 8.947573e-01 1.052427e-01 0.000000e+00 0.000000e+00 0.000000e+00 0.000000e+00 0.000000e+00 0.000000e+00 0.000000e+00
 0.000000e+00 0.000000e+00 0.000000e+00 0.000000e+00 8.000544e-01 1.999456e-01 0.000000e+00 0.000000e+00 0.000000e+00 0.000000e+00 0.000000e+00 0.000000e+00
 0.000000e+00 0.000000e+00 0.000000e+00 0.000000e+00 0.000000e+00 0.000000e+00 1.000000e+00 0.000000e+00 0.000000e+00 0.000000e+00 0.000000e+00 0.000000e+00
 0.000000e+00 0.000000e+00 0.000000e+00 0.000000e+00 0.000000e+00 0.000000e+00 9.073073e-01 9.269271e-02 0.000000e+00 0.000000e+00 0.000000e+00 0.000000e+00
 0.000000e+00 0.000000e+00 0.000000e+00 0.000000e+00 0.000000e+00 0.000000e+00 0.000000e+00 8.250124e-01 1.749876e-01 0.000000e+00 0.000000e+00 0.000000e+00
 0.000000e+00 0.000000e+00 0.000000e+00 0.000000e+00 0.000000e+00 0.000000e+00 0.000000e+00 0.000000e+00 0.000000e+00 1.000000e+00 0.000000e+00 0.000000e+00
 0.000000e+00 0.000000e+00 0.000000e+00 0.000000e+00 0.000000e+00 0.000000e+00 0.000000e+00 0.000000e+00 0.000000e+00 8.403484e-01 1.596516e-01 0.000000e+00
 0.000000e+00 0.000000e+00 0.000000e+00 0.000000e+00 0.000000e+00 0.000000e+00 0.000000e+00 0.000000e+00 0.000000e+00 0.000000e+00 8.986018e-01 1.013982e-01
 0.000000e+00 0.000000e+00 0.000000e+00 0.000000e+00 0.000000e+00 0.000000e+00 0.000000e+00 0.000000e+00 0.000000e+00 0.000000e+00 0.000000e+00 0.000000e+00
<ENDHMM>
