~o
<STREAMINFO> 1 6
<VECSIZE> 6<NULLD><USER><DIAGC>
~h "proto"
<BEGINHMM>
<NUMSTATES> 12
<STATE> 2
<MEAN> 6
 3.633325e-01 3.027124e-01 1.486219e-02 1.977100e-02 2.515699e-02 -1.476916e-02
<VARIANCE> 6
 4.100227e-03 6.582575e-03 6.849311e-04 3.913952e-04 1.014969e-03 1.170893e-03
<GCONST> -2.826765e+01
<STATE> 3
<MEAN> 6
 4.260232e-01 3.100282e-01 1.273197e-02 -4.137958e-02 -3.760804e-02 -4.700050e-02
<VARIANCE> 6
 2.774923e-03 4.751487e-03 6.239315e-04 1.029972e-03 7.963225e-04 1.462176e-03
<GCONST> -2.813020e+01
<STATE> 4
<MEAN> 6
 3.794328e-01 1.989441e-01 -1.683552e-02 -4.858210e-02 1.346881e-02 1.003069e-02
<VARIANCE> 6
 4.541329e-03 4.576194e-03 2.865266e-04 5.356278e-04 1.122327e-03 6.739910e-04
<GCONST> -2.953856e+01
<STATE> 5
<MEAN> 6
 3.881234e-01 1.229191e-01 3.272289e-02 -6.149335e-03 1.435867e-02 3.323516e-02
<VARIANCE> 6
 3.011141e-03 4.827563e-03 3.455904e-04 9.537537e-04 1.416225e-03 2.064015e-03
<GCONST> -2.777981e+01
<STATE> 6
<MEAN> 6
 4.716881e-01 1.824140e-01 1.931282e-02 4.251536e-03 2.017182e-03 -7.253935e-03
<VARIANCE> 6
 1.601034e-03 3.111729e-03 4.198931e-04 9.021820e-04 8.361316e-04 1.696205e-03
<GCONST> -2.943471e+01
<STATE> 7
<MEAN> 6
 5.789110e-01 1.479459e-01 3.287126e-02 1.960119e-02 -2.138199e-02 3.858253e-02
<VARIANCE> 6
 3.679053e-03 4.409281e-03 8.738534e-04 1.646534e-03 2.372899e-03 2.921307e-03
<GCONST> -2.533293e+01
<STATE> 8
<MEAN> 6
 5.552867e-01 2.801039e-01 -3.034736e-02 6.125873e-02 -1.031417e-03 -3.689836e-02
<VARIANCE> 6
 4.450866e-03 4.796829e-03 5.558561e-04 8.829506e-04 4.093820e-03 1.239805e-03
<GCONST> -2.644551e+01
<STATE> 9
<MEAN> 6
 5.492245e-01 3.233224e-01 5.626070e-02 8.238728e-03 5.951335e-02 -1.489907e-02
<VARIANCE> 6
 4.729544e-03 5.859988e-03 2.369074e-03 1.120454e-04 3.853284e-03 4.930999e-04
<GCONST> -2.778176e+01
<STATE> 10
<MEAN> 6
 6.963597e-01 3.192554e-01 5.461292e-02 -2.916765e-02 -6.298803e-02 -3.534833e-02
<VARIANCE> 6
 4.853575e-03 4.872394e-03 2.072415e-03 7.309283e-04 1.674009e-03 1.064640e-03
<GCONST> -2.626283e+01
<STATE> 11
<MEAN> 6
 6.863459e-01 2.519256e-01 -1.599490e-02 -9.212218e-03 -9.751629e-03 5.529515e-02
<VARIANCE> 6
 5.380434e-03 3.683966e-03 1.067117e-03 2.095914e-03 4.890548e-03 2.055664e-03
<GCONST> -2.431966e+01
<TRANSP> 12
 0.000000e+00 1.000000e+00 0.000000e+00 0.000000e+00 0.000000e+00 0.000000e+00 0.000000e+00 0.000000e+00 0.000000e+00 0.000000e+00 0.000000e+00 0.000000e+00
 0.000000e+00 8.304639e-01 1.695361e-01 0.000000e+00 0.000000e+00 0.000000e+00 0.000000e+00 0.000000e+00 0.000000e+00 0.000000e+00 0.000000e+00 0.000000e+00
 0.000000e+00 0.000000e+00 7.870101e-01 2.129899e-01 0.000000e+00 0.000000e+00 0.000000e+00 0.000000e+00 0.000000e+00 0.000000e+00 0.000000e+00 0.000000e+00
 0.000000e+00 0.000000e+00 0.000000e+00 8.546524e-01 1.453476e-01 0.000000e+00 0.000000e+00 0.000000e+00 0.000000e+00 0.000000e+00 0.000000e+00 0.000000e+00
 0.000000e+00 0.000000e+00 0.000000e+00 0.000000e+00 8.494157e-01 1.505844e-01 0.000000e+00 0.000000e+00 0.000000e+00 0.000000e+00 0.000000e+00 0.000000e+00
 0.000000e+00 0.000000e+00 0.000000e+00 0.000000e+00 0.000000e+00 9.052055e-01 9.479455e-02 0.000000e+00 0.000000e+00 0.000000e+00 0.000000e+00 0.000000e+00
 0.000000e+00 0.000000e+00 0.000000e+00 0.000000e+00 0.000000e+00 0.000000e+00 8.782918e-01 1.217081e-01 0.000000e+00 0.000000e+00 0.000000e+00 0.000000e+00
 0.000000e+00 0.000000e+00 0.000000e+00 0.000000e+00 0.000000e+00 0.000000e+00 0.000000e+00 8.158096e-01 1.841904e-01 0.000000e+00 0.000000e+00 0.000000e+00
 0.000000e+00 0.000000e+00 0.000000e+00 0.000000e+00 0.000000e+00 0.000000e+00 0.000000e+00 0.000000e+00 8.357953e-01 1.642047e-01 0.000000e+00 0.000000e+00
 0.000000e+00 0.000000e+00 0.000000e+00 0.000000e+00 0.000000e+00 0.000000e+00 0.000000e+00 0.000000e+00 0.000000e+00 8.024071e-01 1.975929e-01 0.000000e+00
 0.000000e+00 0.000000e+00 0.000000e+00 0.000000e+00 0.000000e+00 0.000000e+00 0.000000e+00 0.000000e+00 0.000000e+00 0.000000e+00 8.217039e-01 1.782961e-01
 0.000000e+00 0.000000e+00 0.000000e+00 0.000000e+00 0.000000e+00 0.000000e+00 0.000000e+00 0.000000e+00 0.000000e+00 0.000000e+00 0.000000e+00 0.000000e+00
<ENDHMM>
