~o
<STREAMINFO> 1 6
<VECSIZE> 6<NULLD><USER><DIAGC>
~h "proto"
<BEGINHMM>
<NUMSTATES> 12
<STATE> 2
<MEAN> 6
 4.113061e-01 2.601006e-01 -2.950311e-02 -5.595700e-02 2.753188e-02 -1.702668e-02
<VARIANCE> 6
 3.568746e-03 4.284800e-03 4.129964e-04 6.313170e-04 9.988465e-04 1.254341e-03
<GCONST> -2.881079e+01
<STATE> 3
<MEAN> 6
 3.530951e-01 1.739940e-01 2.145101e-02 -2.407544e-02 2.495274e-02 2.979948e-02
<VARIANCE> 6
 7.656240e-03 2.893992e-03 8.571990e-04 9.202547e-04 1.377576e-03 1.513025e-03
<GCONST> -2.682386e+01
<STATE> 4
<MEAN> 6
 4.649865e-01 1.820945e-01 2.429378e-02 4.824486e-04 9.013432e-04 1.928566e-03
<VARIANCE> 6
 1.300543e-03 1.972756e-03 2.681145e-04 5.667379e-04 5.277445e-04 1.375320e-03
<GCONST> -3.168171e+01
<STATE> 5
<MEAN> 6
 5.618041e-01 1.623483e-01 3.226018e-02 9.385396e-03 -1.100603e-02 2.562461e-02
<VARIANCE> 6
 2.213459e-03 3.438803e-03 4.564906e-04 6.457605e-04 9.297819e-04 1.866646e-03
<GCONST> -2.905976e+01
<STATE> 6
<MEAN> 6
 5.662641e-01 2.436889e-01 -3.467702e-02 6.682023e-02 -6.137691e-02 -2.866835e-03
<VARIANCE> 6
 4.238476e-03 4.461594e-03 1.796272e-03 4.484486e-04 1.753451e-03 2.470241e-03
<GCONST> -2.622991e+01
<STATE> 7
<MEAN> 6
 4.780919e-01 3.081014e-01 -4.944622e-02 1.768646e-02 1.881604e-02 -2.306703e-02
<VARIANCE> 6
 3.688880e-03 3.812529e-03 7.040549e-04 2.675916e-04 9.685279e-04 3.745819e-04
<GCONST> -3.045877e+01
<STATE> 8
<MEAN> 6
 4.295055e-01 3.176570e-01 3.884606e-02 4.065903e-03 8.956993e-02 3.338550e-03
<VARIANCE> 6
 4.325161e-03 4.738584e-03 3.462322e-03 1.139666e-04 3.629885e-03 2.411130e-04
<GCONST> -2.846228e+01
<STATE> 9
<MEAN> 6
 5.777012e-01 3.334084e-01 1.045153e-01 8.604552e-03 -1.639005e-02 -1.078950e-02
<VARIANCE> 6
 4.631678e-03 4.096582e-03 1.467042e-03 1.095658e-04 2.339831e-03 2.071586e-04
<GCONST> -3.002837e+01
<STATE> 10
<MEAN> 6
 6.862881e-01 3.247698e-01 4.560679e-02 -2.983254e-02 -6.684695e-02 -3.265448e-02
<VARIANCE> 6
 6.388046e-03 4.320615e-03 1.696698e-03 4.218440e-04 1.568131e-03 5.462485e-04
<GCONST> -2.759068e+01
<STATE> 11
<MEAN> 6
 6.796355e-01 2.571602e-01 -1.418812e-02 -5.948552e-03 -4.346022e-03 4.313244e-02
<VARIANCE> 6
 5.792876e-03 5.480616e-03 9.463171e-04 1.466017e-03 2.898928e-03 1.480899e-03
<GCONST> -2.517706e+01
<TRANSP> 12
 0.000000e+00 1.000000e+00 0.000000e+00 0.000000e+00 0.000000e+00 0.000000e+00 0.000000e+00 0.000000e+00 0.000000e+00 0.000000e+00 0.000000e+00 0.000000e+00
 0.000000e+00 7.884531e-01 2.115469e-01 0.000000e+00 0.000000e+00 0.000000e+00 0.000000e+00 0.000000e+00 0.000000e+00 0.000000e+00 0.000000e+00 0.000000e+00
 0.000000e+00 0.000000e+00 8.351852e-01 1.648148e-01 0.000000e+00 0.000000e+00 0.000000e+00 0.000000e+00 0.000000e+00 0.000000e+00 0.000000e+00 0.000000e+00
 0.000000e+00 0.000000e+00 0.000000e+00 9.013337e-01 9.866630e-02 0.000000e+00 0.000000e+00 0.000000e+00 0.000000e+00 0.000000e+00 0.000000e+00 0.000000e+00
 0.000000e+00 0.000000e+00 0.000000e+00 0.000000e+00 8.653704e-01 1.346296e-01 0.000000e+00 0.000000e+00 0.000000e+00 0.000000e+00 0.000000e+00 0.000000e+00
 0.000000e+00 0.000000e+00 0.000000e+00 0.000000e+00 0.000000e+00 8.039901e-01 1.960099e-01 0.000000e+00 0.000000e+00 0.000000e+00 0.000000e+00 0.000000e+00
 0.000000e+00 0.000000e+00 0.000000e+00 0.000000e+00 0.000000e+00 0.000000e+00 8.305795e-01 1.694206e-01 0.000000e+00 0.000000e+00 0.000000e+00 0.000000e+00
 0.000000e+00 0.000000e+00 0.000000e+00 0.000000e+00 0.000000e+00 0.000000e+00 0.000000e+00 8.313097e-01 1.686903e-01 0.000000e+00 0.000000e+00 0.000000e+00
 0.000000e+00 0.000000e+00 0.000000e+00 0.000000e+00 0.000000e+00 0.000000e+00 0.000000e+00 0.000000e+00 7.753815e-01 2.246185e-01 0.000000e+00 0.000000e+00
 0.000000e+00 0.000000e+00 0.000000e+00 0.000000e+00 0.000000e+00 0.000000e+00 0.000000e+00 0.000000e+00 0.000000e+00 7.976785e-01 2.023215e-01 0.000000e+00
 0.000000e+00 0.000000e+00 0.000000e+00 0.000000e+00 0.000000e+00 0.000000e+00 0.000000e+00 0.000000e+00 0.000000e+00 0.000000e+00 8.578663e-01 1.421336e-01
 0.000000e+00 0.000000e+00 0.000000e+00 0.000000e+00 0.000000e+00 0.000000e+00 0.000000e+00 0.000000e+00 0.000000e+00 0.000000e+00 0.000000e+00 0.000000e+00
<ENDHMM>
