~o
<STREAMINFO> 1 7
<VECSIZE> 7<NULLD><USER><DIAGC>
~h "proto"
<BEGINHMM>
<NUMSTATES> 12
<STATE> 2
<MEAN> 7
 3.948507e-01 2.239015e-01 -9.821839e-03 -4.909739e-02 3.100106e-02 5.848714e-03 -1.341381e-02
<VARIANCE> 7
 4.640256e-03 5.666709e-03 9.182813e-04 5.571601e-04 1.019574e-03 1.866172e-03 1.112375e+02
<GCONST> -2.062723e+01
<STATE> 3
<MEAN> 7
 4.065342e-01 1.515703e-01 2.821402e-02 1.094756e-02 -7.776023e-03 1.959669e-02 1.273569e+01
<VARIANCE> 7
 8.611457e-03 3.692772e-03 5.457206e-04 4.195561e-04 4.843324e-04 9.901458e-04 6.050304e+02
<GCONST> -2.092574e+01
<STATE> 4
<MEAN> 7
 5.036798e-01 1.793482e-01 2.853317e-02 -5.513132e-03 3.878742e-03 3.749409e-05 -8.312140e+00
<VARIANCE> 7
 3.604009e-03 2.174147e-03 3.488846e-04 4.262233e-04 6.428161e-04 1.808023e-03 5.980935e+03
<GCONST> -1.958184e+01
<STATE> 5
<MEAN> 7
 5.383197e-01 1.773029e-01 2.722995e-02 2.673981e-02 -4.416765e-02 5.082597e-02 -2.517313e+03
<VARIANCE> 7
 4.967904e-03 2.785377e-03 5.572201e-04 4.079841e-04 1.688460e-03 4.785081e-03 1.381648e+08
<GCONST> -6.602057e+00
<STATE> 6
<MEAN> 7
 5.345499e-01 2.298088e-01 -2.340699e-02 4.108833e-02 -2.709852e-02 -3.986444e-03 6.679440e+00
<VARIANCE> 7
 5.547365e-03 5.388636e-03 2.196724e-03 1.206752e-03 2.304016e-03 1.721243e-03 1.496051e+02
<GCONST> -1.782318e+01
<STATE> 7
<MEAN> 7
 4.402102e-01 3.220817e-01 -3.753681e-02 9.211155e-03 3.455681e-02 -1.412522e-02 1.241471e+01
<VARIANCE> 7
 3.867534e-03 3.250880e-03 3.788414e-04 1.885777e-04 1.848033e-03 2.251388e-04 1.508112e+03
<GCONST> -2.224703e+01
<STATE> 8
<MEAN> 7
 4.152757e-01 3.137981e-01 4.736924e-03 2.139907e-03 1.122232e-01 -1.412503e-03 2.403636e+03
<VARIANCE> 7
 6.139891e-03 4.949911e-03 1.416752e-04 1.290458e-04 4.879810e-03 2.807578e-04 1.723551e+08
<GCONST> -9.889109e+00
<STATE> 9
<MEAN> 7
 4.227632e-01 3.143521e-01 4.062276e-02 3.072785e-03 1.147802e-01 4.247204e-03 -6.673178e+00
<VARIANCE> 7
 6.025898e-03 4.962039e-03 6.355122e-04 1.073836e-04 4.774250e-03 3.232292e-04 7.458571e+02
<GCONST> -2.081980e+01
<STATE> 10
<MEAN> 7
 5.294059e-01 3.282009e-01 9.263722e-02 7.539007e-03 8.102740e-03 -6.944689e-03 -1.762160e+01
<VARIANCE> 7
 8.540093e-03 4.814025e-03 1.782277e-03 1.130989e-04 4.711779e-03 4.387350e-04 1.181096e+04
<GCONST> -1.636370e+01
<STATE> 11
<MEAN> 7
 6.731449e-01 2.857947e-01 5.749782e-03 -1.679720e-02 -2.659225e-02 1.592041e-02 -1.641216e+01
<VARIANCE> 7
 6.246716e-03 5.245654e-03 1.820412e-03 1.273900e-03 3.330420e-03 2.450665e-03 2.084201e+03
<GCONST> -1.450919e+01
<TRANSP> 12
 0.000000e+00 1.000000e+00 0.000000e+00 0.000000e+00 0.000000e+00 0.000000e+00 0.000000e+00 0.000000e+00 0.000000e+00 0.000000e+00 0.000000e+00 0.000000e+00
 0.000000e+00 8.874016e-01 1.125984e-01 0.000000e+00 0.000000e+00 0.000000e+00 0.000000e+00 0.000000e+00 0.000000e+00 0.000000e+00 0.000000e+00 0.000000e+00
 0.000000e+00 0.000000e+00 8.722202e-01 1.277799e-01 0.000000e+00 0.000000e+00 0.000000e+00 0.000000e+00 0.000000e+00 0.000000e+00 0.000000e+00 0.000000e+00
 0.000000e+00 0.000000e+00 0.000000e+00 8.789167e-01 1.210833e-01 0.000000e+00 0.000000e+00 0.000000e+00 0.000000e+00 0.000000e+00 0.000000e+00 0.000000e+00
 0.000000e+00 0.000000e+00 0.000000e+00 0.000000e+00 9.442264e-02 9.055774e-01 0.000000e+00 0.000000e+00 0.000000e+00 0.000000e+00 0.000000e+00 0.000000e+00
 0.000000e+00 0.000000e+00 0.000000e+00 0.000000e+00 0.000000e+00 9.029122e-01 9.708779e-02 0.000000e+00 0.000000e+00 0.000000e+00 0.000000e+00 0.000000e+00
 0.000000e+00 0.000000e+00 0.000000e+00 0.000000e+00 0.000000e+00 0.000000e+00 8.114583e-01 1.885416e-01 0.000000e+00 0.000000e+00 0.000000e+00 0.000000e+00
 0.000000e+00 0.000000e+00 0.000000e+00 0.000000e+00 0.000000e+00 0.000000e+00 0.000000e+00 0.000000e+00 1.000000e+00 0.000000e+00 0.000000e+00 0.000000e+00
 0.000000e+00 0.000000e+00 0.000000e+00 0.000000e+00 0.000000e+00 0.000000e+00 0.000000e+00 0.000000e+00 0.000000e+00 1.000000e+00 0.000000e+00 0.000000e+00
 0.000000e+00 0.000000e+00 0.000000e+00 0.000000e+00 0.000000e+00 0.000000e+00 0.000000e+00 0.000000e+00 0.000000e+00 8.744116e-01 1.255885e-01 0.000000e+00
 0.000000e+00 0.000000e+00 0.000000e+00 0.000000e+00 0.000000e+00 0.000000e+00 0.000000e+00 0.000000e+00 0.000000e+00 0.000000e+00 9.094490e-01 9.055108e-02
 0.000000e+00 0.000000e+00 0.000000e+00 0.000000e+00 0.000000e+00 0.000000e+00 0.000000e+00 0.000000e+00 0.000000e+00 0.000000e+00 0.000000e+00 0.000000e+00
<ENDHMM>
