~o
<STREAMINFO> 1 38
<VECSIZE> 38<NULLD><USER><DIAGC>
~h "eight"
<BEGINHMM>
<NUMSTATES> 5
<STATE> 2
<MEAN> 38
 -2.575849e+00 -2.845248e+00 -1.307585e+00 9.376843e-01 -2.010719e+00 -5.708562e-01 -1.526306e+00 -1.211841e+00 -3.206187e-01 -1.490190e+00 -5.230365e-01 -1.278672e+00 -9.075922e-01 -3.341282e-01 -1.023508e+00 -3.285219e-01 -9.498813e-01 -6.698329e-01 -4.882883e-01 -4.495607e-02 1.444776e-02 5.803931e-02 6.553574e-02 -6.723530e-03 4.795649e-03 -1.451864e-02 -1.171359e-02 -8.678952e-03 -3.398381e-02 -1.528254e-02 -2.214084e-02 -6.502573e-03 7.845311e-03 -4.310467e-03 7.574525e-03 -2.495566e-03 1.814294e-03 5.373825e-03
<VARIANCE> 38
 1.433517e+01 5.265856e+00 2.810832e+00 2.641678e+00 2.622020e+00 1.494574e+00 1.403157e+00 1.105869e+00 8.826565e-01 1.323591e+00 7.805085e-01 9.140298e-01 6.363871e-01 4.659853e-01 6.287228e-01 3.877405e-01 4.983978e-01 3.409073e-01 3.153654e-01 5.521926e-01 1.930991e-01 9.489094e-02 1.219810e-01 9.909676e-02 5.500564e-02 5.730209e-02 4.469664e-02 3.376007e-02 6.503451e-02 3.292148e-02 4.544583e-02 2.639567e-02 1.773437e-02 2.650882e-02 1.617877e-02 2.191996e-02 1.499886e-02 1.286092e-02
<GCONST> 1.394000e+01
<STATE> 3
<MEAN> 38
 2.787874e+00 1.154287e+00 -1.151373e+00 -1.864465e+00 8.787648e-01 6.860719e-01 1.530448e+00 1.411998e+00 1.061321e+00 1.826576e+00 1.114030e+00 1.330804e+00 8.808979e-01 4.019096e-01 7.552503e-01 2.927761e-01 6.414342e-01 4.851196e-01 3.134928e-01 1.153397e-01 5.381630e-02 -2.005629e-02 -6.846030e-02 2.052502e-02 -4.861328e-03 1.790543e-02 2.611317e-03 -1.493100e-02 2.184712e-02 -4.471899e-03 1.283557e-02 5.378567e-03 -8.984730e-03 8.100099e-03 -1.070274e-02 2.874031e-03 -3.159625e-03 -7.516864e-03
<VARIANCE> 38
 2.555740e+01 1.002395e+01 7.813599e+00 8.642417e+00 5.288804e+00 3.808672e+00 3.841401e+00 3.293519e+00 2.887217e+00 3.552588e+00 2.245281e+00 2.243333e+00 1.820614e+00 1.439622e+00 1.422075e+00 1.075608e+00 1.098882e+00 7.969327e-01 6.989800e-01 1.068222e+00 3.747709e-01 2.534240e-01 4.061022e-01 2.227778e-01 1.489073e-01 1.952681e-01 1.609247e-01 1.134178e-01 1.934825e-01 1.047220e-01 1.221103e-01 7.977699e-02 5.154410e-02 6.888071e-02 4.494370e-02 5.687423e-02 4.068628e-02 3.244895e-02
<GCONST> 5.097849e+01
<STATE> 4
<MEAN> 38
 -1.818844e+00 -2.284612e+00 -6.309752e-01 1.452478e+00 -1.564290e+00 -3.470683e-01 -1.390092e+00 -1.097278e+00 -1.881007e-01 -1.260775e+00 -2.549117e-01 -9.536504e-01 -6.648275e-01 -1.553118e-01 -8.217540e-01 -1.302555e-01 -6.943871e-01 -4.524877e-01 -2.891012e-01 5.053994e-02 8.124923e-03 -3.361363e-03 2.353145e-02 2.782613e-03 2.617073e-02 1.783192e-02 2.092335e-02 3.281638e-02 2.419275e-02 3.579164e-02 2.254832e-02 1.942651e-02 2.026437e-02 1.039323e-02 1.741738e-02 9.983625e-03 1.262556e-02 1.396073e-02
<VARIANCE> 38
 1.557867e+01 5.925036e+00 2.916817e+00 2.670869e+00 2.608336e+00 1.657999e+00 1.262323e+00 1.116728e+00 9.569463e-01 1.223127e+00 8.128432e-01 9.425498e-01 6.666949e-01 5.473750e-01 6.397074e-01 4.493037e-01 5.029331e-01 3.682971e-01 3.577080e-01 6.356478e-01 1.927371e-01 8.222042e-02 1.062347e-01 8.671962e-02 5.655060e-02 4.429825e-02 3.926625e-02 4.087655e-02 5.382534e-02 4.079154e-02 4.334556e-02 2.807276e-02 2.408453e-02 2.526756e-02 2.140742e-02 2.165886e-02 1.657412e-02 1.566783e-02
<GCONST> 1.526825e+01
<TRANSP> 5
 0.000000e+00 1.000000e+00 0.000000e+00 0.000000e+00 0.000000e+00
 0.000000e+00 9.141818e-01 8.581816e-02 0.000000e+00 0.000000e+00
 0.000000e+00 0.000000e+00 9.634065e-01 3.659352e-02 0.000000e+00
 0.000000e+00 0.000000e+00 0.000000e+00 9.338412e-01 6.615876e-02
 0.000000e+00 0.000000e+00 0.000000e+00 0.000000e+00 0.000000e+00
<ENDHMM>
~h "seven"
<BEGINHMM>
<NUMSTATES> 5
<STATE> 2
<MEAN> 38
 -8.718949e+00 -4.155869e+00 -7.809192e-01 -8.168742e-01 -6.045487e-01 -1.412801e+00 -1.193195e+00 -9.425092e-01 -1.025588e+00 -8.239090e-01 -1.079510e+00 -8.017065e-01 -8.048645e-01 -7.429860e-01 -5.313588e-01 -7.749992e-01 -5.832411e-01 -7.402925e-01 -7.577161e-01 6.306638e-01 1.305575e-01 -6.077729e-02 1.522196e-01 -1.160351e-01 1.012374e-01 -1.802117e-03 -1.003928e-03 8.266682e-02 -4.151344e-02 7.301030e-02 -1.669444e-02 1.579216e-02 5.799209e-02 -2.733983e-02 5.499220e-02 -2.105747e-02 1.526241e-02 3.321852e-02
<VARIANCE> 38
 8.949527e+01 1.066475e+01 5.907610e+00 8.241324e+00 7.098031e+00 3.916267e+00 1.387786e+00 1.203621e+00 2.190412e+00 1.805826e+00 1.601433e+00 1.046333e+00 5.650356e-01 8.905116e-01 1.032694e+00 8.586783e-01 7.581360e-01 3.509853e-01 4.364714e-01 1.977551e+00 3.203098e-01 1.432121e-01 1.898883e-01 1.407506e-01 8.946738e-02 4.161569e-02 3.527596e-02 5.881785e-02 4.738646e-02 5.242234e-02 3.454566e-02 2.323410e-02 2.719144e-02 2.868871e-02 2.836295e-02 2.283727e-02 1.633785e-02 1.770733e-02
<GCONST> 2.979044e+01
<STATE> 3
<MEAN> 38
 -2.125611e+00 6.273929e-01 9.733362e-01 -1.159413e+00 1.577326e+00 -4.428863e-01 5.822522e-01 5.259264e-01 -3.437032e-01 9.337556e-01 -8.008048e-02 7.161030e-01 3.825000e-01 -6.323519e-02 7.399908e-01 5.700202e-03 7.226993e-01 3.635518e-01 1.209553e-01 -7.340952e-01 -2.461678e-01 8.180482e-03 -8.961558e-02 2.963182e-02 -9.885329e-02 -4.929518e-02 -3.819824e-02 -7.327711e-02 -1.301494e-02 -7.261313e-02 -2.111945e-02 -3.946918e-02 -5.607906e-02 -1.090102e-02 -5.940466e-02 -1.949347e-02 -4.147683e-02 -4.619334e-02
<VARIANCE> 38
 1.502603e+02 2.400418e+01 6.436569e+00 7.598631e+00 4.393628e+00 6.937520e+00 2.891808e+00 2.498341e+00 3.813334e+00 2.188979e+00 3.503772e+00 1.568910e+00 1.397001e+00 1.724673e+00 1.161096e+00 1.852193e+00 9.966753e-01 1.090912e+00 1.287092e+00 7.535354e+00 1.118835e+00 3.055274e-01 4.141126e-01 2.354585e-01 3.439167e-01 1.526751e-01 1.330107e-01 2.213703e-01 1.126943e-01 2.035682e-01 8.066305e-02 7.373615e-02 8.870355e-02 5.771399e-02 1.033716e-01 5.088831e-02 6.008795e-02 6.818722e-02
<GCONST> 6.034886e+01
<STATE> 4
<MEAN> 38
 4.779528e+00 1.479982e+00 2.379521e-01 1.084332e+00 -3.285350e-01 7.010275e-01 1.472986e-01 1.129687e-01 5.867938e-01 4.797710e-02 5.590580e-01 8.018120e-02 2.019071e-01 3.432983e-01 -5.627421e-02 3.928533e-01 5.933744e-02 2.883596e-01 3.740649e-01 1.346204e-01 8.519434e-02 2.463984e-02 -3.961252e-02 5.048872e-02 5.423711e-03 3.280929e-02 2.502497e-02 -2.908171e-03 3.252718e-02 3.708292e-03 2.567868e-02 1.968711e-02 5.049096e-03 2.733831e-02 1.013329e-02 2.884790e-02 2.050968e-02 1.141671e-02
<VARIANCE> 38
 2.097105e+01 9.030333e+00 3.613010e+00 3.856806e+00 3.978405e+00 2.358898e+00 2.644456e+00 2.067156e+00 1.905277e+00 2.095858e+00 1.847246e+00 1.532907e+00 1.112473e+00 8.314923e-01 1.061981e+00 8.412508e-01 9.685366e-01 8.182707e-01 7.676451e-01 4.840145e-01 1.738874e-01 1.058431e-01 1.359396e-01 1.028080e-01 7.885250e-02 6.818859e-02 6.136489e-02 7.314151e-02 6.546057e-02 6.922437e-02 4.849086e-02 3.510473e-02 2.991744e-02 3.302591e-02 3.127759e-02 3.042999e-02 2.844778e-02 3.031947e-02
<GCONST> 3.106470e+01
<TRANSP> 5
 0.000000e+00 1.000000e+00 0.000000e+00 0.000000e+00 0.000000e+00
 0.000000e+00 9.422864e-01 5.771370e-02 0.000000e+00 0.000000e+00
 0.000000e+00 0.000000e+00 9.608582e-01 3.914182e-02 0.000000e+00
 0.000000e+00 0.000000e+00 0.000000e+00 9.662374e-01 3.376259e-02
 0.000000e+00 0.000000e+00 0.000000e+00 0.000000e+00 0.000000e+00
<ENDHMM>
~h "three"
<BEGINHMM>
<NUMSTATES> 5
<STATE> 2
<MEAN> 38
 -5.259003e+00 -3.508363e+00 -9.963342e-01 2.052014e-01 -1.579330e+00 -1.119007e+00 -1.434087e+00 -1.049792e+00 -5.284219e-01 -1.180037e+00 -7.909316e-01 -1.067187e+00 -9.394462e-01 -6.328408e-01 -8.996979e-01 -5.765867e-01 -7.694650e-01 -6.796323e-01 -6.245580e-01 6.698993e-02 -3.779653e-02 -3.718446e-02 9.865101e-02 -6.014590e-02 5.390124e-02 -2.432334e-02 -2.953256e-02 1.957518e-02 -4.887321e-02 1.759400e-02 -3.779251e-02 -1.726025e-02 1.060218e-02 -3.635820e-02 1.065921e-02 -3.753789e-02 -1.746818e-02 -3.771987e-03
<VARIANCE> 38
 2.395383e+01 4.597320e+00 3.409075e+00 4.626459e+00 3.434287e+00 2.262773e+00 1.268899e+00 1.180532e+00 1.062188e+00 1.532358e+00 8.241193e-01 9.338501e-01 5.409799e-01 5.832406e-01 7.328674e-01 4.959642e-01 6.067761e-01 3.368231e-01 3.194871e-01 1.066986e+00 2.799821e-01 1.406702e-01 1.761301e-01 1.303393e-01 7.732983e-02 5.496202e-02 4.734724e-02 4.003606e-02 6.078607e-02 4.181769e-02 4.450478e-02 2.952221e-02 2.796544e-02 3.421466e-02 2.560661e-02 3.025746e-02 2.050890e-02 1.907095e-02
<GCONST> 2.184097e+01
<STATE> 3
<MEAN> 38
 3.006599e+00 2.402142e+00 1.934138e-01 -9.155957e-01 1.112622e+00 3.803806e-01 9.527808e-01 7.620375e-01 2.792627e-01 1.091700e+00 6.828356e-01 1.116367e+00 9.802291e-01 6.844679e-01 1.019754e+00 5.757805e-01 8.216816e-01 6.548740e-01 5.545313e-01 -9.309364e-02 -1.225411e-02 2.675088e-02 -2.106230e-02 7.647597e-03 -4.036978e-02 -1.805132e-02 -1.319263e-02 -2.817740e-02 -8.893410e-03 -2.872325e-02 -6.501335e-03 -6.437698e-03 -1.085386e-02 4.413193e-03 -1.041444e-02 5.248371e-03 -1.176850e-03 -6.250849e-03
<VARIANCE> 38
 5.630322e+01 2.007473e+01 9.832801e+00 8.757129e+00 5.051215e+00 4.491003e+00 3.655261e+00 3.624062e+00 3.449552e+00 4.031327e+00 3.226961e+00 2.566004e+00 1.981220e+00 1.901355e+00 1.549320e+00 1.347993e+00 1.079670e+00 9.009832e-01 8.296438e-01 2.774603e+00 9.143636e-01 3.882421e-01 4.475372e-01 2.347896e-01 2.193002e-01 1.651653e-01 1.542344e-01 1.529765e-01 1.782721e-01 1.478570e-01 1.228991e-01 9.762258e-02 9.152092e-02 7.480966e-02 7.319283e-02 5.450324e-02 4.988406e-02 4.673776e-02
<GCONST> 5.966369e+01
<STATE> 4
<MEAN> 38
 -9.413890e-01 -1.990548e+00 -7.178853e-01 1.489451e+00 -1.497941e+00 5.954866e-02 -9.230335e-01 -6.673968e-01 2.482972e-01 -9.690902e-01 -5.705776e-02 -9.179168e-01 -7.028432e-01 -2.392617e-01 -9.486014e-01 -2.078565e-01 -8.009422e-01 -4.972266e-01 -2.981715e-01 1.428264e-01 3.951495e-02 -2.049763e-02 -1.648155e-02 1.184712e-02 3.545981e-02 5.327919e-02 5.592232e-02 5.262691e-02 5.249211e-02 5.077904e-02 4.257876e-02 2.417532e-02 1.177235e-02 1.164657e-02 1.416724e-02 1.802872e-02 1.794373e-02 1.629627e-02
<VARIANCE> 38
 1.674854e+01 6.029286e+00 3.091714e+00 2.944022e+00 2.675699e+00 1.899780e+00 1.938069e+00 1.579452e+00 1.253435e+00 1.432230e+00 1.051977e+00 1.034481e+00 6.904263e-01 5.666640e-01 6.556863e-01 4.994860e-01 5.322588e-01 4.142609e-01 3.912714e-01 2.584325e-01 1.215055e-01 6.853829e-02 7.647608e-02 6.110608e-02 4.635447e-02 5.676192e-02 4.915923e-02 4.039976e-02 4.531864e-02 3.550800e-02 3.672889e-02 2.739369e-02 2.277482e-02 2.478312e-02 1.996253e-02 2.142329e-02 1.761439e-02 1.549787e-02
<GCONST> 1.512649e+01
<TRANSP> 5
 0.000000e+00 1.000000e+00 0.000000e+00 0.000000e+00 0.000000e+00
 0.000000e+00 9.326740e-01 6.732600e-02 0.000000e+00 0.000000e+00
 0.000000e+00 0.000000e+00 9.725173e-01 2.748281e-02 0.000000e+00
 0.000000e+00 0.000000e+00 0.000000e+00 9.227097e-01 7.729032e-02
 0.000000e+00 0.000000e+00 0.000000e+00 0.000000e+00 0.000000e+00
<ENDHMM>
~h "one"
<BEGINHMM>
<NUMSTATES> 5
<STATE> 2
<MEAN> 38
 -3.460242e+00 -3.332452e+00 -1.622303e+00 6.726848e-01 -2.017210e+00 -8.003184e-01 -1.576963e+00 -1.240052e+00 -4.083340e-01 -1.442857e+00 -6.035091e-01 -1.294424e+00 -9.459376e-01 -4.178099e-01 -1.048957e+00 -4.158792e-01 -9.405199e-01 -6.973449e-01 -5.332086e-01 -1.615482e-02 -2.138337e-02 -3.540539e-02 -5.634315e-02 -3.111287e-02 -4.128237e-02 -3.429192e-02 -3.576477e-02 -3.818934e-02 -2.550094e-02 -3.127143e-02 -1.886247e-02 -1.198993e-02 -6.536010e-03 3.984801e-03 -9.094544e-04 2.636818e-03 -3.598110e-03 -6.542853e-03
<VARIANCE> 38
 1.554146e+01 6.048605e+00 2.972512e+00 2.878517e+00 2.930204e+00 1.949031e+00 1.543183e+00 1.227486e+00 1.048113e+00 1.209734e+00 8.852337e-01 8.847674e-01 6.429294e-01 5.081293e-01 6.046468e-01 4.349356e-01 4.936061e-01 3.525673e-01 3.405026e-01 4.923288e-01 2.301352e-01 1.131747e-01 1.027837e-01 1.022124e-01 6.827468e-02 6.324212e-02 5.169139e-02 4.413914e-02 5.031193e-02 4.178704e-02 4.269601e-02 3.065929e-02 2.329219e-02 2.565886e-02 2.006707e-02 2.248724e-02 1.811301e-02 1.592671e-02
<GCONST> 1.710313e+01
<STATE> 3
<MEAN> 38
 4.582703e+00 3.087041e+00 1.507994e+00 6.211722e-01 1.279909e+00 1.415451e+00 1.419897e+00 1.144302e+00 6.912954e-01 5.758963e-01 3.933086e-01 4.493501e-01 3.794235e-01 2.655444e-01 3.792616e-01 3.084957e-01 2.993267e-01 2.911655e-01 3.172578e-01 -7.401671e-03 9.007843e-03 1.277856e-02 2.417079e-02 1.983168e-02 2.141168e-02 1.816126e-02 9.030645e-03 4.200498e-05 -8.326473e-03 -1.122536e-02 -1.182289e-02 -5.854117e-03 -3.720906e-03 -7.599433e-03 -1.000080e-02 -1.373803e-02 -1.148788e-02 -8.188911e-03
<VARIANCE> 38
 2.268304e+01 7.816381e+00 4.308200e+00 6.707257e+00 4.939641e+00 4.244493e+00 3.854000e+00 3.279714e+00 3.400779e+00 2.573126e+00 3.557794e+00 2.157830e+00 1.503951e+00 1.248592e+00 1.281890e+00 1.263189e+00 1.272390e+00 1.021735e+00 8.997732e-01 1.005280e+00 3.346443e-01 1.840708e-01 2.572418e-01 1.889139e-01 1.654229e-01 1.484529e-01 1.233471e-01 1.520658e-01 1.144926e-01 1.681080e-01 9.873239e-02 6.863536e-02 5.366904e-02 5.318012e-02 5.221933e-02 4.928826e-02 4.491207e-02 4.162034e-02
<GCONST> 4.889966e+01
<STATE> 4
<MEAN> 38
 -1.159515e+00 -1.984207e+00 -7.833121e-01 1.159443e+00 -1.595459e+00 -3.871330e-01 -1.260543e+00 -8.907063e-01 1.223579e-01 -7.228875e-01 2.399704e-01 -4.831335e-01 -3.281868e-01 4.870310e-02 -5.871099e-01 9.490570e-02 -3.848135e-01 -1.397685e-01 -3.725322e-02 2.459157e-01 1.037731e-01 4.594781e-02 4.204098e-02 5.263778e-03 3.339684e-02 1.551930e-02 2.067557e-02 4.346511e-02 4.045700e-02 6.394706e-02 4.979552e-02 3.635898e-02 2.917716e-02 1.895356e-02 3.527160e-02 3.264600e-02 3.667093e-02 3.441867e-02
<VARIANCE> 38
 1.625675e+01 4.988731e+00 2.494686e+00 2.590811e+00 2.500802e+00 1.685166e+00 1.426830e+00 1.350788e+00 1.287726e+00 1.426936e+00 1.305284e+00 1.184546e+00 7.704608e-01 5.713529e-01 6.324515e-01 5.676384e-01 6.606928e-01 5.469838e-01 5.092298e-01 3.624015e-01 1.409237e-01 6.764641e-02 7.458862e-02 6.007582e-02 5.160744e-02 4.258779e-02 3.770418e-02 3.968927e-02 3.976423e-02 3.913881e-02 3.275710e-02 2.371924e-02 1.905408e-02 2.074647e-02 1.975580e-02 2.119456e-02 1.818148e-02 1.675444e-02
<GCONST> 1.466537e+01
<TRANSP> 5
 0.000000e+00 1.000000e+00 0.000000e+00 0.000000e+00 0.000000e+00
 0.000000e+00 9.139129e-01 8.608710e-02 0.000000e+00 0.000000e+00
 0.000000e+00 0.000000e+00 9.730047e-01 2.699528e-02 0.000000e+00
 0.000000e+00 0.000000e+00 0.000000e+00 9.100647e-01 8.993533e-02
 0.000000e+00 0.000000e+00 0.000000e+00 0.000000e+00 0.000000e+00
<ENDHMM>
~h "six"
<BEGINHMM>
<NUMSTATES> 5
<STATE> 2
<MEAN> 38
 -1.188257e+00 -2.467801e+00 -1.433253e+00 8.933069e-01 -1.776667e+00 -1.803240e-01 -1.158953e+00 -9.019600e-01 -4.474339e-02 -1.251821e+00 -2.950386e-01 -1.057724e+00 -7.483006e-01 -2.358036e-01 -9.185585e-01 -2.017926e-01 -8.223650e-01 -5.524489e-01 -3.824139e-01 4.933552e-01 1.459429e-01 -4.290529e-02 1.150242e-01 -8.707107e-02 7.909060e-02 2.600777e-03 1.845866e-03 6.832417e-02 -2.420931e-02 5.837182e-02 -1.443834e-02 1.189655e-02 4.433737e-02 -2.090781e-02 4.089133e-02 -2.015669e-02 9.356554e-03 2.415681e-02
<VARIANCE> 38
 3.346359e+01 8.010436e+00 3.229321e+00 3.628391e+00 3.539838e+00 1.968238e+00 1.255634e+00 1.046865e+00 1.293019e+00 1.277215e+00 9.989551e-01 8.750688e-01 5.726382e-01 6.118674e-01 6.480911e-01 5.304604e-01 5.426684e-01 3.638398e-01 3.770802e-01 1.280156e+00 2.603516e-01 1.404144e-01 1.667070e-01 1.336192e-01 7.358645e-02 4.020927e-02 3.283368e-02 4.663488e-02 4.590232e-02 3.776121e-02 3.363226e-02 2.023247e-02 2.183061e-02 2.664755e-02 2.060365e-02 2.278843e-02 1.281741e-02 1.274890e-02
<GCONST> 1.910550e+01
<STATE> 3
<MEAN> 38
 -6.141090e+00 -1.334583e+00 6.460781e-01 -1.684474e+00 1.063656e+00 -1.267007e+00 -3.497886e-02 4.808041e-02 -7.836974e-01 6.966088e-01 -3.924906e-01 5.997058e-01 2.534683e-01 -2.258741e-01 6.179044e-01 -2.868430e-01 5.238967e-01 7.892922e-02 -1.795172e-01 -2.791815e-02 5.668785e-03 1.760248e-02 -6.624640e-03 1.821110e-02 2.187822e-03 9.102782e-03 9.269764e-03 3.200028e-03 1.329274e-02 2.051810e-03 6.908578e-03 1.752703e-03 -2.139355e-03 5.452772e-03 -1.789137e-03 4.656204e-03 1.981145e-03 1.489935e-03
<VARIANCE> 38
 1.551616e+02 2.329474e+01 7.249356e+00 8.106426e+00 5.268517e+00 7.040286e+00 3.050627e+00 2.691795e+00 4.138749e+00 2.741961e+00 4.236083e+00 1.994263e+00 1.799678e+00 2.147147e+00 1.168534e+00 1.846619e+00 9.556643e-01 9.385036e-01 1.115263e+00 6.735627e+00 9.157925e-01 3.093254e-01 4.508867e-01 2.509553e-01 3.039421e-01 1.338074e-01 1.177862e-01 2.021875e-01 1.440936e-01 2.024185e-01 1.075132e-01 9.055112e-02 1.007148e-01 6.499567e-02 9.046633e-02 5.181801e-02 4.663650e-02 5.328067e-02
<GCONST> 6.148007e+01
<STATE> 4
<MEAN> 38
 4.052805e-01 -1.435349e+00 -8.130792e-01 1.420595e+00 -1.304775e+00 2.787786e-01 -8.481112e-01 -7.590086e-01 6.782478e-02 -1.116505e+00 -1.378432e-01 -8.999913e-01 -5.749568e-01 -8.673763e-02 -7.899672e-01 -4.542745e-02 -6.568647e-01 -3.369277e-01 -1.421928e-01 -1.276563e-01 -4.640805e-02 1.487092e-02 -3.968576e-02 2.888142e-02 -2.942689e-02 -5.743678e-03 -8.084867e-03 -2.918783e-02 7.868556e-03 -1.434608e-02 1.629320e-02 6.747999e-03 -8.082153e-03 1.288559e-02 -7.592098e-03 1.466175e-02 2.484734e-03 -5.728810e-03
<VARIANCE> 38
 3.616614e+01 8.607135e+00 2.996908e+00 4.204862e+00 3.365714e+00 2.378659e+00 1.388809e+00 1.140040e+00 1.507890e+00 1.273134e+00 1.055708e+00 8.415592e-01 5.695390e-01 6.142088e-01 6.400687e-01 5.446899e-01 5.339203e-01 3.642904e-01 3.957229e-01 8.366390e-01 1.991144e-01 8.845323e-02 1.076827e-01 7.793593e-02 5.406167e-02 3.385499e-02 2.973408e-02 3.542158e-02 3.646699e-02 2.887563e-02 2.828408e-02 1.895347e-02 1.790251e-02 2.138629e-02 1.730654e-02 1.834754e-02 1.233533e-02 1.190067e-02
<GCONST> 1.522535e+01
<TRANSP> 5
 0.000000e+00 1.000000e+00 0.000000e+00 0.000000e+00 0.000000e+00
 0.000000e+00 9.208061e-01 7.919393e-02 0.000000e+00 0.000000e+00
 0.000000e+00 0.000000e+00 9.767715e-01 2.322854e-02 0.000000e+00
 0.000000e+00 0.000000e+00 0.000000e+00 9.361254e-01 6.387462e-02
 0.000000e+00 0.000000e+00 0.000000e+00 0.000000e+00 0.000000e+00
<ENDHMM>
~h "two"
<BEGINHMM>
<NUMSTATES> 5
<STATE> 2
<MEAN> 38
 -5.242120e+00 -4.174544e+00 -1.652451e+00 -1.173047e-01 -1.283792e+00 -8.950133e-01 -1.285455e+00 -9.127952e-01 -5.187793e-01 -1.072564e+00 -6.803075e-01 -1.002164e+00 -8.581803e-01 -5.486065e-01 -8.419530e-01 -5.801194e-01 -7.639945e-01 -6.873586e-01 -6.344194e-01 4.778708e-01 1.651361e-01 6.371923e-04 2.547823e-01 -1.456245e-01 9.243801e-02 -4.328515e-02 -3.954495e-02 6.431977e-02 -1.037863e-01 3.120032e-02 -8.809441e-02 -3.655602e-02 3.111377e-02 -6.793430e-02 4.278255e-02 -5.667208e-02 -9.473565e-03 2.101264e-02
<VARIANCE> 38
 3.482697e+01 6.039305e+00 3.153584e+00 6.378209e+00 5.422789e+00 1.969883e+00 1.458416e+00 1.230865e+00 1.217019e+00 1.915169e+00 8.349413e-01 1.240004e+00 6.157650e-01 5.528294e-01 9.611675e-01 5.220147e-01 7.071152e-01 3.190612e-01 2.984562e-01 1.740145e+00 2.864488e-01 1.372611e-01 3.201525e-01 2.581147e-01 8.552341e-02 6.473018e-02 4.883810e-02 6.563032e-02 9.400462e-02 5.400897e-02 7.145495e-02 3.646138e-02 2.907605e-02 5.211147e-02 3.006430e-02 3.842304e-02 1.906687e-02 1.819268e-02
<GCONST> 2.898835e+01
<STATE> 3
<MEAN> 38
 1.613745e+00 1.888763e+00 4.570436e-01 -1.262464e+00 1.079486e+00 3.641212e-01 1.119410e+00 7.643674e-01 2.330380e-01 1.312881e+00 7.046319e-01 1.312430e+00 1.092687e+00 6.487630e-01 1.119830e+00 5.597482e-01 9.155719e-01 6.984041e-01 5.794196e-01 -3.251742e-01 -1.988560e-01 -6.451321e-02 -1.244720e-01 1.896282e-02 -6.278571e-02 -1.625958e-02 -3.836260e-03 -3.351643e-02 2.106587e-02 -2.484182e-02 1.568713e-02 -3.379062e-04 -2.103726e-02 1.021809e-02 -2.912900e-02 5.332853e-03 -1.311092e-02 -2.564849e-02
<VARIANCE> 38
 5.954283e+01 1.847129e+01 6.528086e+00 7.136956e+00 5.285141e+00 4.507751e+00 3.009212e+00 2.642768e+00 2.392271e+00 3.055875e+00 2.668770e+00 1.928973e+00 1.726397e+00 1.624257e+00 1.453411e+00 1.314005e+00 1.054698e+00 8.857463e-01 9.167150e-01 2.936962e+00 8.246315e-01 2.376094e-01 2.757098e-01 2.214953e-01 1.940998e-01 1.397930e-01 1.139854e-01 1.210874e-01 1.152209e-01 1.250608e-01 8.579934e-02 8.264707e-02 7.967225e-02 6.551535e-02 7.057130e-02 4.900734e-02 4.658094e-02 4.799510e-02
<GCONST> 5.362637e+01
<STATE> 4
<MEAN> 38
 5.445428e-01 -6.653857e-01 -1.543125e-02 1.929424e+00 -9.840316e-01 3.108727e-01 -6.869043e-01 -5.650020e-01 1.913716e-01 -9.300852e-01 -4.620031e-02 -8.753009e-01 -6.759893e-01 -2.092630e-01 -8.346553e-01 -1.307736e-01 -6.770958e-01 -3.545782e-01 -1.460785e-01 1.845202e-01 1.408400e-01 6.977012e-02 3.881279e-02 4.835791e-02 4.143788e-02 4.239519e-02 2.832716e-02 1.879039e-02 2.881100e-02 2.977768e-02 3.363190e-02 2.514826e-02 1.708218e-02 2.136151e-02 1.944006e-02 2.303181e-02 2.451235e-02 2.573213e-02
<VARIANCE> 38
 1.943220e+01 8.498815e+00 3.531854e+00 2.823112e+00 3.559408e+00 2.230416e+00 2.272649e+00 1.722860e+00 1.210742e+00 1.617969e+00 1.130037e+00 1.090232e+00 7.887283e-01 6.814299e-01 7.800056e-01 5.468852e-01 6.220444e-01 4.820814e-01 4.763003e-01 2.536825e-01 1.434711e-01 7.491485e-02 7.659722e-02 7.275303e-02 5.337472e-02 5.510847e-02 4.490205e-02 3.519008e-02 4.112919e-02 3.364623e-02 3.485959e-02 2.827650e-02 2.370113e-02 2.676385e-02 2.107559e-02 2.224423e-02 1.822579e-02 1.675555e-02
<GCONST> 1.814370e+01
<TRANSP> 5
 0.000000e+00 1.000000e+00 0.000000e+00 0.000000e+00 0.000000e+00
 0.000000e+00 9.325607e-01 6.743922e-02 0.000000e+00 0.000000e+00
 0.000000e+00 0.000000e+00 9.662088e-01 3.379124e-02 0.000000e+00
 0.000000e+00 0.000000e+00 0.000000e+00 9.326858e-01 6.731424e-02
 0.000000e+00 0.000000e+00 0.000000e+00 0.000000e+00 0.000000e+00
<ENDHMM>
~h "nine"
<BEGINHMM>
<NUMSTATES> 5
<STATE> 2
<MEAN> 38
 -3.705868e+00 -3.584255e+00 -1.635974e+00 9.366803e-01 -2.003216e+00 -6.049539e-01 -1.490219e+00 -1.182571e+00 -2.899579e-01 -1.410450e+00 -4.427437e-01 -1.229124e+00 -9.111289e-01 -3.622916e-01 -1.063817e+00 -3.968540e-01 -1.009403e+00 -7.244783e-01 -5.454527e-01 -1.014006e-02 -4.427960e-03 -1.475994e-02 -2.640211e-02 -4.660408e-03 -1.446684e-02 -9.859257e-03 -2.090449e-02 -3.675933e-02 -3.327348e-02 -3.840006e-02 -2.393787e-02 -1.292394e-02 -7.159568e-03 -9.112319e-04 -9.318091e-03 -9.333646e-03 -1.474878e-02 -1.757835e-02
<VARIANCE> 38
 1.759210e+01 5.806454e+00 2.739851e+00 2.526120e+00 2.819384e+00 1.685870e+00 1.323429e+00 1.177715e+00 1.050820e+00 1.190391e+00 8.834626e-01 8.407896e-01 5.809771e-01 4.770562e-01 6.323312e-01 4.316614e-01 5.030004e-01 3.829474e-01 3.657007e-01 5.413011e-01 2.239854e-01 9.882548e-02 8.320177e-02 8.456917e-02 4.842926e-02 4.846261e-02 4.362893e-02 4.113647e-02 5.177647e-02 3.994131e-02 4.130527e-02 2.640805e-02 1.942813e-02 2.439005e-02 1.833646e-02 2.377419e-02 1.863753e-02 1.677666e-02
<GCONST> 1.487136e+01
<STATE> 3
<MEAN> 38
 4.744352e+00 2.855264e+00 7.498724e-01 -4.444888e-01 7.140020e-01 5.928814e-01 7.426013e-01 6.207439e-01 3.217872e-01 5.410095e-01 2.553197e-01 4.769147e-01 4.552540e-01 3.172256e-01 5.550923e-01 4.442882e-01 5.557317e-01 4.687110e-01 4.257745e-01 -9.512603e-04 -3.937483e-04 7.425090e-04 -2.221487e-03 3.328004e-03 2.860164e-03 1.904961e-03 2.320234e-03 3.424389e-04 -2.322437e-03 -7.319449e-03 -7.949353e-03 -4.978605e-03 -2.473275e-03 -2.337545e-04 -1.017715e-03 -1.691369e-03 -4.871225e-04 8.924773e-04
<VARIANCE> 38
 1.717700e+01 6.890540e+00 4.954854e+00 7.384660e+00 4.421506e+00 3.334296e+00 2.826264e+00 2.393527e+00 3.389086e+00 3.198943e+00 4.228940e+00 2.245370e+00 1.359168e+00 1.049167e+00 1.232665e+00 1.043999e+00 9.213612e-01 7.399880e-01 7.075794e-01 7.731065e-01 2.905329e-01 2.239013e-01 3.367145e-01 1.642964e-01 1.226845e-01 1.139168e-01 9.844623e-02 1.504111e-01 1.355888e-01 1.724984e-01 9.347445e-02 5.906662e-02 4.526285e-02 5.526700e-02 4.705918e-02 4.276017e-02 3.690401e-02 3.617375e-02
<GCONST> 4.518721e+01
<STATE> 4
<MEAN> 38
 -1.234109e+00 -1.942368e+00 -6.174937e-01 1.554234e+00 -1.404236e+00 -9.020662e-02 -1.039094e+00 -7.696074e-01 1.435029e-01 -8.734481e-01 1.389763e-01 -6.448051e-01 -4.480015e-01 -1.319289e-02 -7.487126e-01 -8.041157e-02 -6.087299e-01 -3.230465e-01 -1.720410e-01 2.128419e-01 9.245763e-02 3.877742e-02 3.763651e-02 3.702184e-04 2.588442e-02 9.133833e-03 1.152584e-02 3.096272e-02 3.139731e-02 5.665337e-02 4.237778e-02 3.124395e-02 2.269763e-02 9.081295e-03 2.462484e-02 2.102387e-02 2.568733e-02 2.680884e-02
<VARIANCE> 38
 1.685893e+01 5.400902e+00 2.733835e+00 2.679116e+00 2.417217e+00 1.718235e+00 1.510946e+00 1.275707e+00 1.240664e+00 1.380116e+00 1.263618e+00 1.090904e+00 7.339186e-01 5.237048e-01 6.230780e-01 4.837989e-01 5.453841e-01 4.530384e-01 4.301687e-01 3.355200e-01 1.378951e-01 6.545347e-02 7.448411e-02 4.998020e-02 4.355824e-02 3.767953e-02 3.294273e-02 3.566432e-02 3.801037e-02 3.801216e-02 3.149354e-02 2.283726e-02 1.831248e-02 2.015226e-02 1.782381e-02 1.863111e-02 1.636909e-02 1.551254e-02
<GCONST> 1.236171e+01
<TRANSP> 5
 0.000000e+00 1.000000e+00 0.000000e+00 0.000000e+00 0.000000e+00
 0.000000e+00 9.118912e-01 8.810876e-02 0.000000e+00 0.000000e+00
 0.000000e+00 0.000000e+00 9.752444e-01 2.475555e-02 0.000000e+00
 0.000000e+00 0.000000e+00 0.000000e+00 9.125717e-01 8.742837e-02
 0.000000e+00 0.000000e+00 0.000000e+00 0.000000e+00 0.000000e+00
<ENDHMM>
~h "five"
<BEGINHMM>
<NUMSTATES> 5
<STATE> 2
<MEAN> 38
 -5.345481e+00 -3.083145e+00 -1.559156e+00 -4.431367e-01 -1.614055e+00 -1.160354e+00 -1.373351e+00 -1.054478e+00 -6.172701e-01 -1.050289e+00 -6.459522e-01 -9.303865e-01 -8.242699e-01 -4.951794e-01 -7.089404e-01 -4.566271e-01 -6.641225e-01 -6.478263e-01 -5.984532e-01 1.014382e-01 -1.033200e-02 -1.235647e-02 6.529567e-02 -2.842410e-02 4.160210e-02 -2.745640e-03 -2.912944e-04 3.187913e-02 -5.307221e-03 3.611717e-02 7.288852e-04 1.397432e-02 3.250347e-02 3.111694e-03 2.970585e-02 -9.886834e-04 7.856673e-03 1.390645e-02
<VARIANCE> 38
 2.285210e+01 4.091540e+00 2.492586e+00 6.093333e+00 2.575823e+00 2.955372e+00 1.199466e+00 1.002390e+00 1.434449e+00 1.158263e+00 1.064677e+00 7.676713e-01 5.227966e-01 6.815390e-01 6.195108e-01 5.617829e-01 5.053116e-01 3.044744e-01 3.045870e-01 8.915214e-01 2.157433e-01 1.067523e-01 1.671536e-01 8.681048e-02 8.362483e-02 4.379205e-02 3.350039e-02 4.150360e-02 3.540476e-02 3.530658e-02 2.836471e-02 2.043487e-02 2.075903e-02 2.143332e-02 1.875875e-02 1.934230e-02 1.497809e-02 1.477145e-02
<GCONST> 1.597029e+01
<STATE> 3
<MEAN> 38
 3.980264e+00 2.390024e+00 9.042760e-01 -1.062672e-01 1.111791e+00 6.390633e-02 6.761369e-01 4.686692e-01 -1.200833e-01 3.035190e-01 -4.089490e-01 1.533184e-01 1.581568e-01 -2.118795e-01 1.184015e-01 -2.133186e-01 2.121782e-01 2.539711e-01 2.149458e-01 -1.864529e-01 -4.771024e-02 -1.714803e-02 -4.810908e-02 -5.303320e-03 -3.985636e-02 -1.761788e-02 -1.305110e-02 -2.448830e-02 -6.420512e-03 -2.366029e-02 -8.968248e-03 -1.704748e-02 -2.190003e-02 -6.260274e-03 -1.886280e-02 -5.661849e-03 -1.289299e-02 -1.639462e-02
<VARIANCE> 38
 5.375660e+01 1.076908e+01 5.195396e+00 5.831755e+00 4.432106e+00 5.040933e+00 3.260509e+00 2.520690e+00 2.411063e+00 2.422610e+00 2.246687e+00 1.698869e+00 1.418732e+00 1.422427e+00 1.244108e+00 1.153933e+00 9.420189e-01 8.406416e-01 8.032867e-01 3.027577e+00 5.319622e-01 2.236276e-01 2.979752e-01 1.708879e-01 2.372939e-01 1.380731e-01 1.039186e-01 1.134243e-01 8.693647e-02 9.164921e-02 6.114956e-02 5.585852e-02 5.561528e-02 4.129602e-02 4.581172e-02 3.367559e-02 3.430896e-02 3.691523e-02
<GCONST> 4.694856e+01
<STATE> 4
<MEAN> 38
 3.292532e-01 -1.150414e+00 -5.249708e-01 1.013886e+00 -1.213212e+00 -4.896180e-02 -8.324760e-01 -7.273896e-01 -5.830730e-02 -8.547295e-01 -1.217744e-01 -7.432537e-01 -4.539657e-01 -3.774724e-02 -5.846655e-01 -3.261793e-02 -4.936469e-01 -2.808549e-01 -1.255163e-01 6.963918e-02 4.540610e-02 2.025243e-02 -1.352328e-02 1.844122e-02 -8.246677e-03 1.354782e-02 8.333504e-03 -6.867759e-03 9.078451e-03 -8.053310e-03 7.919531e-03 3.851262e-03 -5.353803e-03 5.926627e-03 -4.430532e-03 8.204331e-03 5.222445e-03 3.390733e-03
<VARIANCE> 38
 3.015585e+01 7.491374e+00 3.258117e+00 3.648663e+00 2.956599e+00 2.194550e+00 1.590792e+00 1.283838e+00 1.234248e+00 1.520596e+00 1.015699e+00 9.789407e-01 7.531393e-01 6.560453e-01 7.152682e-01 5.679625e-01 6.249173e-01 4.939620e-01 4.439549e-01 5.012159e-01 1.428086e-01 6.442194e-02 9.491360e-02 5.441254e-02 5.016585e-02 3.428639e-02 2.868205e-02 3.167320e-02 3.671560e-02 3.082471e-02 2.862102e-02 2.245933e-02 2.108785e-02 1.970459e-02 1.893542e-02 1.777732e-02 1.506060e-02 1.428465e-02
<GCONST> 1.497481e+01
<TRANSP> 5
 0.000000e+00 1.000000e+00 0.000000e+00 0.000000e+00 0.000000e+00
 0.000000e+00 9.329018e-01 6.709822e-02 0.000000e+00 0.000000e+00
 0.000000e+00 0.000000e+00 9.688617e-01 3.113833e-02 0.000000e+00
 0.000000e+00 0.000000e+00 0.000000e+00 9.390088e-01 6.099113e-02
 0.000000e+00 0.000000e+00 0.000000e+00 0.000000e+00 0.000000e+00
<ENDHMM>
~h "four"
<BEGINHMM>
<NUMSTATES> 5
<STATE> 2
<MEAN> 38
 -6.233191e+00 -3.193893e+00 -1.767648e+00 -1.371771e+00 -1.522314e+00 -1.949036e+00 -1.577160e+00 -1.104888e+00 -9.308571e-01 -9.157105e-01 -1.006476e+00 -9.117039e-01 -8.675917e-01 -7.156252e-01 -6.116912e-01 -6.423268e-01 -5.134133e-01 -5.667277e-01 -5.850456e-01 1.227563e-01 -4.308639e-02 -3.675258e-02 7.462906e-02 -4.846169e-02 3.729601e-02 -1.188415e-02 -8.545388e-03 3.069544e-02 -1.697533e-02 3.535331e-02 -5.464954e-03 1.073829e-02 3.210881e-02 -5.197958e-03 2.900903e-02 -5.667388e-03 7.816864e-03 1.516145e-02
<VARIANCE> 38
 2.725068e+01 4.327322e+00 2.746471e+00 7.163223e+00 3.151791e+00 3.178275e+00 1.122249e+00 1.074489e+00 1.629904e+00 1.299777e+00 1.204707e+00 7.957163e-01 4.976297e-01 7.223081e-01 6.904735e-01 6.230077e-01 5.492885e-01 2.976900e-01 3.134512e-01 1.060748e+00 2.323086e-01 1.226175e-01 2.168881e-01 9.213305e-02 1.187605e-01 5.144537e-02 3.650813e-02 5.513265e-02 3.642990e-02 4.545761e-02 2.965804e-02 2.141206e-02 2.299854e-02 2.227236e-02 2.181173e-02 1.868867e-02 1.421955e-02 1.452525e-02
<GCONST> 1.960039e+01
<STATE> 3
<MEAN> 38
 4.006904e+00 3.934404e+00 2.497247e+00 1.107043e+00 2.041112e+00 1.922060e+00 1.919322e+00 1.116983e+00 3.658441e-01 6.137399e-01 3.589304e-01 6.042150e-01 4.619420e-01 1.685660e-01 3.388478e-01 7.817104e-02 1.463005e-01 1.034938e-01 1.107789e-01 -2.969440e-01 -1.116941e-01 -5.701799e-02 -1.102090e-01 -1.523417e-02 -7.708237e-02 -1.520793e-02 3.440300e-03 -1.941850e-02 1.156121e-02 -3.528382e-02 -6.453887e-03 -2.340342e-02 -4.101755e-02 -1.443681e-02 -4.096696e-02 -8.651031e-03 -1.870115e-02 -2.472384e-02
<VARIANCE> 38
 4.274820e+01 1.305295e+01 6.683605e+00 7.336411e+00 5.136985e+00 7.504985e+00 5.910723e+00 5.711369e+00 4.436296e+00 2.841338e+00 2.725114e+00 2.014633e+00 1.524223e+00 1.531126e+00 1.414883e+00 1.368786e+00 1.210093e+00 9.368958e-01 7.952954e-01 2.461334e+00 6.761684e-01 3.085631e-01 3.589241e-01 2.479782e-01 4.351462e-01 2.992321e-01 2.336621e-01 2.206998e-01 1.141338e-01 1.409072e-01 8.606704e-02 7.267606e-02 7.111549e-02 5.737882e-02 6.003001e-02 4.720127e-02 4.142180e-02 3.779941e-02
<GCONST> 5.774887e+01
<STATE> 4
<MEAN> 38
 1.945617e-01 -1.246348e+00 -5.660371e-01 1.371128e+00 -1.511181e+00 -2.775195e-01 -1.336689e+00 -1.088459e+00 -1.635583e-01 -1.141149e+00 -1.548167e-01 -8.871841e-01 -5.057122e-01 7.779804e-02 -5.464699e-01 1.445154e-01 -4.542823e-01 -1.957473e-01 -5.306459e-02 2.438434e-01 2.028088e-01 1.178162e-01 6.687847e-02 6.527030e-02 3.589073e-02 1.392363e-02 -1.344413e-02 -2.447910e-02 -6.941680e-03 -2.208730e-03 1.061654e-02 1.746644e-02 2.043004e-02 3.081897e-02 2.670270e-02 2.394610e-02 2.081262e-02 1.794502e-02
<VARIANCE> 38
 2.007150e+01 1.054466e+01 4.482303e+00 3.015908e+00 3.629963e+00 2.126338e+00 1.850533e+00 1.744643e+00 1.498509e+00 1.377642e+00 9.002618e-01 9.762152e-01 8.097678e-01 7.121114e-01 8.647650e-01 6.219453e-01 6.669263e-01 5.242799e-01 4.473074e-01 3.352100e-01 2.310914e-01 1.127346e-01 8.384701e-02 9.931581e-02 5.713448e-02 5.295200e-02 4.203058e-02 3.818177e-02 3.642986e-02 2.847533e-02 3.055555e-02 2.460112e-02 2.232968e-02 2.682843e-02 2.155977e-02 2.228404e-02 1.856154e-02 1.677833e-02
<GCONST> 1.961972e+01
<TRANSP> 5
 0.000000e+00 1.000000e+00 0.000000e+00 0.000000e+00 0.000000e+00
 0.000000e+00 9.416555e-01 5.834455e-02 0.000000e+00 0.000000e+00
 0.000000e+00 0.000000e+00 9.674532e-01 3.254678e-02 0.000000e+00
 0.000000e+00 0.000000e+00 0.000000e+00 9.278734e-01 7.212654e-02
 0.000000e+00 0.000000e+00 0.000000e+00 0.000000e+00 0.000000e+00
<ENDHMM>
~h "zero"
<BEGINHMM>
<NUMSTATES> 5
<STATE> 2
<MEAN> 38
 -6.841963e-09 -8.544343e-08 -8.903297e-09 -1.389685e-07 -5.238905e-08 5.669132e-08 -3.369721e-08 -1.341750e-07 -5.757052e-08 3.852167e-09 -7.400170e-08 -7.038775e-08 -4.913395e-08 -2.603449e-08 -3.974521e-09 2.786761e-08 -2.039894e-08 -3.089388e-09 6.285333e-09 -3.808419e-04 -5.963924e-04 -1.038489e-03 -1.918809e-03 -1.079902e-03 -1.469816e-03 -9.992669e-04 -9.932166e-04 -1.146261e-03 -7.566527e-04 -1.077722e-03 -6.425015e-04 -5.764425e-04 -5.768837e-04 -3.056234e-04 -6.176391e-04 -4.565527e-04 -6.649639e-04 -7.613047e-04
<VARIANCE> 38
 6.315313e+01 1.757056e+01 6.290810e+00 7.155922e+00 6.050740e+00 4.631410e+00 3.949157e+00 3.066458e+00 2.696067e+00 3.230795e+00 2.531634e+00 2.300139e+00 1.611309e+00 1.276684e+00 1.569586e+00 1.128306e+00 1.239739e+00 9.018868e-01 8.261204e-01 2.050822e+00 4.500204e-01 1.929007e-01 2.572328e-01 1.624664e-01 1.582450e-01 1.092633e-01 9.128601e-02 1.069283e-01 9.381980e-02 1.006165e-01 6.893553e-02 5.230568e-02 4.867543e-02 4.448727e-02 4.515548e-02 3.670647e-02 3.184564e-02 3.161120e-02
<GCONST> 4.831047e+01
<STATE> 3
<MEAN> 38
 -6.841963e-09 -8.544343e-08 -8.903297e-09 -1.389685e-07 -5.238905e-08 5.669132e-08 -3.369721e-08 -1.341750e-07 -5.757052e-08 3.852167e-09 -7.400170e-08 -7.038775e-08 -4.913395e-08 -2.603449e-08 -3.974521e-09 2.786761e-08 -2.039894e-08 -3.089388e-09 6.285333e-09 -3.808419e-04 -5.963924e-04 -1.038489e-03 -1.918809e-03 -1.079902e-03 -1.469816e-03 -9.992669e-04 -9.932166e-04 -1.146261e-03 -7.566527e-04 -1.077722e-03 -6.425015e-04 -5.764425e-04 -5.768837e-04 -3.056234e-04 -6.176391e-04 -4.565527e-04 -6.649639e-04 -7.613047e-04
<VARIANCE> 38
 6.315313e+01 1.757056e+01 6.290810e+00 7.155922e+00 6.050740e+00 4.631410e+00 3.949157e+00 3.066458e+00 2.696067e+00 3.230795e+00 2.531634e+00 2.300139e+00 1.611309e+00 1.276684e+00 1.569586e+00 1.128306e+00 1.239739e+00 9.018868e-01 8.261204e-01 2.050822e+00 4.500204e-01 1.929007e-01 2.572328e-01 1.624664e-01 1.582450e-01 1.092633e-01 9.128601e-02 1.069283e-01 9.381980e-02 1.006165e-01 6.893553e-02 5.230568e-02 4.867543e-02 4.448727e-02 4.515548e-02 3.670647e-02 3.184564e-02 3.161120e-02
<GCONST> 4.831047e+01
<STATE> 4
<MEAN> 38
 -6.841963e-09 -8.544343e-08 -8.903297e-09 -1.389685e-07 -5.238905e-08 5.669132e-08 -3.369721e-08 -1.341750e-07 -5.757052e-08 3.852167e-09 -7.400170e-08 -7.038775e-08 -4.913395e-08 -2.603449e-08 -3.974521e-09 2.786761e-08 -2.039894e-08 -3.089388e-09 6.285333e-09 -3.808419e-04 -5.963924e-04 -1.038489e-03 -1.918809e-03 -1.079902e-03 -1.469816e-03 -9.992669e-04 -9.932166e-04 -1.146261e-03 -7.566527e-04 -1.077722e-03 -6.425015e-04 -5.764425e-04 -5.768837e-04 -3.056234e-04 -6.176391e-04 -4.565527e-04 -6.649639e-04 -7.613047e-04
<VARIANCE> 38
 6.315313e+01 1.757056e+01 6.290810e+00 7.155922e+00 6.050740e+00 4.631410e+00 3.949157e+00 3.066458e+00 2.696067e+00 3.230795e+00 2.531634e+00 2.300139e+00 1.611309e+00 1.276684e+00 1.569586e+00 1.128306e+00 1.239739e+00 9.018868e-01 8.261204e-01 2.050822e+00 4.500204e-01 1.929007e-01 2.572328e-01 1.624664e-01 1.582450e-01 1.092633e-01 9.128601e-02 1.069283e-01 9.381980e-02 1.006165e-01 6.893553e-02 5.230568e-02 4.867543e-02 4.448727e-02 4.515548e-02 3.670647e-02 3.184564e-02 3.161120e-02
<GCONST> 4.831047e+01
<TRANSP> 5
 0.000000e+00 1.000000e+00 0.000000e+00 0.000000e+00 0.000000e+00
 0.000000e+00 5.000000e-01 5.000000e-01 0.000000e+00 0.000000e+00
 0.000000e+00 0.000000e+00 5.000000e-01 5.000000e-01 0.000000e+00
 0.000000e+00 0.000000e+00 0.000000e+00 5.000000e-01 5.000000e-01
 0.000000e+00 0.000000e+00 0.000000e+00 0.000000e+00 0.000000e+00
<ENDHMM>
