~o
<STREAMINFO> 1 38
<VECSIZE> 38<NULLD><USER><DIAGC>
~h "eight"
<BEGINHMM>
<NUMSTATES> 5
<STATE> 2
<MEAN> 38
 3.679135e+00 1.762506e+00 -1.234347e+00 -2.510782e+00 1.161846e+00 5.206029e-01 1.713513e+00 1.438177e+00 8.672065e-01 2.039423e+00 9.489669e-01 1.433516e+00 9.226296e-01 2.948294e-01 8.608007e-01 1.154508e-01 6.379851e-01 3.921663e-01 1.588494e-01 -5.768172e-02 -5.442850e-02 9.926490e-02 1.776295e-01 -9.956577e-02 -7.144627e-02 -1.603384e-01 -1.535700e-01 -1.062735e-01 -1.618540e-01 -7.602776e-02 -1.103944e-01 -7.384294e-02 -3.138403e-02 -7.532506e-02 -3.025837e-02 -7.377911e-02 -6.021696e-02 -4.330803e-02
<VARIANCE> 38
 1.831911e+01 8.543558e+00 7.130805e+00 6.613621e+00 5.202950e+00 3.733034e+00 3.623006e+00 3.235421e+00 2.639929e+00 3.228532e+00 1.879610e+00 2.078116e+00 1.754655e+00 1.356568e+00 1.421188e+00 1.008737e+00 1.069450e+00 7.577791e-01 6.597587e-01 7.423748e-01 3.054521e-01 1.698313e-01 1.976581e-01 1.568774e-01 1.067970e-01 1.139634e-01 9.436464e-02 6.784063e-02 9.949752e-02 6.059375e-02 7.270186e-02 5.310253e-02 3.666786e-02 5.032679e-02 3.552248e-02 3.887881e-02 2.850672e-02 2.516461e-02
<GCONST> 4.130232e+01
<STATE> 3
<MEAN> 38
 2.202642e+00 3.228638e-01 -1.926271e+00 -1.960245e+00 5.217429e-01 1.129358e+00 1.820801e+00 1.998796e+00 1.931199e+00 2.338603e+00 1.929592e+00 1.768293e+00 1.258247e+00 8.204070e-01 9.383046e-01 7.741409e-01 9.729787e-01 8.677197e-01 6.918300e-01 3.510315e-01 2.542371e-01 -2.510625e-01 -6.220170e-01 2.778445e-01 7.079615e-02 3.385029e-01 2.673912e-01 8.579646e-02 3.430701e-01 5.965408e-02 2.166285e-01 1.244127e-01 -1.179547e-02 1.562554e-01 -1.072253e-02 1.390994e-01 8.111841e-02 2.641287e-02
<VARIANCE> 38
 2.450275e+01 7.680908e+00 7.911275e+00 8.924324e+00 4.878944e+00 3.352101e+00 3.301160e+00 2.575907e+00 2.543690e+00 2.884035e+00 2.114478e+00 1.998617e+00 1.826213e+00 1.564353e+00 1.225131e+00 9.502177e-01 9.380702e-01 6.874302e-01 6.002594e-01 1.158811e+00 3.387975e-01 3.480098e-01 4.400054e-01 2.302057e-01 1.771608e-01 1.688976e-01 1.470477e-01 1.381093e-01 1.820634e-01 1.292002e-01 1.114557e-01 8.168134e-02 6.351888e-02 5.828767e-02 4.904411e-02 5.057386e-02 3.938315e-02 3.179326e-02
<GCONST> 4.953955e+01
<STATE> 4
<MEAN> 38
 -1.697083e+00 -1.869319e+00 -5.620633e-01 8.123507e-01 -7.592679e-01 -2.105257e-01 -7.670008e-01 -5.938023e-01 -9.071222e-02 -6.430846e-01 -1.390372e-01 -5.127977e-01 -3.865600e-01 -1.364533e-01 -4.923258e-01 -1.353424e-01 -4.041023e-01 -2.685189e-01 -1.739182e-01 3.083552e-01 1.173314e-01 -3.072806e-02 4.116158e-02 1.777793e-02 1.208726e-01 1.022812e-01 1.041796e-01 1.329108e-01 9.959419e-02 1.282915e-01 8.617407e-02 8.020748e-02 8.078001e-02 5.076133e-02 7.210409e-02 4.559910e-02 5.779243e-02 6.116445e-02
<VARIANCE> 38
 3.395583e+01 1.286496e+01 5.184201e+00 5.086330e+00 5.177846e+00 3.420675e+00 2.943645e+00 2.130090e+00 1.728870e+00 2.185573e+00 1.389012e+00 1.507131e+00 9.970453e-01 8.377398e-01 1.066737e+00 7.319961e-01 8.517998e-01 6.117293e-01 5.639927e-01 1.550260e+00 3.992675e-01 1.991486e-01 2.910128e-01 2.055515e-01 1.450788e-01 1.242640e-01 1.060282e-01 1.048928e-01 1.464934e-01 1.034698e-01 1.054845e-01 6.559461e-02 5.116509e-02 5.486881e-02 4.401049e-02 4.729094e-02 3.442105e-02 2.977389e-02
<GCONST> 4.279655e+01
<TRANSP> 5
 0.000000e+00 1.000000e+00 0.000000e+00 0.000000e+00 0.000000e+00
 0.000000e+00 9.396386e-01 6.036140e-02 0.000000e+00 0.000000e+00
 0.000000e+00 0.000000e+00 8.574098e-01 1.425902e-01 0.000000e+00
 0.000000e+00 0.000000e+00 0.000000e+00 9.138127e-01 8.618733e-02
 0.000000e+00 0.000000e+00 0.000000e+00 0.000000e+00 0.000000e+00
<ENDHMM>
~h "seven"
<BEGINHMM>
<NUMSTATES> 5
<STATE> 2
<MEAN> 38
 -1.766380e+01 -4.860844e+00 1.115859e+00 -3.296953e+00 2.050731e+00 -2.794833e+00 -4.460644e-01 -2.785179e-01 -2.060578e+00 5.685532e-01 -1.829881e+00 1.762975e-01 -4.684268e-01 -1.269909e+00 5.213748e-01 -1.325677e+00 3.285958e-01 -5.258805e-01 -9.236089e-01 3.016397e-01 8.066840e-03 -6.843977e-02 1.151893e-01 -1.114533e-01 6.759885e-02 -2.658134e-02 -2.754278e-02 4.927532e-02 -5.074389e-02 4.379351e-02 -2.654580e-02 3.192869e-03 3.562703e-02 -4.158454e-02 1.848739e-02 -4.586379e-02 -8.266926e-03 1.336141e-02
<VARIANCE> 38
 7.280922e+01 1.869027e+01 7.613156e+00 6.233705e+00 4.185298e+00 5.513528e+00 1.959805e+00 1.804582e+00 2.189295e+00 1.178971e+00 2.086269e+00 1.019042e+00 9.091645e-01 1.106006e+00 7.618191e-01 1.090783e+00 6.160412e-01 6.740503e-01 7.689099e-01 9.298457e+00 1.156161e+00 2.371144e-01 4.630080e-01 2.047250e-01 3.428920e-01 1.007864e-01 8.891200e-02 2.242634e-01 7.395495e-02 2.211317e-01 6.160442e-02 6.248991e-02 9.745985e-02 4.333223e-02 1.204088e-01 3.938366e-02 5.512193e-02 6.600002e-02
<GCONST> 5.088982e+01
<STATE> 3
<MEAN> 38
 9.848535e-01 1.464908e+00 8.471556e-01 -7.433125e-01 1.653907e+00 4.465158e-02 7.978451e-01 7.838687e-01 1.008243e-01 1.127639e+00 3.681405e-01 9.356136e-01 5.990264e-01 2.377228e-01 9.074254e-01 3.926890e-01 9.778948e-01 6.497545e-01 3.903289e-01 -1.619483e+00 -5.696813e-01 7.097155e-02 -1.111955e-01 4.741067e-02 -1.968594e-01 -1.050033e-01 -5.899512e-02 -1.149181e-01 -2.418341e-02 -1.199632e-01 -2.458746e-02 -7.829647e-02 -1.054805e-01 -1.450979e-02 -9.604180e-02 -2.210959e-02 -7.488742e-02 -8.714464e-02
<VARIANCE> 38
 8.360867e+01 1.691413e+01 6.323100e+00 5.269203e+00 4.255086e+00 4.345712e+00 2.654128e+00 2.535728e+00 2.774108e+00 2.318717e+00 2.276347e+00 1.558297e+00 1.208303e+00 1.285849e+00 1.227374e+00 1.297223e+00 1.064625e+00 8.703768e-01 9.985146e-01 7.603027e+00 1.221766e+00 3.707234e-01 3.522535e-01 2.655029e-01 3.442751e-01 1.821034e-01 1.634463e-01 1.977790e-01 1.160359e-01 1.663344e-01 7.933680e-02 7.308493e-02 8.283453e-02 5.631230e-02 8.816094e-02 4.891028e-02 5.336045e-02 6.110945e-02
<GCONST> 5.640713e+01
<STATE> 4
<MEAN> 38
 6.527680e+00 2.916027e+00 7.938781e-01 6.533697e-01 4.444304e-01 8.714848e-01 6.916420e-01 5.338638e-01 6.436980e-01 6.123266e-01 7.301651e-01 5.429813e-01 5.404040e-01 4.438707e-01 3.524377e-01 5.572003e-01 4.695466e-01 6.101288e-01 6.050004e-01 1.047050e-01 8.089246e-02 9.488080e-03 -7.418510e-02 7.393734e-02 -6.717250e-03 4.324722e-02 2.703638e-02 -2.411186e-02 3.352021e-02 -1.668441e-02 2.206270e-02 1.994729e-02 1.446265e-03 3.588631e-02 3.235648e-03 3.366822e-02 1.885490e-02 6.378219e-03
<VARIANCE> 38
 1.389869e+01 6.448973e+00 3.660229e+00 4.857440e+00 3.891277e+00 2.827146e+00 2.507727e+00 2.132126e+00 2.557525e+00 2.002170e+00 2.317377e+00 1.462463e+00 1.112619e+00 9.641765e-01 1.089944e+00 1.028347e+00 9.480491e-01 8.364077e-01 8.564984e-01 7.999433e-01 2.492940e-01 1.519884e-01 1.993110e-01 1.454634e-01 1.142985e-01 8.875736e-02 8.191259e-02 1.088389e-01 8.971491e-02 1.005723e-01 6.282297e-02 4.610584e-02 3.995954e-02 4.568059e-02 4.390759e-02 3.982498e-02 3.927867e-02 4.327764e-02
<GCONST> 3.800670e+01
<TRANSP> 5
 0.000000e+00 1.000000e+00 0.000000e+00 0.000000e+00 0.000000e+00
 0.000000e+00 9.246998e-01 7.530015e-02 0.000000e+00 0.000000e+00
 0.000000e+00 0.000000e+00 8.851257e-01 1.148743e-01 0.000000e+00
 0.000000e+00 0.000000e+00 0.000000e+00 9.654652e-01 3.453481e-02
 0.000000e+00 0.000000e+00 0.000000e+00 0.000000e+00 0.000000e+00
<ENDHMM>
~h "three"
<BEGINHMM>
<NUMSTATES> 5
<STATE> 2
<MEAN> 38
 -9.723684e-01 1.062152e+00 1.307511e+00 -4.997883e-02 8.519228e-01 -6.077825e-01 1.237912e-02 8.272409e-02 -4.488731e-01 1.078974e-01 -4.610067e-01 8.011562e-02 5.775170e-02 -5.587304e-02 4.217204e-01 6.363125e-02 5.111060e-01 3.443802e-01 2.121575e-01 -8.325396e-01 -5.485750e-01 -1.304732e-01 -9.773007e-02 -1.073915e-01 -1.028356e-01 -4.481670e-02 2.651324e-03 3.288344e-02 3.377662e-02 -8.677781e-03 -2.009417e-02 -7.756488e-02 -1.099182e-01 -1.038497e-01 -1.147188e-01 -8.339858e-02 -8.485726e-02 -8.334588e-02
<VARIANCE> 38
 8.309417e+01 2.602612e+01 7.320224e+00 8.070090e+00 5.282623e+00 5.229219e+00 2.743623e+00 2.327510e+00 1.898688e+00 2.289936e+00 1.935728e+00 1.708240e+00 1.306988e+00 1.489540e+00 1.228004e+00 1.468785e+00 1.036047e+00 1.011343e+00 1.086623e+00 3.894808e+00 1.066770e+00 3.598205e-01 4.966676e-01 2.656013e-01 2.706360e-01 1.349353e-01 1.281259e-01 1.202829e-01 1.319466e-01 1.217265e-01 1.000337e-01 7.952465e-02 8.711172e-02 6.892511e-02 8.163985e-02 5.221237e-02 5.178066e-02 5.532191e-02
<GCONST> 5.632154e+01
<STATE> 3
<MEAN> 38
 6.120085e+00 4.828834e+00 4.926757e-01 -1.371359e+00 1.179286e+00 1.826870e-01 6.156221e-01 3.365046e-01 -4.416266e-01 6.603423e-01 7.420912e-01 1.584866e+00 1.797963e+00 1.633703e+00 1.831045e+00 1.113602e+00 1.161019e+00 8.461198e-01 7.353516e-01 2.791695e-01 4.204049e-01 4.143525e-01 3.956444e-01 9.072142e-02 2.896607e-03 -9.800206e-02 -1.139623e-01 -1.529088e-01 -2.655851e-01 -2.228913e-01 -2.156955e-01 -1.078423e-01 -8.686141e-03 1.213041e-03 6.986012e-02 5.737006e-02 6.749298e-02 4.834447e-02
<VARIANCE> 38
 4.812006e+01 1.768051e+01 8.786044e+00 9.030712e+00 5.399524e+00 3.628491e+00 3.344122e+00 4.350487e+00 3.209076e+00 3.848397e+00 3.202407e+00 2.554028e+00 1.756366e+00 1.591496e+00 1.272810e+00 1.197532e+00 1.122360e+00 9.576638e-01 7.546563e-01 1.520097e+00 6.081396e-01 3.581837e-01 3.618757e-01 2.014469e-01 1.556488e-01 1.346679e-01 1.422723e-01 1.560326e-01 1.654934e-01 1.340628e-01 1.149478e-01 9.587574e-02 8.953253e-02 6.845173e-02 5.367883e-02 4.255339e-02 3.511344e-02 3.149810e-02
<GCONST> 5.477068e+01
<STATE> 4
<MEAN> 38
 2.485171e+00 2.848458e-01 -1.734763e+00 -1.463934e+00 7.080013e-01 1.133782e+00 1.734399e+00 1.503016e+00 1.502170e+00 2.108196e+00 1.563553e+00 1.413144e+00 8.470514e-01 3.482723e-01 5.550291e-01 3.362730e-01 4.888483e-01 4.839903e-01 4.801547e-01 4.874092e-01 2.776352e-01 -8.729003e-02 -2.027762e-01 7.745406e-02 4.783861e-02 9.368926e-02 5.545827e-02 1.384776e-02 1.280486e-01 1.129191e-01 1.634575e-01 1.508492e-01 1.074580e-01 1.227373e-01 5.601083e-02 5.386239e-02 3.820387e-02 4.420585e-02
<VARIANCE> 38
 1.918830e+01 8.209057e+00 6.887867e+00 6.882564e+00 4.921865e+00 3.280284e+00 3.722332e+00 3.196341e+00 2.469782e+00 3.910615e+00 2.432454e+00 2.453954e+00 1.933038e+00 1.500399e+00 1.592400e+00 9.882313e-01 1.140800e+00 8.426118e-01 6.891176e-01 9.237383e-01 3.180919e-01 2.347000e-01 2.311642e-01 1.814935e-01 1.697150e-01 1.879243e-01 1.618428e-01 1.324991e-01 1.459024e-01 9.973133e-02 7.511837e-02 6.328589e-02 5.817148e-02 5.170888e-02 4.632674e-02 5.028960e-02 4.107701e-02 3.301198e-02
<GCONST> 4.799282e+01
<TRANSP> 5
 0.000000e+00 1.000000e+00 0.000000e+00 0.000000e+00 0.000000e+00
 0.000000e+00 9.385546e-01 6.144539e-02 0.000000e+00 0.000000e+00
 0.000000e+00 0.000000e+00 9.066721e-01 9.332789e-02 0.000000e+00
 0.000000e+00 0.000000e+00 0.000000e+00 9.273015e-01 7.269853e-02
 0.000000e+00 0.000000e+00 0.000000e+00 0.000000e+00 0.000000e+00
<ENDHMM>
~h "one"
<BEGINHMM>
<NUMSTATES> 5
<STATE> 2
<MEAN> 38
 3.333084e+00 2.537078e+00 1.895786e+00 1.729248e+00 1.455633e+00 1.912282e+00 1.825688e+00 1.516062e+00 1.106102e+00 7.168658e-01 8.152965e-01 5.959332e-01 4.072298e-01 2.332460e-01 3.196345e-02 4.570233e-02 -9.929946e-02 3.648564e-02 2.035573e-01 -4.276227e-01 -3.095163e-01 -9.379286e-02 1.384726e-02 -1.715983e-01 -1.698595e-01 -2.151356e-01 -1.492705e-01 -4.461529e-02 -5.107105e-02 8.191163e-03 -1.949091e-02 -1.611985e-02 -6.829126e-03 -4.403155e-02 1.739963e-03 1.692235e-03 1.163018e-02 1.276310e-02
<VARIANCE> 38
 3.539561e+01 1.052892e+01 5.045012e+00 6.683928e+00 4.751562e+00 4.756958e+00 4.339475e+00 3.988573e+00 2.880087e+00 2.145624e+00 2.229085e+00 1.771321e+00 1.450117e+00 1.303064e+00 1.249327e+00 1.041043e+00 1.075272e+00 7.709356e-01 6.791290e-01 1.475551e+00 4.375614e-01 2.520119e-01 2.751440e-01 2.135551e-01 1.845834e-01 1.655832e-01 1.465881e-01 1.389698e-01 1.047542e-01 1.261863e-01 9.127097e-02 7.044131e-02 6.103089e-02 4.855736e-02 4.873312e-02 4.373540e-02 3.813133e-02 3.531426e-02
<GCONST> 4.877937e+01
<STATE> 3
<MEAN> 38
 5.575373e+00 4.191139e+00 1.573899e+00 -1.854104e-02 1.868859e+00 1.674422e+00 1.923628e+00 1.267635e+00 1.967389e-01 2.009986e-01 -4.529401e-01 -5.657020e-02 1.205643e-01 1.419535e-01 5.549551e-01 1.445591e-01 1.948964e-01 8.845338e-02 1.232742e-01 1.501198e-02 6.467333e-02 5.344053e-02 9.059231e-02 1.004834e-01 1.139696e-01 1.267056e-01 8.772781e-02 4.316790e-02 1.573201e-02 -5.744105e-03 -1.278333e-02 -1.226130e-02 -1.042213e-02 -1.553511e-02 -3.841161e-02 -5.484565e-02 -4.978100e-02 -3.905895e-02
<VARIANCE> 38
 9.901649e+00 4.505961e+00 3.845191e+00 6.425526e+00 4.290255e+00 4.119738e+00 3.246063e+00 3.141437e+00 3.520806e+00 2.691999e+00 3.347854e+00 2.175475e+00 1.530846e+00 1.278344e+00 1.266267e+00 1.239110e+00 1.280744e+00 9.864149e-01 8.786907e-01 2.896809e-01 1.569905e-01 1.201416e-01 2.168621e-01 1.403975e-01 1.287545e-01 1.122622e-01 9.524077e-02 1.312812e-01 1.035509e-01 1.806268e-01 1.039423e-01 6.947537e-02 5.197809e-02 5.075730e-02 5.019198e-02 4.919229e-02 4.486624e-02 4.091143e-02
<GCONST> 4.302800e+01
<STATE> 4
<MEAN> 38
 3.832312e+00 1.086836e+00 5.872568e-01 9.403668e-01 -3.596191e-01 4.533064e-01 -1.983742e-01 1.367242e-01 9.688511e-01 6.928205e-01 1.305796e+00 7.834995e-01 4.991337e-01 4.169719e-01 1.249296e-01 7.261249e-01 5.885949e-01 6.739089e-01 6.305515e-01 4.255667e-01 2.810627e-01 7.385609e-02 -6.306823e-02 9.098060e-02 7.609976e-02 9.209770e-02 5.474420e-02 -5.687114e-03 2.402595e-02 -6.698943e-03 2.664272e-02 3.182384e-02 2.004636e-02 5.105942e-02 3.447802e-02 5.137070e-02 4.234356e-02 3.564515e-02
<VARIANCE> 38
 2.158537e+01 6.942328e+00 3.672986e+00 4.093039e+00 4.080956e+00 2.451025e+00 2.160405e+00 2.213874e+00 2.748133e+00 2.638266e+00 2.808394e+00 1.983833e+00 1.394041e+00 9.953467e-01 1.218097e+00 1.107334e+00 1.247605e+00 9.971517e-01 9.297350e-01 9.798287e-01 2.631461e-01 1.740309e-01 2.334146e-01 1.557368e-01 1.214239e-01 8.916942e-02 8.852929e-02 1.614176e-01 1.180866e-01 1.615614e-01 8.408761e-02 5.465608e-02 4.079832e-02 4.707596e-02 4.715160e-02 4.384812e-02 3.996554e-02 3.881124e-02
<GCONST> 4.245870e+01
<TRANSP> 5
 0.000000e+00 1.000000e+00 0.000000e+00 0.000000e+00 0.000000e+00
 0.000000e+00 9.099478e-01 9.005219e-02 0.000000e+00 0.000000e+00
 0.000000e+00 0.000000e+00 9.421071e-01 5.789290e-02 0.000000e+00
 0.000000e+00 0.000000e+00 0.000000e+00 9.246130e-01 7.538701e-02
 0.000000e+00 0.000000e+00 0.000000e+00 0.000000e+00 0.000000e+00
<ENDHMM>
~h "sil"
<BEGINHMM>
<NUMSTATES> 5
<STATE> 2
<MEAN> 38
 -8.337981e-01 -2.548835e+00 -1.459827e+00 1.452592e+00 -2.345285e+00 -2.928123e-01 -1.697964e+00 -1.348565e+00 -6.559784e-02 -1.600251e+00 -2.835137e-01 -1.341956e+00 -9.298750e-01 -2.184329e-01 -1.149300e+00 -1.769329e-01 -1.004099e+00 -6.405603e-01 -4.251397e-01 2.347747e-01 1.904487e-01 8.873203e-02 -3.201210e-02 9.710575e-02 2.651216e-02 7.315353e-02 5.835167e-02 1.971538e-02 8.052987e-02 4.181068e-02 8.139504e-02 5.783600e-02 2.667053e-02 6.087694e-02 3.028946e-02 6.244406e-02 4.754923e-02 3.439566e-02
<VARIANCE> 38
 1.319475e+01 4.991605e+00 2.523390e+00 1.915238e+00 1.967581e+00 1.544048e+00 1.214220e+00 1.107540e+00 1.030890e+00 1.135129e+00 8.507674e-01 8.352773e-01 6.427135e-01 5.323656e-01 5.635743e-01 4.518346e-01 4.761521e-01 3.919374e-01 3.497457e-01 2.193611e-01 1.227338e-01 6.137897e-02 5.251188e-02 5.986055e-02 3.187430e-02 3.731274e-02 3.129057e-02 2.466399e-02 3.349449e-02 2.245075e-02 2.620823e-02 1.937963e-02 1.542846e-02 1.919376e-02 1.428358e-02 1.681686e-02 1.343542e-02 1.197078e-02
<GCONST> 5.614716e+00
<STATE> 3
<MEAN> 38
 -2.483847e+00 -2.766446e+00 -1.188716e+00 1.275116e+00 -1.864231e+00 -3.243214e-01 -1.242219e+00 -9.111573e-01 -2.016915e-02 -1.254653e+00 -2.154475e-01 -1.051795e+00 -7.089173e-01 -1.378748e-01 -8.924021e-01 -1.574354e-01 -8.056958e-01 -5.158842e-01 -3.395104e-01 4.582595e-02 5.640694e-03 -2.101778e-03 1.001155e-02 -2.180436e-02 -7.146375e-03 -1.868488e-02 -1.748519e-02 -7.228755e-03 -1.662456e-02 -6.207499e-03 -1.355325e-02 -9.357689e-03 -3.557939e-03 -1.067218e-02 -3.692784e-03 -9.932900e-03 -7.444947e-03 -5.377802e-03
<VARIANCE> 38
 1.042202e+01 3.623569e+00 2.164847e+00 2.207163e+00 1.561468e+00 1.334174e+00 9.230571e-01 8.251663e-01 8.183131e-01 7.532738e-01 6.460561e-01 5.826534e-01 4.577962e-01 4.376471e-01 4.221899e-01 3.804246e-01 3.608823e-01 2.913924e-01 2.839140e-01 2.045002e-01 7.888062e-02 4.398631e-02 5.397634e-02 3.314888e-02 2.692254e-02 1.917155e-02 1.698449e-02 1.849812e-02 1.778352e-02 1.699041e-02 1.595057e-02 1.230313e-02 1.197505e-02 1.191543e-02 1.144860e-02 1.088463e-02 8.783883e-03 8.326094e-03
<GCONST> -6.132800e+00
<STATE> 4
<MEAN> 38
 -4.403205e+00 -3.235306e+00 -1.419262e+00 6.561676e-02 -1.525333e+00 -8.726792e-01 -1.339781e+00 -1.001144e+00 -4.568568e-01 -1.107102e+00 -5.719262e-01 -9.638873e-01 -8.404722e-01 -5.393858e-01 -8.749592e-01 -4.684416e-01 -7.317516e-01 -5.965490e-01 -5.106972e-01 1.283935e-01 -2.728228e-01 -2.229461e-01 2.663028e-01 -3.388297e-01 3.682670e-02 -1.882396e-01 -1.544349e-01 3.082163e-02 -2.276053e-01 -5.344826e-03 -1.882942e-01 -1.047235e-01 1.155221e-02 -1.519427e-01 1.167872e-02 -1.401997e-01 -7.349640e-02 -3.181272e-02
<VARIANCE> 38
 2.774191e+01 6.295554e+00 3.628811e+00 5.926209e+00 3.452741e+00 2.841333e+00 1.448334e+00 1.264901e+00 1.462098e+00 1.321120e+00 1.160842e+00 9.126586e-01 6.170526e-01 6.947020e-01 7.014576e-01 5.809631e-01 5.670118e-01 3.733936e-01 3.851939e-01 1.792938e+00 3.959361e-01 1.795008e-01 2.514460e-01 1.499472e-01 1.257129e-01 7.115410e-02 5.956984e-02 7.561010e-02 6.221626e-02 6.438316e-02 4.625152e-02 3.281378e-02 3.311206e-02 3.200711e-02 2.907460e-02 2.668957e-02 1.964431e-02 2.031801e-02
<GCONST> 2.811862e+01
<TRANSP> 5
 0.000000e+00 1.000000e+00 0.000000e+00 0.000000e+00 0.000000e+00
 0.000000e+00 8.894368e-01 1.105632e-01 0.000000e+00 0.000000e+00
 0.000000e+00 0.000000e+00 9.329928e-01 6.700723e-02 0.000000e+00
 0.000000e+00 0.000000e+00 0.000000e+00 7.354664e-01 2.645337e-01
 0.000000e+00 0.000000e+00 0.000000e+00 0.000000e+00 0.000000e+00
<ENDHMM>
~h "six"
<BEGINHMM>
<NUMSTATES> 5
<STATE> 2
<MEAN> 38
 -9.860903e+00 -2.092383e+00 1.169078e+00 -2.347971e+00 1.890129e+00 -1.644670e+00 2.457722e-01 3.722742e-01 -1.039727e+00 1.011810e+00 -7.684593e-01 6.949106e-01 1.644516e-01 -5.232105e-01 8.028478e-01 -5.493928e-01 7.209404e-01 6.790166e-02 -2.916175e-01 -4.528576e-01 -1.624415e-01 3.999834e-02 4.330895e-02 -3.279058e-03 -2.703268e-02 -5.731938e-02 -4.577783e-02 -3.389870e-02 -5.836633e-02 -6.838748e-02 -7.137442e-02 -6.845450e-02 -5.641729e-02 -5.217607e-02 -4.811407e-02 -4.586090e-02 -3.936598e-02 -2.684545e-02
<VARIANCE> 38
 1.569239e+02 2.555882e+01 6.697991e+00 6.892237e+00 4.256988e+00 6.775974e+00 2.763392e+00 2.512213e+00 3.594056e+00 1.780518e+00 3.719462e+00 1.549689e+00 1.589527e+00 2.027891e+00 9.374533e-01 2.015424e+00 9.073251e-01 1.122214e+00 1.359115e+00 9.484289e+00 1.193387e+00 3.179446e-01 4.103255e-01 2.441329e-01 3.633604e-01 1.368348e-01 1.218464e-01 2.392060e-01 1.032817e-01 2.463974e-01 8.067618e-02 8.886951e-02 1.217095e-01 4.716080e-02 1.236489e-01 4.468609e-02 5.999148e-02 7.387785e-02
<GCONST> 6.106354e+01
<STATE> 3
<MEAN> 38
 3.200140e+00 1.131593e+00 -2.374306e-01 -3.032274e-01 1.521531e-01 1.445421e-01 2.145756e-01 1.494898e-01 3.708171e-01 9.256947e-01 1.038980e+00 1.062541e+00 9.617165e-01 7.439817e-01 6.616532e-01 5.396798e-01 4.844773e-01 4.054613e-01 3.032454e-01 6.441810e-01 2.794178e-01 4.831060e-03 -9.647300e-02 1.169538e-01 8.669102e-02 1.732331e-01 1.488729e-01 8.918816e-02 1.715547e-01 1.328974e-01 1.637941e-01 1.294837e-01 8.088921e-02 1.088371e-01 7.404891e-02 1.069388e-01 8.416070e-02 5.980496e-02
<VARIANCE> 38
 7.382491e+01 1.447787e+01 6.561162e+00 6.995925e+00 4.997199e+00 5.301329e+00 3.631749e+00 3.142272e+00 3.828300e+00 4.152359e+00 3.625216e+00 2.639533e+00 2.028485e+00 1.864056e+00 1.467465e+00 1.213876e+00 1.046118e+00 7.293783e-01 7.223842e-01 3.171507e+00 5.565295e-01 2.871239e-01 4.510087e-01 2.516522e-01 2.466849e-01 1.468846e-01 1.296280e-01 1.848837e-01 2.072312e-01 1.904331e-01 1.490669e-01 1.119939e-01 9.857453e-02 7.913888e-02 6.304485e-02 5.500342e-02 3.588014e-02 3.715465e-02
<GCONST> 5.832043e+01
<STATE> 4
<MEAN> 38
 -8.423866e+00 -3.210502e+00 5.905180e-02 -1.399003e+00 1.451493e-01 -1.706378e+00 -9.161228e-01 -8.035952e-01 -1.382899e+00 -4.548095e-01 -1.209034e+00 -3.788521e-01 -5.337638e-01 -7.532740e-01 -9.601031e-02 -7.069920e-01 -7.059307e-02 -3.806349e-01 -5.335708e-01 -3.728674e-02 -3.278259e-03 6.097332e-04 5.795747e-03 -1.769134e-02 -1.356396e-02 -2.065671e-02 -1.784129e-02 -3.449917e-03 -1.210839e-03 5.005598e-03 2.635455e-03 1.152341e-02 1.876236e-02 1.359091e-02 1.228975e-02 3.343558e-03 2.815533e-03 2.432760e-03
<VARIANCE> 38
 8.993462e+01 1.467335e+01 6.832891e+00 8.425947e+00 5.339546e+00 5.246187e+00 1.847313e+00 1.540898e+00 2.355759e+00 1.734904e+00 1.696242e+00 1.086252e+00 6.702209e-01 8.456673e-01 1.029138e+00 8.523142e-01 7.785704e-01 4.682528e-01 5.407096e-01 4.049829e+00 5.974628e-01 2.507214e-01 3.776254e-01 2.026854e-01 1.907412e-01 6.097067e-02 5.301493e-02 1.090733e-01 7.796620e-02 8.684868e-02 5.199330e-02 3.259775e-02 4.199743e-02 4.769716e-02 4.298339e-02 3.571795e-02 2.153595e-02 2.503748e-02
<GCONST> 4.088285e+01
<TRANSP> 5
 0.000000e+00 1.000000e+00 0.000000e+00 0.000000e+00 0.000000e+00
 0.000000e+00 9.511261e-01 4.887386e-02 0.000000e+00 0.000000e+00
 0.000000e+00 0.000000e+00 9.283499e-01 7.165007e-02 0.000000e+00
 0.000000e+00 0.000000e+00 0.000000e+00 9.480855e-01 5.191454e-02
 0.000000e+00 0.000000e+00 0.000000e+00 0.000000e+00 0.000000e+00
<ENDHMM>
~h "two"
<BEGINHMM>
<NUMSTATES> 5
<STATE> 2
<MEAN> 38
 -7.518904e+00 -3.965858e+00 -7.983888e-01 -2.152552e+00 7.356616e-01 -1.195445e+00 -2.101474e-01 1.237518e-02 -6.734085e-01 5.077054e-01 -4.445052e-01 4.358541e-01 1.638091e-02 -4.064917e-01 3.093883e-01 -5.494040e-01 2.389560e-01 -1.452568e-01 -3.896012e-01 -2.934087e-01 -2.679999e-01 -5.226166e-02 2.235933e-01 -1.189683e-01 -2.337573e-03 -1.326758e-01 -1.166534e-01 -5.344377e-02 -2.071552e-01 -1.124415e-01 -2.081401e-01 -1.615978e-01 -8.819989e-02 -1.619883e-01 -7.521878e-02 -1.304950e-01 -9.172993e-02 -6.621228e-02
<VARIANCE> 38
 6.683202e+01 1.609841e+01 5.334926e+00 7.372062e+00 6.435605e+00 3.496863e+00 2.233210e+00 1.972420e+00 2.123076e+00 2.419233e+00 1.781021e+00 1.848353e+00 1.127118e+00 1.080626e+00 1.376899e+00 1.078196e+00 9.858969e-01 6.787741e-01 7.031010e-01 6.240973e+00 1.248819e+00 2.784953e-01 5.415387e-01 4.257050e-01 2.557534e-01 1.222208e-01 1.004359e-01 1.875050e-01 1.388153e-01 1.583337e-01 9.169436e-02 6.944489e-02 9.425404e-02 7.169979e-02 1.006206e-01 5.053338e-02 4.386085e-02 5.667325e-02
<GCONST> 5.447488e+01
<STATE> 3
<MEAN> 38
 2.711119e+00 2.491866e+00 -1.336944e-01 -2.304851e+00 1.105244e+00 3.030632e-01 1.401239e+00 1.060495e+00 4.583023e-01 2.002232e+00 1.211796e+00 1.939199e+00 1.696191e+00 1.084946e+00 1.659135e+00 9.261246e-01 1.281888e+00 9.335321e-01 7.870072e-01 -4.691652e-01 -3.715103e-01 -1.032029e-01 -7.049689e-02 -1.565848e-02 -9.197963e-02 -6.354060e-02 -4.482122e-03 6.822119e-03 2.122206e-02 -5.667917e-03 5.572243e-03 -3.793596e-02 -5.547600e-02 -3.292298e-02 -5.510107e-02 -3.007648e-02 -4.435150e-02 -5.526593e-02
<VARIANCE> 38
 4.317399e+01 1.183832e+01 6.349357e+00 4.880506e+00 5.358089e+00 3.642500e+00 2.389669e+00 2.503203e+00 2.174077e+00 3.541449e+00 2.690705e+00 1.669952e+00 1.456754e+00 1.501065e+00 1.174938e+00 1.020601e+00 9.244748e-01 7.746693e-01 6.828668e-01 2.272830e+00 6.690808e-01 2.365141e-01 2.237096e-01 1.817506e-01 1.570351e-01 1.194570e-01 1.097916e-01 9.299482e-02 9.928601e-02 9.820157e-02 6.711622e-02 6.471492e-02 6.029655e-02 4.942056e-02 4.984780e-02 3.670191e-02 3.399956e-02 3.383753e-02
<GCONST> 4.631963e+01
<STATE> 4
<MEAN> 38
 4.821092e+00 3.440877e+00 1.381383e+00 7.198181e-01 8.614968e-01 1.280422e+00 1.189308e+00 5.872625e-01 4.243376e-01 5.967623e-01 6.186086e-01 6.171182e-01 5.952638e-01 4.732201e-01 4.761441e-01 4.894347e-01 4.403469e-01 5.479584e-01 6.511052e-01 2.331593e-01 2.013253e-01 -6.612830e-03 -1.737334e-01 5.343349e-02 2.187824e-02 8.900273e-02 5.306522e-02 -1.262882e-03 8.854981e-02 4.220064e-02 1.038081e-01 1.095466e-01 7.840890e-02 1.129604e-01 6.358311e-02 8.259755e-02 6.376804e-02 5.461329e-02
<VARIANCE> 38
 1.513997e+01 9.161601e+00 5.316225e+00 5.912364e+00 5.129109e+00 3.310965e+00 3.398983e+00 2.949373e+00 2.009623e+00 2.663797e+00 2.101149e+00 2.014004e+00 1.855756e+00 1.465312e+00 1.688094e+00 1.150983e+00 1.297914e+00 9.963542e-01 8.662454e-01 5.752331e-01 2.928408e-01 1.708743e-01 1.900099e-01 1.672016e-01 1.344061e-01 1.138519e-01 9.019607e-02 7.249150e-02 7.946181e-02 6.981236e-02 6.069174e-02 5.177705e-02 4.429327e-02 4.623346e-02 3.867011e-02 3.967882e-02 3.355917e-02 3.124034e-02
<GCONST> 4.155990e+01
<TRANSP> 5
 0.000000e+00 1.000000e+00 0.000000e+00 0.000000e+00 0.000000e+00
 0.000000e+00 9.113065e-01 8.869352e-02 0.000000e+00 0.000000e+00
 0.000000e+00 0.000000e+00 9.092805e-01 9.071950e-02 0.000000e+00
 0.000000e+00 0.000000e+00 0.000000e+00 9.343903e-01 6.560970e-02
 0.000000e+00 0.000000e+00 0.000000e+00 0.000000e+00 0.000000e+00
<ENDHMM>
~h "nine"
<BEGINHMM>
<NUMSTATES> 5
<STATE> 2
<MEAN> 38
 3.109906e+00 1.955763e+00 9.872779e-01 1.604484e-01 7.265874e-01 5.776419e-01 5.769187e-01 7.661591e-01 8.034372e-01 1.047408e+00 9.768335e-01 8.389577e-01 5.221252e-01 3.431582e-01 5.230096e-01 6.013159e-01 6.936024e-01 6.013190e-01 5.481778e-01 -3.035410e-01 -3.131940e-01 -2.530580e-02 2.056493e-01 -1.494428e-01 -1.174528e-02 -8.229281e-02 -3.070898e-02 1.099132e-01 2.780550e-02 1.103009e-01 1.147098e-02 -7.254510e-03 -6.557100e-03 -9.007518e-02 -1.756633e-02 -6.306005e-02 -2.263786e-02 -1.253919e-03
<VARIANCE> 38
 4.449522e+01 1.178043e+01 5.530089e+00 7.240034e+00 5.591325e+00 3.275442e+00 2.851013e+00 2.658575e+00 4.044220e+00 2.944884e+00 3.384296e+00 1.965860e+00 1.396437e+00 1.113949e+00 1.437572e+00 1.263961e+00 1.182714e+00 8.318069e-01 7.736087e-01 1.997345e+00 5.071238e-01 3.051613e-01 4.000803e-01 2.703217e-01 1.668891e-01 1.508889e-01 1.442460e-01 2.689108e-01 1.873871e-01 2.419269e-01 1.183992e-01 7.848722e-02 5.977852e-02 6.617042e-02 6.720962e-02 5.878929e-02 4.851054e-02 4.646827e-02
<GCONST> 5.459942e+01
<STATE> 3
<MEAN> 38
 5.565377e+00 3.722037e+00 6.011027e-01 -1.467324e+00 9.835422e-01 4.101571e-01 8.931408e-01 5.485811e-01 -3.202515e-01 6.609690e-02 -6.869084e-01 2.087367e-02 3.072610e-01 2.824134e-01 8.388435e-01 3.790436e-01 6.021357e-01 3.831606e-01 2.848175e-01 -1.151126e-02 4.563947e-02 2.312431e-02 -4.708452e-02 3.960732e-02 -1.033070e-02 -1.879577e-04 -1.313277e-02 -5.832106e-02 -4.296274e-02 -6.872676e-02 -4.044113e-02 -2.358914e-02 -1.014468e-02 1.998919e-02 1.797065e-03 1.396059e-02 4.258112e-03 -6.923917e-04
<VARIANCE> 38
 9.458900e+00 4.530510e+00 4.933892e+00 5.551329e+00 4.025012e+00 3.614597e+00 2.865114e+00 2.320756e+00 2.568013e+00 3.336947e+00 3.226002e+00 2.171111e+00 1.337214e+00 1.006744e+00 9.747232e-01 9.468965e-01 7.563252e-01 6.311621e-01 5.810631e-01 2.351041e-01 1.238807e-01 1.545723e-01 2.305404e-01 1.045977e-01 9.083880e-02 8.339870e-02 6.766701e-02 8.396007e-02 1.088989e-01 1.262399e-01 7.813770e-02 4.615617e-02 3.698927e-02 4.217586e-02 3.613026e-02 3.015557e-02 2.615811e-02 2.497374e-02
<GCONST> 3.479665e+01
<STATE> 4
<MEAN> 38
 3.411263e+00 8.779085e-01 5.769670e-01 1.446021e+00 -2.933066e-01 6.991934e-01 4.010798e-02 2.034839e-01 9.640861e-01 5.689101e-01 1.312370e+00 6.911973e-01 3.936040e-01 2.401093e-01 -2.747593e-01 2.854669e-01 3.474605e-02 2.783760e-01 4.279317e-01 4.051048e-01 2.662604e-01 5.081322e-03 -1.034912e-01 8.460082e-02 6.009776e-02 1.040078e-01 7.938844e-02 3.447367e-02 8.595052e-02 4.870728e-02 8.217504e-02 6.710561e-02 3.505713e-02 6.065504e-02 3.296623e-02 5.110052e-02 3.278733e-02 2.398565e-02
<VARIANCE> 38
 1.756566e+01 7.184635e+00 4.797006e+00 4.974915e+00 3.751069e+00 2.684593e+00 2.849528e+00 2.566494e+00 2.450405e+00 2.648420e+00 2.681250e+00 2.297415e+00 1.560917e+00 1.069423e+00 1.031219e+00 8.737900e-01 9.680742e-01 8.829010e-01 8.410303e-01 7.919961e-01 2.729146e-01 2.706952e-01 3.634794e-01 1.416142e-01 1.273669e-01 1.033770e-01 9.499238e-02 1.222404e-01 1.039388e-01 1.350321e-01 7.792255e-02 5.718152e-02 4.416576e-02 5.063474e-02 4.122298e-02 4.075930e-02 4.056850e-02 4.223010e-02
<GCONST> 4.278334e+01
<TRANSP> 5
 0.000000e+00 1.000000e+00 0.000000e+00 0.000000e+00 0.000000e+00
 0.000000e+00 9.165246e-01 8.347537e-02 0.000000e+00 0.000000e+00
 0.000000e+00 0.000000e+00 9.579213e-01 4.207875e-02 0.000000e+00
 0.000000e+00 0.000000e+00 0.000000e+00 9.184827e-01 8.151733e-02
 0.000000e+00 0.000000e+00 0.000000e+00 0.000000e+00 0.000000e+00
<ENDHMM>
~h "five"
<BEGINHMM>
<NUMSTATES> 5
<STATE> 2
<MEAN> 38
 -4.076691e+00 -4.424002e-01 2.619883e-02 -1.409677e+00 4.399250e-01 -1.240623e+00 -2.199332e-01 -1.830348e-01 -8.136977e-01 1.894098e-02 -8.790465e-01 -1.360514e-01 -3.719755e-01 -6.937815e-01 -5.719168e-02 -6.583679e-01 -3.460246e-02 -2.562653e-01 -3.709697e-01 -8.952898e-01 -3.265157e-01 -1.268625e-01 -1.534148e-01 -1.298245e-01 -1.496837e-01 -1.208535e-01 -9.205465e-02 -6.443388e-02 -9.974277e-03 1.154088e-02 1.272640e-02 -1.450442e-02 5.808859e-03 3.137088e-02 1.720165e-02 2.141895e-02 -1.363894e-02 -3.123915e-02
<VARIANCE> 38
 7.607191e+01 1.361353e+01 5.561014e+00 7.575563e+00 4.323364e+00 6.277033e+00 3.144815e+00 2.339631e+00 2.341880e+00 1.765818e+00 1.620160e+00 1.191955e+00 9.503446e-01 9.565787e-01 9.048401e-01 8.223892e-01 7.381780e-01 6.685237e-01 7.146643e-01 5.215518e+00 8.019378e-01 3.561176e-01 5.523486e-01 2.137250e-01 4.275385e-01 1.929746e-01 1.404211e-01 1.709106e-01 8.059004e-02 1.145773e-01 6.244466e-02 5.833442e-02 6.573965e-02 4.101694e-02 5.515969e-02 3.642274e-02 4.411513e-02 5.040072e-02
<GCONST> 4.996668e+01
<STATE> 3
<MEAN> 38
 7.436311e+00 3.406664e+00 1.154532e+00 2.780640e-01 1.287023e+00 3.018766e-01 8.874893e-01 5.741962e-01 -1.901672e-01 -8.695940e-02 -9.097434e-01 -3.001685e-01 -1.581523e-01 -5.349515e-01 -2.343547e-01 -4.611410e-01 3.008465e-02 2.459473e-01 2.836496e-01 -2.761856e-02 -1.032331e-02 3.075756e-02 4.861663e-02 3.675471e-02 3.158069e-02 3.066066e-02 3.550883e-02 2.116163e-02 -8.946303e-03 -1.681262e-02 -2.315769e-02 -3.424683e-02 -3.422342e-02 -3.344984e-02 -3.347240e-02 -3.079459e-02 -2.438026e-02 -1.311935e-02
<VARIANCE> 38
 1.412168e+01 5.665307e+00 5.223969e+00 4.990104e+00 4.781091e+00 4.700273e+00 3.548536e+00 2.688027e+00 2.235992e+00 2.618996e+00 1.718445e+00 1.580253e+00 1.321327e+00 1.193113e+00 1.213207e+00 1.009739e+00 9.432358e-01 9.015608e-01 7.131804e-01 4.199618e-01 1.198453e-01 8.902812e-02 9.596519e-02 8.472478e-02 8.786445e-02 6.554803e-02 5.148377e-02 4.885313e-02 5.299565e-02 4.979923e-02 3.888801e-02 3.425414e-02 3.070209e-02 2.789270e-02 2.700287e-02 2.158526e-02 1.791305e-02 1.643738e-02
<GCONST> 2.921276e+01
<STATE> 4
<MEAN> 38
 2.006831e+00 8.477612e-01 2.002177e-01 5.927905e-02 1.176546e-01 -6.065319e-02 -3.143063e-02 -4.973827e-02 5.957745e-02 3.212259e-01 2.830261e-01 3.505221e-01 4.149669e-01 3.061938e-01 2.747592e-01 2.438687e-01 2.489932e-01 2.550597e-01 2.217034e-01 5.224752e-01 2.595266e-01 7.647337e-02 7.068650e-03 7.856943e-02 4.347414e-02 5.651948e-02 3.015721e-02 2.398887e-04 2.123605e-02 -1.700687e-02 1.293625e-02 3.010699e-02 5.703202e-03 1.342195e-02 2.174555e-03 1.939720e-02 2.935852e-02 2.629443e-02
<VARIANCE> 38
 4.901396e+01 1.154045e+01 4.277140e+00 5.064376e+00 3.960130e+00 3.319724e+00 2.339351e+00 1.950435e+00 1.970856e+00 2.342532e+00 1.816428e+00 1.701626e+00 1.395223e+00 1.086480e+00 1.174951e+00 8.994362e-01 9.182293e-01 7.334942e-01 7.459905e-01 1.888013e+00 3.884276e-01 1.701594e-01 2.496088e-01 1.377386e-01 1.522865e-01 9.054310e-02 7.516269e-02 9.766423e-02 9.891577e-02 9.737507e-02 6.577414e-02 5.690041e-02 5.677760e-02 4.193954e-02 4.758069e-02 3.422106e-02 3.317676e-02 3.709856e-02
<GCONST> 4.174723e+01
<TRANSP> 5
 0.000000e+00 1.000000e+00 0.000000e+00 0.000000e+00 0.000000e+00
 0.000000e+00 9.200301e-01 7.996995e-02 0.000000e+00 0.000000e+00
 0.000000e+00 0.000000e+00 9.436170e-01 5.638301e-02 0.000000e+00
 0.000000e+00 0.000000e+00 0.000000e+00 9.381951e-01 6.180494e-02
 0.000000e+00 0.000000e+00 0.000000e+00 0.000000e+00 0.000000e+00
<ENDHMM>
~h "four"
<BEGINHMM>
<NUMSTATES> 5
<STATE> 2
<MEAN> 38
 -6.158219e+00 -7.125920e-01 -2.848926e-02 -2.066994e+00 5.675993e-01 -1.676558e+00 -3.263004e-01 -2.447470e-01 -1.000812e+00 1.832052e-01 -1.054219e+00 -6.738772e-02 -4.290407e-01 -8.360618e-01 6.777194e-02 -7.607536e-01 9.482469e-02 -2.388362e-01 -4.239165e-01 -7.445853e-01 -3.591004e-01 -1.967283e-01 -2.441832e-01 -1.757532e-01 -3.389700e-01 -2.646336e-01 -1.708295e-01 -1.643971e-01 -9.000923e-02 -1.085323e-01 -6.753375e-02 -5.583524e-02 -3.714348e-02 1.866422e-03 -2.439727e-02 1.278193e-02 -1.105616e-02 -2.094075e-02
<VARIANCE> 38
 6.088940e+01 1.173696e+01 5.092496e+00 8.487306e+00 4.397258e+00 8.385917e+00 3.688583e+00 2.357383e+00 2.731291e+00 1.658862e+00 2.010962e+00 1.138072e+00 8.934395e-01 9.711054e-01 8.176031e-01 8.638766e-01 6.512823e-01 5.468466e-01 5.872698e-01 4.675332e+00 7.512181e-01 3.241650e-01 6.586005e-01 2.472731e-01 7.116852e-01 3.104682e-01 1.954339e-01 2.492901e-01 8.945332e-02 1.879540e-01 7.328880e-02 7.028095e-02 8.200466e-02 3.932044e-02 6.550229e-02 3.179453e-02 3.379573e-02 3.924644e-02
<GCONST> 5.212505e+01
<STATE> 3
<MEAN> 38
 5.515536e+00 4.227119e+00 2.529410e+00 1.490551e+00 2.348223e+00 3.172045e+00 3.451135e+00 2.487703e+00 1.590154e+00 1.413815e+00 1.125333e+00 1.201017e+00 7.851815e-01 2.184059e-01 1.807155e-01 -4.281910e-02 -4.661978e-02 -1.341171e-02 1.821573e-02 -2.718058e-01 -1.875558e-01 -1.214447e-01 -7.104763e-02 -2.958702e-02 -4.200438e-02 6.169109e-03 2.781441e-02 5.242665e-02 4.129743e-02 -1.799447e-02 -8.603517e-03 -3.665737e-02 -4.448812e-02 -1.797755e-02 -2.434121e-02 1.425521e-02 2.014912e-02 7.285152e-03
<VARIANCE> 38
 2.883256e+01 8.786053e+00 5.487306e+00 5.733275e+00 4.567901e+00 5.891167e+00 4.288836e+00 4.844639e+00 3.330009e+00 2.196287e+00 2.375152e+00 1.827699e+00 1.613362e+00 1.671130e+00 1.501535e+00 1.321139e+00 1.172351e+00 9.137173e-01 7.137206e-01 1.202808e+00 2.992302e-01 1.764659e-01 1.786374e-01 1.284382e-01 2.207316e-01 2.193789e-01 1.996795e-01 1.638773e-01 8.801507e-02 9.993581e-02 6.546633e-02 5.463546e-02 5.452001e-02 4.356294e-02 4.824353e-02 3.712218e-02 3.187583e-02 2.686143e-02
<GCONST> 4.723911e+01
<STATE> 4
<MEAN> 38
 5.498639e+00 4.689500e+00 2.873668e+00 1.817748e+00 1.611237e+00 1.514584e+00 5.999379e-01 -2.442902e-01 -6.145577e-01 -4.513752e-01 -1.026699e-01 -6.057757e-02 2.467814e-01 4.078806e-01 4.008721e-01 4.250416e-01 1.627034e-01 1.859909e-01 2.572883e-01 2.745898e-01 2.567601e-01 1.749432e-01 7.675247e-02 1.644758e-01 1.823276e-01 1.914389e-01 1.318228e-01 6.736792e-02 7.987319e-02 5.873073e-02 6.992769e-02 4.833440e-02 5.936161e-03 4.093235e-03 -2.046022e-02 -2.464375e-02 -2.855024e-02 -2.050017e-02
<VARIANCE> 38
 1.463336e+01 1.185347e+01 7.333914e+00 5.574713e+00 6.821101e+00 4.413189e+00 4.835638e+00 4.662154e+00 3.328126e+00 2.551377e+00 2.027650e+00 1.930579e+00 1.456799e+00 1.293464e+00 1.467346e+00 1.289866e+00 1.278243e+00 1.005172e+00 8.466833e-01 5.778485e-01 4.936143e-01 2.561058e-01 1.935161e-01 2.257806e-01 1.485217e-01 1.388637e-01 1.460234e-01 1.423972e-01 9.536280e-02 8.938491e-02 7.576975e-02 6.239715e-02 5.873587e-02 6.705324e-02 5.453264e-02 5.302279e-02 4.516835e-02 3.915678e-02
<GCONST> 4.874433e+01
<TRANSP> 5
 0.000000e+00 1.000000e+00 0.000000e+00 0.000000e+00 0.000000e+00
 0.000000e+00 9.173838e-01 8.261615e-02 0.000000e+00 0.000000e+00
 0.000000e+00 0.000000e+00 9.198686e-01 8.013133e-02 0.000000e+00
 0.000000e+00 0.000000e+00 0.000000e+00 9.357557e-01 6.424430e-02
 0.000000e+00 0.000000e+00 0.000000e+00 0.000000e+00 0.000000e+00
<ENDHMM>
~h "zero"
<BEGINHMM>
<NUMSTATES> 5
<STATE> 2
<MEAN> 38
 -2.677863e-09 -8.750526e-08 -1.837286e-08 -1.377954e-07 -6.019516e-08 5.452531e-08 -2.743094e-08 -1.345658e-07 -5.862704e-08 5.558200e-09 -7.760809e-08 -7.311739e-08 -5.190492e-08 -2.412825e-08 -4.690163e-09 2.764782e-08 -2.262112e-08 -3.763905e-09 6.537150e-09 -2.583067e-04 -5.050806e-04 -9.917312e-04 -1.893283e-03 -1.064957e-03 -1.446192e-03 -9.808274e-04 -9.695808e-04 -1.123964e-03 -7.458905e-04 -1.056959e-03 -6.245463e-04 -5.614760e-04 -5.566383e-04 -2.873854e-04 -5.964976e-04 -4.391809e-04 -6.486351e-04 -7.416122e-04
<VARIANCE> 38
 6.382163e+01 1.753741e+01 6.283180e+00 7.247866e+00 6.023103e+00 4.670284e+00 3.942792e+00 3.064118e+00 2.725667e+00 3.248625e+00 2.569027e+00 2.312149e+00 1.622730e+00 1.290844e+00 1.573346e+00 1.140445e+00 1.241779e+00 9.049628e-01 8.315350e-01 2.083264e+00 4.547198e-01 1.931234e-01 2.614486e-01 1.629155e-01 1.602948e-01 1.098788e-01 9.185041e-02 1.084542e-01 9.477346e-02 1.021972e-01 6.968507e-02 5.287778e-02 4.928543e-02 4.486140e-02 4.569504e-02 3.694603e-02 3.210644e-02 3.195568e-02
<GCONST> 4.860181e+01
<STATE> 3
<MEAN> 38
 -2.677863e-09 -8.750526e-08 -1.837286e-08 -1.377954e-07 -6.019516e-08 5.452531e-08 -2.743094e-08 -1.345658e-07 -5.862704e-08 5.558200e-09 -7.760809e-08 -7.311739e-08 -5.190492e-08 -2.412825e-08 -4.690163e-09 2.764782e-08 -2.262112e-08 -3.763905e-09 6.537150e-09 -2.583067e-04 -5.050806e-04 -9.917312e-04 -1.893283e-03 -1.064957e-03 -1.446192e-03 -9.808274e-04 -9.695808e-04 -1.123964e-03 -7.458905e-04 -1.056959e-03 -6.245463e-04 -5.614760e-04 -5.566383e-04 -2.873854e-04 -5.964976e-04 -4.391809e-04 -6.486351e-04 -7.416122e-04
<VARIANCE> 38
 6.382163e+01 1.753741e+01 6.283180e+00 7.247866e+00 6.023103e+00 4.670284e+00 3.942792e+00 3.064118e+00 2.725667e+00 3.248625e+00 2.569027e+00 2.312149e+00 1.622730e+00 1.290844e+00 1.573346e+00 1.140445e+00 1.241779e+00 9.049628e-01 8.315350e-01 2.083264e+00 4.547198e-01 1.931234e-01 2.614486e-01 1.629155e-01 1.602948e-01 1.098788e-01 9.185041e-02 1.084542e-01 9.477346e-02 1.021972e-01 6.968507e-02 5.287778e-02 4.928543e-02 4.486140e-02 4.569504e-02 3.694603e-02 3.210644e-02 3.195568e-02
<GCONST> 4.860181e+01
<STATE> 4
<MEAN> 38
 -2.677863e-09 -8.750526e-08 -1.837286e-08 -1.377954e-07 -6.019516e-08 5.452531e-08 -2.743094e-08 -1.345658e-07 -5.862704e-08 5.558200e-09 -7.760809e-08 -7.311739e-08 -5.190492e-08 -2.412825e-08 -4.690163e-09 2.764782e-08 -2.262112e-08 -3.763905e-09 6.537150e-09 -2.583067e-04 -5.050806e-04 -9.917312e-04 -1.893283e-03 -1.064957e-03 -1.446192e-03 -9.808274e-04 -9.695808e-04 -1.123964e-03 -7.458905e-04 -1.056959e-03 -6.245463e-04 -5.614760e-04 -5.566383e-04 -2.873854e-04 -5.964976e-04 -4.391809e-04 -6.486351e-04 -7.416122e-04
<VARIANCE> 38
 6.382163e+01 1.753741e+01 6.283180e+00 7.247866e+00 6.023103e+00 4.670284e+00 3.942792e+00 3.064118e+00 2.725667e+00 3.248625e+00 2.569027e+00 2.312149e+00 1.622730e+00 1.290844e+00 1.573346e+00 1.140445e+00 1.241779e+00 9.049628e-01 8.315350e-01 2.083264e+00 4.547198e-01 1.931234e-01 2.614486e-01 1.629155e-01 1.602948e-01 1.098788e-01 9.185041e-02 1.084542e-01 9.477346e-02 1.021972e-01 6.968507e-02 5.287778e-02 4.928543e-02 4.486140e-02 4.569504e-02 3.694603e-02 3.210644e-02 3.195568e-02
<GCONST> 4.860181e+01
<TRANSP> 5
 0.000000e+00 1.000000e+00 0.000000e+00 0.000000e+00 0.000000e+00
 0.000000e+00 5.000000e-01 5.000000e-01 0.000000e+00 0.000000e+00
 0.000000e+00 0.000000e+00 5.000000e-01 5.000000e-01 0.000000e+00
 0.000000e+00 0.000000e+00 0.000000e+00 5.000000e-01 5.000000e-01
 0.000000e+00 0.000000e+00 0.000000e+00 0.000000e+00 0.000000e+00
<ENDHMM>
