~o
<STREAMINFO> 1 6
<VECSIZE> 6<NULLD><USER><DIAGC>
~h "proto"
<BEGINHMM>
<NUMSTATES> 12
<STATE> 2
<MEAN> 6
 4.352091e-01 2.634994e-01 -2.408490e-03 2.382968e-02 -2.745453e-02 -7.408808e-03
<VARIANCE> 6
 4.929373e-03 4.999354e-03 5.657131e-04 3.000122e-04 5.856111e-04 1.019539e-03
<GCONST> -2.950410e+01
<STATE> 3
<MEAN> 6
 3.685486e-01 2.618853e-01 -1.943986e-02 -2.220865e-02 8.682062e-03 -3.061426e-02
<VARIANCE> 6
 4.611921e-03 4.332915e-03 4.736088e-04 5.492512e-04 2.732883e-04 1.006507e-03
<GCONST> -3.006170e+01
<STATE> 4
<MEAN> 6
 3.775583e-01 2.116974e-01 2.606673e-02 -6.690001e-02 7.124190e-02 6.888186e-03
<VARIANCE> 6
 4.699429e-03 3.671131e-03 1.877575e-03 5.673500e-04 1.736882e-03 2.277709e-03
<GCONST> -2.613286e+01
<STATE> 5
<MEAN> 6
 4.437296e-01 1.267164e-01 6.234657e-02 -1.203597e-02 5.435295e-03 3.862596e-02
<VARIANCE> 6
 4.127471e-03 2.183243e-03 1.191297e-03 5.164567e-04 9.370958e-04 9.888993e-04
<GCONST> -2.878265e+01
<STATE> 6
<MEAN> 6
 5.609263e-01 1.765733e-01 3.375873e-02 5.605339e-02 -6.041110e-02 3.220373e-02
<VARIANCE> 6
 5.450861e-03 3.278203e-03 1.416952e-03 7.799880e-04 1.255921e-03 2.191589e-03
<GCONST> -2.642367e+01
<STATE> 7
<MEAN> 6
 5.580465e-01 2.370491e-01 -2.200737e-02 6.360768e-02 -3.088772e-02 -3.195606e-02
<VARIANCE> 6
 5.668450e-03 3.902466e-03 5.508026e-04 2.516888e-04 4.205660e-04 8.315976e-04
<GCONST> -3.034925e+01
<STATE> 8
<MEAN> 6
 5.285892e-01 2.721227e-01 -1.667749e-02 3.087795e-02 2.341524e-02 -2.638895e-02
<VARIANCE> 6
 4.902797e-03 3.951657e-03 4.657368e-04 2.443806e-04 1.385013e-03 3.852244e-04
<GCONST> -3.025671e+01
<STATE> 9
<MEAN> 6
 5.797758e-01 2.944752e-01 6.421244e-02 5.455196e-03 2.651261e-02 -8.397741e-03
<VARIANCE> 6
 5.996002e-03 4.564962e-03 1.018256e-03 7.490843e-05 3.064623e-03 1.706831e-04
<GCONST> -3.033118e+01
<STATE> 10
<MEAN> 6
 7.145727e-01 3.032213e-01 3.666348e-02 -2.697659e-02 -4.993882e-02 -2.744777e-02
<VARIANCE> 6
 6.627760e-03 3.443347e-03 1.648753e-03 4.640041e-04 1.355874e-03 5.883632e-04
<GCONST> -2.778537e+01
<STATE> 11
<MEAN> 6
 6.901874e-01 2.309863e-01 -1.205047e-02 -5.203654e-03 -1.859236e-03 3.943922e-02
<VARIANCE> 6
 5.929810e-03 3.458946e-03 1.003440e-03 1.282262e-03 2.638790e-03 1.335837e-03
<GCONST> -2.588638e+01
<TRANSP> 12
 0.000000e+00 1.000000e+00 0.000000e+00 0.000000e+00 0.000000e+00 0.000000e+00 0.000000e+00 0.000000e+00 0.000000e+00 0.000000e+00 0.000000e+00 0.000000e+00
 0.000000e+00 8.616719e-01 1.383281e-01 0.000000e+00 0.000000e+00 0.000000e+00 0.000000e+00 0.000000e+00 0.000000e+00 0.000000e+00 0.000000e+00 0.000000e+00
 0.000000e+00 0.000000e+00 8.551396e-01 1.448604e-01 0.000000e+00 0.000000e+00 0.000000e+00 0.000000e+00 0.000000e+00 0.000000e+00 0.000000e+00 0.000000e+00
 0.000000e+00 0.000000e+00 0.000000e+00 7.768447e-01 2.231553e-01 0.000000e+00 0.000000e+00 0.000000e+00 0.000000e+00 0.000000e+00 0.000000e+00 0.000000e+00
 0.000000e+00 0.000000e+00 0.000000e+00 0.000000e+00 8.254601e-01 1.745399e-01 0.000000e+00 0.000000e+00 0.000000e+00 0.000000e+00 0.000000e+00 0.000000e+00
 0.000000e+00 0.000000e+00 0.000000e+00 0.000000e+00 0.000000e+00 8.167382e-01 1.832618e-01 0.000000e+00 0.000000e+00 0.000000e+00 0.000000e+00 0.000000e+00
 0.000000e+00 0.000000e+00 0.000000e+00 0.000000e+00 0.000000e+00 0.000000e+00 0.000000e+00 1.000000e+00 0.000000e+00 0.000000e+00 0.000000e+00 0.000000e+00
 0.000000e+00 0.000000e+00 0.000000e+00 0.000000e+00 0.000000e+00 0.000000e+00 0.000000e+00 8.260084e-01 1.739917e-01 0.000000e+00 0.000000e+00 0.000000e+00
 0.000000e+00 0.000000e+00 0.000000e+00 0.000000e+00 0.000000e+00 0.000000e+00 0.000000e+00 0.000000e+00 8.640199e-01 1.359801e-01 0.000000e+00 0.000000e+00
 0.000000e+00 0.000000e+00 0.000000e+00 0.000000e+00 0.000000e+00 0.000000e+00 0.000000e+00 0.000000e+00 0.000000e+00 8.147370e-01 1.852629e-01 0.000000e+00
 0.000000e+00 0.000000e+00 0.000000e+00 0.000000e+00 0.000000e+00 0.000000e+00 0.000000e+00 0.000000e+00 0.000000e+00 0.000000e+00 8.636931e-01 1.363069e-01
 0.000000e+00 0.000000e+00 0.000000e+00 0.000000e+00 0.000000e+00 0.000000e+00 0.000000e+00 0.000000e+00 0.000000e+00 0.000000e+00 0.000000e+00 0.000000e+00
<ENDHMM>
