~o
<STREAMINFO> 1 7
<VECSIZE> 7<NULLD><USER><DIAGC>
~h "proto"
<BEGINHMM>
<NUMSTATES> 12
<STATE> 2
<MEAN> 7
 4.276689e-01 2.559373e-01 3.034841e-06 2.507873e-02 -2.637617e-02 -5.850330e-03 1.057223e+01
<VARIANCE> 7
 4.697178e-03 4.709813e-03 5.694006e-04 4.315693e-04 9.961776e-04 1.353892e-03 2.017384e+03
<GCONST> -1.897957e+01
<STATE> 3
<MEAN> 7
 3.640810e-01 2.701101e-01 -2.278235e-02 -2.447321e-02 1.307635e-02 -3.861765e-02 1.687806e+01
<VARIANCE> 7
 5.565843e-03 4.471816e-03 6.854238e-04 9.511308e-04 1.090304e-03 1.655351e-03 3.409514e+02
<GCONST> -1.937256e+01
<STATE> 4
<MEAN> 7
 3.790479e-01 1.761909e-01 4.170359e-02 -5.492903e-02 5.207915e-02 2.374849e-02 8.489512e-01
<VARIANCE> 7
 4.938267e-03 3.963712e-03 1.650250e-03 8.564265e-04 2.204445e-03 1.548549e-03 1.003835e+01
<GCONST> -2.172705e+01
<STATE> 5
<MEAN> 7
 4.998844e-01 1.313874e-01 6.182381e-02 2.114081e-02 -3.456868e-02 5.397709e-02 1.339413e+01
<VARIANCE> 7
 5.747374e-03 3.249739e-03 1.106483e-03 1.102029e-03 2.128431e-03 2.252127e-03 1.176039e+02
<GCONST> -1.912115e+01
<STATE> 6
<MEAN> 7
 5.551150e-01 2.223233e-01 -8.994823e-03 6.142142e-02 -3.963189e-02 -1.521842e-02 5.025467e-01
<VARIANCE> 7
 5.383986e-03 4.212586e-03 6.733499e-04 6.324842e-04 1.315133e-03 9.459798e-04 1.754570e+01
<GCONST> -2.323026e+01
<STATE> 7
<MEAN> 7
 5.146382e-01 2.794653e-01 -2.302932e-02 2.724500e-02 3.193611e-02 -2.945383e-02 4.512175e+01
<VARIANCE> 7
 4.497287e-03 4.086099e-03 2.798853e-04 2.274726e-04 8.258684e-04 7.590640e-04 5.347009e+03
<GCONST> -2.030713e+01
<STATE> 8
<MEAN> 7
 5.122768e-01 2.924260e-01 6.301721e-03 1.615695e-02 8.853883e-02 -2.659014e-02 5.172312e+03
<VARIANCE> 7
 4.978191e-03 4.247319e-03 1.634045e-04 1.285230e-04 3.428025e-03 7.118896e-04 1.993523e+08
<GCONST> -9.390476e+00
<STATE> 9
<MEAN> 7
 5.529774e-01 2.745249e-01 4.557831e-02 3.720663e-03 3.908993e-02 -1.484724e-02 -3.251363e+01
<VARIANCE> 7
 5.788940e-03 3.313883e-03 1.108275e-03 1.266264e-04 5.863098e-03 3.365280e-04 4.130250e+04
<GCONST> -1.628275e+01
<STATE> 10
<MEAN> 7
 6.070768e-01 3.035217e-01 7.782910e-02 1.921012e-03 8.562183e-03 -9.651932e-03 -1.503684e+00
<VARIANCE> 7
 7.385848e-03 4.068485e-03 1.104501e-03 1.512100e-04 2.802010e-03 2.904111e-04 9.806456e+00
<GCONST> -2.489133e+01
<STATE> 11
<MEAN> 7
 6.960862e-01 2.524717e-01 2.965381e-03 -1.588150e-02 -2.343198e-02 1.552243e-02 -1.792839e+01
<VARIANCE> 7
 5.801024e-03 4.252113e-03 1.419941e-03 1.236763e-03 3.247823e-03 2.606537e-03 3.070966e+03
<GCONST> -1.464708e+01
<TRANSP> 12
 0.000000e+00 1.000000e+00 0.000000e+00 0.000000e+00 0.000000e+00 0.000000e+00 0.000000e+00 0.000000e+00 0.000000e+00 0.000000e+00 0.000000e+00 0.000000e+00
 0.000000e+00 8.552772e-01 1.447228e-01 0.000000e+00 0.000000e+00 0.000000e+00 0.000000e+00 0.000000e+00 0.000000e+00 0.000000e+00 0.000000e+00 0.000000e+00
 0.000000e+00 0.000000e+00 8.527053e-01 1.472947e-01 0.000000e+00 0.000000e+00 0.000000e+00 0.000000e+00 0.000000e+00 0.000000e+00 0.000000e+00 0.000000e+00
 0.000000e+00 0.000000e+00 0.000000e+00 8.437873e-01 1.562128e-01 0.000000e+00 0.000000e+00 0.000000e+00 0.000000e+00 0.000000e+00 0.000000e+00 0.000000e+00
 0.000000e+00 0.000000e+00 0.000000e+00 0.000000e+00 8.404356e-01 1.595644e-01 0.000000e+00 0.000000e+00 0.000000e+00 0.000000e+00 0.000000e+00 0.000000e+00
 0.000000e+00 0.000000e+00 0.000000e+00 0.000000e+00 0.000000e+00 8.089415e-01 1.910585e-01 0.000000e+00 0.000000e+00 0.000000e+00 0.000000e+00 0.000000e+00
 0.000000e+00 0.000000e+00 0.000000e+00 0.000000e+00 0.000000e+00 0.000000e+00 6.727142e-01 3.272859e-01 0.000000e+00 0.000000e+00 0.000000e+00 0.000000e+00
 0.000000e+00 0.000000e+00 0.000000e+00 0.000000e+00 0.000000e+00 0.000000e+00 0.000000e+00 0.000000e+00 1.000000e+00 0.000000e+00 0.000000e+00 0.000000e+00
 0.000000e+00 0.000000e+00 0.000000e+00 0.000000e+00 0.000000e+00 0.000000e+00 0.000000e+00 0.000000e+00 5.361928e-01 4.638071e-01 0.000000e+00 0.000000e+00
 0.000000e+00 0.000000e+00 0.000000e+00 0.000000e+00 0.000000e+00 0.000000e+00 0.000000e+00 0.000000e+00 0.000000e+00 8.332740e-01 1.667260e-01 0.000000e+00
 0.000000e+00 0.000000e+00 0.000000e+00 0.000000e+00 0.000000e+00 0.000000e+00 0.000000e+00 0.000000e+00 0.000000e+00 0.000000e+00 9.105200e-01 8.948004e-02
 0.000000e+00 0.000000e+00 0.000000e+00 0.000000e+00 0.000000e+00 0.000000e+00 0.000000e+00 0.000000e+00 0.000000e+00 0.000000e+00 0.000000e+00 0.000000e+00
<ENDHMM>
