~o
<STREAMINFO> 1 7
<VECSIZE> 7<NULLD><USER><DIAGC>
~h "proto"
<BEGINHMM>
<NUMSTATES> 12
<STATE> 2
<MEAN> 7
 3.894854e-01 2.324833e-01 -1.001902e-02 -4.991625e-02 2.949968e-02 3.136661e-03 1.230604e+00
<VARIANCE> 7
 1.000000e-02 1.000000e-02 1.000000e-02 1.000000e-02 1.000000e-02 1.000000e-02 6.255870e+01
<GCONST> -1.062978e+01
<STATE> 3
<MEAN> 7
 4.329819e-01 1.570050e-01 2.248718e-02 6.093650e-03 -3.271277e-03 1.307987e-02 5.672863e+00
<VARIANCE> 7
 1.000000e-02 1.000000e-02 1.000000e-02 1.000000e-02 1.000000e-02 1.000000e-02 8.212053e+02
<GCONST> -8.055109e+00
<STATE> 4
<MEAN> 7
 4.849107e-01 1.938889e-01 1.644696e-02 1.150051e-02 -1.258127e-02 -1.487911e-02 -6.833009e+01
<VARIANCE> 7
 1.000000e-02 1.000000e-02 1.000000e-02 1.000000e-02 1.000000e-02 1.000000e-02 2.405009e+04
<GCONST> -4.677989e+00
<STATE> 5
<MEAN> 7
 4.881311e-01 1.975317e-01 1.226442e-02 4.730649e-03 -7.578182e-03 -2.023896e-02 -2.877595e+03
<VARIANCE> 7
 1.000000e-02 1.000000e-02 1.000000e-02 1.000000e-02 1.000000e-02 1.000000e-02 1.476105e+08
<GCONST> 4.044205e+00
<STATE> 6
<MEAN> 7
 5.104561e-01 2.362795e-01 -8.039478e-03 2.086465e-02 -7.577672e-03 1.175607e-03 8.792394e+00
<VARIANCE> 7
 1.000000e-02 1.000000e-02 1.000000e-02 1.000000e-02 1.000000e-02 1.000000e-02 2.270163e+02
<GCONST> -9.340860e+00
<STATE> 7
<MEAN> 7
 4.350037e-01 3.250973e-01 -2.288443e-02 5.694021e-03 6.679042e-02 -1.366577e-02 2.127311e+01
<VARIANCE> 7
 1.000000e-02 1.000000e-02 1.000000e-02 1.000000e-02 1.000000e-02 1.000000e-02 5.727536e+03
<GCONST> -6.112842e+00
<STATE> 8
<MEAN> 7
 4.346578e-01 3.139514e-01 5.210000e-03 2.384267e-03 9.248680e-02 -4.026667e-03 2.500647e+03
<VARIANCE> 7
 1.000000e-02 1.000000e-02 1.000000e-02 1.000000e-02 1.000000e-02 1.000000e-02 1.714614e+08
<GCONST> 4.193987e+00
<STATE> 9
<MEAN> 7
 4.408389e-01 3.145695e-01 3.524853e-02 2.260267e-03 1.006507e-01 1.041200e-03 -1.061944e+01
<VARIANCE> 7
 1.000000e-02 1.000000e-02 1.000000e-02 1.000000e-02 1.000000e-02 1.000000e-02 7.741677e+02
<GCONST> -8.114094e+00
<STATE> 10
<MEAN> 7
 4.959548e-01 3.411245e-01 7.687567e-02 4.717320e-03 2.489209e-02 -6.914691e-04 -2.373680e+01
<VARIANCE> 7
 1.000000e-02 1.000000e-02 1.000000e-02 1.000000e-02 1.000000e-02 1.000000e-02 9.881820e+03
<GCONST> -5.567430e+00
<STATE> 11
<MEAN> 7
 6.692490e-01 2.947117e-01 2.695798e-02 -1.174807e-02 -2.647902e-02 1.010453e-02 -1.231555e+01
<VARIANCE> 7
 1.000000e-02 1.000000e-02 1.000000e-02 1.000000e-02 1.000000e-02 1.000000e-02 1.362434e+03
<GCONST> -7.548854e+00
<TRANSP> 12
 0.000000e+00 1.000000e+00 0.000000e+00 0.000000e+00 0.000000e+00 0.000000e+00 0.000000e+00 0.000000e+00 0.000000e+00 0.000000e+00 0.000000e+00 0.000000e+00
 0.000000e+00 8.754153e-01 1.245847e-01 0.000000e+00 0.000000e+00 0.000000e+00 0.000000e+00 0.000000e+00 0.000000e+00 0.000000e+00 0.000000e+00 0.000000e+00
 0.000000e+00 0.000000e+00 9.144812e-01 8.551881e-02 0.000000e+00 0.000000e+00 0.000000e+00 0.000000e+00 0.000000e+00 0.000000e+00 0.000000e+00 0.000000e+00
 0.000000e+00 0.000000e+00 0.000000e+00 5.063291e-02 9.493671e-01 0.000000e+00 0.000000e+00 0.000000e+00 0.000000e+00 0.000000e+00 0.000000e+00 0.000000e+00
 0.000000e+00 0.000000e+00 0.000000e+00 0.000000e+00 2.597403e-02 9.740260e-01 0.000000e+00 0.000000e+00 0.000000e+00 0.000000e+00 0.000000e+00 0.000000e+00
 0.000000e+00 0.000000e+00 0.000000e+00 0.000000e+00 0.000000e+00 9.492214e-01 5.077861e-02 0.000000e+00 0.000000e+00 0.000000e+00 0.000000e+00 0.000000e+00
 0.000000e+00 0.000000e+00 0.000000e+00 0.000000e+00 0.000000e+00 0.000000e+00 2.268041e-01 7.731959e-01 0.000000e+00 0.000000e+00 0.000000e+00 0.000000e+00
 0.000000e+00 0.000000e+00 0.000000e+00 0.000000e+00 0.000000e+00 0.000000e+00 0.000000e+00 0.000000e+00 1.000000e+00 0.000000e+00 0.000000e+00 0.000000e+00
 0.000000e+00 0.000000e+00 0.000000e+00 0.000000e+00 0.000000e+00 0.000000e+00 0.000000e+00 0.000000e+00 0.000000e+00 1.000000e+00 0.000000e+00 0.000000e+00
 0.000000e+00 0.000000e+00 0.000000e+00 0.000000e+00 0.000000e+00 0.000000e+00 0.000000e+00 0.000000e+00 0.000000e+00 8.067010e-01 1.932990e-01 0.000000e+00
 0.000000e+00 0.000000e+00 0.000000e+00 0.000000e+00 0.000000e+00 0.000000e+00 0.000000e+00 0.000000e+00 0.000000e+00 0.000000e+00 9.213836e-01 7.861636e-02
 0.000000e+00 0.000000e+00 0.000000e+00 0.000000e+00 0.000000e+00 0.000000e+00 0.000000e+00 0.000000e+00 0.000000e+00 0.000000e+00 0.000000e+00 0.000000e+00
<ENDHMM>
