~o
<STREAMINFO> 1 6
<VECSIZE> 6<NULLD><USER><DIAGC>
~h "proto"
<BEGINHMM>
<NUMSTATES> 12
<STATE> 2
<MEAN> 6
 4.180997e-01 2.344311e-01 1.561435e-02 1.924280e-02 -1.483330e-02 1.018773e-02
<VARIANCE> 6
 3.384051e-03 8.960472e-03 3.603751e-04 4.428964e-04 5.783477e-04 5.623455e-04
<GCONST> -2.996562e+01
<STATE> 3
<MEAN> 6
 3.769383e-01 3.061912e-01 -2.674636e-02 -1.225772e-02 -4.840477e-04 -2.257369e-02
<VARIANCE> 6
 5.114188e-03 9.992482e-03 1.888742e-04 7.630663e-04 1.046632e-03 2.770045e-04
<GCONST> -2.966065e+01
<STATE> 4
<MEAN> 6
 3.370360e-01 2.010029e-01 2.315743e-02 -6.528100e-02 5.021614e-02 -8.160849e-06
<VARIANCE> 6
 4.464867e-03 6.443434e-03 2.088013e-03 5.719970e-04 1.754743e-03 1.953192e-03
<GCONST> -2.565059e+01
<STATE> 5
<MEAN> 6
 3.793636e-01 1.073315e-01 3.966671e-02 -2.281094e-02 1.235391e-02 1.535600e-02
<VARIANCE> 6
 5.110905e-03 1.301541e-02 1.421032e-03 3.053152e-04 2.482398e-04 9.694967e-04
<GCONST> -2.848112e+01
<STATE> 6
<MEAN> 6
 5.419245e-01 9.524722e-02 7.969102e-02 2.102553e-02 -2.359409e-02 4.382889e-02
<VARIANCE> 6
 4.494770e-03 5.840817e-03 1.016851e-03 9.012917e-04 1.813823e-03 1.145220e-03
<GCONST> -2.650767e+01
<STATE> 7
<MEAN> 6
 6.161210e-01 1.698927e-01 1.830015e-02 4.954243e-02 -3.408723e-02 3.154730e-03
<VARIANCE> 6
 4.749267e-03 1.237469e-02 5.061529e-04 5.705752e-04 1.564153e-03 3.224091e-04
<GCONST> -2.827224e+01
<STATE> 8
<MEAN> 6
 6.334475e-01 2.588524e-01 -4.511482e-02 2.974097e-02 -2.635903e-02 -5.154350e-02
<VARIANCE> 6
 5.728981e-03 5.394962e-03 7.284107e-04 1.657750e-03 2.899717e-03 1.942497e-03
<GCONST> -2.507111e+01
<STATE> 9
<MEAN> 6
 5.446653e-01 2.714742e-01 -3.190018e-02 -9.609502e-03 1.345794e-02 -2.626678e-02
<VARIANCE> 6
 2.527391e-03 1.187998e-02 1.840909e-04 6.552684e-04 5.975844e-04 2.427787e-04
<GCONST> -3.106273e+01
<STATE> 10
<MEAN> 6
 5.193047e-01 2.057144e-01 1.014100e-03 -3.342647e-02 -5.251257e-04 1.286308e-02
<VARIANCE> 6
 2.994313e-03 9.297344e-03 3.538355e-04 1.968589e-04 1.586522e-03 2.976634e-04
<GCONST> -3.050727e+01
<STATE> 11
<MEAN> 6
 4.770691e-01 1.644198e-01 -4.554176e-02 -5.452245e-03 -2.198018e-02 6.029292e-03
<VARIANCE> 6
 6.536731e-03 1.107299e-02 8.564470e-04 7.553732e-05 1.409988e-03 1.653178e-04
<GCONST> -3.033172e+01
<TRANSP> 12
 0.000000e+00 1.000000e+00 0.000000e+00 0.000000e+00 0.000000e+00 0.000000e+00 0.000000e+00 0.000000e+00 0.000000e+00 0.000000e+00 0.000000e+00 0.000000e+00
 0.000000e+00 8.822090e-01 1.177910e-01 0.000000e+00 0.000000e+00 0.000000e+00 0.000000e+00 0.000000e+00 0.000000e+00 0.000000e+00 0.000000e+00 0.000000e+00
 0.000000e+00 0.000000e+00 9.121033e-01 8.789670e-02 0.000000e+00 0.000000e+00 0.000000e+00 0.000000e+00 0.000000e+00 0.000000e+00 0.000000e+00 0.000000e+00
 0.000000e+00 0.000000e+00 0.000000e+00 8.218913e-01 1.781087e-01 0.000000e+00 0.000000e+00 0.000000e+00 0.000000e+00 0.000000e+00 0.000000e+00 0.000000e+00
 0.000000e+00 0.000000e+00 0.000000e+00 0.000000e+00 8.824775e-01 1.175226e-01 0.000000e+00 0.000000e+00 0.000000e+00 0.000000e+00 0.000000e+00 0.000000e+00
 0.000000e+00 0.000000e+00 0.000000e+00 0.000000e+00 0.000000e+00 8.183435e-01 1.816565e-01 0.000000e+00 0.000000e+00 0.000000e+00 0.000000e+00 0.000000e+00
 0.000000e+00 0.000000e+00 0.000000e+00 0.000000e+00 0.000000e+00 0.000000e+00 8.576666e-01 1.423334e-01 0.000000e+00 0.000000e+00 0.000000e+00 0.000000e+00
 0.000000e+00 0.000000e+00 0.000000e+00 0.000000e+00 0.000000e+00 0.000000e+00 0.000000e+00 7.570538e-01 2.429463e-01 0.000000e+00 0.000000e+00 0.000000e+00
 0.000000e+00 0.000000e+00 0.000000e+00 0.000000e+00 0.000000e+00 0.000000e+00 0.000000e+00 0.000000e+00 8.360580e-01 1.639419e-01 0.000000e+00 0.000000e+00
 0.000000e+00 0.000000e+00 0.000000e+00 0.000000e+00 0.000000e+00 0.000000e+00 0.000000e+00 0.000000e+00 0.000000e+00 8.617142e-01 1.382858e-01 0.000000e+00
 0.000000e+00 0.000000e+00 0.000000e+00 0.000000e+00 0.000000e+00 0.000000e+00 0.000000e+00 0.000000e+00 0.000000e+00 0.000000e+00 8.418053e-01 1.581947e-01
 0.000000e+00 0.000000e+00 0.000000e+00 0.000000e+00 0.000000e+00 0.000000e+00 0.000000e+00 0.000000e+00 0.000000e+00 0.000000e+00 0.000000e+00 0.000000e+00
<ENDHMM>
