~o
<STREAMINFO> 1 7
<VECSIZE> 7<NULLD><USER><DIAGC>
~h "proto"
<BEGINHMM>
<NUMSTATES> 12
<STATE> 2
<MEAN> 7
 4.223295e-01 2.297803e-01 1.138188e-02 2.074042e-02 -1.768474e-02 6.627328e-03 1.080468e+01
<VARIANCE> 7
 3.080343e-03 6.378413e-03 4.052053e-04 3.882918e-04 6.119903e-04 6.477162e-04 8.918918e+02
<GCONST> -2.158479e+01
<STATE> 3
<MEAN> 7
 3.888193e-01 2.923276e-01 -3.083899e-02 -1.094987e-02 1.071863e-03 -3.057770e-02 1.481301e+01
<VARIANCE> 7
 3.918496e-03 7.669081e-03 2.169573e-04 7.774879e-04 1.415883e-03 5.847830e-04 2.491939e+02
<GCONST> -2.162876e+01
<STATE> 4
<MEAN> 7
 3.348393e-01 1.806900e-01 5.228748e-03 -4.449965e-02 2.483893e-02 -2.490779e-03 1.796358e+00
<VARIANCE> 7
 3.351153e-03 6.716888e-03 5.975492e-04 5.111852e-04 1.174274e-03 6.785730e-04 1.743436e+01
<GCONST> -2.402208e+01
<STATE> 5
<MEAN> 7
 3.971913e-01 1.317406e-01 7.458352e-02 -5.338729e-02 4.962615e-02 3.393672e-02 1.433039e+00
<VARIANCE> 7
 3.883619e-03 5.686482e-03 1.883482e-03 1.034098e-03 1.343760e-03 2.252303e-03 2.978808e+00
<GCONST> -2.262093e+01
<STATE> 6
<MEAN> 7
 4.991818e-01 6.882766e-02 6.004286e-02 8.206756e-03 -9.211774e-03 2.846621e-02 6.789000e+00
<VARIANCE> 7
 5.540604e-03 7.977922e-03 1.167117e-03 4.921905e-04 8.737549e-04 8.783942e-04 3.836992e+01
<GCONST> -2.196431e+01
<STATE> 7
<MEAN> 7
 6.309100e-01 1.588193e-01 3.995655e-02 6.911220e-02 -7.103292e-02 1.690999e-02 3.595918e+00
<VARIANCE> 7
 4.742103e-03 6.400398e-03 2.568095e-03 1.135471e-03 4.910316e-03 3.878427e-03 5.625558e+01
<GCONST> -1.712167e+01
<STATE> 8
<MEAN> 7
 6.158956e-01 2.030403e-01 -1.282222e-02 4.322732e-02 -2.965687e-02 -2.045564e-02 -6.963583e-01
<VARIANCE> 7
 4.566995e-03 8.025981e-03 7.103523e-04 3.352877e-04 3.118128e-04 8.071306e-04 3.414848e+01
<GCONST> -2.426352e+01
<STATE> 9
<MEAN> 7
 5.560439e-01 2.687871e-01 -3.934047e-02 -1.214480e-02 1.671076e-02 -3.904099e-02 2.325258e+01
<VARIANCE> 7
 3.863403e-03 6.631045e-03 3.666476e-04 6.465720e-04 7.746933e-04 7.822180e-04 4.489608e+02
<GCONST> -2.117148e+01
<STATE> 10
<MEAN> 7
 5.091452e-01 1.878383e-01 -8.738347e-03 -2.723448e-02 1.317643e-03 8.195419e-03 6.424041e+00
<VARIANCE> 7
 4.358227e-03 6.496133e-03 5.381891e-04 3.064758e-04 1.020721e-03 2.712620e-04 3.543879e+02
<GCONST> -2.245405e+01
<STATE> 11
<MEAN> 7
 5.006008e-01 1.368589e-01 -4.401904e-02 -7.434863e-03 -3.377031e-02 9.613764e-03 1.122019e+02
<VARIANCE> 7
 6.907288e-03 7.127645e-03 1.216079e-03 1.015452e-04 1.990828e-03 2.315465e-04 5.030930e+05
<GCONST> -1.442235e+01
<TRANSP> 12
 0.000000e+00 1.000000e+00 0.000000e+00 0.000000e+00 0.000000e+00 0.000000e+00 0.000000e+00 0.000000e+00 0.000000e+00 0.000000e+00 0.000000e+00 0.000000e+00
 0.000000e+00 8.793379e-01 1.206621e-01 0.000000e+00 0.000000e+00 0.000000e+00 0.000000e+00 0.000000e+00 0.000000e+00 0.000000e+00 0.000000e+00 0.000000e+00
 0.000000e+00 0.000000e+00 8.817261e-01 1.182739e-01 0.000000e+00 0.000000e+00 0.000000e+00 0.000000e+00 0.000000e+00 0.000000e+00 0.000000e+00 0.000000e+00
 0.000000e+00 0.000000e+00 0.000000e+00 8.774255e-01 1.225746e-01 0.000000e+00 0.000000e+00 0.000000e+00 0.000000e+00 0.000000e+00 0.000000e+00 0.000000e+00
 0.000000e+00 0.000000e+00 0.000000e+00 0.000000e+00 7.424458e-01 2.575542e-01 0.000000e+00 0.000000e+00 0.000000e+00 0.000000e+00 0.000000e+00 0.000000e+00
 0.000000e+00 0.000000e+00 0.000000e+00 0.000000e+00 0.000000e+00 8.735644e-01 1.264356e-01 0.000000e+00 0.000000e+00 0.000000e+00 0.000000e+00 0.000000e+00
 0.000000e+00 0.000000e+00 0.000000e+00 0.000000e+00 0.000000e+00 0.000000e+00 7.068474e-01 2.931527e-01 0.000000e+00 0.000000e+00 0.000000e+00 0.000000e+00
 0.000000e+00 0.000000e+00 0.000000e+00 0.000000e+00 0.000000e+00 0.000000e+00 0.000000e+00 8.421031e-01 1.578969e-01 0.000000e+00 0.000000e+00 0.000000e+00
 0.000000e+00 0.000000e+00 0.000000e+00 0.000000e+00 0.000000e+00 0.000000e+00 0.000000e+00 0.000000e+00 8.218220e-01 1.781779e-01 0.000000e+00 0.000000e+00
 0.000000e+00 0.000000e+00 0.000000e+00 0.000000e+00 0.000000e+00 0.000000e+00 0.000000e+00 0.000000e+00 0.000000e+00 8.949037e-01 1.050964e-01 0.000000e+00
 0.000000e+00 0.000000e+00 0.000000e+00 0.000000e+00 0.000000e+00 0.000000e+00 0.000000e+00 0.000000e+00 0.000000e+00 0.000000e+00 7.690588e-01 2.309412e-01
 0.000000e+00 0.000000e+00 0.000000e+00 0.000000e+00 0.000000e+00 0.000000e+00 0.000000e+00 0.000000e+00 0.000000e+00 0.000000e+00 0.000000e+00 0.000000e+00
<ENDHMM>
