~o
<STREAMINFO> 1 7
<VECSIZE> 7<NULLD><USER><DIAGC>
~h "proto"
<BEGINHMM>
<NUMSTATES> 12
<STATE> 2
<MEAN> 7
 4.276404e-01 2.559788e-01 -3.565353e-05 2.505264e-02 -2.635428e-02 -5.901753e-03 1.060082e+01
<VARIANCE> 7
 4.695276e-03 4.710275e-03 5.698639e-04 4.317518e-04 9.956080e-04 1.354956e-03 2.016690e+03
<GCONST> -1.897877e+01
<STATE> 3
<MEAN> 7
 3.640217e-01 2.700719e-01 -2.276539e-02 -2.455452e-02 1.314544e-02 -3.859894e-02 1.684604e+01
<VARIANCE> 7
 5.567717e-03 4.471672e-03 6.859425e-04 9.527069e-04 1.092908e-03 1.656302e-03 3.395679e+02
<GCONST> -1.937095e+01
<STATE> 4
<MEAN> 7
 3.790776e-01 1.761112e-01 4.175741e-02 -5.490642e-02 5.206898e-02 2.379639e-02 8.468522e-01
<VARIANCE> 7
 4.937696e-03 3.959345e-03 1.648930e-03 8.563308e-04 2.204542e-03 1.546653e-03 1.002893e+01
<GCONST> -2.173130e+01
<STATE> 5
<MEAN> 7
 4.998949e-01 1.313932e-01 6.182196e-02 2.115069e-02 -3.458273e-02 5.397889e-02 1.339666e+01
<VARIANCE> 7
 5.747845e-03 3.249965e-03 1.106454e-03 1.101934e-03 2.128030e-03 2.252485e-03 1.175857e+02
<GCONST> -1.912130e+01
<STATE> 6
<MEAN> 7
 5.551028e-01 2.223244e-01 -8.996820e-03 6.141408e-02 -3.962380e-02 -1.521820e-02 5.021009e-01
<VARIANCE> 7
 5.383675e-03 4.212057e-03 6.732107e-04 6.326133e-04 1.315118e-03 9.458137e-04 1.755308e+01
<GCONST> -2.323022e+01
<STATE> 7
<MEAN> 7
 5.146443e-01 2.794814e-01 -2.303194e-02 2.724557e-02 3.194693e-02 -2.946048e-02 4.513673e+01
<VARIANCE> 7
 4.498411e-03 4.086260e-03 2.799163e-04 2.275156e-04 8.257425e-04 7.590903e-04 5.348076e+03
<GCONST> -2.030645e+01
<STATE> 8
<MEAN> 7
 5.122766e-01 2.924261e-01 6.301803e-03 1.615689e-02 8.853912e-02 -2.659006e-02 5.172302e+03
<VARIANCE> 7
 4.978195e-03 4.247327e-03 1.634026e-04 1.285216e-04 3.428016e-03 7.118910e-04 1.993515e+08
<GCONST> -9.390499e+00
<STATE> 9
<MEAN> 7
 5.529770e-01 2.745250e-01 4.557825e-02 3.720681e-03 3.908972e-02 -1.484717e-02 -3.251426e+01
<VARIANCE> 7
 5.788945e-03 3.313879e-03 1.108274e-03 1.266258e-04 5.863062e-03 3.365256e-04 4.130215e+04
<GCONST> -1.628278e+01
<STATE> 10
<MEAN> 7
 6.070768e-01 3.035217e-01 7.782921e-02 1.920988e-03 8.562141e-03 -9.651928e-03 -1.503688e+00
<VARIANCE> 7
 7.385834e-03 4.068494e-03 1.104500e-03 1.512098e-04 2.802015e-03 2.904107e-04 9.806421e+00
<GCONST> -2.489133e+01
<STATE> 11
<MEAN> 7
 6.960862e-01 2.524718e-01 2.965378e-03 -1.588153e-02 -2.343203e-02 1.552244e-02 -1.792837e+01
<VARIANCE> 7
 5.801005e-03 4.252117e-03 1.419944e-03 1.236762e-03 3.247829e-03 2.606539e-03 3.070961e+03
<GCONST> -1.464707e+01
<TRANSP> 12
 0.000000e+00 1.000000e+00 0.000000e+00 0.000000e+00 0.000000e+00 0.000000e+00 0.000000e+00 0.000000e+00 0.000000e+00 0.000000e+00 0.000000e+00 0.000000e+00
 0.000000e+00 8.554716e-01 1.445285e-01 0.000000e+00 0.000000e+00 0.000000e+00 0.000000e+00 0.000000e+00 0.000000e+00 0.000000e+00 0.000000e+00 0.000000e+00
 0.000000e+00 0.000000e+00 8.526272e-01 1.473728e-01 0.000000e+00 0.000000e+00 0.000000e+00 0.000000e+00 0.000000e+00 0.000000e+00 0.000000e+00 0.000000e+00
 0.000000e+00 0.000000e+00 0.000000e+00 8.436806e-01 1.563194e-01 0.000000e+00 0.000000e+00 0.000000e+00 0.000000e+00 0.000000e+00 0.000000e+00 0.000000e+00
 0.000000e+00 0.000000e+00 0.000000e+00 0.000000e+00 8.404045e-01 1.595955e-01 0.000000e+00 0.000000e+00 0.000000e+00 0.000000e+00 0.000000e+00 0.000000e+00
 0.000000e+00 0.000000e+00 0.000000e+00 0.000000e+00 0.000000e+00 8.089733e-01 1.910267e-01 0.000000e+00 0.000000e+00 0.000000e+00 0.000000e+00 0.000000e+00
 0.000000e+00 0.000000e+00 0.000000e+00 0.000000e+00 0.000000e+00 0.000000e+00 6.726114e-01 3.273886e-01 0.000000e+00 0.000000e+00 0.000000e+00 0.000000e+00
 0.000000e+00 0.000000e+00 0.000000e+00 0.000000e+00 0.000000e+00 0.000000e+00 0.000000e+00 0.000000e+00 1.000000e+00 0.000000e+00 0.000000e+00 0.000000e+00
 0.000000e+00 0.000000e+00 0.000000e+00 0.000000e+00 0.000000e+00 0.000000e+00 0.000000e+00 0.000000e+00 5.361952e-01 4.638048e-01 0.000000e+00 0.000000e+00
 0.000000e+00 0.000000e+00 0.000000e+00 0.000000e+00 0.000000e+00 0.000000e+00 0.000000e+00 0.000000e+00 0.000000e+00 8.332736e-01 1.667263e-01 0.000000e+00
 0.000000e+00 0.000000e+00 0.000000e+00 0.000000e+00 0.000000e+00 0.000000e+00 0.000000e+00 0.000000e+00 0.000000e+00 0.000000e+00 9.105198e-01 8.948017e-02
 0.000000e+00 0.000000e+00 0.000000e+00 0.000000e+00 0.000000e+00 0.000000e+00 0.000000e+00 0.000000e+00 0.000000e+00 0.000000e+00 0.000000e+00 0.000000e+00
<ENDHMM>
