~o
<STREAMINFO> 1 6
<VECSIZE> 6<NULLD><USER><DIAGC>
~h "proto"
<BEGINHMM>
<NUMSTATES> 12
<STATE> 2
<MEAN> 6
 4.350931e-01 2.636176e-01 -2.507789e-03 2.377473e-02 -2.742313e-02 -7.543889e-03
<VARIANCE> 6
 4.928085e-03 4.996805e-03 5.678450e-04 3.003641e-04 5.847726e-04 1.028980e-03
<GCONST> -2.949215e+01
<STATE> 3
<MEAN> 6
 3.693846e-01 2.611464e-01 -1.936442e-02 -2.263341e-02 8.868841e-03 -3.027895e-02
<VARIANCE> 6
 4.617820e-03 4.377719e-03 4.757203e-04 5.576151e-04 2.753409e-04 1.041173e-03
<GCONST> -2.998923e+01
<STATE> 4
<MEAN> 6
 3.768056e-01 2.023224e-01 2.921277e-02 -6.387136e-02 6.806652e-02 9.610250e-03
<VARIANCE> 6
 4.503445e-03 4.021160e-03 1.780069e-03 6.018229e-04 1.702656e-03 2.072967e-03
<GCONST> -2.619283e+01
<STATE> 5
<MEAN> 6
 4.589817e-01 1.273521e-01 6.453985e-02 -4.991090e-03 -3.708867e-03 4.213868e-02
<VARIANCE> 6
 4.123808e-03 2.157171e-03 1.155295e-03 5.712566e-04 1.129678e-03 1.056110e-03
<GCONST> -2.847273e+01
<STATE> 6
<MEAN> 6
 5.691484e-01 1.912738e-01 2.288545e-02 6.224299e-02 -5.964256e-02 2.157944e-02
<VARIANCE> 6
 5.517629e-03 3.817199e-03 1.484639e-03 6.221379e-04 1.285669e-03 2.455358e-03
<GCONST> -2.630167e+01
<STATE> 7
<MEAN> 6
 5.524809e-01 2.483963e-01 -2.509983e-02 5.619131e-02 -1.300370e-02 -3.934970e-02
<VARIANCE> 6
 5.473305e-03 4.541383e-03 5.967933e-04 1.415674e-04 7.729538e-04 6.962668e-04
<GCONST> -3.029688e+01
<STATE> 8
<MEAN> 6
 5.238495e-01 2.720879e-01 -1.502084e-02 2.713132e-02 2.773448e-02 -2.400373e-02
<VARIANCE> 6
 4.523292e-03 4.037810e-03 4.054432e-04 1.714217e-04 1.295891e-03 3.126482e-04
<GCONST> -3.108421e+01
<STATE> 9
<MEAN> 6
 5.817192e-01 2.947689e-01 6.541061e-02 5.337162e-03 2.542423e-02 -8.424239e-03
<VARIANCE> 6
 5.980634e-03 4.551918e-03 9.630549e-04 7.666717e-05 3.117641e-03 1.765407e-04
<GCONST> -3.031825e+01
<STATE> 10
<MEAN> 6
 7.146829e-01 3.031339e-01 3.637335e-02 -2.717201e-02 -4.974472e-02 -2.751086e-02
<VARIANCE> 6
 6.651205e-03 3.432862e-03 1.659358e-03 4.634621e-04 1.398710e-03 5.950925e-04
<GCONST> -2.773717e+01
<STATE> 11
<MEAN> 6
 6.901606e-01 2.308860e-01 -1.204962e-02 -5.127146e-03 -1.813193e-03 3.952845e-02
<VARIANCE> 6
 5.928552e-03 3.456706e-03 1.004578e-03 1.281388e-03 2.634498e-03 1.333280e-03
<GCONST> -2.589033e+01
<TRANSP> 12
 0.000000e+00 1.000000e+00 0.000000e+00 0.000000e+00 0.000000e+00 0.000000e+00 0.000000e+00 0.000000e+00 0.000000e+00 0.000000e+00 0.000000e+00 0.000000e+00
 0.000000e+00 8.620999e-01 1.379000e-01 0.000000e+00 0.000000e+00 0.000000e+00 0.000000e+00 0.000000e+00 0.000000e+00 0.000000e+00 0.000000e+00 0.000000e+00
 0.000000e+00 0.000000e+00 8.571685e-01 1.428315e-01 0.000000e+00 0.000000e+00 0.000000e+00 0.000000e+00 0.000000e+00 0.000000e+00 0.000000e+00 0.000000e+00
 0.000000e+00 0.000000e+00 0.000000e+00 7.979835e-01 2.020165e-01 0.000000e+00 0.000000e+00 0.000000e+00 0.000000e+00 0.000000e+00 0.000000e+00 0.000000e+00
 0.000000e+00 0.000000e+00 0.000000e+00 0.000000e+00 8.304678e-01 1.695322e-01 0.000000e+00 0.000000e+00 0.000000e+00 0.000000e+00 0.000000e+00 0.000000e+00
 0.000000e+00 0.000000e+00 0.000000e+00 0.000000e+00 0.000000e+00 8.119616e-01 1.880384e-01 0.000000e+00 0.000000e+00 0.000000e+00 0.000000e+00 0.000000e+00
 0.000000e+00 0.000000e+00 0.000000e+00 0.000000e+00 0.000000e+00 0.000000e+00 0.000000e+00 1.000000e+00 0.000000e+00 0.000000e+00 0.000000e+00 0.000000e+00
 0.000000e+00 0.000000e+00 0.000000e+00 0.000000e+00 0.000000e+00 0.000000e+00 0.000000e+00 8.101797e-01 1.898204e-01 0.000000e+00 0.000000e+00 0.000000e+00
 0.000000e+00 0.000000e+00 0.000000e+00 0.000000e+00 0.000000e+00 0.000000e+00 0.000000e+00 0.000000e+00 8.620220e-01 1.379780e-01 0.000000e+00 0.000000e+00
 0.000000e+00 0.000000e+00 0.000000e+00 0.000000e+00 0.000000e+00 0.000000e+00 0.000000e+00 0.000000e+00 0.000000e+00 8.140571e-01 1.859429e-01 0.000000e+00
 0.000000e+00 0.000000e+00 0.000000e+00 0.000000e+00 0.000000e+00 0.000000e+00 0.000000e+00 0.000000e+00 0.000000e+00 0.000000e+00 8.634222e-01 1.365778e-01
 0.000000e+00 0.000000e+00 0.000000e+00 0.000000e+00 0.000000e+00 0.000000e+00 0.000000e+00 0.000000e+00 0.000000e+00 0.000000e+00 0.000000e+00 0.000000e+00
<ENDHMM>
