~o
<STREAMINFO> 1 6
<VECSIZE> 6<NULLD><USER><DIAGC>
~h "proto"
<BEGINHMM>
<NUMSTATES> 12
<STATE> 2
<MEAN> 6
 4.352134e-01 2.634965e-01 -2.404630e-03 2.383180e-02 -2.745602e-02 -7.404297e-03
<VARIANCE> 6
 4.929439e-03 4.999462e-03 5.656450e-04 3.000053e-04 5.856489e-04 1.019359e-03
<GCONST> -2.950432e+01
<STATE> 3
<MEAN> 6
 3.685407e-01 2.619028e-01 -1.944370e-02 -2.219327e-02 8.672396e-03 -3.061754e-02
<VARIANCE> 6
 4.612109e-03 4.331454e-03 4.735184e-04 5.490229e-04 2.732254e-04 1.006120e-03
<GCONST> -3.006322e+01
<STATE> 4
<MEAN> 6
 3.775471e-01 2.118998e-01 2.598154e-02 -6.696407e-02 7.129724e-02 6.810124e-03
<VARIANCE> 6
 4.704264e-03 3.665894e-03 1.879038e-03 5.668189e-04 1.738572e-03 2.281547e-03
<GCONST> -2.613076e+01
<STATE> 5
<MEAN> 6
 4.433689e-01 1.267254e-01 6.230471e-02 -1.221196e-02 5.655555e-03 3.855887e-02
<VARIANCE> 6
 4.120432e-03 2.183659e-03 1.191344e-03 5.147168e-04 9.341580e-04 9.878381e-04
<GCONST> -2.879171e+01
<STATE> 6
<MEAN> 6
 5.607342e-01 1.762846e-01 3.396304e-02 5.588867e-02 -6.034208e-02 3.237462e-02
<VARIANCE> 6
 5.450642e-03 3.270191e-03 1.416931e-03 7.833426e-04 1.257644e-03 2.185784e-03
<GCONST> -2.642316e+01
<STATE> 7
<MEAN> 6
 5.581192e-01 2.368474e-01 -2.189703e-02 6.371005e-02 -3.112905e-02 -3.180815e-02
<VARIANCE> 6
 5.670325e-03 3.891580e-03 5.512478e-04 2.536656e-04 4.203203e-04 8.331707e-04
<GCONST> -3.034177e+01
<STATE> 8
<MEAN> 6
 5.286518e-01 2.721067e-01 -1.671467e-02 3.095042e-02 2.329362e-02 -2.641715e-02
<VARIANCE> 6
 4.905683e-03 3.949053e-03 4.654411e-04 2.458807e-04 1.386152e-03 3.858364e-04
<GCONST> -3.024889e+01
<STATE> 9
<MEAN> 6
 5.797178e-01 2.944683e-01 6.417787e-02 5.460971e-03 2.654934e-02 -8.400768e-03
<VARIANCE> 6
 5.996051e-03 4.565032e-03 1.019539e-03 7.492809e-05 3.064031e-03 1.707029e-04
<GCONST> -3.032972e+01
<STATE> 10
<MEAN> 6
 7.145666e-01 3.032248e-01 3.667451e-02 -2.697001e-02 -4.993488e-02 -2.744639e-02
<VARIANCE> 6
 6.627157e-03 3.443499e-03 1.648901e-03 4.640640e-04 1.356027e-03 5.882770e-04
<GCONST> -2.778523e+01
<STATE> 11
<MEAN> 6
 6.901885e-01 2.309876e-01 -1.205053e-02 -5.204706e-03 -1.860866e-03 3.943833e-02
<VARIANCE> 6
 5.929959e-03 3.458947e-03 1.003428e-03 1.282280e-03 2.638848e-03 1.335846e-03
<GCONST> -2.588632e+01
<TRANSP> 12
 0.000000e+00 1.000000e+00 0.000000e+00 0.000000e+00 0.000000e+00 0.000000e+00 0.000000e+00 0.000000e+00 0.000000e+00 0.000000e+00 0.000000e+00 0.000000e+00
 0.000000e+00 8.616546e-01 1.383454e-01 0.000000e+00 0.000000e+00 0.000000e+00 0.000000e+00 0.000000e+00 0.000000e+00 0.000000e+00 0.000000e+00 0.000000e+00
 0.000000e+00 0.000000e+00 8.550989e-01 1.449011e-01 0.000000e+00 0.000000e+00 0.000000e+00 0.000000e+00 0.000000e+00 0.000000e+00 0.000000e+00 0.000000e+00
 0.000000e+00 0.000000e+00 0.000000e+00 7.763507e-01 2.236493e-01 0.000000e+00 0.000000e+00 0.000000e+00 0.000000e+00 0.000000e+00 0.000000e+00 0.000000e+00
 0.000000e+00 0.000000e+00 0.000000e+00 0.000000e+00 8.252382e-01 1.747618e-01 0.000000e+00 0.000000e+00 0.000000e+00 0.000000e+00 0.000000e+00 0.000000e+00
 0.000000e+00 0.000000e+00 0.000000e+00 0.000000e+00 0.000000e+00 8.170615e-01 1.829385e-01 0.000000e+00 0.000000e+00 0.000000e+00 0.000000e+00 0.000000e+00
 0.000000e+00 0.000000e+00 0.000000e+00 0.000000e+00 0.000000e+00 0.000000e+00 0.000000e+00 1.000000e+00 0.000000e+00 0.000000e+00 0.000000e+00 0.000000e+00
 0.000000e+00 0.000000e+00 0.000000e+00 0.000000e+00 0.000000e+00 0.000000e+00 0.000000e+00 8.261863e-01 1.738137e-01 0.000000e+00 0.000000e+00 0.000000e+00
 0.000000e+00 0.000000e+00 0.000000e+00 0.000000e+00 0.000000e+00 0.000000e+00 0.000000e+00 0.000000e+00 8.640806e-01 1.359194e-01 0.000000e+00 0.000000e+00
 0.000000e+00 0.000000e+00 0.000000e+00 0.000000e+00 0.000000e+00 0.000000e+00 0.000000e+00 0.000000e+00 0.000000e+00 8.147718e-01 1.852281e-01 0.000000e+00
 0.000000e+00 0.000000e+00 0.000000e+00 0.000000e+00 0.000000e+00 0.000000e+00 0.000000e+00 0.000000e+00 0.000000e+00 0.000000e+00 8.636969e-01 1.363032e-01
 0.000000e+00 0.000000e+00 0.000000e+00 0.000000e+00 0.000000e+00 0.000000e+00 0.000000e+00 0.000000e+00 0.000000e+00 0.000000e+00 0.000000e+00 0.000000e+00
<ENDHMM>
