~o
<STREAMINFO> 1 7
<VECSIZE> 7<NULLD><USER><DIAGC>
~h "proto"
<BEGINHMM>
<NUMSTATES> 12
<STATE> 2
<MEAN> 7
 4.276711e-01 2.559333e-01 6.429394e-06 2.508076e-02 -2.637772e-02 -5.845738e-03 1.057015e+01
<VARIANCE> 7
 4.697314e-03 4.709751e-03 5.693518e-04 4.315562e-04 9.962183e-04 1.353770e-03 2.017457e+03
<GCONST> -1.897968e+01
<STATE> 3
<MEAN> 7
 3.640862e-01 2.701144e-01 -2.278372e-02 -2.446707e-02 1.307124e-02 -3.861947e-02 1.688021e+01
<VARIANCE> 7
 5.565859e-03 4.471791e-03 6.853847e-04 9.510777e-04 1.090205e-03 1.655280e-03 3.410589e+02
<GCONST> -1.937250e+01
<STATE> 4
<MEAN> 7
 3.790457e-01 1.761963e-01 4.170001e-02 -5.493038e-02 5.207953e-02 2.374549e-02 8.490595e-01
<VARIANCE> 7
 4.938272e-03 3.963904e-03 1.650320e-03 8.564143e-04 2.204416e-03 1.548628e-03 1.003881e+01
<GCONST> -2.172689e+01
<STATE> 5
<MEAN> 7
 4.998836e-01 1.313870e-01 6.182415e-02 2.114000e-02 -3.456764e-02 5.397716e-02 1.339393e+01
<VARIANCE> 7
 5.747359e-03 3.249732e-03 1.106492e-03 1.102041e-03 2.128464e-03 2.252094e-03 1.176055e+02
<GCONST> -1.912112e+01
<STATE> 6
<MEAN> 7
 5.551161e-01 2.223234e-01 -8.994660e-03 6.142206e-02 -3.963257e-02 -1.521843e-02 5.025849e-01
<VARIANCE> 7
 5.384017e-03 4.212622e-03 6.733623e-04 6.324723e-04 1.315135e-03 9.459943e-04 1.754515e+01
<GCONST> -2.323027e+01
<STATE> 7
<MEAN> 7
 5.146377e-01 2.794641e-01 -2.302908e-02 2.724501e-02 3.193530e-02 -2.945326e-02 4.512055e+01
<VARIANCE> 7
 4.497228e-03 4.086088e-03 2.798841e-04 2.274691e-04 8.258769e-04 7.590630e-04 5.346933e+03
<GCONST> -2.030717e+01
<STATE> 8
<MEAN> 7
 5.122769e-01 2.924262e-01 6.301736e-03 1.615698e-02 8.853874e-02 -2.659014e-02 5.172312e+03
<VARIANCE> 7
 4.978196e-03 4.247314e-03 1.634045e-04 1.285236e-04 3.428012e-03 7.118823e-04 1.993521e+08
<GCONST> -9.390486e+00
<STATE> 9
<MEAN> 7
 5.529776e-01 2.745249e-01 4.557833e-02 3.720658e-03 3.908984e-02 -1.484725e-02 -3.251368e+01
<VARIANCE> 7
 5.788937e-03 3.313884e-03 1.108273e-03 1.266268e-04 5.863091e-03 3.365265e-04 4.130257e+04
<GCONST> -1.628275e+01
<STATE> 10
<MEAN> 7
 6.070771e-01 3.035220e-01 7.782914e-02 1.920992e-03 8.562166e-03 -9.651959e-03 -1.503688e+00
<VARIANCE> 7
 7.385847e-03 4.068479e-03 1.104498e-03 1.512102e-04 2.802010e-03 2.904103e-04 9.806437e+00
<GCONST> -2.489133e+01
<STATE> 11
<MEAN> 7
 6.960863e-01 2.524720e-01 2.965367e-03 -1.588155e-02 -2.343200e-02 1.552247e-02 -1.792839e+01
<VARIANCE> 7
 5.801040e-03 4.252110e-03 1.419945e-03 1.236764e-03 3.247829e-03 2.606545e-03 3.070971e+03
<GCONST> -1.464706e+01
<TRANSP> 12
 0.000000e+00 1.000000e+00 0.000000e+00 0.000000e+00 0.000000e+00 0.000000e+00 0.000000e+00 0.000000e+00 0.000000e+00 0.000000e+00 0.000000e+00 0.000000e+00
 0.000000e+00 8.552608e-01 1.447392e-01 0.000000e+00 0.000000e+00 0.000000e+00 0.000000e+00 0.000000e+00 0.000000e+00 0.000000e+00 0.000000e+00 0.000000e+00
 0.000000e+00 0.000000e+00 8.527146e-01 1.472854e-01 0.000000e+00 0.000000e+00 0.000000e+00 0.000000e+00 0.000000e+00 0.000000e+00 0.000000e+00 0.000000e+00
 0.000000e+00 0.000000e+00 0.000000e+00 8.437938e-01 1.562062e-01 0.000000e+00 0.000000e+00 0.000000e+00 0.000000e+00 0.000000e+00 0.000000e+00 0.000000e+00
 0.000000e+00 0.000000e+00 0.000000e+00 0.000000e+00 8.404377e-01 1.595623e-01 0.000000e+00 0.000000e+00 0.000000e+00 0.000000e+00 0.000000e+00 0.000000e+00
 0.000000e+00 0.000000e+00 0.000000e+00 0.000000e+00 0.000000e+00 8.089389e-01 1.910611e-01 0.000000e+00 0.000000e+00 0.000000e+00 0.000000e+00 0.000000e+00
 0.000000e+00 0.000000e+00 0.000000e+00 0.000000e+00 0.000000e+00 0.000000e+00 6.727223e-01 3.272778e-01 0.000000e+00 0.000000e+00 0.000000e+00 0.000000e+00
 0.000000e+00 0.000000e+00 0.000000e+00 0.000000e+00 0.000000e+00 0.000000e+00 0.000000e+00 0.000000e+00 1.000000e+00 0.000000e+00 0.000000e+00 0.000000e+00
 0.000000e+00 0.000000e+00 0.000000e+00 0.000000e+00 0.000000e+00 0.000000e+00 0.000000e+00 0.000000e+00 5.361933e-01 4.638067e-01 0.000000e+00 0.000000e+00
 0.000000e+00 0.000000e+00 0.000000e+00 0.000000e+00 0.000000e+00 0.000000e+00 0.000000e+00 0.000000e+00 0.000000e+00 8.332738e-01 1.667262e-01 0.000000e+00
 0.000000e+00 0.000000e+00 0.000000e+00 0.000000e+00 0.000000e+00 0.000000e+00 0.000000e+00 0.000000e+00 0.000000e+00 0.000000e+00 9.105198e-01 8.948021e-02
 0.000000e+00 0.000000e+00 0.000000e+00 0.000000e+00 0.000000e+00 0.000000e+00 0.000000e+00 0.000000e+00 0.000000e+00 0.000000e+00 0.000000e+00 0.000000e+00
<ENDHMM>
