~o
<STREAMINFO> 1 6
<VECSIZE> 6<NULLD><USER><DIAGC>
~h "proto"
<BEGINHMM>
<NUMSTATES> 12
<STATE> 2
<MEAN> 6
 3.909362e-01 3.173704e-01 1.461393e-02 1.380239e-02 8.425598e-03 -8.536703e-03
<VARIANCE> 6
 2.377710e-03 6.980051e-03 2.895069e-04 5.872868e-04 3.154580e-04 6.316419e-04
<GCONST> -3.099505e+01
<STATE> 3
<MEAN> 6
 4.472997e-01 3.053165e-01 3.102842e-02 7.031037e-04 2.135780e-03 -3.533879e-02
<VARIANCE> 6
 1.289815e-03 7.639857e-03 4.041174e-04 7.226682e-04 6.867815e-04 1.013552e-03
<GCONST> -2.972452e+01
<STATE> 4
<MEAN> 6
 4.865805e-01 2.861176e-01 1.543142e-02 -5.990199e-03 -1.916960e-03 5.405779e-03
<VARIANCE> 6
 1.023703e-03 5.831598e-03 1.790798e-04 8.631755e-04 2.420237e-04 1.078914e-03
<GCONST> -3.184238e+01
<STATE> 5
<MEAN> 6
 5.645787e-01 3.009636e-01 3.513320e-02 2.862844e-03 3.460341e-03 -2.242861e-02
<VARIANCE> 6
 2.799105e-03 4.362715e-03 4.160262e-04 1.125921e-03 6.848196e-04 2.136431e-03
<GCONST> -2.829474e+01
<STATE> 6
<MEAN> 6
 6.266778e-01 2.595259e-01 1.312416e-02 -5.845808e-02 -2.813390e-02 -1.472950e-02
<VARIANCE> 6
 3.959900e-03 3.738677e-03 4.297752e-04 6.569138e-04 5.813094e-04 7.510203e-04
<GCONST> -2.981781e+01
<STATE> 7
<MEAN> 6
 6.264749e-01 1.237572e-01 -2.492453e-02 -3.048190e-02 -1.470740e-02 1.874056e-02
<VARIANCE> 6
 4.014167e-03 4.619651e-03 6.808990e-04 1.175608e-03 9.232333e-04 1.219354e-03
<GCONST> -2.760323e+01
<STATE> 8
<MEAN> 6
 5.191843e-01 1.109225e-01 -2.159688e-02 -7.164101e-04 7.665395e-04 7.874053e-03
<VARIANCE> 6
 2.361088e-03 4.059645e-03 3.982528e-04 4.361840e-04 2.345447e-04 6.094681e-04
<GCONST> -3.185469e+01
<STATE> 9
<MEAN> 6
 4.647133e-01 1.330182e-01 -3.899507e-02 1.376891e-02 2.856609e-02 2.590855e-02
<VARIANCE> 6
 2.735012e-03 6.706019e-03 6.826246e-04 5.977728e-04 5.655897e-04 1.689782e-03
<GCONST> -2.845177e+01
<STATE> 10
<MEAN> 6
 4.046339e-01 2.128421e-01 -1.338449e-02 5.235711e-03 1.492006e-02 -4.089700e-03
<VARIANCE> 6
 4.999880e-03 1.166435e-02 7.036967e-04 1.224786e-03 1.274582e-03 1.230022e-03
<GCONST> -2.605231e+01
<STATE> 11
<MEAN> 6
 4.614084e-01 1.259683e-01 3.403988e-02 6.186106e-04 8.799503e-03 -6.075296e-03
<VARIANCE> 6
 4.011607e-03 5.012941e-03 5.188598e-04 8.224117e-04 1.313389e-03 1.623758e-03
<GCONST> -2.751234e+01
<TRANSP> 12
 0.000000e+00 1.000000e+00 0.000000e+00 0.000000e+00 0.000000e+00 0.000000e+00 0.000000e+00 0.000000e+00 0.000000e+00 0.000000e+00 0.000000e+00 0.000000e+00
 0.000000e+00 9.109069e-01 8.909310e-02 0.000000e+00 0.000000e+00 0.000000e+00 0.000000e+00 0.000000e+00 0.000000e+00 0.000000e+00 0.000000e+00 0.000000e+00
 0.000000e+00 0.000000e+00 0.000000e+00 1.000000e+00 0.000000e+00 0.000000e+00 0.000000e+00 0.000000e+00 0.000000e+00 0.000000e+00 0.000000e+00 0.000000e+00
 0.000000e+00 0.000000e+00 0.000000e+00 9.138568e-01 8.614320e-02 0.000000e+00 0.000000e+00 0.000000e+00 0.000000e+00 0.000000e+00 0.000000e+00 0.000000e+00
 0.000000e+00 0.000000e+00 0.000000e+00 0.000000e+00 8.822007e-01 1.177994e-01 0.000000e+00 0.000000e+00 0.000000e+00 0.000000e+00 0.000000e+00 0.000000e+00
 0.000000e+00 0.000000e+00 0.000000e+00 0.000000e+00 0.000000e+00 8.134617e-01 1.865384e-01 0.000000e+00 0.000000e+00 0.000000e+00 0.000000e+00 0.000000e+00
 0.000000e+00 0.000000e+00 0.000000e+00 0.000000e+00 0.000000e+00 0.000000e+00 8.774804e-01 1.225196e-01 0.000000e+00 0.000000e+00 0.000000e+00 0.000000e+00
 0.000000e+00 0.000000e+00 0.000000e+00 0.000000e+00 0.000000e+00 0.000000e+00 0.000000e+00 9.204996e-01 7.950042e-02 0.000000e+00 0.000000e+00 0.000000e+00
 0.000000e+00 0.000000e+00 0.000000e+00 0.000000e+00 0.000000e+00 0.000000e+00 0.000000e+00 0.000000e+00 0.000000e+00 1.000000e+00 0.000000e+00 0.000000e+00
 0.000000e+00 0.000000e+00 0.000000e+00 0.000000e+00 0.000000e+00 0.000000e+00 0.000000e+00 0.000000e+00 0.000000e+00 9.099565e-01 9.004350e-02 0.000000e+00
 0.000000e+00 0.000000e+00 0.000000e+00 0.000000e+00 0.000000e+00 0.000000e+00 0.000000e+00 0.000000e+00 0.000000e+00 0.000000e+00 8.654318e-01 1.345682e-01
 0.000000e+00 0.000000e+00 0.000000e+00 0.000000e+00 0.000000e+00 0.000000e+00 0.000000e+00 0.000000e+00 0.000000e+00 0.000000e+00 0.000000e+00 0.000000e+00
<ENDHMM>
