~o
<STREAMINFO> 1 7
<VECSIZE> 7<NULLD><USER><DIAGC>
~h "proto"
<BEGINHMM>
<NUMSTATES> 12
<STATE> 2
<MEAN> 7
 3.989297e-01 3.176912e-01 1.746526e-02 1.742900e-02 9.410581e-03 -1.214879e-02 -8.048967e+00
<VARIANCE> 7
 3.784303e-03 7.093096e-03 2.646913e-04 4.254836e-04 2.594602e-04 6.491199e-04 3.808894e+02
<GCONST> -2.331391e+01
<STATE> 3
<MEAN> 7
 4.850608e-01 2.979707e-01 1.692836e-02 -2.775727e-02 -1.048702e-02 -5.799831e-03 -7.249748e+00
<VARIANCE> 7
 3.006658e-03 7.204430e-03 2.836645e-04 2.448414e-04 1.760095e-04 8.708760e-04 7.322872e+02
<GCONST> -2.345228e+01
<STATE> 4
<MEAN> 7
 4.913228e-01 2.479574e-01 7.498719e-03 -1.346030e-02 -4.961242e-03 4.911242e-02 7.955943e+01
<VARIANCE> 7
 3.934401e-03 4.888297e-03 3.044905e-04 1.465287e-04 2.793678e-04 2.194109e-03 1.811493e+04
<GCONST> -1.941940e+01
<STATE> 5
<MEAN> 7
 4.954087e-01 2.433936e-01 5.799984e-03 6.908686e-03 5.745392e-04 4.995526e-02 3.768631e+01
<VARIANCE> 7
 3.879044e-03 4.913251e-03 1.331577e-04 3.494512e-04 9.229487e-04 3.017797e-03 3.599153e+08
<GCONST> -7.975756e+00
<STATE> 6
<MEAN> 7
 5.499136e-01 3.081544e-01 2.620493e-02 5.029730e-03 2.470199e-03 -1.839395e-02 -8.917814e+00
<VARIANCE> 7
 5.179490e-03 6.525705e-03 3.560368e-04 1.294365e-03 5.311855e-04 1.242693e-03 2.568079e+02
<GCONST> -2.070267e+01
<STATE> 7
<MEAN> 7
 6.013265e-01 2.614294e-01 1.299681e-02 -6.663159e-02 -3.207742e-02 -1.412100e-02 -1.446420e+00
<VARIANCE> 7
 7.303935e-03 3.943438e-03 5.228022e-04 1.301861e-03 7.916911e-04 1.171390e-03 3.478262e+00
<GCONST> -2.443454e+01
<STATE> 8
<MEAN> 7
 5.935593e-01 1.577828e-01 -2.160984e-02 -3.745269e-02 -1.420412e-02 1.610349e-02 -3.537226e+00
<VARIANCE> 7
 7.138854e-03 5.374392e-03 4.657595e-04 8.216997e-04 4.937259e-04 6.383959e-04 4.689933e+01
<GCONST> -2.320123e+01
<STATE> 9
<MEAN> 7
 5.158701e-01 1.145386e-01 -1.817464e-02 9.901722e-03 1.527378e-02 1.013174e-02 1.150111e+02
<VARIANCE> 7
 7.030093e-03 4.162267e-03 6.404111e-04 4.037045e-04 4.917791e-04 2.180296e-03 4.414841e+06
<GCONST> -1.118763e+01
<STATE> 10
<MEAN> 7
 4.550446e-01 1.604672e-01 -1.551046e-02 5.958699e-03 1.651630e-03 -1.767688e-03 -1.752055e+00
<VARIANCE> 7
 8.452717e-03 1.035001e-02 4.200421e-04 5.326578e-04 2.961758e-04 5.203909e-04 6.494736e+02
<GCONST> -2.100101e+01
<STATE> 11
<MEAN> 7
 4.490013e-01 1.436561e-01 1.339111e-02 -1.282065e-03 1.395237e-02 1.092783e-03 6.174872e-02
<VARIANCE> 7
 5.665434e-03 4.730566e-03 1.358548e-03 1.126483e-03 1.524795e-03 1.389479e-03 2.723295e+02
<GCONST> -1.850964e+01
<TRANSP> 12
 0.000000e+00 1.000000e+00 0.000000e+00 0.000000e+00 0.000000e+00 0.000000e+00 0.000000e+00 0.000000e+00 0.000000e+00 0.000000e+00 0.000000e+00 0.000000e+00
 0.000000e+00 9.091554e-01 9.084460e-02 0.000000e+00 0.000000e+00 0.000000e+00 0.000000e+00 0.000000e+00 0.000000e+00 0.000000e+00 0.000000e+00 0.000000e+00
 0.000000e+00 0.000000e+00 8.863872e-01 1.136128e-01 0.000000e+00 0.000000e+00 0.000000e+00 0.000000e+00 0.000000e+00 0.000000e+00 0.000000e+00 0.000000e+00
 0.000000e+00 0.000000e+00 0.000000e+00 0.000000e+00 1.000000e+00 0.000000e+00 0.000000e+00 0.000000e+00 0.000000e+00 0.000000e+00 0.000000e+00 0.000000e+00
 0.000000e+00 0.000000e+00 0.000000e+00 0.000000e+00 1.937148e-01 8.062851e-01 0.000000e+00 0.000000e+00 0.000000e+00 0.000000e+00 0.000000e+00 0.000000e+00
 0.000000e+00 0.000000e+00 0.000000e+00 0.000000e+00 0.000000e+00 9.295812e-01 7.041878e-02 0.000000e+00 0.000000e+00 0.000000e+00 0.000000e+00 0.000000e+00
 0.000000e+00 0.000000e+00 0.000000e+00 0.000000e+00 0.000000e+00 0.000000e+00 0.000000e+00 1.000000e+00 0.000000e+00 0.000000e+00 0.000000e+00 0.000000e+00
 0.000000e+00 0.000000e+00 0.000000e+00 0.000000e+00 0.000000e+00 0.000000e+00 0.000000e+00 9.183753e-01 8.162470e-02 0.000000e+00 0.000000e+00 0.000000e+00
 0.000000e+00 0.000000e+00 0.000000e+00 0.000000e+00 0.000000e+00 0.000000e+00 0.000000e+00 0.000000e+00 6.838102e-01 3.161899e-01 0.000000e+00 0.000000e+00
 0.000000e+00 0.000000e+00 0.000000e+00 0.000000e+00 0.000000e+00 0.000000e+00 0.000000e+00 0.000000e+00 0.000000e+00 9.349206e-01 6.507933e-02 0.000000e+00
 0.000000e+00 0.000000e+00 0.000000e+00 0.000000e+00 0.000000e+00 0.000000e+00 0.000000e+00 0.000000e+00 0.000000e+00 0.000000e+00 9.185418e-01 8.145819e-02
 0.000000e+00 0.000000e+00 0.000000e+00 0.000000e+00 0.000000e+00 0.000000e+00 0.000000e+00 0.000000e+00 0.000000e+00 0.000000e+00 0.000000e+00 0.000000e+00
<ENDHMM>
