~o
<STREAMINFO> 1 7
<VECSIZE> 7<NULLD><USER><DIAGC>
~h "proto"
<BEGINHMM>
<NUMSTATES> 12
<STATE> 2
<MEAN> 7
 3.788761e-01 3.044674e-01 1.734745e-02 3.421003e-03 2.748593e-03 -2.853220e-02 -2.455062e+01
<VARIANCE> 7
 4.447666e-03 6.574198e-03 6.635860e-04 1.035016e-03 1.808234e-03 1.775351e-03 1.931292e+03
<GCONST> -1.684925e+01
<STATE> 3
<MEAN> 7
 3.867290e-01 2.207073e-01 -1.522280e-02 -5.075192e-02 1.286685e-03 2.093637e-03 -1.889512e+00
<VARIANCE> 7
 4.819938e-03 6.343754e-03 2.806231e-04 6.608140e-04 1.101019e-03 5.321319e-04 2.746109e+01
<GCONST> -2.406804e+01
<STATE> 4
<MEAN> 7
 4.187254e-01 1.330683e-01 3.156714e-02 -7.332764e-04 7.699669e-03 3.442668e-02 7.594793e+00
<VARIANCE> 7
 5.319677e-03 5.520065e-03 4.162922e-04 1.102193e-03 1.593270e-03 1.684652e-03 5.837976e+02
<GCONST> -1.862375e+01
<STATE> 5
<MEAN> 7
 4.737438e-01 1.809744e-01 4.897767e-03 3.057840e-02 -1.258131e-02 -2.283552e-02 -1.492453e+01
<VARIANCE> 7
 3.138925e-03 5.707518e-03 3.448451e-04 3.152586e-04 4.362310e-04 1.061984e-03 9.171405e+03
<GCONST> -1.956035e+01
<STATE> 6
<MEAN> 7
 4.733431e-01 2.133211e-01 7.252028e-03 -3.937907e-03 1.068851e-02 -6.534023e-02 -8.375961e+02
<VARIANCE> 7
 3.546423e-03 4.179373e-03 1.825566e-04 1.522439e-04 6.850406e-04 1.289774e-03 6.201719e+08
<GCONST> -9.346561e+00
<STATE> 7
<MEAN> 7
 5.212882e-01 1.746550e-01 3.122382e-02 3.637980e-03 -4.881324e-03 2.762136e-02 1.363277e+01
<VARIANCE> 7
 5.648433e-03 2.714366e-03 7.254404e-04 1.610939e-03 2.398286e-03 2.313073e-03 6.630188e+02
<GCONST> -1.748548e+01
<STATE> 8
<MEAN> 7
 5.430759e-01 2.900206e-01 -2.805942e-02 5.522377e-02 2.646181e-03 -3.105112e-02 2.511382e+01
<VARIANCE> 7
 4.514942e-03 4.203768e-03 8.051444e-04 9.667359e-04 3.445015e-03 1.051555e-03 9.976333e+03
<GCONST> -1.539342e+01
<STATE> 9
<MEAN> 7
 5.206802e-01 3.106419e-01 1.116957e-02 1.577164e-02 9.799907e-02 -3.384702e-02 8.449821e+02
<VARIANCE> 7
 4.771086e-03 6.135177e-03 4.402666e-04 1.667198e-04 6.227659e-03 1.034604e-03 1.205936e+07
<GCONST> -9.648224e+00
<STATE> 10
<MEAN> 7
 5.865203e-01 3.336021e-01 7.564388e-02 3.144320e-03 2.059988e-02 -1.625971e-02 -1.862377e+01
<VARIANCE> 7
 7.017758e-03 4.427168e-03 1.739740e-03 1.384222e-04 5.595564e-03 5.301557e-04 1.631784e+04
<GCONST> -1.578150e+01
<STATE> 11
<MEAN> 7
 6.845373e-01 2.703618e-01 6.240413e-03 -1.800262e-02 -2.542252e-02 1.943248e-02 -1.302797e+01
<VARIANCE> 7
 5.961683e-03 6.843321e-03 1.891155e-03 1.882350e-03 4.267307e-03 3.551106e-03 2.367501e+03
<GCONST> -1.311522e+01
<TRANSP> 12
 0.000000e+00 1.000000e+00 0.000000e+00 0.000000e+00 0.000000e+00 0.000000e+00 0.000000e+00 0.000000e+00 0.000000e+00 0.000000e+00 0.000000e+00 0.000000e+00
 0.000000e+00 8.942715e-01 1.057285e-01 0.000000e+00 0.000000e+00 0.000000e+00 0.000000e+00 0.000000e+00 0.000000e+00 0.000000e+00 0.000000e+00 0.000000e+00
 0.000000e+00 0.000000e+00 8.831836e-01 1.168164e-01 0.000000e+00 0.000000e+00 0.000000e+00 0.000000e+00 0.000000e+00 0.000000e+00 0.000000e+00 0.000000e+00
 0.000000e+00 0.000000e+00 0.000000e+00 8.947570e-01 1.052430e-01 0.000000e+00 0.000000e+00 0.000000e+00 0.000000e+00 0.000000e+00 0.000000e+00 0.000000e+00
 0.000000e+00 0.000000e+00 0.000000e+00 0.000000e+00 8.000557e-01 1.999442e-01 0.000000e+00 0.000000e+00 0.000000e+00 0.000000e+00 0.000000e+00 0.000000e+00
 0.000000e+00 0.000000e+00 0.000000e+00 0.000000e+00 0.000000e+00 0.000000e+00 1.000000e+00 0.000000e+00 0.000000e+00 0.000000e+00 0.000000e+00 0.000000e+00
 0.000000e+00 0.000000e+00 0.000000e+00 0.000000e+00 0.000000e+00 0.000000e+00 9.073073e-01 9.269271e-02 0.000000e+00 0.000000e+00 0.000000e+00 0.000000e+00
 0.000000e+00 0.000000e+00 0.000000e+00 0.000000e+00 0.000000e+00 0.000000e+00 0.000000e+00 8.250127e-01 1.749873e-01 0.000000e+00 0.000000e+00 0.000000e+00
 0.000000e+00 0.000000e+00 0.000000e+00 0.000000e+00 0.000000e+00 0.000000e+00 0.000000e+00 0.000000e+00 0.000000e+00 1.000000e+00 0.000000e+00 0.000000e+00
 0.000000e+00 0.000000e+00 0.000000e+00 0.000000e+00 0.000000e+00 0.000000e+00 0.000000e+00 0.000000e+00 0.000000e+00 8.403496e-01 1.596504e-01 0.000000e+00
 0.000000e+00 0.000000e+00 0.000000e+00 0.000000e+00 0.000000e+00 0.000000e+00 0.000000e+00 0.000000e+00 0.000000e+00 0.000000e+00 8.986015e-01 1.013985e-01
 0.000000e+00 0.000000e+00 0.000000e+00 0.000000e+00 0.000000e+00 0.000000e+00 0.000000e+00 0.000000e+00 0.000000e+00 0.000000e+00 0.000000e+00 0.000000e+00
<ENDHMM>
