~o
<STREAMINFO> 1 6
<VECSIZE> 6<NULLD><USER><DIAGC>
~h "proto"
<BEGINHMM>
<NUMSTATES> 12
<STATE> 2
<MEAN> 6
 3.633322e-01 3.027114e-01 1.486213e-02 1.977123e-02 2.515735e-02 -1.476896e-02
<VARIANCE> 6
 4.100235e-03 6.582586e-03 6.849302e-04 3.913919e-04 1.014968e-03 1.170886e-03
<GCONST> -2.826766e+01
<STATE> 3
<MEAN> 6
 4.260230e-01 3.100290e-01 1.273330e-02 -4.137858e-02 -3.760833e-02 -4.700194e-02
<VARIANCE> 6
 2.774925e-03 4.751529e-03 6.239160e-04 1.029979e-03 7.963256e-04 1.462158e-03
<GCONST> -2.813021e+01
<STATE> 4
<MEAN> 6
 3.794344e-01 1.989469e-01 -1.683644e-02 -4.858247e-02 1.346660e-02 1.002948e-02
<VARIANCE> 6
 4.541351e-03 4.576256e-03 2.865086e-04 5.356333e-04 1.122291e-03 6.739592e-04
<GCONST> -2.953867e+01
<STATE> 5
<MEAN> 6
 3.881166e-01 1.229201e-01 3.272148e-02 -6.152767e-03 1.436293e-02 3.323383e-02
<VARIANCE> 6
 3.010949e-03 4.827775e-03 3.456060e-04 9.537919e-04 1.416251e-03 2.064246e-03
<GCONST> -2.777962e+01
<STATE> 6
<MEAN> 6
 4.716889e-01 1.824090e-01 1.931522e-02 4.251466e-03 2.016876e-03 -7.249224e-03
<VARIANCE> 6
 1.601008e-03 3.111902e-03 4.199474e-04 9.021665e-04 8.361941e-04 1.696261e-03
<GCONST> -2.943445e+01
<STATE> 7
<MEAN> 6
 5.789159e-01 1.479468e-01 3.286950e-02 1.960430e-02 -2.138533e-02 3.858221e-02
<VARIANCE> 6
 3.678816e-03 4.409377e-03 8.738844e-04 1.646572e-03 2.372840e-03 2.921374e-03
<GCONST> -2.533291e+01
<STATE> 8
<MEAN> 6
 5.552847e-01 2.801070e-01 -3.034773e-02 6.125734e-02 -1.028292e-03 -3.689961e-02
<VARIANCE> 6
 4.450877e-03 4.796737e-03 5.558475e-04 8.829634e-04 4.093836e-03 1.239714e-03
<GCONST> -2.644560e+01
<STATE> 9
<MEAN> 6
 5.492262e-01 3.233220e-01 5.626251e-02 8.238359e-03 5.951232e-02 -1.489877e-02
<VARIANCE> 6
 4.729615e-03 5.860007e-03 2.369005e-03 1.120422e-04 3.853381e-03 4.930943e-04
<GCONST> -2.778179e+01
<STATE> 10
<MEAN> 6
 6.963603e-01 3.192549e-01 5.461226e-02 -2.916813e-02 -6.298851e-02 -3.534841e-02
<VARIANCE> 6
 4.853615e-03 4.872399e-03 2.072421e-03 7.309261e-04 1.674017e-03 1.064649e-03
<GCONST> -2.626281e+01
<STATE> 11
<MEAN> 6
 6.863455e-01 2.519253e-01 -1.599489e-02 -9.212112e-03 -9.751398e-03 5.529526e-02
<VARIANCE> 6
 5.380428e-03 3.683954e-03 1.067120e-03 2.095908e-03 4.890544e-03 2.055666e-03
<GCONST> -2.431966e+01
<TRANSP> 12
 0.000000e+00 1.000000e+00 0.000000e+00 0.000000e+00 0.000000e+00 0.000000e+00 0.000000e+00 0.000000e+00 0.000000e+00 0.000000e+00 0.000000e+00 0.000000e+00
 0.000000e+00 8.304622e-01 1.695378e-01 0.000000e+00 0.000000e+00 0.000000e+00 0.000000e+00 0.000000e+00 0.000000e+00 0.000000e+00 0.000000e+00 0.000000e+00
 0.000000e+00 0.000000e+00 7.870046e-01 2.129954e-01 0.000000e+00 0.000000e+00 0.000000e+00 0.000000e+00 0.000000e+00 0.000000e+00 0.000000e+00 0.000000e+00
 0.000000e+00 0.000000e+00 0.000000e+00 8.546508e-01 1.453492e-01 0.000000e+00 0.000000e+00 0.000000e+00 0.000000e+00 0.000000e+00 0.000000e+00 0.000000e+00
 0.000000e+00 0.000000e+00 0.000000e+00 0.000000e+00 8.494095e-01 1.505905e-01 0.000000e+00 0.000000e+00 0.000000e+00 0.000000e+00 0.000000e+00 0.000000e+00
 0.000000e+00 0.000000e+00 0.000000e+00 0.000000e+00 0.000000e+00 9.052143e-01 9.478574e-02 0.000000e+00 0.000000e+00 0.000000e+00 0.000000e+00 0.000000e+00
 0.000000e+00 0.000000e+00 0.000000e+00 0.000000e+00 0.000000e+00 0.000000e+00 8.782871e-01 1.217130e-01 0.000000e+00 0.000000e+00 0.000000e+00 0.000000e+00
 0.000000e+00 0.000000e+00 0.000000e+00 0.000000e+00 0.000000e+00 0.000000e+00 0.000000e+00 8.158088e-01 1.841913e-01 0.000000e+00 0.000000e+00 0.000000e+00
 0.000000e+00 0.000000e+00 0.000000e+00 0.000000e+00 0.000000e+00 0.000000e+00 0.000000e+00 0.000000e+00 8.357937e-01 1.642063e-01 0.000000e+00 0.000000e+00
 0.000000e+00 0.000000e+00 0.000000e+00 0.000000e+00 0.000000e+00 0.000000e+00 0.000000e+00 0.000000e+00 0.000000e+00 8.024050e-01 1.975950e-01 0.000000e+00
 0.000000e+00 0.000000e+00 0.000000e+00 0.000000e+00 0.000000e+00 0.000000e+00 0.000000e+00 0.000000e+00 0.000000e+00 0.000000e+00 8.217033e-01 1.782967e-01
 0.000000e+00 0.000000e+00 0.000000e+00 0.000000e+00 0.000000e+00 0.000000e+00 0.000000e+00 0.000000e+00 0.000000e+00 0.000000e+00 0.000000e+00 0.000000e+00
<ENDHMM>
