~o
<STREAMINFO> 1 6
<VECSIZE> 6<NULLD><USER><DIAGC>
~h "proto"
<BEGINHMM>
<NUMSTATES> 12
<STATE> 2
<MEAN> 6
 4.112674e-01 2.614036e-01 -3.008844e-02 -5.547124e-02 2.639299e-02 -1.823392e-02
<VARIANCE> 6
 3.576219e-03 4.224374e-03 4.030168e-04 6.295895e-04 9.478399e-04 1.212062e-03
<GCONST> -2.893680e+01
<STATE> 3
<MEAN> 6
 3.479241e-01 1.732799e-01 2.013303e-02 -2.893632e-02 3.036491e-02 3.382006e-02
<VARIANCE> 6
 8.654872e-03 3.007269e-03 9.141035e-04 9.407557e-04 1.382882e-03 1.442489e-03
<GCONST> -2.662046e+01
<STATE> 4
<MEAN> 6
 4.577971e-01 1.824910e-01 2.424131e-02 1.808916e-04 9.639973e-04 2.125804e-03
<VARIANCE> 6
 1.666751e-03 1.990445e-03 2.907859e-04 5.658207e-04 5.560109e-04 1.362082e-03
<GCONST> -3.130263e+01
<STATE> 5
<MEAN> 6
 5.601985e-01 1.619268e-01 3.251995e-02 8.360486e-03 -9.997963e-03 2.485124e-02
<VARIANCE> 6
 2.220636e-03 3.428242e-03 4.488101e-04 6.152453e-04 8.892553e-04 1.831091e-03
<GCONST> -2.918878e+01
<STATE> 6
<MEAN> 6
 5.715091e-01 2.365328e-01 -2.870954e-02 6.814711e-02 -6.639293e-02 3.810338e-03
<VARIANCE> 6
 4.002044e-03 4.267275e-03 1.693053e-03 4.419257e-04 1.527832e-03 2.494626e-03
<GCONST> -2.653358e+01
<STATE> 7
<MEAN> 6
 4.901440e-01 3.035365e-01 -5.405627e-02 2.319975e-02 1.298919e-02 -2.735179e-02
<VARIANCE> 6
 3.610567e-03 3.847957e-03 7.757105e-04 3.127256e-04 9.251150e-04 4.487018e-04
<GCONST> -3.008350e+01
<STATE> 8
<MEAN> 6
 4.262469e-01 3.189797e-01 2.558002e-02 3.522861e-03 8.326578e-02 1.154782e-03
<VARIANCE> 6
 3.821384e-03 4.574842e-03 3.549401e-03 1.107724e-04 3.719435e-03 2.587589e-04
<GCONST> -2.852987e+01
<STATE> 9
<MEAN> 6
 5.711402e-01 3.318043e-01 1.056484e-01 9.071038e-03 -1.059085e-02 -9.089605e-03
<VARIANCE> 6
 4.535702e-03 4.194825e-03 1.440612e-03 1.076344e-04 2.615230e-03 2.189114e-04
<GCONST> -2.989512e+01
<STATE> 10
<MEAN> 6
 6.849978e-01 3.258659e-01 4.718820e-02 -2.873217e-02 -6.635194e-02 -3.276614e-02
<VARIANCE> 6
 6.343090e-03 4.296775e-03 1.717861e-03 4.376262e-04 1.553468e-03 5.236673e-04
<GCONST> -2.760576e+01
<STATE> 11
<MEAN> 6
 6.798217e-01 2.573267e-01 -1.410848e-02 -6.213036e-03 -4.713427e-03 4.287073e-02
<VARIANCE> 6
 5.804064e-03 5.474435e-03 9.434803e-04 1.468802e-03 2.910914e-03 1.485860e-03
<GCONST> -2.516990e+01
<TRANSP> 12
 0.000000e+00 1.000000e+00 0.000000e+00 0.000000e+00 0.000000e+00 0.000000e+00 0.000000e+00 0.000000e+00 0.000000e+00 0.000000e+00 0.000000e+00 0.000000e+00
 0.000000e+00 7.832279e-01 2.167721e-01 0.000000e+00 0.000000e+00 0.000000e+00 0.000000e+00 0.000000e+00 0.000000e+00 0.000000e+00 0.000000e+00 0.000000e+00
 0.000000e+00 0.000000e+00 8.091733e-01 1.908267e-01 0.000000e+00 0.000000e+00 0.000000e+00 0.000000e+00 0.000000e+00 0.000000e+00 0.000000e+00 0.000000e+00
 0.000000e+00 0.000000e+00 0.000000e+00 9.083245e-01 9.167553e-02 0.000000e+00 0.000000e+00 0.000000e+00 0.000000e+00 0.000000e+00 0.000000e+00 0.000000e+00
 0.000000e+00 0.000000e+00 0.000000e+00 0.000000e+00 8.657898e-01 1.342102e-01 0.000000e+00 0.000000e+00 0.000000e+00 0.000000e+00 0.000000e+00 0.000000e+00
 0.000000e+00 0.000000e+00 0.000000e+00 0.000000e+00 0.000000e+00 7.890188e-01 2.109813e-01 0.000000e+00 0.000000e+00 0.000000e+00 0.000000e+00 0.000000e+00
 0.000000e+00 0.000000e+00 0.000000e+00 0.000000e+00 0.000000e+00 0.000000e+00 8.180025e-01 1.819975e-01 0.000000e+00 0.000000e+00 0.000000e+00 0.000000e+00
 0.000000e+00 0.000000e+00 0.000000e+00 0.000000e+00 0.000000e+00 0.000000e+00 0.000000e+00 8.479280e-01 1.520720e-01 0.000000e+00 0.000000e+00 0.000000e+00
 0.000000e+00 0.000000e+00 0.000000e+00 0.000000e+00 0.000000e+00 0.000000e+00 0.000000e+00 0.000000e+00 7.806443e-01 2.193557e-01 0.000000e+00 0.000000e+00
 0.000000e+00 0.000000e+00 0.000000e+00 0.000000e+00 0.000000e+00 0.000000e+00 0.000000e+00 0.000000e+00 0.000000e+00 8.022772e-01 1.977228e-01 0.000000e+00
 0.000000e+00 0.000000e+00 0.000000e+00 0.000000e+00 0.000000e+00 0.000000e+00 0.000000e+00 0.000000e+00 0.000000e+00 0.000000e+00 8.587747e-01 1.412254e-01
 0.000000e+00 0.000000e+00 0.000000e+00 0.000000e+00 0.000000e+00 0.000000e+00 0.000000e+00 0.000000e+00 0.000000e+00 0.000000e+00 0.000000e+00 0.000000e+00
<ENDHMM>
