~o
<STREAMINFO> 1 7
<VECSIZE> 7<NULLD><USER><DIAGC>
~h "proto"
<BEGINHMM>
<NUMSTATES> 12
<STATE> 2
<MEAN> 7
 3.949095e-01 2.253821e-01 -1.058226e-02 -4.954031e-02 3.106560e-02 5.139752e-03 2.338756e-03
<VARIANCE> 7
 4.626068e-03 5.583424e-03 8.969855e-04 5.556534e-04 1.033075e-03 1.854074e-03 1.103441e+02
<GCONST> -2.067268e+01
<STATE> 3
<MEAN> 7
 4.037002e-01 1.519666e-01 2.822837e-02 9.030689e-03 -6.055640e-03 1.937771e-02 1.233440e+01
<VARIANCE> 7
 8.084400e-03 3.813442e-03 5.373487e-04 4.598241e-04 5.033817e-04 1.056688e-03 6.267916e+02
<GCONST> -2.074160e+01
<STATE> 4
<MEAN> 7
 5.081097e-01 1.791885e-01 2.874400e-02 -4.259036e-03 2.488759e-03 1.299456e-03 -7.774245e+00
<VARIANCE> 7
 3.386284e-03 2.053477e-03 3.532130e-04 4.402760e-04 6.875503e-04 1.845173e-03 6.037247e+03
<GCONST> -1.955951e+01
<STATE> 5
<MEAN> 7
 5.386548e-01 1.774606e-01 2.575367e-02 2.819896e-02 -4.420856e-02 4.909990e-02 -2.600337e+03
<VARIANCE> 7
 5.026384e-03 2.800294e-03 5.241825e-04 4.216161e-04 1.721291e-03 4.766149e-03 1.423347e+08
<GCONST> -6.568237e+00
<STATE> 6
<MEAN> 7
 5.341504e-01 2.303749e-01 -2.381998e-02 4.104003e-02 -2.687326e-02 -4.407330e-03 6.549153e+00
<VARIANCE> 7
 5.555641e-03 5.408860e-03 2.192111e-03 1.210465e-03 2.314350e-03 1.705807e-03 1.470475e+02
<GCONST> -1.783875e+01
<STATE> 7
<MEAN> 7
 4.399285e-01 3.221778e-01 -3.742559e-02 9.089464e-03 3.471500e-02 -1.404702e-02 1.245899e+01
<VARIANCE> 7
 3.858978e-03 3.251042e-03 3.761041e-04 1.864527e-04 1.850560e-03 2.242088e-04 1.518461e+03
<GCONST> -2.226372e+01
<STATE> 8
<MEAN> 7
 4.152763e-01 3.137985e-01 4.745600e-03 2.139492e-03 1.122263e-01 -1.408696e-03 2.403602e+03
<VARIANCE> 7
 6.139880e-03 4.949664e-03 1.416771e-04 1.290822e-04 4.879415e-03 2.806911e-04 1.723545e+08
<GCONST> -9.889193e+00
<STATE> 9
<MEAN> 7
 4.227665e-01 3.143514e-01 4.063006e-02 3.073625e-03 1.147795e-01 4.250989e-03 -6.675692e+00
<VARIANCE> 7
 6.025614e-03 4.961788e-03 6.352690e-04 1.074154e-04 4.774279e-03 3.232450e-04 7.454228e+02
<GCONST> -2.082051e+01
<STATE> 10
<MEAN> 7
 5.293338e-01 3.281915e-01 9.264437e-02 7.547471e-03 8.140162e-03 -6.930055e-03 -1.762011e+01
<VARIANCE> 7
 8.531076e-03 4.813374e-03 1.782256e-03 1.129881e-04 4.710243e-03 4.384461e-04 1.181752e+04
<GCONST> -1.636631e+01
<STATE> 11
<MEAN> 7
 6.731412e-01 2.858166e-01 5.783458e-03 -1.679277e-02 -2.660667e-02 1.589953e-02 -1.641405e+01
<VARIANCE> 7
 6.245931e-03 5.247265e-03 1.823001e-03 1.273454e-03 3.330624e-03 2.450752e-03 2.084037e+03
<GCONST> -1.450792e+01
<TRANSP> 12
 0.000000e+00 1.000000e+00 0.000000e+00 0.000000e+00 0.000000e+00 0.000000e+00 0.000000e+00 0.000000e+00 0.000000e+00 0.000000e+00 0.000000e+00 0.000000e+00
 0.000000e+00 8.853025e-01 1.146975e-01 0.000000e+00 0.000000e+00 0.000000e+00 0.000000e+00 0.000000e+00 0.000000e+00 0.000000e+00 0.000000e+00 0.000000e+00
 0.000000e+00 0.000000e+00 8.765525e-01 1.234475e-01 0.000000e+00 0.000000e+00 0.000000e+00 0.000000e+00 0.000000e+00 0.000000e+00 0.000000e+00 0.000000e+00
 0.000000e+00 0.000000e+00 0.000000e+00 8.787141e-01 1.212859e-01 0.000000e+00 0.000000e+00 0.000000e+00 0.000000e+00 0.000000e+00 0.000000e+00 0.000000e+00
 0.000000e+00 0.000000e+00 0.000000e+00 0.000000e+00 6.562079e-02 9.343792e-01 0.000000e+00 0.000000e+00 0.000000e+00 0.000000e+00 0.000000e+00 0.000000e+00
 0.000000e+00 0.000000e+00 0.000000e+00 0.000000e+00 0.000000e+00 9.026337e-01 9.736625e-02 0.000000e+00 0.000000e+00 0.000000e+00 0.000000e+00 0.000000e+00
 0.000000e+00 0.000000e+00 0.000000e+00 0.000000e+00 0.000000e+00 0.000000e+00 8.102253e-01 1.897747e-01 0.000000e+00 0.000000e+00 0.000000e+00 0.000000e+00
 0.000000e+00 0.000000e+00 0.000000e+00 0.000000e+00 0.000000e+00 0.000000e+00 0.000000e+00 0.000000e+00 1.000000e+00 0.000000e+00 0.000000e+00 0.000000e+00
 0.000000e+00 0.000000e+00 0.000000e+00 0.000000e+00 0.000000e+00 0.000000e+00 0.000000e+00 0.000000e+00 0.000000e+00 1.000000e+00 0.000000e+00 0.000000e+00
 0.000000e+00 0.000000e+00 0.000000e+00 0.000000e+00 0.000000e+00 0.000000e+00 0.000000e+00 0.000000e+00 0.000000e+00 8.743317e-01 1.256684e-01 0.000000e+00
 0.000000e+00 0.000000e+00 0.000000e+00 0.000000e+00 0.000000e+00 0.000000e+00 0.000000e+00 0.000000e+00 0.000000e+00 0.000000e+00 9.094872e-01 9.051272e-02
 0.000000e+00 0.000000e+00 0.000000e+00 0.000000e+00 0.000000e+00 0.000000e+00 0.000000e+00 0.000000e+00 0.000000e+00 0.000000e+00 0.000000e+00 0.000000e+00
<ENDHMM>
