~o
<STREAMINFO> 1 6
<VECSIZE> 6<NULLD><USER><DIAGC>
~h "proto"
<BEGINHMM>
<NUMSTATES> 12
<STATE> 2
<MEAN> 6
 3.641342e-01 3.030756e-01 1.525705e-02 1.957983e-02 2.468430e-02 -1.538365e-02
<VARIANCE> 6
 4.106731e-03 6.556667e-03 6.892479e-04 3.901638e-04 1.022280e-03 1.195530e-03
<GCONST> -2.823888e+01
<STATE> 3
<MEAN> 6
 4.248061e-01 3.073267e-01 9.390913e-03 -4.361756e-02 -3.638250e-02 -4.283401e-02
<VARIANCE> 6
 2.907172e-03 4.664200e-03 6.484158e-04 9.886003e-04 7.876978e-04 1.508931e-03
<GCONST> -2.808410e+01
<STATE> 4
<MEAN> 6
 3.753978e-01 1.894975e-01 -1.380443e-02 -4.773448e-02 1.954139e-02 1.366991e-02
<VARIANCE> 6
 4.487398e-03 4.158898e-03 3.706746e-04 5.323944e-04 1.222507e-03 7.866323e-04
<GCONST> -2.915464e+01
<STATE> 5
<MEAN> 6
 4.031787e-01 1.216132e-01 3.448595e-02 1.322544e-03 5.395755e-03 3.294799e-02
<VARIANCE> 6
 3.340510e-03 4.524299e-03 3.319505e-04 7.801700e-04 1.206693e-03 1.781114e-03
<GCONST> -2.828957e+01
<STATE> 6
<MEAN> 6
 4.734033e-01 1.901109e-01 1.523968e-02 4.253463e-03 3.127319e-03 -1.442921e-02
<VARIANCE> 6
 1.730599e-03 2.869369e-03 3.725659e-04 9.697772e-04 8.295746e-04 1.586330e-03
<GCONST> -2.956016e+01
<STATE> 7
<MEAN> 6
 5.746709e-01 1.437491e-01 3.562486e-02 1.457248e-02 -1.584828e-02 3.927582e-02
<VARIANCE> 6
 3.957790e-03 4.008648e-03 8.331696e-04 1.452867e-03 2.229720e-03 2.860579e-03
<GCONST> -2.561121e+01
<STATE> 8
<MEAN> 6
 5.593827e-01 2.757070e-01 -2.861369e-02 6.505019e-02 -8.600466e-03 -3.256210e-02
<VARIANCE> 6
 4.556277e-03 4.539824e-03 6.413040e-04 9.001072e-04 4.434636e-03 1.642829e-03
<GCONST> -2.595350e+01
<STATE> 9
<MEAN> 6
 5.482066e-01 3.270005e-01 5.374833e-02 8.846206e-03 6.069175e-02 -1.577453e-02
<VARIANCE> 6
 4.664140e-03 5.454195e-03 2.521843e-03 1.208689e-04 3.789941e-03 5.064228e-04
<GCONST> -2.771907e+01
<STATE> 10
<MEAN> 6
 6.957178e-01 3.193117e-01 5.509075e-02 -2.879434e-02 -6.266309e-02 -3.515581e-02
<VARIANCE> 6
 4.846574e-03 4.866031e-03 2.068247e-03 7.326318e-04 1.671866e-03 1.059161e-03
<GCONST> -2.627171e+01
<STATE> 11
<MEAN> 6
 6.864244e-01 2.519187e-01 -1.597043e-02 -9.289461e-03 -9.878968e-03 5.518514e-02
<VARIANCE> 6
 5.385279e-03 3.692019e-03 1.066415e-03 2.096314e-03 4.895366e-03 2.057811e-03
<GCONST> -2.431501e+01
<TRANSP> 12
 0.000000e+00 1.000000e+00 0.000000e+00 0.000000e+00 0.000000e+00 0.000000e+00 0.000000e+00 0.000000e+00 0.000000e+00 0.000000e+00 0.000000e+00 0.000000e+00
 0.000000e+00 8.327160e-01 1.672840e-01 0.000000e+00 0.000000e+00 0.000000e+00 0.000000e+00 0.000000e+00 0.000000e+00 0.000000e+00 0.000000e+00 0.000000e+00
 0.000000e+00 0.000000e+00 8.037288e-01 1.962713e-01 0.000000e+00 0.000000e+00 0.000000e+00 0.000000e+00 0.000000e+00 0.000000e+00 0.000000e+00 0.000000e+00
 0.000000e+00 0.000000e+00 0.000000e+00 8.576286e-01 1.423714e-01 0.000000e+00 0.000000e+00 0.000000e+00 0.000000e+00 0.000000e+00 0.000000e+00 0.000000e+00
 0.000000e+00 0.000000e+00 0.000000e+00 0.000000e+00 8.599705e-01 1.400296e-01 0.000000e+00 0.000000e+00 0.000000e+00 0.000000e+00 0.000000e+00 0.000000e+00
 0.000000e+00 0.000000e+00 0.000000e+00 0.000000e+00 0.000000e+00 8.933733e-01 1.066267e-01 0.000000e+00 0.000000e+00 0.000000e+00 0.000000e+00 0.000000e+00
 0.000000e+00 0.000000e+00 0.000000e+00 0.000000e+00 0.000000e+00 0.000000e+00 8.772615e-01 1.227385e-01 0.000000e+00 0.000000e+00 0.000000e+00 0.000000e+00
 0.000000e+00 0.000000e+00 0.000000e+00 0.000000e+00 0.000000e+00 0.000000e+00 0.000000e+00 8.161701e-01 1.838299e-01 0.000000e+00 0.000000e+00 0.000000e+00
 0.000000e+00 0.000000e+00 0.000000e+00 0.000000e+00 0.000000e+00 0.000000e+00 0.000000e+00 0.000000e+00 8.371483e-01 1.628517e-01 0.000000e+00 0.000000e+00
 0.000000e+00 0.000000e+00 0.000000e+00 0.000000e+00 0.000000e+00 0.000000e+00 0.000000e+00 0.000000e+00 0.000000e+00 8.040293e-01 1.959707e-01 0.000000e+00
 0.000000e+00 0.000000e+00 0.000000e+00 0.000000e+00 0.000000e+00 0.000000e+00 0.000000e+00 0.000000e+00 0.000000e+00 0.000000e+00 8.221003e-01 1.778997e-01
 0.000000e+00 0.000000e+00 0.000000e+00 0.000000e+00 0.000000e+00 0.000000e+00 0.000000e+00 0.000000e+00 0.000000e+00 0.000000e+00 0.000000e+00 0.000000e+00
<ENDHMM>
