~o
<STREAMINFO> 1 7
<VECSIZE> 7<NULLD><USER><DIAGC>
~h "proto"
<BEGINHMM>
<NUMSTATES> 12
<STATE> 2
<MEAN> 7
 3.788702e-01 3.044699e-01 1.735070e-02 3.434846e-03 2.757235e-03 -2.852697e-02 -2.455345e+01
<VARIANCE> 7
 4.447819e-03 6.574034e-03 6.636040e-04 1.033868e-03 1.807981e-03 1.775360e-03 1.931559e+03
<GCONST> -1.685032e+01
<STATE> 3
<MEAN> 7
 3.867342e-01 2.206903e-01 -1.521081e-02 -5.076197e-02 1.305162e-03 2.100419e-03 -1.893320e+00
<VARIANCE> 7
 4.819217e-03 6.346126e-03 2.808312e-04 6.611358e-04 1.102731e-03 5.337078e-04 2.750084e+01
<GCONST> -2.406063e+01
<STATE> 4
<MEAN> 7
 4.187917e-01 1.330843e-01 3.157106e-02 -6.676205e-04 7.639160e-03 3.440815e-02 7.606941e+00
<VARIANCE> 7
 5.320942e-03 5.519191e-03 4.157902e-04 1.101439e-03 1.592808e-03 1.684183e-03 5.838303e+02
<GCONST> -1.862608e+01
<STATE> 5
<MEAN> 7
 4.737439e-01 1.810076e-01 4.863898e-03 3.056037e-02 -1.254503e-02 -2.291331e-02 -1.497930e+01
<VARIANCE> 7
 3.138542e-03 5.709716e-03 3.446203e-04 3.153486e-04 4.358431e-04 1.059862e-03 9.186685e+03
<GCONST> -1.956168e+01
<STATE> 6
<MEAN> 7
 4.733432e-01 2.133196e-01 7.252901e-03 -3.942489e-03 1.069246e-02 -6.533435e-02 -8.375945e+02
<VARIANCE> 7
 3.546459e-03 4.179477e-03 1.825569e-04 1.522889e-04 6.850914e-04 1.290049e-03 6.201652e+08
<GCONST> -9.345951e+00
<STATE> 7
<MEAN> 7
 5.213130e-01 1.746754e-01 3.119618e-02 3.678448e-03 -4.913082e-03 2.762241e-02 1.362735e+01
<VARIANCE> 7
 5.649736e-03 2.714652e-03 7.261980e-04 1.613493e-03 2.399859e-03 2.312161e-03 6.628630e+02
<GCONST> -1.748249e+01
<STATE> 8
<MEAN> 7
 5.430272e-01 2.901247e-01 -2.806528e-02 5.519486e-02 2.750118e-03 -3.110599e-02 2.517397e+01
<VARIANCE> 7
 4.513652e-03 4.200292e-03 8.057080e-04 9.664771e-04 3.445327e-03 1.049292e-03 9.986779e+03
<GCONST> -1.539511e+01
<STATE> 9
<MEAN> 7
 5.206698e-01 3.106558e-01 1.125233e-02 1.576076e-02 9.803257e-02 -3.383023e-02 8.449695e+02
<VARIANCE> 7
 4.768692e-03 6.136212e-03 4.438909e-04 1.653411e-04 6.225961e-03 1.033916e-03 1.205925e+07
<GCONST> -9.649611e+00
<STATE> 10
<MEAN> 7
 5.865294e-01 3.335874e-01 7.565761e-02 3.145610e-03 2.058379e-02 -1.624739e-02 -1.866231e+01
<VARIANCE> 7
 7.015111e-03 4.428389e-03 1.739145e-03 1.381897e-04 5.593539e-03 5.296504e-04 1.632970e+04
<GCONST> -1.578421e+01
<STATE> 11
<MEAN> 7
 6.845303e-01 2.703655e-01 6.250811e-03 -1.800326e-02 -2.542687e-02 1.941916e-02 -1.303066e+01
<VARIANCE> 7
 5.961627e-03 6.843925e-03 1.891755e-03 1.882028e-03 4.266812e-03 3.551405e-03 2.367549e+03
<GCONST> -1.311501e+01
<TRANSP> 12
 0.000000e+00 1.000000e+00 0.000000e+00 0.000000e+00 0.000000e+00 0.000000e+00 0.000000e+00 0.000000e+00 0.000000e+00 0.000000e+00 0.000000e+00 0.000000e+00
 0.000000e+00 8.942536e-01 1.057464e-01 0.000000e+00 0.000000e+00 0.000000e+00 0.000000e+00 0.000000e+00 0.000000e+00 0.000000e+00 0.000000e+00 0.000000e+00
 0.000000e+00 0.000000e+00 8.832629e-01 1.167370e-01 0.000000e+00 0.000000e+00 0.000000e+00 0.000000e+00 0.000000e+00 0.000000e+00 0.000000e+00 0.000000e+00
 0.000000e+00 0.000000e+00 0.000000e+00 8.948138e-01 1.051863e-01 0.000000e+00 0.000000e+00 0.000000e+00 0.000000e+00 0.000000e+00 0.000000e+00 0.000000e+00
 0.000000e+00 0.000000e+00 0.000000e+00 0.000000e+00 7.996964e-01 2.003036e-01 0.000000e+00 0.000000e+00 0.000000e+00 0.000000e+00 0.000000e+00 0.000000e+00
 0.000000e+00 0.000000e+00 0.000000e+00 0.000000e+00 0.000000e+00 0.000000e+00 1.000000e+00 0.000000e+00 0.000000e+00 0.000000e+00 0.000000e+00 0.000000e+00
 0.000000e+00 0.000000e+00 0.000000e+00 0.000000e+00 0.000000e+00 0.000000e+00 9.073492e-01 9.265082e-02 0.000000e+00 0.000000e+00 0.000000e+00 0.000000e+00
 0.000000e+00 0.000000e+00 0.000000e+00 0.000000e+00 0.000000e+00 0.000000e+00 0.000000e+00 8.248845e-01 1.751155e-01 0.000000e+00 0.000000e+00 0.000000e+00
 0.000000e+00 0.000000e+00 0.000000e+00 0.000000e+00 0.000000e+00 0.000000e+00 0.000000e+00 0.000000e+00 0.000000e+00 1.000000e+00 0.000000e+00 0.000000e+00
 0.000000e+00 0.000000e+00 0.000000e+00 0.000000e+00 0.000000e+00 0.000000e+00 0.000000e+00 0.000000e+00 0.000000e+00 8.402734e-01 1.597266e-01 0.000000e+00
 0.000000e+00 0.000000e+00 0.000000e+00 0.000000e+00 0.000000e+00 0.000000e+00 0.000000e+00 0.000000e+00 0.000000e+00 0.000000e+00 8.986216e-01 1.013785e-01
 0.000000e+00 0.000000e+00 0.000000e+00 0.000000e+00 0.000000e+00 0.000000e+00 0.000000e+00 0.000000e+00 0.000000e+00 0.000000e+00 0.000000e+00 0.000000e+00
<ENDHMM>
