~o
<STREAMINFO> 1 7
<VECSIZE> 7<NULLD><USER><DIAGC>
~h "proto"
<BEGINHMM>
<NUMSTATES> 12
<STATE> 2
<MEAN> 7
 3.739884e-01 2.383980e-01 3.576883e-02 -2.693122e-03 -2.011679e-02 -3.607304e-03 -1.646894e+01
<VARIANCE> 7
 3.906619e-03 7.165520e-03 6.222634e-04 2.343358e-04 9.142286e-04 3.612532e-04 2.523199e+03
<GCONST> -2.044940e+01
<STATE> 3
<MEAN> 7
 4.297355e-01 2.550589e-01 2.812453e-03 -1.848192e-02 -6.158270e-02 -4.357705e-02 -1.329119e+03
<VARIANCE> 7
 3.248231e-03 5.948256e-03 3.923265e-04 3.494032e-04 1.216428e-03 8.423256e-04 3.961570e+07
<GCONST> -1.008831e+01
<STATE> 4
<MEAN> 7
 4.177137e-01 1.760478e-01 1.045081e-02 -9.161926e-03 5.018033e-03 8.410272e-03 1.723723e+00
<VARIANCE> 7
 3.664701e-03 6.878214e-03 7.719776e-04 1.000792e-03 8.984188e-04 9.360211e-04 4.856778e+02
<GCONST> -1.959999e+01
<STATE> 5
<MEAN> 7
 4.822367e-01 1.907556e-01 9.633607e-03 4.303772e-03 -6.130627e-03 -4.015657e-02 -1.629775e+03
<VARIANCE> 7
 2.171149e-03 5.771501e-03 1.665907e-04 4.513150e-04 9.927866e-04 2.042458e-03 9.099146e+07
<GCONST> -9.607819e+00
<STATE> 6
<MEAN> 7
 5.506422e-01 1.894859e-01 1.617947e-02 1.748229e-02 -1.007272e-02 1.006238e-02 8.220768e+00
<VARIANCE> 7
 4.273011e-03 7.140440e-03 1.333821e-03 1.543942e-03 1.856625e-03 1.859912e-03 2.956711e+02
<GCONST> -1.751238e+01
<STATE> 7
<MEAN> 7
 5.502264e-01 2.791607e-01 -3.288126e-02 2.903654e-02 3.150006e-02 -3.845059e-02 2.249194e+01
<VARIANCE> 7
 3.046761e-03 5.814769e-03 5.836886e-04 4.270371e-04 8.421090e-04 7.780028e-04 2.858116e+02
<GCONST> -2.186372e+01
<STATE> 8
<MEAN> 7
 5.415157e-01 2.850692e-01 -1.836378e-02 1.825468e-02 6.923078e-02 -3.467732e-02 9.585892e+01
<VARIANCE> 7
 3.085627e-03 5.889949e-03 3.706857e-04 1.732776e-04 3.388979e-03 7.730663e-04 1.212503e+04
<GCONST> -1.806049e+01
<STATE> 9
<MEAN> 7
 5.381871e-01 2.891521e-01 7.554174e-03 9.332138e-03 9.159800e-02 -2.540188e-02 3.547909e+03
<VARIANCE> 7
 2.903892e-03 5.916719e-03 8.275902e-04 8.805967e-05 3.894421e-03 7.717293e-04 5.608739e+08
<GCONST> -7.111109e+00
<STATE> 10
<MEAN> 7
 6.171291e-01 2.952793e-01 6.955179e-02 4.168932e-03 1.370153e-02 -8.622041e-03 -2.675077e+01
<VARIANCE> 7
 5.646737e-03 5.831308e-03 1.329977e-03 8.568408e-05 4.447864e-03 3.533015e-04 2.657438e+04
<GCONST> -1.661930e+01
<STATE> 11
<MEAN> 7
 7.156439e-01 2.489654e-01 3.363911e-03 -1.428482e-02 -1.901096e-02 1.372359e-02 -1.228600e+01
<VARIANCE> 7
 5.436247e-03 7.082680e-03 1.330389e-03 1.099400e-03 2.639426e-03 2.164137e-03 2.749732e+03
<GCONST> -1.488858e+01
<TRANSP> 12
 0.000000e+00 1.000000e+00 0.000000e+00 0.000000e+00 0.000000e+00 0.000000e+00 0.000000e+00 0.000000e+00 0.000000e+00 0.000000e+00 0.000000e+00 0.000000e+00
 0.000000e+00 8.264971e-01 1.735030e-01 0.000000e+00 0.000000e+00 0.000000e+00 0.000000e+00 0.000000e+00 0.000000e+00 0.000000e+00 0.000000e+00 0.000000e+00
 0.000000e+00 0.000000e+00 4.440430e-01 5.559570e-01 0.000000e+00 0.000000e+00 0.000000e+00 0.000000e+00 0.000000e+00 0.000000e+00 0.000000e+00 0.000000e+00
 0.000000e+00 0.000000e+00 0.000000e+00 9.483445e-01 5.165551e-02 0.000000e+00 0.000000e+00 0.000000e+00 0.000000e+00 0.000000e+00 0.000000e+00 0.000000e+00
 0.000000e+00 0.000000e+00 0.000000e+00 0.000000e+00 5.227765e-01 4.772235e-01 0.000000e+00 0.000000e+00 0.000000e+00 0.000000e+00 0.000000e+00 0.000000e+00
 0.000000e+00 0.000000e+00 0.000000e+00 0.000000e+00 0.000000e+00 9.370918e-01 6.290826e-02 0.000000e+00 0.000000e+00 0.000000e+00 0.000000e+00 0.000000e+00
 0.000000e+00 0.000000e+00 0.000000e+00 0.000000e+00 0.000000e+00 0.000000e+00 0.000000e+00 1.000000e+00 0.000000e+00 0.000000e+00 0.000000e+00 0.000000e+00
 0.000000e+00 0.000000e+00 0.000000e+00 0.000000e+00 0.000000e+00 0.000000e+00 0.000000e+00 0.000000e+00 1.000000e+00 0.000000e+00 0.000000e+00 0.000000e+00
 0.000000e+00 0.000000e+00 0.000000e+00 0.000000e+00 0.000000e+00 0.000000e+00 0.000000e+00 0.000000e+00 0.000000e+00 1.000000e+00 0.000000e+00 0.000000e+00
 0.000000e+00 0.000000e+00 0.000000e+00 0.000000e+00 0.000000e+00 0.000000e+00 0.000000e+00 0.000000e+00 0.000000e+00 8.680197e-01 1.319803e-01 0.000000e+00
 0.000000e+00 0.000000e+00 0.000000e+00 0.000000e+00 0.000000e+00 0.000000e+00 0.000000e+00 0.000000e+00 0.000000e+00 0.000000e+00 9.110597e-01 8.894029e-02
 0.000000e+00 0.000000e+00 0.000000e+00 0.000000e+00 0.000000e+00 0.000000e+00 0.000000e+00 0.000000e+00 0.000000e+00 0.000000e+00 0.000000e+00 0.000000e+00
<ENDHMM>
