~o
<STREAMINFO> 1 6
<VECSIZE> 6<NULLD><USER><DIAGC>
~h "proto"
<BEGINHMM>
<NUMSTATES> 12
<STATE> 2
<MEAN> 6
 3.599679e-01 2.701725e-01 2.965964e-02 -2.370965e-03 -2.415074e-02 -9.931008e-03
<VARIANCE> 6
 6.055621e-03 5.172849e-03 6.483844e-04 1.831699e-04 1.032405e-03 4.843169e-04
<GCONST> -2.979860e+01
<STATE> 3
<MEAN> 6
 3.970954e-01 2.270637e-01 -1.347774e-02 -4.086033e-02 6.014833e-03 -6.867830e-03
<VARIANCE> 6
 2.499585e-03 4.676397e-03 3.615139e-04 3.350126e-04 1.745674e-03 1.241754e-03
<GCONST> -2.929799e+01
<STATE> 4
<MEAN> 6
 3.973445e-01 1.372495e-01 3.014523e-02 -4.750544e-03 8.996824e-03 2.742753e-02
<VARIANCE> 6
 2.185541e-03 4.306134e-03 3.832392e-04 5.020332e-04 8.066185e-04 7.904096e-04
<GCONST> -3.027566e+01
<STATE> 5
<MEAN> 6
 4.614547e-01 2.018372e-01 1.398845e-02 9.737180e-03 -5.463582e-03 -1.728727e-02
<VARIANCE> 6
 1.349536e-03 4.805947e-03 1.767430e-04 5.871238e-04 3.909183e-04 9.833550e-04
<GCONST> -3.177127e+01
<STATE> 6
<MEAN> 6
 5.192300e-01 1.493371e-01 3.720205e-02 -1.325731e-02 1.729432e-02 1.966518e-02
<VARIANCE> 6
 1.673037e-03 5.125521e-03 4.446087e-04 3.631756e-04 9.203557e-04 7.392925e-04
<GCONST> -3.047888e+01
<STATE> 7
<MEAN> 6
 5.883763e-01 1.896258e-01 1.769012e-02 4.967928e-02 -4.727220e-02 3.141250e-02
<VARIANCE> 6
 2.889202e-03 4.757688e-03 1.084332e-03 8.877005e-04 1.069943e-03 2.445534e-03
<GCONST> -2.687482e+01
<STATE> 8
<MEAN> 6
 5.411429e-01 2.813442e-01 -2.734030e-02 3.201202e-02 1.829280e-02 -2.856001e-02
<VARIANCE> 6
 3.563693e-03 4.942037e-03 3.455155e-04 4.008609e-04 2.334517e-03 5.534402e-04
<GCONST> -2.927135e+01
<STATE> 9
<MEAN> 6
 5.760902e-01 3.040538e-01 6.213992e-02 6.835540e-03 3.378537e-02 -4.449515e-03
<VARIANCE> 6
 5.228945e-03 6.587951e-03 1.216434e-03 6.353221e-05 3.320917e-03 1.873123e-04
<GCONST> -2.991484e+01
<STATE> 10
<MEAN> 6
 7.099102e-01 3.113868e-01 4.040898e-02 -2.380241e-02 -5.237363e-02 -3.182780e-02
<VARIANCE> 6
 4.883062e-03 4.285123e-03 1.774109e-03 4.983636e-04 1.730323e-03 5.173769e-04
<GCONST> -2.761215e+01
<STATE> 11
<MEAN> 6
 6.989802e-01 2.368036e-01 -1.047727e-02 -5.320683e-03 -4.056556e-03 3.392844e-02
<VARIANCE> 6
 5.985528e-03 5.649121e-03 7.959403e-04 1.295297e-03 2.160010e-03 1.323939e-03
<GCONST> -2.581719e+01
<TRANSP> 12
 0.000000e+00 1.000000e+00 0.000000e+00 0.000000e+00 0.000000e+00 0.000000e+00 0.000000e+00 0.000000e+00 0.000000e+00 0.000000e+00 0.000000e+00 0.000000e+00
 0.000000e+00 8.577240e-01 1.422760e-01 0.000000e+00 0.000000e+00 0.000000e+00 0.000000e+00 0.000000e+00 0.000000e+00 0.000000e+00 0.000000e+00 0.000000e+00
 0.000000e+00 0.000000e+00 8.628418e-01 1.371582e-01 0.000000e+00 0.000000e+00 0.000000e+00 0.000000e+00 0.000000e+00 0.000000e+00 0.000000e+00 0.000000e+00
 0.000000e+00 0.000000e+00 0.000000e+00 8.644366e-01 1.355634e-01 0.000000e+00 0.000000e+00 0.000000e+00 0.000000e+00 0.000000e+00 0.000000e+00 0.000000e+00
 0.000000e+00 0.000000e+00 0.000000e+00 0.000000e+00 8.866298e-01 1.133702e-01 0.000000e+00 0.000000e+00 0.000000e+00 0.000000e+00 0.000000e+00 0.000000e+00
 0.000000e+00 0.000000e+00 0.000000e+00 0.000000e+00 0.000000e+00 8.326381e-01 1.673619e-01 0.000000e+00 0.000000e+00 0.000000e+00 0.000000e+00 0.000000e+00
 0.000000e+00 0.000000e+00 0.000000e+00 0.000000e+00 0.000000e+00 0.000000e+00 8.159375e-01 1.840625e-01 0.000000e+00 0.000000e+00 0.000000e+00 0.000000e+00
 0.000000e+00 0.000000e+00 0.000000e+00 0.000000e+00 0.000000e+00 0.000000e+00 0.000000e+00 8.291433e-01 1.708567e-01 0.000000e+00 0.000000e+00 0.000000e+00
 0.000000e+00 0.000000e+00 0.000000e+00 0.000000e+00 0.000000e+00 0.000000e+00 0.000000e+00 0.000000e+00 8.681160e-01 1.318840e-01 0.000000e+00 0.000000e+00
 0.000000e+00 0.000000e+00 0.000000e+00 0.000000e+00 0.000000e+00 0.000000e+00 0.000000e+00 0.000000e+00 0.000000e+00 8.140836e-01 1.859165e-01 0.000000e+00
 0.000000e+00 0.000000e+00 0.000000e+00 0.000000e+00 0.000000e+00 0.000000e+00 0.000000e+00 0.000000e+00 0.000000e+00 0.000000e+00 8.765589e-01 1.234411e-01
 0.000000e+00 0.000000e+00 0.000000e+00 0.000000e+00 0.000000e+00 0.000000e+00 0.000000e+00 0.000000e+00 0.000000e+00 0.000000e+00 0.000000e+00 0.000000e+00
<ENDHMM>
