~o
<STREAMINFO> 1 7
<VECSIZE> 7<NULLD><USER><DIAGC>
~h "proto"
<BEGINHMM>
<NUMSTATES> 12
<STATE> 2
<MEAN> 7
 4.223274e-01 2.297758e-01 1.138537e-02 2.074056e-02 -1.768415e-02 6.630574e-03 1.080503e+01
<VARIANCE> 7
 3.080400e-03 6.378190e-03 4.051311e-04 3.883119e-04 6.120089e-04 6.476665e-04 8.919022e+02
<GCONST> -2.158497e+01
<STATE> 3
<MEAN> 7
 3.888388e-01 2.923360e-01 -3.084055e-02 -1.093520e-02 1.062361e-03 -3.057838e-02 1.481531e+01
<VARIANCE> 7
 3.918293e-03 7.669660e-03 2.169498e-04 7.771616e-04 1.415979e-03 5.846248e-04 2.492896e+02
<GCONST> -2.162901e+01
<STATE> 4
<MEAN> 7
 3.348225e-01 1.807237e-01 5.204293e-03 -4.448987e-02 2.482267e-02 -2.506295e-03 1.798247e+00
<VARIANCE> 7
 3.349846e-03 6.717763e-03 5.974182e-04 5.108385e-04 1.173345e-03 6.786856e-04 1.744866e+01
<GCONST> -2.402304e+01
<STATE> 5
<MEAN> 7
 3.971492e-01 1.317869e-01 7.453313e-02 -5.340911e-02 4.963983e-02 3.390938e-02 1.431389e+00
<VARIANCE> 7
 3.884235e-03 5.690591e-03 1.883310e-03 1.033922e-03 1.344209e-03 2.251383e-03 2.985924e+00
<GCONST> -2.261800e+01
<STATE> 6
<MEAN> 7
 4.991592e-01 6.882619e-02 6.004437e-02 8.198153e-03 -9.202627e-03 2.846453e-02 6.788330e+00
<VARIANCE> 7
 5.539542e-03 7.977783e-03 1.167284e-03 4.921213e-04 8.736430e-04 8.783306e-04 3.836943e+01
<GCONST> -2.196473e+01
<STATE> 7
<MEAN> 7
 6.308798e-01 1.587869e-01 3.998583e-02 6.909951e-02 -7.103205e-02 1.693670e-02 3.600128e+00
<VARIANCE> 7
 4.742033e-03 6.400457e-03 2.568859e-03 1.135909e-03 4.911136e-03 3.879158e-03 5.624554e+01
<GCONST> -1.712081e+01
<STATE> 8
<MEAN> 7
 6.159096e-01 2.030302e-01 -1.281302e-02 4.323638e-02 -2.966358e-02 -2.045138e-02 -6.972490e-01
<VARIANCE> 7
 4.567316e-03 8.025729e-03 7.104622e-04 3.354443e-04 3.119225e-04 8.071820e-04 3.414562e+01
<GCONST> -2.426253e+01
<STATE> 9
<MEAN> 7
 5.560480e-01 2.687862e-01 -3.934157e-02 -1.214080e-02 1.670733e-02 -3.904141e-02 2.325143e+01
<VARIANCE> 7
 3.863440e-03 6.631242e-03 3.666389e-04 6.465943e-04 7.746972e-04 7.821990e-04 4.489454e+02
<GCONST> -2.117148e+01
<STATE> 10
<MEAN> 7
 5.091453e-01 1.878396e-01 -8.738482e-03 -2.723486e-02 1.318360e-03 8.195114e-03 6.424034e+00
<VARIANCE> 7
 4.358225e-03 6.496192e-03 5.381875e-04 3.064848e-04 1.020742e-03 2.712689e-04 3.543804e+02
<GCONST> -2.245399e+01
<STATE> 11
<MEAN> 7
 5.006008e-01 1.368589e-01 -4.401898e-02 -7.434883e-03 -3.377024e-02 9.613748e-03 1.122019e+02
<VARIANCE> 7
 6.907267e-03 7.127695e-03 1.216081e-03 1.015446e-04 1.990821e-03 2.315465e-04 5.030965e+05
<GCONST> -1.442234e+01
<TRANSP> 12
 0.000000e+00 1.000000e+00 0.000000e+00 0.000000e+00 0.000000e+00 0.000000e+00 0.000000e+00 0.000000e+00 0.000000e+00 0.000000e+00 0.000000e+00 0.000000e+00
 0.000000e+00 8.793253e-01 1.206747e-01 0.000000e+00 0.000000e+00 0.000000e+00 0.000000e+00 0.000000e+00 0.000000e+00 0.000000e+00 0.000000e+00 0.000000e+00
 0.000000e+00 0.000000e+00 8.817000e-01 1.183000e-01 0.000000e+00 0.000000e+00 0.000000e+00 0.000000e+00 0.000000e+00 0.000000e+00 0.000000e+00 0.000000e+00
 0.000000e+00 0.000000e+00 0.000000e+00 8.774017e-01 1.225983e-01 0.000000e+00 0.000000e+00 0.000000e+00 0.000000e+00 0.000000e+00 0.000000e+00 0.000000e+00
 0.000000e+00 0.000000e+00 0.000000e+00 0.000000e+00 7.426628e-01 2.573372e-01 0.000000e+00 0.000000e+00 0.000000e+00 0.000000e+00 0.000000e+00 0.000000e+00
 0.000000e+00 0.000000e+00 0.000000e+00 0.000000e+00 0.000000e+00 8.735589e-01 1.264411e-01 0.000000e+00 0.000000e+00 0.000000e+00 0.000000e+00 0.000000e+00
 0.000000e+00 0.000000e+00 0.000000e+00 0.000000e+00 0.000000e+00 0.000000e+00 7.068182e-01 2.931818e-01 0.000000e+00 0.000000e+00 0.000000e+00 0.000000e+00
 0.000000e+00 0.000000e+00 0.000000e+00 0.000000e+00 0.000000e+00 0.000000e+00 0.000000e+00 8.421329e-01 1.578672e-01 0.000000e+00 0.000000e+00 0.000000e+00
 0.000000e+00 0.000000e+00 0.000000e+00 0.000000e+00 0.000000e+00 0.000000e+00 0.000000e+00 0.000000e+00 8.218343e-01 1.781657e-01 0.000000e+00 0.000000e+00
 0.000000e+00 0.000000e+00 0.000000e+00 0.000000e+00 0.000000e+00 0.000000e+00 0.000000e+00 0.000000e+00 0.000000e+00 8.949049e-01 1.050951e-01 0.000000e+00
 0.000000e+00 0.000000e+00 0.000000e+00 0.000000e+00 0.000000e+00 0.000000e+00 0.000000e+00 0.000000e+00 0.000000e+00 0.000000e+00 7.690602e-01 2.309398e-01
 0.000000e+00 0.000000e+00 0.000000e+00 0.000000e+00 0.000000e+00 0.000000e+00 0.000000e+00 0.000000e+00 0.000000e+00 0.000000e+00 0.000000e+00 0.000000e+00
<ENDHMM>
