~o
<STREAMINFO> 1 6
<VECSIZE> 6<NULLD><USER><DIAGC>
~h "proto"
<BEGINHMM>
<NUMSTATES> 12
<STATE> 2
<MEAN> 6
 4.180968e-01 2.344241e-01 1.561783e-02 1.924180e-02 -1.483169e-02 1.019105e-02
<VARIANCE> 6
 3.384022e-03 8.960454e-03 3.603037e-04 4.429165e-04 5.783477e-04 5.622911e-04
<GCONST> -2.996588e+01
<STATE> 3
<MEAN> 6
 3.769636e-01 3.062142e-01 -2.674773e-02 -1.224289e-02 -4.924242e-04 -2.257316e-02
<VARIANCE> 6
 5.114112e-03 9.990859e-03 1.888352e-04 7.629274e-04 1.046808e-03 2.768250e-04
<GCONST> -2.966169e+01
<STATE> 4
<MEAN> 6
 3.369368e-01 2.012245e-01 2.305233e-02 -6.532819e-02 5.026379e-02 -8.784125e-05
<VARIANCE> 6
 4.465214e-03 6.440214e-03 2.087487e-03 5.725732e-04 1.757460e-03 1.956340e-03
<GCONST> -2.564710e+01
<STATE> 5
<MEAN> 6
 3.792045e-01 1.074432e-01 3.962040e-02 -2.288253e-02 1.240025e-02 1.533622e-02
<VARIANCE> 6
 5.100802e-03 1.300546e-02 1.419618e-03 3.060616e-04 2.486968e-04 9.686744e-04
<GCONST> -2.848143e+01
<STATE> 6
<MEAN> 6
 5.417355e-01 9.521861e-02 7.971941e-02 2.094346e-02 -2.352192e-02 4.382917e-02
<VARIANCE> 6
 4.497341e-03 5.842194e-03 1.017553e-03 9.021136e-04 1.814232e-03 1.144459e-03
<GCONST> -2.650570e+01
<STATE> 7
<MEAN> 6
 6.161095e-01 1.698446e-01 1.832663e-02 4.953738e-02 -3.408835e-02 3.169813e-03
<VARIANCE> 6
 4.748507e-03 1.237686e-02 5.066858e-04 5.706131e-04 1.563691e-03 3.225249e-04
<GCONST> -2.827104e+01
<STATE> 8
<MEAN> 6
 6.334583e-01 2.588486e-01 -4.510828e-02 2.975069e-02 -2.636803e-02 -5.154040e-02
<VARIANCE> 6
 5.728774e-03 5.394996e-03 7.285973e-04 1.657749e-03 2.899510e-03 1.942574e-03
<GCONST> -2.507092e+01
<STATE> 9
<MEAN> 6
 5.446751e-01 2.714714e-01 -3.190355e-02 -9.602120e-03 1.345342e-02 -2.626986e-02
<VARIANCE> 6
 2.527428e-03 1.187990e-02 1.840991e-04 6.552534e-04 5.976136e-04 2.427868e-04
<GCONST> -3.106261e+01
<STATE> 10
<MEAN> 6
 5.193031e-01 2.057228e-01 1.012989e-03 -3.342819e-02 -5.189684e-04 1.286022e-02
<VARIANCE> 6
 2.994294e-03 9.297670e-03 3.538299e-04 1.968844e-04 1.586363e-03 2.976974e-04
<GCONST> -3.050711e+01
<STATE> 11
<MEAN> 6
 4.770726e-01 1.644168e-01 -4.553997e-02 -5.452699e-03 -2.198218e-02 6.030176e-03
<VARIANCE> 6
 6.536837e-03 1.107303e-02 8.564925e-04 7.553999e-05 1.410088e-03 1.653320e-04
<GCONST> -3.033145e+01
<TRANSP> 12
 0.000000e+00 1.000000e+00 0.000000e+00 0.000000e+00 0.000000e+00 0.000000e+00 0.000000e+00 0.000000e+00 0.000000e+00 0.000000e+00 0.000000e+00 0.000000e+00
 0.000000e+00 8.821958e-01 1.178042e-01 0.000000e+00 0.000000e+00 0.000000e+00 0.000000e+00 0.000000e+00 0.000000e+00 0.000000e+00 0.000000e+00 0.000000e+00
 0.000000e+00 0.000000e+00 9.120789e-01 8.792117e-02 0.000000e+00 0.000000e+00 0.000000e+00 0.000000e+00 0.000000e+00 0.000000e+00 0.000000e+00 0.000000e+00
 0.000000e+00 0.000000e+00 0.000000e+00 8.213993e-01 1.786007e-01 0.000000e+00 0.000000e+00 0.000000e+00 0.000000e+00 0.000000e+00 0.000000e+00 0.000000e+00
 0.000000e+00 0.000000e+00 0.000000e+00 0.000000e+00 8.825949e-01 1.174051e-01 0.000000e+00 0.000000e+00 0.000000e+00 0.000000e+00 0.000000e+00 0.000000e+00
 0.000000e+00 0.000000e+00 0.000000e+00 0.000000e+00 0.000000e+00 8.185600e-01 1.814400e-01 0.000000e+00 0.000000e+00 0.000000e+00 0.000000e+00 0.000000e+00
 0.000000e+00 0.000000e+00 0.000000e+00 0.000000e+00 0.000000e+00 0.000000e+00 8.577387e-01 1.422613e-01 0.000000e+00 0.000000e+00 0.000000e+00 0.000000e+00
 0.000000e+00 0.000000e+00 0.000000e+00 0.000000e+00 0.000000e+00 0.000000e+00 0.000000e+00 7.570540e-01 2.429460e-01 0.000000e+00 0.000000e+00 0.000000e+00
 0.000000e+00 0.000000e+00 0.000000e+00 0.000000e+00 0.000000e+00 0.000000e+00 0.000000e+00 0.000000e+00 8.360637e-01 1.639363e-01 0.000000e+00 0.000000e+00
 0.000000e+00 0.000000e+00 0.000000e+00 0.000000e+00 0.000000e+00 0.000000e+00 0.000000e+00 0.000000e+00 0.000000e+00 8.617228e-01 1.382772e-01 0.000000e+00
 0.000000e+00 0.000000e+00 0.000000e+00 0.000000e+00 0.000000e+00 0.000000e+00 0.000000e+00 0.000000e+00 0.000000e+00 0.000000e+00 8.418136e-01 1.581865e-01
 0.000000e+00 0.000000e+00 0.000000e+00 0.000000e+00 0.000000e+00 0.000000e+00 0.000000e+00 0.000000e+00 0.000000e+00 0.000000e+00 0.000000e+00 0.000000e+00
<ENDHMM>
