~o
<STREAMINFO> 1 6
<VECSIZE> 6<NULLD><USER><DIAGC>
~h "proto"
<BEGINHMM>
<NUMSTATES> 12
<STATE> 2
<MEAN> 6
 3.774250e-01 3.266325e-01 1.411833e-02 -1.108499e-04 5.761461e-03 -2.503425e-02
<VARIANCE> 6
 1.000000e-02 1.000000e-02 1.000000e-02 1.000000e-02 1.000000e-02 1.000000e-02
<GCONST> -1.660376e+01
<STATE> 3
<MEAN> 6
 4.419770e-01 2.675982e-01 -9.167661e-03 -5.982087e-02 -2.517665e-02 -1.592422e-02
<VARIANCE> 6
 1.000000e-02 1.000000e-02 1.000000e-02 1.000000e-02 1.000000e-02 1.000000e-02
<GCONST> -1.660376e+01
<STATE> 4
<MEAN> 6
 3.608318e-01 1.732503e-01 3.265728e-03 -3.096497e-02 2.020976e-02 1.594216e-02
<VARIANCE> 6
 1.000000e-02 1.000000e-02 1.000000e-02 1.000000e-02 1.000000e-02 1.000000e-02
<GCONST> -1.660376e+01
<STATE> 5
<MEAN> 6
 4.237674e-01 7.693682e-02 3.078244e-02 1.900540e-03 2.245905e-03 2.563092e-02
<VARIANCE> 6
 1.000000e-02 1.000000e-02 1.000000e-02 1.000000e-02 1.000000e-02 1.000000e-02
<GCONST> -1.660376e+01
<STATE> 6
<MEAN> 6
 4.792192e-01 1.828780e-01 2.122295e-02 5.287635e-03 3.926782e-03 -2.800550e-03
<VARIANCE> 6
 1.000000e-02 1.000000e-02 1.000000e-02 1.000000e-02 1.000000e-02 1.000000e-02
<GCONST> -1.660376e+01
<STATE> 7
<MEAN> 6
 5.938016e-01 1.398006e-01 2.941607e-02 1.895132e-02 -2.081909e-02 3.238978e-02
<VARIANCE> 6
 1.000000e-02 1.000000e-02 1.000000e-02 1.000000e-02 1.000000e-02 1.000000e-02
<GCONST> -1.660376e+01
<STATE> 8
<MEAN> 6
 5.923573e-01 2.498567e-01 -1.737041e-02 8.502770e-02 -6.219763e-02 -5.868379e-03
<VARIANCE> 6
 1.000000e-02 1.000000e-02 1.000000e-02 1.000000e-02 1.000000e-02 1.000000e-02
<GCONST> -1.660376e+01
<STATE> 9
<MEAN> 6
 5.397351e-01 3.266616e-01 1.978981e-02 2.106613e-02 4.644004e-02 -2.524439e-02
<VARIANCE> 6
 1.000000e-02 1.000000e-02 1.000000e-02 1.000000e-02 1.000000e-02 1.000000e-02
<GCONST> -1.660376e+01
<STATE> 10
<MEAN> 6
 7.005768e-01 3.244405e-01 5.571584e-02 -2.868764e-02 -6.349321e-02 -2.680387e-02
<VARIANCE> 6
 1.000000e-02 1.000000e-02 1.000000e-02 1.000000e-02 1.000000e-02 1.000000e-02
<GCONST> -1.660376e+01
<STATE> 11
<MEAN> 6
 6.947172e-01 2.463423e-01 -1.852741e-02 -5.313017e-03 -2.186322e-03 5.849330e-02
<VARIANCE> 6
 1.000000e-02 1.000000e-02 1.000000e-02 1.000000e-02 1.000000e-02 1.000000e-02
<GCONST> -1.660376e+01
<TRANSP> 12
 0.000000e+00 1.000000e+00 0.000000e+00 0.000000e+00 0.000000e+00 0.000000e+00 0.000000e+00 0.000000e+00 0.000000e+00 0.000000e+00 0.000000e+00 0.000000e+00
 0.000000e+00 8.828250e-01 1.171750e-01 0.000000e+00 0.000000e+00 0.000000e+00 0.000000e+00 0.000000e+00 0.000000e+00 0.000000e+00 0.000000e+00 0.000000e+00
 0.000000e+00 0.000000e+00 6.651376e-01 3.348624e-01 0.000000e+00 0.000000e+00 0.000000e+00 0.000000e+00 0.000000e+00 0.000000e+00 0.000000e+00 0.000000e+00
 0.000000e+00 0.000000e+00 0.000000e+00 8.832000e-01 1.168000e-01 0.000000e+00 0.000000e+00 0.000000e+00 0.000000e+00 0.000000e+00 0.000000e+00 0.000000e+00
 0.000000e+00 0.000000e+00 0.000000e+00 0.000000e+00 7.682540e-01 2.317460e-01 0.000000e+00 0.000000e+00 0.000000e+00 0.000000e+00 0.000000e+00 0.000000e+00
 0.000000e+00 0.000000e+00 0.000000e+00 0.000000e+00 0.000000e+00 9.181615e-01 8.183856e-02 0.000000e+00 0.000000e+00 0.000000e+00 0.000000e+00 0.000000e+00
 0.000000e+00 0.000000e+00 0.000000e+00 0.000000e+00 0.000000e+00 0.000000e+00 8.557312e-01 1.442688e-01 0.000000e+00 0.000000e+00 0.000000e+00 0.000000e+00
 0.000000e+00 0.000000e+00 0.000000e+00 0.000000e+00 0.000000e+00 0.000000e+00 0.000000e+00 5.067568e-01 4.932432e-01 0.000000e+00 0.000000e+00 0.000000e+00
 0.000000e+00 0.000000e+00 0.000000e+00 0.000000e+00 0.000000e+00 0.000000e+00 0.000000e+00 0.000000e+00 8.900602e-01 1.099397e-01 0.000000e+00 0.000000e+00
 0.000000e+00 0.000000e+00 0.000000e+00 0.000000e+00 0.000000e+00 0.000000e+00 0.000000e+00 0.000000e+00 0.000000e+00 8.223844e-01 1.776156e-01 0.000000e+00
 0.000000e+00 0.000000e+00 0.000000e+00 0.000000e+00 0.000000e+00 0.000000e+00 0.000000e+00 0.000000e+00 0.000000e+00 0.000000e+00 7.902299e-01 2.097701e-01
 0.000000e+00 0.000000e+00 0.000000e+00 0.000000e+00 0.000000e+00 0.000000e+00 0.000000e+00 0.000000e+00 0.000000e+00 0.000000e+00 0.000000e+00 0.000000e+00
<ENDHMM>
