~o
<STREAMINFO> 1 7
<VECSIZE> 7<NULLD><USER><DIAGC>
~h "proto"
<BEGINHMM>
<NUMSTATES> 12
<STATE> 2
<MEAN> 7
 3.795898e-01 3.040655e-01 1.591367e-02 2.315736e-03 2.655347e-03 -2.597290e-02 -2.209442e+01
<VARIANCE> 7
 1.000000e-02 1.000000e-02 1.000000e-02 1.000000e-02 1.000000e-02 1.000000e-02 1.497522e+03
<GCONST> -7.454315e+00
<STATE> 3
<MEAN> 7
 3.851648e-01 2.241875e-01 -1.333976e-02 -5.378721e-02 1.115970e-03 3.993216e-03 -1.439229e+00
<VARIANCE> 7
 1.000000e-02 1.000000e-02 1.000000e-02 1.000000e-02 1.000000e-02 1.000000e-02 1.094822e+01
<GCONST> -1.237271e+01
<STATE> 4
<MEAN> 7
 4.364324e-01 1.468769e-01 2.064411e-02 7.602380e-03 1.395711e-03 1.649539e-02 3.794765e+00
<VARIANCE> 7
 1.000000e-02 1.000000e-02 1.000000e-02 1.000000e-02 1.000000e-02 1.000000e-02 5.401488e+02
<GCONST> -8.474037e+00
<STATE> 5
<MEAN> 7
 4.778447e-01 1.732089e-01 6.152818e-03 1.623018e-02 -2.123544e-03 -4.005145e-02 -1.042205e+01
<VARIANCE> 7
 1.000000e-02 1.000000e-02 1.000000e-02 1.000000e-02 1.000000e-02 1.000000e-02 1.073174e+05
<GCONST> -3.182337e+00
<STATE> 6
<MEAN> 7
 4.776830e-01 2.174816e-01 9.398767e-03 -4.118219e-03 1.518630e-02 -5.480575e-02 -1.066354e+03
<VARIANCE> 7
 1.000000e-02 1.000000e-02 1.000000e-02 1.000000e-02 1.000000e-02 1.000000e-02 6.152939e+08
<GCONST> 5.471727e+00
<STATE> 7
<MEAN> 7
 5.298780e-01 2.198181e-01 1.510320e-02 1.950601e-02 -5.956841e-03 8.610000e-03 9.777782e+00
<VARIANCE> 7
 1.000000e-02 1.000000e-02 1.000000e-02 1.000000e-02 1.000000e-02 1.000000e-02 3.813108e+02
<GCONST> -8.822268e+00
<STATE> 8
<MEAN> 7
 5.455597e-01 2.951648e-01 -8.138559e-04 1.965928e-02 5.584193e-02 -3.420277e-02 9.354777e+01
<VARIANCE> 7
 1.000000e-02 1.000000e-02 1.000000e-02 1.000000e-02 1.000000e-02 1.000000e-02 4.526409e+04
<GCONST> -4.045613e+00
<STATE> 9
<MEAN> 7
 5.420938e-01 3.058424e-01 1.540425e-02 1.106781e-02 8.228233e-02 -2.725836e-02 9.857377e+02
<VARIANCE> 7
 1.000000e-02 1.000000e-02 1.000000e-02 1.000000e-02 1.000000e-02 1.000000e-02 1.616147e+07
<GCONST> 1.832258e+00
<STATE> 10
<MEAN> 7
 5.807230e-01 3.119653e-01 4.881858e-02 7.571081e-03 3.450520e-02 -1.406162e-02 -2.613913e+01
<VARIANCE> 7
 1.000000e-02 1.000000e-02 1.000000e-02 1.000000e-02 1.000000e-02 1.000000e-02 3.580465e+04
<GCONST> -4.280049e+00
<STATE> 11
<MEAN> 7
 6.646388e-01 2.918150e-01 2.771526e-02 -1.187423e-02 -1.500697e-02 1.010831e-02 -1.029517e+01
<VARIANCE> 7
 1.000000e-02 1.000000e-02 1.000000e-02 1.000000e-02 1.000000e-02 1.000000e-02 1.608723e+03
<GCONST> -7.382687e+00
<TRANSP> 12
 0.000000e+00 1.000000e+00 0.000000e+00 0.000000e+00 0.000000e+00 0.000000e+00 0.000000e+00 0.000000e+00 0.000000e+00 0.000000e+00 0.000000e+00 0.000000e+00
 0.000000e+00 8.986111e-01 1.013889e-01 0.000000e+00 0.000000e+00 0.000000e+00 0.000000e+00 0.000000e+00 0.000000e+00 0.000000e+00 0.000000e+00 0.000000e+00
 0.000000e+00 0.000000e+00 8.650647e-01 1.349353e-01 0.000000e+00 0.000000e+00 0.000000e+00 0.000000e+00 0.000000e+00 0.000000e+00 0.000000e+00 0.000000e+00
 0.000000e+00 0.000000e+00 0.000000e+00 9.326568e-01 6.734318e-02 0.000000e+00 0.000000e+00 0.000000e+00 0.000000e+00 0.000000e+00 0.000000e+00 0.000000e+00
 0.000000e+00 0.000000e+00 0.000000e+00 0.000000e+00 3.363636e-01 6.636364e-01 0.000000e+00 0.000000e+00 0.000000e+00 0.000000e+00 0.000000e+00 0.000000e+00
 0.000000e+00 0.000000e+00 0.000000e+00 0.000000e+00 0.000000e+00 0.000000e+00 1.000000e+00 0.000000e+00 0.000000e+00 0.000000e+00 0.000000e+00 0.000000e+00
 0.000000e+00 0.000000e+00 0.000000e+00 0.000000e+00 0.000000e+00 0.000000e+00 9.350534e-01 6.494662e-02 0.000000e+00 0.000000e+00 0.000000e+00 0.000000e+00
 0.000000e+00 0.000000e+00 0.000000e+00 0.000000e+00 0.000000e+00 0.000000e+00 0.000000e+00 1.204819e-01 8.795181e-01 0.000000e+00 0.000000e+00 0.000000e+00
 0.000000e+00 0.000000e+00 0.000000e+00 0.000000e+00 0.000000e+00 0.000000e+00 0.000000e+00 0.000000e+00 0.000000e+00 1.000000e+00 0.000000e+00 0.000000e+00
 0.000000e+00 0.000000e+00 0.000000e+00 0.000000e+00 0.000000e+00 0.000000e+00 0.000000e+00 0.000000e+00 0.000000e+00 5.067568e-01 4.932432e-01 0.000000e+00
 0.000000e+00 0.000000e+00 0.000000e+00 0.000000e+00 0.000000e+00 0.000000e+00 0.000000e+00 0.000000e+00 0.000000e+00 0.000000e+00 9.228330e-01 7.716703e-02
 0.000000e+00 0.000000e+00 0.000000e+00 0.000000e+00 0.000000e+00 0.000000e+00 0.000000e+00 0.000000e+00 0.000000e+00 0.000000e+00 0.000000e+00 0.000000e+00
<ENDHMM>
