~o
<STREAMINFO> 1 6
<VECSIZE> 6<NULLD><USER><DIAGC>
~h "proto"
<BEGINHMM>
<NUMSTATES> 12
<STATE> 2
<MEAN> 6
 4.351194e-01 2.635787e-01 -2.487415e-03 2.378576e-02 -2.742792e-02 -7.511956e-03
<VARIANCE> 6
 4.928488e-03 4.997458e-03 5.673047e-04 3.002619e-04 5.849088e-04 1.025926e-03
<GCONST> -2.949597e+01
<STATE> 3
<MEAN> 6
 3.689871e-01 2.614418e-01 -1.937325e-02 -2.253788e-02 8.848547e-03 -3.046292e-02
<VARIANCE> 6
 4.614140e-03 4.365920e-03 4.757806e-04 5.546837e-04 2.744423e-04 1.024454e-03
<GCONST> -3.001732e+01
<STATE> 4
<MEAN> 6
 3.772988e-01 2.055274e-01 2.826746e-02 -6.489526e-02 6.917488e-02 8.861612e-03
<VARIANCE> 6
 4.564645e-03 3.872632e-03 1.815437e-03 5.874412e-04 1.708071e-03 2.143578e-03
<GCONST> -2.618481e+01
<STATE> 5
<MEAN> 6
 4.548407e-01 1.271813e-01 6.378596e-02 -6.736418e-03 -1.515493e-03 4.119972e-02
<VARIANCE> 6
 4.223243e-03 2.166565e-03 1.173284e-03 5.641766e-04 1.092183e-03 1.040535e-03
<GCONST> -2.849019e+01
<STATE> 6
<MEAN> 6
 5.680501e-01 1.887258e-01 2.488388e-02 6.132241e-02 -5.992130e-02 2.351733e-02
<VARIANCE> 6
 5.516169e-03 3.777006e-03 1.488255e-03 6.511181e-04 1.282316e-03 2.434722e-03
<GCONST> -2.627561e+01
<STATE> 7
<MEAN> 6
 5.534295e-01 2.466689e-01 -2.449066e-02 5.735682e-02 -1.558605e-02 -3.842063e-02
<VARIANCE> 6
 5.502037e-03 4.495502e-03 5.919716e-04 1.501104e-04 7.800331e-04 7.248805e-04
<GCONST> -3.020192e+01
<STATE> 8
<MEAN> 6
 5.243603e-01 2.717724e-01 -1.555185e-02 2.775859e-02 2.660277e-02 -2.433975e-02
<VARIANCE> 6
 4.560806e-03 4.027873e-03 4.041342e-04 1.801793e-04 1.291080e-03 3.183033e-04
<GCONST> -3.101761e+01
<STATE> 9
<MEAN> 6
 5.811282e-01 2.946920e-01 6.507079e-02 5.392000e-03 2.582351e-02 -8.464699e-03
<VARIANCE> 6
 5.982992e-03 4.552746e-03 9.748812e-04 7.679983e-05 3.114935e-03 1.770797e-04
<GCONST> -3.030156e+01
<STATE> 10
<MEAN> 6
 7.146553e-01 3.031683e-01 3.647265e-02 -2.711628e-02 -4.972649e-02 -2.749215e-02
<VARIANCE> 6
 6.643751e-03 3.434510e-03 1.660556e-03 4.639184e-04 1.398048e-03 5.942931e-04
<GCONST> -2.773792e+01
<STATE> 11
<MEAN> 6
 6.901677e-01 2.308954e-01 -1.204963e-02 -5.137996e-03 -1.826377e-03 3.951699e-02
<VARIANCE> 6
 5.929122e-03 3.456706e-03 1.004426e-03 1.281516e-03 2.634978e-03 1.333521e-03
<GCONST> -2.588992e+01
<TRANSP> 12
 0.000000e+00 1.000000e+00 0.000000e+00 0.000000e+00 0.000000e+00 0.000000e+00 0.000000e+00 0.000000e+00 0.000000e+00 0.000000e+00 0.000000e+00 0.000000e+00
 0.000000e+00 8.620188e-01 1.379811e-01 0.000000e+00 0.000000e+00 0.000000e+00 0.000000e+00 0.000000e+00 0.000000e+00 0.000000e+00 0.000000e+00 0.000000e+00
 0.000000e+00 0.000000e+00 8.563397e-01 1.436603e-01 0.000000e+00 0.000000e+00 0.000000e+00 0.000000e+00 0.000000e+00 0.000000e+00 0.000000e+00 0.000000e+00
 0.000000e+00 0.000000e+00 0.000000e+00 7.914287e-01 2.085713e-01 0.000000e+00 0.000000e+00 0.000000e+00 0.000000e+00 0.000000e+00 0.000000e+00 0.000000e+00
 0.000000e+00 0.000000e+00 0.000000e+00 0.000000e+00 8.320699e-01 1.679301e-01 0.000000e+00 0.000000e+00 0.000000e+00 0.000000e+00 0.000000e+00 0.000000e+00
 0.000000e+00 0.000000e+00 0.000000e+00 0.000000e+00 0.000000e+00 8.132374e-01 1.867626e-01 0.000000e+00 0.000000e+00 0.000000e+00 0.000000e+00 0.000000e+00
 0.000000e+00 0.000000e+00 0.000000e+00 0.000000e+00 0.000000e+00 0.000000e+00 0.000000e+00 1.000000e+00 0.000000e+00 0.000000e+00 0.000000e+00 0.000000e+00
 0.000000e+00 0.000000e+00 0.000000e+00 0.000000e+00 0.000000e+00 0.000000e+00 0.000000e+00 8.123739e-01 1.876260e-01 0.000000e+00 0.000000e+00 0.000000e+00
 0.000000e+00 0.000000e+00 0.000000e+00 0.000000e+00 0.000000e+00 0.000000e+00 0.000000e+00 0.000000e+00 8.626987e-01 1.373013e-01 0.000000e+00 0.000000e+00
 0.000000e+00 0.000000e+00 0.000000e+00 0.000000e+00 0.000000e+00 0.000000e+00 0.000000e+00 0.000000e+00 0.000000e+00 8.143410e-01 1.856590e-01 0.000000e+00
 0.000000e+00 0.000000e+00 0.000000e+00 0.000000e+00 0.000000e+00 0.000000e+00 0.000000e+00 0.000000e+00 0.000000e+00 0.000000e+00 8.634619e-01 1.365381e-01
 0.000000e+00 0.000000e+00 0.000000e+00 0.000000e+00 0.000000e+00 0.000000e+00 0.000000e+00 0.000000e+00 0.000000e+00 0.000000e+00 0.000000e+00 0.000000e+00
<ENDHMM>
