~o
<STREAMINFO> 1 7
<VECSIZE> 7<NULLD><USER><DIAGC>
~h "proto"
<BEGINHMM>
<NUMSTATES> 12
<STATE> 2
<MEAN> 7
 4.276519e-01 2.559653e-01 -2.176003e-05 2.506293e-02 -2.636353e-02 -5.883549e-03 1.058927e+01
<VARIANCE> 7
 4.696126e-03 4.710185e-03 5.697258e-04 4.316701e-04 9.958298e-04 1.354665e-03 2.016922e+03
<GCONST> -1.897892e+01
<STATE> 3
<MEAN> 7
 3.640423e-01 2.700830e-01 -2.277132e-02 -2.452176e-02 1.311743e-02 -3.860454e-02 1.685939e+01
<VARIANCE> 7
 5.566566e-03 4.471825e-03 6.857485e-04 9.518662e-04 1.091533e-03 1.655906e-03 3.401097e+02
<GCONST> -1.937219e+01
<STATE> 4
<MEAN> 7
 3.790662e-01 1.761457e-01 4.173479e-02 -5.491684e-02 5.207462e-02 2.377555e-02 8.478566e-01
<VARIANCE> 7
 4.938130e-03 3.961507e-03 1.649560e-03 8.564327e-04 2.204566e-03 1.547615e-03 1.003344e+01
<GCONST> -2.172908e+01
<STATE> 5
<MEAN> 7
 4.998913e-01 1.313910e-01 6.182257e-02 2.114716e-02 -3.457748e-02 5.397805e-02 1.339570e+01
<VARIANCE> 7
 5.747629e-03 3.249866e-03 1.106440e-03 1.101963e-03 2.128180e-03 2.252334e-03 1.175928e+02
<GCONST> -1.912129e+01
<STATE> 6
<MEAN> 7
 5.551077e-01 2.223240e-01 -8.996116e-03 6.141696e-02 -3.962698e-02 -1.521835e-02 5.022610e-01
<VARIANCE> 7
 5.383793e-03 4.212260e-03 6.732638e-04 6.325623e-04 1.315124e-03 9.458765e-04 1.755015e+01
<GCONST> -2.323024e+01
<STATE> 7
<MEAN> 7
 5.146420e-01 2.794752e-01 -2.303097e-02 2.724537e-02 3.194278e-02 -2.945796e-02 4.513102e+01
<VARIANCE> 7
 4.497977e-03 4.086202e-03 2.799045e-04 2.274990e-04 8.257888e-04 7.590802e-04 5.347672e+03
<GCONST> -2.030671e+01
<STATE> 8
<MEAN> 7
 5.122767e-01 2.924260e-01 6.301755e-03 1.615691e-02 8.853900e-02 -2.659008e-02 5.172303e+03
<VARIANCE> 7
 4.978187e-03 4.247329e-03 1.634034e-04 1.285222e-04 3.428006e-03 7.118909e-04 1.993518e+08
<GCONST> -9.390493e+00
<STATE> 9
<MEAN> 7
 5.529771e-01 2.745248e-01 4.557826e-02 3.720678e-03 3.908988e-02 -1.484720e-02 -3.251395e+01
<VARIANCE> 7
 5.788933e-03 3.313890e-03 1.108273e-03 1.266261e-04 5.863074e-03 3.365264e-04 4.130220e+04
<GCONST> -1.628277e+01
<STATE> 10
<MEAN> 7
 6.070768e-01 3.035217e-01 7.782924e-02 1.920983e-03 8.562165e-03 -9.651945e-03 -1.503686e+00
<VARIANCE> 7
 7.385837e-03 4.068490e-03 1.104498e-03 1.512100e-04 2.802017e-03 2.904106e-04 9.806422e+00
<GCONST> -2.489133e+01
<STATE> 11
<MEAN> 7
 6.960862e-01 2.524717e-01 2.965363e-03 -1.588154e-02 -2.343204e-02 1.552245e-02 -1.792839e+01
<VARIANCE> 7
 5.801005e-03 4.252104e-03 1.419943e-03 1.236760e-03 3.247827e-03 2.606535e-03 3.070961e+03
<GCONST> -1.464708e+01
<TRANSP> 12
 0.000000e+00 1.000000e+00 0.000000e+00 0.000000e+00 0.000000e+00 0.000000e+00 0.000000e+00 0.000000e+00 0.000000e+00 0.000000e+00 0.000000e+00 0.000000e+00
 0.000000e+00 8.553993e-01 1.446007e-01 0.000000e+00 0.000000e+00 0.000000e+00 0.000000e+00 0.000000e+00 0.000000e+00 0.000000e+00 0.000000e+00 0.000000e+00
 0.000000e+00 0.000000e+00 8.526502e-01 1.473498e-01 0.000000e+00 0.000000e+00 0.000000e+00 0.000000e+00 0.000000e+00 0.000000e+00 0.000000e+00 0.000000e+00
 0.000000e+00 0.000000e+00 0.000000e+00 8.437273e-01 1.562728e-01 0.000000e+00 0.000000e+00 0.000000e+00 0.000000e+00 0.000000e+00 0.000000e+00 0.000000e+00
 0.000000e+00 0.000000e+00 0.000000e+00 0.000000e+00 8.404161e-01 1.595840e-01 0.000000e+00 0.000000e+00 0.000000e+00 0.000000e+00 0.000000e+00 0.000000e+00
 0.000000e+00 0.000000e+00 0.000000e+00 0.000000e+00 0.000000e+00 8.089605e-01 1.910395e-01 0.000000e+00 0.000000e+00 0.000000e+00 0.000000e+00 0.000000e+00
 0.000000e+00 0.000000e+00 0.000000e+00 0.000000e+00 0.000000e+00 0.000000e+00 6.726509e-01 3.273491e-01 0.000000e+00 0.000000e+00 0.000000e+00 0.000000e+00
 0.000000e+00 0.000000e+00 0.000000e+00 0.000000e+00 0.000000e+00 0.000000e+00 0.000000e+00 0.000000e+00 1.000000e+00 0.000000e+00 0.000000e+00 0.000000e+00
 0.000000e+00 0.000000e+00 0.000000e+00 0.000000e+00 0.000000e+00 0.000000e+00 0.000000e+00 0.000000e+00 5.361937e-01 4.638063e-01 0.000000e+00 0.000000e+00
 0.000000e+00 0.000000e+00 0.000000e+00 0.000000e+00 0.000000e+00 0.000000e+00 0.000000e+00 0.000000e+00 0.000000e+00 8.332737e-01 1.667263e-01 0.000000e+00
 0.000000e+00 0.000000e+00 0.000000e+00 0.000000e+00 0.000000e+00 0.000000e+00 0.000000e+00 0.000000e+00 0.000000e+00 0.000000e+00 9.105198e-01 8.948019e-02
 0.000000e+00 0.000000e+00 0.000000e+00 0.000000e+00 0.000000e+00 0.000000e+00 0.000000e+00 0.000000e+00 0.000000e+00 0.000000e+00 0.000000e+00 0.000000e+00
<ENDHMM>
