~o
<STREAMINFO> 1 7
<VECSIZE> 7<NULLD><USER><DIAGC>
~h "proto"
<BEGINHMM>
<NUMSTATES> 12
<STATE> 2
<MEAN> 7
 4.221355e-01 2.291427e-01 1.169632e-02 2.070320e-02 -1.755479e-02 6.979005e-03 1.085563e+01
<VARIANCE> 7
 3.086867e-03 6.352504e-03 3.980130e-04 3.892274e-04 6.094737e-04 6.381326e-04 8.883409e+02
<GCONST> -2.162526e+01
<STATE> 3
<MEAN> 7
 3.920701e-01 2.949630e-01 -3.119731e-02 -8.825319e-03 -2.629613e-04 -3.111777e-02 1.526617e+01
<VARIANCE> 7
 3.832561e-03 7.740528e-03 2.165126e-04 7.476842e-04 1.461132e-03 5.743990e-04 2.671895e+02
<GCONST> -2.159953e+01
<STATE> 4
<MEAN> 7
 3.329437e-01 1.880587e-01 1.195373e-03 -4.286553e-02 2.271112e-02 -4.599585e-03 2.172346e+00
<VARIANCE> 7
 3.317980e-03 6.456615e-03 5.868600e-04 4.535138e-04 1.092571e-03 6.961075e-04 2.142915e+01
<GCONST> -2.404959e+01
<STATE> 5
<MEAN> 7
 3.857160e-01 1.380868e-01 6.629752e-02 -5.890514e-02 5.300787e-02 2.921924e-02 1.074412e+00
<VARIANCE> 7
 3.818895e-03 6.603229e-03 1.944967e-03 9.594959e-04 1.282376e-03 2.258460e-03 2.971915e+00
<GCONST> -2.257737e+01
<STATE> 6
<MEAN> 7
 4.869571e-01 6.914005e-02 6.028847e-02 3.764615e-03 -5.337748e-03 2.755659e-02 6.418783e+00
<VARIANCE> 7
 5.096111e-03 7.829132e-03 1.211543e-03 4.693109e-04 8.538732e-04 8.488457e-04 3.791850e+01
<GCONST> -2.214607e+01
<STATE> 7
<MEAN> 7
 6.219233e-01 1.442397e-01 4.939034e-02 6.313688e-02 -6.579263e-02 2.605449e-02 4.949183e+00
<VARIANCE> 7
 4.582694e-03 6.491316e-03 2.271974e-03 1.153103e-03 4.759156e-03 3.309166e-03 5.056435e+01
<GCONST> -1.754552e+01
<STATE> 8
<MEAN> 7
 6.176987e-01 2.026828e-01 -1.234453e-02 4.462664e-02 -3.116798e-02 -2.046211e-02 -8.244813e-01
<VARIANCE> 7
 4.580253e-03 7.925051e-03 7.262431e-04 4.039365e-04 3.697511e-04 7.761258e-04 3.328162e+01
<GCONST> -2.395934e+01
<STATE> 9
<MEAN> 7
 5.553591e-01 2.712865e-01 -3.716487e-02 -1.604130e-02 1.896889e-02 -3.651109e-02 2.157607e+01
<VARIANCE> 7
 3.738615e-03 6.337652e-03 4.525836e-04 8.130650e-04 7.935374e-04 1.082187e-03 4.486384e+02
<GCONST> -2.046195e+01
<STATE> 10
<MEAN> 7
 5.080833e-01 1.835273e-01 -9.392438e-03 -2.492838e-02 -1.459093e-03 7.988032e-03 7.444225e+00
<VARIANCE> 7
 4.392579e-03 6.136713e-03 5.513079e-04 2.485512e-04 9.789640e-04 2.426325e-04 4.213133e+02
<GCONST> -2.266885e+01
<STATE> 11
<MEAN> 7
 4.993218e-01 1.346188e-01 -4.516238e-02 -7.222692e-03 -3.376349e-02 9.574328e-03 1.164623e+02
<VARIANCE> 7
 7.069632e-03 7.198354e-03 1.241936e-03 1.015708e-04 2.057095e-03 2.293777e-04 5.289222e+05
<GCONST> -1.429455e+01
<TRANSP> 12
 0.000000e+00 1.000000e+00 0.000000e+00 0.000000e+00 0.000000e+00 0.000000e+00 0.000000e+00 0.000000e+00 0.000000e+00 0.000000e+00 0.000000e+00 0.000000e+00
 0.000000e+00 8.781957e-01 1.218043e-01 0.000000e+00 0.000000e+00 0.000000e+00 0.000000e+00 0.000000e+00 0.000000e+00 0.000000e+00 0.000000e+00 0.000000e+00
 0.000000e+00 0.000000e+00 8.754886e-01 1.245114e-01 0.000000e+00 0.000000e+00 0.000000e+00 0.000000e+00 0.000000e+00 0.000000e+00 0.000000e+00 0.000000e+00
 0.000000e+00 0.000000e+00 0.000000e+00 8.736672e-01 1.263328e-01 0.000000e+00 0.000000e+00 0.000000e+00 0.000000e+00 0.000000e+00 0.000000e+00 0.000000e+00
 0.000000e+00 0.000000e+00 0.000000e+00 0.000000e+00 7.532690e-01 2.467311e-01 0.000000e+00 0.000000e+00 0.000000e+00 0.000000e+00 0.000000e+00 0.000000e+00
 0.000000e+00 0.000000e+00 0.000000e+00 0.000000e+00 0.000000e+00 8.725252e-01 1.274749e-01 0.000000e+00 0.000000e+00 0.000000e+00 0.000000e+00 0.000000e+00
 0.000000e+00 0.000000e+00 0.000000e+00 0.000000e+00 0.000000e+00 0.000000e+00 7.296663e-01 2.703337e-01 0.000000e+00 0.000000e+00 0.000000e+00 0.000000e+00
 0.000000e+00 0.000000e+00 0.000000e+00 0.000000e+00 0.000000e+00 0.000000e+00 0.000000e+00 8.506193e-01 1.493807e-01 0.000000e+00 0.000000e+00 0.000000e+00
 0.000000e+00 0.000000e+00 0.000000e+00 0.000000e+00 0.000000e+00 0.000000e+00 0.000000e+00 0.000000e+00 8.322226e-01 1.677774e-01 0.000000e+00 0.000000e+00
 0.000000e+00 0.000000e+00 0.000000e+00 0.000000e+00 0.000000e+00 0.000000e+00 0.000000e+00 0.000000e+00 0.000000e+00 8.932944e-01 1.067056e-01 0.000000e+00
 0.000000e+00 0.000000e+00 0.000000e+00 0.000000e+00 0.000000e+00 0.000000e+00 0.000000e+00 0.000000e+00 0.000000e+00 0.000000e+00 7.569858e-01 2.430142e-01
 0.000000e+00 0.000000e+00 0.000000e+00 0.000000e+00 0.000000e+00 0.000000e+00 0.000000e+00 0.000000e+00 0.000000e+00 0.000000e+00 0.000000e+00 0.000000e+00
<ENDHMM>
