~o
<STREAMINFO> 1 6
<VECSIZE> 6<NULLD><USER><DIAGC>
~h "proto"
<BEGINHMM>
<NUMSTATES> 12
<STATE> 2
<MEAN> 6
 4.169305e-01 2.336610e-01 1.671154e-02 1.891201e-02 -1.429868e-02 1.118143e-02
<VARIANCE> 6
 3.393525e-03 9.039039e-03 3.364342e-04 4.495740e-04 5.819274e-04 5.496109e-04
<GCONST> -3.002461e+01
<STATE> 3
<MEAN> 6
 3.960540e-01 3.096410e-01 -2.655933e-02 -4.335674e-03 -5.305405e-03 -2.207784e-02
<VARIANCE> 6
 4.170092e-03 1.011586e-02 1.219895e-04 6.963548e-04 1.201928e-03 1.852799e-04
<GCONST> -3.064491e+01
<STATE> 4
<MEAN> 6
 3.188878e-01 2.988441e-01 -1.144263e-02 -4.871322e-02 2.787441e-02 -2.048955e-02
<VARIANCE> 6
 5.357829e-03 6.235455e-03 1.352531e-03 1.197264e-03 2.170583e-03 1.803786e-03
<GCONST> -2.506356e+01
<STATE> 5
<MEAN> 6
 3.375886e-01 1.373186e-01 2.501968e-02 -4.284963e-02 2.760550e-02 7.827262e-03
<VARIANCE> 6
 2.687880e-03 5.792969e-03 1.383627e-03 4.106651e-04 6.313410e-04 1.012507e-03
<GCONST> -2.868662e+01
<STATE> 6
<MEAN> 6
 4.581414e-01 8.005700e-02 7.111362e-02 -1.139184e-02 5.912197e-03 3.256698e-02
<VARIANCE> 6
 2.759980e-03 1.016746e-02 1.501833e-03 6.014886e-04 1.367283e-03 1.151042e-03
<GCONST> -2.673302e+01
<STATE> 7
<MEAN> 6
 5.876941e-01 1.062808e-01 4.920710e-02 4.033501e-02 -3.183058e-02 2.398264e-02
<VARIANCE> 6
 4.067213e-03 6.955262e-03 9.639105e-04 5.279453e-04 1.740438e-03 6.678281e-04
<GCONST> -2.760192e+01
<STATE> 8
<MEAN> 6
 6.445082e-01 2.328107e-01 -1.532558e-02 5.616481e-02 -4.446271e-02 -2.918632e-02
<VARIANCE> 6
 4.947938e-03 6.174620e-03 1.221222e-03 9.018300e-04 1.966073e-03 2.340272e-03
<GCONST> -2.537702e+01
<STATE> 9
<MEAN> 6
 5.626241e-01 2.807357e-01 -3.271347e-02 -2.781959e-03 8.120880e-03 -2.866623e-02
<VARIANCE> 6
 3.313425e-03 1.143619e-02 4.562069e-04 7.312294e-04 6.750109e-04 4.033733e-04
<GCONST> -2.918326e+01
<STATE> 10
<MEAN> 6
 5.189636e-01 2.049689e-01 -4.723138e-04 -3.415569e-02 2.791276e-03 1.118249e-02
<VARIANCE> 6
 3.186696e-03 8.343682e-03 3.749908e-04 1.956367e-04 1.557821e-03 3.321287e-04
<GCONST> -3.041007e+01
<STATE> 11
<MEAN> 6
 4.843040e-01 1.658338e-01 -4.461371e-02 -5.766666e-03 -2.246548e-02 6.344535e-03
<VARIANCE> 6
 7.736818e-03 1.090130e-02 8.857676e-04 7.571968e-05 1.439036e-03 1.672038e-04
<GCONST> -3.011098e+01
<TRANSP> 12
 0.000000e+00 1.000000e+00 0.000000e+00 0.000000e+00 0.000000e+00 0.000000e+00 0.000000e+00 0.000000e+00 0.000000e+00 0.000000e+00 0.000000e+00 0.000000e+00
 0.000000e+00 8.780414e-01 1.219586e-01 0.000000e+00 0.000000e+00 0.000000e+00 0.000000e+00 0.000000e+00 0.000000e+00 0.000000e+00 0.000000e+00 0.000000e+00
 0.000000e+00 0.000000e+00 8.876955e-01 1.123045e-01 0.000000e+00 0.000000e+00 0.000000e+00 0.000000e+00 0.000000e+00 0.000000e+00 0.000000e+00 0.000000e+00
 0.000000e+00 0.000000e+00 0.000000e+00 7.893036e-01 2.106964e-01 0.000000e+00 0.000000e+00 0.000000e+00 0.000000e+00 0.000000e+00 0.000000e+00 0.000000e+00
 0.000000e+00 0.000000e+00 0.000000e+00 0.000000e+00 8.766877e-01 1.233123e-01 0.000000e+00 0.000000e+00 0.000000e+00 0.000000e+00 0.000000e+00 0.000000e+00
 0.000000e+00 0.000000e+00 0.000000e+00 0.000000e+00 0.000000e+00 8.427917e-01 1.572084e-01 0.000000e+00 0.000000e+00 0.000000e+00 0.000000e+00 0.000000e+00
 0.000000e+00 0.000000e+00 0.000000e+00 0.000000e+00 0.000000e+00 0.000000e+00 8.531383e-01 1.468617e-01 0.000000e+00 0.000000e+00 0.000000e+00 0.000000e+00
 0.000000e+00 0.000000e+00 0.000000e+00 0.000000e+00 0.000000e+00 0.000000e+00 0.000000e+00 8.075370e-01 1.924630e-01 0.000000e+00 0.000000e+00 0.000000e+00
 0.000000e+00 0.000000e+00 0.000000e+00 0.000000e+00 0.000000e+00 0.000000e+00 0.000000e+00 0.000000e+00 8.719559e-01 1.280442e-01 0.000000e+00 0.000000e+00
 0.000000e+00 0.000000e+00 0.000000e+00 0.000000e+00 0.000000e+00 0.000000e+00 0.000000e+00 0.000000e+00 0.000000e+00 8.671607e-01 1.328393e-01 0.000000e+00
 0.000000e+00 0.000000e+00 0.000000e+00 0.000000e+00 0.000000e+00 0.000000e+00 0.000000e+00 0.000000e+00 0.000000e+00 0.000000e+00 8.490838e-01 1.509162e-01
 0.000000e+00 0.000000e+00 0.000000e+00 0.000000e+00 0.000000e+00 0.000000e+00 0.000000e+00 0.000000e+00 0.000000e+00 0.000000e+00 0.000000e+00 0.000000e+00
<ENDHMM>
