~o
<STREAMINFO> 1 6
<VECSIZE> 6<NULLD><USER><DIAGC>
~h "proto"
<BEGINHMM>
<NUMSTATES> 12
<STATE> 2
<MEAN> 6
 3.912992e-01 3.176442e-01 1.473288e-02 1.371695e-02 8.385051e-03 -8.672247e-03
<VARIANCE> 6
 2.384748e-03 7.005709e-03 2.901511e-04 5.840042e-04 3.135529e-04 6.333031e-04
<GCONST> -3.099524e+01
<STATE> 3
<MEAN> 6
 4.479816e-01 3.052374e-01 3.101699e-02 5.404011e-05 1.562538e-03 -3.528044e-02
<VARIANCE> 6
 1.303698e-03 7.645961e-03 4.044808e-04 7.325871e-04 6.864083e-04 1.010264e-03
<GCONST> -2.970228e+01
<STATE> 4
<MEAN> 6
 4.860225e-01 2.849440e-01 1.517336e-02 -6.459687e-03 -2.259032e-03 5.988004e-03
<VARIANCE> 6
 1.007052e-03 5.754584e-03 1.785132e-04 8.668940e-04 2.399716e-04 1.079230e-03
<GCONST> -3.187916e+01
<STATE> 5
<MEAN> 6
 5.612653e-01 3.039982e-01 3.262560e-02 5.507256e-03 4.605178e-03 -2.094988e-02
<VARIANCE> 6
 2.656279e-03 4.598300e-03 5.426615e-04 1.076710e-03 6.607235e-04 2.104656e-03
<GCONST> -2.812428e+01
<STATE> 6
<MEAN> 6
 6.246371e-01 2.669667e-01 1.664879e-02 -5.647473e-02 -2.681279e-02 -1.864713e-02
<VARIANCE> 6
 3.974507e-03 3.800981e-03 4.132720e-04 6.463443e-04 5.656772e-04 7.721729e-04
<GCONST> -2.985246e+01
<STATE> 7
<MEAN> 6
 6.270109e-01 1.278013e-01 -2.412652e-02 -3.232129e-02 -1.558732e-02 1.849701e-02
<VARIANCE> 6
 4.017853e-03 4.819178e-03 6.675275e-04 1.198002e-03 9.332650e-04 1.183452e-03
<GCONST> -2.758007e+01
<STATE> 8
<MEAN> 6
 5.192749e-01 1.109618e-01 -2.167438e-02 -8.073740e-04 7.855697e-04 8.046651e-03
<VARIANCE> 6
 2.373347e-03 4.073617e-03 3.967749e-04 4.367554e-04 2.363682e-04 6.095945e-04
<GCONST> -3.184053e+01
<STATE> 9
<MEAN> 6
 4.627126e-01 1.337747e-01 -3.858692e-02 1.359411e-02 2.829642e-02 2.638621e-02
<VARIANCE> 6
 2.464894e-03 6.901384e-03 6.871090e-04 6.007985e-04 5.743735e-04 1.633142e-03
<GCONST> -2.853413e+01
<STATE> 10
<MEAN> 6
 4.000165e-01 2.053277e-01 -1.147900e-02 4.793177e-03 1.627800e-02 -4.083808e-03
<VARIANCE> 6
 4.654621e-03 1.088403e-02 7.639186e-04 1.248018e-03 1.364596e-03 1.230576e-03
<GCONST> -2.602351e+01
<STATE> 11
<MEAN> 6
 4.675261e-01 1.245826e-01 3.468739e-02 8.587755e-04 6.669126e-03 -6.337758e-03
<VARIANCE> 6
 3.541334e-03 5.117569e-03 5.261742e-04 7.707011e-04 1.183871e-03 1.664915e-03
<GCONST> -2.774610e+01
<TRANSP> 12
 0.000000e+00 1.000000e+00 0.000000e+00 0.000000e+00 0.000000e+00 0.000000e+00 0.000000e+00 0.000000e+00 0.000000e+00 0.000000e+00 0.000000e+00 0.000000e+00
 0.000000e+00 9.114419e-01 8.855815e-02 0.000000e+00 0.000000e+00 0.000000e+00 0.000000e+00 0.000000e+00 0.000000e+00 0.000000e+00 0.000000e+00 0.000000e+00
 0.000000e+00 0.000000e+00 0.000000e+00 1.000000e+00 0.000000e+00 0.000000e+00 0.000000e+00 0.000000e+00 0.000000e+00 0.000000e+00 0.000000e+00 0.000000e+00
 0.000000e+00 0.000000e+00 0.000000e+00 9.119596e-01 8.804037e-02 0.000000e+00 0.000000e+00 0.000000e+00 0.000000e+00 0.000000e+00 0.000000e+00 0.000000e+00
 0.000000e+00 0.000000e+00 0.000000e+00 0.000000e+00 8.835912e-01 1.164088e-01 0.000000e+00 0.000000e+00 0.000000e+00 0.000000e+00 0.000000e+00 0.000000e+00
 0.000000e+00 0.000000e+00 0.000000e+00 0.000000e+00 0.000000e+00 8.138502e-01 1.861498e-01 0.000000e+00 0.000000e+00 0.000000e+00 0.000000e+00 0.000000e+00
 0.000000e+00 0.000000e+00 0.000000e+00 0.000000e+00 0.000000e+00 0.000000e+00 8.816317e-01 1.183684e-01 0.000000e+00 0.000000e+00 0.000000e+00 0.000000e+00
 0.000000e+00 0.000000e+00 0.000000e+00 0.000000e+00 0.000000e+00 0.000000e+00 0.000000e+00 9.212738e-01 7.872625e-02 0.000000e+00 0.000000e+00 0.000000e+00
 0.000000e+00 0.000000e+00 0.000000e+00 0.000000e+00 0.000000e+00 0.000000e+00 0.000000e+00 0.000000e+00 0.000000e+00 1.000000e+00 0.000000e+00 0.000000e+00
 0.000000e+00 0.000000e+00 0.000000e+00 0.000000e+00 0.000000e+00 0.000000e+00 0.000000e+00 0.000000e+00 0.000000e+00 9.111982e-01 8.880178e-02 0.000000e+00
 0.000000e+00 0.000000e+00 0.000000e+00 0.000000e+00 0.000000e+00 0.000000e+00 0.000000e+00 0.000000e+00 0.000000e+00 0.000000e+00 8.558202e-01 1.441799e-01
 0.000000e+00 0.000000e+00 0.000000e+00 0.000000e+00 0.000000e+00 0.000000e+00 0.000000e+00 0.000000e+00 0.000000e+00 0.000000e+00 0.000000e+00 0.000000e+00
<ENDHMM>
