~o
<STREAMINFO> 1 7
<VECSIZE> 7<NULLD><USER><DIAGC>
~h "proto"
<BEGINHMM>
<NUMSTATES> 12
<STATE> 2
<MEAN> 7
 3.991275e-01 3.177244e-01 1.751401e-02 1.734665e-02 9.369486e-03 -1.224023e-02 -8.093914e+00
<VARIANCE> 7
 3.784164e-03 7.075404e-03 2.665092e-04 4.265352e-04 2.595279e-04 6.544262e-04 3.830100e+02
<GCONST> -2.329318e+01
<STATE> 3
<MEAN> 7
 4.853475e-01 2.982846e-01 1.702350e-02 -2.782631e-02 -1.061720e-02 -5.569650e-03 -7.174471e+00
<VARIANCE> 7
 3.008934e-03 7.199368e-03 2.744666e-04 2.434694e-04 1.721002e-04 8.676930e-04 7.321825e+02
<GCONST> -2.351707e+01
<STATE> 4
<MEAN> 7
 4.916792e-01 2.481857e-01 7.319440e-03 -1.324759e-02 -4.916536e-03 4.885557e-02 8.088254e+01
<VARIANCE> 7
 3.910473e-03 4.857378e-03 3.151069e-04 1.469287e-04 2.748196e-04 2.232923e-03 1.852752e+04
<GCONST> -1.937120e+01
<STATE> 5
<MEAN> 7
 4.958778e-01 2.432302e-01 5.647346e-03 7.668079e-03 7.251094e-04 4.963428e-02 3.541186e+01
<VARIANCE> 7
 3.823766e-03 4.925247e-03 1.337252e-04 3.511259e-04 8.926542e-04 2.938665e-03 3.455048e+08
<GCONST> -8.079445e+00
<STATE> 6
<MEAN> 7
 5.579778e-01 3.039056e-01 2.506613e-02 -2.284838e-03 -1.010948e-03 -1.803355e-02 -8.188588e+00
<VARIANCE> 7
 5.608435e-03 6.243472e-03 3.556443e-04 1.686878e-03 6.622614e-04 1.141197e-03 2.295953e+02
<GCONST> -2.038023e+01
<STATE> 7
<MEAN> 7
 6.057578e-01 2.307986e-01 -2.593552e-03 -6.887189e-02 -3.503428e-02 5.355925e-03 1.359824e-01
<VARIANCE> 7
 7.581418e-03 3.419195e-03 3.682750e-04 1.343735e-03 9.452208e-04 1.019077e-03 2.406800e+00
<GCONST> -2.518890e+01
<STATE> 8
<MEAN> 7
 5.791343e-01 1.395077e-01 -2.588417e-02 -2.836237e-02 -8.601794e-03 1.839403e-02 -5.183152e+00
<VARIANCE> 7
 7.802987e-03 4.504820e-03 3.762186e-04 8.015229e-04 4.093476e-04 6.127451e-04 7.633752e+01
<GCONST> -2.326840e+01
<STATE> 9
<MEAN> 7
 5.196173e-01 1.127005e-01 -1.749019e-02 9.992383e-03 1.388951e-02 8.056686e-03 1.274796e+02
<VARIANCE> 7
 6.272325e-03 4.619225e-03 5.947485e-04 3.855456e-04 5.575337e-04 2.345265e-03 4.937072e+06
<GCONST> -1.100728e+01
<STATE> 10
<MEAN> 7
 4.474484e-01 1.662985e-01 -1.404088e-02 5.997293e-03 1.804947e-03 -3.462422e-03 -1.122774e-01
<VARIANCE> 7
 8.336981e-03 1.044361e-02 4.187964e-04 5.702283e-04 3.061533e-04 4.982297e-04 5.846143e+02
<GCONST> -2.105620e+01
<STATE> 11
<MEAN> 7
 4.512029e-01 1.425446e-01 1.325711e-02 -1.196536e-03 1.355354e-02 1.646075e-03 -1.137028e-01
<VARIANCE> 7
 5.660837e-03 4.690809e-03 1.395491e-03 1.117490e-03 1.541026e-03 1.410685e-03 2.752615e+02
<GCONST> -1.846364e+01
<TRANSP> 12
 0.000000e+00 1.000000e+00 0.000000e+00 0.000000e+00 0.000000e+00 0.000000e+00 0.000000e+00 0.000000e+00 0.000000e+00 0.000000e+00 0.000000e+00 0.000000e+00
 0.000000e+00 9.095308e-01 9.046923e-02 0.000000e+00 0.000000e+00 0.000000e+00 0.000000e+00 0.000000e+00 0.000000e+00 0.000000e+00 0.000000e+00 0.000000e+00
 0.000000e+00 0.000000e+00 8.856886e-01 1.143114e-01 0.000000e+00 0.000000e+00 0.000000e+00 0.000000e+00 0.000000e+00 0.000000e+00 0.000000e+00 0.000000e+00
 0.000000e+00 0.000000e+00 0.000000e+00 0.000000e+00 1.000000e+00 0.000000e+00 0.000000e+00 0.000000e+00 0.000000e+00 0.000000e+00 0.000000e+00 0.000000e+00
 0.000000e+00 0.000000e+00 0.000000e+00 0.000000e+00 2.259961e-01 7.740039e-01 0.000000e+00 0.000000e+00 0.000000e+00 0.000000e+00 0.000000e+00 0.000000e+00
 0.000000e+00 0.000000e+00 0.000000e+00 0.000000e+00 0.000000e+00 9.365136e-01 6.348641e-02 0.000000e+00 0.000000e+00 0.000000e+00 0.000000e+00 0.000000e+00
 0.000000e+00 0.000000e+00 0.000000e+00 0.000000e+00 0.000000e+00 0.000000e+00 0.000000e+00 1.000000e+00 0.000000e+00 0.000000e+00 0.000000e+00 0.000000e+00
 0.000000e+00 0.000000e+00 0.000000e+00 0.000000e+00 0.000000e+00 0.000000e+00 0.000000e+00 9.176115e-01 8.238851e-02 0.000000e+00 0.000000e+00 0.000000e+00
 0.000000e+00 0.000000e+00 0.000000e+00 0.000000e+00 0.000000e+00 0.000000e+00 0.000000e+00 0.000000e+00 6.463373e-01 3.536627e-01 0.000000e+00 0.000000e+00
 0.000000e+00 0.000000e+00 0.000000e+00 0.000000e+00 0.000000e+00 0.000000e+00 0.000000e+00 0.000000e+00 0.000000e+00 9.303793e-01 6.962078e-02 0.000000e+00
 0.000000e+00 0.000000e+00 0.000000e+00 0.000000e+00 0.000000e+00 0.000000e+00 0.000000e+00 0.000000e+00 0.000000e+00 0.000000e+00 9.175806e-01 8.241942e-02
 0.000000e+00 0.000000e+00 0.000000e+00 0.000000e+00 0.000000e+00 0.000000e+00 0.000000e+00 0.000000e+00 0.000000e+00 0.000000e+00 0.000000e+00 0.000000e+00
<ENDHMM>
