~o
<STREAMINFO> 1 7
<VECSIZE> 7<NULLD><USER><DIAGC>
~h "proto"
<BEGINHMM>
<NUMSTATES> 12
<STATE> 2
<MEAN> 7
 3.989296e-01 3.176917e-01 1.746548e-02 1.742899e-02 9.410507e-03 -1.214924e-02 -8.049364e+00
<VARIANCE> 7
 3.784421e-03 7.093288e-03 2.646910e-04 4.254773e-04 2.594611e-04 6.491250e-04 3.809006e+02
<GCONST> -2.331383e+01
<STATE> 3
<MEAN> 7
 4.850596e-01 2.979663e-01 1.692635e-02 -2.775753e-02 -1.048657e-02 -5.799150e-03 -7.249081e+00
<VARIANCE> 7
 3.006581e-03 7.204285e-03 2.837130e-04 2.448238e-04 1.760199e-04 8.708199e-04 7.322426e+02
<GCONST> -2.345229e+01
<STATE> 4
<MEAN> 7
 4.913200e-01 2.479540e-01 7.498597e-03 -1.346052e-02 -4.961067e-03 4.911441e-02 7.955437e+01
<VARIANCE> 7
 3.934594e-03 4.888426e-03 3.044787e-04 1.465243e-04 2.793764e-04 2.193898e-03 1.811357e+04
<GCONST> -1.941953e+01
<STATE> 5
<MEAN> 7
 4.954056e-01 2.433918e-01 5.799939e-03 6.907286e-03 5.739877e-04 4.995709e-02 3.771661e+01
<VARIANCE> 7
 3.879343e-03 4.913346e-03 1.331748e-04 3.494127e-04 9.230276e-04 3.017937e-03 3.599566e+08
<GCONST> -7.975393e+00
<STATE> 6
<MEAN> 7
 5.498988e-01 3.081605e-01 2.620606e-02 5.042233e-03 2.474824e-03 -1.839347e-02 -8.919065e+00
<VARIANCE> 7
 5.178943e-03 6.526326e-03 3.560566e-04 1.293768e-03 5.310919e-04 1.242911e-03 2.568743e+02
<GCONST> -2.070283e+01
<STATE> 7
<MEAN> 7
 6.013114e-01 2.614747e-01 1.301534e-02 -6.662247e-02 -3.206845e-02 -1.414683e-02 -1.450004e+00
<VARIANCE> 7
 7.304056e-03 3.944385e-03 5.231450e-04 1.301831e-03 7.917384e-04 1.171521e-03 3.481872e+00
<GCONST> -2.443245e+01
<STATE> 8
<MEAN> 7
 5.935789e-01 1.578152e-01 -2.159975e-02 -3.746472e-02 -1.420993e-02 1.609771e-02 -3.535303e+00
<VARIANCE> 7
 7.137817e-03 5.376099e-03 4.659657e-04 8.215819e-04 4.937245e-04 6.384808e-04 4.687354e+01
<GCONST> -2.320118e+01
<STATE> 9
<MEAN> 7
 5.158810e-01 1.145363e-01 -1.817626e-02 9.899199e-03 1.527241e-02 1.013343e-02 1.149958e+02
<VARIANCE> 7
 7.030283e-03 4.161977e-03 6.404195e-04 4.037544e-04 4.917407e-04 2.180185e-03 4.414300e+06
<GCONST> -1.118779e+01
<STATE> 10
<MEAN> 7
 4.550564e-01 1.604596e-01 -1.551338e-02 5.958173e-03 1.651154e-03 -1.764770e-03 -1.753576e+00
<VARIANCE> 7
 8.453104e-03 1.034975e-02 4.200687e-04 5.326271e-04 2.961634e-04 5.204254e-04 6.494333e+02
<GCONST> -2.100102e+01
<STATE> 11
<MEAN> 7
 4.489971e-01 1.436581e-01 1.339200e-02 -1.281692e-03 1.395344e-02 1.092033e-03 6.209045e-02
<VARIANCE> 7
 5.665402e-03 4.730629e-03 1.358497e-03 1.126495e-03 1.524787e-03 1.389463e-03 2.723321e+02
<GCONST> -1.850967e+01
<TRANSP> 12
 0.000000e+00 1.000000e+00 0.000000e+00 0.000000e+00 0.000000e+00 0.000000e+00 0.000000e+00 0.000000e+00 0.000000e+00 0.000000e+00 0.000000e+00 0.000000e+00
 0.000000e+00 9.091553e-01 9.084471e-02 0.000000e+00 0.000000e+00 0.000000e+00 0.000000e+00 0.000000e+00 0.000000e+00 0.000000e+00 0.000000e+00 0.000000e+00
 0.000000e+00 0.000000e+00 8.863920e-01 1.136080e-01 0.000000e+00 0.000000e+00 0.000000e+00 0.000000e+00 0.000000e+00 0.000000e+00 0.000000e+00 0.000000e+00
 0.000000e+00 0.000000e+00 0.000000e+00 0.000000e+00 1.000000e+00 0.000000e+00 0.000000e+00 0.000000e+00 0.000000e+00 0.000000e+00 0.000000e+00 0.000000e+00
 0.000000e+00 0.000000e+00 0.000000e+00 0.000000e+00 1.936233e-01 8.063767e-01 0.000000e+00 0.000000e+00 0.000000e+00 0.000000e+00 0.000000e+00 0.000000e+00
 0.000000e+00 0.000000e+00 0.000000e+00 0.000000e+00 0.000000e+00 9.295686e-01 7.043136e-02 0.000000e+00 0.000000e+00 0.000000e+00 0.000000e+00 0.000000e+00
 0.000000e+00 0.000000e+00 0.000000e+00 0.000000e+00 0.000000e+00 0.000000e+00 0.000000e+00 1.000000e+00 0.000000e+00 0.000000e+00 0.000000e+00 0.000000e+00
 0.000000e+00 0.000000e+00 0.000000e+00 0.000000e+00 0.000000e+00 0.000000e+00 0.000000e+00 9.183778e-01 8.162224e-02 0.000000e+00 0.000000e+00 0.000000e+00
 0.000000e+00 0.000000e+00 0.000000e+00 0.000000e+00 0.000000e+00 0.000000e+00 0.000000e+00 0.000000e+00 6.838453e-01 3.161547e-01 0.000000e+00 0.000000e+00
 0.000000e+00 0.000000e+00 0.000000e+00 0.000000e+00 0.000000e+00 0.000000e+00 0.000000e+00 0.000000e+00 0.000000e+00 9.349284e-01 6.507164e-02 0.000000e+00
 0.000000e+00 0.000000e+00 0.000000e+00 0.000000e+00 0.000000e+00 0.000000e+00 0.000000e+00 0.000000e+00 0.000000e+00 0.000000e+00 9.185415e-01 8.145854e-02
 0.000000e+00 0.000000e+00 0.000000e+00 0.000000e+00 0.000000e+00 0.000000e+00 0.000000e+00 0.000000e+00 0.000000e+00 0.000000e+00 0.000000e+00 0.000000e+00
<ENDHMM>
