~o
<STREAMINFO> 1 6
<VECSIZE> 6<NULLD><USER><DIAGC>
~h "proto"
<BEGINHMM>
<NUMSTATES> 12
<STATE> 2
<MEAN> 6
 3.909370e-01 3.173714e-01 1.461403e-02 1.380231e-02 8.425509e-03 -8.536721e-03
<VARIANCE> 6
 2.377696e-03 6.980134e-03 2.895072e-04 5.872915e-04 3.154625e-04 6.316509e-04
<GCONST> -3.099501e+01
<STATE> 3
<MEAN> 6
 4.473006e-01 3.053175e-01 3.102851e-02 7.027477e-04 2.136358e-03 -3.533874e-02
<VARIANCE> 6
 1.289799e-03 7.639855e-03 4.041120e-04 7.226893e-04 6.867907e-04 1.013523e-03
<GCONST> -2.972454e+01
<STATE> 4
<MEAN> 6
 4.865836e-01 2.861190e-01 1.543235e-02 -5.987640e-03 -1.915500e-03 5.404418e-03
<VARIANCE> 6
 1.023732e-03 5.831434e-03 1.790844e-04 8.632080e-04 2.420453e-04 1.078902e-03
<GCONST> -3.184224e+01
<STATE> 5
<MEAN> 6
 5.645926e-01 3.009667e-01 3.513514e-02 2.852957e-03 3.455114e-03 -2.243412e-02
<VARIANCE> 6
 2.799360e-03 4.362757e-03 4.160150e-04 1.126192e-03 6.849146e-04 2.136454e-03
<GCONST> -2.829428e+01
<STATE> 6
<MEAN> 6
 6.266827e-01 2.594949e-01 1.311083e-02 -5.846394e-02 -2.813691e-02 -1.471329e-02
<VARIANCE> 6
 3.959937e-03 3.738333e-03 4.297750e-04 6.568955e-04 5.813788e-04 7.509015e-04
<GCONST> -2.981796e+01
<STATE> 7
<MEAN> 6
 6.264712e-01 1.237427e-01 -2.492784e-02 -3.047502e-02 -1.470358e-02 1.874212e-02
<VARIANCE> 6
 4.014364e-03 4.619181e-03 6.809633e-04 1.175480e-03 9.232037e-04 1.219500e-03
<GCONST> -2.760321e+01
<STATE> 8
<MEAN> 6
 5.191829e-01 1.109222e-01 -2.159661e-02 -7.160662e-04 7.666167e-04 7.873742e-03
<VARIANCE> 6
 2.361012e-03 4.059636e-03 3.982433e-04 4.361825e-04 2.345454e-04 6.094656e-04
<GCONST> -3.185475e+01
<STATE> 9
<MEAN> 6
 4.647135e-01 1.330185e-01 -3.899473e-02 1.376990e-02 2.856598e-02 2.590824e-02
<VARIANCE> 6
 2.734957e-03 6.705937e-03 6.825975e-04 5.977661e-04 5.656072e-04 1.689718e-03
<GCONST> -2.845186e+01
<STATE> 10
<MEAN> 6
 4.046367e-01 2.128463e-01 -1.338604e-02 5.236388e-03 1.491938e-02 -4.090068e-03
<VARIANCE> 6
 4.999851e-03 1.166457e-02 7.036413e-04 1.224769e-03 1.274566e-03 1.230012e-03
<GCONST> -2.605241e+01
<STATE> 11
<MEAN> 6
 4.614019e-01 1.259708e-01 3.403946e-02 6.178785e-04 8.800521e-03 -6.074989e-03
<VARIANCE> 6
 4.012182e-03 5.012870e-03 5.188467e-04 8.224366e-04 1.313399e-03 1.623699e-03
<GCONST> -2.751223e+01
<TRANSP> 12
 0.000000e+00 1.000000e+00 0.000000e+00 0.000000e+00 0.000000e+00 0.000000e+00 0.000000e+00 0.000000e+00 0.000000e+00 0.000000e+00 0.000000e+00 0.000000e+00
 0.000000e+00 9.109082e-01 8.909182e-02 0.000000e+00 0.000000e+00 0.000000e+00 0.000000e+00 0.000000e+00 0.000000e+00 0.000000e+00 0.000000e+00 0.000000e+00
 0.000000e+00 0.000000e+00 0.000000e+00 1.000000e+00 0.000000e+00 0.000000e+00 0.000000e+00 0.000000e+00 0.000000e+00 0.000000e+00 0.000000e+00 0.000000e+00
 0.000000e+00 0.000000e+00 0.000000e+00 9.138635e-01 8.613650e-02 0.000000e+00 0.000000e+00 0.000000e+00 0.000000e+00 0.000000e+00 0.000000e+00 0.000000e+00
 0.000000e+00 0.000000e+00 0.000000e+00 0.000000e+00 8.822045e-01 1.177955e-01 0.000000e+00 0.000000e+00 0.000000e+00 0.000000e+00 0.000000e+00 0.000000e+00
 0.000000e+00 0.000000e+00 0.000000e+00 0.000000e+00 0.000000e+00 8.134664e-01 1.865336e-01 0.000000e+00 0.000000e+00 0.000000e+00 0.000000e+00 0.000000e+00
 0.000000e+00 0.000000e+00 0.000000e+00 0.000000e+00 0.000000e+00 0.000000e+00 8.774637e-01 1.225363e-01 0.000000e+00 0.000000e+00 0.000000e+00 0.000000e+00
 0.000000e+00 0.000000e+00 0.000000e+00 0.000000e+00 0.000000e+00 0.000000e+00 0.000000e+00 9.204962e-01 7.950384e-02 0.000000e+00 0.000000e+00 0.000000e+00
 0.000000e+00 0.000000e+00 0.000000e+00 0.000000e+00 0.000000e+00 0.000000e+00 0.000000e+00 0.000000e+00 0.000000e+00 1.000000e+00 0.000000e+00 0.000000e+00
 0.000000e+00 0.000000e+00 0.000000e+00 0.000000e+00 0.000000e+00 0.000000e+00 0.000000e+00 0.000000e+00 0.000000e+00 9.099540e-01 9.004602e-02 0.000000e+00
 0.000000e+00 0.000000e+00 0.000000e+00 0.000000e+00 0.000000e+00 0.000000e+00 0.000000e+00 0.000000e+00 0.000000e+00 0.000000e+00 8.654399e-01 1.345601e-01
 0.000000e+00 0.000000e+00 0.000000e+00 0.000000e+00 0.000000e+00 0.000000e+00 0.000000e+00 0.000000e+00 0.000000e+00 0.000000e+00 0.000000e+00 0.000000e+00
<ENDHMM>
