~o
<STREAMINFO> 1 7
<VECSIZE> 7<NULLD><USER><DIAGC>
~h "proto"
<BEGINHMM>
<NUMSTATES> 12
<STATE> 2
<MEAN> 7
 4.292396e-01 2.614188e-01 -2.055324e-03 2.215327e-02 -2.523522e-02 -6.759189e-03 1.338266e+01
<VARIANCE> 7
 4.185630e-03 4.667773e-03 4.859738e-04 2.646657e-04 4.281334e-04 1.234933e-03 1.989601e+03
<GCONST> -2.070156e+01
<STATE> 3
<MEAN> 7
 3.682845e-01 2.554182e-01 -1.726752e-02 -2.450567e-02 1.342684e-02 -2.875123e-02 1.576335e+01
<VARIANCE> 7
 6.514639e-03 4.941029e-03 4.512330e-04 7.166458e-04 8.553991e-04 1.094373e-03 2.678310e+02
<GCONST> -2.071436e+01
<STATE> 4
<MEAN> 7
 4.143734e-01 1.666592e-01 5.002129e-02 -3.898444e-02 3.990141e-02 2.855176e-02 2.286723e+00
<VARIANCE> 7
 4.619134e-03 3.966074e-03 1.361347e-03 8.642321e-04 1.676618e-03 9.594734e-04 1.810013e+01
<GCONST> -2.213952e+01
<STATE> 5
<MEAN> 7
 5.640861e-01 1.832155e-01 1.301310e-02 3.022934e-02 -3.410625e-02 4.303571e-03 6.800539e+00
<VARIANCE> 7
 6.298149e-03 5.418128e-03 1.716290e-03 5.679130e-04 1.148216e-03 1.560755e-03 1.832858e+02
<GCONST> -1.928258e+01
<STATE> 6
<MEAN> 7
 5.102296e-01 2.325211e-01 5.424337e-03 -1.160084e-02 2.774167e-02 5.772649e-03 2.669720e+01
<VARIANCE> 7
 4.331964e-03 4.298319e-03 1.077164e-03 4.130264e-04 1.152979e-03 2.184761e-03 4.568065e+03
<GCONST> -1.711636e+01
<STATE> 7
<MEAN> 7
 5.621317e-01 2.681485e-01 -6.502584e-03 5.228384e-02 -4.108161e-02 3.896877e-03 5.773348e+00
<VARIANCE> 7
 6.263521e-03 5.237939e-03 1.241858e-03 4.629074e-04 8.793722e-04 1.878385e-03 9.246470e+01
<GCONST> -2.061565e+01
<STATE> 8
<MEAN> 7
 4.907491e-01 3.434364e-01 -4.064808e-02 1.473258e-02 3.272351e-02 -2.689731e-02 2.468766e+01
<VARIANCE> 7
 5.107799e-03 3.466660e-03 3.748060e-04 2.506175e-04 1.289054e-03 3.676795e-04 1.216729e+03
<GCONST> -2.171532e+01
<STATE> 9
<MEAN> 7
 5.190747e-01 3.240051e-01 2.412852e-02 3.718577e-03 6.148840e-02 -6.711593e-03 1.384682e+03
<VARIANCE> 7
 1.159461e-02 7.110780e-03 1.336749e-03 1.256335e-04 5.015399e-03 5.892637e-04 1.236510e+08
<GCONST> -6.236780e+00
<STATE> 10
<MEAN> 7
 5.730565e-01 3.553398e-01 8.286259e-02 5.197726e-03 1.541844e-02 -5.535263e-03 -1.581004e+00
<VARIANCE> 7
 9.872110e-03 3.869855e-03 1.467983e-03 1.301771e-04 4.611402e-03 4.055673e-04 2.269934e+01
<GCONST> -2.284503e+01
<STATE> 11
<MEAN> 7
 6.838456e-01 3.103216e-01 3.424228e-03 -1.706997e-02 -2.420548e-02 1.669107e-02 -2.715479e+01
<VARIANCE> 7
 8.722880e-03 4.651803e-03 1.307992e-03 1.445960e-03 3.389540e-03 3.146105e-03 7.328280e+03
<GCONST> -1.297457e+01
<TRANSP> 12
 0.000000e+00 1.000000e+00 0.000000e+00 0.000000e+00 0.000000e+00 0.000000e+00 0.000000e+00 0.000000e+00 0.000000e+00 0.000000e+00 0.000000e+00 0.000000e+00
 0.000000e+00 8.562724e-01 1.437276e-01 0.000000e+00 0.000000e+00 0.000000e+00 0.000000e+00 0.000000e+00 0.000000e+00 0.000000e+00 0.000000e+00 0.000000e+00
 0.000000e+00 0.000000e+00 8.653274e-01 1.346726e-01 0.000000e+00 0.000000e+00 0.000000e+00 0.000000e+00 0.000000e+00 0.000000e+00 0.000000e+00 0.000000e+00
 0.000000e+00 0.000000e+00 0.000000e+00 8.643510e-01 1.356490e-01 0.000000e+00 0.000000e+00 0.000000e+00 0.000000e+00 0.000000e+00 0.000000e+00 0.000000e+00
 0.000000e+00 0.000000e+00 0.000000e+00 0.000000e+00 9.199501e-01 8.004989e-02 0.000000e+00 0.000000e+00 0.000000e+00 0.000000e+00 0.000000e+00 0.000000e+00
 0.000000e+00 0.000000e+00 0.000000e+00 0.000000e+00 0.000000e+00 8.933190e-01 1.066810e-01 0.000000e+00 0.000000e+00 0.000000e+00 0.000000e+00 0.000000e+00
 0.000000e+00 0.000000e+00 0.000000e+00 0.000000e+00 0.000000e+00 0.000000e+00 8.616575e-01 1.383425e-01 0.000000e+00 0.000000e+00 0.000000e+00 0.000000e+00
 0.000000e+00 0.000000e+00 0.000000e+00 0.000000e+00 0.000000e+00 0.000000e+00 0.000000e+00 7.494447e-01 2.505553e-01 0.000000e+00 0.000000e+00 0.000000e+00
 0.000000e+00 0.000000e+00 0.000000e+00 0.000000e+00 0.000000e+00 0.000000e+00 0.000000e+00 0.000000e+00 6.030680e-01 3.969320e-01 0.000000e+00 0.000000e+00
 0.000000e+00 0.000000e+00 0.000000e+00 0.000000e+00 0.000000e+00 0.000000e+00 0.000000e+00 0.000000e+00 0.000000e+00 8.615749e-01 1.384251e-01 0.000000e+00
 0.000000e+00 0.000000e+00 0.000000e+00 0.000000e+00 0.000000e+00 0.000000e+00 0.000000e+00 0.000000e+00 0.000000e+00 0.000000e+00 9.050880e-01 9.491199e-02
 0.000000e+00 0.000000e+00 0.000000e+00 0.000000e+00 0.000000e+00 0.000000e+00 0.000000e+00 0.000000e+00 0.000000e+00 0.000000e+00 0.000000e+00 0.000000e+00
<ENDHMM>
