~o
<STREAMINFO> 1 6
<VECSIZE> 6<NULLD><USER><DIAGC>
~h "proto"
<BEGINHMM>
<NUMSTATES> 12
<STATE> 2
<MEAN> 6
 4.258146e-01 2.581190e-01 -3.546083e-03 2.035023e-02 -2.447966e-02 -8.601916e-03
<VARIANCE> 6
 4.497556e-03 5.949270e-03 5.552336e-04 2.654506e-04 3.481544e-04 1.194960e-03
<GCONST> -2.992416e+01
<STATE> 3
<MEAN> 6
 3.597127e-01 2.357632e-01 -4.952291e-03 -2.603232e-02 1.795334e-02 -1.606966e-02
<VARIANCE> 6
 4.734452e-03 6.703977e-03 5.526824e-04 8.786956e-04 8.597624e-04 9.142169e-04
<GCONST> -2.792478e+01
<STATE> 4
<MEAN> 6
 4.449041e-01 1.411464e-01 6.553483e-02 -2.221308e-02 1.644193e-02 4.115138e-02
<VARIANCE> 6
 4.986817e-03 5.896613e-03 9.028825e-04 1.223634e-03 2.953791e-03 8.844738e-04
<GCONST> -2.597810e+01
<STATE> 5
<MEAN> 6
 5.605711e-01 1.460204e-01 7.342809e-03 2.260525e-02 -2.175836e-02 2.265096e-03
<VARIANCE> 6
 5.879747e-03 3.248632e-03 1.003529e-03 6.267644e-04 1.263155e-03 6.981403e-04
<GCONST> -2.805890e+01
<STATE> 6
<MEAN> 6
 5.116501e-01 2.277393e-01 2.334333e-03 -3.212573e-04 1.902089e-02 1.730390e-03
<VARIANCE> 6
 3.928925e-03 1.479591e-03 1.343626e-03 5.767945e-04 1.424981e-03 1.855162e-03
<GCONST> -2.794191e+01
<STATE> 7
<MEAN> 6
 5.506327e-01 2.256839e-01 4.051489e-02 4.265452e-02 -2.671715e-02 5.385267e-02
<VARIANCE> 6
 4.883831e-03 1.057766e-03 8.689033e-04 3.335262e-04 9.041002e-04 1.700878e-03
<GCONST> -2.958541e+01
<STATE> 8
<MEAN> 6
 5.572992e-01 3.115403e-01 -1.234528e-02 4.035713e-02 -2.399634e-02 -1.077776e-02
<VARIANCE> 6
 4.685537e-03 2.453664e-03 1.352176e-03 1.120108e-03 1.847425e-03 1.643636e-03
<GCONST> -2.645136e+01
<STATE> 9
<MEAN> 6
 5.012544e-01 3.615162e-01 3.378331e-02 6.261259e-03 5.229453e-02 -6.243993e-03
<VARIANCE> 6
 5.585335e-03 2.743175e-03 3.715101e-03 1.690107e-04 2.331730e-03 5.035385e-04
<GCONST> -2.799488e+01
<STATE> 10
<MEAN> 6
 6.837828e-01 3.550922e-01 5.382087e-02 -1.583238e-02 -5.496752e-02 -2.791964e-02
<VARIANCE> 6
 4.904876e-03 4.161649e-03 1.875125e-03 5.532634e-04 1.310179e-03 4.648481e-04
<GCONST> -2.786226e+01
<STATE> 11
<MEAN> 6
 6.925294e-01 2.821003e-01 -1.120417e-02 -7.925803e-03 -3.664776e-03 4.129489e-02
<VARIANCE> 6
 6.045719e-03 5.157406e-03 9.772663e-04 1.626485e-03 3.341658e-03 1.671484e-03
<GCONST> -2.479588e+01
<TRANSP> 12
 0.000000e+00 1.000000e+00 0.000000e+00 0.000000e+00 0.000000e+00 0.000000e+00 0.000000e+00 0.000000e+00 0.000000e+00 0.000000e+00 0.000000e+00 0.000000e+00
 0.000000e+00 8.688861e-01 1.311139e-01 0.000000e+00 0.000000e+00 0.000000e+00 0.000000e+00 0.000000e+00 0.000000e+00 0.000000e+00 0.000000e+00 0.000000e+00
 0.000000e+00 0.000000e+00 9.094422e-01 9.055781e-02 0.000000e+00 0.000000e+00 0.000000e+00 0.000000e+00 0.000000e+00 0.000000e+00 0.000000e+00 0.000000e+00
 0.000000e+00 0.000000e+00 0.000000e+00 8.500772e-01 1.499229e-01 0.000000e+00 0.000000e+00 0.000000e+00 0.000000e+00 0.000000e+00 0.000000e+00 0.000000e+00
 0.000000e+00 0.000000e+00 0.000000e+00 0.000000e+00 9.110035e-01 8.899648e-02 0.000000e+00 0.000000e+00 0.000000e+00 0.000000e+00 0.000000e+00 0.000000e+00
 0.000000e+00 0.000000e+00 0.000000e+00 0.000000e+00 0.000000e+00 9.004766e-01 9.952346e-02 0.000000e+00 0.000000e+00 0.000000e+00 0.000000e+00 0.000000e+00
 0.000000e+00 0.000000e+00 0.000000e+00 0.000000e+00 0.000000e+00 0.000000e+00 0.000000e+00 1.000000e+00 0.000000e+00 0.000000e+00 0.000000e+00 0.000000e+00
 0.000000e+00 0.000000e+00 0.000000e+00 0.000000e+00 0.000000e+00 0.000000e+00 0.000000e+00 8.878105e-01 1.121895e-01 0.000000e+00 0.000000e+00 0.000000e+00
 0.000000e+00 0.000000e+00 0.000000e+00 0.000000e+00 0.000000e+00 0.000000e+00 0.000000e+00 0.000000e+00 8.830958e-01 1.169042e-01 0.000000e+00 0.000000e+00
 0.000000e+00 0.000000e+00 0.000000e+00 0.000000e+00 0.000000e+00 0.000000e+00 0.000000e+00 0.000000e+00 0.000000e+00 8.436316e-01 1.563684e-01 0.000000e+00
 0.000000e+00 0.000000e+00 0.000000e+00 0.000000e+00 0.000000e+00 0.000000e+00 0.000000e+00 0.000000e+00 0.000000e+00 0.000000e+00 8.580902e-01 1.419098e-01
 0.000000e+00 0.000000e+00 0.000000e+00 0.000000e+00 0.000000e+00 0.000000e+00 0.000000e+00 0.000000e+00 0.000000e+00 0.000000e+00 0.000000e+00 0.000000e+00
<ENDHMM>
