~o
<STREAMINFO> 1 7
<VECSIZE> 7<NULLD><USER><DIAGC>
~h "proto"
<BEGINHMM>
<NUMSTATES> 12
<STATE> 2
<MEAN> 7
 4.276669e-01 2.559411e-01 -5.343236e-08 2.507688e-02 -2.637480e-02 -5.854483e-03 1.057422e+01
<VARIANCE> 7
 4.697075e-03 4.709874e-03 5.694461e-04 4.315771e-04 9.961311e-04 1.353995e-03 2.017332e+03
<GCONST> -1.897948e+01
<STATE> 3
<MEAN> 7
 3.640760e-01 2.701065e-01 -2.278101e-02 -2.447886e-02 1.308113e-02 -3.861596e-02 1.687600e+01
<VARIANCE> 7
 5.565878e-03 4.471838e-03 6.854624e-04 9.511868e-04 1.090400e-03 1.655413e-03 3.408527e+02
<GCONST> -1.937260e+01
<STATE> 4
<MEAN> 7
 3.790500e-01 1.761861e-01 4.170710e-02 -5.492783e-02 5.207885e-02 2.375140e-02 8.488508e-01
<VARIANCE> 7
 4.938294e-03 3.963517e-03 1.650184e-03 8.564335e-04 2.204463e-03 1.548459e-03 1.003788e+01
<GCONST> -2.172722e+01
<STATE> 5
<MEAN> 7
 4.998854e-01 1.313879e-01 6.182375e-02 2.114164e-02 -3.456979e-02 5.397725e-02 1.339432e+01
<VARIANCE> 7
 5.747409e-03 3.249765e-03 1.106474e-03 1.102022e-03 2.128403e-03 2.252138e-03 1.176026e+02
<GCONST> -1.912117e+01
<STATE> 6
<MEAN> 7
 5.551142e-01 2.223235e-01 -8.995021e-03 6.142094e-02 -3.963135e-02 -1.521845e-02 5.025121e-01
<VARIANCE> 7
 5.383975e-03 4.212555e-03 6.733409e-04 6.324916e-04 1.315131e-03 9.459676e-04 1.754622e+01
<GCONST> -2.323026e+01
<STATE> 7
<MEAN> 7
 5.146388e-01 2.794667e-01 -2.302957e-02 2.724505e-02 3.193698e-02 -2.945439e-02 4.512299e+01
<VARIANCE> 7
 4.497376e-03 4.086113e-03 2.798874e-04 2.274750e-04 8.258562e-04 7.590606e-04 5.347089e+03
<GCONST> -2.030709e+01
<STATE> 8
<MEAN> 7
 5.122768e-01 2.924261e-01 6.301670e-03 1.615693e-02 8.853880e-02 -2.659006e-02 5.172307e+03
<VARIANCE> 7
 4.978198e-03 4.247325e-03 1.634043e-04 1.285225e-04 3.427995e-03 7.118813e-04 1.993520e+08
<GCONST> -9.390499e+00
<STATE> 9
<MEAN> 7
 5.529774e-01 2.745248e-01 4.557830e-02 3.720649e-03 3.908987e-02 -1.484721e-02 -3.251372e+01
<VARIANCE> 7
 5.788940e-03 3.313890e-03 1.108272e-03 1.266261e-04 5.863083e-03 3.365250e-04 4.130257e+04
<GCONST> -1.628276e+01
<STATE> 10
<MEAN> 7
 6.070768e-01 3.035219e-01 7.782920e-02 1.921022e-03 8.562203e-03 -9.651930e-03 -1.503686e+00
<VARIANCE> 7
 7.385849e-03 4.068491e-03 1.104498e-03 1.512100e-04 2.802016e-03 2.904099e-04 9.806444e+00
<GCONST> -2.489133e+01
<STATE> 11
<MEAN> 7
 6.960862e-01 2.524719e-01 2.965365e-03 -1.588152e-02 -2.343200e-02 1.552245e-02 -1.792839e+01
<VARIANCE> 7
 5.801029e-03 4.252118e-03 1.419944e-03 1.236764e-03 3.247821e-03 2.606540e-03 3.070965e+03
<GCONST> -1.464707e+01
<TRANSP> 12
 0.000000e+00 1.000000e+00 0.000000e+00 0.000000e+00 0.000000e+00 0.000000e+00 0.000000e+00 0.000000e+00 0.000000e+00 0.000000e+00 0.000000e+00 0.000000e+00
 0.000000e+00 8.552924e-01 1.447075e-01 0.000000e+00 0.000000e+00 0.000000e+00 0.000000e+00 0.000000e+00 0.000000e+00 0.000000e+00 0.000000e+00 0.000000e+00
 0.000000e+00 0.000000e+00 8.526976e-01 1.473024e-01 0.000000e+00 0.000000e+00 0.000000e+00 0.000000e+00 0.000000e+00 0.000000e+00 0.000000e+00 0.000000e+00
 0.000000e+00 0.000000e+00 0.000000e+00 8.437809e-01 1.562191e-01 0.000000e+00 0.000000e+00 0.000000e+00 0.000000e+00 0.000000e+00 0.000000e+00 0.000000e+00
 0.000000e+00 0.000000e+00 0.000000e+00 0.000000e+00 8.404332e-01 1.595669e-01 0.000000e+00 0.000000e+00 0.000000e+00 0.000000e+00 0.000000e+00 0.000000e+00
 0.000000e+00 0.000000e+00 0.000000e+00 0.000000e+00 0.000000e+00 8.089437e-01 1.910563e-01 0.000000e+00 0.000000e+00 0.000000e+00 0.000000e+00 0.000000e+00
 0.000000e+00 0.000000e+00 0.000000e+00 0.000000e+00 0.000000e+00 0.000000e+00 6.727060e-01 3.272940e-01 0.000000e+00 0.000000e+00 0.000000e+00 0.000000e+00
 0.000000e+00 0.000000e+00 0.000000e+00 0.000000e+00 0.000000e+00 0.000000e+00 0.000000e+00 0.000000e+00 1.000000e+00 0.000000e+00 0.000000e+00 0.000000e+00
 0.000000e+00 0.000000e+00 0.000000e+00 0.000000e+00 0.000000e+00 0.000000e+00 0.000000e+00 0.000000e+00 5.361935e-01 4.638065e-01 0.000000e+00 0.000000e+00
 0.000000e+00 0.000000e+00 0.000000e+00 0.000000e+00 0.000000e+00 0.000000e+00 0.000000e+00 0.000000e+00 0.000000e+00 8.332739e-01 1.667261e-01 0.000000e+00
 0.000000e+00 0.000000e+00 0.000000e+00 0.000000e+00 0.000000e+00 0.000000e+00 0.000000e+00 0.000000e+00 0.000000e+00 0.000000e+00 9.105198e-01 8.948017e-02
 0.000000e+00 0.000000e+00 0.000000e+00 0.000000e+00 0.000000e+00 0.000000e+00 0.000000e+00 0.000000e+00 0.000000e+00 0.000000e+00 0.000000e+00 0.000000e+00
<ENDHMM>
