~o
<STREAMINFO> 1 6
<VECSIZE> 6<NULLD><USER><DIAGC>
~h "proto"
<BEGINHMM>
<NUMSTATES> 12
<STATE> 2
<MEAN> 6
 4.352076e-01 2.635010e-01 -2.410115e-03 2.382873e-02 -2.745381e-02 -7.410721e-03
<VARIANCE> 6
 4.929377e-03 4.999303e-03 5.657423e-04 3.000162e-04 5.855962e-04 1.019615e-03
<GCONST> -2.950399e+01
<STATE> 3
<MEAN> 6
 3.685519e-01 2.618784e-01 -1.943813e-02 -2.221514e-02 8.686100e-03 -3.061272e-02
<VARIANCE> 6
 4.611885e-03 4.333522e-03 4.736509e-04 5.493531e-04 2.733150e-04 1.006674e-03
<GCONST> -3.006103e+01
<STATE> 4
<MEAN> 6
 3.775631e-01 2.116111e-01 2.610278e-02 -6.687275e-02 7.121815e-02 6.921239e-03
<VARIANCE> 6
 4.697402e-03 3.673359e-03 1.876929e-03 5.675781e-04 1.736178e-03 2.276053e-03
<GCONST> -2.613376e+01
<STATE> 5
<MEAN> 6
 4.438818e-01 1.267132e-01 6.236432e-02 -1.196185e-02 5.342449e-03 3.865452e-02
<VARIANCE> 6
 4.130371e-03 2.183068e-03 1.191277e-03 5.171749e-04 9.383369e-04 9.893486e-04
<GCONST> -2.877887e+01
<STATE> 6
<MEAN> 6
 5.610064e-01 1.766920e-01 3.367454e-02 5.612156e-02 -6.043985e-02 3.213339e-02
<VARIANCE> 6
 5.450976e-03 3.281399e-03 1.416836e-03 7.785711e-04 1.255235e-03 2.193928e-03
<GCONST> -2.642406e+01
<STATE> 7
<MEAN> 6
 5.580180e-01 2.371298e-01 -2.205198e-02 6.356719e-02 -3.079302e-02 -3.201414e-02
<VARIANCE> 6
 5.667770e-03 3.906781e-03 5.506040e-04 2.509513e-04 4.205846e-04 8.308861e-04
<GCONST> -3.035237e+01
<STATE> 8
<MEAN> 6
 5.285642e-01 2.721294e-01 -1.666247e-02 3.084888e-02 2.346488e-02 -2.637787e-02
<VARIANCE> 6
 4.901672e-03 3.952677e-03 4.658893e-04 2.437881e-04 1.384560e-03 3.850001e-04
<GCONST> -3.025969e+01
<STATE> 9
<MEAN> 6
 5.797999e-01 2.944783e-01 6.422653e-02 5.452835e-03 2.649736e-02 -8.396478e-03
<VARIANCE> 6
 5.996016e-03 4.564939e-03 1.017737e-03 7.490027e-05 3.064850e-03 1.706736e-04
<GCONST> -3.033179e+01
<STATE> 10
<MEAN> 6
 7.145753e-01 3.032200e-01 3.665880e-02 -2.697931e-02 -4.994049e-02 -2.744831e-02
<VARIANCE> 6
 6.628063e-03 3.443284e-03 1.648686e-03 4.639780e-04 1.355795e-03 5.883976e-04
<GCONST> -2.778543e+01
<STATE> 11
<MEAN> 6
 6.901869e-01 2.309861e-01 -1.205045e-02 -5.203150e-03 -1.858438e-03 3.943957e-02
<VARIANCE> 6
 5.929783e-03 3.458948e-03 1.003443e-03 1.282255e-03 2.638765e-03 1.335831e-03
<GCONST> -2.588639e+01
<TRANSP> 12
 0.000000e+00 1.000000e+00 0.000000e+00 0.000000e+00 0.000000e+00 0.000000e+00 0.000000e+00 0.000000e+00 0.000000e+00 0.000000e+00 0.000000e+00 0.000000e+00
 0.000000e+00 8.616795e-01 1.383205e-01 0.000000e+00 0.000000e+00 0.000000e+00 0.000000e+00 0.000000e+00 0.000000e+00 0.000000e+00 0.000000e+00 0.000000e+00
 0.000000e+00 0.000000e+00 8.551577e-01 1.448423e-01 0.000000e+00 0.000000e+00 0.000000e+00 0.000000e+00 0.000000e+00 0.000000e+00 0.000000e+00 0.000000e+00
 0.000000e+00 0.000000e+00 0.000000e+00 7.770538e-01 2.229461e-01 0.000000e+00 0.000000e+00 0.000000e+00 0.000000e+00 0.000000e+00 0.000000e+00 0.000000e+00
 0.000000e+00 0.000000e+00 0.000000e+00 0.000000e+00 8.255514e-01 1.744486e-01 0.000000e+00 0.000000e+00 0.000000e+00 0.000000e+00 0.000000e+00 0.000000e+00
 0.000000e+00 0.000000e+00 0.000000e+00 0.000000e+00 0.000000e+00 8.165964e-01 1.834036e-01 0.000000e+00 0.000000e+00 0.000000e+00 0.000000e+00 0.000000e+00
 0.000000e+00 0.000000e+00 0.000000e+00 0.000000e+00 0.000000e+00 0.000000e+00 0.000000e+00 1.000000e+00 0.000000e+00 0.000000e+00 0.000000e+00 0.000000e+00
 0.000000e+00 0.000000e+00 0.000000e+00 0.000000e+00 0.000000e+00 0.000000e+00 0.000000e+00 8.259380e-01 1.740620e-01 0.000000e+00 0.000000e+00 0.000000e+00
 0.000000e+00 0.000000e+00 0.000000e+00 0.000000e+00 0.000000e+00 0.000000e+00 0.000000e+00 0.000000e+00 8.639952e-01 1.360048e-01 0.000000e+00 0.000000e+00
 0.000000e+00 0.000000e+00 0.000000e+00 0.000000e+00 0.000000e+00 0.000000e+00 0.000000e+00 0.000000e+00 0.000000e+00 8.147226e-01 1.852774e-01 0.000000e+00
 0.000000e+00 0.000000e+00 0.000000e+00 0.000000e+00 0.000000e+00 0.000000e+00 0.000000e+00 0.000000e+00 0.000000e+00 0.000000e+00 8.636916e-01 1.363084e-01
 0.000000e+00 0.000000e+00 0.000000e+00 0.000000e+00 0.000000e+00 0.000000e+00 0.000000e+00 0.000000e+00 0.000000e+00 0.000000e+00 0.000000e+00 0.000000e+00
<ENDHMM>
